-0.04133561
0.00458006
0.02212582
0.02382205
-0.02681496
0.02728668
0.01522651
-0.01617479
0.00072780
0.03495669
-0.02792941
-0.04131288
0.02346751
0.01588942
-0.06583481
0.03043402
0.02663951
-0.00690372
-0.01605477
-0.02971825
0.00561937
0.00919975
0.02772321
0.02603860
-0.02292852
0.02877955
-0.00239976
-0.01404941
-0.00368933
-0.01385652
0.00770296
-0.02783072
-0.02040625
-0.03295446
-0.00258331
-0.02212315
-0.02597650
0.01130461
-0.05182517
0.01053645
0.02002399
0.00528212
0.04559033
0.01609231
0.01724220
-0.03560632
-0.04861058
-0.01411075
0.00359873
-0.01367101
0.02754362
-0.01826289
0.02030236
-0.00670088
-0.02687461
-0.02410059
-0.04609476
-0.04130452
0.01405786
-0.01396870
-0.02420164
-0.01308454
-0.00631088
-0.01444941
0.03028850
-0.00075053
0.02998464
0.00972982
-0.02144311
0.00430111
-0.02330822
0.01398044
0.00836233
-0.02062862
0.02271434
-0.00172433
-0.01676818
-0.01789319
-0.01856434
0.03430815
0.01061701
0.00879011
-0.02547815
-0.03142409
-0.02090320
0.01177632
-0.06189996
0.00150485
0.05694382
-0.05671371
0.02593742
-0.00560618
-0.00774488
0.02019021
-0.01871419
0.01076927
-0.06613725
0.01984332
0.02414790
-0.00882801
-0.03142399
-0.01653939
0.03663049
0.01371727
-0.00954278
0.00048574
-0.02135683
-0.05489704
-0.02068572
-0.02266570
-0.01959791
-0.00710798
-0.01498465
-0.00894270
-0.01000922
-0.00394455
0.00810995
0.02429057
-0.01144608
0.00642492
-0.03843460
-0.03814512
0.01288551
0.02492609
-0.02328771
-0.00334820
-0.02655810
-0.02274213
-0.03368948
-0.04974051
-0.05819126
-0.00632063
-0.01704511
-0.01366113
0.02824624
-0.03252113
-0.01663696
-0.02282026
0.01503646
-0.00382463
-0.00007778
-0.01040487
0.00831248
-0.02157803
0.01477721
-0.04326903
0.01986839
-0.00748341
0.01088688
0.00926013
-0.01234603
-0.00433019
-0.02523133
0.02449076
-0.00206701
0.03097134
0.02151572
0.01983518
-0.03137185
-0.00766327
0.00434756
0.02546884
0.03232196
0.00295009
-0.01830575
-0.01789092
0.02193900
-0.05175617
0.01792577
0.01565598
-0.02719068
-0.00957995
0.02223241
-0.03475342
-0.04295377
-0.03714683
-0.04302092
-0.00346508
-0.01041599
-0.01500555
-0.02078297
0.00680236
0.02678935
-0.02568964
-0.01062695
0.03741525
0.00455375
-0.01300541
0.01323611
0.00196041
0.00927729
-0.05915486
