0.10384835
0.03513186
-0.06622943
0.01600704
0.05626546
0.09790155
0.03450548
0.05207866
0.02802768
-0.09620109
0.00213851
-0.00370215
-0.00105435
-0.05101585
-0.02968592
0.02406934
0.00809736
-0.02220459
-0.02861314
0.00173329
-0.04087622
-0.09320798
0.05959343
0.02511727
0.09113877
0.03318703
-0.00777854
0.05711735
0.07239424
-0.00734680
0.06896186
-0.03426445
0.04604937
0.08460531
-0.05627767
0.07480530
-0.06180352
0.04355334
-0.01979025
0.03364528
0.03556879
-0.06363836
0.06676329
-0.05823965
0.02889666
-0.08585285
0.04827402
-0.05244683
-0.06265137
-0.03602448
-0.01027203
0.05562894
-0.05001663
-0.02798072
0.01890697
0.03268030
0.05700054
-0.01385738
-0.00790426
0.05232209
-0.01718720
-0.06229894
-0.04249241
0.05399128
-0.06402148
-0.05428600
-0.02320220
-0.07649194
-0.09034902
0.01064243
-0.02646696
-0.00685855
0.12937804
-0.07708838
0.01722109
-0.08196272
0.05389734
-0.08035969
0.06853721
0.00584420
0.06114952
0.01820554
-0.08187621
0.04442656
0.08657719
0.01965652
0.03421735
0.01508615
-0.04947756
0.00860477
0.00520419
-0.04238018
-0.05556703
-0.02278609
-0.06705585
0.02656135
-0.03633510
0.05308485
-0.03583676
0.04820343
0.06683434
-0.00055758
0.00714549
-0.03878708
-0.07395722
-0.02432451
0.02351913
-0.06014666
0.06661788
-0.05706084
-0.04087772
0.07170533
0.01155819
0.03605949
-0.05678419
-0.05362188
-0.03256255
0.02365228
0.07720182
0.01123743
-0.09302438
0.02022221
-0.05095140
-0.10384159
-0.01777313
0.02547656
-0.05770759
0.02267417
0.05539283
-0.00842413
0.03331570
-0.02364473
0.02934260
-0.04982682
0.02524362
-0.03891965
-0.09307572
0.01518448
0.04329199
0.01189022
0.03060750
-0.00228908
0.02594640
0.01719555
-0.02909739
0.03801944
0.02490865
-0.03567144
-0.00018077
-0.03359297
-0.02573613
0.01412262
-0.02072371
0.07032733
0.01653785
-0.05937538
-0.05172634
-0.07166156
-0.00675148
0.04827897
0.05638378
-0.01315142
-0.04809654
-0.02356877
-0.06153789
-0.03460508
0.07958670
-0.06648794
0.06052987
0.06504229
0.03570511
-0.07940878
-0.06828500
0.09577171
0.07210983
0.02264292
-0.02443309
0.04434582
0.00038268
-0.02541181
0.05851596
-0.03143377
0.00092664
-0.07432466
-0.00189772
0.00508680
-0.08802982
-0.01022948
0.01001355
-0.01455032
-0.00415263
-0.01206356
