0.16124958
-0.74183410
-0.37440580
-0.05704364
-0.75271183
-0.03236566
-0.64055783
0.79091978
0.37212548
0.30848277
0.06106167
0.66422868
0.26443619
-0.60102415
-0.09169648
0.07752246
0.38280109
0.42423624
-0.64490813
-0.15938251
0.69867527
0.00447783
0.55359888
-0.42849028
-0.49949738
0.58276278
-0.26659685
0.30129427
-0.48597631
-0.71163321
-0.31119731
0.57962537
-0.81418604
0.35140949
0.07807977
0.29284647
0.18737371
-0.47055674
-0.48164380
-0.43991691
-0.22783768
0.28298050
-0.22446638
-0.42301077
-0.07216309
-0.47382233
0.00400779
0.06698529
-0.36258969
-0.73821640
0.63374174
0.62590373
-0.05012694
-0.47072291
0.77878219
-0.07307861
0.50888377
0.04187980
0.38363928
0.53172487
0.68126482
-0.74188346
0.77333874
-0.69148940
-0.14261849
-0.29855385
-0.52022362
0.59537852
-0.19849418
0.68473184
-0.79245549
-0.14044373
0.17359911
-0.56382215
0.52285898
-0.06766583
-0.18632838
0.31462732
-0.14631361
-0.49555561
0.06787059
0.14759460
-0.51892942
0.46387652
0.07858702
-0.21580249
0.69516289
-0.00067740
-0.09777609
-0.14461605
-0.45350516
-0.38786736
0.24168910
0.65104580
-0.59009743
-0.55902594
-0.79545367
0.80446070
-0.58811647
0.21311162
0.17941749
0.11168621
0.86705053
0.03170959
-0.16171099
0.47393730
0.33827341
0.12676901
-0.19517477
-0.49377513
0.07268648
0.11060770
-0.06058020
-0.02818367
0.47366515
-0.42285857
-0.32684350
0.03254045
0.64482415
-0.82235461
-0.58172351
0.83062673
0.00531607
-0.64496076
-0.47277212
0.74536693
0.35789463
-0.33897966
-0.39282650
-0.08634106
0.61307204
0.21102700
-0.06270497
0.79498678
-0.31407341
-0.02669955
-0.07090867
-0.59123164
-0.28177935
-0.26851854
0.75413734
-0.01434940
0.06405976
-0.31222549
-0.63038385
-0.18631460
-0.11332191
0.81950867
-0.05181253
-0.87023097
-0.43849021
-0.65183580
-0.28437543
-0.58289373
-0.41847625
-0.10076942
0.30776706
0.29680011
0.22583197
-0.12512311
0.51556867
0.15851435
-0.61801136
0.43814975
0.72015363
-0.03846777
-0.18941134
-0.21475877
-0.16379209
0.40015677
-0.03059857
0.45825619
-0.82843614
-0.26773992
-0.08888134
0.79031968
0.67112619
-0.10589682
0.00708058
0.36969283
-0.66886431
0.19949530
0.31393176
-0.15734074
-0.55807120
0.30660126
0.03870681
0.86481547
0.68407857
0.14435606
-0.69272941
0.47777525
