-0.08285046
0.03070796
-0.03549658
-0.09444268
-0.05184519
0.07968666
0.00017906
-0.00503020
-0.02571227
-0.07557176
0.00245220
-0.01792999
0.07056890
0.05015965
-0.03784613
-0.03034382
-0.02690047
-0.01556279
0.04832588
0.05074998
-0.00736395
-0.03167950
0.05885351
0.00209212
-0.03462787
-0.05122735
-0.02061875
-0.04731977
0.01504553
-0.06616867
-0.05783428
0.06122637
0.00102031
-0.03659651
-0.05191579
-0.01197626
0.02813509
0.10589142
0.08473276
-0.08288155
-0.02368282
0.01593166
-0.00731873
0.06936022
-0.03098243
0.07463988
0.02564610
0.08652936
-0.03229977
-0.03045110
0.01516275
-0.03100387
0.01059187
0.04773536
-0.04022241
-0.04525345
0.05966575
0.07403544
-0.03448918
-0.06254344
-0.06535146
-0.02750885
0.00908414
-0.07570063
0.01223552
-0.00485279
-0.06384932
0.01013160
0.03771789
-0.02971565
0.05058598
-0.02743619
0.02678057
0.02616456
-0.01793937
0.09627097
-0.05316931
-0.00539235
0.01345161
0.03260095
-0.02679479
0.06114568
-0.00500152
-0.05645476
-0.07527345
0.00264570
0.00479375
0.01772780
0.03743014
-0.02939597
-0.04915269
-0.02937147
-0.03119773
0.02960405
0.04019306
-0.06133967
-0.09193479
0.00849304
-0.04625386
0.08675995
0.00385917
-0.04603666
0.06450091
-0.03300446
0.04911125
0.04054938
0.06744629
-0.05812481
0.06853628
-0.07013145
0.01145433
0.03560281
-0.04345281
-0.02740328
0.01995586
-0.00268643
0.01056707
-0.01679975
-0.00169435
-0.08288998
-0.00757320
0.04154371
0.01618312
0.02985042
0.02105187
0.02349668
-0.06047362
-0.06008656
-0.03960045
0.05114702
0.00855833
-0.00523259
0.03977832
0.03735940
-0.03144333
0.09111472
-0.03084099
0.01554383
-0.04834608
-0.08401516
-0.00763913
0.01046101
0.06091272
-0.00668505
-0.04153316
-0.03610916
-0.01366454
0.04060027
0.04592752
-0.01457324
0.07560205
0.02207367
0.03488241
0.02468387
-0.04254951
-0.00721373
-0.06656772
0.03199376
-0.00370267
0.03462201
0.01609527
0.05063113
-0.08770604
0.04832758
0.08241942
-0.03123161
-0.06189718
-0.03929820
-0.02747908
-0.04174904
-0.02088218
-0.02458369
-0.04072454
-0.02682041
0.05813465
0.03169151
0.02047856
0.01106827
0.01916596
-0.06351934
0.02643807
0.05046781
-0.08589794
-0.02656204
0.07387007
0.03242296
0.05875699
0.07777204
-0.01866114
0.05575243
0.02812422
0.03317192
