4
-5
18
-16
63
-12
-33
14
-56
-36
-23
-41
37
1
-26
6
16
38
36
25
3
28
39
-27
-17
38
25
-22
-16
-51
-19
24
-29
-81
31
24
15
3
14
-2
-31
3
-11
38
-6
-69
-10
37
-29
-15
-35
-14
-34
-32
-21
9
24
53
-21
-16
34
-35
-16
41
35
-62
26
29
46
43
60
28
29
30
-2
2
15
-25
1
35
15
3
30
-28
-38
-3
63
2
-21
-8
10
7
5
-43
23
2
-3
10
-2
72
65
-36
-58
11
-76
58
-58
-5
-54
11
87
-54
-44
49
-17
64
54
-6
28
-55
7
47
-43
42
46
-36
60
-35
-13
7
10
-50
-33
19
-41
58
2
-17
19
60
67
-9
23
35
8
-39
60
36
72
-35
-12
-67
-49
-60
8
-35
29
33
-47
57
-53
-35
-17
-20
41
26
17
-25
15
12
57
47
-37
0
-22
-6
-16
18
5
-4
5
-23
-33
32
15
5
9
58
-5
-35
-21
62
63
-49
-47
-28
17
-7
-17
31
27
-10
14
42
26
23
41
53
-22
-7
29
13
-4
21
14
30
9
4
-13
-1
-11
-6
30
6
-12
-20
-10
25
4
30
-5
-38
-39
-22
-9
-10
-4
-22
0
1
-46
-7
-25
50
3
-40
-29
57
31
-14
-28
7
23
-32
-65
28
34
-53
46
32
4
36
52
9
-22
-19
63
-48
-32
21
-64
-32
-64
-15
15
52
-16
-19
-62
-23
-29
-31
59
-62
18
-11
-31
94
12
53
68
-10
35
-50
-43
-22
-84
-1
-36
-62
-57
27
61
-41
-38
35
-25
-3
47
40
38
-17
27
6
21
7
40
5
8
-10
23
14
4
-49
-13
-23
20
10
-31
18
-9
20
37
-37
13
45
-15
67
-15
48
52
27
-44
-42
-42
24
-8
35
4
-45
-55
41
-29
4
-26
-36
34
-8
-16
17
76
1
27
39
-27
-9
-41
13
-2
27
-22
13
28
-29
58
34
-1
65
1
42
46
21
52
36
-6
-10
32
7
-13
1
-5
-7
8
19
20
-14
-16
8
0
5
-21
-17
-43
-8
-30
15
-40
-4
-44
-41
52
10
-46
18
15
-24
-36
6
-39
-6
53
-77
-55
24
65
-20
38
49
15
35
2
-12
-22
-46
12
-19
11
-12
50
-16
18
19
-12
-16
2
-9
17
6
-7
-25
-15
22
19
-15
-6
13
-41
-15
53
-29
-2
40
-25
-23
-42
20
58
25
-1
-19
-14
-41
-11
-2
66
-66
19
1
-31
81
16
41
-54
-14
14
6
-25
26
-4
-17
-39
-28
4
48
6
-35
66
-11
22
-46
-17
-1
25
32
-45
-3
26
-33
15
22
-13
-4
25
7
-31
19
27
18
14
4
7
13
-4
14
-7
-9
12
-1
77
62
-40
21
28
-6
51
55
-73
-12
28
-1
65
-65
13
14
-47
-42
57
-22
31
58
-21
-70
-15
-36
-14
-23
24
61
-23
-33
-11
-57
4
54
21
-55
21
2
-11
-37
35
48
34
39
28
2
1
13
33
-6
-67
20
31
-50
4
73
12
-2
-54
41
51
15
-50
-43
-26
-32
-26
-20
-26
-29
37
-35
3
47
-34
63
-16
-20
49
48
-24
-33
64
-45
-24
82
34
-36
27
36
4
93
64
-33
17
20
-3
-53
29
-4
21
-26
30
51
29
-24
21
8
29
-5
-18
-18
-25
32
-10
-30
-24
10
1
0
-11
-6
4
-17
1
10
3
34
29
39
55
-9
14
14
28
-18
30
-8
-37
0
-4
6
-26
-20
-44
-33
-16
38
36
-20
30
-14
21
-2
55
6
-39
45
26
-9
13
-33
-42
9
-4
27
-32
-11
9
-3
-30
22
-9
58
1
29
18
1
11
-46
4
3
1
-31
-1
-11
-34
29
-6
-49
23
2
-47
-19
-39
8
27
77
8
4
38
0
19
-55
73
-12
28
-15
78
13
0
-5
-46
10
-59
-36
-19
-40
39
73
-6
-60
-43
12
46
32
22
-30
-34
-11
15
-31
25
21
-17
29
-1
14
-43
-14
4
1
24
15
-22
-8
26
-46
-31
13
36
29
35
0
34
0
-5
17
-1
-13
50
21
-25
29
-38
-47
38
-11
10
1
16
15
51
-15
-44
42
40
-14
-11
47
-29
-16
-11
-67
14
56
22
-21
17
4
-1
-2
15
9
-10
31
46
18
-33
-14
5
-20
-23
32
-39
-43
-31
-3
-25
-41
7
34
-74
67
39
-75
29
58
68
41
-13
-76
24
83
32
84
92
-3
-72
84
6
10
37
-85
-28
-65
7
3
-59
0
30
-47
9
-55
28
12
14
-12
-47
48
-37
-46
3
-11
-1
-20
-74
-21
32
3
-14
-5
29
-33
36
-19
-51
33
-1
-48
-19
-34
-51
20
23
-12
27
15
46
-8
7
40
-60
-38
58
-71
-60
-5
11
27
89
-7
-53
12
-27
40
45
-37
45
18
10
10
-4
-26
2
28
8
55
-27
-11
18
-53
-6
39
32
-29
-12
-44
-65
16
-14
-19
-14
39
4
-42
-20
-55
-11
-10
6
-7
-9
11
14
-6
22
9
-39
-4
14
5
40
4
-52
-3
12
-9
14
-5
14
-6
8
-33
14
5
1
1
3
-35
-2
-4
-25
-36
-19
13
-34
-31
-8
-14
-30
-41
-15
-36
-11
4
6
-12
-22
-28
-47
13
3
-32
-14
19
16
-7
-60
-21
24
10
-25
42
2
-29
29
20
29
29
31
5
-7
3
103
-96
-50
17
-95
-81
-73
-72
12
36
-28
-42
-28
-68
-98
-8
28
-52
63
1
-85
108
19
53
9
16
46
-60
-42
17
-65
62
-71
-28
-85
23
25
-72
39
64
-40
24
35
7
44
3
-15
26
-20
-21
28
35
-2
-1
24
-20
-37
-14
19
47
-18
44
-19
-6
37
19
0
-38
11
-1
5
15
3
62
38
-35
-24
-56
-74
-29
24
6
19
-46
-69
20
-55
12
-50
-48
32
36
-6
-3
4
-32
46
23
-53
42
-14
-2
21
24
7
24
38
-27
-5
34
46
21
44
29
-11
-16
42
14
-41
-13
-35
22
66
-24
-44
36
-20
-50
-3
39
83
27
1
13
67
41
17
34
46
-13
39
53
21
28
19
-65
-11
-48
7
-4
-78
-33
-27
33
-23
-11
-4
-66
-12
21
-76
-32
-37
-56
-41
49
6
8
11
30
19
4
-32
29
-29
-9
-17
1
-24
38
-10
-32
-32
-18
-11
-15
-10
5
-22
-15
-34
-38
31
-38
-44
3
-11
-25
0
-45
7
-57
-54
-15
-2
-35
-71
-4
-4
18
2
-42
-73
45
15
10
11
-28
54
-55
-25
40
-18
25
-58
-31
-18
41
-15
-23
-8
63
-11
13
3
-4
21
14
-20
44
20
11
19
-21
-25
-41
57
-62
-44
-45
-37
13
27
44
-26
23
37
5
12
-38
56
16
34
-38
55
23
-9
11
-17
-69
-12
-24
-2
-21
-20
45
-71
5
7
21
-64
-25
33
25
22
5
40
14
-44
-1
-25
-59
-9
55
89
-17
-39
5
-8
47
16
-16
-32
-15
-21
-9
13
-26
33
-22
-1
-4
40
18
-4
59
7
8
-21
56
-15
-64
-8
-26
-30
2
-35
-14
-22
-37
-6
-41
-11
-29
4
8
47
9
-23
39
-16
5
0
-31
-27
-11
44
-16
-33
40
34
-44
33
37
27
-4
49
3
-12
-14
-12
-9
-50
-42
49
-5
40
65
-34
-50
32
-37
38
24
39
-20
-18
29
56
-7
14
14
30
29
0
-43
2
-18
8
-4
-14
-4
18
36
-10
0
75
-18
22
-31
30
-7
17
2
-18
12
-26
33
2
45
45
-13
-64
-30
-31
16
-5
6
-33
-14
19
-47
19
17
-6
43
42
-53
50
-31
20
-17
-10
2
-32
31
39
26
-39
23
-13
7
-16
5
-45
0
-10
-30
-30
20
-4
29
-12
-13
7
10
-6
41
39
-2
8
-37
-32
-57
26
-26
17
5
-12
-6
-60
-40
0
-10
-16
45
0
-41
-18
-62
-6
16
8
18
12
-32
-65
15
58
-5
-13
-32
-19
14
-10
-40
9
23
-21
15
-19
21
38
-7
10
-17
17
-10
-41
19
41
-23
-3
-17
2
-15
40
28
7
0
24
-11
20
22
11
-5
17
-3
-77
5
58
-34
-13
20
35
8
71
19
-2
52
37
-37
-32
23
-5
-36
-44
-10
-18
15
-6
-19
-35
10
10
-28
-27
11
16
-17
-21
-15
-15
-18
-9
-6
4
0
37
24
32
-1
47
18
28
18
-29
57
7
-33
32
71
56
63
-33
31
-18
31
-19
24
69
0
-7
-10
3
15
31
-14
-7
-34
30
5
17
-47
20
-51
-40
-48
-6
17
13
9
50
-9
-90
-62
2
75
31
56
-27
-81
28
13
-45
19
47
-61
45
-52
-44
12
33
-54
-70
-61
-81
1
7
-51
2
18
46
11
-10
13
-74
26
31
-6
-29
26
-17
-10
-6
32
-21
51
-42
22
-11
0
36
36
-25
33
-55
-24
38
64
42
25
40
50
-39
-2
-23
39
23
44
15
-16
10
7
8
38
5
63
22
34
15
-37
10
14
23
-58
-25
-49
76
-27
-51
39
27
-68
-1
2
10
30
8
23
33
20
72
53
28
39
56
43
-27
76
-39
-46
58
-22
3
16
5
-66
48
32
-25
10
41
-20
-58
61
-50
37
-45
-32
-13
27
-30
-24
-40
-33
-32
-9
-30
2
14
23
2
-45
-3
-21
-5
54
13
-6
-10
2
-4
17
44
0
18
58
-30
30
25
-65
24
54
59
11
-13
-9
-80
46
23
60
66
-5
-36
32
43
-27
67
-30
-12
0
-10
6
10
-47
-1
-42
-51
29
-11
33
-16
-14
18
-3
-45
5
8
20
17
35
-13
-23
82
11
-46
29
32
-83
43
-58
-68
35
11
-66
-87
-65
-75
31
-33
-54
-5
43
77
-20
22
69
-32
-44
50
-12
11
-22
-63
-20
58
-26
-8
6
-17
35
-8
-1
-11
6
1
12
22
22
38
30
34
29
-24
16
-11
-41
-6
33
15
-17
-55
12
-24
6
14
13
-9
60
-11
51
-4
-72
-12
12
41
-25
-40
-15
-25
-12
-13
34
-17
4
38
34
20
5
0
1
-12
-8
11
49
-3
1
8
-17
-40
22
39
30
3
-6
33
-45
-9
-6
-65
-7
29
-16
5
6
50
-1
17
35
-3
3
28
-17
-43
-42
-16
-14
-19
-6
-26
27
17
-3
2
-40
-6
-23
-35
15
5
-37
51
32
33
74
39
-12
-5
53
33
-60
-13
37
-52
-24
-57
-3
48
27
-35
-8
22
-65
-54
52
42
-44
5
-54
-28
97
40
54
-2
15
33
-19
-34
44
-31
49
-46
-3
-67
35
16
-27
36
54
8
39
15
15
60
21
-31
-7
50
3
-33
42
-10
-9
60
-1
-35
-6
-4
55
16
-20
-37
16
2
-25
6
-16
41
17
14
46
-7
73
68
1
-6
-46
-34
-39
-7
-6
26
-17
-53
68
-52
-39
8
-40
30
72
17
-1
-13
-40
-1
51
-27
28
-10
-20
-7
23
48
-3
-6
-27
20
-1
-15
-9
-26
47
-36
-11
-16
-7
35
21
33
39
-83
14
37
-37
36
39
1
-2
-45
20
25
-34
-71
-36
-44
-57
-63
15
-25
-82
-29
-49
22
52
-52
71
-15
-68
27
19
-45
-7
49
-52
-54
37
45
-60
62
53
18
25
66
-13
14
11
-3
-55
-35
-14
53
-2
34
35
14
-33
52
-14
35
35
6
-7
24
12
43
-40
2
27
40
-10
-13
-38
6
-25
20
24
-38
50
46
52
37
-13
30
-15
20
-39
31
-69
-8
14
28
34
-4
-19
-5
-14
-11
-1
11
10
-7
-12
-23
23
-22
-22
10
13
12
27
26
1
15
-3
17
4
11
-15
18
19
1
34
31
21
3
42
42
43
25
-45
10
-34
47
-33
-28
-41
-39
28
-32
0
36
36
-65
53
-11
-33
65
19
-22
6
12
28
5
-73
36
-24
2
3
56
34
-8
-6
-54
-12
-60
-76
47
-18
22
66
27
-86
-68
15
62
13
23
-68
-35
29
33
1
21
50
1
38
-16
3
-50
67
22
12
-45
23
33
-33
16
51
-13
-27
-55
-11
-17
-68
6
-33
-17
-63
-42
-35
-53
-6
97
-75
39
-2
-14
32
-31
-23
-35
22
-19
8
-9
32
1
19
23
-53
49
-60
28
16
-33
-68
-8
31
37
13
3
36
21
-35
-21
-41
-5
39
40
53
13
-53
-3
1
-11
-9
13
-75
-29
-5
-46
-102
16
-26
-73
61
-72
-98
-62
-38
8
22
17
-88
-84
-87
-29
-44
71
-57
28
24
-83
55
-16
43
-27
-43
-4
16
0
54
6
3
-3
-45
-9
52
-66
-21
37
45
-25
-75
-33
-4
22
13
-58
-2
53
0
12
23
-2
5
13
9
-6
54
61
7
46
4
22
1
-27
-47
-44
2
-25
-31
27
20
-59
5
26
-30
30
88
-58
22
41
26
33
-80
48
-7
6
-46
39
-1
-16
13
-46
-47
-8
-34
34
-32
24
60
-19
-44
-56
-52
8
-14
12
-52
18
-3
-3
-26
21
-23
43
63
59
-44
-4
-12
-4
38
-32
-10
24
12
-67
23
-9
-14
27
4
-32
-58
-7
-5
-18
25
11
1
4
-47
-48
-13
56
27
2
26
2
-54
-39
-33
-76
-47
-1
-23
-53
19
36
3
17
21
3
-11
14
-23
33
-8
32
-23
6
-23
-11
15
-42
-2
-6
-19
-4
40
-10
-31
7
2
12
-36
-1
-13
-24
-25
15
6
17
-30
-26
35
-18
-22
-24
-55
-8
-40
24
-9
28
-25
-65
18
37
-2
-25
-27
-8
21
49
-7
-61
-16
27
49
-14
65
41
25
-29
6
-21
-7
24
-38
53
28
26
-56
-18
-39
7
23
-26
17
59
-32
5
26
-46
33
84
-69
-25
44
75
52
65
-7
-27
45
31
-46
-21
-20
53
-17
57
9
-28
12
49
-44
32
-38
-49
0
39
-21
11
-20
-44
17
-49
1
-26
-16
41
61
24
-33
-59
-4
-19
-36
66
-37
30
14
38
-12
34
1
-40
15
-18
-7
-53
-37
-39
-8
-28
-28
-45
-53
-83
82
48
73
-11
57
78
-53
-48
65
-26
-69
-48
-79
-60
-77
-23
-12
-59
-77
-21
-94
-62
-31
20
-47
52
29
-11
36
-26
-50
46
48
-11
-23
8
-1
-38
26
37
7
41
1
43
32
11
-62
42
36
33
-11
30
25
46
4
-31
24
27
27
15
29
46
-29
-63
63
-21
-31
-17
-35
-47
-3
42
-58
-27
36
-28
-28
17
-18
35
2
-11
-35
80
7
29
-1
39
-13
-32
-4
-31
30
1
-53
-14
2
-68
-8
-39
64
6
9
88
-27
7
0
42
-21
-29
23
41
24
25
-4
-51
-30
-33
40
-62
-48
42
13
-25
91
23
23
6
41
37
77
46
29
42
-44
16
14
-48
-31
-60
35
-66
-39
37
-47
-58
-18
-3
9
69
25
46
-17
9
24
-25
-3
46
-9
31
-34
63
-2
-38
-12
-32
-28
-86
40
-45
-20
39
-22
25
-13
-1
23
34
-17
-70
-32
-33
-38
-5
-51
5
-53
-59
36
-20
-40
7
-29
13
-37
-7
-2
6
29
43
19
-3
-1
-15
19
52
27
-11
6
5
9
-25
8
33
-6
81
17
-23
-19
43
-10
2
39
45
48
40
30
-32
29
38
-32
-22
1
1
-49
-12
18
-16
19
-21
12
23
13
-21
-8
-2
42
-6
-24
-21
34
2
20
-14
-20
31
23
-17
-12
-29
9
-26
7
14
7
-2
4
-31
-25
4
-2
38
47
8
16
-2
10
-35
-18
8
-37
-27
-3
-2
5
1
-2
-16
-22
28
33
-13
-34
-5
-13
-45
-46
-10
-26
43
6
6
28
-74
-41
-15
42
14
37
-35
-66
27
-2
-45
4
-4
-5
7
1
-57
16
39
-30
-30
-53
-38
-2
28
-17
15
22
0
20
-16
29
-72
30
27
2
-43
41
-29
-5
-14
56
-25
28
-50
8
0
-62
43
40
11
37
-3
-53
-15
47
49
13
40
33
-60
14
-50
17
4
-2
9
-11
45
34
6
17
63
38
10
-20
35
-2
17
25
35
-18
-23
25
-8
15
-36
17
13
11
34
7
44
-18
-43
-5
-27
18
30
7
13
40
-6
-19
15
-2
-4
-12
-17
-22
31
15
-2
7
-8
-2
-4
-30
12
7
20
-34
28
25
29
21
0
-2
-59
-27
-15
-13
-47
-25
-7
45
42
-43
-35
20
-3
-10
-34
14
34
-50
8
17
23
51
39
29
-25
31
60
-47
1
68
-30
-77
-72
-21
27
72
-32
-70
-29
-37
-97
-7
36
-51
13
-36
-38
93
-6
35
38
18
60
-31
-77
45
-26
17
-23
-53
-70
22
41
-34
-9
43
-45
3
26
32
63
-33
3
35
21
-35
-24
45
-27
7
34
-29
-4
26
9
36
49
3
-19
24
15
-18
10
-15
-6
34
7
60
3
35
72
7
3
-19
-99
-29
-9
13
36
-52
-42
30
-19
9
-28
-17
43
28
-6
14
28
-24
25
8
-60
45
-20
-29
-19
36
27
35
41
6
30
53
-9
-5
3
30
41
39
-2
41
12
15
31
-30
-77
4
32
-36
13
50
4
-1
-3
46
0
-10
-43
-4
-35
-4
-25
5
-52
-12
26
-60
38
36
-61
49
15
-45
16
15
-9
-31
47
-17
-57
20
49
-48
67
12
50
36
19
-12
-11
-26
-41
22
-28
-23
14
22
50
-23
-16
29
19
-23
-37
-5
23
15
-5
25
12
-1
-14
29
-49
-8
14
-77
12
52
-41
-53
-41
6
39
39
8
-30
13
-22
-72
-20
67
-76
23
-31
-80
72
3
18
-8
-21
-6
9
-27
15
-8
36
-44
-14
-47
5
-4
-15
58
19
-4
4
11
-5
58
42
-27
-25
40
-34
7
21
-43
35
25
-20
7
48
29
31
57
-19
-6
16
22
-54
-46
-18
31
-45
52
17
-56
56
56
1
38
-4
-68
1
65
-3
28
-57
-5
21
-9
-37
49
-11
53
19
-20
-62
-26
-65
50
-9
17
22
17
-45
-46
-2
-6
13
41
-52
25
56
0
1
-5
0
11
46
9
6
-13
4
6
17
7
-11
21
-20
-41
-23
9
-14
20
5
-7
-7
-27
-30
24
6
24
21
2
-25
-66
14
-11
34
-14
15
2
6
-42
-35
7
-9
51
-76
27
41
26
-33
-6
90
37
-3
25
9
-35
-47
-15
-47
-31
-34
34
5
26
70
-44
-35
46
-51
24
56
46
-31
-3
51
43
25
14
59
3
78
-19
1
25
-37
-16
-13
15
27
28
0
-21
4
48
24
19
8
-10
3
19
-25
-6
6
-15
20
-44
46
61
-40
-32
1
1
13
-25
7
-60
30
56
-43
-9
28
32
40
48
-50
31
-16
31
34
-55
-6
13
-50
26
13
-31
31
-21
-4
-31
-28
-37
-8
-6
4
-7
46
33
-22
25
17
9
-36
24
42
29
-33
27
-49
-37
-9
-6
-55
12
16
-37
43
-58
2
-35
-57
15
46
9
-50
-10
-30
-14
24
-12
6
2
-29
2
-2
33
21
10
-8
-31
12
-50
-19
-10
27
-12
-15
-27
37
0
0
-43
-1
30
-25
-15
27
5
-55
18
33
54
31
13
34
-11
36
57
41
33
-1
11
9
-39
40
-6
19
-31
-11
-21
-16
-52
-81
11
-16
34
-41
23
-9
5
-25
-16
68
45
-7
20
45
-5
-71
-24
6
-39
-36
22
19
-3
17
-42
-47
-1
-23
-28
61
13
-36
25
22
24
32
18
7
-5
61
12
-6
6
-5
-29
-28
8
-42
57
7
-59
16
64
-2
-51
11
13
37
24
-46
-42
58
29
9
-42
0
52
-19
-36
-3
-52
24
-28
0
-77
28
7
-34
-17
42
7
6
34
-46
30
-6
-18
45
-16
2
-13
-40
6
-53
7
-13
-44
-25
-18
28
-20
26
-32
5
14
24
49
-7
52
31
48
-53
67
71
33
-62
-6
-35
-33
-7
30
-25
17
7
-42
54
-82
-47
-9
-37
48
54
15
-51
22
-23
-19
36
-30
-24
17
21
4
-6
29
-12
-24
20
46
30
-3
14
5
8
-17
-28
-5
34
3
-2
-14
-17
-10
1
-31
22
30
-50
28
61
-28
35
43
11
31
49
34
-8
23
28
9
55
4
4
-60
-45
44
-12
24
3
-1
13
5
10
-22
9
15
7
-20
24
-36
7
-13
5
-7
42
39
-35
-11
-2
31
3
23
-5
14
8
15
-27
-28
14
24
-23
-37
7
-37
11
-31
-24
-30
-18
-25
31
-15
15
-11
8
25
14
48
18
-13
-35
4
60
-39
41
12
-3
-15
27
43
-18
10
-37
17
-37
-12
-34
-73
6
22
-40
-3
-58
-10
-6
56
10
-6
62
-7
-15
-19
-38
-4
31
-39
27
59
19
-4
29
32
-34
-15
-52
-30
-34
-8
4
0
-59
-24
24
1
-41
-5
50
54
23
-14
29
-19
27
21
-45
-56
-5
18
5
33
39
-46
-2
-31
-3
44
-43
8
0
-3
2
-24
-10
-4
45
11
7
-38
25
-29
-4
0
40
40
-28
-62
4
11
58
34
21
-10
60
-31
23
31
-9
27
13
-16
-45
-9
-21
82
-19
-21
44
-39
-50
0
17
36
2
-34
25
43
53
62
41
52
26
27
20
21
63
-50
-55
-8
-39
0
53
-76
-35
54
-1
-62
48
31
-89
-26
4
-59
-30
-53
-75
-24
59
-5
-46
-31
18
-30
-11
-48
34
16
12
-10
-28
-3
-12
-35
5
-8
-11
30
29
-3
-14
17
-24
22
36
25
25
10
-1
-25
-14
43
-38
19
-48
-74
45
12
-35
-8
9
24
46
39
-37
-2
14
5
51
52
22
31
-54
-45
-7
-31
64
1
-28
-66
1
31
-45
-41
48
-3
48
49
14
10
-55
46
3
-45
18
-6
-26
36
-52
5
-8
-30
-60
-73
20
-45
19
-45
-51
14
45
44
-9
20
45
-52
-37
31
-1
33
-17
-60
-76
-14
-4
-46
-7
-29
25
-42
-18
-18
10
-70
-31
-19
29
68
25
40
35
7
3
-44
-28
-31
34
41
11
-44
-23
6
44
19
-10
16
14
11
-17
30
-54
-17
1
1
23
-23
3
-53
27
38
-7
27
56
33
-4
-13
7
13
-21
-40
-40
0
-28
-34
-28
-19
-19
19
-51
37
42
-39
42
21
12
-14
27
-26
10
-10
2
-29
47
39
-32
36
12
-5
41
-25
-51
-29
8
-29
-23
13
20
-1
8
17
-18
-20
14
16
18
-22
-26
28
-2
-4
26
-4
-21
7
-21
-44
-43
64
-51
-46
42
-46
-66
-71
-36
4
94
-23
-61
-24
-40
-81
-21
36
-33
15
23
-86
114
17
21
-14
-33
34
-34
9
14
10
43
-15
-16
-2
59
24
-49
38
32
-32
-57
16
-7
17
43
-36
11
18
-36
-41
56
-53
50
79
-39
-13
40
60
40
72
1
14
43
-8
-25
-7
-35
11
-37
57
60
-59
66
32
-23
5
41
-63
26
40
-3
39
-56
20
23
-45
-3
6
-4
12
36
-35
-9
20
-49
63
-1
16
26
-40
-54
-37
-31
8
28
41
-29
45
17
16
5
35
-13
25
68
14
33
3
13
-14
23
-22
5
-14
-5
-55
-15
12
-12
7
18
16
4
-48
3
-10
25
24
27
19
-15
-30
15
48
62
18
41
26
-53
-11
-19
-69
-58
4
-30
-17
61
10
-2
-12
48
40
-15
50
-16
5
-48
-38
7
22
-8
-8
20
35
-8
-28
-24
25
-34
11
48
22
-18
-11
-11
22
34
30
33
-6
62
-23
-44
2
38
-15
10
-26
-29
-2
-4
13
4
57
-14
2
59
22
7
-32
-60
7
32
9
13
-58
-18
12
20
-5
-2
-23
28
-3
50
-51
7
14
-36
32
46
-12
1
19
-23
-8
5
-15
6
35
-14
17
-20
-49
4
40
-29
-16
20
2
25
33
-32
-38
63
-3
-25
-23
-49
45
-5
50
8
46
36
7
-50
-5
-46
-33
-21
32
-50
26
4
-12
61
-56
-10
-5
-35
58
66
-3
-53
-8
-46
-37
-7
24
-1
30
-29
-7
22
61
-12
19
26
14
10
-24
-15
4
13
-33
18
-41
22
-32
18
25
53
44
22
23
-25
-26
8
-47
-37
37
-39
-17
-8
-8
9
-11
0
32
-10
-1
-23
-16
12
36
-35
-5
-36
-17
-2
-50
-67
-8
-16
34
-36
22
-22
22
14
-25
40
-10
-18
12
28
19
-7
-27
-25
-28
16
4
-2
12
32
32
-45
32
25
35
45
-18
23
-12
24
9
-52
-1
-10
4
-20
-42
29
-17
-32
36
-2
41
-53
45
-34
-14
35
41
-9
12
8
-27
31
-12
-39
-1
-53
-30
-43
-62
23
19
25
13
-8
55
58
11
43
-33
-2
-10
-39
13
39
45
-1
-3
-79
43
-5
8
-13
-3
21
19
7
30
7
29
15
4
-31
-34
30
2
-8
-16
-12
-3
-5
17
29
-24
5
-31
-63
30
27
17
-25
17
-26
64
-47
-7
-31
1
34
-3
-44
-45
-15
-15
-35
-21
39
36
-35
-38
46
-47
-14
45
-31
36
42
24
-17
17
0
-38
15
-61
-9
-45
-35
23
17
-11
-42
-28
-51
31
15
20
-18
-73
54
-21
-37
28
37
33
-27
-53
0
36
18
-58
-29
8
8
-22
32
-31
-38
31
-69
-30
19
-25
41
-3
-6
63
25
19
-19
14
1
-50
52
28
-27
42
-17
43
39
0
-13
23
-6
-1
14
-13
6
-5
-2
-1
-33
-16
31
0
-3
-43
-13
-2
18
4
-6
-18
16
-10
1
13
-12
-46
-12
28
26
57
28
-23
61
-26
52
64
-14
7
26
25
-1
28
-31
-19
45
32
-22
-19
-32
13
-8
-12
-10
38
-46
6
-29
16
25
25
-4
11
16
16
-33
3
7
-5
0
-40
-4
-7
-46
2
-5
-53
51
-8
40
30
33
44
18
20
15
1
-60
7
-2
7
-1
-7
3
-6
0
-20
13
-32
-24
-4
50
8
50
-35
18
-1
57
19
-12
35
2
9
20
11
25
-13
-55
-50
1
-8
-13
39
-11
12
34
2
-49
-25
39
58
38
3
-17
-26
38
40
2
35
14
8
14
10
23
29
-20
-20
0
-27
-23
-5
25
-17
10
-7
12
13
2
-49
-34
5
-16
15
8
34
34
-29
-2
-15
3
64
19
9
20
-18
-49
-16
7
-65
-23
-5
-29
-46
48
8
0
-13
17
26
-14
26
17
-15
-1
-38
-20
-32
-28
-22
14
-5
-17
-17
-29
11
6
12
14
45
-37
45
26
24
33
46
12
-19
15
44
-57
2
29
-26
-19
-58
-36
8
32
13
-49
31
-26
-71
20
-4
7
-22
-49
-15
91
9
7
-19
-2
44
-24
-43
64
-2
56
-11
8
-79
30
22
-77
44
28
-34
19
8
-36
30
21
-27
29
45
-39
13
-2
-8
5
67
-21
-27
16
-3
53
61
-8
-33
38
31
-35
-33
-49
10
10
20
15
17
24
42
-51
19
-11
-35
-48
37
-68
31
11
-25
52
-50
-53
-39
-52
70
59
-16
-31
-38
0
2
6
-3
22
9
-12
-5
-22
-8
-13
17
-8
32
-10
-13
-5
16
51
1
8
-1
20
10
-16
-12
24
0
26
10
15
-19
27
-33
-34
-1
-40
-22
-21
-40
-48
7
-2
-34
-4
16
-60
0
7
7
27
-25
20
-18
-28
-17
19
-6
-16
25
-6
-39
40
43
3
22
2
26
0
6
-21
9
16
41
5
31
-13
-19
-1
3
-27
11
22
-4
13
-32
-25
-6
20
-27
-50
8
38
-25
-38
26
7
-44
-25
18
-7
2
33
26
27
-17
21
41
-1
61
-1
-7
57
-46
-15
-55
-4
-11
-29
-2
13
-35
-13
23
10
-10
-5
-17
-2
55
16
-44
-50
17
-42
20
5
60
18
5
-39
11
23
-22
-47
21
-16
-31
54
-7
11
55
-32
-18
59
29
19
79
-17
-2
60
-15
-25
-15
10
3
-16
23
-20
29
1
-27
-20
-19
4
8
-21
15
-15
11
21
8
21
-1
-29
6
11
-7
6
-9
-24
-64
13
-12
-27
48
-2
13
-24
-16
58
42
-38
-43
25
-5
-25
11
-32
-7
-21
-64
1
-47
-6
9
-18
-26
4
20
-2
-2
-6
-52
-3
-9
-19
34
-19
-51
-45
-20
-21
10
25
11
4
-43
-14
-23
6
60
11
-25
19
-21
-58
-48
-25
-63
-43
26
-48
-29
0
53
-38
41
8
49
19
3
-53
17
-6
12
-38
-12
-33
24
7
-16
21
-26
-28
-6
-9
24
9
-4
-28
2
-10
-3
13
15
8
-2
-39
4
-66
0
4
-51
-51
-37
-25
47
-22
0
-20
21
-37
-69
6
48
9
26
-8
-44
69
8
49
-55
-33
15
15
-20
67
-11
51
5
20
-37
0
22
-44
46
64
22
-3
-17
-30
41
64
-25
-20
48
-23
15
28
-12
42
84
-16
-24
31
42
43
31
15
0
70
18
-45
-44
15
6
-15
59
9
-6
52
31
-50
46
13
-49
-16
62
-61
26
-41
-31
67
-29
-13
27
-54
10
47
-15
-46
-30
-34
-9
-12
14
-2
30
2
16
-38
31
7
-7
-36
6
21
-55
-59
5
0
6
32
-42
6
59
-47
3
-27
-24
27
-43
28
32
-28
-10
16
-32
15
48
60
-13
-42
18
-2
15
7
23
11
68
2
-26
-20
19
-39
32
47
23
8
53
27
-11
43
47
-3
-48
28
-26
14
-8
26
5
15
-44
-27
1
-17
-37
-33
25
12
32
-40
-2
-8
-16
-35
-31
-22
12
2
1
38
35
15
38
-2
-20
11
29
-5
19
9
-14
-24
-8
36
3
81
-33
32
-53
1
25
-32
32
-47
51
-1
-1
21
16
7
64
5
-34
-53
-8
-51
-33
-30
18
1
21
19
2
36
-77
-30
6
5
31
33
-20
-64
20
15
-6
37
-4
-36
7
-22
-23
4
42
-24
1
-42
-17
19
21
-23
30
9
36
5
-31
45
-33
60
7
-26
-35
12
-10
23
9
32
-52
23
-3
-37
22
-59
30
49
38
17
0
-12
-36
29
34
-12
16
26
-65
41
-34
-16
-17
8
4
7
46
-13
45
44
44
20
37
46
35
35
39
18
0
-45
-28
-24
74
-37
-45
38
-56
-54
36
12
13
20
-8
19
41
28
19
64
23
9
25
31
-60
41
15
22
35
0
37
-20
-75
-50
-57
-42
12
-36
-38
-14
30
18
-9
-1
35
-30
-20
29
25
-32
-28
-6
38
14
-34
6
-15
24
4
-20
-12
4
28
33
-33
22
18
-37
-38
34
12
-21
4
-9
39
-37
-13
31
-32
-25
-31
-54
-10
-84
7
-10
60
-11
-18
80
-7
48
-5
-26
-29
-25
13
-7
-9
-1
2
-26
-7
19
-2
0
-3
0
-55
-1
33
0
48
23
9
-39
-9
0
-1
26
-26
60
2
-9
23
-15
-36
11
25
-72
-71
16
27
47
36
16
-79
61
13
8
31
-17
75
2
38
-44
80
-25
22
-28
-20
-53
31
-21
8
-48
16
30
-17
70
-8
-8
-77
-43
51
46
30
-45
-3
31
-74
6
11
-74
9
28
30
-35
-45
-49
-32
59
-4
19
-69
-41
-58
-1
-22
-22
-36
-19
19
-28
-18
-12
-34
-41
-42
-2
20
-42
17
23
-10
43
25
32
8
-33
34
55
43
14
-10
-28
-34
6
34
18
-10
6
19
-13
-21
-38
-50
7
36
-54
-20
54
26
-28
21
58
44
-4
47
5
1
-21
-27
1
-44
-29
-19
5
24
-4
-32
-52
39
-57
-35
43
51
-52
26
25
24
37
47
37
-50
30
38
-49
15
12
-34
-38
-33
11
51
63
-27
-31
-16
-17
-42
32
46
-48
57
-60
-58
87
-12
63
-19
-33
18
-25
-60
-14
2
3
-52
5
-42
55
47
-37
28
56
0
-16
22
9
9
6
-2
-1
-14
-22
-13
-29
-3
-27
42
-48
-25
2
8
1
24
36
-40
29
20
-11
0
-54
46
-11
65
47
-29
51
52
-24
33
10
-70
-10
59
-11
78
-73
-49
33
-26
-44
34
-18
67
59
-27
-16
-4
-69
18
32
-3
13
2
-38
-19
-33
-14
46
17
-15
45
20
-23
22
-2
70
12
0
-3
59
-6
-4
-19
12
65
-54
-2
34
-62
-81
-24
-3
80
-28
-52
41
41
46
48
68
36
-19
53
20
-22
68
-3
-54
67
-64
35
11
-23
-26
26
5
-3
4
24
-13
-66
48
-72
-31
-29
-78
-10
25
8
-7
3
25
-5
-24
-28
8
6
22
-16
15
-8
31
-5
5
-18
12
-7
-14
11
32
22
-23
-12
36
6
5
33
-48
2
31
15
5
3
-44
-55
22
19
51
37
40
-36
61
-15
-28
39
-20
-18
-12
9
39
21
-46
-33
-13
-9
-14
-10
13
-42
-20
44
-5
-14
18
-25
43
38
26
11
-49
35
52
-21
-3
7
-26
-15
-53
33
-12
-6
-22
-53
4
-25
-14
-42
-27
4
24
45
-20
3
1
-48
-43
57
-52
17
21
-24
-38
48
-28
-13
-10
-8
61
-31
4
-5
7
-74
10
-1
13
55
50
13
33
-17
55
21
-41
-14
37
49
37
-51
-14
-59
63
-21
0
-8
12
-43
-12
-4
-68
-19
-49
-15
-16
-5
24
45
-36
-17
19
-49
-38
-21
13
55
-31
-73
-28
-5
0
37
12
31
11
6
6
3
20
-8
-5
12
-20
3
2
-77
-26
-44
18
-20
-27
34
-40
-29
8
-24
-23
-26
-11
-33
35
5
-38
-48
3
2
-50
-3
44
28
-59
-12
-20
-29
-16
-30
1
30
-35
34
-16
-32
33
37
-19
24
7
43
-23
-24
24
-36
-22
-61
-61
-26
15
-37
2
16
-38
-38
38
-3
-6
19
-22
-77
70
19
76
8
47
63
-25
-43
45
-31
72
-11
10
-96
16
64
-87
27
55
-36
22
35
-17
79
1
8
19
2
30
4
-2
-22
-38
55
5
-13
-36
-23
53
18
33
-46
14
5
-8
41
-2
21
36
16
-10
35
50
22
7
-35
-56
-37
-12
25
-24
6
0
-79
59
-21
-20
-44
-39
2
65
36
-2
24
9
21
-4
-29
-21
19
37
59
48
-25
-31
-15
23
7
-5
15
-14
15
37
-17
-2
17
31
38
-33
-30
-25
-48
12
-29
25
0
-28
12
49
13
50
-6
48
-4
-3
5
20
10
17
1
-4
-31
35
0
8
-26
-1
7
-55
-51
-30
-46
-40
34
-63
-35
62
10
-60
16
79
39
7
17
1
-45
-28
-8
-15
-20
-62
31
-3
18
-4
-3
-48
46
-46
6
44
26
-62
11
13
29
66
11
51
16
78
4
-49
30
15
-20
-7
-21
-18
44
47
-21
-9
44
-29
-61
49
33
3
50
-34
-10
68
45
38
-23
4
49
-33
-14
8
-10
0
-26
2
-45
37
20
-18
-16
34
-28
0
23
-21
37
14
25
12
-23
-30
6
-22
-8
-12
-20
-36
-14
-10
35
-20
6
34
-11
28
20
16
15
-18
47
-5
57
-14
27
38
25
-51
20
-6
-23
12
39
-63
17
-32
-22
38
-33
-38
-25
-20
48
83
-14
-60
-28
-75
-10
29
-8
6
-12
-16
-6
-9
42
50
34
-1
24
6
-40
1
12
21
14
8
-25
55
-30
48
27
58
10
23
58
13
-32
24
-47
-45
5
-1
-62
-13
10
-13
-30
-16
16
-60
-30
-2
-31
-8
0
-24
-43
-15
-68
-14
-30
-53
23
-15
-2
-47
31
-7
-10
-44
34
63
4
-33
51
9
11
17
28
-31
-34
-27
70
-7
-20
67
33
-48
26
-14
43
25
-43
7
-33
32
12
-22
-14
-9
37
-19
-69
26
15
-59
-3
22
13
-1
20
-32
-19
10
14
41
47
0
-54
59
-1
-37
39
-43
6
-19
-77
33
3
75
48
18
37
36
-10
74
9
-48
-24
30
43
22
15
7
-30
-80
15
52
18
-57
-37
6
-20
11
49
26
-2
-5
12
-9
-1
-12
-22
12
10
-55
-26
18
-11
35
-12
-30
29
-84
-21
34
-6
-73
14
-9
33
-26
40
0
-17
-11
-14
-48
-24
-8
2
-18
18
37
35
-57
-18
-12
-15
-47
19
-13
43
16
1
6
3
-31
-44
10
-50
-25
-7
-33
28
25
-61
5
-71
-13
-35
39
9
16
-21
10
-10
-4
-28
27
-36
-14
-16
-19
9
-28
-8
-38
-29
-53
-59
-37
5
-37
-36
-40
41
54
3
37
-32
-30
38
11
-6
-15
44
11
-36
26
-9
-24
31
-21
44
9
31
-6
3
42
42
23
-16
28
-16
4
0
5
20
-11
-18
-22
1
-21
-29
13
-48
-20
-9
-1
13
-14
63
52
-93
25
27
-10
48
36
42
15
-36
-7
81
50
39
61
86
8
-38
-3
-93
38
87
-56
-17
-38
-32
23
-18
20
48
-23
20
-38
76
73
15
-69
-22
4
-14
-62
67
-4
-44
7
-16
19
-23
-34
34
2
-9
18
35
56
-22
27
1
37
5
-5
-3
-57
38
-10
-15
-57
-55
4
-54
-50
-34
-12
15
-1
-47
30
49
40
45
-13
-27
35
-48
45
14
-14
36
-28
6
18
-29
-36
1
10
-19
7
-22
-3
18
-17
61
15
-2
6
29
-10
-30
-24
-26
-58
-21
-14
-14
-13
-51
-22
-21
-18
-37
43
37
9
-16
3
62
-19
20
66
-3
-30
-31
-10
24
-62
-9
-22
-24
-54
-2
2
-82
-42
27
-25
18
39
2
16
4
-22
9
20
12
0
7
-19
-55
8
53
-1
45
-11
0
35
-1
-12
20
50
4
-16
26
27
38
-50
-18
30
38
11
37
48
18
-31
-8
0
-15
3
-25
-26
-24
3
-25
-60
20
-27
-19
-12
-18
-33
-53
-30
-16
1
26
-46
-55
-20
5
-57
26
-9
23
24
-11
25
-21
6
-23
-41
-28
76
40
34
86
-43
-15
-16
60
-15
-34
22
61
-22
-17
-48
-50
1
-19
67
-28
-39
28
-29
-22
44
-9
14
-20
20
-7
71
53
-21
4
-27
0
23
16
-8
-24
25
-16
-21
32
27
-98
6
8
-22
81
98
-26
4
10
-12
19
-49
80
-38
14
-16
50
15
-32
-17
-76
-5
-17
-14
-59
-58
34
9
32
-45
-49
-58
21
-3
20
-34
-38
-21
-22
-63
17
-21
13
62
24
-40
-25
-44
5
-16
50
-53
-28
12
-40
-23
5
14
20
1
-29
16
27
54
24
55
28
-2
-9
2
-33
13
10
-38
17
-16
-16
-22
-99
-71
-45
16
-26
-14
-4
-20
-10
-3
-25
12
-28
-29
10
35
-51
-46
-12
13
-52
-5
0
-12
37
2
-13
-20
39
-5
-16
15
35
-14
33
49
40
0
39
35
-1
7
75
-74
-29
27
-75
-76
-40
-81
21
-20
-77
-11
-43
-49
-33
-20
63
-6
35
-42
-74
55
28
65
10
-13
21
-56
-39
67
-53
63
-35
-38
-34
36
20
-24
7
88
-16
14
18
0
57
12
2
53
-26
6
37
-31
7
-15
13
13
-59
-22
-14
9
-28
41
-38
9
-1
36
22
-46
6
32
26
-42
2
52
53
-40
13
-52
-54
-22
44
-39
21
-14
-62
59
-34
2
-44
-90
18
70
57
-33
3
-15
4
7
8
-12
-28
7
28
-12
-6
-2
6
-11
45
-4
-50
-26
8
40
9
-27
8
-26
-7
39
-8
2
-19
11
31
-32
16
51
11
-37
-45
-36
23
-30
-15
15
-30
-41
-39
-34
-25
1
44
-36
-29
34
25
40
-10
-35
11
54
20
14
-14
33
-40
-12
25
28
12
-46
-23
29
-5
-25
17
38
70
-4
18
67
21
23
-63
-19
26
19
-19
16
1
-49
-73
33
-9
-68
-63
-7
-36
-16
0
-59
-29
37
-2
2
29
26
31
2
-39
-45
34
8
-3
68
52
1
-40
44
-27
13
52
-57
8
-63
-17
-39
-36
47
40
23
44
-45
24
11
50
-47
-30
53
17
-42
57
-30
-82
18
-67
-11
-25
-8
9
-42
-28
15
15
46
38
3
-1
35
36
-21
45
-25
44
31
-40
-33
-12
27
-21
-46
-49
-21
-20
-47
-27
-9
38
28
48
4
-17
-3
-59
-9
80
-53
41
0
44
27
-39
-55
-1
23
-37
47
-46
-63
54
-44
37
49
3
-35
-11
-61
-53
17
-8
-13
-27
-18
-29
-77
4
-30
-35
-71
-16
-36
-28
34
63
-33
12
49
-40
-3
-3
-32
29
-41
-55
24
26
43
2
3
25
-17
71
19
-1
14
8
-15
25
-23
-1
49
2
-45
41
16
7
42
50
-12
-20
52
-44
4
7
-52
-16
23
40
16
11
27
31
-12
-22
13
0
5
13
-22
-28
9
-23
24
-8
17
-28
-31
-17
25
26
15
48
11
-57
48
38
-40
42
65
77
-4
2
-50
-1
38
38
45
55
48
-76
60
-65
-15
85
-82
4
-30
13
53
1
-32
24
-37
11
2
35
12
-15
-6
13
33
-27
-21
38
39
23
-3
-27
-58
42
-10
-19
50
1
-52
23
-2
-22
32
30
-43
-45
-29
-28
22
-22
2
-23
34
27
21
-30
22
-41
-58
76
-5
-42
45
-55
-69
20
-28
-54
9
-45
105
-37
23
23
27
-48
-10
0
-25
41
48
-39
70
-46
2
10
-68
24
55
20
49
-2
-71
-30
36
-12
-40
-5
23
-30
-24
-49
-58
-58
-5
39
-20
-22
-12
-22
5
-15
3
-27
3
-3
5
29
-8
16
24
-67
-32
6
-5
-13
13
11
-21
-34
17
17
58
2
32
-3
11
51
59
21
-23
46
-26
-9
3
-14
16
-14
-14
-8
-6
27
23
-11
-36
-14
42
6
10
-21
42
2
2
13
4
-18
-41
-2
-3
25
4
-4
-22
-29
56
30
-44
18
41
-31
37
45
-41
57
76
32
76
-1
4
40
43
59
82
63
31
-68
27
-79
14
61
-80
-22
-17
31
-4
7
-6
32
-34
1
-43
25
20
-4
-58
1
3
-68
-28
43
57
40
20
-28
-29
4
-33
22
-31
9
5
-2
3
-13
23
-2
-13
16
-32
-7
-26
12
21
11
-11
-2
-14
-22
-35
-28
11
44
-12
-15
51
-48
-41
38
4
-13
35
-47
67
-44
12
43
22
-28
62
-1
3
34
24
-48
17
29
50
15
-5
36
-28
-10
63
66
4
-27
-4
-6
-9
16
45
-10
19
-23
-23
-7
-3
-30
54
-1
-14
-46
11
44
-39
7
29
4
14
2
-16
11
9
6
-25
-42
-54
-18
-53
-26
-10
90
-49
10
-14
-14
12
15
-35
9
42
4
47
-35
24
-8
-17
8
-16
14
-51
-6
21
-46
-47
21
20
37
-36
0
5
7
12
9
-38
6
30
19
46
6
-59
-21
-15
-27
-27
-11
-22
-36
-33
-28
-82
80
-67
-68
64
-49
-98
-79
-23
15
11
-6
-91
-61
-62
-53
-40
74
-22
19
1
-71
72
-6
38
-8
-21
8
-17
18
33
6
28
-30
-50
-23
62
-16
-20
46
9
-53
-62
-1
19
43
52
-10
-40
-1
7
-7
32
-25
9
19
15
-19
26
21
13
67
-5
39
52
-10
-16
-60
26
-8
-30
36
52
-83
-2
-13
-21
1
72
-24
24
21
46
2
-59
55
-33
-4
9
31
-24
0
-33
-35
-26
-7
-4
15
-45
-3
36
-51
10
-28
-19
1
-6
23
-6
25
12
23
-36
50
-32
55
48
60
-44
-63
38
2
43
16
40
50
-8
-39
40
-18
-11
21
-41
-59
-31
-40
24
-13
7
-13
-14
-45
-7
-13
7
74
8
-58
43
-32
-48
-68
-27
-43
-12
12
-37
-50
3
16
-2
0
8
34
21
47
-42
44
39
20
-52
-18
-10
26
-16
-42
48
31
-26
24
22
60
-4
-22
4
-34
3
4
-41
11
14
10
9
16
-9
-20
-3
-4
-21
-10
-33
30
-29
-21
17
50
-24
-22
20
-6
47
-2
-12
17
10
27
-13
-31
14
16
15
-15
15
45
39
9
41
-23
-28
12
-16
82
52
30
-15
-55
-33
31
78
-5
-16
40
-39
-17
31
14
51
62
0
0
35
54
21
34
-32
-36
6
14
-19
-13
7
4
-44
36
-10
23
34
34
-63
42
9
-5
-43
64
-35
27
-3
1
-5
-59
-60
-20
-60
27
46
33
-60
-44
-14
-56
-43
67
-34
38
-26
2
-13
36
-11
-27
-22
-6
-27
-62
-28
15
-10
-33
-10
-54
-41
29
-56
-44
-64
-3
-19
-11
21
-1
-39
37
34
23
50
47
44
8
-4
28
51
10
72
24
13
8
64
-55
-10
5
-31
27
62
-8
-24
48
44
-13
49
71
-63
-47
47
-17
5
-23
-44
-6
13
1
-72
-46
25
-17
-35
-42
22
21
-29
-69
17
23
-16
-39
-9
46
-5
33
3
18
7
6
4
-36
-13
34
-13
-23
19
-38
14
-9
17
-19
36
-27
24
-42
-15
-30
-8
13
-14
67
-33
4
26
30
40
76
-1
42
-90
-45
-2
-62
2
-1
-22
-52
15
27
-36
-54
-14
-2
24
29
21
-2
-27
51
23
8
40
20
-53
-27
-61
-23
1
-20
-81
-12
-34
-20
26
1
-10
46
23
43
-48
44
16
0
-8
56
18
10
1
-84
-19
0
0
-38
9
-24
-13
-17
-4
29
16
-38
-9
6
30
47
54
85
-28
41
57
-55
-8
-48
-12
26
21
-27
15
20
5
63
65
21
75
20
33
13
-27
61
49
23
-16
-26
-33
55
-10
-49
42
26
-76
-11
8
19
30
27
27
54
23
49
43
69
31
56
66
-15
76
-10
-26
5
-42
-24
5
-27
-43
22
12
-24
7
15
-36
-38
50
-25
42
-31
-83
-8
70
-2
-4
-24
2
-17
-31
12
0
-20
63
27
-19
32
-28
41
13
5
0
3
15
37
-4
25
-9
-8
20
12
60
-13
-7
30
19
41
-29
6
-45
-50
45
-29
48
-4
39
6
30
28
-20
25
-39
-1
-4
-16
-7
20
-16
22
11
-18
-8
0
4
1
-20
-19
37
-18
-15
-2
-13
23
21
12
-2
18
4
-23
57
59
-67
16
-47
-29
-5
4
-36
-35
-33
-86
27
11
-49
31
25
50
-24
30
14
-10
-24
15
-44
-13
-22
-41
-9
40
31
1
-11
-37
31
27
-25
4
17
-20
2
-19
-32
2
0
34
24
-47
28
-37
-36
-28
33
59
-10
-64
2
-42
33
2
11
-49
13
-20
-2
42
-50
-7
23
-54
4
-11
16
39
-19
-16
-6
30
6
-16
-47
7
6
-7
-10
9
11
30
2
-20
12
-5
43
45
35
-58
-35
2
-33
6
22
-7
5
76
68
-49
38
52
-52
-31
24
-57
9
-21
-64
-34
10
-11
1
-17
-4
-35
10
28
2
35
36
-1
2
-11
26
-19
24
-22
-24
35
37
-5
-28
6
30
29
-49
14
18
-9
-14
-7
-18
-8
-7
-12
-22
-48
15
-19
-13
-9
-35
-8
-4
20
13
-19
-12
-23
38
37
22
7
-43
-35
-14
-38
-2
-12
-38
3
-12
29
10
-48
23
-58
50
11
28
32
-58
58
-6
-47
79
42
-46
78
-31
-61
52
12
-28
-61
-40
-77
63
-12
-71
8
19
26
41
-29
56
-44
17
-14
-8
5
-16
-14
24
37
-22
-34
53
8
-4
0
-54
1
0
24
13
-7
-43
-19
19
75
3
7
-13
-57
-24
-51
13
23
35
-52
16
13
14
-39
-13
39
-7
16
33
35
-7
54
1
-13
2
-2
1
25
25
-26
-29
-33
21
12
0
11
10
-24
-25
-20
25
-9
-5
35
-1
-28
4
-50
38
3
21
-45
-12
15
-40
-89
-14
-56
10
47
-39
-10
-22
36
-31
-6
40
6
-28
39
10
-15
-46
-30
-30
-15
-42
28
-38
51
45
7
-15
15
-10
40
62
48
-19
-12
34
26
-3
47
28
-19
16
29
-28
-19
-3
-52
-46
-67
-24
34
-7
-34
-15
-5
-71
-44
16
42
-40
66
-11
1
53
22
26
-6
14
66
-36
-50
-3
13
17
-46
-4
-59
41
33
-44
44
29
-19
23
0
-45
43
23
13
20
2
27
-6
-32
6
10
5
-5
-18
10
-11
-6
-26
29
1
20
-27
42
44
3
9
28
62
-18
32
49
25
-78
40
-10
-58
1
3
-52
37
11
-35
31
-60
-15
-3
-35
66
67
-2
-44
-10
-24
25
-13
22
-5
-24
-25
-25
-40
18
43
28
-43
21
19
-20
-16
20
48
-10
31
16
3
-17
-3
2
49
-25
4
31
-2
-54
9
-24
1
38
-20
-60
-17
-8
21
11
-33
-10
-1
-34
-50
-40
-16
18
-2
-41
8
-13
-29
-60
-12
-22
-13
7
-54
-33
19
57
-38
30
41
27
-30
-11
-10
-13
-7
-17
10
-20
-28
-12
-27
36
36
-31
-32
39
-32
33
45
-3
-32
29
41
45
13
10
12
19
13
71
-81
-38
37
-65
-23
-55
-72
47
-7
-45
-8
28
-63
-63
24
18
-1
32
-40
-34
61
7
53
-14
-2
64
-7
-34
53
-25
52
-28
-14
-61
18
42
-75
64
57
-5
-3
53
-45
64
33
-44
0
-12
-13
7
33
-11
32
35
-13
-25
45
-15
17
16
33
-14
35
-7
-8
-10
-8
-10
-27
76
-6
13
36
75
-21
44
4
-31
-42
21
-17
42
-27
-18
62
-34
-38
-35
-53
41
79
-6
-54
-17
-22
28
-30
9
0
31
4
5
-26
30
20
0
-1
-2
-8
2
-15
21
19
-6
16
1
-10
-17
28
44
-16
-17
13
24
-59
-21
58
-14
18
-58
47
12
-34
-39
-12
-22
-9
-16
-47
-36
-1
15
-4
1
11
-19
41
-4
-22
8
-23
-47
-33
42
-29
-54
54
-2
-31
7
40
50
13
39
-9
4
-25
51
-73
-16
16
44
-40
-21
29
7
-3
28
24
21
21
-53
-11
-44
-30
-19
-13
-12
0
-38
-54
-4
-48
-35
9
-29
-21
1
-1
27
-8
-4
-2
9
-9
14
10
20
-4
35
7
-12
8
1
13
-86
-22
-71
50
11
14
69
14
12
-16
69
-9
-34
18
71
43
38
-65
-56
-46
-41
57
-38
-23
-11
-45
-17
-2
-36
11
21
-43
12
8
42
37
29
3
26
3
8
-11
-27
-15
-1
-52
20
-13
-17
-3
-24
-52
76
45
13
2
36
15
5
-30
64
-35
3
-46
67
6
24
15
-6
-9
-6
9
-28
-39
33
-1
36
-14
-19
-65
33
24
-38
-30
-5
-39
-63
-51
-23
-31
5
41
-20
-53
-92
92
36
45
64
44
54
-7
-9
63
-107
-65
15
-101
-58
-21
3
30
-54
-31
-37
-67
-20
-18
75
-23
26
-59
-49
-44
10
11
-48
-27
60
25
-11
38
13
-72
-4
17
14
-46
-11
-11
-14
11
24
57
11
-5
30
47
11
-19
-49
58
28
-13
-15
10
2
-7
-62
29
-45
23
-29
-86
-45
4
21
-70
-49
26
-50
-32
-7
12
38
-36
-2
-74
9
15
0
15
39
-25
-21
6
-5
62
10
-61
-17
-18
4
42
-7
46
39
2
71
40
-20
1
-17
-4
-9
16
41
-8
-18
-6
4
-45
-5
24
-14
-59
-11
47
-34
12
57
41
-3
53
51
22
-33
36
8
16
45
-26
-6
-48
-7
12
-69
1
-19
-62
18
22
2
-19
-24
-5
22
-32
29
-33
-2
43
-27
-27
-27
4
16
-19
-46
-9
-3
-20
4
19
-32
-33
13
-15
42
20
19
36
-25
-66
-28
-1
-43
-56
17
-65
26
-18
-57
19
-34
-64
23
5
-3
10
-35
3
1
-42
-17
58
-10
-20
-41
24
-19
-23
-63
-67
-28
-38
-49
13
-30
-80
-2
-41
33
42
-31
48
-8
-12
39
19
-53
-36
25
-4
-56
43
18
-52
34
-18
21
65
42
-64
4
-25
17
7
10
1
-12
4
27
-34
-15
-21
-20
11
-35
8
29
-27
38
20
3
20
32
-1
20
4
5
-26
-31
26
-48
-29
-87
-11
-12
54
1
-69
-13
-52
-51
14
43
-73
-34
36
-48
102
-10
2
2
-43
5
-20
2
55
1
34
21
-15
-24
7
23
-16
52
35
22
-20
-4
10
21
-5
-45
-40
75
-42
-20
67
-5
60
40
-39
10
40
20
49
84
-16
-7
29
1
-48
-74
-10
21
-57
34
51
-40
29
31
5
24
34
-77
-41
48
-9
52
-34
-7
7
-43
-35
35
5
-3
3
-4
-50
-11
-30
29
19
-23
39
-19
-36
-39
-9
38
25
14
-45
-19
41
26
-35
55
36
-26
53
-22
46
18
-20
-16
41
50
7
0
6
-16
-35
3
-1
70
-1
-47
26
24
-8
11
32
53
3
-1
-31
-31
29
7
-1
-23
-20
28
-5
-65
-46
-38
-40
-1
-32
29
-13
-19
-22
-6
-10
-21
-35
24
-15
-37
-7
-14
14
21
-16
7
23
0
-31
-6
13
22
3
-42
42
31
0
-12
3
9
36
37
-13
-11
20
33
-33
-11
38
-24
-16
-9
-41
-6
-34
-29
-9
60
-13
-36
41
2
30
-23
-36
-36
65
48
51
19
15
42
-15
-48
59
-8
53
-3
41
-50
6
58
-37
-13
53
-6
5
66
-25
36
-15
-29
-7
25
-25
-32
12
-27
-22
71
-28
-10
11
2
37
-3
-21
0
60
0
-6
7
-13
45
2
24
-53
73
31
49
-24
2
-90
-17
-6
-4
-61
11
41
-51
72
-44
11
-31
-36
21
61
59
7
-6
17
-4
28
8
-35
8
-6
58
38
38
8
-30
3
27
28
-6
-2
-19
-8
-29
-21
-6
16
35
-32
-20
-59
-19
-18
-23
-1
-11
-33
5
39
-1
16
46
27
5
24
14
29
-10
46
-2
48
57
11
-33
-46
24
-47
23
39
12
22
34
14
-44
38
15
-26
-26
17
-7
-38
-44
-17
5
51
-43
-29
-33
33
20
-13
-11
46
37
-32
-20
6
-25
-16
-33
-5
21
-39
18
15
-9
44
41
25
9
5
46
-15
-23
5
23
6
-19
-2
10
19
-1
-14
-71
-10
8
-17
12
-33
18
-12
2
7
-9
32
75
3
-3
-48
-5
-36
-76
14
3
-30
-43
37
42
-17
-78
-18
-11
45
80
26
16
-70
6
24
-30
15
32
-45
9
-19
-57
-7
10
-13
-3
-47
-48
36
-18
-16
36
11
6
15
-7
1
-40
5
-4
20
17
68
-61
-26
-25
-4
-28
56
-43
24
-36
3
36
56
-41
8
-22
-35
15
28
48
-29
29
33
-85
-15
-20
-22
-4
50
-21
13
12
4
28
55
43
26
-29
-12
37
-22
75
16
9
22
31
-14
-49
40
15
-21
24
75
14
-7
-27
16
32
-2
-37
-40
5
-42
-60
-24
-49
-23
-29
-25
-12
59
-20
54
1
-45
65
45
-37
-56
41
-53
-61
81
63
-67
27
14
37
70
66
-36
-14
36
-8
-42
22
-1
35
-9
26
-5
18
-4
-4
1
8
-7
2
21
-48
27
-10
7
2
0
10
1
-54
-13
-1
-12
25
-2
12
8
42
76
40
-47
13
3
16
9
33
-4
-46
3
40
-15
-18
0
-69
-4
-35
7
56
10
5
-22
22
22
30
-37
-36
30
10
4
44
-23
-26
-17
-46
56
-17
-64
-7
-61
-57
9
-2
51
32
7
11
22
59
-9
32
0
-7
-9
-22
-21
-57
26
-3
-54
20
5
-67
-7
-1
-19
57
45
-23
-4
16
41
24
-11
18
-24
-22
-21
69
33
32
1
-71
-40
-22
-22
3
2
13
56
-1
-74
-45
-5
18
31
29
-19
-22
14
29
-47
13
18
-43
17
-13
26
42
-70
-5
-67
-3
-53
-71
16
27
-72
54
48
10
20
40
51
12
-13
63
34
4
55
46
27
7
31
-30
-34
9
-29
25
10
-14
-10
9
14
-31
23
41
-4
-20
10
-28
-10
-51
-36
25
34
-38
-22
-36
30
-36
-22
-1
-4
20
19
-56
-6
-8
-31
6
46
26
-43
38
-2
28
27
40
37
4
73
39
8
7
-21
15
26
38
7
2
-5
-45
35
-23
22
-2
-21
-20
-10
41
3
20
2
-9
20
28
45
10
-57
-29
-64
-35
19
-37
-37
-23
3
31
-23
-45
-17
-10
56
18
57
20
-60
64
41
-62
63
36
-76
46
-67
-86
35
-28
-93
-69
-43
-61
50
0
-39
34
74
91
-10
32
72
-44
38
22
-19
3
-2
-40
-26
-8
9
-27
41
-5
3
15
-30
30
31
20
2
-7
-26
3
54
27
-37
10
45
-36
1
-22
20
9
-14
-6
27
26
12
56
55
-21
27
3
22
57
-35
48
73
20
-47
-61
-4
51
-41
-52
2
12
-39
42
57
30
41
-3
26
-19
29
35
16
24
15
45
-7
-38
52
-3
-37
27
-35
9
11
-32
-47
-3
6
13
-15
44
-22
-29
4
-24
42
23
-31
3
22
-43
-74
-63
-16
-8
-70
-5
11
11
-18
-70
-11
43
-36
-8
53
50
-54
59
5
20
66
22
53
-9
39
36
-42
-26
41
-32
-49
-49
-27
16
-1
-56
26
-26
-40
-21
21
43
-3
38
-28
-33
49
-6
53
10
17
69
-21
-33
-2
-27
36
-18
-20
-43
8
26
-36
9
60
-31
20
73
-1
60
-3
-11
56
14
26
54
-22
19
-1
28
-32
-21
-26
-28
6
1
22
-35
51
0
14
14
-45
63
27
19
-4
27
33
32
-9
-35
-60
-31
-37
-3
-19
14
9
-64
46
-61
-14
-7
-70
46
42
15
-47
10
-56
34
58
-29
-26
-23
-15
23
18
-8
65
52
-19
54
74
-3
61
20
30
51
-43
-12
50
-9
10
5
25
26
-7
-10
13
-39
-22
0
22
6
-14
-21
-21
16
5
0
30
60
7
28
-11
-34
10
66
22
-10
-12
-29
-41
-40
-19
-47
3
-15
-65
20
-13
35
-13
14
2
4
7
11
27
-7
-7
-7
4
-36
-34
21
-14
5
-10
-12
-9
20
-13
-24
5
-6
-25
49
41
37
30
9
50
22
34
75
-71
-14
29
-70
-55
-85
-50
45
1
-29
0
3
-53
-86
-6
45
4
15
-62
-42
73
30
63
-23
-9
55
9
-48
37
3
40
-20
-22
-57
40
33
-72
44
34
-5
-11
62
6
78
40
-32
27
20
-32
-7
9
-21
2
41
-38
-18
-8
-4
68
10
9
-7
45
41
2
2
-12
19
21
59
22
32
59
75
-60
31
-45
-52
-45
33
-57
31
-17
-38
43
-71
-50
-11
-46
43
36
30
-38
-27
-40
-8
34
-11
3
5
-16
23
-8
-23
36
27
-28
3
32
-3
-2
-4
23
-8
-5
-37
-12
-26
-14
-4
-2
28
-51
-17
35
-28
-21
9
43
12
19
7
-13
1
62
26
14
35
38
15
24
-42
36
40
-3
-24
14
-19
5
-68
-23
-39
14
-22
5
-19
-33
-12
3
3
-10
32
0
-31
30
-28
-29
-35
-15
-33
-47
-21
4
-11
11
-19
4
43
7
11
31
43
-6
11
31
2
-9
36
-5
-47
-32
91
-41
-48
40
-96
-41
-55
-41
22
15
-77
-7
-35
-71
-47
-10
19
-12
29
-34
-47
67
32
45
18
1
40
-49
-29
40
5
62
-59
-42
-54
46
40
-46
37
84
-52
-19
8
-18
26
8
13
59
29
23
53
-15
-49
7
62
-56
-36
-6
2
43
31
-4
-47
32
14
11
24
-42
21
19
68
12
3
19
52
-20
16
-12
-65
-33
26
-45
74
-34
-44
75
-50
-48
-22
-74
56
53
29
-31
11
15
19
36
-14
-1
-31
16
9
-6
-3
12
34
-14
35
32
-34
-11
-24
3
52
13
10
-17
-8
-38
-14
10
40
-71
-42
39
-8
-36
18
34
40
28
-18
15
45
21
50
62
59
38
32
54
-15
49
-30
-45
-1
-53
-3
53
-49
-28
11
9
-54
37
41
-62
-30
51
-82
12
-12
-86
-35
67
-10
-11
-25
6
-12
-29
-39
36
-9
4
-15
25
-10
-14
-47
22
47
-4
25
31
16
48
25
31
-25
34
57
-10
-10
7
-12
13
-40
-27
21
-10
-38
22
-7
-1
-60
-10
-14
21
18
-5
-25
17
-9
22
18
48
48
-30
-31
23
-25
42
-28
9
-53
1
57
-61
-36
16
-44
60
37
9
21
-48
49
16
-13
40
6
-21
19
-47
0
-30
0
-64
-36
0
-30
64
-48
13
-8
37
65
-35
31
55
14
3
55
17
28
-20
-21
-83
-35
-18
-29
-41
17
19
-90
32
0
19
-36
-43
41
52
73
19
36
37
1
41
-48
-21
-22
35
56
42
-14
13
10
50
42
29
22
56
19
34
33
-43
29
22
51
-46
-30
-57
50
-17
-76
15
0
-69
43
27
54
29
32
53
13
45
37
75
24
70
60
4
-79
68
-13
12
7
19
12
-13
-10
-40
7
-39
29
-21
1
1
33
20
-55
75
26
-30
41
77
-36
-67
-72
-38
-56
-71
-21
-5
41
29
-25
-55
6
-23
14
40
65
-42
63
9
9
57
40
13
-9
85
57
-21
19
-17
2
16
13
31
34
-6
-23
45
35
1
7
14
0
4
35
-51
16
23
-6
48
12
-4
11
-42
-67
4
-50
-2
-19
30
-9
12
54
-54
-33
17
-46
68
66
32
15
0
19
74
-27
-8
75
-95
10
-70
-10
-10
-17
-89
-45
-42
-75
7
-68
-23
39
41
50
-20
55
79
11
-28
22
19
6
18
-48
-16
-34
22
-11
-16
-5
36
-28
36
-46
-4
-24
-28
45
38
44
-35
14
-14
40
79
-21
7
-16
11
-1
2
-18
30
35
5
65
46
-48
49
-43
32
35
-29
-6
59
-5
22
48
-3
-52
47
62
-50
12
70
-6
16
-46
39
-1
-31
-54
-68
-30
-16
-36
-13
-25
7
5
-41
-25
27
-7
30
-4
-48
60
80
10
0
5
-18
-57
39
4
-6
33
-13
33
92
29
-25
18
52
40
-12
4
2
22
-33
-27
-21
17
29
-25
29
11
-27
-23
26
-6
-30
12
16
-4
-43
-34
-18
-39
28
33
29
-5
12
2
32
-37
26
35
-43
-22
11
-10
12
26
-41
-26
33
-16
-11
19
-6
-27
-27
-48
59
59
-36
25
-31
24
-22
19
12
-4
-3
2
-40
5
-51
-41
-8
-48
54
-22
-59
8
-48
-37
38
-31
7
3
-12
25
12
34
5
14
-22
20
21
-39
-35
-45
14
-13
-35
-23
45
-62
-17
-30
20
72
46
-21
18
22
20
11
-28
61
7
39
-8
54
73
-17
-13
-72
15
-55
-40
-24
-47
30
23
-19
-19
-27
-44
6
31
-14
-9
4
-32
-1
-39
18
-31
16
28
16
-30
-5
-23
-6
-6
40
-46
7
17
-51
-18
-46
-15
54
-49
-51
3
61
36
1
12
38
-19
17
50
36
47
27
-53
-18
-80
31
69
-70
-66
-6
53
-39
20
20
-90
-27
45
-18
11
-42
-36
-54
24
-50
-4
-6
7
-40
-22
-37
-4
-22
-10
-44
7
4
-22
-27
15
1
-36
14
-10
-16
-18
32
20
4
-30
36
-45
-56
-21
-17
-57
-56
-67
15
-35
-65
2
4
-42
-36
19
-5
17
12
-2
-29
46
28
48
21
18
39
-54
-67
29
-10
61
-16
-25
-72
25
31
-63
-7
29
-63
36
67
-27
53
-33
-2
3
13
57
33
-34
-25
-14
-2
6
-34
-52
-23
39
-12
29
-42
2
28
-7
-2
-11
18
20
7
-51
63
38
58
-48
-13
-42
6
10
13
-55
15
36
-89
37
-54
19
-43
-76
11
59
51
-6
40
14
26
29
-38
-47
2
37
13
21
-35
-31
-9
35
-20
11
6
-23
-25
5
-12
5
39
-8
1
20
40
50
-43
46
21
-36
-26
44
18
-59
-27
-8
-4
-37
-58
-58
-22
-17
-67
-22
-7
-72
-10
-54
26
54
-39
70
-51
-53
55
6
-53
-19
27
-24
-69
80
20
-38
48
6
38
65
19
-20
-17
26
22
1
21
-12
-1
-3
45
39
3
-27
-25
20
2
2
-6
36
12
38
0
-15
-16
12
30
9
-60
-13
27
-2
-4
16
16
43
1
27
30
-11
47
-12
27
-9
1
-26
-69
27
18
13
-37
-25
-15
-13
-29
36
8
-33
3
1
37
-5
35
-17
5
14
3
-32
32
5
5
-34
-17
35
-31
-37
17
0
-20
60
16
49
35
33
-1
42
55
18
27
-29
28
7
4
-17
-42
39
-4
-12
36
32
-30
38
-22
-21
54
31
-36
-20
19
16
24
-30
4
13
2
-28
54
39
-21
9
-41
8
-24
-31
20
-15
50
55
10
-56
-64
31
24
-3
6
-35
-25
-30
12
-24
-9
-10
-31
36
-44
22
23
-44
-25
1
5
-32
-28
49
17
-10
30
11
-11
22
9
30
40
26
43
22
27
25
53
42
47
28
-24
-43
-14
-60
15
6
3
-42
65
63
-8
48
61
-39
-24
27
-6
14
-45
-36
-5
18
-11
-29
-37
23
-50
-6
34
32
8
-17
-24
-2
44
-6
-34
29
44
-36
-2
52
21
30
41
31
-6
16
35
-22
-27
-20
1
-24
-17
18
21
3
-74
13
-26
-6
15
-20
4
-39
76
5
5
52
19
49
42
30
20
-18
-8
-14
-28
34
-5
-33
-2
11
14
-8
-12
28
-44
54
64
30
36
-10
36
40
-25
45
40
-48
38
-58
-78
36
6
-63
-75
-58
-44
6
19
-41
32
49
73
24
21
45
-7
16
19
10
19
38
-25
3
22
-4
-26
14
-8
-22
4
-4
2
-4
-22
-2
0
-30
-4
-9
66
1
24
4
-29
7
-55
9
19
-12
-16
49
27
-26
6
-2
4
49
23
63
25
-24
38
54
-20
28
45
-17
-29
51
19
-36
51
40
38
-8
-64
32
11
-13
-26
-37
-20
-25
-72
0
-25
-6
37
-45
37
51
-24
37
-21
-17
42
87
-39
-36
39
-14
-76
79
55
3
77
2
-3
62
35
-72
32
41
52
-16
33
42
-13
-35
9
-28
38
7
6
-12
3
-49
-49
46
-7
-4
-3
-41
-29
-47
-26
-4
-50
30
35
35
-1
20
41
34
-11
2
52
-17
4
44
38
-25
-12
-17
-26
21
37
-13
-3
-58
-56
-42
-81
50
44
-40
39
-48
27
17
41
-35
-61
58
52
-47
55
-22
-71
25
-67
2
-36
-55
18
-33
-26
62
-16
62
26
11
7
65
20
-8
29
-70
20
8
-25
-34
-28
19
-31
-33
-7
14
-49
-14
-35
-6
30
63
-12
34
-3
11
-36
-37
98
-52
47
-18
30
63
-35
-28
-57
-12
-10
-17
-34
-20
28
37
33
-19
-37
-21
36
15
9
-5
-7
-23
1
-7
17
-24
-1
35
-13
-15
3
-69
-60
-8
25
-57
-46
36
30
-66
6
21
5
39
30
7
91
61
41
32
42
46
51
75
-25
65
-40
-48
9
-23
31
32
-6
14
12
22
-29
63
1
-18
-40
49
-71
-17
-1
-26
-28
22
12
-1
-26
6
4
17
-9
23
10
-7
-14
14
-4
39
5
-26
-17
-6
7
-12
-15
6
12
7
-42
-10
47
2
26
-11
-21
-19
27
-48
10
-50
-17
20
-27
-26
-16
28
31
17
56
-9
-10
5
35
18
44
-37
2
-22
-28
-10
-29
-7
-26
-67
-8
45
3
34
4
-23
-13
-25
14
35
-28
0
0
59
-5
-5
76
-64
-2
-33
-36
-48
-7
-20
-16
-39
-16
7
-43
17
26
52
13
-2
5
57
0
21
-18
-7
-19
20
-8
-16
48
27
-17
32
-1
-24
7
-3
12
2
-35
3
1
-8
26
12
68
55
19
30
-44
-29
-8
49
39
-1
-60
4
12
38
35
48
-16
43
-46
0
93
-54
39
-27
-62
13
-32
14
86
-15
-17
11
-59
-53
-21
-28
82
-30
-49
21
6
39
32
22
54
-38
37
53
-31
39
2
-63
3
-41
12
53
-53
-58
12
-7
-27
17
27
-80
-44
56
-69
5
-3
-92
-32
52
-2
-18
-32
-3
22
7
-10
36
11
31
29
20
-13
14
-25
-11
8
-17
-11
-26
-20
1
24
-28
1
-34
39
18
-29
-23
-18
14
3
-15
-24
-82
-51
-8
37
-20
-34
11
-20
62
37
9
6
13
-4
32
3
26
66
-38
-44
7
6
56
-48
-9
-32
-9
32
-9
-30
61
-32
20
14
-12
38
-28
37
21
-26
61
42
2
-4
-53
21
8
-18
-35
-30
45
-45
14
-17
17
-6
35
20
-29
-8
26
0
-59
46
-2
-4
-13
-60
-47
5
7
14
-22
7
58
-83
39
-44
19
-61
-56
30
-1
62
13
-9
63
-48
-10
23
-81
-19
67
59
38
-41
-61
-68
36
-2
-14
-36
7
-16
-40
-22
-60
-39
-49
15
21
10
-32
-10
-9
-5
2
42
-29
-26
12
14
-9
-16
1
12
6
12
4
0
6
41
30
68
4
-65
-38
41
-47
6
66
54
30
75
53
-64
45
13
-56
-27
63
-29
-54
-57
-11
-28
33
-32
0
-19
56
9
-6
13
39
-21
-41
-13
-4
-36
12
-38
-29
3
22
-20
18
-31
18
-24
-14
41
-27
-47
37
-28
-5
68
24
25
9
-54
-15
-14
35
-47
44
39
-42
-22
-6
-34
56
2
-30
-1
-22
56
55
-10
-43
-14
-10
-18
-41
-3
16
40
-46
2
2
-57
-28
-14
48
-6
11
-19
-28
18
-16
-28
56
-9
-39
2
-22
-69
27
48
-10
-44
-55
-64
15
12
-39
18
7
5
37
-14
-19
-73
26
16
-44
-17
61
-22
-7
39
-6
-62
61
-46
29
-3
-17
52
59
-19
18
-35
-59
-8
37
51
4
39
22
-27
16
-39
41
26
11
-39
-8
-4
8
-17
14
58
19
28
-33
-22
-33
40
36
-46
34
27
5
3
-1
20
16
13
28
-19
-11
2
-14
-30
-40
-18
-15
-8
-60
-20
-38
-16
-17
40
-14
-18
-23
39
-38
1
29
37
12
59
46
-35
32
37
-50
-14
11
-23
-41
-29
35
-16
23
16
40
54
-5
32
28
-4
-27
-11
4
12
10
7
6
9
-32
-42
56
-2
-18
-43
-44
-37
-50
1
-17
-22
18
-32
-5
49
31
64
7
-24
-5
8
29
-28
58
71
-16
-37
-14
-33
67
49
-45
-46
-35
-12
3
-19
45
68
-26
5
-56
27
4
64
-25
-25
43
-48
-50
35
0
-49
20
-15
-10
2
0
8
14
-35
-6
7
40
-32
46
29
0
20
-19
8
-1
41
-18
-32
12
-36
2
-61
-48
-76
-14
2
-46
-17
63
8
24
29
16
-31
31
-82
17
55
-78
64
55
29
33
-26
-72
-8
53
27
32
-18
-40
31
17
-24
35
-20
39
-29
-46
-54
-19
-17
-26
21
-24
6
-29
-44
-8
21
-18
-13
-55
-4
-19
33
-4
-14
8
6
-34
14
49
50
-37
23
23
18
34
2
-6
38
38
9
26
11
32
-62
-42
55
-60
37
73
34
3
13
38
-31
86
54
-34
-28
49
-70
-24
-71
-47
-55
13
2
4
27
28
7
17
-37
14
-18
-58
1
36
-57
33
-32
-34
-21
5
32
-5
-42
9
5
-13
0
-33
-11
56
0
-8
52
56
34
27
-21
-16
-20
48
-5
10
2
33
-18
57
-48
31
38
-29
19
-1
70
-15
8
-9
27
9
-31
-38
49
-21
9
14
18
17
-35
-21
18
-5
32
20
-12
-32
15
-7
18
3
30
-1
-15
-2
-12
5
-7
-8
-32
-5
-6
0
13
14
-2
27
-9
-6
22
12
-66
8
71
-41
-6
17
-71
-31
36
38
-77
16
-46
24
-38
8
59
34
-55
33
-34
-27
61
55
20
51
21
2
-18
-54
9
70
20
2
-56
-31
-21
57
18
4
45
63
3
-29
-12
-36
50
-35
36
-62
-51
-29
-5
-59
-81
37
4
-70
27
62
66
34
55
76
25
39
72
46
58
98
75
41
-54
72
-27
-7
60
-47
10
45
-28
1
29
-23
-35
12
53
-20
-19
56
-75
0
-39
-54
-16
45
-31
-44
-17
48
-13
-36
-59
48
54
-10
-56
-2
19
-31
-22
51
55
-58
56
3
36
52
51
35
-9
59
40
35
34
-3
20
25
-11
26
-7
17
-17
39
23
8
-25
43
-17
-16
50
-53
31
-2
25
-2
64
35
18
-63
-51
0
-96
24
-32
-27
-65
-2
88
-27
-44
-11
-14
61
60
48
-8
-55
22
46
-27
14
44
-66
-35
-16
-10
-1
-36
-62
-44
1
-31
22
-27
-37
13
75
70
-22
1
36
-30
-19
77
3
-13
37
-66
-72
-31
-10
-16
-13
-30
18
-58
42
-18
31
-78
19
47
4
46
28
53
-5
53
91
-49
3
3
35
38
25
-41
33
66
27
62
56
15
52
-25
36
18
-9
1
86
-5
-21
-44
-18
7
-31
-65
29
-9
0
16
-7
28
15
-57
25
-12
-3
16
16
55
35
46
-25
-7
28
36
6
13
-2
6
-20
-28
-12
-6
2
-7
1
12
-9
8
-22
-32
18
-25
-30
-12
3
-33
-31
-22
5
-7
8
-52
42
6
-27
-23
3
-30
16
-14
-19
27
-31
13
28
-3
34
11
20
-1
0
55
-37
-37
41
-50
-40
-76
-33
-6
14
-14
-18
-2
-61
-59
1
43
-12
0
-4
-46
83
21
45
13
-18
88
-56
-47
38
-60
31
-10
-15
-49
6
67
-81
-11
22
-16
17
55
10
63
-7
-25
19
-1
17
1
-18
-15
-1
64
-14
-35
-14
19
51
46
-17
-12
28
-9
-2
8
-12
55
21
32
22
13
19
45
-25
-23
-50
-57
-27
-5
-5
11
1
-87
75
-54
-1
-72
-48
5
13
41
0
16
8
44
45
-10
-41
-7
32
47
37
-20
-20
-5
-19
9
34
-32
-11
19
2
23
-33
5
27
23
26
9
38
-68
38
36
-39
-11
68
31
3
-28
6
25
-54
-46
-40
-51
-48
-51
-29
-25
-26
-15
-56
44
46
-26
89
17
-69
54
49
-43
-50
32
3
-33
47
43
-54
64
25
8
64
25
-48
18
-2
0
21
37
-1
-11
16
-30
1
42
2
-5
31
28
-18
2
0
-46
-4
-39
31
9
-22
-29
-31
0
-32
32
22
-15
-29
12
40
5
50
61
-9
8
27
9
-11
-17
-47
-51
-5
25
18
-12
-50
-31
-61
-14
38
27
26
54
-8
16
32
11
-47
-18
-8
35
-4
24
-69
-72
-19
-31
53
-50
-10
33
-48
-40
33
-15
29
35
-33
35
87
43
24
70
-43
0
27
14
-42
-52
1
9
-46
37
35
-50
-5
-4
-21
72
46
16
-8
28
-4
0
-43
66
-29
28
10
63
7
25
-12
-33
-30
-43
-6
15
-39
43
41
10
-55
-29
-32
58
29
32
-47
16
11
12
-21
31
-45
-39
35
-22
20
-71
66
47
37
-18
40
69
-69
-15
60
-8
-34
-28
6
-4
-73
-20
-10
-23
-63
-3
-66
-38
-38
8
-43
31
15
-41
29
-36
-36
6
27
-58
-32
46
-13
-62
67
29
-57
61
27
23
53
6
-67
-5
53
44
-17
22
3
42
-64
-15
50
12
-18
35
-6
28
-12
-15
43
-43
-23
29
-58
-18
-7
-3
-69
19
-49
-47
34
-77
-34
-24
-38
-3
36
-13
-50
-46
-5
-20
-37
13
-58
0
34
-32
45
-35
28
-47
-45
-50
75
30
33
88
15
1
-37
13
0
-37
13
69
11
-4
-39
-59
-31
-7
79
-33
-17
8
-54
-35
32
-22
33
57
12
-1
71
17
22
35
-18
11
48
-29
-40
-58
11
-14
-60
55
0
-91
16
37
-14
88
81
-22
-6
62
0
13
-76
58
5
18
-39
96
3
-14
-7
-89
-53
-50
-43
-20
-67
73
8
-22
-46
-42
-51
40
11
-18
-55
-31
-34
-25
-66
8
5
31
60
20
-32
28
-8
16
25
-15
5
-29
-31
-8
13
0
3
-10
-26
-24
-13
-54
-21
-17
-9
-40
-20
-17
-28
16
-16
4
20
-12
11
36
-36
-21
16
-39
-6
24
-14
-41
38
8
-35
3
-33
-3
20
12
-31
-35
-22
-7
30
14
-2
-45
36
5
-39
-43
-2
-5
15
-16
-8
7
5
45
-12
-12
60
31
-5
23
-6
52
-49
-17
24
-21
-51
-47
14
36
53
4
-52
-21
-40
-50
-14
54
-46
-1
26
-58
114
37
68
18
-10
42
-21
-28
4
-58
35
-30
-22
-54
40
29
-31
4
9
-30
9
77
-5
55
-17
-19
8
39
-25
15
40
4
18
15
-9
-7
31
42
17
15
-30
-1
41
19
-2
8
-14
33
-2
38
37
11
52
32
2
-4
-20
-42
-3
8
-7
57
-20
-6
67
-36
12
-26
12
0
23
-7
-20
27
-56
75
39
-35
31
0
-22
-2
13
27
39
42
-42
34
23
19
17
40
7
27
11
24
5
14
23
-17
3
-13
9
-23
-14
41
-4
17
-45
-37
13
14
16
-23
-58
-27
-33
-27
20
-26
-34
2
-23
-33
11
-43
-15
19
-23
-2
-16
-24
43
38
1
-29
-1
11
-23
32
25
-26
48
37
17
-72
-25
-21
-23
-31
-25
27
20
38
-12
-22
-36
40
-21
-19
28
48
-22
9
62
29
-3
7
16
-9
-9
31
-42
-1
-4
-39
2
-64
31
24
107
3
-52
-17
-28
-27
-52
63
-54
21
-5
-28
97
-23
57
51
17
16
-47
-58
-43
-34
9
-3
-7
-46
-8
44
-1
20
8
-14
49
45
-7
30
-11
8
7
7
25
-11
-15
41
18
-55
12
-9
-15
10
-46
-47
-4
5
-38
-17
20
34
8
-43
16
-10
35
-14
73
20
24
19
-20
-65
4
19
5
25
-43
-39
36
2
-2
18
13
-8
22
-22
5
-19
-67
49
3
-36
39
-20
-52
-47
41
8
22
35
-62
-24
9
35
20
36
69
22
51
22
70
-24
-33
1
5
43
-4
17
5
-77
-60
-45
-6
42
-9
-56
-32
13
43
-12
69
14
-29
53
-19
-52
60
32
-37
-1
-14
-12
34
-92
-63
6
-26
-28
-11
47
-27
-35
9
-9
23
13
-66
-5
54
4
8
-36
18
-12
-27
-6
2
21
21
2
-23
21
7
-12
64
14
-10
43
0
9
18
19
42
44
40
43
-9
-17
-1
-6
0
-23
-39
12
-14
-26
33
26
-22
-51
4
29
2
32
-55
-15
23
-8
52
3
49
84
-37
-67
-3
-36
46
-44
26
-83
43
57
-72
25
58
-32
54
25
-16
17
-16
27
4
-17
-8
12
-35
-12
-23
-3
22
-33
-32
-55
41
-23
23
-38
-11
12
0
45
-32
-10
11
22
-39
52
32
25
-23
-32
-65
3
-50
7
-76
-2
58
-90
45
-30
-31
-43
-59
3
68
48
-31
-22
38
25
41
32
-28
32
44
39
-2
-15
0
3
-6
-16
-13
-30
-43
-24
26
-8
-47
-47
-13
-27
-1
32
36
-46
-9
29
-32
-34
62
27
-4
-13
-20
-15
-34
-36
-51
-36
-28
-16
-1
-16
-33
2
-30
41
81
-2
35
-24
-63
-5
2
-59
-7
41
-40
-23
61
40
-34
17
-12
45
79
7
-41
42
36
25
-24
38
-19
28
-40
-8
3
43
-20
-8
-10
-9
-31
-37
28
-39
-17
-10
-6
-30
-33
-8
-21
0
-54
9
45
-52
-33
-58
-30
26
25
51
-46
43
-1
-2
13
7
-53
-13
-15
2
11
-18
27
-29
-17
-33
55
-10
-3
50
3
-4
4
20
-9
5
-17
67
16
11
-26
-23
-4
18
67
-59
-20
54
-24
-36
28
-31
9
61
-42
-6
25
78
11
48
-42
11
57
22
-55
-30
-29
14
-16
18
54
-18
17
14
-7
37
46
-22
12
65
-11
11
-40
40
9
-15
-54
42
25
45
6
-55
-17
-31
-20
-27
-6
70
34
39
-4
-43
-28
20
-13
9
-28
17
-21
-52
-42
-17
-15
-19
18
-19
-21
26
-4
-17
-16
30
6
-27
15
48
-44
39
-13
5
27
44
55
43
16
33
2
9
45
19
36
26
56
-20
-8
-10
-18
8
27
-17
4
59
0
-13
-29
67
-34
-33
-10
-18
47
-21
-14
8
61
-6
-27
-22
-11
-18
-35
31
-40
33
48
-25
-35
36
-51
29
51
16
-40
14
3
22
-10
26
27
-23
31
-4
12
8
-67
36
32
44
39
31
19
-43
25
-10
1
44
0
-7
37
65
-9
50
-17
-4
5
37
54
-24
-40
-2
-54
-22
-12
18
-8
26
-4
36
28
-40
-31
20
25
34
-11
-46
-40
51
13
-75
63
22
-55
56
-10
-98
23
-20
-51
-84
-66
-80
41
18
-67
-7
51
31
28
0
19
-43
-27
-14
7
-15
1
11
-28
14
0
-20
26
-48
-1
26
-28
-14
23
18
-19
24
-2
-7
-8
44
-34
33
38
-50
39
-14
1
-20
5
-30
28
14
12
-16
4
17
29
-27
4
-5
-7
19
24
-9
6
37
-24
-75
30
34
-44
34
64
-10
8
-39
1
26
2
4
-43
-46
-46
-73
15
-27
-20
36
-40
1
45
-2
35
-15
-3
34
50
37
16
30
-24
-29
18
3
-20
61
8
-4
28
17
-28
-27
-1
-3
-22
3
4
40
23
31
20
27
-24
-9
32
3
-12
-28
-4
-7
-23
5
-9
-10
9
6
-42
-24
-16
-10
33
-14
-16
-32
53
-25
77
2
-28
-34
4
-15
-60
31
-78
30
4
-25
52
28
-26
-22
-40
-64
-6
4
3
20
0
-20
-20
23
-22
-28
24
1
-48
3
-30
-43
2
-26
8
9
-14
-23
-44
-44
16
-6
27
-45
-12
31
55
29
-49
18
-31
35
-47
-33
-21
-40
37
9
-14
-22
56
-51
-33
-39
46
56
61
-19
23
-7
78
26
-50
34
-58
12
12
76
36
-20
-70
-71
15
23
-33
-6
-32
-8
54
-2
-26
-80
-24
10
13
25
-40
-27
18
42
1
29
26
-1
49
9
32
-7
-38
-13
-46
68
-31
13
12
-7
-44
-19
35
-1
31
2
-7
65
12
26
9
56
-19
35
70
-2
26
-55
-57
58
-19
26
53
-34
-31
47
3
-51
16
28
-60
-19
15
-25
-38
-11
-21
-24
53
0
-12
-8
5
1
35
-37
17
-41
-2
26
43
8
-1
18
-52
-24
16
-26
3
2
-39
-39
-10
-38
-10
38
42
-35
2
23
-7
-13
-35
-31
-54
-25
14
-53
-5
6
8
14
51
18
-30
-15
-24
18
-22
17
20
11
-29
-2
-25
-32
-18
-21
-4
24
14
17
27
-34
20
-29
13
15
47
9
-9
13
15
-23
21
29
-8
11
-31
-15
25
-2
-7
-44
3
-32
24
-26
-34
39
0
50
10
37
37
-27
-10
22
-17
-45
-5
-36
-30
35
14
-23
8
-29
20
-21
-41
45
40
-42
18
-27
-2
2
26
38
20
-36
16
-17
-58
-11
76
28
-31
-24
-5
-23
62
-15
-31
29
24
-7
-32
51
-19
47
5
-42
-27
-5
34
45
-38
6
7
-38
-66
-44
-17
32
-3
-19
18
48
24
0
31
25
-3
33
-2
-68
66
11
-7
-5
-45
-16
-4
-78
-77
-21
12
1
15
27
-55
-42
20
-56
31
14
-87
-24
8
-28
-40
-40
-13
-4
-16
-16
-10
-6
-14
-2
17
12
20
8
19
26
10
33
0
12
-27
41
4
-6
0
-1
-31
-38
-7
-17
27
9
-56
-7
-43
-31
53
5
-10
12
22
-19
39
4
-19
9
-6
26
50
31
24
34
-26
-62
13
-10
46
-33
-20
-56
29
44
-37
8
54
-34
11
26
-36
59
-44
-6
15
12
26
16
-29
14
-33
23
9
-29
-26
-68
27
-24
12
-48
6
11
34
7
-30
28
41
-5
-49
54
28
23
-43
-28
-65
31
-52
25
-60
28
26
-84
46
-19
-32
-71
-38
42
26
68
-36
14
54
11
48
-21
-26
17
61
56
-13
2
-33
-22
-7
2
3
-8
-3
-25
43
25
-34
-20
-40
-47
71
51
32
12
72
60
-5
-35
71
-52
-37
-23
-13
-36
-63
-49
-49
-46
-32
-50
-41
-50
-35
-5
-39
55
-7
-40
-29
-51
-28
-43
-24
-7
11
4
-66
16
19
28
-50
53
32
39
3
19
-51
-25
36
23
-40
-47
-33
63
-39
24
63
0
-31
16
-33
28
12
-28
-18
-20
39
46
0
36
31
5
-20
-36
-64
-41
-1
-22
-5
-15
-31
32
17
-22
-44
11
-19
-17
-12
-12
-33
-15
1
-45
51
-26
45
-12
17
72
32
-31
-8
27
74
-4
15
-56
16
27
-59
13
61
4
38
12
-26
24
26
-29
-67
16
39
-8
18
29
19
35
35
5
6
12
34
8
-24
7
-22
-26
-44
-32
39
-61
-37
-1
-6
-35
63
36
-10
34
-5
-22
-26
1
10
16
-32
-26
-7
-39
-45
35
3
25
57
-15
-31
-53
-23
-11
-37
14
16
0
-19
-50
39
67
-29
-26
-54
-72
-31
-6
-65
19
33
-19
10
-62
-16
30
-58
0
-57
39
1
-49
37
13
-57
29
0
19
7
12
48
41
31
39
-6
25
48
19
56
18
33
-14
-31
39
-51
33
1
2
12
16
46
-52
15
33
-6
-56
54
-31
-25
-6
-31
-4
-2
1
8
6
41
4
15
-27
9
30
-32
-1
36
-29
-22
-48
10
17
20
-14
-15
15
-13
2
9
-31
-17
37
19
-15
20
-24
-5
0
29
-9
-12
-39
-19
-76
-8
-32
-14
21
-3
19
17
9
-17
-1
42
32
14
-14
-36
1
-2
3
-6
11
-26
37
-17
18
26
-58
-20
-52
14
7
61
-6
-48
38
8
-13
-7
41
-26
-21
-31
-27
-14
33
-21
-43
-51
-24
-6
15
-19
19
49
52
-24
-20
16
-30
-3
-17
-12
11
36
-9
8
13
4
-19
7
-47
-26
24
-31
42
22
-9
13
0
-60
4
37
25
38
17
1
-33
26
-34
31
-12
9
-19
3
11
11
19
25
-4
21
5
31
81
-14
27
45
52
-21
-4
-38
-86
52
-24
-3
6
45
54
-9
-20
57
21
24
-53
-19
-33
-8
-63
62
6
-64
-42
-28
-3
34
-16
35
-21
-43
60
49
-2
-23
45
-34
-59
34
54
0
64
48
47
47
26
-13
9
-42
-24
21
-16
9
11
33
45
-15
1
25
-26
-5
-30
-29
-2
2
-10
-8
16
11
-8
12
-4
45
-52
40
16
-15
19
6
47
84
8
60
76
3
10
6
54
-15
24
-32
-3
-3
65
-8
5
-7
-15
-36
-5
41
43
-20
18
-28
30
23
40
-40
0
-6
1
-29
9
-1
-41
0
-54
-1
-45
-24
41
-53
-23
28
-33
23
19
-41
10
2
59
-39
7
-24
-11
6
6
-42
1
-5
-20
-12
-29
64
-2
-25
0
51
28
45
8
5
19
38
-6
-8
20
23
23
28
43
25
-4
5
-26
-9
-30
-72
26
-15
-12
58
-19
-72
-64
-10
21
27
59
6
40
43
32
33
-23
23
-29
48
-4
35
-49
43
30
57
-49
35
51
-14
23
44
-19
-66
-53
-10
-14
-69
-4
-36
-34
-35
-85
-36
-19
-57
37
-41
15
38
6
18
-17
-9
64
6
-8
27
33
-16
-10
23
38
-11
34
20
-4
27
36
-20
-5
59
25
-14
-18
6
61
-26
11
20
23
-17
16
28
33
23
23
29
-8
21
22
-22
-48
10
34
3
-29
38
39
-48
40
7
-25
27
12
43
56
2
9
27
43
-49
3
-39
-14
36
59
-12
-74
-44
-15
34
-29
16
23
-20
37
-56
14
-20
28
3
-39
65
14
-9
4
13
-30
-21
-18
-35
-1
-11
-10
35
7
-9
31
34
-58
54
44
20
-15
-29
-21
-4
51
-65
-12
3
-6
25
-44
-31
-17
24
-59
-9
-28
31
70
61
13
-15
1
76
-6
-43
86
-49
-6
1
100
67
-53
-52
-42
21
-59
-40
-7
-22
52
44
6
-65
-77
-4
43
-11
-19
-43
-78
-15
33
-44
20
20
1
68
-35
-12
-15
-2
-7
-31
62
-31
-34
46
19
-12
-6
-18
38
-31
-9
31
44
4
8
23
5
5
56
35
-17
18
-31
-73
33
-62
22
74
-13
-34
19
47
-46
55
84
-58
-73
16
-35
-36
-16
-45
-39
59
-1
3
-10
-9
-14
14
-20
6
-6
7
-24
13
38
-15
25
15
13
-3
36
5
-17
-5
-24
-20
12
10
3
52
-30
-30
13
9
39
23
-18
-29
-54
28
-30
27
46
-24
-33
54
26
17
-2
-27
-41
18
45
12
7
-5
-27
-2
-2
-3
-17
-22
-32
16
18
-5
-69
5
-23
25
32
8
-13
-77
52
6
-66
59
33
-22
56
-13
-80
46
-13
-42
-52
-55
-50
26
-8
-48
23
29
63
-15
-23
11
-56
-29
28
-7
7
11
-74
-41
64
8
-54
17
-44
23
-40
-19
12
18
-12
-10
-12
-26
57
49
46
61
-22
16
-42
-23
-32
59
34
24
-18
-14
5
55
14
19
21
25
-13
30
30
-30
30
19
33
-16
23
-7
-82
34
10
-9
25
13
44
-6
-30
-3
39
21
-49
-12
20
-1
-2
1
-48
-44
9
-61
0
1
-47
7
-7
-49
6
20
-32
-15
-1
-41
2
32
33
-65
52
3
23
57
4
-33
-20
-26
18
-16
-20
-7
38
36
49
-13
-51
-21
-13
-6
-17
0
33
-2
-7
1
27
12
36
6
-27
3
72
-41
-44
70
-64
-61
-78
-21
24
67
9
-47
-23
-62
-72
-33
58
-60
50
6
-55
81
30
21
2
1
-14
-15
11
30
-4
2
-10
-9
-38
44
-15
-6
30
33
-26
-31
16
-24
44
13
0
-43
23
-20
5
56
13
40
30
-31
27
26
66
28
40
-27
10
1
-1
-1
-15
-28
-7
-34
13
35
-38
74
16
17
5
43
-73
-13
28
7
61
-60
-18
-14
-30
-11
13
-20
35
33
-29
-24
22
-76
33
-15
-2
40
17
-67
-12
-19
21
62
30
-59
12
31
0
-15
32
-5
26
68
37
46
37
-19
24
5
0
23
-20
-35
24
-46
-3
-29
-32
-9
20
-5
12
4
5
-16
-42
45
27
12
-10
3
-47
11
25
-9
2
2
71
5
26
41
41
22
19
20
-5
9
-22
7
-23
-15
2
19
-51
-2
-27
-7
-40
-8
37
-20
30
20
-6
-34
15
1
-18
80
10
-2
50
18
48
-8
29
57
52
57
-11
14
4
2
40
-5
35
63
6
69
11
19
-17
14
34
-18
-7
-52
17
2
32
14
-60
-8
44
49
26
-30
-58
-78
-11
-32
-21
-7
-11
22
79
24
-30
-34
-40
51
34
62
8
-76
29
16
-90
62
36
-20
65
1
-90
44
6
-36
-63
-40
-117
23
-18
-83
14
58
66
40
-18
22
17
51
-4
30
-14
17
13
29
-4
26
-38
17
-3
11
48
-32
-17
-9
31
42
-18
0
-50
21
15
-47
39
12
-40
-16
-31
-39
-62
34
-15
-5
47
-12
-4
7
26
-18
19
34
38
26
28
13
-32
-17
-3
13
-2
-39
-15
-6
-37
-25
-19
10
43
2
-32
-41
11
32
-4
-4
48
-12
7
4
-75
-3
52
-12
4
2
-12
-30
-39
-20
-56
-19
-19
-50
17
8
26
-4
-3
32
11
-26
-5
-12
-22
-27
-10
-35
21
-6
4
-18
15
-3
4
2
18
-5
2
2
-7
-10
-14
-20
24
0
8
-15
-3
-20
50
-67
14
32
-54
-12
-54
-55
12
-11
-30
-8
39
-50
-16
60
9
41
-14
-50
-46
55
21
23
-37
-31
22
-14
-32
34
5
48
-9
-13
-27
51
-9
-28
31
48
-20
-30
11
-51
55
31
-8
43
3
-15
15
36
-57
-24
25
-48
-59
20
22
48
42
8
-12
33
2
-9
23
-20
7
-16
40
-28
34
3
30
-32
-17
-41
-35
2
11
-67
22
0
-63
49
-33
-5
-24
-69
28
48
26
-49
-24
32
-11
-20
7
-45
38
-1
1
4
17
-6
0
-1
17
5
-46
-25
19
24
13
12
-47
3
-14
-27
-40
-11
24
-18
-26
34
24
-36
-3
32
27
-32
9
36
19
12
23
18
63
33
62
46
17
42
-43
-28
5
-50
43
50
-30
-66
44
11
-54
18
78
-45
-49
32
-49
-23
-53
-38
-21
28
-34
-15
-4
13
-42
-9
-5
26
-8
-14
-38
12
3
-14
17
7
-11
-40
45
33
43
2
-10
15
28
34
1
30
3
-9
-20
25
18
-41
-2
-1
-56
-7
-46
3
-34
-38
7
9
74
13
7
5
-28
-1
18
14
20
-44
2
-22
-36
8
-10
-15
-22
26
14
-26
-52
22
-43
70
57
45
-4
-71
71
13
-40
28
37
-56
13
-61
-68
59
21
-75
-41
-1
-94
27
1
-63
30
41
32
-12
-27
16
-43
9
58
16
-17
-13
-46
-63
17
30
-10
23
-18
-9
-29
15
-11
26
-23
-42
-28
27
26
31
71
27
15
50
-20
-2
-36
16
56
20
-62
17
-8
10
27
4
2
60
29
17
54
-8
40
16
-37
67
58
12
-22
69
50
9
49
38
-17
-10
-45
-30
18
-18
18
-39
-29
-40
-56
-64
-19
27
24
-22
18
16
2
27
-12
-6
2
19
44
-6
28
15
20
-3
3
13
22
21
-20
27
28
-47
60
34
52
8
-19
33
32
-16
-41
60
55
16
4
19
15
-15
-64
9
-53
15
-23
-81
-20
-8
-1
-19
-55
38
11
-58
24
38
43
22
-15
-50
3
25
31
20
89
-35
-18
40
-40
44
46
-67
-57
-31
-60
-16
-37
46
33
7
86
-42
35
24
63
-62
-27
43
10
-34
35
-9
-45
-17
-26
-11
-33
-22
-20
11
2
-6
59
4
-32
51
54
6
1
-37
-46
-28
16
-53
-11
10
3
36
-43
-45
0
-46
-8
-9
-3
-47
15
47
76
-20
-3
-12
-39
-11
46
-85
27
-32
34
14
-3
4
-30
-7
-46
45
-68
-52
28
45
27
-30
-47
-34
4
0
-11
-26
-53
-56
12
-49
-10
-33
-13
15
-7
-11
39
-52
-37
-7
28
-30
-54
1
-12
-27
30
28
58
8
-21
58
-18
-20
47
25
28
38
68
-15
-71
32
-5
30
-7
-13
-9
-19
10
-42
-7
-12
-11
-35
39
9
14
-9
-54
39
-10
-43
11
39
-11
-87
-54
27
-20
-73
14
23
43
-5
-54
-42
31
-72
-18
76
35
-55
36
17
13
54
47
-10
1
74
-2
3
38
-41
2
30
31
47
2
38
-19
38
61
39
27
47
17
33
19
-40
53
7
11
26
39
17
56
-41
-61
-52
-48
29
-11
46
-69
38
62
-49
-36
19
17
83
91
24
12
-12
50
24
-55
-3
24
-58
33
-16
-3
-25
-17
-39
-4
2
-32
22
-14
-1
-11
17
29
-38
27
37
-23
-26
49
38
4
-21
-20
-63
-30
2
9
-44
-2
30
-70
71
-7
-12
-24
-36
45
35
57
28
26
-24
18
40
-55
-9
-1
-3
7
32
25
21
-1
10
43
13
-33
3
-11
47
-35
6
-14
49
-29
-22
9
12
68
-4
8
-16
-33
-29
-1
27
12
2
-19
16
68
20
-11
-10
6
-1
1
63
-6
23
31
-41
34
-10
-25
27
-45
11
23
21
-56
34
-6
-54
-5
19
-17
-8
-6
-54
-40
-9
16
24
34
19
7
49
-36
21
-73
9
30
14
1
63
2
-50
-18
26
-41
-27
-41
-45
-15
-56
-42
-11
9
-6
-30
14
-9
22
35
-63
-26
-96
-5
20
-24
30
16
20
13
29
-3
-23
-11
-62
-11
8
-2
-45
-44
50
33
62
48
8
-9
5
49
10
-24
-3
47
31
-3
-28
-51
14
-33
42
10
6
-5
27
15
-6
-21
-31
48
-56
-31
-18
-26
40
47
15
-20
23
41
-21
17
-23
19
4
-26
-39
10
-45
-1
-31
-30
-24
55
-3
-13
-55
-36
56
17
-3
37
-22
10
-32
3
24
3
-15
3
36
-28
-9
45
-52
-18
79
69
-42
-23
-10
-47
59
-25
0
-39
-24
-13
-14
18
-59
-11
-45
-60
40
13
35
-14
46
39
-23
-46
68
-6
-59
-13
-14
-26
-33
-29
-2
-52
-65
-5
-54
-43
-40
-18
-41
55
37
-59
59
-10
-62
-29
11
-65
10
52
-41
-56
50
40
-45
70
27
23
56
32
-72
27
53
17
-26
15
-5
52
-43
-4
35
37
-1
-4
-10
3
-12
-8
20
-7
2
25
-46
-33
10
-8
-65
32
-71
-17
24
-30
-39
-83
-11
6
14
-6
-83
37
-62
-23
9
6
-2
14
4
-62
55
10
37
-14
-20
-18
44
4
52
22
-5
-33
-30
0
25
0
-4
70
37
-10
-48
-46
-50
35
27
-64
-11
16
-26
-31
42
3
52
60
-11
0
51
33
31
24
-46
28
15
-5
-57
-22
17
11
-49
60
32
-57
43
45
-24
65
53
-51
-11
72
-5
70
-64
40
3
-37
-33
54
-10
-11
33
-39
-56
-28
-28
7
-52
48
39
1
-37
-61
-39
38
-15
7
-60
-14
-27
-42
-32
39
-18
-37
22
-16
-37
-45
20
-6
7
50
-14
23
-26
-24
-12
-49
-50
9
-56
-19
-22
47
26
15
1
3
-22
39
38
-10
22
18
-1
14
5
-57
4
-31
-45
45
-10
-9
-3
23
-45
12
44
-28
37
12
-13
13
23
42
4
10
-2
-21
-1
1
-29
3
76
8
-20
33
28
32
30
2
-9
-3
13
33
-37
11
25
32
-13
-24
42
-2
-75
42
16
64
-17
22
-49
-40
20
20
42
24
39
-60
53
15
-14
62
-96
-30
-43
-44
57
-12
39
6
-35
63
-23
0
35
-15
-52
16
-2
-28
-13
25
1
-20
-62
12
-8
17
-22
-48
49
-11
-21
48
5
-55
-2
-1
12
-27
-17
-60
35
-25
-15
-12
3
17
17
-47
-8
-2
-58
10
-16
-11
-17
19
-50
57
-7
-10
-45
-46
63
10
-39
10
-10
-12
-25
-42
0
30
10
-47
33
-23
-5
17
-3
19
31
4
18
-10
-64
-65
-6
-48
-79
-27
1
-24
17
-10
-17
-55
-27
-72
30
-23
-17
10
-1
2
-36
15
-22
-2
-11
-21
16
11
3
52
46
7
4
23
-24
-35
45
-29
30
7
-17
21
-3
1
7
-6
3
7
2
9
-5
0
9
6
9
22
-2
5
14
14
1
28
56
52
-28
51
3
-14
-25
-65
25
48
20
-27
46
51
-7
-42
41
-12
-25
-8
-38
-35
-36
-33
4
-20
22
26
-30
-7
5
57
5
-5
-72
14
29
-20
12
48
29
-6
51
0
6
31
-52
7
-2
-26
-17
-26
59
33
-8
50
5
-7
2
71
-3
-80
60
56
24
28
-63
-66
1
-35
55
-27
21
-7
16
9
0
-18
20
-16
-20
21
33
5
-21
27
-23
14
-8
-19
-28
-23
-24
-17
-19
24
-6
-2
-17
-31
-29
43
32
60
29
1
-15
7
31
57
-38
5
-38
19
-12
17
-6
7
-13
-42
37
-94
-33
60
-48
48
51
41
-65
-29
-33
-68
40
-2
-51
-52
-51
-34
-15
2
-20
-11
-73
61
-67
-34
-20
-38
-28
-65
37
10
-46
67
45
40
62
64
44
21
38
21
46
4
48
29
12
8
42
0
42
44
30
39
6
-32
13
-16
1
-18
-9
13
3
31
16
10
14
2
6
26
-3
-8
-34
-2
4
-8
-35
-43
22
19
-22
-7
6
6
-9
-34
19
38
-23
44
39
26
31
50
19
-75
37
31
-22
46
26
-27
-43
-60
10
4
35
-31
18
-54
-21
-43
22
29
-32
69
-41
-53
51
50
48
11
-30
-21
-47
-23
12
-34
-1
-44
-30
-33
59
32
-32
-6
9
-2
-14
19
54
10
-8
5
54
3
-19
20
-32
-32
-44
22
-67
-47
-9
-19
10
15
-12
-58
0
29
4
52
-31
48
17
27
48
-36
15
25
18
10
12
-23
28
-9
-1
40
-52
25
55
-18
-29
-7
-8
49
35
-19
-3
43
-29
49
32
-22
34
-58
-31
-8
-46
-16
68
41
32
56
45
-49
52
6
40
54
22
13
20
42
34
30
-12
-28
29
11
1
34
7
-9
-41
-9
-28
4
-7
-23
-15
5
-24
-25
16
-32
-2
45
-44
-18
-9
-4
-11
5
31
22
7
41
18
16
26
1
-12
-2
-5
11
-40
-46
33
-15
16
-42
-12
-21
18
-13
-4
6
-16
52
-2
-10
13
6
-22
-5
11
2
-18
28
25
-20
-28
-16
36
-11
-12
-4
9
-6
-17
28
-13
-30
56
-32
28
-9
6
-26
17
-5
-24
-18
-31
-6
48
22
30
-23
14
23
8
-22
-16
14
-21
-33
-22
0
3
16
-30
18
27
-60
-56
-13
-8
-15
16
-2
-42
6
-49
-49
18
-2
-4
31
-3
-72
41
52
-5
-27
-39
-18
17
17
-37
16
26
11
42
-58
17
-50
24
-70
15
13
22
-5
-2
19
-12
0
55
-17
-15
36
-75
38
12
42
47
-24
-29
-64
51
34
-49
47
25
-58
39
-6
-36
-23
12
-5
-1
59
-18
9
31
53
15
10
-4
0
52
53
52
1
24
45
-40
-63
47
-4
-18
55
57
14
1
-24
26
27
-2
-35
-54
16
-55
-22
31
-43
14
46
-31
-44
41
5
-5
3
-22
63
21
5
38
6
0
14
35
-6
-32
55
-19
14
64
18
16
3
-1
11
-8
-16
16
26
12
38
31
-34
13
11
-31
3
23
-7
-29
-2
12
-17
-12
19
20
11
19
-17
21
8
-11
33
4
6
71
33
45
15
9
-3
45
6
-53
-3
-31
28
7
28
2
-35
-3
-27
-2
-64
29
56
-76
5
-65
22
-13
48
-14
5
55
-50
-64
36
38
-39
22
-15
-6
6
2
-55
-18
-5
18
-2
2
-54
8
45
-32
-1
-82
-5
7
43
-40
7
21
25
12
-53
15
3
10
-44
-2
-48
19
36
26
7
-9
-23
75
-35
-35
53
-67
36
-6
66
19
-34
-39
-29
2
-1
-14
-1
-18
-4
36
12
-46
-76
25
6
47
23
-29
9
14
21
29
39
25
0
42
31
43
61
-15
-36
-24
-18
-23
-24
27
-35
16
6
23
31
41
17
2
-54
-33
13
47
17
26
-28
-36
-47
-27
16
31
-8
40
-16
-38
-10
20
-49
-24
53
-58
5
17
3
-23
-6
35
28
9
47
-3
-26
-56
-28
-1
-44
-49
-16
13
45
3
-46
-14
36
-68
-20
7
37
-46
3
12
16
56
51
4
-28
54
25
-51
16
44
-25
-51
-46
-26
22
37
-33
-17
-7
-54
-34
11
51
-53
15
-20
2
96
30
21
-19
4
43
-47
-30
17
-34
43
-7
-5
-61
7
32
-58
16
15
11
33
36
23
16
13
1
31
-1
-24
-20
-4
9
-10
2
-21
-48
-10
31
36
28
-24
-44
25
-4
15
2
-21
36
-20
10
52
15
21
35
12
16
-26
-71
-33
-2
6
9
-5
-32
81
-28
-33
-38
-19
60
54
-15
-40
7
-76
57
-3
-18
48
-21
-31
-25
-6
8
16
23
-17
52
40
6
9
-7
41
-29
-3
-27
26
-6
-2
-10
-25
28
1
-15
13
38
8
4
25
38
-12
-14
42
1
-13
22
12
43
12
40
39
45
11
-16
3
45
-42
1
22
49
20
12
-3
-36
71
1
-34
-55
52
-1
-40
-33
4
-30
7
32
-21
12
19
38
-12
-72
20
-4
-40
12
51
-59
7
-1
-57
-31
42
-17
-48
-40
25
-20
-64
-13
-33
-12
51
2
13
50
19
17
-25
-64
-32
-7
-26
-66
10
1
14
-14
8
-7
11
-35
-5
33
10
39
6
-22
-6
23
-21
8
-6
9
-20
28
-36
-28
-10
-22
-50
18
22
-1
39
-38
-13
12
9
18
1
-22
13
-21
-36
24
8
-13
17
30
-23
34
12
-15
26
12
-25
12
0
33
20
-20
-3
4
-70
-6
74
-18
-13
12
46
-64
24
-23
15
-5
11
78
70
-13
26
-10
-27
11
52
47
14
-1
33
-5
-44
4
10
13
15
-46
23
-21
53
15
34
5
43
-33
-37
23
-22
63
11
25
-17
9
-69
-45
-42
-35
34
12
-6
38
52
-31
61
74
55
19
-23
16
33
0
23
44
7
14
10
-24
-4
34
9
20
-3
43
7
36
42
-7
-11
-2
9
-45
-3
2
15
-21
27
-4
15
-35
-39
-24
14
-24
-23
-31
4
19
-7
-30
-13
-18
-17
-12
22
64
-1
1
-7
-9
13
38
19
14
53
9
-18
17
10
-6
-15
-33
2
4
39
-44
-4
-28
-6
-37
-22
28
-11
46
-20
4
16
4
12
61
3
-6
-66
-25
-62
-63
-24
-34
-38
17
41
27
16
-67
-3
-40
29
29
71
15
-51
30
19
-11
43
31
-61
19
-55
-21
19
19
-50
-37
-52
-53
33
24
-20
-6
67
50
-35
5
30
-19
65
-22
20
26
41
-4
19
-30
2
-36
10
-29
-23
-27
15
39
-10
19
30
-18
-23
-2
47
61
-1
26
32
-78
34
-49
-42
-32
7
-22
38
71
-5
38
52
52
33
-15
30
19
23
35
58
-59
29
23
47
49
1
-23
40
-38
-21
-46
0
-2
-2
-13
28
45
49
-6
-18
20
1
43
44
3
50
-20
-7
21
-5
-10
30
-18
-17
5
-8
-5
34
38
-40
-5
19
-9
41
-31
-61
19
19
-3
9
-29
-13
-8
-31
52
-31
24
61
29
-17
28
10
50
51
-26
13
-17
9
27
-45
14
8
29
0
2
14
26
-52
14
56
32
-7
0
-57
-28
45
5
12
21
19
-63
44
47
-29
55
-67
-3
-27
24
49
-3
15
-25
-25
-17
-15
14
-12
-2
0
-26
9
1
35
-13
36
27
-26
-16
3
59
-19
-41
77
1
-44
49
-41
-49
22
4
-7
-40
-45
-60
51
0
-39
-8
22
63
6
-43
47
-14
-32
24
14
0
-18
12
-42
30
-7
6
-48
-48
62
-50
-34
-8
16
0
-14
-14
19
59
-32
-18
22
-22
0
10
-41
0
53
1
-2
-28
-42
-42
3
-51
-26
15
-21
11
6
-25
-1
-24
-15
-8
0
9
46
19
-9
35
-31
-47
-8
-16
7
18
-19
-20
-10
6
-39
25
2
-14
-46
-13
-29
-55
26
10
28
-39
15
-48
-37
3
-28
-53
-7
5
-19
-36
51
37
-37
4
75
36
3
22
11
19
14
-21
-32
-3
-27
35
-13
19
53
28
-38
34
-40
7
29
-30
-22
-14
-26
33
0
-10
33
8
18
-49
25
10
-15
1
35
19
10
6
-43
41
21
98
11
18
49
-29
34
-40
-23
9
-42
3
-23
-30
-15
8
38
13
17
-3
34
19
73
-23
1
-5
-14
42
-9
22
-7
-25
-60
14
27
3
3
32
-26
7
25
33
-11
6
-14
15
0
-1
28
-6
-17
2
6
-30
-15
-29
16
22
-18
37
-56
-2
6
-5
-61
38
-39
5
-52
38
-66
11
10
-23
11
-46
-3
-23
-4
20
33
0
-27
-34
-23
-15
0
35
-31
57
-15
-1
19
67
-41
-24
1
-13
-34
-34
-5
21
-24
-38
-14
-70
-26
9
13
26
7
-34
33
23
-28
10
10
11
3
-29
20
-11
9
-26
-10
-32
-23
-37
-19
-30
-14
14
-15
53
43
-25
41
13
-34
21
5
-34
-44
13
-71
-21
24
58
-65
50
3
37
52
16
-58
-19
-2
-17
5
-19
-3
-3
11
4
-3
1
-23
24
-7
17
6
0
-39
5
-5
28
-11
33
16
1
19
16
-68
-12
52
-53
-22
-46
-35
20
37
0
-20
18
-51
-21
-15
48
-53
21
-19
-17
46
27
38
-68
-16
0
33
12
4
-11
55
4
4
-45
-15
17
-31
15
51
22
16
27
-42
0
12
-52
-39
42
-2
-45
30
-36
-3
22
-15
-19
16
12
13
54
9
-11
18
-15
-45
-47
-11
-1
-39
3
5
-31
37
48
-39
38
6
-59
-21
47
21
33
-39
17
27
-33
3
22
-10
-6
28
-10
-47
-9
-36
25
10
45
48
35
-48
-31
-14
20
-12
27
-21
-33
22
-3
-36
31
-6
-55
56
-53
2
-78
41
5
38
-21
13
68
-54
-46
65
-47
-43
12
-19
-52
-43
-12
-34
-46
-40
-35
-96
-37
-34
-6
-49
44
2
-45
1
-22
1
4
-4
4
2
26
17
-10
-18
-2
-7
33
-22
18
23
14
-23
29
38
30
-7
10
46
8
11
-44
29
53
31
-11
17
25
-53
-51
9
-60
-27
-33
-60
-58
5
-5
-83
-41
-14
-18
3
7
-42
-37
-52
17
-28
34
-49
-10
2
-33
15
-27
-12
-41
15
-28
1
-19
10
-27
4
1
45
49
51
48
26
-3
38
7
-31
-50
-17
48
37
48
-68
-49
-48
24
27
-49
-30
71
-17
-55
90
2
18
66
-8
22
47
53
65
75
-35
6
42
-5
-65
-48
-7
-29
-22
39
-40
-44
31
15
-17
23
-3
12
-18
21
-5
-15
-20
22
-31
8
-38
37
-10
23
23
10
-30
-62
25
-71
-43
83
5
12
-21
5
-33
35
-7
-60
-42
-30
-19
0
-76
22
-56
-57
-11
-65
-58
-11
-46
-49
9
56
-41
-46
45
22
-48
-21
-14
63
8
6
7
37
18
11
35
71
15
72
37
-16
66
-44
-34
38
-24
2
57
-43
-43
34
2
-44
4
88
-42
-57
12
-36
20
-9
-66
7
34
-2
-22
-46
16
-34
-13
1
24
36
0
-30
-17
38
7
4
24
16
-7
42
24
56
17
15
36
7
32
7
-20
-27
-38
-47
-11
18
-32
23
-39
-90
21
-34
-6
-26
0
-4
40
64
-36
-13
25
7
16
21
21
49
-30
-8
-23
-48
61
-62
19
-40
-6
8
-42
-32
24
-5
37
56
8
16
-17
70
13
-68
39
35
-25
11
-66
-13
-10
-25
-76
-59
15
-65
42
-20
-58
-6
54
64
-7
31
15
-4
-32
34
21
-10
-7
-56
-74
-16
-11
-36
-49
-32
48
-23
-4
-3
35
-13
-26
11
33
44
-15
73
15
12
-1
-64
1
-43
34
28
-11
-43
-7
-29
26
31
4
20
8
15
13
35
-65
-11
14
-4
-60
-3
-8
36
-47
-45
43
8
-36
45
37
45
48
-24
-10
1
31
42
27
52
13
48
5
-59
17
38
-31
11
-23
-9
-31
-72
-45
-40
12
31
-45
-16
-42
-16
15
-13
33
1
-40
20
21
-48
-12
-28
-17
-26
-39
-7
-3
17
-13
-16
-26
45
-31
13
26
21
-38
4
40
35
28
47
8
-44
45
41
-19
20
32
-67
-40
-29
-29
11
-20
-43
30
34
-51
-63
27
41
-12
46
-55
-60
74
33
58
25
-4
55
-10
-28
31
-34
34
-44
-22
-56
14
44
-25
0
38
-14
7
13
7
72
13
20
10
-17
20
40
-19
-29
-21
28
8
-54
-57
-21
26
15
5
-27
45
13
48
60
-32
48
20
27
-31
48
38
48
-68
9
-11
-30
-17
5
-70
22
-11
-73
54
-39
-15
-48
-91
27
52
16
-54
-15
-43
27
36
-11
-20
-38
-26
24
-18
-23
34
27
-22
23
19
-17
16
-5
53
-6
9
-35
21
7
3
2
35
40
-22
21
-16
-37
-7
-17
-12
-6
-10
-19
-13
38
60
5
39
18
20
23
0
-2
14
52
-33
-38
-20
4
-40
-41
-51
-50
-24
19
-51
21
-3
-5
-24
7
5
34
-11
12
26
2
-18
-23
-56
-42
-32
25
-14
8
28
-11
-44
52
-1
8
18
7
-38
-18
12
50
-35
9
0
-10
-6
31
-20
5
40
-104
-55
-50
-34
63
-34
-53
-10
-32
-25
-50
-6
48
0
53
-41
-72
64
5
47
-43
15
28
3
-2
18
-29
13
-69
-24
-3
35
26
-22
15
86
-41
-43
-10
2
51
56
-14
27
-20
31
28
-1
16
-55
-9
4
-5
-6
-5
18
-2
39
-31
36
19
43
31
-13
37
15
69
-29
18
32
49
-50
41
-1
-28
0
28
-72
62
-13
-4
27
-46
-17
-8
-71
48
35
-18
-63
19
-14
-10
-12
23
-21
-9
39
7
-70
-41
-3
-9
3
-10
20
-16
-26
13
24
17
-1
-25
-18
-18
-37
-13
-24
66
-46
-3
33
9
-52
0
-3
70
-5
-3
13
52
44
12
22
31
23
6
54
47
38
-42
-81
24
-32
8
56
-11
-14
50
30
-59
31
62
-72
-87
15
-62
-10
-40
-53
-28
22
15
-24
-11
6
23
-11
-8
31
-37
-10
-18
30
-14
-2
-35
-18
-8
36
-22
1
-31
-23
-19
-38
23
-22
-32
32
-23
-25
6
-13
14
-32
-50
-38
-5
27
-35
-1
30
4
-22
44
19
13
-26
-30
-18
0
1
14
-17
-7
28
31
-44
32
-15
-22
-31
-22
-4
-29
-61
-20
-11
-2
2
44
11
-28
25
26
-27
48
-9
2
18
-22
0
-28
-15
-51
-43
5
-34
1
-8
-53
17
37
24
10
22
43
-57
-12
20
-15
-23
1
-73
-44
-5
36
-44
-21
-48
52
-28
-11
26
59
-37
25
-49
-35
32
3
31
48
11
38
-11
-27
-17
50
57
13
-17
-2
-51
52
-17
7
44
44
16
-5
-7
-21
-13
1
-6
-13
33
-25
22
6
-18
7
42
13
-28
-11
9
25
44
45
41
8
37
17
-1
36
35
5
47
35
-59
-45
45
-39
21
38
55
-5
49
15
-42
49
51
-12
-20
2
5
4
-48
-18
20
49
4
5
22
45
-22
16
14
42
6
-8
-30
23
-34
9
-31
6
-2
-23
7
10
15
-16
-25
-34
-8
-5
-40
71
5
-48
59
66
66
8
-15
26
-14
39
-7
56
26
-19
-40
20
-13
10
38
-71
-4
-27
15
52
-30
0
-3
-73
3
-39
43
13
41
-5
-21
21
-47
-72
-10
52
14
64
-29
-39
49
-11
-59
9
15
-68
22
-3
-67
38
43
-26
-59
-32
-38
18
15
-57
5
23
20
34
-28
-3
-24
-25
-18
-7
-34
39
-42
3
41
40
-68
42
-70
-5
19
-67
49
21
-11
21
-53
-67
28
61
11
38
39
23
-28
32
-46
-5
-17
29
-24
8
21
-11
5
14
19
26
-2
22
25
-9
24
41
-19
64
66
-11
-52
41
27
-5
26
55
-39
-50
-37
-31
24
-34
-13
-60
-19
-22
-80
-43
-20
-41
32
-28
-31
2
-6
20
7
17
54
59
44
31
-26
-7
-8
10
31
-7
38
-49
-15
60
0
-14
50
29
73
-3
24
29
-9
-24
-47
-8
27
41
-25
25
-3
-31
-52
42
-55
-28
-18
-44
-31
-31
0
-11
-81
51
-20
-7
61
40
44
13
-29
-1
73
28
-16
36
69
-40
-37
10
-81
44
69
-87
-43
-27
-39
1
-19
63
60
-8
19
-9
49
8
49
-61
-53
16
-6
-48
45
-48
-72
-5
-41
-6
-8
-39
34
7
-6
52
30
27
4
-7
19
48
8
-43
29
-7
19
12
-3
-32
-68
32
-14
-10
-7
-17
2
-40
-62
21
29
35
61
9
-44
31
-33
22
82
-72
60
24
41
48
-58
-27
-20
54
-53
1
-32
-17
20
24
-2
-33
-40
-11
36
-24
-54
15
-32
-55
4
-5
-27
-47
-56
30
-3
6
-47
22
26
31
11
-8
66
-8
6
61
-19
-19
25
-33
-15
-67
-17
31
-66
-59
-15
-82
-31
6
40
-43
35
-48
-33
16
-8
10
17
-11
-24
15
-15
51
5
-8
-12
-11
9
-47
-18
34
-31
-57
20
62
12
-9
6
66
-21
9
-53
-47
36
9
-27
61
-25
-74
-55
38
-30
-38
-33
-48
-38
11
-3
-100
47
-28
-69
44
-33
-45
-23
-62
-12
-52
5
-24
-39
-53
-46
-33
9
-16
-38
39
-59
-8
26
20
30
-34
9
12
0
58
53
38
-27
-18
19
5
-60
-26
65
28
-28
-52
-40
-21
-25
33
-24
-12
69
-13
-35
81
11
-1
20
-24
18
68
26
17
79
0
35
44
29
-39
-70
-16
-4
-13
21
-22
-46
-4
-23
12
38
4
9
24
10
-13
18
-42
50
-48
38
0
13
-1
7
-9
-25
-24
-17
14
0
-47
20
0
-5
1
-5
10
-14
-40
-36
10
-34
-15
57
-3
37
-24
-25
19
26
-61
-24
-44
-14
14
37
-48
-52
49
-40
-35
-42
-22
33
-40
-18
13
39
-3
-2
13
33
14
47
36
-25
56
7
-19
32
-51
23
12
-17
-13
18
22
-34
37
67
-66
-44
37
-60
-2
-19
-40
12
33
23
-19
-14
14
5
-1
-44
-12
-33
39
-25
21
-6
15
-11
24
12
-23
-8
-12
19
-12
36
2
44
34
-18
15
-9
-31
74
71
35
6
15
-67
2
75
63
35
1
33
-35
61
20
7
30
-61
26
5
25
59
14
-43
-2
-28
-47
20
0
8
-13
0
16
3
-48
8
7
78
26
-2
-18
-37
52
0
-34
57
34
-34
-8
-47
-14
18
-11
-61
-40
-17
-56
45
10
-12
-23
20
47
19
-14
40
-57
-72
62
9
-12
38
-63
-69
54
-32
-71
1
-12
97
-50
14
21
47
-65
-33
-17
29
42
48
35
41
10
0
-28
-21
31
53
22
50
-19
-59
-12
7
-45
-35
-14
26
-44
-17
-24
-73
-52
-23
14
30
-6
-29
44
25
-23
38
-4
-43
-56
-27
-2
-7
3
14
36
12
37
4
21
-17
51
-6
36
10
-24
-54
-1
-38
-19
39
-4
-35
31
63
-25
8
67
-44
-30
0
-7
-9
-30
-40
-2
10
25
6
-2
25
6
0
0
22
6
25
-23
-10
6
-32
-9
21
12
-29
22
3
41
5
11
7
63
0
-26
29
15
-80
46
50
78
41
-4
-21
-44
71
-9
51
86
-37
-48
24
37
31
87
-36
-49
-29
-6
60
22
-44
25
-37
-21
-43
4
37
27
-1
15
25
-48
-10
17
69
16
37
0
-49
78
-21
-53
47
6
-58
82
-16
-114
85
59
-75
-85
-36
-120
17
32
-115
-35
17
32
22
-39
-2
-37
-27
3
-20
-24
27
-42
-35
67
9
-28
14
-56
62
-18
-42
42
1
-10
52
-19
-4
19
18
-7
51
-7
-17
-16
17
-17
19
21
20
-28
-29
-6
32
-41
-25
4
3
23
12
12
-41
20
31
40
-24
6
-16
-79
-3
-4
-1
33
41
18
-9
-60
32
39
11
-41
-28
-5
-26
-35
15
-54
-45
12
-9
9
11
-27
20
-37
-15
12
15
-15
10
14
-40
-19
68
38
-24
58
22
29
45
65
-17
-30
-10
-4
-39
-49
-30
18
-14
53
26
-17
-38
20
-35
32
5
27
15
1
40
44
22
17
46
-42
35
-23
-23
0
-10
-18
-21
-29
32
28
61
22
3
-48
-22
-24
-2
39
-73
7
-23
-1
25
0
17
-15
3
-4
8
-5
-23
13
-16
-14
-22
10
14
-16
0
-8
10
-17
-18
13
20
-12
-17
32
-1
-3
-32
-30
-27
44
-15
-55
37
26
-23
-4
-46
-26
9
38
-14
-4
31
8
10
-35
-6
-11
13
-29
58
13
17
68
36
-43
17
5
25
48
-71
43
-4
2
-4
46
9
21
16
-47
-4
-20
-58
-2
-16
-26
74
14
-48
-62
-5
37
36
46
-37
27
-13
30
26
32
36
-27
34
31
13
20
1
-23
-47
5
8
-38
28
1
-14
-27
20
4
4
22
43
4
-13
4
17
19
-17
34
34
-35
46
-28
-37
57
-61
-5
72
41
7
62
16
-1
26
28
-18
-5
68
-48
-12
-53
-17
7
7
21
34
-13
22
28
33
9
23
-14
-3
-1
17
-33
-2
14
4
-35
13
-22
-9
-39
15
-6
-28
51
61
-25
67
2
-38
63
52
92
33
-11
-45
42
47
37
94
52
20
-44
63
-4
-11
96
-102
-9
-46
-7
47
3
-38
19
-33
-26
-22
40
16
41
-8
-20
-12
-49
-29
29
70
33
-16
-4
-77
11
23
-5
23
34
-25
-4
4
-40
6
38
-50
-39
-54
-27
31
-23
-38
-9
44
23
-11
6
19
-44
-33
51
-46
-58
2
-37
-19
58
-26
-28
-17
-59
70
-4
-35
15
54
-39
40
-22
2
26
51
30
50
-43
16
8
-12
-3
54
6
56
2
-37
-32
39
-21
-2
28
42
6
7
2
-34
5
-34
23
20
4
3
-39
6
16
-10
-12
-2
8
25
-39
37
-16
-33
-10
-45
-27
2
-33
-14
-20
-62
21
-5
28
31
-24
7
15
-28
-23
8
-38
9
43
1
2
36
35
-65
19
-7
12
14
43
-40
-21
-48
-24
-30
-20
-5
35
15
21
-27
-5
-11
20
-33
14
31
15
-8
15
-3
25
-4
8
-4
-36
-37
51
-81
-38
67
-42
-69
-77
13
10
102
-11
-44
-34
-63
-48
-26
78
-77
50
-29
-73
126
10
64
26
22
40
-24
-24
23
9
-4
-30
-32
-1
45
-3
-39
-8
18
-24
4
7
31
48
37
-18
-23
26
-34
-33
51
-9
31
-16
7
-5
-2
23
4
13
-32
28
-17
18
15
-36
-13
9
18
33
53
-25
71
32
2
-7
22
-46
5
58
17
57
-41
26
-3
-33
-17
13
1
33
7
-27
-14
19
-74
75
22
-28
44
-3
-59
-64
-5
44
24
43
-32
16
41
-14
-3
23
15
27
60
38
6
5
-21
0
40
-9
12
-12
37
-24
-17
-21
-25
22
-23
-29
-6
15
25
-20
22
-4
-21
34
-36
-40
26
-1
0
10
-24
-7
18
-55
-49
-35
17
22
-8
6
17
-10
-18
-27
-18
5
5
-18
-24
-44
-40
-10
23
1
-24
-31
6
4
-1
-39
-18
-5
-38
-44
41
52
-35
50
19
-19
0
21
9
41
5
68
-32
9
14
-38
-21
-25
-15
18
-8
8
-17
26
-54
-38
38
39
4
0
-3
-47
66
21
61
23
-7
61
-53
-74
8
-52
51
-46
-10
-67
18
22
-81
30
18
-44
39
67
22
80
5
-28
13
12
-6
-7
-13
-19
29
34
-10
-46
-14
13
23
-5
31
-45
58
31
-19
14
1
36
21
54
-3
17
68
47
-11
-13
-46
-72
-17
23
-12
17
51
-87
93
-30
-7
-35
-48
5
75
47
-44
-24
-2
40
14
-12
-39
11
31
12
25
7
-27
17
14
-15
31
-26
17
26
11
-19
-7
-13
25
22
-74
-10
-71
26
-41
-31
54
8
-71
35
6
25
26
31
54
-3
17
30
55
-2
66
47
32
13
47
-22
-24
53
-46
46
8
-6
10
14
10
-18
16
22
-57
-46
34
-78
-14
-57
-42
-39
76
-52
-38
-26
32
5
-29
-33
47
31
-24
-43
10
11
-20
-15
43
6
-44
59
-11
7
61
37
18
-22
19
29
56
46
12
36
21
39
34
2
9
-14
30
-7
-1
4
16
2
-3
58
-23
40
-21
-17
1
28
60
26
-37
-12
-32
-47
11
-14
-43
1
-7
39
16
-89
-35
-37
42
67
72
-16
-43
78
38
-59
15
34
-74
30
-67
-57
8
-2
-58
-66
-36
-50
60
12
-51
17
74
53
-33
-5
46
-14
9
30
-20
-29
2
-80
-5
-5
-2
-44
13
-28
42
-37
-21
-16
7
-33
-14
3
12
24
19
49
-18
48
67
-47
5
-18
0
-1
16
-25
17
46
41
24
56
7
41
0
26
61
-23
40
63
-31
27
-12
-34
6
3
-14
-20
-7
19
-28
-1
20
-15
3
-19
31
30
-2
-21
51
-27
-17
17
46
0
10
-37
-31
-33
-2
10
-38
14
6
21
-23
31
10
-42
1
-10
-30
-52
-17
-27
-65
-6
-4
34
19
5
17
46
-31
3
-16
-15
11
51
-27
13
21
-24
-6
-4
5
10
-2
-30
-16
-37
-28
-40
12
-20
-58
43
-41
-35
-46
-46
-38
-72
-42
-50
-43
-50
-22
8
0
20
1
-4
-26
36
31
47
43
-46
7
-24
33
70
37
12
-9
-63
-2
32
-26
17
7
20
-42
-62
-25
-12
-3
28
-11
37
-8
-9
35
-9
-46
-2
30
11
-28
-6
16
35
26
5
-26
16
36
-15
-23
-32
22
-22
14
-19
-44
-14
14
11
4
2
-5
-8
22
-30
-9
-40
26
-30
21
-31
19
-15
3
-1
-15
-19
52
34
-24
-27
-14
-30
-57
11
49
-33
-77
10
-6
46
0
-12
-32
-9
-15
-14
29
-8
65
-35
-18
15
33
40
-32
-8
26
7
-45
0
-10
-29
-33
24
-24
-18
-37
-7
-14
20
-30
-6
-32
-43
-30
21
68
9
-37
10
-21
-54
-33
-40
-26
-45
61
-79
-34
40
55
-29
41
72
67
0
60
-9
5
10
6
-61
-35
7
-2
-7
-6
55
-3
-4
7
-16
41
10
-9
-2
-35
21
44
14
-1
37
-7
-16
16
-27
27
15
-31
1
3
-37
55
19
23
-14
24
7
-3
19
23
-2
11
-49
20
23
-11
19
-66
0
4
50
-15
12
24
0
-23
13
-15
15
-11
-36
60
29
1
-12
-45
-70
-7
75
-30
-18
-1
-43
-19
-14
3
0
29
-31
-22
-3
47
57
46
-31
-38
46
8
-25
-19
-9
-2
-6
45
-7
-22
29
43
-78
63
-10
-8
-21
64
-53
47
-45
21
15
-48
-23
22
-59
51
36
12
-33
-44
-48
-2
-22
41
29
23
1
-21
-50
13
24
-23
-22
-18
-2
-27
-15
-13
23
-34
23
-57
-21
-2
14
-17
18
4
14
-28
10
-13
-9
-7
-32
-21
-11
-19
-15
-4
11
-33
-2
25
27
-19
-16
-32
-20
46
18
-40
45
13
-1
-31
-40
-38
-37
55
-47
-53
32
20
-33
27
15
44
8
13
-37
-23
-25
-21
-2
-47
-19
-4
5
52
30
-9
-16
4
-38
-10
6
51
-6
31
29
0
40
6
40
2
-6
55
-53
2
21
-48
-57
-26
-44
20
48
-16
-36
13
-63
-64
40
36
-43
7
2
-20
88
-16
29
-4
-24
15
0
-57
60
-6
6
-17
-21
-46
-2
0
-15
35
35
-19
28
46
-29
39
10
-47
-15
14
7
23
12
-33
-2
33
9
-48
11
-12
37
25
-9
-5
14
2
-23
-12
-7
19
-11
67
-26
-11
36
28
-59
3
-13
-49
-12
25
-19
74
3
-18
40
-45
-43
-8
-63
22
55
26
-56
-43
-33
43
12
26
35
-1
-43
-15
6
2
-3
30
-38
-11
19
-31
5
17
15
15
8
-42
4
50
16
13
-46
-31
-14
13
-42
55
-3
23
22
-22
39
13
7
-39
8
24
17
-11
24
-4
0
34
-4
9
3
11
46
23
0
15
16
18
-4
12
2
-30
37
40
-25
18
-17
26
45
-12
-3
-42
-30
-37
-17
0
4
-4
-12
49
-13
-29
12
34
-44
-17
19
-9
1
12
0
-3
-21
21
42
-40
-19
69
-20
-25
21
-68
-42
-64
1
19
51
3
-62
-39
-73
-48
-54
48
-46
36
16
-58
50
-25
35
29
1
-19
-27
9
-35
-39
-14
-11
-65
15
39
9
-28
9
16
-47
2
26
15
11
22
-17
8
-26
8
38
13
0
18
-23
-22
10
-19
8
-44
-25
18
-15
14
35
31
-11
-29
-17
-15
16
30
-73
31
36
-7
16
50
-64
27
26
39
13
-45
21
-2
-18
-33
74
-2
17
20
-73
6
-2
-39
20
-2
-13
68
-53
-29
-32
-49
8
32
42
-28
3
48
-26
3
26
55
44
9
44
48
-6
29
35
44
-20
19
48
-6
-43
37
-9
-43
-11
-3
-39
-47
-26
6
-15
-30
-33
-55
-30
-43
10
-50
41
-1
-67
48
18
-35
-6
-20
-78
-19
21
-59
-46
27
12
-46
18
1
38
22
-24
-42
-39
15
-23
-22
-19
-22
28
1
23
6
-32
-9
31
21
17
6
7
13
27
29
1
-30
-22
3
-23
-48
34
-51
-47
48
-46
-59
-74
-47
35
11
-16
-86
27
-61
-44
-19
31
-33
-8
-25
-80
78
-22
69
2
6
61
23
-33
21
30
37
-53
4
-66
26
-12
-31
50
81
-8
-40
23
-7
33
23
-60
10
29
-34
-23
45
9
46
45
-9
-23
26
7
62
50
6
-24
62
-14
-67
-61
13
8
0
44
-15
-52
56
59
-62
40
5
-59
-40
61
-23
48
-55
-32
29
-46
-26
23
-42
37
74
-26
-51
-48
-45
25
-23
27
39
-12
-5
-23
5
0
23
19
-16
21
1
-15
-14
16
-18
-18
42
-6
-21
10
3
10
9
-12
25
10
-16
-42
22
-24
-53
16
4
-44
-25
-39
-36
-36
10
-8
-4
4
-52
-29
-12
16
12
0
6
-48
-36
29
-26
-61
-49
17
-3
-42
22
12
5
-3
47
17
2
0
-17
10
13
-8
1
-2
-16
-18
-12
-31
19
6
-9
-26
23
9
-15
15
23
18
-22
20
-6
-11
-17
16
44
-36
13
-1
8
13
30
5
15
4
12
64
-21
84
45
6
41
-35
4
-78
-9
21
-4
-33
18
-30
6
36
44
-10
-10
23
18
-8
19
-20
1
21
0
13
24
-1
0
25
-10
34
9
-42
3
-1
-12
-31
35
-8
24
69
-32
-2
2
5
16
17
-15
13
40
-27
-47
-20
-21
23
-19
47
-31
3
43
3
-32
29
-2
13
-63
3
-48
-1
37
-33
41
-16
3
12
-44
19
45
-5
-15
-37
-3
2
-12
66
-40
56
8
-18
-6
31
-43
-13
-27
-43
-39
-29
-60
0
22
-59
-10
-52
-30
-40
-21
-44
29
74
-4
-2
39
-52
-21
-47
-38
63
-69
-26
10
10
30
-24
23
54
-35
41
48
-31
12
25
-69
-19
-70
-1
62
-53
-66
25
44
-39
32
63
-71
-27
19
-19
6
-33
-38
-13
13
-33
-19
-50
41
-10
-25
10
-1
15
25
-5
23
-8
-7
-31
31
33
-23
10
-4
-21
9
30
4
11
-43
11
22
8
4
-9
16
-27
-42
-29
-78
-25
31
24
-4
-15
10
-37
31
-1
1
-14
1
-28
22
18
5
41
-1
-48
47
-5
15
-6
-29
-46
-15
49
-45
-15
39
-43
45
66
6
19
-17
-22
-9
-28
40
-6
15
5
-11
-1
-8
-1
4
-47
8
-41
11
-14
-18
-14
19
30
15
-4
-12
-9
-62
22
13
30
7
-21
-80
-27
-16
-18
-24
-6
44
-89
8
-41
32
-56
-32
-11
23
38
21
31
19
12
11
6
-54
-32
30
44
0
-40
-53
3
16
-38
-19
41
-4
-23
14
-17
-24
-18
-41
-48
-43
-36
-16
65
-38
-14
39
-54
-47
-14
27
10
0
-40
-1
58
104
21
66
29
-12
5
30
-28
23
-17
-38
49
-37
3
14
-100
-47
3
-27
9
4
16
-27
-24
41
-45
6
-30
-42
-48
25
-6
-17
-6
-29
19
-9
-4
-31
1
23
-2
7
20
39
-7
-1
-17
-12
11
12
23
-20
27
-11
-49
8
26
-19
22
6
-31
-32
-20
-68
30
-85
-69
22
-7
11
-20
34
-11
67
2
-51
-5
14
18
0
15
8
6
-12
-45
63
-9
-5
-46
-36
-43
64
21
5
3
44
-31
-5
7
-2
27
41
-15
82
9
5
56
-28
-7
-55
44
-15
-75
-39
-16
32
-10
56
-62
37
43
57
50
-25
35
35
25
-6
19
-15
19
-31
7
-7
-12
-19
22
-33
33
45
-15
26
-22
20
-50
-59
18
50
64
-35
7
32
-16
-8
-9
-38
-22
25
56
-10
-21
-23
3
56
2
11
-59
-19
-1
5
52
-40
-23
-59
-71
46
58
78
0
65
70
-46
-39
66
-43
-26
-12
-40
-63
-92
-2
-52
-43
-55
-54
-87
-23
-60
43
-23
50
32
-60
-2
-7
-12
-7
15
-41
0
43
-13
-49
27
18
-36
64
10
5
16
6
-70
24
74
4
2
-1
-10
31
-23
11
18
43
-10
29
18
41
-31
-53
39
-47
-22
4
-28
-13
-1
-14
-52
7
-41
0
1
-10
-49
-32
-44
21
23
34
-63
10
-1
-8
-19
26
-5
-43
20
-27
22
-11
15
-64
-28
6
62
-13
36
61
-4
-18
32
-17
11
-8
-4
99
25
11
-54
-34
-50
37
45
-62
-76
47
-32
-42
48
-16
19
72
43
31
51
13
50
34
-34
41
35
-37
-80
-62
35
-50
-54
18
1
-74
49
40
-35
70
25
-14
-29
64
-10
47
4
35
-12
-32
-30
54
2
-26
-2
-55
-31
-75
-18
6
-40
71
0
44
-29
-51
5
31
-56
-19
-54
-70
-54
-6
-97
46
-5
-46
31
-25
-44
-6
6
26
21
17
15
-5
-20
-10
11
4
9
1
-32
-12
-9
24
4
0
24
10
-26
3
4
-65
9
43
-2
4
8
-35
-12
-19
-14
-48
-31
9
-66
-3
15
15
-16
27
48
57
-11
42
10
36
2
-23
-19
16
19
-8
-50
16
12
-3
-15
-15
-22
0
44
18
-8
-6
29
-8
-5
-6
-7
7
-13
15
1
13
-3
-10
30
-17
-53
14
-81
-15
22
87
20
14
51
-2
27
23
-6
16
7
11
-28
-31
11
26
31
-14
12
20
8
16
49
-15
-23
-20
-18
40
26
41
-10
4
-60
40
62
-48
-18
13
14
25
5
6
27
58
-3
-2
-2
32
52
24
-12
-12
53
6
20
23
-37
16
27
49
-48
33
30
-5
-66
26
-27
-13
-39
7
-69
5
21
-2
30
-60
-27
-10
-48
30
37
33
-68
-15
5
-45
-39
35
0
2
17
-3
-42
7
-32
-41
7
4
-22
-62
-38
10
28
4
25
-39
-19
11
-9
-38
-12
31
-24
-1
29
-28
-39
-23
2
50
15
-30
43
8
7
0
45
23
8
40
-19
-63
53
5
22
-22
15
2
11
-48
-64
-12
-33
-11
-19
-17
-15
22
-29
-14
52
14
-39
-11
33
-30
-22
-40
21
-45
-39
-20
-5
-10
0
-42
6
3
-7
-45
11
14
-41
15
34
19
78
48
-14
-7
36
35
-33
30
-10
22
-23
1
-3
12
-10
-2
-17
30
-9
-38
24
-10
-18
-22
-25
-15
46
39
9
-15
62
100
-18
-83
42
-23
57
-42
13
-68
5
91
-78
19
22
7
33
70
-3
56
17
18
32
-4
17
34
-21
-31
-30
58
-22
-17
1
-25
17
18
-9
-12
1
-14
28
1
-56
24
4
36
-39
76
48
39
10
-48
-58
-21
-42
-3
-14
30
53
-95
78
-49
-5
-43
-66
53
56
65
-33
-19
-3
28
44
-36
-18
-19
22
-2
22
33
27
-17
34
16
33
-14
17
1
21
-46
8
-39
46
30
-52
-26
16
-2
-17
-48
24
-50
-60
12
0
63
-44
0
27
11
3
41
54
24
38
56
7
-16
37
-12
0
46
-44
34
49
12
-14
34
1
-6
30
36
3
-41
49
-25
-3
-21
3
-9
35
-22
-26
-5
54
-30
-33
-40
44
-7
-36
-39
-3
-17
-12
-30
-28
1
-18
35
31
-8
33
40
15
59
60
-20
36
6
-35
26
47
45
23
-42
33
32
36
10
56
34
18
-4
-7
-54
5
17
-32
-18
5
35
41
44
-42
-54
-42
-32
-14
31
47
-46
7
76
-13
-68
-48
-32
59
62
15
-14
-36
16
7
-23
13
6
-7
4
-19
0
10
-21
-51
-46
-25
-19
23
-22
18
-17
22
45
-1
-16
1
-15
-39
77
22
-8
49
-43
-103
6
-5
-44
-26
-39
83
-37
39
12
11
-78
0
-29
-23
29
23
37
21
10
75
-36
-17
-23
43
30
61
7
13
-19
29
33
-1
1
62
-2
-5
-12
-29
4
22
-14
-33
-27
5
49
-34
-30
49
-35
-71
-33
-18
18
-40
-23
55
8
37
17
72
47
-8
86
5
-22
34
0
-15
-7
-73
40
62
-18
-40
23
41
3
10
47
-36
-17
35
-71
27
-26
-59
-11
49
-33
-54
-60
22
-25
-32
-7
5
32
9
-37
-17
14
-32
-21
11
43
-12
51
41
22
52
66
7
10
53
27
30
38
-54
21
14
21
11
-2
-9
-72
20
14
-9
9
-4
-29
24
15
-10
39
11
24
-3
25
43
61
-73
-26
-8
-64
40
-11
8
-32
-14
56
-49
-65
-2
-9
92
39
38
1
-74
49
7
-49
34
50
-30
-1
-36
-64
0
-6
-85
-82
-44
-87
56
5
-59
10
45
38
-14
-17
56
-18
-15
71
20
-9
10
-48
-81
-4
6
-38
-42
-31
42
-97
45
-7
41
-77
-16
24
37
57
13
31
37
11
47
-52
-28
-32
37
19
38
-24
4
-25
15
14
3
33
11
-16
54
5
-32
-24
45
17
5
16
10
-39
35
-14
-16
-17
-14
-34
-35
-2
-29
2
-17
-40
-49
9
31
-23
22
24
-25
4
-19
-45
19
-2
-42
23
44
-5
25
12
6
29
5
46
24
-21
8
-20
-27
-37
22
-15
13
-17
-5
-23
24
-24
-55
-26
47
40
-2
-22
-7
34
-6
-37
46
43
-12
29
20
41
21
56
53
32
23
0
-5
13
17
11
-30
-23
15
37
79
-27
-26
17
-23
-10
-30
-10
-20
-3
-8
0
55
-30
12
56
35
71
-79
-32
-8
-65
40
-2
-2
-39
7
82
-24
-65
-25
-15
70
92
30
58
-62
19
-15
-24
36
-21
12
37
21
-9
36
2
-43
-11
15
-11
-4
-20
-45
-14
12
16
31
-25
12
16
44
2
38
12
21
-14
-32
-33
-41
-23
20
9
12
-14
1
-48
19
13
-22
16
14
16
21
22
-71
45
20
-19
11
-17
-7
-17
29
14
58
18
-29
-11
56
66
44
23
29
-8
36
31
60
2
7
-4
3
14
-3
29
21
-1
17
-6
14
43
31
-33
-10
13
31
-2
10
14
34
8
-17
13
1
-2
46
-19
41
3
-43
-77
-21
-67
-42
0
-24
-46
-11
23
-27
17
44
47
4
-25
-13
-4
-13
-35
-20
-23
-28
17
-13
2
6
-6
4
17
0
-1
17
40
1
25
-16
8
49
-3
10
-32
-7
68
-49
5
25
-77
-73
-84
-39
53
39
-11
-37
4
-85
-104
21
71
-18
56
-12
-58
127
56
60
25
-46
44
-11
-66
27
-50
31
-58
-14
-58
60
45
-43
37
68
-39
-22
12
24
29
50
-34
42
20
-4
-17
21
-27
-26
32
-37
-47
1
34
35
52
-21
-14
33
12
-34
-18
-42
45
29
70
29
22
65
61
-10
4
-19
-58
-16
14
-42
49
-48
-24
78
-41
-15
-7
-60
72
62
7
-52
2
-59
13
-19
-1
-26
27
-38
13
9
-18
37
51
-10
31
45
-15
-13
18
45
18
12
13
23
-19
8
25
42
-21
26
17
3
-11
-9
-12
-25
5
-10
4
-31
-20
-22
-25
-15
-1
-12
19
-16
-65
-18
47
49
-38
35
-30
-37
-41
-3
-40
-5
45
-29
-38
7
68
-53
10
65
42
-8
8
-14
-7
-7
-28
-33
-3
2
36
-21
23
68
-13
-44
10
0
31
37
6
-17
16
-14
42
-35
-10
-7
5
31
14
8
12
-12
-26
16
6
-3
53
-35
3
-16
31
31
-16
43
33
-16
19
-42
17
1
-1
0
-81
-7
29
27
24
8
33
12
4
11
27
-1
-16
-1
23
-3
52
0
-56
-29
2
81
5
-28
-24
-28
16
-10
-3
22
-4
-29
-14
14
28
26
29
22
-24
47
0
-19
12
-11
3
18
34
17
-35
36
5
-75
80
37
-34
-26
78
-62
14
-5
11
6
-41
-49
21
-15
40
67
-10
-57
-65
-47
-28
-4
62
-22
3
-9
10
-41
40
17
-39
0
9
-35
-67
-61
-2
9
-30
8
-56
12
-19
-13
-20
-24
54
-56
-41
27
9
-43
-1
27
-6
11
-6
7
32
4
15
43
18
17
30
34
24
-6
-52
-24
36
-44
18
53
17
-12
23
18
-13
27
26
-47
-48
34
-17
-23
-33
-7
-19
19
17
-23
25
29
56
40
-29
5
-23
-4
24
-6
-4
-4
-11
-35
-35
31
-28
-16
-39
-1
-7
-42
-15
-32
-17
61
30
0
60
14
65
-2
-46
-34
32
20
1
36
34
-18
-20
9
-31
-14
48
-31
-4
-53
23
3
-14
17
-3
18
-8
-50
49
-14
26
14
-37
59
-30
-22
-28
-35
12
-4
-45
-10
14
14
8
32
10
9
12
12
13
6
-21
6
-40
-14
8
11
-21
-18
26
10
2
-17
26
22
-4
14
19
-47
-64
53
-32
-32
24
17
-69
-15
-37
44
-10
-34
49
23
-33
2
-32
-26
49
24
-1
41
-11
3
2
-66
-22
46
61
0
-30
-19
-4
61
-12
-1
-23
52
-41
-17
25
-42
3
-47
-50
33
16
17
51
-17
23
4
-38
-3
8
-7
-14
-28
-45
-15
23
53
19
-13
-7
-37
-39
-3
-39
0
4
-5
-14
-5
-9
-38
-19
-4
-18
-14
23
8
-32
-16
29
20
21
30
20
-14
-22
-10
49
45
1
-3
17
6
38
-35
-31
69
56
24
6
38
58
-33
-72
48
-49
-36
4
-30
-15
4
-13
-35
-36
16
8
-44
-20
-8
34
-10
-31
-54
5
0
42
-5
32
40
-29
39
-5
-39
38
-43
32
-17
-82
-22
-27
48
35
17
69
-13
31
41
15
10
-33
29
43
1
44
-54
-39
-33
-37
49
15
0
31
9
-11
-25
-35
1
-14
-49
-1
47
-3
-7
7
7
-24
10
-39
-9
-25
-22
-15
-45
-10
-28
13
-52
-31
-35
48
24
61
24
22
-41
-8
45
44
-9
-17
-26
-15
-24
-12
30
43
-42
-28
21
-52
-17
25
-2
36
45
48
-64
15
-42
-24
45
-45
-17
-31
-60
4
-26
-31
-33
-30
-83
-95
72
3
30
-24
22
59
-23
-29
53
-42
-38
5
-39
-17
-60
0
-11
-50
-56
-31
-62
-71
-13
21
-53
31
-16
-13
30
-22
1
-47
31
-31
-32
26
-22
-14
6
37
6
15
5
40
-13
-15
-62
38
47
56
-12
7
31
28
-26
-42
11
71
4
-19
69
61
-20
-56
61
-61
-32
-40
-62
-56
-30
-13
-51
8
-19
-39
37
-32
-6
-9
-10
-30
-38
41
-62
8
-47
-40
-29
16
-28
-39
37
-20
-17
12
-20
-9
-38
-18
27
23
45
63
-16
-24
-9
-2
0
-29
25
84
34
34
-63
-77
-14
-15
74
-52
-33
27
0
8
55
-4
15
70
14
-10
87
54
56
56
-21
21
36
8
-50
-60
6
11
-5
38
-35
-28
8
8
-22
51
30
22
11
48
0
5
-6
4
-5
-7
-13
-6
2
-10
28
-23
-11
-24
18
-80
-75
62
-42
19
-6
13
-51
-13
-26
-65
17
-55
-17
-13
-44
-4
-39
-4
24
-17
-92
16
-60
0
-8
57
-13
-47
5
7
-58
-13
5
39
3
27
41
34
53
62
17
55
36
68
10
-35
65
-39
-16
45
-4
-21
29
-44
-29
38
18
-19
-9
59
-15
-27
0
-49
-7
-48
-67
-1
65
-54
-11
-43
11
-14
-38
8
-7
27
19
-53
-17
28
6
-7
2
27
-13
39
-5
14
12
-1
-8
-29
60
30
3
-6
-35
8
9
21
6
26
-3
-61
31
-2
6
-11
-12
4
43
82
-15
8
2
8
-10
34
6
3
-40
-46
-35
-22
12
-32
-33
11
34
14
-7
-38
24
-48
45
34
6
34
-35
51
44
-55
28
52
-95
41
-43
-70
36
-19
-67
-70
-40
-86
28
-13
-53
5
83
65
-5
0
45
-34
-16
1
8
-7
-26
-16
3
30
0
-24
28
-8
-21
-24
6
23
35
-20
-29
4
-22
4
-4
77
5
28
49
-67
6
-56
15
32
-36
-47
0
41
11
34
42
-10
59
4
37
64
-24
25
39
-5
19
44
11
-59
29
23
-13
-25
35
-13
-31
-5
-39
0
-48
-36
-19
-67
-20
-32
-64
-59
-25
24
-51
60
46
-23
26
11
-63
5
56
-52
3
-6
8
-77
45
43
-40
40
-14
-1
84
31
-65
32
27
-4
22
-6
15
18
-29
-2
-12
39
-13
4
44
-14
2
-39
-3
-40
-28
-41
-2
-18
14
-9
-29
31
-40
8
51
-29
-36
-65
-19
-19
43
52
-56
14
-15
-33
-4
6
-29
-22
36
-52
21
25
-1
-21
-15
-16
55
6
-1
23
-17
4
8
-4
-18
-50
-5
72
-1
-8
-69
-62
-29
-4
39
-44
-6
91
-71
-67
46
-44
56
42
-5
29
53
75
31
96
-61
5
73
5
-40
-44
-4
-16
-50
37
46
-49
36
31
16
55
36
-34
8
11
-13
20
-59
19
8
17
5
34
-3
4
-15
-45
-25
-58
-48
-26
-14
27
34
48
-53
-37
12
30
8
-1
-54
-12
3
11
-56
40
-48
-46
40
-15
-27
-11
-13
17
-2
1
-10
-14
-26
-50
2
25
30
24
-12
-12
-21
9
-27
-2
7
34
-25
-11
-1
-90
39
30
22
0
23
-43
-19
-56
-37
-60
-41
48
-54
-33
36
45
8
-14
44
21
1
7
5
-2
13
21
-30
-11
17
-13
-48
-36
31
-11
-3
4
7
51
-3
-31
1
6
12
-2
9
34
-12
22
30
-30
-29
22
17
14
-5
38
-11
13
-56
25
-3
41
0
10
73
-20
38
-8
-33
-7
-3
-10
-31
-21
7
2
12
-8
10
-2
-5
4
41
-39
-16
14
-43
63
7
27
-1
-8
-80
-15
70
-17
9
9
-11
15
15
3
35
56
-25
2
-2
19
54
25
-3
-25
65
-13
19
-37
-1
3
-28
38
-61
22
-12
31
-18
27
-19
-8
-39
34
-42
30
5
-28
38
-48
-23
-6
-16
49
17
7
-38
-22
1
-62
-6
39
-34
58
2
33
-21
29
-20
-20
-20
11
-6
-29
-50
-29
14
-10
7
-32
-44
8
22
9
-25
-39
32
-7
-15
-21
11
13
26
-28
22
-2
23
-8
-14
25
2
-4
-7
-38
-9
-40
1
25
36
-33
65
5
-50
-55
-18
-37
-16
38
-55
-1
51
45
-46
46
27
48
9
13
3
33
8
24
-35
-18
-40
23
-28
5
22
-21
7
44
-41
25
-11
6
-21
10
0
37
33
-24
-22
-51
33
20
-45
-8
47
-66
-23
-61
-59
30
40
-26
-49
37
-54
-78
14
46
-8
2
-27
-47
98
46
25
-26
-26
28
39
-21
49
-9
15
-14
5
10
13
11
-19
38
68
17
-11
-36
-39
26
88
-24
-23
10
-66
3
52
-7
5
31
-61
-50
38
39
10
57
-20
-7
40
23
-23
-36
-38
0
-20
36
12
-27
36
47
-20
10
17
-47
-12
63
2
52
-56
-16
41
-68
-16
35
-71
47
17
-17
-28
-2
-50
14
-20
19
11
-16
-24
-31
-30
16
7
-1
-40
40
-1
-44
5
35
25
-9
56
8
-16
-29
40
50
40
-2
47
37
-30
-27
66
-74
-47
-22
-71
-93
-74
-62
-24
-35
-55
-25
-40
-56
-17
14
-22
57
13
-11
34
-49
-14
29
-6
-31
-9
23
22
-22
40
41
-31
34
15
27
1
1
-45
2
40
18
-15
27
16
13
-24
-9
14
36
-13
6
2
3
-25
-5
0
-17
17
-13
-47
-43
-8
65
-34
-16
2
-42
-28
15
-6
-24
5
7
-10
64
4
24
-14
16
16
-21
0
-60
48
11
-28
-54
0
-55
10
-8
44
16
10
28
33
9
8
-30
-31
-35
13
7
14
41
7
2
-44
29
23
-50
-16
20
-32
-22
78
31
21
20
-1
1
66
25
32
0
-3
43
14
-6
-42
-66
38
-30
-40
31
-47
20
43
-9
9
13
17
-7
-6
28
-9
17
34
10
28
-18
-27
20
14
-2
-11
-19
12
-52
15
7
-18
73
19
10
24
-37
53
18
-44
-34
-20
-50
-59
40
-64
21
-53
-78
33
-35
-42
-6
32
12
50
2
-14
-16
-19
-43
9
-36
-19
-4
-15
-28
-28
-6
16
-10
-29
-3
-33
-12
-7
-10
25
20
7
-61
27
-6
-40
-50
-54
-30
-39
-8
-69
-3
8
41
-62
26
37
14
19
25
-2
-7
-19
6
-32
-36
-2
1
-19
-14
11
-9
-6
6
19
49
20
3
-42
18
7
11
-53
-3
17
15
8
36
-32
-27
-15
-49
-27
-53
-52
23
-21
-15
2
39
1
-23
18
13
30
-2
-29
-19
13
-24
30
-7
-15
36
32
-15
39
23
13
-57
22
-52
38
24
-39
48
69
23
-33
26
-60
57
27
6
-10
29
-29
-27
6
26
18
36
11
13
11
-33
60
33
-4
-44
29
13
-22
-15
0
-1
-4
60
-37
22
45
17
-88
22
-31
1
-35
38
-39
28
19
-43
19
-33
-65
-2
-50
33
69
26
-69
-23
-1
-11
-11
53
8
6
-3
-28
-26
4
-8
1
11
-44
-8
-23
-57
18
4
-2
15
-9
-4
-42
20
51
14
-4
28
15
-34
45
34
-61
-12
-35
-53
1
-32
-7
-47
-10
-9
-1
-22
-31
-4
95
-18
-41
-5
26
1
16
60
36
21
28
73
2
69
30
-29
-39
-9
-18
-53
-49
6
-37
22
-31
5
12
6
28
7
28
8
8
-37
28
-8
-23
4
-31
1
22
48
26
5
11
-41
-10
28
10
-16
-35
11
14
-41
46
22
18
18
-6
50
35
-40
-32
4
46
-81
13
4
-24
57
-3
-16
-37
15
58
57
-7
-25
20
-13
0
13
28
-29
13
-21
4
5
-22
-26
-38
27
16
41
-14
-73
-6
-21
-28
51
-24
5
29
16
-36
37
79
-32
-45
-19
-67
-4
56
-80
-12
18
-15
46
-61
28
-44
44
-32
-6
-30
23
-25
32
35
24
-8
83
-6
5
52
-43
50
15
4
27
-79
-75
1
37
32
22
9
6
-16
35
-32
10
-17
44
-27
21
-21
-24
-60
9
36
26
48
23
21
29
20
3
24
-16
-30
-4
11
15
-15
23
25
-49
-38
-26
34
0
6
65
28
40
1
-3
-24
-16
45
24
-9
24
-63
-52
23
-27
-21
66
2
24
61
11
2
54
45
-60
-51
26
-45
-32
-52
-54
18
51
-17
1
-17
-6
-3
33
-21
-13
14
35
-8
22
23
-22
14
-3
-26
-2
-9
-3
23
6
-29
3
21
40
-66
62
-11
-21
27
71
80
1
-42
-36
-23
53
-40
65
63
-3
-58
51
5
10
73
-47
-24
-22
28
33
-40
-17
-6
-38
11
-43
10
21
49
-35
25
6
-59
-62
-20
57
17
27
-35
-56
19
16
-53
32
27
-48
60
-19
-41
16
7
-46
-49
-50
-99
13
16
-58
-1
57
34
-3
-51
19
-76
-15
3
-25
-59
22
-1
21
43
-18
-61
6
-51
6
26
-57
63
14
-19
59
-59
-56
35
42
20
54
-16
13
-3
-13
-44
14
-17
33
-35
-27
-8
38
-18
-11
40
13
-6
19
-15
-15
32
4
-8
12
13
9
-8
-13
11
-12
-55
30
6
19
-12
-9
-48
-24
-35
9
-23
26
12
4
-36
-40
-10
15
56
8
-21
26
-34
-5
-48
-6
-71
-37
23
-18
-14
28
61
-12
10
47
37
16
48
-46
12
23
-17
-22
14
-19
28
7
-12
-12
13
-1
-11
-19
13
25
21
-20
-20
-12
-14
-19
39
7
-14
19
3
-22
-20
0
-58
-57
-21
-40
5
-8
3
-47
41
2
-57
21
50
-16
-21
-17
-50
51
-9
6
-43
-25
40
32
0
7
-13
59
-28
-10
-10
39
-25
-66
41
61
-3
-29
-9
-26
51
15
-62
-28
37
-14
-20
37
-34
31
64
-22
-5
29
34
27
73
-23
-22
26
18
-1
-5
-16
7
-11
34
-30
-11
51
43
-16
32
13
-61
-1
44
-21
22
-21
-44
30
-35
-52
4
-33
12
78
0
-39
-34
-7
3
-13
40
-9
5
-14
32
23
25
-4
-21
-19
-15
-19
-56
-29
-22
0
-30
-8
-32
-4
32
-1
-42
19
-12
-16
-25
8
-48
18
1
-14
16
4
-45
-9
-37
12
4
48
-4
12
1
-16
-39
-14
-1
11
-24
-10
-10
-10
-1
1
-13
-30
18
-47
-42
2
32
-21
13
4
-8
-22
19
27
-46
-22
-45
3
-33
-7
14
20
-1
22
-45
-14
11
-25
-38
23
40
-51
13
-7
33
34
39
-13
47
55
35
-17
-7
25
19
32
-28
-10
45
25
9
-15
35
-14
5
59
11
15
-40
-10
28
39
-12
12
-17
17
51
-45
-18
-16
-7
31
-14
35
-55
3
57
-43
9
40
-13
46
67
-2
49
-15
12
-14
2
-28
24
1
-38
31
44
-40
-57
8
26
8
-5
-21
11
5
-3
-29
-16
-22
21
-16
-4
11
48
17
18
-23
-35
-23
-15
-19
7
-45
25
24
-76
49
-25
-6
-9
-37
19
52
25
-32
-25
-19
44
12
-24
-10
33
-2
31
2
45
-8
18
-38
31
15
-15
14
-1
4
-17
-5
0
48
-30
7
20
18
68
22
27
-10
-34
25
-7
-29
5
-29
-24
-4
22
56
-23
-17
-1
-63
-17
56
-4
1
22
12
-14
22
-21
-1
0
-1
-28
-28
-15
13
-14
-19
-10
3
-35
-13
14
-17
1
-21
5
51
23
-6
7
-2
35
-55
-22
62
65
-2
-14
40
31
-5
-16
52
-49
-5
-16
-67
-24
-9
-4
-35
-6
36
-15
-45
-3
-11
10
-45
11
-97
-37
21
-20
-9
6
10
-42
45
31
-13
-9
-38
-4
-6
-15
10
-6
63
44
17
45
20
18
27
30
17
-21
55
25
5
48
-28
-53
-11
0
44
-6
-18
-29
-10
-17
-1
-17
-24
20
-22
-22
18
-16
3
-25
6
-32
-12
-18
-23
5
-12
-9
22
-15
-61
19
-35
-18
-54
30
22
60
-4
-8
-9
-11
10
17
-35
14
-28
0
3
10
12
-6
-16
-30
19
-78
-30
59
-56
5
51
26
-18
-19
-67
-74
13
-14
-61
-47
-25
-2
-32
6
-8
-47
-83
-48
50
18
6
25
-12
29
-12
-9
49
-10
4
35
-57
-13
-12
-3
11
-28
5
-23
-63
-6
-12
-2
-13
50
6
-14
-18
19
-14
-5
20
12
6
12
-19
-39
25
7
4
34
-30
33
-17
2
-41
26
12
45
48
21
28
-40
22
-48
-21
50
27
-18
24
-27
-11
-2
42
5
-12
-57
-17
-33
-56
11
-34
-72
43
24
-7
52
45
57
31
-25
-61
55
41
72
18
35
50
-36
27
-94
41
57
-63
1
-24
-21
-17
-28
25
34
-12
43
17
30
22
40
-56
-14
-1
8
-34
50
-4
-13
-36
-11
5
-68
-13
49
2
-52
53
-1
20
32
-1
3
14
56
31
66
-16
-6
35
-2
-64
-60
-10
17
-28
-31
-49
48
-29
-28
7
-25
8
34
-4
8
-10
-54
21
-13
-9
21
23
-30
-10
-28
-27
12
25
-20
40
-24
-40
66
-39
10
54
13
45
13
-55
-75
-17
-22
-35
12
-43
-31
-65
-63
-19
-35
-66
57
-41
1
-36
-14
-33
-58
32
29
-44
28
-6
25
55
-4
42
-41
-16
42
25
29
52
28
-8
27
24
-38
24
-23
-8
20
15
4
-4
38
3
17
-29
23
-7
-30
13
-17
39
-17
1
24
47
-48
-21
-55
-13
-53
-31
-16
-2
28
-10
-34
1
14
-37
-54
4
71
-13
54
31
47
56
47
9
5
51
59
-16
8
-5
-10
-14
-29
7
4
92
-48
11
-1
-23
-34
-29
29
-61
54
-15
-3
71
35
48
26
16
43
-48
-41
3
-40
3
-17
1
-50
18
72
-45
-14
13
-32
54
43
28
34
-11
6
12
-26
-9
44
-13
-4
-39
-21
2
-23
-26
-17
-42
-21
32
-24
8
-7
57
39
-10
31
28
29
50
1
52
9
47
-15
4
-35
-12
-15
52
4
0
-50
2
-29
16
-26
17
43
-8
-21
-9
42
-35
58
43
-68
21
-24
-36
-28
32
-9
40
33
-23
13
52
11
51
28
59
12
8
39
67
-15
17
35
7
-22
26
42
-40
-5
46
-33
-40
-50
36
-5
-45
-19
6
-34
-70
-49
-52
-63
-28
22
-41
-2
9
-65
-5
-41
-35
6
-15
-24
-7
47
8
2
58
22
-45
44
-9
1
13
-9
-47
-6
23
19
-10
-54
-6
83
-60
4
29
-11
-24
18
16
36
49
3
7
-20
57
15
-36
-26
55
15
-56
27
-29
-7
-13
-57
-65
-77
-26
16
83
-21
-69
-30
-24
-17
-53
42
-78
52
27
-43
40
-40
12
7
-14
-17
24
20
-17
52
-1
-60
-24
-5
39
-37
29
24
47
-13
-10
-30
-6
10
12
-15
-51
-53
21
16
31
35
19
-8
18
6
23
28
-17
-19
-16
7
-14
2
21
-12
26
-54
-16
38
16
-64
43
23
-6
69
88
-39
1
28
45
44
-48
53
-7
-37
-37
50
-21
-26
-21
-33
0
9
-68
43
-8
-10
70
-9
-39
-65
-26
-9
2
4
-55
-34
-20
9
-47
6
57
40
48
-13
15
43
-47
-30
-20
-4
-3
-45
26
-14
-11
36
30
27
26
40
-6
20
9
25
56
19
29
-19
8
-40
41
11
46
-30
26
-13
-52
-55
-29
-58
-22
12
-70
19
27
26
-25
-23
24
28
27
7
-5
-17
-62
-16
-49
-32
-21
22
13
17
36
-50
-54
20
-17
-17
66
20
-17
9
31
18
32
39
9
-52
25
59
-50
-34
15
-91
-50
-50
-14
53
17
-47
14
33
-43
-29
38
13
-49
49
-63
-13
107
-9
38
2
-38
40
0
-35
-13
-12
42
-57
1
-49
7
12
-57
7
24
-20
11
29
5
47
13
37
37
-30
-24
15
-28
-39
-17
14
2
-31
-46
-16
2
-12
11
-28
45
29
17
49
-29
2
20
68
16
19
42
40
-26
13
-10
-44
9
15
-27
76
-39
-36
53
-58
-43
-5
-42
46
81
21
-53
-5
-31
31
47
-18
4
-30
-18
-20
-25
12
37
43
10
61
12
-36
1
11
58
4
-6
-11
28
37
-13
13
-25
23
-2
-54
4
22
-39
-40
17
-6
-31
-4
23
21
2
43
-10
43
-2
19
15
20
55
-6
-57
-11
-53
4
27
-12
-66
45
38
-6
45
36
-79
-69
32
-71
20
-52
-56
7
26
-7
-9
-9
29
-47
-22
-10
43
45
-10
-11
-2
21
-30
-31
25
-8
-6
49
10
41
7
40
25
22
9
10
8
15
-20
31
8
27
7
-9
-4
-61
9
0
-12
-6
-16
-20
7
7
35
45
-24
-39
22
65
29
22
-32
7
-25
-39
12
-22
-21
-12
4
27
-3
-81
-32
9
29
41
7
-6
-56
67
20
-14
56
41
-43
44
-55
-85
69
28
-74
-97
-15
-74
10
17
-79
-5
64
51
-13
-17
15
-48
-12
21
19
19
-20
-44
-60
9
-31
-49
31
5
64
-11
-23
18
28
-47
-20
-30
29
24
-11
53
22
19
4
-63
25
-17
8
6
19
-25
6
44
34
-5
19
36
21
12
51
10
-1
18
15
-6
13
-37
8
16
-48
-7
5
-36
-56
7
-15
30
13
-23
-20
32
64
28
29
65
-14
-15
16
-41
3
54
-12
8
-13
37
-2
-57
-44
-40
11
-11
20
9
-13
23
-23
-41
-15
-9
-55
-33
3
13
-10
-5
-10
28
9
-32
31
-10
0
0
17
20
17
22
-7
27
-10
16
18
-23
-5
-20
12
-7
-52
42
-67
-1
53
-53
-83
-58
-47
18
-13
-24
-31
-22
-22
-53
38
15
-18
19
-46
-83
73
41
66
2
0
46
-30
-42
69
-2
29
-27
-21
-58
18
18
-19
21
47
-42
-39
40
13
63
10
5
24
5
19
39
25
-46
-33
49
1
-46
24
-13
73
17
37
-35
45
12
-17
-7
-14
50
6
24
-22
-4
2
21
-47
2
-3
-34
-20
-8
-36
63
-20
-61
21
-15
-14
-42
-64
5
69
28
-6
-1
9
-4
-11
22
-17
14
40
41
-30
-63
2
-24
0
28
10
-18
-33
-13
-23
15
-33
11
-47
27
-9
47
-34
-15
13
10
7
25
0
24
-9
-16
13
50
19
-23
-27
-6
-39
-36
-3
8
-6
8
-23
-13
30
18
-4
15
23
72
34
31
22
1
40
32
45
-15
40
-9
11
-13
5
-2
18
-14
11
-8
25
0
-5
42
-21
3
24
-2
26
25
-16
24
-3
-3
32
14
2
-8
-29
-7
13
34
57
-63
42
16
-18
91
63
66
63
-28
39
60
47
-24
29
82
-35
-34
-11
-15
19
64
-84
-17
-63
17
21
-49
8
62
-52
