0.03798946
-0.01081825
-0.01424340
-0.06302638
-0.04209223
-0.05017507
-0.05210451
0.03524074
0.00271532
0.01533844
0.00208451
0.04168188
-0.00476085
-0.01715901
0.02636301
-0.05350482
0.05564122
0.02614965
-0.05488453
0.00751933
-0.06266311
0.00463874
-0.03128812
0.00854057
-0.07002497
0.06661206
0.03615793
-0.03396164
-0.02003200
-0.01687533
0.01764292
0.01239737
-0.00852907
-0.02391923
-0.04565946
-0.06525322
-0.04141218
-0.04381962
0.02353341
-0.03418873
0.02649367
0.00125327
-0.05059955
0.05627985
-0.05302560
0.00794109
-0.01493893
0.00372625
0.01949200
-0.05481580
-0.00482993
-0.02773468
0.00045120
-0.02253359
-0.05050058
0.02197313
0.02233351
-0.00881650
-0.00683711
0.04457555
-0.00435479
0.05229615
-0.05462642
-0.00156934
0.05987918
0.04870162
0.06292187
-0.04435341
-0.05443045
0.07245862
-0.04658996
-0.04597130
0.05413188
0.03524233
0.04601987
0.05545700
0.03977956
0.04229386
0.00642708
0.04388396
-0.05770255
0.05613384
-0.00857862
0.05279021
0.00566835
0.00186012
-0.00785183
0.00501124
0.02956150
-0.02181224
-0.05127602
-0.05537143
-0.03766489
-0.00170232
0.05067854
0.01376679
0.02335148
0.00349902
0.05161165
0.03143179
-0.04180198
-0.03315193
-0.05916477
0.07259893
-0.06034299
-0.05562622
-0.06358989
-0.06329053
0.04653754
0.03229369
-0.04895035
0.02225196
-0.01498270
-0.03505962
-0.04364683
-0.05691547
0.05775228
0.01995608
0.03531921
0.02004290
0.07168724
0.04886825
0.05768259
-0.02621245
0.02491665
-0.02953975
-0.01916183
0.01056944
0.01609994
-0.04892951
-0.00868999
0.02933352
0.07163207
0.06742674
0.06699906
-0.05076402
0.05732913
0.06531975
-0.06155017
0.03654074
0.01108439
-0.05014255
0.03666423
0.04713545
-0.02421439
-0.00419561
0.04590050
-0.04839779
-0.03471944
0.03905256
-0.03636766
-0.01456694
-0.06455193
-0.02055766
0.02651447
-0.04854098
0.00674604
-0.06270915
-0.02982594
-0.02456893
0.04660041
-0.02668744
-0.02506078
-0.03297649
0.07518893
0.07773592
0.05306548
-0.06131329
-0.04989633
-0.03336598
-0.05210571
-0.02232118
0.05118987
-0.02595822
-0.00194250
-0.03285595
-0.00391328
-0.02411044
0.05184191
-0.02050188
-0.03085782
0.04200885
0.04712760
0.03526591
-0.02173218
0.01855992
0.06465849
0.04487342
-0.05167320
0.00843435
0.02438306
-0.05774847
