67
12
-19
-9
-27
45
13
-55
55
63
-18
29
-11
-30
-32
30
-2
68
-22
26
17
-38
-52
-5
-56
38
-5
16
5
15
41
-16
-29
42
-3
13
18
-27
34
31
-29
7
-57
-65
65
-26
2
-24
5
-18
-27
74
-3
0
-42
-5
22
-1
-34
11
4
35
-24
31
-54
-20
19
23
19
48
-9
-58
-49
1
24
19
17
-33
40
35
-64
2
-53
7
1
46
-2
-18
35
13
16
-57
1
-26
8
9
-44
12
45
-42
59
-3
41
32
-41
6
-37
-45
29
-34
24
-19
73
21
-16
-19
55
-45
-24
-12
-6
-9
25
3
-15
-30
19
-17
-15
1
39
-31
71
12
-28
-23
13
-33
-71
27
-7
1
-4
-22
2
-23
8
22
13
-21
-28
59
49
2
1
-11
68
-44
-3
0
13
54
-4
35
0
44
-36
35
32
6
-22
6
82
15
-9
37
-19
40
-57
-57
-23
4
58
-37
-3
-60
34
9
43
9
23
-49
16
-5
-7
-61
17
-9
-18
9
9
-1
37
9
-4
-6
-2
-4
29
-33
-41
-34
-24
37
-17
60
60
-38
48
52
-7
69
48
-38
-36
-18
-10
58
20
-13
-12
7
-27
72
-15
28
8
-23
59
-38
-6
-24
-2
-26
-41
47
-60
24
21
-39
86
-59
18
29
36
14
-27
-57
11
-11
87
20
4
-34
-50
7
10
4
-48
18
5
-1
-51
-63
-40
14
-20
7
61
45
70
-59
3
-22
-15
74
-34
33
-5
-23
-57
-52
-111
-19
-34
51
-50
-52
-23
22
-29
-29
-15
15
-1
-5
49
37
-34
13
10
13
-53
-2
-9
81
-20
-21
44
-25
-32
-15
-20
-30
27
1
-14
62
41
23
22
-34
1
80
-6
2
35
30
-36
14
25
-2
8
35
24
32
55
47
-13
31
-37
43
1
43
6
-16
-3
18
-16
-38
-56
14
-18
45
-82
47
39
-21
-33
-44
-9
4
-44
53
51
-6
56
-16
-6
8
20
14
-28
45
58
-17
20
-37
-17
-10
16
-35
-47
-25
-18
-23
25
3
24
-46
23
-29
-45
3
36
-37
-38
19
4
-28
8
-8
-6
58
19
-24
-55
-6
12
-55
-26
51
16
38
14
-16
16
24
26
34
38
35
-11
26
-31
5
3
-10
-18
34
-42
48
59
9
-10
-39
66
-27
46
-46
5
30
47
-20
-3
26
-33
-17
8
-48
28
-19
-4
15
-28
22
57
6
43
-22
45
13
3
7
6
59
-13
-41
-12
-20
-4
50
-45
2
-13
-39
6
-28
-23
2
24
36
-54
3
35
-79
-13
-3
10
27
-58
12
34
-11
-64
-55
7
-63
37
48
57
-6
49
80
37
-42
1
21
13
37
28
-4
4
-5
-12
63
-34
-32
-13
29
2
-24
-40
-50
39
-13
-64
-40
42
-10
-38
3
-27
16
90
-50
37
43
-11
-36
25
62
-4
1
-10
-21
6
12
68
13
2
2
-3
2
3
23
8
59
10
67
-47
19
-31
-34
-36
50
23
30
-11
-16
49
-5
3
11
36
-59
26
24
-19
-45
-9
26
-30
-37
11
5
-24
-28
17
0
-7
-30
9
61
-27
3
17
47
-8
-7
-9
-32
28
60
-6
9
26
-3
9
6
31
14
4
19
15
-27
-37
-34
-9
4
-36
-16
16
-25
-30
-33
-12
-1
53
28
11
-19
-30
-34
29
3
9
55
61
-15
-4
-27
44
64
-35
48
12
42
55
-39
35
12
-30
17
2
36
5
34
49
21
14
13
-21
23
-21
-11
69
-26
-8
14
-25
56
27
9
-20
-15
13
-81
-54
-13
-15
-46
-13
-19
18
-31
-7
-12
-6
13
-37
40
7
-13
59
24
46
52
43
39
-40
57
-23
36
33
-33
13
3
19
-52
18
-9
57
0
8
-28
-4
12
-18
-8
26
-39
-4
-4
-50
9
-9
-30
28
45
20
43
-36
76
58
44
-2
16
-16
-29
33
32
-13
-3
17
41
11
-34
10
44
-34
-20
-29
-39
-53
-20
15
-25
66
-7
12
-30
35
45
28
16
-23
0
-20
6
28
19
30
-49
-9
27
-24
-28
0
-31
-20
16
-16
-25
-34
-28
-36
35
16
34
-72
37
-28
-58
-16
75
23
53
-26
-33
-11
8
19
-46
-15
38
28
-35
-2
-43
3
18
41
-21
-48
21
79
-23
-19
41
-1
-28
35
-3
20
40
51
32
1
1
21
-10
54
-25
-25
-9
-26
-37
3
14
-22
-5
9
23
-14
46
-32
-22
29
-20
1
29
5
59
-45
54
63
-10
8
-26
35
-14
36
23
-31
10
-49
20
43
-20
-28
18
48
10
-71
-70
-58
-11
-47
-47
-17
-25
-46
-52
-8
-16
0
42
92
-44
-20
-24
-37
39
50
49
44
8
-28
84
28
27
-11
23
-12
-8
-37
40
-35
9
37
-12
4
-14
-65
-31
-51
36
-26
35
-27
20
-12
8
57
-24
-1
-6
-23
-20
-51
63
1
10
-51
10
14
46
-27
-32
33
38
40
47
10
-54
8
-61
-12
44
48
-21
56
-3
12
43
35
19
45
-2
-77
12
34
-46
46
-40
-40
33
46
-52
29
19
-5
-63
-35
-73
-22
51
-61
37
53
-11
-97
-47
-53
-30
55
15
-42
27
-28
-24
43
-54
-24
46
46
25
-30
25
-3
-46
-41
-36
-43
30
-49
-9
41
-6
35
-24
-28
30
18
9
-27
27
-9
20
40
1
37
-74
21
-25
29
-7
42
27
-53
-63
10
-38
-5
9
34
-23
20
57
51
12
-14
-16
-22
60
-9
39
-54
-32
15
-50
31
-1
40
-8
-7
9
-37
-35
76
-63
46
62
-18
-1
-23
-7
37
-57
-7
0
26
-59
-13
34
-2
28
14
-18
90
-27
-5
1
-14
58
14
20
12
-25
4
-33
-13
-1
-19
11
15
69
3
-60
37
40
-34
19
11
-23
-49
-35
0
-15
89
-29
-20
-7
46
-48
-49
-5
41
9
30
15
-40
28
36
13
-36
-42
8
14
-27
68
15
5
-23
-27
21
35
-26
14
-49
46
-11
51
-16
105
-35
37
-31
7
45
9
40
31
-27
23
-62
4
14
31
82
50
-32
-38
47
39
-25
-28
42
-54
-2
-60
-5
-10
-22
69
-22
-95
16
-49
-20
-21
41
-46
21
-2
26
30
-7
3
43
43
18
-15
-5
-41
16
56
-19
41
-48
22
-50
-8
-52
21
-11
-37
-59
12
-42
-18
46
-3
71
49
29
1
-30
5
21
29
22
-44
24
36
-69
55
-13
-2
-17
-3
27
30
40
-75
-25
2
-32
22
49
-5
77
-12
19
-50
-30
13
-21
28
24
39
49
-31
-11
-8
-26
-44
-35
41
14
11
85
-33
-44
-17
25
-41
27
3
23
31
32
-13
-45
4
-58
-27
-5
-3
7
0
8
50
-29
20
16
-4
-48
-1
-57
-28
25
50
-58
-16
-15
32
87
49
27
23
6
-30
6
-14
-57
60
17
-11
-34
-23
-89
2
66
-30
-29
9
-19
3
39
-17
-77
-35
-63
56
43
26
-38
8
-21
-40
4
18
-48
26
-21
45
-33
-46
-7
-7
28
-20
61
-50
-20
59
-4
-26
-39
41
-25
33
46
49
6
5
29
-10
-40
-5
4
42
15
-16
42
-29
56
7
14
-30
-40
-66
27
-20
-3
-23
-14
19
-12
-48
6
17
-53
30
76
32
20
59
39
-2
-37
-2
-36
9
-72
21
-56
43
-39
21
-5
-38
38
-62
-29
-16
0
36
-21
12
28
23
43
11
17
-5
-19
49
-7
31
28
-5
4
-23
49
6
73
-17
18
69
6
-40
35
14
0
-18
-31
-23
48
-5
45
26
-82
31
41
-7
38
2
40
57
-58
-3
30
27
38
-35
-47
7
-66
39
-4
30
8
28
-48
0
1
-43
-49
-26
-37
57
8
-39
36
0
14
38
-22
-4
-36
54
21
4
-49
-34
-59
6
-20
8
44
-28
-103
-58
47
-41
-62
35
-13
-68
-47
-73
-30
17
-5
-24
-31
-66
56
31
-45
50
-34
-36
-49
14
27
-24
44
16
13
19
73
8
27
45
-13
0
-24
-13
-15
-3
-48
-24
-19
-35
8
10
-11
23
50
47
-43
26
-17
-55
74
9
-35
-2
8
1
13
12
-13
-39
26
-20
-67
-55
-64
5
25
-71
64
20
-1
52
11
-17
70
-9
-8
16
-11
5
7
3
6
7
-18
-18
-56
18
-40
4
0
-48
-41
40
10
-102
-73
12
56
14
6
-20
0
-17
66
19
-54
-43
-2
30
12
51
-27
24
-4
12
-67
-30
5
33
-39
-45
32
20
27
-42
33
3
123
39
-15
-18
20
14
1
9
46
29
-46
-46
-70
-1
23
33
35
-34
-51
24
-38
-20
27
68
-4
16
29
-17
98
43
51
46
-39
18
4
-38
-4
19
-50
15
69
-63
18
-12
44
34
-45
-55
-22
35
-3
13
-5
-28
-9
0
57
-8
108
-28
-34
-51
54
61
-57
-33
-39
38
38
-12
4
39
49
96
-38
-37
-29
26
-35
-28
-49
39
0
77
31
-75
-12
38
-4
-54
11
-35
-46
-39
-8
28
-50
39
-23
-15
45
60
12
-14
11
43
20
-6
-23
35
18
19
5
18
55
9
-67
51
-23
2
-28
5
-59
32
73
40
11
36
-47
-99
-28
34
-4
-36
-45
-3
34
16
-3
-27
36
-41
-54
18
27
25
7
54
15
-12
-59
-29
31
46
-31
25
23
23
45
-26
-58
-39
-1
-4
38
21
-11
45
-64
21
-12
18
9
-22
-34
5
-50
33
-80
26
49
-32
-52
-33
-5
-46
40
-53
-21
-17
30
53
9
-13
-45
-31
-40
45
43
-15
6
-8
-51
52
-38
-30
0
13
66
41
27
-21
40
23
-23
26
-24
19
-39
-16
-39
1
-25
43
35
44
-37
-44
26
38
-43
39
13
-21
-27
72
25
-11
-15
7
-27
-11
-6
60
-11
-19
-9
-11
-5
-12
-38
58
-44
10
40
36
32
-2
47
-62
-26
-72
3
30
76
-64
-20
-16
37
54
-44
26
-9
7
-38
-4
-15
-45
2
-10
82
19
29
39
-69
-6
-29
28
44
-29
2
14
-61
53
60
6
-16
-29
0
69
-37
19
58
27
-13
36
6
52
-32
6
-37
-46
92
-40
-72
-7
0
-40
31
67
-47
-1
-20
-53
-25
18
-6
4
1
-11
-19
42
19
17
-13
16
-17
-23
36
-10
43
-51
30
30
-53
-17
-38
-23
13
5
-4
5
-16
-67
5
-24
34
-44
-21
13
-44
-21
-24
-28
60
-21
-50
8
-57
6
-45
-31
18
-32
26
18
36
-8
51
-51
10
-47
33
-12
-2
-29
-33
-3
-7
-10
-5
-12
-28
19
41
18
9
40
0
38
57
39
-16
51
23
3
-35
-33
-68
-12
-9
33
-63
-35
-76
20
15
-35
29
-32
28
-7
6
-43
2
19
-44
-20
-4
-65
-31
-36
-8
-13
38
13
-41
-23
14
-8
44
28
-8
18
13
50
-27
-64
-23
-26
24
-34
-9
-16
32
-2
11
-34
-1
-25
15
0
11
46
16
-70
-29
7
47
17
-6
-17
33
9
47
6
-40
-61
37
55
-28
-42
-2
-9
-37
24
-11
41
-18
25
18
17
3
-1
-21
-14
-40
70
18
-8
-62
21
-30
-43
61
-14
-4
-46
33
29
1
39
12
-79
-20
10
16
10
36
43
-14
27
-44
-46
-52
40
16
17
42
38
-30
1
13
30
21
33
18
-2
-67
-13
-16
-29
18
-9
-47
-7
-36
-39
43
8
-60
-19
-43
-22
0
-10
40
-9
-68
-16
-17
14
-70
12
36
-20
6
-28
32
-27
45
-54
51
32
-30
-15
-3
21
-34
-7
5
-15
6
-47
30
55
-24
68
-9
7
17
39
48
-13
-64
46
1
42
17
-28
-29
35
-73
59
-12
-27
-79
16
-27
-14
3
-13
-14
-11
-46
42
-32
-45
-42
-19
-11
30
-29
18
-67
33
54
14
-24
39
19
35
62
13
18
-26
-19
44
45
-62
-12
-55
36
-45
-20
-71
-13
-22
16
-81
19
-20
12
-25
21
43
14
12
7
-35
48
55
22
42
22
11
-19
-55
-30
-40
46
-87
-4
47
15
30
14
-18
49
11
9
6
17
-15
14
-16
-62
-50
54
-8
-7
-15
57
-12
-1
50
-35
-24
20
-9
-29
-60
35
-38
20
7
35
57
-60
40
39
11
-14
30
14
36
-20
-38
0
-2
-73
-46
-48
18
-74
-35
52
-49
36
20
26
-12
-41
-48
-3
56
75
-18
-14
57
-40
35
32
24
23
12
41
-48
-30
-18
0
-53
-14
-31
-18
38
1
-17
25
27
36
56
-88
41
-14
1
-15
-59
-36
15
-10
-8
-50
-18
-46
3
-10
15
15
-56
-24
53
13
16
-39
-55
-34
33
-36
-17
-23
21
-16
-35
9
33
-8
-28
24
-44
20
-41
52
-23
-31
-47
58
-48
-13
-17
-15
-75
-8
2
16
13
8
-33
-2
-55
44
6
74
-6
-13
7
-3
-21
35
27
-8
54
64
-39
-35
-16
52
32
-1
2
-73
43
-1
22
-27
2
-29
33
-8
77
-30
-37
-44
-21
-17
-61
-50
-29
1
91
18
18
23
72
31
10
-17
5
-27
63
-39
-34
38
25
-62
4
-2
19
3
75
-57
39
61
52
-27
1
39
-34
30
-23
-18
17
22
42
8
-10
36
-107
29
13
51
-38
-15
57
-7
-17
-84
-64
12
44
-70
22
50
8
30
77
17
26
-19
22
-22
45
-48
30
-3
36
-4
-31
-48
34
-4
22
34
-27
51
-18
-56
-13
51
20
7
49
11
50
-20
-36
-83
15
-58
14
6
-48
-37
37
8
-24
-4
-45
40
-23
-14
38
38
-94
41
-12
15
17
30
-37
-62
40
8
-89
-20
-34
-11
57
-38
24
54
-48
28
73
16
0
2
-35
-25
-24
-24
-39
37
-31
-40
-63
55
-18
-57
-4
25
-40
-35
75
-22
26
-19
-44
15
42
-5
10
21
-26
7
3
1
-42
42
-48
-21
-32
-15
-25
26
-20
15
23
-68
-49
-29
47
21
25
-64
-10
-23
-11
-48
-21
-20
-67
-43
-70
46
6
23
21
4
8
-13
-49
-21
-31
26
45
43
-31
28
19
-1
36
10
-30
-26
28
-58
-9
-65
51
-16
44
44
39
-11
-8
1
-2
-15
13
-20
-23
-57
5
41
-6
17
49
50
-15
52
19
-28
-25
34
42
15
-33
-75
1
15
46
22
57
-5
-16
9
2
27
8
29
38
-45
0
3
-29
-36
19
34
46
21
-20
-48
14
27
37
24
9
-55
-5
36
1
29
8
-60
15
-41
-27
10
34
-33
-53
-30
-12
-35
-15
-7
24
-17
-41
-23
31
39
9
10
-58
-28
-19
18
-53
27
12
-27
59
24
28
-25
-18
43
28
-21
46
-28
9
64
-55
6
-50
-33
0
-42
-47
-71
-1
39
49
44
-20
32
-40
-73
26
-40
-49
-29
77
34
-45
3
-55
-24
28
40
21
42
-8
6
42
-19
-61
6
3
14
-16
-10
16
17
40
-12
-49
-62
-10
-40
-28
36
4
-25
-27
-5
-38
-27
13
14
13
-16
-67
35
-2
12
0
87
72
34
-51
47
60
20
19
18
46
32
63
20
-45
-25
80
0
-16
10
-12
31
-31
4
-8
-16
-31
-29
3
-15
-29
49
-82
29
-89
43
-32
-76
-24
16
-79
-5
71
28
-22
-25
-59
-1
18
-41
-2
39
-7
34
-38
13
11
16
-47
-1
-18
-35
62
6
16
-22
-20
13
53
73
-13
-15
-36
2
-39
33
90
-12
41
57
34
-9
17
50
36
27
-35
14
26
3
56
27
44
-61
2
27
-15
-30
-51
-38
46
-29
-17
33
46
-41
39
-13
7
50
-85
-14
-49
-71
14
-5
-37
13
-46
16
-47
-50
-24
-5
-76
65
-31
31
5
-22
41
69
-4
68
47
76
22
-6
39
-21
-38
-4
69
56
-36
22
65
31
40
-13
-3
34
-4
2
22
9
-15
50
-23
40
13
-35
60
-19
-17
31
-2
-25
-25
41
51
27
19
-20
-5
38
39
7
-25
53
16
-46
-6
13
-56
15
3
54
-4
21
5
35
-7
-4
-9
-20
-13
-5
-9
-19
68
21
-19
-71
44
51
48
29
-32
30
36
9
-34
-20
-22
11
44
36
-17
-25
61
-39
-20
-25
38
18
84
-2
-38
32
-22
-44
19
-12
-43
7
40
-37
63
13
-9
72
-21
16
-1
-37
26
-1
37
38
-20
23
1
18
-1
-17
17
-46
42
24
-41
-42
-31
-27
3
30
-41
-2
-73
36
-18
-48
-7
-11
2
-30
-35
-21
14
4
37
-27
-12
-15
-3
42
25
0
44
-6
-30
38
0
4
-11
30
-12
-17
27
5
28
31
62
57
-2
-31
53
-38
-3
31
-34
9
-43
-17
-33
26
85
18
-33
0
-62
-41
56
-15
-2
-57
39
3
-42
-42
21
-34
-8
22
-12
-4
-61
18
-47
-36
16
-44
39
-8
-8
-48
5
-7
-43
-45
18
22
3
24
6
59
22
-3
5
3
-68
-49
-42
23
-52
30
-13
-13
-45
45
-32
-45
36
10
34
34
56
22
22
-55
16
18
11
49
-45
30
67
34
-46
30
0
-33
-49
-33
-17
24
54
49
9
-26
-65
23
-10
-14
-52
33
-49
11
18
40
-27
-33
-79
-43
-45
8
25
-6
8
8
21
5
27
-21
-21
9
57
21
19
-3
-34
-38
-13
-20
-43
7
18
-7
-27
57
-32
-25
4
-51
-17
-62
13
-17
-13
53
-4
69
-41
-6
-14
5
22
35
58
-19
28
26
-85
33
46
12
-10
40
7
-45
54
59
-33
37
16
3
-23
-31
32
-55
-7
-41
-30
0
38
1
-48
6
-24
-47
12
41
-24
41
-26
-24
-33
-38
-29
4
-78
-15
-30
-71
26
-52
-31
6
-10
-15
-35
-4
-55
-24
15
-28
18
6
62
31
31
-20
-32
-35
55
-5
-24
68
-42
63
-39
27
26
22
-51
-27
-5
23
-60
0
-21
-17
-1
40
-27
-9
54
-29
22
1
56
33
-43
2
-29
-32
42
49
8
-43
-16
-23
20
16
-6
-19
23
-16
16
-2
-43
-7
-38
-33
72
37
12
-58
-17
22
2
-11
-74
-24
1
-22
-63
-19
27
-11
22
10
16
-47
-12
50
52
-35
-11
63
68
-25
-4
12
8
35
43
-36
-68
-30
-43
-78
1
38
16
78
56
-28
-33
39
26
-21
-25
-17
-29
59
9
-61
-52
29
-13
14
14
71
-29
-23
36
60
-48
-38
36
-33
53
1
-11
-15
18
-1
-19
-19
-32
38
21
15
32
-52
-32
15
6
20
61
2
51
-18
-18
16
54
-44
29
31
14
-28
-59
0
15
22
-58
-12
16
-27
-27
-48
-51
-41
25
-14
27
34
-15
39
5
31
84
52
-11
-7
23
-20
-2
-10
55
29
0
-35
17
-10
16
-70
66
1
-38
-75
-3
-33
-41
35
7
-49
-11
22
-28
-3
37
-47
-7
-16
-60
-22
-20
-26
35
45
-27
7
33
-42
27
47
49
-36
1
-2
-19
-26
-51
-26
-7
-8
-35
-35
21
33
14
13
-44
-72
-1
23
47
-68
52
-2
19
4
16
30
-15
-26
-13
10
7
62
3
-7
-17
-35
13
-24
-1
-1
-9
52
-34
-7
53
45
-13
-40
-27
35
-29
-15
30
-37
-27
51
-2
-10
-9
-51
-24
-11
53
-80
17
37
-11
30
-5
-1
-58
74
-61
-60
19
-29
6
54
17
-82
18
9
25
-44
37
39
48
42
56
14
-38
-9
-17
-22
14
34
9
-71
27
24
44
-59
-15
32
42
-19
-36
-33
61
-45
-32
-21
39
0
6
-80
30
-16
-13
-80
-64
25
2
-28
-45
-61
3
-21
-9
31
23
10
23
41
-14
-43
-23
37
12
2
27
-32
-13
-71
40
-7
-5
-29
-3
-29
-28
10
54
5
45
-30
-17
-43
27
-24
2
-50
6
-48
36
49
37
65
-3
-10
-22
-44
4
43
-41
-25
-24
-30
-47
-20
31
-71
45
20
31
11
-36
-28
28
35
-13
-38
-5
-33
41
56
32
-28
-54
36
-51
0
-60
-30
-30
36
-49
-34
-25
60
-9
-70
14
35
29
-28
10
44
35
55
-27
24
4
38
-15
15
35
-23
35
60
-38
30
10
42
24
-25
45
-31
19
84
11
-19
-60
47
31
17
-23
-52
-38
6
-71
29
58
-48
44
-24
-14
-86
-5
-56
-18
60
44
-51
59
-35
-38
32
3
-54
-36
5
61
10
4
6
-46
6
-81
0
-15
-14
17
63
39
-32
-73
39
42
21
-33
25
-39
25
33
42
62
42
-41
-53
-7
-33
-58
-6
-5
7
24
40
-61
5
15
7
14
14
26
-11
61
63
37
-35
38
-46
7
-5
33
35
-18
-4
23
40
-39
-10
-21
-25
38
31
-45
-43
30
57
20
-42
-27
-32
-17
-39
-20
0
-65
-21
7
-26
15
-21
20
-20
26
-22
11
-87
21
61
0
-25
-27
-3
11
25
-53
23
-20
-8
-16
-7
-27
-24
-15
-46
30
-29
-26
-67
-25
-19
54
81
-27
-16
-20
-4
34
32
-18
42
48
-9
1
23
20
66
36
20
-45
38
-4
17
-28
32
38
-17
10
-38
-37
-69
10
9
6
41
4
39
-68
-38
30
18
48
10
-53
-70
-17
-16
-6
17
-46
8
-12
-53
-50
17
20
-87
-63
40
-18
-3
-12
0
29
26
-26
-50
40
24
-71
1
12
14
-14
-25
-1
5
-27
25
12
64
56
17
-44
65
24
-6
-24
5
20
-47
-36
37
27
1
-22
45
27
-25
-17
25
-29
67
62
-52
-19
45
-63
-47
-8
65
7
-4
-3
-29
-2
7
27
28
8
30
14
-26
15
-18
34
-36
-19
-75
33
-30
-33
-5
-44
44
-56
30
10
-48
-16
-38
-10
-11
-60
6
-3
26
31
-36
23
-32
20
12
25
28
11
4
-27
-5
-1
52
37
-23
10
69
-25
-27
-19
-42
70
-34
10
-18
-47
-7
-11
44
-79
-1
2
7
20
-56
-37
-32
6
-15
-15
56
0
-33
15
-47
-16
81
47
44
-21
64
32
-2
49
55
0
-31
21
-18
42
-12
5
5
-32
-16
36
-23
35
44
-33
-40
-32
11
31
-60
-32
-24
28
-66
-49
-39
-5
-3
-1
12
21
15
-2
-25
-3
42
62
46
73
51
-30
-25
1
76
57
58
16
-19
-17
7
-15
-8
63
8
-47
63
-55
-8
40
29
-83
50
-36
-87
-18
-5
-19
44
28
-45
27
-74
-17
2
29
-27
27
-21
1
-29
-17
-44
-15
-43
-38
-18
-53
-31
-42
-41
51
36
17
-18
19
12
-15
-38
58
-43
33
-47
-11
23
58
-91
40
13
20
-11
-60
34
-35
-28
30
-30
-3
42
-48
23
-57
-44
-7
-30
20
-25
6
22
10
-18
21
-24
38
7
13
-16
-4
50
58
-5
23
-36
30
-20
46
-20
-35
-54
37
26
21
-65
11
-12
19
-8
-35
-8
18
32
24
34
-8
31
-17
4
-15
49
1
-59
-52
-9
7
-42
-4
19
17
-54
-22
1
-35
38
-16
-21
-13
-42
34
24
-49
-24
-40
9
38
-7
-55
11
18
-42
23
-31
57
-49
-6
-29
2
25
-36
37
47
-8
18
39
14
48
-28
37
30
-11
-37
25
8
-16
-36
-14
-60
-2
-18
17
-44
-3
0
22
5
-61
-57
40
16
-16
18
-30
-31
27
-29
10
-52
13
30
-51
14
-52
-30
33
99
4
5
-33
30
43
0
-58
-29
67
72
29
-24
70
-1
-24
-45
-30
-49
-22
25
-13
-50
-31
-74
15
19
62
-64
36
35
63
59
25
37
12
23
-32
48
30
10
34
-27
17
-73
49
12
-6
24
10
31
-7
-15
15
46
-17
-42
-60
17
11
28
-39
-24
-61
-52
17
19
-17
-52
-14
-28
-7
-32
27
14
25
-6
-23
20
-51
-47
11
12
-42
-40
5
-11
13
-30
53
-8
48
18
50
4
56
20
-23
-15
23
10
-17
0
26
67
1
10
-18
-35
-10
64
-15
-27
51
-20
11
24
70
35
-5
13
-21
18
52
-12
-9
-51
-33
-9
-1
60
26
15
46
-42
-62
29
16
-18
-8
-41
55
0
12
59
3
-19
-20
20
-62
23
-72
-17
-57
62
10
-4
21
26
-64
-2
45
-24
-22
45
-67
-6
2
11
-53
-58
8
16
-3
-17
-68
28
16
9
17
19
-7
15
-18
56
51
-11
48
-38
-43
-7
-14
-24
-8
-55
29
-26
4
-59
-16
43
15
61
39
20
10
15
-25
-8
4
-51
0
-32
-37
-24
-30
53
49
-27
-45
3
-47
-2
50
7
15
24
-9
35
49
-52
21
51
-22
5
6
-23
40
-35
38
-26
-5
29
26
4
5
34
14
13
-43
-31
28
45
-2
23
34
4
32
12
-30
35
-75
14
50
-60
-2
42
-13
22
-41
-9
-25
-34
28
26
41
-79
59
-33
-28
-62
20
-31
22
30
-34
-18
16
-26
-44
17
-58
12
18
-32
-20
31
-38
40
-10
73
9
17
24
20
2
-9
-27
-16
43
-21
14
-5
0
33
57
-47
73
21
-28
28
-31
11
-30
-10
45
-8
46
47
35
-30
93
-74
49
-29
-9
-19
-7
27
-12
-67
-7
-20
0
-58
-34
10
11
-30
10
-21
55
18
-10
26
-16
23
-10
31
16
21
11
-31
48
-42
-16
-5
30
-43
14
-5
-2
69
-11
-4
60
15
8
-25
-11
-78
-30
-45
-17
-23
24
33
18
-72
65
33
1
63
7
-2
6
23
13
-29
7
75
-32
50
51
-44
59
-19
-28
8
16
48
25
-3
40
51
-39
3
-4
-22
-56
-1
56
-4
-3
19
-53
-44
-3
58
27
-24
-33
-46
11
-5
33
-36
-31
-41
22
-8
14
53
30
46
-40
9
-40
41
2
-37
35
34
58
-24
10
-41
21
63
3
7
47
-21
38
9
-36
55
51
9
-7
16
-26
46
-10
31
6
-48
0
-12
-39
-17
-40
-9
-51
71
-58
39
1
-18
-79
26
26
-24
-16
2
6
-51
-64
-25
19
-50
7
12
27
-6
16
-46
-25
27
86
-20
-55
-50
15
-12
-65
-22
21
21
50
61
4
-23
62
6
98
14
50
-10
-47
29
-65
-81
120
10
55
29
-40
23
-2
-16
1
-14
-10
-43
28
40
-5
16
6
40
-40
-47
-10
30
-11
-36
2
-1
24
6
17
-50
10
11
35
10
73
-32
-23
1
-23
-7
42
47
-23
0
27
34
-35
-12
30
18
-25
-30
1
36
-29
28
10
24
39
-23
-39
-13
44
4
-4
25
-5
-21
29
-25
-48
11
11
-56
-49
-69
-12
-2
67
6
-32
-21
-51
-11
-6
-28
51
45
-42
3
-54
65
-56
-57
-12
-22
5
24
-28
11
-28
-64
-7
21
49
-15
-26
45
-59
-1
38
11
56
-47
-21
55
-64
-22
35
-17
27
-31
4
24
31
-17
-52
71
-44
33
-37
3
-24
-53
-58
-27
-26
-21
49
13
56
17
36
45
24
47
44
21
15
4
-65
-49
43
14
54
43
-23
-16
-45
-14
-81
-51
-54
-62
-55
61
-55
55
-28
31
-42
-9
14
-38
24
45
-43
12
-33
53
-61
-1
-88
86
-2
1
-16
21
15
-36
49
26
-21
41
-9
60
-14
-1
18
-43
-22
-49
18
1
-39
2
-22
22
-18
47
-21
37
-5
-57
-46
15
-1
6
-6
-26
-25
22
-37
33
7
-60
-42
38
20
-16
-19
17
13
-55
-18
41
-37
-41
-24
-15
-24
-39
-49
-50
-24
31
14
21
3
-40
-24
-33
27
25
-44
51
23
-19
-7
45
10
5
-39
24
20
-3
3
68
-33
-3
-36
59
-10
-12
49
4
-78
38
-1
-4
-18
22
23
-59
59
48
18
-13
31
28
25
-24
-13
6
-35
-39
-16
5
40
-45
35
27
20
-46
-54
1
-15
-49
62
17
-1
-43
73
-15
-31
-38
-9
-4
64
-63
24
19
-28
-20
-36
-11
60
44
-4
36
-29
11
-39
33
-64
-27
16
2
46
50
-73
-6
-51
41
40
-20
-46
-55
26
69
-47
12
2
21
37
29
-50
12
9
-13
0
23
-7
-19
-11
85
25
43
6
-30
-22
0
49
-3
53
-47
26
-21
-28
34
14
18
-81
15
12
25
-25
-30
-11
32
-28
28
6
-31
-16
-20
-16
8
17
20
-3
-8
31
31
7
7
78
-60
-35
-2
-43
-19
-57
34
-66
-17
8
6
-37
4
13
-53
3
18
-17
-23
10
-47
30
44
62
-3
-88
21
-19
-49
65
35
-47
12
-6
-22
-45
6
5
-8
33
13
-19
-13
-27
-11
-34
31
13
36
-4
47
-8
54
40
36
-17
-27
-16
-30
24
25
-45
-9
-13
19
25
5
4
9
48
32
-51
-22
12
2
31
-18
5
29
-35
-23
3
-19
24
22
-18
-19
8
32
-21
21
-34
-16
1
2
-12
-4
-18
27
-26
-10
-6
-20
-50
-30
-28
39
79
-3
14
-18
53
69
-29
-18
-57
-24
33
-48
-8
66
-32
23
12
-44
-38
-21
9
-15
-24
32
54
-5
-46
51
-15
-19
65
4
-61
11
-21
26
-31
19
9
-59
28
-21
-29
-2
-18
-31
-43
54
6
-25
-41
-53
34
-60
55
-21
-8
-10
-16
-19
-8
-31
38
-48
-3
-31
-24
-32
59
-82
49
-29
-24
52
-59
-48
70
-11
29
-11
12
-24
-60
5
54
2
-4
3
-15
-62
-51
-39
-38
11
63
3
-90
-13
29
-15
49
41
-25
-21
-1
-31
-33
-5
6
-5
-74
-1
-16
-27
46
-18
12
-3
-46
-55
30
-37
39
2
1
-65
-3
-49
-52
-42
40
-4
-28
-21
10
21
13
51
-42
-32
-7
40
51
-36
-7
8
0
-26
-30
47
53
-51
52
-16
-35
-23
-8
28
16
0
-25
-16
23
26
-63
14
-37
-36
2
36
52
40
54
-27
12
-13
30
-51
-2
26
-52
-48
31
-51
-34
-70
-66
22
-17
7
35
-5
6
3
40
43
30
-7
1
-11
-48
23
-32
-34
25
40
-16
-1
-19
-8
-21
-41
5
82
-20
-49
23
4
20
-39
48
-44
71
-2
92
38
4
-2
47
-57
82
27
-30
-65
37
64
-28
-27
-1
15
58
19
16
18
64
-55
16
-40
32
-16
11
48
-23
-128
34
-73
-10
-69
-63
26
52
70
7
71
30
38
21
12
-22
62
-31
-30
41
18
-8
-24
-25
-2
46
-6
28
55
-30
-20
18
-38
-12
-42
-45
-50
-63
41
19
13
-8
48
60
17
19
-16
-33
13
32
2
61
-31
24
-30
-27
16
-24
45
44
-22
11
13
-63
24
-39
-57
44
-39
48
-2
28
14
-30
-32
41
-43
-25
-10
10
-41
26
13
-40
-13
28
-29
54
12
-1
4
-51
78
-31
43
-2
43
11
-39
18
-6
46
-14
20
-17
59
-48
31
14
-38
-20
-20
73
13
24
10
13
-8
26
20
6
19
45
38
-65
-62
53
-54
40
-26
-9
-43
-26
-7
-54
1
5
-4
-6
49
10
1
10
-17
-50
7
6
-15
-39
-2
46
-10
9
1
15
34
-7
-58
-21
-16
-11
-74
-62
-40
4
46
14
-31
20
-37
-5
-38
-42
-27
-8
51
14
-7
29
13
-17
-37
38
-46
-11
-20
-6
-27
17
2
-8
43
26
-16
-7
46
1
27
-14
-24
3
-57
13
17
35
43
4
-1
50
-24
-6
48
50
-23
64
-4
27
91
62
34
60
30
-12
42
-62
-4
11
16
-26
-45
-19
47
33
32
0
40
0
-19
29
5
10
-23
47
39
47
0
-51
-48
30
-10
8
56
-5
-21
-36
-50
12
8
-56
-25
0
-40
-3
-14
39
-35
8
-31
8
23
12
60
-70
-60
-1
22
9
-6
-20
67
3
-89
49
11
57
-25
-12
-21
-13
-26
-29
1
-10
6
33
57
16
-16
-45
-44
-31
14
30
-39
34
-15
22
-23
44
18
-37
-11
36
6
-9
8
-55
1
-49
12
-21
-47
50
-4
-47
-18
17
-39
-20
-40
13
-8
-15
13
5
7
-63
57
-17
47
-52
45
18
32
-38
-60
-9
25
-33
-14
-11
2
13
-37
7
-62
12
60
53
29
58
-56
33
-23
-29
-12
-19
43
-22
-12
-14
14
42
-49
31
-33
62
-18
22
43
10
-30
-49
-35
-3
34
29
23
14
26
-43
13
-22
9
-68
7
17
-10
-64
65
-35
10
-9
-51
-54
-34
-56
19
-56
-6
4
-61
2
-11
-25
-69
42
17
-9
-55
-27
61
-20
36
-9
-26
18
-52
-61
-13
-30
-11
-29
-44
14
-14
38
-35
66
54
-51
-7
-38
-2
-12
-29
-23
18
32
48
22
-16
24
42
57
43
-13
50
-19
2
44
-1
-35
-74
26
28
-32
78
7
-47
4
21
56
46
20
41
2
17
-28
45
-13
20
61
22
-46
13
13
-5
43
9
28
48
41
-28
27
-34
-41
-24
4
-37
-31
53
-10
8
-34
-22
-6
-41
-2
-43
7
7
-17
7
-25
38
-33
-13
63
-4
35
6
2
24
-14
-24
60
-12
-25
-16
-3
-11
25
-58
-34
-25
45
-43
-30
46
-9
12
22
-7
-10
22
-13
62
15
-17
-37
54
-14
65
11
25
-30
54
83
-37
17
45
-53
-4
26
36
-49
23
-61
31
20
-30
-47
24
-8
-44
-19
-21
-15
-10
18
-46
64
2
-19
-35
-8
21
-50
39
43
32
36
-59
36
-47
66
-10
-5
-31
65
-8
59
4
-23
10
57
21
7
42
47
-39
2
54
19
-13
62
24
72
-18
-13
4
-27
-63
-6
-51
7
2
-13
0
20
23
-4
14
54
39
-14
40
-30
9
-47
-8
1
5
24
-72
17
34
44
20
32
45
-8
-55
61
17
-40
-11
-32
11
37
33
-43
0
4
-71
16
66
77
-12
51
-64
-54
-12
-52
11
-41
20
-43
13
30
30
-32
28
29
-2
-62
0
-54
-21
12
44
-51
33
27
58
6
46
-2
29
-11
-4
35
5
34
-56
42
-27
-32
-50
23
-15
9
-21
-11
41
-53
-61
-19
19
8
33
-26
-41
59
-26
55
44
27
23
-21
47
19
-21
2
68
0
-39
14
-53
-22
-1
29
-39
5
-5
-26
3
-4
34
-37
25
2
20
-39
-35
11
-5
11
-27
64
25
27
-1
-60
42
11
58
-32
-11
14
4
74
23
-2
-17
-64
58
-12
28
-23
8
-82
-6
-19
56
-55
9
6
-52
-52
33
-50
6
31
28
-29
8
-22
1
2
10
8
-23
-24
17
-6
10
37
-25
-48
-60
-58
-31
-8
1
21
28
4
-62
49
43
15
25
11
-15
-50
6
50
-5
13
49
5
29
57
-56
-20
-39
-36
-39
-7
17
41
-13
-6
-13
15
7
61
72
4
82
35
30
-22
-63
16
7
-49
42
-45
60
40
52
-27
38
-26
-28
-12
-1
32
-29
41
-13
66
17
47
-3
3
23
-11
-45
28
-32
-28
17
56
-50
-38
24
-61
-11
4
34
56
38
3
18
12
61
-33
-2
50
-12
-13
-4
0
-20
11
15
-22
-5
29
-52
25
20
4
6
15
-22
62
6
14
-27
44
-18
-44
-3
57
46
15
76
13
-40
-24
45
-82
57
-12
-36
-6
44
-15
-24
46
-19
45
56
-12
-6
-52
24
-44
15
-19
7
-19
43
-3
-46
39
0
-32
-63
-44
24
106
44
1
43
-40
27
-40
40
57
-86
-21
66
-25
-60
39
-27
4
22
-11
-31
-39
35
55
37
30
-10
-52
61
13
77
-57
31
13
26
-14
22
-12
21
34
15
-14
22
29
52
-44
-46
16
32
28
-52
13
20
-55
21
-25
10
3
72
-31
-7
-34
83
-53
-32
-87
11
-41
15
-17
-14
-34
43
19
30
7
-64
16
-25
6
23
40
-37
27
11
-7
37
56
-15
21
19
-26
1
25
-7
-14
13
-10
-46
-51
1
-2
-17
-11
-19
-23
-19
-61
52
-29
-6
58
26
39
-19
-17
-10
-78
51
30
-36
7
11
68
-50
-15
-2
13
29
-2
-35
-4
18
-15
68
-39
55
-25
54
-16
11
-16
19
26
25
-32
-13
1
32
-11
16
47
-28
-54
-57
55
-48
11
-29
43
-8
-24
7
-7
15
9
34
33
-46
-42
-40
-7
-36
56
-3
54
24
14
-61
49
-10
12
-60
-9
15
33
-72
41
-20
22
-79
0
3
11
-22
-83
14
44
-19
34
-80
-30
38
35
-69
-32
22
-27
0
-78
-19
13
-3
47
-74
-43
-60
0
-52
20
-47
-1
-70
-1
-2
5
-33
-36
-47
28
-41
-20
-38
20
43
11
42
1
-34
10
-15
-35
83
5
-78
-35
-28
0
59
5
-35
-28
9
-10
4
54
44
96
-3
-23
28
-4
21
37
19
-37
-20
-31
78
8
50
-17
-72
-24
47
11
41
13
-33
-12
8
19
-19
27
59
16
-34
-14
35
44
-33
12
-60
14
30
10
25
74
2
31
-26
53
27
15
20
-17
12
-29
39
-39
-39
-9
9
-46
-16
4
2
-31
20
40
-14
-38
-1
-8
60
63
-19
36
-67
-38
-42
30
1
62
-4
45
-29
3
11
35
1
22
-46
-74
26
-48
-39
-10
33
30
0
25
21
47
64
-42
64
-67
-38
13
38
36
7
7
-7
-4
3
-25
54
-35
69
-8
-8
27
14
6
25
-57
28
-116
-6
1
-30
-37
-1
32
11
18
36
-11
-9
38
-6
-76
56
7
-37
55
-40
-48
37
-48
29
-47
-54
35
-13
-5
6
49
-34
34
-24
9
11
-23
19
0
-33
41
-47
14
-49
-34
-42
-3
1
-7
-25
19
-26
-43
38
45
61
-29
14
-7
25
-29
-43
-46
31
-21
35
25
-22
42
16
51
17
6
-7
61
40
27
3
-2
-21
12
-18
-43
53
-10
-1
46
-31
-33
67
-37
58
-9
17
-9
34
-30
66
30
-46
-45
26
1
-17
-42
-69
19
44
-46
1
62
-1
17
-79
38
-4
-11
38
24
25
-15
-15
21
-12
6
22
33
48
5
17
48
29
-22
-26
65
7
59
0
25
-54
-10
9
-14
-54
-14
-69
31
34
13
-42
-6
50
64
40
27
44
-42
-49
-17
28
-77
13
43
63
75
-3
-25
9
-24
88
-57
-34
-17
10
52
27
-29
0
-26
15
-25
82
20
6
-60
-34
14
8
28
-35
32
-93
5
8
4
-71
-53
-71
38
18
-69
-15
19
-1
-2
44
25
-37
-56
19
-15
43
-21
-8
-3
-18
-29
-64
-43
8
-56
51
60
37
65
53
36
-41
-23
11
41
-28
-26
39
47
-53
29
1
-10
-50
66
13
32
-21
35
-33
68
-22
77
18
22
-1
48
17
17
78
-80
42
-38
-59
35
-30
-37
37
-25
-57
-11
-11
29
-30
-7
39
5
-34
-51
49
-29
40
10
-18
58
25
10
86
-22
-3
-56
44
-63
38
-12
-19
89
32
57
-40
17
26
-26
35
12
6
-39
-38
44
-22
-36
-56
49
-50
-67
11
-38
-110
24
-15
41
-25
-25
5
-6
-25
21
-34
9
-24
-23
26
10
-32
-48
-28
6
-12
-40
106
26
-23
-6
-31
-17
-2
-34
7
-11
6
-8
11
46
-33
-8
-50
-47
29
-25
107
23
23
4
-43
-59
10
59
-20
56
-21
-7
-11
-37
-60
-20
54
20
-51
-27
-63
55
-62
-20
-40
8
8
-10
8
-25
-20
-22
-42
-16
-56
-18
-32
-42
7
-69
20
-53
-2
84
-40
21
-18
83
-54
5
11
60
7
19
34
-31
-21
27
59
-30
-18
-18
23
-7
34
23
-7
-61
-51
13
-19
-22
16
-51
43
17
-16
-14
17
62
55
21
-69
-6
-43
17
46
19
15
-45
-8
32
-30
3
-47
-38
50
-10
11
42
10
56
-60
-5
-9
24
-2
16
-27
-58
-26
-8
-26
-4
74
-12
33
-68
10
-4
4
-36
23
-58
-6
-15
-51
-22
-41
37
-42
14
86
24
13
1
-3
-17
-5
-58
6
9
37
8
-50
-31
0
-9
53
30
9
-18
2
17
25
-9
26
-39
-30
11
-36
-27
-39
2
-1
-32
16
-43
-53
18
19
8
10
31
-35
29
-33
-29
88
8
-18
39
32
56
54
2
86
49
-15
37
33
-15
-4
12
9
28
-42
1
-49
-20
-30
-20
24
58
-8
54
34
-10
37
0
-79
-40
21
14
-31
42
-3
-70
-41
-5
-33
63
11
58
30
15
-61
10
-54
-31
-36
-2
-14
-55
-55
40
-13
53
62
0
-39
9
26
19
31
-26
67
24
27
26
-95
15
-44
-4
-34
11
36
19
4
-58
60
4
4
38
-13
-31
-16
39
36
-13
64
32
-6
6
-3
-58
-69
-24
-15
-70
20
-45
37
38
26
52
-23
-5
32
-26
-13
12
16
-31
-12
19
5
-43
43
5
28
17
42
3
-25
18
5
-14
-26
-29
18
-41
-13
-19
-13
38
-26
4
33
0
26
1
31
32
20
-8
49
39
21
10
-61
16
-19
-8
14
13
-10
25
-52
-1
14
-1
-41
-1
-34
-36
-24
-36
-48
37
-34
17
58
-7
-18
-64
-52
1
-61
-31
7
3
53
-34
-5
2
41
25
48
48
-32
-39
-13
-58
41
5
56
23
23
-32
-52
67
-28
36
-65
39
37
-28
-1
-49
15
-34
14
-42
14
-37
-34
-1
-14
54
17
-2
-8
60
-14
30
26
-22
32
-31
43
-23
36
7
-28
38
43
10
2
1
-2
-22
34
-46
-28
16
9
-54
-23
-35
29
-14
14
-19
14
-4
-15
-15
4
-46
25
-66
-41
22
-33
-25
-29
-52
-32
28
22
47
-3
-20
-41
-9
-29
-14
42
-66
22
-34
-43
-35
-59
-43
-6
-18
22
-31
-7
-11
-18
-19
24
-20
-23
1
42
26
-5
-8
-9
43
-3
0
15
37
-22
29
-20
-25
-20
23
62
-15
81
47
24
-1
-47
-4
24
6
-17
-34
74
62
-37
8
-15
-7
-15
-11
-6
42
-35
4
-46
-21
9
-35
15
24
-28
-25
-59
39
-37
-55
-15
19
10
4
36
-2
-44
35
45
6
54
-19
45
26
64
-7
47
35
1
0
42
37
-65
-42
-50
49
-13
-14
15
-5
2
4
-14
-51
-17
-15
18
-4
-38
-4
-1
6
10
-44
35
36
28
34
-1
32
-4
-23
-15
-56
11
-20
36
16
-45
-1
-27
-19
-13
9
55
6
66
-34
44
-12
-6
24
24
-24
-37
27
34
-21
-78
-54
-71
54
-16
84
9
100
-44
38
35
-36
26
37
-14
-33
-9
-50
18
11
42
-19
-36
2
58
22
2
-40
14
2
34
0
-40
39
-40
50
-36
-2
35
-42
3
25
44
63
-44
-5
55
23
18
-62
-14
-20
-20
-60
-3
-52
6
-28
-42
22
24
19
-25
38
2
5
25
-1
5
0
22
-53
-3
-25
4
24
68
39
-25
5
5
-28
38
40
9
40
-22
13
-66
14
15
-32
-15
54
30
41
-6
26
-56
-7
5
-44
48
59
15
49
-62
48
45
10
-24
-18
18
-6
-40
27
-14
28
-51
-61
35
-65
54
-18
-39
94
-39
15
-32
2
-28
-74
-31
-35
-21
0
4
37
60
19
3
-7
35
-10
11
2
-4
-1
-45
19
-28
30
-8
-8
23
-45
-1
-3
-5
-22
-4
-17
-11
-32
-21
22
-8
-41
-32
40
1
-70
25
52
-38
-32
-26
-41
-4
30
-88
27
38
24
-7
-25
19
-22
-16
60
27
58
33
20
-9
42
36
-39
-48
-34
-14
9
9
-24
-4
36
59
-32
24
-12
23
15
-49
-53
30
-48
22
-31
2
-50
27
-19
-32
-46
20
44
71
-29
-25
-2
11
40
-15
-19
-16
55
36
35
13
-45
16
27
32
37
7
-29
17
-2
13
8
12
48
13
-42
14
51
19
-1
39
-3
19
-18
14
10
72
50
-1
-34
25
68
1
-22
-4
13
-27
57
14
46
30
18
-29
-48
51
-45
2
52
-11
42
27
26
-42
-10
-38
-18
-37
44
41
-50
-51
38
5
-5
-36
-6
-58
17
17
-17
24
6
-5
-40
-17
8
-18
46
24
64
-24
-23
-48
-1
-19
35
-21
34
49
2
-54
10
-23
0
-59
4
-4
43
21
-8
15
-14
-49
45
-20
-9
-20
8
29
-30
-21
-24
-30
-31
31
9
-41
15
-26
-1
-38
-3
-32
31
59
30
-22
-25
-46
-12
1
12
29
-39
-45
-4
16
11
-44
1
15
-20
-9
-49
-44
-34
-18
-45
-22
42
-12
-32
40
-39
32
34
-49
-53
-18
12
-19
20
0
42
9
-39
63
-8
26
41
11
-55
23
-12
16
24
-23
26
10
-1
10
-22
19
-2
11
-2
1
-18
-13
-25
-19
-44
-61
32
33
15
10
-51
36
-33
-11
45
-1
7
-10
2
-35
38
-4
48
-54
43
7
38
37
-8
-1
47
3
-9
16
31
-47
-36
1
-4
48
-35
-36
-12
-48
12
17
6
36
-4
18
6
-43
9
44
54
-32
-51
-46
71
1
-42
-66
5
22
45
4
16
22
-51
-51
55
17
-4
35
-46
-17
-35
23
10
-48
-35
-53
-35
38
-45
52
-20
-38
-37
15
27
21
39
51
-4
5
26
-58
15
14
10
-5
-18
0
-2
-41
-32
72
20
-81
-53
-36
-22
-23
35
-1
-34
26
34
-20
42
-11
-67
18
-28
23
-44
18
-26
-12
32
15
-10
-3
-47
-5
-10
35
25
4
7
-16
-53
-37
35
38
33
30
-55
-71
-46
32
-6
9
44
2
39
29
25
-54
33
-30
5
23
-45
17
-17
-14
14
50
29
32
-33
-32
-61
33
-61
38
-45
-13
56
14
0
-45
30
46
25
18
-21
-14
-88
2
-13
11
-18
12
36
30
-69
-38
-68
17
71
-34
-40
55
24
-51
23
-18
4
31
-68
12
66
35
-4
-35
-2
-44
-33
-16
15
-24
31
24
32
8
55
9
7
28
-7
17
26
-48
-19
30
-18
17
-32
1
-48
-32
28
5
-6
22
-30
22
-1
10
-5
-25
-23
30
-24
-48
0
19
8
-72
27
-48
32
-40
42
18
13
28
-2
9
26
-6
-4
29
36
54
10
57
18
47
35
-35
1
-16
-19
-30
-47
-21
57
9
6
-30
24
-16
43
25
21
-3
4
38
54
-30
-21
16
-28
21
20
-14
-4
-7
8
-37
-11
19
-16
-23
-20
-11
16
0
5
-29
-1
32
5
42
-7
-24
-23
-21
-68
-27
1
11
45
-19
3
-57
-18
-56
10
-19
-1
-56
88
0
44
14
14
-3
31
1
13
-55
-17
-26
3
36
-30
-5
-17
2
40
38
41
-17
54
22
54
31
-34
-11
51
30
-11
-57
38
43
44
-15
59
-23
39
24
48
50
7
33
2
27
-48
-46
-2
-28
-17
45
25
-11
37
30
14
-50
23
-36
-9
32
-29
-6
-56
33
-39
-7
-15
-46
-26
-58
31
-20
-13
-34
43
-65
51
-7
12
-11
-26
-28
-24
-19
29
-28
-49
4
-46
-26
-32
-25
15
12
-5
-10
-40
11
-52
-16
14
-2
-58
17
-31
29
16
45
-19
14
17
14
14
5
31
57
-19
26
36
-27
33
0
-48
30
-15
15
1
-2
-42
-17
-25
-2
29
-20
-35
19
-27
-17
-27
52
13
48
40
2
-4
19
38
10
-32
25
36
29
28
-57
-15
-41
-21
-8
6
-10
36
-62
47
-35
-33
-11
-62
-13
1
43
22
-68
-12
-64
30
21
-7
0
42
15
1
9
12
34
72
6
37
42
-34
52
-51
16
29
-54
37
-15
-41
36
33
-48
-26
-25
-39
26
-18
45
71
14
10
13
40
-24
37
7
23
-5
-10
6
-3
72
17
-12
33
47
-49
5
77
-25
-28
-12
-28
20
-6
31
-11
-1
-10
21
50
-32
33
17
36
-24
31
-36
11
-14
-31
18
-26
-12
35
-8
-84
-20
6
-19
16
-48
39
22
-11
-25
17
-11
-31
-29
-10
-7
-22
14
-26
-11
37
-22
7
-55
-76
18
-12
27
-19
20
3
8
-6
-32
-14
-1
13
30
-38
40
37
21
-31
43
22
26
-36
16
32
70
-34
-27
53
-24
81
19
-9
-20
22
-46
4
-48
34
-37
0
-63
23
17
-47
18
-5
45
-43
64
-58
50
7
25
19
-6
47
-6
-89
47
-22
72
33
-41
5
16
47
-25
-13
10
-5
-8
-16
-23
-16
-9
-1
-41
28
-23
-10
8
13
16
51
18
1
-91
32
-23
67
-33
52
-36
-5
45
-61
13
-7
30
-27
29
37
26
-48
-47
8
34
59
28
-53
4
21
41
12
0
-13
-4
18
-21
46
15
-17
-20
20
-4
42
39
-39
-41
-7
-22
-9
21
-43
-31
-28
-18
38
-49
-49
21
-11
9
0
21
9
-2
-6
-36
0
-9
8
0
44
39
-21
38
-21
27
-20
-33
-15
9
28
-24
-53
-33
29
66
-17
-24
-31
-52
64
7
-8
25
66
11
49
43
47
-8
37
64
-40
-36
33
-8
-15
35
51
-18
-23
-34
-56
-3
18
-2
36
-11
26
34
-6
-27
20
-9
1
34
-7
-17
-4
-30
8
0
9
57
-26
-51
1
-1
44
-20
-13
8
-1
-39
24
6
0
27
-11
-43
30
-14
36
49
11
30
-53
-66
6
37
45
-36
28
-8
-27
-20
-12
13
-31
39
-29
10
-18
13
5
-28
54
-40
-1
4
4
28
-17
51
-20
-40
-33
-45
-42
14
1
-12
48
31
-36
-34
28
26
28
-37
-11
40
13
-28
8
-5
-32
26
-61
49
26
-4
20
-18
2
-37
21
-68
83
0
-47
10
-51
29
24
-5
48
-2
-11
45
-12
-10
-71
7
20
4
-80
-49
22
14
-92
-9
36
15
12
33
-28
-49
-69
26
-19
29
-12
-10
32
-20
-62
-30
25
-35
-29
45
37
30
-62
27
-44
4
23
-25
32
27
26
41
-64
3
31
-35
-3
-41
13
-38
63
-22
-27
42
42
24
-32
-4
37
-22
-42
36
24
35
56
-24
-26
51
-13
-35
-3
20
-53
-10
-9
-30
42
-42
-11
17
-16
-10
-14
9
-64
-40
-21
-18
32
35
-18
-62
-58
25
-37
-28
18
36
-52
15
6
52
20
59
25
31
-17
4
-5
9
10
25
42
3
-17
-15
58
-37
-11
-40
-16
-9
-33
3
-25
-46
21
-3
29
29
-7
-6
-51
21
60
34
20
60
52
-42
-67
28
27
36
29
37
-28
15
86
-17
-36
-49
-16
38
-36
1
-19
14
-42
47
-43
-62
-3
16
-21
-25
25
8
-37
21
-74
-16
-19
-24
-25
25
-61
72
-60
-19
-48
22
-8
12
-12
21
-43
-35
-18
47
17
-68
-23
-28
38
16
13
2
2
7
71
11
37
19
-16
12
8
-43
-36
0
-10
6
28
-47
34
-21
-14
27
-50
-12
20
16
25
7
84
-67
59
-6
-45
18
-3
27
8
-57
-23
18
-19
-17
-51
-27
33
-2
-52
31
13
-6
4
-5
5
-25
43
38
40
-43
-49
-60
-6
-18
46
-5
66
54
-54
14
-13
-34
15
-20
16
16
-36
14
-9
-35
-22
40
61
-2
60
-7
-13
22
-18
21
20
-29
-10
18
5
-63
41
-42
12
-46
-2
-109
-60
-16
-12
1
-67
12
-3
-30
24
3
-27
-7
6
-21
-16
-41
-29
-12
-19
-15
12
46
-8
24
11
42
-29
-50
-30
-56
10
-5
25
-45
-29
20
87
9
24
-22
27
5
42
-3
-6
-25
-39
-28
-10
-5
19
-32
10
34
-7
36
36
30
-40
-38
33
-12
19
-3
-37
-55
21
13
-17
40
20
21
37
-17
13
-72
-30
-104
-11
-9
16
32
22
4
-19
-5
28
-37
2
21
-13
-62
0
26
45
18
-49
-49
34
13
-49
-35
-35
33
-69
29
44
8
-53
34
-1
42
-19
-42
26
50
-15
43
23
46
-63
9
-37
11
91
22
39
33
-11
18
-47
18
-12
-73
-35
-12
-69
9
-26
25
-38
48
-8
-11
-53
60
48
-5
-23
29
54
62
66
-12
-33
-4
34
-21
82
20
-21
23
-58
-21
84
25
-32
41
1
25
-68
-46
-37
-22
-44
9
-56
-28
-55
-2
-58
-66
19
-10
-35
-7
-41
52
-25
57
-3
61
23
100
-27
14
66
8
44
48
-18
-41
4
-15
46
-72
14
20
-30
10
6
39
-47
-44
98
47
-18
49
10
65
-37
80
54
45
-68
18
58
-32
-33
30
-29
-14
5
-18
2
4
45
46
36
32
86
20
31
48
10
11
-34
44
27
1
-11
69
27
-32
-63
34
8
-27
1
-24
-25
9
12
37
20
-22
-2
-10
-29
-35
-25
-7
5
-25
-16
45
-19
-41
1
-60
-71
9
-1
8
-33
-37
-22
-43
-68
4
-45
15
21
-51
-5
-61
-59
-2
41
10
31
26
4
-34
17
-9
-30
9
21
25
-34
35
-55
-24
13
14
-7
-16
-2
3
-25
18
-29
-19
-8
14
45
21
-43
-47
54
22
-35
65
40
57
-23
85
28
-20
-4
1
-57
35
-31
19
-15
78
90
-7
57
45
-45
-16
-31
-44
62
-48
-26
-2
63
54
34
-49
-42
-6
-21
-57
-24
-52
-9
-22
5
-32
31
-31
13
-43
24
-11
-4
10
-54
4
20
9
1
-25
19
-18
42
-21
16
-11
41
-69
36
7
-17
24
-45
59
-33
-34
-52
-66
82
-23
-12
-13
-44
-4
-46
39
-9
48
-49
7
31
-29
-5
-19
3
33
17
11
-16
-11
55
39
42
30
36
7
-19
29
-15
30
-47
-5
-46
3
13
61
65
-1
-23
-48
54
-38
10
-77
-29
11
30
-8
-25
39
25
12
-10
26
39
-25
-22
-33
-41
-38
-43
36
36
7
-27
-37
52
-20
30
0
17
31
12
43
11
14
-16
1
31
2
-17
22
12
-17
11
5
-22
41
41
-6
17
-27
-43
-49
14
23
3
31
-18
12
-20
-22
-8
-23
-21
-34
56
-55
17
-43
-43
32
3
18
-18
-45
26
-25
-38
29
-32
14
23
-30
-39
35
-22
-1
-17
-24
-48
-42
-18
14
-5
-20
30
-35
-2
-9
-55
-30
32
-65
-11
-45
-34
-25
27
-12
24
-15
-14
10
29
30
44
-35
45
-4
11
-3
-6
-52
-10
-42
-5
-1
60
-20
7
30
-46
-18
-2
12
-46
-31
1
-21
-3
37
-37
28
52
42
35
-41
36
-17
2
-47
-32
-19
41
30
-35
10
25
22
18
10
-2
-36
-27
15
40
18
48
-7
-24
32
-39
63
6
4
-6
-4
30
-49
13
45
25
49
26
10
-1
-64
28
-36
-3
-18
22
-40
28
42
-13
-28
0
25
23
-56
22
-21
26
-36
33
-36
43
16
-16
55
-38
25
42
30
-40
-34
1
-5
-46
42
15
-5
-10
1
-29
-53
-25
34
-2
-47
-44
41
39
-24
-67
-3
-50
-23
25
13
-9
61
-16
45
-47
30
-44
-13
-6
-52
19
5
-43
31
-34
25
-41
-38
59
47
19
60
19
11
63
-7
-3
-11
18
-12
11
99
49
-36
-65
64
-9
55
-41
6
24
75
58
-67
21
49
-63
35
-59
-71
74
9
-21
14
17
33
24
-7
-53
8
-78
32
-53
-27
2
6
9
-31
-40
-55
-22
0
18
30
-30
44
37
37
-48
39
41
-2
-25
10
37
53
-10
-46
-12
-45
-45
18
8
-45
-9
-19
15
37
37
-4
61
21
13
51
35
40
-14
79
36
-20
39
34
46
23
-45
28
16
55
-51
6
-51
4
20
-59
6
-58
105
14
20
12
-1
31
-10
30
13
-18
-46
67
18
-58
-67
-13
7
16
0
-38
-41
74
-17
-42
-2
-62
-4
-34
-10
-24
-10
-33
27
23
16
-25
-58
49
12
23
-48
-55
-52
-31
-12
18
-39
-5
-43
-43
10
58
-21
-64
3
-48
-34
-44
13
42
-44
-34
38
-1
27
-30
-69
40
-16
-14
-5
68
-63
6
16
-22
43
-37
12
37
-7
40
17
35
31
-33
27
-17
-73
18
37
-17
-46
91
41
38
48
34
9
-1
-41
-1
-66
70
-30
44
9
46
38
-1
18
12
12
9
-21
-59
83
14
-33
-6
37
-27
35
-59
-53
-2
8
-21
-39
-13
-4
-40
6
-104
29
37
27
-15
-5
56
3
25
16
10
-16
44
-38
42
49
-5
50
10
-33
20
29
-54
6
-48
-22
-2
-34
41
13
-27
-44
-55
112
7
69
14
19
5
-28
19
-48
38
-20
41
-22
-11
-6
6
-31
16
-34
51
3
30
77
7
7
-38
49
-7
25
7
9
48
-76
-11
30
-18
28
51
43
-34
-32
13
51
-25
-23
-6
-17
35
-18
-5
2
75
-4
-17
-4
70
-22
-1
20
-8
-17
-34
-15
35
-5
-22
30
24
-35
-11
46
-33
22
-42
38
-27
46
43
52
-27
2
-33
26
12
-5
56
21
-23
-16
20
-76
-17
14
10
-44
7
44
8
44
12
6
9
-25
6
12
-54
-24
5
12
35
47
32
21
18
13
35
-49
-22
9
-43
-19
-11
-26
-24
5
34
61
15
21
6
27
16
33
-21
-12
40
4
-10
4
-56
-12
37
-56
-1
17
-1
-16
37
18
-22
-17
11
51
-27
-11
32
49
-6
42
55
5
48
0
-14
17
-23
31
-54
-34
-76
10
-36
-28
-19
-16
-48
7
-40
-31
20
-6
-25
-35
38
-28
-20
41
17
-10
44
-34
34
-35
42
20
-9
36
-2
30
-38
22
-11
29
-47
16
-6
10
26
25
42
11
35
-29
18
-33
16
27
36
-50
-22
0
-50
-28
-15
5
-41
41
-19
-11
-21
-42
-22
-8
20
0
-3
26
56
34
-12
-12
24
29
-37
-5
-20
-21
-34
29
20
21
-54
22
8
-36
37
-33
-32
-28
-25
3
-59
-34
-8
-13
-12
-69
36
29
-30
-69
28
-16
-5
-22
21
12
29
-42
-31
-37
44
-29
-6
20
40
19
56
22
-9
-57
-29
23
-32
4
-34
-23
29
-26
-22
-13
46
18
10
39
35
17
15
-4
12
32
32
108
-38
-21
29
30
-4
-8
26
-58
16
-31
14
-9
-15
26
-39
45
38
-37
57
49
-3
-10
37
-31
38
-1
-15
12
-33
-12
-39
14
40
-13
-2
-11
-40
9
30
-34
-14
41
-11
4
45
37
-8
23
23
-7
60
37
38
-13
4
-39
4
39
44
-16
28
-26
21
3
-30
-26
35
-23
-16
-7
28
7
1
11
0
12
8
-28
37
22
-12
-17
-32
18
-2
-18
57
-8
26
20
19
27
34
5
14
39
-28
30
-21
9
16
16
-8
-12
-21
37
53
-39
51
-8
-51
-8
41
51
-1
-28
-17
-44
-16
-3
12
-22
34
-41
-36
20
9
25
7
-22
31
-42
-16
-34
11
-51
13
15
3
-1
-7
31
17
46
-3
99
-31
-5
-36
31
-10
-2
-24
14
-2
32
-37
7
13
-40
-36
-49
-26
-1
-31
21
-46
32
3
14
2
16
-17
-28
-10
-42
-26
47
-59
-19
3
10
77
59
43
-31
2
2
-20
6
-26
4
53
-3
-48
42
-40
52
10
25
-52
-10
23
-6
-32
-43
-15
23
-11
-41
-21
-41
-26
-24
-9
6
-10
12
-36
7
-20
25
-44
-3
53
17
3
-15
9
33
110
33
33
27
6
-16
-7
-5
-25
36
-2
-16
5
20
34
-41
-8
-15
2
-48
-10
4
21
-13
-44
-22
15
-4
-16
4
40
38
73
-67
17
-40
39
23
-69
-26
-23
-41
-57
55
-64
-13
-4
-28
3
-8
45
-3
-31
62
-17
-78
-6
-34
-38
-47
-18
21
-4
-33
43
-43
-47
-13
-17
-19
0
-42
36
42
-32
45
-20
14
30
42
48
-19
30
-4
-26
7
-92
-8
-80
-23
-56
12
-6
16
18
18
-7
25
-36
-34
-16
-5
1
-44
-29
-18
-69
-32
-52
-3
40
3
-36
9
-54
-50
28
-14
14
-34
-42
-32
24
-32
40
3
44
26
-28
-15
21
-5
-56
-36
3
-50
-22
14
-10
4
-41
45
-4
-8
64
57
10
-47
19
41
-26
13
30
-9
-21
-54
64
52
-9
-15
90
-58
5
28
-5
33
46
8
-30
-17
50
-39
8
-72
-38
10
-44
37
9
-8
-1
-3
-15
-27
-41
-49
17
28
-26
37
-4
-60
-64
-7
8
17
-21
-39
29
-40
44
-62
10
-36
-14
-14
84
9
45
-21
51
23
48
-21
-49
-6
-50
-29
41
-21
45
-28
21
-37
-28
49
3
-25
-11
11
33
38
-62
-7
39
-52
-32
45
-36
16
37
1
7
39
-5
36
44
-27
16
-15
9
34
-37
74
-16
-12
-29
-30
-20
7
-45
4
-79
17
-44
22
-42
68
-46
37
-26
-28
34
-11
-7
-1
-5
27
-35
-16
-58
-6
-57
-56
-21
41
40
30
10
-30
-2
-72
44
-27
3
-5
20
-40
15
-46
21
-30
22
-30
-43
-9
13
18
-44
30
47
-19
-25
-34
23
48
-36
-47
-3
7
-20
42
60
20
44
-18
-7
98
-6
39
40
28
-26
20
-8
-53
-67
-4
11
33
44
-73
-17
-25
30
-39
-15
-11
-3
-23
-54
-26
-52
65
28
34
-25
-7
-17
17
37
-10
-13
55
11
-59
49
25
-39
-47
-47
-9
-46
-42
-16
-9
17
-34
10
49
16
-39
-13
-42
-117
12
-30
13
-25
18
8
15
39
9
46
45
25
18
6
-25
-22
21
23
-22
-55
-20
-43
-19
-44
34
1
-37
-38
-27
-45
-49
-66
37
40
41
2
-11
52
34
45
5
-7
-19
12
42
-22
16
-23
5
-38
-24
-16
-31
16
30
48
30
16
30
-40
-38
28
13
-47
-46
54
26
21
18
24
31
9
11
37
5
0
-35
-21
-21
3
29
14
-14
-72
45
-16
-1
-60
31
23
-38
-46
-5
19
-20
13
41
-50
-18
-5
-5
-7
-48
-3
-7
-50
-45
37
37
27
-31
-18
-30
-57
-52
-38
-33
-23
-17
5
25
17
-20
24
-1
23
41
69
-27
48
-4
25
-9
8
12
39
-27
-22
-24
61
-87
-10
-30
6
-18
53
13
18
53
-33
-1
54
63
-40
1
50
44
26
29
48
24
17
-28
5
-9
27
10
25
-27
56
-18
-26
-41
14
53
-27
-45
55
11
42
27
5
-24
13
-20
30
-25
-6
-23
23
-43
-19
4
9
-38
-20
-28
41
-44
29
-11
7
-49
82
23
4
33
44
32
53
41
20
11
33
-4
-22
5
-18
25
14
1
-4
-37
-5
63
-4
2
-10
-34
-25
10
23
30
-2
-23
76
10
22
-23
57
-24
-32
-7
-11
-41
-44
58
-9
14
-12
32
31
10
-32
45
-23
21
-3
-23
-18
-43
76
29
-33
-22
-44
-35
-12
-34
-25
9
-30
-16
-40
25
12
-23
51
41
26
19
-47
0
3
-13
-40
43
6
28
-21
44
1
-38
10
36
-19
-46
2
78
13
-26
-35
25
42
34
-27
-7
-24
-37
44
54
-8
34
-12
-26
-36
51
-32
-12
-6
-39
38
10
10
-17
47
-69
-18
-11
-7
5
0
84
-1
-24
-27
-15
0
-37
56
-16
-1
16
-56
-44
30
9
-64
-8
-12
0
-34
-39
-54
-32
-15
32
-65
31
-19
-56
15
51
-24
6
-3
-61
0
1
-28
48
7
13
73
35
-7
54
31
-33
41
54
33
36
14
19
50
-35
-28
29
2
2
-58
52
-53
-43
-19
-28
-4
-62
18
-30
-63
-24
-26
-44
23
-36
76
-62
-42
-46
-48
3
31
-20
29
-37
-10
-38
-5
-12
-33
-5
-64
0
41
20
-11
35
28
-22
-63
26
-2
-27
27
-13
36
-75
4
33
-26
-63
-39
11
18
-44
-3
27
22
-39
-16
-5
-39
9
-11
-18
22
-10
5
0
-10
22
-2
4
27
-57
-29
28
-23
25
-17
-42
-27
-24
-23
39
29
-56
14
51
-79
-55
8
-8
-28
-1
-43
4
-31
-64
-3
-38
0
-28
-18
19
15
-53
19
51
10
-3
-49
-8
-27
-32
13
29
-9
4
2
-59
57
-65
-39
24
6
30
-11
60
-23
-26
-16
-10
-14
-21
9
3
-23
1
36
2
40
-1
63
30
-29
-5
44
31
-43
8
26
35
77
11
-36
-16
66
23
25
23
17
11
54
-4
31
24
-7
-56
44
9
37
-14
-11
-36
-3
-10
10
20
-40
-32
-19
-32
-42
-19
48
18
35
17
32
6
28
-8
41
-9
13
-15
37
-63
41
35
-5
-32
-36
2
13
14
-83
-46
-23
-41
-5
10
-9
-20
-8
66
-37
-39
72
-9
7
-35
-36
-30
17
-31
61
-2
14
-14
32
-19
-9
3
32
-36
-3
105
42
44
-9
8
-29
52
56
-8
-17
-25
60
-35
14
37
41
41
-42
-12
-34
-15
-5
-44
12
51
34
1
40
27
-56
47
31
-6
-1
38
34
-6
38
23
25
-38
26
28
-6
-17
-32
-11
11
-44
27
-1
-9
-5
-24
-1
14
-44
26
-32
-63
29
44
0
28
-45
44
-36
-51
2
-5
-38
-18
26
6
-52
41
-1
-7
36
-42
66
16
47
34
-34
-18
-75
14
35
-46
-24
2
-9
-9
34
45
-3
51
83
-47
-57
49
-56
13
2
37
-11
3
35
-23
20
33
95
-21
62
68
-36
27
22
-69
-1
12
24
-8
10
20
-6
-6
-40
12
-23
15
-9
41
-45
12
14
-21
-12
-36
6
-15
-1
68
-24
12
27
43
26
37
16
37
-7
53
27
49
4
-25
25
-70
46
-18
47
-5
4
-39
-31
-44
-17
-13
49
39
70
-10
-6
-17
-32
-12
25
61
-12
46
21
30
-52
-17
-2
-38
-24
17
24
-41
45
-6
40
8
65
44
17
-12
-8
-12
-30
-41
4
-41
25
35
-22
2
27
49
45
-35
14
-34
-47
-25
22
-36
57
72
-46
10
-16
64
1
-1
-23
-29
-49
21
-13
13
-28
-5
-12
-16
-2
1
56
39
-42
-4
72
-55
3
42
23
-37
31
4
52
-34
-33
5
18
25
52
-49
19
36
52
-36
-64
-64
29
-3
75
-54
15
42
29
8
26
25
16
-10
-10
22
39
46
1
24
24
-31
20
-46
-26
-28
-89
7
27
3
1
43
-10
65
-7
-31
-4
8
8
-30
-57
41
6
-38
8
33
-32
66
-3
50
36
16
-30
-25
-19
39
70
10
55
8
-16
32
34
41
-18
88
34
-22
-15
26
-33
-13
-5
-5
9
-3
-10
-101
-40
-43
46
-9
14
-48
-48
81
-50
41
-27
-3
-47
-30
26
-32
-46
28
-29
22
-9
6
-32
-23
-8
-32
-32
-74
-29
-20
-14
-19
-2
-3
15
10
-33
33
3
9
52
34
-78
37
-43
37
-43
46
36
21
14
-3
30
-47
-25
-18
-6
-62
-74
7
-15
4
-75
-45
-3
6
-34
28
11
-27
21
-28
20
3
48
-58
-24
-16
13
6
-5
46
-49
-50
-21
-57
-69
-7
-53
-4
-31
30
-16
20
-77
16
-34
-20
-66
-6
10
1
-5
13
27
-39
-42
34
-51
36
29
-27
3
-3
-29
-17
-50
-36
-33
49
21
27
31
-22
54
12
15
8
14
-31
40
-53
19
10
-61
26
10
65
-44
-1
1
-26
-15
52
42
-35
-77
48
-20
38
58
-22
-20
-3
0
-10
62
21
-57
48
-27
-36
75
42
8
55
8
1
-72
-46
-58
-13
-58
-39
-39
-10
8
-3
-4
-100
-4
-27
35
1
37
72
12
72
-16
88
26
77
57
-10
22
47
4
6
-4
-71
31
-2
3
-25
44
26
18
40
43
22
-38
-14
81
34
22
-13
15
44
36
31
13
23
-24
26
31
48
-33
53
8
-31
19
-28
-40
-12
56
37
13
29
71
28
56
37
-18
2
-30
-25
-30
-48
-24
3
-8
-26
24
-44
67
37
-10
-57
17
-27
-14
-39
-45
-75
81
27
-18
-65
7
39
-35
-41
45
52
11
-44
15
-1
4
-12
-51
-11
-63
21
20
-5
-47
-26
-19
-37
-35
16
-28
-59
-48
45
-8
-35
-19
29
-5
-18
-39
-16
-23
-32
-40
16
-56
-36
1
-21
7
39
64
15
55
-7
18
0
-38
42
1
-53
-24
14
-15
-10
14
-17
34
34
-42
21
7
32
-31
8
-3
32
-37
11
50
-1
-23
42
11
-59
43
45
-33
21
-28
-72
56
31
-1
15
-31
-6
4
-25
-69
-26
18
18
-48
-20
17
-3
-46
-21
-5
-40
-26
-31
60
41
-4
19
19
30
-19
94
11
5
-9
31
-2
29
-38
58
-3
-32
30
-13
12
-20
-13
47
-13
-26
14
-1
22
-20
33
32
-44
-10
-14
76
-21
4
11
62
25
-16
-4
28
-34
-20
-34
35
-34
-17
102
-13
36
-51
-10
-31
0
-18
-27
18
-51
-20
23
19
9
30
37
-35
-52
-21
33
37
-28
-30
18
-19
49
-42
27
-32
82
-19
31
-118
-32
46
-5
1
62
55
12
-29
70
-53
-74
-39
-35
-28
-46
23
2
30
-77
22
-40
3
-56
-14
-3
16
-71
-6
0
-44
-48
21
-1
-30
-21
11
34
-26
-9
10
-40
28
-17
2
32
7
54
6
46
-39
-49
29
-10
-24
-2
7
-21
-5
-59
-8
-42
-6
-24
70
-44
-10
15
32
36
-25
-16
67
48
35
-11
-75
-24
59
-5
-59
-3
29
-31
8
-6
8
49
-31
-40
23
-4
-41
-55
-37
2
36
-52
-3
-37
-26
-37
-30
-25
-15
13
-19
-45
48
-11
-6
12
95
-50
92
49
20
-8
-39
91
43
45
56
10
-49
14
-1
-28
-61
-4
-21
37
58
-33
-13
-14
-10
5
-5
18
-10
16
27
-8
89
-29
-11
-29
80
21
-6
-48
-22
-8
-25
-11
22
-65
-36
84
55
36
38
84
-25
16
45
6
30
-36
15
32
-42
-1
17
10
-59
13
-30
33
2
-13
-35
7
-27
3
-11
28
97
-30
-2
35
48
-17
-5
36
41
31
-19
-23
-23
-19
47
53
-32
19
-3
10
-41
1
4
88
26
14
0
21
-1
13
49
-26
46
12
-36
16
-42
35
-14
31
-9
-34
27
-35
-53
10
-47
52
-25
3
29
-81
-32
-9
-48
42
30
43
-45
36
-5
23
19
-5
-1
0
-11
26
-6
16
19
19
-64
15
30
-2
-18
-4
-74
10
29
-8
-73
12
0
-71
-10
63
-30
53
27
-73
-54
-19
2
22
-35
-9
26
80
4
75
-2
36
39
4
-39
40
38
0
3
-9
23
-36
-70
51
-97
1
-85
-43
-57
17
-49
10
-34
41
-38
-36
27
-39
-9
37
80
-3
56
-49
-21
18
27
-15
63
-63
-21
27
-3
21
-35
39
-19
-43
31
38
-24
22
-21
-5
-60
10
1
-37
-32
61
-41
-89
7
-44
-1
-66
-7
11
-18
-43
-5
-1
26
-8
-15
-32
-31
25
78
73
-32
-13
-27
47
38
11
11
-24
10
26
-19
-6
8
25
12
-6
-4
-20
32
-40
-47
-14
0
-26
-72
21
-30
40
46
-38
-33
3
-33
-11
-19
-39
-24
-23
-23
26
-40
-3
-17
-12
-16
20
7
42
-39
14
-18
22
-19
7
-17
-19
-18
-17
-53
19
-9
-28
-54
-32
-40
-45
-35
36
8
58
22
43
50
14
-38
97
-10
34
-58
9
-17
0
16
52
32
-42
13
-57
6
-33
12
-41
-31
-26
41
-38
-27
11
-26
-67
-54
20
12
23
11
-14
15
-19
4
-14
24
3
-26
-26
-27
26
24
-8
4
-19
39
-43
-27
28
-4
-16
-45
-7
-66
-36
19
-13
37
-5
-7
-18
52
20
49
3
-44
-50
8
1
33
-46
11
-41
-7
24
37
11
-14
26
61
-17
24
8
-45
-48
-5
-23
-17
-15
-17
21
54
-16
54
17
1
5
-54
-68
-45
3
-56
17
9
59
-36
29
14
13
8
2
-13
-58
4
2
-38
-40
-3
38
8
12
-45
-29
15
-21
-49
53
7
44
24
40
42
1
-27
-57
-28
-43
21
-9
-41
-7
-26
-45
20
25
49
-9
-14
-9
54
-11
51
-31
5
20
-9
-22
31
48
-46
57
27
-3
-1
34
60
-22
-12
-4
-28
-15
-48
-2
-18
18
-7
4
-5
24
9
55
37
21
-54
34
-1
10
13
-44
-37
38
2
-45
11
-55
9
-81
-12
-51
-2
-28
-7
13
-16
27
7
6
-43
32
-43
-48
66
-59
1
65
-5
-1
19
-39
-66
-12
11
9
-44
-11
-12
24
51
31
37
6
-4
-10
61
25
-4
59
17
-49
-28
-15
-40
32
24
-25
-35
-24
-31
-34
34
-41
-16
-37
-39
-5
-10
-61
-4
0
36
11
24
-15
-12
44
-22
-31
-7
3
15
8
-26
39
-50
10
-43
23
7
0
38
40
-16
37
39
-25
-7
57
-19
-10
49
-4
-15
-5
36
-49
4
-43
-22
-24
-16
35
59
56
-47
24
-50
54
-20
6
25
24
-15
-48
40
-31
-38
66
6
5
-19
8
-69
34
-31
-10
21
42
33
0
-34
-13
23
-56
13
-17
-55
51
17
-7
-43
63
19
42
60
61
-69
19
-29
35
69
-44
1
-9
19
-21
-43
16
83
-30
4
-69
-44
-55
-45
46
-62
12
-43
44
30
47
-38
30
-1
16
-33
0
-36
26
0
-14
40
5
48
-108
-24
-42
-33
13
43
-55
-21
26
-47
29
62
12
24
-19
28
-19
28
-12
15
-67
-34
-21
-17
4
-23
-69
-58
25
45
-27
49
14
20
-35
-29
30
-2
65
75
-38
-1
-30
3
38
-14
-10
37
-9
12
-11
-46
16
47
3
-41
55
-13
22
-16
10
-30
-37
-4
45
-17
-34
-9
31
15
25
-28
11
-29
-4
-3
-43
-30
-66
12
93
-15
33
-68
-22
29
24
-35
-20
14
-3
17
62
1
14
-20
38
18
-59
5
-48
9
-10
33
31
14
-40
-20
-25
-48
29
-16
-31
6
-28
52
12
-18
-39
-36
44
2
-56
36
13
-49
11
14
-62
8
46
-33
46
-35
-3
-49
-11
-1
-34
63
25
-43
42
17
38
-12
46
-50
38
-12
35
34
-26
-16
-24
-19
-17
1
-48
-75
-47
-12
12
-60
-22
-4
18
64
-10
-66
-16
-58
22
7
10
11
49
-39
41
-14
31
-3
20
66
-10
13
-6
-43
21
-42
-5
1
31
30
-65
-6
-43
6
-39
8
14
-33
59
-56
-4
-36
-17
-32
-10
-58
32
-4
-58
28
-16
-8
29
30
15
-2
19
2
-23
27
-8
-23
-64
-54
-12
-14
14
-5
-73
-74
-13
45
15
39
-55
-20
-11
-12
23
-48
0
12
10
-18
-2
-49
-38
-44
38
29
17
27
-17
14
-38
47
38
42
48
-33
-13
7
13
19
47
-7
-7
37
9
-32
29
24
34
-37
25
59
13
55
-24
-23
7
38
10
21
23
14
23
12
-5
-68
-31
13
18
1
-68
-22
21
31
-26
-22
9
-7
-31
82
32
70
-43
-41
28
-16
-37
7
66
-26
-16
-28
-21
44
15
-15
11
-46
34
-19
-8
10
29
55
19
-81
5
49
-7
-50
-69
1
29
1
35
-80
-36
-33
14
-60
66
13
-51
-5
6
27
44
-8
-25
-38
31
-21
51
22
-31
45
-10
-28
-46
-28
5
18
-12
-1
-28
56
-40
10
-7
-11
41
-18
40
5
37
31
-10
6
-2
-51
-14
54
25
21
-10
43
-6
-37
61
21
10
2
20
-28
76
20
-36
-38
-31
64
-11
51
12
-83
-3
-12
6
-37
25
35
53
-23
37
17
35
-21
-37
6
-31
-30
5
-69
25
21
45
38
-48
-6
1
81
-49
24
21
-38
36
1
-18
11
33
8
-9
5
27
-22
30
-39
15
-11
-3
4
12
-40
-42
21
13
2
12
7
-23
0
82
2
36
10
-22
-25
-78
28
-15
-39
-67
-9
40
15
3
41
32
13
81
17
54
45
22
-55
-85
44
5
63
6
45
3
-18
-57
19
-52
-24
-2
-20
13
-50
51
30
26
5
24
-3
-6
3
-6
-50
10
7
25
-49
-23
-15
-34
-8
46
-8
14
26
49
42
52
-25
32
57
33
-36
4
-35
11
33
6
39
-21
-29
-26
-35
19
91
-33
-21
-9
-8
-46
-38
16
-1
44
39
-1
28
16
-11
48
12
14
0
66
-20
-47
15
30
2
34
4
-12
14
22
9
44
-34
-29
-6
-23
-47
59
-39
20
6
-43
-1
-29
-19
-51
-1
8
-34
-40
31
43
9
-70
-39
-17
-33
-59
-9
33
-8
-7
-17
12
48
-20
2
7
-7
-7
-7
4
-20
-45
48
60
-9
34
9
-29
-42
51
-16
51
-48
18
-20
-47
-54
-21
37
31
-50
-71
-43
-39
-24
34
-70
27
19
-13
-29
-7
-18
-82
-30
30
24
17
-4
-48
-12
50
9
-7
-8
0
-56
7
45
-25
-4
28
15
-68
-17
-26
50
-53
44
5
-11
-61
-15
43
-46
-6
11
15
-17
-6
51
-23
-11
48
13
-41
38
-10
10
-42
-30
31
72
-6
8
27
-12
36
32
74
44
-62
36
10
-36
-19
-20
-49
29
2
-22
-27
-16
-27
-30
27
72
-22
27
16
-63
-46
34
-3
7
14
47
-58
-33
-5
-28
-35
-59
-67
5
52
56
33
2
-15
-5
17
-30
50
-44
51
29
-5
-42
-16
-10
-3
5
-55
-25
-51
14
-53
25
6
-18
26
-18
-23
47
48
-4
-51
26
-31
42
-2
4
2
16
-37
2
46
-31
-25
34
24
29
-22
-33
54
-57
-9
16
60
-25
-54
44
39
-24
-3
-13
7
43
7
6
-80
-41
27
22
32
59
7
-13
-39
-23
15
33
20
24
35
-29
-4
-37
-8
5
23
12
0
1
-61
-22
26
-59
-57
37
-35
-39
2
36
-35
-39
-43
0
-42
4
-70
-4
10
4
-27
15
-11
-44
-4
38
28
-56
14
-24
14
54
-34
-6
-49
37
74
6
-48
8
-38
-44
-19
14
57
-12
5
38
-7
19
36
-28
-20
-32
-4
-16
9
-52
34
53
33
-49
-23
20
-13
6
38
49
-34
-23
5
5
15
16
-19
-39
49
3
46
25
37
-41
-7
-10
-5
-49
43
39
18
33
47
-6
27
2
39
-35
5
-10
49
-42
4
-33
0
-24
6
-58
-10
-58
56
4
2
-14
12
-25
-11
-51
1
-28
-3
-25
35
-40
-50
9
1
-3
-39
-72
25
55
-34
-6
5
27
43
58
-59
-14
-38
42
19
42
2
22
-4
-18
-30
-29
44
23
-9
31
-33
16
-2
47
48
31
11
-27
65
14
-34
63
38
-48
-31
67
-12
27
6
-3
59
-24
31
-59
-25
-9
73
-10
10
-55
40
-11
-59
-12
-81
23
-36
2
-85
-27
3
-62
9
-55
-41
40
5
-1
32
-65
-58
-17
24
1
-28
1
-14
-55
-42
-24
29
19
7
-9
19
-15
-1
-26
71
-2
-42
-8
-23
20
15
18
-17
-53
-29
-30
13
-72
28
-42
-23
-62
-41
72
-40
60
-40
57
-3
34
-60
-24
-61
-7
-26
-1
-64
55
-62
-48
-22
22
-35
-17
3
-9
-40
-49
38
10
-6
15
-19
9
36
-32
11
-27
37
-6
-85
40
29
3
-24
46
-11
-38
24
54
-71
19
-26
-57
-40
28
59
70
49
-13
-19
-4
24
-32
-51
-37
-17
48
0
-8
18
-35
10
47
-30
61
-3
-33
45
44
81
-11
-14
13
-17
-50
-9
-49
71
-28
-76
9
14
10
11
29
-53
-16
-33
18
40
49
20
-2
-17
-63
44
11
-44
-40
-15
-28
48
12
13
-24
-44
10
36
33
54
22
-37
-14
6
67
-16
-32
-48
-40
58
10
-52
-47
0
6
0
-12
-12
50
46
-22
7
15
19
13
-10
60
8
60
-5
0
49
-19
33
-7
25
19
5
42
-115
23
-24
26
10
16
-6
33
-54
-48
64
20
-32
33
-3
-58
9
-53
-16
-8
-24
-48
-21
10
-18
-51
18
2
29
-70
-24
51
-11
24
45
31
7
-69
35
1
-19
3
-42
-21
7
-13
-10
-16
-13
31
-12
-35
-4
10
1
-26
44
-46
-29
-45
-37
-52
-12
-20
-33
-22
-24
-8
-81
13
3
-13
-57
-23
-51
33
-1
-10
-6
-36
-15
-44
19
73
2
-71
33
-21
41
54
-28
-28
34
58
-45
-13
-18
-16
35
-65
-10
38
28
37
-37
-41
-24
54
24
2
11
-14
55
18
-2
-31
14
-2
47
71
5
44
-22
-31
32
53
12
-22
-25
21
46
-68
40
-16
44
46
-61
-42
28
0
23
-24
18
26
-11
20
-5
9
-53
-21
29
17
-14
65
-1
-42
41
-20
-37
5
-48
-48
-32
33
48
1
-50
58
-58
-45
-24
73
72
37
-17
35
27
8
11
23
0
34
-45
55
-6
-42
-12
-4
18
37
39
49
24
33
-21
35
41
-15
-15
8
-24
-3
19
56
-47
39
-76
-28
-9
29
41
6
-20
53
56
47
-24
37
-10
13
-6
-25
-14
-39
-44
54
32
-77
-36
10
-19
-8
31
-61
33
-22
52
-28
-38
-9
11
6
34
-51
7
3
2
-7
47
-48
65
-30
39
-22
10
-19
-25
77
1
5
-37
-59
-41
54
-55
45
-56
-36
32
35
-10
-30
-11
-17
-73
55
27
31
-24
-3
-6
6
16
-19
46
-48
46
-33
-11
60
0
-9
17
-55
15
-60
4
23
-24
-14
9
13
-13
-32
37
-34
37
22
-5
0
-36
-28
62
3
-44
62
17
-32
45
46
-56
-5
2
-36
-58
-41
7
-6
13
12
-35
55
53
46
38
-17
-22
9
-34
-7
-45
-55
-32
34
-8
48
-12
45
-58
9
38
44
2
-37
1
-19
-30
-56
15
-26
-23
4
19
7
20
3
-43
-13
-26
-6
-63
-48
-35
-8
27
38
19
22
52
11
-37
-58
9
-13
-55
61
28
46
8
-12
-31
40
5
51
90
-9
-44
-22
-6
43
8
7
-42
-34
11
-32
9
4
13
-44
13
36
64
-59
6
16
-51
0
29
22
28
-14
-1
27
1
72
-58
-38
38
-2
43
46
-2
-1
25
21
15
-29
-4
-8
6
-24
14
-19
-36
39
15
23
-6
-30
58
15
68
-18
21
17
-7
4
12
-33
-62
31
-19
-3
14
70
-27
-68
7
28
33
44
-43
-86
-34
-18
52
-48
-14
46
31
-15
52
40
57
16
-44
-12
30
-20
-21
-29
-19
-22
22
27
-64
21
-25
-20
13
14
-19
-18
-24
-40
66
-39
-37
-57
-1
-4
-3
-11
-24
75
-35
22
13
-53
17
-15
1
-67
18
-14
-51
56
11
-11
9
-24
54
20
-20
-38
-14
35
-23
-53
0
-38
-32
-33
49
16
-2
-58
34
5
8
40
-10
9
-18
-45
-47
-3
1
15
-56
-9
30
32
-30
-47
-25
-58
25
7
-15
-34
-28
-29
38
14
67
35
-32
-16
-5
-65
66
-20
22
16
-38
-42
30
-43
34
47
60
67
-53
-23
8
43
25
-7
3
-18
-30
-36
-26
-38
-38
21
57
-6
-53
65
-41
61
-21
16
-22
-4
7
63
23
31
-47
-15
40
26
8
-8
20
41
-83
14
20
-22
-7
2
-19
14
-65
9
19
24
-55
44
-42
-30
-57
-18
-42
-8
-4
-22
-21
-22
16
-46
63
-30
-10
16
5
-42
44
3
81
29
-14
12
-13
10
16
17
-42
58
23
-55
-4
43
38
-44
-37
0
41
-45
-21
-40
16
-22
36
-29
-6
-40
-32
-55
64
55
13
10
-25
-42
17
43
-55
13
-12
0
18
5
7
-47
9
-4
10
35
29
37
-19
-6
62
-15
-49
-25
7
20
-4
-24
5
1
-37
21
23
-59
17
-32
-9
-23
-38
23
-47
33
-38
36
-4
-34
-30
49
-33
55
68
76
15
9
18
61
22
64
-26
-29
-48
72
-16
41
-34
-23
28
60
58
41
29
16
24
12
48
-32
-26
6
-42
-66
42
4
-55
-4
-25
24
-12
7
17
-6
-5
18
27
-40
33
27
26
-51
4
14
11
-29
4
53
17
3
7
19
-32
-58
-45
7
0
-50
66
-20
7
18
27
10
-12
-4
2
31
-10
-46
-34
19
49
4
36
9
49
7
20
41
32
30
76
-22
59
2
38
-63
23
-28
-50
22
36
34
2
2
-8
5
61
41
4
32
-76
-27
-66
-35
18
-49
26
39
69
-47
38
-10
51
30
-8
21
-4
-13
51
-15
-28
-3
7
-11
-85
42
-36
29
-26
50
-38
-45
-37
21
5
26
-14
31
-27
-4
18
-47
41
17
-27
-43
-62
-18
44
16
0
-44
11
8
-38
44
-8
17
-52
18
39
58
12
52
-52
-70
-21
-32
7
17
-2
41
11
2
-3
-21
11
18
95
-60
-38
-36
-14
-20
-1
-60
-64
-40
47
5
8
-4
37
-38
58
-71
-32
-4
-10
-7
-42
-58
-51
-30
68
-21
-6
-52
34
-6
-10
-37
-13
51
-52
8
-10
-32
47
-24
39
15
-53
-24
-17
-15
-19
-18
29
-75
-72
19
50
-36
16
-38
21
-71
-45
17
18
41
12
17
-4
-9
-29
11
34
21
-24
75
13
25
61
-15
44
-51
31
-11
-25
3
5
54
9
52
60
-8
41
-25
49
-10
66
-17
3
-19
-4
-20
32
18
-10
43
59
15
-26
-41
-29
-2
-7
69
2
15
12
-11
-32
17
17
30
48
-3
69
15
7
28
10
14
4
35
34
-44
-6
62
1
-16
-45
-47
-34
-42
-16
-56
1
4
-25
-21
-46
-47
31
59
-56
-43
7
-6
49
-22
-12
-12
-71
10
23
37
25
-17
-50
10
18
19
-36
51
-7
8
-2
-25
-5
24
-38
28
-40
38
31
56
-17
27
-13
42
-17
13
20
-55
-19
-31
16
-52
45
-11
11
-4
11
14
13
8
41
-27
-96
27
-32
27
55
-65
21
5
-4
32
-14
1
-74
31
37
31
-51
-42
-14
6
36
40
-48
63
-20
-76
20
-50
15
-8
7
23
7
-42
-38
-7
-17
11
9
9
2
14
3
-7
-21
1
11
-63
-22
33
41
8
29
15
2
68
19
-109
89
2
-7
65
14
50
17
-33
-15
18
38
-49
-17
-12
62
50
-17
54
10
-16
13
22
4
37
8
-41
-13
30
51
38
45
-24
-14
38
-12
61
-3
36
26
-4
6
-26
-29
-18
36
-70
28
25
2
3
61
19
-23
31
-13
4
0
-13
56
-29
7
-13
23
8
-3
-6
11
-20
-43
-44
-7
-14
-46
-3
7
-51
3
12
27
30
-23
-9
-30
-40
65
-43
-55
10
-67
17
-71
-50
4
-15
-69
3
33
6
-53
37
-29
-8
13
18
20
-6
-35
-16
26
62
18
3
-41
30
54
35
23
-1
22
-69
-13
10
-13
-32
0
14
-35
-23
-17
-56
39
26
23
-73
-5
-29
19
-41
-24
-34
-19
36
35
-51
-50
5
-41
-4
119
-57
55
39
-16
-49
26
-45
-32
-29
71
-94
-12
-69
24
29
69
-24
25
-26
-9
75
-62
0
-22
-41
4
-42
29
0
-2
-11
-8
-20
-42
57
39
-5
63
29
-44
59
-43
-34
10
-42
35
43
23
-34
40
-27
40
22
9
-39
9
-41
15
-20
3
-13
53
-6
58
-13
-16
-15
-8
24
54
-3
58
-29
-2
-17
-10
19
5
-20
41
-31
29
24
-9
63
37
-35
-32
-4
8
37
-16
-56
41
-23
30
47
-2
-61
-5
-4
-26
37
36
11
51
24
24
-26
-8
23
-23
52
14
-46
-7
31
24
-98
21
-1
34
36
39
3
-3
25
47
-39
8
23
-68
-49
24
50
-2
-46
-62
8
40
-8
-39
38
38
10
-8
33
2
64
-16
85
43
-13
-32
-6
-21
-32
9
-10
-20
11
7
-55
14
-45
3
-64
10
-49
39
-14
19
-63
-49
41
-9
-29
-33
-7
-3
-42
-40
10
-45
5
43
-20
-39
27
-52
-53
17
38
40
53
-36
-13
17
-31
-32
6
-5
-80
-18
-16
7
30
18
11
-3
-30
15
39
20
26
22
16
-37
-46
11
-31
0
25
-39
26
-35
46
-26
36
-6
29
-7
65
-5
-68
38
35
45
-13
50
-28
-17
32
-9
35
33
-55
15
-41
-16
61
-39
-22
18
29
-38
54
-32
13
74
66
49
-23
64
-32
51
21
36
32
-3
43
9
52
6
-39
24
-41
30
39
31
-64
-40
-10
63
-53
-40
-33
43
-29
-50
55
-6
5
27
-6
-9
24
-18
37
-28
53
18
52
-12
-28
2
-59
-38
56
50
27
27
-1
-19
-26
-49
-31
-40
19
34
-30
18
58
-50
13
-36
15
57
15
-34
-23
2
10
19
-6
12
-55
21
6
68
28
-32
-9
41
4
6
35
-43
-64
-5
-11
51
-9
-3
-49
3
20
-24
9
40
15
28
1
42
-27
-34
4
1
29
70
49
-2
-29
17
-28
-12
54
-22
-53
-68
-22
42
6
6
-35
62
-6
-11
-25
9
-49
20
2
-65
31
34
15
-22
8
22
-40
10
-31
-9
23
-9
0
-15
23
11
-14
-24
8
42
1
28
4
5
13
-39
27
-41
-25
-26
24
18
85
6
35
-52
21
-47
12
26
-20
25
-32
-59
50
37
-22
-22
7
-2
-43
12
17
-23
-65
-40
-2
-47
-32
41
-57
15
-10
36
-4
-8
-18
-75
-35
-26
58
31
16
-14
-101
-33
38
59
44
45
-8
-39
-33
-40
-44
-45
-20
-55
-15
-9
36
26
-19
-57
12
12
-35
-1
-27
-5
-15
72
-13
64
46
-12
-3
-5
21
-23
41
-13
-35
-16
5
27
-5
32
-3
-37
11
36
-22
32
27
-36
40
31
1
19
33
-20
7
-2
10
-37
63
16
-50
46
-79
-45
54
24
-5
24
10
-1
-2
-72
12
-51
33
-8
31
-65
4
-1
58
40
14
-5
29
10
39
-26
36
69
69
55
-17
-58
61
59
-4
-57
27
41
32
-4
-20
-71
20
56
-50
2
65
35
27
0
-24
-11
65
5
-11
-45
-30
-49
24
24
53
60
-26
45
-7
-31
43
39
22
0
27
-7
-48
-5
-8
24
-60
-18
8
-26
-70
-2
-2
0
30
-13
21
15
-48
60
-18
-23
-44
-36
17
-4
24
-46
-6
-28
-8
38
30
-77
23
0
-14
-39
17
-3
12
-49
-46
-46
11
-39
-51
33
39
-36
-31
13
53
-6
22
-2
-43
-28
-15
-22
-12
53
1
-41
-7
-52
13
-31
-45
-26
17
-41
44
-27
40
-50
-19
31
-14
-7
0
-6
8
35
-41
-1
-6
-29
12
-27
46
39
70
-55
-8
23
-13
-49
54
26
55
-27
-6
-2
-20
22
-55
-4
15
44
-42
36
-21
61
-18
25
-23
26
15
17
-68
-13
-16
-5
23
3
-57
-34
25
-40
23
-67
23
29
-17
-23
-7
-34
0
3
-15
20
71
41
75
31
48
-56
34
75
16
-33
-17
-52
97
13
38
-5
-35
53
0
10
-31
-23
33
19
2
42
59
-19
-18
6
-22
11
-8
-63
-35
-1
41
-62
-48
32
1
44
4
53
-34
24
35
-2
-23
-12
4
-18
-67
-18
40
-36
-60
42
-53
40
8
4
-30
8
-9
-13
-34
-36
-52
12
-32
-10
4
6
-17
9
-2
26
23
-54
1
62
27
-36
-31
-44
-27
1
41
-37
-21
-26
4
4
35
30
-13
4
31
-20
14
56
26
-49
-43
26
-32
27
20
25
11
-26
15
-18
2
40
26
-26
-12
1
57
-25
-24
-26
-12
22
42
32
23
1
36
25
30
22
-29
14
59
0
-42
-12
69
23
53
5
-29
-14
5
-44
-9
-5
60
7
1
-27
28
38
44
-22
-13
-8
-1
-12
-9
-24
21
-56
-51
-48
-38
-7
-23
-6
-35
-40
-20
-8
-42
-24
-16
-62
-54
-31
-58
-15
89
-19
37
-2
21
53
3
31
3
6
-3
10
54
-16
12
82
-33
36
29
-48
53
13
-27
-39
-31
-9
16
35
46
-33
-23
41
39
35
29
22
35
9
-14
33
52
-43
-41
-42
-36
-51
13
26
38
1
-24
31
-25
-38
43
-12
-30
-13
20
-20
-9
-31
2
-27
-45
-27
-27
8
-5
-75
-15
16
31
29
48
-44
-26
-19
27
6
-13
5
-10
55
36
15
7
72
8
-17
-5
-16
1
-17
24
21
50
-55
-93
-56
38
9
1
-3
-19
-46
-20
-26
35
68
-80
-2
65
-68
3
-43
-23
-20
96
16
-26
-22
-6
-31
-28
-51
-31
40
-56
30
-75
-7
-60
17
24
-18
-10
49
39
30
-5
13
-56
30
60
40
-7
1
0
25
5
-39
77
-57
-2
-20
32
59
-19
-6
-72
1
-30
-44
34
-7
-50
13
4
15
-1
19
41
33
48
2
-35
-11
-25
-22
54
23
-28
11
-24
-3
72
49
22
20
-22
-36
13
30
-96
-66
-2
-13
37
15
-7
34
75
6
67
16
-7
-86
-93
-28
39
23
26
-51
15
-41
-16
-14
8
-46
-29
-41
27
-23
-11
-33
120
2
-29
-46
23
42
11
-15
-37
-2
-57
-24
-25
17
-7
26
-3
-15
-3
52
-15
23
29
23
-22
41
14
21
0
50
-14
-14
-50
16
48
40
-25
-34
42
-5
24
-5
-22
-63
25
24
71
10
22
31
-24
1
-26
34
10
-57
-25
23
-28
16
5
57
-57
21
-3
-37
-29
26
-4
16
-37
-23
6
23
-15
-17
-87
20
11
3
-4
-6
45
-50
-55
-74
4
-34
-4
2
19
33
50
-58
3
7
-50
-40
80
0
-57
28
23
58
12
35
8
38
45
21
-26
44
-31
19
-19
-12
19
-24
-55
52
-61
9
-25
-12
35
-20
20
-54
2
51
-28
-13
7
-61
3
14
45
-35
-16
63
5
53
34
-1
5
66
5
-36
20
-14
-50
-10
-33
20
-10
4
-44
-27
14
43
-60
0
-30
4
-36
-32
-50
8
-13
-59
16
-28
0
-39
52
1
-11
56
-27
-15
-11
22
37
5
-22
-93
-18
-10
-40
3
-13
61
-39
34
-36
-62
-3
50
-63
6
33
-6
52
19
53
-16
-52
-53
-24
2
-1
-8
-81
-8
-24
46
-5
-20
0
-33
9
-8
53
-11
6
50
-26
-18
-1
-68
-52
-4
-6
25
-33
-6
-43
-26
25
33
-25
0
-34
-24
-47
11
40
64
45
47
33
-19
6
7
-51
76
46
-3
64
4
8
22
-53
-34
10
48
27
-42
62
9
-75
44
32
-19
30
-30
-19
24
-28
-9
16
-24
18
-33
71
21
54
8
-5
52
14
8
-28
24
-5
-11
-38
34
-22
-83
4
-6
-63
13
-10
-16
-37
2
-2
28
-45
-47
-13
35
14
-11
7
-27
-4
-15
31
-49
-23
21
-20
16
-14
-49
39
-7
14
7
21
-46
6
65
41
-24
-8
-34
-12
-16
-6
-12
-17
-41
18
12
58
2
-41
11
-1
65
39
36
36
-10
9
12
-74
17
32
-5
-2
-36
34
-44
-54
-3
14
13
20
32
23
0
9
42
-14
48
6
43
-39
-20
-54
63
31
27
-41
-58
-41
67
43
24
-15
-10
53
24
24
-19
-22
-35
11
-31
-14
17
-14
-54
18
-22
10
42
16
28
55
-29
62
-28
50
42
15
-29
-49
-3
2
25
25
-47
-20
-40
18
-11
36
8
30
-7
-24
-32
39
-24
32
86
-67
-15
92
50
4
44
-53
7
50
24
29
-4
-3
-61
-36
38
-33
-47
-29
38
-1
-15
10
-12
51
2
-35
51
-17
18
-30
-35
65
-2
-3
-22
40
19
-82
36
21
18
27
15
34
-3
34
5
-31
-53
31
-71
1
32
-9
-31
-73
8
-48
-40
2
11
19
33
13
-7
1
-33
19
4
15
-64
-58
52
23
14
53
-43
48
-59
-16
22
-1
-7
-36
7
9
32
33
-23
17
53
-10
26
6
44
39
52
9
57
25
-25
-43
12
-62
16
-6
25
-42
-22
12
-35
-7
-41
-35
21
24
-53
-1
13
-56
-56
-1
59
-43
-51
-39
-65
30
17
-39
19
-1
19
14
27
-47
-47
-34
52
-86
28
9
54
-11
15
66
-52
-41
-27
-9
-3
6
-58
-24
-37
13
43
-52
-25
-30
8
-59
-44
78
11
5
-20
24
11
56
-64
-11
1
-17
9
36
-22
-38
-6
22
8
-1
-13
-25
-16
43
23
-7
34
-9
34
4
35
57
-12
0
27
-2
-19
49
43
-18
38
-3
-8
-11
-7
-13
-41
12
-33
16
-1
94
21
1
6
-48
-39
-63
-36
-32
11
59
56
15
55
65
-32
-57
31
-30
45
-52
22
-19
16
-19
-36
30
-52
29
-1
10
35
-54
25
-62
-39
18
50
34
-4
-59
43
3
21
-49
-54
-11
-16
-16
-1
-19
44
-23
-54
-36
39
-14
-5
39
32
22
5
-20
35
10
28
71
13
-55
61
2
17
-18
-6
-21
49
-13
-30
-55
12
0
57
23
-45
-17
-21
-58
-65
-7
2
-29
-2
18
-58
-61
-28
-30
47
-2
21
-24
50
-23
-28
-43
-76
49
68
0
-1
3
35
-43
24
-26
-29
11
-31
-9
24
-29
54
7
62
69
-52
-1
0
22
-64
-26
18
-45
-65
-12
24
-43
-9
30
29
-16
-51
76
47
41
8
-4
3
22
17
-66
35
-18
42
53
33
-24
-17
-15
27
-6
66
35
18
40
30
-62
-40
49
-46
-34
55
-27
23
-10
6
-18
50
12
2
-8
18
-25
-34
-42
23
-38
-53
-46
12
29
50
70
-6
79
53
-26
9
-44
27
15
25
-10
43
28
13
-37
-13
-29
-12
-27
-6
-1
-29
-36
-23
-9
48
17
19
-7
45
-17
19
0
-49
-7
-69
-61
64
31
53
-46
42
-17
54
-30
-22
4
-2
-11
-47
43
-28
-53
12
51
31
28
-7
-6
-6
22
25
-32
18
84
29
-19
5
-51
68
35
-5
-45
67
42
-19
-48
6
15
41
-55
41
-89
50
9
-39
-55
-31
-44
-21
39
-11
31
-28
28
2
4
61
-22
38
31
81
47
-17
-5
-23
-4
27
53
18
-24
-15
-65
14
-10
-34
-5
-26
-15
35
9
30
-5
25
-9
-60
-26
-55
35
29
34
14
14
-63
-59
33
-42
36
51
-61
-23
18
-6
46
19
31
9
56
27
21
-21
-7
-35
-37
-58
18
12
-81
39
-37
-28
1
-12
-5
7
-30
56
-40
-66
6
-35
-28
-39
-27
-7
45
20
38
18
-38
26
16
-42
35
-16
-75
-9
9
-13
65
12
-60
1
-42
-52
-47
-6
-21
-15
-11
-9
-57
22
-4
-40
-107
-35
-38
-17
-14
32
-39
18
30
17
51
15
62
-20
-35
57
-25
13
28
38
64
-1
44
19
46
-39
-20
-8
39
-65
-41
-24
-45
59
-16
-64
-32
-23
2
-6
5
10
37
47
15
-20
57
20
-42
-32
-27
-55
23
12
-19
-6
-29
-61
27
-38
25
-64
-21
-32
42
-2
20
11
-45
31
20
-28
74
-8
-19
33
23
-59
-19
22
-2
2
58
28
27
9
47
-45
19
-2
-44
-9
-11
36
27
41
-70
-47
-89
24
52
39
-28
-36
11
38
21
21
-27
15
-38
22
33
8
26
15
58
10
62
16
-24
31
-28
25
42
13
-45
36
50
23
-29
-5
-44
-56
55
2
43
8
-29
6
7
84
-32
-7
-16
-28
36
13
-22
50
-73
44
42
-56
-32
-26
17
-25
-29
38
51
31
31
40
-26
-35
-15
-62
-60
-10
-39
-54
-2
29
30
7
36
-19
-16
-23
-43
10
25
15
-43
0
31
45
3
40
11
34
-27
-33
-3
29
40
-29
33
31
-7
-28
-16
-31
-2
-33
55
-72
12
-5
-21
-9
-7
-1
-27
-16
-14
-18
-39
31
69
5
22
-27
17
-9
44
6
-16
22
28
22
72
-7
-10
-42
16
30
17
55
-38
18
-64
-58
-29
-54
78
31
15
66
-54
-18
-20
63
13
-2
10
41
-55
29
-40
9
55
22
9
29
-58
-43
-21
31
-19
-34
-26
23
-64
40
56
0
28
25
16
-69
50
33
22
10
-61
21
-11
-56
-80
-7
-31
-11
45
-21
13
-27
-35
39
9
12
-43
-44
18
22
-30
25
22
-3
9
37
-5
53
-32
-64
-48
78
-6
-12
36
27
-52
-23
0
-20
-5
-36
5
9
37
40
26
51
46
40
-5
6
32
-22
33
14
19
-19
49
49
-14
11
15
33
59
-32
21
11
9
-28
-19
34
15
-1
-45
-34
1
-43
28
35
-30
25
36
9
-10
9
-22
-3
-11
5
-32
-55
-52
-53
-8
-40
-14
-7
-29
-23
-22
3
10
70
32
52
5
-26
23
1
34
32
16
10
48
-10
-11
49
13
-71
-47
-4
36
25
23
-2
-48
22
39
-20
10
66
39
-34
38
-43
-15
-34
31
-35
15
10
-22
-23
4
-45
15
37
4
58
-32
38
26
44
33
64
-18
-11
25
-27
21
-5
1
-49
61
11
83
-47
26
-19
-28
17
-35
-13
-20
13
4
-42
-57
26
-18
1
21
-22
50
-7
60
-28
-2
-70
8
42
29
-19
-34
-47
32
-70
8
-10
-3
-4
-65
-52
-40
-7
12
39
23
39
14
30
16
60
49
-24
4
-28
12
-82
54
19
-21
47
-26
-24
-67
35
9
33
31
-2
30
40
-22
-19
36
-13
43
-36
-24
-8
-46
-27
-34
26
7
-27
2
28
-6
-10
-5
-13
-22
-51
39
22
22
-78
-15
-15
25
-13
5
22
-60
-29
0
7
-49
-22
-4
-1
4
12
-7
-25
-60
-5
-22
68
-39
1
17
11
-13
-36
-13
47
5
9
16
9
5
-21
-42
1
43
39
10
15
-64
-23
-8
-20
30
41
-12
-64
59
6
42
-4
-28
31
-17
20
30
15
-3
-3
-20
-31
49
45
-8
-15
54
67
-15
-66
1
21
-28
-24
-6
-59
23
-38
37
-70
-45
1
20
37
0
-45
-14
-39
-37
-29
7
39
35
4
26
17
-72
71
-53
-15
17
69
40
-14
24
-57
24
-10
25
-50
12
2
-32
-32
21
-22
-41
33
6
-2
12
-4
-6
7
39
5
-43
-11
-32
53
35
45
9
-5
-45
20
-52
-11
-42
-41
31
39
53
20
-37
-45
-19
2
34
21
-10
-9
35
-28
-2
30
52
48
6
-22
4
-6
13
-20
13
-34
43
-24
-26
31
48
-30
57
-30
-19
-48
-8
48
-19
-24
62
-59
-54
60
-23
15
26
51
-23
64
13
20
-25
16
-13
12
63
-21
13
-47
66
-7
-41
-17
16
-45
29
-7
39
93
1
-61
12
-52
-16
10
-31
14
5
-17
-3
-24
-50
-6
-31
59
21
11
29
50
-13
35
-17
6
-40
14
60
37
-36
28
-9
0
-68
-67
26
-48
82
-11
-4
-27
17
-19
25
-16
-74
39
-21
-20
4
6
-24
-24
-10
43
5
14
-18
33
-27
37
9
84
-10
17
34
-1
17
56
-44
-20
-17
29
17
16
-28
-14
-20
-35
55
-11
-13
-45
-58
-59
-41
-47
-57
26
-3
15
-41
10
-14
-12
31
-7
51
48
78
14
-54
-19
19
41
12
-20
33
26
15
12
7
3
17
4
9
50
-27
-61
-39
3
13
7
-30
-46
-40
7
0
12
-33
17
-15
-26
31
-28
-6
71
-58
29
-68
6
-10
48
-43
71
-3
22
-56
37
-66
-5
-27
-35
1
64
-44
7
-53
30
7
21
11
2
24
8
-64
50
-49
-13
33
-12
-25
53
-122
29
26
-15
43
-10
19
28
39
31
-31
44
23
6
7
-48
-39
-63
35
2
68
37
27
-36
25
-28
1
31
-27
7
66
26
-57
-28
-45
38
-4
29
-5
11
-45
49
-44
25
-24
-34
68
78
-41
-1
-27
69
-36
-27
-6
31
27
17
-37
13
8
-45
-7
-61
-24
-16
1
-4
34
36
52
70
25
39
15
11
-56
-47
9
-37
79
38
-12
-29
-32
-2
7
-1
20
15
42
-39
-28
-3
-36
19
-6
1
-12
19
16
24
52
-8
37
15
3
-17
48
66
12
-11
43
-22
-21
40
-50
16
-25
11
50
-28
-23
-30
-45
13
17
-43
9
-24
-4
-32
-37
-13
7
35
-32
35
-10
-5
-69
-50
-20
36
43
43
33
-29
19
-46
-8
12
-12
2
-3
61
-78
-44
-32
-27
37
-25
35
-49
-23
-39
-4
-46
73
-53
-7
18
-25
33
28
7
25
-55
-27
-12
7
-23
58
2
-11
19
24
27
55
4
-19
-24
64
-26
5
-17
13
-56
-15
-8
-4
14
1
7
7
-18
1
19
-28
-21
-8
31
43
-85
28
-53
36
-8
-17
49
4
-39
-8
31
-36
33
-15
-14
30
10
-28
15
23
-14
81
0
47
16
20
16
-8
65
19
-28
-18
-28
72
11
68
-32
-5
-48
-7
-28
-33
-16
-14
-43
-15
-28
-43
13
-9
-20
51
-39
-43
-21
30
49
-4
-10
38
53
77
-15
-51
8
17
-3
19
12
50
8
42
-3
-33
-66
20
-27
5
-17
18
14
-27
-33
33
-14
-45
23
-19
-59
-74
-12
-46
-21
56
11
44
64
-7
65
-54
-26
54
46
52
50
8
0
-37
-40
-1
-50
-24
-23
-10
-23
-2
-22
31
17
37
-3
-20
30
-51
41
-21
-9
23
-9
-55
35
16
-50
13
67
-23
-34
-61
23
2
0
-31
68
17
28
-40
3
32
-55
-31
22
-13
-12
17
-36
-14
39
-40
11
12
-20
45
2
-51
27
-2
52
50
22
-11
22
-13
-31
-11
-15
-6
65
45
26
-75
23
44
-41
-38
17
-7
37
33
-55
75
24
11
-45
15
-15
34
34
-37
6
-25
-15
18
32
-65
-55
13
-12
34
-11
-83
8
-11
4
-21
-33
27
-84
55
-2
28
23
6
3
-71
-48
4
18
11
-41
34
18
-1
37
42
-18
-78
29
1
-16
-8
13
11
50
-58
-20
25
14
19
15
21
40
-28
30
50
41
0
28
30
58
-47
47
-30
54
12
39
-23
-37
6
-50
29
-2
-45
-20
-57
-43
-22
16
-14
-4
-8
2
-45
25
-5
-23
50
-33
-20
18
-4
7
31
23
23
-7
24
-15
36
69
57
47
-27
47
-30
-4
64
11
33
-8
-11
-8
1
-59
8
-55
-55
10
-27
19
13
-57
-42
-39
55
-14
-42
-17
48
18
-1
-2
-13
-42
-21
83
-47
-2
-15
24
48
-49
9
-20
-57
5
42
-31
-10
-22
-62
37
35
-41
-35
12
24
-10
13
-53
-27
-19
59
46
-41
41
12
31
-3
-17
81
-12
19
4
31
-35
-68
-52
16
-3
62
-3
12
26
78
11
55
-33
61
-28
-72
62
-10
55
-25
3
-39
0
19
-59
34
-37
12
29
1
-3
-14
-55
6
-71
27
22
-6
-80
-68
1
36
30
-15
45
2
29
-9
52
4
58
-32
-41
5
3
-23
53
-19
15
36
-15
-33
47
-9
-10
15
42
54
-60
-21
45
-64
-13
41
-32
3
19
-61
-32
-11
41
-36
-22
22
-35
-9
21
41
75
-59
-1
-76
-28
-52
-37
-26
73
-6
-45
-43
46
24
-13
-24
-38
25
25
28
84
9
21
-21
67
12
50
-23
26
15
9
-26
55
-6
26
-8
-15
52
57
14
13
26
28
17
-57
23
-32
-39
18
44
-23
-21
38
49
-42
-21
81
55
12
46
-53
-46
-88
-58
50
-47
-9
61
49
-73
46
-77
-35
11
23
-11
54
-43
18
-30
-52
20
-3
-8
-27
-26
-15
-25
-4
23
49
-53
28
-27
30
4
-21
-51
24
15
76
-37
20
-1
9
-24
32
-49
47
-22
-38
36
-38
-18
23
45
17
-17
-15
-34
58
27
10
-5
33
9
-3
36
38
-5
-33
-25
-16
21
-13
-19
-30
-27
17
-21
18
-51
-61
-2
67
-8
-7
-16
45
-63
-18
13
12
-3
11
5
15
18
40
-42
-49
20
9
-26
39
-56
42
5
9
-21
36
19
47
-15
18
-65
4
18
12
22
-41
11
-53
10
26
51
-6
-9
16
-33
37
26
69
-56
-10
7
11
-8
4
2
7
4
59
-34
48
-38
10
53
17
-38
-52
-51
-8
67
18
23
12
-37
-45
-20
0
37
-48
24
30
54
39
-27
-16
8
-16
0
57
-27
-10
20
-17
7
3
10
19
7
-16
45
4
-1
16
32
-35
-11
-49
55
-29
-15
25
10
1
-25
-45
-20
6
-7
-1
7
12
19
-9
-57
20
11
42
-50
-16
35
-30
-34
-23
10
-42
49
-47
-25
7
-9
-32
-29
-13
-17
-30
-9
50
-34
29
1
40
40
23
-31
24
51
-8
-47
10
10
-42
-16
32
-23
67
26
28
-24
-45
13
2
-19
16
31
7
63
-13
-27
-61
23
25
26
-45
3
8
30
-40
-41
-2
-56
-2
53
58
-20
35
16
-7
-77
-53
29
-48
-51
72
-24
-39
8
33
2
-12
26
-15
33
26
-51
-33
9
-26
19
-42
8
-63
-29
-15
-57
-29
1
12
-2
5
-32
-8
-60
34
4
-19
-5
70
8
40
-25
71
-22
18
27
-15
-15
-3
59
-47
48
-26
-18
9
14
-32
-2
28
39
-46
-8
8
42
16
-40
12
-39
42
7
-33
-1
-5
-20
-4
6
41
20
-20
-52
4
22
10
-14
-63
16
-8
-38
-17
8
-8
-32
56
12
-1
-42
-1
-5
-53
39
-32
27
31
-39
-9
43
-49
-23
-35
0
-58
-12
29
50
34
5
17
-6
53
-47
-32
-15
66
-37
22
-31
-3
21
17
34
1
-21
-23
21
-5
63
6
-56
-11
20
-24
-61
-38
-31
-25
39
-23
-26
29
-36
65
-15
47
7
-28
-35
-5
-20
72
35
44
-8
28
-33
37
-5
32
75
-2
12
-53
23
-41
-21
-39
-40
-57
-5
-15
27
16
-19
0
-5
26
40
-20
-1
-30
-43
1
-13
-24
-6
-50
-57
63
-16
-40
-7
-13
-38
67
-20
-9
37
-35
23
-39
-17
6
-35
11
-34
-34
17
5
18
-33
-20
6
-33
3
-56
-4
-50
-14
57
31
-20
6
-41
-14
-40
68
-34
51
2
49
42
-15
36
-43
-51
46
-17
-7
7
-40
15
0
-3
-38
-41
25
22
72
46
-11
19
2
-19
6
5
11
-15
59
37
11
-37
15
-52
-37
-74
7
-2
53
4
48
20
-2
-25
27
37
38
58
9
19
-4
-29
11
69
-18
24
33
-3
-36
-7
24
-40
-57
-28
-12
-26
23
-60
39
-43
14
81
18
-16
38
-75
-15
31
20
7
-49
-21
-21
9
50
31
7
-1
47
-35
-6
24
14
-16
-36
-57
56
-19
-63
28
14
17
11
31
19
30
-15
-10
25
32
23
70
-12
62
-43
62
-17
30
-18
3
36
-90
10
-18
-8
2
-24
-21
-26
-4
-11
-51
-37
38
-71
10
-13
25
4
-90
14
12
49
-52
-37
6
-8
58
-5
38
-1
39
-8
43
58
-20
-34
-26
-24
-39
42
-4
17
4
-5
52
38
65
53
14
3
-8
39
3
-19
-31
-9
-18
-15
-52
55
18
39
3
47
-51
-35
-29
-29
-24
38
-52
-17
-47
33
2
44
-25
40
36
-13
-74
-35
51
-10
-4
32
-56
39
5
15
-3
13
-11
-48
-21
-16
41
13
-49
-38
-40
63
-43
-16
20
32
62
4
8
3
19
27
-47
-21
-4
-62
-22
1
-29
44
12
-37
-95
45
36
-11
4
-46
-73
-7
6
36
-42
-34
19
-12
-54
-43
42
4
15
-8
73
-39
-66
10
-57
6
48
30
-12
-10
21
-16
-26
-63
-37
17
-17
-21
-3
52
-69
-40
-37
27
24
7
3
-23
56
-62
-15
27
-37
41
43
-16
-22
37
11
-22
42
41
-21
42
-69
30
10
54
-17
47
49
-12
-18
-43
66
-27
-7
38
39
-42
-37
-30
35
20
-6
23
-9
-19
-34
-3
-25
-26
3
40
-21
-10
22
-15
-23
63
2
-38
-28
70
-19
36
35
1
-15
-4
-55
-20
39
-30
-26
44
-25
-66
7
37
32
-56
-21
43
6
45
-12
19
-29
58
3
53
-10
-3
-73
15
-51
68
-40
-3
-9
17
-32
-33
-16
52
8
-13
37
-73
16
-21
40
-13
6
2
-42
5
-13
11
-40
36
44
15
-27
39
-5
37
-35
7
5
-8
27
3
42
33
-10
-47
40
41
65
-18
3
31
-4
-48
-7
69
-15
67
-12
14
-43
34
87
50
3
8
4
-6
-24
29
-25
13
35
-45
-11
-40
33
55
-13
-2
-32
-10
-13
-42
-12
6
-50
29
44
-75
-16
71
28
30
47
-17
-5
-12
-17
-34
57
-27
18
23
14
18
10
8
26
-16
-19
32
-2
4
-29
18
-11
21
-19
-59
-30
-36
-4
-20
11
19
5
-8
-42
-25
-46
-22
-55
-24
-48
-30
18
11
10
-18
17
52
-20
18
-7
-22
-43
36
-18
-57
20
-3
50
22
68
-26
7
2
-37
-65
-64
42
-54
-26
15
32
-38
-30
4
56
-3
50
29
37
-9
43
2
-27
43
55
-4
-16
-47
-52
84
24
12
-1
46
40
-36
-38
0
-68
-29
2
4
-56
69
29
-60
-61
-45
-20
-22
-17
34
34
15
-32
-4
-31
-20
15
-24
-11
-9
35
21
-70
45
18
61
25
-15
-33
-44
8
-21
-53
8
50
-24
-8
1
12
-45
-11
33
50
-70
28
9
14
27
19
11
28
-30
-41
62
26
44
8
4
-16
-71
-30
26
-32
20
76
-9
45
-64
45
-63
15
-17
-53
19
-8
20
30
-40
18
-5
40
-14
-48
-38
52
52
-1
-5
-25
6
27
22
-42
-7
39
22
-17
-53
-3
3
-48
-9
24
30
25
2
12
-41
-14
5
37
0
-16
32
29
17
68
19
-37
28
-2
15
-27
28
-34
-21
33
14
-53
-12
-38
29
-28
-23
8
-28
-20
17
-33
-18
52
-4
-65
50
-18
21
-31
-45
-5
-49
44
-17
-28
4
-8
-45
-31
53
-20
9
-3
35
62
-20
2
-27
-43
42
30
-63
-48
-5
10
7
-11
-40
8
29
-39
-44
-36
41
2
-75
-40
-48
40
4
64
-63
-39
25
66
23
37
0
59
-22
40
20
-2
-31
-42
-1
21
-17
-27
-72
-15
-16
36
-1
-28
12
51
-26
-9
-16
52
-55
41
18
34
-52
21
41
-35
-40
15
4
16
-23
1
71
27
77
1
0
-17
27
32
-1
8
37
-19
-57
48
-42
-40
-7
23
-2
-5
-23
21
-35
0
-12
-42
-29
18
-69
38
-6
26
-40
18
34
16
12
-26
26
-25
-32
-6
-17
-29
-5
3
13
-7
28
-34
-3
-11
69
18
27
-43
0
-14
-32
-57
-41
-22
-50
35
13
60
-60
23
-2
21
-82
25
24
30
26
-2
-41
48
-35
-39
58
-1
73
-39
31
55
28
-31
32
9
-29
-62
-48
-37
-67
-7
39
9
0
4
52
-50
38
24
-6
10
-69
38
-44
37
35
24
-21
19
-21
-6
36
60
-12
-11
28
21
61
-66
-15
-15
56
8
-25
12
-7
32
-11
0
-36
-14
-17
33
-99
14
9
-23
-34
-16
9
-1
-41
68
-27
-6
-39
2
37
12
-10
49
1
87
4
-59
-2
-27
-11
-33
-6
56
10
-49
-49
13
-74
23
32
63
10
0
-65
-38
-16
-36
-13
-21
-20
54
-28
28
-20
41
17
9
0
14
47
42
34
21
10
-28
-5
17
-47
-26
25
9
30
12
-44
-22
57
24
3
-11
-41
51
-15
-69
6
43
-4
-8
-17
16
40
-24
-36
-25
8
-42
8
16
24
30
4
-19
21
11
52
46
-50
-13
-44
32
23
31
39
-41
-15
-68
32
34
27
-42
46
-29
18
0
14
59
27
11
10
42
-18
55
8
3
-5
-45
6
9
38
20
39
-38
-1
-26
-29
-46
-70
59
17
-2
57
3
-42
-20
54
64
0
-54
39
27
-40
39
4
0
-43
-33
57
-43
0
-7
41
45
-20
-10
-29
-8
-13
42
26
-2
-7
-30
-52
1
8
-3
15
-19
30
51
-2
-34
-76
55
53
0
-36
40
-4
31
-60
-12
44
32
47
-34
-45
-33
-42
29
26
0
31
19
19
-30
-48
-43
-28
-33
-8
28
-66
-23
11
12
27
13
-25
15
44
46
-33
-4
-9
4
23
-35
22
-15
-7
-20
1
-33
-11
-19
-36
-18
19
-51
-25
-28
45
10
-58
26
29
-25
-35
-16
-44
32
-42
2
7
-27
32
-21
5
-33
-69
8
-2
-21
-24
56
20
-35
-73
-64
61
-12
-9
12
-10
-16
31
-48
-20
-59
4
15
-30
-10
18
-14
6
52
5
28
43
8
32
-66
46
51
-23
-35
-22
-24
26
29
-41
-41
-17
23
-18
33
-39
18
31
63
39
52
-9
35
-14
-54
-9
-42
48
-8
-5
-41
56
37
-54
-42
-38
-31
3
-4
-12
92
-43
-17
-24
47
30
-9
74
8
23
9
-80
-43
-63
-34
59
-9
49
50
54
15
-43
-24
21
15
21
13
7
-33
-37
-8
-44
-20
17
-39
1
35
-17
52
39
-22
46
35
11
-8
10
-1
60
16
-4
40
20
23
7
16
13
-33
7
-81
49
-61
37
45
-2
46
11
-18
-24
1
24
-32
-27
-29
-34
25
36
-16
-3
43
-12
-5
22
-60
-19
-26
20
34
16
-24
1
-39
-8
-11
-24
13
-16
-39
55
-1
-36
-21
38
-8
-11
-36
-38
31
-13
67
12
-34
-32
-22
55
12
32
91
-51
37
28
-38
35
-24
-36
-39
-42
-36
-68
-8
-22
-5
31
52
-29
-32
-41
11
42
-1
40
50
1
-38
34
17
-31
-17
25
-38
16
-37
30
40
14
15
1
-28
32
-20
-28
26
24
20
-22
9
-6
-13
-29
32
38
42
67
14
5
-70
35
-63
49
14
48
-39
0
-1
7
46
-6
-42
-58
47
-10
21
-59
48
24
11
74
60
-33
-13
17
22
15
65
-22
15
-48
9
13
-5
-11
-28
27
-31
-26
-8
-47
49
-15
0
48
-33
-54
-65
-19
59
-13
44
-4
-28
-14
30
-32
33
-36
72
-23
4
-37
10
58
49
-13
-57
70
-23
26
20
-35
-39
55
27
4
-18
64
-63
35
12
-56
26
-41
3
-13
14
-28
39
16
31
36
5
-9
-8
59
43
-40
0
-24
-35
-29
17
10
42
21
-16
-42
-31
-35
-11
5
-27
6
-42
-15
-46
-24
29
-4
-60
-13
7
0
-18
-39
-54
1
34
-22
-57
39
20
-68
31
-2
25
-14
-32
-35
32
41
54
6
3
-56
6
1
-62
-22
-18
21
-25
-60
-15
-42
-40
-16
5
-46
22
-31
-32
16
20
-27
43
-6
-69
-52
-35
-43
38
23
10
-50
22
-23
-2
31
26
-27
-9
-8
-7
25
-43
4
-70
20
53
32
47
-6
10
12
-34
-4
26
-7
5
14
-47
-21
29
34
25
-14
-40
14
4
-4
-54
-28
8
0
4
-27
14
52
-12
43
38
-62
29
18
55
-41
22
-39
0
56
-4
-23
-8
-46
-29
17
-6
58
-49
6
26
21
-25
38
17
15
-48
21
-27
-55
-32
-46
-23
-84
-56
11
-11
12
19
17
21
55
36
21
54
-48
1
1
70
-33
22
43
33
-27
-48
18
9
-7
13
10
-21
-67
-43
11
-40
-70
-42
12
78
-6
46
-60
-55
25
25
-49
21
8
34
-20
33
-9
41
14
54
5
-10
29
32
48
-7
3
45
22
-8
21
71
-27
22
-65
69
14
22
17
49
19
15
13
7
31
-56
-2
-38
56
-20
-3
61
-38
4
-33
-21
-65
57
-31
46
25
-62
-17
26
-1
27
3
25
42
-25
34
31
-30
-11
-6
40
33
40
-45
-29
11
-11
20
-33
-36
4
51
5
-15
-17
27
14
-20
-51
-3
40
-18
31
10
-23
28
-32
3
-42
-66
49
40
9
24
-57
-11
-4
14
-48
45
5
-51
-9
-23
-4
12
51
-27
17
49
-7
64
72
-7
23
27
-28
-39
30
63
-14
7
2
37
45
32
-57
63
30
29
-14
33
27
20
-36
-28
-8
35
23
62
-11
-20
-9
29
6
-74
-93
81
9
-35
5
-29
-12
82
-5
64
14
-18
50
-52
41
72
49
40
-22
50
-32
-44
63
51
53
-11
17
-43
-29
34
29
-22
-35
19
51
-54
-12
-46
3
-34
-47
-6
-40
32
19
61
52
-33
-40
-31
40
37
6
-46
3
-18
4
17
-47
27
16
2
-17
29
-34
-10
-21
9
-67
-20
-25
55
20
-8
15
-37
13
17
28
32
13
46
-48
29
-51
-25
-13
37
-42
-55
12
-49
9
-34
2
-21
57
41
-40
43
-22
-30
-25
-65
-78
67
37
-5
-39
-12
-40
14
-28
7
12
18
-64
-28
36
-48
-25
-67
29
-55
7
-72
19
53
66
-78
1
-12
33
-37
-17
-33
-46
13
-30
2
29
44
-26
63
-41
-43
-45
-23
-12
-36
38
14
8
-29
9
42
54
-4
-43
-9
-36
19
53
27
-55
-55
38
6
-39
57
-19
26
19
32
-18
58
-2
29
-4
-64
-12
18
8
-21
27
30
-51
19
-5
-16
-34
-10
-27
-50
-9
4
-23
45
-19
31
-23
-15
-10
-18
105
6
26
8
24
35
14
45
-46
6
-28
6
-30
-34
11
-50
22
-55
-42
-41
-40
-18
63
5
-32
57
32
62
-67
0
-60
19
52
-7
-52
6
-21
34
4
2
32
36
15
77
-21
34
-39
-9
-16
41
7
-3
-13
-32
18
-30
-9
81
6
55
28
21
66
-39
10
-20
-9
35
32
-19
36
-26
-36
27
15
-35
-17
-26
-20
-6
-23
-71
-22
8
55
-24
10
-1
-39
-64
-1
-59
27
-16
24
-43
31
-14
10
-67
-29
37
-27
-6
-32
9
-8
-40
-19
-77
-24
-20
-18
-20
14
-12
58
19
3
23
15
21
27
23
36
28
42
-41
-41
-31
-21
90
-2
30
37
-56
54
-47
-25
-2
60
40
44
58
42
-20
-32
8
-14
52
52
-48
14
2
43
16
-5
33
27
-20
-30
-65
17
-13
16
27
6
56
8
7
4
-16
65
-67
-59
-27
30
-6
24
-32
-3
-46
19
21
13
-22
-29
-4
-2
9
-30
-24
47
-52
39
17
81
52
45
-33
-55
36
15
7
-30
-2
25
37
12
-16
14
-49
-33
68
58
-12
24
-64
72
51
-25
31
-9
-60
31
-55
41
-2
35
-56
21
-54
-33
-49
18
96
-11
15
-49
-37
9
-16
55
40
19
-39
21
-12
25
7
-39
23
-54
-37
-55
-33
-34
-26
28
51
-69
-18
-51
38
25
-11
18
25
28
-19
7
39
-3
62
-15
19
-39
-26
26
43
42
41
53
39
0
-12
5
-2
24
28
-46
58
-2
32
-13
24
-3
12
-36
40
4
7
-2
63
16
17
-42
-2
-37
32
50
34
-32
20
-54
20
53
-28
-32
57
-13
-10
36
-54
-43
46
-6
3
-12
-37
-30
-32
1
18
-22
7
-22
6
12
-18
-16
25
-76
-30
-47
-20
21
-8
45
-42
26
53
-25
71
18
-36
-64
-28
30
0
-14
6
44
-14
-43
-8
54
59
2
-11
-31
45
-10
19
36
-9
10
-7
-36
-5
29
7
9
37
-10
9
-20
-28
7
10
-53
18
31
-64
12
-55
-21
-23
-3
-48
49
36
-24
-29
0
-22
-19
45
-18
7
-30
-3
-48
58
-5
44
-67
42
-5
-51
21
21
36
66
31
-31
-30
28
-47
-7
-5
-51
10
-37
17
-44
-37
0
-16
-23
-16
-40
-19
-19
59
-61
37
-12
-14
38
10
-44
-15
-20
9
-42
-21
30
33
45
48
16
-28
38
-3
12
31
-77
-8
-17
-40
-20
-70
-31
16
-21
41
12
-17
-46
30
-9
2
-6
23
-13
1
10
48
-51
8
45
-8
-20
-5
-68
-25
-10
-37
71
32
19
23
24
-3
-38
3
-26
37
62
-28
-22
-30
22
30
6
22
-27
86
-3
-39
-37
15
32
24
-94
7
-11
-31
18
65
-8
68
-31
52
18
-62
53
68
-77
-86
47
-18
-43
-56
-27
5
-22
59
4
56
-36
4
14
-43
26
61
7
-25
-2
-5
39
-21
57
-74
29
-14
-29
-29
5
57
14
37
-31
-67
-46
10
-50
-3
4
14
-9
-24
-15
-50
-19
51
27
-69
12
24
-50
13
62
25
8
-8
11
20
16
8
-56
2
-57
28
70
-2
-3
37
48
-14
-11
-15
17
-15
-31
53
25
-49
13
0
12
7
-1
77
18
6
-28
39
-40
35
59
-47
7
0
-56
11
-13
-4
-2
-65
-36
-34
-12
-36
-32
30
12
51
-10
-13
41
-22
-2
-27
-20
-33
42
-12
-12
-14
25
12
-38
-16
10
-40
-33
-49
-29
42
-18
29
23
-72
62
-30
20
-27
-27
-32
35
-35
-43
29
-6
17
9
8
26
7
6
1
55
-43
26
24
-18
34
-47
-27
-45
22
45
2
18
-64
32
-33
29
23
47
10
12
36
21
22
-41
20
78
-53
15
4
-76
-1
-35
-7
12
-25
16
-39
40
34
-30
7
-47
-19
-32
45
35
-18
-20
-60
-44
6
-6
-7
37
-1
67
16
55
29
-2
-21
45
-1
43
21
-29
-45
34
16
8
11
-28
-43
-6
47
14
23
42
-82
49
-63
2
73
-76
37
-34
76
-16
55
-33
1
-37
-8
3
32
-60
30
45
-26
18
-10
30
29
0
-4
-55
-29
-25
-67
47
-7
-31
11
44
14
-42
-40
-67
-2
56
16
-1
-23
5
5
15
-13
-30
-10
45
53
19
-3
-15
-2
27
-26
-30
-30
10
22
37
15
44
25
26
-44
25
-24
4
-23
-17
10
39
-12
89
86
-31
-16
-11
12
-9
-51
57
29
-8
-3
-2
-5
44
63
29
0
49
-34
-45
-6
-14
-23
31
-68
22
19
48
-11
63
41
-30
28
-50
51
56
-32
4
60
29
26
-16
24
-39
-44
-21
36
-27
-38
-24
20
26
-14
12
-56
21
4
26
33
60
-54
-21
27
-29
-35
-33
47
-57
-7
20
18
-17
46
5
13
-24
-34
20
2
-9
37
-26
-49
26
44
15
-38
-63
-15
13
13
14
24
24
-2
-26
-43
67
-57
-21
-55
29
-1
33
-44
-35
20
-57
-49
-15
-54
34
12
-32
23
-38
13
27
24
-69
-60
21
-4
-3
27
-2
15
-19
-69
-39
1
-31
1
20
10
59
-53
-52
18
-44
20
53
1
1
-67
23
-63
-36
32
-28
5
11
-22
42
-2
-24
39
32
25
-41
46
-44
2
40
-71
10
-21
-89
-25
-21
17
22
14
-8
-13
-8
42
-56
39
10
2
52
16
-46
-7
-41
-36
-17
20
-57
-63
47
-14
50
30
45
-29
23
-47
39
-37
49
-36
-7
85
1
-51
-48
-32
51
-24
-6
58
14
-16
15
-17
46
24
69
-83
56
-17
6
18
-21
20
-6
14
5
29
-14
36
-39
60
-38
10
-12
30
30
-100
-3
-48
12
-62
64
26
4
7
11
-50
-14
-43
-44
4
52
-17
-1
16
-37
-2
-19
-32
7
5
-40
37
-37
-20
-30
47
22
-42
-21
-3
10
21
-16
6
16
42
-18
-71
75
-10
23
-2
-79
-4
-7
-18
-28
-35
-4
0
-61
-11
-44
-11
32
-32
36
-13
52
-34
54
33
-10
-41
9
-27
30
-34
-73
51
-12
57
8
-11
20
25
60
-24
13
7
16
13
33
8
-36
-13
-16
32
29
66
3
20
44
52
-21
-16
7
-7
2
-59
-34
9
13
5
45
22
14
40
-44
-3
-30
-28
-56
15
-15
39
63
58
-27
11
-16
-26
-18
-52
37
-2
-45
-5
-26
-28
22
-36
2
8
-46
-17
-19
-35
5
-7
9
31
-13
28
-76
-35
-51
-13
-34
-30
42
-2
-11
-62
-15
-17
-45
-6
-32
-2
-38
-32
8
11
-33
33
-4
46
-24
-7
-20
25
35
51
-64
14
10
21
28
-27
-18
-31
41
5
-35
44
-35
-33
36
-10
-7
-5
-19
-4
0
-9
-29
-3
38
34
40
32
5
-7
-34
-10
59
53
-64
13
-12
41
11
19
-15
-11
21
-18
-30
-38
11
29
-42
-61
-24
35
53
21
2
34
-63
-2
32
-37
22
2
-80
10
-50
26
-15
-21
-27
35
-5
-37
-27
-32
-14
37
-7
43
59
93
23
73
-39
-5
29
30
33
-49
-18
38
-11
52
-41
39
-66
-25
22
-38
34
-24
-79
34
26
-4
-15
-25
-76
46
3
-17
34
-29
-48
17
-25
-34
-30
-38
37
27
64
-25
45
33
-4
40
40
23
-62
-4
-79
10
25
27
-30
-17
-42
-20
28
-28
-21
-62
64
74
4
-28
9
7
-37
-12
-58
10
-44
33
30
-6
-39
-45
-39
-11
59
47
-64
-32
-15
-46
-38
47
-28
27
-10
-44
-33
10
4
28
32
-20
11
38
43
39
-9
54
-51
-48
-3
17
-43
6
41
38
1
-6
12
-17
38
36
-15
-15
44
-11
-26
43
-41
-43
32
-5
-55
-35
-56
59
-3
44
37
-10
46
-43
-3
-2
20
30
-30
31
21
21
23
1
9
-17
-1
10
57
4
-50
-2
-11
-25
37
24
19
-42
15
-8
21
4
-40
48
-61
-54
-35
-58
19
-42
-54
10
-49
19
10
13
-55
-4
-9
21
-25
1
-12
37
-61
30
5
19
48
69
26
23
50
-19
30
-1
14
-26
10
1
-57
75
26
5
39
1
15
3
-3
14
-21
-7
-41
2
-1
0
-61
36
-8
22
-63
-23
-54
26
-29
-14
79
-27
42
18
30
36
-4
26
47
36
4
4
-23
44
43
-24
31
-62
-27
-52
-29
55
-31
-45
25
45
-43
-39
-12
-51
-23
50
-25
-30
-48
32
-42
-30
-68
-6
-6
-20
55
-24
-61
-49
-39
21
7
49
40
-11
-11
21
-3
-2
6
-34
40
-6
-30
-8
-33
11
-67
10
9
22
22
12
-46
25
37
-3
-47
24
51
-21
-33
60
23
29
-14
35
-27
-10
34
-57
-5
15
28
3
-51
-12
-38
-20
33
-14
1
-43
5
39
57
-19
5
-20
56
65
-28
26
2
-6
-52
-60
44
34
45
-40
-36
23
12
-8
7
-18
18
-55
35
-4
-54
60
-54
-55
30
-62
-11
-4
-12
7
-34
-10
-67
-8
-25
-19
56
38
35
5
17
33
-56
32
-1
37
-8
72
36
-24
16
-15
-15
46
61
47
15
-35
-37
11
-16
-30
9
65
59
27
-18
52
13
29
-36
59
-54
35
22
-36
-30
-28
-24
64
-41
4
-63
-3
44
-3
44
25
-23
19
-4
-4
63
64
-6
0
-46
-45
48
-15
-23
-21
6
-16
21
43
-4
39
43
18
-37
61
45
18
36
2
54
-76
-7
-41
28
74
7
-21
-49
26
63
-30
47
-13
-1
-26
-3
12
-31
3
-35
27
-30
-18
46
-7
18
8
-58
-31
33
-26
-42
-12
-8
-12
-73
36
56
-37
-9
4
-16
1
-70
-74
24
-54
-39
23
-4
-10
54
28
-86
-7
-29
24
9
48
13
-38
-18
-40
60
2
-23
81
-17
13
-13
-50
-34
62
21
17
23
-45
-66
75
-26
16
-9
-57
-1
14
38
-39
2
-20
-33
38
19
-51
7
-4
96
1
68
10
-47
6
49
-43
13
-38
-30
39
23
-30
14
89
0
-16
-77
-4
-45
41
60
95
24
-10
-27
-9
-13
6
-7
52
-60
23
47
-29
-15
68
37
-42
5
-7
-22
-31
41
-10
-43
-19
-3
50
50
-15
-11
-73
83
-38
-39
-37
-53
42
57
-16
47
29
81
-57
47
27
-55
12
-13
-10
-10
14
-62
-7
86
-10
-22
6
-51
50
20
64
14
9
-19
-1
-21
27
-15
40
-28
-30
26
49
53
-51
14
-19
17
23
-41
-34
-5
-40
33
-57
21
-6
-63
11
6
-31
-35
-35
-27
-41
-25
24
-66
-67
51
-16
-45
-27
-51
12
-7
25
-29
-24
-58
-55
25
-42
63
55
-34
-29
20
-68
32
-20
73
-24
9
7
-22
15
19
-23
49
-18
-29
-21
-26
49
-11
-42
44
23
-22
49
-14
29
7
36
-62
3
17
1
13
-20
-36
-39
40
-16
42
38
-60
-5
3
-44
-34
33
-63
-40
50
-24
-22
-24
-19
35
26
-7
-50
11
29
-5
-13
40
24
31
10
-6
32
4
37
-47
-47
-13
-44
-5
2
45
76
19
-42
-7
39
-42
79
43
-26
-24
23
10
-12
45
-6
-32
-48
3
61
31
-8
-16
-31
48
22
12
44
-32
8
37
-13
27
16
71
-31
-30
4
-32
-3
-11
27
-44
23
58
8
-2
-6
3
65
86
-3
-18
0
-63
41
45
33
-9
-21
22
12
5
34
-22
-40
-37
-16
21
14
-1
-52
-30
48
-49
-25
39
19
-39
-43
92
34
16
0
27
50
70
-7
87
-7
-38
26
-15
-3
15
-16
10
-23
19
29
8
-60
24
-52
29
34
-25
-21
-19
40
62
0
-7
-51
26
-9
10
25
45
65
-7
-45
-46
9
-13
42
-27
26
-11
-10
-47
-4
8
28
48
-43
46
18
34
32
38
-65
38
49
-47
-41
-4
-17
-34
-54
-22
-62
-19
-10
-16
-17
0
-60
45
18
30
-58
-37
-9
35
-40
20
-26
-13
-27
-116
-33
54
-16
59
-7
-56
42
17
-31
13
-31
28
-5
31
4
14
22
31
26
28
-9
22
-12
7
15
17
17
40
-24
-41
66
35
-13
-1
-38
26
8
-17
-36
6
-75
-31
-27
-59
72
-11
-28
40
-34
-12
38
-18
11
12
27
-21
-10
20
-26
62
-45
8
-50
15
-48
44
-14
37
42
-40
-56
-11
-46
31
7
3
8
-24
1
-39
51
82
-6
-43
34
-33
-55
-20
31
49
-58
-7
30
-46
-20
20
-31
15
51
22
-60
-70
17
47
17
22
-87
27
-60
-23
10
-23
-35
1
-39
-67
-45
-25
-65
30
11
-64
3
-43
-45
-43
-5
42
-6
31
-32
2
-52
-16
60
23
-17
-58
-29
-3
10
-7
-4
17
11
8
-28
-21
-39
58
57
56
40
-42
-34
13
-45
-10
10
49
4
10
-14
-21
-7
38
36
-8
38
15
-9
-5
36
83
4
-11
38
7
-8
28
-21
17
26
39
-28
-17
35
-34
30
3
-29
23
-19
-83
-52
2
25
18
-27
-23
-22
27
43
-43
16
21
-21
15
39
39
10
25
-15
48
6
62
5
57
51
-16
69
-20
4
7
-15
12
-42
-11
-6
34
-10
-35
55
19
47
7
-3
30
51
12
17
8
19
28
50
-24
-18
-46
-15
46
-21
-28
-33
28
69
44
15
27
19
-11
31
15
-17
58
33
7
-61
18
58
-68
-49
17
-65
3
0
-20
-57
-11
44
24
19
48
-71
28
24
17
-50
40
5
56
14
71
-58
-74
-53
-37
47
-8
-65
-14
-30
-41
-17
-7
-21
-58
-3
-53
9
40
30
8
64
-79
-36
-46
28
2
-4
-30
-45
19
-47
20
-21
21
62
7
-34
19
-22
5
-33
19
-19
-4
19
-10
24
34
-16
90
28
36
26
10
-61
-26
29
13
-45
11
16
-9
70
-46
14
4
-30
13
36
-17
-53
11
30
7
-4
-13
0
-38
39
-45
-19
-7
-39
24
-53
10
1
20
30
-18
66
48
-24
-22
-10
-8
21
-19
-60
-13
-52
11
1
21
-31
55
1
-7
14
52
5
-27
35
41
16
63
57
58
-33
-61
23
29
-26
-4
-7
30
-47
-9
38
14
-52
-65
42
31
3
-14
-27
-7
9
39
71
-11
12
-1
23
41
-61
-19
13
-24
-2
-28
39
32
1
49
2
-41
15
15
-28
13
5
20
-19
7
33
-5
63
19
-9
-21
-48
13
30
-5
-2
-49
44
-18
50
48
-45
-45
11
-5
3
-31
26
56
64
48
-26
-44
-25
-9
19
-37
24
-3
33
46
-44
-2
40
12
10
58
-21
19
44
1
21
-11
-39
14
1
-1
-5
-75
9
39
-90
-7
22
-58
11
6
-22
-21
14
2
-25
9
1
-38
-28
-26
-13
-38
54
14
46
20
16
18
17
-24
48
68
-25
73
-66
26
-7
8
-74
92
20
21
39
27
-22
-5
-66
-13
24
-48
60
18
-47
-52
-26
48
-60
-19
5
36
-21
-41
51
-24
29
16
-53
-16
-99
31
36
-40
-22
49
-36
8
-35
-30
82
4
-11
-40
-20
6
-9
-20
-36
15
51
-37
-24
-46
-27
-25
31
-52
84
70
16
0
-9
-21
34
-31
1
-17
-57
37
-13
-48
-11
64
70
2
-51
24
-17
-24
27
-3
-43
-71
73
-40
28
-20
-3
51
14
-31
17
-11
-14
82
21
-21
-5
11
54
45
66
-3
4
33
-10
-21
92
-50
1
-19
40
0
-44
-5
26
24
11
-17
-44
-30
17
27
-70
-40
-16
15
-57
-69
-15
10
-21
14
-43
49
-40
16
37
-51
25
-39
-51
-55
-28
17
-7
30
36
37
50
-39
45
-10
-65
-19
-72
-34
22
-51
19
-5
0
-6
-24
-60
-24
-62
23
60
13
3
5
4
-39
0
24
-16
65
17
6
33
19
7
-24
-2
-36
-4
42
-54
-3
-23
53
2
-44
-14
13
41
3
-8
23
-8
9
-33
10
49
-8
-36
-7
6
23
43
3
-9
39
36
32
-55
-4
-44
-47
-48
19
-79
5
15
-50
-3
-33
23
50
-10
-17
-20
-29
8
17
51
1
-16
31
38
13
15
-45
84
34
22
45
-8
-34
-20
18
-7
34
18
-44
77
6
-34
19
47
57
5
-55
59
39
23
36
-50
-40
63
-26
-25
24
21
-20
-39
-15
-30
35
-38
49
14
18
-40
8
-29
-15
-32
32
15
-44
28
-69
-24
51
-10
-35
-54
-5
11
35
-33
-37
-8
-7
64
20
4
-43
2
-19
-24
28
28
-76
48
-10
5
-32
-11
-8
32
22
-45
-37
-5
9
-11
22
-36
11
-7
2
-51
-21
28
-78
-16
24
-6
10
-6
30
-20
18
47
-35
-45
24
-20
-53
46
19
57
28
-33
35
-21
-22
51
20
12
-7
14
-37
24
-16
3
6
3
12
-59
32
62
-42
50
-17
-36
-23
1
52
12
8
-29
-39
23
-30
60
0
20
-9
30
13
8
29
4
-50
33
-41
35
65
-29
22
-46
-2
-4
20
6
19
41
-3
-30
19
19
-33
40
-67
-33
-52
44
-18
10
-29
-33
12
33
-39
69
38
3
-52
41
-19
-5
-8
74
27
12
1
-30
-54
5
-29
5
1
22
31
3
-22
39
-12
56
20
57
-59
41
-26
18
-34
7
-19
13
-27
4
47
-17
-34
35
-8
22
-1
-24
25
30
68
6
-21
-10
-26
-11
-2
4
26
-9
-19
42
68
-16
-41
-54
-9
-77
36
44
44
45
78
9
37
40
-8
1
-37
-9
-22
68
10
7
3
-10
-86
-42
8
-9
40
-3
-83
32
-36
10
-23
-22
49
32
1
-55
-66
-9
12
-51
51
-27
-24
-12
-17
1
-39
-58
7
31
-29
29
-24
17
-4
-41
-32
42
32
-21
-58
16
32
7
-29
4
29
35
-13
37
81
-27
-41
-24
-37
55
35
-11
7
17
1
-64
44
-17
37
17
-22
35
-18
60
-31
22
-10
-19
-29
-44
60
-24
-32
-11
28
10
-25
-5
60
-40
-39
37
42
14
-41
27
-73
-11
-21
-26
0
23
7
-1
-27
-50
10
31
15
22
-21
-20
72
-12
8
5
-67
-7
45
30
-14
46
-42
-29
50
-26
40
40
8
9
13
-35
26
61
35
30
50
33
17
1
-36
15
53
-35
2
-41
26
53
-46
-9
20
-12
0
-41
-34
-43
-7
-3
11
22
-5
13
-7
47
35
16
69
36
25
65
-22
-25
54
-1
-8
-64
19
-3
3
16
43
-9
20
44
69
35
-81
47
-45
16
25
60
20
-14
-8
-9
-30
19
-16
52
6
38
-49
-24
-9
39
-42
-6
-14
1
-32
5
20
22
-3
21
-54
-79
-27
-17
-25
-2
43
12
-59
-23
42
24
-24
-27
-52
49
-26
-49
35
56
-18
100
-15
-6
-28
13
-5
-12
39
-33
66
25
17
-54
-25
42
15
40
-58
26
26
-61
8
-39
-16
60
-1
15
-39
90
-51
5
33
-78
43
-38
-35
52
1
51
-12
68
43
51
-29
-16
34
-35
68
22
17
28
4
-69
-6
17
-33
30
-54
18
-4
-9
-18
8
27
-65
7
-13
36
62
5
37
-9
12
-66
37
-7
26
-38
36
-8
-66
66
81
25
15
28
5
20
-62
15
-28
18
11
-38
47
64
-13
6
13
-37
17
-43
50
-38
-59
17
-28
49
24
-18
16
-11
-2
2
-21
22
8
17
21
2
25
-10
-4
91
24
-27
27
-33
-25
-19
-99
48
-71
-46
46
14
27
21
-67
51
0
19
-24
12
8
7
-31
-18
30
-20
58
-8
50
-37
42
-4
-6
13
12
53
64
-75
3
-36
-41
26
31
53
-21
-13
9
-8
-6
16
60
-39
-64
23
13
-31
-2
-21
7
-52
51
22
-5
44
60
-20
-16
-40
3
-104
27
31
-39
29
17
-71
31
-70
-23
-18
8
57
-21
68
-26
-49
6
14
-53
10
-26
-39
-15
61
-3
8
-52
33
-23
-14
2
22
31
-30
-23
84
-13
-28
21
10
9
16
-5
-8
-25
25
13
96
-22
13
-36
-8
12
11
-54
25
-33
39
46
-32
-46
-51
12
15
-9
41
-40
28
-62
-16
40
-80
-34
49
-25
-38
-11
-39
-31
28
46
27
3
-8
-8
35
-65
8
-46
-29
20
44
-61
17
-8
-41
-41
15
49
80
-19
56
-53
-11
-63
-52
12
52
24
-42
14
22
9
16
-20
-1
-19
-16
-51
-61
-18
66
-12
65
-5
-64
-29
-12
14
-52
-15
-24
-10
-26
66
22
27
-33
0
25
4
-44
-40
-4
-15
-20
33
33
16
88
30
7
-10
52
-58
2
17
-14
-17
10
-27
34
82
26
-35
20
13
64
-5
-2
29
-33
2
33
-62
-40
-13
42
-59
-25
36
37
-45
-36
-13
40
1
-15
-27
-3
50
-41
-32
11
36
24
-4
21
9
-12
8
-37
-21
68
-46
15
6
36
50
40
39
-41
-61
-13
23
-29
-12
-33
-46
9
30
-13
-31
-56
8
-30
22
0
9
-18
36
29
15
28
40
-35
11
-47
8
-24
-15
-6
94
-31
0
20
34
51
66
-24
-42
-23
2
44
8
20
-42
-45
-45
-42
20
-3
-42
20
27
10
-50
22
67
-39
-15
-25
21
6
29
-2
33
-10
-39
10
18
-41
-29
-59
-46
65
12
-12
-17
28
-3
12
2
-41
-5
-3
-11
77
-41
45
17
-26
-26
9
-10
-46
-14
5
-13
-19
0
-30
7
42
-67
-4
51
-44
-2
13
22
-20
53
36
-42
9
56
-63
17
-25
15
16
-32
23
-14
-21
30
12
-40
-43
16
21
-26
-21
-21
7
-25
-5
11
-25
31
24
-27
4
52
1
-7
-14
-70
-14
15
-33
56
-14
-7
23
2
17
66
-44
-58
68
-33
-10
-12
34
-27
-29
-35
3
-2
-12
-18
-3
-28
-55
23
8
17
70
-51
72
-54
4
-31
-59
31
-29
30
-2
18
19
-13
11
15
-37
54
-56
-32
-7
75
62
55
-18
15
17
-48
-10
44
11
60
-28
-29
-19
17
17
-39
-36
20
-13
7
-73
-63
18
-67
77
-61
-34
17
-32
63
-48
-31
-9
56
23
-27
-59
-31
6
9
33
44
-2
-38
18
-16
-8
61
33
-32
46
35
0
-28
-46
-8
-27
-45
-12
72
21
-1
55
23
24
35
14
19
55
-2
-57
24
-37
62
-14
17
33
85
-53
7
-67
-48
-38
15
-8
-15
25
-41
41
-48
-39
-10
46
16
-18
13
-45
-28
45
3
14
-28
-63
20
7
25
32
-64
58
14
31
-15
43
23
15
-10
40
-5
-40
28
52
31
-13
-36
-33
67
-19
11
7
5
-71
14
-38
18
-50
2
-15
-80
-40
19
6
-18
-7
49
-12
-40
-27
-37
25
2
-16
-5
46
-37
-32
31
19
37
38
50
-22
-13
5
23
50
22
39
9
16
23
-36
-32
-17
-36
42
-26
-28
-3
-13
-46
-22
69
25
39
41
12
-33
-22
63
-15
25
30
-36
35
86
45
27
34
10
-3
-27
17
43
-17
-35
-3
27
16
31
9
42
-11
-10
15
-6
29
-51
5
7
-15
-26
51
-13
20
8
28
-2
-36
11
28
32
-23
-77
67
16
-35
2
-26
-16
62
55
9
75
-1
-5
-34
6
-1
-52
29
-9
-18
49
-13
68
19
-51
3
-16
-1
-59
-17
5
-9
2
-16
-10
-25
5
30
8
-49
33
-25
-6
-7
51
-2
33
25
29
-25
36
-66
9
6
60
-41
-17
-7
39
-22
-45
-25
-26
28
1
3
-43
9
5
-17
45
47
-9
-36
6
37
-40
18
-70
0
-41
11
-74
3
-8
-37
-26
-25
-77
-21
5
-14
14
32
23
-65
-50
17
6
-19
-18
3
-6
-70
-23
-65
-17
18
22
38
6
-33
-13
-20
-43
-30
-14
-35
-78
-56
56
-21
-8
-21
25
18
-38
-17
-16
-34
3
63
77
-12
47
2
-44
-15
-43
-42
10
25
-42
-6
69
55
-3
7
-9
6
11
0
-27
51
44
19
29
-19
79
-18
33
-60
-27
-10
20
19
-50
25
45
-9
45
-40
-4
64
-53
-101
-38
25
47
-25
-69
-53
-29
29
14
-39
9
54
2
-5
50
-19
-38
-11
24
68
25
1
50
74
-36
-12
60
-44
-32
15
18
-46
-5
3
21
64
17
23
-20
-33
46
65
-48
67
-22
-15
17
-34
-15
14
-7
-25
56
-45
-13
-1
5
44
-37
-21
25
57
39
-21
54
-20
20
62
39
-3
-10
30
-26
-38
25
12
0
-40
9
-7
39
3
19
9
61
-47
-17
-11
-38
26
-11
16
-52
-1
-19
22
23
6
17
38
24
-23
57
-28
1
36
2
40
-29
63
3
-7
0
39
10
73
-47
-72
-43
-6
-57
59
72
35
45
-23
9
-7
27
-17
-33
47
-36
52
-34
33
-25
-80
-12
-24
39
-43
-1
-6
0
-59
-24
11
0
-25
3
-23
-46
73
-52
34
-32
-22
-23
17
-13
68
-7
-5
9
17
6
8
-30
32
-22
65
2
30
-5
34
-19
37
-7
13
63
0
9
12
-3
6
-18
21
19
46
-7
-17
22
-46
19
-14
1
-37
-1
7
-44
-47
5
-40
2
49
-7
-8
-32
32
-47
-1
15
86
0
32
44
50
-4
-33
66
30
-27
1
-7
-1
26
40
-65
-23
63
0
35
18
-63
-27
-59
3
40
11
21
26
18
-70
-17
17
-73
33
51
11
16
14
75
3
-14
12
-30
-34
8
2
-29
14
-3
42
28
-42
14
43
33
17
-22
14
74
-12
1
-23
19
6
4
42
8
42
33
5
-47
-34
-41
17
95
-21
-22
3
-44
38
-12
62
-22
54
51
37
67
-19
-40
27
-33
-51
-26
30
55
26
-29
-24
-24
-55
65
43
26
-10
81
-15
-11
-33
9
-29
29
-24
-92
94
-41
-8
-11
2
-18
-41
2
61
-70
-53
30
-8
18
-3
-25
-14
84
72
-23
13
43
-2
-22
3
18
-54
-31
11
-10
-39
-7
46
-13
103
40
44
-26
-3
0
-37
-15
-26
-21
-6
-6
-69
-29
-19
-103
-5
-36
119
46
44
3
-54
15
-34
-14
-49
57
35
1
-3
-1
60
-5
3
12
2
9
-31
-47
-10
-29
-15
-39
-47
-50
-37
-29
23
-46
-75
-2
34
-36
-28
16
-36
9
19
-32
7
16
16
24
-2
15
-15
-22
48
36
27
-10
-42
64
-39
-3
54
-42
-14
34
49
68
19
-37
-29
-59
-38
-31
40
13
-65
-49
-6
-15
63
-4
69
-21
35
26
-23
42
-45
2
-5
55
-19
52
-20
-15
38
-65
-63
15
34
43
23
-6
-15
20
-65
-15
13
24
20
9
-6
19
-33
16
-27
-26
32
24
-13
25
47
60
-5
-22
56
60
58
-41
21
-25
-53
17
-54
0
3
-7
-32
-48
-18
-24
28
40
6
20
-30
-23
-21
35
-64
-39
-40
11
42
-8
11
-8
33
21
-10
70
-41
-16
29
-1
-3
-44
43
14
5
-65
-7
22
-23
41
-46
52
58
-67
-28
-49
56
4
21
-1
-37
1
-45
33
-4
18
10
-15
-17
-10
56
14
21
-41
23
-47
32
-3
-9
21
-11
1
21
3
77
-32
57
31
-56
-25
18
-52
3
-23
-1
-3
-13
34
52
25
36
-24
4
-26
-31
58
-7
12
11
-10
-23
-4
-14
2
-26
18
-16
40
8
40
9
-13
-33
-29
10
8
-2
-19
-10
22
25
-29
-11
47
26
-14
42
28
6
24
57
25
-94
-7
-12
-24
33
57
-1
42
-30
3
42
47
13
-65
56
29
3
35
24
42
51
10
-37
18
50
29
-23
-23
19
-58
41
-41
-52
-3
28
33
-58
-11
15
-25
20
24
0
24
-16
-28
-47
21
-28
-4
8
23
0
-53
-12
19
29
-37
66
-57
-11
34
-60
-37
12
36
24
73
0
34
-83
21
-24
-5
-52
28
34
-49
-25
16
20
26
-13
6
-57
-84
-48
-52
28
41
-18
-33
26
27
72
70
28
1
-6
-64
4
-31
2
-11
11
-48
-53
6
-15
-12
37
5
-27
53
9
8
50
51
2
0
2
25
-12
18
-28
-16
34
11
34
-21
-16
-32
-17
23
-27
13
-21
-37
29
1
35
13
-1
-15
43
-36
54
64
2
12
23
27
49
52
3
24
-26
44
22
33
-18
26
4
65
23
-28
-29
-82
-53
8
-14
3
-9
-26
52
-2
22
-22
53
6
48
-4
18
6
-53
45
-42
-10
-25
12
-55
-7
87
11
-5
-57
63
-50
-67
47
-29
30
-11
-44
-20
60
14
-57
-37
-15
-18
-49
39
-53
42
37
45
33
-19
-14
11
1
-20
20
22
-12
-54
29
21
-17
21
5
15
36
20
-53
23
-32
-26
28
53
-45
-29
25
14
38
-19
-27
-5
-27
91
14
16
34
-18
49
-7
-6
-16
-16
-12
-44
5
-49
45
12
-7
17
-2
-39
44
-12
-23
36
-66
-37
-33
-11
34
-10
-16
8
-23
-41
-4
9
62
19
-10
1
-14
42
9
-10
-30
42
56
-11
22
46
-26
-61
22
23
-37
-18
-50
25
36
-39
7
-44
-31
-11
-39
33
-48
-23
11
23
-14
36
32
-36
14
36
-51
-26
-32
-48
-3
-17
-42
52
26
34
-46
-35
13
13
1
27
-2
33
39
-28
-33
-33
-7
39
21
12
-29
-64
6
64
18
44
-44
-87
14
-2
12
-5
-11
-3
77
6
26
57
37
-33
-13
3
69
-58
-29
33
66
55
-61
-5
-1
11
1
56
31
11
-54
-30
-62
12
18
-42
27
-37
-12
0
-77
-59
21
26
44
51
46
19
5
-26
10
42
23
-11
-12
-26
27
15
-23
-66
-14
28
25
-84
7
-11
3
-26
-15
8
-46
-5
-25
-50
49
34
-27
10
40
-47
24
11
37
-51
-3
-12
-7
21
-46
-35
-24
-17
28
-17
23
-25
-32
19
31
18
2
8
12
-12
42
-69
-7
-11
23
50
9
-34
11
-12
23
-4
-20
2
-2
-27
74
29
10
-27
30
18
-11
3
32
-40
79
1
-65
59
-15
-10
-22
-2
-21
27
42
-27
32
33
13
-77
32
-26
-44
9
-46
-49
7
-23
-22
2
-47
-6
35
-42
-61
-43
-68
9
24
-42
21
56
32
-59
-5
-10
13
26
64
-34
-42
18
-9
-26
33
36
31
0
75
55
64
-58
-37
29
24
40
4
-14
21
-57
21
-55
44
-55
45
-22
6
19
0
20
-13
34
62
-36
-24
43
-22
9
-2
12
-25
43
49
55
17
-8
33
-43
-17
48
-6
-41
-29
-56
-24
-1
1
-74
-60
-33
19
7
42
5
34
-29
-1
42
20
26
45
-56
53
-2
-64
-22
-13
-9
-13
4
29
-53
-8
-35
27
-15
-23
8
24
-21
-12
14
16
46
30
17
-5
-36
-14
21
-3
-14
8
-12
-41
-8
20
-36
62
80
-34
-18
20
21
67
12
45
16
5
29
37
18
-29
38
-45
-7
20
-46
-44
64
-21
-18
-27
43
-31
-22
82
59
-20
-3
-21
-34
-43
-17
-38
-26
-52
20
-31
48
37
3
6
32
0
-22
23
27
-44
66
-23
8
-25
12
-19
-4
-30
-37
24
42
71
6
42
-4
-25
-62
-40
-40
-29
-28
85
31
43
40
46
-58
12
6
-16
34
-18
37
11
75
-4
-16
-6
-32
-47
47
-15
-38
22
32
12
7
48
-15
-21
-45
24
-4
55
-71
58
-29
-5
9
50
-56
47
55
-32
-21
-1
41
-73
12
-1
2
-48
67
4
-28
35
-9
10
-20
-8
-22
-17
-20
-78
-1
15
11
29
11
16
-33
27
-19
37
-1
-17
-12
2
-25
-70
-21
35
46
7
28
-62
-26
20
-5
42
-65
19
-8
-32
38
-59
22
16
-7
-1
69
50
5
-40
29
33
34
23
62
-15
21
-6
51
-4
10
-37
-13
37
-32
32
-13
9
-3
0
19
92
27
-20
8
11
-20
-58
-26
22
-10
-23
-34
-14
6
0
60
-54
53
-47
-24
-5
-10
0
28
-47
13
-47
48
-29
54
10
-18
45
28
-68
39
34
-37
16
14
37
27
0
-20
62
11
-29
11
29
-2
28
-33
21
70
12
-11
14
-62
-11
-3
60
13
-4
-21
67
-31
14
32
0
57
-60
-29
-22
-22
2
31
8
-32
-60
1
24
-7
7
-30
3
-22
-2
27
-32
-42
-4
78
60
-17
20
13
56
67
-18
-35
-10
28
55
-23
-37
2
-40
30
8
27
-8
-19
-65
-28
-7
15
-11
-28
42
-18
27
-52
-23
-38
-43
63
-62
-7
61
-73
10
-10
44
31
21
-65
51
58
-4
-35
-20
25
1
-39
1
-61
-4
-7
9
35
18
14
-38
-1
-24
29
1
-36
44
64
10
58
35
-48
26
39
2
1
18
-23
-64
-32
49
4
72
-8
-10
-50
21
-5
-47
15
-40
-14
11
5
11
11
1
-7
-39
-20
39
71
-42
41
-28
-17
-19
10
38
-10
-54
28
7
12
45
-34
-22
0
0
-33
-59
1
-19
-24
-20
17
-40
29
31
41
-62
-56
42
-40
-4
-18
6
-51
-2
-1
44
34
-22
-6
19
41
16
-20
24
-46
42
-19
30
-47
63
-52
-20
14
37
5
18
-32
-35
-43
-2
22
-41
-4
-51
-12
-11
37
-20
-28
-35
12
-47
-35
-28
-39
-7
2
-58
-14
12
46
-25
24
-20
-2
5
54
-7
16
-32
20
33
27
-3
-29
-31
21
-15
-23
-18
-39
8
3
28
17
-17
-46
10
66
53
-34
-37
-27
33
-28
47
30
-108
-3
-3
17
3
-33
31
9
-33
20
52
18
-51
-50
75
26
69
-5
20
41
5
-12
19
-65
36
-26
42
41
1
63
-26
-44
45
9
41
-59
-22
25
-1
36
18
25
50
-32
25
-12
21
40
82
42
25
-4
-36
42
-26
43
6
-35
-38
14
-39
28
11
-35
37
21
-59
9
30
-29
-18
15
-3
-34
14
27
4
40
29
-23
50
-40
-8
27
-1
8
44
40
9
22
-42
-32
48
-62
-27
12
-38
38
-62
1
-45
28
-12
-8
-38
-39
-2
22
-16
-18
23
-17
-62
-43
-18
-73
-25
-7
-18
-30
4
-35
-2
22
-2
24
11
-3
20
46
5
33
63
-30
38
10
-11
-11
-4
-10
-19
-47
-29
55
43
26
-7
-90
-10
-12
33
10
-14
4
-22
-53
-17
30
-4
-38
19
-52
62
18
-53
-30
-40
63
-4
-46
-3
-5
-11
-12
-41
-37
-31
47
4
-25
-20
-51
-14
6
-23
-25
2
-44
-6
-28
-22
26
-8
-8
27
31
-32
48
30
26
-14
-31
-2
-14
-27
24
-20
-34
46
56
47
51
19
38
6
-48
53
22
-45
-18
-2
-4
33
-9
11
21
11
12
-49
-63
-43
-49
-27
-10
-5
-22
-65
-36
-62
22
-22
-30
-28
45
18
-27
-24
-58
-10
-11
0
-55
-10
23
-79
-33
29
-41
6
71
20
7
-65
2
-26
40
-10
-19
-38
-15
6
-21
-51
19
-10
-5
29
-58
-49
44
-12
-22
-67
-21
15
-10
14
61
15
43
48
24
-28
-26
-13
2
6
-4
-7
25
36
-21
43
7
-15
23
-25
28
14
49
43
-4
32
-61
-23
-25
-12
3
51
82
11
-24
4
-5
-38
6
-46
-52
25
-68
-10
31
49
12
51
8
-25
-23
42
8
1
18
7
27
38
9
44
-30
0
32
-12
40
-28
30
0
46
-12
37
-27
-50
31
9
-39
6
39
8
39
-20
4
-54
7
32
-25
12
59
40
-49
18
-26
-5
37
-5
3
27
-10
11
22
-33
16
-9
-43
61
-12
19
-55
-65
-32
61
10
-3
-28
16
19
-24
60
-54
-4
24
-32
-30
-77
-39
-11
66
18
48
-12
-39
19
34
27
-14
-7
-63
33
-37
-37
22
-19
-54
14
4
-41
23
20
71
37
-67
-29
56
26
-19
76
51
-25
43
24
1
46
-72
48
-15
7
-16
60
-6
-10
32
-52
53
-21
49
5
17
28
-9
-38
-23
3
27
-20
19
-48
37
3
-28
-50
1
24
64
-29
-33
-43
56
4
67
52
29
16
-41
-8
40
3
-1
-24
10
-55
69
31
19
42
-17
13
-65
-22
-7
40
2
-65
45
-47
-43
21
27
35
-14
13
-41
-38
30
12
-28
-33
-20
48
-5
61
-34
23
-31
-10
36
-11
0
26
-15
-31
23
39
-74
23
15
71
-15
11
38
-52
20
58
83
33
-64
54
8
28
0
10
19
-44
-40
-37
-45
13
-94
14
33
-24
3
20
37
-31
20
-10
5
-46
-45
-9
5
13
31
3
7
-8
15
85
5
-60
10
16
-16
1
-12
-69
26
-50
-31
-69
-41
-34
44
-22
-37
1
2
1
-37
-33
-21
-51
18
-14
13
-17
3
-1
47
-19
55
-55
64
23
35
31
23
10
7
42
-20
-17
48
-16
-25
-54
33
-33
-16
32
-42
-10
56
-47
22
-72
-44
-13
13
19
7
27
2
59
-30
-40
16
-21
2
7
-63
33
-62
-15
67
-13
-21
-32
44
49
-2
2
44
-35
10
-28
-46
38
-33
-27
-40
-40
-26
-79
-24
45
-38
15
40
17
34
-29
-35
48
38
-57
-44
-59
-21
12
-3
-13
73
-26
6
14
-35
-7
-38
37
33
42
1
-17
12
33
12
-14
24
20
26
-38
58
-62
26
-5
-24
-44
-40
16
-7
53
37
-26
3
9
45
-64
22
25
36
22
-67
-59
-24
14
31
-8
35
-21
37
22
59
32
-25
32
-24
-60
29
22
-46
-54
-13
-11
-94
-18
-54
18
18
31
-11
-85
-34
1
57
-45
-7
-18
37
7
8
56
31
48
-86
-27
35
5
36
-36
24
19
38
64
52
32
17
16
-8
-18
-1
28
43
5
3
-13
-51
-51
-34
19
19
-34
-40
-33
61
21
28
-40
