0.05819252
0.07067911
0.00114271
0.06474616
-0.09172873
0.03991456
0.00522816
-0.00586122
-0.06882712
-0.03951068
-0.03143163
-0.02182988
0.05100220
0.03984007
-0.01793635
-0.04836114
-0.01351222
0.08018003
-0.04421231
-0.04007277
-0.01592091
-0.05671534
0.01412780
0.00409545
-0.04940453
-0.06404398
-0.01833526
-0.09047431
0.02788346
0.02295129
-0.05171935
-0.06577463
-0.03725114
0.03024285
-0.03774001
0.02369129
-0.02755829
-0.03100226
-0.03596747
-0.02473825
0.05366736
-0.02406937
0.01409381
-0.03789935
-0.03223753
0.02846293
0.01164401
-0.04197781
-0.02964867
0.03325121
0.06560493
-0.00041790
0.03892028
-0.03957687
-0.06838258
-0.06399456
0.03683599
0.05584797
-0.01988502
0.04760538
-0.04947765
0.01258284
0.08072339
-0.03268042
-0.03582312
-0.00675729
-0.05705405
-0.02607328
0.02772503
-0.06149842
0.01869438
0.03909899
0.00901694
-0.01971149
0.05859156
0.00809295
0.01742342
0.06826535
-0.04796833
0.05332449
-0.05061587
-0.02034432
0.01475214
0.04060069
-0.01214027
-0.01466440
0.06946824
0.01182731
-0.05302918
-0.05486115
-0.00758079
-0.05530301
-0.05237502
0.00114469
0.05776154
-0.00952801
-0.07282054
0.03643291
0.09240465
-0.00747903
0.02057426
-0.01465450
-0.06679389
0.00031898
0.00201018
-0.01470336
-0.02924247
-0.03544426
0.06466574
-0.02977318
0.08327751
-0.09544651
-0.06919814
-0.06615434
-0.04540632
-0.02518229
0.02218629
-0.00599857
0.05504014
-0.00651196
-0.00684236
-0.04508178
0.02720007
-0.05389884
-0.04070062
-0.01418174
-0.07185832
-0.05306377
-0.06181079
-0.02401491
0.04068020
-0.02413951
-0.05129508
-0.02155079
0.05288173
0.05928165
-0.03534190
0.03450023
0.03705226
-0.00398274
0.01516579
0.05465403
0.03622073
0.00722421
-0.05542069
0.00132876
0.05915784
-0.02279805
-0.09112630
0.04438904
-0.00166840
0.04948230
-0.09057873
0.04245359
0.05837476
0.01824506
-0.05259977
0.02212577
0.06817088
0.02735938
-0.05030626
0.06694263
-0.05902268
-0.00190956
-0.09156910
0.01867872
-0.02239286
-0.04724285
-0.05787033
-0.01739585
-0.04223429
0.02818204
-0.08249942
0.02809684
-0.01434619
0.01703881
-0.02147667
-0.02752538
0.00857319
-0.01356813
0.03685936
-0.10706607
-0.00437990
-0.02592884
0.00552929
-0.04379026
-0.07688569
0.06139480
-0.00358135
-0.05216437
-0.10114262
0.01765030
