29
-5
13
5
6
21
-12
1
-24
-13
-2
1
5
5
-1
12
0
12
-26
17
-14
3
16
6
8
-4
6
-11
2
13
-5
-8
22
15
5
-23
10
12
-11
4
0
1
-26
42
-4
-13
-4
-5
-39
-2
-3
-7
-32
11
-13
-3
27
15
-13
0
3
-6
14
16
17
-3
8
33
6
-27
14
-4
7
-4
-11
6
9
7
9
20
22
38
11
10
-8
-2
6
20
-9
2
-11
-4
-21
-14
28
6
4
-5
-27
19
6
8
8
-7
-3
-4
-15
19
10
-11
-34
-20
0
-5
-24
3
-21
-1
-7
9
35
-5
-25
-4
-13
-1
-29
27
12
1
-9
-19
20
-6
-17
-5
6
8
20
15
23
-5
19
-9
6
-3
11
8
0
2
13
4
-8
12
4
2
-16
19
9
0
-6
9
19
-6
-18
-13
-28
13
-21
25
6
6
8
-8
30
5
19
7
-16
6
7
-22
-27
8
-23
-9
8
14
16
18
6
-10
-31
20
-3
-12
-13
-6
-7
12
26
-5
2
0
18
-13
38
-1
-2
9
31
-18
7
4
-19
3
1
-2
-14
15
-4
-17
11
12
-19
-12
-7
-16
-1
-2
13
-13
-5
1
28
-44
7
19
-20
12
19
-7
-10
-3
-14
-11
7
17
-44
7
7
-9
-4
-6
-8
-26
0
-1
4
-8
18
50
-1
-4
0
6
26
-14
-24
-8
-16
-6
1
-23
-2
-2
13
4
-1
-28
-7
-4
-21
-20
23
3
-20
-1
4
-1
25
9
-2
-14
-16
-1
16
18
29
-10
9
-2
27
25
1
-7
-1
-8
-27
7
-3
-5
-45
-10
1
13
11
15
1
-16
10
-12
14
-17
23
12
-6
0
-3
-10
9
-22
2
18
-35
2
-9
11
-10
-14
-5
2
-25
-13
13
-10
14
-29
-6
9
-5
-2
0
-1
-48
22
34
9
10
-15
15
-32
-19
2
-12
21
16
10
22
12
-8
18
-2
-12
-19
6
18
-22
10
-20
4
-5
6
-6
-20
10
-10
-5
-11
-17
42
5
39
24
-23
-9
-21
-7
-14
3
10
14
18
-19
-3
16
-23
1
-1
-9
-31
-3
-5
-21
3
-30
-16
-14
-2
68
-16
-5
6
-20
-4
1
26
-22
-13
2
-17
1
5
-6
-21
-6
17
-12
8
-8
31
14
1
-6
-3
9
2
-20
-11
-20
-1
-41
-9
0
13
-11
4
26
-23
-10
-23
-31
-7
-36
3
-21
3
5
18
-4
-16
-9
13
-3
43
-20
2
-7
-50
6
3
26
-8
-40
13
-7
6
5
7
16
40
-8
6
17
22
19
-34
-14
45
-6
28
-34
10
-3
8
21
21
14
17
-8
29
-27
6
-16
4
66
-60
-18
40
-22
12
-16
-19
11
-27
13
-26
21
5
13
-4
-17
11
14
-4
-4
16
-43
-3
24
18
-25
46
-4
20
9
-29
-25
18
20
8
-32
22
-28
-20
11
11
10
8
-20
2
-20
34
-34
-2
32
27
1
29
21
-18
-16
14
-37
0
23
-8
24
3
9
-16
-55
16
-3
-15
-2
-36
-1
-18
-1
-15
-17
11
-17
48
-38
0
29
-8
5
25
-4
-23
-9
3
-1
6
21
-26
-1
1
13
22
7
20
-14
-1
-5
6
-5
-15
9
-7
11
-8
-6
0
-4
31
-10
26
18
-17
-27
0
-1
-3
-1
18
9
19
7
-11
-1
-8
20
10
-4
7
40
50
-5
7
12
-10
7
-6
-69
6
0
13
7
7
-13
6
-4
28
8
16
21
-31
6
6
-7
-1
-31
-59
-1
15
14
2
5
7
-2
19
23
-12
-5
-13
9
-13
-8
31
18
2
5
-24
5
16
13
-27
4
50
28
20
-22
29
44
-31
-6
26
-27
4
-34
-31
-1
-1
19
4
3
-26
14
-16
-6
-19
-1
-3
-11
7
-28
-10
-20
-7
-78
0
-7
15
-10
-2
-15
-11
-19
30
-2
9
-6
-13
4
20
21
24
14
-35
-2
8
-7
0
32
24
-27
7
15
-32
-25
-7
2
4
-22
-12
-19
27
-14
-3
-24
13
11
45
0
28
-21
-19
-8
74
-78
-7
-127
-19
-4
-8
-26
24
-7
11
17
8
21
8
11
-2
0
-18
6
-1
46
3
9
21
10
-2
3
-23
10
58
30
-20
-12
68
-9
15
0
11
-4
-9
14
7
-22
-3
-21
-28
-20
-53
23
24
2
3
15
-39
59
-32
71
2
3
-13
0
18
-7
-7
29
-61
-31
1
8
2
-33
-18
-40
-36
-2
70
-23
30
4
-13
-31
30
21
-7
13
-1
-6
-9
59
59
12
1
-39
19
-15
-31
-27
-19
-12
80
15
56
39
27
-12
7
14
-1
22
65
-31
39
16
-7
29
22
66
-46
-53
28
29
-4
-31
-61
42
-39
8
-49
-10
10
19
6
13
3
-47
34
22
-6
-62
25
23
5
-128
-33
-11
3
-51
-81
46
18
44
5
5
27
22
-7
-27
-35
-2
-77
11
-77
8
55
-7
10
37
55
-54
-2
41
19
-23
-27
-60
25
-10
1
-19
-10
-9
-7
22
6
8
-17
6
25
12
27
-8
-17
10
-2
-5
-20
-9
0
-26
8
6
8
-6
14
14
2
-7
-2
7
-4
2
0
-17
20
-6
-4
-21
-3
2
-4
-49
0
-6
3
0
29
-6
-7
-2
63
3
-14
-9
-21
-11
1
1
8
-4
-14
6
2
13
9
2
-2
-13
-13
1
3
-15
7
-7
-23
16
-3
3
-18
-28
0
1
4
-1
4
7
-6
-3
-14
29
13
-8
15
3
-6
3
37
7
-6
-8
-7
-13
-29
9
-33
-34
7
-16
44
-5
41
-6
9
-1
12
7
5
5
-8
-11
30
-10
-6
14
13
-34
9
28
-2
-2
-20
19
-14
0
8
13
-21
-20
-1
10
17
-23
-5
15
-4
-2
2
-24
-26
-2
7
30
7
6
13
20
-18
-12
-6
26
25
17
-4
19
37
5
-20
-24
-5
4
-4
-9
-52
-6
-36
-11
0
-31
-1
8
53
18
21
15
17
17
-23
7
4
9
