-17
1
23
16
9
7
-8
3
19
-26
-4
-4
15
-22
-23
3
19
-10
20
3
-8
44
16
-11
29
-34
16
-11
13
-16
12
38
7
15
4
-4
1
0
24
-36
9
-2
46
67
-30
28
-10
-18
1
10
18
15
2
34
-2
25
9
4
-54
-15
8
23
-22
-7
-9
-7
7
16
-25
37
-5
15
10
2
-9
7
-17
5
-41
0
-13
18
0
16
-8
51
22
4
2
-54
-9
0
27
-23
1
21
35
3
-6
-10
18
12
-19
-67
30
-16
46
79
-3
21
14
3
1
1
-14
12
-22
57
-1
-5
-16
-23
-104
-6
-5
-9
-3
5
-2
14
7
16
-26
36
25
-4
15
-27
-40
20
-25
-16
-75
7
-3
16
11
11
3
70
39
-11
25
-46
18
7
-20
-54
16
22
32
10
-21
-25
-3
22
5
-106
3
-5
20
68
-26
12
20
20
-4
-28
24
23
4
61
-14
-19
-6
4
-87
24
-8
-8
-1
23
-13
-3
-22
-21
-17
34
-4
7
-8
12
-23
-1
16
16
-60
5
-1
19
-8
21
-1
75
9
15
-5
-44
22
7
-21
-24
27
23
-5
8
-23
-7
4
-13
-3
-96
-5
24
19
98
-33
10
23
-15
26
-4
-15
16
-17
57
12
21
12
6
-121
17
-12
25
11
9
-19
-17
14
9
25
-58
-21
20
-6
-15
16
6
-7
-14
55
16
14
-24
5
-2
10
-72
-27
2
-24
34
3
-8
-25
57
-39
-14
-25
-21
25
-7
5
11
-8
77
-33
-3
-28
-84
9
-2
-8
-13
-4
7
-3
5
-5
-75
-3
-3
-16
-11
106
-5
-24
-13
-23
-2
17
-24
-1
3
16
-26
-14
16
1
-15
10
22
-1
-4
30
-1
-8
8
-12
25
1
-31
-13
5
1
58
-19
-1
21
18
2
-20
1
-26
15
1
5
-20
16
62
-17
7
-29
-98
21
-27
-7
-14
-2
22
7
-5
4
-45
-25
0
20
4
101
-4
6
-24
-1
-2
5
8
1
-17
15
-45
6
3
-21
23
20
16
-7
3
62
4
-8
17
-4
-4
-21
-60
1
-8
-39
49
11
-6
-26
20
-13
-34
0
-29
18
-9
22
-24
10
64
-12
-9
-35
-100
27
2
-31
11
4
-8
-13
-11
20
-71
13
6
20
4
100
-10
2
-3
1
-37
11
-30
-22
18
17
-23
-13
-5
-6
20
15
-5
-12
1
30
9
-18
1
19
-18
-8
-69
-21
1
-15
37
12
3
-24
13
-18
-42
-18
0
16
22
16
-16
-22
61
-11
-13
-22
-73
0
-24
-22
-1
-14
-10
-13
-14
18
-54
-2
-19
-8
1
122
-25
3
-17
-2
-15
22
0
-22
2
2
-46
6
1
-23
-20
38
-14
7
-22
36
17
-8
0
17
3
3
-70
-40
-12
-13
37
5
-2
-15
32
0
-4
-32
-37
-19
-13
11
19
15
81
6
17
-14
-77
11
-14
-30
-9
-4
33
4
-16
2
-46
-31
7
24
22
99
-7
3
-26
13
-27
-14
-8
-11
-21
-20
16
31
11
-7
-12
-18
14
11
14
-66
-18
-21
-2
-18
15
8
31
28
-6
9
-49
-1
-20
15
-44
36
2
27
5
10
6
2
18
23
-101
0
10
52
98
3
-4
-7
12
-9
-8
1
8
-21
50
22
4
19
-24
-93
3
-21
5
15
13
-20
-17
15
10
11
-38
3
-15
-16
2
21
-19
13
-11
51
12
-19
2
-9
0
-8
-78
-31
1
-18
70
-18
-21
19
21
-40
-28
8
-6
26
19
-21
12
-15
63
-19
19
-34
-68
-1
-4
15
-3
-25
22
19
18
11
-71
6
-20
3
9
92
5
-8
-1
-19
-18
13
8
-8
-23
22
-50
-18
7
2
4
38
-7
8
19
33
10
-21
18
-6
9
-11
-52
-9
-12
-18
65
-10
3
-3
67
-2
1
-37
-1
5
20
20
-17
5
111
-14
-10
-20
-99
19
-7
3
-18
6
-8
-22
-9
-1
-80
-34
2
2
-11
107
-13
-18
-21
-4
-8
12
0
-1
20
8
46
-10
8
4
-20
-33
-22
-11
-7
-48
17
16
-14
-9
-7
-4
41
31
21
34
-39
11
-2
-1
-32
6
26
-9
42
2
12
0
-1
-6
-103
26
7
34
74
11
2
3
22
3
3
-4
1
11
85
-8
-18
-19
5
-96
-2
1
-14
-18
14
-10
-28
14
-2
8
-51
-24
-14
0
0
6
-20
-2
19
73
-9
15
10
-6
-16
20
-52
0
-2
-29
54
-2
11
5
45
-31
0
-9
-6
-14
-4
5
-20
-15
103
-7
-5
-21
-82
14
-11
6
-8
-21
-9
10
17
25
-67
-26
-3
-7
12
116
-21
14
18
-21
-28
21
-6
-19
-5
13
38
28
10
20
-20
-19
-6
13
-8
-53
-3
18
-3
4
-17
-4
32
30
-14
20
-74
7
15
6
-23
23
27
32
6
10
-5
15
-5
-3
-88
25
10
52
88
-14
17
21
-2
-13
5
-18
9
-16
47
-1
9
3
3
-81
21
20
11
-1
20
-17
1
-19
12
-15
-36
-35
-12
-14
20
7
8
22
-23
58
16
3
-14
20
-18
14
-71
-20
17
-27
36
-15
3
7
37
-21
-3
-26
-22
26
1
-13
13
4
85
-18
-6
-58
-86
13
-14
9
10
14
-5
-8
9
25
-45
6
-27
0
8
115
-26
12
18
-1
-9
-1
-7
0
2
-19
39
-8
12
27
-20
-23
17
-1
-15
-45
-7
-22
9
-3
19
-17
50
35
-8
13
-27
19
-16
5
-49
-3
25
-2
10
-18
-12
6
-7
21
-63
14
-4
21
98
-13
30
-7
-2
1
-31
-8
3
-1
72
23
-15
-2
19
-118
24
2
-10
-15
17
18
-12
-6
10
-17
39
33
-4
-2
-2
2
15
-1
-8
-36
-17
16
14
7
14
7
69
37
3
-3
-71
22
0
3
-14
11
33
6
23
13
-14
-18
-22
-15
-94
9
-7
57
63
-15
29
14
-6
2
-16
15
-9
2
55
23
3
-9
10
-92
-13
19
-3
-7
36
-6
-1
18
-2
25
-51
-24
-13
-26
-11
13
-17
0
14
45
-16
4
1
16
6
-7
-44
1
-24
-6
63
-26
21
4
58
-36
-15
-9
-31
17
16
-20
-4
15
68
-12
10
-46
-105
25
-17
11
19
-10
31
-20
11
4
-89
11
-22
-8
24
97
3
-18
-16
14
-21
-5
9
18
-11
24
-8
3
24
-27
-11
10
4
-10
-21
53
-2
4
-21
7
15
-15
-38
-16
1
-30
39
16
6
0
50
-12
-11
-12
-33
6
2
-21
-13
-7
105
-7
17
-36
-64
24
-26
-24
10
-14
15
12
1
0
-63
10
-13
14
14
90
1
21
17
17
-21
20
-10
-8
12
-10
18
16
-10
31
-23
-9
1
-11
21
-53
19
-21
-20
-14
8
-4
67
31
21
-1
-57
0
-5
-2
-54
5
0
32
27
3
-1
7
-15
12
-111
5
-3
18
112
-16
-14
30
9
19
-27
-11
11
-13
59
16
-12
2
-2
-85
9
20
14
20
10
24
-18
21
6
-1
-16
7
-21
1
24
-4
3
-11
23
51
-7
20
6
10
-5
2
-55
-12
-16
-3
58
2
3
0
26
-14
-8
-10
-38
2
7
19
1
21
72
-16
-1
-16
-75
6
-12
-25
-14
11
8
-14
-10
15
-84
6
-18
-19
-13
107
17
1
9
10
-35
-16
-5
-1
-14
-18
-25
-8
15
-4
26
-6
-8
19
-4
38
-21
-21
7
19
0
7
-73
4
-19
-4
61
-23
12
11
53
-14
-21
1
-5
-14
1
19
-3
6
80
3
-7
-54
-62
14
-16
-2
16
19
-9
-18
-6
4
-63
-15
-13
11
15
106
-5
23
-13
0
-4
6
12
3
-1
-12
-28
-1
-13
-2
-15
11
-17
3
0
72
-21
8
-22
22
11
3
-56
-23
-3
-5
34
12
-17
12
46
3
-10
-11
-36
-9
-14
-9
5
17
104
-21
13
-58
-74
0
7
-19
9
-6
20
17
-8
-8
-42
-17
-6
3
12
110
11
-21
-28
13
-2
10
23
5
-11
-22
51
-8
-11
13
-27
-21
-7
-18
15
-72
19
-9
8
-11
-11
22
56
-2
5
-3
-51
-12
16
-11
-27
1
15
16
-5
-20
-7
-14
8
22
-65
21
24
59
74
-4
32
-5
10
-15
6
17
-19
11
75
9
21
-6
-2
-93
-10
-15
20
-4
27
-21
21
25
4
-14
1
3
-6
30
10
-9
1
-2
-11
-39
17
5
-17
2
-5
18
75
10
5
21
-61
-11
-19
5
-8
19
24
-4
3
-6
-16
4
-10
15
-57
6
-16
39
71
-3
29
-1
-12
-16
-9
1
-2
-12
51
13
2
-5
7
-79
-2
-4
13
-11
20
18
10
0
16
18
-49
-2
3
-9
-7
18
-3
-13
5
44
-5
17
6
19
14
-8
-42
4
18
-16
62
10
3
-1
35
-6
-31
3
-13
16
6
-18
-9
-11
62
1
-10
-25
-100
-14
-21
-2
-1
11
6
1
18
17
-58
-30
-22
-13
-18
105
-11
-4
12
19
-33
0
13
-9
-1
18
-28
2
-6
-26
10
26
10
-15
-19
54
-18
6
17
-9
3
-8
-36
-22
-17
-10
47
-20
7
-22
19
-10
-29
-7
-12
-11
-2
-8
-12
-20
92
3
12
-55
-78
26
-25
-26
11
-22
-10
14
-15
26
-71
12
0
15
-3
117
6
-22
7
21
-17
-10
-6
12
-4
-5
-12
-22
23
-28
26
1
18
-7
-21
55
-24
-23
8
14
-2
-11
-45
-25
7
-7
52
-14
-14
4
26
-2
-25
-11
-2
10
4
-2
21
-3
98
-35
16
-12
-85
11
-20
-28
-26
10
-11
-24
8
17
-71
11
-3
-17
0
97
-7
3
-7
20
-37
18
-24
22
7
2
-14
-32
-1
-12
4
8
7
0
7
60
2
-16
-2
-18
-5
9
-30
-15
1
-33
65
-8
18
-20
55
-39
-40
-6
-13
22
16
-21
7
-11
86
7
19
-57
-79
-4
5
-13
10
-16
-4
8
19
5
-51
-16
-9
-13
15
106
-5
7
6
11
-19
-18
11
-1
18
9
35
19
15
3
-12
-37
2
13
14
-51
-8
6
-1
-19
-21
23
47
27
16
15
-51
21
-11
8
-38
11
13
14
28
13
21
-11
12
-8
-68
-4
0
36
95
-29
32
-5
22
3
7
-10
16
-17
53
6
-5
-16
-2
-108
-10
4
11
-7
8
0
-2
24
25
-3
14
24
-25
2
-12
-17
-9
10
-9
-83
-15
-23
12
16
-12
-19
65
31
-21
-1
-48
6
-13
7
-51
2
5
3
0
-21
20
-8
11
-9
-110
0
-19
24
84
-19
9
13
5
-9
-8
-9
19
4
68
-4
7
4
-24
-99
17
-21
12
11
47
-21
-7
1
-9
-18
1
9
1
12
-5
-31
-13
-19
-19
-41
19
4
6
6
-6
-12
63
36
12
-1
-29
-1
-6
13
-17
13
10
-8
16
0
-9
9
-18
-3
-78
33
0
39
76
-29
-9
30
-5
-15
-9
10
-2
-6
59
9
-9
-21
-5
-79
15
-7
12
-8
37
-18
-12
-9
10
19
30
3
-16
21
-7
-5
7
-18
19
-43
-14
-9
22
-12
19
-8
57
16
18
-4
-49
14
-22
-6
-36
3
21
2
11
-23
-8
-17
-15
-19
-83
15
-13
23
78
0
14
15
-10
18
-4
-6
-16
15
88
13
14
-23
-19
-86
-7
12
9
18
29
-13
24
-2
8
-17
-23
17
-17
12
4
-38
8
12
-18
-16
9
5
9
-4
-7
-8
41
4
6
1
-8
-3
1
19
53
25
36
-10
24
-18
-17
-7
-3
-7
-34
35
15
27
-31
18
16
7
6
-13
-5
6
-14
2
35
-9
13
2
-4
-14
-19
-11
-6
13
4
22
-26
-1
-16
27
-42
-19
22
-8
23
3
-21
-20
-3
70
-18
-19
10
18
22
-2
-37
-17
1
-7
73
-16
11
-22
37
-21
-12
-33
-11
-17
-18
-15
-7
-20
96
-3
12
-59
-73
22
-14
-11
17
6
6
7
17
23
-65
1
2
-8
-18
87
-22
15
19
-2
-25
0
-28
3
16
-5
-44
-13
11
-13
-8
4
8
-10
-1
50
-9
-25
12
1
23
-19
-62
3
24
-39
73
-2
-12
-2
30
-21
-6
-34
0
-12
-10
16
7
4
68
6
6
-50
-101
33
-30
2
-16
-13
-2
5
-18
15
-80
-10
-19
26
2
127
3
4
-12
0
-36
-7
9
8
8
24
-30
-9
15
9
24
35
-22
21
-14
56
-15
-4
-17
-10
6
19
-42
-20
-11
-18
41
8
-3
8
25
-9
-11
-15
-28
9
23
-5
4
10
86
-18
-5
-32
-88
-4
-11
-8
-11
-20
3
4
2
-8
-84
8
18
-16
24
99
-15
-7
-26
-24
-6
19
-3
-22
8
-18
-18
-26
18
-14
24
16
-12
-6
21
68
-12
-10
-18
-18
9
9
-33
-34
22
-15
33
16
-11
-13
28
2
-3
4
-33
-5
13
13
-16
10
71
-31
-17
-30
-75
10
-27
-27
-12
-21
-6
8
5
-2
-89
-8
-2
11
11
94
15
3
17
-12
-24
2
27
24
8
17
4
5
-16
-11
-16
-13
22
14
-14
-50
-9
23
-2
16
11
-19
73
38
-4
25
-54
-21
2
9
-45
20
3
23
37
-9
-20
9
-4
-14
-65
33
-11
19
84
-14
10
5
15
7
12
-14
16
-24
62
1
26
16
-24
-112
15
18
19
18
22
13
-12
-7
-20
5
22
8
18
-5
-19
-24
0
-10
21
-59
2
18
-16
13
-14
3
63
20
18
23
-38
20
-26
-16
-29
15
9
-7
39
-14
20
-13
3
24
-81
31
-9
38
71
-32
-5
23
25
8
-10
9
5
-19
46
5
-13
-24
-19
-123
-9
-7
-4
-11
41
-26
14
21
18
-23
53
7
18
11
-15
-29
23
-8
-1
-68
-15
7
7
-1
8
15
60
36
19
13
-71
20
-25
7
-53
31
40
10
36
-21
2
11
0
-3
-81
-2
17
56
85
-35
-10
6
-21
26
-19
-17
-3
0
57
-1
27
-1
-11
-93
26
21
-4
-3
36
21
-13
-21
16
-11
-13
-8
3
-13
-8
23
-9
-1
-18
73
14
-20
-9
-10
21
13
-51
-37
13
-1
62
-21
11
13
23
-31
-44
0
-8
2
-9
-2
-16
-9
85
-22
2
-41
-76
-5
-27
-18
1
-8
-4
-23
12
24
-78
-1
-5
13
-17
97
-11
21
-12
-7
-13
9
10
14
18
-3
25
0
-1
-12
2
-19
19
-5
-7
-73
-15
-13
-15
-14
-22
12
41
0
21
6
-27
-20
-1
15
-54
31
47
35
7
-14
-16
-8
16
0
-77
20
3
26
84
-21
-1
-1
-4
-6
7
-2
2
3
81
3
-17
-14
-14
-98
-16
22
-2
-20
29
24
-27
-4
8
19
-29
-6
23
4
18
11
14
17
-4
49
-2
-13
-20
4
20
-6
-71
-15
16
-27
56
-1
-6
-1
19
-1
-42
-18
-26
-14
-12
2
-4
-16
86
-20
-5
-26
-83
-1
-20
-3
17
15
-8
-27
0
22
-58
-5
-5
22
15
92
6
14
12
16
-20
10
1
4
14
22
-12
3
-7
-9
-17
27
14
9
-10
29
-20
-9
18
-7
-12
16
-72
6
2
-38
32
-24
9
-10
54
-37
-38
-22
-22
25
4
-19
-15
9
64
-29
-10
-15
-90
2
8
-20
20
-6
19
15
-10
-11
-48
13
6
11
10
107
-16
20
-10
6
-29
19
9
-17
7
11
39
0
-9
-4
11
-17
-12
-2
-15
-53
-13
11
18
-14
2
-1
72
35
-6
6
-33
-20
-10
26
-41
3
1
-5
4
0
-22
19
-1
12
-73
-6
26
26
97
5
-12
-1
9
5
-18
13
-16
-20
74
-10
-13
15
-5
-116
15
14
9
-1
19
9
-19
17
4
-6
-21
-8
23
-27
-2
2
-4
-15
-17
39
-25
4
-9
6
-3
-8
-56
-17
-4
-30
36
12
18
0
63
-28
-15
-8
-37
24
22
2
14
-6
83
-24
18
-21
-93
27
-1
-16
17
-6
11
-17
-9
-20
-45
-30
-24
11
13
110
-19
1
3
-22
-9
18
-10
16
-20
-17
-14
0
-6
8
0
38
16
-12
21
42
-20
18
17
-21
-18
18
-39
-33
2
-16
36
-2
9
-9
34
-11
-28
-14
0
12
-9
-6
-10
-2
76
-24
-21
-55
-86
31
-10
-3
5
-7
4
-14
-15
0
-76
12
-20
-14
21
97
14
8
7
9
-34
13
16
12
-16
-12
43
-5
-1
21
-13
-34
15
20
24
-30
24
-15
-2
13
-22
19
63
40
-17
-6
-35
17
7
-4
-23
43
13
-3
39
-23
-25
15
7
9
-70
26
-9
55
63
12
29
23
3
-4
-20
10
8
12
79
22
-15
18
0
-77
17
-12
2
5
34
4
-6
-14
-14
-14
5
7
-4
19
-18
-21
6
9
15
-66
0
8
-14
-8
-21
10
42
40
9
18
-72
4
7
-8
-37
14
16
15
45
-8
-5
-10
-15
13
-82
29
-6
32
108
-30
26
14
-5
24
-13
-15
16
-5
62
11
10
3
-11
-81
15
-6
12
10
17
-18
-7
-14
10
-7
-48
-18
-13
-7
3
15
16
-15
12
53
-23
-16
15
24
-16
-14
-31
0
2
-22
33
-21
-12
-9
44
-35
-36
-10
0
27
20
-13
-13
-12
108
-36
11
-58
-91
24
-8
2
14
6
-12
-5
-7
21
-48
-10
-22
18
8
98
-24
-1
-15
-6
-46
1
-3
2
-14
1
38
20
-7
-7
-20
-23
-18
-2
-17
-67
-21
11
2
-16
5
-1
45
32
17
5
-57
10
9
8
-48
33
40
16
7
-25
-18
-19
17
25
-82
0
21
22
104
8
13
30
22
-13
-13
-5
5
-11
76
13
21
-3
-24
-93
9
-3
-10
16
42
13
-1
-22
-17
-10
-35
-4
-13
8
12
0
11
-10
-11
69
20
21
14
-14
-7
-16
-54
-26
3
-34
36
7
1
10
60
-12
-38
-34
1
19
-13
5
-16
2
103
8
-15
-32
-91
-11
-25
15
-1
19
4
11
23
19
-67
3
5
7
26
121
-21
-2
17
-3
-45
23
-14
-8
20
-11
-18
-8
-4
9
-4
34
-12
-3
-6
61
5
-6
-16
19
-8
-23
-41
-4
-9
-10
26
-7
-2
16
46
-18
-36
-23
-2
-20
7
-5
-5
-7
89
-4
-8
-49
-78
30
-15
1
12
1
10
14
-3
25
-49
-26
1
-19
19
88
-7
8
-19
11
0
-8
11
22
23
-22
33
37
-15
6
15
0
-11
-9
8
-33
8
5
4
18
-3
25
48
13
-13
24
-63
-6
-13
5
-46
19
44
16
10
13
-19
-13
4
-3
-104
13
-1
59
70
-2
2
9
-5
-4
-13
-15
20
7
76
2
-9
5
-1
-82
1
3
12
-9
0
-12
-16
8
-6
15
-41
-6
19
-16
1
4
22
-13
10
78
15
-4
-17
14
0
-12
-65
-16
-7
-36
62
-2
-4
-15
58
2
-9
-13
-17
-16
11
-9
-13
-19
65
7
8
-36
-75
31
4
-21
7
-16
4
-17
6
23
-78
-16
18
-11
7
118
-5
11
3
16
-21
-18
-1
-25
18
-5
-7
10
5
-17
1
37
12
-2
11
61
-7
23
7
-12
-20
4
-75
-16
-23
-5
66
-11
6
7
33
-17
-6
-23
-1
-2
0
6
-12
11
76
3
-1
-30
-99
3
10
-27
2
-24
-8
8
23
16
-57
4
11
0
18
114
4
-21
15
-1
-26
-18
12
5
23
1
37
-12
-23
8
-14
7
-4
-8
-20
-43
-1
-3
-19
-17
-23
20
67
-1
-15
40
-46
-12
-4
15
-54
28
19
19
9
11
-7
-15
-24
13
-82
12
-12
14
75
-28
-6
-3
12
7
6
6
-18
-23
63
30
-17
15
-17
-105
-6
-20
-16
-10
2
14
9
-1
-8
7
-6
-12
-7
-12
23
21
8
-4
6
70
-14
-8
19
-6
-16
1
-30
-37
-20
-22
62
14
-16
-14
15
-39
-27
-5
-11
-11
-7
7
9
-7
65
0
-4
-46
-103
8
8
0
-23
10
-5
-24
-3
-20
-51
-5
4
11
21
123
-5
-4
8
17
-25
18
4
4
5
-23
8
22
17
-17
-15
-7
-14
5
-5
-78
24
-14
0
4
-24
18
62
21
-12
13
-69
0
-18
5
-40
17
39
36
42
1
9
21
11
-2
-91
1
20
31
105
-10
-17
25
-1
17
-6
-5
13
16
63
13
0
-3
-7
-124
-8
18
-2
-16
46
12
-6
-6
17
18
-32
-23
-11
-21
8
35
14
19
-19
61
15
6
-16
-18
12
16
-38
-3
-17
4
58
-18
2
19
33
-6
-33
7
-3
-18
-7
20
-13
18
104
-31
13
-46
-88
3
-5
-4
14
-22
1
-5
5
-2
-78
1
8
6
-7
95
8
-6
11
17
2
13
-9
11
-22
11
-46
-11
25
-13
17
38
-9
4
-14
39
-4
15
-20
-10
-5
15
-60
-32
-18
-43
41
16
22
5
39
-7
-38
-30
-24
-21
-20
-21
-16
13
110
-1
12
-51
-105
-8
-4
11
17
11
-2
10
9
-23
-64
-14
2
-19
13
89
-18
14
-9
12
-42
-23
-11
-18
-17
-9
15
35
9
15
-5
-19
-12
-11
19
-33
-11
-10
9
6
8
10
73
3
-9
26
-61
-13
-18
-2
-29
43
21
22
25
2
-4
-6
-22
2
-80
32
-17
46
60
8
9
2
-15
-15
-33
8
5
-23
62
17
17
-23
-16
-98
-6
-1
-19
17
34
