0.03339175
-0.06996632
0.03356126
0.06977923
-0.06223547
-0.02271459
-0.01961950
0.06942701
0.01441112
0.01583623
0.00846346
0.02831323
0.02053682
-0.05899526
0.01638707
0.01622085
0.01636404
-0.00966026
-0.03090413
-0.00196059
-0.05511380
-0.03236726
0.06871121
0.02766701
-0.00706914
0.06298053
-0.00327827
0.03827038
0.00458705
0.01377908
0.05494282
-0.01846111
0.02591445
0.05382731
0.06585930
0.01925362
-0.03855832
-0.05311159
0.02285382
-0.00275050
-0.01358930
-0.02040224
-0.00631730
-0.04792051
0.00072811
0.01204214
-0.01978992
-0.02015751
0.05241207
0.02275085
-0.01031988
-0.06857182
0.02243549
-0.04948319
-0.03556725
0.00224246
-0.01957917
0.05941990
0.02176124
-0.04057653
0.05662831
-0.05064372
-0.05359533
-0.04490145
0.01772043
-0.05232352
-0.00967860
0.00938180
-0.02951093
0.05032819
0.03408169
-0.06650437
-0.05045660
-0.04699612
-0.03931276
0.04032327
0.03252948
-0.04550255
0.05719212
0.06510245
0.06648272
-0.02281317
0.04731246
-0.07051618
0.01445638
0.03822144
0.06081973
0.00211748
-0.05922098
0.05644825
0.07027580
-0.04224177
-0.06170130
0.04394517
0.04209678
0.00458086
0.02630204
-0.03495754
-0.01009594
0.06394264
-0.01790742
-0.08026522
0.05151834
0.00398034
-0.03443334
-0.00433246
0.04494619
-0.08104491
-0.04408916
0.04283926
0.06627710
-0.00985688
0.00071761
0.02566676
0.00291751
0.05518879
0.00341893
-0.05090100
-0.02037246
-0.06255280
0.02956509
0.05124579
0.02088198
0.04359297
0.06135885
0.01747866
-0.01472004
0.05176188
-0.06042150
0.01486624
0.04879780
0.01783054
-0.00271039
-0.04711668
-0.04638001
0.04603784
-0.05984398
0.05746898
0.05609908
-0.05569908
-0.05665588
-0.00014455
-0.00369012
-0.04569893
-0.05476243
-0.00791055
0.03594610
0.08329028
-0.01243063
0.00476372
-0.00964820
-0.04424519
0.06937480
-0.05575733
0.02054094
-0.05890829
0.02191345
0.06246827
0.01784922
-0.07673629
0.00732998
-0.05421820
-0.01292792
-0.02898540
-0.06735375
0.01219587
0.05060599
0.03204393
0.03768834
-0.02075692
0.00841589
-0.02905295
-0.03534427
0.03440222
0.06487893
-0.04163967
-0.09407906
-0.02237399
-0.04701125
0.05125785
0.04208979
-0.04704451
0.02799399
-0.02812307
0.03375587
-0.06154473
-0.04263298
-0.03431277
-0.01230908
-0.01989581
-0.06078188
-0.00345104
