-0.01363698
-0.03699605
-0.01637856
0.03138942
0.08372213
-0.03628775
0.00613100
-0.06027383
-0.03060447
-0.04049641
0.01286324
-0.02218538
0.07374235
0.03006670
-0.02371074
-0.02946435
0.03475132
0.01734726
-0.06905485
-0.01700595
0.01089587
0.03946024
-0.07582373
-0.04144020
-0.11606737
-0.02277393
0.01079352
-0.02559035
-0.03683491
0.02384055
0.03958594
-0.01108578
-0.10056498
0.06304143
-0.02315066
-0.00508884
0.02573512
-0.02372187
-0.13227113
-0.06463511
-0.02025631
-0.07702239
-0.12070571
-0.02186524
-0.01346352
0.02796802
-0.01429149
0.04058623
-0.07593232
0.03420747
0.00910170
-0.01833068
0.01615671
-0.00986578
-0.03507299
-0.01278217
0.01167489
-0.04296299
-0.01370359
0.00444977
0.04278865
0.01568181
0.07116918
-0.04953255
-0.05340269
0.07041434
0.05048118
0.03848263
-0.03281336
-0.07371332
-0.08254573
0.02124846
-0.02808298
0.00698116
0.02784034
-0.01773318
-0.06224119
-0.01534634
-0.04126589
0.06291397
-0.08422869
-0.05710788
0.04294818
-0.02263424
-0.06323743
0.04479137
0.00516706
0.06433464
-0.08177216
-0.04808677
0.05018398
-0.00282357
0.07588279
0.05101808
-0.10738651
0.04010368
0.03326734
-0.01694352
-0.01991466
-0.02303874
-0.00072734
-0.04639672
-0.02422317
-0.06331903
-0.03647229
0.05022798
-0.00161961
0.03056616
-0.04566092
-0.05533645
-0.07062261
-0.00691076
-0.05270538
-0.02580930
0.04612503
0.00280746
-0.07965898
0.02664517
0.01392133
0.00608344
-0.09315641
0.04097641
-0.01214958
-0.04465099
0.07294299
-0.01154065
0.02660895
-0.02057684
-0.05196667
-0.00401176
0.01822743
-0.01454781
-0.01340817
-0.00691653
-0.00062827
0.05056272
0.02105900
-0.01834392
-0.05781653
-0.00169968
-0.04632347
0.01401575
0.02852371
0.02289950
-0.03848936
0.01168709
0.00423513
-0.03309464
-0.07452697
-0.10215895
-0.01467196
-0.04849445
-0.07763868
0.01261152
-0.05532666
0.02390500
0.03716647
-0.02670171
-0.05982152
-0.07832584
0.02479253
0.04292610
-0.09154764
-0.07174040
-0.03056077
-0.05658478
-0.06459484
-0.04173902
-0.08503719
-0.03111597
-0.04658544
-0.05796462
-0.10170537
0.07574318
0.08321212
-0.07336317
0.06640756
0.05588831
0.01574977
0.02592945
0.01067014
0.04798353
0.01680619
0.00899893
0.06486241
-0.07593097
0.02728372
0.00691295
0.07343201
0.03599459
-0.06313539
-0.01437698
