-0.06623244
0.04767371
0.00804868
-0.05274170
0.03713677
-0.07100561
0.04789646
-0.06565394
-0.06189019
0.05083249
0.00164902
-0.01731257
0.07114798
0.06330349
-0.01006243
0.02614624
-0.05774693
-0.00205986
-0.03714851
0.01309152
-0.05763904
0.07384822
0.05892864
-0.05918668
0.05508996
0.00670926
0.00285394
0.00446939
0.04809302
0.06753199
0.03776764
0.05533486
-0.03291579
-0.01596238
-0.06285513
0.05279604
-0.03743740
-0.01572265
-0.07999703
0.07424626
0.02117408
-0.04472994
0.02841945
0.04366977
0.02507127
-0.01260272
-0.03434100
-0.04903806
-0.05280511
0.03466084
0.02599511
-0.04593643
0.06037928
0.00925352
-0.01003399
0.03346093
-0.00710276
-0.01933948
0.11325368
0.06503605
-0.03213038
0.05467616
-0.03453125
-0.00367904
-0.02302391
0.03627703
-0.02797982
0.05388700
-0.07106555
0.04956918
-0.03567654
-0.05920879
-0.07308321
-0.01256835
-0.05050944
-0.06046854
0.01862173
0.06184755
0.05749533
0.01647264
-0.06614841
-0.04698414
0.01851354
0.00088724
-0.07114746
0.03730402
-0.01101630
0.05416385
-0.00549605
0.04958394
0.03243535
0.01712590
0.00367558
0.03999226
-0.04598632
0.00531925
0.05927717
-0.04857932
-0.05210365
-0.00007335
-0.04232517
0.01668046
0.04778380
-0.08551235
-0.00357773
-0.00975616
-0.07463425
0.00199372
-0.06231507
-0.01053673
0.02142175
-0.01692507
-0.06700735
0.03030735
-0.00243551
0.00980773
0.04541740
0.01726617
-0.03557649
-0.05094245
0.04308721
0.03542290
0.00670559
0.04025096
-0.08914583
-0.00998715
0.02859451
0.00627910
0.08705380
0.05788451
0.01784641
0.00211501
0.05766333
0.02530148
-0.02811284
-0.07432193
-0.08114305
0.06701703
-0.04441776
0.02971959
-0.00847465
-0.06122589
0.03523998
0.06089263
-0.07241686
0.01047455
-0.08623654
0.02345669
0.03173113
0.05134409
-0.04174879
0.03433312
-0.04265437
0.00119771
-0.03085968
-0.06439564
-0.02547998
0.02624470
-0.01623897
0.01757205
-0.03808655
0.02693526
0.06573030
0.05883685
0.05566429
-0.00753343
0.05186447
-0.07195784
0.04892810
0.01096820
0.04214313
-0.05679005
-0.04363452
0.01000899
0.03915791
-0.02102726
0.01534061
0.01252968
-0.01393370
-0.05822929
-0.00513059
0.04569083
-0.01848188
-0.04064780
0.04759556
-0.00951960
0.05937781
0.06777783
0.03797276
0.01993814
0.00551125
0.03845648
