Layer: classifier.2.bias
Parameters:
[ 0.0211247   0.03116418 -0.01573698 -0.01031979  0.04409404 -0.01151864
 -0.01592031 -0.01804813 -0.04818738 -0.01077708 -0.01355954 -0.03736614
 -0.03853894  0.03420702 -0.01874654  0.04398033 -0.04304646  0.00214932
 -0.00530192 -0.06381252 -0.06241948 -0.0447334  -0.04490391  0.04472262
 -0.05871658  0.03516591 -0.00644695 -0.01031926  0.04384834 -0.00905045
 -0.06217425  0.00403724  0.00619407  0.04288214  0.05509827  0.02717158
  0.0192313  -0.00761531  0.03565986 -0.0350678   0.01683344  0.05745043
  0.0035617  -0.05775343  0.05760318  0.01224908 -0.00055447 -0.00130027
 -0.01144632  0.03368039  0.0470698   0.02854277  0.02094476  0.04242991
  0.02271374 -0.00829048 -0.00423632  0.00590476 -0.01587848 -0.03613492
 -0.03401535  0.03990315  0.01545586 -0.00090445  0.02176652  0.0359681
  0.04825946  0.03771787  0.02582976 -0.0445466   0.03838739  0.04056275
  0.01174455 -0.04122015  0.02862312  0.01219026  0.02358919  0.0218334
 -0.02146399  0.04576632  0.05211715  0.00011307 -0.04374248 -0.02034559
  0.05645808 -0.02980754  0.01343271  0.01282094 -0.01945023 -0.04837719
  0.00380739 -0.05760315  0.00580202  0.03277418 -0.04670173  0.03810489
  0.00079926  0.03431352 -0.0521564  -0.05187828  0.01585325 -0.0379914
  0.00239481  0.0162707   0.03273454 -0.03958421  0.06719198  0.04682136
  0.02601672  0.00429358 -0.01244611 -0.04938788  0.02833413 -0.0451862
  0.03565886  0.05121557  0.02371207 -0.02731681 -0.00090041  0.02873798
 -0.00730457 -0.00299646 -0.03803581  0.01489299  0.03390209  0.02783951
 -0.00157398  0.034564   -0.01387387  0.04762416  0.00876391 -0.02154193
 -0.03365443 -0.02591832  0.05532944  0.01311222  0.03697313  0.04699566
 -0.02391527 -0.06319743 -0.01598125 -0.00390028 -0.00664293 -0.00472388
  0.03459509  0.0316532   0.07248151 -0.04417527 -0.04277084  0.06676073
  0.01569808 -0.05100042  0.00378336  0.02618445 -0.04548871  0.03369346
 -0.00224092 -0.0105621   0.05280834  0.0465166  -0.01301957 -0.02852365
 -0.0552404   0.02531561  0.00465154  0.04123322 -0.04215227  0.01246547
  0.02156272  0.02745668 -0.01584054 -0.05038042  0.01446454 -0.04845825
 -0.01428278 -0.00370075 -0.0126585  -0.00683519  0.00536861 -0.04161167
  0.00317935  0.00271335  0.03420383 -0.02885621 -0.06957886 -0.01650543
  0.01705409 -0.00808277  0.00890837  0.03568298  0.06115109 -0.01855832]

