0.02857622
0.03564573
-0.02168112
-0.00761145
-0.11040647
-0.04614270
-0.08551162
0.02894090
-0.04835548
-0.09875185
-0.04031650
-0.03164545
-0.01879845
-0.00201996
-0.04512147
-0.01851668
-0.07588183
-0.06915686
0.01058401
0.03045610
-0.10159205
-0.08335888
0.03307342
0.02760384
-0.02145024
-0.00851367
-0.02896598
0.00292907
0.03745047
-0.07383322
0.00283694
-0.06334163
0.01970073
-0.00301322
0.04408757
0.00941080
0.01761470
-0.02030066
-0.00796387
-0.08236790
-0.08426218
-0.03894333
0.00686317
-0.04678073
-0.08082140
-0.07819960
0.02640859
-0.08285136
-0.04633753
0.04745061
-0.01615137
0.00967009
0.00698045
-0.05157271
0.02511757
-0.04526287
-0.07182360
-0.01451597
0.00434008
-0.02070792
0.00345147
-0.03686634
-0.02907904
-0.02273785
0.02093476
-0.05136019
0.02148363
0.04291382
-0.06001559
-0.00389290
-0.01143025
-0.07097904
-0.08527225
-0.04419420
-0.02295005
0.03620747
-0.08477138
-0.08156765
-0.06645599
0.03071341
0.02356663
-0.06213798
-0.05260567
0.03714002
-0.03316977
0.00159597
-0.00696248
0.04979597
0.00524448
-0.02219054
-0.08552137
0.02183524
0.03456480
-0.08973852
-0.02611838
-0.05790000
0.02075115
-0.06670902
0.03412584
-0.09706008
-0.04032647
0.01701505
0.04496749
-0.06678030
-0.02473059
0.00328271
-0.03471190
-0.11284775
-0.00821788
0.01046029
-0.01157837
0.03028280
0.04498556
0.03023497
0.01466014
-0.06195298
-0.00643468
-0.02481036
-0.04220686
-0.03699287
0.01030252
0.00298302
-0.03942185
-0.04399831
0.03170172
-0.11124548
0.01798373
-0.05261030
-0.03864551
0.03333159
-0.00681257
-0.01778080
0.03054805
-0.05757517
-0.00221467
-0.00734125
0.03790913
-0.03252183
0.04803889
-0.00843260
-0.10272498
0.00225053
0.00077928
0.02568193
-0.05688741
-0.00036927
0.04481620
0.03114121
-0.02701012
0.03045910
0.03269213
-0.06676538
-0.04406966
0.03833586
-0.06785491
-0.08431675
0.00756014
-0.01351266
-0.05976067
-0.02346453
0.02831643
-0.07422695
-0.01258200
-0.07313381
0.01184930
-0.04408905
-0.09894805
-0.09572755
-0.00613665
-0.05800515
-0.03452357
-0.06177282
-0.04689914
-0.04018717
-0.02762522
-0.07455873
-0.08875076
-0.02445777
0.01325875
-0.03464345
-0.13037094
0.00035915
0.00727866
-0.05698666
-0.08246093
0.00434837
-0.03473886
0.04330975
0.00902102
-0.03133540
-0.01106533
-0.01683449
-0.04447567
0.04568857
0.02443440
-0.06137831
0.01435326
-0.08388206
0.04353675
-0.05927281
0.02946803
0.01459268
0.03710170
0.01085769
-0.04703511
-0.03644586
0.04272217
-0.00705011
0.00376354
-0.01162430
-0.05999395
0.04215214
-0.03709703
-0.08860932
-0.02244625
-0.09368434
0.00496919
-0.08900405
-0.01868003
-0.06042125
-0.08755098
-0.04783900
0.02724431
-0.01338504
0.02996147
0.04983123
-0.00111377
0.00061723
-0.04610884
-0.09079106
0.03073008
-0.04940422
0.03962810
-0.03273733
0.03063551
-0.07307905
-0.06229791
-0.00919863
0.02747976
-0.01989028
-0.00061859
0.02535352
-0.04749938
-0.02351976
-0.09352943
-0.08670831
0.01816252
-0.04382645
-0.02406554
-0.09663717
0.01263722
-0.02257563
0.00589376
-0.04845482
0.03045122
-0.08140671
-0.06011764
-0.03557471
-0.09838409
-0.02395063
-0.07710825
-0.06424985
-0.00752127
0.01174800
0.01898579
-0.03477790
0.01833083
-0.03072721
-0.04552605
-0.06516062
0.01785516
0.03480382
-0.08494329
0.02324316
0.05410285
0.03620496
0.01140577
0.02216176
-0.07288142
-0.07415175
-0.03192466
-0.09074644
-0.03856540
-0.05742562
-0.07618847
0.02808567
-0.09741195
0.00372721
0.04895440
-0.07243391
-0.01111616
-0.00996217
-0.01180461
-0.00926132
-0.04723979
-0.02779577
-0.05919207
-0.02445082
-0.02090078
-0.01277791
-0.00390834
-0.04987419
-0.07113747
-0.05635131
-0.03116549
-0.04218553
-0.00460675
-0.01181731
-0.04928121
-0.06979122
-0.00096591
-0.08814904
-0.03381450
-0.02802088
0.00122734
0.01968009
-0.05024864
-0.01092017
0.00427089
-0.07537309
-0.04674666
-0.02921621
0.01011891
-0.05122741
-0.04223536
-0.03759781
-0.08018117
-0.02518335
-0.03855536
-0.06602121
0.05146972
0.01815460
0.02948179
0.01184596
-0.03172601
0.01743220
0.00040623
-0.08231677
-0.07992283
0.01874786
0.00938025
-0.04567951
-0.08186766
0.00212313
0.03662726
0.03484447
0.00976667
-0.01029957
-0.05021717
-0.04409962
-0.04750986
-0.01178699
0.00729286
-0.02113452
-0.07177445
-0.09246458
0.05602631
0.01285733
0.02709988
-0.01083699
-0.02947322
-0.02400959
-0.07759082
-0.00151000
0.03353513
-0.01011823
0.00554498
0.04443947
-0.04372902
-0.07816426
0.00010413
0.00234459
-0.08663016
-0.04742016
-0.00781449
-0.02788127
-0.01409184
-0.03946849
-0.02792333
-0.05496915
0.00305921
-0.06109324
-0.06259967
0.04915230
-0.00273611
-0.05225452
0.01271916
-0.01843662
-0.05777010
0.02704728
-0.01016527
0.01338501
0.01617768
-0.06308166
-0.06048743
0.01042756
0.00143309
0.02291320
0.02150444
0.02384131
-0.06787741
-0.02218077
0.00638581
-0.02592740
-0.04676244
-0.07228132
-0.03975927
0.00352623
-0.04197926
-0.03092363
-0.05809153
0.02426323
-0.04377237
-0.04614647
0.03379321
0.05097374
-0.07034529
-0.03843720
-0.07446502
-0.03507027
0.02722955
-0.05420454
-0.08545465
-0.09317036
0.03334681
0.02959532
0.01765589
0.05236378
0.00653093
-0.01850199
-0.08205087
0.00185231
-0.09103496
-0.07787569
-0.01371686
0.04328142
-0.03773623
-0.08055609
-0.02523118
-0.00585845
-0.08054736
0.03833710
-0.00550162
-0.00789827
-0.00268384
-0.05305792
-0.06864616
0.03094699
0.03969388
0.03689690
0.00987411
0.01976588
-0.02830529
-0.03600534
0.03341208
-0.02746940
-0.01127293
-0.00309233
-0.04102106
-0.04492591
-0.08138657
0.01873019
-0.00134068
-0.06098292
0.01573813
-0.06034421
-0.06244550
0.03008420
-0.00887187
0.03595478
-0.12592448
-0.04618313
-0.04650919
-0.09118737
-0.00514356
-0.02459315
0.03018013
-0.07755015
-0.04206417
-0.00344346
-0.08215677
-0.04341944
-0.06522469
0.04385897
0.00865405
0.02296700
0.01982448
0.05373380
-0.07957847
-0.08238875
-0.11032502
-0.00888119
-0.06096015
0.04068860
-0.00071278
-0.07699706
0.01717847
0.02423266
0.03538411
-0.00628658
0.01580091
-0.07854705
-0.00777668
-0.07016365
0.00055516
-0.02138871
-0.03655899
0.04588187
-0.04126984
-0.09765131
-0.07048657
-0.01247551
-0.06661037
0.04074801
0.01954049
-0.02602058
-0.04746944
-0.03731130
0.02183759
-0.08363636
-0.08358580
0.05249653
-0.02637165
-0.00484828
-0.02964552
-0.02180856
-0.03589312
0.00185484
0.02025785
0.00677941
0.00313445
-0.00921902
0.00363178
-0.03527104
-0.00406722
-0.03995226
0.02776484
-0.03959932
-0.07416765
0.03909127
-0.00582409
-0.05305893
-0.00652321
0.01948407
-0.04778184
-0.01869140
-0.04874765
-0.07092037
-0.00465068
0.04518626
0.00639592
-0.06186425
-0.03043667
-0.02560360
-0.03163821
-0.10322174
-0.03026269
0.01888677
-0.04227861
-0.07252421
-0.03838946
-0.09781158
-0.06489334
-0.08991261
-0.00930757
0.01882776
-0.05109984
-0.06405790
0.00191616
-0.04562113
0.00458952
-0.01292750
-0.01266934
-0.09036605
-0.06305291
0.04112976
0.03192173
-0.04945236
-0.01141595
-0.00428899
-0.03220567
0.04231690
-0.06155124
0.01302904
0.02992428
-0.00672796
-0.06207536
-0.06820242
0.01000655
0.00937532
-0.00480978
-0.00161419
0.02601187
0.03127522
-0.03740278
-0.08565114
0.04918510
-0.04266493
-0.06869308
-0.05605708
-0.05781900
-0.06178765
-0.13532230
-0.09725067
0.04787404
0.00657964
-0.03566827
-0.07517266
0.00613256
-0.04435157
-0.05520478
-0.10164149
-0.02372083
-0.06107058
-0.04685331
-0.06370060
-0.03976620
-0.03598428
-0.06780041
0.04832276
-0.02387060
0.03858421
-0.02792579
-0.05251994
-0.05448016
0.02212170
-0.09103528
-0.03593006
-0.00656136
-0.06908049
-0.01859461
-0.06775595
-0.08231297
0.00875555
-0.09500317
-0.03814917
-0.04956350
-0.06873251
0.03164984
-0.00190796
0.02393887
0.03734359
-0.01490359
-0.00758020
-0.10077190
0.03549603
0.04994253
-0.07673328
-0.05564381
-0.01583746
-0.04062700
-0.04194922
-0.03135832
-0.06734375
0.04053144
0.06172484
-0.07169169
-0.00685620
-0.01510642
0.01101186
0.02423142
-0.02716320
0.04083047
0.02977654
0.00863704
-0.06960683
-0.08836710
-0.06830977
-0.04643969
-0.07028256
-0.01865735
-0.07868542
-0.04914885
-0.01993100
0.02268238
-0.06578428
-0.10997545
0.05412440
-0.01053891
-0.08573189
0.04541366
0.00496750
0.04002723
-0.04610302
-0.04747575
0.02271083
-0.04873404
-0.04318096
-0.06098593
0.01661519
-0.02846977
-0.02184057
-0.04929452
-0.09382863
0.04939001
-0.04477368
-0.04428302
-0.07864888
-0.07438670
-0.06442033
-0.09790914
-0.07508868
0.02860963
-0.04870614
-0.06056229
-0.06535161
-0.00783961
-0.02098398
-0.10320430
0.04497287
0.01955519
0.05339165
0.01247141
-0.06694429
-0.10040149
-0.02509067
-0.07765908
0.01506934
0.00225632
-0.02955260
-0.04501137
-0.04084448
-0.07584492
-0.06494951
-0.08001683
-0.04101082
-0.04469452
-0.04291037
0.01829651
0.02208459
0.02400013
-0.06876297
0.00157529
0.00323059
0.04241668
-0.06847116
-0.00333546
-0.03710182
-0.09022245
0.00717620
-0.00696690
-0.01912125
-0.05780981
-0.06857663
-0.08448996
0.02174948
-0.01500863
-0.05868234
-0.04815168
0.00007042
0.03526750
-0.07532531
-0.06940725
-0.00538571
-0.06759635
0.01079534
0.02519622
-0.00096857
-0.08284727
0.07960457
-0.00037925
-0.02132417
0.04765534
0.01960995
0.01987598
0.01608544
0.03036083
-0.02643830
