0.01363599
-0.05285943
0.03677953
-0.02574521
0.01465749
-0.04933456
0.03470313
0.06356808
0.02180151
0.00840845
-0.04821907
0.00487882
0.06944637
0.01632305
0.01878435
-0.00619518
-0.05194944
-0.01707887
-0.02535174
-0.06722633
-0.03280620
0.04103290
-0.00300828
0.04810284
-0.03761219
0.02416009
0.03581803
0.05467755
0.04843514
0.03129464
0.06291182
0.00858458
-0.02499348
0.00254308
0.02462264
0.01030085
0.02880074
0.06170465
-0.03083338
-0.03699472
-0.06107212
0.06836514
0.06051500
0.00941186
0.05881867
-0.04390260
0.04549581
0.03963139
0.03258464
0.00980528
0.01605015
-0.01777848
0.00388986
-0.03387211
-0.01413218
-0.07225548
0.01996920
-0.03736179
-0.06558839
-0.06118958
0.06592338
-0.02007538
-0.06419329
-0.03027600
0.06436827
0.01770756
0.02478518
0.02409802
-0.05795664
-0.06731794
-0.05288649
0.04669138
-0.07956847
0.07679943
0.05896364
0.04386446
0.05541679
-0.01612412
-0.04785934
0.07759562
0.03701158
-0.00034192
0.00226527
0.04126574
0.00231282
0.04030608
-0.08432037
-0.01321280
0.06397910
0.05125019
-0.02511072
-0.03133095
-0.05683350
-0.06781940
-0.05022468
0.04879632
-0.01960010
-0.02583913
-0.04782611
0.00268133
-0.01218422
-0.07877224
0.02082198
-0.02443436
0.02650520
-0.02760418
0.02205547
-0.04749354
-0.01019175
-0.05553174
0.04050793
0.04498253
-0.00120618
-0.00885975
-0.04519565
-0.05967236
-0.08080776
0.03647308
0.03533098
-0.00929978
0.07119101
0.06775380
0.05079585
-0.07627934
0.05768350
0.03902908
0.05412773
0.03026729
-0.02607730
-0.03310212
0.01526628
0.03645600
0.05674727
0.01879149
-0.06396827
-0.03699909
-0.06313610
0.04129100
-0.01542585
0.02779199
0.03875714
0.04801211
-0.00875408
0.06348739
-0.07458377
0.03649875
0.05547469
0.07877667
0.03259354
-0.02435945
0.06725090
-0.05328271
0.02553806
-0.07213429
0.05014746
-0.01501721
0.05083270
0.05809345
-0.03356553
0.04197621
-0.06525308
-0.00840392
-0.03158988
0.02967200
0.04960660
0.07664867
-0.00137485
-0.01945335
-0.05596724
-0.01494084
0.04083063
0.02321739
-0.01349944
-0.01924891
0.03764187
-0.03249142
0.05426904
0.01065784
-0.06784436
-0.05766567
-0.06473934
0.02663054
0.03263354
-0.06660283
0.05464363
0.03136809
0.01822974
0.04362604
0.00613287
0.02920217
0.06341696
0.01068254
