0.03344085
0.03842952
-0.07166086
0.01815286
0.01791274
0.01664884
0.02789648
-0.08704399
-0.01149824
-0.03386465
0.00155527
-0.01053655
-0.04188490
-0.05096107
-0.07728414
-0.08852898
0.01889988
-0.02551861
-0.06847011
0.03967664
0.02882885
-0.09157662
-0.05170695
-0.07687773
-0.00439763
0.02981893
-0.08132822
-0.04581679
0.03252424
-0.07113244
-0.03106205
-0.09308444
-0.05592435
0.04569724
0.02791907
0.03196727
-0.08687301
-0.09673364
-0.10127277
-0.01440827
0.01088887
0.04114339
-0.04875383
-0.00989179
-0.01300870
0.05014145
0.00350686
-0.04466198
-0.03190524
0.02138122
-0.03222713
0.02100502
-0.07412163
-0.06838015
-0.04664063
-0.09062922
-0.09000869
0.01443070
-0.08828885
-0.03532603
-0.07276337
0.01676541
-0.06830203
-0.07001090
-0.02189399
0.02583892
-0.01800004
-0.05110311
-0.03354038
-0.06779494
-0.01993134
0.00557929
0.02030185
-0.01658395
-0.07494994
-0.08537438
-0.09008003
-0.05001851
-0.01587655
-0.09648460
-0.00066753
0.03312717
-0.00821082
-0.06863713
0.00446268
0.00879251
0.02120955
-0.08281093
-0.07020489
-0.01965671
0.00989049
-0.03472507
-0.09568392
-0.03236904
-0.00443774
-0.02942976
0.03211177
-0.03166429
0.00985342
-0.01185023
-0.03026765
-0.08851162
-0.07305449
-0.04816125
-0.00164747
-0.08497970
0.00053006
0.01404538
-0.02386659
-0.08387597
-0.09389657
-0.02325768
-0.04426443
-0.03087017
-0.03080619
-0.02653254
-0.08602982
-0.07067002
-0.05801287
0.00999022
-0.07927305
0.00768077
0.03618975
-0.00347737
-0.08864452
-0.09862463
0.03985477
-0.06352954
0.00311806
-0.06088746
-0.11161268
-0.09940003
-0.02284105
-0.04720020
0.01790163
-0.08132961
-0.09680058
-0.03019574
-0.06459834
-0.09175974
-0.04922968
-0.02281561
0.02330859
-0.07838757
-0.07857275
-0.08853117
-0.02569301
-0.06383174
-0.04828890
0.01790293
-0.02601166
-0.00320690
-0.09409346
0.00850074
-0.02298817
-0.02342758
0.00059329
-0.07798316
-0.06631213
0.00320750
0.02564430
-0.08021224
-0.08810692
-0.00875149
0.04072827
-0.05041622
0.04711083
-0.08479096
-0.05404773
-0.08828206
-0.09564403
-0.08861880
0.00738108
0.02740234
0.03655657
-0.03760396
-0.07419949
0.02713924
0.01611966
0.00963293
-0.06883812
-0.01237210
0.00720938
-0.03733558
0.03493477
0.03068731
0.00091444
-0.00933703
-0.00339037
0.02598792
-0.08162133
-0.02020662
-0.08130965
-0.05627492
0.02227247
-0.08563277
0.00920562
-0.02730220
-0.05939509
0.03283875
-0.05419612
-0.03174891
-0.10364040
0.01933849
0.02227343
0.01232791
0.00163911
-0.00546408
-0.07785907
-0.05495970
0.01773985
0.04475324
-0.06799527
0.01357616
-0.08230980
0.01388934
-0.02058899
-0.05397354
0.00984169
-0.08732964
-0.09958291
-0.03787570
-0.00527958
0.01922429
0.01417943
0.01107999
-0.05272348
0.02128918
-0.02443242
-0.08974345
-0.07623604
-0.00257053
-0.06559635
0.01897781
-0.04926949
0.02755144
0.00256648
-0.06368652
-0.02369986
-0.09889963
-0.00012857
-0.09380984
0.01548195
-0.00716945
0.03330728
-0.09019902
-0.08088103
-0.07329491
-0.03134853
-0.04919165
0.02233399
-0.01694339
0.01372304
-0.07084512
-0.09999686
0.02843993
0.01633601
-0.04041571
-0.00281646
-0.07738610
-0.06531821
-0.08430275
-0.00499640
-0.09197534
0.00456175
-0.09501389
-0.00484311
0.04095130
0.04065512
0.00944323
-0.06293539
0.02521427
-0.00645426
-0.04230640
-0.04586941
-0.07573938
-0.08314303
-0.04555646
-0.05668191
-0.07345716
-0.06131539
-0.01080868
-0.01780579
0.00123327
0.00519232
-0.02855682
-0.04901977
-0.03933937
0.04897093
-0.03026230
-0.02233713
-0.10195560
-0.03774790
-0.09383089
-0.06788891
-0.10618547
-0.07112904
-0.05759185
-0.09526898
-0.01072141
-0.10151951
-0.01740336
-0.01406378
0.00642213
-0.04280660
-0.09715431
-0.05426273
0.02189586
-0.01173387
-0.05479916
-0.06942156
0.00533533
-0.03852700
-0.05986618
0.01836839
-0.08898164
0.02685510
-0.00920682
-0.02296630
-0.06560607
-0.00418814
-0.03688819
-0.05080263
-0.05782678
-0.10066774
-0.03581839
-0.05136517
-0.08964187
-0.05373275
-0.10399119
-0.01092918
0.00900689
-0.10012180
0.02365699
0.00386376
-0.09618594
-0.01111260
0.02628539
0.01466347
-0.06953540
-0.00607179
0.00639385
-0.02546123
-0.02786007
-0.01808958
-0.04310858
-0.01599443
0.01486390
-0.02952451
-0.02471409
-0.01070734
-0.04237841
-0.06620760
-0.02279542
-0.08193806
-0.01211496
-0.05192696
0.02245422
-0.07877785
-0.08350962
-0.03308866
0.01222770
-0.01560465
-0.03932264
-0.04622075
-0.00433016
0.02364851
-0.03378822
-0.01935208
0.01496366
-0.03266432
0.03216273
0.01557335
-0.06045793
0.00248223
-0.03164379
-0.03698171
-0.06519116
0.00858535
-0.03110591
-0.03241250
-0.01520297
-0.05966781
-0.02754022
-0.07856236
-0.02330469
0.02102937
-0.03899815
-0.01497709
-0.10522246
-0.03092938
-0.01433935
-0.03554244
-0.03657925
-0.04127190
0.02195779
0.00165410
-0.03210977
-0.03909250
-0.05971153
-0.10188233
-0.00367071
-0.00104501
-0.03500001
-0.08143531
-0.04876667
-0.08715012
-0.08005116
-0.00199122
0.02435715
-0.08552539
-0.03957385
-0.08758496
0.04171393
-0.03400439
0.00402795
-0.07362341
-0.09576449
-0.07675374
-0.03908185
0.00190517
-0.09811419
-0.05622547
-0.04621854
0.03918238
-0.09672765
0.00945385
-0.06974566
-0.07017452
-0.06449783
-0.06928569
-0.06573882
-0.06205822
-0.00770121
-0.10952885
-0.06337496
0.00660561
-0.02394095
0.04227187
-0.01211710
-0.06174689
0.02653009
-0.04844630
-0.06096554
0.02252581
-0.06835765
0.02722441
0.00675038
-0.02903186
-0.02601232
-0.02369781
-0.03893410
-0.09446713
-0.01034883
-0.03129955
-0.07797816
0.00037067
-0.06556854
0.01783032
-0.07513828
0.00592992
-0.00194594
-0.04647192
-0.07093184
0.02059651
0.02311884
-0.02701993
-0.03317327
-0.05983126
-0.07224752
-0.05141478
-0.03282887
-0.04515972
0.02391266
-0.05676841
-0.06842364
-0.01124907
-0.02185903
-0.03040142
-0.01115909
-0.07060709
-0.03496957
0.00282261
0.00421294
0.00807549
0.02692495
-0.11703665
-0.01170025
-0.09734788
-0.04312513
-0.01885957
-0.02184332
0.02869151
0.01160761
-0.00039565
-0.00039528
-0.05281278
0.00792534
0.03201662
-0.07988108
0.02533082
-0.06857947
-0.02021861
0.01341030
0.02508927
-0.02543872
0.02327350
-0.04714051
-0.04993479
-0.08053936
-0.07596217
-0.00656412
-0.05987436
0.01958380
-0.07071089
0.00780019
-0.03164805
0.02859534
0.05108140
0.01375442
-0.01164058
0.05114703
0.02980337
-0.09513365
-0.10099062
-0.00432090
0.02461096
0.00753087
-0.02480326
-0.04068027
-0.09366134
0.03831374
-0.08364404
-0.04802138
0.01903515
0.03082906
-0.00037275
-0.07407723
0.02522617
0.02886969
0.01476597
0.02235750
0.00248471
-0.08502047
-0.07219988
-0.00482426
-0.05895939
-0.05769727
-0.09342647
-0.04721956
-0.10181148
-0.04273025
0.00206336
-0.02280879
-0.07913864
-0.00676058
-0.03203853
-0.02706093
-0.06132079
-0.02449270
0.02076933
-0.07028151
0.03635563
-0.06000983
-0.03205536
0.00075805
-0.08681262
-0.07039677
-0.06540690
-0.03994523
-0.05657165
-0.06726974
-0.08600197
-0.04104812
-0.03340085
-0.05757669
-0.03858604
0.00196427
-0.05924372
0.01392180
0.02053969
0.02014101
-0.05360137
-0.07393491
0.02812200
-0.03112141
-0.00302903
-0.10093394
0.03050944
0.03977274
-0.02644183
-0.01920235
0.03486265
-0.03934868
-0.02910026
-0.08809563
-0.08103918
-0.09191662
-0.03081298
-0.09971479
-0.00937931
-0.03394781
-0.01860791
-0.06262224
0.01966299
0.03537265
-0.01468474
-0.09767161
-0.06008828
-0.06235601
-0.00440127
-0.08447473
-0.00771662
-0.07548510
-0.08384562
-0.03676646
-0.07245862
0.01094406
0.01906082
-0.07165280
-0.06986597
-0.02159266
-0.06570647
-0.00719156
0.00072179
-0.08561540
-0.03645075
-0.01929937
-0.04818597
0.01510963
-0.02795265
-0.05585207
0.01168717
-0.03264926
0.03729027
-0.03068510
-0.09852973
-0.05107310
0.01872881
0.01800830
-0.03532976
-0.05183966
-0.05723662
-0.00001076
-0.08166182
-0.01715730
0.00636518
-0.01507429
-0.01275670
-0.03615570
-0.03982511
0.00873693
-0.00707020
-0.04130482
0.01800577
-0.09340674
-0.00045959
-0.06839854
-0.07007740
0.01955203
-0.03180183
-0.01166250
0.01139665
0.02137165
0.03554577
-0.03189378
-0.04994399
-0.05337167
0.02539909
-0.00028569
-0.07837828
0.00100619
-0.04914067
-0.00361385
-0.06280330
-0.01120249
0.00381854
-0.07859820
-0.09173330
-0.07725519
0.03347572
-0.06872462
-0.03586344
-0.04347324
0.02775365
0.01869368
-0.04210012
-0.05383977
-0.05441844
-0.01406379
-0.02524064
-0.02782700
0.01153705
0.02079223
-0.02223346
0.02152574
0.02098892
0.01873264
-0.08965147
0.00499826
-0.04242229
-0.05191961
-0.00522994
-0.05533041
-0.00162489
0.03461759
-0.00210983
-0.06568766
-0.09038391
-0.03020775
-0.05514367
-0.03108625
-0.00430775
0.01313295
-0.02123062
-0.02304181
-0.08296049
-0.04521926
-0.01734344
-0.07177094
-0.01857925
-0.00545927
-0.01033985
-0.04514927
0.01713134
-0.03394475
0.01748030
-0.07170752
-0.05863101
-0.00671716
0.03595496
-0.03647010
-0.05166126
-0.04457484
0.01617011
0.01249965
-0.02420973
-0.09751423
-0.05783493
0.01547947
-0.01023373
0.01108175
-0.02535624
0.01110270
-0.02086210
0.02524342
-0.04003556
0.01977310
-0.00656118
0.00767472
-0.08532935
0.03081098
-0.00970280
-0.04535590
-0.02389266
-0.04881905
-0.01780687
-0.03187176
-0.07493332
0.02456867
-0.02753014
-0.03425834
-0.10015286
-0.07127966
0.03092702
-0.03389696
-0.02921416
0.01134310
