Layer: encoder.1.1.block.0.bias
Parameters:
[ 0.03249272 -0.04062809 -0.05375309 -0.04916941 -0.02410527 -0.02271735
 -0.05400895  0.04647925 -0.04453769  0.0664921  -0.02775243  0.08314363
 -0.02071864 -0.02805512  0.05581635 -0.03499819 -0.02017897 -0.04555476
  0.02215611  0.03476728 -0.029231    0.06489269 -0.01982232 -0.04367811
  0.05174849 -0.03720722 -0.05762912 -0.01883678 -0.02569399 -0.01043659
 -0.03987814 -0.05888426  0.05347937  0.0002509  -0.04994258  0.01440793
 -0.02252209  0.00881971  0.00804635 -0.07450625  0.00796947 -0.00243678
 -0.0390521   0.05275484 -0.0358276  -0.03894132  0.07127722  0.08687071
  0.02879122 -0.03587471  0.05387603 -0.00020867  0.02510062 -0.02184829
 -0.06355553  0.05639784  0.04292403  0.03576344 -0.04851566 -0.00754531
 -0.07715186 -0.03412886  0.00616524 -0.00441528 -0.01139403 -0.05811941
 -0.03915228  0.0383877  -0.02179003 -0.0358695  -0.05287981  0.00064793
 -0.03940846 -0.02952185  0.06605818 -0.05994797  0.01391567  0.04413765
 -0.06287266 -0.06565929 -0.02821288 -0.03901505  0.06384028  0.03370318
 -0.01041235 -0.05019541  0.03828631  0.04978984 -0.05445947  0.06105727
 -0.06399233  0.00707075  0.01354284 -0.06780001 -0.0382631   0.01612194
  0.04773191 -0.07246964 -0.07841465 -0.02696996 -0.03774872  0.00099141
 -0.000723   -0.07838164  0.06782956  0.03752041 -0.02561287  0.06576598
  0.03374087 -0.03360382  0.03089255 -0.03930147 -0.03852898 -0.03141591
  0.00300123 -0.02112735  0.04079388 -0.02196667 -0.00947925 -0.01093889
  0.02638529 -0.04520218 -0.02691247  0.03316982  0.02583343 -0.01394048
  0.09884834  0.0327954   0.05693439 -0.01786216  0.02467946 -0.03755001
 -0.0472768  -0.02969749 -0.03838472  0.00158114 -0.07581402 -0.08012463
 -0.03719293 -0.02940188 -0.00588384 -0.02167796 -0.0426591   0.01409552
 -0.02771848  0.05376971 -0.01289977  0.04961644 -0.0295082   0.06249185
 -0.01407608 -0.05733655  0.0036477  -0.07430495  0.0385263  -0.05927119
  0.00061318 -0.04953752 -0.06333984 -0.08406038  0.07690585 -0.00806242
 -0.05897683 -0.06364859 -0.04607889 -0.04036206 -0.04946421  0.08269706
 -0.05629498  0.06500347 -0.00341769 -0.01887776 -0.02113901 -0.07219022
  0.04377125  0.07451923  0.03554074 -0.05286327 -0.01466017  0.02261769
 -0.03064446  0.05970653 -0.05957567  0.02454316 -0.03144838 -0.01949922
 -0.03004812 -0.04190793  0.01794179  0.03760585  0.03308918  0.07954297]

