Layer: encoder.1.0.block.0.bias
Parameters:
[ 1.90743115e-02  2.06846278e-03 -1.60771552e-02  4.16295324e-03
 -3.41051840e-03 -4.02064575e-03  1.08032767e-02 -1.98820401e-02
 -7.95234926e-03 -1.36735067e-02  1.01761790e-02 -1.08759506e-02
  2.94085629e-02  2.60148570e-02 -1.11979563e-02 -8.05223826e-03
 -2.29169410e-02  7.91982934e-03 -3.02148964e-02 -1.91414822e-02
 -1.52959013e-02 -2.53093173e-03  5.24479849e-03 -2.57351957e-02
 -1.92604996e-02  6.68638106e-03 -3.98828555e-03 -2.36817519e-03
  1.08643128e-02  1.14095155e-02 -2.25474909e-02  3.04099917e-03
 -2.35807393e-02 -2.08897311e-02 -1.14952680e-02 -2.00542174e-02
  4.54771798e-03  6.66082604e-03 -3.66674946e-03  2.09260788e-02
 -2.78394166e-02  7.09076505e-03 -3.65784694e-03 -2.17654034e-02
  3.66493221e-03 -1.47325662e-03  1.64542962e-02 -1.24839125e-02
 -1.82364006e-02 -1.49665093e-02  1.02320882e-02  9.59594548e-03
 -8.74379463e-03 -1.62135158e-02  5.08499239e-03  1.11549431e-02
 -1.07523391e-03  2.27409694e-03 -2.20390186e-02 -1.91471428e-02
  2.11969987e-02 -1.24773418e-03 -8.22785404e-03 -3.51262838e-02
  5.99260617e-04  2.14977050e-03 -6.59266766e-03 -1.90380514e-02
  1.18205808e-02  3.21514085e-02 -3.98337701e-03 -7.06519280e-03
 -8.73833336e-03 -7.63658341e-03 -1.76191758e-02 -6.80025201e-03
 -1.87568050e-02 -1.75043158e-02  6.59356918e-03  2.09872983e-02
 -1.18284989e-02 -9.45424009e-03 -4.79395203e-02 -1.25743058e-02
  1.17069697e-02  1.41621903e-02 -8.12081993e-03 -8.16596672e-03
  8.06679204e-03 -1.83515009e-02 -2.31826939e-02 -2.95668337e-02
  2.52279583e-02  2.24820338e-02 -7.93615729e-03  3.18782660e-03
  8.68099649e-03 -1.55300815e-02  1.34715615e-02 -2.93333409e-03
  3.16862091e-02 -1.35304509e-02 -3.12701822e-03  8.43807310e-03
 -4.81108204e-03  3.64722796e-02  2.71024350e-02 -5.88638755e-03
 -1.39341280e-02 -1.72577071e-04  2.96848128e-03  1.23922927e-02
  3.41032259e-03 -1.71088043e-03  9.76977404e-04 -3.70448944e-03
  5.07958606e-03 -3.51476250e-03  1.14455577e-02  2.19638571e-02
  1.17305678e-03 -2.96560600e-02  9.16461740e-03  3.17802839e-02
 -2.02183542e-03 -2.37847883e-02 -1.52820749e-02 -2.00574310e-03
 -1.38297277e-02 -2.93847006e-02  6.06582128e-03 -9.90829244e-03
 -1.23748397e-02 -3.85394692e-02  1.49849765e-02  4.51067492e-04
  2.41754800e-02 -5.43049630e-03 -1.79814827e-02 -5.02346223e-03
 -8.12895771e-04  1.32638868e-02 -3.41223255e-02 -6.63946324e-04
 -1.73224043e-02 -1.76378991e-02  2.25136075e-02  3.11832055e-02
  9.32791550e-03 -1.22832377e-02 -5.19162090e-03  1.37559846e-02
 -6.46830956e-03  1.15268072e-02 -1.15202460e-02 -8.40348308e-04
  1.76699385e-02 -1.97971351e-02 -2.35031396e-02 -4.39493405e-03
 -4.11847346e-02  7.10692140e-04  1.60290543e-02  3.25899385e-02
  1.45383803e-02  2.89182849e-02 -2.92995386e-03  8.20223521e-03
  2.31430796e-03 -1.62887492e-03  3.10383979e-02 -7.45993311e-05
  1.86567791e-02 -6.97270851e-04 -2.92071700e-02  3.69106675e-03
 -2.51560491e-02 -9.75967664e-03 -7.42642162e-03  1.89073104e-02
 -1.35123199e-02  1.15292817e-02  1.80278998e-03  9.98497847e-03
  4.98294830e-03 -1.77464518e-03  2.76193898e-02 -8.08834098e-03
 -7.33632129e-03  1.20974267e-02 -1.13257878e-02 -9.51463822e-03]

