0.00241109
0.02511475
-0.02551800
0.00782478
-0.01928309
0.00382076
-0.02763509
-0.01419528
-0.02345104
0.01146494
-0.02728810
-0.02008695
-0.02977177
0.00075148
0.02077577
-0.02019613
0.02479466
-0.02961663
-0.03280623
-0.00188294
-0.00977209
-0.01406007
0.03216876
-0.02195119
-0.02376008
0.01183253
0.01862846
0.02032297
-0.00576751
0.01778457
0.04696736
-0.02991156
-0.01835362
-0.00529098
-0.00955250
-0.04146542
0.01449455
0.00327630
0.01860653
-0.01630704
0.01948762
0.03398318
0.02787279
0.01903897
0.01978798
0.00767362
0.03952828
-0.01875538
0.02447083
-0.05311973
0.00961281
-0.02207613
0.00463246
-0.01601781
-0.02973778
-0.02425478
-0.02078344
0.03852436
0.00968933
-0.03190804
-0.02329587
0.00609640
0.02544718
0.00263910
-0.01759352
0.01529973
0.01030925
-0.01390431
0.00198876
0.02248537
0.03285758
-0.00323641
-0.00725089
0.01024263
0.03397506
-0.02333764
0.03556318
-0.00765882
0.00932561
-0.03417670
0.01999323
0.01482918
-0.00124455
-0.00532986
-0.01805025
0.03662535
0.04177667
-0.01007352
-0.01864521
0.00517833
-0.02921454
0.00751273
-0.02493544
-0.03225712
0.00507678
0.01443307
-0.00307736
-0.00418120
0.03194084
-0.01127963
0.01126599
-0.01784592
-0.00432385
-0.01488520
-0.02573659
-0.02269327
-0.03058893
-0.03591677
0.01761042
0.02638666
-0.03579985
-0.02261293
-0.04638872
-0.00304691
0.00619078
-0.01307694
-0.00102491
0.00926832
-0.00394269
-0.00107434
0.01968539
-0.01945800
-0.00187888
-0.00501392
0.03469734
0.00134880
0.04399898
0.01050734
0.04901350
-0.00575401
0.01391787
-0.01810586
0.02938817
-0.00048729
-0.02645536
0.01194151
-0.01706901
0.03354641
-0.01151824
-0.02360373
0.02640305
0.01772959
-0.02008445
-0.02921349
-0.02871109
0.04344245
0.01372125
0.04080194
-0.01069510
-0.05352939
-0.00791187
-0.00671137
-0.03224624
-0.02487993
0.00209046
-0.00739872
-0.00914444
0.01854521
0.01414319
-0.00648512
-0.01576888
-0.02135403
0.01976836
0.02495493
-0.01856245
-0.01935305
-0.02411212
0.02135022
-0.00393763
-0.00745774
-0.02733873
0.01634190
0.03190268
-0.03020086
-0.00363720
0.00542051
-0.01971137
-0.03104158
-0.01923826
0.02359270
-0.03740694
-0.01608465
0.02930881
0.03750331
0.00313652
-0.01990577
-0.02686512
0.01498563
0.01373478
0.00702473
-0.01608739
0.03981137
