-0.01591944
-0.05303498
0.06269061
0.06531385
-0.03667238
0.06123776
0.05342992
0.00557896
0.04028755
0.05972267
-0.02082026
0.04105090
-0.04354693
-0.00808005
-0.06771661
-0.03664354
0.03090202
-0.04156463
0.05176868
0.01463302
0.08414233
-0.03533303
0.01251071
-0.02527616
-0.01101178
-0.01444818
-0.00750286
0.02709554
-0.06184223
0.01888620
-0.04096281
0.04453543
0.04175693
-0.02469081
-0.03674842
-0.08640480
0.01608869
0.04101856
-0.05106940
0.07610845
0.03394410
0.03878123
-0.02515562
0.02254460
-0.03505140
0.02356237
-0.01369124
0.00663316
0.03174691
0.03527547
0.00572800
0.00085732
-0.00169170
-0.00166743
0.03599191
-0.04342850
0.03039319
-0.05870400
0.01040046
0.00610936
0.07071111
0.03008842
0.01995067
-0.08678474
-0.01010522
0.04166028
-0.02626577
0.04450868
0.03358092
0.07385008
-0.05881793
-0.03584836
0.01071614
0.01568026
0.04340218
0.04259627
-0.05821368
-0.03284505
-0.06230398
-0.04784588
-0.04689022
0.01074723
-0.02384775
0.03677959
0.03100348
0.09687786
-0.00073008
-0.01808717
0.09008379
-0.07232621
-0.00601849
-0.03196873
0.00707072
0.05518973
0.00826204
-0.09091435
0.03226385
-0.05094032
-0.02301421
0.04627572
0.02304632
-0.01786034
-0.04959715
0.03931782
0.04088785
-0.03471003
0.06513742
-0.04686513
-0.03517903
-0.01209476
-0.06876615
-0.07669839
-0.02618880
-0.02848202
-0.02400743
0.05260002
-0.07085539
0.05632627
0.05424963
-0.01043171
0.02631508
0.04557630
-0.03183387
-0.04026371
-0.02183110
-0.03156720
0.02233226
-0.05297947
-0.02579185
-0.05996854
-0.08030517
-0.06577574
-0.03526801
-0.02368006
0.00845926
-0.06129090
-0.04659633
-0.01338300
-0.02593734
0.07992510
-0.07002340
-0.02615291
0.05277278
0.04273929
-0.01647638
-0.08040403
-0.05696204
-0.08692269
-0.05133075
-0.04284607
0.06371976
-0.07027555
0.04036385
0.00698650
0.03603486
0.02461138
-0.06875946
-0.07175323
0.04226629
-0.02035031
0.03038449
-0.03018694
0.03966069
-0.00237556
-0.03056901
0.06546265
-0.01361343
-0.10444473
-0.00604851
0.02494367
-0.04834986
-0.02010237
-0.00010401
-0.02151272
-0.06984292
0.03874781
-0.08560407
-0.03341624
-0.08361740
0.04400465
-0.04123575
-0.03118408
-0.06637761
-0.04533268
-0.02914384
-0.05081099
0.04251873
0.06270591
-0.07600328
0.07221885
-0.05223464
-0.06140402
