0.03861745
-0.00823883
-0.02565436
-0.02873632
0.01988501
0.05329612
0.03134590
-0.06919718
-0.01044011
0.04492895
0.06163476
-0.09072158
0.02134775
-0.07270879
0.07593642
0.05870596
-0.05665008
0.01605114
0.05730569
-0.01661980
0.03163159
0.04285978
-0.01261564
-0.02465873
0.03446337
0.00800115
0.01051365
-0.02820716
0.02867941
0.07349741
-0.04324858
0.08097844
0.10522413
0.05184771
0.00193457
-0.05651860
0.00781688
0.05132243
0.03563605
-0.01972000
-0.06837910
-0.00777766
-0.01491885
0.01337637
0.00907458
0.04723271
0.00632385
-0.01109480
0.06977283
0.00491624
0.04421188
-0.02012386
0.02930916
0.01550648
0.03017792
0.04229953
0.02256509
-0.02916805
-0.00983588
-0.07693302
-0.04646735
-0.03535074
0.02375992
-0.03471649
-0.00913104
-0.03544087
-0.03757140
0.06313105
0.07618502
0.01469897
0.01130812
0.02306546
0.08211865
-0.07204340
0.04026497
0.01015202
0.11110725
-0.09675888
-0.08151412
-0.08173519
-0.01537499
-0.11197392
0.07275951
0.04285059
-0.10601901
0.01684255
-0.02331344
0.07015877
0.04392102
-0.08050653
-0.07966500
0.11357298
0.08785461
0.05139580
-0.04655396
-0.05246120
-0.04322836
0.02992445
-0.07162946
-0.04288021
-0.11512105
0.02184733
0.09157121
-0.02962174
0.00776744
-0.05927748
0.05444876
0.04467859
0.01382072
0.01114264
-0.01599869
-0.02746671
-0.00711616
-0.11490286
0.09582913
-0.02099035
0.00105136
0.11891566
0.03340961
-0.08132929
-0.04038075
0.02612491
-0.02789122
-0.00314315
-0.05877470
0.01475547
-0.01613408
0.01276841
0.03660447
-0.02030217
0.09611602
-0.05710882
-0.03422674
0.04721508
0.06145948
-0.01077760
-0.05962248
0.04299453
0.09152119
-0.11495350
-0.03032317
-0.00077281
-0.01803923
0.01540323
-0.03552872
-0.02973252
-0.07089069
-0.07041087
-0.01399746
0.06373476
0.03114249
-0.02145770
-0.03825383
-0.01990733
-0.10114771
-0.07851347
-0.03976643
-0.08533648
0.06226549
-0.04170036
0.09058880
-0.02606922
-0.01082399
-0.05527500
-0.03782012
0.14762197
0.02450061
0.01739923
0.09019134
-0.00994600
-0.10837202
0.04293226
0.08643522
0.05573691
-0.07047887
-0.07454230
0.09646948
0.00328138
0.08668831
-0.05940137
-0.05617695
0.05359734
-0.04960101
0.01381930
0.03787741
-0.06186628
-0.00215457
0.03346642
0.06807858
0.02700854
0.01644417
0.04235943
