16
9
-33
-2
-18
-6
-14
-28
7
23
9
2
19
-22
35
-11
16
-25
10
12
3
5
8
-14
9
-30
33
10
-42
-12
-2
-28
2
-29
-15
-14
23
31
-30
-11
-30
-17
-18
9
-2
29
-31
8
26
-27
-44
-19
-32
3
-36
-21
30
2
25
-16
6
4
8
16
-41
-21
-27
-3
-27
17
-34
-28
-31
-4
-8
-16
-25
-8
37
-18
-29
10
-19
-2
-22
33
-17
-23
-22
17
8
26
-5
11
-5
-17
22
-13
18
-11
-22
5
-2
-5
3
42
-20
-6
-25
14
29
18
-19
34
3
-16
29
5
11
-19
-10
-8
19
-3
-6
-5
-9
-17
32
-25
-34
30
32
-11
-22
0
-27
-11
3
22
24
-32
-27
23
-33
-24
8
31
0
-17
-32
23
-22
-21
37
-33
14
-7
-22
-33
35
28
39
-26
17
-30
6
-2
7
-7
2
21
7
23
14
-21
26
16
-25
4
30
-34
-21
13
-7
17
-9
26
16
-18
-2
11
10
27
-31
-6
35
-8
0
-33
-17
6
8
-18
-9
27
-10
28
-25
-29
17
-28
-35
-20
-24
42
-30
-1
39
9
24
-27
-14
-21
13
34
19
38
23
37
24
-15
27
18
-13
-26
3
36
-27
14
4
-10
24
17
-13
26
20
-14
32
18
25
-28
-4
31
34
28
-12
34
-25
37
8
-31
-15
7
-27
-20
6
13
-19
-3
-2
-2
46
-10
-28
-24
3
-23
-18
-14
-17
-27
5
-30
23
19
-32
6
19
-22
-27
-29
-36
-2
-5
2
31
-16
11
26
-7
18
-12
-13
3
-34
21
11
44
-20
21
-15
-25
-4
16
27
14
8
9
33
8
5
-30
10
4
-13
-7
19
20
26
-25
-11
24
-39
-18
2
9
-5
23
5
-1
10
-19
-23
-12
-2
-8
-19
-1
7
37
45
5
-25
-54
-9
12
-10
7
28
35
-6
-39
-33
22
-30
-3
-31
13
29
-32
-42
29
-34
-14
17
-12
28
23
22
29
13
35
10
38
-9
-10
-37
13
-4
-39
-41
-23
-31
-45
-24
-33
-13
1
12
-21
35
-46
-40
-18
19
-34
3
-4
50
-34
-20
45
10
-10
16
4
13
7
-27
36
-16
25
1
-44
27
-14
11
21
4
8
-7
21
19
41
12
31
53
-19
-25
-52
-50
1
-24
-32
35
-23
-35
44
-17
36
6
7
-2
44
27
22
9
-4
-9
17
28
-18
21
26
33
-18
0
-21
-7
42
24
-14
-30
19
-48
-36
18
-7
23
4
27
4
-15
55
-18
21
-12
-34
-16
32
13
5
12
11
4
0
8
29
12
-6
-6
-9
-23
42
2
-41
-31
-3
11
-30
-18
-18
26
27
-12
-9
-28
9
-29
-17
-9
0
-44
10
-7
-33
-7
32
39
26
-35
6
33
13
-32
2
27
-61
65
1
-35
-5
36
2
-10
-29
34
13
50
-30
-25
-24
53
41
3
-33
-23
28
-1
-1
-10
51
4
1
4
14
-29
-31
-4
-44
-5
13
20
35
-40
2
17
-2
42
-21
-9
42
32
9
-3
5
1
-16
61
-20
-26
1
-5
-4
-37
22
9
29
-52
8
14
1
-26
51
32
3
43
-24
14
-25
-3
-3
12
-5
24
5
1
-22
-8
3
-35
-24
-21
-43
-10
-2
-40
15
-38
-21
14
-36
-16
-21
-18
15
-25
7
-10
14
47
-14
15
-13
4
-12
29
3
-18
16
0
18
-25
17
15
-36
-52
-3
-5
-2
37
35
35
6
17
-23
-19
14
17
-38
30
12
13
33
9
30
37
-30
32
-42
27
22
13
-27
24
5
-8
-25
13
-22
6
-30
-25
3
-21
-33
19
14
-37
-25
-18
-22
-25
-26
-11
27
-43
-9
-15
-3
-2
-3
20
-20
14
2
3
18
-36
9
50
19
3
25
24
23
-39
-6
-17
-18
17
-27
-12
22
30
5
23
-6
15
-7
-10
-25
-15
-38
19
40
11
-3
-8
28
52
-26
18
45
35
10
39
16
0
-32
-20
6
13
-49
-26
40
29
6
-22
39
-44
8
-5
51
-16
36
-51
-63
-5
-33
-11
-75
8
40
-20
-81
14
22
11
24
-10
-29
-12
-17
-20
10
-14
42
41
26
-71
18
31
13
3
90
5
26
-38
73
34
-36
-54
53
51
2
-22
30
50
35
-2
94
19
-57
-65
-8
-32
-48
-89
28
-6
79
17
-24
-41
108
35
-17
18
10
-6
10
-3
37
71
-22
15
48
-6
-24
88
-13
-33
-47
22
34
67
57
10
-14
13
49
57
-66
-20
50
22
-38
25
-5
1
-32
-67
-33
13
18
-87
6
-27
-10
7
-59
-44
-43
-61
42
-6
43
39
27
31
54
58
0
66
-76
-36
51
31
29
2
16
50
75
-19
95
26
-17
-10
71
-127
56
1
8
-37
22
-29
39
39
-21
72
-32
54
-106
30
-15
45
-60
39
-21
-65
-63
31
-13
8
11
6
-40
-41
23
2
-53
-22
-46
-30
63
30
-40
44
23
34
-10
19
-48
-23
32
-103
-6
30
-13
11
-22
18
-41
-37
15
31
38
2
40
-15
-24
-22
-29
36
-2
42
48
1
19
29
5
-40
14
3
-19
41
-21
49
-2
6
-31
16
-33
25
-13
-42
-48
-12
40
6
-2
7
13
-50
18
31
-3
19
9
-7
28
-57
9
43
1
3
26
22
24
-20
-30
7
12
-16
-16
-5
13
-35
-36
-21
-30
10
19
22
-4
-29
-47
-27
-23
-4
-20
-35
-16
-46
-30
-10
-29
-10
-53
40
16
7
-7
-18
0
-4
14
-13
-31
-7
-27
-19
-19
-2
-24
26
-28
19
-39
26
40
24
-44
-11
-34
14
-34
-13
-27
-29
-11
15
-14
6
-1
-24
36
-30
-22
30
-26
39
-12
-13
-34
-16
-39
24
10
62
13
12
17
-22
25
5
-8
-7
16
35
25
21
34
-31
33
41
-32
-26
-46
-35
32
46
-33
-38
1
29
42
-39
25
18
-14
-24
2
11
-11
-4
-19
-20
-17
-20
-18
15
-10
20
41
-41
-6
19
-8
-1
