3
37
-45
-42
10
38
42
-23
16
2
-15
-52
67
2
37
-17
24
38
-17
-34
-48
17
2
23
-26
-1
-31
16
20
-26
17
-15
-37
-1
21
-47
-37
9
37
-21
-25
-6
-3
-15
-3
-50
-22
-1
-22
-47
-27
-16
-37
-21
-28
-41
-36
30
44
-35
31
1
34
57
28
42
-26
25
28
53
-20
35
41
24
11
-7
44
24
-4
-67
-35
-12
18
-32
56
-3
-23
-37
-55
10
-7
20
-4
-8
8
71
32
41
-19
4
2
35
8
-39
6
-4
1
42
23
3
19
-1
34
-10
30
-19
-59
-30
-36
23
14
11
82
-1
67
1
82
58
44
5
-2
38
61
-31
11
-8
9
-49
4
-4
48
22
-1
-20
-16
-11
-24
-38
-41
-52
-30
72
-1
-12
16
-1
32
50
-13
57
33
-29
54
-27
8
21
-56
47
9
-35
7
32
37
-28
-15
9
56
7
-7
20
13
56
-16
58
15
-17
25
-32
-42
-29
61
11
-63
-2
36
-52
2
5
-28
-7
8
28
2
13
-26
-10
41
-8
-29
9
10
-32
6
-8
41
30
14
-41
61
-14
36
12
54
-19
19
-43
1
49
10
-2
-39
22
-39
39
3
36
-9
14
-6
-19
-19
32
7
-11
42
-39
17
37
-19
-51
-25
-22
-14
-30
-42
-41
-7
-38
-30
-37
16
23
-3
56
-39
46
-41
9
9
26
54
35
-25
-43
-41
29
0
32
-5
4
12
-45
29
-18
20
44
-9
-42
-45
-16
-10
21
15
1
-8
-15
-25
31
50
-27
-19
10
-10
13
25
27
-47
47
34
9
-38
-14
22
-3
-31
18
-40
-16
-60
30
-4
-3
-8
33
-7
-17
-17
-21
2
0
-2
-10
15
34
-14
17
23
29
23
24
-63
30
0
-62
22
31
28
-11
16
20
18
-11
-43
-4
-29
-38
37
26
2
-27
0
-34
24
-29
-1
36
-17
4
-41
-9
-14
24
-15
21
37
-25
3
23
0
-14
51
13
29
0
-29
-49
46
-17
-9
25
-10
13
-48
-2
-23
-26
-20
-68
-26
42
-15
53
-25
16
-23
-26
-21
58
50
-6
26
-20
31
-61
0
-50
-48
-27
-56
-35
-23
-6
-27
-16
-55
30
51
8
2
18
0
12
21
-30
-21
2
-49
-15
-3
59
0
8
-8
2
24
-5
27
-11
-9
22
48
-23
-1
49
31
24
-4
5
8
-1
31
17
6
-27
49
43
67
6
-27
-41
-36
13
7
59
29
2
33
-16
33
-70
-18
-5
-12
15
-56
4
-31
-40
-20
-41
-19
-24
14
48
-6
-29
-31
54
-11
12
10
-17
-19
-19
-22
-33
30
-9
-7
-27
-19
9
-2
-29
28
19
22
17
-48
8
-17
14
-39
34
-35
54
-41
4
-38
36
-9
-30
-47
-19
-37
-31
24
-35
-12
8
31
30
4
-1
33
5
12
-48
-9
-8
-6
-67
-48
45
-1
-10
-24
29
45
-7
-34
-34
-29
8
0
21
-27
-24
-18
41
-59
-5
10
38
0
22
-9
60
8
-20
-10
34
-59
26
-1
29
17
24
-45
-27
-13
-49
-1
51
7
10
0
37
61
58
-15
5
-36
-12
40
-59
-22
46
-22
-29
-2
14
-19
-12
-11
48
-6
39
-42
23
35
-39
31
7
-39
-24
-71
25
-10
49
32
-22
2
48
38
4
31
8
-38
-51
8
-11
-47
4
-12
36
-20
12
30
-32
-51
26
-40
69
-25
29
-36
30
-37
33
-39
8
-54
-24
4
-67
-26
21
-6
-43
-49
-23
-15
35
1
-42
-57
40
-15
-27
34
51
0
-26
3
52
3
20
-12
39
9
15
-16
38
32
1
8
6
42
-9
-46
-68
-5
47
18
14
13
19
41
4
14
-28
33
-22
-36
-15
15
-26
-43
-16
-11
-14
-35
-13
0
40
-22
-8
52
-2
-25
38
10
41
5
-20
-30
-18
15
-29
16
2
56
-69
-1
-7
-28
1
-3
-6
23
11
-21
7
8
-25
16
19
-24
26
37
60
-50
23
12
43
-16
24
-9
-3
24
24
40
62
-26
66
-15
4
19
24
37
21
-6
12
4
-4
-13
-33
-9
6
-37
41
-1
6
50
22
27
0
52
-10
-20
-48
-46
15
32
11
2
34
-7
33
-72
-11
43
-14
-33
-40
-26
34
-50
-14
31
33
0
-35
-16
-10
33
-28
-3
28
16
-1
-22
-19
-11
38
-22
10
-12
-54
-24
15
15
16
-52
-73
-16
47
-39
52
23
38
39
0
46
-25
33
12
-46
-40
11
37
-38
71
20
-59
-49
42
-12
28
-8
60
-40
37
21
41
-41
-6
-38
30
-15
13
-68
0
-29
33
-49
20
-25
21
26
-1
-30
-8
33
51
-105
20
-54
4
17
-14
-14
26
-1
22
-22
-3
50
-35
66
-26
-42
-13
-3
44
9
7
-40
15
54
50
-6
63
-60
21
-21
-6
-20
-14
-68
54
-34
-11
-29
8
-5
-9
-52
27
-15
52
-24
-12
-25
-24
33
-17
50
41
21
18
-13
58
11
-29
46
-1
-44
-51
5
-4
-24
17
-13
-40
33
-3
-8
-59
-27
-3
56
6
7
-23
28
-23
32
-36
19
14
24
8
13
-20
6
-12
-29
38
-67
-67
-11
-24
-38
-41
42
3
-3
-19
4
-22
7
-31
-26
3
58
-33
18
-17
16
58
4
9
-19
-6
-18
-25
25
-1
29
-20
24
26
-41
-9
-39
-42
-33
27
-51
1
-22
-6
-23
-43
52
-17
-6
-48
27
-21
24
-24
17
21
-18
39
-12
34
-3
-4
57
-30
-11
25
26
18
-27
24
-27
25
-3
6
3
-30
-22
-22
21
-24
-30
-36
30
-30
-10
-45
-73
-60
-10
-38
-22
2
-13
24
27
23
15
0
15
7
51
-19
-1
8
-2
34
27
-41
-11
-22
21
17
2
-41
38
-18
18
-32
54
-56
5
18
-3
-36
-2
40
12
0
-1
-28
62
-55
40
-34
13
-28
-15
40
1
-28
14
41
-20
-18
28
-11
32
21
46
18
17
22
-41
-22
-9
-49
11
-40
-28
-26
36
-35
-76
20
13
-31
46
9
-49
37
-43
28
-7
-12
-54
-30
25
17
-7
-37
76
9
14
-17
19
6
-42
25
38
19
14
41
41
17
-9
-36
-8
68
19
-24
6
34
31
-19
8
21
29
34
27
-49
-1
-20
11
21
26
14
-27
-9
20
-45
-25
31
-14
-36
-2
-11
-3
-19
1
18
-50
42
11
37
-1
22
46
15
-27
-52
21
5
-41
10
-33
-29
-38
47
28
33
33
23
18
11
20
29
37
-17
-39
-32
26
21
26
3
61
25
-31
-21
6
44
-12
-24
-11
60
43
19
-37
19
38
-39
13
24
-54
-45
-63
24
-17
40
-75
-20
-31
-9
-61
-29
-15
49
-6
-1
-12
46
55
4
39
-17
-18
39
22
19
44
-33
-42
45
0
-13
57
-7
-30
55
-24
-13
26
-40
-61
11
-41
30
-5
29
47
-27
-17
-30
15
14
21
-26
-38
-22
-30
42
12
18
-36
-11
26
-45
-3
2
-20
9
57
2
-10
5
-66
0
-27
43
-9
41
-3
42
4
4
40
1
-34
17
11
18
-15
36
23
28
45
35
-8
-7
42
35
30
-4
44
-2
61
11
-8
-53
9
29
33
-4
-44
23
-30
51
-32
40
-47
-1
-11
-11
28
15
11
2
7
29
13
21
14
-43
-68
-5
33
-29
-56
-12
-1
-6
-35
17
38
-12
32
9
-17
-32
26
-18
-45
25
21
42
0
-41
-32
-26
-46
9
-9
18
48
5
0
27
40
55
-11
-14
30
16
33
34
-33
66
22
16
-27
-45
41
12
21
-8
-15
-8
-33
46
-48
10
25
-4
21
66
4
-24
-83
42
-56
15
-3
-1
-47
-37
-69
-30
19
32
0
4
35
48
35
-37
-35
-27
-37
-8
-29
32
51
18
-43
65
-40
-80
51
-12
-31
42
-11
19
22
-19
-17
-30
-66
-28
41
4
1
-58
-57
-3
25
-27
3
19
-3
-24
-47
38
-29
28
-31
-9
1
2
16
17
-23
-10
-19
37
9
-1
68
-2
-17
22
-13
38
-20
-50
24
-18
-48
-17
23
8
7
-26
10
38
-2
-26
3
39
51
-65
-31
-8
-20
-30
8
29
-61
4
-22
-60
-4
-11
11
17
37
14
39
-19
-1
-13
15
23
30
38
-16
-1
-36
-29
-42
-7
-37
19
28
-40
7
3
0
4
-13
-17
21
42
70
4
16
-55
-26
28
9
11
-21
-52
9
13
-3
45
41
55
23
36
39
-39
41
25
-33
-2
-41
14
-23
0
-2
-11
-40
-30
-22
56
45
-20
21
-41
6
-21
-29
8
-49
-43
-5
-5
4
46
-28
-51
-27
40
35
-34
-15
31
7
22
34
-6
15
-28
-20
-13
-14
-29
-23
12
-33
38
28
11
-27
14
-58
-1
-24
7
2
-26
8
25
34
-3
-52
-11
-59
14
10
18
11
14
-12
8
-26
-14
55
-34
-34
15
-44
47
11
28
-8
8
31
-1
31
36
50
-36
48
32
46
57
35
56
11
-27
10
-55
12
15
-10
23
37
51
25
21
-32
27
-42
-9
21
-35
-22
36
77
19
20
15
36
19
2
3
14
1
51
-32
-39
34
-33
-32
-23
5
-20
13
12
42
-51
-14
24
-18
-22
-13
-16
8
47
-51
24
-67
35
-26
16
-41
-21
-40
-59
15
-23
62
35
-32
-27
28
-68
-1
19
44
-2
11
58
-14
16
-36
-58
25
-35
40
54
-7
27
-58
-57
6
47
56
48
26
54
-38
45
-49
-19
44
-49
-8
26
30
23
50
29
1
14
36
65
-47
-19
-38
-31
7
-10
-19
-17
-47
-22
11
-8
43
-17
5
-21
22
-22
5
-57
-19
11
-50
-22
127
26
13
-30
-61
-13
9
-11
15
-42
-38
11
33
25
-10
-20
-12
-30
14
25
-41
-19
-19
37
-11
-18
26
-23
-4
29
-58
46
-29
1
17
9
-16
22
20
-26
34
-23
82
53
74
12
27
0
12
40
39
-21
25
-1
0
38
34
-34
63
23
-71
3
9
10
-26
34
-53
-53
30
37
34
36
18
-24
-14
-5
-10
-43
13
-2
27
12
-24
-24
-50
-2
-45
1
24
-19
0
0
-33
-8
21
-7
-18
39
64
18
30
-11
79
-47
-1
-9
32
25
43
-26
3
7
39
34
-35
18
30
31
20
10
-6
19
-37
45
-60
39
44
6
8
-11
-19
-24
-18
42
-35
4
16
-12
14
-4
-3
0
-46
-32
6
-10
-15
-49
39
1
56
10
-6
-21
7
-8
-16
-35
1
-17
48
-16
-20
-48
-42
48
5
-33
-11
29
27
6
19
19
-30
-34
-17
-2
-22
1
-27
-47
-2
46
-6
-27
-4
-6
-8
-65
19
-50
44
-68
-33
-16
-34
30
-21
-34
-46
1
-6
-6
-22
57
16
19
46
17
12
15
-40
6
26
-8
70
-25
-14
3
18
40
-8
18
-17
-51
-27
-34
42
-70
-20
-14
31
-17
-11
-29
4
48
0
-33
-16
-28
-4
-29
31
35
-11
-48
-47
-22
-5
46
-29
36
-7
28
31
6
-39
3
14
-45
-9
59
-3
-6
25
-9
-11
24
52
-31
-13
-17
10
22
-1
20
59
-10
16
-32
13
42
-21
48
3
-30
-36
41
49
57
-15
20
56
-34
-42
-26
60
12
45
-15
35
-35
-18
-8
32
-41
-13
-37
-42
33
-38
9
-13
-5
-1
-44
-24
34
-17
-53
-59
41
33
-37
3
17
15
-11
15
-16
38
11
6
-56
-45
49
52
22
44
16
17
-34
46
-5
12
3
-25
19
11
32
21
-16
-34
17
27
12
0
26
2
1
-12
-10
19
65
-23
-35
-20
28
-2
-26
16
-56
55
55
11
18
14
-55
-47
-58
-3
-68
-18
-76
-7
-63
27
14
-37
-32
-8
-29
-36
5
26
2
16
-27
0
-4
25
23
22
-22
-24
-10
84
-18
-74
-18
-26
-9
43
-21
16
21
-8
-18
-8
-42
-45
28
-22
50
-63
-32
30
22
-3
-28
-7
5
-54
-26
-2
-10
12
3
-1
34
-38
50
48
-30
16
63
54
-21
3
-67
12
25
13
3
2
33
-1
34
15
-35
-24
-49
15
26
23
-41
-21
17
5
13
7
-26
18
-28
-48
5
-14
9
4
6
51
27
20
31
12
-28
-29
-25
-5
-27
3
27
-12
-14
-4
-63
-50
-64
16
7
-31
83
-35
36
-37
-28
-23
-43
-41
27
38
10
20
48
-1
-50
-30
-28
-9
17
29
15
-35
-22
47
-21
11
61
8
-8
-4
-14
-1
9
49
20
26
46
9
-23
-43
-57
13
-5
-44
22
-25
-35
20
-46
-1
-40
27
42
36
34
38
-32
-8
44
40
-38
-24
-22
57
-15
44
4
-19
-5
-12
-26
4
23
29
-37
-14
-21
-30
-42
-11
7
-45
16
-10
-13
-12
-17
10
-7
-9
-15
-16
-29
-34
5
-24
-5
60
-31
-17
22
-12
9
12
-55
31
2
-36
-36
23
-71
35
-9
-55
61
-9
-26
-45
24
-39
3
8
-23
-44
-42
58
9
-27
-41
-35
30
-77
6
-3
24
33
-19
37
3
-10
-6
-17
47
-25
20
3
-59
3
15
44
-8
20
-53
11
-41
18
11
28
-7
53
31
32
1
81
1
9
33
24
21
-35
3
1
13
29
-15
59
-10
-51
-5
-30
35
32
30
4
-37
69
3
-51
-23
39
33
-34
-20
39
-8
46
35
3
-51
-9
15
45
-12
-28
26
-16
5
-32
-5
33
11
-42
-58
18
17
-10
-45
30
-12
24
54
11
45
-10
-58
17
31
1
32
28
47
-2
-25
-24
5
-60
-2
-40
35
35
-12
-13
5
35
12
-23
3
-3
15
-13
41
-13
5
12
-12
24
30
53
-51
76
10
-10
-16
-13
32
11
-26
-11
6
-38
22
-21
-15
-13
73
-51
-15
10
-2
12
4
7
33
-13
-3
16
-11
9
-1
36
32
-79
31
-42
10
5
-43
5
-24
-38
-9
-52
-11
-41
-40
-6
-23
-94
3
-20
-27
-56
-16
-4
45
9
12
8
-1
-28
-40
-7
-4
6
25
17
8
46
-3
26
9
7
3
24
42
-43
-9
17
43
39
-47
5
18
17
36
-53
-56
19
22
60
-44
17
17
24
45
-16
11
30
-2
-18
-53
43
-4
-86
-20
-8
22
-23
-24
-8
21
-7
40
-16
-9
-16
20
-64
-19
29
55
-51
49
-7
-83
32
24
26
-16
79
1
8
4
-35
-5
17
-8
48
24
45
13
30
10
-38
-32
37
-20
1
58
22
27
17
18
6
20
-30
33
-33
37
-24
-25
-13
-41
20
27
-45
7
-32
-40
2
-6
51
29
29
-3
-21
-40
-33
-53
-34
18
-5
-6
5
-7
26
-10
19
-1
-63
37
-42
49
39
-8
-59
-11
4
42
-21
55
-10
56
-36
37
11
17
-18
4
-22
-61
-26
30
-33
48
-26
-2
23
22
-29
10
-74
37
35
-10
32
24
-4
12
7
46
25
-1
-7
54
36
1
3
5
43
37
49
-22
-14
-1
-9
-1
43
27
-12
-47
11
-1
37
-48
8
-13
-54
-15
12
11
-16
13
20
70
21
-34
31
5
50
-4
9
1
9
40
0
23
-55
-15
-11
-26
47
-80
-18
-21
28
-6
30
2
44
15
-46
31
-7
-29
-67
-3
52
13
-42
-48
-51
-5
-48
45
-52
-8
12
-34
-25
-19
7
35
-23
-3
4
-19
19
-14
5
-31
1
-9
-8
28
-46
29
10
-31
-45
15
11
24
13
15
-18
9
-12
14
-31
54
13
-5
3
-30
35
-23
-52
29
-17
-30
-22
-36
-22
-19
19
16
6
13
62
-36
-7
5
-4
-31
-48
-19
-23
-1
-1
-19
42
8
-1
-21
-1
-32
24
46
-59
-11
19
23
-28
-15
-13
50
-55
43
28
42
25
12
8
26
48
-11
31
1
-5
25
-42
3
5
18
-37
16
-1
-41
29
-17
9
-35
-19
-18
11
17
16
-1
-13
18
-10
18
-4
78
-8
12
-21
11
-2
11
42
-37
-30
-72
-10
11
14
42
4
53
-53
-2
11
-1
31
21
10
-9
-8
3
-47
-34
-15
-31
-27
16
-51
57
11
-13
-58
-24
11
-32
36
4
25
-30
4
29
-22
15
-22
22
54
52
-23
-38
33
-17
-21
14
23
-33
-75
0
-19
19
-14
-53
45
20
-53
-24
4
8
-21
5
-37
7
66
-3
-20
21
-2
-33
3
48
32
-42
-35
7
21
-12
38
-43
6
39
-22
52
-1
49
-31
-17
37
39
5
21
-38
21
-48
-45
0
25
-13
-10
32
45
7
24
5
25
-27
11
27
-37
63
8
-2
21
-20
6
-17
-10
-17
-15
-32
42
-11
-15
3
-24
-2
40
53
-30
-2
34
-30
-1
28
19
49
-25
1
-35
-25
2
29
-15
39
-52
-25
43
-10
-4
-37
-85
-3
34
29
-24
20
23
41
-28
44
-31
-66
14
-20
16
4
26
38
-27
-65
-16
-57
19
16
21
-19
-5
-45
19
2
3
-81
-77
20
12
-37
-22
-4
-22
35
17
-9
-17
32
-25
-17
-24
2
42
32
38
44
-26
-2
28
-11
-8
25
-24
-16
-37
-28
-5
-20
-2
5
-55
23
-27
16
2
-11
8
31
2
0
-38
-28
59
28
40
25
-45
-1
-26
3
16
40
32
28
23
20
25
-12
-17
67
-3
-34
-39
13
29
22
-27
18
8
34
-27
-58
-56
61
-41
-13
24
5
25
-16
50
-81
-31
6
-21
1
21
-59
42
-23
-35
-14
-17
-2
15
-37
5
-5
-24
5
7
-67
-20
-18
-27
21
20
43
27
11
20
17
32
-14
28
-19
0
-14
32
-5
36
0
-6
-25
-26
-23
17
-4
-34
14
90
-4
-25
-15
17
-6
3
43
-56
51
55
47
-33
13
-37
-34
-75
39
-55
1
-17
-25
-62
-41
-47
-31
18
-14
44
-51
22
59
25
18
24
1
-35
-20
-13
-59
13
3
-23
36
-57
18
-17
-40
-15
58
-16
-29
-28
-20
-7
-4
-47
-43
21
-22
-8
23
35
10
2
23
-10
-26
16
22
23
18
81
10
45
3
26
-37
58
-19
63
46
25
-5
-13
16
-4
48
-14
16
-12
52
52
-41
8
-34
27
-40
24
-7
-32
6
21
4
50
10
-78
-22
21
25
-25
16
6
24
27
-58
15
-25
-47
6
42
-68
-8
30
26
33
-42
23
-34
26
1
-16
-14
-61
39
-21
15
40
-44
-34
50
-58
12
38
32
0
33
0
-2
42
14
-21
-19
-9
-30
58
-11
-26
-9
-44
40
-20
16
31
-25
-42
-12
-58
34
-43
-22
27
6
-6
-14
-39
6
-4
9
9
12
18
2
41
30
-12
-16
34
-1
-4
-18
-46
-23
8
1
30
-32
39
43
-4
-10
-51
-37
-18
17
18
31
11
76
-11
46
-52
20
22
-43
-20
9
-12
60
2
-13
23
29
-28
1
-55
28
13
9
45
37
-34
21
-20
26
24
-4
63
53
22
-32
46
7
48
35
-22
-7
21
3
16
5
-25
26
-34
-10
20
-24
14
-16
15
27
34
5
-29
-47
34
-60
-30
18
33
2
50
-43
-1
-14
-49
6
-2
49
0
37
12
0
48
34
-22
-2
-13
-9
-1
25
-44
6
27
23
5
0
7
0
42
59
11
-5
-5
-14
-1
-4
-14
-25
-50
-40
15
17
-26
-9
33
5
-39
-37
-15
-18
8
43
-73
-24
30
62
11
-26
75
-16
-13
-15
-2
14
34
2
47
21
18
30
25
14
71
46
-22
-9
-38
31
-34
20
-11
22
-2
47
17
15
20
32
36
-1
2
29
-14
22
17
-29
31
-8
-40
14
-42
6
-10
-18
27
9
29
-11
-18
24
14
21
24
-63
-21
16
31
-20
-61
-44
-30
19
22
-13
-31
55
-6
-5
25
52
34
23
12
40
-30
28
-10
56
-41
-22
-22
-42
50
-14
-3
-33
0
47
-59
7
-1
-23
39
8
-23
47
-16
-45
26
-34
12
10
-15
-23
-41
18
34
20
13
35
18
24
37
11
54
25
-10
16
13
-11
-1
-5
14
-36
-38
-6
25
29
35
-24
68
-39
22
-5
-7
0
-49
23
-55
29
-1
-32
19
-30
-5
-32
-40
12
36
7
54
7
55
27
-39
-26
1
-33
-30
60
23
43
-70
26
-41
-34
31
36
43
-56
25
-57
43
-28
17
17
22
-23
14
44
-49
34
-15
-33
2
63
-31
-32
48
32
-47
-13
-2
0
-36
21
-35
28
37
-54
30
-56
55
41
1
-31
-30
-18
-2
5
30
39
-10
-21
-15
44
-43
43
-8
-23
5
-66
22
12
-25
32
-19
-33
42
11
-4
21
-41
-33
48
4
-16
-13
-7
7
35
8
13
-6
-9
35
31
-11
-15
27
-55
22
-19
-28
-24
-12
-13
-60
-10
11
15
-10
-24
-22
89
-15
-27
23
-9
4
66
-40
-42
25
5
3
-2
44
-36
-13
1
-25
-19
-41
-28
37
1
14
3
18
-28
-45
-42
2
-46
-5
-53
-25
-20
-18
17
41
6
35
30
10
59
50
18
5
41
0
33
1
-27
3
8
13
33
-26
42
39
8
0
-29
-5
44
-18
25
16
-6
3
20
29
-41
36
-19
10
-5
-43
34
30
18
31
-54
16
-28
-34
49
-4
-5
42
-27
-18
5
18
-5
-40
28
10
31
19
-14
-56
23
-25
-29
19
-7
47
-31
29
-47
67
-38
-13
-40
34
3
-33
-30
-12
55
11
41
10
10
-52
35
3
38
18
-2
58
-46
-25
-8
-5
-28
32
58
41
37
-20
51
-64
-26
10
17
-31
5
-27
-37
-38
-7
-1
23
-26
-41
7
61
2
-29
-22
-23
-30
-27
5
9
13
44
15
16
-39
49
-14
15
11
-49
45
-27
28
20
0
46
44
12
-23
-21
40
25
15
-17
-44
9
-22
8
-48
7
48
35
45
1
-29
-7
-40
-32
-52
45
13
-23
10
-11
-23
-24
17
14
-44
-30
6
-25
6
-2
19
21
-18
12
30
-8
-9
-26
26
3
-9
-47
10
30
31
-17
-9
10
40
-33
25
1
-22
-11
-41
-30
17
-27
-31
44
-43
-48
9
22
-21
36
43
-24
-1
50
-44
-19
16
-28
-15
45
43
-15
-40
-21
18
6
5
-41
14
57
-1
34
45
1
1
34
16
10
23
-9
11
36
19
-19
46
-18
14
-23
-10
-26
-10
29
-15
13
-29
-38
-36
-22
6
15
-42
-22
-16
23
51
1
-12
-34
-5
-27
-36
-19
1
0
40
-39
13
22
-46
-56
-40
32
-19
27
-15
17
-20
7
48
45
-22
-36
42
-50
9
-31
-28
-34
20
-62
-8
56
36
-61
-14
-35
-7
20
15
20
5
51
23
-6
-48
17
-34
7
37
-37
49
-14
-45
17
10
60
-9
-14
-15
6
-21
-57
-26
-18
23
-37
5
14
21
-58
-54
-16
33
26
27
36
36
-22
14
30
-16
-36
19
-48
8
-34
-5
27
22
24
25
42
-32
65
69
60
30
-41
-34
1
-47
-15
27
29
6
15
4
-27
53
-9
29
-11
-68
-39
40
-32
-73
-1
-21
36
-20
18
-71
12
-20
-39
47
-37
-20
9
16
-31
-22
-7
0
-34
-4
-50
-35
42
-16
-51
-6
21
43
-18
0
13
-12
3
37
45
-45
-64
55
-14
1
-19
-48
41
-2
5
-4
37
23
-12
-9
89
-9
-54
34
38
3
-41
-33
3
-33
-4
3
25
47
14
-17
7
-40
-10
12
36
79
7
13
1
44
7
-16
9
-35
42
-18
6
-13
-19
-8
14
-38
9
-38
30
26
21
-4
20
-11
4
38
13
-24
35
11
3
-6
-20
-5
-12
-1
3
49
4
-18
-11
1
-27
-25
9
38
14
-39
38
19
-12
-11
-7
-5
5
-41
-15
31
61
54
-3
-23
14
37
27
-27
-14
-13
-31
-14
58
-22
37
-41
17
-49
26
-2
-22
-28
36
28
19
55
53
19
40
0
-27
-47
10
-8
18
-4
-8
-2
23
-17
-74
14
-38
27
53
-15
14
-36
-6
-40
24
-4
17
-36
39
-21
-3
13
-77
31
5
-31
-27
-28
23
-20
-11
-9
16
22
-37
26
-1
77
-23
16
-5
55
65
1
-49
4
-11
18
30
1
45
45
-27
-6
-23
30
6
11
44
24
-7
-10
-19
-51
25
-4
-47
-5
-5
-27
-24
16
13
-34
-63
-2
-3
-10
6
29
4
-39
64
30
24
37
30
-19
2
-16
52
-24
-11
59
-19
-15
40
-45
2
-8
-14
-31
74
13
-38
5
-1
-30
36
-50
50
86
-16
22
50
-18
5
-4
26
50
21
9
-9
54
-39
11
-6
39
6
-38
-48
78
12
-34
-7
-4
26
28
-73
38
5
3
-16
20
-1
-45
-30
21
-30
-25
-20
-26
-50
-20
-27
-7
-51
-90
2
1
-60
-54
41
-32
-13
-14
-63
56
40
93
34
71
13
46
-9
43
-16
25
19
-28
46
-23
27
8
-37
31
33
-34
-17
25
42
14
62
-10
-7
-48
29
-15
-2
46
-21
-31
-2
1
-37
27
12
-15
13
9
5
32
70
-27
-39
-33
20
-35
-19
-12
23
76
-54
23
39
34
-12
-24
33
-61
9
-19
-39
1
36
-39
33
-18
-16
30
-27
-33
20
-3
35
-22
59
12
-51
-13
57
11
29
-25
-19
44
-7
-46
28
-17
-2
10
-29
-20
-4
-6
-30
0
61
29
-1
35
19
-48
-21
47
-14
2
-8
-5
31
-23
-6
29
-28
-50
36
13
-36
-27
-24
-32
-28
-25
-56
-9
6
6
-10
-26
21
11
32
57
-13
-14
-45
-65
51
11
46
-12
31
-36
-60
-46
2
45
33
4
-39
37
2
-24
-3
6
-63
15
5
33
-50
39
28
37
20
-3
-3
-28
1
-31
31
-10
2
36
-16
6
13
-43
-51
-24
0
-22
-17
35
38
-49
-31
28
34
-59
15
-10
6
-51
-12
25
-24
-34
22
-14
7
12
6
7
9
37
-28
-35
33
-45
-3
23
-10
-28
-93
31
-9
-5
-41
56
-4
17
27
-38
8
56
-21
-38
-11
-61
39
-4
-16
19
11
-28
1
-4
17
-56
40
-14
-17
2
7
-51
-7
36
24
18
27
46
-3
-46
-26
-20
39
29
-46
19
-52
48
37
-8
-29
-40
18
-48
-24
-63
16
-23
-22
14
-2
27
58
-63
-7
-28
-37
-8
3
-9
26
-14
-34
16
12
26
8
-25
32
-5
-38
2
-36
24
-48
-16
17
15
17
-30
-13
43
-40
53
-16
30
25
-35
-12
-26
-39
51
54
-15
40
6
23
-38
55
-26
13
-37
-15
-44
-40
64
-14
-12
-47
49
25
31
72
10
-61
29
-18
9
3
24
0
35
-15
-9
6
49
14
31
-36
28
9
-39
13
19
42
-12
29
7
-48
26
17
-56
-4
-32
7
63
30
-37
8
8
4
-34
-32
-21
-55
34
-14
52
21
-9
46
88
38
-9
7
56
15
4
26
-20
29
-9
35
-20
20
-24
0
61
-1
-24
0
-17
20
-24
-40
-10
-19
-6
6
20
-39
47
29
-3
6
33
15
50
-38
3
47
-28
25
-42
9
-51
43
4
41
50
-10
17
-19
-4
12
-15
34
-3
25
21
-31
-1
61
-8
-50
-51
-43
19
-28
2
-35
-4
3
18
39
20
-61
-26
7
-27
-31
-23
24
-14
66
5
7
-33
-38
4
29
-16
1
13
-40
9
-31
-18
17
-52
-3
-27
-6
10
-44
41
-42
50
-11
35
-36
2
1
-8
2
58
21
-11
-11
-12
-3
39
-54
31
75
53
27
-22
29
19
0
-18
-6
16
-15
-7
4
43
1
30
-53
12
36
5
32
-17
-56
50
8
43
47
-3
-14
35
-61
-47
-9
28
-3
-19
-5
-26
16
-3
-38
61
11
-15
36
-39
-1
3
3
-66
-2
7
31
46
-2
-9
12
26
-26
-35
14
-2
-36
56
-48
38
40
13
28
48
53
-16
15
39
-8
-27
9
10
-38
-36
14
-40
61
-21
15
-27
-83
-9
41
3
0
-37
-66
19
10
22
-9
21
-12
43
28
-19
7
29
-24
27
19
31
9
38
50
15
20
-10
10
15
27
32
-16
30
-57
20
14
-38
12
-48
46
-63
1
-34
40
-47
12
-38
-15
17
-42
33
12
-43
-23
-12
-30
13
-54
-15
21
-25
10
55
-34
-50
59
-24
-16
15
22
-6
-39
-31
-12
-56
-25
-45
-19
9
-13
26
8
32
-27
38
-3
12
34
-5
5
19
17
-21
19
-46
10
-44
29
26
11
3
11
37
-47
7
-12
-33
3
5
30
-41
63
-40
-24
52
47
16
-24
20
-53
5
7
-16
-16
-33
0
34
-32
53
-42
40
46
46
-24
50
-35
10
17
30
-5
8
-14
24
10
-44
-17
21
12
28
-29
64
-36
5
-38
31
-78
12
-35
30
-22
-11
30
38
-19
-18
65
17
7
-44
12
52
57
39
-34
8
34
-14
-27
31
-29
36
-45
-23
34
44
-2
-54
33
16
13
-16
-49
33
-19
-5
33
-27
-57
36
4
17
0
-9
-60
-2
-2
25
17
16
20
30
6
60
-13
-16
45
47
14
-41
-27
-1
16
5
-24
66
-2
55
27
32
1
1
23
-72
-10
-59
7
-9
-24
-2
19
-19
-24
23
6
-23
-10
-22
21
-23
40
66
-28
4
58
31
35
2
4
-1
47
-23
24
40
8
39
13
-34
15
-6
29
7
30
-12
36
39
30
-29
-9
-52
14
14
13
-23
34
-1
-10
-19
23
-12
13
-27
-39
-42
-4
49
17
-41
-42
12
-28
7
-29
-50
25
28
44
2
23
40
39
-56
45
25
25
-22
16
-37
-26
32
30
-18
22
15
26
9
39
25
-3
-36
-19
-6
-10
5
-38
4
8
29
-1
55
-25
21
-14
16
46
9
-7
12
-68
-36
-30
-18
7
26
-9
-19
-39
7
28
-22
23
-44
21
-31
13
1
-27
-11
-34
9
12
-54
36
-30
-34
2
-12
0
-18
38
8
-13
-29
-39
29
2
-2
-75
-32
43
23
21
-49
26
36
-41
18
29
-16
-40
22
-77
22
19
-26
-29
-1
-2
-42
-6
28
-32
-14
-60
14
-22
-28
24
37
-38
38
65
16
43
0
-12
25
13
31
-8
59
46
-36
-8
-17
4
-5
-23
-2
6
-12
7
-9
-46
81
25
-17
-19
5
3
4
-40
-24
1
20
-9
2
-48
54
-25
-19
-33
13
33
-30
-55
-9
-29
-68
-36
-25
-26
-17
35
-11
21
-25
13
10
25
-5
1
-14
-49
-18
-52
-25
-40
-27
24
68
-26
46
-31
-29
-3
23
6
22
-11
-48
-41
27
37
24
-1
-6
13
11
67
24
5
15
24
10
39
49
4
-2
-2
-6
14
-3
34
-8
19
-40
-9
9
-20
30
10
38
13
5
-23
-47
-21
-26
-51
28
27
10
44
21
-5
24
-11
13
11
-33
30
-47
-9
30
46
11
20
-2
34
35
39
-3
60
11
23
-16
37
-8
-8
6
-49
6
-23
2
25
-5
-40
44
54
55
-47
0
32
37
-5
-38
14
14
-7
41
26
9
30
3
1
-61
-42
-5
-5
38
49
-19
10
32
55
26
53
13
-42
-27
39
-14
11
22
-11
46
-21
30
-25
-12
-57
-32
-16
-28
-44
13
10
16
-8
-40
13
-12
48
47
69
-22
-33
32
-51
-3
1
-18
32
42
-28
41
10
34
10
-23
5
17
-34
-3
1
-10
-23
39
42
5
-7
28
8
2
48
40
-24
-18
46
-2
20
-25
7
-44
-18
-39
-25
-36
-17
9
9
-62
-22
-28
22
-5
-9
-30
11
31
19
25
-41
10
-52
10
31
65
-43
-37
-69
-11
-37
30
44
27
-26
17
13
11
-45
-32
-17
-45
-47
41
-37
37
1
-35
-5
-38
18
-54
32
-23
-12
27
-21
46
8
-23
12
13
6
-19
16
-15
7
-17
-12
-12
-14
3
-31
45
-29
-7
-25
-7
-53
-51
-32
-24
-50
20
-16
-30
-5
-29
34
10
25
21
-26
37
5
20
5
11
-63
-76
-16
39
33
-38
50
1
3
36
-25
-28
-2
31
-57
43
-33
4
15
10
46
2
19
39
-24
13
24
38
-41
17
1
16
21
27
30
-3
26
34
14
27
39
12
67
56
33
24
-51
-12
8
-7
-39
-10
-28
-16
36
4
0
-43
15
23
-19
-34
-17
-52
-17
-6
-5
53
-21
-29
-27
28
10
3
55
-21
46
-9
46
-28
32
44
40
28
-7
-13
57
33
-15
-30
25
34
1
21
-4
14
27
-12
-1
4
48
-21
35
-71
-44
-3
13
-9
1
-21
-6
-1
51
6
-6
41
-18
-18
-17
14
-14
-20
-52
2
26
4
-8
21
-58
19
-26
49
-32
43
4
-33
-6
-26
-32
23
4
-44
-36
10
-11
-21
40
20
-13
40
36
49
10
-3
-22
21
9
-16
-11
26
9
-17
45
11
-24
39
-5
-3
1
31
-37
14
0
-28
-25
33
-31
53
5
16
-4
5
-11
15
18
-2
-43
17
-25
67
-32
-14
-11
4
43
34
34
-54
5
4
2
33
-17
-19
13
2
-76
68
-49
42
10
-22
45
-47
19
36
-11
-36
17
-34
12
-13
45
-19
-6
-41
-1
13
63
-27
64
-23
74
36
67
5
28
-16
25
14
74
18
63
7
-3
-2
-4
-15
25
4
-25
-50
-20
29
6
-25
11
5
14
-30
-11
9
25
26
22
-9
23
21
-12
28
7
15
-47
-5
-59
-1
-35
-52
-73
-11
-16
36
10
32
-29
24
-22
8
-12
-24
28
-1
12
27
37
52
18
8
-29
-31
69
14
-24
-25
17
-26
-53
-29
29
31
-31
8
20
48
45
43
40
30
6
-8
-64
-48
-20
14
-41
47
5
5
-50
-14
-42
55
57
-29
-25
8
-11
13
-99
10
32
-10
-27
4
37
0
1
-27
-25
74
-38
14
-15
25
-46
-32
-7
-3
-3
-2
15
-34
-43
-23
-71
-20
37
28
-41
1
-16
24
39
-27
-15
49
61
-13
-60
-39
-25
59
17
25
29
-6
-66
-29
43
-19
-3
-9
9
36
-13
9
-41
-16
12
-37
-57
35
-30
7
-1
-31
30
21
65
44
-5
44
-35
34
-45
60
-59
-22
-55
-40
39
-12
109
-18
-2
-12
34
-9
-31
30
42
-24
-61
-49
23
-6
21
-11
-43
-52
-5
55
27
-12
12
-41
-54
11
-17
-40
-3
-58
-32
-19
35
-5
32
28
18
9
25
-2
-61
9
-47
-12
-13
-10
38
-23
-32
-44
-7
-14
-50
-39
3
1
58
-12
74
-13
40
0
27
28
29
59
31
31
2
12
-3
42
-26
-40
-20
-49
-1
43
64
9
14
-72
64
25
6
-22
11
-75
-44
32
-21
26
62
-49
47
34
-3
36
30
-11
-28
-3
-48
10
9
18
40
1
-14
-7
52
46
50
-23
19
22
30
3
-7
-12
21
-48
79
37
-4
-20
-30
26
36
-46
-10
-58
-18
65
71
31
-8
7
59
-30
22
-6
-30
3
10
27
21
23
-19
-20
0
-63
-18
5
0
-5
-37
-11
-31
-32
-40
-9
43
5
37
-34
-14
14
47
-51
53
-29
-15
-48
-38
-28
8
1
19
12
51
21
-10
29
-36
-12
-19
-31
6
-3
3
44
-24
-39
24
-45
14
6
-12
-22
21
19
5
25
-40
-2
-52
-34
10
75
58
-13
-13
-6
-19
47
37
15
62
39
-15
39
-47
19
11
-47
-6
0
51
-22
-19
46
23
-4
22
-2
23
21
-34
5
-5
-1
8
37
46
-22
-7
45
17
51
8
26
27
-6
-32
34
4
-20
-48
30
1
-16
18
-8
57
-37
29
16
-10
-45
-13
-4
46
59
-30
-4
19
-16
18
-64
9
-13
-17
-10
-41
-24
9
40
-27
-27
2
-18
-13
40
41
-49
-4
51
-25
7
32
-30
-62
32
-90
57
17
5
-11
11
12
10
26
-22
-34
9
46
37
17
-45
2
23
-72
-33
-1
57
38
-51
-42
25
-7
-45
-36
-16
20
23
25
-10
28
28
-16
-35
62
2
-23
-3
-10
8
-20
50
31
-58
-24
8
-41
13
-35
-31
-17
45
-11
48
-29
20
28
-11
-31
-25
24
5
13
45
41
-27
29
55
-32
-12
-15
-1
-45
-28
-8
-23
82
33
-12
-4
5
5
15
-13
15
-1
-31
11
24
-17
-15
-30
-58
24
-25
13
10
-45
47
-47
26
31
-37
-58
-2
9
2
-7
-42
31
-16
36
-16
20
-15
-3
-2
22
11
-26
-10
-26
47
-11
15
-67
-3
-30
-19
5
-18
0
-18
16
-2
-1
-13
-35
18
19
-52
41
49
-1
-21
-28
12
-42
34
3
-1
-21
-24
-41
30
-19
-24
-53
16
3
-2
68
-25
-56
-44
35
60
-74
-10
-24
-27
86
-16
6
-6
-20
4
4
30
-20
-49
23
-59
-17
-49
-57
6
4
-8
-19
2
38
-24
31
28
47
-21
28
4
-26
5
-19
-17
8
-2
-26
13
-48
-23
-3
52
-33
4
6
32
-54
19
9
15
-48
1
13
22
58
-15
-34
51
-59
14
-32
-20
3
-36
-31
-16
-10
-12
-16
54
-3
18
38
0
8
75
-34
5
-48
-40
3
-34
10
3
-22
23
-30
36
9
61
16
12
-8
43
-1
-36
-34
-40
-23
-43
29
13
28
8
-63
-27
-8
17
-31
35
-10
5
21
42
52
-7
-45
-18
12
0
-31
33
-37
7
-4
-31
-57
33
-30
-28
-29
-17
13
18
5
28
5
-35
3
-59
16
-44
-48
39
-45
16
-8
11
-41
28
-9
-10
-41
13
-45
29
41
2
27
-51
-17
30
20
20
66
-15
24
4
23
41
31
-16
26
9
16
-12
23
39
-23
36
-35
23
45
77
37
-14
-44
4
-25
-22
5
7
-27
57
-13
15
39
-14
15
12
-45
-17
40
-12
-15
-24
58
-3
34
24
7
19
-69
9
37
-16
-50
40
-11
31
26
-19
-11
-53
-22
-20
23
-12
-23
38
-34
17
9
46
71
-15
21
57
14
27
-19
-7
19
-18
4
-36
11
37
-32
-13
-63
-1
1
57
14
1
-43
5
43
28
-30
-4
-38
11
34
31
-2
79
-12
-9
-37
-46
-24
-26
21
22
-19
-2
15
33
53
37
-11
6
-16
-10
0
15
-26
-21
33
-23
-14
-44
9
-55
-46
-48
12
22
19
-35
-35
9
-8
-4
12
4
-52
-67
32
38
-43
64
23
-39
12
8
-30
-8
-26
36
-39
36
51
-10
27
-20
-34
-16
-51
-44
19
-37
-60
-20
-35
-39
-33
-23
-13
31
-7
28
22
-39
-45
54
-23
14
-22
-8
-28
-32
-23
19
1
-31
-14
-49
-8
29
-8
-44
-22
14
-52
-8
0
-9
-22
-33
-12
13
-12
9
1
-14
-44
-16
-46
15
37
5
-44
68
2
-26
1
55
22
38
-20
13
36
-36
4
-5
38
-2
1
-31
-41
-25
-42
-23
6
-28
-2
37
-54
35
-39
-18
-58
12
-7
46
-43
20
14
66
-18
-4
35
54
12
2
16
61
30
43
30
-22
-39
-44
47
-32
-21
41
34
18
-79
-20
25
23
3
40
7
-41
-31
-18
-40
-8
-5
17
-17
23
-14
50
13
17
-33
-38
44
-25
20
21
25
-26
-24
-2
4
15
1
-13
-44
4
4
-28
-23
-45
18
-53
9
22
17
-66
-1
-6
0
12
61
-14
-43
-36
31
-7
10
37
-25
-32
7
30
6
-47
-8
-22
39
-44
6
-29
-19
68
23
-25
47
-1
4
-48
26
-36
-33
-10
-3
19
-37
30
42
-5
-43
8
-33
-46
23
-71
-34
29
-19
45
6
-6
-9
-58
-29
-23
-53
-28
15
-40
-26
26
9
-27
49
-32
23
27
13
-18
46
48
13
39
-63
-17
22
-16
23
-30
25
-15
-23
19
62
49
-18
45
-4
-27
39
38
23
49
4
-11
15
13
19
89
24
47
35
45
7
-5
-57
-41
8
10
-14
40
5
-6
42
45
-25
17
38
-1
-31
48
-60
33
-23
7
27
49
66
32
-30
44
18
42
-27
-64
28
-56
26
-1
45
9
60
3
-81
33
54
8
-30
-23
10
12
44
38
-46
-9
25
50
34
-39
-59
-6
-38
57
-39
29
0
5
80
46
-6
-43
-35
-26
30
15
-5
33
-29
5
11
42
-3
2
-19
-3
16
-42
21
-63
4
31
24
40
25
25
19
-44
15
-41
7
-14
43
-40
52
24
33
-10
-7
30
15
-23
28
-1
42
14
4
12
28
-26
70
9
45
-27
18
24
-15
-28
-9
9
-24
1
27
-15
8
22
-8
14
-35
43
-37
32
18
20
8
2
-32
-33
-1
9
28
3
-6
44
76
1
48
2
-40
38
31
54
-27
-20
-16
41
-35
2
5
-23
-20
7
32
-1
-1
-4
12
19
38
43
-47
22
-13
-10
14
-32
9
14
35
-58
50
-2
-6
-19
38
52
-16
-6
4
-31
-33
4
19
-45
56
40
33
16
-39
45
29
-23
7
-19
26
42
-27
15
-16
23
52
8
-10
83
16
43
-53
-42
16
-17
-43
-31
33
23
19
-27
-10
22
29
-21
-11
-25
-25
2
22
-32
-25
-11
-27
-20
45
-73
-56
19
-9
56
-5
19
-2
17
-23
16
7
6
13
-42
-9
-7
10
-2
15
58
51
25
27
2
-16
-8
5
-58
-5
-50
-51
41
37
-42
-1
-25
32
-12
-13
25
16
44
4
-43
0
-45
-3
14
-49
-8
35
-19
-21
41
14
-13
28
-26
-37
1
13
49
-31
-2
30
-51
-23
24
19
-4
-41
-30
-9
-50
-7
-4
-50
-45
36
-24
-16
23
-3
19
24
0
-44
2
3
-8
15
29
5
-11
56
6
-26
-25
-51
-13
-38
-28
-48
-1
-12
-43
-28
-10
-2
7
53
-28
-43
-2
28
-7
-2
-26
30
-36
8
-37
19
-5
6
25
42
10
7
28
0
23
38
-35
-37
48
-20
4
15
-35
33
9
41
35
46
-25
-20
33
-19
30
9
14
43
50
-27
-9
-53
28
2
8
23
6
-11
-56
14
-6
-7
16
-37
9
41
-1
-1
44
-10
-21
-3
-5
7
31
-34
-16
17
25
-74
38
-21
28
21
18
-18
-31
36
42
10
46
-43
19
20
32
-8
-36
-27
-4
-39
21
8
36
72
-55
25
-42
-62
-78
-23
30
-8
28
-25
-7
-59
-41
68
37
6
10
-19
21
39
-14
31
15
-16
31
-42
-12
82
-20
-45
-3
58
11
0
-61
19
-46
-41
-47
-16
-1
3
-42
14
28
-7
43
33
27
35
16
-14
-6
-10
-1
-53
-9
-1
47
25
1
-19
7
-12
15
40
25
33
26
43
-27
5
-1
63
-8
-18
-11
-29
-18
-39
12
16
-75
-50
-35
-58
54
-15
-21
-28
-39
2
34
60
-51
45
4
-29
47
48
-9
33
-20
-46
7
-4
-12
3
30
2
42
-37
-42
7
-53
4
-73
-31
21
-47
-26
9
-30
13
39
-29
27
13
13
-14
-3
23
-54
29
-17
-21
42
14
34
28
15
27
90
41
65
45
38
5
-9
21
42
9
-21
-28
-4
0
12
-11
12
39
-22
68
-38
32
44
-13
21
13
-53
11
-11
-11
64
-7
23
-58
46
-14
27
-14
-16
18
18
-21
14
4
22
16
32
10
20
-51
36
-28
33
18
-57
-1
-45
-1
-30
15
-21
-3
-35
-28
-8
1
48
5
0
-31
-31
-51
65
31
-44
-55
-18
-25
-26
-32
33
26
-35
25
1
13
6
-11
32
-50
28
21
31
16
-73
-36
-2
1
-5
39
-33
-31
5
41
11
-8
-19
4
-9
-29
-3
-59
-27
-42
-6
15
3
26
-39
39
14
-48
-18
50
-12
7
-19
15
30
-4
-4
-3
-31
34
16
11
-9
24
-19
24
22
-25
7
9
-2
-8
-57
-18
-33
-30
22
-8
-29
8
-5
-28
26
-32
41
0
16
57
17
14
11
24
39
41
13
-19
35
-42
-42
-44
11
27
-39
68
16
27
-24
10
-16
-9
15
-15
-33
-27
42
7
40
-7
-36
28
-18
-41
-46
-8
77
7
-7
13
-1
45
-7
57
40
-5
-31
14
37
-8
-10
61
9
1
38
-15
25
44
29
-31
17
41
10
-21
68
-29
-14
25
-41
-19
3
53
32
-34
23
8
12
11
-30
-26
17
-6
52
9
37
13
-30
-50
-32
28
-38
-36
52
12
-49
50
-62
47
29
-37
31
25
3
11
61
-19
69
-5
-33
31
-59
24
-8
-43
63
-5
19
14
4
53
-4
-19
2
35
-39
-31
34
7
5
0
55
30
13
-29
-17
32
-25
2
-31
20
35
47
17
-11
-8
13
-10
-44
44
22
-29
27
30
-71
-15
-18
28
24
3
24
-12
20
32
23
1
-4
-30
21
27
-18
1
-22
-57
2
-36
51
-25
36
-24
-68
-4
-18
-49
-4
-5
14
12
45
-32
-11
-10
-46
-14
-11
-6
-61
-28
20
20
46
28
44
-17
-2
31
-34
-46
6
23
8
-27
20
5
-48
-6
-13
2
-34
21
-9
-24
-64
-82
-16
-22
-33
-35
-37
-19
2
-23
17
-3
-5
73
5
-28
9
-60
1
-31
-26
-66
-58
20
1
-5
-62
49
43
-22
41
17
-21
-44
-27
-72
31
-23
40
2
7
-10
-64
-4
-11
-2
7
-8
10
-10
7
13
21
-4
-24
-28
17
24
31
45
48
-4
-14
50
85
58
-25
40
-41
3
26
-43
-19
29
8
-25
-46
-71
0
-32
-56
61
-65
-26
53
30
-3
12
-46
-26
-7
-3
41
-18
-38
-71
-24
-58
-48
-39
33
1
-53
-16
-36
15
23
-54
-54
-13
24
22
-43
10
22
34
42
8
-5
-51
-25
-20
10
-39
-11
15
-28
-46
50
-40
-13
18
-11
-15
4
33
-7
51
-29
49
-69
-20
-26
3
-8
43
-56
-43
11
-5
41
33
-19
-13
18
18
37
28
-11
-13
36
-51
-12
3
32
17
65
-17
16
35
-13
-2
-40
-26
23
-18
-55
7
-17
11
-12
-43
-4
-44
12
14
-3
-31
-12
49
15
-14
-10
27
6
-12
-14
66
35
12
28
18
-38
22
0
-30
-9
32
6
43
-9
-28
42
42
62
-31
-6
-46
-4
-35
-52
37
8
9
-2
19
-10
57
-14
62
-6
52
-24
11
22
-10
-20
16
29
4
27
14
-21
-38
-5
15
40
16
62
-27
13
-54
-59
-20
49
16
2
-42
14
-2
42
-47
-1
-1
5
-7
-24
-45
43
5
-9
41
6
-55
33
-15
-33
56
-10
12
-27
-9
11
3
12
49
46
57
-29
-17
28
-7
9
25
8
-1
-28
-27
-42
20
10
-28
42
-12
-8
-32
17
12
-54
-15
-44
-3
16
-44
-9
33
-8
36
-5
15
-19
29
-32
-30
6
-37
-14
-28
-55
7
20
0
10
-39
-28
-14
-8
1
43
28
14
39
5
18
7
-31
-4
35
-33
-30
-35
10
58
13
2
18
-27
-3
-39
31
65
43
-25
31
-27
45
-22
34
33
-18
49
60
-14
24
7
15
-44
22
-15
-38
95
-40
-49
-31
-48
-13
52
-17
-41
27
25
-24
-36
-5
5
47
6
19
-13
45
-28
-31
60
-39
-16
-94
-16
-25
55
-29
56
30
46
-92
-5
40
30
-7
49
-28
-64
42
71
12
-2
18
16
28
-30
58
-10
-57
-13
-4
7
-33
44
-26
32
-11
-41
-3
34
-33
-10
36
37
69
-37
34
64
-3
24
38
-29
-31
-11
31
37
-14
13
65
-9
-15
47
-22
-25
35
13
43
-7
41
10
-27
9
-3
-15
-23
16
-11
8
-14
0
32
-16
25
-20
-18
-13
11
38
32
49
-57
-13
-23
-17
7
17
11
-24
24
-10
-13
24
-16
20
-46
-49
-21
-49
-5
-6
30
25
-6
3
24
6
1
12
-29
-6
-23
39
-44
37
-6
-53
-22
26
31
-16
8
-31
1
-8
-64
-44
29
3
-7
-17
19
39
16
4
-11
19
-17
-6
-11
34
38
1
1
16
9
-12
-34
11
-43
29
28
0
-21
-3
-23
12
-34
38
-23
18
5
-36
-34
-65
-73
-3
-56
17
-48
6
-26
-21
-14
12
42
45
18
-6
-30
-23
-12
30
20
6
-50
-58
1
-4
-23
-33
34
70
-30
-14
-27
27
24
3
-49
46
-54
24
17
3
30
-32
-33
14
21
11
-30
-51
-29
-35
-12
52
10
20
-15
0
4
32
77
-7
-25
-9
70
15
-5
-11
0
0
18
23
-54
-30
9
42
-49
-10
-25
-15
17
11
-3
-41
26
23
-11
11
12
1
58
24
35
54
36
9
-12
-20
-23
-57
-10
39
-30
0
16
11
-21
17
8
44
11
0
35
-65
50
46
16
2
0
-38
0
-35
10
18
47
60
27
-1
-50
20
-17
-19
-40
-11
-47
38
53
-54
47
-41
55
15
-40
-27
70
0
62
-28
-17
-56
13
33
8
16
-19
-28
5
2
-32
-12
13
23
-38
39
-17
-20
-20
-28
-34
65
-33
-36
-30
-21
14
27
-8
2
41
-44
-39
-29
36
-24
-24
-31
4
-14
-5
9
-10
-4
68
-31
69
-16
-16
50
58
55
48
2
-33
4
11
-19
-40
-80
-13
-33
20
0
11
28
-33
46
-3
37
47
-59
-27
7
2
-5
27
17
-33
52
-9
-24
15
-29
-8
11
-44
-18
47
-6
27
-1
-36
-15
49
16
9
-59
-51
7
-23
43
-12
19
-21
-35
-2
28
-37
-21
-36
22
-41
17
-27
-42
-9
42
10
-7
-35
-6
19
-17
54
33
37
15
47
1
-36
4
15
9
3
-1
4
-81
-20
23
-31
-15
28
-27
15
7
14
7
47
-5
-35
13
-6
62
-40
34
-19
4
5
-3
13
31
78
4
-16
-65
39
-52
14
-53
11
12
39
-1
-24
-3
-40
24
5
20
-11
6
-10
35
12
-27
10
-6
-19
-24
4
-70
-39
33
-44
-57
28
28
-28
68
-28
8
20
-32
-37
15
1
-35
-2
0
-7
46
-30
59
12
15
-38
52
-13
-36
-9
-10
16
3
-5
-37
16
-19
-22
-69
3
-3
6
10
-24
-45
5
-65
-26
-21
49
25
-23
4
60
-8
-9
13
-6
-60
39
-76
-6
5
-26
-34
-38
-28
1
8
-30
-8
-28
-41
28
56
-21
-8
-5
53
23
35
21
-70
35
-26
9
-76
-19
-31
20
-2
-9
-13
-55
23
3
-2
-21
18
-35
1
13
-26
44
20
-35
26
-7
-73
0
-6
-52
-17
14
-22
-16
45
-55
22
-33
-12
-15
-36
23
44
-11
30
41
-45
-10
48
26
6
25
-45
20
12
36
40
15
-10
10
19
-32
-7
13
-25
-29
-30
40
-6
20
51
-57
-28
-48
20
18
-36
-14
36
-18
-34
10
27
-35
-69
1
1
1
-39
-7
22
-3
-1
-19
9
-19
-6
-35
-2
9
-3
-14
19
57
27
2
-17
54
22
8
-9
-27
-69
-12
65
14
36
64
-41
-6
32
33
-38
26
-27
-15
3
-2
-20
29
-22
10
18
5
6
-21
-15
-44
2
0
-61
16
-54
20
19
39
-17
26
-28
34
7
-8
8
23
46
26
-19
37
59
-17
-31
25
12
33
-41
17
21
-56
-6
-34
-48
23
-11
8
-45
13
-19
34
24
27
-27
-4
-38
5
9
37
-62
-14
6
-30
31
-12
36
24
-45
-25
5
-82
13
48
35
22
13
12
-28
18
-41
48
-28
-10
48
-37
35
6
-7
-20
-49
27
-35
5
-50
8
-27
30
-21
47
7
-60
49
-34
39
2
4
-14
10
19
-4
-32
-57
43
-17
-53
3
-28
15
42
-24
4
20
-11
-12
20
-43
-9
-35
-64
38
1
20
-17
35
-39
-57
9
22
-23
-20
21
-63
3
-7
49
-46
-25
-36
16
-12
-23
22
49
50
-46
41
-37
23
23
38
-49
-11
-28
-5
20
-15
30
-41
6
45
34
-25
34
-1
64
-49
-12
-51
45
64
5
31
5
6
-3
-14
-3
-6
10
19
25
56
-60
8
45
-6
-18
62
-69
41
0
17
0
-31
-43
42
-28
-35
-36
18
-35
-9
-53
32
1
26
70
-44
-14
50
14
-12
42
32
25
-9
36
19
-13
28
15
-17
-32
-27
-46
-69
39
-23
38
-39
30
-5
28
16
-12
-35
16
16
9
-17
3
-43
24
23
-41
34
25
32
-24
-6
33
50
-17
-18
54
16
-11
-12
-13
49
21
27
-3
-41
-1
-6
-27
41
-5
-7
39
-33
15
49
-33
15
-51
40
19
28
-16
-4
20
53
15
32
-55
-53
22
-46
-29
20
-7
-46
8
29
30
-44
-43
-12
29
-5
32
48
47
-50
-10
5
0
-50
6
41
-3
-49
17
31
-38
-31
-39
13
-26
3
1
-68
21
59
59
-33
21
-32
-20
-43
25
-2
-4
55
-14
-2
-26
-19
43
25
-36
4
-30
26
-21
-30
24
-26
52
43
-56
23
-19
41
25
-10
-20
-53
25
-4
-14
-39
-19
-17
26
35
28
-33
-22
34
39
15
-39
-32
-29
21
-52
64
-69
-13
-11
14
-38
-15
-37
1
17
-32
0
-34
-43
-49
-15
-11
27
-18
66
-13
36
58
52
11
-6
-9
15
9
11
36
-27
40
6
35
-4
22
3
-59
46
8
19
-2
-31
-14
6
-12
24
-6
0
-40
8
22
21
-47
-7
64
-20
29
-9
-32
-39
7
-17
-27
10
25
-3
16
-26
27
8
34
-17
49
24
-55
3
11
-57
26
1
-25
-15
-50
23
-34
-15
-25
-8
-13
43
-8
3
18
-1
6
16
16
-59
-15
20
-10
27
21
2
-22
26
48
-26
-5
17
-43
42
-7
-28
-4
-17
-11
-25
-24
-12
30
12
10
47
19
16
-17
9
-24
15
-15
25
4
26
-5
-21
-24
26
-14
-9
23
-9
-27
10
5
14
9
-35
36
-30
4
14
-6
-38
44
0
48
33
17
26
-10
48
-41
-48
34
27
-23
36
13
-8
-34
15
5
-43
-17
4
-31
6
14
53
-24
11
30
-18
-13
-7
-37
-23
-4
-38
55
-49
34
-25
19
-47
13
-22
-12
-4
-64
-13
18
-45
40
8
-12
36
2
63
-19
16
32
63
25
33
-9
52
-13
49
-24
52
15
-3
-37
-42
6
-13
-2
30
-58
29
-32
-48
34
56
26
12
4
-22
-20
38
-25
34
-20
47
22
-19
-14
2
12
-48
-38
57
21
12
21
53
-1
1
-53
20
-42
-12
-21
3
-11
4
13
-1
13
37
27
7
-33
-40
26
-40
4
-54
10
-68
-18
-61
18
-6
-42
5
21
35
37
-29
-19
16
-30
10
22
-31
-48
5
-22
50
51
-55
54
16
-36
4
-30
-2
-38
24
-33
11
5
-53
-2
-38
-21
-20
45
-22
28
23
-5
-15
54
-35
-57
-40
-31
32
23
25
12
-19
44
-42
-67
27
8
40
3
-1
-31
29
14
27
44
-21
36
-12
40
-12
-16
-29
-27
-59
9
-13
17
28
68
40
-5
-26
-23
-64
-12
40
5
-3
-6
18
15
4
-58
-1
17
-50
-14
-27
-3
33
-14
47
4
27
4
-19
32
9
77
13
5
51
53
32
32
42
-35
-45
22
-39
-1
-35
-37
4
32
-2
-42
-16
-12
26
35
29
12
30
-31
43
19
-24
34
-37
9
1
6
-2
28
3
-18
37
-29
30
-36
-40
20
-34
-7
31
-16
-3
-28
61
-29
21
21
22
-54
-14
-23
34
-20
9
-44
-11
-37
14
70
46
13
24
-2
-9
1
6
52
36
4
15
49
-19
-39
-41
35
18
-49
30
-10
-32
17
-24
50
-36
-19
28
-8
8
57
45
-14
30
53
-16
50
13
-18
11
13
13
9
33
-5
8
-17
40
17
-35
-19
-22
-49
-23
44
8
20
18
-11
37
45
-12
-44
-36
48
16
17
39
0
-8
-23
25
6
-58
18
69
-37
27
-11
-29
2
13
-1
-17
9
11
30
-28
7
24
3
-42
21
-34
12
26
1
-36
23
-4
-23
2
-13
11
-30
26
-27
5
-2
32
-47
58
-2
-30
2
18
-54
26
10
-22
38
-12
-42
43
0
-20
18
-12
30
40
9
19
-11
16
-51
16
-26
-37
-41
-55
-6
10
28
-44
-68
21
41
15
-31
40
13
35
30
51
25
-44
20
2
15
-18
5
28
-35
-23
-17
-21
30
50
9
-20
45
-7
21
37
20
-27
-25
-26
-25
-18
25
34
-41
-31
-7
3
39
16
13
21
-1
47
-3
13
-15
37
-63
7
17
-12
33
8
-35
-6
35
-44
-49
47
14
52
-35
33
14
10
6
2
-16
-36
-23
-37
-22
-38
55
-3
-33
29
47
-49
-9
-50
54
21
-35
34
-28
-55
-28
-2
3
21
-1
-40
-6
-45
30
21
-38
-2
-24
44
-30
-34
9
75
-24
53
18
17
16
-32
7
6
28
-14
58
24
20
34
-8
25
-28
-31
-14
8
-24
-8
0
-34
-36
-33
19
-20
38
-4
26
36
-15
0
-36
-38
13
51
-32
12
11
-9
22
39
-9
-12
3
5
-47
40
21
-4
55
-12
59
-37
11
-2
-48
2
-9
26
22
-7
15
32
-44
32
-18
-10
0
-4
-20
54
-39
46
-23
15
-26
36
-25
60
20
36
-2
46
-30
26
-24
45
-53
11
-55
-20
-43
4
-11
-42
17
37
18
2
-11
35
27
-4
0
27
-20
18
-3
3
-26
21
-41
-36
35
22
31
12
10
-35
-32
-28
44
7
44
-12
3
10
-7
-48
5
-1
-15
-7
-10
-34
-14
-30
23
-16
-51
20
-45
29
9
17
55
8
-73
-70
77
35
-44
-82
21
9
-22
24
-33
32
29
23
-17
-20
61
13
-22
34
32
27
-15
31
24
-16
26
-26
-21
11
2
-26
-13
-20
33
7
-31
-7
-56
-40
-61
20
22
23
47
-16
66
-50
-23
-34
-53
5
23
27
-60
-25
-19
-29
91
27
10
8
-82
-20
-4
-19
-36
-41
56
84
-58
34
13
15
16
-9
-42
0
52
-38
34
65
28
-15
-14
-51
-28
7
14
30
-19
24
-3
-23
-6
58
-53
-48
15
16
-72
7
-2
-3
9
35
-14
-16
22
-5
25
10
61
-3
-8
-27
-53
-3
20
-62
11
6
51
-43
-47
2
10
-20
-49
-62
-13
-54
-3
-39
67
-8
-5
3
16
-15
-19
8
13
44
1
-3
23
-88
-79
44
30
-38
21
-3
-23
-11
34
-35
-1
17
7
-10
18
23
54
-16
17
31
23
18
12
-10
-33
67
36
23
41
-26
-11
21
-51
64
33
-18
18
-25
-18
-5
26
-30
-7
10
-22
-12
-37
-3
36
-9
14
36
-19
5
18
-36
-42
1
18
4
57
-23
-49
-3
45
-33
-23
-44
6
33
-16
-8
-4
-14
48
-22
14
37
6
10
38
34
-43
8
54
0
5
-67
59
16
-42
-10
-22
-47
28
-2
19
-27
14
-4
-4
-3
15
32
12
33
-28
-27
7
18
-4
-81
14
-6
-39
-38
-8
-41
76
-6
20
-28
17
42
13
8
-25
-3
5
31
-17
15
-29
33
-7
5
45
38
10
15
-25
15
-35
16
-25
-2
13
-1
34
-33
61
59
40
13
14
7
50
-4
8
-57
27
5
-46
-25
4
20
8
-13
-28
-4
17
-68
29
-27
16
2
5
18
46
-9
-26
-33
30
22
-39
16
-23
9
0
11
56
-30
-35
35
1
0
-70
-17
-5
-22
-17
-18
42
-19
10
0
9
-54
-24
36
-24
45
-48
21
-48
-25
44
49
2
3
-13
-16
31
4
18
24
-7
47
13
-3
8
3
-18
11
35
20
-26
-62
17
52
-22
-69
1
-14
-42
44
-42
-6
55
-11
32
-14
0
-31
-10
39
55
37
27
20
-13
-35
-30
-55
-50
5
25
36
-17
-54
35
-8
50
23
4
31
-24
51
81
16
-57
36
18
-39
-31
-21
20
-21
29
-4
-34
-29
-25
28
-17
42
-13
22
9
-34
-6
-12
-31
-11
5
21
-27
45
-21
11
-6
-30
9
0
54
-9
-41
28
-30
56
17
0
21
13
-27
28
-19
19
-30
60
47
-35
-19
27
-43
-24
-26
-32
7
-42
-17
49
3
41
0
2
10
27
55
-32
-36
26
-33
9
21
52
-9
17
23
-43
60
-13
45
4
51
-35
4
-33
-39
-73
23
-35
12
-22
-49
-16
1
5
58
8
2
-5
-23
-38
15
6
-64
9
18
7
-21
28
1
0
63
-41
45
-11
17
20
30
34
-23
-9
-41
38
-40
-14
-28
1
6
18
33
-69
15
-20
-50
-6
-7
16
-24
17
6
3
-51
-43
4
10
24
-27
-23
2
23
-32
-4
26
58
-15
-5
9
-21
-27
20
-17
-6
19
-2
12
4
20
23
-52
-25
-3
22
-12
-56
-3
35
-8
38
-12
-18
40
22
-2
-10
13
0
-48
-66
0
23
-10
9
34
2
31
28
-23
-43
9
23
-5
20
-27
-6
42
-10
-14
-37
-2
21
35
-29
54
38
-14
6
-30
-26
-22
23
-42
73
-11
-25
-6
14
0
-39
13
-43
11
-10
-67
-17
12
-40
14
31
17
-31
8
-44
37
-2
41
4
-23
-33
-33
32
44
25
20
33
1
-6
26
-13
-30
-47
-37
27
14
-53
8
8
28
-32
-19
-60
-58
-1
-6
-52
19
12
-16
29
-2
80
-2
-44
-22
-35
10
12
38
-36
-10
26
-61
45
33
-13
28
-25
32
-30
-34
34
-35
-36
19
8
-8
-39
13
37
37
17
57
-32
23
-6
47
-62
48
1
61
40
1
-48
58
-39
-55
-5
31
-1
-59
30
-8
-35
-21
27
-34
40
-10
-27
34
-18
51
41
23
44
-52
-26
-49
15
3
1
-28
8
35
2
-20
9
11
40
-63
-1
19
45
-30
-1
34
13
23
29
-39
10
9
12
56
-28
23
-15
-34
26
19
-35
-69
18
-49
-31
41
50
-1
40
16
-47
-15
-46
50
35
4
16
-11
10
19
-45
11
-20
16
-20
-29
-18
2
-34
-66
-43
-43
58
10
51
0
-4
28
6
-3
4
42
-50
32
14
-33
-1
15
-51
60
36
-26
-4
20
20
40
-1
-14
24
14
-27
56
7
4
49
31
-17
-45
2
-19
18
-5
40
-22
42
11
26
-61
-3
-24
12
22
-10
-51
-25
-55
32
9
-28
-30
35
20
93
42
54
32
48
8
16
-7
-29
3
31
-14
43
10
-33
-3
40
-29
-2
24
-49
-23
27
41
35
7
-48
57
4
-27
-59
-18
51
45
-1
-52
-28
-3
64
17
-21
-3
-87
-31
-51
18
53
-1
29
-25
7
25
-44
27
-37
-3
-20
-4
-25
-6
15
-17
19
36
-65
-3
24
-14
7
66
-1
3
17
-40
-53
6
8
-29
11
57
44
-6
-16
37
-43
-2
-5
-24
28
14
-21
-42
26
-20
7
-29
-7
7
-45
-3
-9
-18
-32
5
37
-25
12
3
0
7
-30
29
22
-31
-27
-31
-4
17
58
-37
-23
22
-45
-14
19
17
-11
-65
47
-15
-5
75
-29
11
-77
-40
38
9
36
-28
-4
45
-5
30
14
0
-14
33
37
-32
0
-37
4
-12
27
-64
8
35
7
30
10
-48
-39
-17
-52
-54
-2
19
-46
16
-53
-36
26
34
-24
1
-18
21
-38
-27
1
6
53
-3
38
0
36
-33
17
-25
21
45
-61
-1
-71
27
11
-27
29
-8
-40
4
27
-4
-44
2
7
32
-13
20
80
24
40
6
-26
-38
8
2
-30
-8
-2
51
24
-14
-6
-20
-24
-38
4
22
-42
-21
-3
-64
18
-22
-5
12
32
4
28
16
-48
-38
-1
-28
7
12
12
18
36
-4
-7
-30
-14
11
-19
2
49
32
-35
41
43
17
18
-7
-30
-23
4
46
3
45
3
46
-1
-28
-32
-50
-20
5
-34
-31
-28
-12
-32
7
-10
-18
-55
-6
-31
14
54
-1
-10
48
-33
33
12
-22
-19
-1
76
-36
39
-14
26
-41
11
-41
-66
-25
-13
-14
-14
-11
31
-20
35
26
32
1
-21
7
-70
0
-54
-8
-10
-36
7
14
-10
1
39
2
31
32
40
-17
31
11
-63
0
13
18
10
3
-31
2
-6
22
21
-43
-65
41
-37
10
23
36
-30
-3
-23
25
15
33
-9
11
12
57
-46
4
13
-38
10
31
-1
-18
41
17
-26
-16
-59
-43
-29
-55
-13
18
13
48
44
-22
-8
-39
-50
-16
7
8
-14
36
-63
31
-28
-31
3
22
12
-6
25
-46
12
-8
29
-13
41
-1
-21
-35
3
-8
13
8
25
3
6
-1
32
-50
25
51
-51
-2
-14
-6
-23
-13
4
8
-18
14
-30
-31
9
53
-28
44
41
-9
7
-1
5
44
30
13
-18
0
18
14
-30
-17
16
-34
-9
17
10
11
38
0
-15
-2
-42
32
17
-30
-40
25
1
6
13
33
3
-8
44
-16
-42
-39
26
-14
-8
17
35
3
-37
-50
-46
1
-33
-2
23
-43
-34
19
-49
-10
37
-7
-13
30
31
-38
9
19
8
3
-30
-46
5
-56
71
20
-20
-5
-3
-57
27
26
-29
15
-8
-49
-19
-27
25
5
42
-10
-39
35
-44
65
26
16
39
-31
-46
27
36
12
-11
9
2
5
-26
-5
-11
40
-42
-46
42
47
-50
-24
31
-7
26
-4
11
-12
-31
13
22
-7
-16
-6
28
-13
30
19
20
30
-10
9
16
17
-15
-9
-5
-44
31
-4
-31
-22
8
-7
-31
-9
25
30
-2
34
-2
12
-8
-15
-4
37
-37
30
9
55
-70
-23
-24
25
73
53
20
23
-52
53
-44
10
48
-3
-40
46
39
20
-10
34
29
-29
-18
20
15
0
30
-48
-48
49
10
25
35
13
-12
-26
20
-12
3
-48
-18
24
35
-53
-20
-34
-6
-11
-13
3
16
-4
46
43
8
12
-5
42
-1
-6
-16
35
1
26
-26
-40
5
-23
-47
-35
-42
35
29
51
-46
-41
-11
-28
-9
28
-30
-65
-11
27
44
18
38
-13
54
-2
-40
-23
40
-37
-18
-54
-18
17
48
-2
19
45
20
-31
-46
-59
-65
-20
5
15
-5
-1
-37
-22
37
-38
-16
70
9
43
-6
-22
-36
22
45
26
-40
-30
-36
-33
46
-59
-15
-84
46
6
2
17
3
19
-7
29
-2
7
1
32
-24
-14
34
6
5
18
-41
33
-38
-22
-24
-49
-12
54
-12
11
14
-18
38
-2
-28
-21
-18
-34
39
4
15
-3
20
-22
-26
-20
41
4
-21
-21
-29
59
-28
26
-27
51
-51
-7
13
13
30
-35
-24
44
-29
12
39
-8
45
13
-14
3
11
42
76
27
-38
-9
-2
60
-23
32
-42
-57
45
-23
18
-12
-13
3
16
-38
0
-17
-29
19
45
-15
-6
-57
18
69
15
41
-8
56
-41
40
-34
-29
-29
-45
32
23
-23
12
31
-35
-42
1
-7
-41
18
-1
-52
-5
-10
57
15
-1
-1
20
-39
-39
11
43
50
6
-35
-20
-23
-14
-16
-15
-29
42
10
-9
-58
-33
18
36
-7
33
-16
49
-21
41
-45
24
-70
39
29
-10
-19
-20
27
-37
-18
-18
-5
-32
-18
10
-29
-32
-38
-45
41
-41
-7
-37
-34
2
-38
-28
-14
0
-8
-34
-71
8
-15
-31
-57
-17
-34
-6
11
49
29
-27
4
21
24
24
34
30
-13
24
35
43
28
-15
41
-32
-4
-14
-90
-33
11
11
-34
-15
7
-2
25
5
18
7
-4
44
33
5
17
-24
69
23
27
-11
-9
15
26
47
-33
-8
-12
3
33
27
29
-56
7
49
0
-26
-12
-40
40
-47
47
5
44
-21
-35
11
-17
-7
2
-57
-1
19
32
40
16
-27
-27
-26
60
-49
-22
-4
-44
43
-35
49
-3
28
-7
-29
33
31
-12
-8
9
-25
13
65
-7
13
6
-60
20
-13
-41
-50
-21
25
38
28
-2
-32
-15
-32
31
-12
-50
-17
67
42
-14
-30
-6
-49
-43
35
-51
-15
45
42
-14
-14
-18
48
-40
28
11
-22
-3
34
-18
8
-5
-33
35
-23
24
38
22
-4
-37
-33
-36
-9
54
7
-38
9
-27
-27
-17
-55
17
55
25
-12
27
-67
9
-12
-2
2
1
-59
-43
18
-29
39
-2
13
-33
18
-30
-28
35
-19
-79
4
-15
-30
12
-5
-31
-19
45
39
13
7
28
-30
39
24
39
22
23
-37
34
8
31
-43
-37
23
27
16
17
32
-39
-38
-10
-25
-8
2
-11
-45
21
45
-15
34
-50
-41
17
-37
27
-12
26
-16
5
-33
13
40
54
6
14
-39
-27
56
28
-29
-43
50
-25
6
-10
0
37
31
-26
49
21
-42
-3
-33
28
5
-48
12
31
-20
-19
3
25
17
-14
-37
4
1
25
47
34
27
-35
50
16
-16
8
9
6
22
-12
-18
3
-27
38
15
-13
46
-10
5
22
29
-29
6
-5
5
26
23
-5
-51
-37
-62
13
-18
8
-1
-54
39
-15
-34
12
-7
-2
-38
3
-22
-13
-49
-4
12
9
-40
22
-1
22
36
-34
15
-31
-55
31
-55
-17
30
44
-49
13
-3
-27
-27
0
-2
-57
-17
-50
37
-8
-18
-27
1
-35
26
-7
7
-22
-32
23
-2
8
21
72
9
-6
27
6
18
23
-3
39
-36
75
18
55
22
11
17
-9
13
-10
3
-18
-31
22
-20
-58
-9
-42
-32
44
1
-16
-22
28
-39
80
-24
15
31
18
-30
19
33
-10
-34
-37
37
43
-6
36
13
29
-37
-38
24
47
-9
-28
26
-21
-9
-13
-37
-33
-6
-15
2
-28
38
-22
-16
-8
32
-7
-10
34
39
-10
-3
19
33
18
41
-3
-12
5
16
-2
-28
-28
12
-31
10
59
37
20
-27
-23
-57
-75
17
14
-27
15
13
5
-34
25
18
-39
3
-52
4
-75
25
14
-39
-25
-14
13
-19
-43
-17
-24
8
-24
24
-21
-26
35
15
51
6
38
25
4
18
38
28
-10
-29
-15
0
36
40
-39
-40
12
-18
17
47
-41
-1
-38
30
-28
15
10
-26
24
64
-9
-34
-37
36
-6
31
-29
-2
-27
38
-38
36
25
31
-2
-56
44
-7
45
-40
35
9
-45
12
-7
-8
31
15
-24
-27
61
-4
8
27
-32
-57
-29
45
-52
-7
20
-14
-48
-59
-53
0
5
59
23
19
-50
0
-35
52
-44
-15
39
-18
0
23
1
18
30
17
-37
21
-84
-15
-11
47
-14
-11
-12
1
13
5
28
18
38
3
26
54
-9
-10
34
-2
-9
-23
38
5
26
8
-10
29
52
17
-31
11
-25
31
35
36
-3
-34
-29
-17
-28
34
26
-7
-2
-13
-18
-23
-4
-54
-57
-24
-16
34
-20
58
-41
-36
-8
-3
73
-61
-12
-55
0
33
-9
23
-27
-4
-36
-30
37
34
-4
39
50
-9
10
32
16
-8
-12
-36
-58
-64
-34
-37
-18
13
7
-43
-40
-69
44
-2
-9
49
24
25
38
-29
6
-25
36
24
-48
-31
-7
18
-13
12
-31
-55
12
1
-30
-48
-16
-31
-10
-41
8
36
29
-35
28
-4
22
16
-11
-46
26
11
-78
-22
41
-7
24
50
-1
42
25
-49
2
-17
-13
-15
8
-40
-11
-20
50
6
43
30
21
-49
-28
16
24
18
-35
-28
-38
-40
40
41
-54
-37
-43
32
-8
30
34
-48
9
26
-31
3
-35
2
-18
41
-30
56
61
5
20
43
-48
-19
-80
-39
-16
-19
33
40
-10
11
-7
-19
57
33
-21
-42
-9
-28
5
7
-40
9
-29
34
2
37
-37
-5
13
29
-11
-31
-26
5
16
-23
-11
26
23
-25
44
-8
20
-16
-1
-9
2
54
-63
9
9
-22
-48
37
6
43
-7
-11
31
-12
25
-14
-1
41
-17
-33
1
13
-29
54
-38
-58
37
-27
30
-21
-12
26
-19
-28
36
2
19
30
-21
-15
-34
-16
17
-4
-25
25
-42
2
7
4
0
32
-53
-17
25
-56
37
-30
-31
26
-54
3
42
5
-20
-12
29
-45
-39
42
38
-3
-21
14
16
-24
-28
32
61
-3
-54
-37
-6
22
18
26
-38
26
58
11
68
29
-2
30
-40
27
-71
-12
-14
-53
-32
34
24
19
42
-12
45
52
-56
-11
-25
35
-16
19
-16
33
-11
11
21
-41
38
67
-7
51
47
1
29
26
-21
-37
12
8
-43
-30
8
31
-4
-11
12
-35
-14
-9
28
42
32
20
-4
-50
52
-12
41
47
37
36
-28
-48
-14
39
14
2
2
16
-39
13
47
11
-35
-20
-15
37
42
17
31
-35
56
22
47
41
-3
4
-36
14
2
-38
-8
35
-8
4
-47
42
8
-11
-35
20
39
-5
14
36
-11
12
11
-45
51
21
-23
79
-29
-29
-7
27
43
-9
-1
-14
-42
-2
70
34
-18
13
15
-37
53
-25
23
28
7
20
-32
-9
-21
38
-9
-13
14
44
-16
-14
-46
-26
-22
-21
30
60
46
8
33
-15
-11
20
46
20
29
-3
28
-25
-4
-14
-78
-30
-24
-19
20
1
13
6
-7
1
-44
20
-14
0
54
-37
26
13
2
-34
-27
-54
3
-32
26
5
0
-12
5
-87
-18
12
-36
-32
-45
10
-33
38
-51
-36
5
-19
-51
11
-32
4
-28
-22
28
-5
32
7
9
-32
-9
-10
-15
-43
-5
-23
17
-21
-18
32
-23
17
-18
-76
26
-9
32
-22
-16
8
-36
-58
59
3
-12
28
32
50
-27
27
23
-20
72
64
4
-12
-8
-17
56
45
-44
-28
-23
1
-8
-42
16
31
-45
-18
22
-43
-4
-49
25
45
-53
-35
-10
75
-22
42
-30
25
22
18
23
32
29
12
-5
10
-7
9
-16
-28
12
6
-31
30
12
51
23
-54
-5
-7
-10
22
36
-18
-46
-41
33
27
9
-6
-70
-30
5
-15
15
-24
21
-34
20
31
-9
-32
-48
-42
13
29
12
-19
39
-36
-36
21
-33
-23
31
32
-67
-31
-13
-31
16
25
27
37
-45
-16
9
-60
-18
-15
-20
-26
39
-24
-25
33
3
-25
19
30
-43
-1
-16
-15
10
28
16
15
-71
-49
3
41
36
-31
-26
37
-24
36
35
-9
-22
52
48
12
45
-8
46
8
-20
18
-15
12
-27
3
50
-20
-8
-37
44
-47
-10
-51
10
-42
-2
46
-29
0
43
7
31
6
-13
-14
-4
-39
-6
-9
-14
-6
-2
48
-17
39
-32
2
-15
-6
-33
-20
44
-40
42
18
-26
-21
9
57
-40
-16
16
35
-3
-30
-13
-14
8
41
-3
38
62
-25
-24
-39
-45
6
-10
12
-50
36
22
-68
31
-8
48
-23
22
4
29
36
-12
-18
-54
40
36
10
43
-41
-32
-39
-12
-34
-24
-46
-36
11
1
-36
-64
1
-2
24
5
1
-13
13
41
-31
41
26
-31
-36
38
7
9
49
-1
-17
-32
-15
34
-3
-45
-1
33
-10
1
29
-2
32
30
3
31
-7
-35
-9
15
27
51
6
-2
-39
57
19
-41
-30
-13
1
41
10
18
-7
27
-3
-34
-40
43
-4
56
-7
-4
-45
-20
-33
37
-12
7
-36
-37
60
17
-21
-53
12
-23
-11
5
-57
-20
-68
-43
8
3
1
-8
37
-31
-1
52
22
18
42
-2
40
28
-2
18
-72
55
53
13
-38
28
31
56
33
20
-3
-26
61
57
2
-24
40
-11
5
24
48
-25
-7
-17
7
10
-7
4
-15
-34
-16
31
-3
15
-5
12
31
19
51
10
-58
-22
-69
14
-21
-52
3
26
48
8
0
-22
34
15
-13
3
-30
34
14
30
-21
-37
-24
39
14
-16
61
-23
26
40
35
34
19
-32
-11
-29
-14
39
-40
33
-32
-26
-34
1
19
1
44
9
1
29
-41
-50
-23
14
-24
1
0
-47
4
29
36
1
29
38
57
-12
25
-17
25
27
-28
-19
21
25
-57
-29
-13
46
16
-1
-1
-16
48
-18
-1
-14
-59
-3
71
32
16
26
27
-64
9
-55
13
2
36
11
-36
-4
-17
27
-29
-29
-2
-17
-22
-9
-27
9
4
-20
18
3
41
-20
45
-20
39
-28
31
15
11
16
12
15
43
27
-3
4
41
2
16
12
-7
44
88
-23
-32
22
21
54
10
1
8
0
-9
27
28
36
-7
-64
-60
-17
3
-67
-59
-11
-17
27
42
-36
-35
50
15
15
41
13
43
-18
24
-23
42
42
-39
2
-3
-27
32
15
18
-15
30
-31
20
10
-50
4
21
51
-11
41
12
-34
-13
44
43
48
14
-31
-16
27
-36
-35
49
-8
13
43
21
37
-23
-34
7
14
12
15
-51
27
4
12
-49
-11
41
40
17
23
-41
-47
18
-39
36
-39
21
3
7
-4
-7
-44
-53
-6
10
12
13
18
7
18
0
-23
-29
-12
36
-32
-52
-16
43
28
11
-23
35
-42
24
14
19
-7
-35
-35
20
41
33
-43
-18
5
15
-36
-10
-18
-66
17
44
52
22
10
-1
-61
-53
-9
12
6
43
18
57
40
-1
-16
-26
-42
-31
-8
13
24
-51
37
-32
26
30
44
-7
19
39
-6
-21
-16
-38
16
-27
16
48
-12
37
29
53
-38
35
-8
33
-21
45
50
118
32
-36
13
36
54
-16
32
42
3
7
-3
-22
34
-43
24
8
11
-31
-33
-58
-24
-13
7
4
-40
5
7
26
-39
9
-24
33
9
4
-5
-12
-49
58
36
37
25
28
-9
21
45
-18
-24
7
-52
-79
-22
-68
-27
4
7
17
-6
-36
35
38
3
20
1
12
43
-43
-36
43
-35
58
-4
-5
-16
25
-41
-7
20
-27
8
-47
43
7
57
-48
59
-38
-6
55
21
23
-41
-21
-18
34
40
-9
50
1
-30
10
-2
-62
-73
-22
-39
18
-37
32
-3
24
-17
49
-12
-12
-5
20
-42
-1
40
-10
51
23
-52
32
26
-27
43
3
-14
31
33
38
-2
17
-50
-2
-11
76
-31
34
36
-50
-18
-41
-24
40
71
48
58
-37
-32
14
18
-18
-42
50
-36
16
22
16
8
45
-69
29
-27
7
55
-29
-40
-2
-7
69
32
-6
11
-37
-24
3
26
-8
-28
-2
-69
-9
-11
13
40
-35
14
22
-69
-44
8
9
-60
-26
-59
16
-23
48
-61
-55
24
-47
-22
42
18
9
16
17
4
34
2
9
0
29
-37
19
-45
-23
32
-17
38
-31
27
-4
-36
-15
43
11
-5
-12
-4
12
-5
-69
24
-3
2
-33
-25
21
-24
54
-33
30
-12
-48
56
66
-57
-23
-4
-48
77
33
12
39
-18
30
-64
-13
-2
-8
-33
-6
-15
-32
-2
-8
3
49
-27
-18
-27
45
12
-29
-60
-17
-26
-16
58
-2
14
28
16
19
-3
-15
-1
-20
27
54
57
-28
-1
-6
13
-2
-14
-39
-29
10
50
-48
-12
-43
-31
26
11
23
-13
0
-5
-56
-6
-24
39
-14
-8
6
46
20
4
-16
-18
-13
-28
0
-56
-29
-12
49
7
-20
9
-7
12
3
-38
20
17
11
-33
-17
-23
27
-15
-60
-46
8
44
16
7
-15
31
17
-10
-20
16
24
-4
-12
-34
3
-3
4
-3
0
-22
-14
-22
64
-48
-19
-37
-18
36
-2
52
-5
-15
79
-31
23
53
16
32
-15
9
21
41
-1
-38
34
48
10
-5
-25
25
-6
12
7
0
-48
49
-2
-49
-22
-28
-3
5
2
10
30
27
8
19
5
29
56
7
21
49
-26
60
50
21
-2
-6
37
-25
-68
-16
-26
-20
-18
34
15
-28
-62
29
41
10
-4
-23
-37
-24
-9
-11
-18
-36
39
9
30
24
26
-36
-34
6
-7
-3
-59
19
12
41
-7
59
-10
11
25
44
25
-59
-7
6
-15
33
-14
-9
15
-52
34
20
-19
-38
6
25
-33
2
11
9
46
63
-3
-4
21
-26
4
-19
-42
43
-8
51
-3
5
10
0
0
31
52
-4
6
-1
-27
40
14
-24
10
26
24
44
55
-23
8
-36
-43
-50
-16
66
53
34
16
24
16
-24
-2
-15
-10
-37
59
-24
-23
-29
12
-55
-21
-13
-47
18
1
13
-39
6
22
52
32
-24
33
2
-4
43
9
29
-52
-54
10
9
13
-10
-16
-40
-61
19
-88
-39
52
-57
-40
-54
-11
14
-36
-24
6
36
-6
-14
20
12
65
5
2
41
-2
0
-21
-10
17
3
-6
46
7
30
-1
-15
-65
-10
4
-22
-64
-24
-15
-33
-53
43
30
-52
-60
5
-4
5
-26
-11
36
-29
44
6
-3
-25
-14
72
19
14
-9
-13
5
22
-19
29
44
-27
-27
-44
-49
36
5
-51
-31
-23
17
-23
14
1
41
18
16
-18
45
1
-43
-40
-37
5
-27
9
-26
37
13
5
9
-35
-7
-23
-29
-14
76
58
-35
-9
10
38
-18
21
1
-13
-5
-41
-12
-6
27
-26
-51
50
2
27
-14
37
-8
15
11
7
70
-3
-11
-29
23
6
27
19
-54
9
-19
66
61
52
4
-28
-30
11
32
31
-9
27
-26
-45
-54
23
-33
35
-10
33
63
11
-41
-22
23
-39
-26
31
-51
-4
1
-16
-1
-6
-42
56
28
-27
20
1
4
-16
-51
34
-32
-37
0
-14
9
23
-11
-10
-59
-2
-124
-30
-19
-1
-26
-38
17
-30
28
-17
-38
-8
-26
-34
-37
33
1
-49
46
11
35
-25
-19
-58
28
0
-17
-30
29
-8
-39
13
-4
15
17
-10
-35
-26
-15
-5
40
-34
-25
-35
-56
16
33
12
3
25
41
-51
54
27
-43
-45
-3
11
10
9
30
6
-7
56
49
31
28
23
-48
-16
-26
10
-25
32
-15
56
-8
35
-1
-18
48
0
-41
-36
-10
9
-33
-51
-1
-19
-1
30
-18
-17
25
1
18
-49
21
14
-6
-8
5
-3
-40
6
-73
-8
-60
-37
-36
38
-24
22
24
4
34
-58
51
42
23
-64
36
37
-34
20
6
13
-12
-2
-28
-30
25
53
15
4
23
-26
-33
43
-6
5
-13
-2
-45
-32
3
-13
-4
-41
3
16
-78
23
-35
-8
-43
14
-34
1
11
23
-45
3
-27
-19
-9
-11
19
8
40
-13
-9
26
57
-17
-44
-35
42
-12
28
-8
12
-77
-61
32
-20
2
41
-52
-15
7
-1
-22
-28
47
-10
33
8
2
-47
-10
46
-17
-16
-22
2
-13
23
-40
-19
23
-37
9
-57
-1
27
12
-16
45
28
21
-79
-32
35
12
-31
-15
2
-12
-29
-65
-9
33
16
0
3
51
-15
-54
12
36
24
-11
-22
42
-28
56
37
-37
-3
2
21
34
41
-16
4
58
-28
5
-49
23
-30
-4
43
47
-31
6
-46
39
-56
-36
11
27
-39
-16
-82
-18
23
-17
-34
12
-34
-4
-22
-5
55
-11
26
-36
-26
27
40
-53
3
10
-16
43
17
-35
-1
-17
-5
10
-9
-25
-3
32
2
1
-5
39
0
6
59
23
16
-42
0
-37
61
-35
-51
-26
-7
-3
26
-23
-13
-11
39
79
-1
-32
-57
-31
27
34
-18
35
17
14
19
-11
-50
17
-4
-40
-24
34
13
33
53
-3
-5
23
3
-16
53
-29
-25
31
-19
9
-77
50
-2
37
-27
42
6
-31
-31
11
-40
-17
-26
-19
-49
13
-20
8
-37
2
-18
-47
-30
-29
37
24
-57
-36
-19
39
9
24
-25
23
-30
10
62
2
-56
81
-56
-7
-13
-2
9
-31
-47
16
8
40
-27
-28
-10
-7
-26
35
-7
-15
33
-4
32
5
-18
-6
-54
27
64
32
-20
-5
54
13
-6
-41
-31
-18
-37
34
-8
-27
20
-30
-28
-7
-14
-13
47
83
-27
13
-5
-3
4
34
-36
-7
34
-1
-74
-48
-9
9
-25
-8
34
-23
-18
7
18
-13
51
37
-27
-18
-14
30
-29
37
-33
0
8
-33
-20
-14
-50
29
31
-2
-52
7
17
-9
44
-42
18
-5
14
-39
-33
11
-23
35
8
-12
-4
1
-3
34
28
19
-48
-12
-51
-14
38
31
-42
-5
1
48
25
24
-39
27
-8
-36
-3
35
-23
21
25
-20
9
-10
30
34
-8
-38
52
22
-48
-16
26
-4
32
-2
-33
-10
-6
-19
-3
51
-20
-3
-23
-6
-28
12
-22
8
-12
13
-52
25
24
-22
-16
3
41
-40
-57
-27
-69
22
50
-2
-5
-19
12
16
49
-42
-22
36
-24
-47
-13
89
30
21
31
40
26
-42
-24
-1
-26
-43
16
34
-23
26
-22
-9
22
31
4
73
-64
-23
6
-13
8
-43
-24
-49
-11
-37
22
3
24
25
75
-18
18
8
12
-25
-23
68
63
20
-26
-25
23
41
10
28
74
37
-36
0
-10
-35
15
45
-55
51
-24
-14
-12
-10
22
36
16
-33
65
-13
-42
-12
-7
-6
-37
-1
-39
9
13
1
38
18
14
-39
-29
-15
52
-6
-34
18
27
17
-5
-16
-56
-31
-32
13
-8
-11
6
-21
45
7
13
-68
38
11
8
-8
-14
-43
28
-56
-33
10
13
1
-41
9
0
-45
24
40
3
-42
50
26
-19
6
-3
10
-16
8
3
-13
35
33
48
-7
-37
0
-67
-36
-31
-3
15
98
-12
-18
-3
-32
2
42
43
25
-36
3
3
2
-3
-36
42
-25
30
10
-5
3
48
-18
-9
-8
-10
-40
7
24
54
-34
-49
39
39
50
12
7
-24
50
67
-11
11
4
14
-23
-12
10
-43
-68
21
-39
-23
1
-1
49
-17
-41
10
4
26
24
38
-38
2
-34
29
-38
-9
45
53
20
16
-26
-14
15
31
-20
7
-54
-15
-7
-36
16
-40
-26
48
-44
2
53
31
-11
1
-35
10
-28
28
-53
-5
24
-18
-34
19
33
-20
-57
40
-27
-7
1
-66
1
24
58
-47
22
-6
28
32
12
34
-23
7
6
-26
-34
-8
-29
-56
28
19
0
-47
0
-31
2
-6
24
-38
18
4
-16
11
46
-47
2
-10
13
-39
28
43
-9
-2
21
26
2
39
-7
61
9
-60
-35
-37
-13
-26
22
-6
6
18
9
29
-9
-9
-30
-1
-4
-24
11
-38
6
49
-57
-14
-28
20
-5
-29
20
9
76
-5
-10
2
-25
23
24
31
-9
52
-14
-51
27
-32
-4
-4
15
19
43
38
-14
-16
53
-43
-16
-26
-44
-22
19
26
-9
14
-26
-115
9
36
-32
-19
13
-10
-5
-39
55
27
-12
-2
-70
-20
35
2
-39
32
58
-12
-32
-9
-20
18
-14
25
-36
-48
5
-45
-16
44
36
-6
67
23
-36
31
-3
-12
-10
30
2
-16
1
75
12
-34
17
76
38
7
-18
-5
-13
12
26
60
3
-16
25
-18
10
15
13
54
76
-38
-12
24
20
-59
48
-9
34
24
13
14
-43
26
1
-12
-5
60
-39
18
48
-42
26
-34
69
5
-7
53
-21
-20
-21
-30
-6
30
-8
2
-55
-44
30
29
30
-14
-18
30
-9
-23
-11
45
1
-26
39
-16
-6
-20
-21
-21
-23
-27
-45
-23
6
-8
4
16
0
-9
-24
-1
-29
48
3
-49
-48
-56
26
12
36
34
19
25
-3
-13
-29
-29
34
6
-32
7
47
25
-6
-55
-25
6
22
-15
1
23
-34
23
-33
-33
55
-4
52
73
-69
4
34
-10
-51
-22
-42
3
-31
52
26
-29
45
27
-17
-12
47
13
25
83
31
-72
62
-18
28
1
23
21
19
-22
20
-11
56
5
-96
-6
-19
-13
4
4
-40
6
52
9
-3
15
-4
52
46
16
38
-34
-39
-46
-34
-13
12
-37
31
12
-49
-33
-33
39
21
11
-29
19
29
-31
-4
-4
-32
34
-7
45
-59
-38
11
40
4
0
-34
-57
-18
-15
-31
0
-1
12
-17
3
-44
19
-53
-12
3
-15
52
-61
-29
41
44
-51
33
40
37
-20
15
-19
-49
3
38
21
20
25
10
-1
-33
-36
-25
2
-38
21
-30
-44
-21
0
27
17
-59
3
-17
22
-33
5
12
15
22
8
-2
-18
4
43
-47
23
-6
-26
-7
33
-13
40
-53
-33
-3
12
-35
31
49
-15
-40
6
28
3
-21
-31
-10
-5
-23
-19
13
2
-51
-52
-60
8
3
1
-36
15
61
12
23
0
-12
16
-34
-17
22
-21
52
6
16
-16
2
-27
22
-14
-8
43
-41
60
33
33
-27
42
14
15
48
-26
3
107
59
-79
-25
1
-6
-16
-6
20
-33
22
-35
31
6
-34
-63
-59
33
16
-50
-20
33
-6
21
18
22
-13
-20
19
-3
-1
22
-4
-11
-19
-37
7
0
-10
3
-24
22
49
-3
33
33
8
-29
-2
-12
-82
37
17
-1
46
-14
48
-72
23
14
-6
7
-41
-14
10
-21
-18
-50
49
12
-49
31
56
-24
15
0
-32
-27
-18
9
4
-36
-8
27
-34
15
46
19
57
14
-35
-29
-5
43
-23
-13
-18
41
32
29
-11
2
-8
7
32
-51
-19
-9
18
-32
-6
5
21
45
-38
1
57
-28
26
43
8
24
-11
-49
-68
7
-12
37
-12
-29
-14
0
-31
39
17
18
-48
-29
12
-34
16
1
58
18
-47
34
12
-4
3
-49
1
3
-24
10
3
-37
-2
-12
-52
27
-58
-28
-55
-25
22
14
19
-12
24
29
41
-30
47
-30
-25
17
-56
-19
-4
-4
33
-33
-7
-55
-39
33
-27
62
-41
-54
48
11
27
-34
10
2
-17
46
-25
-28
-28
47
-7
-17
-19
-23
20
-43
-30
25
-4
22
37
37
-40
29
-7
2
-3
40
44
24
-20
-8
39
9
-51
-30
16
-2
-13
-53
-20
8
31
36
55
16
-39
-22
-24
-1
-38
-9
6
-32
8
68
-28
-35
49
5
56
-25
53
4
5
64
-25
45
39
37
-4
-17
66
27
-39
-46
10
11
-25
9
33
62
4
-9
31
23
-56
63
-46
54
-46
8
40
-40
82
51
-22
-10
-24
-13
54
-39
-36
-46
-33
-1
25
22
10
-18
7
-24
36
27
25
-24
-23
55
-60
2
30
8
47
52
44
-9
-23
-57
21
-2
6
6
11
-12
-28
31
-44
-31
33
80
7
9
-21
-15
2
-10
0
-37
6
45
18
11
-16
-51
-8
36
-25
38
-9
-15
67
-14
29
91
-4
-51
32
11
13
-23
-27
38
-86
-37
-40
5
56
100
-27
-40
-54
8
20
54
-6
5
-1
-47
17
-36
14
-6
-41
-10
36
53
64
-9
28
6
5
68
-1
-3
48
-52
-24
42
51
-33
-35
12
36
-56
-6
-46
-47
39
2
-2
2
7
19
-32
31
45
-23
89
-5
-52
8
5
-35
35
-43
30
31
-39
23
-12
-42
-7
0
16
-34
-2
11
14
52
3
-31
-7
38
-3
3
-12
23
-13
29
16
-33
-24
39
-34
-8
-27
40
71
34
8
31
-62
-35
-47
-51
-18
-11
8
71
18
-11
-53
-2
-2
6
2
3
-61
12
-10
40
7
7
-13
-12
31
-16
-1
-8
2
-1
22
-15
24
61
-31
0
-14
-45
8
12
-29
16
13
44
17
-8
9
32
-26
12
-28
21
-48
38
24
19
9
16
-16
-8
46
-2
-6
-43
-32
82
7
-17
-4
10
47
-14
-23
6
-26
-1
68
-23
32
-14
31
-8
-7
6
30
59
-55
7
10
28
-45
35
-7
-41
30
18
-26
33
18
-25
-46
-51
36
-4
33
58
33
19
51
12
-15
9
54
-51
-42
-3
52
67
-5
2
10
-9
-44
-10
-12
24
16
21
-1
10
25
-6
-28
-6
-36
-3
-28
-8
28
-31
0
4
-70
21
-63
25
-42
-28
29
46
-80
33
-16
50
-41
-33
-1
44
36
2
-21
37
-21
62
-24
-8
63
5
10
2
-34
-30
16
-14
51
7
-68
70
41
14
42
-55
-26
33
-29
25
27
-45
58
-4
-15
49
-56
-41
-15
25
-13
6
-29
-28
-14
38
-26
-58
-7
38
2
-23
-56
57
28
-8
2
23
-25
6
-47
-32
30
-27
29
-27
-50
-31
-14
22
-52
-11
-1
37
17
-38
26
-53
49
-46
-28
7
58
27
-47
-26
45
-26
5
9
-6
-14
18
-10
-5
48
-12
44
-30
-45
-25
1
23
22
4
-13
23
29
-24
-14
-1
-24
17
-11
-10
59
-14
-40
21
41
-23
20
-32
34
0
46
-27
14
-37
-36
-1
23
-47
13
37
26
-22
-55
9
-18
-14
-36
-39
21
5
21
-14
-15
-5
-86
19
60
-9
7
-6
5
-8
-21
-22
-32
-43
-12
-51
-38
60
39
-14
10
33
-6
-15
38
-2
26
-4
-24
-15
1
38
28
18
38
-22
-21
57
33
28
-22
-71
6
37
-8
42
-4
-23
25
-14
-51
13
22
-22
-22
11
-41
-9
-28
51
18
6
-61
-49
-40
9
39
-44
-17
0
-8
-53
6
28
41
50
-3
27
-19
33
-20
-32
30
-30
15
-40
39
6
32
-33
-13
-53
42
30
12
-32
31
12
29
32
47
-5
-47
-25
82
-9
17
28
36
-7
18
-19
23
-42
8
15
27
-29
-19
48
2
-41
-31
-55
11
-37
-5
-62
24
23
-18
19
0
-43
-3
-8
-27
-27
29
41
-52
-7
-16
-25
5
-4
29
48
-9
-69
5
-34
11
-3
51
16
36
-23
3
-40
-72
10
-11
-18
-20
68
-30
-36
7
-10
52
19
28
49
0
-37
43
-32
-5
-28
-28
-5
17
29
-3
53
53
19
-12
29
-30
-8
36
-8
33
36
-38
-12
-16
60
-6
26
-1
17
50
5
31
72
-21
-54
9
7
10
-33
-29
-39
23
44
-15
-16
-36
21
51
-34
-26
-23
-16
-34
-44
-35
44
-11
48
2
-3
-37
11
-1
48
9
7
-18
10
13
-6
-31
-25
2
14
1
53
-34
-54
11
-27
55
23
-57
-44
1
-25
-65
-8
20
-47
36
44
-54
21
0
-20
8
22
-9
-44
5
9
5
-15
60
-39
46
28
41
-1
-61
-20
-37
-1
13
18
36
1
12
-6
-54
-42
6
1
-14
-28
28
34
16
20
20
18
33
-22
19
-11
-28
32
-2
-33
52
63
-23
-34
-11
-38
28
-27
-16
34
-1
-4
-4
13
0
34
-10
28
9
6
-28
63
-18
-40
-25
-1
31
36
-24
28
5
53
-21
-22
-32
-36
34
-49
26
-24
22
-64
8
41
-9
29
-2
15
49
-16
34
21
17
-42
-14
-26
-32
-5
-24
-1
-26
-10
9
-43
4
-47
-11
-53
-77
21
7
-4
14
40
18
32
66
-43
-45
17
-25
38
-26
-34
0
-44
-49
-37
39
-33
-21
31
-6
-9
18
9
39
11
-25
0
-22
16
22
38
-45
11
-8
28
57
-41
21
1
11
58
-1
24
-13
-33
-32
-8
0
-7
32
22
-16
32
-28
-30
-36
-3
21
7
44
20
3
-34
0
19
11
28
49
-44
2
17
-12
-17
-44
-34
37
-11
10
64
-11
24
40
41
75
-11
78
-15
56
-25
15
21
-33
38
-52
-32
24
-22
19
95
-59
-13
-10
-29
-19
-26
12
-12
-21
-11
12
-33
-46
29
43
32
-35
-2
37
17
3
-40
13
55
57
-28
-42
14
-12
-20
27
25
-11
45
38
-14
-40
73
22
65
-11
-58
-39
47
-6
-21
1
49
6
8
-20
-56
5
15
29
11
26
75
27
3
20
25
21
18
24
-1
13
-30
10
0
39
-35
19
5
-48
-12
5
31
49
-38
-1
-55
49
-44
-55
-34
-26
4
10
-14
-5
-102
-34
1
-63
13
-26
-23
24
53
9
5
-21
-15
-57
-45
18
42
-20
-13
48
-39
33
45
-24
-53
23
38
-42
7
42
-11
6
28
-18
40
5
27
-7
0
-13
-40
25
-25
-1
-16
24
-2
32
-17
-18
1
17
28
-30
-57
-40
1
41
15
-39
-25
-32
16
49
55
16
45
63
-21
-52
-20
47
24
-19
-3
31
-5
-38
-15
-52
52
13
-32
-20
44
-47
35
6
-10
-61
28
33
-37
-20
-46
15
-33
26
32
24
-37
-50
48
-2
5
-42
-16
-38
-30
28
21
-9
46
-43
32
17
-23
-18
2
-53
4
-18
59
4
-11
6
54
-16
-25
8
25
22
-8
-28
40
-35
9
-26
20
-77
-24
55
-54
34
26
-38
-30
1
39
-7
34
-76
20
-2
69
68
26
-14
28
8
-14
-29
-1
-40
-20
-28
11
-14
12
-18
70
-2
-12
-59
-37
-60
-7
29
39
25
-46
15
-28
31
83
6
49
-3
32
-34
-1
9
45
38
43
28
5
-44
8
-28
6
-43
-71
-9
24
13
-45
97
-5
-13
9
-6
-18
-8
-11
6
-34
0
36
-26
-70
-19
26
-20
16
16
18
55
-62
-72
17
-3
-8
-56
45
-8
71
-27
-41
2
10
-23
-3
20
-10
39
-16
-14
27
-44
7
13
7
16
21
-9
9
72
45
46
-28
-65
39
-33
-48
27
-41
-14
29
6
75
-23
-49
55
39
-20
-10
24
-5
8
-17
-13
9
27
-30
-68
33
-48
54
-2
-26
16
23
41
14
-16
5
40
12
37
52
-57
-27
40
40
-5
4
-20
-50
-7
-55
11
0
-2
7
6
2
-9
-37
-15
52
-25
11
-79
27
52
0
-27
4
-24
-32
3
12
26
-27
20
6
-27
49
24
-69
19
17
6
-24
-26
40
-19
-1
-30
17
-35
-33
-28
10
33
6
-47
-9
24
37
20
-40
-28
-25
11
26
-44
11
-29
32
-24
5
58
-5
45
-10
12
-8
25
-23
54
-6
16
-13
-20
-15
-2
50
-48
-31
-7
-43
50
25
28
55
-28
17
-35
29
-7
36
19
12
-23
-13
36
12
2
3
-2
-6
1
2
40
1
-32
24
-46
-21
4
29
26
58
70
20
11
11
-10
13
-43
3
-26
19
-7
9
0
47
21
32
-26
-18
-15
27
-4
22
-36
21
-40
-18
13
-35
29
-27
54
-27
4
0
-35
29
40
-49
-34
3
-2
-18
24
3
17
-60
8
62
6
3
-74
-59
-8
-20
50
-2
-28
41
49
-23
29
-38
-39
59
-22
20
20
-4
-33
-26
2
27
-11
-59
28
-35
16
8
15
20
34
23
6
39
11
-14
22
-40
-8
9
-8
29
-52
30
-24
38
48
-4
30
-18
-35
13
-2
40
-8
24
-33
-45
-38
-21
12
10
1
8
-19
43
-2
-51
33
-57
-29
-26
38
41
-19
-31
-50
16
23
-44
-61
33
26
60
31
37
0
36
-21
5
-28
-13
61
-33
-22
1
-14
39
37
7
-47
43
-9
-34
-37
-8
-39
-50
-26
4
-8
27
37
6
12
-23
-51
-3
18
-15
-26
-58
51
-2
21
41
38
2
-36
-18
3
-1
-8
36
-42
-16
11
-10
1
15
-23
52
27
17
42
-9
-4
15
-35
38
26
-20
1
-23
35
28
29
-47
-14
7
-15
-11
-5
-22
18
6
-2
-40
26
53
2
-23
3
25
13
50
-30
-8
-3
16
26
-36
23
-2
64
48
-12
11
-30
80
31
28
-45
-46
48
5
-20
13
-6
-9
71
-8
2
-14
-12
-6
-3
27
31
-10
-37
24
21
48
20
47
-11
-24
-50
-21
-43
-38
26
42
-9
-37
-50
-5
27
66
24
-45
26
37
-20
-37
-56
33
2
-40
25
26
-50
-28
28
-21
13
-27
-40
51
-17
-33
-23
41
46
-21
-41
46
13
9
16
19
-36
-23
12
17
16
24
17
-23
-40
-41
26
-18
1
-39
84
-8
37
42
-27
-19
30
0
27
0
33
-54
-29
36
-38
36
-1
-46
-19
39
10
26
36
2
-23
28
-30
-28
-4
1
-12
-49
27
32
6
-39
-69
2
-20
68
-14
-41
-11
-12
-47
17
0
18
-21
29
34
5
14
38
-42
16
-50
-6
36
-5
22
32
-60
-11
66
-5
11
66
5
-26
25
22
-20
-46
31
-17
15
15
-9
21
16
-28
20
38
12
-1
21
34
-17
-36
20
24
-5
41
3
-14
20
42
58
22
-29
-23
-27
51
19
-55
-21
25
31
-33
-70
54
18
10
-13
47
-35
-75
-2
-8
18
24
0
28
-11
31
0
-18
35
-11
35
11
6
39
6
-32
46
-34
-11
45
22
25
-4
-52
-19
-42
-29
15
4
6
-16
-20
51
38
12
-46
3
17
-15
7
22
-14
45
-22
-23
-13
2
-15
-34
-12
-21
-38
35
17
48
-51
9
-40
-4
10
2
-28
18
30
-47
-11
22
-24
-1
26
49
13
46
-16
15
-18
37
52
-41
-5
38
37
22
-16
-36
-7
-42
34
-37
38
-6
11
-28
-34
-45
-32
-26
-52
-2
38
18
-38
-13
0
-31
26
5
-12
-1
-2
39
-26
-4
-18
-15
8
-31
-28
-8
24
30
34
-48
20
-2
26
-47
30
20
8
-41
-50
-6
15
23
34
-42
38
-5
-26
41
19
23
1
-7
38
-31
6
38
-15
16
-42
-17
27
-26
-23
38
-10
2
19
-7
45
-35
25
-60
-2
-19
36
5
-53
-19
49
9
-5
64
27
-21
50
46
14
-16
-12
-2
9
-14
-47
17
-37
7
43
-14
31
-10
28
-3
40
30
47
4
14
2
-68
-28
-39
-8
-6
-5
47
-11
-20
-6
28
-37
27
30
-34
-1
-43
20
58
-39
-13
-65
33
-30
15
18
-29
40
-36
-3
-19
12
39
-30
-18
-56
-47
-7
9
36
-10
30
-8
-32
-16
-31
-24
-20
31
-24
17
46
8
-18
-2
-11
14
27
2
-38
8
22
-23
-25
1
36
32
-27
26
-56
37
-17
23
24
-17
-26
42
-17
9
-35
-5
0
-37
-8
24
21
-37
9
11
-46
23
13
2
8
-37
5
-7
20
-16
43
-2
37
10
1
68
20
-31
20
-60
36
6
0
2
-3
52
-48
9
20
31
47
39
11
45
34
48
-31
37
-3
-24
24
-63
13
66
-58
32
15
9
-55
-15
-7
5
24
13
-33
-45
-50
18
41
49
2
27
58
-28
-50
62
-18
-9
-31
3
-25
2
9
9
27
0
11
29
19
20
-13
4
-55
-47
-11
-54
32
-50
30
-56
50
40
-22
-48
-65
-25
25
37
-25
28
-26
-34
41
-1
5
-54
-67
-31
-13
48
27
-27
22
-9
38
-34
-11
-15
-61
52
33
-56
13
33
11
-2
-14
4
-7
-44
-21
24
7
-54
53
14
-3
-29
-18
8
0
39
-45
-5
34
-40
-3
1
-15
29
-44
34
11
9
20
-11
-29
15
15
16
20
-22
58
-45
51
-49
30
24
-8
-9
-4
2
2
-36
31
21
-46
19
10
50
53
-33
-18
0
-73
-53
54
53
-8
20
-11
-22
62
55
25
20
-26
-30
37
41
-15
-43
52
-77
-18
-26
-15
9
-62
26
-38
8
-4
-22
33
-6
1
36
-8
38
-55
38
21
13
64
-38
-20
-13
-38
69
-43
17
42
-5
7
8
-61
-52
-58
11
8
52
39
23
22
-21
-26
-10
-5
8
36
11
-1
-26
-51
-50
42
-9
-30
23
-60
0
35
20
30
24
70
-2
-46
39
40
6
-53
7
-47
10
-16
13
10
-39
-4
32
-21
-38
-10
32
8
-5
25
22
8
-18
-52
-67
62
58
20
12
-32
28
21
-17
29
-26
-23
15
22
45
20
-68
-29
28
28
19
18
30
17
11
-42
6
28
-6
38
10
26
36
-55
-19
-43
-21
0
-24
40
46
-1
-67
27
67
-9
32
-11
18
-31
-12
26
37
79
-30
-44
-15
-31
6
47
-50
-43
8
-25
38
25
21
-20
13
-2
40
35
-1
31
1
-19
35
-62
-16
-32
-22
33
-7
-41
-22
12
-28
-59
-30
10
-11
32
43
39
-18
-46
-3
24
25
-51
-53
23
-18
45
25
29
38
-38
4
8
38
-5
25
-5
3
-22
-42
5
-12
4
42
-8
84
45
-11
2
-21
-16
8
-34
-28
7
13
2
-11
3
42
-27
24
45
-37
50
-30
-51
-38
1
20
-10
43
45
23
3
-61
18
-39
-21
-29
-40
-22
24
6
-27
34
25
-6
57
15
-17
-21
29
50
1
19
-66
-43
-18
-48
-25
-6
-7
47
26
-9
7
19
-48
-21
18
66
16
20
-67
-29
-27
1
38
-22
-41
35
-15
28
-20
9
8
11
47
42
57
-33
-36
-10
-16
-13
-3
-12
37
-38
-12
30
-27
-47
-13
-22
-37
15
-11
30
-19
15
-23
-28
-42
-41
-57
-32
34
57
-7
10
6
-41
33
-34
24
9
52
-60
-35
-16
-33
52
72
-54
30
-12
-3
-37
2
-18
-8
-56
-27
-22
43
28
9
51
20
43
-53
-31
52
3
28
30
-15
-38
-35
-31
-63
6
-47
-38
43
-32
-22
24
41
-33
55
-17
-20
-41
37
4
6
-21
-11
26
-33
24
0
15
-7
-53
21
10
-30
27
-38
34
37
45
32
37
34
-46
65
61
26
-6
-23
-26
-11
-28
-42
-56
1
46
-36
-29
22
-14
29
1
-8
5
6
-11
-23
4
18
6
-17
-15
-10
14
-14
-6
-34
-42
34
56
-4
33
-26
-23
-7
-31
-4
-50
-8
24
31
-12
-2
-36
28
9
48
37
23
-25
-38
6
33
-44
-36
-27
30
3
-38
24
-12
16
-38
-16
-7
17
11
5
8
4
29
-2
-11
-42
-27
-14
-5
45
40
15
-41
33
37
29
26
-22
29
29
-48
56
-12
-46
10
56
18
5
26
9
-25
50
-26
-42
58
22
2
-67
11
-12
16
-22
5
-49
-16
30
-70
-25
33
29
-41
-43
-64
-3
7
38
-50
19
-21
-17
6
-48
26
-22
-56
-27
6
4
24
-3
3
-19
-14
-19
-32
25
21
48
-23
-25
42
-35
47
11
-38
33
15
20
-20
-12
-59
16
4
-15
-4
29
-15
56
-27
-23
-4
51
-22
49
-19
61
28
-34
56
-24
-16
18
8
-52
41
-57
-34
-13
4
-5
6
-69
-19
-14
6
-8
-41
24
11
-20
-10
-5
-6
60
-24
-35
46
-15
38
-34
2
-48
-37
-16
5
38
-49
49
29
-14
15
38
21
33
46
-35
-28
49
-22
-7
3
-18
-31
-31
44
-46
26
56
11
43
5
-26
21
21
23
71
-53
33
43
-36
-44
-39
-1
-45
4
36
44
27
-28
-15
54
39
-9
31
23
10
1
-42
16
10
-21
20
-6
-7
-20
-32
-12
-41
-7
23
54
38
71
25
-41
-1
37
55
-63
21
-26
3
4
2
28
40
-31
38
19
15
46
-36
5
31
19
10
-25
56
12
-46
19
-25
-6
3
-37
23
22
33
-56
54
36
-30
44
-24
49
-17
25
5
-3
6
23
-42
11
-28
-22
-9
-5
11
47
5
-23
-32
23
-61
27
-30
-20
32
-26
4
-22
44
-10
8
12
11
38
9
-19
55
8
-1
-41
39
-33
-31
-21
11
-33
-23
53
-18
59
4
-40
-34
-59
12
-26
17
-18
-26
-7
-15
-36
30
41
48
17
37
-1
-13
-18
-34
36
27
-24
-33
-34
21
-19
56
-11
21
-20
-29
28
-14
11
-8
27
-22
30
-6
-53
-27
-26
53
2
-36
-4
-21
-63
-39
6
34
-5
6
14
42
37
-27
-60
3
38
10
31
28
6
16
34
-46
33
38
42
39
-27
20
-2
9
11
-40
18
-32
9
28
21
35
15
29
-28
8
22
-43
-39
8
-16
7
19
-4
-7
11
-24
-2
34
-46
10
43
-14
-2
-44
1
-11
-16
-30
-12
-7
6
13
18
5
57
8
-26
-25
4
-28
13
31
-40
40
60
19
37
14
26
14
11
-32
-5
31
-9
-13
-38
-28
21
-50
32
-38
17
58
15
-10
7
8
40
14
12
-4
-25
-49
23
40
-3
-19
-27
-17
-12
54
24
50
-34
53
-6
-25
8
-31
5
-30
32
40
-76
-30
23
11
-5
7
33
30
-26
44
11
-16
-28
-50
47
-11
62
-1
57
34
10
-23
39
-4
-31
-5
-22
4
-56
-35
2
15
-6
-19
12
5
-33
-18
-12
44
-45
-44
-5
15
-14
47
-10
3
7
34
-3
12
13
-30
12
-22
11
7
-26
21
-18
-34
9
9
14
-42
57
-20
-17
-54
-2
-23
13
55
36
-26
-45
-17
-49
2
23
-5
-11
20
-4
22
36
-29
46
35
-28
28
0
35
-25
-5
38
23
-46
-20
-21
-28
-51
-14
17
39
-44
13
39
-51
-18
-1
-22
-5
-26
48
-16
18
27
57
-46
28
42
34
-47
-46
19
-76
-27
23
66
16
-15
38
23
-22
-54
11
-48
19
19
22
61
-39
22
-25
22
12
13
-51
-11
-21
11
45
42
14
-15
-88
-5
-86
23
-5
19
-6
21
24
-1
-21
42
-38
36
26
-79
13
34
8
-14
-10
44
-48
45
13
-47
31
-44
-16
-25
45
0
1
-43
26
52
56
40
-3
-35
39
2
1
28
-16
13
-51
50
-29
42
-1
-2
-14
-7
-91
32
48
12
7
23
22
32
48
-7
36
72
0
45
51
-40
-49
-37
-33
-22
94
7
26
15
-14
-50
33
23
-5
-7
56
-19
-34
41
-38
10
-20
8
13
3
-14
-8
11
52
24
37
-37
12
16
-63
11
34
-25
5
-37
19
-33
-66
6
7
-19
22
-64
18
19
13
-28
42
24
-30
-33
1
-21
10
-19
14
26
25
26
44
45
49
85
49
47
19
10
17
16
-45
22
23
14
56
-13
14
-32
17
40
25
-27
1
-13
14
-51
-21
12
-35
-33
3
-20
-56
-9
-5
-52
8
39
-3
-42
20
32
23
16
-65
-14
-19
9
-4
-14
-12
60
29
-18
9
-63
24
6
38
-11
-28
-1
-18
-10
30
-35
5
-10
15
37
-60
-26
12
3
-15
-41
25
-28
32
17
-4
34
-20
34
0
15
19
47
33
-58
-41
13
-14
52
-30
-54
4
-11
-15
-11
49
39
-56
-29
-6
-49
0
-33
-32
10
2
-45
8
68
-55
-6
-16
54
28
18
-8
-50
-9
-3
22
-9
-33
-38
48
51
37
44
-52
-53
-64
32
-25
32
-20
-33
-3
-30
34
-8
-27
56
13
-2
1
-22
48
-8
-34
27
53
-30
-38
-14
-63
49
-14
-44
-11
-46
-70
27
-11
-24
1
37
-5
13
19
-29
-46
-45
37
-48
-25
22
10
-43
9
-2
47
-1
-51
13
28
-42
-11
-8
-10
-58
-18
-35
8
-23
-45
-43
89
38
-13
-6
39
-20
3
-45
1
5
17
-21
-14
17
-18
-68
-41
33
-21
-21
20
69
22
-57
36
10
10
-1
-23
-35
17
-34
-7
-40
-25
-37
-24
37
15
10
-29
42
-19
39
-11
7
-3
21
-13
30
-15
31
-51
54
-33
15
23
-25
25
-10
5
-9
6
34
-24
23
-3
19
6
12
-26
17
31
48
-5
-11
-46
-30
-27
14
45
7
3
12
8
-27
44
22
-20
18
-64
-38
-7
-39
-44
-37
45
33
16
-27
10
1
45
-16
23
19
24
-15
-42
20
3
26
-16
-27
3
21
5
-1
-22
-20
-17
36
1
16
-29
4
-45
17
-5
-17
-3
20
-24
-31
12
-31
-41
41
11
24
23
-53
33
9
-19
-3
-40
-14
14
-3
16
-26
-7
-18
49
8
-8
-40
1
22
50
21
49
19
-17
57
8
-30
-40
29
3
-14
-48
51
50
-3
-57
-26
74
51
-40
-16
-4
1
-24
23
29
-24
-26
8
55
6
7
14
-32
11
7
-32
13
1
28
15
20
20
-18
-2
5
-5
10
41
16
26
-3
-1
10
35
68
1
-12
66
31
12
-6
29
39
19
47
-33
40
22
-21
21
-27
-60
54
-22
0
18
3
29
-4
3
16
-3
-19
-11
-52
-47
-37
-12
-25
15
25
-29
43
-43
30
13
4
13
33
-15
-30
53
-34
-30
-28
-31
-45
-41
-41
-14
48
33
-16
-34
12
-49
48
-35
-31
35
40
-10
-10
34
15
16
18
8
-42
16
23
-49
-7
24
-3
-115
-14
-18
-48
-32
-2
-33
31
9
-9
30
26
29
-22
-12
-51
-30
14
34
12
13
60
-9
-29
-8
17
-4
21
36
11
-5
39
31
-41
-18
31
-27
-49
-9
17
-11
-42
-31
34
29
43
-51
-18
6
-46
60
51
-46
26
-16
20
16
-27
-37
6
-43
32
48
-15
41
-29
28
-29
15
-2
64
-19
46
-32
45
-33
24
-16
32
-9
44
-10
-18
57
0
-16
-38
6
25
-9
34
-46
24
41
60
1
55
6
10
3
57
39
-40
35
-27
6
-2
26
0
56
4
-14
-43
-21
-8
-36
-18
0
26
12
-4
17
49
-26
3
-28
-26
33
43
-10
14
15
-4
8
-19
43
25
-32
40
-2
-4
-30
44
-18
22
-49
18
-29
14
-29
-5
6
69
-22
-29
7
-11
-1
-7
-23
-6
24
-44
-33
-18
33
28
8
-11
-18
19
36
-12
36
-17
-42
14
-30
-10
-65
8
10
36
-22
36
-47
23
-20
0
-2
-35
21
20
-12
-13
-27
2
11
-35
-40
21
8
-18
5
-60
0
-16
-43
-4
-34
-18
23
24
-30
6
74
13
20
32
-51
8
-63
18
-12
5
-40
37
18
-33
4
40
40
-58
-5
-39
54
-38
-36
29
3
1
-25
-55
-6
-14
-31
9
29
-31
28
10
-5
14
-13
-28
10
25
16
-20
-29
-28
-59
-21
25
34
-13
-32
-18
35
-17
45
25
23
36
22
7
0
10
-39
-6
22
-22
-9
21
21
-26
-19
-61
11
-28
31
16
-10
-7
21
-19
-9
9
3
5
-50
28
6
-55
16
53
-52
1
-32
3
-9
-14
-27
-21
44
-32
6
12
-16
13
13
-11
-17
-48
-17
-24
19
22
25
2
-9
54
26
-5
55
21
-45
35
18
25
65
-27
-44
17
-13
-7
38
-3
-27
37
15
-50
50
19
6
-29
42
-23
-4
4
-32
13
-17
20
19
-9
-31
48
-17
-19
0
-10
5
-4
14
40
-1
39
-13
61
-22
48
35
63
9
-20
33
50
9
-7
29
-31
-26
-27
27
-36
-9
-25
-26
41
-60
-22
38
-34
44
21
-20
-15
-44
-48
15
-19
5
-30
12
9
-2
62
-53
-44
-51
14
-2
-18
18
-5
70
28
-22
-35
9
48
22
-7
-9
-24
21
38
37
-21
47
-29
25
5
29
38
0
13
-13
-53
46
7
18
14
60
-35
-19
28
1
-20
31
-5
-37
-52
42
-51
-75
-15
38
19
0
-38
-19
17
-8
-18
12
45
27
15
-1
51
-54
19
32
-33
19
-41
-35
15
37
46
64
-4
47
2
-54
-57
52
27
20
18
-24
41
21
4
-38
7
-1
-8
33
-64
11
0
20
34
-60
14
-46
16
8
-5
-30
24
-35
-14
6
-29
24
19
-27
-9
-41
-51
22
22
43
-22
4
-23
22
-37
56
-10
-50
-15
-46
53
-49
-20
-30
-34
23
20
13
20
0
14
-33
-6
34
52
27
13
19
17
19
-53
68
-30
-3
-15
-5
-25
-27
-2
-70
-8
-17
-63
-11
-31
-22
-35
-34
19
-23
42
-41
-29
-29
26
30
-27
-23
-30
-59
53
45
38
-3
45
-20
-49
-14
26
-19
8
-26
-40
55
15
-2
-3
42
11
-55
7
-68
-3
-1
52
15
-37
-5
-30
53
2
12
-14
-81
-42
-24
34
-10
46
26
13
42
20
-1
-74
7
-19
72
-10
-36
-51
-11
15
64
-23
-41
-34
25
-47
-19
0
-8
63
7
-18
68
-46
-27
-32
-15
21
19
43
45
46
12
-11
-23
-10
37
-18
38
-22
35
23
-1
-10
-22
32
1
52
-48
6
46
-35
-25
40
-31
48
19
47
-36
-18
14
-17
-21
-36
-12
63
36
-2
-41
22
-4
11
-10
21
9
1
-2
-39
-22
-17
-3
7
-7
-13
28
-7
-3
15
33
-4
-54
-31
-4
3
40
17
-47
-11
4
6
5
60
-36
3
37
9
30
16
-4
15
7
-25
29
62
21
-21
-9
51
41
-38
43
-64
-11
-34
3
-18
-11
-40
-50
-10
-39
-40
17
-59
11
-25
-56
-28
-20
29
-20
12
50
11
18
29
-47
-26
-7
16
-1
-29
-23
11
-38
-4
-1
-29
-22
48
-35
-43
49
-22
11
-7
-16
-18
-44
14
-41
26
10
-26
2
-21
5
-46
19
68
-25
-11
-69
23
-47
-16
8
9
-55
36
46
-21
-27
-48
30
-20
-12
28
40
-12
32
38
-22
23
7
-28
-15
-21
36
7
-23
-4
-46
39
-35
25
34
-26
18
-13
31
-4
1
29
37
46
19
-27
73
31
-3
12
32
-30
16
-9
52
-26
12
40
30
-2
10
31
6
59
-33
37
32
51
-14
-2
14
-25
22
7
-7
7
15
-41
-49
18
-26
-11
-26
34
57
25
30
-17
12
-39
48
-42
-7
-25
8
-16
9
-18
46
-15
18
29
12
27
59
49
-27
-53
-28
49
-7
31
42
11
-7
13
33
26
-1
38
19
-25
3
7
-4
-9
6
47
-15
-33
17
4
-26
-37
-2
-5
-56
-7
-33
41
27
-53
9
-55
27
30
56
62
9
47
-6
19
34
28
-5
16
-20
-11
-11
24
41
85
14
-24
-15
-65
1
-3
-35
-40
6
-18
54
11
24
29
-1
-33
-53
-31
-67
10
-22
-6
-8
-57
12
-5
4
43
29
-28
-44
54
-43
31
-39
2
20
-31
63
1
9
-16
0
-17
-34
50
43
47
20
33
68
0
-16
-27
-36
-35
35
-20
-44
16
-4
42
33
24
7
6
32
-30
11
55
57
-4
25
38
25
-35
10
58
-59
-28
14
-15
30
3
54
-17
-20
-49
-31
6
-22
9
-13
55
24
24
-10
5
-35
-41
17
-15
18
-47
-42
-22
-36
42
-49
24
-22
-20
-36
-17
36
3
23
-57
-56
8
20
-3
-48
-36
9
12
61
-20
7
-4
-8
-16
-6
-33
75
60
-62
-42
-9
-14
-22
47
19
-2
30
-29
12
41
-54
51
-19
-5
45
-12
-17
26
12
72
13
-16
15
-24
46
-69
-2
18
-68
7
-29
-3
-71
-10
32
-1
-3
37
8
11
-44
-38
26
9
-9
-30
52
-25
31
17
-40
-43
-32
53
-19
41
15
-34
-37
-43
-25
44
-26
-38
10
-26
-7
20
-22
56
-78
-49
-57
-27
-79
-7
-1
-21
23
45
8
26
-17
-60
-50
15
16
36
10
18
-26
-26
17
34
12
39
-48
16
-32
-4
1
17
-1
13
-48
25
-3
27
41
50
21
40
65
-23
30
21
22
-17
-17
-20
-49
-14
28
26
-27
17
1
-64
35
12
16
0
46
29
20
-49
-22
-20
-54
-3
18
32
-23
17
20
0
-5
-49
-10
-18
-19
-22
-4
30
-42
32
30
32
28
-7
2
-47
-1
-33
-29
12
-12
32
-24
29
-11
14
40
13
-51
-31
21
26
55
-14
-1
20
-44
-22
-32
-6
-47
15
-14
0
60
53
-17
-15
-30
21
24
21
-24
27
-19
-27
39
-64
-24
-1
-49
47
-6
28
21
-19
-19
28
-60
55
6
4
17
29
7
-22
21
15
25
62
-17
-25
-19
-19
-51
17
22
16
21
-20
23
22
-5
18
56
-35
58
-22
10
-21
-28
-4
-28
3
-4
0
-13
9
32
10
1
11
-49
32
21
-58
58
-1
33
0
-1
-37
63
35
-30
16
-13
0
7
-24
9
-25
42
26
-48
57
-38
16
-11
37
-30
37
-32
34
5
-46
0
-30
8
-54
-73
18
-27
51
27
31
8
-21
30
3
56
37
28
-42
28
-19
-28
31
-32
-22
-26
-49
-3
17
27
-1
-72
-29
27
26
15
-11
-47
-60
-43
-21
-4
-26
-14
3
12
10
4
-56
-14
-12
46
-41
-21
-43
34
-10
-1
-7
5
13
8
-38
21
17
10
-42
-36
-16
16
33
37
47
-38
36
3
26
-4
23
60
-14
-14
-8
-45
-39
0
9
-14
31
-25
-6
25
13
13
-32
-9
18
-14
-16
24
-43
48
-14
-30
-96
23
-3
10
27
17
58
-17
20
4
35
-39
-21
-35
53
39
36
-9
23
43
-1
-20
5
44
21
-32
1
-52
13
-21
-59
-6
-49
25
64
-13
48
0
-53
9
-11
3
-67
-12
-6
-32
61
6
14
-32
1
32
58
-51
-15
-38
22
32
-17
21
59
65
-39
8
14
16
39
-31
-25
-48
0
35
19
45
-44
-19
20
-33
-22
-7
14
28
-36
-27
40
0
31
-6
-36
-34
-9
23
-32
-52
18
16
7
13
-30
43
-26
17
-39
46
22
-33
-4
13
46
37
36
33
-39
-31
-56
-32
-34
10
-8
-53
6
27
-18
-22
19
42
-52
-9
-4
-55
-11
30
42
-67
31
-16
4
46
16
11
26
32
-34
-35
-18
32
6
9
4
-34
-7
-1
-5
-12
14
16
21
-7
-37
16
50
29
59
-28
37
-26
14
-14
-47
13
19
-38
3
-17
38
-66
23
-23
-33
51
-9
-13
-14
25
-10
41
18
-2
11
21
7
25
-7
48
8
17
-59
-1
56
-50
-46
-30
-14
27
11
20
38
34
72
-10
32
106
-50
18
44
-6
49
24
-32
-9
3
17
-49
-10
-25
-45
52
-31
32
22
2
-7
-37
22
30
-43
-15
-9
9
25
-5
43
-46
-15
7
-66
-12
28
21
-10
35
0
14
-27
-37
-33
-67
29
27
-30
49
-51
-70
-39
-17
36
15
17
27
9
-29
7
-7
-45
-9
18
18
13
25
33
-8
32
23
11
21
21
5
-10
-23
18
-47
-35
-5
-14
27
-44
23
-21
-40
-21
-53
-1
-41
-33
-2
18
-39
5
-24
15
-6
-11
-44
35
-18
-49
23
40
-7
-47
-36
48
19
-6
26
6
49
11
-6
35
16
7
38
26
-3
53
-84
10
22
-27
33
-32
8
40
-3
-18
55
-39
-12
-74
-13
-41
-3
59
39
11
21
-37
26
-2
5
42
35
-25
3
1
10
-20
31
-36
-27
-14
37
-51
-50
-35
-37
-13
-49
-16
-10
-25
-14
-44
13
18
42
18
-23
35
7
-6
-20
-7
-20
40
42
-14
14
-28
-5
40
32
14
0
-8
39
8
53
19
1
34
-11
0
-50
-62
-14
8
43
-28
10
-5
29
66
16
-13
50
11
7
14
8
-34
0
8
48
-29
81
-26
33
-55
-29
31
-25
2
-34
-31
8
-54
46
-39
-12
37
6
60
11
-31
12
-21
-63
25
-69
-41
19
-47
15
2
22
52
-8
26
31
59
-53
17
-2
-15
17
17
-20
7
-20
2
-45
-31
52
-50
-15
-33
-41
56
5
-39
-20
-26
36
-24
-49
-12
24
-42
-30
-5
26
-4
30
-34
1
-3
-29
-35
-21
10
-42
-47
31
-27
49
7
20
-32
-42
66
-1
48
12
52
-12
18
-30
3
42
-49
-11
-10
40
48
5
-33
0
-31
-30
-54
36
3
13
23
-4
53
-20
-27
49
-13
32
-25
22
23
-23
5
-71
-5
19
6
-36
-44
-19
-52
7
43
-17
-18
-7
34
27
-33
6
5
-18
-60
43
41
29
-5
37
-16
28
-9
-5
-13
-19
23
-1
-19
2
7
17
-68
-11
31
-9
-19
15
-2
38
44
-33
4
-63
47
-6
3
7
11
-35
-9
22
-12
19
5
32
33
2
18
-4
-18
8
-42
-35
17
70
-11
-18
-3
-13
51
-6
34
-38
43
-11
-2
48
15
-4
19
-23
9
-1
-35
25
-15
-17
36
-41
-60
-6
-2
-18
-43
-23
12
-5
15
-23
-23
18
19
25
20
-23
2
-39
24
-27
-21
-38
-6
-30
3
-49
-55
29
46
10
-56
26
53
-23
-14
-50
14
-6
-11
-26
49
-12
-31
-29
-8
31
44
-2
7
-3
-32
-47
15
-2
33
-32
-40
4
-1
-14
36
-32
34
16
18
-25
-35
-6
25
28
-64
23
-22
4
-3
57
-28
6
-22
28
35
-27
-3
29
-19
6
57
-34
15
-4
22
-20
-53
5
-36
-14
74
-24
4
-37
20
-49
0
-14
-10
11
38
52
-25
-26
54
40
12
7
-57
-64
38
26
-38
68
-39
-2
-41
45
-19
25
32
-23
21
1
16
-18
-31
56
-6
6
44
17
-5
7
-12
45
27
-44
-31
8
26
11
17
20
-47
-5
10
29
44
-1
-14
29
21
32
33
32
-9
65
-33
-22
1
12
-18
-6
17
-22
27
-23
10
29
74
35
16
41
-38
9
-21
-3
11
46
3
-13
0
-10
30
-35
13
30
-8
7
-31
-50
27
40
-12
3
-2
46
-10
-32
44
39
-6
-13
1
28
-42
3
-27
-11
-30
-6
-53
-10
-37
-35
-35
-32
-10
-13
-18
5
-7
-1
4
-2
22
-60
34
50
19
31
19
9
-54
-1
14
-11
-16
-17
-17
38
26
-8
-15
33
21
32
26
13
4
-59
-7
-1
25
-26
-7
-25
-38
66
-58
-13
24
15
-33
32
-54
-5
4
58
14
27
-22
-10
-64
20
-22
17
4
29
26
23
9
-32
18
-33
-6
-47
0
5
21
31
-7
-3
-15
-43
50
-8
-37
26
-12
-1
-35
10
41
29
0
4
37
55
21
-16
27
14
-41
29
-13
-24
-19
22
-9
48
8
50
-54
-45
-28
61
-22
-4
-7
-3
17
40
55
-28
-45
-39
-2
-24
1
-36
0
-16
56
-10
-7
32
-26
46
37
-47
8
-50
57
-2
17
-28
-6
3
-18
-23
25
-24
50
20
19
4
34
31
-40
-5
5
14
37
-37
-39
-13
0
37
33
1
13
7
-38
-8
3
-44
-9
24
-8
-26
30
21
54
-6
-13
-19
49
15
-26
-9
3
48
71
-8
52
-8
29
7
-3
-2
14
41
15
-10
-7
-19
-26
-25
36
18
-36
0
0
-6
-25
-9
-12
28
-1
-24
-71
2
69
1
47
12
-7
39
54
-43
-37
-13
-25
-26
-4
19
-45
41
15
57
23
10
8
-17
14
15
46
57
41
10
-2
29
-53
5
-31
15
-70
17
-7
-54
-5
-50
10
-20
-28
29
17
-26
0
26
47
-3
1
7
-26
45
49
-1
9
14
21
11
12
-19
32
-17
32
42
-17
51
-32
38
9
25
33
-9
26
-3
18
5
-12
8
-21
-81
8
-23
-31
17
-14
-36
40
40
37
0
-15
-10
10
-18
-22
15
-43
-2
49
12
-9
64
-18
20
-10
-21
-1
35
39
-11
39
23
-6
-6
-25
24
27
2
-52
-6
1
7
3
16
-42
34
20
-28
-15
8
-56
74
-41
28
14
47
14
28
53
-18
26
35
-59
-49
-8
-17
-23
10
6
-35
12
38
22
15
0
-7
54
32
16
-31
51
-43
-14
-6
23
-32
29
-39
15
-7
37
0
-16
33
3
55
-30
29
-26
1
16
-21
40
39
2
-30
-20
-13
0
-25
-18
-9
57
41
-22
-50
9
-41
22
-3
19
7
-29
-25
1
-32
10
-19
-22
-18
-9
-17
7
45
72
4
34
-13
10
-52
-32
49
37
5
-63
31
2
5
-10
-9
-48
61
-26
2
36
17
26
0
48
-23
-13
-2
32
36
21
-36
50
-22
-26
-16
10
-17
11
-45
36
14
-9
19
26
37
-44
-47
12
-8
23
-17
27
-30
34
24
-51
-54
44
-22
-3
-22
28
16
-3
39
57
-38
16
-21
21
45
-16
-36
-57
-48
13
-17
-36
41
-33
-2
24
-10
25
-31
8
-13
21
0
33
1
-2
47
26
-11
-61
2
48
3
-37
-12
-14
39
-36
52
47
-8
-37
1
-52
-7
23
-1
43
-47
34
61
-44
-10
42
-5
0
-14
-20
-54
0
-14
-12
22
-7
-15
-57
48
30
76
-27
62
13
47
34
17
5
11
-13
-6
43
-31
-22
29
-18
-13
15
-45
-51
23
46
-25
72
35
-1
-3
15
-18
32
50
-18
33
-19
31
-10
1
9
-40
-75
-29
47
8
-60
30
-13
-31
23
69
34
-9
15
-55
-14
-4
-25
-49
4
16
-16
-76
-60
-19
-19
24
3
-60
-14
32
42
-6
82
-11
-43
-33
61
-8
-27
-31
47
5
-57
10
6
-34
53
15
-11
22
-4
-28
48
35
27
-6
-27
-75
-49
-42
-25
-13
39
-11
20
23
7
9
-4
-21
-31
-9
26
29
31
55
48
-15
20
-23
28
-70
-23
-14
-17
33
-16
-72
20
10
-58
43
-13
-27
-2
-11
58
2
-25
36
-12
-8
53
-68
20
34
-49
-15
-23
37
-44
36
-3
27
18
32
28
-73
24
-2
-34
-25
-59
-38
-39
-8
14
-11
41
31
-25
28
15
6
41
-28
-8
-41
-24
-51
8
18
-28
-32
10
-44
40
31
-19
39
83
-16
35
-28
-12
-41
-3
-16
34
12
-6
10
1
-9
14
-6
18
-26
34
46
32
-7
1
-37
12
-61
12
-16
42
-35
34
-30
36
8
9
-18
-13
-45
33
40
-28
35
-4
30
-13
9
-58
-5
-14
-44
5
-12
7
-34
6
6
-24
-52
19
13
49
15
33
-31
10
-9
-21
-27
-10
-4
14
5
-15
-18
-37
26
-16
41
-70
18
20
19
-19
-33
-36
-16
-41
-26
-29
-22
9
-28
21
-49
-34
-34
-11
16
14
16
-24
-8
10
-46
-21
-25
-11
-22
25
46
-22
-31
-35
6
39
25
-34
-79
27
25
-26
2
-27
35
-47
32
-33
-49
13
-13
-2
35
-51
-29
-46
-47
-9
-54
-31
63
-20
-52
-23
-60
-18
11
-14
-73
-32
38
25
-14
-18
-32
-2
52
-4
-8
19
-15
-8
3
-68
-10
7
-26
-20
23
42
3
-19
8
-21
19
-22
25
-7
54
3
5
62
17
28
-20
13
-26
34
1
-36
-52
-17
57
11
11
-58
17
15
-14
-37
-2
4
27
-28
-68
-9
28
-43
-32
-29
-38
-25
-17
51
-1
-27
14
-22
15
21
-18
16
-28
-7
-29
5
40
9
22
27
45
-29
-21
51
20
17
30
17
3
25
11
-25
28
17
-29
-28
-54
-20
11
-23
54
-26
25
-5
14
-6
-44
-44
-12
33
45
-36
46
10
31
5
0
-25
8
5
-2
62
26
-10
7
-6
18
-15
28
1
-15
32
-59
-32
6
-14
-32
-57
-31
-40
15
4
-46
1
11
-51
11
-1
9
40
12
7
21
-10
13
22
-9
-19
39
4
45
-9
22
-29
-3
-8
43
-50
17
-4
40
-10
26
-7
-43
66
33
54
56
-10
-6
38
30
33
16
-21
25
-8
-30
-35
46
-27
46
-29
32
38
-16
33
5
44
56
25
25
-25
29
5
32
-4
-14
-56
-24
37
-8
-23
-69
-52
-64
-8
-20
-17
-44
48
-38
-26
50
25
-12
7
-3
34
13
22
-52
-16
-21
12
31
17
-2
-16
-32
13
28
-31
9
50
10
33
31
-29
-50
-38
-24
-13
27
30
-12
-21
-17
-3
67
-7
47
38
-14
38
-7
-4
36
44
-55
-35
-11
-43
-85
28
-20
-35
-13
-6
-43
-27
4
-27
28
32
45
24
42
-38
2
9
-27
62
19
-11
1
-17
37
-26
29
28
-40
-13
2
1
20
27
33
7
5
-14
-42
36
5
-5
-24
3
11
18
-5
-6
-27
3
-65
-18
22
-12
9
17
-19
-34
-1
-38
-60
-65
29
25
13
52
-27
-3
11
-12
-34
32
14
-39
-18
-30
17
3
21
-13
2
33
3
-16
1
-12
-5
14
10
8
-25
25
-9
30
-19
42
-25
18
26
52
-14
24
10
12
45
55
-12
56
35
-50
-33
-29
-18
-32
-34
-14
-6
21
-40
-21
-6
-15
-35
14
14
-5
-17
-35
-21
27
-55
42
-13
-13
31
5
38
11
9
-17
-21
38
36
35
6
-24
12
-38
29
49
-49
-35
-11
-61
-63
-36
46
-6
-35
-27
34
64
23
-42
66
-4
-24
-74
-22
32
-7
-6
-2
1
-36
-14
-69
-9
3
24
34
7
-15
-48
24
-6
4
5
13
57
-44
1
-46
-5
33
44
-52
-50
10
15
-37
14
55
10
16
-7
12
10
-9
-11
9
0
-13
-42
18
-17
-44
26
-25
33
-42
-10
-35
15
52
31
-36
17
-8
-37
-60
65
6
-33
73
-11
6
4
-43
-33
1
-33
73
36
66
-19
24
26
30
22
-16
48
43
41
-19
7
-22
-4
34
4
-44
57
32
-19
23
18
47
-55
-15
0
5
3
-18
-47
3
-15
19
27
15
-2
-19
1
19
0
14
59
40
63
37
9
11
-24
2
-11
39
-4
51
-3
-60
-11
7
-18
-3
43
-22
29
-31
-24
-65
32
-42
-6
-9
-19
5
-9
-22
19
27
-22
-25
36
51
-43
27
-26
-36
-53
-29
5
7
-17
51
44
10
-8
4
36
-28
-22
15
-24
-74
-3
-25
-43
-22
36
38
8
-14
-66
38
7
37
-28
19
11
24
-60
25
-17
-32
-17
-1
-5
-22
-23
-62
-25
34
-34
-18
13
-15
-42
24
35
-9
66
-9
16
43
-48
-15
68
33
-2
31
14
28
-23
-33
7
30
36
9
-5
-12
-16
33
44
10
21
27
-72
14
-6
44
5
11
26
-37
24
50
3
-7
10
3
-35
-13
-20
-37
0
-23
-6
8
-2
-34
-43
28
32
-19
-18
-16
-53
9
-17
-6
28
-33
-38
65
-42
19
-51
-23
-48
10
23
30
48
-31
48
60
-60
-21
26
50
-20
46
45
-6
14
-18
-21
16
-27
25
-50
-23
2
30
23
23
13
48
64
54
35
10
-71
-33
52
19
-33
-4
-17
73
25
-32
-10
66
38
41
50
-1
21
10
13
-17
52
-41
49
-12
-33
22
-21
-19
-15
0
-54
16
-9
-33
18
-79
7
11
-63
17
-73
-37
51
10
5
17
-38
23
-28
-37
-33
-50
-12
-13
17
-19
-65
-35
24
-5
-34
-35
-28
0
30
-21
-39
-26
-2
-24
-7
-56
-12
-36
-29
23
57
-19
10
-52
53
26
34
21
-28
-6
-70
21
20
53
23
7
-48
41
-29
-57
-17
-16
35
33
25
-1
-5
-48
26
19
-16
6
-48
-12
34
10
-48
-2
-46
6
4
-40
-18
-22
1
30
71
-9
0
-23
20
-30
-45
37
-29
-10
21
26
28
21
-8
44
0
9
-5
10
56
-38
-20
-9
-4
-21
-21
-40
-7
-16
37
32
6
-4
-43
37
21
-38
43
-15
-12
32
54
-19
-48
-1
12
29
11
15
42
37
-12
11
28
-22
44
-8
12
-32
-6
-23
13
-31
-2
8
56
-9
32
14
2
-20
-18
-55
-18
13
-47
2
1
-63
9
59
0
-10
20
43
-41
11
43
42
72
-37
-44
-20
-40
9
7
-17
26
-45
-39
-23
42
-46
19
3
7
-42
25
4
-7
-20
-10
8
-38
4
9
-44
34
-2
-6
1
22
50
-47
-23
-52
7
-14
42
33
-3
-22
-66
-13
-38
2
-6
-26
-20
17
12
7
30
29
22
4
-39
-5
-45
2
-25
-36
15
14
-37
-41
24
44
51
-57
-3
38
21
-19
16
24
-13
-17
11
57
-2
-8
-83
-8
22
-10
-15
22
-77
-11
-41
-10
-27
1
13
9
-23
-15
68
33
4
2
29
-33
-24
13
-13
-1
8
-40
-22
-7
41
-47
18
10
10
-16
33
-7
2
-3
-6
-30
-4
-55
-51
28
6
-53
32
19
26
18
-1
-62
36
-33
-11
6
-27
44
46
7
-14
-1
30
-1
56
50
-6
-22
14
82
25
51
1
-19
-6
-43
-11
-13
-27
44
-1
24
6
19
58
16
-48
19
25
31
-15
31
-38
-13
0
30
33
-39
36
-17
23
27
32
10
-73
35
-2
-29
-2
23
5
-54
45
-23
2
-14
-24
14
1
52
-38
30
-45
-46
-21
-44
-30
-60
9
19
4
-60
-17
-75
30
28
-57
18
6
-17
-15
-1
-24
-25
12
17
24
41
22
51
15
36
-28
-9
-40
-44
-33
40
-10
3
-7
0
-5
39
3
-2
-5
13
-31
37
34
60
-36
-11
14
11
16
-40
-35
36
-30
56
17
-12
-25
0
-51
48
19
28
-56
-1
4
42
-21
56
1
-20
-10
9
-36
-45
-19
-10
11
-4
-40
17
-4
4
-40
-24
-25
8
3
31
2
59
-14
-9
3
-8
5
-53
-36
39
34
-18
17
3
-38
3
-39
-27
-30
56
62
43
-2
32
0
-79
-40
-31
6
36
-5
39
-43
-7
71
-70
24
43
-40
47
-10
-43
30
27
50
-47
8
2
-52
-47
21
26
-23
10
-40
9
-46
5
-14
-15
-15
-14
-24
-7
-53
23
5
-25
7
1
-18
35
28
22
-18
-12
3
-39
-7
-18
42
39
-47
-8
5
41
43
33
-7
28
-6
17
-1
9
5
32
-46
-51
2
75
46
17
3
34
13
-38
30
-33
13
10
-37
-45
3
33
59
27
-74
68
6
43
-7
-52
-25
-45
-36
63
-21
-2
9
-46
41
-24
51
-31
-31
-9
-5
-12
32
-3
19
-12
27
-23
17
19
-2
-20
-25
-27
12
-8
-24
30
-54
-10
-36
9
-12
-1
22
9
29
40
-45
55
4
-35
39
-6
15
-26
58
16
8
35
2
27
7
-62
44
35
38
-43
-5
45
-34
5
14
-20
-28
-57
32
6
-50
9
-31
3
-50
38
39
-23
33
28
16
45
17
-29
14
26
15
-26
-41
-61
47
30
23
1
-35
44
-36
8
13
17
4
24
-36
-4
-27
-55
37
10
12
-1
-22
13
-44
-55
5
26
24
11
7
9
-54
19
51
-6
70
-38
-40
-6
-33
6
25
42
43
-47
-70
-5
-2
-60
15
-21
18
-11
0
33
31
-43
-18
-41
40
-21
-51
-21
-46
7
31
-81
-41
-20
26
8
-37
-29
-2
-41
11
2
-2
36
-19
-20
7
1
-25
13
8
44
49
-13
6
0
43
37
40
-17
-55
28
18
-4
-63
-26
25
6
18
-64
-7
23
-54
5
3
-16
-20
-24
-87
16
-9
-7
-65
34
-83
-28
-51
-36
1
-49
-11
-34
17
-29
-23
-45
37
59
11
-44
-32
1
-28
-40
55
21
-10
57
2
-10
-41
-18
72
15
0
-59
22
16
-29
-3
15
-2
-37
4
21
-1
-1
-4
26
20
-6
-59
32
13
23
7
15
1
2
13
26
80
-22
41
43
31
-47
22
-12
-2
1
-6
54
51
57
15
31
-1
-3
45
-24
-10
-36
-46
-40
4
-48
-9
19
16
28
-3
23
-26
37
-9
38
-26
4
41
22
14
-31
17
11
24
-7
-28
-73
-42
-10
12
9
7
-4
63
-11
25
-23
-2
22
-40
-30
-7
2
10
-3
-9
-5
-32
9
-12
47
-36
-14
-38
3
26
-41
65
2
-24
45
7
27
10
-33
42
-11
-42
30
30
-29
9
-30
-17
-61
-12
-23
17
-14
-2
42
33
25
-18
-36
-2
-32
-5
18
-19
-55
-31
-6
-37
25
-46
38
6
-4
-21
-22
-61
-19
-4
-21
-17
32
-27
-70
16
-20
-59
-39
20
-46
-49
-58
6
19
0
-3
0
-30
-47
-8
0
-22
57
8
-61
-25
-37
-51
5
20
-12
-41
2
-2
24
-36
-5
16
7
-34
-15
-1
-33
22
49
41
11
-50
-35
-3
15
-3
20
-6
5
34
-8
-10
23
4
-27
49
23
3
58
-15
52
-21
38
-12
-19
-40
-37
-40
68
35
17
41
-4
53
-5
-1
-11
-9
50
6
27
-12
-34
-13
38
4
8
-20
56
1
30
19
-51
12
-32
11
-23
-16
70
49
-5
-22
7
-20
39
46
-10
-23
-25
38
-11
-29
8
-4
-10
9
80
16
-9
32
58
-74
10
7
-37
60
32
-36
26
53
-15
4
11
2
-24
-25
20
37
50
-34
-3
-2
-49
-2
-4
11
-17
26
-48
2
27
-49
50
-29
-3
-4
-19
-18
-31
-61
-19
-13
-20
28
-34
-46
-13
17
-20
-14
-67
44
37
-35
38
68
-31
-25
17
3
38
-22
-7
-28
-46
-53
74
-11
20
-49
39
-18
-12
42
-29
-6
0
5
12
-51
2
4
44
1
-52
-32
-29
-62
-1
26
-44
23
26
28
-5
-47
-15
-1
-3
-60
-3
48
1
-78
5
-65
-4
-35
-10
37
37
0
2
4
81
-22
-28
23
16
27
43
34
32
-14
36
-77
41
39
-10
13
54
52
-21
6
23
-39
23
-4
-1
45
62
38
41
-1
3
-51
19
-45
7
-80
12
12
47
-11
-35
8
-22
34
-22
31
25
15
-10
-17
2
-28
13
14
22
13
-51
-15
42
46
34
-40
14
-1
18
-29
-6
32
7
-18
-38
-53
6
6
-17
-32
-11
-56
-7
-8
5
21
11
-16
-21
-4
23
-29
-28
-39
-57
21
35
59
51
61
2
12
-21
-10
-31
12
-41
-2
31
51
-2
35
2
-33
-44
-9
2
74
57
-8
43
-13
-24
-20
6
-52
14
-38
-19
-28
21
-9
-36
68
38
39
34
36
-20
-32
7
-24
-21
6
-40
9
3
-16
10
1
57
-22
15
27
16
-41
41
19
49
48
-41
30
-7
14
-47
25
-5
-50
-27
-72
-8
48
-69
34
2
-37
23
-14
2
42
4
15
54
19
31
7
47
-31
14
-25
36
-8
41
36
-7
31
50
-21
12
21
30
-44
8
-6
14
-33
-42
-68
-14
-13
-63
-9
-13
7
-33
20
57
-28
40
14
9
40
21
-28
-13
-11
-35
-10
33
-25
53
-39
17
-2
0
-40
-16
35
6
9
-37
-12
6
-5
-30
5
24
-21
-42
33
81
35
-31
-3
-34
-36
-8
42
-22
42
-25
-19
-29
31
36
33
-38
-43
-34
23
-3
22
27
-29
10
-25
-10
-27
46
-29
-4
-51
33
-38
-4
-62
-19
-27
3
3
-37
-27
-21
-50
-7
-28
29
-32
17
47
-17
3
9
-17
22
38
3
10
4
15
52
-45
-15
33
-26
40
40
44
-28
-39
-38
-23
-52
0
5
-49
-8
40
-50
76
33
6
30
-52
22
0
-77
-36
30
-37
-32
63
-8
33
11
-11
-23
6
0
-36
12
-26
19
-14
-47
-54
2
-23
-16
49
-17
-21
55
-22
-83
10
35
-8
-29
21
35
8
14
11
52
-10
-15
-14
17
11
-52
-41
8
5
-22
-34
4
4
-17
-36
1
80
32
26
-1
18
13
22
73
-25
10
26
-41
20
-56
36
-34
7
-5
-6
-31
-45
-20
-12
-2
21
29
-55
-56
-78
4
10
12
-31
-35
42
-39
10
20
10
38
-27
32
14
-11
37
14
-10
33
31
-16
-10
51
-50
5
35
8
-17
56
2
-6
-18
-58
-32
-29
5
18
41
55
33
2
-23
20
8
-31
-29
7
-24
52
-39
-49
37
14
-23
-9
12
26
-45
-23
48
32
29
15
51
14
0
-55
-11
15
-34
-45
24
-29
-25
40
-14
34
-48
-16
-49
15
3
-42
25
-44
-38
14
-7
19
35
43
26
-11
-4
-12
35
-32
-54
14
13
25
8
-9
-37
-18
40
37
-1
-32
45
-28
1
40
56
7
-35
19
8
-66
19
-3
2
-44
-43
34
44
7
16
-9
-16
-7
-10
6
48
58
-22
-26
-35
-13
29
31
57
-40
29
16
-49
32
0
-22
-39
44
-33
-29
26
-23
43
-4
40
60
7
29
-39
12
17
-73
49
12
-39
20
-30
-4
-31
10
-48
36
-7
42
18
67
-29
16
41
-10
-10
6
29
-22
39
-9
68
53
72
-25
-28
-41
-17
23
-11
-47
2
-33
-6
15
-22
1
-24
34
-31
-4
-7
14
-11
3
-31
-35
19
-10
26
-27
-9
-36
63
-12
-22
-58
8
-26
24
1
-31
-13
-17
12
18
24
34
0
-25
-28
13
-35
-41
5
56
-35
53
3
-22
22
25
33
68
-73
-5
-42
40
57
11
-34
28
-12
9
-14
4
28
5
-48
52
0
24
42
-18
28
58
-11
37
35
12
-14
-25
-28
-31
11
57
-24
3
-3
-35
4
-58
-37
20
-43
13
10
20
46
-11
-33
27
-6
8
11
22
-32
5
-8
-47
-58
32
16
-49
34
-56
44
5
19
-10
10
-45
23
-12
-10
19
14
15
96
-3
-31
41
-48
-57
-16
-23
15
14
32
9
4
-17
34
-6
11
31
-62
-13
-25
-26
22
-12
29
-31
-13
-20
-46
-42
-58
-6
8
35
10
22
-19
43
27
27
-19
42
-16
-4
-5
-15
-3
-6
31
-31
11
-4
-8
42
42
-1
34
67
-45
-15
20
-6
20
14
-17
-3
-64
-5
30
13
18
12
49
-11
-38
-13
33
33
-5
-19
1
7
32
-3
-6
-18
4
48
-12
19
-54
-31
-2
20
-2
-33
-4
-27
42
15
65
41
-32
40
-3
2
-42
24
-2
63
37
-39
-16
-4
-27
10
-7
40
29
-45
25
-47
0
-4
-35
12
42
-3
-14
-36
41
-37
-15
13
19
26
-40
-5
-20
-47
-36
-20
-5
-15
2
-28
-39
-12
35
-31
-16
-30
47
26
67
3
2
11
20
40
11
-46
-1
-3
57
19
-7
11
10
-11
36
-23
-24
-1
-21
-18
4
22
-15
43
-22
52
-25
-1
22
3
44
7
0
14
-10
3
-23
25
19
13
12
57
-2
26
-2
-22
36
-20
-23
41
6
-60
54
24
51
48
-41
-63
-33
-35
-27
22
13
48
7
-37
20
4
8
-29
20
-4
-58
-28
7
0
-9
-23
-60
-38
-27
29
50
-8
21
-7
-9
-18
31
27
29
10
-16
-28
30
55
15
26
-29
25
19
-21
-7
10
-41
19
24
-18
-45
32
1
-15
59
-64
-39
-40
41
-77
-20
-2
70
-8
19
-40
23
33
53
-20
-19
5
3
-6
-19
9
-36
10
-23
-35
28
47
2
29
38
-37
-18
-35
-48
66
51
-26
-5
-48
10
-52
53
-14
-6
30
-59
-43
30
-8
29
5
-12
36
13
-28
26
35
2
50
-24
29
3
37
-20
28
26
-32
-54
20
44
-24
38
41
-41
23
-19
23
-21
31
-24
-31
-6
-29
34
-43
6
29
7
-5
30
-27
27
-25
20
-6
42
14
56
6
17
-41
-40
53
-34
-18
-14
37
33
0
11
10
-12
37
-24
-32
-13
15
44
0
7
-48
-26
16
-31
-4
2
-43
-41
5
7
8
31
5
47
1
40
40
-35
46
-22
-12
41
-12
39
-43
-27
-36
52
-13
-7
-48
-30
8
25
-1
10
64
-14
-36
-12
-53
61
-8
-44
-14
52
-6
-17
-19
29
23
19
30
3
49
-6
24
-3
20
0
5
-19
-13
-13
-17
7
-6
-40
-34
19
21
-2
4
-5
-5
26
-35
-53
-54
2
31
-28
-18
-13
7
4
8
-12
-37
33
-40
24
-28
2
0
-62
-57
16
31
-9
-6
16
1
-17
-14
41
-50
-20
-78
52
-48
-20
16
52
36
33
37
-28
-32
-49
-54
-49
-2
-12
-18
4
35
9
-44
19
24
16
-9
59
18
58
-36
72
36
-1
-14
2
-16
-23
5
0
-30
-2
-21
30
-23
34
81
12
-5
2
-26
62
-61
-65
23
13
34
-18
43
2
18
-33
-55
-13
-22
-52
0
-12
-17
-31
-4
-31
12
-24
-2
-36
-7
-13
-57
-20
21
-2
45
4
26
-57
3
-24
-48
2
33
53
-22
36
-12
-20
25
-7
12
-1
5
-7
-33
2
-25
-70
0
19
-10
-24
21
23
2
-34
34
-9
16
-5
-15
12
65
6
-15
65
-54
8
22
-77
-38
-17
48
10
-32
37
27
-62
-7
-4
2
-44
-43
3
13
-34
-15
-8
-39
24
20
-5
33
3
65
23
-22
-66
16
-36
16
48
7
61
74
6
-17
15
1
30
3
10
-1
-44
18
-2
49
-44
12
8
-22
38
35
22
10
-27
-22
6
2
-22
27
-51
4
14
17
14
91
-36
-12
-20
11
-32
-29
-7
-17
-10
-21
26
-37
-36
20
31
10
27
-20
-7
15
-4
20
2
-51
-25
18
1
27
-67
-46
45
36
12
37
-7
-53
-3
16
10
2
15
38
-27
38
-42
-36
-19
-41
-20
-21
7
11
14
-40
-15
-3
21
-4
-34
78
-12
-1
57
35
-28
23
-9
14
5
-13
-47
-29
-21
-14
-60
-64
24
-22
9
-12
70
-24
29
54
-29
25
-18
39
-4
28
1
16
-23
-2
54
-53
-2
-22
14
35
-19
-32
-11
7
-59
-31
40
5
35
41
-51
-5
11
-5
-3
-12
27
-39
14
-52
24
8
38
-54
-26
-8
-35
-28
-6
26
-4
2
-73
-55
10
-18
-10
-2
-57
-6
43
-4
19
-6
23
21
-42
-43
36
-19
10
0
1
4
-59
-41
-78
-27
-45
1
-25
6
-9
18
16
31
-7
-26
-16
44
0
13
17
33
39
-37
32
-16
13
43
-5
36
-16
28
30
-57
-23
-38
21
-5
-22
-80
-7
-22
39
-11
-93
-48
-68
-20
1
35
-42
-17
23
12
-6
7
26
-49
-18
-47
-14
-3
-12
15
-21
44
32
0
-2
-21
40
35
30
-22
-26
-25
-29
-51
20
22
-35
-41
-37
-58
-31
-38
41
-33
-7
72
0
-16
-33
7
7
-20
-44
-14
15
17
41
-16
81
14
-46
6
56
26
7
-25
55
-13
-19
44
21
8
43
-34
7
-45
42
-36
11
28
32
22
25
1
26
1
-68
41
52
32
1
38
44
-35
26
46
-28
-18
18
-7
5
-11
19
-52
-55
16
-12
6
17
-12
17
36
60
-4
6
-3
2
16
17
-42
90
16
-49
10
-18
-29
-2
-10
13
-6
-17
-22
-24
41
20
50
29
45
-25
36
12
23
-13
0
29
13
37
-70
34
-36
10
-38
1
16
13
-33
-5
-12
14
-18
-1
23
0
-5
-1
46
-15
-40
16
-10
-12
19
-64
-42
-42
-23
48
-21
21
-50
35
-35
2
3
-16
-14
-39
-85
55
1
32
-12
-23
15
-46
7
-11
24
11
-17
28
-25
-29
-2
-36
0
7
-2
25
-29
10
35
-26
-33
13
-29
9
9
-5
31
-42
2
4
35
17
22
33
-2
7
-11
0
54
-18
23
-62
-16
-13
-17
7
-4
-28
9
-33
-18
-9
-53
-13
-17
34
3
-22
-2
28
-19
-20
-18
-18
-10
-50
-6
-42
-49
35
18
-4
30
9
46
-54
44
-47
-30
35
-4
13
-11
-7
-34
35
-26
-25
9
-48
31
-25
31
-38
-11
43
12
-34
56
34
44
18
66
-27
-8
13
43
19
74
41
10
-56
39
-19
12
31
31
9
51
-13
32
36
34
-40
32
2
-35
34
32
-39
22
-37
-40
-12
-32
22
-32
-50
-40
-23
38
30
44
-22
-12
-63
56
11
-9
-8
38
27
40
31
6
-7
44
-27
-26
41
-20
-32
-6
-43
-8
-45
5
-22
3
-3
29
68
-21
34
23
-2
-6
4
50
12
36
-14
48
-29
-20
15
28
-70
-3
-69
33
-28
19
66
29
53
-4
33
58
-41
2
-18
6
-41
12
-36
-3
-35
1
37
-63
-48
-25
-55
40
10
-5
19
18
-8
-24
-25
-45
34
42
24
-2
20
43
14
-27
-38
27
-18
-41
-19
-32
31
-6
-7
53
42
14
-45
39
-11
75
-18
-38
51
21
-56
42
11
-6
35
-12
-36
-10
-26
14
38
15
70
31
16
28
34
-23
-46
52
-39
-9
77
-5
-9
62
17
-23
28
-32
10
-2
7
44
26
3
-30
-36
22
-32
3
-39
43
37
-26
2
-34
-36
30
-48
1
17
-13
-60
13
-7
1
-24
-35
28
55
-1
-30
22
45
19
-48
54
39
4
-6
-25
6
-8
-23
-14
51
63
-3
15
-41
-27
-62
11
25
-60
51
39
25
-21
13
-26
-19
-22
-27
-7
20
-46
21
-1
-7
34
20
28
-35
30
-4
16
-9
9
26
32
-75
17
-5
7
35
-22
48
-11
28
-37
-17
28
-46
-30
-41
-23
-11
23
41
0
-36
5
4
-16
-23
40
30
-17
-27
-26
-45
-14
9
3
6
-28
-29
43
-3
17
-50
23
17
30
44
61
-19
22
-28
44
-45
-1
-40
57
-53
30
-1
-23
40
79
-2
19
7
6
6
3
-46
24
2
32
-7
6
17
-35
23
-6
-42
-17
-25
20
30
36
11
-32
-5
47
-51
28
13
-16
-38
-34
-25
23
14
-1
2
40
9
-21
9
-18
-61
3
39
10
51
-15
-4
-18
25
-6
-24
16
-48
16
33
-32
-33
-9
14
-5
3
79
-5
15
2
29
44
35
-5
-7
-56
29
-55
7
49
-17
3
2
-100
4
60
34
-5
-53
46
13
-44
41
18
15
-16
-37
30
4
17
1
29
17
-45
45
42
-4
22
46
-41
38
13
41
-57
5
-6
-11
3
-4
40
8
23
-23
-43
-41
25
-47
-18
14
22
24
-21
40
-15
-42
70
36
61
14
-57
29
12
-14
-42
3
-77
10
7
21
36
84
-74
-15
14
-4
7
-36
16
5
13
7
44
-22
-28
12
35
43
-22
10
-2
-19
-37
-6
-15
-20
-28
-34
-6
26
-40
30
12
-14
57
30
33
35
-23
38
-7
53
42
30
2
-30
39
20
-66
27
21
7
-5
6
41
40
18
5
20
58
-12
-51
-10
18
28
40
9
-25
-22
38
-42
5
54
20
63
-35
43
19
-24
-22
23
6
-14
23
-25
-40
-2
-26
9
60
-13
-67
-41
2
20
34
-31
47
8
14
-7
32
40
52
50
34
39
-19
-34
-63
-47
11
17
3
33
-4
22
36
-17
-19
29
72
-7
-32
35
38
33
24
16
-57
-41
-30
-16
-34
-5
15
-8
25
26
22
54
-4
20
-19
-9
12
-17
13
2
47
-43
-62
33
-42
5
-64
-6
-5
-55
26
-34
-58
-5
-1
-34
47
-16
-22
48
16
37
-25
-4
-20
-13
-22
-4
57
-31
-32
4
20
7
0
-49
-10
-28
-37
-23
-37
-25
-33
28
-2
65
-53
57
46
-10
12
-60
-31
-28
29
-15
26
-41
21
-29
-27
-18
-17
40
-19
-24
39
-9
61
23
-35
-8
-16
68
13
53
-18
4
20
-22
-31
-27
38
2
29
-15
-29
-25
20
-14
64
-6
-26
24
-56
-16
-16
-32
-37
17
36
13
24
-37
-55
6
-16
-56
-21
13
-15
-48
18
26
-19
-16
45
-32
18
-22
4
-30
6
-1
20
-34
54
17
35
15
-31
-64
-26
30
-2
48
22
-43
45
-2
29
-2
-9
-43
25
66
-26
-21
-39
-25
9
-15
-26
48
-23
-57
40
10
51
-16
44
-14
62
39
-22
-11
6
25
20
-32
-48
38
49
-17
31
42
-35
15
47
12
-11
-63
-36
14
-32
-9
2
-39
3
-44
53
-4
-26
1
42
0
17
-2
19
-19
56
39
30
26
35
37
14
-21
-11
37
20
20
-56
-39
-34
9
16
-13
12
-26
-29
22
10
61
-3
-59
-21
-30
7
-12
41
9
-14
29
-18
62
52
-81
39
-6
-11
48
32
2
14
1
-22
7
14
-5
39
17
-15
8
50
-5
8
-36
-50
-17
-48
-18
-44
-69
27
10
-27
-7
-14
1
10
3
31
-27
-24
25
30
8
-34
14
-52
26
-20
12
15
-79
63
75
12
47
-55
23
-2
32
8
27
61
28
30
50
-3
-20
41
-19
-9
23
17
-5
-6
57
9
-33
51
-3
-56
-13
-23
-14
4
43
3
25
-7
25
-3
28
8
-68
4
8
45
28
62
7
-56
-12
0
-4
44
-3
-29
-21
-26
-18
-63
-22
-23
33
-31
15
-27
-23
43
55
-59
31
38
-20
25
44
4
24
-29
-27
-34
-23
0
-11
2
-5
-42
-5
21
-10
3
-4
9
4
-17
12
30
25
-13
10
-14
-43
-53
-8
-29
0
-2
-2
-46
-3
-52
-31
-8
-35
-38
-42
11
-27
11
-1
5
3
-38
-49
-25
7
-25
-36
-25
10
-40
-49
35
-16
-2
-49
-34
60
-40
12
-16
-25
28
-41
1
85
8
53
-22
-1
41
-49
-43
1
-35
-10
10
-1
-17
-71
-59
12
-30
9
-15
36
35
13
50
39
13
-28
25
58
-1
-51
-52
23
-8
10
-28
-29
-32
-48
-5
30
1
21
0
27
-13
11
-51
-30
-26
14
-17
-31
-2
46
-44
-24
-27
34
3
6
-36
32
51
-9
12
-19
-14
0
-23
40
-27
8
4
10
22
60
-31
1
-24
-25
-37
-17
26
16
55
-6
61
-29
25
48
-24
-18
-29
-18
-42
16
-34
-20
32
-30
27
13
24
-38
-50
-19
-47
-1
1
2
-49
27
29
-58
-61
-12
-5
32
68
39
45
18
51
15
11
34
-27
-20
30
-40
38
-22
31
53
-17
49
-4
-34
0
13
45
53
21
5
-19
-12
-65
3
-46
22
22
-23
15
17
-53
30
-47
14
-54
44
-27
21
-45
45
-31
-26
0
61
61
-1
-28
-10
13
-30
-15
-66
-7
-4
-21
-30
2
-46
11
-11
-21
34
28
3
-43
-2
-40
-13
8
41
4
11
15
9
20
-10
16
-52
20
-11
-37
-53
13
21
-26
49
-3
-11
0
37
43
50
-2
29
15
-17
4
-11
-27
4
-33
6
40
15
29
30
-1
32
-19
24
42
-20
-26
-39
21
-21
-43
-37
15
25
-36
-20
-24
5
-40
-11
-16
-27
27
-44
-9
10
6
-55
26
-6
12
14
-20
-61
26
21
-12
-42
30
17
31
-50
7
-27
28
30
15
-45
14
-4
-29
11
-33
-51
48
-34
37
42
-15
11
-16
15
30
15
48
-1
-5
17
37
37
-14
-4
27
-25
31
51
24
-49
32
43
-51
38
0
-24
51
-76
19
40
13
-18
-32
47
9
28
19
29
29
-57
-13
5
-28
-31
25
-25
36
34
21
8
-4
-4
7
-37
5
10
41
-16
59
2
36
-7
85
31
54
35
17
3
-23
-33
1
5
30
38
16
-24
-19
-27
26
51
-40
69
-18
-8
20
-14
43
-36
53
-16
31
3
35
-12
82
-77
26
-41
56
47
27
37
21
44
-53
4
71
30
-24
42
-30
-20
-18
28
32
2
-19
-10
-72
6
26
8
-5
-60
15
-28
-10
-1
18
24
-43
46
25
9
26
17
-20
36
2
-11
18
-46
-15
4
-46
-3
-20
-51
-32
-22
-6
-32
-16
-49
-37
-27
-40
-49
9
-31
34
40
-10
13
-20
-56
43
-58
-16
24
-8
-38
72
40
22
7
-12
17
-26
30
-9
23
-12
10
-5
3
-3
15
35
-12
18
-23
50
14
-16
8
-7
-14
-13
11
21
-38
78
44
-4
-1
43
-33
27
51
34
-14
74
14
-50
0
-4
31
-4
-83
-2
-15
25
63
3
12
27
-50
20
19
-52
16
20
-30
-57
-30
11
22
-37
-29
-14
-32
4
-49
74
-49
63
-35
-6
-34
13
-9
28
20
76
10
43
34
-38
-2
37
0
-62
10
9
22
-25
-46
-25
4
-33
59
26
60
-13
26
-17
39
49
-38
36
7
31
-18
31
-20
77
-80
40
-11
27
-10
20
24
-9
-14
13
12
-30
-21
4
65
14
-13
-35
27
10
-35
-50
-25
-21
-1
14
-28
38
-56
-18
-9
5
34
2
-19
28
-25
-18
-32
34
18
37
-18
46
-5
-40
-23
-14
54
62
5
-42
5
46
62
8
1
-11
9
49
-25
-42
40
7
-19
28
53
29
7
-35
-12
-37
-6
-24
-5
2
-2
-34
-18
36
-8
20
33
42
-40
56
16
-12
-29
29
19
-12
26
-48
12
12
-10
-3
2
-38
-50
41
-31
-4
-19
0
25
-8
29
-5
4
16
19
-52
-47
-48
25
-12
-6
-3
36
-21
-34
-40
84
-15
-34
7
-26
29
14
-5
-56
-31
9
-35
29
32
10
34
24
55
-25
-15
22
-41
22
-20
-8
-41
27
13
-36
38
18
-45
4
18
31
-3
-20
-10
34
15
46
-27
-42
15
-33
12
-17
20
50
-14
71
-18
-49
-22
-44
-43
46
-1
12
-15
22
-25
11
-44
-4
-38
-11
-74
48
-24
66
-44
-7
5
-14
33
-2
35
18
-48
-40
42
-26
10
-34
-56
-30
-55
-39
46
-31
1
75
-6
16
52
52
28
-13
-41
24
-49
49
-39
34
-59
2
37
18
4
-8
-13
1
-11
3
40
-67
25
64
39
4
-55
-3
-6
51
-30
14
-5
43
-24
60
47
7
-38
-6
-27
18
-31
65
-3
4
34
-3
63
-21
-2
-38
-40
-7
-34
54
-47
13
3
17
-40
-11
-16
3
3
22
22
-28
5
27
-28
1
-13
22
29
2
7
30
6
-46
-21
24
-29
-6
30
-34
-50
-38
24
4
-26
-12
6
3
52
-15
-25
91
3
-33
23
-42
-40
31
-29
74
-28
6
35
-6
55
-3
-9
-26
-35
-16
-17
28
-43
-24
-15
-6
-64
-2
-71
50
-12
56
-28
-27
-53
-8
-69
20
-14
23
16
28
-53
-31
-25
-8
0
-22
-28
-22
-27
