-0.03593753
0.05198003
0.01297360
0.01917288
-0.01285429
-0.02170032
0.00277541
-0.03540062
-0.08018308
-0.05350100
0.04988979
0.03939529
0.04551063
0.04887347
-0.01264525
0.03507987
0.00914183
0.03987971
0.02315673
0.01723881
0.04680642
-0.05434492
-0.11068031
0.02954838
-0.00980007
0.06697580
-0.03615493
-0.07506023
0.00465588
-0.01231288
-0.03583063
-0.00973880
-0.04554224
-0.03071230
-0.04686180
0.06349403
-0.03615702
-0.03345944
0.03910828
-0.02966201
-0.01314727
-0.03340468
-0.03606449
-0.06643271
0.09458631
-0.02515730
0.03857501
-0.05180831
0.06194517
0.02904014
-0.05544823
0.05127338
0.03324826
-0.03219845
0.05072683
-0.03462832
-0.00900743
0.00387320
0.00876583
0.01440927
-0.00288466
0.00937647
-0.05046303
0.01659851
-0.01472156
-0.01857146
-0.01594956
0.07481227
-0.03772721
-0.07079916
0.06186302
-0.06600374
-0.04253411
0.05489065
-0.04991441
-0.03893523
0.01123581
-0.04586740
-0.04152040
-0.07700125
0.01935506
0.06403194
-0.00818227
-0.02909597
0.01510709
-0.02861506
0.05410061
-0.04179056
0.08722349
-0.03046419
-0.00078395
-0.04074902
-0.05269513
0.01678978
-0.04937559
-0.04038738
0.03836064
-0.03172375
0.07675170
-0.06574516
0.03858437
0.02104314
0.05108786
-0.05761080
0.02390931
0.04467919
0.00852530
0.01665075
0.04120795
0.06344888
-0.01735321
0.00346212
0.09662801
-0.02972525
-0.03335557
-0.03007700
-0.01722911
0.08151330
-0.03038876
0.03245913
0.07085590
-0.08212905
-0.03370492
0.05281324
0.04024652
0.01177651
0.04673572
0.01419110
0.03755653
0.06328034
0.00580153
-0.03445719
0.01177117
-0.02825313
-0.01530732
0.01216334
-0.04819487
-0.00074493
0.05296742
0.02294867
0.00175478
0.04110399
0.03310160
-0.00915276
-0.02569648
-0.02836620
-0.07180682
-0.05653583
-0.02486066
0.01356341
-0.07587445
0.04689250
0.00458781
-0.01745238
0.01463212
-0.03614725
-0.04623378
0.00948483
0.08635737
0.03664951
0.06153037
-0.03194487
0.01336526
0.01779668
0.02885726
-0.02196305
0.09061070
0.08476207
0.05773767
0.04911815
-0.07656147
0.02605604
-0.02753903
-0.01893228
0.02342584
0.04642431
-0.01942366
0.08257703
-0.04418590
-0.06032087
-0.05075520
0.03284453
0.06429679
0.06938200
-0.02283459
-0.08219134
-0.03003811
0.08108980
0.02119461
0.06442221
0.03245296
-0.03281977
