0.09553608
-1.07270396
0.58811688
-0.03954630
0.01375579
0.59361678
-0.62250358
0.98148209
-0.80375940
-0.18896653
-0.04072926
-0.22531594
-0.15984154
0.05677354
-0.10761596
-0.81318998
-0.11274746
-0.04019508
-0.07312962
0.38972068
0.94980955
0.52888316
0.58507657
-0.97902024
0.74345464
0.75656611
0.58885109
-0.91685236
-0.74817848
0.11881208
-0.14038691
-1.01799762
0.41871676
-0.97809976
-0.77721441
0.52066314
-0.00091321
0.05280499
0.81385291
-0.71587253
0.49512407
0.61202520
0.87039328
0.24755399
-0.61571294
-0.51772898
-0.54722577
0.09849105
0.62332386
-0.11499090
0.18394998
-0.51716322
-0.31530812
-0.99509829
0.41526341
0.43584982
0.83538753
-0.08672398
-0.18466058
0.57375264
-0.16058582
-0.23226331
-0.71896738
0.11080702
0.59545588
-0.75343579
-0.58723432
0.10386045
0.34547725
-0.11772799
0.60330075
-0.31550229
0.73744392
-0.05456517
-0.97826439
-0.60325080
0.86487341
0.85797709
0.73017049
0.10386066
0.87936509
0.78343475
0.36313641
-0.84739256
0.25424966
0.60339141
-0.03245060
-0.22541717
0.15823770
0.02425213
-0.45568776
0.18122888
0.00408678
-0.80433428
0.75093067
-0.22197604
-0.44155037
0.09313156
-0.87111902
0.75759518
0.01682348
-0.29009899
-0.33730018
-0.06941494
-0.55049843
-0.03337981
0.85492581
-1.07697201
-1.05870914
-0.05791595
0.12432104
-0.01867158
-1.05468369
0.23329934
0.55242032
0.42456433
0.43585399
0.30366737
-0.01099883
0.13536215
0.62067282
-0.37309182
0.14714053
-0.02321065
-0.98910570
-0.70931762
-0.40212128
-0.69568902
0.84580928
0.63529170
0.34402162
0.90408683
0.56235141
-0.95738280
-0.83577538
-0.65031576
0.60986799
0.29303807
0.20052484
0.33647984
-0.75626016
-0.93032563
0.97328132
-0.98631680
0.20473142
0.03485500
0.84627545
-0.49559641
0.70637393
0.57489187
-0.82384318
0.53497493
0.36382887
0.52808827
0.45225066
0.05593222
-1.03276646
0.99937254
1.00894177
0.15087269
-0.30037370
-0.10064706
0.91753608
-0.02317564
0.22812502
-0.32738674
0.31990340
0.45903376
0.32239428
0.58788282
0.16642246
0.44683236
0.21333961
-0.62712955
-1.02346182
0.38717711
-0.62731534
0.13202854
-0.05659872
0.24669962
0.33594730
-0.20548716
-0.00137897
-0.62943727
-0.91419894
0.19858855
0.12892561
0.12383875
-0.49031582
-0.34285066
-0.76717716
1.13827670
