-0.01089527
0.06317982
-0.01882431
0.04241336
-0.07805969
-0.03229717
0.05051191
0.00494953
0.07040682
0.04542910
-0.04962966
-0.01495522
0.04616648
0.06397264
-0.00482922
-0.06445249
-0.01068044
-0.05629289
-0.05183400
0.06103171
0.00009913
-0.03344798
-0.01251672
-0.06864835
-0.02807423
0.01051044
0.02737265
-0.04697486
-0.01248764
-0.01233272
0.04830816
0.05295559
0.05779516
0.01463447
-0.06104928
0.07345066
0.00563775
-0.07194832
0.04829400
0.06859119
-0.00491591
-0.02384662
-0.06254459
-0.06404530
-0.07372768
0.04888240
0.05052166
0.03781075
-0.00299813
-0.00669457
0.01461850
-0.01906986
0.03004116
-0.02232324
-0.04260904
-0.07110912
-0.04476667
-0.05678924
0.03272664
0.00017662
-0.05886194
-0.00238716
-0.05526745
-0.06624284
0.06835710
-0.05510492
0.05206715
-0.02603824
0.00847875
-0.05210487
-0.02264589
-0.04289813
0.01259740
0.01266474
-0.00526201
-0.01777814
0.03308034
0.01615033
-0.05981988
0.04039164
-0.01002079
-0.05567006
-0.01350226
-0.01764398
-0.01127974
-0.01666722
-0.00136864
-0.07189104
-0.05549174
-0.06456494
-0.00194588
0.03116373
0.02062416
0.01770705
-0.00202629
-0.06894604
-0.00497093
-0.03723127
0.04650480
-0.06243959
0.01138522
-0.07131200
-0.07128642
-0.04429292
-0.06231144
0.00462004
0.02248729
-0.02793387
0.03956857
0.02485578
-0.00729787
0.02713313
0.06051533
0.05616397
0.05872647
-0.05362944
0.06945204
-0.03325524
-0.04127686
0.05330225
-0.01868297
-0.01634713
-0.01819779
0.05138652
-0.06141113
-0.00553316
0.04317305
-0.07105183
-0.05173653
0.01946129
0.00699784
0.01126711
-0.04118441
0.04425295
0.04897760
0.03332733
-0.04828468
-0.01603358
0.00661642
-0.01701074
0.05027744
-0.00803911
0.01184093
0.01553964
-0.02474744
0.05014433
-0.02632089
-0.04709439
0.07469031
0.02980044
0.03088011
0.01593108
0.05124783
-0.03367990
-0.03492986
-0.04232741
0.03851308
-0.00152181
-0.01162791
0.05837179
-0.05768102
-0.03946985
-0.02905772
0.02903023
0.00011627
-0.01642796
-0.00481601
0.03834904
0.05368708
-0.00266546
0.01833436
-0.07749135
0.01189292
-0.01867123
0.02642132
0.07647639
-0.01416279
0.02648416
0.01326988
0.00207225
0.02300934
0.00602882
-0.05241551
0.06945977
0.02724753
0.07537704
-0.00450686
0.07186070
0.07447471
0.04907462
0.02032840
-0.05291450
