-0.04810727
0.02773976
0.04360574
-0.05237519
0.01237851
0.03953980
0.00364650
-0.17899366
-0.07324179
-0.10975783
-0.08658726
-0.14842016
-0.03418354
-0.01740212
0.04478710
-0.06240664
-0.11808386
-0.09818792
-0.00449128
0.04812892
-0.14867647
0.00253284
-0.12786767
0.07767144
0.00770076
-0.14765850
0.07846093
-0.09524868
0.04723578
0.02369822
0.04897858
-0.15653676
0.02345465
-0.06957473
-0.06970701
-0.08215206
-0.00773317
0.00676052
0.08468066
-0.02134330
-0.02449655
-0.07272820
0.02273400
0.04869747
0.05714623
-0.00586586
0.11761256
-0.06873085
0.01436200
-0.01797673
-0.19076224
-0.18310513
0.03617416
0.08080236
-0.20566936
0.02963919
-0.15381625
-0.01904515
-0.11219140
-0.14105514
-0.17674190
-0.00037126
-0.15698732
0.01930314
0.04891251
0.05740957
-0.02974011
-0.15658207
-0.00594273
-0.19091073
-0.01996067
0.05015230
-0.11005658
0.01826688
-0.15816948
-0.02764788
0.00184344
-0.09962847
-0.00613724
0.03798910
-0.03884839
-0.04465083
-0.00232703
-0.13553260
-0.04545478
-0.00497515
-0.15166266
0.00519641
0.04926579
0.04877159
0.04315353
0.01955891
-0.01217699
-0.19806588
0.01383186
0.01423274
0.04563447
-0.19987305
-0.05580290
-0.07355170
-0.04830229
-0.02805551
-0.17121720
0.00866954
-0.03863173
-0.11840337
-0.03266875
-0.08783521
0.03709492
0.06644848
0.02998329
-0.03064244
0.01692100
-0.02280791
-0.09564871
-0.03401175
0.03167385
-0.02406842
-0.15027234
0.00029856
0.03956920
-0.15291241
-0.00087917
0.00967442
-0.01051707
-0.18871434
-0.13362707
0.02775226
0.01402658
0.03522917
-0.22510915
-0.10207903
0.02970503
-0.19035722
0.02577011
-0.07150393
0.01310511
0.03719595
-0.00824538
-0.04045553
-0.16600628
-0.03409221
0.04670227
0.05586981
0.04676194
0.08456479
0.03301714
-0.27620670
0.03629524
0.01145753
0.01586043
0.06066633
0.02553632
-0.00955502
-0.00234407
0.02528361
-0.13080847
-0.13969304
-0.12014116
0.03349940
-0.15802471
-0.04924919
0.06067526
-0.16953810
-0.15216595
-0.06217170
0.02108752
-0.01876459
0.04684637
-0.08640398
0.00473293
-0.12561786
-0.03133367
0.03889669
0.02308282
-0.17983799
-0.22151333
0.08242087
-0.07746223
-0.12062823
-0.01396444
-0.11327567
-0.13767384
-0.00652511
0.05306002
-0.06890240
-0.00311751
-0.20674035
-0.13539824
-0.03500595
-0.01036318
-0.14711541
