0.02762642
-0.01506409
0.02367322
-0.04162852
-0.09687512
-0.00639411
0.07230482
0.03040730
0.08902137
0.08848274
0.03409027
-0.02425125
-0.01828436
0.04403332
-0.11287748
0.06328060
-0.11859013
0.02138049
0.09127747
0.03278553
-0.00375163
0.08363974
-0.07195151
-0.04948273
-0.05012861
0.09375226
0.03849556
-0.05676574
-0.03720932
-0.11928584
-0.12235989
0.11847821
-0.03099280
-0.03907207
-0.00576001
0.04456487
-0.04184799
0.05857738
-0.03810906
-0.13041808
-0.16490810
0.00850266
-0.02937652
-0.03669240
0.05497964
-0.05084734
0.09683532
-0.05638024
0.07013284
-0.08851464
0.10418993
0.10962628
0.00618076
0.06993938
-0.02911822
0.05779592
0.00325087
0.00334530
0.10959040
0.10082554
-0.09676722
0.11689840
0.03471093
0.02422178
-0.13723700
-0.05957898
-0.09012850
0.04088324
-0.11234283
-0.03071241
0.06590734
-0.02826474
0.11207577
0.00606943
0.00590594
-0.04411367
0.06121454
0.02560584
0.05263782
-0.00777551
0.10901184
-0.02065988
-0.03449949
-0.09052242
-0.04438302
-0.10361420
0.01048186
0.10329030
-0.04437915
-0.01549363
0.05490413
0.06333111
-0.04399225
-0.06532662
-0.13074709
0.02335248
-0.01805097
0.02647574
0.04996951
0.04298096
-0.00688524
-0.12946783
0.04452651
-0.00251133
-0.01809235
0.01470705
-0.03845874
0.01713012
0.11457513
-0.04376829
0.00840154
0.09553728
-0.04159515
-0.01895198
0.06898186
0.02189299
0.07328869
-0.12788521
0.00963280
0.14175142
0.11546028
0.01476688
0.07176670
-0.11856537
-0.07375639
-0.03551011
0.14760461
-0.13216789
-0.05311700
0.09615602
0.10349264
0.04916003
0.00919122
0.01855954
0.10610618
-0.08098639
0.03300016
-0.00719209
-0.02986078
0.00011969
-0.00644788
0.01752534
-0.02541082
0.00137939
0.04378850
-0.08108836
-0.00504069
-0.05348105
0.14871415
-0.04746338
-0.04923830
0.04893112
0.07238159
-0.05245802
-0.00875691
0.03501442
0.07782344
-0.06881993
0.09868770
-0.02563796
0.04557475
0.04444283
-0.06152717
0.05151521
0.02135964
-0.02154024
-0.17179051
-0.07919095
0.01389929
0.07629428
-0.10223625
0.02269708
0.02827444
0.12419696
0.01022764
-0.03526372
-0.00867636
0.06805433
-0.04646434
0.08045579
-0.03646997
-0.10628686
-0.08949298
0.10856786
-0.17839891
-0.09188078
0.01410495
-0.10502589
0.06123492
-0.11715495
-0.14364888
0.07779250
