-0.00100369
-0.00854184
0.03208696
0.02833764
-0.01677840
0.02537531
0.02886414
-0.01182467
-0.02355632
0.02644883
0.03468376
0.00346742
-0.02754035
0.01969740
-0.06383093
0.02065219
-0.03052853
0.01118183
-0.03984714
0.03140301
-0.00883740
0.00200491
-0.02390983
0.05457373
-0.02767273
0.00361716
0.01389965
0.03386454
-0.03089331
-0.01285748
0.03386013
0.00403916
0.01821278
0.00230248
0.01287099
-0.01185916
-0.02771962
-0.04281332
-0.04113293
0.00665196
0.01533743
-0.00281470
0.00753401
-0.01150975
0.03985561
0.01031004
-0.05740841
0.00096478
-0.03218191
0.03454716
-0.00407380
-0.01023613
-0.01370474
0.01500909
-0.03527235
-0.02183709
-0.01461460
-0.00613466
-0.04359690
-0.03025168
-0.00937537
0.04204744
-0.01277124
-0.00018173
-0.04174878
-0.01465851
-0.02141340
-0.01341425
0.01490747
-0.02452081
0.03478753
0.01639696
-0.01372084
-0.02245319
-0.01397340
0.00171355
0.00649930
-0.00952670
-0.02260337
-0.00648877
0.02793630
0.00980664
-0.05331992
-0.02756830
-0.02337838
-0.00062156
-0.01123251
-0.02208019
0.02435328
-0.05830300
-0.01080344
-0.03839294
-0.03694509
0.00626954
0.02331035
-0.00946420
-0.02781144
-0.00666602
0.01936805
-0.05119525
0.01726534
0.02556983
0.03977200
-0.02960913
-0.03875558
0.01281846
-0.00372441
-0.02633554
0.00343186
0.02317823
-0.00049157
-0.03781267
0.00889669
0.00327489
0.00186599
0.04105242
-0.01620485
-0.00001622
-0.02090881
-0.04328665
-0.00831997
0.02667679
-0.00245421
-0.02125944
-0.01426792
-0.00053820
-0.04070330
-0.00226495
0.01117461
0.00473006
-0.06320167
-0.05136390
0.04199939
0.04726433
-0.00939708
-0.01166190
0.04865134
-0.00067894
0.00732100
0.02187393
-0.04173750
-0.02901992
-0.00803622
-0.01290390
-0.00053793
-0.05624207
-0.03686810
-0.07142957
-0.02975184
-0.01162264
-0.01304521
0.02812929
-0.01865982
0.00990714
-0.02654787
-0.01356006
-0.04218186
0.01534805
-0.00358136
-0.00228250
-0.01524829
0.00031960
-0.01767500
0.01047878
-0.00797178
0.04091507
0.03763353
-0.05975594
0.02378840
-0.02263409
-0.03262363
-0.02827615
0.03167087
-0.03330259
-0.04672378
-0.03883633
-0.04144843
0.01349127
-0.02084384
0.01057090
-0.03120607
-0.05616065
-0.03422424
0.00022168
0.03779756
-0.01346906
0.00948876
0.01716021
0.00067917
-0.00508914
-0.02926921
-0.04673587
