-14
49
13
1
16
18
4
-46
7
-8
21
-49
-19
-2
21
55
74
-5
-65
-36
-48
1
13
-45
-48
-19
-30
47
-58
37
-26
58
23
58
-2
84
57
6
10
-9
-12
63
-11
39
-21
66
-7
19
42
49
32
-11
10
24
51
-5
-28
-68
-37
12
40
46
10
-33
6
24
-14
3
11
16
-10
4
-7
10
1
25
37
-30
-55
55
44
39
-25
18
-41
-36
7
-52
-12
21
14
-47
19
51
-39
58
-37
9
-5
-35
62
45
-41
77
6
-15
-9
-12
-46
6
-42
19
-15
-43
8
57
-35
-32
17
43
40
-26
-23
3
-37
-48
-48
1
6
-64
-41
0
-30
-21
-50
-13
-45
22
-30
-25
34
-16
40
-81
-74
-26
87
82
80
43
44
43
5
95
54
-65
-6
35
20
-48
-19
-14
65
-12
41
3
27
-128
-93
8
33
-41
70
-30
26
-21
18
-48
-68
-10
37
-19
31
30
31
-1
-31
5
-58
-9
-51
-31
-45
6
-13
27
36
55
66
33
29
19
17
49
7
43
-80
39
-69
-12
18
5
0
-4
14
31
-1
-1
4
22
70
-30
-7
-1
13
-25
-22
-79
25
-31
-31
1
79
-23
32
28
3
32
-17
14
-9
34
25
47
7
47
-4
68
80
54
27
6
-6
0
60
33
38
-42
-26
-64
-14
21
-26
14
-30
-34
20
-50
26
68
61
-65
19
54
-22
17
35
39
-2
21
-13
6
36
-1
4
-4
25
-54
-63
-42
33
39
-54
-26
6
-85
-35
-28
-64
6
-10
-21
11
-15
-26
12
-50
-65
82
-22
30
-67
-26
-4
8
-9
-29
34
-42
-42
18
27
14
7
13
2
-2
5
-27
7
0
-43
-12
-46
81
-28
-33
-11
-19
1
31
31
-45
-10
-28
66
55
23
-44
3
72
-74
-46
-52
8
-34
-4
28
63
-64
19
20
-64
-17
-5
-17
61
23
-44
-57
10
3
66
-35
39
-55
-53
-11
-32
-2
-34
61
-19
-20
-56
-55
6
17
32
-2
-29
41
15
49
-41
-30
8
-4
2
7
-32
19
-13
-23
8
-26
33
33
-30
52
22
49
50
-42
-25
60
39
-1
-12
-15
-12
26
-51
-14
63
42
-1
43
2
34
-14
3
-27
13
20
-25
29
42
-9
-3
-25
16
5
5
-43
33
52
53
-74
-2
-44
2
-14
-9
36
34
-5
44
76
34
-20
-30
48
-12
-59
49
46
12
3
-21
1
64
-42
-4
40
-27
53
-54
-17
-44
-11
18
57
10
-76
-24
-20
-33
-24
32
22
-12
-12
-116
55
-6
-61
-67
-36
-89
19
37
22
14
-89
-16
-23
52
-4
50
-14
38
18
-35
42
7
-42
39
-23
6
-18
69
34
-58
29
34
-8
-6
29
53
14
-15
34
6
20
-49
10
67
40
-11
-49
-21
47
32
2
-55
45
47
-23
63
52
-104
-23
49
46
14
57
-36
-26
55
10
30
-25
-22
68
16
11
-38
17
28
-40
-1
-52
-18
-33
-39
-34
38
16
38
-26
33
52
-33
29
30
12
35
-18
32
-17
1
-27
-36
48
-5
-8
-23
-37
-26
-15
-21
36
-15
49
-9
20
-22
-23
-9
28
-1
66
71
-8
-40
-30
14
8
2
17
25
18
-22
40
44
-64
41
13
-14
-30
-28
7
23
26
-32
-90
-31
11
31
13
-10
18
25
-38
-7
-33
21
24
41
-24
-25
11
-18
17
16
-67
36
48
18
13
-32
-9
14
50
63
39
-41
-5
-9
78
10
-30
-31
23
-19
35
48
1
-87
-2
32
-22
-6
15
18
-29
59
-32
-2
-16
1
8
-37
33
49
-16
-6
8
54
6
25
-23
-8
-33
-27
-62
-14
39
20
37
39
-59
30
-34
-29
27
-17
-62
41
-26
-20
15
-9
19
35
-51
-4
3
13
-2
16
-12
-21
-18
-10
30
-3
-35
37
20
-55
-69
-14
38
-16
21
15
-12
46
17
-42
51
15
13
-5
-60
19
-52
20
7
30
-28
-48
4
-33
10
29
70
-9
55
23
-49
-9
-14
-33
-4
-2
-8
-22
-4
-29
-23
15
-10
-75
-53
0
-64
32
-24
0
40
-13
-52
17
-17
1
-35
-7
-32
-11
25
-3
28
-52
34
61
36
23
-27
39
-24
16
-39
-25
18
-61
5
49
-18
56
-24
9
-14
-28
-49
15
1
-15
-16
7
-90
-27
11
18
20
19
19
44
4
38
7
-63
14
-35
-35
-82
-30
-37
27
-9
45
46
17
3
-7
45
-23
-27
9
-44
-27
-29
-41
20
-15
45
-19
-26
9
-83
-46
50
-38
-18
8
22
9
-33
-27
-64
32
-39
8
9
-5
26
-8
-23
-33
31
-48
52
-23
6
25
-66
-61
-5
35
26
-48
62
-3
23
6
-47
-55
-56
-31
-4
6
-13
22
-23
65
-16
-57
11
29
68
-15
38
-27
-38
-1
18
1
-18
-55
9
4
25
-37
-25
-1
-37
-3
-19
-30
29
-49
9
-10
-3
-7
47
-35
-51
-4
19
-16
18
26
11
-3
-12
-5
39
92
-10
34
35
-5
40
20
0
40
-44
-7
27
1
-44
31
38
29
-27
-57
20
-51
0
-15
-18
8
-16
33
31
-49
-2
-44
17
41
-21
39
9
-23
22
33
11
17
-18
18
-48
-50
-26
-9
-6
40
-24
19
28
-18
5
49
-56
-11
-18
-21
5
16
-52
-43
-40
2
39
24
-70
-40
-19
30
78
-84
29
60
-14
16
37
33
-32
-3
-24
51
-2
25
26
-57
-48
14
6
0
32
25
-55
2
43
-21
67
-37
-14
6
-30
-19
-88
-2
27
-49
-14
-6
1
-45
31
14
18
-27
3
-25
-20
-36
-35
-41
12
0
-21
-41
-11
20
-47
-45
-22
7
85
30
-9
-19
-43
-6
34
-9
48
34
-19
-85
11
-40
19
22
-34
-41
28
26
43
45
-49
18
-40
7
-18
13
57
50
-18
-1
-24
7
16
-53
72
66
13
-2
-40
59
-4
-42
-18
-19
-4
-7
-25
-48
48
-32
14
78
56
-10
-63
65
-37
40
58
6
20
-9
-48
54
-34
-5
9
-5
-22
-35
19
38
5
72
-20
51
10
-2
48
29
12
12
-25
-4
49
44
-38
-2
9
-6
20
-24
-57
37
13
10
40
55
38
-60
-32
-13
-7
-34
-7
-3
-41
-43
31
9
-27
7
-39
36
-37
-23
-40
39
45
-17
-46
-8
-59
12
43
20
12
-20
29
-9
-13
12
-62
12
31
-23
-17
48
-57
37
37
-61
-15
-80
23
38
38
-52
8
-52
-46
-35
19
20
-26
48
35
53
-29
7
-32
-18
-21
-20
-44
0
-14
-31
14
16
32
-27
29
21
-51
57
27
22
-47
-73
4
50
-9
73
-38
-66
3
-23
56
-25
42
-20
32
-5
38
49
20
46
-16
10
-21
-17
7
17
-62
20
32
-50
-3
30
35
55
-32
-14
27
15
-9
-39
-37
-4
73
-40
-73
18
-26
-6
62
59
-11
-36
-25
25
-1
-18
-1
-44
-2
-2
-25
2
-13
-18
36
-13
18
-40
-9
-21
-46
-6
5
9
40
-39
-10
39
-24
18
8
23
-69
-12
39
3
40
58
-36
-8
-16
-38
-4
-42
-7
-39
-27
22
-45
38
-10
22
56
-25
-33
1
30
-18
46
12
-61
11
-40
24
-2
1
-26
-26
16
10
12
6
-1
-31
-11
29
16
-37
12
-64
34
33
42
-28
-32
16
-39
-41
33
20
60
-11
-20
-20
11
-75
42
-21
-42
36
26
-27
-22
36
-15
12
63
73
11
-12
20
-23
12
28
44
39
-44
-5
70
-28
-38
37
2
-30
80
-45
-51
-49
-2
-24
40
66
-1
-7
28
30
30
46
-73
15
22
-28
10
-13
59
30
-38
30
34
38
22
-48
9
44
-21
-6
-75
15
33
10
-27
-1
-49
24
28
43
-37
-58
31
6
0
41
41
18
-1
-29
44
0
47
-3
54
10
20
26
1
2
6
36
-5
17
-38
-58
11
15
-36
-37
-33
36
4
-36
43
-15
15
-9
-48
-18
-9
9
-15
4
-44
-42
-21
-23
12
52
30
37
-32
-16
-41
-2
24
60
-22
-12
25
-38
-37
31
-24
5
-30
17
-51
-8
-14
32
-56
-14
19
-2
8
-68
10
40
17
-35
13
46
-10
2
51
63
-10
13
8
-20
-24
-36
-17
-4
-6
-11
-20
-3
0
52
12
28
-74
15
6
-12
68
40
34
-30
-42
62
50
22
-4
29
28
4
-47
46
-50
-45
41
0
-19
20
54
-36
33
-19
-36
-26
6
33
10
47
22
9
-37
23
31
-46
1
47
-36
-36
52
4
13
29
-23
-30
15
10
31
-54
47
-44
11
20
3
42
60
24
45
20
-12
11
-31
32
21
-60
-35
-40
30
-20
6
-8
-33
41
-25
-17
42
4
62
-38
-5
9
47
26
-75
-4
26
41
21
-15
56
-15
-28
4
37
-1
-34
-29
11
-27
-62
-56
-64
-23
47
-12
-27
29
-106
-59
7
27
-27
-18
-46
-22
-56
-45
-22
-10
-56
17
-34
-14
-40
-49
-14
-18
-17
4
-6
-5
-84
75
29
-17
31
-16
33
9
-49
-38
18
-8
39
3
-11
-8
27
49
20
-13
34
-66
30
45
-65
-50
-61
-46
2
-2
42
-52
-26
6
30
-13
-23
-7
19
27
46
-4
5
31
23
-53
25
-54
1
38
15
36
34
54
-12
-21
-37
-21
39
18
-30
17
26
-38
-6
14
-25
-35
-20
-9
1
34
-86
20
36
-16
75
-29
-63
-18
34
45
-51
-31
58
0
46
-11
-32
7
-34
52
6
41
-2
-29
58
0
-7
35
-49
-12
-2
7
58
16
-55
9
-17
45
44
-43
3
-35
-24
-31
37
-52
28
-22
23
21
10
-40
18
-28
12
-6
56
32
25
60
-87
32
23
-12
-13
20
-62
7
-24
-29
20
34
-39
-28
-14
12
6
27
21
-32
33
-80
-27
-10
15
-4
18
9
-64
-7
-3
-33
-2
-65
22
-22
-59
-29
17
-14
-17
35
-39
20
-16
-37
9
-4
-52
57
8
-14
-45
-86
24
-1
-9
-18
-36
-57
-17
29
38
-32
4
49
11
-12
17
7
19
9
-37
58
-32
-39
28
-15
15
-23
-36
10
-33
-26
-47
61
18
11
-37
35
49
9
-3
39
-37
-39
-51
18
-35
-67
8
48
37
10
46
-30
37
-82
-36
38
-72
-27
63
-54
-51
20
19
-6
-18
17
46
-66
-15
27
-34
16
-2
47
22
18
6
16
75
-1
16
19
35
50
30
-9
-57
-27
-33
53
77
16
-52
1
4
-13
16
16
28
10
17
22
-50
7
13
-31
33
-3
20
25
-40
-5
27
9
28
55
-37
0
13
-68
26
-28
-17
-4
-17
32
-6
25
26
-2
34
-34
25
-15
-11
7
32
-53
-14
-13
-25
13
-46
49
15
10
-58
-54
17
-10
12
-33
13
-6
-86
25
39
7
-2
-49
17
13
-1
-32
-23
28
82
-21
-40
5
34
-3
28
-37
36
-7
-8
24
46
20
-25
30
23
51
-15
18
26
-25
27
49
11
-29
-46
22
10
36
9
-8
-35
-29
46
34
-1
17
-26
-26
2
-52
-4
-16
-59
-25
-25
-52
-33
28
-45
-40
-3
-23
-25
-29
-38
-9
21
-52
10
16
-7
-61
-46
48
59
13
-1
-60
-56
40
48
-29
2
28
53
3
8
16
-21
-36
13
41
-18
38
10
0
-21
-83
-3
-29
-20
21
20
39
21
-5
-43
36
-19
-30
55
10
-21
44
-12
-7
13
-39
59
23
39
36
-17
-41
-38
-94
-50
56
2
19
-41
-21
-50
-23
24
49
4
24
6
25
-18
5
-10
-15
92
-26
-2
-39
39
15
-28
-21
48
-16
-13
-26
61
49
23
-20
-1
37
-33
1
-18
-38
-74
-19
-50
62
-12
-4
-29
-1
-35
-53
10
26
-72
-30
-37
-17
2
19
-4
-23
16
-46
-66
-48
46
50
-23
15
-57
-48
46
-42
15
-6
-44
37
15
5
33
3
-14
-26
0
-2
13
-15
5
-11
-41
-14
4
26
43
-14
20
-26
24
-26
-73
20
-62
-26
27
-45
4
24
-18
77
30
-31
-14
-47
-41
-48
6
-4
-48
27
10
20
-21
-10
-15
25
42
-43
-22
1
26
47
-39
-22
20
-6
17
6
3
50
-68
-40
12
7
2
49
53
37
10
-73
23
9
24
-30
18
4
-25
-38
10
17
-20
18
32
56
-46
-54
-36
46
-11
43
-33
-87
-52
73
54
24
0
-25
-50
2
20
-43
-67
31
-7
33
2
78
-43
-42
-33
23
27
-33
43
27
-15
-2
-17
45
-44
-60
60
-61
-35
-48
47
-19
21
-56
-39
40
16
-52
-58
28
-24
0
-23
11
-35
17
9
-44
-34
47
29
21
30
-43
5
25
36
-47
-47
-29
-23
-5
55
1
5
53
20
29
-9
7
-22
-46
-23
53
-39
-27
6
-54
-35
34
20
28
-22
8
3
-39
35
65
-29
46
-25
42
-22
-23
12
-56
13
-27
27
-53
-37
-16
-12
-33
-31
28
3
1
13
-1
26
11
45
27
23
-28
44
17
39
-43
1
-83
-12
30
9
-59
17
28
53
-48
-20
-8
-28
38
72
-24
-39
35
21
-47
6
6
-43
45
53
-20
-43
27
-23
30
-9
-22
16
-28
33
-1
-32
10
-14
-5
25
-9
-13
-7
-27
6
12
25
50
57
43
-49
34
-10
10
-53
-44
24
20
-26
51
32
56
9
-11
-72
-18
-41
3
41
25
-35
-11
10
-26
-23
22
-29
27
32
7
21
39
42
-35
44
-36
31
-6
-29
-19
46
-4
-2
3
-2
-4
23
15
-9
-28
41
35
45
-18
2
18
60
-20
5
-45
19
25
42
-35
-3
-23
19
-3
-40
20
-23
7
3
24
45
39
29
60
6
-1
-1
-26
36
-20
-48
-21
-53
51
-15
80
38
74
64
-36
-14
44
-8
48
14
-65
-32
39
40
3
24
-2
59
38
-10
22
20
-49
84
-22
-26
-25
58
-60
4
53
58
18
22
74
-21
16
-3
-38
-80
32
23
-21
-52
36
75
46
13
56
2
33
-50
45
0
-43
-12
31
-59
33
31
-21
-29
-15
-23
-4
-11
31
32
52
39
-1
32
4
11
26
43
2
36
1
12
35
29
-20
-4
-28
-15
34
-4
32
-55
-24
1
-1
-2
-7
-41
2
-18
22
17
20
54
-47
-28
-22
-28
-1
-19
15
-62
-59
-46
13
-47
15
20
10
-51
-20
48
-28
-46
57
-25
21
-2
-15
4
2
-31
-7
24
-16
34
11
33
14
17
3
-41
-27
-85
-14
-16
-67
29
-65
32
-60
12
37
27
42
-56
11
-35
-48
9
-17
-27
58
-21
-31
60
-16
6
-7
7
-7
35
-48
25
45
-19
38
13
4
8
-16
44
-29
-43
-23
35
-44
25
58
-6
-16
-2
-57
-26
5
26
23
41
-8
2
9
64
-15
-36
-21
42
62
28
-46
-22
-34
-5
9
-44
-76
-71
49
-5
-43
40
4
48
46
31
-23
62
-22
-41
-33
-47
-43
65
44
-40
-13
-33
36
-47
-5
13
-42
46
-30
44
-5
23
42
22
-24
-35
0
22
-52
4
25
-27
-3
-5
-30
-28
23
39
-39
10
-12
-2
9
-18
10
-28
-9
-12
-29
5
-17
23
-20
-12
-15
-10
45
18
-61
20
-28
-51
-61
-88
-28
-42
1
4
22
35
20
-15
-13
9
-1
5
-43
58
-30
5
-56
-30
63
-30
-23
30
2
46
20
21
-38
-24
-16
-18
39
21
-8
2
-32
20
-49
11
4
58
46
38
-14
17
9
57
42
5
-60
17
33
-34
28
-27
17
12
-5
-32
-19
-34
-35
39
-32
5
43
-5
17
-11
-39
-46
-49
12
-62
0
-25
-46
-12
-67
-39
-24
-59
15
16
-3
21
-4
-9
52
-19
-20
-44
28
-1
-13
-27
75
-27
-44
14
-14
17
23
-33
12
-36
-20
-62
-58
-11
2
-12
43
12
-67
16
4
54
38
10
-20
29
7
-14
-29
12
-58
47
-15
-75
29
2
-39
-30
-28
28
-34
-49
22
13
-20
26
51
40
-68
-72
8
-16
-4
-50
36
-10
-67
42
52
-36
-63
-22
-64
-26
11
-4
-10
16
-62
42
15
3
11
-15
-38
29
-48
-18
26
27
54
-49
-12
1
22
-9
-34
-20
4
-16
-8
39
49
52
-29
-1
-19
-31
-43
-32
100
13
-6
-30
-28
-36
-44
-19
13
-49
29
14
-34
23
-58
-6
0
-10
5
-57
12
-33
53
51
-32
1
-52
-13
12
-5
3
46
-47
38
19
-55
1
-37
-6
21
-45
-19
40
44
6
-18
5
13
25
-7
31
15
4
-69
17
-47
-38
42
-22
-14
-31
15
16
13
14
51
4
28
39
1
25
-3
-12
-20
37
-28
16
-1
-38
-15
5
20
-62
-20
-53
15
62
58
-27
-4
21
42
10
31
27
-6
-35
58
47
19
-16
-24
-68
-37
8
3
37
-18
31
0
19
12
-40
24
-41
-12
75
27
27
47
-6
-35
-40
-1
-44
20
-60
-20
-7
4
31
-28
-51
1
-14
-43
28
21
24
33
-48
-2
9
4
32
32
6
-41
-27
24
60
-19
-19
-33
27
-44
-4
28
-39
-20
61
10
-27
-23
16
40
35
-19
13
-53
15
24
-54
33
6
22
19
45
21
-63
-10
35
33
-11
-34
-12
-8
64
0
3
74
-9
-51
-6
-6
18
39
-31
15
-59
3
12
-57
-41
-28
43
31
-62
-33
21
-14
-19
49
-48
-84
-42
-10
30
-3
-79
18
-58
-26
3
-20
-11
34
30
-6
48
13
-27
57
4
-55
14
-14
52
57
14
-32
-14
24
27
10
-26
-3
-67
-24
-8
0
75
6
27
19
-19
-55
-2
-55
58
-43
-7
36
-43
15
30
-49
10
27
18
-30
-39
-34
-57
-21
26
18
-29
-74
12
12
31
38
-75
-24
-42
-3
2
61
-58
38
37
-37
52
43
32
57
1
-14
21
-6
-51
10
3
9
12
-43
55
-20
-43
-40
-62
-39
65
3
-2
46
14
46
8
-20
40
13
-11
-33
-12
49
-28
3
50
-70
-22
43
44
17
-10
-21
-69
-17
-10
20
-5
-62
-44
1
51
24
-81
15
-4
-29
-13
28
-20
-39
-25
25
26
67
-59
6
7
-58
9
25
-43
-46
-33
-1
-52
0
-27
-57
-7
26
-59
-3
-36
-60
1
22
6
-14
5
17
28
22
17
5
-35
50
-41
-61
-6
36
-48
25
-30
27
-19
-50
-35
37
1
-22
10
31
-69
17
31
42
-4
-43
-3
-19
18
-25
-32
32
-42
-45
18
-25
-45
39
-57
-43
-4
-46
45
-2
10
9
-25
-51
-7
31
-11
-8
-26
-13
20
65
-37
-30
13
34
63
-41
-37
-34
-17
16
-34
-20
23
-22
15
-47
-28
71
18
47
-73
-41
-1
28
5
80
-34
-49
9
48
-21
68
-4
-54
-42
-11
52
-29
-2
55
5
-3
41
78
-74
-22
20
-13
15
-19
-28
9
-10
-23
64
28
-62
30
45
76
-122
-37
20
36
-11
-78
53
31
-43
-36
-11
10
-26
-25
-74
41
-58
-106
-82
6
-82
69
13
30
16
-14
11
-1
68
50
15
-28
37
-23
25
-26
-54
-36
-77
-59
7
42
-48
-38
12
35
30
47
-41
-18
12
21
28
-4
16
-19
34
-48
15
36
-29
-58
-29
24
-19
-47
0
41
8
18
40
55
18
-106
-20
-43
14
-27
-8
37
-2
-10
-33
4
-43
40
-49
10
-78
-16
-25
61
-16
38
26
-59
7
5
-12
12
-16
13
10
-19
121
20
17
60
-13
-19
-32
0
-37
-90
6
44
48
73
-14
-51
-44
-13
40
65
-59
7
-27
46
-19
-50
22
3
-7
-2
-6
16
-99
-59
31
-23
61
40
-33
57
-18
-75
-36
-33
-53
4
-61
-34
0
-8
43
23
14
30
58
-27
-8
48
28
19
17
18
-6
-42
60
20
-29
-54
51
41
1
28
31
22
-13
-12
13
-32
21
-7
9
45
48
18
-58
-30
25
19
-80
25
29
21
8
5
13
47
2
-32
25
-44
3
-38
-28
-17
-42
-23
-28
-24
-3
-17
-14
-31
-5
-59
-48
42
23
-22
12
10
21
-4
-26
-9
7
-32
-42
-2
-86
5
-60
-69
4
-39
-19
-10
-24
-12
-16
37
-31
-9
-19
-35
-13
-38
3
-40
53
23
-23
23
-53
-20
-4
-35
-22
-64
11
-32
-9
16
-22
-25
-44
6
-49
36
24
42
39
-19
-25
5
-23
31
-64
-36
-11
10
-43
28
-41
4
-10
-48
46
-10
-24
63
-9
13
32
-53
23
-12
2
5
55
-16
-45
46
24
43
31
2
10
-27
19
-18
8
-58
-7
4
4
-76
-22
55
30
-39
14
-32
-65
7
21
18
-10
20
6
3
-31
-29
-21
50
26
1
-37
3
16
-12
-4
46
33
19
-17
56
-26
42
23
-76
-15
-28
-56
31
-50
-23
55
-2
-28
40
-36
0
-27
4
-93
-67
-29
15
48
51
13
-10
-37
-21
65
19
-34
-18
7
23
0
15
-35
-54
3
-25
-70
17
-33
-28
-35
-13
24
-5
-16
-19
13
11
-48
39
-44
-32
-44
-16
51
-29
63
8
-11
-58
-2
28
-36
-64
-13
-29
6
-2
9
47
36
-12
-27
8
-19
25
-19
14
-57
-66
-22
-23
-23
-8
-5
-49
29
-30
15
45
-34
54
-47
44
23
-16
-27
-26
7
-43
-8
-63
-2
-28
7
-29
23
59
43
31
-48
-50
-59
-11
27
-27
-3
-50
64
-2
5
-4
18
-61
23
0
5
