-36
29
44
17
-3
-3
2
14
18
15
-40
15
9
22
7
-17
-6
-6
-23
-20
10
13
38
-36
-21
58
-7
9
-10
0
-8
-3
3
-10
5
-12
42
-27
34
24
-13
9
22
1
26
-5
-29
-19
-26
2
-11
-15
-9
-35
37
8
32
-4
12
23
1
-10
2
27
-17
57
16
0
-3
-26
-15
-6
-6
12
28
-25
19
-2
9
0
21
18
-31
4
-10
-34
-17
-13
-15
6
8
-47
13
3
7
9
1
-21
-20
-15
7
-32
14
-18
-9
18
-5
-20
-10
42
41
-7
-10
-9
4
-19
-2
15
4
-16
-15
-10
-41
0
1
10
31
-15
20
7
21
26
-40
-19
10
30
-1
-12
22
-8
-5
25
29
-15
5
12
-3
23
4
-37
-12
-52
-2
32
-31
-50
0
54
14
-7
12
-27
7
-3
66
-2
21
-14
-30
11
16
-15
-14
8
47
4
23
-2
2
2
-11
14
-3
19
-11
-23
22
5
43
20
4
-1
-23
-14
-14
10
4
-23
-25
-40
10
-28
21
-17
-22
14
-16
14
-26
-12
21
14
-15
7
-33
50
19
-63
-12
-13
28
-6
24
-33
-20
5
1
-37
33
-5
-24
-28
2
-21
-33
11
20
32
19
-23
34
37
-12
-6
32
19
-3
-5
-16
-14
-46
-9
-46
-6
25
-22
-1
-40
-18
21
37
-9
0
-11
-11
-23
37
11
-40
-2
12
38
-25
-57
-47
21
-25
16
-4
-38
-15
-14
16
3
13
18
12
-9
-11
-46
-10
21
9
15
-15
36
-20
4
9
19
10
-4
-7
-11
-1
-3
-10
-10
33
-21
-10
19
5
9
-19
-18
45
26
-18
-3
36
-9
-7
-39
23
2
-1
-3
-11
7
11
20
6
-17
-44
12
28
-23
-8
19
6
-17
-57
-3
-34
-22
-4
-27
36
-5
-8
47
-2
35
-14
45
-50
33
31
29
20
21
-28
44
-11
-8
-4
-11
-27
14
-17
-25
19
17
14
-36
-33
-17
-41
-27
6
-8
1
-40
-4
-23
-18
-3
8
42
11
-46
-10
-8
-20
17
11
25
-28
-1
-17
-16
29
38
-16
2
-32
1
16
-37
-19
7
-9
-7
-8
-10
-4
-2
9
23
-7
7
9
-19
-8
-4
10
3
9
3
6
18
18
7
20
15
-12
-17
8
-19
-30
-23
21
-41
13
-2
-20
22
-3
-8
12
-18
16
28
30
22
44
-5
20
3
-5
-5
-29
-6
-30
-42
1
-12
-22
-28
-46
-28
6
-6
-2
20
-11
1
6
3
13
-14
-8
8
8
14
-17
-5
-3
-14
-9
-8
-15
0
-16
-18
-14
13
-17
3
28
-5
-7
4
28
16
34
-23
-6
5
-7
-28
-35
1
4
-28
32
-10
-6
21
-8
-29
-13
21
9
-18
-36
-5
7
13
11
-19
4
0
-21
28
-27
-22
11
38
19
-11
-43
9
1
9
-11
2
16
16
6
5
15
-4
3
-23
-19
11
-36
-16
35
10
-28
11
8
-9
-16
-14
14
8
8
15
-10
29
-15
-57
-26
42
31
-16
-26
23
-3
32
7
17
24
9
-12
-7
-4
-20
23
-44
12
-7
-27
-22
-1
36
16
26
24
-25
-29
29
5
26
-12
1
24
-29
31
-15
23
5
-4
17
-14
6
-15
24
-16
-12
-4
27
4
26
16
19
9
40
-35
-35
28
37
29
13
-9
-1
6
-12
-7
4
23
9
-3
10
17
24
14
22
-9
-12
50
-37
29
45
-1
-6
-8
10
-30
-2
2
20
-22
-6
-39
0
-55
-15
12
16
14
6
-17
12
13
-4
27
28
12
-6
26
-6
2
-14
4
22
-21
11
17
30
-8
-2
27
23
8
36
19
-5
-24
30
2
4
-11
21
8
18
-11
1
1
-21
4
1
-18
1
19
9
11
-50
-3
15
38
-8
-17
-15
33
36
-32
-35
-20
3
29
-9
8
-11
54
25
-4
-34
3
-7
-53
28
-7
21
-7
0
-21
4
1
-34
-13
-52
39
-34
23
24
-7
1
4
-6
11
13
26
-7
-31
12
1
47
-30
11
13
36
23
10
24
-24
-40
-26
-19
14
-2
18
22
-21
-6
-7
4
-29
-7
-7
18
21
7
0
9
25
-7
0
6
40
-3
4
-14
-30
10
-51
14
-22
-16
-21
-14
-9
24
52
-25
-27
-7
-3
27
-8
25
28
-66
-3
-14
1
15
-2
0
-17
-45
8
-14
-16
2
-1
-5
-13
-6
-22
18
-31
21
-17
14
-14
6
9
10
45
37
3
-45
6
-1
-28
21
-29
34
-1
26
23
-9
23
-9
18
7
26
-14
-2
1
12
-32
18
18
14
-7
19
27
1
-11
-12
-15
-9
-53
-2
-3
1
-15
-19
23
-16
-15
16
32
-1
11
14
26
24
9
-2
-13
9
0
36
5
0
2
-38
14
1
17
36
-6
9
-32
-15
-8
-14
-33
47
-2
-9
-26
-29
20
-23
13
-13
-3
0
0
37
10
-29
-25
-33
-22
-3
-24
9
5
39
26
19
4
-29
-15
-3
-12
20
-40
-38
-35
-4
7
31
22
-17
-8
-36
-15
2
30
-9
-15
-4
34
19
6
15
41
20
-26
-17
3
-28
-20
-3
-8
-6
11
-21
-10
20
16
-1
-13
-9
-19
7
4
-32
-5
-35
-8
-8
12
-14
-12
20
-22
-3
15
20
-5
41
-13
8
29
-3
37
4
-41
-21
-44
-11
3
11
2
34
9
-42
-29
-32
-16
6
-5
3
11
9
-1
-30
59
22
-3
-8
-12
7
-39
-39
-25
-10
32
16
-14
-27
-18
4
-18
-5
-46
3
-4
17
-2
10
3
9
18
-68
22
18
-17
-17
12
34
-19
17
-13
-10
-11
6
-2
19
-19
-15
-5
-7
-17
-18
-30
11
-20
-11
-35
-5
-2
49
-17
-23
2
5
7
-13
-13
10
65
14
-1
-4
1
-8
-23
-17
13
-8
32
11
-9
-13
21
23
41
-9
17
-5
35
24
-22
11
35
-28
-26
-39
-11
15
-11
25
25
14
-17
-24
25
-10
-19
-19
10
56
12
11
16
-13
-8
20
-1
11
11
9
-3
-31
-2
3
10
-19
-30
4
31
3
16
9
-7
-9
-8
31
-22
21
34
-20
-48
7
-13
-37
-26
23
12
6
-23
1
-23
16
-17
-5
-13
-6
1
-32
8
-44
-14
23
34
-17
3
-13
18
-14
8
14
0
12
-5
-19
-35
21
26
-41
16
-26
-13
-18
-26
0
31
-43
19
23
-7
26
17
-4
22
-9
23
-3
-47
-5
-46
-27
1
17
-4
-10
15
-2
-34
-17
4
-8
-4
-15
3
21
-3
5
16
29
15
17
19
-5
-25
0
-32
-12
9
-28
-43
-13
28
11
-5
18
18
4
-11
-26
24
11
6
-3
-17
-29
-29
34
-29
13
-15
-8
11
-2
27
-18
-13
-6
-1
-28
11
-17
-79
-9
-13
41
23
-11
-9
4
28
61
-8
-5
15
33
-15
-65
-27
15
-7
-16
-14
8
10
-1
-14
28
29
6
-6
14
-21
-14
-14
-35
4
-5
-27
-15
-46
2
-11
-11
6
10
2
-12
-11
-4
-38
-71
52
10
13
63
-13
-20
53
-13
-41
-16
-32
10
7
-6
38
-7
1
12
3
24
-5
-21
-14
11
2
-21
12
-50
-5
5
-27
27
20
-21
-23
-30
2
-5
-28
8
-27
21
19
24
15
31
-39
17
-17
11
18
-6
-6
2
19
15
25
27
10
14
-15
7
11
-15
-2
17
17
-4
-18
-23
31
-47
-18
-11
-21
-19
0
-1
-22
15
-6
-11
26
-27
-21
-12
28
19
36
-22
-40
-14
5
-6
-23
27
37
22
-22
-32
-17
-39
50
6
18
1
12
13
-44
-4
1
21
8
-14
-18
-28
-7
12
20
17
21
16
-2
-37
-25
14
-12
26
-29
-3
34
-4
-5
27
-11
-5
-28
4
-21
6
7
35
-4
-35
-29
23
41
35
-14
-30
-7
-4
-22
-53
48
12
6
12
-21
1
-35
46
8
-5
-21
-16
-15
-9
-8
-21
-27
13
-22
26
0
39
9
-8
-12
-25
-7
-45
5
-17
19
-13
8
3
9
-8
-34
-39
0
-14
29
56
15
-2
-16
3
17
-34
-2
-6
-30
-29
15
28
-25
5
40
-8
11
5
13
27
-18
48
-11
11
42
-24
-47
26
41
-1
5
18
5
11
-15
-26
13
-34
46
6
-8
65
10
24
-3
-1
11
32
18
18
25
36
68
47
3
30
-36
-19
30
-17
33
-25
6
21
-2
-28
18
-13
-37
-12
-24
-6
-11
-24
17
-26
76
6
14
-2
-17
18
3
17
15
15
-25
4
-30
-19
41
9
38
-9
-2
12
8
2
34
39
9
-14
-7
-1
-29
5
-14
-27
-7
-49
28
-4
-44
20
-26
-1
-10
26
6
-26
28
17
-20
25
54
-5
2
11
18
-4
6
16
21
26
-8
16
17
20
48
-24
13
54
37
19
-15
-2
-5
7
1
-46
19
10
5
64
74
34
-17
25
-16
27
-36
15
-6
-13
-32
29
33
24
7
38
-41
17
14
18
-13
48
1
-19
1
16
12
-39
-12
-26
-2
-1
-11
0
27
5
-18
-14
-25
-13
29
-56
16
21
-7
-48
-5
-16
-7
22
-6
35
28
1
21
-47
29
3
25
-21
-17
29
-7
21
12
-33
0
-31
31
5
-22
17
20
-9
33
-15
-2
-2
34
-22
35
-23
26
-2
12
16
0
-10
-26
-4
-24
-25
20
-40
-13
-9
-18
23
1
-3
-4
-20
-18
-1
10
32
18
5
33
5
-4
-18
-7
-6
-8
-49
-26
11
4
-33
-15
-13
-23
-14
-12
-13
5
35
18
17
-8
6
12
46
7
-9
5
-23
-38
-21
-27
-2
27
45
8
-11
20
-6
22
-5
15
-37
-6
4
35
13
20
-26
-37
-26
19
27
29
12
-26
-32
46
2
19
30
-11
-11
16
-33
19
-41
-50
27
16
13
-5
3
-2
-19
11
27
8
9
19
29
-15
-6
-42
-27
-44
4
-35
-41
11
5
10
-9
52
6
2
-5
-7
-37
-31
-6
27
-15
-15
-10
27
-46
-29
-32
-4
28
-10
12
14
-45
-41
-16
10
4
-21
29
13
-11
8
27
28
15
20
-8
3
-26
-14
-3
12
-22
28
2
6
-17
19
14
-53
33
3
13
3
16
33
32
15
-21
6
8
22
21
0
21
37
-3
43
-10
-1
20
9
-5
34
11
-22
13
-14
-6
21
19
9
25
12
-13
21
-7
3
10
36
2
-29
3
-49
6
9
9
12
6
34
-19
-20
-24
26
7
61
8
6
-16
4
22
3
20
42
13
12
2
-9
-11
-7
-18
52
34
-12
-3
35
19
23
34
29
1
-9
29
-33
1
3
12
4
-18
44
9
0
9
10
23
-17
25
-1
-7
34
25
-5
17
15
-21
-1
-7
5
33
-10
-3
-11
-35
17
1
-7
24
19
-7
31
25
4
-9
14
-26
15
-26
-16
-20
-26
-6
38
76
19
-17
-7
2
24
15
-36
-17
-18
-8
-48
19
34
10
7
23
23
19
1
28
33
-11
-2
-20
-15
15
11
4
-27
23
3
-46
-13
37
-6
-21
-40
29
-5
16
9
-60
-6
-20
-2
17
-46
8
1
-19
14
-8
2
7
-33
49
23
20
15
3
-11
-25
23
4
-52
2
13
13
18
-15
13
20
-18
0
-24
-22
11
16
25
6
43
-15
25
-19
33
-14
-5
25
-50
-3
-1
-33
20
-5
9
-15
-28
-1
-1
-18
6
23
33
9
37
-35
8
-15
7
41
31
8
-39
10
-4
-16
3
-32
4
-15
3
3
-19
-38
17
28
-17
18
27
29
17
18
9
0
-31
23
-24
-24
2
-6
13
-2
42
-11
29
-25
19
32
-4
-7
-28
4
-22
24
18
6
0
-12
19
-23
31
22
-27
-14
5
-46
-6
-28
11
-27
9
-26
-5
-15
17
-8
-48
-7
-2
-26
-10
15
-13
-1
-9
20
-5
-19
-10
8
6
-58
16
11
-11
9
-32
1
-7
-24
-22
10
11
19
-8
-1
1
-10
-7
4
-15
12
-21
26
17
0
-12
-32
-13
-38
39
13
-6
9
-20
-20
37
9
5
-15
-13
55
1
-29
8
9
-38
-4
-48
-11
-52
18
-3
1
-15
-9
14
-11
-19
1
8
-47
-8
38
-10
-15
-31
-10
31
19
15
38
-21
0
5
-63
-7
-67
23
6
33
-30
53
-16
14
0
5
-18
-4
37
15
-34
-14
0
-9
15
2
-86
1
7
2
26
-11
-18
-6
-20
-20
20
9
8
11
9
20
11
-30
6
-33
-40
-45
-31
-40
-9
-9
-34
-27
-8
0
14
4
52
9
-17
12
-9
24
50
14
20
0
-11
-41
-26
-20
-14
32
16
-1
11
-5
15
23
7
0
-3
-41
-37
20
-10
28
-58
-29
-10
18
-1
-10
10
15
-29
20
-27
11
-15
-5
-36
-8
-34
-16
36
-21
9
-8
-47
3
16
-4
22
22
20
26
-3
9
7
23
5
-32
-15
1
-20
-19
5
47
13
-8
-21
13
40
-14
-18
-9
-44
0
-10
-7
-19
15
8
-34
0
7
6
10
-48
4
-17
7
-57
-55
-12
18
11
-58
-7
2
-16
10
-30
-5
42
24
-26
-9
22
25
4
-21
-5
13
-24
-30
17
-4
0
6
-42
25
-24
16
-15
28
-7
24
18
-29
-14
-25
2
4
16
14
26
-12
-20
11
-44
34
-11
64
-13
-4
-16
-25
-20
-33
0
-12
-7
8
-5
8
-13
-21
-2
2
17
-13
-6
31
4
-1
3
-3
-3
-18
47
-12
-49
-19
-13
-21
-53
-25
17
50
-36
-15
11
13
-30
53
32
1
-11
-14
-14
8
-17
-13
-37
5
-2
-3
-37
-7
6
-37
-11
21
11
-14
-13
15
17
9
-22
33
-16
-21
11
17
24
8
13
-29
59
11
-2
-37
2
-26
2
4
-10
29
-2
-27
-14
-1
12
36
-38
-14
-12
0
-30
-13
2
16
44
-15
41
-3
-7
19
3
12
-4
-39
-21
-2
29
2
-2
24
-22
-18
32
50
20
-20
24
-9
-8
30
0
-7
0
9
14
-15
-15
12
-25
-19
22
15
50
-20
-48
-14
-70
-30
-37
30
21
6
32
41
5
79
-10
12
19
32
-15
-29
13
33
46
1
0
7
2
35
-12
19
80
-11
19
-32
23
20
6
23
16
23
45
-5
29
-10
-19
-3
-46
22
10
-15
-19
20
21
38
-4
22
46
10
-9
13
-4
74
29
-8
33
30
-13
21
33
27
-4
1
23
-31
-5
-10
5
5
9
-37
-3
15
-25
27
-3
71
44
10
19
-11
25
45
33
11
34
5
46
2
-29
3
-5
20
32
-15
-20
26
38
7
11
6
13
-34
19
9
19
-7
5
-16
2
16
38
20
57
-40
-18
-20
-5
26
11
16
29
41
20
70
3
-3
17
-3
9
-1
3
2
41
34
9
-26
12
63
-9
25
86
9
-15
13
34
20
24
-14
-2
33
19
-3
39
65
30
28
6
23
-2
0
16
-5
14
9
17
32
-16
38
20
26
-30
22
31
29
2
1
-5
-3
45
42
19
2
2
-1
22
27
110
-29
-11
-26
-16
-3
-23
-39
-23
14
4
20
25
29
2
22
4
-5
-8
24
-25
-9
-6
-21
-12
-10
6
15
4
-13
33
42
2
-16
-13
-9
4
12
5
4
24
4
16
-31
18
14
-20
-5
-39
34
26
-3
9
-13
5
-25
-16
21
34
20
-34
-26
34
28
-21
13
-43
11
-30
-9
39
6
17
-39
44
17
1
-6
1
14
5
-2
-5
14
26
31
-27
8
9
16
-11
6
5
-40
7
2
-11
-4
27
18
-37
-6
12
6
4
1
12
9
26
-9
1
-22
-15
16
4
-39
18
47
4
2
20
-2
38
-20
17
5
-23
-25
-19
-41
-11
-29
3
23
33
-21
16
-18
-25
0
17
12
-41
-31
1
24
17
-22
-10
-20
23
15
20
21
5
-6
30
-1
-47
-8
-14
-7
-3
-2
5
-22
18
-15
38
8
-43
3
3
9
39
-19
16
-1
-21
20
7
-19
-2
-18
-9
13
31
-16
34
-8
22
40
-31
-31
-8
-14
23
21
-9
33
0
-27
-9
37
-19
31
29
-11
17
-31
-16
32
-16
-2
21
-10
8
1
-17
2
1
-3
-38
-5
-13
12
15
-31
-11
-14
34
-25
-26
13
-17
-2
-38
15
-14
-20
3
22
13
21
-26
10
44
3
-7
37
2
-25
23
-5
45
40
-3
9
29
-16
25
41
17
25
-23
-8
-40
-39
-35
-10
29
-13
5
2
7
-39
-5
20
23
51
28
20
-17
3
42
5
4
29
7
-9
-1
12
3
7
23
19
41
34
8
0
-14
-10
23
17
23
-29
-11
14
-13
-36
-5
-33
17
1
-9
-14
34
-16
36
14
-4
-6
-2
20
6
-9
-36
-11
-34
-3
18
-35
1
-12
14
0
1
-1
-14
-9
22
-40
23
-31
30
-49
-9
10
26
20
11
19
31
19
1
11
16
-13
-17
-1
5
5
-33
-17
-9
20
35
-6
-14
-1
20
-2
26
-25
42
26
9
4
-26
-10
24
8
17
11
-6
-2
-9
4
33
-21
-7
11
-4
-10
-23
-24
31
6
18
-1
-6
5
-18
4
-3
-19
4
40
11
7
59
10
-24
-2
28
-9
28
-16
-1
34
14
22
-10
23
-2
25
16
18
-1
-8
21
20
-22
-2
12
-11
28
-9
13
5
29
24
11
3
58
18
4
-22
41
15
-12
5
42
-30
7
-4
33
-35
28
-1
17
-4
-4
36
-12
49
55
18
32
0
16
-15
42
36
20
8
-4
-25
-2
-18
3
6
17
-5
-8
5
28
16
0
22
14
14
22
6
-25
12
11
19
-10
25
12
-12
35
12
12
-5
5
40
43
9
22
-3
15
39
9
3
2
-3
54
-14
7
-2
2
7
11
-15
35
60
-32
1
19
11
-15
30
-16
17
-29
-7
13
-1
-35
15
54
50
5
-10
-8
26
36
-16
-14
44
10
-41
-25
15
30
17
27
-16
32
-8
10
13
-29
8
41
-10
17
23
18
29
6
16
19
44
76
18
3
27
30
7
27
20
-31
22
8
35
-44
14
-23
10
42
14
11
30
-20
10
20
19
-21
19
-27
7
-19
22
10
14
2
-28
-13
-3
-2
-24
1
-33
-23
16
-1
2
-8
46
0
-6
12
46
13
25
6
-5
12
4
-24
-14
24
-22
-22
4
10
27
-7
-6
-25
-19
-48
10
-5
49
-20
-56
0
-22
19
9
-37
-25
10
-8
-17
-37
-7
10
0
-16
20
17
-1
-13
20
-1
5
7
0
14
24
-6
13
-4
-3
-15
6
10
-25
30
-17
-29
20
-18
52
44
26
-31
12
-18
14
-37
-14
19
25
8
-19
-37
-23
23
0
-17
37
6
-5
49
-3
-20
-3
-19
-5
25
1
-17
-15
-3
2
-15
-19
-30
-4
-54
-22
-13
7
-25
-12
15
-21
1
-25
-40
6
-7
31
-10
-7
-7
10
-13
5
56
-26
-10
34
-14
27
-11
-19
-41
31
-29
22
-25
-27
-4
6
-8
22
27
-42
-13
28
-43
-51
27
15
-9
-5
3
23
3
-3
-9
-17
3
-11
-11
21
-11
-7
-5
-15
7
17
-26
0
-6
34
-7
5
6
-9
5
12
-10
15
15
-24
20
2
6
-11
-18
4
-4
-15
22
33
45
22
-2
1
14
-24
14
-33
1
-24
20
9
-4
-22
-29
-11
20
-3
1
-26
42
33
-24
13
14
-11
9
-3
33
-35
24
3
-19
12
-4
7
-11
-11
14
-23
-15
-14
-27
-13
-12
-14
-39
-14
3
26
0
17
6
15
-22
29
-11
-26
-22
-22
0
17
18
2
-1
-5
14
-7
7
1
20
23
-2
2
-9
12
9
13
32
-25
27
13
-3
7
-21
6
6
-39
-15
27
2
0
40
-11
6
-26
10
7
8
-13
-47
-52
-14
-8
-5
-34
-38
-6
-36
-26
-1
-28
17
36
-19
14
-25
-3
36
20
-7
-43
6
-43
-13
-29
-20
-18
-3
-8
-22
30
35
-1
-25
8
19
-50
4
11
-17
-21
-4
-2
14
-32
-14
-1
-30
13
9
30
19
10
6
-17
-24
0
-4
35
48
41
-3
22
5
-33
-17
20
-7
9
-21
-23
-24
-6
19
-27
22
16
35
-23
-25
-3
-1
-32
4
3
-23
-42
12
29
12
-2
22
3
18
-13
34
-4
16
20
-22
40
-4
-14
8
-14
-17
-2
-14
57
19
-3
5
23
-21
9
1
18
35
-38
-12
-26
-2
-42
0
26
11
21
-12
-11
-34
16
-26
-26
29
24
21
-37
13
9
-28
1
27
14
8
8
7
-3
-2
-4
8
-4
43
-19
19
-2
-6
-22
13
54
-17
-23
-31
40
-8
26
17
-20
28
-2
-20
14
2
14
-22
24
-60
4
-10
-34
1
-11
-4
-16
-24
11
2
10
-4
6
25
12
-18
-15
-14
-11
-48
-14
-23
16
-15
-30
-16
21
-1
-22
-3
8
6
46
-25
16
-12
-17
2
34
10
-60
-21
0
-23
55
-16
29
1
28
24
11
-2
42
19
42
7
10
-27
-7
-11
26
6
-29
-19
-27
23
-10
-9
15
1
42
-27
-5
5
41
-11
-12
17
-26
-4
-18
2
55
8
18
14
-4
-9
37
33
-42
-10
1
18
27
-17
-31
-3
-3
1
3
25
28
9
11
3
-2
-14
12
-8
13
0
-4
3
8
-26
7
-7
17
15
-6
23
50
-8
-24
-8
42
0
5
38
38
-30
8
17
-18
16
15
-15
-4
26
-19
26
-4
5
-2
7
-4
8
-32
15
40
27
2
-3
8
-31
-43
-29
7
30
30
-11
-16
30
-5
3
19
4
-8
-11
14
5
-32
-10
-3
10
-16
-5
15
-18
12
3
13
-7
20
20
-5
-14
34
-6
28
-8
-8
-18
14
-2
25
11
16
2
3
-10
13
-10
11
72
-28
-2
28
1
-20
-27
3
1
-6
-10
5
-9
7
-9
21
22
-17
1
9
-3
16
-17
-20
11
-7
-33
-21
8
29
-26
19
-14
3
-7
24
12
-3
-14
18
-4
37
23
-11
12
-7
-34
17
4
-12
26
5
-18
-3
4
23
4
16
22
17
-8
20
16
-27
13
-28
14
-5
7
4
-28
33
48
-54
-8
34
2
-19
-12
25
-37
49
15
-11
6
5
18
-28
38
22
-4
28
20
13
-7
9
-12
11
12
-20
14
16
-13
2
-36
-15
45
-6
20
50
15
15
-36
-5
16
23
-8
44
-27
-3
8
15
-17
39
-10
-1
5
-1
13
-10
28
46
38
8
27
15
3
28
40
9
7
16
-48
-30
23
-2
-7
59
-16
3
-8
4
18
-5
4
14
50
19
-7
-4
-5
-22
5
-27
20
-19
21
24
6
-8
-18
31
-4
46
-10
-35
3
-11
-16
-24
-8
42
6
14
-11
33
-17
-3
-11
-14
9
-11
42
-22
-32
45
-27
-6
1
6
42
2
-12
5
-14
47
-1
24
11
-22
-5
-17
3
-10
-15
-39
-6
-18
-21
-46
1
-28
45
-1
-46
7
7
-4
29
-11
6
-8
-15
7
25
31
40
-9
13
1
17
56
30
-20
-37
43
7
-15
-25
2
17
-9
32
-6
-45
-22
0
-8
22
13
14
-4
9
2
-6
-12
-2
41
-2
3
41
-28
-39
15
4
-31
-10
-11
10
-41
19
-22
-16
-34
17
44
0
5
-12
-7
-30
11
3
-4
-11
11
4
-36
3
-8
-51
45
13
0
-54
42
16
16
14
-5
-4
15
13
-5
26
1
24
19
1
27
-13
19
1
-18
3
-38
7
41
-11
-32
-5
-16
27
21
26
14
15
-2
1
28
1
4
-11
1
24
-30
5
-28
9
-17
-21
9
0
-18
18
22
-3
-39
17
37
14
22
-21
-9
23
-35
3
11
11
16
41
-20
21
1
-27
-27
7
-18
21
-8
-23
5
13
6
-14
-14
19
10
26
10
20
-14
-3
17
-2
-43
3
2
8
57
2
-25
20
-40
10
18
-21
-9
-18
-41
-20
35
30
-10
8
-16
-33
3
-19
20
5
15
-14
33
11
-22
6
-3
20
38
3
28
-14
14
-24
8
-3
13
24
-26
-17
17
-13
-24
16
-24
-2
-24
-15
23
26
-18
23
-11
19
-33
47
-10
-3
62
19
-20
3
31
-6
-1
19
-6
6
29
22
12
-47
6
-21
11
10
-7
-9
17
-5
7
-36
-22
-26
-17
6
6
3
8
31
-4
-3
-3
-11
-48
0
-33
23
9
-21
-3
-25
-25
35
-9
-14
-29
-43
7
24
4
25
20
35
29
33
-5
12
29
14
-18
-13
-5
-13
-3
-18
-29
9
-8
0
2
-33
-16
-23
20
-6
33
23
11
-6
-5
9
19
-9
-2
-5
-9
13
-34
-43
23
-27
-1
-2
-17
14
1
38
2
-5
12
37
-12
10
17
2
49
-6
-70
30
11
53
-35
22
29
63
-4
-10
-42
-16
-36
-12
-22
0
-17
27
-7
23
-12
-1
13
18
4
-6
15
13
-16
-36
0
40
-32
-30
6
-5
-27
26
-4
27
-6
-4
17
14
9
27
29
-10
-26
12
12
-7
-3
-9
3
40
46
22
27
-1
6
16
-27
-20
41
-11
-6
-34
27
-5
-18
-13
21
-21
-32
-23
-11
-3
-24
-11
18
-34
31
26
-2
-13
18
18
10
-2
25
4
20
18
-38
27
11
-27
-5
36
1
-42
24
26
10
-21
-15
-22
21
-14
-23
37
4
13
8
-2
17
30
-19
-21
14
12
34
4
1
-25
-35
-60
-16
-29
-12
-5
-12
-11
3
36
-22
17
29
-4
-9
-28
38
-5
-1
15
13
5
-5
11
-15
-48
-32
24
-12
-1
16
12
-25
27
7
35
-21
-25
3
-6
-7
-8
-4
14
13
20
1
16
40
18
-6
-23
-14
22
4
-18
53
-15
8
38
24
1
4
-9
24
-21
15
29
-19
24
7
-15
25
61
-14
22
-9
38
-14
30
-21
-19
-13
24
14
5
-58
-9
55
17
16
-8
34
34
38
-1
3
3
-33
-54
38
17
7
-5
24
32
19
-25
-23
1
-7
12
-5
-7
31
28
-7
6
2
-29
-16
22
31
-20
-1
43
-7
19
22
-9
30
22
-30
-10
-3
-9
-33
22
-11
15
14
-13
0
15
-5
46
23
36
44
-31
26
-8
15
-58
-10
-6
29
35
9
16
14
13
2
-20
-18
-26
-1
-19
15
33
12
-45
-14
-6
10
20
-28
-10
21
44
-10
52
40
61
-26
-4
21
13
-28
12
43
1
-25
10
7
11
14
10
12
15
12
-22
3
24
58
40
17
-3
43
-1
-26
-8
5
11
2
-8
9
-4
-2
16
-21
0
4
-10
-2
-1
-25
-31
31
-35
5
30
2
-23
-39
45
14
13
-8
-48
27
11
11
9
4
29
-13
19
-43
35
-8
52
31
-21
1
11
-8
-15
-19
-5
31
10
-6
-7
11
22
-8
12
-8
33
10
10
-5
5
-9
7
17
-10
-20
-22
-3
39
8
-15
-8
23
0
24
45
5
-28
-11
53
22
28
-15
-12
41
-2
5
-14
-11
7
11
-20
-22
-17
10
-44
17
13
18
-14
16
32
-12
17
2
-34
-29
23
-17
-13
-17
20
-41
11
3
21
-21
1
-13
13
-2
-15
-6
-22
-38
-23
6
-35
2
6
2
-23
0
-1
-17
22
-30
21
-37
-3
-9
3
25
25
-12
22
8
-46
2
3
48
7
19
9
-18
-38
25
-7
-28
8
25
-37
20
-13
-34
49
11
17
-22
9
-23
4
3
26
15
40
33
-13
12
-50
-5
-23
-62
7
11
16
2
-21
9
-2
-29
29
52
10
-3
-18
-9
-13
-28
-14
1
-11
26
9
-6
-38
-43
-9
-41
-5
8
-2
-50
-10
-16
6
-1
-3
18
-22
26
-8
-31
-16
20
-26
-12
-18
-6
-6
1
3
-24
13
-5
21
31
20
26
9
-29
21
-18
-30
7
4
-6
32
15
20
12
25
31
21
60
1
33
-11
23
-30
-14
-6
14
-14
-9
7
41
5
-9
62
2
-17
-16
6
-33
-13
25
-10
-10
-46
34
40
-12
-29
-16
17
25
3
6
24
-18
-2
43
-34
-31
-11
-3
10
-15
20
-19
-1
34
-1
34
-5
-3
-7
40
30
12
16
36
-24
10
11
28
-17
24
-18
-19
-12
14
-3
-2
-5
-11
-5
6
-7
-28
13
-13
9
-25
-7
-18
-17
14
-32
6
9
25
13
20
33
12
-8
-27
6
-4
26
-16
41
5
-10
-22
-12
0
-22
-16
-32
-14
-8
37
-19
-27
-8
-31
35
19
-30
-34
10
25
3
13
10
33
-26
9
40
-5
2
28
43
14
14
-9
-6
10
1
25
-27
18
19
33
-5
12
9
14
-13
20
16
-18
12
18
14
-24
-8
6
5
-7
-8
-3
14
19
-34
-20
3
3
16
-5
16
13
14
30
1
-4
38
-42
8
16
40
-7
17
-8
-20
15
32
26
14
-18
-18
23
39
2
15
8
26
11
-23
-5
3
30
11
13
16
-6
6
9
31
49
39
7
40
-1
23
-29
8
-38
1
-22
1
-24
8
2
11
1
27
37
8
7
35
-18
-26
-21
-35
3
30
10
-15
-4
29
24
10
-4
20
-26
-1
-16
17
-8
-5
-8
-13
16
5
20
0
-12
49
-20
6
-22
-23
-8
-34
7
-6
-6
14
-8
-29
35
-36
3
-30
19
-11
12
-18
-13
-8
-27
11
15
4
1
-15
43
0
31
15
-19
13
-31
36
-11
31
9
13
6
36
-7
-44
-2
21
16
-1
21
4
-56
-29
28
-29
48
15
-20
-37
-15
14
-28
-18
-3
36
20
-9
52
-15
-18
-28
25
-26
22
-2
30
-1
3
7
7
15
-5
-8
6
20
-23
-4
-20
-38
-11
-11
10
50
3
-8
-24
-5
-11
-9
-3
5
7
-16
80
5
-11
-1
-32
-47
9
-2
45
-9
-24
5
28
39
19
27
-12
36
15
23
43
16
17
-20
24
17
5
-15
8
39
69
11
11
-13
9
2
12
-20
20
-30
14
37
18
-22
20
12
15
-9
-6
10
-16
26
7
17
-42
5
25
-8
33
11
13
-11
39
64
0
-7
-16
7
-16
-31
16
13
10
-11
-21
30
-42
11
25
-32
30
-15
-22
1
1
8
18
-4
24
32
16
-21
22
-13
-18
14
-12
7
-13
-19
-4
-21
-20
15
-17
58
-20
20
-35
-29
-7
-11
-39
-26
-3
5
13
20
-12
25
21
-12
6
71
27
-58
-24
36
-38
-26
-3
24
-1
3
-31
-31
-26
-13
-28
24
16
17
-33
-7
-6
-6
-5
-4
-28
12
-17
22
-8
-32
-1
17
20
-3
-41
-10
25
13
15
-10
-13
18
12
-4
-12
6
11
-14
-24
-6
-11
7
-22
18
3
-12
-34
14
18
3
-22
-41
-3
29
1
36
1
-17
43
1
16
49
2
-10
2
-19
-49
7
-22
19
6
17
7
-33
13
-13
5
-11
30
-15
-15
-38
-4
-9
11
-11
14
9
-5
15
23
16
0
13
1
-6
35
-5
5
12
-7
19
22
-6
-6
0
-22
30
22
-29
8
27
16
32
-3
-28
-2
-15
38
30
43
30
-14
10
31
4
-6
-20
-39
42
16
-22
-36
30
-19
-11
10
4
16
5
-13
-11
34
-12
12
13
19
26
-12
16
7
-1
2
0
7
13
-2
5
-11
-4
9
-13
-20
-14
31
18
-11
13
43
-6
-3
-9
8
44
10
6
19
-2
59
26
30
18
-29
-3
-21
20
-1
1
42
-31
0
19
-9
-23
-7
16
33
53
3
3
16
-10
23
18
15
31
13
-2
-28
13
-28
42
36
16
-40
13
0
-5
-18
29
-9
-5
14
-5
15
8
-36
-16
-11
-15
15
-42
8
-48
0
-26
7
21
0
37
25
-1
-15
14
7
-29
26
-12
17
3
50
-10
-20
21
-4
17
-6
11
-4
21
14
12
-23
30
38
2
-4
28
41
16
-31
3
-12
-7
19
15
-31
7
35
39
50
22
32
-4
14
38
-46
50
-15
-15
-22
18
56
9
-23
35
-1
34
-14
-6
-4
42
-18
-13
10
41
18
-7
0
7
-16
5
28
30
26
-5
-22
-11
15
9
-18
15
18
-32
-2
19
-24
-19
3
-26
8
-32
13
-12
22
0
22
26
-4
25
5
6
23
-6
-30
10
-1
5
0
-4
2
-30
14
8
-31
11
29
19
-19
7
-10
-29
-14
-4
32
-20
41
-30
13
39
8
-24
10
10
36
12
-18
26
45
0
-14
66
14
8
-33
15
24
14
44
-21
4
23
-4
18
28
7
33
-34
6
8
-12
-37
13
13
5
-17
19
-11
-16
-22
6
-18
-5
5
0
-6
-19
-4
-2
30
10
15
-27
-2
-1
-41
-19
-21
0
-43
-27
10
27
45
-14
-2
-30
-10
20
-5
-2
-34
55
-17
16
-7
-59
-28
19
-11
50
2
-24
19
22
10
12
-33
1
9
15
33
32
15
-36
-42
-19
15
-8
-58
16
43
8
21
32
-26
13
62
11
-2
6
-23
-24
6
-21
-1
7
3
-31
35
-16
5
14
-1
41
5
26
1
-18
-19
-21
27
-11
36
23
41
11
-7
-3
-30
-3
43
4
-15
31
8
53
7
-3
-19
-19
-9
-8
-11
49
8
26
-30
8
-3
-14
26
-32
22
-7
35
9
19
12
-4
61
44
-1
4
-27
43
11
17
24
31
5
-30
-4
-16
-5
13
44
-1
13
-33
-8
14
-1
1
0
-27
10
-21
-23
-35
3
-5
-24
21
19
-14
-42
16
0
10
35
23
37
-18
-18
-8
-3
-2
2
-22
20
14
-39
-1
1
18
-29
37
-18
21
-32
8
-16
9
22
36
8
31
-34
12
3
5
-4
-17
18
40
-59
-38
6
4
30
-23
6
-6
22
20
-16
20
34
-6
29
-28
6
12
77
4
16
1
13
-4
-12
-30
47
38
-8
-22
24
-1
-9
-2
-24
20
-17
12
47
29
-9
8
-21
17
18
1
-13
9
8
27
-8
-8
4
-30
38
22
26
21
8
12
-16
-20
35
-57
9
-5
5
6
5
-23
47
-51
19
-3
-19
-9
9
-34
47
3
33
13
-1
13
19
18
-28
-9
25
-5
-19
1
-1
18
-45
-5
23
-17
-9
-31
-31
17
20
7
21
15
-3
25
27
-5
-4
-24
-32
11
24
6
-14
3
26
-26
29
-17
-18
-19
13
-14
-48
-10
-11
26
-49
10
24
17
-13
21
5
7
15
-12
3
56
4
-47
-33
32
-28
-38
6
21
-9
15
-26
-38
-7
-8
-24
24
-18
-14
37
-19
13
5
5
26
-22
14
-11
3
3
-25
9
-16
-13
-25
-35
6
26
25
-4
9
1
-4
19
-1
13
10
-9
5
-3
-27
31
-19
-17
28
10
-34
-32
9
2
-23
-8
-37
1
3
11
28
-10
12
49
-22
-3
46
-11
-19
-31
-5
1
1
10
4
-23
15
44
-19
-37
-38
29
-3
18
-21
1
8
6
15
31
18
6
46
-8
8
-9
-5
0
2
-2
-9
30
-22
-43
3
9
15
-15
-3
-12
-6
11
-31
-22
-22
13
-1
-14
-17
32
-11
-1
2
-8
-2
-2
12
-14
16
8
29
20
-65
-30
7
-9
-40
-43
26
-27
-32
-32
-3
18
-36
23
11
3
-13
-1
-33
-4
66
-16
-18
-17
-4
-7
1
-18
-22
-26
-1
-7
-21
-12
-23
14
-31
29
38
5
14
-41
-12
-45
10
21
23
-19
-18
29
-3
48
30
-8
-21
-59
9
17
-29
41
55
-14
-41
-63
-42
-5
-6
-15
-30
29
0
-33
-4
32
-1
30
19
26
-15
3
-14
-18
-21
11
36
-11
-31
5
-6
30
5
5
40
19
-20
3
-20
29
12
10
-11
20
13
-4
-28
2
-11
-17
-52
-41
-25
4
26
-15
18
-17
16
-17
-36
17
-44
-18
7
24
5
16
-11
-46
23
-16
33
10
-20
-6
-27
9
14
3
9
-24
31
-33
-4
-27
-31
30
-27
0
13
-31
7
39
7
49
-44
1
-21
0
-18
-38
-60
-21
-22
11
-36
29
-19
-26
37
-1
29
-6
-36
10
39
-29
-39
-34
0
0
23
30
-5
10
-14
-8
5
13
-9
10
-27
0
30
-13
11
-25
-15
52
-5
-1
-1
-10
12
-8
-4
19
8
-17
5
-23
-5
4
-35
-8
25
29
20
6
-10
11
4
-1
22
-26
4
2
7
15
15
2
11
9
-2
6
-20
1
-10
22
-6
7
-5
1
-30
-28
2
0
-12
21
-9
22
-33
-6
2
-2
-48
9
54
9
-18
-12
-18
14
21
38
24
-53
21
-31
-42
-18
-18
27
-1
-2
34
-19
-34
-16
-9
-5
22
1
12
-32
-13
-16
10
-13
-7
1
17
-11
15
-2
14
31
-6
-38
2
-1
4
-18
16
-26
-9
-18
-30
15
3
-9
14
11
-40
11
-24
-38
26
-13
4
-12
-47
7
18
-17
3
-21
-3
11
-11
-58
-13
4
-3
-36
-18
-13
37
6
13
-27
-9
-19
-13
3
-57
-67
7
-2
3
-24
3
-6
-3
-4
11
45
-16
-5
18
-12
-11
-21
-12
-11
36
-11
32
2
-22
41
18
12
-21
8
0
-10
-8
-41
-56
-8
-5
-43
-26
19
3
-48
-23
-42
-11
-45
19
21
24
-5
9
-10
-20
13
-3
-24
-15
-1
-17
27
-19
3
-1
18
36
14
-20
-9
22
-1
-10
-9
9
8
-22
6
17
-59
-40
-10
-24
16
-29
-27
-23
-31
18
-20
-6
-22
-4
-59
22
11
-43
-51
-4
32
-37
-2
3
-14
-28
-45
19
38
30
22
4
13
-1
-2
2
11
43
-4
-55
25
2
26
-32
-23
-32
-43
-24
5
-11
-34
-17
9
19
-18
8
-8
-5
-37
-25
2
0
12
-20
2
13
13
-12
-34
12
13
-13
-5
-8
5
1
-8
9
14
-2
0
-22
-20
-17
-36
-22
-32
3
-10
-17
21
45
-19
-6
-29
-20
-24
-18
10
-26
10
33
-10
-25
-57
-40
-12
-27
15
-18
5
-1
-16
-11
-24
-28
-52
-13
-14
20
-49
-47
-10
-21
-22
26
14
-20
-17
-13
-23
10
-28
-3
-20
-24
13
9
16
17
-1
-23
-8
-3
-15
-33
-7
10
6
-68
-32
-16
-46
-11
17
-6
-21
-37
-28
-25
-49
-26
11
8
-12
16
-32
-36
24
-12
-10
-32
-35
3
-5
-10
-15
46
8
-29
17
-35
2
4
-20
36
6
10
1
1
-4
-15
-23
21
-22
11
33
-28
5
15
-7
-25
9
-7
-3
-13
-34
38
-23
-79
-11
-3
-35
2
11
-53
-11
18
-33
-44
-30
52
-11
-12
13
4
-9
-28
-11
-6
-42
-29
-7
30
-3
20
0
-51
-30
-2
27
-34
19
-14
-15
-9
19
-33
-4
-17
-12
-25
-13
-8
-13
10
-46
-12
15
14
-34
-24
5
-7
17
-6
-23
-12
-28
-2
-11
-29
1
-44
-7
11
-18
-6
15
-6
-14
-35
1
41
27
-21
25
15
12
-12
-3
-13
-47
3
-8
-32
14
-18
-4
14
23
0
21
-1
7
-64
41
-41
-42
15
0
-16
-11
-13
25
0
-5
1
-17
-22
2
-1
-43
-21
17
-23
1
-9
2
-10
24
4
-17
-62
20
-29
-14
49
11
-29
12
-16
11
-22
-1
9
-13
-15
20
36
12
-16
-26
43
18
23
16
-26
-12
-15
-51
9
23
0
15
12
-21
62
4
-28
-10
-1
-11
-19
-7
15
3
-28
49
2
35
47
-14
16
5
4
-30
1
11
-9
-27
-10
-33
-11
16
6
-7
49
16
-41
4
35
23
-7
0
39
-4
7
-15
55
11
4
-54
-8
-19
34
-4
-12
18
19
31
-23
54
33
32
2
-1
9
-40
5
7
20
-2
-10
22
7
-53
19
-13
-5
20
-21
11
-29
-6
-6
-20
41
2
36
5
30
-8
-14
-14
11
31
2
-8
-7
15
-31
-34
-7
-37
15
27
42
23
-37
25
-10
27
36
-27
-49
17
15
16
-6
-25
26
17
12
40
-5
10
-33
22
2
18
7
-22
-56
15
16
-24
-34
-21
31
56
18
22
-20
25
22
10
19
29
-9
-7
30
2
-14
18
-16
-15
24
-32
12
17
-33
43
18
22
10
22
-9
-28
8
-5
31
31
103
-25
1
-7
-21
15
37
-28
33
10
-31
-4
26
10
-6
-3
-4
-7
-38
-6
4
-7
4
-4
-16
-33
71
-20
7
-8
-25
-44
-12
-14
-3
4
15
11
-25
30
-7
-30
-18
10
-27
-36
3
-3
24
-12
-22
-5
9
-13
24
14
-15
-9
-20
-6
28
18
-36
-27
-17
9
22
-27
27
9
-14
-41
26
11
-18
25
19
33
-9
-20
28
-8
18
16
-19
-15
20
-8
-47
-8
18
13
18
15
-18
-13
-17
-17
-9
-15
11
6
6
21
12
28
11
-15
13
18
-9
-19
17
-3
25
3
5
-32
10
10
-5
-20
-22
-16
4
-7
14
-13
-8
33
8
-4
0
-17
-26
17
-5
44
19
-19
3
-27
34
31
28
11
-9
-31
2
8
-7
-7
9
17
-11
15
8
-6
5
36
-16
10
1
-23
6
-6
4
19
-3
-18
-3
5
-12
6
6
-11
-29
-40
22
18
15
-5
7
11
5
-12
-45
11
16
-27
24
4
72
20
10
21
47
-2
-51
-38
-3
-6
-5
-5
15
-15
18
21
4
25
23
17
-37
21
0
39
-36
31
13
-10
-28
9
40
29
11
0
5
16
-19
-18
1
8
4
3
-13
-11
22
8
26
9
-21
10
4
15
28
2
-6
-13
37
20
7
32
52
1
26
13
8
-19
7
6
2
-27
37
49
5
-57
30
-11
17
-20
15
25
-1
36
15
-31
16
3
0
7
40
50
30
34
-22
-5
22
19
-9
-7
30
4
-29
-7
6
29
13
9
-6
23
-18
31
-45
35
2
7
-35
-37
14
-13
8
19
22
9
10
-25
13
20
-2
-26
12
33
-6
-13
24
4
29
-32
-2
-39
43
10
9
-20
22
-19
-2
-25
39
0
0
0
-36
12
2
25
18
-39
-23
21
7
31
-10
13
24
10
4
-36
4
-13
4
28
-21
21
25
-1
27
13
36
-13
-18
7
-13
-18
53
-16
19
3
21
-7
13
-11
60
-23
-1
8
24
32
6
9
-12
-18
34
13
12
-7
26
-26
2
-5
-3
-1
-16
0
-13
-28
-29
44
0
-9
57
-15
-4
20
22
-3
20
-18
-8
-10
24
0
-10
10
-11
22
32
11
8
6
-11
6
-31
-2
-40
33
-6
-17
-33
10
17
36
23
-15
19
7
-20
17
23
30
34
-15
25
-33
-29
1
10
1
-9
11
-25
-3
4
20
-22
72
55
12
-3
0
34
-26
-1
33
5
10
-13
-15
-2
7
1
5
0
-9
0
27
7
17
-3
10
16
4
17
30
-23
23
6
-7
-35
16
-21
-23
44
8
18
-26
4
9
8
31
0
5
-11
65
25
8
25
-30
34
-15
-15
21
28
15
-15
-1
22
42
-24
-16
37
-8
22
22
-9
-7
-20
43
8
-12
-12
2
43
55
6
0
-8
32
-32
5
-25
35
-35
7
-7
27
-6
12
8
-4
20
29
-24
25
0
22
-13
-15
5
21
-20
10
12
14
3
53
75
9
15
21
-17
9
4
34
-26
-25
-28
-3
20
-4
3
-45
-2
23
28
17
13
6
17
-52
25
-12
-20
-14
3
15
6
17
-24
4
15
19
-4
-28
-10
-33
-10
17
-7
8
-3
8
5
18
10
-1
-14
24
-11
-12
26
15
-25
-60
-7
-45
-32
23
10
-15
-30
-32
7
-37
-21
38
-2
4
-4
0
-33
-11
-14
4
12
1
25
-30
-28
-23
-17
-37
-5
14
-45
-8
-1
-12
-9
-5
29
-5
-1
18
-12
28
23
-25
26
5
14
11
-2
-9
-28
11
-5
-17
25
-24
11
30
2
3
13
-12
-23
3
-5
-2
-14
-8
43
-2
5
-9
-3
8
-24
1
-4
-5
-69
-6
40
-6
-42
10
-23
-46
19
1
-5
-16
1
15
-17
-23
38
14
2
0
-23
9
-25
16
24
2
14
-21
-10
20
26
-23
4
12
4
-11
-10
-9
-38
6
-8
-3
-14
9
-43
-9
-2
12
11
2
-19
1
-24
14
-41
-28
16
-69
31
11
-10
-11
-9
-4
11
-31
2
15
11
-8
-28
7
-17
-31
15
35
-24
-23
28
-5
-3
22
-12
4
15
-4
10
-20
17
9
-3
-2
7
0
-7
18
-5
-64
-12
24
-11
-32
8
-24
35
-29
49
-7
-4
28
-26
35
-4
-12
28
12
-3
-23
-4
-26
-40
17
-56
-24
-5
16
-31
-5
-11
17
11
-27
-18
30
-22
13
6
-23
13
66
-20
19
16
15
-26
-6
25
-27
-8
5
-57
-22
-40
14
6
9
25
-19
-4
-11
-20
3
-34
-18
-17
-46
10
1
-25
21
-14
-20
-66
-56
21
-16
31
20
25
-17
8
-11
-9
14
-37
-2
35
-3
26
9
3
-2
21
9
23
-5
-1
-12
-12
-10
8
-4
-27
0
51
16
-12
33
24
-19
26
47
-10
1
-24
5
0
-18
-11
40
15
51
-2
-12
-44
-3
35
-33
-24
2
-17
-14
13
-21
-35
-54
-2
25
-17
2
-46
29
0
28
6
8
8
10
-56
8
-3
28
-24
-3
22
12
13
-1
35
6
14
24
9
48
-44
-6
31
-21
0
15
-4
26
7
-19
-17
20
-21
-10
18
1
16
-9
9
25
-35
19
-9
32
23
32
17
-5
7
-13
-3
-19
36
1
-1
0
31
25
-6
1
26
-17
-9
44
37
21
26
-32
3
-41
-11
22
-2
0
23
-8
9
-22
32
-33
-15
0
2
6
-42
-13
30
-16
-11
-18
-44
-5
5
27
-28
-13
11
-16
6
-22
25
1
-7
0
-52
10
31
-12
10
15
31
2
-13
2
23
-13
18
-13
38
-22
15
36
-12
31
5
-6
-21
2
43
0
44
23
15
15
-18
-19
13
16
1
-3
-11
-42
25
13
16
-18
-16
9
-24
3
38
13
18
18
-49
-28
27
4
6
-4
35
-27
2
-25
15
14
20
10
8
17
8
9
33
-15
15
-16
33
23
17
-9
19
19
36
-32
-83
22
25
-3
61
14
31
36
-16
35
31
41
-25
-30
-14
-11
21
-21
-8
-22
-17
-2
-4
0
-30
-3
-30
-11
-7
0
11
11
10
15
-19
-4
7
-5
-44
8
22
0
7
-19
-21
-1
-21
-10
33
-6
5
-20
-36
10
-40
-1
23
24
-12
-24
-32
8
6
11
-30
-2
15
-21
-22
-17
22
24
-44
5
-29
6
-31
6
-16
-23
-47
4
-37
15
4
-10
6
7
32
0
7
-51
4
5
-49
-13
0
6
-19
-15
-12
-70
6
18
-11
6
25
27
-3
15
10
-6
-9
-17
-33
2
-10
-20
-13
-20
-10
41
9
-39
-31
29
20
3
19
-17
-10
-30
-25
-30
34
-23
-72
-6
-60
-15
6
7
-29
-29
1
11
3
2
7
-24
2
-12
8
18
-24
-66
-1
-4
-15
31
-13
-20
18
18
14
32
7
-6
-5
14
-61
-27
-12
-10
9
-66
-36
10
18
4
3
42
7
2
23
-4
-6
16
-32
-2
2
-12
32
-25
-10
7
-33
13
-4
16
6
-12
-38
-17
-75
13
19
14
3
4
-38
-28
26
-13
-12
-14
2
5
5
2
-13
15
-8
-2
0
-8
-31
24
19
-39
11
3
20
20
16
-9
-40
-14
-26
29
-30
-18
-9
-24
19
-8
9
-3
0
3
-14
-20
-35
2
13
6
-43
18
-10
35
-9
-25
-9
-33
-24
-17
2
-4
-42
9
-12
-6
-23
9
-8
-38
-2
6
-9
21
-7
22
-2
-3
-7
-6
-16
21
6
22
20
-11
-15
-36
4
-21
-10
23
14
18
-7
-51
-9
16
-12
-2
-7
18
-6
24
5
-6
-8
-15
44
-36
-5
-17
4
8
-8
8
-25
14
0
30
-25
-32
-4
-10
9
-3
-21
29
6
-2
-39
-8
5
1
-22
19
30
11
-41
2
-20
-19
44
0
-29
8
10
-14
-25
-3
-17
-6
5
26
-10
-33
-19
1
4
-41
-11
7
-4
32
1
-2
3
-17
6
9
-13
36
-20
0
-12
16
7
20
1
29
-15
27
-17
17
-20
0
14
43
-6
15
-5
14
11
-33
-39
5
13
-6
-32
3
12
-27
-44
3
-3
25
-20
-31
-28
-21
-27
-14
-23
0
13
-6
-30
-8
21
-1
-17
-14
-24
-3
-15
3
11
-35
-6
1
-17
29
20
-13
13
30
-44
-9
-50
31
-8
25
-48
-18
-23
-25
-28
-6
-8
28
-41
-14
-20
-10
5
11
14
6
-13
-11
-27
-14
-11
27
2
39
25
42
-22
-4
-21
-22
-22
31
5
27
-32
4
4
-56
-5
6
-11
-5
10
20
14
-39
11
-12
-9
4
-12
-6
-18
-2
11
-24
-11
32
13
3
-12
20
3
24
-19
34
-30
-17
-18
4
14
-13
-18
-16
-20
0
25
-6
-10
-5
-14
23
-15
19
32
35
-22
3
-42
28
-22
-6
11
20
-3
-35
-1
-27
-6
40
-3
18
10
-3
14
11
-41
-48
-27
3
-26
-15
-41
22
-16
-25
-8
30
2
25
3
4
-13
9
-14
15
-27
-2
34
5
-57
-12
-30
-8
-19
-8
-5
16
-26
-12
-36
-20
-24
15
-16
13
26
2
7
-2
1
29
-4
-6
-12
-4
11
1
-12
12
-7
0
51
-4
8
32
7
-38
4
-36
-22
-28
12
4
16
-24
-20
-36
-4
-15
-21
-7
-40
-23
-25
-29
-22
28
0
5
18
20
-3
-1
27
4
-16
26
22
1
6
2
44
20
-8
-14
-9
16
-12
31
5
21
-26
20
-12
13
-30
0
-12
-17
18
-10
-10
-48
15
-6
25
35
36
-6
-33
0
8
9
16
44
-16
23
-13
2
30
-25
8
28
13
5
2
-16
-15
7
-3
-6
39
-17
-5
5
-2
-27
33
9
-33
-2
14
4
15
-36
24
2
7
-29
17
19
0
6
-48
25
3
-24
-19
-1
22
9
16
-20
22
19
-25
-17
-9
-26
7
15
24
-37
-20
6
-2
14
0
-18
28
14
-4
-27
17
-1
-13
-3
24
12
14
29
5
-7
23
9
-22
-5
30
-6
50
-15
34
-20
2
1
-18
14
-27
22
-19
-75
-18
9
10
-21
9
1
43
-12
-33
-35
9
-23
-15
-26
1
22
1
-14
-13
14
42
-7
-2
2
-9
3
-53
4
-21
13
-8
6
24
2
-44
-15
24
-22
-3
10
3
33
1
21
-7
11
-16
18
19
11
-15
6
13
-9
-12
-23
19
0
-4
9
-18
12
7
-17
18
-18
1
-3
-13
-46
-6
22
34
2
-13
-2
-26
13
4
-13
-24
9
0
-24
2
19
1
28
-22
-11
-35
7
12
-12
11
-1
1
-13
8
-10
-1
18
-32
-8
-1
-44
-32
-22
-31
21
1
-30
23
14
1
5
9
-12
-29
-16
19
23
-7
10
-27
-9
6
-14
21
-31
-14
-28
-31
69
23
15
3
-13
-24
-23
-20
-12
-48
-1
-18
-11
-1
-20
-40
-32
-31
0
34
-12
-4
17
7
-6
23
-23
-31
-44
33
-10
-2
-8
-5
-29
20
-3
-29
-1
24
-26
-23
-24
21
22
-15
17
5
-5
-18
-29
8
-15
-3
19
-3
-23
-25
-28
-37
-18
-33
2
56
-23
-21
-32
32
-18
39
-47
23
-10
4
53
7
9
-6
-8
18
-27
-19
35
-3
5
42
-26
-20
-25
-5
-19
1
-9
-16
10
-20
-8
24
26
34
11
17
-9
-7
-6
-13
28
-24
-31
-7
-24
-10
-18
16
-15
2
-5
44
0
33
22
21
6
27
-41
3
31
-20
-43
25
-9
-33
-24
21
2
-29
38
4
8
-2
32
37
19
21
43
-7
29
30
2
-15
24
-18
-43
28
6
18
25
41
24
-47
-2
-22
20
-35
0
-9
18
-9
20
3
25
22
24
-15
-22
-6
0
20
15
1
-11
-12
-9
-15
-47
-31
39
-6
-42
45
8
5
21
10
-9
19
-13
-11
-4
10
8
21
16
-21
-7
15
-29
-36
-42
-11
15
-9
14
-24
-7
18
3
10
-3
-36
5
36
7
-12
2
-11
-15
-43
12
8
36
37
-19
8
-30
20
6
7
-5
-1
-25
-9
-26
-16
-8
-5
46
25
10
-23
-24
-8
-15
19
10
52
41
16
-13
17
3
-8
-35
-17
13
-4
36
6
-6
-5
21
-22
5
-8
17
-3
22
-13
37
-34
-8
6
-29
6
12
-7
1
-14
-3
15
-29
-1
-18
-14
35
-40
-11
26
12
14
-32
-13
-3
24
1
25
-27
24
12
15
10
65
10
1
-5
-8
-3
4
-5
12
-22
-12
57
-2
-34
-3
-38
-11
-2
2
55
-9
73
18
12
-12
8
-2
24
5
34
26
-38
-3
-20
-11
-15
-21
24
-16
-3
11
-26
-3
3
22
23
-3
30
-25
-22
11
15
22
24
-16
1
-2
-51
9
6
11
4
17
-37
-12
28
-21
0
10
-6
-8
2
18
5
38
-23
-15
-17
26
33
1
-16
23
38
3
-10
-2
10
-2
-38
-35
2
-25
-4
7
8
-27
24
36
-4
4
-12
21
4
13
-23
-14
0
-53
-9
5
11
4
-4
34
-26
24
-9
1
-17
-8
-4
35
-8
8
2
5
-9
-14
8
20
-25
30
20
-20
-16
-34
29
14
9
18
34
-3
-26
21
31
8
4
3
0
-4
11
23
-11
-8
12
36
-5
50
6
-32
13
13
-20
14
10
5
-7
-9
19
-32
12
37
-34
43
0
-13
-31
18
43
12
4
-17
18
21
5
4
-10
-19
6
-6
-8
26
21
-32
-11
5
30
-11
7
44
4
-12
-16
-25
13
-11
-9
43
0
8
-7
16
1
4
54
-11
8
0
-23
18
14
-1
-25
-5
-1
10
-6
-22
2
-2
-17
-9
30
-8
3
-35
21
1
16
27
-14
-8
-24
-23
-8
-14
19
-4
-28
36
-2
1
-1
-3
-3
-31
23
-10
33
27
16
11
-25
11
-7
4
15
-16
-8
11
3
18
-6
-18
59
3
11
25
32
-17
7
10
4
0
23
-2
-3
10
-12
18
36
3
34
-6
12
23
-35
20
10
-54
-14
18
-8
14
-18
7
-1
30
20
-7
0
-17
26
-3
-22
-6
28
8
-6
-22
6
18
26
57
28
-7
-32
5
5
18
11
-44
-5
10
25
-16
-20
-10
11
-16
7
-3
-30
2
-9
18
-37
16
11
-43
5
25
34
-15
-18
-16
18
-27
4
5
-2
15
-25
11
28
23
-26
21
16
-14
0
-22
-10
5
-11
-38
14
-15
-27
14
-6
21
19
-30
21
1
-9
7
4
-32
-20
6
-18
31
25
12
32
-19
-10
10
-4
11
-20
12
-29
-21
3
11
-12
15
13
-15
4
-41
-12
-1
24
13
22
8
-6
16
17
-18
-14
8
-28
-9
-17
27
-12
-13
11
9
-12
2
-2
-9
9
8
28
-15
-8
-15
8
-17
3
0
19
30
16
-6
-9
-18
-5
-22
24
-30
4
-7
-13
-21
-11
5
-7
-45
-43
-4
6
3
33
7
21
-13
-5
24
-19
-7
9
26
6
-23
-29
0
-15
-11
-22
11
-11
-19
-22
23
25
22
-17
4
6
-15
2
2
32
-18
-9
-32
-13
-16
-5
-27
9
-4
-1
-6
25
-8
-37
-31
39
-31
-14
13
10
-41
26
-34
-13
20
-39
-16
-22
32
-32
37
-11
27
3
0
14
1
10
15
-18
3
-23
0
-10
14
-7
-40
6
30
-13
-13
-27
6
7
-22
15
-21
50
-2
12
12
35
-21
13
-32
28
-2
-2
-30
27
-28
22
6
-17
37
-45
-44
-3
49
5
13
13
16
11
-8
14
-26
-30
-20
11
0
-43
-16
14
-25
35
-14
-25
-22
-28
1
-31
30
26
-7
19
-19
1
21
-9
10
36
-15
-21
30
4
-15
3
4
9
4
7
-8
17
-20
18
19
-5
7
6
-31
-6
22
6
11
-12
-3
1
-33
-12
36
20
-12
81
13
26
-3
-17
-36
-30
11
-8
14
-12
24
2
36
31
-5
1
53
2
13
31
-3
-9
-14
-2
-22
-1
-59
39
21
-3
33
34
38
9
13
8
22
35
-11
24
32
22
-5
-28
-6
28
23
27
1
4
-8
30
-2
-36
13
30
-31
-11
5
-10
15
11
27
16
-30
-55
-26
4
42
15
-47
-37
2
45
-6
-8
-6
2
-21
2
-9
15
18
-19
30
-59
5
24
-50
-6
-17
0
-22
-10
30
6
9
-2
-2
-30
-10
-7
0
20
-13
-27
-3
34
10
-7
26
9
-3
22
-8
-1
26
-19
-5
-32
17
26
8
13
-2
-7
-3
-5
-9
18
-18
19
41
29
0
31
-5
-22
28
-14
5
-53
21
-22
-35
-5
-5
-20
-24
12
17
-22
-16
31
19
7
-11
26
2
10
14
-13
18
-26
24
11
17
26
4
-19
-3
19
-13
-6
5
25
9
11
27
22
-25
-27
-7
-9
15
3
14
-17
6
4
12
-42
-14
-25
-2
33
6
15
4
1
-35
-26
19
19
-27
-71
-8
-3
28
7
-16
-3
3
-4
68
-17
3
35
29
-5
-40
-44
7
-1
-5
-46
15
-16
-22
-24
35
17
-2
6
27
-1
-1
-32
-12
-20
12
-41
-22
-25
-10
0
-2
-5
5
31
7
-10
20
-37
-67
14
-9
-7
-6
12
-31
49
0
-43
2
-78
2
-12
-25
-20
-32
-3
-11
-1
26
16
-14
2
-12
-11
-1
2
17
-16
-2
-5
-19
-17
-34
3
-15
-19
3
-17
-10
-2
13
20
-15
1
-26
-67
-21
-30
-26
-23
-32
-5
2
28
-7
12
18
-20
-27
-18
-1
4
11
0
50
-20
-46
2
-35
5
-57
10
-59
21
-13
32
40
-30
25
-6
-21
-24
-6
-25
8
-22
-17
-11
2
-32
-53
2
-29
25
3
-12
-13
-15
-3
35
-12
12
-36
6
-14
29
10
-52
21
-14
13
-8
7
9
-25
-61
-11
16
33
-46
-26
-13
-30
-40
-26
2
-9
2
-16
-4
-7
-21
17
2
8
1
-2
-10
-53
-13
-13
18
33
-5
-7
-8
-26
-26
-15
33
-87
7
17
9
-36
-3
17
21
-42
-4
-36
-1
-19
0
-35
-25
-40
-22
3
2
-32
9
-18
27
5
22
-20
27
40
-14
21
7
-30
-1
15
-25
-17
23
6
-9
41
23
53
43
26
-5
-22
-23
40
-38
-1
-53
5
-28
-8
17
-9
-10
4
-30
-26
18
12
16
-7
23
13
28
8
1
27
-20
40
29
-5
5
-25
20
11
36
-1
-43
-4
29
-7
-25
35
-22
-5
-53
1
-20
1
2
-8
3
3
20
-23
38
32
-25
12
4
-10
-26
26
30
1
4
9
1
-38
-31
-4
-14
-9
-8
20
37
9
-13
2
-17
26
1
23
-34
-1
-15
-23
-39
-41
-11
7
8
-12
3
0
-19
37
-46
-48
13
1
15
-13
-6
-33
0
-24
66
7
-30
-21
-24
-28
-30
12
40
-8
19
23
-32
-16
-16
-35
-35
14
-33
6
21
37
-19
4
-22
3
-18
-3
13
-14
-9
40
24
-9
-4
-30
-27
2
-19
-35
-9
-39
0
33
-29
-26
6
15
2
-35
-32
6
15
18
12
16
-8
-31
6
14
4
-35
-12
11
33
23
4
-35
-20
16
-25
-21
12
-8
-20
-19
-1
-15
-16
-21
-53
6
21
-16
-33
-26
34
-14
13
-43
-17
5
37
14
6
11
-5
0
36
0
2
23
-6
27
-31
-9
0
2
20
14
-28
-1
23
20
-12
3
-18
-24
19
-11
15
30
-8
40
-17
-12
-4
2
-24
8
12
-21
-2
13
-23
12
-2
26
12
6
-2
1
-5
2
46
3
4
19
24
-17
17
18
-3
-4
14
-6
0
-32
32
26
-1
36
-31
-30
11
10
-1
-27
-5
18
13
6
23
-4
-37
-8
21
19
-22
27
7
-2
-24
20
8
15
1
17
-2
-10
-14
-15
0
-14
-8
26
28
-6
-4
-11
-23
43
0
7
9
3
-1
-16
-22
18
-42
-41
3
-2
7
37
-18
-11
-6
19
-4
-6
13
1
-7
-36
26
38
-28
2
9
6
-14
9
-7
-1
-17
18
-23
-28
-13
21
11
15
-27
17
-39
-10
-9
24
28
-33
-1
-26
14
29
-25
-12
-15
-7
18
-12
8
14
23
-4
-34
17
9
3
30
48
-11
-35
-5
-44
-25
-15
-4
-41
-2
-24
-5
5
-25
43
-26
8
-18
-24
-16
-2
8
27
-22
23
-21
19
6
34
-14
7
-10
-31
-12
-34
-16
2
-4
-22
5
-30
5
6
-26
26
-10
-1
-16
-45
-17
12
-44
1
8
-40
-14
-8
6
18
28
16
-17
32
-3
-13
16
9
-27
6
20
10
14
11
-25
-1
21
3
-7
1
-2
38
-42
-13
-7
20
12
-30
-26
1
10
-20
-12
-24
14
8
47
3
-3
14
-25
9
45
-14
2
-12
13
-21
-31
27
-3
-4
4
-14
-13
-3
-6
12
4
-38
0
12
-4
-25
-22
2
20
-24
-11
17
36
-3
39
24
31
-33
-10
-52
17
-4
13
0
-4
16
20
1
11
-15
0
-1
39
31
20
19
17
4
4
-24
-5
-7
-8
-35
17
-2
12
9
-33
3
-11
-1
-1
-10
-9
42
28
-3
0
-30
13
-9
20
-10
-28
2
10
38
16
7
8
-25
10
29
17
28
42
-3
-53
19
44
18
-21
-10
-33
10
41
-35
-44
19
35
3
-30
12
22
39
-1
-6
12
-3
7
11
6
13
7
10
-6
29
3
-29
8
38
4
27
7
21
-24
-6
-42
-37
16
-22
-6
50
24
21
13
8
-8
23
-38
32
11
10
18
33
23
3
29
8
-10
-32
35
-25
-14
27
-16
-26
46
12
-36
33
14
-29
3
-16
37
1
62
71
37
7
3
6
22
19
1
33
14
27
1
-9
5
-14
32
20
-4
-8
9
7
46
5
-17
-3
14
1
27
9
-10
-2
8
-29
-22
41
-30
16
1
0
15
8
-41
-33
-3
-28
-12
-7
-15
14
4
-24
-16
20
-25
-4
-24
5
34
18
-21
18
30
-16
3
12
37
-15
-12
-15
22
10
39
25
16
-15
-4
-23
45
20
-3
-14
24
21
25
25
18
26
7
28
0
-13
-9
40
-5
-7
-1
2
18
30
6
31
-12
12
21
-6
-4
51
-42
30
32
56
-52
-41
-19
-2
4
-1
23
-39
-22
-20
7
37
-1
-8
-24
5
1
-7
19
22
-6
46
-50
-3
-24
-16
-11
-5
13
1
7
4
-17
18
3
4
10
-19
25
-14
-52
-23
8
-10
5
13
-1
3
-18
11
4
11
12
-10
-16
-15
30
15
-18
20
-18
12
-5
31
-5
-2
18
4
-1
33
43
7
26
-21
-11
-23
3
7
-9
20
4
-6
17
-15
-3
13
-1
-13
-32
9
12
6
-8
-13
24
11
-13
-3
-20
-11
9
25
12
29
-35
-18
7
-6
0
-31
-49
-25
44
-18
28
-7
4
22
-6
-12
-10
8
0
-29
1
1
10
-12
-21
22
-23
-22
-11
35
8
16
12
13
-21
3
7
-28
3
-41
19
38
22
-1
0
23
3
19
-29
-3
0
-24
2
5
1
30
47
-8
-10
39
-30
21
0
-14
15
15
-14
-13
-8
12
-42
7
12
5
16
29
13
37
10
-8
-18
9
12
18
1
19
9
-44
23
-2
-9
-22
2
23
18
-30
-56
12
7
9
-1
21
8
-34
-8
4
-18
20
-2
-20
-59
13
-24
-71
0
-17
-1
-48
6
-16
-8
10
-3
-20
0
27
-56
27
31
33
4
3
-4
-58
1
15
7
9
-2
-14
-7
11
-6
10
-50
-2
11
-50
8
13
-28
40
-17
-19
-7
2
-21
0
-15
-15
21
-31
-20
-23
10
13
-9
-2
-83
-21
-12
6
0
-22
23
-14
-32
-5
-4
26
-11
29
17
9
20
-4
21
-25
19
-16
-32
-37
33
11
-45
-5
27
1
11
22
-38
14
-12
10
24
-16
16
-26
13
-30
-11
7
-1
47
-31
39
-50
20
6
-18
9
18
27
-2
-11
21
-15
-21
-3
-50
-36
1
2
25
32
17
1
10
0
47
6
-3
4
26
-4
-37
1
-3
-11
17
-23
-23
-6
-30
-33
30
12
14
-6
24
-18
-12
-32
12
43
-14
16
-13
-23
6
-4
5
31
-22
29
9
11
3
-28
-47
24
0
-11
9
7
-44
-1
39
47
-1
-7
16
14
-6
-30
35
12
-7
-6
-21
9
-25
8
-40
-26
34
-10
15
-1
-8
35
-36
-22
2
11
-13
17
8
5
-6
-30
-25
15
12
12
4
-18
-27
16
12
-22
31
6
-7
35
-18
58
-26
-77
20
-29
10
8
32
-5
31
0
19
20
-8
-11
-13
16
-8
15
5
-52
11
32
-11
26
25
-18
-32
0
34
-39
13
24
2
6
-16
31
25
4
-5
-4
-2
14
-14
26
7
13
2
20
12
21
2
-9
-6
22
43
-23
-5
-7
21
32
36
-2
-15
3
1
-32
-12
-10
24
1
-24
8
4
17
-10
-33
-15
-23
24
-9
-4
24
-7
-15
39
24
29
2
24
-34
24
-23
10
9
-13
2
0
-32
-3
-4
45
55
-7
33
-14
34
3
-35
-10
-9
-13
6
-11
38
-15
7
12
8
1
-25
7
47
23
-10
6
-1
28
9
-8
-20
12
-17
-1
12
76
-1
-14
1
-20
-27
8
31
-1
-49
-39
-47
20
-15
28
-31
-47
-9
-18
4
31
-14
4
8
32
11
-24
2
-20
-10
-15
1
0
22
11
27
7
-30
11
-17
2
-21
17
-1
36
-14
-65
28
22
-7
-22
36
-22
1
7
-39
-13
-41
2
5
-19
3
-5
-49
17
-3
1
-7
18
10
-11
19
26
51
-3
0
16
26
-7
-12
-22
-16
0
-6
-6
2
-14
4
-13
-24
-5
40
-16
-1
6
6
0
32
3
25
24
-12
-8
28
-4
-22
-6
-37
-11
21
-27
-42
7
-18
4
27
11
-36
6
6
-30
12
-12
22
15
11
33
37
8
-2
-11
-6
-36
-11
0
37
-41
-12
30
21
-31
20
-27
-25
-19
-8
0
31
4
-5
17
8
1
15
-16
39
-6
-8
-38
-13
-16
7
-10
10
-15
0
-40
3
5
-31
3
-9
-29
2
-20
-36
-4
17
-4
29
15
2
39
-2
-16
-1
-2
43
-3
30
5
7
5
-10
-6
-26
-17
14
29
-19
1
8
-27
3
27
-24
-15
0
6
4
-6
-8
-11
-13
-8
-21
14
6
41
-18
20
-14
-22
-43
-3
14
30
10
9
-5
-33
-8
15
-18
18
-4
-25
-31
-28
-10
1
-29
-4
14
-9
-18
20
22
19
-20
-26
-47
13
29
-5
1
-6
-11
14
-19
0
3
-30
-52
4
14
-10
9
11
29
15
28
0
-20
24
-7
-32
-13
36
-30
-61
-11
-19
0
22
16
15
-30
10
-14
2
25
-13
-14
21
24
-27
-7
-11
-3
12
-14
24
-6
2
1
-6
-16
-24
-35
23
-14
-17
-11
-25
-18
-19
-32
31
0
-12
24
20
36
-1
-36
-31
35
-39
28
12
-24
-18
-4
33
32
4
-1
-66
-16
25
20
-4
32
5
2
-16
14
2
2
-17
-17
13
-6
-10
-13
-17
0
-9
2
-25
-31
23
-11
-30
27
-2
-17
-13
-25
-14
3
9
7
0
12
19
-4
-13
5
13
-8
-2
25
40
-14
-13
13
-17
3
-11
5
-9
-13
6
4
-29
28
15
9
25
-21
20
9
-9
-31
-13
10
31
-5
11
-33
-14
28
34
-3
22
1
2
33
-6
11
29
-10
16
8
29
-1
-5
16
-6
35
-22
-12
-38
29
-32
4
-40
-8
19
-8
7
20
-14
26
-8
17
-37
-10
-4
-14
-2
39
7
7
-29
5
20
27
23
17
-1
1
-6
23
37
-15
-35
-12
3
-39
17
18
11
-27
23
-34
14
-13
19
-8
-17
1
-16
-34
-15
-40
-4
26
26
-22
-24
19
12
-2
-6
23
-8
-18
-7
16
-1
-3
16
22
21
-5
9
7
-28
-1
7
-4
-1
10
-3
-20
-28
-33
-13
1
29
-7
10
-2
-30
-29
-9
-15
-6
-46
-31
-14
1
-16
14
7
17
-43
2
34
-39
0
13
-6
26
36
12
13
5
-25
-19
44
-22
12
36
-20
-6
17
42
29
-2
-11
-20
23
-58
-33
20
-15
6
4
-10
46
15
7
8
4
6
-23
-19
-1
13
1
-19
-30
32
-8
23
38
32
14
4
18
-23
-7
5
18
15
-63
-30
17
4
27
-12
-16
-14
-16
-18
-10
26
-41
-20
1
-16
4
-13
-43
49
-13
-4
-35
-58
-30
18
9
4
6
0
-3
10
-10
-16
-14
-9
-21
-10
-7
-12
-29
-16
-47
6
-4
-7
-1
0
-13
12
-10
5
-14
-7
3
11
32
25
-78
6
-14
-4
-6
2
-18
1
0
-35
25
5
-14
-2
7
-22
-29
7
4
0
-31
2
-12
7
30
-28
12
-1
-13
-25
3
22
-15
12
-38
-48
34
-5
8
-8
14
-12
18
42
2
23
24
-16
-27
-14
-7
-29
-18
-17
-11
-16
-34
-27
-30
-2
0
-12
25
42
20
-31
-21
0
17
23
10
14
24
-10
-2
40
-8
-45
-28
-45
35
-13
8
-9
0
0
11
-11
-14
-40
-30
12
-26
17
29
-27
-15
1
-1
6
-40
17
23
-7
8
15
14
23
-19
33
45
-38
-15
13
-17
12
8
-20
9
-14
-15
-15
59
-36
28
41
-5
29
-20
42
4
-16
8
32
-19
36
-24
-19
-40
3
34
-7
-9
-15
7
33
-25
-3
-13
5
3
9
-13
2
-9
6
17
36
11
18
26
-18
9
-33
12
-9
19
-24
-39
-5
-9
-26
2
-3
11
-50
-26
-24
-11
29
62
-5
6
18
-8
5
-25
35
8
21
-56
31
-19
-43
-8
-6
12
2
11
-10
7
-19
10
22
32
10
3
-7
13
-24
-3
24
-37
-21
-13
33
42
7
-30
-15
22
2
-24
7
27
-4
-44
-5
-7
-6
7
9
6
27
1
-1
2
21
-17
2
1
8
-10
2
13
-37
7
-11
-35
29
-32
24
18
-11
-95
5
7
21
30
-22
9
38
-40
18
-16
-19
34
8
24
-55
-23
43
-3
34
-21
-11
-8
27
-5
-1
36
-24
0
49
-9
-3
-5
-15
7
38
-65
11
-19
-2
5
-32
3
-31
6
12
21
-9
3
-50
7
11
49
-25
18
-39
-6
43
16
-10
-42
8
2
-36
7
10
-43
-11
-35
-4
-3
-1
26
13
-28
26
-25
17
-18
-10
-20
22
24
8
-14
-5
35
8
28
7
-27
-13
23
-6
-31
34
5
-10
-31
-13
9
-13
-17
-1
21
31
24
16
37
13
23
9
2
-8
9
22
-5
43
16
8
-6
-35
6
5
31
1
-10
-6
14
5
55
21
18
10
-4
-4
-39
20
-12
17
12
-6
-34
-17
-10
12
2
1
-6
18
9
-33
-3
-11
10
3
13
-11
2
-19
16
-28
-8
-32
24
19
-46
16
7
18
-13
28
-21
-28
22
9
-14
-5
24
-1
-13
24
-33
-9
-25
28
-14
-12
1
10
1
11
56
-16
4
25
24
7
-6
6
-25
-19
4
5
-31
-14
20
26
30
-3
-3
12
25
22
7
18
24
-14
-41
6
20
-4
15
5
33
40
26
-14
-5
11
10
-27
0
15
-29
-41
-43
3
-20
-51
7
19
23
-20
18
2
35
24
58
-12
-2
16
8
31
49
10
13
14
18
30
-49
7
-1
41
-23
-29
-13
-12
-3
-13
-11
-25
26
-2
-14
1
-1
-37
-13
11
2
59
10
-7
-8
-27
-11
-7
22
25
24
-20
-27
-1
-27
-8
-37
-12
27
13
23
31
52
45
23
18
-9
3
35
22
11
35
-13
-30
11
38
-41
-32
22
6
-37
30
-32
-1
2
-15
6
-18
53
54
17
20
-11
21
-7
-3
-12
23
-6
25
14
-17
3
21
-19
-11
36
17
-12
10
-27
20
30
4
5
28
6
6
28
-10
7
-4
-12
0
-7
9
-30
24
24
-13
-78
11
6
14
18
-29
12
25
-43
-16
-24
28
-9
-35
1
1
-1
36
6
-28
-34
25
32
22
-12
10
13
9
-14
2
14
19
-8
7
-22
20
1
12
-55
18
12
25
-11
31
35
6
3
15
3
13
7
-30
-58
16
1
20
9
28
13
32
-26
-2
-50
35
3
34
-7
21
4
-43
-4
40
-1
4
-54
16
-25
-32
6
-11
-37
-46
18
14
2
-3
41
-9
-20
29
22
-9
-10
-9
-6
2
27
-10
22
17
19
9
12
6
-31
-16
6
22
-12
-15
-31
-35
-50
18
-11
11
-14
30
-23
36
13
6
-23
2
-15
4
-14
-26
-10
25
-30
2
-27
-30
-15
-4
-18
-6
32
19
-23
1
0
-30
42
10
-4
-18
32
13
-30
-2
5
12
10
-13
17
16
-4
-10
38
-1
13
0
-27
-13
5
0
18
4
10
-13
3
11
12
15
2
-20
3
-40
-56
14
6
-10
-23
-5
-26
-21
10
-5
-22
19
26
-14
22
-3
-23
-5
-18
-16
-7
-5
21
-32
1
19
19
-16
-34
-50
13
4
-1
-33
-6
-21
1
-11
-14
-11
31
41
31
-27
0
18
11
-19
-6
-7
10
-32
6
-9
6
3
-25
-23
-24
27
21
23
2
15
-6
-25
-1
10
-5
7
11
-6
12
-30
19
56
-39
18
0
8
-25
-48
-30
23
38
0
10
-12
-7
-20
-11
9
-14
8
21
-30
-20
5
11
27
-8
34
-8
13
7
25
2
-10
5
-2
-23
8
4
-20
15
-35
-4
-36
-12
0
-21
52
-4
22
1
34
-21
35
13
-2
23
13
17
15
-16
-4
-33
16
-10
-24
-15
-17
37
8
-10
-40
7
10
-15
7
18
22
-40
-37
25
11
59
43
6
-10
-6
27
-29
-18
-13
6
30
-19
34
-10
-12
-24
14
-32
-10
22
8
-15
35
8
-9
14
-21
-5
-4
-12
-14
-16
2
-42
-24
3
-9
46
0
-23
23
3
14
-8
-7
15
-1
10
46
19
1
-14
-2
-15
13
-23
0
3
29
31
-9
-8
11
18
26
-25
12
16
43
17
9
0
-2
3
-4
-21
-8
-10
31
16
4
28
-7
-14
-18
15
38
-11
15
53
26
9
-22
7
4
-9
-17
-21
-56
9
39
12
-28
-36
15
8
12
-9
-19
14
21
9
31
20
-30
-11
-22
9
-4
-24
-25
33
0
-20
-15
-6
-10
9
-7
18
21
2
4
-28
-32
15
-1
-63
-12
13
10
-12
-10
-6
11
6
7
19
-45
1
-14
31
27
10
-7
42
18
-34
2
8
16
-5
-13
-10
5
-46
-15
-11
-24
-14
-3
-45
14
-12
-12
-7
-19
-8
13
-30
3
2
-17
42
11
-2
15
-19
-36
-32
-38
-31
-17
-44
-26
-38
-8
16
1
-20
-1
-8
29
6
2
26
-20
-5
-4
-18
46
17
-19
-33
-21
-6
-15
-14
-46
-35
28
20
-9
-1
-26
-10
6
-20
42
-32
9
6
29
9
2
-25
-26
19
10
5
3
29
-4
7
22
-15
0
-23
-11
1
-16
-20
29
-43
-43
-15
-14
3
-7
13
47
1
11
25
0
-17
33
20
32
-13
-29
-30
-30
-3
7
-4
31
-14
-17
38
26
-2
-2
-17
19
-38
-8
-22
6
-32
-19
-29
-13
-29
-34
-14
5
10
21
-13
11
-28
-10
-60
1
15
2
36
26
0
-36
15
-24
-4
-29
-10
6
-41
31
22
0
-19
-25
-23
8
1
48
-17
11
22
39
-30
18
-7
-23
18
-17
-10
-1
31
-23
-11
13
0
-14
-28
3
-1
-12
-22
-11
18
-32
-5
-28
5
-12
-5
-14
-11
17
5
-27
-22
-9
-29
-25
-4
23
6
-13
-6
-15
-30
12
-12
-20
6
-6
-2
22
9
22
-14
62
-3
18
-28
72
-2
4
-5
-3
3
-5
-11
11
-4
-12
-4
8
-5
-4
29
-23
6
-5
-7
35
-27
5
-4
8
0
-12
38
24
-13
17
-28
-34
13
-31
10
-37
-2
-37
-6
13
-13
-6
12
-29
3
-5
26
-5
21
-9
19
-4
20
16
-6
11
11
33
2
-27
-22
-17
-35
-26
0
11
-6
25
38
10
6
-6
16
-10
-7
11
-6
-6
-40
-16
-17
11
-26
-7
-7
-3
-40
35
14
-11
5
-6
-10
31
-11
-40
19
-17
-10
20
7
7
1
-23
-46
-37
18
16
19
18
-15
-5
34
1
-11
15
-9
6
-7
6
24
-19
22
18
38
22
36
0
23
-47
3
22
-27
-10
30
9
-16
-9
-3
6
-35
-36
-3
30
3
14
-16
-10
-32
-6
-5
21
4
31
23
-12
43
4
5
15
-3
13
-23
22
-15
-36
-44
-6
-34
-11
13
-8
-45
2
-12
14
-8
-22
29
46
2
-10
36
23
3
-8
57
-56
-15
-16
25
12
-16
42
-30
-39
7
-44
-1
35
21
2
-17
-15
-31
-19
12
-20
-15
-19
-11
-35
-10
-9
-14
-10
-8
10
1
-11
42
-15
-19
-27
-46
18
-7
20
-8
5
-10
7
3
1
7
-8
-4
-19
-6
-5
5
13
2
-1
2
-18
-6
-3
-5
-35
-7
27
-26
-4
-4
17
14
-15
30
-11
-10
-11
6
5
-29
-53
3
-9
-29
-26
28
3
20
11
-32
-20
5
-8
-8
-34
-7
-15
6
11
-13
-8
19
15
-26
-13
21
7
-13
-17
24
-30
11
-24
-48
13
17
20
6
25
-22
16
34
-35
-2
-63
13
-49
-18
10
-11
-28
-11
-9
21
-25
22
-12
10
-22
-10
-22
7
3
-15
-15
-15
12
2
14
-24
-2
4
-46
-34
-3
-9
16
-29
15
-25
-32
19
-38
-14
-12
-18
-18
19
-2
-36
-12
-35
-31
11
-8
8
-24
-7
-6
7
0
12
9
-18
16
-29
24
-18
-18
-20
7
15
-3
21
2
-7
-34
-12
-4
39
1
-32
2
-12
-35
-7
-1
14
23
1
26
5
17
1
9
20
20
-51
4
20
13
-2
10
17
0
40
0
19
10
-15
-22
30
-6
-26
-11
-32
-17
-19
1
12
25
9
-24
23
27
-3
19
13
10
-43
-27
-1
-3
-46
4
-23
18
18
-4
-31
-14
-10
-21
-18
41
-35
-14
-15
-14
-10
-7
-12
-4
-19
0
25
-27
-29
-4
-28
-31
-51
-12
8
14
-55
-7
-19
-38
-17
16
14
6
2
-4
35
-10
-11
-9
-36
11
-32
2
-12
-45
33
-7
-2
8
-32
-32
-25
-4
-5
15
-36
-18
-20
25
1
-35
26
-24
18
19
10
-3
-38
-38
-7
-1
-15
-10
22
-36
-5
12
-7
-17
9
-24
27
-27
-10
-20
11
-40
-10
-11
11
2
30
-7
-29
26
11
-11
8
-15
8
5
4
12
8
19
-54
-21
10
8
-26
8
27
17
-11
11
18
2
17
-11
3
34
-19
6
8
-22
28
-2
-21
-28
-5
5
14
1
-19
-16
-8
20
-29
11
-3
-3
-13
-26
4
9
8
10
0
20
22
-63
-39
-14
-1
-4
-16
-21
-20
15
-15
-26
11
-20
-37
-12
-10
16
4
-22
-20
-36
-26
-9
-21
19
6
2
-5
-6
21
-2
-10
-3
17
-13
-7
-10
-7
-30
2
-10
16
-9
-12
1
31
5
4
-9
-11
14
-35
-9
-15
-29
11
-21
-31
20
-6
9
15
6
31
3
-22
-19
-15
-15
-33
8
-11
-5
-1
16
43
9
19
14
-2
-2
11
-21
4
-43
32
23
-12
-42
-15
28
6
-13
34
27
20
-25
20
21
12
7
4
26
22
-8
5
-10
-10
2
25
20
31
7
-17
-9
-18
15
-41
-19
35
4
26
-22
11
13
32
8
-17
45
51
2
-7
-22
-27
-4
-2
3
7
16
0
-7
-9
18
12
32
16
36
49
16
4
36
9
16
23
-20
4
25
-13
-3
-29
-18
-4
-3
-1
22
0
-37
-40
-16
5
9
-5
-6
-19
11
64
-12
8
-11
66
-3
-33
-9
18
-8
-29
9
-25
-9
2
-10
28
-13
25
10
-5
17
-1
-20
-6
8
-7
1
0
-4
16
4
-36
-17
-13
12
55
12
17
36
21
-17
22
-12
52
-16
-20
11
-6
8
33
-31
10
1
7
3
-5
3
3
23
1
14
48
5
29
4
-3
-17
21
-6
-18
25
37
9
28
21
33
15
7
6
-2
-7
-17
-3
64
12
-2
15
6
-13
-2
1
48
-5
-25
20
19
-27
-46
-21
6
26
-28
47
-2
-1
34
1
-27
12
53
8
19
-9
2
-2
6
4
7
5
-14
-15
3
20
3
-14
28
-47
19
-10
-59
-9
-22
36
-36
-19
43
10
38
-11
24
15
-6
-16
-6
-13
-6
-16
-34
-5
34
2
44
-2
-17
-3
41
-14
-14
-21
-26
-26
3
11
15
5
-74
-22
-23
1
2
18
-1
9
7
15
-28
2
1
-23
41
16
-3
-64
-12
-7
11
17
-18
46
-25
-18
15
-23
25
-28
23
3
5
-38
-28
22
-11
-11
-35
6
5
20
13
11
9
-30
-11
52
-19
-43
-30
0
23
-3
3
5
20
-44
-25
-10
3
14
-41
55
-8
8
17
-37
1
-48
0
8
25
10
-38
-34
19
8
11
-4
-28
-6
-21
12
-4
46
-11
9
8
-14
37
-16
5
-7
2
4
-33
-4
10
14
25
9
-15
-18
22
-28
24
-13
0
1
18
-56
31
31
-21
-10
13
-49
-28
-30
-22
0
18
1
-8
20
-53
-3
-2
-26
-40
-4
14
0
-24
2
5
-8
0
-18
-17
28
1
-15
-14
-1
-37
-7
-8
17
24
-17
9
-3
16
-21
-4
6
-24
-5
51
-20
41
3
-8
26
2
27
4
-15
11
12
14
26
-7
32
20
-16
32
7
5
36
9
7
-27
0
25
-15
15
44
-10
31
-10
8
-21
11
12
-33
-1
9
46
17
-27
4
-10
10
4
-7
-2
0
7
5
-7
31
-26
13
-17
-34
17
13
-10
-49
-3
-10
-12
-16
22
14
13
2
-34
-15
-1
-29
5
42
25
15
-14
-4
34
20
-2
-14
-25
2
18
12
-9
18
29
10
52
-33
10
5
1
-13
2
-7
-1
29
19
0
-2
-18
14
25
32
-13
11
-6
4
10
-15
-15
3
-37
-20
-14
-29
-20
4
-43
30
-6
1
7
8
-7
7
-35
-1
4
24
12
-30
9
-20
-7
-11
-13
-8
-3
27
-14
-4
1
25
-27
-13
21
-27
-18
15
4
26
-3
-4
21
35
-27
-6
-7
-12
-25
-13
-33
-21
-49
-3
-25
11
-7
-23
0
7
-13
-10
-56
12
-8
13
22
-19
-7
-4
1
-52
1
32
-4
2
23
-21
-24
-13
-7
1
-13
27
26
-6
12
-3
2
21
22
-19
-22
-2
9
-1
-31
5
27
-12
-20
-2
-30
19
13
-46
-38
28
1
7
-52
-30
6
-13
1
27
14
33
-48
39
-24
-37
-31
20
-9
-63
2
-30
8
14
12
-17
58
-10
-5
-32
17
-52
3
4
16
-9
0
-23
14
35
-20
-32
-12
29
-13
-19
20
13
11
10
3
35
-2
-5
-43
3
58
-52
11
-20
16
6
3
15
15
1
-1
5
-1
27
3
25
59
18
-1
57
-31
-35
7
-22
18
-25
-53
-6
-18
10
1
31
1
-10
22
14
19
-17
-2
33
-40
-49
-48
14
-16
10
22
-21
18
-5
-3
8
17
-34
5
-24
39
-21
-33
-3
7
16
-23
-28
-37
24
-8
-9
-6
18
-21
5
-1
-4
-12
-80
-1
-13
-50
-23
-27
26
19
-10
-22
-16
46
-17
-38
6
-28
20
16
6
15
27
-21
-23
-43
28
3
-53
-8
9
24
4
38
4
1
-11
17
16
-18
11
-46
-30
28
-6
2
40
19
-7
-32
-18
24
13
14
-11
11
16
1
10
-42
-9
-33
-12
24
-28
12
11
-5
0
-7
-31
26
20
6
12
18
-12
18
-4
-6
19
-18
-29
-24
-26
-19
0
-14
26
14
9
-36
-28
9
3
17
11
33
11
-18
-15
18
-1
-8
9
9
22
-29
5
9
33
-21
-12
-21
23
-16
-2
-10
20
22
-20
1
-35
-11
-6
31
14
5
17
-6
3
-19
14
16
-18
32
44
16
-7
26
-17
-10
-23
-2
-9
-45
3
-5
8
14
17
21
-11
-22
22
-31
-44
0
-2
-6
-29
-36
18
-8
-26
6
9
-27
-24
-11
30
24
-8
10
12
9
-23
-42
-16
-21
14
23
8
21
2
31
3
-23
-7
0
-5
20
5
-25
-37
-21
10
22
-20
8
30
0
-6
-5
15
-14
13
-35
-19
13
-28
-29
5
2
19
-3
-2
-17
-38
-14
-34
13
13
-16
-32
29
-34
-8
-25
-5
-16
-20
4
-31
11
-6
8
8
-19
24
-45
-36
6
-7
18
-19
-29
21
-12
-1
-23
-21
-23
-26
-4
4
13
24
14
-25
-19
13
-21
-13
-6
-5
22
28
-19
-21
3
45
-22
3
18
-34
7
-22
19
5
29
54
-20
-45
-24
-5
-21
17
-2
19
28
-13
15
26
-10
17
4
16
-20
-23
4
-5
-1
5
34
14
10
6
45
14
-4
25
6
-16
-45
-42
-36
0
-14
-8
-19
20
1
-25
14
23
-44
41
17
42
3
-9
-34
22
-34
16
-24
-13
38
34
-25
13
2
24
6
36
-17
10
1
6
-23
-14
-20
-46
-21
-19
-17
-1
-19
23
6
-5
25
17
33
-19
-44
-41
-42
2
-37
9
-12
4
-2
-41
17
5
-2
-31
2
-16
-3
-13
-19
22
2
25
7
-11
-34
22
42
-15
-13
-20
-16
-34
3
33
4
-21
25
17
-26
-26
-17
50
-8
-18
0
28
6
26
16
-17
-28
-13
-47
-27
17
-24
9
-12
-12
1
-7
-11
-6
-14
-36
-19
-40
-30
-1
-40
-29
-31
-14
2
1
-5
4
-16
-20
-34
-49
18
-26
-24
-11
-17
-21
-27
-7
15
13
-53
8
25
-25
-32
8
-24
40
10
38
-62
-17
-15
-8
-3
4
-7
-62
0
7
-2
13
53
40
-33
-34
-43
-16
8
-23
-16
-1
-27
-16
15
-5
-8
8
-9
-5
-3
13
-5
46
-13
-22
-12
-24
-21
-12
-1
-53
17
-15
-9
29
-17
-11
5
-13
2
-2
6
-55
-6
-21
-22
-19
-9
-7
-11
5
11
40
9
-60
-21
-35
2
-15
-3
0
30
18
14
20
-3
-26
-29
-14
-3
-23
-30
-45
-4
-2
5
4
-8
-23
-25
-6
-3
-33
9
-40
-6
20
22
-11
-2
32
-1
19
40
-19
-1
-24
-14
11
20
12
-30
50
-3
9
-21
-44
-25
20
34
21
-3
0
25
20
-18
44
22
15
16
-2
37
-20
-2
-6
23
36
20
20
-11
11
49
-22
-18
-14
-23
-28
2
17
3
-11
-37
-13
-20
0
-20
21
15
-6
-20
47
-40
29
-7
30
19
8
7
-25
-61
-33
-28
64
0
-12
-18
9
-8
-2
4
-42
5
32
-5
18
22
-52
-12
5
60
21
11
21
-37
14
-27
14
0
-51
12
21
-10
-50
25
12
8
3
-5
-22
31
69
8
-5
-6
4
-21
-5
27
0
8
26
10
21
-35
30
-11
4
19
12
21
26
-12
-1
31
3
-11
-9
-4
-9
16
30
5
-7
12
14
-18
6
39
10
27
-23
-16
10
42
54
16
-37
-13
21
13
-5
-9
-6
11
-3
1
-4
-56
34
24
-6
-21
24
56
2
12
-9
28
16
-22
1
5
-30
-35
-20
-31
-1
-20
-13
27
-17
-5
14
30
-3
2
29
-28
21
-30
24
-4
25
5
-6
31
31
-24
4
-13
27
19
26
-27
3
-8
-24
23
0
-8
-22
-7
26
-27
-9
46
-7
2
48
10
-26
-3
11
-35
44
-10
-4
40
28
25
30
44
6
-2
19
22
5
-20
-21
16
24
-26
-8
18
37
-16
7
-7
0
37
41
29
8
39
0
21
7
4
22
-2
-36
-27
18
25
-31
-17
12
2
-5
39
4
0
-23
45
32
20
-14
29
-26
-17
12
-6
15
27
17
-34
0
-11
16
-15
49
3
-50
27
-21
-5
-29
-15
-23
-20
-14
19
-4
26
-28
9
-26
-8
19
-24
15
-26
26
1
22
-7
-18
2
-42
15
18
-9
-11
-22
25
7
-5
-18
-10
-17
-26
-8
-11
-5
10
54
-33
-11
3
-22
-36
-47
-15
-5
-10
25
23
-31
11
20
36
27
-22
-4
-2
5
-19
19
-31
-25
14
-21
-16
25
12
-3
36
-14
12
25
-18
-12
42
9
-53
-42
31
15
-21
-2
-2
14
5
-18
15
-27
35
7
-38
-32
40
1
-9
-29
-17
19
6
-13
23
-15
-28
-4
-19
-12
20
4
-28
-21
47
6
-18
9
-16
13
-25
10
-4
26
-6
0
10
20
7
-6
19
30
29
19
0
-7
-26
16
13
10
28
22
-14
11
-33
19
-17
-62
-36
-4
-8
11
-17
-44
-28
-18
-2
-34
-19
1
-16
-48
5
21
-32
0
38
-7
-23
-32
-24
-73
17
2
17
-6
-13
-9
-29
-21
-14
-53
17
5
15
-35
-19
-23
-16
21
-30
-12
-27
-35
-16
5
-7
-33
1
16
11
5
-30
-22
23
11
27
2
-6
20
-37
28
-22
38
9
12
32
19
18
-16
1
-5
7
27
-10
-2
-9
14
9
8
-8
-9
-29
-5
-12
12
-16
3
26
17
1
-2
30
19
15
11
-6
3
-27
-46
-21
-4
19
19
12
30
-10
10
-14
-22
-15
-8
18
-24
-17
40
-29
22
-17
-9
-17
-7
-42
0
7
12
-12
3
-30
3
-30
4
-59
47
24
-12
-42
28
55
1
10
51
17
27
8
25
14
7
1
38
6
-26
-17
31
-20
-10
10
15
-15
-21
-13
8
-2
-1
-21
4
-1
19
35
8
5
11
-16
19
21
-8
-22
13
-33
31
-31
-12
-40
31
-3
-10
0
-19
-13
11
-17
7
15
60
-31
-7
41
10
-2
-6
12
28
4
-69
33
39
30
25
1
16
39
-8
-12
-12
11
-24
-12
-6
-29
-15
7
-32
22
-2
16
16
39
-19
12
-51
-5
6
4
29
21
-39
-23
-8
-5
-13
-4
48
-2
-3
10
-8
22
26
31
27
-25
9
-14
6
-18
33
11
15
-3
24
-4
62
-14
-8
12
-9
-23
16
-46
24
23
23
-27
7
3
4
22
-8
-14
-12
-16
2
-8
-1
-2
40
24
-37
7
-1
-8
17
-15
26
-42
-4
-4
28
34
-3
-8
-2
23
5
24
15
-18
21
2
25
-1
21
-36
9
10
22
59
-1
-11
-16
-29
-4
27
49
69
-32
-3
34
-6
-21
-8
-1
-2
45
19
-23
32
8
7
1
-17
-17
-8
-19
-30
2
3
-26
-14
21
-9
-6
11
-23
-13
16
-7
-4
19
-30
-19
20
-15
9
-27
-20
24
15
16
0
7
-18
0
-14
-10
7
16
-26
-6
46
-13
-4
14
25
29
0
-8
6
20
10
-8
-15
-17
-8
-14
9
-7
-37
17
19
-2
-26
18
12
-16
-7
-7
-6
-4
-1
-17
-16
33
17
21
-6
-21
9
11
7
8
8
12
19
-3
5
9
18
1
-7
-18
5
14
-11
-8
49
-28
-10
-24
-10
-9
16
-7
-14
-17
-12
19
-22
-7
-7
9
-8
-17
-1
10
4
31
-19
9
-15
32
-16
4
7
28
0
-5
5
-5
-28
1
35
-1
19
-11
0
-21
46
-4
-36
-9
23
1
25
5
26
1
16
19
6
13
-2
0
-19
-14
-3
-15
-5
-4
29
-2
-14
-38
17
8
-5
24
1
13
-8
-14
-26
-3
-9
31
11
0
34
-17
5
30
-14
3
-10
-34
15
32
12
-14
3
-16
-8
-6
1
41
15
17
24
4
0
-27
-10
-5
-7
20
-5
20
-1
-16
3
-17
16
30
-2
-8
31
19
-1
-56
28
8
35
-1
32
4
21
21
-27
25
9
-11
-21
-5
-12
16
-14
5
-3
16
-11
28
-28
-8
28
-19
3
50
42
35
17
40
13
-7
-11
-35
-8
11
40
-22
-20
22
-12
0
7
-16
6
-18
1
-15
6
14
24
41
15
-9
14
31
11
-21
-21
16
-51
-10
-12
0
-11
32
1
29
25
25
6
-2
28
-30
39
5
-11
-5
9
-4
-17
-56
24
-31
14
7
-14
7
11
7
-12
30
-9
-3
1
2
6
3
-31
-30
17
21
-15
22
0
-7
-15
-14
-3
10
8
-13
-18
25
-26
-1
-30
4
-21
-28
44
55
16
5
24
17
-12
-18
-4
-34
4
-10
0
36
7
-35
-5
16
-15
5
-31
27
-8
20
6
-10
4
15
9
1
-24
1
-17
-23
-10
-1
13
37
10
-7
9
-16
-19
-5
52
24
25
-3
18
2
-23
-23
9
-29
6
14
8
2
3
-2
-12
-35
-15
-37
-9
13
1
-7
-7
11
-30
-7
7
30
31
16
19
22
-9
-4
-28
9
20
-10
-29
-7
-41
-14
-8
-4
-17
23
-10
-7
-14
-25
-5
-29
-34
-22
6
-9
-29
51
11
9
-20
24
-48
-7
-10
31
-27
-3
11
-1
-14
-14
-37
37
-15
28
-16
-15
2
14
-17
-24
4
19
-16
16
-5
-8
4
15
16
-2
9
12
-18
43
-29
17
-3
15
3
24
12
-15
13
-23
-15
-18
-49
23
-8
-38
-5
1
21
19
-16
9
-36
-8
10
30
8
-17
-3
-8
19
-12
3
-33
-12
-13
-5
17
-12
6
7
32
28
-15
-31
-24
28
34
-27
5
-27
18
-1
4
25
-16
-15
50
-25
1
17
-3
-25
19
-10
-33
-12
0
10
33
18
14
3
7
8
8
1
-43
36
39
-32
4
18
-36
12
30
-1
2
22
-3
11
0
23
10
-19
-36
-15
12
7
5
-26
-5
-18
10
0
-26
22
-10
6
14
-2
18
-24
-39
26
7
-18
-18
16
4
-2
9
-2
3
-40
-13
-4
5
-27
7
-2
39
41
29
12
25
-32
29
-30
30
19
28
12
21
-8
34
7
-28
-28
-13
-13
-16
-9
-24
-26
35
49
-13
-6
24
-10
-13
-24
-11
18
-4
9
31
23
-16
26
-14
8
-11
-18
11
-13
17
-3
-12
10
-4
56
-10
25
7
-16
-19
36
34
-15
-6
-17
-1
-8
4
21
-13
-28
-22
-18
19
25
38
-52
32
-3
-6
-3
17
-6
11
0
18
27
3
9
-6
11
13
31
2
-42
11
24
24
-2
-8
-18
-23
18
-26
-21
1
6
47
51
9
29
39
28
30
-32
-46
-17
-36
-31
-23
-4
21
15
23
-16
61
8
-15
-1
-21
19
-1
18
16
2
-4
13
-4
6
8
9
4
49
-28
-26
-1
-13
-7
29
-19
4
4
12
17
4
16
13
-23
14
-5
-34
16
-3
-18
-9
-18
-5
10
0
-1
-15
-14
-7
-4
-3
14
3
13
7
0
-52
-11
1
37
13
53
22
-63
-25
-14
15
-58
15
-42
22
-38
0
11
9
-15
18
11
56
-16
10
19
-4
31
9
-19
10
9
-11
-35
34
-30
-4
-7
-23
13
-26
-12
-31
-30
-36
-18
10
-9
-22
-5
-9
2
6
-9
21
17
-14
40
-21
-9
-5
-53
-17
-2
-7
-27
18
-7
-6
-19
-19
42
7
5
-42
-12
41
-4
58
-24
14
3
24
-27
-36
46
-19
18
42
-8
0
-6
30
-22
-23
-40
18
8
-13
-9
-32
-18
34
-10
-33
-17
6
7
-14
11
-2
-7
-8
-21
-7
-11
-9
15
14
-11
-43
-13
-20
-19
-4
-38
32
-32
-10
13
-14
8
-6
3
26
-9
55
-9
44
-1
17
-13
2
-11
4
8
2
-1
20
11
50
3
16
7
19
15
21
5
17
58
51
-24
-26
-13
23
-10
-13
18
-42
10
21
-5
2
30
20
11
-25
31
-1
-41
-27
-2
21
15
-30
30
7
-14
-6
-6
-13
9
-32
15
18
-19
21
-35
33
33
16
20
9
-14
31
-14
25
20
7
5
4
-21
24
3
20
0
-17
-5
26
-12
-47
22
27
5
27
-22
36
-3
-6
-10
11
2
-26
6
-11
-15
-17
-1
-43
-5
21
15
15
5
-54
28
-3
-4
-12
-12
41
-29
-24
38
13
5
-25
35
-5
24
0
12
-6
-24
-26
18
4
-1
35
13
-20
-37
2
0
-4
37
19
6
37
37
-30
31
4
-43
1
22
-1
-35
11
-2
23
16
-37
-3
-18
15
-31
-9
0
25
25
-5
11
-6
-25
4
-14
-4
6
5
21
27
30
39
-11
23
-2
40
-14
4
-21
7
-23
-3
-29
5
4
-2
-22
8
26
13
-13
-17
-25
6
21
27
-9
-17
-14
-25
-11
-23
-27
-6
-20
11
38
-44
8
28
15
53
13
-14
-38
-3
35
14
8
-12
-17
-39
-57
8
28
-23
-37
-13
-27
-21
29
7
9
-1
24
-15
-18
16
5
3
-9
-18
3
-1
-14
10
-8
-2
-23
-10
0
2
-2
-19
13
-47
-3
-11
1
0
11
-19
22
12
49
14
-37
32
-3
30
8
17
24
-2
-16
-22
-5
15
6
1
5
33
10
-23
-44
36
-15
2
0
-29
4
17
-5
26
22
-2
3
26
-34
3
-40
5
9
-39
-3
-19
6
-17
4
21
-29
1
1
-31
-4
-17
9
33
6
42
33
-19
7
-62
-3
-33
-3
18
-4
32
25
17
7
33
-14
-7
-19
-13
33
-23
35
19
-3
1
-2
-16
3
-11
2
-11
11
7
-29
27
-21
-33
45
41
-54
-37
-23
-30
20
5
32
-47
30
36
19
-9
8
-23
-30
5
-21
12
-24
16
55
27
-1
-12
35
11
-9
10
12
30
7
-38
-6
20
-14
10
20
29
-29
21
33
27
5
-1
-39
-6
-32
0
29
8
5
-24
23
-17
29
20
-13
-20
15
11
35
-12
7
7
42
-1
-14
23
-1
25
17
-1
-29
-15
11
-11
47
-7
-22
-4
-10
-14
1
17
17
8
1
41
-27
53
11
21
-13
-8
-10
-7
-14
-4
-34
51
8
-28
16
-2
2
-20
-30
11
19
16
-14
4
-21
-34
27
-25
21
27
26
10
33
36
38
6
14
14
25
3
-8
-31
-40
-23
18
-23
2
19
-29
8
-19
16
19
36
26
-23
17
-5
-22
31
1
20
-6
-10
-18
-23
-21
-2
5
29
7
32
-11
25
-11
-3
-36
3
-38
-36
-19
36
10
34
-26
12
-20
22
2
-7
0
23
10
13
-3
-1
-31
15
-7
-24
0
-2
-21
12
27
22
-15
41
-3
-1
-35
-2
13
1
8
-25
3
0
-20
-14
-4
-33
23
31
-43
-5
-20
10
-31
-9
-6
12
29
-11
4
65
37
-25
3
1
-38
-3
-20
-10
-20
-2
-2
2
-27
-15
-17
-46
21
31
-32
41
-18
-15
18
-26
-5
25
-14
-4
-17
-10
10
2
19
11
2
15
-13
16
1
-9
2
15
26
-37
-11
-4
-12
26
-34
21
6
-30
-4
21
25
-7
0
-15
-14
-18
-10
-2
32
4
13
21
-27
-26
-47
41
-41
-14
29
-3
-14
62
19
25
22
-27
14
8
9
-5
12
-5
3
-17
-9
26
-33
-1
-5
0
-12
-36
29
25
-17
-31
5
4
-15
-10
-8
13
-18
4
-9
10
1
-4
0
-11
33
-38
-29
5
-1
-10
-8
9
45
20
-7
-31
17
-20
25
30
12
21
8
8
5
30
-9
-26
2
25
17
0
8
-7
-19
23
-15
-18
-47
-22
15
9
13
25
33
-4
-22
50
-19
-42
-6
-8
-17
-2
-34
17
14
-4
-14
4
-31
-25
49
9
28
-12
5
13
-33
29
-38
-7
-19
12
-26
-17
3
63
-13
6
-14
21
2
1
15
59
15
-72
67
-11
28
43
-5
6
13
-4
35
46
14
-35
-23
-32
35
10
16
30
-42
-24
16
-27
4
-16
3
8
-2
-9
41
20
-18
5
-11
-23
28
13
2
-4
8
-7
32
11
37
-30
39
-1
-27
-19
-19
-35
-18
-10
-13
-2
-2
4
20
26
-27
36
26
-21
19
12
21
3
25
-14
6
-26
-45
-32
-22
-15
-5
24
-22
15
22
21
50
3
-21
-29
-9
0
-2
-9
7
30
-53
10
18
-2
-30
5
-20
11
-24
-17
-23
6
-22
-11
17
-24
30
-26
-21
35
23
27
13
30
34
-20
-24
3
-11
33
-26
-20
-7
-46
-12
-3
-23
-25
23
-29
28
42
15
-5
-24
16
-1
5
11
-20
4
31
39
-11
2
-6
5
-18
7
-32
0
-20
1
28
-26
14
36
61
-29
-31
-19
16
12
18
24
35
-33
-39
11
-17
0
9
-1
-6
47
14
24
33
-1
-45
-20
-3
-23
17
0
-10
-8
-12
18
-14
-16
46
-32
-32
-11
-13
30
11
-37
8
16
29
20
-32
-14
-25
13
12
2
10
12
-52
-13
5
23
-43
-22
2
10
17
-33
-2
30
6
-8
6
-7
24
1
43
25
-41
20
-31
2
12
-24
-23
3
-24
19
11
-3
5
19
-4
14
-3
21
35
3
-31
-35
52
12
7
-6
-11
-20
-13
-7
-13
23
8
-10
-7
4
-6
-28
10
7
-45
25
23
-46
25
15
18
12
37
-16
0
12
0
20
-19
44
14
8
11
-19
17
22
-19
-37
20
-12
8
31
18
-2
2
28
26
10
-19
6
19
-13
-10
-35
-12
-14
6
-4
-1
-4
-27
-10
-13
7
0
-10
20
21
3
20
18
-5
6
-7
-9
7
-14
-21
28
8
-10
10
-23
-47
11
25
-1
-9
6
12
-4
-1
-15
25
-11
18
-22
15
-20
24
-2
27
20
16
-25
41
-3
26
28
-14
16
4
20
3
69
-7
26
-14
-12
-7
-25
-29
-32
-1
9
15
-1
7
-27
-3
-6
14
-15
-9
13
60
15
47
4
5
37
4
-23
9
14
-5
-1
-11
-32
1
-17
-15
8
1
38
-24
-19
42
-42
-11
-10
9
2
1
-5
-34
-17
39
7
15
13
-9
-79
4
-32
33
8
-7
-6
10
17
18
25
47
-3
-15
-11
24
9
33
31
-10
32
-17
-15
16
-7
-37
-1
-13
-32
38
-17
-14
40
27
-17
7
28
-70
13
-27
0
24
6
-35
7
20
39
26
17
38
-3
-54
-16
-5
-21
31
30
-30
-2
0
-15
-12
-14
45
33
40
-14
-65
-15
-9
-14
31
-7
-20
-17
-29
-11
-19
46
6
15
30
-1
49
-21
5
-31
-6
-11
34
-24
-19
11
-9
-7
22
18
-15
5
1
-22
-2
21
-12
2
-16
12
-16
-26
-18
11
6
19
29
-24
24
-43
33
-20
22
-14
27
57
-8
-21
39
13
37
-29
3
-4
34
35
63
38
29
28
17
57
-16
-22
-9
13
17
38
64
44
27
1
-20
-14
12
-2
7
-39
-7
-6
46
-23
-10
31
-20
26
9
-21
27
5
-5
-3
-40
4
-9
-26
-26
34
2
4
40
-24
2
-40
-8
18
-8
4
-28
-47
34
-13
5
6
39
-23
-8
-27
40
28
0
-23
28
6
18
32
-14
17
-42
-59
17
32
-2
-31
-6
-14
-17
-21
3
20
5
7
27
-19
20
7
-6
3
1
0
-35
-25
-22
20
-27
-9
25
3
-25
-27
8
19
5
4
21
7
6
-11
-1
12
16
6
1
8
-10
5
-7
12
-8
17
-31
22
23
1
15
19
10
-27
-13
25
1
-10
11
-7
4
11
12
15
-38
-19
-1
-46
45
29
20
-1
22
-14
-5
-18
-15
-42
-38
-3
0
-3
10
-2
-12
34
0
43
-18
-27
-4
-5
4
-23
-36
-11
-32
-32
-26
1
-14
-30
-12
29
7
-25
4
5
-7
-8
7
-18
31
-14
22
12
12
4
15
-37
-20
12
-14
23
22
-9
-23
-32
12
0
30
11
-19
-50
-90
-5
18
-37
-2
19
17
7
19
-9
5
12
-24
27
21
-7
24
7
28
41
-8
8
18
35
21
-1
-29
10
2
-42
27
-11
39
11
-17
-13
-8
14
-13
32
16
9
-24
-7
-13
17
5
27
-4
17
5
4
-2
-41
-23
8
22
-1
-11
-16
20
-25
-1
15
13
27
-3
16
27
11
19
-1
47
24
44
5
29
38
32
-1
-39
2
-17
-1
34
-31
-11
-20
-3
20
-17
24
4
2
15
-18
27
12
-58
-11
8
32
9
-38
-4
-24
13
-7
-43
-6
-7
2
41
39
20
-9
-36
-33
-9
-22
-24
-13
-8
-21
-2
-32
-18
-18
-33
18
9
3
13
14
15
14
24
-12
16
-15
-8
28
-16
-31
-33
6
8
-10
-41
-26
-31
27
-7
13
15
19
-17
16
-9
32
47
2
4
42
26
9
-40
5
-20
2
-28
-29
-4
21
49
29
10
6
-31
33
-10
8
-35
26
15
3
-33
1
11
48
16
-19
2
32
-7
-28
-30
20
-27
9
3
-6
4
-18
-18
0
-5
32
22
-39
12
65
28
-32
-4
-28
-34
-20
21
-13
-3
-11
25
-14
13
-31
-8
-8
-11
-3
-3
4
0
11
-30
23
-23
-10
-22
19
-15
-32
38
-5
-21
53
-28
3
-30
6
5
22
-21
29
3
-38
1
-15
25
-6
-21
3
13
3
30
24
6
4
16
-23
10
8
9
-6
0
-25
-15
-27
23
-20
10
17
2
-12
-25
-4
-26
-8
10
-36
9
11
41
-6
-4
-14
34
23
-14
-7
14
-28
-38
18
-10
5
-33
-16
-23
23
9
3
5
-17
1
-21
6
29
-48
-27
-6
-1
16
5
-6
14
11
20
29
13
-26
-25
-16
-4
-11
-18
26
-22
10
-9
17
7
-33
21
18
0
14
-32
-4
-14
1
-30
4
-46
-22
-5
13
-53
5
1
-6
-8
-14
-14
-8
15
13
39
-10
-22
14
-25
35
32
-6
21
17
50
6
8
-3
-21
35
-5
-23
-22
27
0
21
-16
19
21
6
21
-14
-26
18
-20
-25
-28
16
-21
-9
33
-10
34
-14
2
6
-13
-6
21
-24
33
-6
-13
27
-17
-26
-41
-9
-5
-12
-29
38
-23
10
2
-2
17
-6
-30
-5
-22
32
7
-6
-3
-17
-2
-1
-3
-8
18
40
-7
2
33
-27
26
7
-12
36
35
-6
-15
-11
16
32
-3
-27
6
60
-17
16
-17
-15
30
24
-21
-2
2
19
2
-24
3
3
-6
21
-12
34
-2
-22
-15
-32
1
1
-15
-9
-29
19
7
24
19
-13
0
-12
6
-6
-7
-12
0
28
16
23
-10
22
-6
-14
-23
-24
32
9
-36
-8
30
20
-25
5
-15
-27
15
20
26
-3
-13
-5
45
25
3
18
-4
-20
-24
16
15
12
5
49
-33
-17
-9
-17
17
9
-1
14
-23
39
-8
7
-2
27
6
18
-18
22
18
13
-10
-15
9
3
-6
-12
2
-28
16
13
30
-22
-18
-14
-41
6
-8
13
5
19
33
8
-8
-24
-10
-14
8
-12
-6
3
-56
1
0
-23
7
31
-45
-35
26
-11
5
27
12
5
-14
-4
38
-43
-10
43
-12
12
10
18
-26
14
-48
8
-18
-10
-7
6
-43
2
-53
-9
4
-45
17
15
11
14
-29
-21
8
-16
-32
-20
-23
23
11
-8
6
9
14
35
21
-17
24
-30
-10
3
4
-45
-1
5
2
-25
-12
-18
43
15
5
17
19
-18
-7
-18
-50
3
26
-11
17
-10
-8
0
-4
-1
-8
15
-12
-12
-17
33
-4
-13
-13
-6
-19
11
-22
-21
-7
25
-13
12
-7
13
-17
23
19
7
2
24
1
42
-14
17
22
-7
-4
17
-10
-54
20
0
-32
-4
14
16
9
3
15
-2
38
-23
-38
18
-49
-37
6
23
-14
-4
13
50
5
20
-21
8
-13
1
28
-16
-36
45
-10
-31
6
-5
-5
3
26
9
14
-25
-36
-3
-10
10
-16
34
-5
2
13
-34
-39
14
30
-28
-41
-1
-23
7
-18
43
9
-20
-1
-21
3
34
15
13
-7
-23
-2
6
-50
-6
-21
15
-13
19
-10
21
12
-29
36
-18
33
-44
0
7
29
-17
9
-7
-43
-30
21
-6
7
3
31
14
-34
-22
14
-25
-28
18
-59
-11
14
-22
-25
1
4
-14
-24
14
14
32
33
-8
19
6
6
-9
20
-13
-11
-42
-18
-8
-28
-32
-6
-13
-17
2
-21
1
32
5
9
0
18
-11
-10
-1
-16
0
1
-40
16
-20
-23
-35
1
11
25
-45
-7
-22
-19
-10
-16
39
-38
1
-29
24
-10
10
14
26
29
-21
-12
0
14
-6
-23
47
-15
13
-13
-21
4
-1
-16
-12
-55
-29
-19
23
11
18
-14
22
-7
-11
32
16
-31
-4
6
26
-52
-32
11
1
-15
-17
-28
-8
-4
7
32
-8
-19
-23
31
19
-12
10
-5
33
7
21
-10
-26
-21
9
12
19
-3
-4
5
-2
37
55
-61
5
12
-1
9
-37
-32
-41
6
42
0
-8
-11
-38
-25
-22
-9
16
-8
3
-21
6
34
12
-9
19
48
1
-24
1
11
-31
31
-9
-10
32
-9
32
-24
39
11
14
-20
42
28
2
49
2
-16
22
3
-26
28
23
23
-18
-7
6
4
2
16
-8
-14
12
2
-11
4
4
14
-1
3
-17
-10
-34
40
20
30
-18
4
37
-16
37
0
10
-12
1
-13
-71
-30
26
24
28
-10
-20
30
-11
-23
23
40
-16
-9
-12
24
-30
6
0
-17
32
9
-9
-39
43
-16
-1
17
-47
-36
-7
28
21
40
1
23
-13
2
11
-35
-19
-15
1
-51
-21
14
7
16
-10
44
2
-17
-5
9
-24
13
21
11
-3
-14
10
-8
8
-16
6
-25
-25
38
-40
-13
24
35
15
-32
16
11
22
49
-26
-14
3
-36
-14
-9
15
-4
-27
42
1
26
-36
-12
-16
-32
24
-11
2
-14
5
20
3
-13
-22
-6
-18
18
-18
38
6
37
-41
13
-28
20
-20
-23
-22
-25
2
-7
7
19
18
22
29
-3
16
-16
29
-14
-29
-50
28
-13
-3
-4
30
-19
-13
-3
45
-23
-26
10
-25
19
-20
-46
3
-10
19
38
8
5
16
42
-33
36
27
24
-22
0
-52
17
-1
12
-2
41
-20
-32
-17
-36
-18
17
-7
-26
40
32
-28
26
15
-25
-15
-2
-42
-8
16
4
-35
6
32
22
39
-13
14
19
36
-7
12
19
12
-37
43
9
19
25
-22
8
3
15
-3
-14
33
2
18
13
8
26
22
4
-7
14
-8
9
12
-15
3
9
-33
-27
-9
-15
-19
-7
-14
10
-23
-11
3
8
-10
9
-49
28
48
-22
-18
-16
-37
-8
11
-36
39
20
-13
-2
-8
-16
18
8
22
13
27
-14
33
3
12
34
23
-14
27
8
-13
38
3
-4
-27
15
-21
-15
-26
-2
-51
16
14
-4
-19
35
16
11
19
28
46
10
-18
31
-4
7
-34
-16
-30
-15
31
58
-3
-63
-22
-27
16
-8
10
4
30
-23
-30
1
27
3
-37
30
-31
14
21
-17
-24
-13
-10
-16
-32
12
-34
-8
-13
-12
9
2
15
-2
13
3
-30
-1
42
-33
-24
18
-17
4
-3
-2
14
-24
-24
-8
21
-9
4
-36
4
28
-3
-31
7
1
-15
18
-16
-12
50
12
39
8
17
-26
39
-24
4
0
-18
20
-9
-17
39
7
18
-16
-29
-4
-12
27
33
19
30
24
-1
-10
32
0
-11
-6
-9
-11
-17
15
-35
4
28
44
-5
2
38
-5
-19
12
27
4
-18
22
32
2
3
23
-25
-39
47
1
-6
34
-11
-24
0
-13
28
-32
-5
-14
-4
-4
20
-19
-16
7
13
-39
-49
-20
16
1
32
51
-1
-12
32
32
-30
-58
6
-9
-26
-19
-21
-67
1
-35
-16
42
33
17
-25
-34
25
10
3
-30
7
-2
-28
-12
6
-23
-10
-36
-16
-23
27
-2
3
24
-9
-7
6
-29
-45
23
11
4
-35
-6
-3
42
-13
-26
-61
-1
24
-3
9
-30
-9
-4
-20
-9
2
4
30
-1
-1
17
14
-16
4
19
-33
-20
4
-17
6
-3
11
4
56
33
-31
-9
27
2
14
-12
22
-17
-39
-19
-20
-4
-12
-23
-48
29
-23
-24
7
-1
19
13
2
-37
8
-50
-29
7
14
-33
-12
-12
18
30
8
-10
-7
18
-13
-55
8
-6
26
-6
-19
-27
-30
17
-11
-16
-16
23
15
-1
22
10
-13
-21
2
24
-14
-12
9
14
-4
16
22
-20
21
15
10
24
11
20
-7
-5
-12
27
-30
0
-14
-34
14
-36
-29
-19
-55
-3
-31
-22
37
40
2
7
-19
-28
14
6
20
-23
-10
4
-7
-57
-24
-39
-17
-14
14
-13
-14
-8
-22
-9
30
-25
-41
-3
-6
25
-19
-15
-31
4
-59
8
25
10
-11
7
-18
12
-16
-12
-11
7
-6
-31
5
10
-11
-37
-12
9
-29
-18
27
-51
-49
-53
-2
14
-15
-33
28
3
-47
20
-30
-42
-15
31
25
-3
-36
-5
-13
-21
-27
9
10
-20
-14
11
9
25
-17
15
11
2
-16
-9
-8
-8
-12
43
-39
-34
26
1
-19
-3
1
21
-28
6
-9
-13
-34
-7
21
-32
14
-15
-13
9
-17
27
17
-27
-3
-12
-32
4
31
-2
21
1
-18
32
-17
33
20
18
12
-43
27
27
-9
26
0
-8
22
-14
26
32
23
-36
-17
2
38
-39
-9
-15
-11
-22
-27
-4
-12
46
37
-19
11
42
3
-33
-22
23
22
-30
-46
-23
9
-34
6
-15
-3
-11
49
14
-6
2
7
9
21
-8
-16
4
44
-22
1
29
-17
7
-4
0
5
-2
-25
-23
23
-19
-31
-8
0
45
-20
-27
1
45
41
-12
48
19
-17
-20
-23
-1
15
-6
13
-49
-29
-14
-16
-7
7
8
-14
-25
1
-26
7
-16
27
7
-17
-4
45
4
-12
23
21
-20
-23
5
0
19
-51
-9
27
36
-24
-22
-6
-10
26
23
6
-1
-10
-28
13
-4
35
-27
-25
30
15
2
49
-20
-21
-12
18
-27
-6
36
-2
30
4
-9
-12
-28
29
0
-13
12
-33
2
8
5
10
-25
-45
-4
-32
-9
44
-26
17
-18
24
32
-18
-17
-17
-31
6
30
-23
-42
-2
35
-20
-10
7
-17
10
6
-8
19
1
35
15
17
46
-9
10
-42
-37
42
20
2
-7
1
20
21
-1
-11
-3
18
51
5
22
-5
33
-35
6
-5
-3
33
19
-11
21
34
-32
-19
-13
-11
-4
7
-54
-26
-12
-44
22
9
-9
15
9
17
3
10
17
2
-31
-7
6
-13
32
-10
-12
1
-11
-12
-5
20
12
19
-7
-5
1
-31
-47
15
8
40
-39
8
-2
22
32
21
-24
-7
29
-2
-22
12
13
-6
-15
-25
-25
-22
-26
6
-29
35
26
-27
12
-3
21
-4
5
-3
0
-13
23
27
-14
-12
-15
-42
11
13
7
45
-13
26
6
27
-37
9
-4
-23
-30
9
-11
-4
-13
14
-21
-9
-18
25
5
2
-38
-21
-11
-14
14
1
29
-1
8
-79
-15
21
16
-6
-26
-34
8
-3
33
2
-11
33
7
-9
-5
-15
13
-12
-23
-4
26
-32
51
31
1
-2
1
6
12
-7
-42
-2
36
-3
0
-8
-48
-8
1
-4
7
-9
-1
-7
12
-15
0
15
18
20
14
-23
-24
-37
-44
-23
-11
22
20
-33
9
20
-14
-31
60
8
7
20
-24
-6
13
6
-4
-14
-20
-16
19
-42
-18
-2
22
-20
7
3
10
-33
20
15
-18
-4
-36
-13
-7
-30
35
14
-26
6
-17
28
-11
7
-40
24
-21
-21
19
-9
9
32
-29
15
-26
9
-27
-3
-55
-2
11
-28
17
35
-22
36
-9
-11
-4
32
-8
-26
32
-23
-25
-7
3
-34
7
30
38
9
-33
34
6
17
-4
23
4
9
10
11
16
-35
-24
38
-16
-1
26
-40
-12
14
7
33
7
-23
-19
-68
-13
-8
-47
29
-23
-8
-7
-23
-15
-8
39
9
-6
5
-23
-8
-6
31
27
23
8
26
27
-13
-31
6
-3
-4
2
-2
-24
9
3
16
1
-3
-6
-4
-10
19
30
-13
14
14
47
17
37
-11
11
-11
4
-5
-1
-21
-19
-6
-22
24
-3
14
-14
-31
-3
-9
2
14
4
-15
2
14
26
18
-16
-3
27
-18
12
-2
-43
-21
27
-22
4
-21
-11
-19
17
28
21
-13
24
12
3
11
-11
6
33
-7
1
-21
-2
-21
10
52
18
14
-11
-7
4
0
-22
16
-1
-3
-10
1
36
-9
-9
-5
8
36
-29
-19
20
28
3
-23
1
-8
9
-18
-12
11
6
22
17
-3
-9
20
16
11
-45
-29
14
52
10
-11
6
-36
-19
12
-33
-36
23
-3
27
11
-40
33
3
7
-36
15
9
-4
4
15
29
10
-20
25
39
18
-14
2
-22
26
-34
7
6
0
-27
-14
8
24
24
30
36
2
-32
-81
6
25
-24
6
-7
32
-14
-7
-46
28
11
4
-5
1
-21
18
21
-14
-4
-9
1
-13
-24
-26
-15
-21
15
-6
11
15
-21
12
4
-5
-6
-16
10
-15
21
12
41
5
-17
-1
10
34
-13
1
10
19
-15
26
-27
23
10
-39
-70
8
-35
-10
-2
-15
-30
12
11
10
-12
-26
-7
34
-22
-6
20
-8
-7
20
2
-9
-23
25
-65
-37
-11
0
-12
-38
-15
9
1
16
-27
20
-24
20
-30
-11
-23
19
-20
15
-8
11
-17
8
16
0
27
0
8
-41
13
-6
-12
1
10
8
32
0
11
-20
3
17
-9
2
-13
4
-37
22
-56
-28
0
-8
0
10
-15
42
-6
-26
-27
21
-3
5
20
-4
-3
18
-26
-11
14
-18
8
13
-20
2
19
33
-2
8
-25
-30
13
13
-17
42
-30
-7
-22
-2
19
-18
-4
4
-26
15
-11
2
-33
13
-25
-31
-30
17
32
20
1
15
11
-19
-12
-33
-33
-34
-17
1
2
0
5
43
1
-14
12
33
-27
-41
14
-3
-40
8
-17
-13
16
-5
10
3
21
-57
-2
-68
-21
19
6
-26
-30
-2
14
-17
15
23
-25
34
-32
-48
-8
-50
12
2
15
-28
23
-33
-7
13
25
-39
41
3
3
-31
25
-8
-41
2
-20
28
-10
15
11
-18
-42
-12
17
-39
15
-14
-1
-5
-10
5
2
-22
-37
-19
-23
-28
-35
-21
5
-15
22
-49
-49
6
-12
-19
35
-4
36
-19
-8
-17
9
7
-18
13
-60
-8
1
-14
14
-14
9
37
13
11
9
32
2
2
-20
-13
17
-23
-15
9
6
5
-8
-34
17
-17
7
22
-21
3
19
-22
36
7
17
37
-17
-5
-24
21
-4
10
-24
-13
-36
32
-23
10
19
-20
11
9
16
-20
27
-10
-18
-17
-3
-24
-8
-25
58
25
-42
-3
-17
-29
-10
-15
0
-53
7
-26
17
14
5
58
-12
-31
16
-8
16
-16
-9
-18
-10
-21
-13
-6
17
-36
-17
34
20
23
3
-7
3
-52
-34
7
-31
-26
-5
-9
4
-17
-20
29
-12
5
24
-5
-1
36
6
8
23
-7
-44
0
1
-7
35
40
5
3
-46
-26
10
-8
7
4
7
-39
-40
9
-58
6
0
-11
6
7
-32
14
31
-5
-15
23
37
-9
-14
2
-8
-2
-2
10
-31
-7
24
4
10
-8
4
39
-1
-4
10
-11
33
10
9
-25
-1
18
-3
-28
-14
-15
-23
23
41
28
-14
-3
23
-6
24
-24
-8
21
17
-40
-19
28
-17
3
26
28
30
-40
12
2
14
-10
-21
13
-15
-15
-25
-1
-6
-24
8
-2
57
4
32
15
-8
-22
-11
-25
35
-59
30
43
28
-33
14
11
31
-19
14
-15
31
-33
-12
12
13
8
14
16
-9
8
-4
-8
28
-3
3
-32
10
-52
-7
-24
-17
-6
-14
11
5
-26
19
-30
-24
-18
41
-17
5
-7
25
-12
-12
-6
31
-21
37
-3
13
5
13
72
-30
-16
-23
33
0
-32
-20
-49
-32
10
-16
-13
-34
14
2
20
-23
-2
8
-9
-29
11
22
-11
3
-54
23
0
17
-8
-31
10
14
-3
16
0
-3
16
-3
-45
13
-35
13
-23
-1
-39
-5
4
-4
25
-30
-6
-13
-9
-29
-5
-39
34
2
-43
-33
-22
6
-13
-22
-9
-20
-37
-6
10
50
-15
3
-26
-18
-16
8
-7
3
-10
-1
-45
-24
3
22
-20
-1
-16
-27
5
-14
-24
-20
20
-10
19
10
-2
-11
18
-37
-11
-21
17
7
-14
-1
-29
17
-4
1
15
-4
17
-2
-9
-25
-35
-26
25
19
-2
-13
-33
-3
-10
11
-34
-31
22
12
-17
16
8
-27
8
-5
8
-9
17
5
-31
-34
-7
-9
-47
-2
-5
-10
-49
-3
20
-6
5
-22
6
25
0
-80
-5
-6
8
-22
-27
-6
14
-46
-11
2
0
-1
-3
6
5
21
4
15
6
-24
-6
-19
49
-19
-31
-3
3
-20
-14
-9
-43
-46
-60
1
4
33
20
-18
-34
39
-18
10
18
43
-2
16
-7
-11
34
-8
50
12
-35
-20
4
34
-11
-3
-25
-18
-7
13
21
7
28
-14
9
-8
-5
-12
12
18
35
27
-24
-2
-6
20
9
-4
-10
18
8
1
34
-2
8
14
7
19
22
10
13
1
44
28
-4
-15
28
-23
-27
16
16
29
-16
-34
4
17
-26
-15
-25
-42
8
10
7
-28
8
-5
6
31
54
40
36
12
-12
-16
19
2
-17
-8
-16
3
3
-10
-21
5
39
10
-23
31
2
-3
-6
-12
15
-14
-29
-10
26
-2
-26
8
18
8
54
-2
-7
-3
7
-37
-13
4
-2
-3
30
-17
0
-3
50
-11
11
-2
23
-24
11
-44
9
5
63
-30
3
-9
-23
5
6
-15
17
-13
-7
32
10
16
-2
2
25
14
-4
-6
34
-3
28
29
-2
4
21
23
-12
0
-1
-34
13
-31
7
-12
-7
11
12
1
34
12
-20
-4
-11
-55
-30
44
11
-52
-20
-9
-7
-32
-18
22
-16
-11
-20
25
-11
-2
-22
31
23
9
-2
44
-18
-16
2
36
7
5
-32
-14
-3
-1
3
-17
-15
12
-31
-13
-13
20
3
-11
6
0
-14
-12
-13
18
-7
-35
2
0
18
44
33
-59
23
-62
-47
25
-2
-6
-36
-42
15
-21
-36
-3
-5
-7
-10
4
17
20
21
-10
3
-1
5
18
5
28
-51
6
-25
-4
-5
-25
-71
3
-5
4
-23
-17
21
-49
7
12
-13
-3
17
-23
6
-6
-16
-2
-16
0
-3
14
-4
-8
12
0
38
-20
-2
13
-33
7
76
-1
4
5
5
9
24
-12
-5
16
-57
0
-5
38
-10
-22
19
-13
-18
7
16
14
-2
-21
-13
16
-35
-23
-34
22
-4
-5
20
-11
-14
-18
-1
-10
-16
-57
-34
8
0
-14
-12
-5
3
27
1
11
30
-24
-14
-9
-37
-36
3
-16
15
19
-78
21
17
-30
-17
-5
38
-30
2
-15
39
-3
-30
27
2
-13
-1
7
38
12
-52
-11
-2
46
-30
-36
-6
-2
9
17
-1
13
-2
-27
17
-9
12
10
-39
-36
18
-6
-17
-12
-12
-1
-7
14
11
-37
16
-17
-21
38
-15
-15
11
20
-20
0
0
29
-10
13
-15
2
-11
-52
7
-4
37
10
15
-9
-20
15
0
-16
-7
1
-32
-6
25
12
-18
5
-14
3
-12
10
-30
-35
-14
-13
-25
-6
-11
2
-11
61
34
-28
-30
17
51
22
9
17
12
-2
7
-4
31
-27
-15
7
17
-9
-9
-30
-36
26
-14
-7
12
21
17
19
1
0
-9
-22
7
34
7
7
-17
-5
5
-18
35
2
20
-20
2
40
-40
-1
-26
6
-5
-13
-7
-11
-7
-69
-18
-16
18
9
-2
22
18
-4
47
-16
15
40
33
22
-55
-43
12
-18
-1
-16
-4
24
12
-36
10
29
5
-7
40
37
3
-39
4
21
-13
-29
-18
-19
-7
-17
-17
22
-19
19
3
25
5
-47
-80
-34
-17
2
-8
-33
-60
-14
19
10
0
28
54
2
33
-11
6
35
12
-29
15
21
-7
-17
-13
11
20
32
-7
-16
10
46
-11
-15
-17
-39
9
25
10
37
26
16
23
-15
3
-21
-21
6
-35
19
11
-10
16
-10
-1
0
31
25
5
-14
-18
7
63
45
49
11
30
13
2
-7
32
-35
15
-13
16
11
-36
-33
53
32
3
1
13
-27
35
-24
-16
19
17
0
4
18
10
-14
-15
6
-6
-32
5
16
9
8
10
-34
33
4
-1
23
13
21
-12
32
11
-36
-11
-6
6
31
1
36
19
-38
-10
-2
49
-5
15
1
4
-14
-7
7
14
0
14
-13
31
-1
-8
-15
4
20
-14
22
-10
28
17
0
-19
3
19
-11
15
-9
5
-28
6
-33
49
40
-22
11
-2
25
29
-38
-1
33
47
19
-21
28
20
-14
-4
-2
-4
0
12
59
30
-4
63
16
52
-22
15
-27
51
-8
40
50
20
-30
-25
-30
-33
-20
-18
18
-21
-26
24
-24
17
-6
18
-13
-21
-8
9
5
17
-23
5
-38
9
-1
-19
-2
0
-23
-19
13
-11
-5
9
-18
22
-10
-19
6
29
-27
19
-12
22
11
-14
16
7
-23
21
-11
-6
-25
-34
3
8
-50
-1
-13
-19
25
-34
-43
-2
-18
-2
-15
23
-11
24
-15
34
3
13
7
-26
2
-12
4
-22
-43
-42
21
-26
-12
17
20
-28
20
1
23
-25
31
-5
-45
10
26
-21
-1
7
-28
-16
-3
12
18
-25
-1
10
3
-10
6
19
0
21
-9
-48
-10
4
0
-5
-9
-56
4
-7
-11
42
22
-21
0
34
10
-5
12
22
-13
-12
17
-27
-2
9
-4
-33
-7
-5
-19
-37
-2
13
36
-21
25
18
-14
-1
16
-27
6
-7
-57
5
-22
-19
21
-6
25
-25
-2
-6
-33
8
-50
-36
14
-11
24
-28
-15
-8
-24
-66
12
41
-23
-27
15
6
20
19
30
11
-4
-40
-19
-6
9
22
7
-39
-5
6
18
-10
-29
-16
17
-15
29
8
-17
5
-3
-53
-17
18
4
-46
-1
29
6
-15
-35
-6
31
-3
-19
-19
-37
-41
39
1
9
-28
-3
-19
-10
-8
-33
57
-17
-9
-11
37
-10
9
4
6
26
-2
23
35
5
12
-69
16
10
-5
15
-18
25
24
-31
-35
41
-1
-51
29
-8
-5
-11
-16
18
-9
54
-1
25
28
45
-10
-32
-6
15
4
25
-7
-5
-34
30
-18
16
10
-26
0
24
24
18
24
-23
4
54
23
-6
-9
35
-6
28
-11
-29
1
-11
29
-22
5
-26
33
-23
-23
-13
-79
1
-39
-28
-36
-15
-11
-5
43
14
45
-20
-17
7
23
-28
21
19
28
-4
-1
0
17
-22
19
15
-51
-24
1
-4
-26
-3
33
0
1
8
15
-10
18
-18
-6
15
9
19
-22
21
-11
-24
48
14
-6
-12
0
14
19
-3
5
-12
-22
-28
17
2
17
-21
11
12
-8
7
15
-6
-3
-29
-25
-3
47
-11
34
-2
-6
-23
12
20
-24
-1
27
-27
23
0
-27
17
-2
-5
-21
-5
-13
30
5
-2
3
0
-11
34
14
3
9
27
40
-13
0
14
3
4
43
31
11
-9
-25
-3
-7
0
-19
-10
-18
-17
-22
-9
17
36
28
-44
39
-8
-26
-16
12
11
4
2
-23
21
18
15
-29
1
23
-14
-15
-8
2
25
-16
3
0
-32
-14
31
-8
1
-36
-26
23
-12
-2
10
11
-28
18
-20
-18
-5
-21
21
-4
18
-19
7
-8
9
3
-2
-3
13
24
-20
-25
63
40
-27
3
-2
18
-7
18
-9
-15
-11
23
-25
33
-23
8
-5
35
-3
10
-28
16
22
-23
-7
-27
-31
5
35
-25
-1
-10
-23
-33
28
-9
-3
17
-8
9
10
-2
-12
3
-8
19
0
23
-14
-23
9
-1
1
20
-1
-32
-29
47
7
7
-5
-13
15
25
-27
-15
-7
-5
19
39
-23
-43
-29
-11
18
11
-27
-17
-11
40
-41
-29
31
11
5
23
-40
-19
-41
-11
5
-18
10
-25
34
-13
-23
1
22
40
-12
25
-1
4
1
8
-19
-17
-6
23
-1
-7
26
0
15
1
-18
35
27
-15
17
-17
29
3
7
-12
-26
4
-31
-14
-27
-16
-30
-10
11
-3
-38
12
-6
-29
14
7
-27
3
-32
34
30
32
25
48
14
-19
2
-1
-36
-21
17
8
25
1
-29
-22
-10
-2
41
12
5
2
-31
-29
32
0
19
25
16
19
9
-12
-7
6
-8
29
32
-26
11
-31
1
14
18
-19
24
27
25
17
-24
-7
-5
0
-12
2
-18
-6
49
-53
-23
-7
11
-16
-7
8
2
-33
-13
6
28
18
-7
2
27
3
-21
3
31
10
43
-4
19
8
17
30
-5
-8
-26
10
1
-44
-21
1
2
-3
0
5
-11
10
-21
-22
7
-17
-9
-2
-29
-15
30
-19
-6
-18
-24
-14
-20
3
10
41
4
1
12
41
-20
-5
23
20
7
9
44
-4
-13
-11
-25
-13
-43
9
-4
-8
14
-8
4
9
-2
3
21
9
-4
20
-5
19
-7
-13
-3
8
20
3
40
24
-22
20
-25
-21
2
15
18
17
14
-33
9
37
-1
7
13
-6
0
-38
-5
-23
11
-14
-10
48
16
-27
-30
0
-20
1
25
4
-3
-19
16
-22
18
-22
-6
21
22
-1
-46
-31
-13
40
-2
-17
23
28
20
21
0
-34
-30
42
-12
-29
12
27
30
11
25
5
23
4
20
-16
-17
-5
-8
-22
27
-3
12
-17
3
27
32
-33
-23
7
-9
-31
-5
-24
16
5
6
7
64
1
10
64
-10
-23
3
14
-8
-28
-11
32
41
-25
-2
-14
1
-32
0
26
52
28
-9
21
-10
-15
10
-33
38
9
2
1
9
37
20
23
-1
-5
17
25
5
-29
-16
11
29
23
-14
-15
35
5
21
-14
-27
2
-5
-2
-11
-4
-11
-22
40
11
10
-10
-12
-8
5
-3
-46
21
10
-41
16
-43
-29
-6
-19
20
21
4
-18
0
-14
-1
15
-13
-10
-13
-15
7
17
-20
-3
-18
-12
1
-16
14
20
20
-46
-14
-28
-15
12
1
16
26
-65
6
-19
-9
32
-5
-7
13
8
-16
-40
11
-42
-9
-25
-3
-1
-47
-14
-5
-20
1
-9
-15
15
15
-11
0
15
-9
-3
-4
6
17
-3
-21
-26
25
-57
-39
-12
24
7
-16
24
-4
-30
-11
27
41
20
-3
12
-18
-5
12
25
-24
-26
-30
3
10
25
-21
-23
-19
12
-18
-13
-9
19
-26
-29
-14
8
-8
-21
-20
23
14
11
-26
-36
21
-18
13
-25
12
-23
-10
-18
13
-19
-18
-32
-10
-26
12
21
-10
-38
-13
-2
-8
-14
-11
-30
11
-1
38
19
5
52
0
22
-73
-31
-17
-8
22
-34
-35
-25
4
0
23
18
-8
1
-1
7
7
-11
-3
-4
-44
-23
59
-17
-34
-6
-41
-2
24
19
45
-26
-19
4
-87
-4
-31
33
16
9
25
2
-13
-2
6
-23
-21
-3
-29
41
36
-16
20
34
9
-16
-21
0
-23
-11
-10
-9
27
36
6
-19
-18
20
-6
30
35
-13
7
-28
12
-5
-41
29
24
39
-57
-34
17
-8
-8
-3
18
-8
-29
3
9
39
32
-4
-3
2
-16
2
19
-1
-1
37
-36
-12
17
42
-5
21
10
-13
-41
25
-36
-7
19
17
-39
16
-15
36
11
21
13
-5
-22
-13
6
6
-4
20
7
9
-2
22
-6
10
-6
23
2
-31
-29
-39
-2
-36
61
-23
0
26
-12
13
26
-10
-34
-35
-19
-16
-4
-19
-61
-10
9
11
-3
-7
30
-4
-30
10
12
32
22
11
4
-1
-10
9
-28
-9
-1
9
25
-15
-15
-14
-1
18
4
16
-3
15
10
-18
-15
-9
9
-24
-10
-33
-49
26
37
-20
3
0
15
-2
-17
43
-15
-37
2
8
5
6
-1
-19
-18
-29
-15
-5
-8
4
-31
21
-5
-40
-10
40
27
13
10
11
1
17
9
-7
-18
4
6
6
9
-4
-34
25
23
-26
4
-37
19
-17
-3
-8
-3
-6
-26
-11
6
-29
26
12
5
-30
7
12
-17
12
-8
-6
20
37
-22
10
2
-6
14
6
-6
50
-10
-4
10
13
-21
5
-37
-18
50
36
14
8
1
28
34
-4
7
5
-25
-20
7
15
12
-12
14
-3
-5
16
2
24
64
3
-10
-12
22
-12
34
-16
29
-22
21
6
1
-2
12
-13
-8
0
13
-3
-3
5
-6
1
29
7
-13
17
-18
24
11
-21
15
9
-2
12
15
-21
-18
23
-13
15
15
5
-7
19
35
-15
-5
-2
-14
-21
-42
0
-25
37
15
14
-16
-6
6
24
-10
-24
-6
-17
23
-10
10
-2
7
-12
10
2
23
-4
26
34
-2
-5
7
35
22
28
-18
8
-34
1
25
16
-14
-14
7
-24
-8
9
-1
-7
-14
38
-7
5
0
2
-22
41
-6
2
19
-1
54
50
46
-10
1
11
8
10
52
14
9
-18
-14
5
-11
18
6
-11
-16
-7
10
1
5
-8
15
-12
11
8
5
-5
-22
7
12
-6
4
10
0
23
12
1
27
-27
14
32
4
-4
35
-7
9
-34
1
-11
-13
15
-14
45
15
-28
-35
-40
20
20
17
-15
20
26
-20
-40
47
0
5
-48
6
-5
6
-2
2
10
52
-30
24
1
6
-16
-24
-9
18
-29
-17
43
16
-24
-23
-12
6
-14
2
-18
13
-25
5
-4
-2
-10
-22
29
-4
17
10
11
-19
19
34
-5
-3
19
5
-25
34
1
22
-3
-29
41
-5
24
-15
-24
31
-20
34
18
-13
-20
1
18
5
32
-11
25
11
-11
0
24
23
-27
-28
23
29
-16
2
19
-8
-15
-10
-5
-28
3
30
-21
18
31
1
38
17
-5
16
-1
-26
-52
-22
-23
0
-47
-7
3
42
-6
16
0
-9
13
5
44
21
4
-11
1
-13
-16
5
6
46
1
22
-20
-5
3
-82
-4
-18
-35
-3
-17
-22
-17
-38
5
27
-1
9
12
-2
-16
-10
35
-10
-6
2
4
-5
-15
21
-26
-7
8
31
-10
-6
-3
7
2
10
-36
-3
-6
13
-38
41
-9
-5
5
-37
-28
21
-25
14
28
31
9
23
26
-21
10
-29
18
10
11
7
-9
-22
4
-27
18
-6
-25
-15
13
-9
-17
-4
-2
-12
39
-19
-2
-23
-9
-15
-43
-28
-11
24
41
-13
-42
-23
-7
-29
5
14
11
-4
-13
9
9
-8
23
-9
-4
-48
11
3
-8
-29
6
-11
-11
-12
-43
4
1
40
-15
49
-11
-46
-26
2
-25
-35
28
-10
-4
0
-26
18
-31
9
-2
15
20
-15
-12
29
-14
-16
-4
10
-17
-10
13
-5
-2
-21
19
5
3
-44
58
31
32
-1
2
15
23
-24
3
-38
-15
-14
10
9
17
-17
-3
-14
4
8
4
-18
3
11
-5
-14
-1
-13
18
-1
17
8
10
-7
9
8
-38
-18
7
14
-19
10
-5
1
-26
-24
7
-17
-36
-1
-13
-12
-28
16
17
-17
-15
26
-13
44
21
-37
-23
15
17
-32
-53
4
4
35
7
37
-20
3
-11
-12
-38
-25
-15
-27
8
-7
52
0
2
11
19
-29
6
-5
-12
-29
-22
13
44
-10
39
-36
6
-18
2
-24
-27
3
24
5
57
-17
-1
5
29
29
23
0
-34
-11
-8
-11
8
-22
27
7
16
-9
-16
-27
23
19
11
-11
10
-6
43
-27
-12
4
-24
2
17
-2
-27
-8
-23
-9
40
4
-9
-17
2
7
-8
-7
-37
-23
-12
-27
18
25
-8
-23
-15
6
27
2
-9
4
15
1
-26
-21
28
-39
-27
22
-8
14
12
8
-41
0
8
-51
-8
-29
-17
-4
-19
-2
2
-2
-5
1
39
-46
-28
10
-5
6
-19
-17
31
9
-21
27
13
18
-30
23
-26
13
28
-39
-24
3
-42
29
11
-14
10
-26
13
-41
6
20
11
-24
-26
-18
-23
-40
-51
1
-10
28
24
-2
13
-2
25
7
-22
5
0
-6
3
-7
13
16
-20
21
-17
-8
-15
-7
-19
16
-8
17
6
12
-33
-6
22
0
23
0
17
-8
13
23
-22
68
20
35
18
-22
26
13
-11
17
12
-35
17
-38
8
36
7
-13
31
1
-28
41
27
-9
-10
14
-27
37
-16
38
14
21
49
27
0
-23
-69
-8
-1
15
40
20
17
-30
-14
-7
-9
50
-4
25
-31
-16
10
20
19
8
8
-48
27
29
6
-4
3
19
27
42
17
-7
-38
-24
36
-28
-1
41
58
28
32
-5
-10
44
30
20
9
-28
15
-32
12
19
-39
-31
-8
41
1
47
15
2
-25
9
-5
-21
-69
-16
9
75
4
14
44
-2
33
-5
-19
10
-3
-19
28
-12
0
25
32
-23
-4
21
-10
-9
2
17
7
-15
20
2
-43
36
-14
-5
-25
26
-22
-10
0
9
1
12
-14
34
10
25
31
23
10
-10
-28
-36
-10
-1
22
-18
31
-45
-18
4
26
-13
11
19
-19
-4
-18
50
12
-14
-38
-7
-14
-5
0
-19
-34
-5
2
19
-5
6
14
-10
-4
3
13
-3
6
-11
36
-15
1
-1
57
-5
44
2
54
0
34
-22
-43
-4
-10
-51
21
15
10
13
-9
-10
13
-12
-8
28
17
19
33
17
38
7
20
-3
14
41
-1
-35
-41
-7
13
-1
19
-3
42
-45
19
57
0
15
-14
13
18
0
29
29
-7
-22
-5
-28
-7
-19
-11
-26
-1
3
-38
-5
34
-3
-3
-31
27
4
-9
44
14
-6
-9
5
6
63
4
-13
-19
-18
27
9
4
28
-17
-12
3
-13
6
8
-26
36
5
24
30
-35
-55
1
-9
57
-9
-9
15
29
8
18
-28
24
18
27
19
-51
-21
32
1
28
-40
-22
12
4
18
36
58
-14
-11
-5
-15
15
14
-3
7
2
-31
6
7
-1
-15
-5
25
29
36
37
6
-31
3
-45
-15
-5
-15
50
-20
-51
4
26
5
2
-6
-8
6
-4
12
-16
12
1
4
-30
8
-18
19
-4
16
27
20
-24
20
9
31
7
6
-13
-12
-55
4
12
6
6
10
0
-9
10
-1
10
-15
-10
-41
6
-7
-12
10
-9
0
26
10
-4
-31
34
-24
47
-2
-1
-14
-20
-14
13
-18
-5
5
-43
-48
14
-30
5
-16
16
58
-2
43
37
-24
-23
14
42
-20
18
45
-13
-20
-38
24
14
-28
-8
0
13
-23
-53
13
-6
-9
-22
43
19
51
21
-43
34
46
29
0
0
-17
11
27
5
13
8
-11
18
-11
11
17
41
14
-33
-1
22
24
19
-13
-41
-14
40
-19
21
-6
39
-12
3
26
27
20
-15
-11
-11
0
-25
9
-33
-23
18
-50
14
-16
21
0
-16
11
18
33
-22
-31
-3
-5
1
13
39
0
14
-9
19
11
25
-7
3
-10
-46
2
25
14
-10
-7
32
-18
-11
5
14
7
18
-17
-23
16
43
15
36
31
32
19
-7
3
27
-4
-10
5
-20
15
12
11
21
2
9
38
20
-11
44
-11
5
8
-24
-10
-35
5
13
16
15
12
37
-39
-13
44
-20
8
5
19
3
13
-8
0
-10
17
0
-5
15
9
-18
44
27
13
39
35
8
-2
20
20
21
-21
13
-28
-12
27
-25
-11
-4
-3
7
-2
7
-10
-40
48
44
53
-7
-1
-7
9
33
-8
36
-31
25
-21
15
19
42
35
23
7
-58
60
20
7
8
-19
35
-28
28
0
10
6
-5
-12
-5
30
58
0
16
-5
-25
5
27
2
-19
21
-3
53
32
45
26
12
-13
-13
-12
35
-5
18
23
20
23
11
31
26
-2
-13
45
37
-26
-3
16
3
38
25
-1
-4
-10
4
6
65
10
6
10
-15
-26
16
14
-5
32
-20
32
3
7
-12
-17
16
1
15
-16
-4
13
-28
18
-6
1
4
-16
2
-1
-1
-20
34
69
-54
2
13
4
-21
-22
-39
3
2
-14
15
13
-13
5
-1
-1
0
11
6
-27
-23
20
-26
1
-11
-27
-22
28
6
40
31
25
-29
7
-22
46
15
-24
0
-1
-11
18
8
14
-4
51
-36
2
33
20
9
-13
4
-4
47
-9
10
40
13
-8
18
4
64
-17
25
-6
-10
-15
20
25
28
3
-25
9
-2
-21
17
26
-22
-29
1
-3
9
10
34
-13
9
27
-42
29
8
1
-20
-35
15
17
-14
28
-26
0
-2
-13
13
35
0
20
7
9
-19
-29
-15
-48
7
6
-28
-2
-16
3
5
-11
-22
47
-20
-5
22
-55
-7
-40
-29
-9
-5
23
-17
69
1
8
-12
33
-6
1
2
-12
-19
-6
3
16
29
2
-29
29
-23
-18
5
9
-25
-28
33
-43
-17
31
12
9
16
26
7
9
-2
27
26
-27
3
19
11
48
1
6
-13
18
3
61
1
9
23
-1
-12
-7
-19
20
-14
-3
29
-47
-25
-7
22
9
0
-27
2
40
7
-4
-9
61
-2
7
-23
-39
6
19
-18
29
1
28
6
5
-16
32
-1
0
2
-39
7
-1
1
-16
-23
-28
40
9
35
51
-14
17
-22
22
-20
29
15
12
9
32
-3
12
-8
35
1
-12
30
8
1
15
32
28
25
45
-6
10
29
27
-9
10
-2
-4
-6
32
5
-19
44
32
9
4
-4
8
43
28
17
3
66
35
-8
17
18
-12
-9
1
-12
-13
13
27
3
-26
39
27
-1
-1
8
8
-9
26
6
-7
-3
18
-10
14
-15
7
27
-13
47
6
-35
-6
-11
23
12
-4
-12
25
-18
-19
0
-1
-32
37
9
51
1
-6
3
35
17
-4
26
-33
9
49
23
-15
-31
4
9
-5
7
-19
-3
6
-16
43
39
-2
-21
-24
-6
12
-23
-7
-28
35
-31
-1
-6
-15
-17
-5
-39
31
-19
-3
27
8
-27
59
7
25
5
34
20
42
-34
32
-13
6
-34
-19
2
27
-21
-31
-34
31
-33
-31
3
28
-1
18
18
-12
19
-9
-17
9
-17
22
28
-15
17
39
32
-28
4
-5
-21
14
-13
-2
-23
-27
39
-34
15
7
-11
19
-17
5
-20
26
-10
-38
4
22
-13
-32
-11
29
-27
24
43
26
25
27
-14
42
36
-9
6
-2
49
34
-14
26
4
10
-18
12
-8
-39
-1
-10
30
-28
48
21
20
24
33
13
30
50
-7
-6
48
-47
6
-11
20
9
-4
30
-19
-3
-35
1
28
17
0
28
16
-1
-1
-15
18
-32
4
-37
3
1
-4
-3
38
10
-24
25
-36
33
4
-14
-4
12
-34
-23
14
17
-42
31
3
43
-20
5
-5
2
24
19
-18
-4
-2
-3
-18
9
-29
2
1
-31
17
1
-29
-7
-47
24
32
1
-10
-8
8
32
-16
-37
-12
27
27
-3
3
-39
20
21
-41
16
-31
-11
-7
17
12
32
14
-14
-24
17
41
18
19
46
-34
34
-21
0
10
50
-2
-1
-23
37
29
-6
-7
-6
20
-16
40
6
-20
7
4
-33
7
7
22
-11
-33
56
31
-35
-7
26
13
22
-11
-5
-14
-42
27
-2
37
9
-20
0
-19
15
1
70
0
32
0
28
-43
27
-6
22
24
-22
53
-4
15
38
-24
51
4
21
-2
-8
25
44
-14
13
25
-8
-52
35
-21
-23
-31
-10
41
-26
39
22
5
17
32
-14
1
7
43
-6
9
-8
11
-39
20
15
0
14
-11
-3
18
-5
15
-2
9
5
43
-9
-22
-19
2
20
-5
-5
-44
17
-11
25
5
40
-13
29
-11
2
10
-10
-14
5
-14
-6
0
33
10
5
-10
50
-7
-25
-24
56
5
15
39
-14
9
35
2
24
-8
-19
-14
-22
-14
14
-22
13
-19
43
53
-21
24
23
22
8
-45
22
7
8
0
-14
-2
2
-2
32
-26
29
-26
9
-9
17
-4
-8
-4
-22
-7
17
30
-11
-32
8
5
-5
23
20
39
38
43
-15
9
27
33
21
-52
-29
33
-28
41
-6
-20
-7
19
2
16
4
-7
-19
-31
32
-19
-18
-25
-16
25
-16
-25
-32
-26
-13
-18
0
-8
-4
30
8
-25
-43
44
-11
-15
2
23
5
-36
28
-19
15
18
-14
41
3
-27
-7
-51
17
45
5
-21
38
-11
-4
-3
-52
4
-14
7
-3
3
7
20
-33
3
43
16
12
-44
5
-4
3
9
-13
5
8
-28
-19
4
-11
17
-16
2
-6
35
-18
30
20
21
-13
15
20
-32
8
-17
9
-12
43
5
35
-11
18
13
50
-17
-35
-5
-9
-22
-17
-15
-58
15
-2
-21
14
-10
-19
9
20
23
-20
-11
-9
8
-26
-23
-11
34
41
1
9
-28
-1
-23
-9
29
-7
21
-20
9
-5
28
-2
35
-21
-10
55
-23
-60
-4
-2
-4
10
18
-13
4
-11
-10
11
6
-11
-7
22
19
12
-6
-45
9
20
19
-16
-2
-38
-20
-1
18
23
36
-18
2
6
8
27
0
-29
26
-8
66
11
13
25
24
11
22
15
0
-27
-12
9
4
-8
8
-5
-12
-3
30
5
4
20
-5
15
-13
3
2
-11
22
7
35
-19
5
-10
28
-37
5
-6
15
-3
37
6
16
-28
-17
34
-26
3
44
6
13
19
-23
-16
-7
39
17
-7
-6
36
-27
-11
-11
8
-8
8
-4
-13
-26
-6
5
23
-9
-34
-18
-30
2
45
-3
4
-6
59
22
24
2
28
-11
-15
10
-8
5
-9
-1
5
-17
7
-14
-31
-3
-21
24
-16
-2
-15
6
-7
37
17
9
-14
27
22
23
25
21
9
-8
17
20
5
8
14
-6
-40
-9
2
-21
10
1
10
-2
-19
-41
-5
25
24
-17
24
22
-16
-2
60
-16
17
2
33
-4
-9
-41
10
32
-15
25
29
30
10
-19
39
16
21
20
29
29
21
9
6
11
13
-49
1
-23
14
-6
37
-23
2
30
2
23
26
-17
-61
-7
5
-43
-20
3
33
13
-20
25
19
27
-6
-1
34
-37
-31
-21
-20
16
31
-27
-10
-29
34
-53
7
-39
31
-27
-6
-3
2
-11
-8
37
34
-11
7
-14
-20
24
8
10
17
42
-53
-9
-2
9
-9
-2
-20
-12
-43
-11
11
-18
-51
-39
-45
34
5
2
-27
21
44
-18
-10
14
20
-13
44
46
-18
30
2
14
-2
-13
-23
-38
1
-9
-43
-41
6
-14
-10
11
19
-6
8
42
27
8
30
-1
-10
23
-26
19
10
-8
-6
1
-4
-25
7
15
31
4
0
-52
-9
16
4
34
-25
-20
-30
-3
-23
1
33
-18
36
22
-3
4
-16
29
-12
17
-33
32
-66
22
-10
-16
-56
33
-16
-25
2
-3
-6
-27
10
47
2
-9
-1
3
3
3
41
0
-5
22
-14
14
-12
-14
-30
32
-58
10
26
-28
-18
13
-35
44
-24
-4
-7
24
20
-14
-13
1
-27
-10
32
-8
15
22
26
51
31
33
28
-50
1
2
8
9
-20
-27
-36
10
-2
0
-4
-40
-1
-17
-17
19
-20
-34
-39
8
5
49
-28
14
7
33
25
-27
25
-26
40
4
-18
-6
11
17
-21
50
21
15
5
24
6
-6
16
3
9
6
13
11
-10
-4
-3
-9
24
17
12
36
16
-20
10
-27
33
-1
-40
9
-1
-44
-22
19
-5
-36
32
38
-7
-31
-30
41
-20
28
14
9
30
-16
-5
-29
-8
-9
16
17
-24
-23
-6
-22
3
19
4
0
24
-14
3
-19
3
5
-9
35
-12
-11
-6
43
-14
16
20
-23
-35
-10
-9
22
9
-27
-1
-16
7
-11
-21
-8
-19
24
-42
9
12
5
14
-21
50
-3
15
14
24
-22
2
14
0
1
-12
-25
19
10
-39
11
-8
5
59
18
-41
23
16
4
-15
-14
-30
10
24
20
1
16
-10
-26
20
2
21
-14
6
9
-2
6
3
-19
-5
-1
18
-33
-18
4
6
23
3
7
23
24
-21
54
10
-34
-26
17
8
7
-14
-57
-38
-44
28
29
-3
-26
-11
-19
-13
19
53
44
-19
-47
11
-7
-7
-5
8
10
32
-4
-8
33
-10
1
33
-3
2
20
24
-55
33
34
14
5
17
-8
8
-70
-39
4
-38
-7
-35
7
7
-39
-30
-4
-29
3
-48
-4
-6
6
34
13
-16
30
-17
-27
10
28
7
3
-4
37
32
-23
16
-39
-6
0
-22
2
-9
-55
-63
-42
-28
-30
-48
-1
29
-12
2
-17
20
11
-2
0
-47
0
-1
-6
22
-30
29
2
-16
-45
-45
20
-26
15
-19
-2
-24
12
-8
8
-8
32
-33
21
-3
-22
10
-31
0
4
-42
-46
-24
3
-50
61
16
13
-28
18
-35
1
-2
-26
-12
-17
-34
11
4
1
-32
22
15
-29
-37
-6
-21
-7
15
11
-10
-17
-14
-4
27
-5
-11
-31
-30
-21
-11
-36
-16
33
-7
26
-20
14
-5
6
-27
0
25
-14
3
-26
19
6
-30
33
-14
64
-3
-22
-10
-14
-34
22
-32
-60
16
11
-3
-1
34
26
-4
-13
49
4
32
0
-27
-19
31
-12
-82
-8
7
21
7
11
12
-11
-13
16
-12
-3
9
1
0
17
2
-4
8
14
-12
15
1
9
-28
-5
-6
-20
-11
10
26
-69
12
-11
-11
26
-5
10
-16
-25
34
-20
-22
11
30
-29
-5
23
-28
-14
-36
-2
14
-12
-7
-42
-50
-30
-22
-4
-10
-7
-2
10
-39
-3
-5
-20
38
3
-8
-26
-12
13
-4
-15
-40
11
-1
-12
-17
16
-9
5
-4
7
13
-16
-16
-13
-21
14
-52
36
24
25
6
-20
-10
-19
39
-15
-9
-35
8
9
-10
-14
14
11
16
6
-20
-26
-29
10
-30
-32
-14
-21
-22
-5
16
-1
-33
-12
34
2
-34
-28
15
17
9
-53
-30
-39
28
-4
9
19
-20
-25
27
-1
12
17
28
0
6
-26
4
16
3
2
-37
-5
-7
2
-4
-19
1
19
-3
24
-12
-60
-62
1
17
21
4
-13
-26
-19
22
22
39
-60
-20
-38
-34
-17
-28
-37
-27
-5
-17
-1
-5
18
-27
-2
22
-13
-7
8
-13
-19
-8
-20
-19
12
22
-18
13
22
-19
12
-32
55
10
7
-29
10
-6
-4
-12
-26
-15
21
-31
-2
1
2
-24
-6
3
19
15
-30
23
15
30
-21
-7
6
-32
7
-4
-9
6
24
4
-24
18
-19
-23
24
48
-41
-42
23
29
-58
1
22
-17
13
-1
16
14
5
14
10
-7
2
3
33
-22
-38
-32
-36
-1
31
-11
10
-12
12
-18
9
-3
-7
-25
17
-4
21
-11
-40
-2
-15
-37
11
4
39
-32
22
-2
24
8
-7
-29
1
36
1
-14
16
-2
-13
21
35
17
5
-13
3
-11
0
-28
-29
-42
-6
14
-45
-11
38
32
38
-5
15
-6
33
14
21
11
21
-1
-11
6
17
-23
-18
6
21
8
-8
24
25
29
6
-1
-9
17
3
-9
13
19
-10
-23
-2
57
24
12
6
-30
-1
30
-3
-11
-60
-18
15
29
8
22
-12
-43
-46
-27
-16
42
-3
-26
-15
1
-20
-54
-8
19
-15
-7
25
-4
14
16
11
-11
14
36
-15
31
-19
14
-14
5
3
-52
-34
18
-39
-11
-6
-13
-7
-11
-31
25
-46
-2
12
-35
24
11
12
-32
15
5
-22
-26
9
42
-20
37
22
5
33
-39
46
28
-30
-16
-34
-13
-13
16
5
0
39
6
-18
-1
17
-68
9
-5
-5
32
4
12
7
-16
1
-13
9
0
5
7
-23
-8
10
18
8
-5
-7
0
-16
26
9
-55
33
-13
9
-3
-40
22
-12
9
-20
-3
-46
6
15
-5
10
4
36
-12
-4
22
-31
-27
-11
-22
-28
7
-12
10
-25
-7
-5
8
7
-22
1
13
-40
-20
-17
5
-51
-12
-3
-25
12
-8
14
-35
-20
57
-18
-35
-21
-19
-22
-45
-18
1
14
3
5
-27
-24
18
5
30
-14
29
-35
-9
1
11
-19
-23
-29
18
-7
-25
30
48
24
-76
-3
-28
-14
-26
-8
-14
-23
3
-3
7
-24
-2
25
4
3
-15
17
-36
-24
22
-7
4
-17
5
5
-14
6
37
17
19
-13
-14
13
-56
1
-37
29
21
22
5
2
-25
11
0
-15
8
-21
-11
0
-12
-18
-54
4
-19
-16
-30
-15
15
1
1
7
6
26
25
12
-17
5
5
15
7
-18
7
15
-13
-17
12
2
-19
-28
-30
-14
8
-12
6
-15
11
2
12
-3
-28
3
46
-23
7
-37
7
-11
-27
-12
-36
12
6
-15
9
21
5
-4
-6
-16
8
-3
-19
-4
29
0
-20
-10
-1
18
-2
27
-11
11
-6
37
-21
-3
-12
-16
35
27
-6
9
8
-16
-5
-2
-6
-3
-24
-13
-15
-3
-2
-32
14
-3
-1
24
-43
-34
26
-23
6
-40
-20
49
17
-21
22
38
8
11
2
-23
-9
40
-35
10
27
-24
-12
-29
10
-8
-14
11
-19
11
-29
21
-24
-34
-26
-17
11
3
-8
-28
-27
-20
9
10
16
-9
12
-7
19
11
8
19
-4
-12
-11
-23
-48
14
23
37
36
4
16
34
-9
29
10
6
-13
-19
0
17
-19
13
-10
0
29
-2
-34
-35
17
12
-10
-20
15
-20
-26
-20
5
-6
13
-45
-12
10
-14
27
15
-12
-8
2
-11
-28
3
-19
11
-4
8
17
0
3
36
-37
-4
8
16
-12
10
-12
-13
13
10
-23
-4
20
17
25
-13
5
7
-71
-7
-8
-29
12
1
-26
-8
28
-22
27
-18
4
2
16
-25
13
-6
-9
-16
9
4
-26
-17
22
16
15
-23
-4
13
-5
38
1
2
18
28
34
17
-22
31
6
-6
10
0
20
3
-13
11
11
11
22
-64
2
-41
18
-21
3
-4
22
13
-29
-28
12
25
-31
-15
-24
8
-2
9
-16
-15
-5
13
-20
14
19
4
-4
7
48
1
-12
-22
5
5
43
42
15
-3
2
21
-20
43
0
19
9
37
15
-6
3
23
-8
-58
-7
6
-23
14
-40
29
9
25
2
-24
0
-15
-44
-8
-17
-16
-9
0
22
-1
25
-29
-15
-31
1
-9
7
8
-22
-39
5
-3
16
-28
-31
10
-50
-36
-24
9
34
5
-9
17
-39
4
-17
57
-16
-26
26
3
-15
-3
-14
-23
-10
24
-33
-8
29
-15
-4
5
-13
-7
-8
11
-15
26
-17
-14
35
14
-14
23
-13
46
9
-7
-21
-4
-24
-28
19
-13
-22
-8
-11
-5
-5
31
6
-38
2
20
56
-69
-13
-3
12
-4
10
-26
31
2
16
34
-32
16
-17
6
-2
5
3
-27
-20
-35
-45
12
18
21
-33
-15
-27
-8
-16
-3
14
10
-63
-29
35
26
9
-2
28
-5
10
-38
17
-6
-23
21
19
7
14
10
-22
-3
6
25
16
-17
-6
33
-9
26
-39
-14
-1
-6
22
20
22
16
-19
11
-11
23
20
-36
2
11
33
55
14
-37
27
33
0
5
-18
-16
-11
10
-52
28
-1
-5
6
-11
19
-16
-28
-34
1
44
-31
18
-5
-20
17
-32
-21
39
-44
-5
62
41
-25
35
-5
-16
-10
-3
-16
27
17
-22
41
-8
46
2
-5
4
14
-10
16
8
-5
-9
30
19
-4
-13
6
5
-31
12
-23
5
11
-24
-2
-12
-26
-27
-8
6
18
20
-17
6
-44
15
-22
0
8
-25
21
-16
15
-23
3
-35
6
2
4
32
-3
-17
21
0
26
4
-9
-12
-17
12
-5
8
9
11
-30
18
15
11
-3
26
-3
18
-6
10
57
-34
13
-21
-9
-4
31
10
-14
14
-2
-6
-4
21
-16
46
29
27
1
19
-27
-14
-10
-18
-46
22
6
-5
25
41
13
8
2
19
22
-36
-18
12
23
16
23
7
1
6
-13
-12
10
-26
-43
33
31
-1
-18
10
32
-14
-28
-42
30
4
-23
6
-11
-24
-2
-7
-40
13
9
-7
5
5
19
36
7
-15
-10
16
28
22
17
-10
8
3
-26
19
-11
23
-16
-22
-11
26
-40
-53
-17
16
-42
-9
-15
-8
33
0
9
-3
-20
7
77
34
16
28
-2
-26
13
-3
-19
27
33
-3
21
0
8
-2
14
2
0
-24
-6
6
-29
32
51
-8
-9
3
15
30
-1
48
-8
-3
-30
-9
44
22
-18
-14
-19
-22
-16
-21
-8
-14
-30
3
17
-10
5
14
-15
20
-13
-42
18
-3
38
8
37
22
19
-1
-7
35
7
11
11
-22
-15
10
-2
-36
41
15
-1
25
-1
-2
9
31
28
0
46
-1
42
-22
20
-12
-27
-1
-7
-12
-78
20
18
23
18
24
-28
-7
22
-16
-13
-11
11
-29
-2
24
-6
4
-8
-7
-20
41
-10
20
-33
40
6
-23
-17
-22
3
-15
-2
-16
-7
1
-1
3
2
7
3
11
32
4
-24
53
5
1
0
-28
10
-10
-14
9
4
20
15
20
-44
18
-23
-15
-18
-21
23
9
-20
-16
0
-7
23
1
4
8
-21
20
-54
-13
-6
34
8
-21
-44
9
22
-16
20
9
-32
-39
9
17
-14
-11
-14
10
-12
33
17
-5
43
4
38
3
10
-10
9
5
-9
-22
-7
19
24
-9
9
-28
-8
-56
-8
-6
-16
8
-14
0
-20
55
-46
-20
8
31
-33
33
22
-1
-4
2
-40
44
48
-17
-10
-30
-23
-16
-18
-31
32
8
-30
-13
11
19
2
5
12
-19
40
1
-19
8
36
-4
29
-13
-22
33
-12
-20
19
31
3
-2
13
11
0
25
-11
12
-34
13
-19
-4
5
13
31
0
19
25
-8
13
-28
14
-6
-1
-28
-8
-26
15
-31
-25
-16
-20
-3
5
-21
-1
-10
20
15
16
10
46
-2
-18
36
-3
-7
22
-29
2
14
-45
-11
-12
-8
2
1
11
-14
22
-7
-31
-11
-4
31
23
6
-3
-22
-30
-13
-15
-3
-18
25
24
11
6
-11
-4
19
15
-22
12
-13
27
-22
15
14
-25
-20
-24
-3
7
-49
1
-9
-32
-33
-39
-25
-6
13
-21
-9
-2
20
0
33
-7
-3
0
16
17
-23
26
38
-18
-20
-4
3
-3
12
32
13
-1
-8
15
33
0
-16
30
-26
-5
-9
7
17
-1
-9
-7
-35
8
-19
0
9
-22
-12
-19
16
28
-6
-36
-7
10
27
24
6
21
7
15
12
-10
-29
4
34
19
0
19
19
14
-22
19
-9
6
-21
4
-32
9
63
11
8
-1
33
17
-1
12
35
24
31
26
13
-13
-12
1
1
-17
2
-26
3
3
36
34
-12
25
-5
-22
14
9
-30
-38
7
-28
-16
-27
40
32
-14
-18
-2
48
24
10
18
-7
35
-4
43
25
7
33
3
19
-16
-29
-41
44
-7
31
19
-17
-22
-30
0
43
-25
6
-2
22
-15
36
-20
-18
-17
-19
21
-1
15
40
36
28
-5
-7
-31
0
10
36
48
-16
7
22
2
19
17
-1
-32
7
9
31
-29
-2
-7
-2
11
6
-4
-3
12
49
32
2
9
15
-16
10
-33
13
-1
-18
-46
-13
9
20
-8
10
-6
-23
-32
31
13
20
21
19
-41
22
-18
-89
10
3
13
-12
5
28
-13
-8
-27
6
3
10
44
43
-16
6
-31
-18
15
1
-8
27
-5
23
-14
-1
18
-7
-21
18
-35
8
5
-38
-8
6
0
5
-46
-21
13
-1
-3
4
0
48
3
-3
-6
-43
29
3
-35
-9
-31
-49
21
11
17
-16
38
-14
-7
-25
-10
-1
-4
-27
-7
8
-13
-25
3
16
-20
-30
-27
33
-27
-15
-17
-35
29
-5
-12
12
24
23
8
-41
-10
-36
16
-14
6
13
35
-10
8
17
-3
-13
-24
25
-1
29
22
10
3
14
-6
-15
-28
31
-6
-9
-40
-25
3
15
30
-16
17
7
-4
20
-8
-17
23
23
-11
-24
-41
-1
-26
13
-10
-7
16
12
-24
37
-6
-27
-45
23
-31
-6
-37
-1
4
13
-19
-23
-20
22
19
-15
-15
-2
8
-7
-18
-27
-5
-128
-8
59
47
-23
-42
-18
-14
-9
-48
-10
-26
-13
-28
-16
3
22
-6
10
-14
-9
25
6
2
22
26
-24
27
5
-7
-17
-5
28
11
-11
-22
10
11
-6
15
-5
-16
-18
8
-32
-21
7
-7
15
-30
47
-17
6
-4
12
12
-1
-10
-12
8
-13
-35
24
-40
-17
-12
-30
-33
-19
-10
-52
-17
-2
19
-6
1
-21
8
-5
49
-13
-38
18
16
11
-38
21
-3
-34
-17
13
2
-5
-6
-29
-34
-44
-1
-34
-3
46
-37
0
-19
-1
-6
-21
-24
-9
-7
-27
10
21
17
25
-20
-36
-9
1
13
12
7
15
2
31
-16
5
-41
11
19
27
10
32
-1
5
-29
2
29
-15
10
11
-16
2
-20
8
21
-40
-7
35
33
-17
4
2
26
29
11
-14
18
36
-17
-21
-16
-21
15
13
43
4
28
-15
-38
34
-1
-1
-29
-54
15
26
2
-31
4
8
15
8
12
-1
-2
-19
7
12
-17
-33
-8
-31
26
16
21
9
3
-26
-25
-17
-7
-10
-42
33
12
24
28
-8
14
-11
16
13
-6
-9
21
0
-9
19
-23
-15
9
35
-11
-10
-14
1
-3
-56
21
34
-9
16
-3
-14
-10
-10
-1
34
13
15
11
-10
2
41
-17
33
-29
22
0
33
21
2
12
15
26
-13
-1
2
28
-23
-18
-3
14
-47
9
1
-1
3
-1
11
21
29
-1
18
29
12
-9
-41
-26
16
34
-1
-9
-1
-42
3
-2
4
19
32
2
0
-7
-5
29
6
35
26
-5
5
-10
-5
4
7
21
-50
-29
53
-14
25
7
36
17
34
-30
-40
1
-4
-19
2
-4
-23
24
-30
13
15
-40
30
-49
7
30
20
-30
-1
3
-29
-2
29
17
-19
-7
-47
18
-5
12
15
-2
23
16
-37
29
12
-14
28
8
-1
-21
-12
-23
16
19
9
23
-18
46
36
-35
45
20
-11
-30
1
-15
-24
-33
-19
29
24
4
-14
-3
20
-32
-9
-8
15
-20
-10
-3
-12
9
-58
-18
16
23
2
11
-24
-17
-4
-31
7
16
1
-22
23
-41
4
-4
-34
11
2
-20
13
24
12
-6
4
-26
-14
-24
-19
-14
30
-33
9
-39
12
18
8
-2
-2
2
0
-24
6
-16
-21
-28
-7
-31
12
-7
-38
-24
-26
27
-25
19
-23
10
8
26
23
21
26
31
-12
17
1
25
18
-42
36
-29
-61
7
11
15
-28
-28
-37
5
-28
3
-15
-5
-28
35
27
-23
16
-12
3
-5
-17
28
-3
-33
11
-33
11
4
-21
-26
-32
28
-16
18
-20
27
-20
11
22
8
17
20
-16
3
-37
2
-25
-50
18
4
-34
34
16
2
17
-21
-15
7
-22
2
-40
-33
-10
4
21
0
14
-11
21
-6
18
2
0
-12
-4
4
-38
-47
-17
1
30
-48
-8
-24
-5
-19
19
30
-1
-6
-10
-21
-9
-24
-9
5
-11
-21
2
-32
-15
25
-52
-35
33
-32
30
-9
-52
-9
-60
19
0
-40
-33
-3
-37
14
-76
-12
-13
-16
13
-20
35
-58
0
12
26
-1
14
24
-3
12
-1
23
-28
-6
-1
0
-14
12
-30
23
23
15
-30
-12
-7
-12
-24
-5
11
-13
19
14
4
8
-17
-2
6
-1
-41
-16
-26
1
21
-58
-5
9
-22
-29
-3
-17
-1
4
9
-23
-36
9
15
10
-20
14
-39
6
35
-11
4
-7
-2
-52
-56
-16
-13
-3
20
-29
-29
-23
-2
4
-13
18
6
9
10
-22
-26
15
-5
-18
11
-22
-26
-1
3
33
6
-2
-2
19
3
-35
24
-8
-15
-9
-26
29
-4
21
10
-25
1
-6
39
4
-22
-2
15
30
-49
-20
-26
-29
-38
10
12
8
2
-13
-18
-61
10
-9
-29
-13
19
38
-4
1
-5
-23
15
9
-32
26
-16
-18
18
-11
-10
12
-14
1
-14
-17
38
-8
2
-9
-23
5
-30
26
1
21
-20
8
-44
25
31
6
-34
-34
31
-20
23
10
-8
-2
-42
6
-4
-13
-47
-12
-5
-37
-11
-22
7
-15
9
4
-3
18
3
-2
-33
-18
-8
-19
1
-30
1
-1
24
1
6
5
2
15
-13
-3
-7
-10
39
-29
-24
31
-6
14
8
-35
0
-33
-64
14
-6
-23
-4
-21
-23
-5
-39
-32
18
-38
0
18
-34
13
6
-13
-37
-9
35
-6
-37
-3
20
-18
24
33
13
20
5
-17
-4
-19
-4
-7
-14
-27
4
8
-22
-15
15
-7
-18
6
0
12
-21
-35
3
-1
-23
12
-34
-10
-28
8
21
-3
-23
-27
-15
11
-5
-16
-29
14
11
25
-3
40
-6
-32
-29
-13
8
-5
-5
-20
3
0
-3
-19
-9
7
14
-5
-10
-7
-27
-7
-35
-18
-17
-13
-58
-25
22
19
-19
-33
-45
4
-19
7
23
2
30
-18
22
11
-38
-64
-36
-6
-20
-44
-21
39
-22
2
27
16
-13
5
-1
-3
5
54
-37
17
16
-16
17
-26
4
-4
-31
19
8
-11
10
-11
-21
-4
-45
5
30
-29
-33
5
-29
4
-11
-23
9
-33
-23
24
18
-29
2
-3
-38
-29
1
39
-1
8
-16
16
-38
-23
14
-34
-36
-4
4
-9
31
-9
-25
-24
-14
15
27
-11
30
-33
-27
-32
-29
15
-2
6
-49
-17
5
-51
-19
-17
-29
-41
19
43
-4
-7
-50
-6
18
-42
46
26
-18
19
26
-40
-12
6
-7
22
20
-4
4
-21
18
-76
-69
-25
26
1
-65
-9
20
-16
-8
