-0.03384817
-0.02989397
-0.24032404
-0.27117673
0.32792327
-0.19617556
-0.11619955
-0.19767393
-0.05054970
-0.39085698
-0.32191798
0.19439061
0.34270096
0.01368893
0.16360459
-0.40123102
0.58751154
-0.32101181
0.22532323
-0.51029348
-0.05041264
-0.23986562
-0.03453186
0.40459794
-0.10072246
-0.00108625
0.27512380
-0.25289342
0.18963097
0.25614947
0.54761845
-0.00343539
0.12514253
-0.21187437
-0.01468561
-0.14357942
0.36899659
-0.17841023
-0.04173634
-0.01106925
0.50168544
-0.19957201
-0.20076354
0.13091061
0.08382419
-0.46529648
-0.01285941
-0.10791153
-0.25606447
0.74575877
-0.48001584
0.07675149
-0.02501333
0.30798542
-0.00551237
0.10522477
0.10439201
0.01369797
0.12350890
-0.01222466
0.51745230
-0.10329605
0.17580038
-0.30503279
0.35316831
-0.04909814
0.55215514
-0.22747336
0.26044637
0.48238739
-0.09386215
0.13925351
0.03465493
0.23899074
-0.28401703
0.11718703
0.44322085
0.49110949
-0.14567266
0.29374337
0.14056720
-0.38499218
-0.27480227
-0.06742903
0.05407959
0.52123117
-0.14999668
-0.23918599
-0.14429151
0.08526881
0.01305982
-0.13738403
0.10044239
0.08586434
0.03345861
-0.13141786
0.19543609
-0.14386053
-0.01683700
0.21472819
0.19559351
0.17139000
-0.10521545
-0.35036203
0.49609581
0.15743893
0.26237482
-0.49414474
-0.07322331
-0.25224411
0.08202015
-0.14766642
-0.13407113
0.11013607
-0.27827618
-0.42392874
-0.00477006
0.33772683
0.16312955
-0.19780496
-0.33018392
-0.31696004
0.05390407
-0.18662590
-0.20253117
0.24526775
-0.36724198
0.16182189
0.19084276
-0.06919326
0.07995412
0.33351073
0.11439490
-0.17767829
0.38839334
-0.13242429
-0.04098177
-0.03889713
-0.20950484
-0.04061133
-0.11561499
-0.05872304
0.07561211
0.34200269
-0.08674436
-0.25710407
-0.41411641
-0.17588465
-0.44999894
-0.06182775
-0.50605768
-0.04968976
-0.07671747
0.20635366
-0.55497438
-0.07312173
0.04754952
0.25424850
-0.28670934
-0.16071570
-0.46689913
-0.16138592
-0.21126443
-0.10030574
0.14840050
0.06437255
0.37510321
0.20831597
-0.27519837
-0.13283736
0.25177944
-0.14289543
0.05501752
-0.55997068
-0.04644676
-0.45789713
-0.16500171
-0.34077948
-0.19458792
-0.06875026
-0.08078643
0.44920459
0.32910436
-0.20302592
-0.15366071
-0.29057103
0.32762405
0.14608139
-0.12859125
-0.09717087
-0.10187101
0.12041239
