0.00854355
0.00917090
-0.03963624
-0.00625651
0.02809222
-0.00360060
0.03233570
-0.09898831
0.01871009
-0.02106086
0.06797954
-0.00637420
-0.02113141
0.03395668
-0.05687724
0.01814353
0.01759506
-0.05389991
0.01848824
0.05080162
0.01955983
0.01371900
0.01806034
0.05937067
-0.00415574
0.00492266
-0.06610236
0.00492722
-0.00780894
0.06403443
0.02742708
-0.00908947
-0.07061262
-0.00873268
-0.03918572
-0.03740055
-0.01768337
0.04411340
0.00798727
-0.04374855
-0.02705414
0.01289159
0.06838431
-0.01273526
0.05690301
0.04561632
-0.01772146
-0.00099879
-0.04293614
-0.00898881
-0.00469370
-0.04867942
0.04258799
0.03740824
0.03749755
-0.01007477
0.00629033
0.06182891
0.05457291
0.03852808
0.06934631
0.00823542
0.05665368
-0.01965758
0.01044281
-0.00114721
-0.00517501
-0.06897283
0.06028593
-0.08539228
0.04088791
-0.06671865
-0.03956948
-0.05717245
-0.00902094
0.02290355
0.00511481
-0.01802657
-0.02215765
-0.03156567
-0.04963529
0.04844918
-0.06723851
-0.00023525
0.04788325
0.03939530
-0.02418890
0.03002525
0.01803827
-0.01231305
0.03779219
0.03623334
-0.03751403
-0.02079120
-0.05779168
-0.04125566
0.02747478
0.02230355
-0.02231473
-0.00178950
0.00312445
-0.05553440
0.01720747
-0.08398299
-0.03874171
0.06159205
-0.04607771
0.00250196
-0.07643242
0.04099658
0.05191832
0.00709264
0.06729592
-0.05815938
0.02798210
0.10315870
-0.02690654
0.05552270
-0.04256671
0.01425219
-0.02400113
0.13043065
0.08718398
-0.04400269
0.03713293
0.11250995
-0.01841354
-0.06872394
-0.01442903
-0.07867589
-0.05430510
-0.01462252
0.00864462
-0.13256373
-0.05310487
0.06901335
-0.01242475
0.15050930
-0.09015018
-0.07714473
-0.00679383
-0.03143200
-0.06063077
-0.05240329
0.07100735
0.07813307
0.04474039
0.00082572
-0.03251100
0.04954318
0.02639434
0.08136148
0.06111069
-0.04607354
0.03017221
0.02510206
-0.02817356
0.02595930
-0.06078454
-0.04752791
0.01713462
-0.00802910
-0.02077631
-0.02596442
-0.01675153
0.07647362
0.01971284
0.02109852
0.03723156
-0.09591259
-0.06313397
0.04476696
0.06227836
0.02867601
0.04497676
0.03153595
0.03355651
-0.06851035
0.06338094
-0.00340392
-0.07184712
0.03801979
0.00753730
-0.07598521
-0.00196202
0.01429531
-0.03168104
-0.02659532
-0.04318544
0.00656867
-0.09737330
-0.01779855
