-15
-13
-7
-50
-19
-2
46
51
-24
-7
-45
13
-10
27
13
-35
-31
-8
9
35
36
-18
47
-4
5
-34
63
-33
45
33
36
10
13
7
6
28
-13
-60
-31
-49
-11
8
-16
15
13
4
3
-15
-35
47
56
58
97
-42
45
5
36
18
-13
-48
-13
-43
-8
-7
4
-36
-19
10
26
-21
36
-1
-31
30
13
20
37
-20
-29
-35
-38
34
4
48
32
-21
-9
68
10
-24
0
22
88
-36
1
-4
20
23
-12
34
-24
-39
12
-12
26
27
-1
-12
-22
-16
42
-47
32
-37
44
-3
-26
8
11
-3
-39
40
-37
42
9
12
7
-10
21
-22
-19
10
-39
23
30
-32
-14
-20
-31
38
-84
1
-30
-46
-7
29
87
45
10
6
-15
10
25
-1
14
-5
2
-6
22
-4
7
65
-37
-47
-49
-37
16
0
-3
21
54
-8
2
25
-47
-7
44
4
28
-5
23
-30
-9
3
67
-39
-69
-23
39
33
-35
44
-37
-13
-24
-33
17
-41
-2
-69
5
3
-21
33
-14
-41
41
-3
-44
-33
-30
-20
61
55
-43
-13
-48
25
-41
52
-35
67
-39
7
39
1
17
36
-18
23
-32
-47
-4
10
-6
13
1
13
-16
-3
-6
-2
-33
17
-12
-7
26
5
2
-14
-89
65
22
30
-1
-15
-5
-26
7
30
21
12
-48
-20
-19
-29
16
3
-2
11
17
-14
41
79
-33
-21
7
-54
40
-28
-17
-74
8
-48
-3
-43
-31
14
-16
4
-12
-53
45
-10
59
11
-27
-24
-24
-39
11
-59
9
22
44
46
61
38
33
-3
10
-18
-22
18
65
-9
-35
29
-25
-33
32
0
-14
-3
23
-37
17
13
-72
20
-40
59
46
-15
-14
22
44
-31
-65
20
55
-47
-48
74
28
-54
57
-17
25
-5
27
-2
44
1
40
-26
58
52
-17
15
66
32
47
2
77
-10
-13
41
-17
70
34
-10
37
0
11
10
-39
3
12
-90
18
-22
35
9
14
-18
22
26
2
31
15
-41
23
-2
-6
-29
-40
-3
8
61
32
12
-55
-48
-7
33
-3
-27
9
0
3
-45
34
-3
20
10
-15
24
-51
-63
-24
10
23
28
-12
4
26
-7
-2
-15
-1
5
-26
69
-30
-59
-7
49
-14
5
-60
-50
-22
50
-19
27
43
43
-36
-29
-4
-4
-9
33
-3
-9
-38
-7
31
-59
39
44
55
-3
57
-15
-26
2
17
-40
63
38
-54
27
9
31
-5
-28
34
-8
-26
8
25
-37
46
-20
12
-29
-19
32
-23
5
-16
34
-12
23
-8
35
28
-6
-11
-8
43
17
0
-44
53
-55
-32
39
4
-22
24
9
45
-31
27
-4
20
8
40
50
-17
23
37
-51
49
3
-22
-4
-4
-24
28
-37
-45
-2
-24
-5
33
7
19
-18
32
58
7
-14
75
-11
-4
40
33
11
18
-12
-19
26
-9
48
33
-8
8
48
-38
-64
-10
26
-12
-66
-55
21
40
20
-17
-1
-37
1
-3
6
43
-22
12
12
48
18
4
17
-11
24
6
-27
-40
45
2
-6
-11
45
37
-9
27
-14
-28
-5
-22
21
-40
1
-28
73
-13
1
-5
18
-65
26
-22
-42
-29
64
16
4
-7
-5
22
-25
-22
-17
-16
24
-4
8
52
7
44
-7
3
39
13
-6
13
-44
75
35
-17
10
5
-23
-28
23
-37
-11
11
-46
-27
-20
-55
-15
-20
7
7
37
-8
-7
-5
46
12
-39
-7
49
-11
20
38
-15
3
-34
7
11
26
13
37
42
0
32
-41
-38
66
15
-2
20
18
-38
18
-3
-50
-10
12
10
-21
-7
-51
-29
3
8
-17
-52
31
1
17
28
1
13
-4
-9
-10
31
-59
17
-8
21
4
-2
60
-12
-62
16
13
-15
-26
-22
-69
10
-25
1
-31
3
44
-70
38
39
-35
37
8
-12
-2
-6
-28
36
53
-11
-19
-22
26
3
-16
-10
28
-59
45
-38
-20
-23
-43
24
-43
-43
52
83
0
26
23
-29
3
-41
40
-39
12
-51
8
-26
21
10
-26
-46
74
43
-31
-32
24
-42
-40
-3
18
8
-26
53
14
34
4
19
1
-38
25
25
-33
-48
35
66
45
21
16
-11
20
7
-30
-40
-29
20
-58
5
-50
-37
-29
12
-26
12
-58
-11
34
24
48
36
11
-27
-23
-1
34
16
13
34
-29
-1
10
15
25
-6
12
30
20
-4
-87
56
-27
11
-48
-31
-81
-82
-20
-39
8
-43
-62
46
-47
-1
-29
21
-8
-82
-23
33
-39
-77
-14
24
-11
33
-8
-12
0
-38
3
6
-67
-5
-38
21
43
-3
48
2
9
7
-36
-4
-20
27
-10
46
-2
27
2
21
-11
-18
-12
39
40
-32
27
-47
22
-18
-35
16
-2
-35
14
6
0
33
60
-39
-4
-22
-18
-15
-13
-16
25
-57
-57
-2
-25
57
40
-11
15
-14
-15
59
12
7
-12
-60
-21
8
-50
38
52
4
61
-42
58
45
0
23
-43
33
1
-34
15
-11
39
5
-7
-48
-15
-84
9
22
-31
-8
43
-35
-38
-6
-60
-41
32
43
38
7
-51
-4
-46
-6
-15
-24
-11
57
-37
13
17
28
-28
-10
7
63
-36
-82
-31
-9
10
-49
36
-7
-33
10
-10
24
11
6
-19
47
-11
65
8
23
-59
28
-47
-16
-2
-46
26
6
-8
45
8
44
-32
45
4
26
22
-17
23
-16
-20
-30
-4
36
-30
-19
84
-28
-7
-20
0
-44
42
-67
34
-27
-22
-4
6
79
54
5
-1
-25
70
48
-32
-26
-54
20
10
-37
30
39
3
22
7
-4
15
30
-25
-39
23
16
-6
-34
-22
-12
-1
17
-13
44
5
-11
6
-21
-54
28
-18
45
-49
-10
4
70
-14
3
-21
-80
-7
11
13
-29
-34
39
12
1
-15
2
24
-21
-11
-31
63
7
43
-10
-13
68
36
-15
30
0
-9
28
-8
-42
-26
-2
-37
31
34
7
34
-44
28
38
-33
50
1
-36
30
37
-27
-3
0
-22
10
38
-36
-14
6
46
-66
18
34
-41
5
47
-29
14
-1
-22
9
-9
-13
-24
-12
17
51
-25
-4
-14
66
-13
2
-14
-37
5
24
-18
71
-39
-43
56
61
-52
-21
56
-2
-25
13
-37
35
-17
48
-30
34
-41
38
-19
6
-48
17
-36
-59
30
5
48
-72
31
-10
14
10
-25
-50
-1
20
1
-15
-32
18
21
-15
5
-5
-96
-56
23
14
-20
53
48
-30
81
35
25
-20
-22
35
31
-44
2
12
60
-45
-23
-4
-7
21
-56
-33
28
-19
9
42
-95
-52
44
-32
-54
6
13
-27
-73
-22
7
7
47
60
-17
-1
2
32
-29
16
-12
-8
14
10
25
54
25
32
-12
-64
-31
-2
-26
-42
-2
58
10
10
-27
12
-60
-41
-46
-23
-67
-30
31
0
68
8
-12
-19
2
-17
2
-33
10
3
-52
-25
9
-65
40
51
34
-26
-16
-42
35
-29
71
5
15
31
-47
-33
86
-52
18
93
57
0
-8
15
22
-14
9
-35
-29
-14
-45
-22
-9
80
-11
-12
-2
82
31
-24
22
2
9
-14
-47
-12
18
13
-35
47
-1
9
-4
-87
38
-8
14
-1
4
-20
-54
54
-30
24
-23
12
62
21
19
-39
-12
52
44
40
-49
-45
21
-8
45
-21
-60
-17
-3
-24
-5
3
15
-31
10
5
-47
-27
-8
-35
-46
13
3
-14
26
-27
-21
47
-29
-44
-29
72
-7
75
5
28
-15
-18
-11
1
-58
37
-5
-21
7
46
51
27
-13
13
23
9
-27
-46
33
-76
-16
10
-9
-20
-42
71
-27
-46
19
-18
-38
16
-45
-50
-44
11
75
-30
25
32
1
41
-22
-7
-63
18
-54
26
42
-30
1
-21
37
-13
6
5
-20
86
8
41
20
-21
-37
19
-36
-31
30
47
44
-9
-6
-13
0
23
-13
15
41
-12
-44
25
17
-29
-73
19
27
-27
8
-10
-9
-31
-15
-26
52
-43
43
-3
-45
-4
16
8
31
29
27
-50
-17
17
-31
-22
-7
41
30
-46
15
63
-21
-88
-29
-18
8
-57
13
12
-26
-56
40
-27
65
-8
41
-25
17
0
-58
-11
-6
3
-41
-13
-8
-18
-3
60
-17
-45
3
-55
71
26
26
-62
25
9
-45
-6
-11
64
40
2
-31
7
-54
-19
13
9
-9
44
-40
-36
9
-33
-11
-3
14
54
6
-30
78
-17
37
-23
61
48
83
-70
-54
-3
31
-56
-18
-63
-53
-12
-12
37
3
-26
56
-26
-15
-26
-40
7
-12
-64
40
-59
-39
7
43
-4
-21
-13
18
-62
-36
14
53
-28
48
40
-15
19
-35
-22
42
32
32
9
8
2
35
-88
36
-37
-9
4
61
-24
29
58
1
27
10
12
-49
37
-16
6
10
-82
-39
-74
-24
32
19
30
67
3
66
5
-14
-1
-15
-37
-1
-21
50
26
-31
-14
33
14
52
-22
8
43
-46
-47
-34
39
47
-44
2
43
34
-28
-35
-9
-21
-22
-32
-28
4
-16
-11
3
20
25
-30
14
57
-13
4
-5
-33
-16
38
46
22
-20
-81
-18
98
2
-81
-20
-11
31
-33
-11
-49
27
20
65
-19
-23
-9
-23
-24
36
-20
38
-58
-88
-13
9
-99
-38
-43
14
-24
59
50
12
-13
62
3
37
-13
14
-19
-8
-13
24
-2
-77
10
-14
33
13
-51
30
34
31
-63
0
-15
45
-4
39
-32
-4
-24
33
-48
48
8
36
10
12
11
8
64
-50
25
-18
1
63
-10
55
2
16
7
-47
33
32
3
35
-21
19
-35
8
-17
-52
-19
41
-55
-64
-18
54
-45
18
16
31
-17
37
21
-20
-26
47
-50
57
9
60
47
-51
2
23
2
22
-52
-12
-2
-46
6
-21
-10
45
-80
-92
-5
76
40
-19
13
-40
-57
49
-77
11
-45
8
-1
-2
65
-7
2
-24
-65
-73
22
-25
4
-46
1
-31
2
3
93
1
-5
65
-34
-45
12
-37
23
4
43
-22
-35
-9
20
30
-32
-22
12
-1
20
35
41
-4
-57
-8
-26
-38
58
15
5
-27
-1
-22
20
14
-1
-10
32
-22
-45
-43
26
22
3
-3
62
31
18
-6
-7
8
-39
27
-54
17
14
20
11
19
47
24
-48
13
-24
-56
24
-48
3
-51
5
-33
63
-28
-10
19
-10
1
14
73
-29
38
-29
-46
-27
-4
-65
1
21
19
30
10
34
-41
30
13
-21
48
46
-34
6
-57
-24
-49
-26
-91
-6
23
-77
57
-2
-51
1
-3
-63
5
-62
0
-20
33
7
-27
-13
13
31
1
-33
2
-40
-45
31
49
57
-15
35
-11
6
-9
17
25
5
12
29
-3
-21
-60
53
-27
9
-54
-11
28
31
-4
60
40
28
81
-53
38
-54
19
6
36
-55
-23
-43
-61
41
14
8
41
56
-20
72
8
12
-26
14
-42
19
-13
57
55
30
48
-36
-1
13
-9
34
-19
-6
-59
-78
-18
-8
-34
-29
1
-54
55
-21
4
48
40
-30
-16
-59
-26
-19
-39
-12
-25
47
24
18
9
20
5
9
-21
-26
-64
0
-32
16
-57
-14
36
34
29
-12
-33
7
6
-21
16
5
-43
-30
39
-5
29
-7
11
-8
-40
-4
52
17
-31
7
9
47
24
18
-10
-1
0
74
-18
-1
-23
36
-10
-43
36
-59
2
18
35
48
-10
-59
26
33
35
30
-32
65
41
8
-65
-6
-7
-22
26
10
-42
15
2
38
43
-38
-1
-3
-15
-33
52
-23
-5
11
-43
-35
32
6
33
-12
-8
-70
8
-32
16
27
-39
19
32
-33
22
4
14
15
15
-7
-16
46
3
-11
-39
-1
12
35
5
19
-74
-17
-34
-10
-69
19
-10
28
9
-1
-14
13
-15
0
-36
-36
35
44
0
14
-8
-65
-23
-22
2
-19
38
33
25
-5
59
21
52
-48
16
15
-40
6
18
34
-9
-22
-3
36
-13
-43
42
39
-5
-56
-27
-2
36
41
-3
-37
29
-59
-5
-10
-56
62
-18
-33
19
6
-41
-54
-6
18
-27
28
-20
1
-25
-44
26
15
26
45
14
23
-37
42
-61
16
-13
-2
-3
6
-26
34
-18
29
-10
5
-45
9
-18
-9
22
-36
-30
52
-6
3
-27
24
-4
2
55
23
7
39
18
-14
-31
19
7
-34
-13
1
32
71
-30
-30
-28
3
-45
44
-39
14
47
42
-25
13
14
18
-12
15
-92
12
9
25
4
-16
-35
32
101
49
-5
34
-27
38
13
62
-37
-9
-74
1
-26
-44
34
-13
34
42
-10
-19
8
36
39
-42
36
39
60
18
53
-48
6
77
19
23
12
3
42
39
5
45
-18
4
-6
-46
-13
-34
8
-44
-28
43
-6
34
-61
5
-64
-8
-71
10
-57
-11
-16
14
-52
5
-22
-15
10
-22
24
22
-1
13
40
-34
58
1
47
-27
13
32
28
27
50
-88
25
-1
3
-66
-16
-17
30
-45
11
-40
50
-14
-14
36
56
-27
62
-58
-21
-10
10
-18
23
-74
16
51
-53
-9
21
-27
-5
6
48
-72
6
-9
-28
20
50
-20
-51
39
24
7
-9
-30
-25
43
-25
-11
-25
29
-34
22
27
-10
19
26
14
-35
88
-13
3
-26
-6
-24
56
46
14
66
8
-39
33
12
1
-18
28
-15
-5
-18
-38
-3
-48
-23
-65
-66
22
59
71
-3
-29
-21
-4
-4
15
3
33
-24
-32
-3
33
34
-55
15
6
-11
30
50
-67
25
-23
17
-24
12
-59
-34
42
-3
28
-14
-50
60
-9
4
8
-25
-17
-35
21
77
-6
-44
-17
82
-34
23
57
-22
-29
-9
40
48
-67
28
18
-74
25
19
44
-22
-19
-35
2
44
-30
47
-43
47
-4
6
10
-30
54
83
66
26
39
-76
61
-70
32
9
20
5
-38
-33
-51
-7
14
-47
56
-26
-20
7
14
-26
-39
0
-39
5
3
-7
53
-19
74
15
-12
44
-22
49
-21
-56
-2
-11
14
68
-26
-29
-4
15
32
-41
8
40
-11
36
3
-25
13
35
-54
-49
-35
16
-79
56
-12
-27
-16
16
-72
35
72
-8
1
-49
7
64
-7
-1
1
29
13
-43
64
27
-29
-60
28
38
10
49
-38
23
-19
3
-13
-4
-55
1
-28
-60
8
40
-84
-8
-14
-30
-2
-41
57
-1
37
-41
23
109
58
48
-27
-27
-19
-61
-48
60
25
49
-61
51
23
-80
13
-62
20
-47
15
-74
-49
2
-19
-60
63
-58
40
-25
2
40
91
47
-3
3
-55
16
70
-22
33
45
59
24
-15
81
-1
-70
35
42
67
-77
48
40
-16
-29
55
-47
-46
-22
5
-45
-36
81
25
-36
-44
-59
-60
-46
0
44
37
-13
68
-68
57
-4
-67
-49
14
-48
-39
37
-68
14
-79
52
-27
-32
29
59
76
5
66
-18
-42
11
-56
-64
17
-45
-64
-10
59
-34
42
51
4
-47
-78
-43
-28
39
19
21
27
-38
-43
53
9
39
-23
-71
44
-24
-41
7
-41
-16
-11
-60
-6
28
36
42
-9
62
-6
-24
15
43
-7
36
6
-23
19
-16
-40
-48
-9
25
-36
-34
2
-7
-41
14
24
10
19
12
-64
-47
5
32
-37
11
-20
-18
0
-25
-15
-19
-57
74
74
-3
33
23
29
1
35
-3
43
28
-30
23
30
-10
13
33
13
9
18
-46
-43
31
-28
53
21
-3
32
8
-6
-32
-43
0
41
4
-61
19
-7
-39
14
-12
21
-33
-7
40
30
-29
1
-56
27
-9
46
-55
-17
27
-31
-44
-5
18
-7
-17
7
-33
14
23
58
24
-40
22
29
-15
23
13
-28
40
3
29
-14
21
55
-17
-22
27
1
18
-2
-8
-23
32
6
-70
-30
0
-19
0
6
-49
-25
20
0
-9
11
50
-7
24
-18
27
11
-21
-42
9
34
-49
13
43
-2
-55
67
25
44
22
-52
-50
21
-49
3
-26
39
-13
11
-12
-34
-42
41
59
54
-56
32
6
-3
48
21
-39
6
-42
-39
22
-4
50
-26
-14
29
21
6
-53
50
55
-52
-33
26
22
-31
2
-27
17
-64
8
40
-55
-12
15
44
30
-24
-8
-15
49
2
-40
32
-29
-14
4
-12
32
-37
7
-59
-54
-23
-13
-5
-20
-59
-64
-41
-58
30
-62
22
-18
-48
-25
-27
-24
-41
31
12
-28
-14
20
-40
-13
11
-50
-9
-36
51
44
25
23
45
13
23
13
-30
41
-18
-4
27
-21
-27
-50
-32
-31
-21
-22
23
-28
22
-37
9
-21
-28
77
46
-24
64
-17
13
-24
-23
63
57
57
31
-1
32
8
-26
-32
-24
-16
-33
61
43
-69
-24
5
33
-39
-33
-17
24
-3
-48
37
52
-41
51
-8
10
27
43
-25
5
-13
33
-10
-33
35
37
-55
-57
27
-39
-3
-41
-35
2
-33
35
13
19
-19
-61
-14
-25
-48
-3
-60
-27
-5
-8
-24
9
-53
25
-9
57
0
-3
16
14
6
6
0
29
56
-10
41
-36
7
67
-38
22
43
1
50
21
34
-37
2
-32
27
40
55
39
2
-29
17
-15
-29
7
41
71
3
-26
-19
-5
3
48
-9
34
-23
4
1
53
69
12
-29
32
-31
-6
17
10
19
-9
49
-5
27
-47
45
-15
-13
4
-71
56
19
17
-19
13
68
16
-12
12
41
39
-28
27
-49
46
68
-12
-7
-31
-14
-12
-42
-16
-22
36
-7
-38
35
-39
12
-38
14
-73
-42
66
-27
-42
-19
15
-13
15
19
-20
-9
58
-25
30
-14
-17
30
-26
-27
-36
2
-3
46
39
27
-43
-20
77
-37
7
37
-9
31
9
-4
-9
-44
0
-55
1
-38
19
24
46
51
-18
34
-14
-15
-42
-51
-27
47
18
-25
-46
-29
1
43
-12
-63
5
6
24
20
-44
47
-44
15
-1
-28
22
-1
-16
11
-2
-8
-47
16
-37
-12
17
3
2
-16
50
34
42
-4
-12
18
-43
-11
43
-5
-14
38
34
12
56
-31
25
25
-22
5
-36
-35
-6
38
38
-1
10
-18
8
12
23
61
28
18
27
64
2
-5
16
14
37
-79
-3
-20
-34
-11
-20
-3
-47
-2
-8
-3
15
11
25
15
26
-28
35
-63
5
-3
-1
25
18
33
15
-8
12
-27
-35
10
-25
-33
-39
-29
33
-43
27
3
-9
-2
10
56
33
-46
21
26
-30
3
-18
16
-14
65
-47
13
18
-3
72
-18
63
0
-39
23
-5
25
7
10
29
-51
18
-34
-17
1
-1
68
-1
14
22
53
15
61
0
-14
-5
-4
-56
8
56
-47
6
-32
4
46
34
8
2
82
11
-60
-35
-56
-16
9
3
22
8
-63
29
13
-61
37
0
11
-14
-31
31
-11
2
18
-23
-69
34
64
-31
10
-12
-37
-41
-46
33
-11
-1
14
17
9
22
-6
-4
-35
-49
-4
29
-39
-36
47
-56
-48
42
-18
29
31
-35
-31
24
-21
59
1
30
-5
3
27
0
-3
11
-32
39
-2
16
-35
-21
25
10
-61
46
-15
-24
25
-19
-12
33
25
38
-27
6
-20
-23
-58
-21
-50
-21
-9
-69
34
50
36
-16
-29
39
-15
41
5
-39
-8
30
56
21
30
-5
33
1
-3
-33
-8
-24
29
17
-5
4
13
-41
32
4
10
12
-66
45
-7
-9
1
-43
63
-38
-22
-62
10
-4
6
25
-29
40
5
9
-47
-45
17
-18
29
-8
-8
67
-1
2
-3
21
6
19
45
-62
8
-6
4
15
-18
-41
-26
6
23
28
-1
30
2
-1
-39
-8
-51
-74
-40
20
42
31
-17
11
-29
-28
-56
7
-30
31
21
-18
65
46
-33
49
-42
-35
66
65
16
-3
15
41
-8
4
56
-59
-13
-26
-24
10
-22
-61
21
-60
41
-11
-31
2
23
46
22
-9
-19
9
-49
-30
-20
-50
57
49
-19
5
4
30
-3
-23
60
4
-7
-31
-22
17
-22
50
-21
-24
13
30
11
23
-37
15
-31
53
34
80
-6
14
-37
-36
5
40
50
56
-4
19
9
-59
30
4
-37
45
-66
22
54
-50
-8
-13
-24
-1
4
24
-16
13
-33
12
36
2
8
-42
-36
22
24
27
18
30
-30
-50
0
17
16
-10
-5
-40
-37
-45
44
0
-12
-45
18
-25
15
-28
64
17
12
5
96
60
-25
38
3
5
0
-47
-12
-13
-14
-67
31
14
-15
-65
-12
-43
31
19
29
30
-21
-3
11
5
-50
-9
36
-7
59
34
44
-22
-2
31
23
-31
2
8
34
40
-47
20
11
-13
-48
43
-71
4
-60
-81
16
-10
-22
-17
36
18
-63
1
77
-57
44
-40
22
-40
10
6
-34
-42
19
-23
20
11
6
-32
-21
27
34
8
15
40
-10
-36
-6
-71
9
-11
19
49
11
73
14
-39
35
33
36
-13
2
0
13
-8
26
45
15
-25
-20
-19
22
32
70
18
53
-32
3
34
12
34
2
27
5
28
23
11
3
1
-25
24
-6
2
-26
-22
-56
-24
0
4
44
68
-51
57
-26
23
-38
14
31
28
-32
2
-49
1
-47
16
7
65
52
-21
-19
10
-51
-63
-33
-26
15
17
-29
-12
29
-16
-40
-20
-22
25
-45
-15
56
-26
23
-27
37
10
-12
5
49
0
8
40
-47
-7
55
15
-33
-25
27
-61
-15
18
-11
-24
47
10
9
-23
25
-18
30
-94
-59
-26
17
63
8
19
39
44
-18
-28
9
25
-30
-11
19
13
38
-4
68
-20
18
81
47
2
-22
-27
-32
-20
-55
-6
-28
-1
-59
-11
13
85
-61
10
4
-12
-10
-57
-58
65
-52
-30
-26
-51
-5
-20
46
-32
-21
24
27
-29
21
-62
15
-46
-7
-104
-27
37
40
78
-25
6
20
-11
1
-67
56
-41
46
-11
40
0
8
1
13
73
3
-2
3
49
-20
57
18
-11
12
-55
-24
-60
10
2
2
-21
77
-34
16
-47
-7
-23
-8
33
-57
-29
26
36
44
16
6
9
43
-70
26
-3
-31
-19
-54
-43
-37
24
-4
10
-31
-4
40
24
1
-54
-5
-12
-43
-41
-56
33
21
-26
-7
26
-42
-20
43
-1
-45
-25
10
-49
-28
-32
-27
-30
-15
-18
1
3
2
14
12
0
-17
-1
28
15
-24
-26
-17
2
-27
29
39
-41
19
44
-34
2
-8
-48
-33
9
-8
-12
4
-27
-4
-35
8
40
11
7
-55
4
40
-29
-5
43
50
-19
-68
24
-33
15
-7
41
55
8
3
-19
26
21
2
56
-12
22
53
-65
-2
26
43
-18
26
-35
-82
0
-15
28
-36
62
-16
-14
11
29
-59
26
-45
-29
28
-36
7
10
37
-48
16
39
14
-22
45
8
19
-65
53
-15
30
28
12
19
17
41
-25
-14
-30
-19
34
-11
-7
-56
-8
-8
-9
-43
35
-29
-51
-36
63
42
-13
-7
-25
2
-79
-54
-26
24
-50
31
29
-38
55
21
-32
34
35
-37
-10
-11
3
16
55
4
-30
24
-22
-32
58
-4
-11
27
15
-14
-67
-16
-17
48
20
52
-18
7
19
-18
-11
3
-35
5
0
-5
-18
-22
-36
1
24
18
5
55
20
27
19
4
-26
16
-7
-20
5
52
83
-26
-50
-9
-5
52
-69
-13
-16
35
-11
20
11
26
-28
-41
27
-37
32
43
-107
-25
7
40
-45
-11
4
-69
-37
12
14
61
-82
56
1
-22
-25
60
35
-20
-11
-13
2
18
-49
25
74
10
-4
-50
9
13
-54
25
-21
5
-58
11
-20
-14
-38
-9
8
80
-26
-26
13
25
6
68
55
-47
-31
-47
63
25
-27
62
12
4
54
-17
39
-38
-10
47
-39
46
10
-28
-18
1
-42
-5
0
8
-5
14
19
17
1
-9
-45
-44
-68
-6
-27
12
28
17
20
-9
20
65
13
-1
50
24
29
15
-3
-41
28
-4
-55
38
5
0
86
9
37
74
-8
16
-73
-32
12
20
38
-31
11
84
40
18
52
37
-38
-63
31
-13
-38
-11
-2
5
-12
-44
37
37
66
23
-5
-6
-13
-59
23
-34
-6
3
-58
9
62
-43
-64
-8
2
19
30
5
2
2
10
19
-39
-9
-63
-29
29
-1
-8
-65
-2
58
-40
24
-12
-57
-19
4
0
9
3
-1
9
28
7
18
4
18
56
2
15
-7
18
-9
-57
4
-6
-25
14
-6
-33
-43
-12
34
30
-69
29
-30
-43
-36
16
-6
49
-19
21
-28
14
50
-9
-59
24
-13
-25
48
-33
14
-9
-5
21
-19
14
-19
5
-6
-32
-51
-46
44
-30
6
-27
44
16
-10
12
22
-38
-45
46
48
-30
5
18
-8
-44
-18
-25
-43
5
-19
64
-30
-32
-53
-15
7
-15
42
32
-68
-21
-13
1
-19
-56
56
10
-53
14
77
6
-2
8
37
38
47
26
64
42
34
54
-44
41
5
-52
-35
-28
7
-15
-34
2
41
-9
-1
-32
52
23
-68
-30
23
-70
14
41
35
20
20
3
14
9
37
28
-51
0
38
20
5
-30
40
-55
22
20
-21
-49
0
15
5
42
-41
5
-39
14
15
4
19
14
1
35
11
5
2
13
32
-10
-24
-7
38
45
-53
-3
62
55
-31
43
-29
32
13
-18
23
54
56
-51
78
-29
-9
-26
-4
15
6
-4
-18
33
-2
37
-10
-39
-36
8
-3
-14
-10
54
-46
-3
32
28
-44
48
26
-3
10
-2
39
-6
-39
10
8
-33
-54
26
-51
55
19
10
-16
27
-16
-40
-33
6
22
-12
-5
-51
34
10
-58
6
-9
50
-5
-23
-17
-23
-19
-12
-27
-62
-15
0
52
11
13
41
33
-61
-44
31
-19
-39
-45
-11
-27
23
23
-12
16
7
30
28
0
33
31
4
59
23
14
27
-55
-8
53
-30
-66
-19
-23
41
44
33
44
24
19
-50
-9
6
-68
22
-44
12
14
27
3
-26
47
-4
29
10
-9
6
-96
17
11
5
33
15
30
-13
14
38
-2
-28
14
-54
-27
31
-67
-36
27
67
-47
43
50
43
33
24
5
8
64
-22
42
20
-7
-48
25
-29
-26
-42
-22
5
4
-28
-36
59
-29
44
7
6
38
20
45
-56
-8
22
23
-34
-11
50
-47
-24
-27
34
54
9
-32
17
46
-44
-33
-41
-16
24
61
24
26
75
-24
-22
7
-4
14
65
-52
37
-5
-40
41
21
-13
-50
2
-33
17
52
-33
-14
-63
-4
32
11
39
1
82
-10
5
-11
37
-23
2
11
-4
25
53
68
-8
-15
33
26
6
-25
29
9
24
-9
-49
-83
20
-14
-24
28
1
30
-36
-6
-45
83
53
-62
32
-30
11
9
-77
-46
-58
18
46
-29
27
-66
-20
-9
-24
21
10
-57
-34
-27
-35
25
-27
31
4
-41
-19
-27
42
37
-29
-70
-22
0
-95
-1
30
-9
21
11
52
-14
-8
-27
14
45
-2
-14
-26
-32
20
-24
-27
-22
65
3
12
-17
50
-20
-44
-1
-51
-83
70
34
-42
14
14
39
44
-33
-46
-30
51
-31
7
10
-33
-2
-13
17
2
33
-54
-30
47
-24
9
30
-66
48
-12
34
66
-80
-38
-10
9
-41
-92
28
-64
42
15
32
-44
68
-24
-51
-25
17
66
66
37
36
-1
-22
11
-24
-6
-2
3
-42
-24
49
-25
-7
-17
-11
47
-28
-5
-83
36
-46
-45
30
38
29
-29
-35
14
-24
13
38
12
63
44
34
3
47
24
22
19
35
16
30
-53
48
-25
-1
-58
-30
36
-9
3
-6
-74
-19
29
-7
-39
-35
-57
21
36
10
-52
-17
-41
-11
30
9
14
-12
18
46
-21
50
-2
26
-36
-7
43
50
-2
-18
-11
-36
22
-55
13
-31
-1
-32
13
4
35
43
-27
-10
-7
-16
27
35
-27
-34
-16
-4
36
-18
47
-49
-14
-34
1
-12
22
-23
39
37
-44
-11
-24
4
-49
17
-30
6
9
54
24
31
22
11
68
-46
8
27
-37
34
-34
-8
17
22
38
-31
12
-40
-64
2
20
35
11
5
-35
-19
9
-18
0
2
-28
33
20
4
34
15
42
23
-1
-7
-67
58
-2
8
10
-21
-32
35
2
-3
45
41
31
-18
31
-10
-44
-10
-3
67
24
-21
-11
6
-15
10
49
38
51
34
31
-37
37
-49
-8
-12
-16
69
-31
1
-8
-14
-7
16
37
16
-50
13
25
-18
-8
33
43
35
18
8
-11
-22
34
5
27
56
-26
-55
40
1
17
-3
-5
11
45
11
-17
56
-50
-2
-40
13
-1
-66
37
8
-52
20
-23
-50
38
-30
-56
35
10
-16
-44
-15
-4
-77
-28
-13
-44
17
73
-47
-2
-33
16
-17
-20
18
1
-60
-27
-27
-16
-19
-30
5
-2
9
-14
-2
10
13
-17
9
-55
22
-22
-8
30
13
-7
13
-53
1
30
9
-50
34
11
21
-5
-38
32
13
-2
-36
12
34
5
43
24
-51
-35
-12
22
35
-12
35
52
49
-16
-26
-7
-29
-30
9
-27
-19
-53
48
-5
5
-35
13
12
-41
-7
32
30
4
-31
-18
-41
22
-16
11
-24
-44
-45
40
59
-6
4
-44
21
-10
64
0
-11
77
-75
-16
40
31
10
-42
43
-49
0
9
77
-26
-75
-41
-63
19
4
-21
55
15
-2
-55
77
7
-69
-16
2
20
2
-27
6
10
-49
-48
-3
42
3
-12
-36
-53
-11
27
2
-24
71
-14
1
51
-66
-61
-30
-12
-50
28
46
30
39
21
24
-8
4
-37
75
-38
38
32
54
-7
52
1
25
-7
26
29
-38
-20
-4
-21
-13
-6
-20
17
-23
-11
-24
0
-59
-14
-71
36
-58
28
58
-20
57
45
49
-29
-3
-28
4
-51
16
33
-17
-26
30
22
21
-4
-64
-26
-29
-9
30
4
-38
-31
10
40
3
51
-3
20
17
-24
8
61
-6
-12
7
-9
-15
69
-7
-4
-24
18
-31
92
-59
10
-74
-57
13
-2
39
4
-17
14
28
-73
19
-33
-29
38
-26
-26
-14
1
-30
4
46
16
-7
24
-7
8
-11
-14
-8
-59
37
-13
-6
-31
43
-21
29
-37
51
-6
-43
1
-35
-1
9
24
17
-1
26
34
63
38
25
-46
-38
39
56
5
-39
68
-15
-22
18
-14
-36
0
26
17
29
25
2
1
-23
-34
49
-12
-57
77
-32
22
29
48
7
30
51
-32
26
27
-32
2
-23
-20
41
16
-17
18
-11
33
-11
10
-3
78
35
-23
-17
-7
33
-24
-85
18
-47
-24
27
28
62
3
20
31
-10
30
44
-20
-11
-67
-16
29
-35
-23
-9
19
-18
41
-29
10
-5
23
-23
-48
-41
-32
-61
40
-38
-33
19
54
19
-65
-9
39
-3
52
8
20
17
27
56
-36
-26
78
10
20
-22
-22
-49
31
14
-38
9
-13
13
-22
-43
26
-53
0
32
13
4
47
32
38
-38
49
53
-21
39
-12
-7
-14
-35
53
-39
1
14
21
20
7
18
-12
27
-19
-27
-27
24
-29
-32
-44
-42
-9
10
9
-23
-16
-18
-24
35
-19
15
3
-17
-45
0
15
-45
-12
-11
40
-7
-32
8
31
-32
-34
55
-13
17
-18
-39
-3
42
24
4
6
61
-40
-41
-17
19
-39
43
-69
4
-28
-13
36
22
-52
-45
61
-16
-23
-22
-12
31
-19
4
-5
-85
27
9
18
-28
65
-23
-9
-30
15
-44
-9
23
36
-36
-55
-8
-8
-7
6
60
-36
-37
-3
-9
4
-14
-8
21
-32
-44
40
13
33
21
26
-2
-24
-62
33
-16
55
-41
8
-12
23
-29
4
-22
17
-28
77
12
-19
0
-29
-24
6
-42
-7
50
29
-20
-36
-29
4
33
-30
-21
-38
31
54
-23
17
12
8
-15
30
5
56
-45
57
35
-20
3
-28
42
17
35
-33
-14
-15
4
-22
43
2
-29
26
28
-4
-6
18
8
58
-10
-8
-27
-58
26
-2
32
19
-32
-4
30
32
-15
23
-57
6
33
52
-43
6
-13
-33
10
13
47
7
-4
-40
20
6
13
-18
-10
14
-19
-10
-45
10
-12
22
33
-14
-24
-28
-8
88
-5
-71
-22
2
5
-62
44
51
18
-17
12
6
-24
25
39
1
-50
-7
-77
39
-11
41
34
17
-6
5
12
35
-69
9
-37
-13
48
0
-32
-11
12
-25
-11
2
-2
-31
47
-22
-17
-18
35
24
-18
-25
-51
13
1
-32
-37
-29
13
-30
33
-18
16
-6
30
49
5
4
-29
6
41
75
-2
-27
42
6
36
7
23
-10
81
-33
12
-33
69
-2
-13
-4
39
20
48
-20
41
6
10
-42
33
30
-8
36
10
-23
42
20
-35
-50
-33
-17
19
25
-38
-21
12
27
-28
-17
33
-31
-25
26
-20
12
8
-47
10
32
48
30
-12
-33
-41
-31
-16
29
-12
20
-36
31
22
3
-13
-35
-20
-1
36
29
-44
28
49
21
-44
19
-37
30
-23
9
5
21
-8
-46
-32
4
-44
-32
0
29
22
-41
-32
-30
25
-38
5
52
12
0
38
-23
39
-36
10
16
-55
-4
-20
24
-49
-60
-35
14
79
-23
50
-79
-4
-19
-32
-7
10
51
-47
-41
4
40
-12
39
-7
-27
1
-42
11
22
28
28
-17
-18
65
-28
-38
-18
7
-40
-8
-11
-72
-28
-39
33
2
8
-5
-78
-34
-42
7
-51
-18
32
37
-25
25
4
22
10
13
-30
27
42
-14
18
-34
-53
34
18
14
17
-27
-11
-38
-19
-51
-29
-46
30
41
54
40
45
38
-26
-2
-60
-13
-8
-22
-54
21
9
49
19
51
20
40
-7
1
-7
-11
10
13
-17
33
-21
13
4
71
2
-1
29
-38
54
-29
32
5
40
-20
47
0
41
41
-11
2
24
51
6
-29
-37
-40
-8
3
36
-51
-54
1
-33
-3
48
32
-40
-6
6
-33
13
49
-9
12
45
4
61
28
-14
21
16
37
39
-7
22
-13
-22
-16
-17
29
38
-66
-9
11
-7
24
-40
-35
32
-22
-36
35
10
71
29
33
-18
-27
0
69
20
12
44
24
-33
0
39
-36
8
23
15
-16
24
32
-54
41
-29
24
-19
23
-3
-10
-48
-23
4
-39
-19
-20
-9
42
39
20
-51
3
-54
27
14
19
-13
-47
3
-49
32
-53
-2
19
38
-35
2
-7
-32
-60
17
17
-12
-10
-3
-16
22
-16
-35
43
59
-6
-44
-7
29
-8
-11
30
17
-50
40
-29
-28
22
23
-6
1
-18
-49
0
30
35
-13
18
32
2
52
4
-43
23
-1
-11
-5
-24
-8
-38
-17
34
-32
-36
-9
23
6
-4
33
41
-16
-29
-5
-1
-3
-7
4
-19
-7
-6
-35
-27
27
-11
-24
30
4
-34
-32
-33
-1
17
50
-67
1
1
-17
-20
-43
-47
33
36
-61
-26
13
13
-49
-32
21
-7
6
61
36
-6
-43
72
-33
48
1
44
53
4
28
13
37
-1
18
1
-31
71
-35
1
34
47
-15
28
36
-23
9
18
45
27
30
-59
-7
32
-33
55
-49
4
-11
50
-21
41
44
7
3
-21
-6
-6
2
-36
-63
22
24
14
-35
12
-81
-12
19
9
-29
31
1
-17
4
-29
-13
-14
-30
-18
49
-8
30
29
-22
-14
2
10
32
3
37
18
-40
-34
-9
-1
-50
-13
44
-83
29
16
-48
-37
28
-38
42
11
56
-16
-11
-5
-25
65
45
-17
-47
-23
20
-10
8
50
-35
46
-27
-14
-14
-20
44
-22
-42
37
-20
-53
41
-1
-6
-5
18
-24
21
-88
18
-64
-44
71
-9
45
16
59
-81
14
48
42
19
-8
17
38
32
30
8
23
-37
41
2
74
21
23
-8
41
37
-24
2
31
2
15
8
9
-13
21
-7
33
47
79
26
12
-14
4
26
-44
-18
60
-37
-50
-39
-4
24
14
30
-13
-51
24
71
-31
-41
27
43
-56
-54
-10
33
-36
-40
7
-48
-33
-52
29
-7
-31
20
-58
2
-15
18
-9
-20
-61
-29
0
-33
-9
-7
-26
-48
-6
6
70
-10
-26
51
33
25
49
4
2
51
-13
12
14
20
-32
-6
-10
-9
18
7
-38
-18
-22
-30
38
51
36
31
-41
-47
-65
-24
-16
-10
-38
73
-24
-22
31
-9
-20
24
9
-6
-10
3
-29
28
-64
13
-53
-36
34
-24
8
25
0
-16
46
15
-36
16
27
-3
59
23
-18
21
17
-9
9
-23
52
-35
-10
2
-38
-2
49
52
-25
28
-16
34
54
-22
14
-9
24
8
31
39
-43
-8
9
-9
-31
-29
-15
-59
-60
15
34
-21
-73
7
38
3
-14
-24
31
-67
-18
52
-14
15
15
4
8
10
-65
16
-46
16
11
-43
30
-23
50
55
22
-15
-15
-12
22
-6
-29
-41
-74
-30
28
9
42
-6
27
-7
44
44
49
-32
47
-69
49
-12
-18
-4
1
-19
23
80
55
12
33
13
54
-31
-2
8
6
-5
35
17
56
-58
3
-1
-63
55
7
22
50
-23
-32
14
-8
9
11
54
-35
-3
-16
-29
-16
59
9
-1
9
9
-11
-41
7
31
14
17
46
-19
-46
32
-27
-1
6
-21
38
29
-31
50
-9
37
-30
-28
-31
-35
4
-6
-47
1
28
-12
31
-48
-49
30
30
-65
-51
-19
37
77
30
14
-17
-55
-23
-24
3
3
-1
-13
-7
48
32
7
36
-10
-5
-11
-89
78
15
8
29
-6
41
16
-47
16
54
47
-65
-2
42
11
29
4
-1
56
-23
87
35
1
-12
33
21
72
-11
-73
-63
-6
16
-4
-9
-20
46
-12
-10
-11
19
3
-41
-7
3
-13
-13
-24
-25
19
-17
-12
5
28
-62
9
15
-9
-12
0
-15
-76
-16
29
5
-8
-47
-49
24
-35
-7
-2
-33
-33
-29
54
34
10
33
24
41
-42
15
7
21
-38
-37
25
57
27
-11
-33
-34
4
-18
-6
-27
25
-60
32
32
12
-5
-9
7
-20
3
-14
7
-5
9
11
1
32
46
-7
23
-33
-51
17
25
-25
15
28
-9
33
-11
35
-32
-26
-58
-19
-42
9
7
19
-61
20
5
30
-3
-49
57
-15
-1
-2
13
-29
20
45
30
16
29
-48
23
18
-12
23
22
4
39
1
69
-51
-28
8
32
-21
26
-19
-67
11
36
31
-4
22
-50
-29
-27
47
36
7
92
40
-31
42
-9
28
11
40
46
32
27
31
-35
-11
-26
-1
48
24
-42
-51
-32
7
-42
23
23
-19
54
-3
23
17
-1
-39
23
21
23
-30
-18
-31
49
-11
-34
-36
7
8
-21
46
22
-20
-31
83
-8
-42
-47
57
-12
55
-5
30
-44
23
-19
57
25
-22
4
21
26
48
-46
-73
-22
-44
-38
17
-30
11
-34
-55
48
-17
-44
-43
31
48
-13
45
-9
65
49
35
27
23
42
-14
41
15
-3
-32
38
18
36
4
-42
40
-8
-14
-75
13
-46
11
-9
-7
15
-9
-15
-5
26
8
52
-61
8
6
-42
22
35
-16
95
19
-44
-7
-41
53
64
38
-4
12
-45
-45
-1
-30
36
57
18
43
-25
-52
-31
-39
34
-45
14
-53
30
-32
-5
-68
15
11
52
-6
-62
-20
-18
-2
-6
-41
50
-33
-8
-2
-5
2
28
46
-40
-14
14
-23
4
25
-25
1
16
-43
-42
-8
15
-29
7
46
-7
-3
26
-21
-41
-38
18
35
-57
21
-14
31
-22
-37
0
-1
-41
22
-32
41
58
-43
-75
26
43
5
-32
33
-9
-20
-4
-2
46
-43
-46
-7
-7
-3
-32
52
11
60
-45
13
1
2
2
31
-20
-3
-17
-2
35
-46
52
-14
19
42
36
35
23
66
2
-73
59
20
-13
14
-18
-5
3
-45
-39
-57
-92
-17
-9
-28
-15
-38
14
1
20
-56
22
-46
41
63
-62
-4
49
44
53
18
-29
28
16
-6
21
-63
11
26
27
-48
21
-70
43
25
43
-22
17
35
33
1
1
38
24
25
56
72
18
-73
55
-50
13
-33
-23
7
-10
7
-11
16
-51
48
20
0
47
13
-50
-58
2
51
-22
-46
-29
59
20
-19
59
-97
-20
-1
42
-18
13
-60
-10
-29
10
36
-5
22
-64
10
5
14
-24
30
-26
-21
-24
-9
-57
5
-14
14
18
16
-15
22
-1
51
20
53
-38
13
-18
-25
45
8
-34
40
10
2
-23
0
-57
-53
21
-24
-22
-34
13
66
-2
-61
4
-18
-10
2
-23
26
40
-28
7
-48
78
72
-39
-41
-45
-60
11
0
62
-70
-31
-68
-11
52
-40
-5
17
-6
-53
27
8
11
22
12
-15
34
43
21
35
15
-10
52
0
-17
-14
-29
48
0
4
-39
55
-13
24
-10
13
5
25
56
-31
1
-8
-48
27
38
-11
-6
46
-22
35
23
1
28
52
-17
-48
-47
-26
18
3
22
3
33
-34
6
13
38
1
-3
7
4
2
-27
-36
-50
46
14
-41
3
-15
-7
-7
39
40
44
-31
21
-41
26
7
14
58
-39
-15
-27
23
43
-63
-4
24
-40
7
-18
14
18
34
6
30
46
13
19
38
-13
-46
4
21
-7
-17
41
-33
59
21
-62
-55
47
46
-28
-6
17
-55
0
-2
-42
20
23
-16
-11
-33
-34
4
2
-13
-14
-14
29
-19
17
-4
57
-54
10
34
4
-23
13
-22
-8
13
-42
-23
-72
-69
23
-24
-19
-39
38
-30
23
-46
66
-37
10
14
-11
-11
55
22
-22
0
64
-55
6
-14
11
-13
-36
-19
43
40
-21
20
36
-42
5
41
89
-40
-26
31
44
45
40
-40
35
11
-91
-13
51
41
-61
-3
-29
18
74
10
-19
22
-4
16
53
-26
5
-24
-26
63
-50
52
7
-6
5
15
57
-21
-4
41
-28
-34
-9
14
-11
-1
18
29
-33
57
37
-13
51
-34
-16
-52
-52
-8
21
-16
-4
35
-28
24
27
43
41
-18
-21
-28
-32
-31
66
-43
-27
46
-33
-53
-13
26
45
-7
-23
-40
16
18
27
1
24
25
-27
18
28
-95
-44
-54
-10
-70
-7
12
-39
39
51
49
6
-31
-46
26
14
39
17
-14
-50
38
-27
21
61
1
-61
10
-21
-6
-37
-74
7
53
-19
-7
27
42
-30
-16
50
-5
-64
14
39
-61
15
26
11
-5
72
25
10
-46
-54
51
20
-19
24
-38
-52
36
21
-48
-20
14
29
7
12
-19
31
36
-45
12
21
-85
49
-24
27
-16
-32
13
47
-32
26
-6
-42
17
6
-25
28
19
25
47
5
-29
64
2
23
-26
-27
22
42
-26
-43
-73
4
12
49
-65
1
35
-23
48
30
36
42
-47
33
-47
56
-11
48
-8
30
42
-36
37
-25
-32
-22
7
36
-30
-37
12
-18
-1
14
17
-22
35
-29
19
15
-45
95
-35
11
-20
50
26
39
32
35
-52
17
-34
-21
20
1
-22
39
-20
60
33
43
-73
-56
-5
23
-52
56
27
-23
18
15
-20
21
37
-15
-7
-17
-22
-12
-6
-2
38
-6
-5
-15
1
-28
5
-29
-37
-36
-76
-35
22
-28
28
37
-16
-19
-17
-33
9
-51
-39
0
-32
-47
-34
-8
-42
-62
28
32
72
-6
-46
0
-24
47
41
-32
-3
29
-23
-58
1
31
1
33
36
51
45
-63
-63
27
10
32
68
20
25
0
24
-22
-42
-62
2
24
-47
25
-11
14
4
-24
14
2
-41
-7
46
31
1
-48
10
-76
-15
6
-20
-33
30
-38
11
53
17
-8
-25
-4
-7
43
19
-3
45
12
-36
24
-16
6
23
11
5
-48
55
29
28
52
32
-22
23
24
22
19
-28
-15
-6
-75
3
-60
57
-5
16
-41
-37
-6
-23
3
-43
-18
-43
-41
-20
-10
-28
-40
-30
27
17
-27
-54
41
7
7
24
4
40
-30
39
-22
27
-6
-19
74
9
-32
1
45
-27
40
-32
39
-8
10
-53
16
-21
-16
44
-11
6
24
-7
5
36
4
-6
-25
25
-30
-13
13
21
0
-43
7
-8
-49
-23
15
5
-32
-36
14
45
-42
-4
-11
52
33
-9
5
-16
6
-55
-45
15
-13
-14
-47
-24
-24
-11
69
-14
-46
-3
20
35
20
14
-39
46
51
18
38
42
-25
15
45
55
-25
21
38
31
-19
10
-20
33
30
-50
1
23
33
-29
-20
3
33
-18
65
-9
-4
15
-50
-54
26
35
0
17
50
47
36
8
66
-25
39
-44
-22
-37
27
18
42
53
27
36
31
-33
2
39
24
-50
-12
8
-15
4
60
3
22
-27
36
-6
-28
-4
-14
31
35
6
-46
4
9
37
22
-29
-58
-18
-15
-6
-22
6
-20
-42
-33
-42
26
47
-33
-47
-33
1
-18
45
-29
-50
-38
-17
-52
11
-17
16
10
-23
17
-10
-25
44
15
19
21
-3
-45
6
15
7
-27
-14
-3
43
-10
62
-8
43
-14
53
-56
35
32
9
-10
-78
-18
-28
-25
-53
43
-49
-12
-11
-52
-2
19
-27
11
6
8
-7
-60
74
-52
-65
32
-24
-28
12
61
46
16
-1
-25
8
15
12
24
-23
55
-30
32
-41
-29
-1
-13
15
-15
36
6
-41
10
-39
-80
-38
-41
-11
-16
-6
5
-6
27
-4
73
-4
14
75
-53
-13
-1
12
22
-30
-9
45
17
69
-45
24
-14
27
54
6
25
-31
-20
9
29
-40
-47
-43
-17
-6
11
28
37
60
-3
-5
-30
18
-46
-17
-8
-62
-24
-16
-3
-58
70
-12
31
-28
-16
28
41
32
15
20
-8
-48
12
19
-2
41
-54
29
11
-46
-51
-34
-6
14
27
-54
-3
-23
-13
-10
-2
51
-30
-25
22
-20
-11
65
14
1
12
-11
9
-41
20
-25
52
67
-57
21
-16
66
3
-17
24
21
-7
-32
-21
-75
-14
36
-47
30
-2
6
14
-43
12
14
70
32
23
26
20
-6
-36
21
6
-44
46
-25
0
-50
41
-43
43
-16
21
-23
-20
-50
-27
-4
5
-11
-18
47
10
11
14
11
34
-45
78
37
-76
-8
48
22
-57
61
6
-57
-43
4
4
-37
27
-103
52
1
-28
18
-22
-13
52
-70
-6
-14
-52
32
-30
16
-83
-49
-4
17
39
-19
30
-22
4
3
-9
-20
0
-25
-18
0
4
-59
-9
-3
-60
-39
-40
44
21
-28
-29
38
-22
-2
-71
-22
-8
12
-47
-70
33
-15
-13
-46
-11
2
3
-26
44
33
-9
12
13
33
50
41
-17
25
37
13
-20
19
-20
48
1
-51
20
31
-7
-15
13
-37
-9
60
-22
44
15
-41
2
-16
35
-10
-17
-59
-21
33
26
-60
-23
29
-16
8
33
10
-21
19
-37
-33
79
20
-38
3
34
-13
26
18
-38
-37
15
26
61
14
12
36
-6
1
5
12
-37
46
18
3
-24
-3
-3
2
-11
-47
-29
-6
-21
-15
44
-23
-38
54
-10
-40
78
20
54
-23
45
12
-27
61
-10
22
1
30
-7
27
-6
52
78
-41
-36
-23
21
-3
8
42
54
14
24
-51
18
25
11
-43
14
15
-17
-34
25
9
9
-69
-31
20
14
-43
29
37
2
11
34
25
10
0
-30
14
-12
-18
-41
38
8
21
-22
-63
28
-28
14
53
19
-4
-27
-24
-22
-56
54
6
-56
-35
-13
-8
46
-43
-14
10
7
31
-14
57
-53
-5
57
41
-17
-21
28
28
26
-47
11
-48
22
69
-32
-64
-18
-36
-66
-12
11
-26
-42
17
9
-2
-27
-42
-15
-66
2
-19
4
35
18
8
-15
23
-19
4
78
17
54
-44
17
6
-38
-44
20
-5
-6
-25
-9
-4
25
-40
-33
-30
-59
-31
9
-57
6
-26
8
31
-23
14
7
-29
9
29
-38
34
27
58
-51
60
11
37
-6
13
48
14
35
56
-27
6
18
-73
-84
30
-52
41
62
-10
61
-7
5
35
-15
-8
11
-49
32
-3
71
16
-18
-49
35
30
-11
-1
-34
-9
1
13
-4
42
-87
-11
-40
2
-29
31
13
38
2
62
7
-5
4
-37
-31
-96
35
44
-29
-21
-18
-34
-67
-50
12
27
-4
36
25
-51
-22
22
36
-9
-17
-16
-39
58
4
22
-52
-50
-69
-13
43
27
71
35
-11
21
68
59
26
12
72
-13
16
69
0
-26
57
31
-15
-51
35
-12
-29
-10
-25
-34
38
-27
23
25
-10
22
-38
-29
5
-5
-9
-43
-15
15
23
44
23
38
-51
20
-17
-33
5
-29
32
-20
28
-3
-41
-23
-23
-37
34
-19
54
-9
1
13
-5
3
7
3
-63
-27
23
9
7
11
35
47
-53
4
-17
-27
20
-12
14
-42
-60
9
-37
-75
-23
59
26
-48
15
7
-38
-42
-16
-24
-70
-35
5
-4
-71
28
-30
29
-2
69
20
46
39
51
13
17
35
-15
19
-54
-10
24
-38
24
33
11
-30
-19
28
11
-25
8
-25
35
31
-27
-2
-35
13
26
18
30
-3
10
26
38
-16
5
-11
33
1
44
22
-59
-4
12
44
-13
23
62
24
-33
0
4
-27
-8
38
-19
33
36
42
-39
-22
-10
33
1
37
-23
35
-23
33
-9
38
57
-10
36
-8
20
11
23
12
26
6
-22
3
-28
9
6
34
-15
73
92
-31
6
58
48
-1
53
-39
-26
-30
1
11
49
56
2
-54
-30
7
-27
-34
19
-9
25
-5
-13
6
77
-62
-36
-7
-28
-4
-13
21
-22
23
28
50
-35
-9
39
4
8
-28
-1
-46
-53
-18
12
5
41
1
-34
9
10
-76
-76
-19
22
33
-1
12
41
0
55
1
-22
-28
-24
34
19
-48
25
2
-8
52
13
7
45
30
77
-9
12
-40
-1
-12
-2
-11
-15
-1
17
23
44
-6
-43
59
-20
19
4
18
-2
35
-4
-33
1
-29
-60
-24
25
36
34
24
-36
-7
-6
-43
-12
-2
28
-19
5
-36
35
31
19
-43
-46
-42
8
-12
2
41
24
28
16
39
36
-22
-7
-24
-52
40
-40
-39
9
20
13
-20
-35
34
-4
27
-20
41
-41
9
29
-10
88
-4
25
28
-7
-13
-6
-11
38
-55
-41
-22
18
17
-12
22
-32
4
1
22
-23
-4
-49
34
9
44
49
-50
55
35
17
7
25
-58
-67
9
0
-15
-14
6
-24
-9
-41
-39
-10
54
-28
28
-38
23
-16
-44
-45
7
-35
7
-54
26
-6
-74
-3
0
25
40
22
11
19
59
30
-6
-7
-1
-3
6
40
34
23
36
11
-11
-17
-15
13
12
25
-20
36
24
30
-20
15
16
-23
62
10
19
-18
33
34
58
-17
-6
-31
58
-39
39
21
19
31
-39
16
-15
52
33
53
47
-10
-74
64
31
-11
23
-17
52
14
22
7
74
-72
22
-80
25
41
19
23
34
16
-41
-12
8
-20
-56
18
-57
-34
-11
16
47
8
13
-15
37
26
-113
-27
17
7
32
-46
12
64
24
0
-32
22
71
99
3
-18
19
35
48
-36
-18
-1
18
-83
-10
-54
8
-22
51
5
-40
-65
-95
30
38
26
-18
52
11
10
-24
-41
22
42
59
16
-14
-55
-57
-17
4
-24
-37
28
19
-30
15
-83
-59
-28
-15
-36
28
-8
24
34
6
27
-21
22
-6
16
-44
-116
-16
9
-84
6
37
-50
-12
35
-37
23
-36
54
5
34
40
12
16
44
-21
-36
17
-11
15
-1
2
-28
-12
7
-36
64
-3
9
56
35
59
8
27
22
-41
-35
-13
-8
29
-61
-14
-15
52
-9
-28
-18
30
-5
74
-32
31
15
-32
-48
11
20
38
2
-21
-5
26
-23
-8
-40
-4
-66
-17
28
-2
12
17
-23
-20
-23
36
-23
35
12
23
15
-19
-1
-4
-2
-9
23
18
-20
25
25
71
35
-10
5
17
23
-11
-42
16
-14
51
58
-29
7
-29
3
-14
20
19
-79
7
7
62
-6
-31
26
-3
-42
39
-21
50
50
13
5
17
-61
60
100
43
-49
60
28
13
36
38
-30
30
-41
-1
-18
-7
-26
1
-54
-15
7
30
20
-20
12
-25
-73
4
-1
0
-24
16
-29
1
-23
-34
-41
-26
12
44
-11
-19
-7
3
-24
-24
-61
9
27
52
8
28
-19
-25
50
6
-19
-9
54
2
-18
46
-84
9
52
21
12
-52
-57
44
16
34
46
-6
2
-8
23
21
-10
0
-6
12
-7
37
-4
4
46
40
59
15
26
27
-42
13
-24
-44
-13
20
-37
-3
6
-51
10
-51
31
-1
17
-7
-37
-3
32
36
7
1
-25
-45
0
8
15
21
29
11
23
26
4
-34
43
34
28
-32
-24
59
30
11
-25
21
41
16
6
-15
38
-17
-20
39
-28
-57
-4
-13
32
8
-8
31
-30
9
-21
45
-12
25
-45
8
-20
-22
-54
23
20
-12
-18
30
-9
25
2
70
67
-29
-25
20
23
-25
55
7
21
30
48
-37
62
33
4
-50
3
9
-17
-42
22
-13
-21
-35
28
-13
-7
-23
5
-63
-66
60
16
-3
54
15
-53
1
-18
-41
-22
45
-58
26
-48
-18
6
-29
6
4
-8
67
10
17
-39
10
-35
-32
25
-35
18
79
49
-12
11
7
-13
10
38
-22
-18
6
45
-28
-24
-22
31
-11
46
-1
21
-29
7
20
-30
-36
-16
52
-6
-23
-21
-33
-13
-23
-35
-4
3
-36
-32
-13
-17
19
-15
25
26
14
-24
3
3
-53
16
10
-58
23
-22
4
-17
27
10
19
-39
-8
53
47
-7
20
14
-21
4
15
46
23
38
-21
23
-66
-17
-23
31
19
51
-34
36
-31
-9
-4
43
6
-1
61
45
3
25
-5
-56
-56
-72
-2
-14
45
15
-31
-17
-28
4
27
57
-14
11
-23
-18
-25
14
10
-3
-6
-1
-8
-25
-34
-37
-11
23
4
-25
-65
28
2
14
61
-34
-29
-24
36
-26
6
9
-37
7
-16
23
16
-62
-35
44
1
-33
-22
-31
-52
14
32
-13
-39
-5
23
5
-22
-18
13
3
-43
-39
8
-7
-18
-16
46
24
22
-21
0
-7
49
21
-36
-29
43
40
7
5
7
40
-11
33
-8
31
16
-7
-19
-48
33
4
-2
-54
42
-8
11
31
-45
-9
24
11
61
-39
16
1
-36
-4
-31
43
11
-17
-4
21
39
-21
12
-5
-42
58
3
32
17
-1
33
-10
-13
-21
-14
-50
-24
-6
27
-6
47
27
-38
-46
-26
-35
-2
-14
-52
35
-18
-25
59
-28
26
26
47
-9
37
-1
15
58
28
7
-7
33
15
67
-51
21
51
-17
-1
-28
36
-56
9
-37
-3
7
1
-42
45
14
-6
2
14
8
-50
-33
16
72
-38
2
13
-28
-9
42
16
-15
-25
-34
-33
40
31
-7
2
-31
19
33
-16
60
-41
-34
39
-20
-10
-4
19
-23
-37
19
-9
-55
-1
-5
-28
32
-11
53
14
5
37
-37
-29
0
58
3
-33
-23
-37
16
71
-4
-53
-6
33
-5
4
85
26
-6
39
40
-38
-9
7
40
-17
6
28
-14
-1
21
-40
13
-35
37
22
14
51
-41
-32
9
-26
28
33
-11
10
7
-9
-14
21
-25
-17
36
-44
2
34
-26
10
-13
13
20
2
39
52
-74
27
-41
-20
-21
21
35
-5
9
54
-22
-29
-27
-3
-50
25
6
-24
-4
36
18
31
31
11
47
-6
45
60
12
53
24
-4
-34
48
-14
-42
-19
15
-1
5
8
-12
-32
-46
-22
-39
-6
-46
16
-38
-1
18
4
-13
10
-4
-53
16
37
24
-6
-34
-35
17
13
-38
22
-26
-60
34
-5
49
-49
3
6
-48
-28
53
-13
42
15
-40
-55
-19
-25
-41
27
-12
20
0
-1
0
8
45
-8
-38
-10
2
-17
-10
-21
-25
22
4
-49
22
15
-45
-44
-8
35
-24
44
3
-26
-6
-23
-31
-32
-30
-40
-40
-40
-1
29
-2
4
-9
9
37
76
29
-35
4
43
-33
-19
10
48
-11
41
14
68
-52
-6
15
20
10
56
-8
9
33
48
-24
17
7
14
-17
2
-21
28
-22
-15
-15
-18
19
18
33
32
-45
-9
-16
-22
35
14
-16
-31
-29
-45
-28
-29
4
19
-58
28
48
7
-14
1
-16
75
50
23
-28
-44
-94
18
5
-17
5
29
8
32
-13
44
22
18
-53
-42
-43
6
54
14
40
-20
9
18
-17
-31
32
-52
27
-10
7
49
7
-1
-12
-3
6
-1
24
29
-23
13
29
1
-10
12
-81
2
31
-30
-11
36
-31
15
33
0
21
38
25
-86
-14
16
29
15
52
25
19
-35
-12
-47
-17
36
50
-37
26
38
-3
10
67
-53
-52
-29
76
15
29
-28
38
38
20
-13
-56
10
27
-47
77
-36
-51
-38
19
78
-16
53
18
-12
-13
-3
34
-55
-1
-56
-24
43
25
-31
-35
-19
13
-1
-20
-43
-48
25
-49
14
3
-62
-10
13
-31
5
3
58
-52
-10
28
45
22
-12
2
53
26
-2
-10
23
48
77
-23
51
19
-19
62
-27
19
-20
15
-42
62
-8
20
-30
-14
-82
-72
-12
-13
-25
57
-14
-34
7
24
9
0
-38
67
12
15
-12
-84
-67
25
40
35
-28
83
8
12
-38
25
-58
-30
-25
-55
-62
33
66
-14
39
18
14
-48
-31
-36
-2
-35
-28
-6
10
-14
44
23
6
-17
13
0
-5
-33
-36
-13
-43
35
-18
37
12
29
43
-15
-16
2
-11
-31
9
-73
-20
21
-3
-37
-15
-39
-9
3
30
8
2
41
42
27
-50
12
14
14
11
-11
39
50
-28
25
46
12
-42
-25
-41
49
14
-9
12
-9
-8
43
-6
20
16
-27
24
77
13
-33
-12
2
8
9
-14
-7
27
0
-34
12
-19
-37
23
16
45
56
-69
25
37
-6
15
19
-15
-22
-32
-22
52
-15
-34
-22
-14
-41
2
-7
-46
10
-13
10
52
23
-24
-36
5
2
20
29
11
10
-58
9
-8
-7
1
-54
-26
10
18
-30
9
8
-41
2
25
-61
47
-27
-19
16
-8
28
4
46
19
7
-5
-4
-23
16
20
-21
-64
-13
44
5
52
-22
-19
10
25
-40
21
30
-14
-49
9
18
18
30
-42
31
23
21
12
43
13
54
-69
-26
13
-38
-38
-28
62
37
31
-17
-57
22
-23
52
6
-31
-9
-39
19
0
30
-30
17
8
-11
6
1
-37
-44
1
-23
-42
38
22
-3
-22
18
8
47
-22
56
37
3
34
-61
-11
38
2
0
-9
-12
-28
-7
1
67
19
-2
26
-27
50
-50
-11
-22
3
-51
-35
-20
-28
-17
-27
-59
38
-28
34
-13
30
-2
-42
6
42
14
-18
-63
13
22
-5
-57
25
8
14
-20
8
34
-1
-20
-9
-21
-10
1
5
49
-29
15
21
-15
25
28
-42
-4
-30
7
-34
-2
-43
-6
7
3
-54
23
0
0
-25
0
-28
12
-5
25
-4
23
11
17
-32
9
-15
-22
2
25
46
-10
-61
-5
22
29
-5
0
-29
-24
-51
11
18
-35
-52
-3
-77
-74
21
-2
21
-1
-29
23
-37
7
-9
-3
36
21
46
-26
31
-23
23
51
1
21
22
-25
39
19
-40
-37
-1
45
20
-19
47
-22
7
13
-14
18
-7
19
-27
-18
-11
56
-15
29
27
22
-7
-36
-28
-17
4
20
21
-29
-45
-9
54
-21
-35
42
30
43
-25
-44
47
11
-53
21
50
5
-12
-53
28
4
12
29
42
-29
-31
-17
37
64
-31
-17
-52
-35
9
21
17
-24
-12
55
-22
18
37
-8
14
-39
-10
11
12
-10
11
8
23
40
-23
-12
-20
9
25
-17
60
13
5
-18
-41
8
-22
23
-23
-22
-20
51
29
36
6
-2
-1
-38
19
-50
-18
-47
-6
-33
-15
25
-5
-2
-31
18
13
16
-73
-38
-24
-32
69
-41
-59
24
45
-35
31
1
6
-9
15
26
27
16
23
-7
52
12
9
-38
17
-31
20
51
23
46
-54
-18
10
22
-19
-43
-23
-53
25
8
-26
68
-33
1
-22
-47
17
31
58
16
4
26
-12
-15
-43
4
9
42
2
14
-29
-11
-20
18
-28
32
18
18
-40
-21
-55
-31
7
-14
-13
-18
-33
-9
-16
4
-30
-67
47
6
-22
1
61
13
44
-7
-16
5
18
14
-35
-41
-37
10
-24
-20
-31
55
4
-30
24
20
-26
-49
32
-18
-53
-13
11
9
-11
34
46
-39
14
16
2
12
-66
-34
21
-34
-4
-47
-54
-45
-3
-46
-18
-49
-41
56
2
5
31
37
-1
-2
-49
-25
-57
41
-62
7
-38
-20
-15
0
-4
43
-14
-21
70
-35
-66
-37
-50
-26
-48
12
-17
86
70
125
-16
97
10
-55
2
-49
-6
48
55
-7
44
5
-68
5
-10
30
-65
-27
-41
-13
5
5
24
19
-24
55
-20
45
25
7
-17
8
-80
31
22
-14
-40
39
33
26
7
-3
73
-9
-26
6
23
29
-26
11
127
-74
-42
-31
33
64
-51
-26
-27
-11
37
-27
-49
-80
-61
-24
-18
-22
-42
14
41
105
-24
81
33
13
11
8
-24
42
52
14
36
-8
-5
2
-36
17
23
-44
-1
24
-53
-37
-48
-29
35
102
36
0
-57
56
-62
-7
-50
22
-37
56
36
8
-47
56
-14
-20
60
19
-49
10
8
-27
1
-46
18
52
40
35
38
-28
-28
60
-25
-50
-24
-5
41
43
-22
-18
-23
29
-39
-62
18
22
-5
7
-4
-34
-20
30
-59
-51
19
15
-2
7
65
14
-27
-29
88
26
-18
-36
-8
-28
-43
-58
-33
57
16
5
-17
60
16
33
31
12
4
-32
27
38
15
32
-48
-2
-14
-13
12
-37
-29
20
-7
46
-17
47
6
2
18
38
-5
47
61
67
7
-2
-14
63
-6
20
43
-33
24
-6
-29
41
44
-4
36
9
6
22
-50
31
8
22
29
-24
-16
-43
3
39
19
12
-8
22
10
-13
16
-1
35
44
-8
-34
-27
-55
11
49
-22
-41
2
-28
13
16
-1
-26
32
-30
41
4
1
-14
29
3
-56
7
46
22
35
-5
-11
-28
28
-41
-51
-2
-17
0
39
17
-25
0
17
11
-18
-25
45
29
7
29
-45
-55
32
-22
-17
-14
-28
35
9
-35
-5
-31
28
-14
8
-4
24
31
-3
42
33
-10
4
-34
-41
-57
52
-1
7
-50
-5
-37
6
-35
-10
16
36
-22
30
27
-26
14
-26
49
-25
65
-37
-1
-85
-38
36
-21
-2
-38
-66
2
-2
23
-13
-18
-10
76
27
-15
27
-7
-31
27
-20
-41
-39
28
-12
-6
-39
24
58
-34
8
-36
-45
-36
15
16
15
26
-38
-62
-21
-34
-9
-4
-16
88
-33
35
-9
-16
-75
-86
20
9
109
-7
28
-4
-56
40
-4
19
-24
-16
-65
-53
-1
7
9
-3
-12
-21
38
54
21
-8
17
17
6
41
-31
-26
8
39
1
-54
-16
22
-4
-12
24
-48
26
43
-41
1
43
-39
-19
-61
28
-9
2
12
-15
10
17
-17
-69
-68
27
-39
-27
-66
13
43
-22
42
-32
-3
13
26
32
31
64
73
27
13
61
18
22
-25
10
16
14
13
-19
37
18
11
-11
-36
26
23
-3
-1
-19
9
-81
-10
4
33
-8
2
45
-18
-66
-13
-59
-5
-30
12
-24
-14
70
-14
-3
-46
28
-20
47
48
-29
-2
-37
0
21
-2
-37
8
71
-49
12
-1
-29
-35
-36
-31
17
36
11
21
-21
-65
43
61
-30
19
-51
10
12
-40
22
3
-55
6
-12
-13
-42
-15
-36
0
17
-12
-2
-11
-46
6
7
32
1
-29
32
-27
-17
-21
60
13
12
48
44
-5
-75
-46
-58
40
35
55
36
10
-36
-21
15
-22
-23
24
18
14
11
15
-36
-24
-10
21
-11
3
5
-13
-22
21
45
11
4
12
5
-14
26
25
0
46
-23
20
-36
46
-64
32
23
-39
2
16
26
13
-30
-41
-12
-13
-12
-15
-1
-62
-33
-13
-7
37
-14
-4
6
-52
-3
-17
17
-26
-13
-61
20
-49
-51
1
-39
45
-9
-24
-41
49
19
26
23
36
47
-40
0
-19
-25
-37
48
47
-15
-5
-6
49
-27
45
-10
-12
54
54
17
-36
31
-18
-51
-62
47
0
-72
-8
5
-33
-9
-3
2
20
34
38
14
-20
27
39
42
-16
-41
-20
41
-13
28
-58
-57
18
-44
-5
18
22
64
-3
25
19
-49
3
-32
2
-3
43
17
29
1
13
-21
-28
4
8
14
-38
-10
-8
30
-6
-22
-21
-38
0
-6
-25
8
18
-6
-75
-50
23
31
24
-43
44
3
-35
67
22
-31
16
-30
-35
-5
12
16
-9
-27
22
-24
28
29
-10
23
-35
-26
-45
37
-45
-52
-1
43
30
-25
-10
26
5
45
13
20
-44
-33
29
-21
-15
-7
4
-30
39
32
54
8
-39
14
36
52
11
10
-16
12
40
41
-31
-42
-8
10
21
-4
-40
-29
-30
13
7
1
-25
-41
-25
-37
29
9
13
-3
-15
14
11
-46
48
57
-3
-16
-42
-41
17
28
-2
-24
0
-49
-13
-4
24
-10
-34
-3
50
-42
17
-49
-31
49
-11
10
-15
-19
-28
-21
53
-24
-15
48
19
-19
-54
3
2
-24
-55
29
16
-11
-3
-25
-4
34
4
44
-41
25
57
-7
-35
37
43
46
9
-4
-51
55
29
-4
-56
-63
-21
-12
-55
26
13
18
-25
-8
64
12
-31
-33
-35
8
-7
3
-10
24
-39
7
-4
-17
-37
8
-56
42
7
21
49
-10
-7
15
-41
-31
-31
-50
-21
-54
29
-12
13
28
38
26
-7
51
-32
35
-59
2
-34
8
-12
1
20
-30
5
-56
-8
-12
45
24
30
-27
46
-37
2
3
-30
13
-15
19
53
19
42
13
9
-10
52
-24
38
10
-4
-60
-33
20
41
13
-14
22
48
-39
59
-10
-45
-17
-19
-47
4
-48
52
53
-46
-10
43
-33
-3
17
10
26
8
-43
36
36
-63
-25
-38
51
16
-47
-21
-49
2
18
-16
-15
-52
8
21
3
-7
-51
-36
-18
-19
-26
-25
-8
-43
33
-14
-22
23
87
4
10
-76
-10
14
-24
-5
6
2
6
8
-21
-4
-12
20
13
18
-12
10
-7
20
-67
-14
31
30
-23
67
85
23
-21
26
-41
-13
-6
3
3
17
41
0
1
23
25
4
44
0
16
-47
6
12
-1
3
47
-7
-24
4
14
4
21
16
32
41
36
-35
-6
-60
-23
35
3
-55
-5
-6
-13
48
23
-1
0
-24
8
6
-4
-17
40
-6
6
-7
17
35
-30
-19
-8
34
-42
18
-31
-23
41
32
24
-20
-9
-30
5
-47
-8
21
50
-18
-14
-49
6
-8
-49
4
16
35
-32
66
43
17
27
-21
52
-51
22
40
30
0
26
-74
39
-19
43
-36
-14
12
-14
4
-15
-28
-33
-1
15
23
-18
17
21
-11
13
-15
-6
50
-5
37
-32
-12
-13
37
29
41
24
-6
-30
14
-23
28
15
-16
6
56
57
63
1
-15
43
-13
27
-16
1
33
-21
22
19
18
15
10
-20
-47
20
17
20
-35
-59
-14
44
-1
-25
33
-42
-27
-36
-45
29
32
12
-37
2
-12
-16
-13
-26
4
24
-3
14
-6
7
-54
33
34
-8
-24
-9
-47
-2
17
4
19
-4
21
-10
-29
3
-25
29
30
-17
24
-14
-17
58
17
3
1
22
7
12
18
28
-19
8
-5
-16
44
36
-16
0
-7
23
67
7
8
42
-12
-44
-73
17
-44
23
-18
58
0
-36
28
-13
0
-18
39
-23
73
3
-14
-20
42
-33
4
-27
11
-35
-7
33
-42
12
19
47
0
6
41
46
31
25
23
55
12
26
2
-3
20
24
14
-37
63
23
1
-9
-30
24
-12
-79
16
13
41
4
-1
-16
-34
42
-13
26
-21
-6
-44
20
-22
36
-14
28
-52
-17
12
45
-44
41
0
14
3
58
15
14
19
12
-4
48
-15
36
47
18
43
35
18
7
25
-9
-55
15
52
-16
-29
-28
7
-17
-44
-63
35
-47
-50
-24
-9
57
-22
-6
3
1
12
36
-41
30
-1
12
1
6
15
-15
-14
50
-28
65
40
19
3
25
-52
41
55
36
22
32
-37
-17
34
-23
66
-9
56
-47
44
23
41
-20
-46
-7
16
1
24
25
-2
28
-30
48
-38
16
3
65
28
-45
11
25
-58
-45
33
23
-30
8
-25
19
-16
37
-43
-9
-65
65
45
20
12
-20
29
35
18
-10
34
-16
36
-22
-26
75
-47
34
56
-8
15
32
8
17
-12
18
43
3
31
-1
-2
27
34
40
-28
-13
6
-20
64
-10
39
-9
19
-36
-26
-28
-52
63
36
4
20
23
22
-25
50
-27
26
34
5
42
-30
-44
11
2
11
46
24
36
54
34
25
36
-30
-9
-21
-23
-11
-9
-45
-22
-21
-69
-22
20
-35
24
14
-62
21
8
-2
26
20
-14
-13
55
13
-79
26
24
-16
40
12
17
-14
30
32
55
30
11
26
51
-38
1
-6
21
-17
-6
-36
17
-16
-17
-22
-9
-7
34
12
-44
-2
-14
-40
-5
5
20
32
14
22
51
26
20
-12
13
17
15
-8
-74
-31
53
-45
2
-1
-59
-28
30
-3
-5
-35
14
27
-13
-46
18
12
-41
-23
-20
-21
-40
13
-58
-32
-6
-34
-16
-53
6
-31
4
31
26
47
12
-42
24
22
23
-20
16
16
-4
-68
-7
-50
3
7
-25
21
25
-19
14
-12
26
11
12
-26
5
-10
53
47
49
-19
51
-28
-15
-23
41
3
20
46
39
-56
-38
65
1
23
59
-13
3
1
-3
49
-15
24
55
14
5
-52
-63
-42
-1
-77
-12
25
-4
13
-47
1
-15
15
-8
-7
42
10
18
7
9
9
34
39
-30
23
-22
-43
16
0
2
-40
0
38
-4
8
-2
-19
-38
51
20
-36
14
-7
-80
-1
-72
-9
25
-19
-25
-4
42
23
-64
60
59
-32
27
-32
4
37
-4
-18
18
10
35
102
31
-35
8
-14
24
20
14
-6
3
-26
41
21
5
-52
11
-42
-67
-6
16
4
-17
-6
-46
12
12
46
-14
-43
19
41
-3
61
17
-17
-84
-35
26
-12
-21
-14
1
-5
15
-75
-12
-11
-25
28
27
-18
20
-54
-22
40
-60
-33
-16
32
29
-95
17
-2
-40
-17
3
-76
5
22
-13
58
-47
41
-3
33
41
15
-6
25
-31
-3
19
61
-16
-34
81
28
5
-37
-14
14
-10
-25
-52
-31
-14
45
40
43
-7
67
-4
1
-5
31
-48
-22
-22
32
1
40
20
-44
-44
10
38
-13
-31
30
2
16
-23
-11
-26
42
-11
17
10
13
-21
9
36
14
-54
8
45
0
58
37
-2
32
17
-37
18
19
2
57
-15
-56
34
-43
25
-11
-68
-23
39
-25
14
37
-50
-20
8
15
-47
-16
17
15
38
21
32
78
-20
-18
-41
-15
42
47
-35
3
26
14
-23
-2
22
6
-3
-8
2
1
25
5
-39
-28
-30
30
-39
-58
-30
-38
31
-44
28
55
39
22
41
26
-32
3
51
-23
79
-32
9
-11
16
17
16
49
-5
37
-8
25
13
-34
-11
53
-9
-2
-53
0
11
18
35
40
-3
78
38
26
-52
2
-12
43
38
23
-23
3
16
-7
-57
-22
-1
28
46
-44
28
-29
-17
23
1
7
-5
-39
-43
32
55
-4
3
-10
36
41
15
51
-49
-6
-54
-24
-50
-13
7
-55
6
-54
30
29
64
6
-62
42
30
-58
65
-35
3
-19
26
21
-25
8
18
-1
-41
-33
23
42
10
-42
1
2
11
-20
-46
-28
-33
-53
-29
-11
17
9
1
42
-42
13
20
30
19
-33
-22
-18
70
-34
61
-60
-13
-8
5
22
-56
-78
16
-33
19
16
-26
2
-1
36
28
16
-12
39
25
-29
-13
-21
19
-15
-20
29
54
-19
3
8
-21
2
-4
9
-1
-6
43
-69
58
-57
-19
-73
-23
66
20
22
-13
3
-42
37
0
-70
-64
36
-11
2
-29
59
-25
39
-9
23
-35
53
-7
39
6
2
56
0
34
-9
-40
64
-11
-11
6
-34
-31
20
-47
-45
-14
4
-13
74
-32
9
33
-15
-79
-37
-25
6
-70
63
38
-41
-19
12
-22
31
1
66
25
36
27
-8
31
25
-42
-3
55
-35
38
-18
-48
0
24
7
3
-34
59
-20
0
-21
-27
-42
-32
25
49
1
7
45
-39
-1
-35
-9
-30
32
24
-3
9
30
-23
38
-18
28
10
-44
50
-36
-41
8
-71
58
-53
12
11
32
-9
-78
-38
-50
-9
12
13
-26
20
14
-43
17
9
-22
44
-3
36
9
-68
5
38
65
18
54
-35
-63
-51
42
32
8
22
10
-16
27
-52
-43
-59
15
-24
0
19
19
-64
-69
-34
-22
-49
38
-3
-11
11
-16
-9
-9
65
-36
-80
-9
-24
-15
-16
21
-43
-16
-26
8
-18
43
4
8
10
-4
14
20
29
-28
-9
-42
2
24
17
32
28
37
-28
-24
-2
24
-13
17
-20
42
-44
16
-2
14
14
71
-31
51
-28
-39
59
-43
-2
-5
-10
-78
47
-9
39
-40
33
39
-1
-25
22
10
47
42
-10
-64
-8
-44
24
41
-33
16
3
3
-70
-2
-44
-37
21
-47
-10
62
66
-29
-32
29
40
-17
35
-30
-44
47
63
-41
-5
49
46
-38
-14
-56
24
-20
-29
70
1
53
-17
-9
15
-44
44
34
-34
-67
34
-28
15
36
-3
32
-10
29
39
-2
-37
51
-32
-21
24
0
-68
25
56
-16
29
39
-19
7
39
-57
-12
-24
51
43
36
-56
-22
-6
-72
-11
-2
-49
40
-44
-17
-21
6
-12
42
-63
-6
6
15
4
-11
-70
21
-70
-62
-20
-24
-8
-8
0
-27
-12
22
-29
-36
-27
17
49
-13
-8
-18
31
-59
9
-35
9
22
-7
12
41
-28
42
34
11
-4
50
25
-50
31
64
38
-54
14
26
17
1
-39
-47
41
8
37
35
-3
-19
3
6
-8
46
-28
26
14
-38
10
27
35
35
-13
-1
22
-12
37
-11
-13
28
-18
-23
-37
26
15
-31
-65
-50
11
47
-11
-31
-82
43
13
-15
-16
40
-13
-41
-2
-36
-11
40
20
29
-43
-13
-67
-10
-25
39
-16
-16
-5
-52
-16
40
56
-17
-30
-13
46
77
81
-57
-35
-57
25
34
-1
-56
17
1
-9
-28
-14
15
-30
-47
28
5
-33
19
6
-2
11
-15
0
-46
-1
6
14
-17
34
-28
6
-54
38
-6
4
26
-28
3
62
-9
-16
8
-38
-21
10
28
11
-10
-36
-17
-44
40
10
-52
28
-28
68
-11
80
-19
-36
-3
34
49
-46
-1
-34
42
-16
-7
-9
-8
10
24
13
-14
-32
-23
-10
-7
34
-36
16
-41
-29
20
-31
50
-16
-10
21
35
-11
17
-23
33
39
-37
-54
-5
46
22
-25
-32
-4
34
11
-19
3
-19
15
-33
7
-1
-60
-39
-27
-16
-50
14
28
46
-6
-10
10
-12
26
22
35
16
11
16
6
-7
-35
-29
11
0
24
-46
-61
-34
50
16
-45
-40
-18
10
64
9
-58
41
-51
-26
-29
-36
32
-3
3
39
-21
-11
-39
-2
28
20
45
67
-14
-19
2
-15
23
22
20
9
-23
7
-20
51
47
-2
-3
53
26
13
3
-22
-9
-36
-34
-10
5
30
-44
-53
33
25
14
3
44
-21
9
-16
41
-43
3
8
19
-17
-12
-54
28
-42
53
-7
51
-12
-10
-38
-63
-43
57
18
16
28
-18
28
13
-3
3
-50
48
8
-13
23
-16
34
24
6
-98
42
40
33
0
-35
31
-10
20
13
-22
-38
40
-1
9
4
-2
-20
21
-46
36
45
63
21
5
20
17
-45
-10
8
14
-25
-39
0
26
-17
-43
12
-14
11
-12
-34
-27
11
-49
-57
-43
13
-32
-4
52
-10
59
1
22
20
-20
-11
-38
39
65
-22
36
16
5
-1
-45
46
-6
-33
57
-35
28
48
10
23
-57
-13
25
-1
-2
-11
18
7
-14
0
-13
19
34
-31
-58
-41
11
-28
-37
1
-30
3
-76
22
-3
-26
20
13
-50
-11
-48
-7
-40
23
-2
-3
20
9
18
69
-4
-37
-6
-11
15
-23
13
12
-34
-37
28
-29
47
20
28
49
-7
-60
11
-6
21
23
15
-12
1
49
73
-75
35
-66
1
4
-34
30
20
-24
8
28
-1
26
-35
5
5
-41
-26
4
39
-4
7
47
4
8
43
23
-30
-2
-8
-5
36
-30
-14
67
-36
35
27
44
14
3
72
-13
-50
4
-37
68
13
-14
-91
-17
-30
7
25
-45
38
-49
-15
30
-2
33
28
-22
-11
-31
39
15
14
-36
55
-32
49
8
-28
-26
-72
-30
-4
-43
10
-54
37
16
3
-27
-3
24
14
-10
-21
17
27
27
-2
-54
-12
-33
-1
34
28
52
35
11
22
44
54
44
-19
42
-5
-19
-31
35
29
30
-30
38
-72
8
-18
-10
-21
39
16
-47
-32
-13
8
-18
6
-18
-57
-20
3
-80
-51
21
-6
22
-3
-34
-10
-7
-26
-37
43
7
-93
73
30
15
58
-24
-22
7
-21
27
-42
13
-8
12
-1
9
-13
-9
-44
62
-1
-28
-26
-16
-49
10
9
-14
14
-30
-9
32
29
-13
36
-8
9
9
-44
-38
14
8
-38
9
11
-53
-48
-1
-31
-24
-40
-11
4
-6
15
37
20
-56
36
21
-33
8
56
-13
52
8
8
-21
-45
66
-16
4
26
29
50
-21
55
-34
-24
-35
-1
58
3
-6
6
-21
21
-6
-56
-18
-14
27
-53
7
-35
-65
1
-28
12
22
17
-57
-9
0
-46
1
-46
24
79
31
-50
-21
-28
15
31
58
69
-43
-49
15
-20
59
52
-43
-20
35
60
11
-23
-39
-45
14
62
42
42
56
61
45
-21
13
-6
66
51
-35
9
40
68
12
27
-20
-18
19
-14
-17
-30
25
-56
-75
43
-19
11
-30
45
4
-15
51
-1
9
-67
2
14
16
-17
6
-26
0
21
-29
18
3
-14
-48
-3
42
29
-50
38
-43
-27
2
-4
-37
26
2
58
30
-33
-9
30
-8
-7
18
48
-4
39
-54
29
28
-49
-9
-17
78
-7
-2
27
-54
-43
9
0
22
0
-58
40
28
27
20
45
45
-65
18
-38
15
-34
14
-1
-14
-23
21
4
43
24
-35
18
41
10
46
-11
-10
-9
-33
-3
35
-6
-31
31
11
-12
-11
-4
30
1
-62
29
44
12
9
0
-26
-44
-11
62
-11
8
24
-75
31
1
36
40
26
19
13
-42
41
23
10
-6
-7
0
24
-7
-43
-40
-3
15
-6
50
-38
-54
12
7
31
-21
-50
-61
58
-61
-14
5
-17
68
23
12
29
-18
-3
5
-59
22
-9
2
-61
-6
9
47
6
52
-36
32
21
-17
-36
50
-6
38
-49
2
12
16
24
33
-5
-51
-21
-13
18
14
34
-46
-35
-33
56
-17
-24
7
12
21
17
7
28
-40
-28
-3
-43
-25
-24
36
-21
10
0
-51
-2
-39
-23
-45
22
0
-15
-10
29
-10
17
50
-20
58
15
45
-32
-38
8
70
21
-13
-43
43
-22
38
-5
-20
76
-25
-50
28
75
20
21
-28
-48
-6
-67
1
-32
29
-9
-30
-54
-41
-29
-5
11
19
15
16
-50
27
-30
-29
-36
-61
61
-24
-16
25
-32
-21
3
-56
85
-14
18
52
30
30
33
-36
-3
83
7
7
-1
1
-48
-7
16
-6
60
15
29
0
-18
-23
27
-6
16
-3
59
-36
48
-16
-28
19
15
10
-39
27
3
2
31
58
3
27
1
-16
20
4
-43
-4
-4
-37
-31
-58
39
-1
-36
-14
6
23
-35
-19
-22
20
26
-15
-12
1
-7
-8
-17
-2
-4
50
50
-15
-55
18
58
-9
-21
13
57
41
31
18
9
42
-35
-3
-43
30
60
-25
-48
7
-46
7
-6
-35
-29
-38
35
27
-44
7
18
-8
17
15
23
-30
1
-49
-7
31
19
24
-23
1
-56
-50
7
20
-18
9
25
-9
-15
52
65
47
-40
6
-17
15
-21
45
52
-5
32
-51
-1
-32
51
-21
22
-28
25
12
-21
-11
33
-35
3
-7
-45
-52
-26
-11
-16
-13
-36
-42
-27
-42
-2
38
-37
17
41
30
10
36
40
-29
-17
-24
33
-4
38
-27
-25
12
30
-12
54
46
-9
-10
-30
-21
-17
51
-35
-18
-14
-2
79
12
10
-64
-35
-35
11
-39
-3
-43
-83
-60
27
7
-58
12
12
-58
-28
13
31
-3
33
6
-23
-8
10
-7
-19
44
-23
-28
-2
-76
13
82
41
55
45
-3
5
-55
86
20
-53
62
-65
53
-30
-24
53
-43
4
61
24
-21
-31
-79
47
-12
-19
18
-14
-13
24
20
18
-25
-12
-14
-48
61
-5
34
2
-19
-93
3
32
76
41
-19
-40
-19
44
-47
38
-17
50
-1
-31
8
1
-6
-3
-6
-46
81
42
-16
-33
32
0
38
-5
-45
23
18
25
3
-21
5
2
-42
-17
19
42
13
26
-2
54
63
62
-38
17
-24
16
-1
60
13
6
-43
42
19
-14
25
36
-10
-8
-48
35
3
7
-4
-69
2
-19
29
0
38
-22
-38
-18
-10
51
2
19
8
-16
0
-11
11
5
-1
5
-20
-24
-29
-47
-4
-44
46
-30
-47
-42
3
-21
38
33
23
2
-1
28
26
-13
-12
-48
49
-49
28
31
21
1
46
-49
70
0
14
16
-9
20
11
40
50
-36
-5
58
47
-50
81
13
-54
-55
-14
67
-7
77
8
-43
71
42
-26
-15
26
86
25
52
-11
-73
-43
-40
39
24
24
-77
58
64
-84
80
-24
44
21
-37
-9
-48
-52
45
-19
69
51
-26
-8
10
-23
41
69
5
-14
36
14
8
-28
0
-27
22
5
10
17
12
-16
-26
-43
-30
12
18
55
-18
2
38
57
-28
-9
34
14
-10
15
-38
-32
6
-97
4
32
10
-60
-47
-17
44
-17
-13
-68
-19
-67
16
1
-16
-17
-11
37
-10
19
-30
-16
-53
12
-64
-22
-17
44
-64
-16
-61
-76
4
-1
3
37
-1
-5
-23
9
24
45
31
33
-47
11
80
27
0
-69
12
-62
-21
4
56
-5
7
48
-33
35
-43
49
45
18
-46
43
62
30
-8
46
-1
-69
27
-68
8
45
31
0
-22
-20
-24
57
1
-9
-2
-96
32
-74
44
-9
44
-33
-2
42
30
-53
-2
-28
-6
-42
-38
9
-71
49
-17
-15
7
-40
37
-34
-12
5
-12
21
34
-2
-12
0
-19
-13
-16
15
-28
51
10
39
-30
-1
-37
-34
-18
11
4
9
19
-23
-1
-29
-27
24
-28
98
24
-57
40
31
61
13
-30
40
9
-45
4
23
-34
3
-44
-54
-11
6
34
22
-18
-12
24
-27
-50
-34
-4
-39
23
18
11
-5
54
-57
-34
-63
23
48
4
-56
32
12
20
18
-31
-42
41
48
2
-8
32
-19
-19
53
63
19
6
-20
-41
35
8
40
23
-11
12
6
8
23
41
-3
59
17
-21
-18
62
37
12
-24
41
-16
39
12
-17
-29
-20
-48
-18
-22
50
-14
-27
-6
36
9
38
-24
12
-19
40
-20
-51
54
51
-57
-35
-11
20
3
25
-30
-13
-7
-2
-8
22
-12
-16
-47
-8
-51
-34
-8
54
17
27
33
22
48
-4
64
-54
-46
-54
21
24
59
-74
-7
-8
10
-20
11
20
4
-44
51
10
-5
-4
5
17
20
-37
22
-3
-14
-48
28
42
-3
18
40
-12
-5
-18
-25
-4
29
-9
-46
-39
-33
18
-17
27
10
-40
-22
-27
-23
9
39
31
-9
7
4
7
1
-5
-57
-22
-9
44
-19
-28
13
5
-7
-72
0
-4
-32
15
-6
14
-19
-26
-2
21
-5
41
-14
46
-8
-8
34
-39
-18
-40
38
-5
-24
13
-11
-7
-21
-38
23
30
44
-2
-13
29
-31
-11
4
-53
-6
13
3
-7
55
0
1
5
58
16
-51
-3
-3
-30
-27
-16
-29
24
14
-24
-1
-30
-16
51
-28
40
1
-35
-13
34
-4
-2
-18
-11
41
41
-44
-19
-16
48
-14
-26
-37
12
12
15
-30
27
-1
-28
-32
-34
-10
15
28
-37
17
-4
-82
-13
-11
-53
-9
27
-7
50
-50
-8
-52
-16
28
52
2
-25
24
-38
-22
-2
18
24
-11
31
29
25
-18
-17
-10
-5
-18
-4
14
-45
-10
-50
-41
-7
-35
44
-4
-20
-29
-13
19
26
40
11
-24
-12
2
27
7
-57
35
-21
-10
-25
25
8
20
5
-15
-6
-1
16
44
18
9
7
32
-38
-22
-3
-19
22
32
61
18
-41
-55
-4
14
-34
-9
-7
3
49
-53
-46
55
-4
-47
-12
-34
28
-41
23
15
-44
86
-29
19
11
19
7
38
-31
-38
-62
4
26
9
-10
-7
-5
-36
-57
-29
22
-46
-23
53
-5
8
19
-24
-44
-7
17
13
24
-30
20
-11
33
-15
-18
6
-42
-41
-25
-22
-44
47
22
26
-21
18
-7
-16
-40
36
-4
-36
-3
15
-28
-24
-24
20
23
1
-53
-36
-62
28
26
-10
34
51
21
25
11
-19
21
21
-4
13
-13
-11
-62
-29
-55
9
2
32
37
-25
29
-8
-12
72
-2
11
-30
31
-52
38
-15
-42
7
-21
-48
-25
-41
-34
2
-11
57
32
-7
-10
-11
10
-12
-34
13
-20
39
-20
18
-18
8
-28
20
10
21
8
15
19
23
34
-31
55
7
-70
-6
-47
-11
-23
-87
10
-61
-24
57
18
-35
28
56
-47
6
27
75
8
-1
-10
-32
33
45
-22
5
46
-3
44
-39
-4
57
-12
42
62
34
-29
-5
-24
64
55
-41
68
27
-21
-49
-13
-15
-40
10
-1
63
-1
8
7
40
34
23
20
21
-40
-57
19
14
-22
-56
32
-20
30
11
-14
30
-26
-4
-12
-23
7
26
55
-32
23
-8
17
-62
-11
25
-13
-12
24
-20
-52
31
-22
-36
-9
-4
-32
-29
-67
-33
47
-6
-25
-3
55
9
25
-51
20
-38
33
22
46
-24
24
-13
27
14
-19
20
-35
22
-12
-22
-68
18
8
10
-44
5
38
23
10
54
-4
-18
-22
-53
7
-36
-51
-38
55
76
-23
38
7
-25
-21
23
5
-7
-28
-25
5
-30
10
-10
-11
40
26
-74
12
16
-14
12
-11
5
-20
-10
-15
-60
7
-24
-21
67
-20
-47
20
-39
-15
32
7
58
-9
2
10
43
65
-25
32
-29
54
50
28
-39
38
54
-31
32
50
9
-40
25
19
14
52
28
-66
-19
-14
17
78
48
-15
43
25
-45
-62
-33
25
8
40
-16
-39
-82
-41
-46
38
-17
-19
-68
16
52
-31
4
24
10
-25
0
28
7
-39
-14
39
36
52
-17
-51
5
-18
26
-35
46
6
-13
25
95
22
-5
7
9
-31
-32
13
28
17
-22
-10
-51
34
19
30
45
1
24
36
-27
43
10
28
-13
32
34
-68
49
-33
-6
2
6
0
-29
-29
11
9
5
-26
18
-14
63
-23
3
66
-5
-3
-35
-38
-35
53
-63
0
-13
-16
4
-29
4
-28
1
-38
-44
29
44
23
-10
-18
-50
67
-24
22
-19
-36
67
10
35
-21
8
11
-10
35
53
-58
4
-19
-2
-6
5
-45
46
7
2
-48
-19
9
66
11
-1
39
-46
-31
57
-5
41
-33
13
6
14
55
-82
3
20
14
36
-48
48
24
-26
30
-8
31
-33
31
-11
-41
45
-30
-25
-17
-41
-57
-6
0
8
-2
-2
51
6
-2
18
-15
25
16
-12
49
17
61
-17
-11
45
-2
-29
10
28
4
-68
7
-32
-18
8
46
-5
-30
26
-41
50
-4
-16
3
-39
32
-62
15
39
23
61
-1
-1
-28
3
-2
54
13
-34
26
-40
-35
34
-25
8
-35
-55
10
5
41
-11
-3
-28
-2
-13
-12
15
-26
42
-20
-1
-40
18
25
-50
-8
-5
-33
-26
3
22
18
60
53
2
33
59
-2
-52
40
4
26
-26
-10
-16
48
35
44
20
21
0
-11
48
16
4
-8
69
60
49
59
13
25
-7
-29
29
5
15
-17
-6
-50
8
37
35
-50
2
-9
-60
-22
-40
-50
-18
-15
-33
-4
11
9
-15
29
16
-18
38
6
35
-14
7
0
11
-65
42
-31
40
14
-11
-49
-52
-55
-14
26
8
1
-10
-35
2
-13
32
-14
41
-5
-12
-26
17
-2
12
12
-23
-25
19
39
59
35
-15
-26
30
-6
12
-8
-66
14
-30
-10
-23
0
-4
24
-56
40
0
-55
-37
54
23
72
-28
-32
1
38
38
-2
41
49
-14
-32
-17
-45
-36
-28
70
10
-3
6
23
-31
-19
42
-45
-7
-6
1
-6
-1
53
22
31
5
14
-27
-10
-53
45
10
-9
-8
-9
-10
0
-1
-39
1
-28
-38
-35
20
2
33
-63
-29
-18
29
45
-42
-48
17
11
3
-30
38
-32
-30
10
-12
-29
-113
-12
4
16
30
-27
19
17
-10
28
-7
7
41
-26
15
-15
-11
38
17
38
-22
-9
48
-39
34
-46
7
-6
6
3
12
-12
-11
-61
45
33
-32
4
52
19
-9
17
54
48
13
-3
-67
12
50
-1
-28
-46
25
-27
41
15
13
37
18
-8
-8
45
-27
-43
17
43
1
-37
-68
23
-16
17
12
-10
-39
-35
-16
33
11
-17
9
-3
-14
14
-47
5
-60
100
28
-40
26
-22
38
40
-18
1
32
0
22
6
-29
70
-60
-3
51
57
7
-31
-30
-4
5
-58
-21
-13
-34
-45
16
60
-93
38
66
9
-15
-53
16
1
-50
-40
13
17
15
25
-58
-4
-10
-57
11
49
-8
9
9
-19
32
52
11
-41
57
14
13
-23
-28
48
6
34
-18
-45
22
-21
-44
44
44
-33
4
-16
-24
-39
29
-28
34
3
-27
-71
42
-9
-50
34
-2
9
-9
30
35
60
18
-27
-1
-27
-31
16
12
36
-7
26
18
-27
-84
-25
38
34
65
-20
-35
39
-36
-7
59
-20
-14
-13
16
4
-3
-52
28
-35
-22
-70
4
-4
-44
33
11
17
-51
6
45
45
14
-4
-49
23
21
6
25
0
-13
-20
29
-2
-65
56
-2
15
-35
8
-31
1
-3
56
37
37
2
-33
-33
-3
3
8
34
0
32
11
31
-31
-7
24
-2
-66
19
0
-11
45
27
-6
-1
12
-27
-36
-37
3
12
4
-27
-8
31
2
43
9
49
29
-5
-17
12
-19
-18
25
31
2
60
-1
13
-16
32
68
45
88
12
-64
-5
19
17
-49
53
65
6
17
-77
10
-2
72
-17
31
65
59
-60
-19
-17
15
43
55
-46
-31
-50
31
-1
14
19
-92
23
-17
-42
59
-5
5
5
10
35
-67
-38
37
47
-21
89
-41
-24
50
17
60
16
-20
-44
-13
1
27
24
54
-33
27
-24
18
12
43
-19
-39
-67
-51
-36
39
38
-9
22
-7
-5
-6
-17
43
39
15
8
-38
-32
26
-41
-37
43
22
-42
-47
25
62
-7
14
-48
-44
-26
27
-36
-9
-2
-11
49
-30
-45
-42
-48
-73
5
-49
-27
23
28
2
44
-1
16
-35
47
-22
-64
44
34
-11
46
10
29
15
6
28
-6
0
26
12
-58
-11
-45
16
52
-36
14
-30
27
-45
20
-20
28
32
3
18
18
-15
-3
79
11
33
17
-17
-4
21
13
8
3
-32
-40
-28
-24
9
-34
-15
-72
2
-37
26
-28
33
-13
-4
-16
-11
-43
2
48
50
25
-24
-9
10
-43
55
31
-45
-5
31
-25
-29
-13
-4
-49
-53
23
38
-19
5
-17
19
40
17
-10
-46
-21
-32
23
6
9
6
-10
-26
18
-2
-14
-39
-37
49
-63
5
26
70
-43
10
33
-25
-13
-51
46
13
16
-3
-10
-15
45
-30
15
38
-64
-18
-13
75
-31
-2
-45
3
-9
-49
47
-15
-36
8
-35
31
-3
34
26
-16
24
37
1
-32
41
-27
-37
30
-7
-55
-46
19
35
-11
-33
-18
34
43
16
18
13
3
-38
-20
8
9
-23
39
6
-39
-32
47
-40
-22
22
-10
31
34
1
12
-23
26
15
-3
-72
46
14
50
29
13
-18
-53
34
28
34
9
-42
-20
40
6
-24
-23
-2
0
-4
3
12
13
-11
-37
3
-2
-21
16
-64
-55
7
-3
-6
3
36
15
-27
52
-16
-51
13
-21
20
47
-22
-40
14
-43
31
5
-6
-10
-36
-26
25
-49
24
-21
-42
15
1
22
-21
22
34
-11
-11
-9
1
-18
-9
3
59
-24
-29
45
-57
-21
-24
48
-19
5
19
48
49
-55
-56
19
22
-11
-27
-6
-40
-56
-10
-27
1
28
52
34
30
-29
-6
-3
-44
-20
-6
-15
63
-1
5
7
52
-15
37
3
29
-13
34
21
22
-4
-21
8
-26
25
-33
52
16
27
18
7
-12
-8
-17
-49
-3
24
-45
17
-2
-35
41
10
-3
-6
13
-22
-7
25
-24
-39
1
-39
3
-20
19
-17
46
67
-6
-28
77
4
-16
-7
32
0
-11
13
32
12
1
31
-1
-8
9
25
13
-2
21
-45
16
50
12
-25
-1
-13
61
6
-19
2
-4
46
-31
-2
-35
-15
19
-14
16
-6
-3
26
23
-28
18
4
-34
-51
3
8
-30
-51
-16
-37
-21
14
3
37
1
-19
-60
28
28
29
-46
-16
-37
-5
2
6
31
34
-23
48
-23
-24
53
-12
20
-5
7
-3
46
16
22
-57
7
-15
-3
52
12
15
-46
3
33
-26
4
11
10
-7
46
4
60
-21
-10
-10
-41
-24
29
-12
-93
21
-12
-31
38
-5
-15
-46
37
-6
14
5
49
47
12
3
-5
-28
-8
9
-8
-3
-12
-35
-18
43
-51
0
-33
73
-32
-42
-32
-50
6
-35
-20
28
53
-6
-24
40
5
51
25
9
3
34
10
7
-10
-1
13
21
16
10
6
-14
17
8
-3
-52
5
-13
48
-6
-43
22
40
-12
23
15
28
23
38
-24
56
-15
5
-3
40
-15
-49
-50
-30
22
13
-20
-18
25
-14
30
19
-23
7
-4
-5
3
16
-31
-24
-34
9
-60
30
-10
0
-26
20
-19
-43
2
22
11
-44
-24
52
60
7
55
19
-36
-41
-7
6
31
0
15
0
-11
-5
16
-22
6
26
37
26
-57
-5
36
-3
-53
38
46
56
9
48
-19
-22
-2
-12
42
-18
17
7
38
0
13
51
-7
23
30
32
-12
-39
-9
21
9
41
19
-46
-46
-46
33
-57
10
-20
34
-32
-24
-17
-4
17
14
44
-35
-15
66
-53
-44
-11
60
-6
-1
31
12
24
23
-35
-3
-50
-7
-47
-26
7
-18
33
-1
-30
23
69
-39
27
27
-35
22
-76
15
16
14
24
61
-14
-40
44
-43
46
30
1
-56
12
59
-14
-66
11
-33
17
9
-35
-22
17
-24
-30
51
-13
22
-48
-52
-2
64
-26
15
29
-29
9
52
-35
-32
5
-12
-29
-22
53
8
-34
-5
4
-32
-28
32
41
5
-30
-41
86
33
40
14
33
-9
37
-20
-29
18
7
-14
8
-35
14
-18
-3
0
5
-17
18
8
-4
-5
-29
34
7
11
-31
47
-34
29
22
-5
-34
-49
31
-22
36
17
22
2
-11
17
-35
-34
18
-65
62
-8
8
-60
18
-82
37
60
-34
49
-52
-29
-22
31
4
-6
16
-22
-8
-17
0
-47
38
40
-39
46
33
10
5
-25
25
39
7
49
46
-16
26
-25
6
-5
-32
-15
-41
67
-31
44
-65
-35
-24
48
14
-43
-47
-5
-42
51
-17
-2
30
51
-25
-17
27
14
29
14
-22
-9
23
5
9
35
17
-22
-23
15
-56
-16
81
13
-16
-53
-35
-21
-21
91
24
-29
85
-17
26
-42
24
31
-38
11
-14
42
4
-41
6
-16
-19
16
22
6
41
38
-14
-5
-34
3
30
-10
-16
34
-38
25
30
-7
-1
52
28
61
2
-38
-23
21
-40
6
-3
21
-45
8
-39
-7
-26
12
-50
0
-6
29
-23
-21
3
19
28
40
11
1
25
16
2
-27
16
5
4
33
-57
-2
10
-15
21
37
-5
18
-36
-11
28
39
12
-16
31
25
20
-26
67
18
-14
-14
-35
10
6
23
-15
-10
37
-42
52
34
46
30
-13
-55
4
26
72
37
41
31
-13
-64
-1
14
1
-25
-40
12
29
26
6
62
43
-5
-7
-36
-21
15
-48
29
-13
50
23
-18
-5
11
37
-29
-50
10
4
-13
47
38
19
-24
-4
-56
26
-4
22
62
20
5
16
-9
83
21
-45
14
-10
-1
58
42
-71
46
46
54
65
3
78
34
28
-63
37
64
0
-6
-9
54
30
9
-35
-13
7
4
-51
15
27
24
-11
59
-25
-1
-3
-58
58
-36
6
67
18
-42
0
-6
7
-49
-25
56
-22
-45
-53
63
-13
-11
-9
24
-48
-45
47
7
39
-67
16
-55
-58
8
30
21
18
29
-11
66
0
-61
11
-4
16
38
32
13
69
67
-37
-15
-39
68
15
-94
6
45
83
54
41
10
-14
38
-3
-30
37
-15
1
34
-11
-31
23
-63
20
-37
17
-77
-40
-56
-21
-26
10
-20
9
-42
-95
25
22
16
-46
25
8
33
27
-40
-50
-8
71
66
-16
-38
-35
8
-44
56
38
-1
3
-50
66
19
26
-4
23
-49
81
-63
97
-17
66
28
-17
-7
-89
58
-21
37
4
-5
-30
-28
99
14
-33
15
-81
13
1
92
37
51
-39
-23
22
67
-31
-45
-6
34
47
39
-13
72
-66
1
-2
-24
-50
-17
106
9
12
39
-12
-3
-8
66
0
-4
64
27
30
-51
-11
-43
-6
47
-19
72
-10
4
-59
2
106
9
-3
41
35
-5
33
17
8
-43
27
-13
-14
36
20
13
-33
57
-17
-42
7
-44
-4
-8
14
-25
-75
36
55
-43
-20
-14
-45
2
52
66
48
-36
44
-2
-68
0
37
36
42
-21
-18
22
-9
-25
-51
44
-26
11
15
33
57
59
-17
-38
-33
26
-49
-40
-2
1
8
-38
13
14
-10
5
-41
-43
-23
-39
63
-5
40
-48
-21
37
35
-14
-24
-55
6
-49
-1
-51
-10
-18
68
-37
-45
55
-41
68
-49
32
21
86
5
10
-7
27
20
9
-32
50
-33
-9
-47
-55
-27
49
10
4
17
-2
53
-28
51
-14
59
7
87
61
17
-20
-59
-39
-22
-38
-26
-1
-29
-20
-51
-4
27
15
10
-50
-40
51
17
55
35
7
7
-55
-54
42
-48
-9
-20
-15
47
33
-39
-16
4
22
-16
-14
-24
80
11
-9
23
-10
12
19
-13
58
51
25
0
54
12
-26
63
-39
-22
18
35
8
-14
13
9
-4
89
-10
31
14
-24
20
9
8
-8
-55
-4
-15
-10
37
0
10
-50
-16
-10
-28
30
-32
-25
16
35
-31
-31
-22
83
-10
6
-41
-36
-32
-39
53
31
-34
7
-70
1
60
22
52
40
-39
-6
-17
5
3
-28
18
32
7
-25
10
28
-15
-35
-54
40
-19
-17
15
3
22
24
-49
57
41
-32
-43
-59
-54
-12
-45
24
-21
-2
29
-36
-24
15
-47
28
-45
50
-52
30
-24
-66
-60
9
-16
-5
-29
-47
10
-49
24
10
45
27
18
-68
-7
58
15
-10
10
-17
51
6
-67
-5
25
38
13
-15
-70
25
11
48
-1
-22
-10
75
71
8
-36
30
-4
11
2
81
39
-44
4
-23
-30
-6
20
-22
44
25
38
-20
-6
33
-7
19
1
-26
45
-38
-24
8
-3
3
38
-13
-16
-51
36
-30
-11
18
48
-48
-43
3
-11
61
-32
37
-17
41
-50
10
11
-34
10
24
-4
-22
29
28
-15
5
42
-19
-34
7
-40
-45
-7
-29
77
44
-7
-28
13
-22
5
10
48
26
-21
-5
-12
-42
6
46
23
46
-8
10
-6
-78
66
-4
24
-53
9
17
-25
-29
-14
-10
-6
29
-49
-50
-25
8
4
5
-6
-22
-40
-23
-44
24
58
-51
-12
52
31
-37
-36
9
1
-48
21
21
-33
-11
-19
49
-18
-22
4
49
-17
-54
-23
25
-60
19
-10
-10
-19
23
3
16
5
-23
-17
28
16
47
-9
-86
56
35
9
-13
15
14
42
-50
-30
-14
-8
33
20
-47
38
1
33
-61
68
-37
-8
1
26
-35
29
-16
19
25
-38
-50
-60
-15
31
-8
-33
48
24
57
-36
16
-15
-33
-57
11
36
69
13
-31
22
-26
-16
-9
5
27
21
-14
-17
20
48
0
63
21
11
14
22
-21
47
-48
-47
3
-14
2
4
-54
-1
37
15
-43
-20
35
30
41
47
-7
16
-29
-42
6
6
27
-7
-47
-36
33
56
61
12
-22
-39
-20
-12
5
10
-53
-10
38
21
8
21
-55
-13
8
-13
9
49
-29
-10
-37
17
-31
16
-35
29
-28
-33
-23
-10
0
43
-4
-44
8
-13
12
33
50
5
-7
-2
-9
-15
32
8
-5
71
-34
43
25
-41
-18
6
-59
37
-44
-47
13
-38
37
-42
-36
-13
12
-44
67
32
-29
-70
7
26
27
-9
-7
-54
-36
-28
-4
13
-25
-34
-13
-32
-6
-7
19
1
-50
15
41
18
13
0
-49
-7
-42
22
50
-40
38
43
-7
-44
-19
-35
20
19
15
32
19
-4
-32
77
-4
31
7
66
-30
9
7
-35
62
-56
-37
-29
-3
51
10
31
-34
16
2
-22
-17
17
29
-19
51
-20
-9
48
11
6
2
-40
-34
33
54
-2
9
46
5
8
14
5
-18
14
12
14
-56
-26
12
42
14
8
7
-66
-32
-5
-7
32
47
2
-51
-11
24
-18
24
-38
-38
-40
30
-12
-39
-22
-67
-26
-40
2
50
38
21
-2
52
-10
23
-80
17
6
9
0
25
-45
-36
-19
2
17
-63
-5
41
21
0
-23
-9
56
57
-5
-74
16
-25
-11
28
20
49
-8
32
-79
-44
-18
-4
29
34
-9
-26
-5
14
-42
21
-9
-41
25
-3
21
38
-23
14
25
9
-36
12
30
16
7
17
-16
-85
21
49
-4
18
-46
-42
4
-1
33
-66
-18
-4
-21
18
5
7
28
-42
-53
28
-30
13
7
3
4
-9
32
30
22
14
-7
-34
-4
67
2
83
15
34
-18
-23
30
-65
-20
16
47
-43
48
6
21
-26
-36
58
-12
-47
35
35
7
34
-50
-33
34
-4
52
-4
-5
-16
14
45
-23
3
-2
-5
-65
27
-12
-22
-11
24
28
7
42
46
-13
73
18
-54
19
-52
6
-9
43
-36
-23
23
-23
4
35
-36
-6
-46
-19
-75
36
17
-46
13
65
14
-42
-38
8
113
-37
-32
5
-13
15
42
1
24
-22
55
14
15
-59
3
32
43
-4
0
10
61
-53
-12
-72
-37
25
19
-5
53
-7
47
-37
30
-17
-22
1
-11
9
-57
-74
20
-11
-4
12
6
-32
17
2
65
-14
-26
-16
-15
-60
8
-7
-22
9
-7
3
-50
4
-17
-12
-16
-68
-17
36
7
29
32
-35
-1
4
-54
3
28
10
-7
-71
0
-5
31
-45
44
-22
21
-12
-24
47
-39
5
19
-1
-71
-18
17
24
-20
12
55
-32
11
-5
-15
-72
84
-14
15
-45
-38
5
60
-44
-43
-15
1
-13
-65
29
39
-17
-30
-28
-81
45
49
3
-16
-57
-20
10
-27
-44
44
41
49
29
15
-27
22
41
17
-36
-20
-8
24
69
-7
-27
41
21
-35
11
81
-23
-3
-39
-16
-43
7
30
4
62
-49
33
31
22
41
4
-14
9
-6
4
-50
26
-3
-2
-14
3
-16
21
28
20
-92
56
1
33
11
-10
-31
-1
0
9
41
-59
14
-7
50
-23
27
-25
54
1
8
-13
-11
43
40
11
25
24
-6
-8
6
-52
-9
16
12
7
-38
3
12
13
-16
5
23
17
16
45
23
-52
-17
-25
-26
2
28
-55
28
15
51
-52
-42
-6
-32
-14
32
5
27
0
-16
-16
26
-41
25
85
-25
-45
6
-50
59
2
27
-18
-18
-23
-12
-7
47
-43
-14
23
-20
12
-34
-39
64
-7
-25
-69
41
21
-31
-57
22
3
6
-2
-1
4
33
-4
58
0
-16
-2
-26
-17
0
23
-30
-10
24
1
48
-17
29
50
63
6
-7
-12
-37
53
-61
-29
-41
-7
6
-10
34
62
25
11
0
-25
-22
55
-15
-41
50
-17
-25
29
13
16
24
-83
12
44
34
14
-25
47
-22
15
-8
4
10
9
19
11
-44
-76
-32
-72
-9
15
14
26
-30
-25
-38
-25
-17
-4
32
-20
3
-6
42
34
-31
-5
-55
13
58
-39
-7
11
70
-4
-22
64
-20
-7
-4
30
56
-17
34
21
-39
-17
64
41
25
29
16
38
-7
1
-15
6
15
33
52
30
39
6
20
14
13
-27
-29
37
63
-26
-4
-10
-42
-52
-36
-5
-43
26
-15
38
0
-55
-52
-10
-13
7
67
-8
-28
-61
-3
57
41
-13
19
-56
15
51
-11
-18
58
25
6
1
42
9
-2
44
19
-16
69
-65
-3
-27
-23
23
-40
-5
-60
-16
9
4
-24
-49
9
14
16
44
24
-19
9
-2
4
-7
18
-12
-52
-51
49
-33
-31
32
14
18
-35
-15
21
16
-9
26
23
1
-83
16
-34
58
-1
14
-29
-30
-52
14
7
46
-4
-51
-52
7
-7
9
-7
54
12
-56
6
35
56
-50
42
-45
13
-5
31
47
-5
-19
6
18
-87
20
-40
25
-4
-64
17
-12
19
21
-29
44
-48
22
-39
57
63
20
29
3
-1
32
14
-24
22
38
55
4
67
-10
64
-6
-29
-5
-7
18
-50
-22
-1
-23
-49
54
-6
-51
-52
45
9
-23
-20
1
-77
-38
-62
9
29
-44
-62
-24
0
24
-49
8
-43
-40
-6
-80
24
17
-63
17
48
16
-42
-16
39
-2
-19
-7
13
81
-2
73
-32
-27
39
3
-2
-24
-47
52
36
-17
0
-14
40
-55
-7
19
-2
70
-10
-42
65
-47
-12
12
-33
-21
-15
30
-48
-43
11
1
6
10
9
-46
-1
23
-13
27
-17
20
-42
-61
12
24
-22
-3
-89
-11
-3
-11
-2
12
-86
-8
-10
4
28
16
36
-14
25
21
29
-30
21
-27
-52
-12
-61
51
-11
43
-35
-11
80
-18
-41
-2
-33
10
50
47
-50
43
37
-7
40
13
45
5
-6
-39
41
-53
-8
-5
-31
49
9
66
59
34
-58
-81
-13
13
-21
-52
8
-9
-44
17
70
-23
5
22
-30
65
9
-20
39
33
-29
-50
-87
-50
-49
1
-47
8
72
34
14
-8
31
-19
-51
45
-48
16
34
14
-60
12
4
-24
-7
3
3
15
38
-9
-18
-12
-16
-33
-2
25
1
0
-28
21
-34
46
72
-43
-17
14
3
8
-20
51
57
36
63
-12
-1
-10
-55
6
0
24
21
46
6
8
-64
-12
43
-39
-35
-30
48
-44
-15
-78
2
-45
4
14
19
24
-32
70
43
-14
45
-68
15
-6
22
23
-1
-49
-26
-35
33
-17
14
-20
10
-50
-22
13
-12
45
24
-63
14
17
-5
-32
-21
27
-1
-56
9
-8
-4
-7
40
0
-21
-21
31
-7
-15
40
28
18
43
1
-24
11
-20
-12
-53
-19
20
4
22
13
47
34
58
5
-37
62
20
53
-37
13
-78
-15
15
-49
-59
-21
-29
28
-6
-60
32
36
-18
-11
37
-1
42
-41
-25
-5
-38
-13
66
66
-35
14
-2
23
-11
-11
19
1
-32
12
-69
20
2
14
-21
16
-35
-12
6
16
7
49
49
2
38
11
-40
21
32
-31
30
-3
10
-3
25
58
24
4
47
-22
-29
-12
57
-27
-6
-5
-34
-18
13
-32
-5
-4
-2
-20
-15
-41
19
-35
14
-58
21
9
31
42
20
30
37
47
-39
5
-4
-53
-6
-14
-9
7
-17
-27
-47
5
49
-35
-31
23
-8
9
-30
-6
48
60
14
13
-28
33
-27
26
23
22
-42
-42
11
15
-32
0
0
12
31
52
-38
3
44
21
39
-6
36
-26
41
-11
-28
-8
-28
23
-24
-12
74
-23
35
23
-17
1
17
7
-19
-49
41
-6
10
-13
-15
19
-23
-5
9
-15
-11
-46
-29
3
8
14
-2
10
-4
36
-33
25
34
25
10
-23
20
-85
-3
4
34
-4
67
67
45
-12
-30
10
20
-77
-39
25
-53
37
-15
-7
11
-16
-34
-28
-8
41
-62
-10
-43
28
15
3
46
-12
19
-50
-3
11
23
19
14
2
-33
23
-37
-2
19
-12
32
-1
11
-19
-5
7
5
35
25
13
-11
36
-2
12
10
-9
50
-12
37
-13
6
18
-40
13
-25
43
24
17
64
12
48
-47
-43
53
-3
-1
47
56
-97
-76
-19
-72
18
24
-12
-36
52
12
40
24
-8
-65
64
2
65
-6
-3
-2
5
39
-25
0
-7
-58
-8
16
5
-26
8
24
-34
23
85
-40
29
25
-13
-3
9
5
30
28
-33
8
-9
23
-6
16
38
11
5
32
-30
-36
53
-43
-31
18
-17
-21
9
-43
-27
-37
7
-23
-28
-45
-20
-56
49
42
6
-60
-69
-34
0
38
-22
-10
-20
10
-71
38
-39
-23
-10
-21
6
6
32
-6
-12
3
31
17
18
34
-16
26
12
42
13
-51
59
37
48
-77
-34
-61
-28
-4
56
-7
-25
-49
-30
-2
23
-14
-3
3
-37
-44
-13
12
-3
22
-23
-19
-14
-3
-61
26
-22
-16
-1
-45
38
6
90
12
67
19
-22
60
40
12
-14
24
24
-27
57
-8
-12
-4
-56
-21
-3
29
20
22
-8
-37
-5
45
-8
4
-42
81
-18
-14
-23
-4
-44
30
30
38
35
50
-24
-17
5
25
11
25
24
-17
-29
11
8
-43
2
17
-47
70
16
-11
4
-20
21
24
25
-31
24
43
-55
-16
-9
-39
44
-19
-16
-11
-29
1
19
27
29
14
-63
19
-6
5
40
-18
-5
23
24
-58
-21
-21
45
-51
-6
35
-7
17
15
-43
-1
11
-32
37
56
-21
-27
-25
-36
-59
12
-2
-47
-23
42
-20
17
22
33
14
-40
9
-43
-42
55
37
23
-36
17
18
27
-49
-52
-50
-68
15
9
-43
-22
-13
6
-38
-8
-3
-26
-54
-8
-41
52
-18
12
40
-25
-49
-24
-14
-19
55
65
-33
54
-30
-13
-2
-6
15
12
16
-17
71
-10
40
-24
5
7
8
-41
2
32
36
19
-21
98
-10
-2
37
-24
26
-23
-15
8
35
-47
-13
-14
17
-34
-56
-6
-11
-9
-37
-29
-28
9
7
-20
48
17
-19
-35
-25
-19
-77
21
-45
49
-45
-12
-50
38
69
-40
8
63
-40
-67
43
22
-42
8
38
-43
36
54
26
38
-18
54
-47
13
37
2
84
10
26
-41
29
8
-5
-47
-75
34
-6
-38
-53
6
79
-1
52
-44
14
2
-39
31
9
30
65
-11
32
-30
-30
-18
8
-18
66
45
-26
0
8
23
-7
-21
-12
-28
-36
66
57
51
-48
59
-32
34
-15
-17
-13
35
-14
30
7
16
-65
-43
-22
-15
26
-9
-45
-19
66
-9
-54
-12
-14
5
-68
22
75
93
29
46
-9
-46
40
0
29
-3
-49
-10
55
-51
-39
22
-41
-8
42
29
9
-8
-19
-2
-27
-22
3
57
-46
-20
57
-30
44
-38
60
36
1
6
34
-29
26
0
0
-83
16
-26
-1
13
7
31
11
38
-43
44
-12
-1
-49
6
-7
40
37
42
33
35
58
35
-20
-7
-24
-13
27
-43
-43
-59
20
-6
-76
-58
-5
-36
5
12
6
34
7
11
-33
56
53
-46
-8
-6
-20
33
-36
39
-10
11
-29
-7
22
-37
-39
-6
-45
4
22
52
38
78
-46
17
-1
-4
47
-40
-58
-46
-9
8
-59
2
0
-65
-15
37
2
-43
23
-17
-28
25
11
1
36
-34
34
3
-16
-19
-19
40
-8
8
-15
55
29
13
3
45
5
53
6
-27
66
-31
33
17
19
7
26
35
-29
-17
55
10
72
5
-90
65
-15
-16
35
-35
22
-16
-30
19
8
-24
5
-13
-21
-19
10
-55
21
-13
38
-4
10
-10
-78
35
2
-2
23
-53
6
19
-39
19
14
-95
0
43
-16
69
44
56
3
37
12
11
12
31
-1
-18
-26
11
-42
57
-3
35
61
-3
3
-37
-23
-95
-17
-27
44
5
1
22
57
-11
17
65
66
-63
-19
30
-35
15
10
-40
-43
-41
15
45
15
-5
-43
47
-11
9
4
26
-4
-15
-42
-16
22
13
32
-18
-43
-24
13
61
15
-24
36
-74
-57
-58
48
-67
-1
51
29
-42
-6
27
-29
43
7
30
-27
8
-22
-36
21
-11
1
34
-33
-51
-43
-27
7
-32
-12
-5
-47
1
-35
17
-4
-21
-83
-85
32
21
38
-34
39
-49
16
41
17
-16
24
0
39
30
-2
-13
50
-19
-5
-41
12
6
8
15
7
-41
-9
51
-44
16
19
15
13
-16
31
63
25
-5
39
6
56
15
41
61
-6
15
5
-20
-25
45
21
-24
17
16
14
37
34
32
0
-11
-28
13
69
19
39
-4
-14
-15
-49
-10
18
-26
30
-21
-41
-12
38
-11
1
73
53
-8
-8
7
-3
34
6
-17
-4
3
21
-49
-40
18
2
48
-33
34
-6
-15
71
-10
47
39
35
31
-34
30
46
65
-64
-58
-16
9
-51
-26
18
-25
-27
7
8
-51
17
-24
-3
4
-30
-33
6
-50
65
-11
-50
0
-5
-6
-18
-12
-26
-25
-11
-3
32
-13
27
12
-36
-27
16
-10
53
8
-60
-12
-52
0
-22
-14
24
18
-29
-54
66
-21
-17
-13
7
-4
-17
0
14
28
-64
-21
-8
6
-24
26
34
3
6
-58
32
-39
12
46
43
-55
-66
-28
-8
33
-59
-6
-42
-13
10
27
-8
44
-25
37
-14
11
-21
2
-34
-40
16
25
44
-9
-5
-54
14
-15
-20
17
34
-64
-26
28
-23
58
-68
17
-36
-8
28
-19
-3
24
-42
37
29
8
-6
20
-17
9
-10
-13
20
11
-67
-4
47
-16
-13
-13
0
-23
6
-26
-79
3
16
-28
-73
78
74
-23
-28
-42
26
-57
-51
-44
-26
19
2
-40
14
-50
-44
-51
-29
55
-7
-1
-2
-37
77
2
40
-19
52
-32
11
1
49
23
13
18
25
7
-1
21
-62
22
-13
6
40
-25
21
23
-16
-13
7
-10
-9
-12
-37
-35
-22
-19
1
14
-35
-17
-42
-13
59
-46
-54
13
6
-9
-27
39
7
31
2
8
29
-10
19
-68
39
-8
31
46
-55
-7
12
-36
-47
6
33
60
-9
68
-1
-27
57
-13
46
-10
-43
17
9
20
16
-24
-12
-70
-18
-19
45
20
-39
-5
-51
-8
45
-12
54
-13
-28
-79
-40
-9
-5
9
-26
-44
-61
66
-28
26
3
15
12
30
-40
5
-45
-8
39
13
-5
-35
24
-74
-23
-4
-1
86
12
-17
-33
-29
-26
-2
-1
-6
-59
-32
-16
-8
-23
14
-20
25
20
-9
23
-60
73
22
-19
29
55
9
-2
12
35
33
54
14
-31
26
-32
-39
8
-31
-15
24
43
-7
20
34
59
-30
-32
-48
23
-30
28
21
-16
42
7
1
36
-47
22
-19
10
38
15
36
-57
-36
80
40
9
-18
51
31
-26
-25
-10
20
-46
58
31
14
9
-41
-1
-56
59
-39
34
-66
-59
74
-16
29
40
14
-41
19
-56
18
-57
27
8
-18
38
-67
22
-34
14
-20
-35
-62
-18
3
-14
25
7
63
11
40
15
24
-6
-20
44
54
42
-8
-16
36
-27
-44
8
23
-46
-17
-15
56
10
-40
18
-48
1
-24
-26
-4
34
17
10
19
-70
-11
-12
54
-9
-13
9
59
-34
-17
27
-32
-1
1
47
-60
-26
-16
-61
-6
-29
-10
20
-14
19
-41
70
-46
34
21
-24
-32
-78
22
76
40
28
-11
18
15
-23
-27
-33
-21
67
-41
0
37
-56
24
8
46
-30
-77
0
35
-15
11
48
12
-60
-74
29
-12
78
32
-72
-10
-15
-31
18
31
-53
-14
-6
35
-11
-7
-42
34
-12
-38
-63
11
10
3
2
-1
42
-64
-20
-27
15
22
51
-27
-20
81
68
30
22
-82
-29
-18
27
29
19
45
-4
-35
75
18
36
-8
37
26
63
-42
19
47
-8
5
7
34
-78
-28
-5
-5
27
18
-47
-87
-34
20
-28
49
-19
45
-40
-30
-60
35
15
22
27
-1
20
-62
55
-18
30
-33
-24
-52
-18
34
12
66
28
0
9
25
38
15
36
-43
32
17
65
70
-18
-31
-52
-27
-53
48
49
-15
-22
76
47
-30
32
-41
-78
-25
-45
-14
7
3
21
-41
6
-13
-21
34
39
-6
79
71
-74
36
-50
9
23
-47
15
-42
15
-29
33
41
33
-57
49
-43
-31
10
-17
9
-60
12
57
27
-7
-74
-26
66
28
-2
20
48
52
-13
43
-51
19
-19
2
38
27
56
-21
-10
32
28
-39
-3
-78
11
57
65
52
-38
-7
-18
32
2
27
-13
53
-7
-4
-34
-81
34
-17
-11
51
-61
33
-3
-79
42
-17
11
-4
6
11
45
-37
70
-27
33
4
43
16
-30
-8
1
-49
-8
25
-29
-7
-16
-33
42
21
51
-35
-18
-55
1
-12
-7
-36
-66
4
33
-6
56
52
39
35
21
12
8
35
-57
-39
-7
6
26
40
4
25
-27
-16
4
12
-40
48
6
-43
69
-49
-58
-19
20
29
-13
-1
16
10
16
47
-19
-28
-22
20
3
-50
18
-23
21
-14
29
-60
-43
-20
45
14
17
73
0
-60
3
-18
-49
-29
3
67
-15
8
-27
-15
27
-25
79
-13
-75
-25
27
-56
-85
15
39
-28
41
30
14
-94
-29
-37
-7
10
-33
43
-17
-38
-21
3
43
-62
-60
-65
15
-25
-26
-24
-46
40
55
-37
3
-45
9
39
-10
54
-68
-12
-27
-63
8
30
28
69
23
-7
-48
-54
19
23
70
-35
-61
25
4
-41
49
47
-10
-41
15
88
9
51
41
-91
28
35
-49
-4
89
-24
23
59
-33
-30
-8
-24
-68
-13
9
-17
-14
17
3
-18
49
18
5
-38
19
7
-60
13
-2
-26
52
43
49
2
-64
-20
-20
7
53
28
19
29
-9
59
32
7
13
104
40
-22
-75
-6
44
5
6
18
62
-90
-46
-71
-77
33
1
15
-99
-33
14
27
70
-38
81
-6
-50
-53
29
61
24
-19
-6
26
-51
1
-64
33
-66
-35
-23
-70
1
-20
113
-33
57
-50
42
95
75
32
-52
47
54
-19
79
-15
28
-52
-95
-66
13
57
-51
-60
72
14
-3
56
13
-16
-7
15
7
34
20
-39
67
-3
-31
20
-13
-11
31
-7
38
20
-35
31
-25
2
6
2
-63
43
-14
-48
8
-16
-18
-18
23
-17
-66
49
19
64
33
-58
-35
4
-37
14
-5
49
-10
-10
33
13
-54
-14
-72
-13
15
-16
-15
12
45
-1
-1
-20
11
4
-4
6
-5
15
-7
-50
19
3
25
-24
59
13
-16
8
-37
42
6
2
58
-9
-54
11
28
-50
-10
13
43
-21
-5
-27
21
-53
71
59
-29
26
-28
24
-1
-1
-12
-18
13
39
3
-44
-29
2
-27
-15
8
17
45
24
45
-7
3
-13
12
43
-29
4
-37
-8
11
-11
12
-45
-9
63
-19
-34
54
2
13
17
0
-11
28
-55
22
-2
-13
62
24
3
1
-26
38
-29
46
8
-50
-14
-52
-10
-12
-58
-43
41
38
48
8
24
26
7
10
6
-6
-16
16
53
35
53
-15
-21
-15
8
-22
-10
51
24
73
19
-13
28
-11
6
45
8
-12
12
-1
-42
-25
-7
39
-20
-6
24
6
48
-31
-48
0
12
-57
61
20
19
8
29
-21
-2
-4
9
40
-61
9
-43
40
9
-12
-47
-20
29
44
-3
7
32
-66
-27
-36
14
-11
37
-45
-32
-64
40
22
47
13
61
-46
-19
25
-3
19
10
-52
38
40
42
27
13
49
5
24
-52
-14
-22
42
38
26
-39
-24
3
-32
-40
-16
2
-28
-18
23
6
43
-18
47
-65
-32
26
-11
41
34
64
-33
-44
-10
35
4
-35
-31
-68
34
-10
30
-24
-9
-31
7
-26
28
40
49
-72
15
27
17
-28
43
-10
-56
-33
-12
-22
-22
3
41
-47
37
68
15
-14
5
25
44
54
-20
49
58
-36
-17
-25
21
36
1
-45
19
-58
34
-44
29
-8
-56
10
-30
60
-52
-16
-51
31
-1
-15
-8
15
-21
-86
27
44
-53
19
31
50
48
-1
61
17
-19
2
-33
18
29
-2
58
38
22
57
24
-9
-1
-1
-10
-64
8
8
-63
-17
17
7
-18
-76
44
35
15
-11
-6
-18
5
9
1
44
-22
10
-45
1
43
40
-9
-64
-81
-1
-18
70
3
25
-41
-1
-1
7
19
16
-23
12
47
4
-26
44
52
-25
-24
66
23
63
2
7
-75
2
20
51
16
32
-17
0
32
49
-34
15
-25
1
-15
53
-37
-8
3
33
-16
45
1
11
-24
-20
-46
-12
-58
-18
-27
5
-6
9
-30
4
14
13
49
2
-26
28
52
28
-27
-51
32
-20
9
-62
-51
19
-45
-25
13
-36
-74
11
1
8
-30
-54
-51
15
32
34
17
35
11
-42
2
46
8
37
-50
13
-11
-5
-22
-53
13
-51
34
0
10
-28
49
-37
53
27
-37
-4
-50
21
6
-13
-43
-40
45
-18
38
18
-28
-51
35
5
17
-51
-10
-15
-10
-15
-32
24
-10
35
35
18
-13
1
51
1
-20
-13
-41
-3
-59
-36
-16
-34
-11
44
28
63
-51
6
-12
-50
16
12
40
-25
35
87
-43
-43
-11
12
-29
24
-13
10
36
-35
2
-31
2
37
-8
-27
-11
16
34
-3
-40
-8
-26
-61
3
50
-56
-68
-3
65
-47
-59
10
24
-34
27
2
61
-19
60
-5
2
-54
13
-5
7
-24
22
39
-19
-18
-26
1
-77
14
9
8
-44
-11
-23
34
-23
8
19
22
13
33
-2
-67
-51
-66
21
-25
4
-25
52
2
-47
16
-2
23
5
12
-61
37
34
9
-87
60
17
-12
-68
-44
44
-27
-50
-19
-74
30
20
-7
-48
10
33
9
82
12
-59
23
13
72
-23
5
23
-30
-12
107
-14
10
69
4
11
28
2
61
-40
-31
-47
-14
39
-35
-43
-22
2
71
36
3
-13
61
-27
-52
50
-70
-21
3
-50
-43
-14
70
6
-3
-60
-37
15
-15
-37
-52
23
-10
-51
-58
-109
25
62
64
76
-36
-22
33
-14
2
27
1
-30
9
-82
50
27
17
-35
101
31
-50
-14
4
-60
29
7
57
37
50
-12
-1
-29
0
56
3
12
-58
12
-6
3
29
31
-2
60
-49
-37
21
48
31
-33
17
1
-44
-45
16
34
-59
-65
37
-21
-17
8
1
9
-33
36
-32
-6
18
6
18
54
-69
29
3
-13
-19
8
-20
-40
-6
-5
-5
-37
-38
-57
27
-27
-36
-2
17
27
-12
43
-14
5
6
11
6
-26
6
14
-25
11
4
30
-43
-20
-44
-7
-41
13
6
-16
54
65
-47
-46
72
4
-7
8
-39
20
-7
5
-6
-55
-15
9
-26
27
10
35
-31
72
32
-51
66
-19
45
7
57
-36
29
-51
9
28
-2
38
50
-39
-50
6
51
-25
-6
22
-24
-5
-8
-25
3
31
52
8
6
33
57
-26
-14
1
54
-24
-37
8
-104
25
46
23
25
-1
-13
-75
12
-5
-12
-54
29
-15
-32
8
-17
41
18
79
-5
-7
-16
0
26
20
21
-45
-17
-41
15
69
11
-16
27
1
7
13
-79
-24
11
10
-47
-51
-10
39
-53
66
42
7
-26
-17
24
-13
15
-26
34
22
74
40
14
-44
-63
47
-23
-54
4
9
24
-5
20
-7
-13
-37
-29
26
-18
44
3
-7
1
-31
40
-46
19
10
11
2
-8
5
-7
34
16
2
27
27
26
-44
-42
-6
56
45
63
27
16
-20
6
-10
-22
-26
3
6
12
21
12
25
22
54
-6
-25
-36
10
-21
-39
33
2
32
21
-10
-19
21
29
8
-11
39
1
18
-24
-61
-23
17
-39
-29
-48
42
48
-39
-42
-38
-24
-19
-27
1
-60
37
20
-5
30
3
44
23
21
16
-40
-45
-27
-1
7
-53
-33
-10
33
29
-34
-2
22
17
-46
-66
59
-5
-5
-37
-61
-22
-2
-24
-10
-18
-1
-56
-12
61
-32
48
16
-27
13
0
55
-13
-10
21
-19
30
-7
3
-18
-24
-27
5
-18
-23
-31
39
21
6
44
-47
-58
19
-20
23
53
0
20
-4
-42
50
-51
-16
-43
13
21
-27
-7
-6
14
-9
-39
-53
-6
14
-5
-1
-65
6
-53
-33
14
-38
18
77
-21
-5
-36
13
51
24
-17
-23
50
26
44
-21
-18
19
-17
12
2
-36
25
-31
-28
-55
53
-8
-14
-8
-34
21
-2
28
-47
30
3
-22
12
1
14
36
31
10
15
-40
57
19
-13
-13
-12
51
-6
12
27
-9
10
-50
58
27
-30
-1
-25
30
40
-23
9
18
-44
-31
-50
-3
41
32
-1
-4
46
13
-23
23
-22
14
-1
21
-49
-52
4
-45
-23
13
-17
55
-27
-3
-15
-20
39
-37
-85
-49
-52
12
12
25
36
-7
5
-37
-17
-11
40
34
23
-5
-22
-14
-41
-48
-7
25
40
-17
6
-8
-19
-35
-26
19
19
38
41
-24
-2
-20
-1
40
37
41
-9
18
-18
27
40
53
-34
45
1
-1
24
29
-36
-4
-15
-1
28
12
-16
-2
5
-6
-13
-4
40
-8
45
20
-25
-60
-7
-35
3
-41
23
-36
-83
0
-21
59
-46
29
36
3
31
29
69
-13
42
-58
70
42
-26
68
9
54
-10
-51
-52
15
43
13
-22
2
18
-30
-40
42
39
21
-25
-50
-39
-61
-33
76
-48
6
23
-39
-21
-26
20
31
82
-56
16
19
-5
-70
-34
9
-53
-60
-18
18
-68
32
-77
32
-72
-61
-39
-31
-53
-72
-7
7
-19
16
37
8
5
-64
5
-12
-36
-22
-3
-78
13
-42
10
-26
51
36
-30
1
74
-29
-93
39
5
43
-10
-53
10
54
51
82
-38
-15
-14
-7
30
26
-37
-72
43
-13
-21
70
20
23
-41
4
-21
-46
-23
51
-3
-65
21
-23
31
-5
-7
-46
-38
35
-78
25
-32
-7
10
-18
-23
27
4
-5
62
86
-31
-46
51
-40
26
-11
-14
-60
-60
6
39
-42
-23
-61
33
-63
-3
13
-20
2
-44
2
-58
-4
28
69
70
46
-13
-15
21
12
-10
-17
11
31
-63
23
58
50
23
87
-22
71
-56
41
8
17
-45
25
15
-22
-52
40
-47
21
-60
-34
39
19
-42
-38
-37
12
2
18
-1
71
34
63
-50
-2
52
-12
-35
-16
3
-21
-4
-2
14
26
20
31
-36
-2
30
-23
17
-4
-27
-54
-28
-20
-82
62
-45
-12
2
31
17
-13
30
44
-32
12
16
8
9
-16
-2
56
47
-43
23
59
9
-11
21
16
-1
10
30
-1
-17
31
-21
31
-21
6
33
20
-36
-5
-7
-16
-15
53
-25
27
52
-21
43
-53
55
25
-7
11
-40
0
2
-47
11
-22
36
-16
12
24
53
25
12
-29
-25
-4
-20
7
-3
-32
65
-40
14
1
-18
-16
-1
-9
30
55
-37
-30
1
1
-5
59
9
-10
-65
-28
27
-3
11
20
-13
27
-47
-20
-50
29
-9
51
-7
-11
-38
0
14
27
-2
40
3
29
-14
36
-24
-11
29
38
-18
5
-68
-24
39
14
3
8
-63
14
-14
-1
-14
-23
-16
23
3
-43
47
11
-54
7
-5
23
-8
64
24
0
-8
52
4
-35
32
-35
13
-10
-16
-36
3
-22
-54
15
-14
-18
53
54
16
-47
16
13
9
-56
-18
-13
59
-18
-36
2
-74
-1
6
-4
-5
-38
-21
-23
44
-13
-6
4
35
35
63
-13
39
7
-66
-50
3
-20
0
9
-41
-6
-80
-43
-11
-23
-52
-32
-3
-29
53
19
-20
-29
-47
11
37
21
-59
52
-19
-21
-3
-21
35
-8
-20
23
48
-5
27
46
46
-43
29
-46
15
-10
-12
19
16
79
35
22
33
-4
-11
-14
40
6
-22
35
-9
-1
4
-67
26
-14
-9
41
-30
-78
55
-18
-65
-36
50
24
-26
45
0
-2
37
18
7
23
-34
-36
43
-23
38
32
-4
-15
-32
-14
-20
-1
39
29
-13
-33
-27
-12
8
-5
1
13
-32
-11
46
45
3
13
51
17
11
40
-12
-34
-16
18
-13
-45
15
-19
-50
39
-62
36
45
-59
48
-26
-1
39
17
27
-11
35
-47
23
-75
77
18
-35
37
-20
110
-15
-27
-18
48
59
-21
6
-21
49
26
4
44
55
-5
7
-66
20
15
33
-24
31
27
58
21
-57
57
9
-32
-13
66
2
9
13
-26
9
61
-12
45
-78
-1
4
-39
5
55
-2
4
-20
-16
69
-6
-28
-48
-54
-56
-1
35
65
8
41
4
6
87
0
7
-3
-1
28
-12
23
-30
30
-27
-23
-37
12
48
-10
-64
36
-34
12
32
54
-67
9
30
-6
48
41
51
-60
-33
43
-57
-34
-3
-47
-47
28
11
0
-17
35
22
-26
32
51
-1
8
-60
46
-54
27
-20
-21
31
22
20
-10
8
31
-43
-3
-45
17
8
35
2
28
45
-46
13
-68
7
13
-57
0
3
32
-17
26
32
-7
-33
-48
-48
33
61
19
-65
-5
6
-50
21
25
-48
17
16
8
-68
-29
-19
-28
-5
-17
15
37
-15
27
-10
30
45
23
-37
38
11
31
53
-19
-12
64
-14
58
-7
48
51
-27
24
-25
-3
-30
-6
-5
22
-29
12
-19
-14
1
-114
-12
46
-35
-21
-76
14
36
33
2
-55
55
24
-45
-29
82
64
-78
-66
7
3
15
-13
-14
-11
-104
-6
9
-35
-3
30
-57
-8
2
-22
3
38
14
3
64
73
42
-8
58
6
6
-28
8
9
-54
6
23
51
31
-39
61
-16
-45
15
-9
37
-9
6
56
-26
25
-3
7
37
62
-6
49
22
11
-41
-46
68
-4
-57
34
15
3
6
-50
39
40
-32
-48
-50
-9
-23
-2
38
-17
-39
11
19
-1
-34
38
35
-70
-19
-47
36
-59
15
24
9
-35
7
39
-24
14
-50
53
-35
2
-12
33
35
22
7
76
61
10
-48
-44
19
-1
-38
-108
-14
-16
-16
40
38
-17
7
44
55
39
-43
19
50
32
46
1
-8
65
67
0
32
37
32
52
-39
-56
-34
-40
13
25
-28
-29
-48
-2
0
30
55
-24
-66
-58
14
-7
-49
40
30
-20
36
-17
14
-50
10
35
-5
-42
-1
-46
-5
58
-39
20
-25
-11
18
-29
-21
-4
-6
8
41
15
10
-6
29
-2
-1
-17
34
-24
-36
-32
11
30
-21
37
58
11
-17
0
-44
5
16
-12
-34
11
69
42
-41
1
-13
-35
-1
15
-7
23
11
47
5
31
24
-78
-11
-27
15
6
30
37
14
41
7
44
-1
-10
11
-1
-48
-43
20
20
-10
40
12
-9
15
22
-6
31
35
-10
-43
42
37
13
-2
14
25
-39
34
-8
4
20
0
22
30
30
22
-44
-48
1
-35
-44
1
-13
-30
-4
-19
-30
-16
9
-32
-42
4
14
-93
-37
-48
50
54
31
-15
27
62
-29
-18
7
-2
-16
25
-17
13
31
20
49
13
44
25
-29
-39
0
-2
41
-20
-15
26
38
5
12
-45
-5
-16
-16
20
-20
10
-6
-32
-26
4
-69
-33
4
-50
-15
14
-58
-8
-12
-13
40
-54
21
9
-32
-35
35
42
-5
11
12
26
-12
-5
17
-13
-26
-27
-2
2
27
-11
-55
0
72
49
27
-33
33
-55
22
28
9
1
17
43
-27
-1
-23
-9
-33
-28
-11
37
-39
-55
-46
-40
-25
-32
-41
-19
27
23
35
12
12
-11
-2
-16
-45
-27
10
-34
27
-16
6
-11
3
-16
40
69
32
21
13
34
50
-8
-27
-6
17
19
-18
21
12
1
10
15
-29
-51
3
-50
10
53
-46
18
21
-4
11
71
-39
-47
53
-2
3
4
-1
11
-12
26
16
16
-1
-1
-30
16
-24
17
-20
15
45
13
-36
29
13
23
-6
12
-4
-20
-9
17
4
26
74
13
-38
35
32
21
-25
-39
8
-46
40
-24
-8
-48
6
1
-34
58
3
6
-21
-30
-8
-39
-32
8
37
14
-33
14
-45
38
-3
28
33
13
-75
45
39
-2
-40
-40
32
-13
1
67
-8
3
60
30
-33
-25
-9
-21
16
-44
-14
24
-42
37
16
41
-7
18
-4
27
36
36
47
25
19
17
42
36
4
30
36
-62
22
20
-25
-17
-60
61
22
-9
-2
10
14
16
23
-21
9
41
42
36
64
-16
-19
-16
-24
47
-44
-16
8
-12
-2
-67
-36
48
-47
24
-18
11
9
12
-57
-11
-14
-55
-13
57
-2
4
28
9
10
-87
3
20
-60
-32
12
-8
-27
4
-34
23
26
31
33
22
9
-37
45
-58
-48
29
-7
28
-23
48
-29
45
-13
26
29
-8
22
-72
54
40
18
-19
-12
8
6
17
23
-23
21
-40
-57
-19
36
-54
19
30
-31
-30
23
88
-21
-9
38
-15
8
-3
36
3
-20
-6
31
-36
-44
-33
4
1
-11
-14
-11
-1
8
0
-63
31
14
30
-16
-10
-14
-29
22
11
-17
20
-21
-45
10
-1
22
-21
-58
52
-48
-42
-8
6
-46
-65
-27
-4
24
28
40
-28
2
-21
-39
30
46
3
-35
-2
-24
-4
24
25
13
-24
45
-23
43
6
18
-26
13
-22
20
-33
45
64
-28
2
20
-21
-32
-26
14
-26
-26
17
52
29
17
-39
-81
34
-23
45
17
-19
18
-26
52
-2
24
5
-20
19
81
28
-18
-8
9
64
83
32
19
33
30
22
16
-72
-47
0
-54
-27
-21
-31
73
20
-13
-48
-13
34
-13
29
45
36
54
40
45
31
-13
14
23
-31
77
17
17
-12
-53
-33
-19
-32
19
22
-23
-45
-29
-9
57
-73
11
45
-60
-31
-20
-37
-18
90
-69
36
2
54
-28
-39
30
33
-14
14
-6
30
48
-7
28
-18
23
1
1
7
84
-44
12
50
-38
20
48
10
-7
-58
-1
12
-6
-9
7
-103
-43
-8
46
2
-31
12
51
87
10
16
19
-20
41
-35
-85
19
-6
34
-39
-1
36
-63
8
19
46
-44
49
50
-45
26
-6
7
-14
29
-2
41
-2
30
-24
39
21
70
-42
-84
-41
-34
-7
1
-16
-29
-48
-24
1
-11
16
-8
-45
-59
37
-63
-21
59
-53
-14
1
-36
8
-59
18
-19
12
21
-2
66
57
-16
-14
-14
-16
59
23
-25
-26
-34
45
-30
-23
-34
-4
-32
-32
-38
-2
-26
-14
-49
31
22
-9
-71
-5
3
-38
-46
16
-7
-27
59
-27
22
-25
-4
-20
8
-30
-18
32
14
27
-52
-36
-38
-17
34
-6
-13
5
-17
-5
51
18
-37
-9
-27
-46
64
14
-19
17
27
25
-1
-62
-32
38
-29
-32
34
-91
-61
-58
37
37
40
-62
-12
53
27
12
-28
-13
11
-20
65
-40
-9
63
88
13
-39
16
-1
8
51
-3
-5
-83
31
-27
34
-31
-2
-56
18
22
44
-50
19
12
-34
5
64
-15
15
-14
-31
-11
-50
-34
-21
41
-14
-22
-26
5
-34
50
10
20
23
40
37
-13
38
55
-20
20
31
14
-51
4
2
-14
-28
7
75
22
-37
28
-16
-19
-27
0
82
-40
26
58
30
50
0
37
-62
15
-35
23
14
-12
23
-15
36
-1
16
-5
-36
-4
-6
-39
-22
-1
19
-52
-20
5
41
-60
-39
-16
29
-59
-18
-68
-14
46
-12
20
65
33
26
7
-7
-65
41
-3
29
19
61
-28
12
31
-6
52
21
-53
-15
-15
-13
34
28
10
-29
-12
7
25
-36
-15
34
-36
16
25
27
6
38
59
2
33
34
-54
8
-31
-32
36
28
-69
57
51
-27
29
-23
-20
-33
-36
4
59
-48
-1
23
-28
17
-49
6
-23
-23
-1
-8
-38
-17
-23
41
-33
9
35
13
-30
-46
24
-23
-65
48
-37
26
-36
-24
-34
35
6
-11
-32
-14
-40
-25
-45
-12
56
-20
35
-51
19
-16
-13
-6
14
-3
-19
-22
-28
44
-1
-38
-46
-14
64
-48
58
-8
-38
40
35
-7
-11
72
-9
16
3
-17
38
-9
21
67
11
-17
-19
-57
76
2
28
-28
9
19
22
15
12
-71
-7
-46
-40
-78
22
34
-30
9
-22
14
49
19
-12
4
-35
-62
-23
37
74
2
-68
55
22
-57
24
73
-21
76
-50
24
-48
54
-60
-53
13
14
-31
-43
-13
-1
62
-82
-69
9
-25
33
-24
-65
27
87
51
-27
-9
-1
-57
-32
82
0
-61
12
-7
25
34
78
-28
44
-4
-19
33
-50
15
0
25
7
-41
-4
58
-9
0
-36
5
46
20
70
48
52
-8
55
24
45
-48
41
17
-3
29
-2
-29
-65
39
20
44
-28
-38
24
25
-44
-22
-8
1
-38
54
60
57
-68
2
14
-50
31
-41
-6
22
7
-19
7
-63
67
19
8
-61
-1
37
-29
3
31
4
-2
-37
-9
68
-18
13
24
-42
28
23
47
-24
-26
43
-29
-33
31
41
-37
-22
-54
32
-6
-13
28
-34
65
-74
60
7
6
-8
-48
-60
-37
-17
-56
-69
-18
6
-34
-7
-43
-59
-19
97
80
-28
-61
47
51
55
-28
-63
38
11
94
20
40
32
-28
5
-7
-38
-77
-27
18
-30
-42
-37
11
3
57
44
57
-68
-11
2
-28
10
71
-34
-32
-49
28
-10
61
-37
-45
57
42
-25
22
44
52
34
-12
-39
56
67
-2
28
-15
83
91
-65
-36
-1
25
-58
-26
-9
53
-75
-11
41
-52
5
-39
-6
-20
-37
-16
46
31
-21
-20
-37
-27
24
45
37
48
-76
-38
9
-19
-36
-12
-12
-42
-42
-1
-39
38
-7
-17
61
-40
-72
-62
20
47
-79
28
-28
9
21
71
-1
-15
-46
74
-8
-3
-2
22
-68
-59
-51
4
-57
-8
-13
-12
2
35
-33
-52
-36
1
42
-54
-16
-2
61
-16
-21
-39
61
44
-17
0
-1
-16
-55
22
3
-28
50
73
-43
-17
26
19
-16
-22
8
-57
-66
10
44
-10
-52
-13
-47
-32
50
-49
37
28
-21
-36
38
55
39
-6
-28
24
105
10
-46
26
-59
7
11
-5
-48
-29
23
15
-56
-26
-34
27
-47
32
25
-89
12
-19
-25
-50
-57
83
42
2
18
-58
16
32
42
8
21
-26
20
-69
47
60
-16
75
-22
-43
44
57
39
72
-9
-27
49
-32
-33
3
62
3
-39
-48
-63
0
-27
-55
-30
-34
14
-4
-17
1
39
20
19
18
31
32
-7
11
15
38
-24
-18
-37
59
53
26
-34
-79
-25
-9
20
33
44
2
-68
-13
-44
-70
-46
13
-22
-7
-3
-1
26
-25
42
16
-1
-37
-22
15
17
13
-9
26
-41
40
56
-40
-66
-1
22
-4
18
-13
-19
-8
-18
-23
11
-1
23
-36
1
21
-10
51
2
24
-4
7
54
42
36
-18
-75
57
13
-48
-57
-24
53
-41
85
-1
12
27
16
8
13
23
-49
40
18
24
-1
84
53
28
6
47
16
38
-15
19
28
-65
-13
6
-30
-21
2
14
9
41
-6
1
-54
-47
12
44
-3
-17
-47
-40
61
-57
13
-45
26
-21
58
56
-47
-14
-20
-38
30
-52
-34
3
-18
24
50
-19
5
-14
-1
-57
-16
29
16
0
3
6
20
-24
55
-48
39
0
-56
-46
-46
19
-20
-49
16
-46
22
19
-42
0
22
-10
-37
-66
9
39
5
-23
-30
27
24
-68
-24
-17
0
-37
-2
-60
52
-7
-9
-18
0
14
-19
7
-6
45
-20
31
76
-61
49
-31
21
-14
-58
-3
27
-23
-34
29
-37
-17
26
-57
29
55
3
-48
66
17
-64
-25
35
-25
41
49
55
-68
-69
39
23
-16
-57
6
22
-10
3
30
-50
-16
21
57
27
-37
-31
34
69
-6
-29
46
11
25
40
10
-34
47
42
20
17
6
-21
49
4
14
-1
-35
16
29
26
22
-50
17
-61
43
27
-2
-5
14
-6
-22
-38
-64
-68
-3
-64
-1
2
-24
9
25
33
-5
21
13
-9
-17
-25
-37
27
-65
-28
-43
0
50
21
4
20
-14
30
0
-38
-54
47
25
24
-25
-3
-6
50
44
-7
-63
-1
27
-28
4
13
-11
-17
44
15
-19
18
-12
15
25
-8
-20
-36
-6
29
21
-32
-69
-14
47
-14
30
-37
-5
7
9
-11
-2
46
-41
52
-63
-52
-20
14
-24
-20
-60
43
36
-10
-2
-49
31
3
-67
-54
-34
5
-40
-25
-27
59
-7
-36
-44
15
-25
20
-52
-1
15
-31
-27
9
10
-23
17
10
-48
-26
55
-30
-6
33
49
12
-45
44
-13
42
30
-11
-16
54
52
-75
-2
38
37
19
5
9
-6
-43
57
-7
33
-2
-37
39
42
-11
14
-12
-26
16
32
-7
-18
38
3
39
42
37
-7
-28
17
42
-6
22
52
13
-12
-10
-18
-15
21
27
-4
-25
-25
-3
1
-4
-32
-38
46
5
-7
31
28
17
21
28
12
-15
-35
-25
-18
2
13
44
62
-21
-42
-29
-6
-12
-1
0
-10
-20
14
22
-36
-9
-72
16
6
-17
25
-23
-20
-25
-47
-52
11
-11
-41
8
10
-28
21
13
-11
-15
-25
-4
39
-7
3
84
-41
30
25
-9
-27
26
48
44
2
6
32
-36
1
31
6
40
-30
34
19
-5
49
-20
28
18
16
-39
24
-78
-10
44
-13
9
-1
47
-1
51
-54
26
7
13
63
8
7
21
32
-7
40
19
-64
8
27
-29
-35
13
-32
3
-28
-29
29
-10
-22
-12
43
-40
-23
31
17
33
43
57
7
26
5
0
-61
3
14
-14
86
-17
1
24
-8
-48
-18
8
27
-32
-20
-3
-25
-25
-51
19
25
38
-62
-1
9
-80
7
-8
-19
13
-8
-10
-13
18
10
4
9
26
-18
-23
37
-26
42
47
49
-23
28
17
52
-43
-25
26
6
4
-11
16
21
43
54
-8
54
-3
-7
24
-8
-30
39
38
46
-11
-3
-9
-25
16
7
2
-12
-15
-5
-19
-35
-53
-19
-1
-11
-52
-27
-35
-46
-7
-14
8
-40
-42
-71
-5
-32
-26
-61
-9
18
25
11
-22
-19
-52
-40
-34
-16
-80
22
-66
-14
-16
-2
-26
-5
-31
16
-22
4
-15
10
17
71
-2
-36
-17
46
31
-18
-35
41
36
2
-15
35
-20
-7
-37
15
42
-24
19
14
31
61
45
41
-40
-46
-9
-11
-7
-13
-35
22
30
-32
-30
4
-32
-50
25
1
-17
-54
-41
-21
16
-29
-13
-44
24
-13
-42
-8
1
14
-64
-26
40
58
6
16
1
43
0
56
-9
-12
49
7
-55
3
26
-17
11
30
34
15
40
-20
-19
-2
22
10
57
62
26
-16
-32
3
-18
18
41
-8
20
10
-78
40
12
-28
5
30
49
20
-4
0
-16
16
-20
-45
-7
0
-6
35
6
17
-30
14
26
34
-24
60
19
42
6
-18
-20
8
-49
12
-29
-3
-23
30
-12
8
48
25
31
34
4
26
-28
48
-2
13
17
13
11
-10
27
13
55
1
9
-17
39
7
49
28
26
-63
-19
-38
5
-40
-3
18
24
58
-43
-14
-35
-73
42
51
-30
0
-22
15
-25
55
31
54
-26
18
40
21
3
-9
-35
35
-27
0
3
-41
-13
-34
42
26
-33
-11
8
24
-56
-47
-30
-27
-10
-11
5
-50
-74
-31
-66
66
-60
60
13
34
-19
32
73
20
-17
15
12
5
17
-9
-61
-29
-4
29
22
8
50
25
-27
-8
40
35
-7
23
8
75
34
52
-24
14
18
19
17
47
35
20
46
-48
-14
21
5
4
-35
-24
-25
43
-17
-33
61
-21
-9
30
59
30
-33
-21
17
-56
-29
-5
15
19
30
-20
24
16
9
-33
18
36
15
-9
-26
-50
26
-21
0
-1
-13
-26
53
22
72
31
33
-20
71
5
-9
39
4
39
31
-45
-14
-25
32
0
36
10
-40
35
40
-32
18
-14
-57
-9
4
35
5
4
10
37
36
40
-57
-21
-52
-40
-39
36
15
-50
28
-40
-20
-23
-66
10
33
59
27
44
45
-14
4
0
7
15
3
-18
38
17
-41
-57
-33
-34
-14
-51
-18
7
-45
-52
5
28
-21
-27
-65
5
9
8
25
-4
-3
5
-56
-31
-27
-31
26
-35
-9
-15
-31
15
44
-32
54
-17
-48
44
15
-9
-14
5
19
43
9
22
-21
25
-3
25
-18
12
-41
33
-15
-21
9
34
-21
-23
7
35
-1
1
-33
30
-24
-32
12
3
-7
16
-26
-42
-44
-39
-16
-49
-4
7
24
23
4
-27
-54
-12
-39
11
7
-45
-34
7
-56
7
-35
-30
12
28
18
47
-4
-14
-56
12
-42
51
26
16
-50
-28
28
-46
45
50
-5
-4
-3
3
-13
-7
-23
-15
-19
0
30
-28
0
40
8
10
-7
48
-35
-32
-14
-9
13
-34
-8
78
18
-30
-35
-17
42
63
-44
-22
17
18
37
7
7
-10
3
-28
-6
28
-68
26
0
57
-14
-14
35
-3
-13
-24
-3
-38
39
-28
-54
-1
-33
15
-35
13
18
68
44
-23
38
4
-9
4
0
33
-22
-10
26
-23
1
57
-33
-19
-26
3
-3
23
-4
-32
-5
49
42
31
-29
31
-2
3
20
7
-24
-47
12
54
-20
37
20
-9
-42
21
-43
-6
11
9
-25
-64
-25
-3
-48
53
-25
-14
22
-77
20
-17
48
-11
-31
66
8
13
31
-27
38
39
11
-25
-25
-9
4
-6
-11
-9
29
41
51
-3
-21
31
-18
50
16
66
-7
7
-18
18
-19
-23
54
62
13
-5
59
1
2
-26
-16
-61
27
-41
16
31
3
10
-63
-1
-25
16
49
-54
-16
-79
-29
-10
-3
-31
34
-4
-8
48
-34
-11
64
36
12
-35
15
60
1
-33
34
-54
-60
-7
10
-21
15
8
-82
25
-5
-3
60
-5
-34
53
27
23
-53
-47
-63
-16
19
-60
39
-5
39
29
-48
-23
10
29
3
-24
68
-26
29
36
-12
-43
16
14
-27
-24
-25
-68
37
-88
-36
-56
33
37
-25
32
-73
-23
38
28
70
-41
1
19
53
86
-2
-13
17
-40
4
-45
-24
45
7
-45
33
-41
-53
27
-44
-29
35
-28
-33
-1
-34
-1
-44
-1
-56
-12
46
-47
-29
-40
0
-34
53
-45
-3
-28
25
-18
-33
-20
50
-18
-13
34
-24
50
10
36
23
-35
13
46
-9
-11
38
34
38
-29
34
24
-43
45
-2
45
-23
-17
-21
-12
0
33
-50
-6
-7
-70
2
-65
-20
21
-64
-68
2
-25
-2
20
31
-50
12
12
21
-39
-44
10
-4
19
-52
13
-22
-19
29
-36
-50
-50
69
26
37
-8
-18
6
49
24
70
-47
-31
3
-12
61
38
-24
44
-9
-14
-23
-31
46
38
-40
-35
67
-36
50
40
-21
-39
42
-60
4
11
-14
-15
64
-98
-19
20
-26
54
21
19
79
12
26
-31
26
-58
-21
-24
-6
-29
2
-22
1
49
-18
-46
-9
54
-29
-66
-10
-32
11
-19
33
-10
47
42
-15
-42
59
-17
-37
8
-75
57
-57
-6
-57
8
-29
42
-20
-25
-43
39
-32
53
88
-37
33
2
-24
-27
37
-54
25
-24
1
-51
7
-41
69
-58
12
52
14
21
37
37
58
4
31
-11
49
-9
27
-33
50
33
7
9
18
-12
-11
-26
12
13
12
-37
-15
-9
-4
4
-6
19
-12
26
17
-17
31
-71
-29
16
45
-8
-39
-30
27
20
24
-31
-3
3
-47
-17
-9
51
-7
30
3
-4
-28
-13
-28
23
-50
-1
-41
17
-31
28
41
-17
5
2
33
-8
-2
5
27
-19
-11
73
24
-41
-3
-1
-23
28
-11
-11
-44
55
-16
65
16
41
-15
-52
7
39
24
12
-44
37
-13
-1
-9
7
10
49
54
-18
24
56
-5
-24
28
-24
37
46
-11
-32
-35
-10
13
-52
-13
17
-29
-6
5
-35
-11
-29
-14
37
23
-53
-25
-3
28
10
-25
2
-45
-64
-14
-40
44
7
54
-29
-24
-4
-33
45
3
18
65
47
84
-21
24
8
-24
91
-9
-31
1
-3
1
-31
51
-26
-20
26
-11
-33
37
19
47
14
1
18
-48
31
22
-4
-47
-62
-23
13
-45
-3
-64
37
15
47
-11
10
6
-2
-13
-49
51
-34
89
-26
7
-22
-38
52
-42
11
9
-48
-17
25
-46
-8
1
5
30
35
-7
-39
30
30
25
17
41
21
25
17
-47
-43
29
-14
-38
24
23
-22
3
19
-62
23
-51
-1
33
-47
30
29
46
20
58
10
19
60
42
-30
-6
20
-11
-4
35
31
-1
-9
-27
-29
-74
36
21
-5
24
6
40
7
23
-39
-15
42
36
40
-65
-33
41
-9
-10
-7
-10
43
14
-31
-39
-48
12
-48
-54
-36
-41
9
-11
26
1
3
8
-43
-51
37
3
-18
21
-20
-2
27
-44
-10
-1
-24
-16
-50
2
-4
-3
-4
29
-55
21
-26
-7
7
-12
13
3
17
-15
29
3
-2
-32
60
15
13
11
18
-24
-34
-12
4
7
-35
-6
2
18
45
81
-54
-6
29
-32
47
-1
39
-3
-19
-1
-51
29
-12
-12
-4
-41
28
-17
6
-5
-27
-45
10
17
5
-19
-42
-25
21
58
-31
45
-68
19
-10
28
-1
-34
31
18
30
7
-21
-20
14
-18
-54
-16
-15
20
11
-31
-7
55
-16
41
13
13
40
-7
98
-1
-60
7
-39
48
-39
-13
24
-3
21
73
19
-39
15
1
-51
10
-66
14
-39
-4
21
8
-4
17
-19
-34
5
44
5
-34
-29
23
-35
14
56
8
11
-55
-11
-48
40
8
-17
-17
22
4
-5
-19
7
1
-79
-9
-1
-8
-68
-36
26
23
66
-7
18
2
-20
5
-2
6
9
25
-9
30
-3
-51
-11
14
27
-4
16
8
-30
27
5
16
20
-29
24
-29
-25
25
11
41
20
3
-34
-61
53
43
-67
-23
0
-57
0
-9
-4
49
-30
3
21
29
-9
-47
8
2
78
4
-29
39
-59
2
36
5
23
64
7
-13
35
30
14
59
-26
4
66
-63
-29
36
-13
-69
-15
-45
26
19
5
32
35
58
-33
5
-8
3
-56
-4
-57
32
-49
2
38
35
66
-27
-60
-12
-19
-66
33
31
5
8
-15
82
-16
32
49
25
-19
48
37
-35
72
26
-21
0
24
35
15
-42
-30
-38
-39
51
-21
22
-9
19
-9
-71
29
26
-21
15
60
25
-4
46
6
18
6
39
-6
1
27
36
-21
-19
63
29
31
9
-23
39
-9
36
8
-15
-2
27
-57
-46
45
-24
20
-24
12
-35
23
14
-48
1
-18
23
21
8
5
-60
-18
7
62
-41
18
-29
-52
-46
31
41
32
41
-20
15
8
-17
-24
51
2
27
50
27
4
28
-35
35
-17
-57
-18
5
22
8
14
-2
-48
-27
-7
11
-40
56
-23
18
26
-51
24
-4
-7
26
-4
-58
-14
-18
19
-33
-73
27
-14
29
32
-20
-20
9
30
5
-38
25
0
-19
-25
-44
19
-3
-8
-61
-57
2
5
5
-4
-21
-26
43
49
55
22
-72
-23
-57
-2
19
53
46
41
17
44
-14
27
6
-51
-6
40
25
-14
36
17
0
56
-79
9
-49
-2
-33
-36
-49
4
-34
-23
15
-39
-32
3
-7
2
34
61
-68
3
8
38
11
55
-22
-70
-37
7
18
56
-14
4
-2
47
18
5
-13
-19
2
20
-21
-32
49
6
33
21
-24
15
-57
9
-40
-25
22
-22
18
-25
33
33
8
-41
6
20
-6
-54
5
49
-23
-6
17
-13
8
47
-29
-24
9
8
-23
61
-67
-60
-40
46
-42
-79
0
-2
27
-11
-6
36
52
70
-20
33
18
-54
-18
-55
-39
-44
19
-30
-11
-27
31
3
60
3
-57
-4
-4
4
-7
67
13
-53
-25
-48
-5
-42
30
41
59
-23
-49
-1
-45
19
54
71
59
-14
-52
-70
-4
-57
-18
-19
-39
51
11
47
-44
-33
-76
-44
42
-45
66
21
26
-66
38
1
21
34
52
-39
44
15
45
0
-5
-52
43
54
8
32
14
-34
-11
-3
23
-29
-22
37
12
-41
-21
13
1
36
-51
9
-31
14
23
-58
21
25
-34
31
-11
-16
11
-20
10
-24
35
-11
-44
31
-6
32
7
-26
-3
-31
-23
-27
-19
55
17
1
-36
-54
27
9
20
-3
-40
-36
-32
24
74
16
46
37
26
-25
-5
-16
4
-53
-21
36
8
21
-27
-33
-16
36
31
23
2
8
-36
3
43
-6
-28
-56
62
-8
54
-33
-38
0
-4
3
17
-36
-1
21
-11
16
14
15
10
12
-17
-5
-33
23
38
-62
-22
-23
-3
41
29
2
12
5
32
-38
-13
47
21
-27
-32
27
7
-9
45
-24
-5
37
-19
-61
-3
7
-13
0
-53
-20
10
-26
-2
55
13
21
35
-10
-54
37
6
6
40
-39
18
-37
-62
25
20
53
36
-21
12
-17
1
30
-16
14
-44
-35
35
30
-22
-92
40
11
-6
-14
-52
11
21
47
-29
-31
8
38
-7
9
-21
5
-21
28
80
25
-3
-10
26
37
10
20
-12
10
11
-50
-30
19
-9
35
16
14
-73
50
7
-24
34
5
10
-3
0
13
26
-39
67
-11
-13
-39
-52
-37
-31
-15
-32
-47
-56
-14
-42
-48
-18
-42
47
-15
6
-39
-32
8
-5
21
2
-17
27
5
18
34
-12
-51
-5
-20
-32
-32
5
-2
-30
-28
-5
16
36
33
-8
31
47
1
8
-2
-22
16
-13
-30
27
-17
-44
-39
-47
1
-21
17
26
24
31
-31
-11
-7
29
-7
-37
14
1
-11
-7
27
31
25
-67
40
-39
13
61
16
-32
31
74
12
72
14
0
7
-17
19
-34
14
6
27
-14
-78
-13
-33
-10
-10
-8
-28
24
-38
10
44
33
-35
55
43
-21
35
-20
-6
46
-38
-36
9
-17
6
-5
26
44
23
-32
40
16
-79
-27
-18
14
-3
9
16
-22
-43
-6
-8
60
-13
11
22
15
-1
-46
17
19
3
2
-59
22
10
-43
14
-24
13
-7
3
10
13
-6
13
32
-28
30
-39
-51
-33
18
16
26
-25
25
-15
-49
-31
7
4
54
-26
-16
-37
46
26
4
29
-12
45
15
-1
3
12
-45
18
-15
-13
41
27
34
-19
-22
-6
75
37
-5
7
-30
26
-62
36
1
12
-9
19
-12
-17
5
-1
17
-5
26
-36
52
38
10
41
19
-16
25
16
4
8
60
-44
24
20
-13
46
40
2
-43
72
-27
41
54
18
50
2
9
83
8
20
-24
1
-14
2
-13
6
-12
40
6
-20
19
23
-20
-14
72
-3
49
-16
-16
-11
23
-5
-116
-5
-38
-25
-28
-23
18
84
-34
30
-37
-43
32
22
-44
-10
-9
-14
43
-24
17
17
-59
11
30
31
-1
36
-7
-2
-54
-42
12
53
35
-24
22
-8
-2
-41
-35
-25
26
26
-65
71
32
-10
57
-39
-19
44
25
46
6
73
-26
44
-40
3
-13
0
-23
7
-27
-4
25
21
-25
23
-3
52
19
45
19
-2
45
13
62
-25
-13
22
26
38
39
-21
-70
-3
-46
24
24
27
35
3
-41
-20
-46
40
-14
-26
-25
33
21
-53
15
-33
-47
4
-18
-30
9
-10
-33
5
25
-49
-5
32
-38
0
-28
-75
-1
3
29
-16
10
-20
8
16
7
59
-5
18
25
-10
34
-48
-72
-15
-34
51
-4
76
39
6
25
8
0
23
43
12
-79
-38
8
4
-24
35
18
11
19
21
29
-22
-45
-38
-9
62
43
45
-8
-28
47
-11
-40
27
13
-40
-27
22
-43
-42
-25
52
-18
16
35
-20
-19
50
-16
-71
-14
46
-10
18
25
36
-35
17
-29
47
54
14
13
-17
9
1
-4
-18
-52
7
18
-24
31
35
-45
7
-9
-36
-14
-43
40
12
4
26
31
2
44
54
-3
-19
-17
-59
-31
-63
-43
-15
-7
40
-49
-80
-27
-15
-23
36
-40
1
-33
-32
30
27
-24
-10
-1
22
21
18
0
3
-27
7
11
6
46
-28
10
34
-32
38
9
-14
-59
-55
-4
-28
-13
61
22
-26
0
41
46
-3
21
-35
23
9
-55
-2
60
11
-38
-20
-34
-34
4
30
23
-26
31
2
25
25
-47
32
47
-3
42
-32
15
50
-28
29
-5
-11
45
-42
32
10
-30
-23
34
-34
-35
-30
6
-6
39
-50
-71
43
-42
-14
14
33
18
-2
11
-5
-38
-38
46
12
26
1
29
-31
-1
-8
-41
4
-29
-44
-21
-46
-70
-11
17
14
7
-11
-22
73
-8
-41
14
-3
-68
11
49
-8
5
-4
25
-33
19
-42
-37
67
-57
-32
-39
-83
-40
33
-29
63
15
-43
27
-8
49
26
-19
-31
-17
-8
43
-1
25
42
24
-30
80
-33
29
78
-17
35
37
-26
-39
60
-7
-38
40
-36
31
28
8
66
-4
56
46
-16
71
6
-6
-10
-14
7
-25
28
43
-11
7
8
-6
1
29
-31
-1
-49
-62
-42
13
-17
45
1
43
16
-47
-35
16
-5
6
-8
-74
-63
-50
-44
-34
-9
-37
23
-8
-55
-44
15
-6
-22
19
25
-8
-2
-39
-32
23
-59
22
-48
43
-2
33
17
28
27
20
-12
2
-13
2
-31
24
62
52
6
50
-30
64
-21
-11
-6
2
-16
-69
-9
-3
0
-29
12
-29
19
-32
-6
-31
-3
-28
-8
-17
13
39
-34
-16
19
17
-6
2
-36
52
29
-34
-2
27
-33
36
-11
26
17
-11
-33
-35
48
50
-27
-13
-19
-38
-39
5
19
-1
-3
19
17
-39
-36
34
5
-48
-15
36
32
12
67
-8
23
31
16
-23
-47
51
-38
10
-34
14
27
-17
11
28
-28
23
-27
-47
-27
1
-45
13
-29
-10
-28
-28
-65
41
-56
10
-4
8
29
6
-9
27
31
20
0
2
-34
59
12
37
14
-3
-32
18
2
-34
-39
-10
41
38
-61
21
-22
36
0
18
-8
-45
25
18
-29
3
-17
-49
-5
-12
35
17
-16
-34
41
-38
-40
19
4
-66
-16
-10
-4
8
-64
10
-23
41
28
44
-24
56
-13
15
-1
3
-18
-60
26
-15
43
1
16
29
45
-27
-8
1
27
35
56
22
-6
-1
1
28
-51
48
-55
25
-12
9
26
-2
-9
-19
-34
3
26
-34
1
-15
-47
35
56
-28
-17
53
-19
40
-53
12
12
-24
26
17
13
-24
52
-37
-34
-61
42
42
-35
20
5
49
35
7
19
-68
-34
8
-34
-2
-17
4
19
-37
-45
37
-43
-55
-5
-49
-54
11
-6
-42
23
1
0
-58
-7
-33
-1
21
-29
35
-26
24
-14
-55
-19
-18
9
-4
43
-6
-66
-14
-14
2
45
-46
-22
46
16
73
-28
49
42
-48
13
15
-3
9
35
9
-30
-2
-8
-16
49
-35
-48
63
-45
-21
-13
-30
22
63
-25
-47
-16
-40
-3
18
63
23
-11
1
-44
7
-17
4
-53
-16
14
54
-40
-8
56
4
-80
2
18
-34
-7
-20
-25
-29
-6
28
37
70
-14
2
7
50
-23
-31
-50
-73
5
-22
6
-44
-29
-57
4
-62
