7
15
4
14
0
26
-38
11
-54
-75
-32
24
10
26
-6
-37
-20
0
49
2
-1
-21
0
28
67
-3
-9
-3
39
-26
42
2
78
-44
18
8
-16
14
14
18
27
-15
-12
1
-30
53
47
1
44
32
-2
2
11
25
26
79
-23
66
-17
-1
-6
-17
16
3
-16
45
-39
-23
-6
9
-7
-5
15
35
-32
-28
49
-35
10
27
58
-16
15
9
16
32
-65
6
-25
-22
6
27
16
4
18
32
-33
20
-27
-36
40
33
-4
-43
10
-4
8
-50
27
23
-23
3
-9
35
-22
42
21
-14
-65
20
-14
-17
0
14
-6
-2
-21
0
-10
-5
14
-4
-6
-17
30
-40
-22
5
31
48
18
3
5
9
-11
24
3
16
39
32
8
49
15
10
8
36
-11
-29
-31
27
-52
6
39
-2
-30
28
11
-14
-15
-19
-28
-11
3
22
-18
-11
-22
-13
-10
-45
-26
-64
-55
2
20
13
7
11
-29
0
-19
-7
-53
12
30
47
5
22
13
21
-44
-17
-41
18
-44
-57
-22
21
-16
17
14
-14
-46
23
-19
-5
-16
6
21
-10
-27
21
-16
-27
32
17
51
38
0
7
13
-13
26
-30
4
1
-12
1
-3
-9
-9
42
-26
4
6
-13
-16
-18
-2
29
-1
-32
-30
-13
2
12
43
-12
29
1
16
11
20
27
-22
0
-26
-11
-31
-5
19
-6
16
11
37
1
11
18
-10
23
-23
31
-9
-1
0
-18
0
3
14
-23
12
6
58
21
-7
7
33
-5
-3
-12
-15
32
-1
14
22
-15
11
1
-3
27
-46
31
-30
6
31
24
-30
-8
-1
25
0
3
-13
48
-10
-9
51
-23
43
29
54
10
-10
-9
-19
-20
-22
12
10
-8
30
14
2
29
-29
7
22
20
-29
-27
-22
65
-47
-35
56
20
10
-47
70
-15
-15
9
-22
18
33
12
-4
-17
-28
-12
-3
-14
-5
-25
-8
1
-17
22
43
-51
-15
-5
39
9
32
1
37
-11
-9
2
13
-43
-24
-18
40
24
1
43
42
48
-37
0
45
-1
-28
7
18
-2
69
21
17
-84
23
25
6
-8
27
-21
1
-3
-21
15
18
7
-38
15
50
30
-5
61
-9
-1
-17
19
-60
17
46
29
7
-24
-9
-11
-56
30
-37
27
-23
2
3
-21
12
-27
1
-63
-9
27
-84
0
8
-4
20
8
-19
29
-10
22
-57
-21
-44
-13
-17
-34
31
19
23
8
49
10
11
17
15
-26
-3
-6
35
-49
-25
34
16
-6
-26
-20
40
29
16
13
-20
-22
-6
36
27
-19
-33
7
28
-11
-14
-19
40
-25
-12
8
-1
33
4
-65
19
-25
-24
-8
30
44
31
-14
4
57
11
-2
19
36
-40
-5
6
40
11
46
-3
10
39
-34
26
23
-19
28
-21
31
33
15
-43
-4
-4
15
26
13
16
37
-1
-2
32
11
-3
-32
-34
15
11
-27
-40
12
-12
5
13
-21
5
-6
-10
-24
-5
-11
61
45
22
-6
-4
-40
-65
-31
-21
35
-40
-21
56
-2
-13
-22
-16
-9
-9
2
-39
-3
5
10
35
11
44
3
-55
4
26
-18
21
8
3
-2
-12
6
41
-40
30
-36
12
-15
22
-11
26
26
-19
-14
5
28
-26
64
14
40
-43
-18
13
-17
4
-5
-14
32
22
-33
18
40
-4
46
11
18
-7
15
32
-62
39
30
28
14
23
5
34
19
-61
38
17
-31
1
18
9
-27
-33
40
-39
-1
-29
10
7
47
-31
-32
-14
9
-4
-14
-22
44
8
4
-8
66
-8
-3
55
-24
-15
-17
-41
-5
15
-24
-26
-12
8
38
24
2
-2
1
-13
-1
-11
-13
0
-1
1
21
11
-5
39
-11
-11
40
-1
-31
36
3
-6
0
26
14
8
18
-47
7
-53
6
17
-25
23
17
-6
-11
26
6
23
-16
-39
-42
2
52
-37
-44
-56
-25
13
-13
16
-3
-2
-7
-5
30
8
-5
-5
-7
0
1
-36
28
0
23
71
-8
-13
34
-51
-3
-7
-41
-26
-15
97
-5
21
-20
10
-8
-4
-36
-2
20
90
-26
-2
-24
51
-7
-1
9
-20
4
7
14
19
4
71
8
25
2
-31
13
-1
45
5
55
51
21
-7
-50
-9
63
3
11
32
-33
-19
7
20
7
-17
-2
-26
36
31
-17
-1
-15
16
-19
27
23
-10
-23
17
10
-21
6
4
4
-25
-48
3
11
-18
36
18
-26
0
30
-33
-5
-7
22
114
-10
19
21
-28
-32
-27
-33
-60
21
12
-21
21
-27
12
-15
1
76
-48
75
3
-3
-3
-26
65
26
40
41
42
-7
-32
14
39
-9
-60
23
32
-25
5
13
-6
52
-28
-13
-16
23
26
-14
-41
5
118
-27
7
7
-20
-13
11
1
-17
54
-1
-1
2
-24
-4
-20
-43
-59
3
3
3
-24
45
-12
-18
-11
43
13
-3
-11
-39
49
-20
-42
0
-14
-23
39
24
17
-7
10
-29
0
9
-41
-33
37
-29
1
-47
6
28
8
-3
-11
-22
5
5
24
-17
-8
10
0
-30
0
-31
12
-11
-10
25
-10
-17
-50
27
35
13
-3
56
-29
4
-55
40
30
32
15
5
-3
15
40
-4
-2
-2
5
13
26
-25
1
24
49
-5
14
7
37
-55
16
-29
10
6
5
32
-14
-14
-23
52
-38
19
-30
29
-6
16
-8
-28
22
47
-8
37
12
35
5
-11
0
-4
27
-3
15
2
-48
-16
-9
41
-14
24
-5
36
13
13
25
-18
7
-9
22
34
-13
-15
25
1
30
35
-8
16
-7
2
0
3
9
31
-25
-17
25
-10
-55
-17
-23
-8
34
-26
-40
6
-15
-19
-43
55
30
-1
56
-24
9
-37
42
11
-34
3
4
25
12
21
41
18
-23
50
10
-25
7
-1
-4
-10
-5
2
-68
-49
-11
66
54
9
-36
-28
-20
39
21
-4
-45
-4
-30
11
-22
26
24
-23
-12
12
45
12
-11
-2
-5
-19
5
-5
23
62
54
28
-48
67
4
-41
-37
1
-2
-43
-16
-40
-39
21
8
1
19
-34
12
-28
-23
26
21
13
1
37
62
68
-15
39
-12
11
45
-2
51
-19
-11
-50
5
-5
24
73
-1
21
24
1
-9
-31
-23
14
46
-21
-1
17
-42
-15
-34
-12
14
20
34
21
45
44
43
32
-20
-12
3
7
4
-28
37
-15
-16
45
-10
3
25
14
-41
-8
43
-27
-37
32
-26
30
29
-9
-70
-2
16
-16
-19
92
-22
-32
-54
-33
-19
45
11
-5
26
-3
-25
-1
-27
51
58
-3
-1
-10
-16
-29
-23
39
11
-24
-27
32
24
-12
51
-43
26
-59
7
-16
49
10
38
73
31
16
-7
13
14
-51
16
-24
41
1
-49
-21
47
19
-37
30
-34
-23
-14
-20
-39
20
-2
16
-38
33
37
12
2
30
47
15
-39
41
-15
-8
-12
-10
19
-9
50
30
-40
-18
-14
23
-9
30
15
11
-44
-30
18
-26
19
14
11
20
21
8
-31
-18
-5
47
-13
21
-36
54
44
16
15
-28
-16
28
69
-38
-23
0
42
21
-26
5
32
57
-54
40
-6
-24
-1
-31
52
-26
9
16
-33
32
6
-35
-9
-34
-22
-44
-7
7
0
18
-42
37
4
4
5
-54
-4
-6
-17
6
-2
-16
-2
19
20
30
-9
-22
-2
-2
2
-7
37
-4
38
0
-9
10
12
-10
5
4
-17
-45
40
-20
6
-14
3
-1
7
-3
-9
-29
-11
-31
-35
50
-14
15
-4
-3
-17
22
-7
6
-5
-7
19
-1
9
-21
76
-6
-23
54
-18
-14
6
34
17
-23
51
39
-4
-56
4
58
-7
-75
0
48
-10
-21
7
8
8
49
-6
-14
-12
-11
-28
47
48
3
6
4
39
-12
-18
37
9
30
-18
8
-23
4
22
-16
-3
-3
-5
-5
3
31
-38
56
-20
14
-20
40
10
-13
-23
22
-21
-1
1
-54
30
-25
33
65
-2
-13
-1
-22
8
69
-59
-26
22
6
64
-2
47
36
-46
-1
20
10
-67
11
28
-5
-3
6
-2
1
39
-6
-10
-48
-19
-16
-8
7
-7
33
18
-19
-2
-15
-71
-8
-52
11
52
-1
17
56
-19
-22
26
-2
-20
-21
-17
64
-29
-3
-2
2
55
-12
-19
14
-29
13
25
-17
-4
-60
-10
-19
18
-14
-24
-21
-19
-25
16
23
56
-2
56
60
13
-16
20
-31
11
61
-16
-9
21
17
-52
8
-5
-33
-10
23
-34
30
40
32
-36
95
-12
29
32
-25
34
8
-49
42
-9
11
-27
-2
24
18
70
-21
-37
34
-13
33
10
1
-62
1
-20
-1
5
-13
-48
45
-16
-55
27
10
-1
65
36
4
-27
8
-2
2
-1
28
19
-16
6
29
-10
-1
-8
34
-16
40
-44
-15
41
13
14
9
24
-57
0
-16
1
7
102
-15
-6
-1
-60
5
-68
-42
-14
-20
-41
-55
16
21
22
-24
31
45
31
-33
-13
-30
0
-28
26
26
-37
-19
2
30
-34
-13
37
0
-38
-5
42
-36
-36
-12
-1
7
-50
-14
-8
0
15
29
4
-25
5
12
-15
3
-30
-20
-29
54
-36
29
-37
-50
7
30
31
46
10
8
3
16
-11
49
-16
37
13
48
13
-21
3
13
46
-8
15
-8
-8
0
-22
-34
-14
-25
17
29
4
1
-11
0
-8
-9
37
-22
-33
6
-23
12
-30
-3
-43
-14
14
25
14
45
13
25
1
47
-5
-35
-8
52
-34
61
-22
-45
-13
54
-49
31
-68
-34
16
10
-18
28
14
-6
17
7
25
25
-9
19
-5
17
43
20
5
-14
-20
46
0
49
-53
-60
11
11
6
1
0
39
-44
36
-12
21
10
-4
26
-3
38
-14
21
26
-25
-24
-9
-46
4
9
5
56
3
-11
5
-9
20
-9
35
-13
-37
31
-2
3
-11
-5
-38
14
-22
-12
15
45
33
48
1
-20
-39
-1
-34
0
9
-15
-6
35
-15
25
0
-6
12
36
-47
5
19
14
54
26
26
61
17
-20
24
-3
-20
-43
67
-27
16
-8
18
6
2
-4
23
-3
-17
45
2
-1
14
2
41
-33
-20
44
-22
26
13
5
14
8
10
18
27
22
13
9
-32
-42
-27
-4
-40
1
-5
-9
-22
-4
20
-35
-18
4
-17
-34
-3
-51
10
-4
44
44
-27
44
-1
15
5
17
-2
-25
4
41
-29
-9
-4
13
40
-24
-2
-38
18
-41
-25
-29
36
39
-3
-5
-14
30
34
7
-32
27
-49
27
-20
19
49
22
-11
46
16
49
-32
3
-13
31
72
17
0
68
-15
-25
26
3
-14
10
41
2
18
-40
49
6
-39
-46
14
3
7
26
0
-23
-6
-2
-13
27
1
-4
10
24
-26
42
11
15
5
-26
-8
22
37
-25
25
-49
43
-1
-17
21
-19
-5
1
-5
-9
4
20
10
-93
21
-49
29
-15
-24
-2
-24
-10
-30
-21
1
-6
1
5
-29
-9
-17
10
-7
9
-1
-2
-14
-31
-14
6
24
13
15
34
-3
-9
-3
25
-42
38
6
33
-25
35
-16
13
2
6
-41
-33
15
-46
18
3
42
42
2
12
24
-28
1
32
-1
32
60
32
13
9
-10
52
-40
10
-12
-44
-19
7
12
10
-16
-19
-1
22
-4
20
46
12
6
7
-24
-35
14
-3
-48
9
33
4
48
21
27
10
-19
-24
-12
-28
-1
-14
32
-34
28
-13
-2
-20
-4
-7
-21
7
13
-24
19
-17
68
22
29
18
-14
-8
24
-14
15
-17
-11
-24
45
-44
59
65
-7
-14
32
20
-13
10
-1
62
-19
-11
41
-25
31
-17
4
12
-8
-4
25
-19
7
27
12
-32
8
19
-23
-1
32
0
-5
12
12
35
9
16
-28
6
8
36
13
21
41
53
-15
49
1
-9
-2
10
-26
-22
41
29
-55
-13
44
0
-7
-6
32
15
1
56
-32
-40
-4
6
-28
-15
-24
-17
-31
-17
-33
-24
42
-35
3
-1
-6
-56
17
-17
-18
36
-27
9
-27
-3
-30
-61
18
-2
18
-13
36
3
27
-5
5
50
-7
-29
-16
44
-6
9
-4
4
-20
-16
29
1
-19
-2
19
-12
-27
-2
59
-8
33
-6
-39
79
2
69
25
24
17
44
21
-8
24
11
-19
30
22
40
27
-86
3
-31
-63
44
-16
67
-18
-24
-24
-14
19
14
9
-5
-49
16
16
-9
47
-6
-16
-39
15
-26
47
-8
-5
36
-57
62
-7
35
2
-6
-23
-4
13
-19
13
24
37
-33
-50
-18
-46
-24
-21
-39
26
14
-14
-15
44
-27
-29
27
-19
17
-62
8
-1
-38
0
15
55
15
-37
-39
-5
52
-44
-3
-14
4
-2
43
-31
-16
-1
-2
-10
6
-15
56
-30
-6
20
-82
-27
18
51
4
64
-36
28
-19
25
-5
-26
16
-16
40
51
30
10
44
74
7
-33
-56
-34
-61
-27
-12
-3
23
-53
-44
41
37
-32
9
-12
31
24
-38
91
-41
-88
-38
-40
-12
5
2
36
24
23
38
6
35
-30
-18
-36
16
-6
13
-12
31
-11
22
1
-8
-2
21
-30
56
52
-32
-14
-35
25
-22
7
-31
-15
-48
8
-5
-17
12
1
23
31
19
-5
20
59
24
-6
0
-27
17
-61
-14
-36
-9
-43
19
-37
35
9
-12
-1
34
-18
-28
26
20
10
-38
48
-14
28
-20
-14
23
-23
-13
12
-23
16
-16
-10
-48
0
31
52
-17
-9
18
19
12
-15
16
73
7
-3
7
52
-37
8
-49
27
-53
17
-25
25
20
55
-85
31
-20
27
-1
29
29
16
-5
-4
66
-18
11
46
-1
-13
66
54
-15
9
-38
15
1
-16
-13
9
-27
19
-46
0
-3
37
5
-7
-16
37
15
3
-12
26
-5
-14
-7
-1
7
-3
-47
-43
-17
-12
27
-10
33
10
-6
19
-28
-10
-35
15
-7
-12
-19
2
7
-7
9
-8
-41
-23
-19
20
34
5
-57
-48
38
-1
44
29
-19
0
-18
-13
-27
57
-25
3
-21
66
-52
-11
-3
-6
-35
24
16
-19
10
27
20
-43
-26
27
33
-37
23
22
31
22
-1
1
0
7
-24
8
-6
27
30
32
42
-11
25
59
-10
-36
64
-34
-30
20
-15
-5
25
48
7
-53
-71
-5
12
2
-8
-30
28
-12
-18
7
9
-1
-6
46
8
4
16
60
-12
-25
-1
-61
-15
2
-4
48
-33
48
-7
19
-33
27
-16
2
-5
-89
35
14
-6
50
83
41
1
-10
0
-35
-6
-28
-24
7
-3
30
-27
35
-52
13
-26
-52
70
-12
-32
28
37
-30
-15
33
-22
-24
13
-17
8
-25
-16
22
21
-41
20
-13
56
-10
4
-3
0
-23
3
23
47
84
-13
-16
23
1
34
-1
-24
15
13
11
80
11
33
24
-4
-14
25
-20
-54
3
32
5
-35
15
-6
-22
16
38
-27
-19
-17
3
35
25
23
-27
12
3
-41
-27
-65
0
22
-21
-7
10
8
51
-58
-2
-22
-27
-47
-40
34
55
32
38
8
48
22
17
-16
22
15
-18
49
-3
0
-39
32
-14
30
17
12
15
16
-3
-13
-3
-35
41
0
5
-49
-3
28
-5
11
21
31
2
-17
-12
-42
13
-15
-2
18
25
-7
-11
14
-45
20
44
0
-31
4
-12
24
-4
3
2
17
-42
6
26
9
-10
-6
19
-18
-16
33
-33
21
20
-33
14
-54
17
-2
5
6
12
-14
23
16
-64
-8
-17
38
16
7
25
-11
33
-12
-15
-20
15
-5
28
-34
13
21
21
34
51
-43
46
-4
-6
58
51
-3
-2
-20
24
55
-50
-25
40
0
15
32
-6
-15
31
-10
3
-48
35
-46
4
-17
-55
-38
19
-14
22
-12
-69
-37
46
-37
42
28
-25
1
19
33
7
41
24
35
-40
17
-55
18
13
-7
-1
-42
21
11
-11
-22
6
7
-2
4
-10
31
-11
-19
11
-47
-19
-19
36
-45
36
2
-54
41
-14
-18
4
-5
29
29
-11
-7
12
-8
41
-46
5
4
36
-61
34
-18
-42
-59
45
25
13
-1
1
16
-39
-15
9
-11
23
21
-9
-30
26
-71
0
40
32
-45
99
26
-2
9
8
14
-25
-22
12
-12
1
43
-20
-8
-30
-29
40
29
-5
14
31
24
-21
-14
-33
-30
-44
14
-5
19
-28
11
43
22
21
20
54
18
-7
23
-39
80
38
29
7
25
-3
-9
-26
-9
9
-10
-4
8
-15
-35
42
48
-22
49
17
-7
-28
-24
12
-25
-13
35
22
13
-31
-11
65
-19
-12
40
25
-32
22
53
-30
-30
-43
20
68
4
-13
-3
2
-16
-6
32
-22
9
-51
27
6
52
-21
-27
6
-64
-29
-9
7
10
16
13
-61
-13
-16
48
61
64
27
-13
51
49
34
25
-23
25
27
14
-61
18
-38
12
-50
57
14
-13
-82
58
-43
-1
10
15
7
39
-32
26
47
-4
1
-32
-47
-21
9
1
23
14
9
4
18
-27
12
71
2
-5
-32
27
-25
-5
-14
37
-10
11
-10
-9
14
20
15
-42
-2
16
35
-26
8
-22
-41
-19
-40
33
1
-12
29
16
17
-2
-11
-31
0
30
72
-10
60
-8
51
19
35
30
-2
1
-3
46
12
-4
9
43
-37
7
-6
61
-25
17
21
32
-13
-12
7
6
-33
18
45
-24
-71
-3
13
-9
5
23
24
-17
-41
-4
-17
25
16
-25
-19
-23
54
-29
38
-23
9
53
47
-20
-22
-3
46
5
-4
9
54
-17
34
-31
44
-2
-14
15
41
32
48
-30
-17
33
49
31
-6
-18
-1
32
14
26
18
-12
-28
2
15
-12
-13
-89
-50
-12
19
-1
37
-52
52
-19
4
-19
-6
20
40
-2
-64
82
23
9
29
-11
27
-12
26
13
29
12
-4
40
40
53
-35
-19
32
34
-54
-41
6
-51
-22
-28
17
17
6
20
-34
1
46
-18
8
-75
-10
-18
-16
6
-2
-40
-46
-13
40
81
63
-27
-14
13
16
-18
-26
34
67
0
-12
-29
68
-19
24
1
-6
-20
-44
30
18
-10
-21
-26
-1
-21
-21
37
8
49
8
6
5
-10
-25
-6
-10
-10
83
-10
-31
36
60
25
18
-19
22
-46
-7
-41
-2
-22
-18
-29
18
-21
12
-14
37
13
-4
-37
-18
-2
8
-4
-51
38
-5
67
-12
0
63
-17
9
-21
6
12
-3
30
12
50
-17
-22
38
22
18
28
-28
1
-34
33
12
-6
-15
-23
23
1
-16
-54
16
35
16
-41
33
-42
18
34
-3
7
68
36
12
20
6
28
13
30
37
58
11
-33
40
14
-31
46
-30
18
-13
21
-4
-28
3
-5
0
49
-18
4
-34
-38
20
10
22
-11
-38
3
8
14
70
1
20
45
-13
-5
85
39
-8
23
-30
-20
28
-24
-7
39
14
-1
9
-29
-6
-48
-19
-13
-15
-11
-47
-7
-2
-44
26
-29
20
-40
6
41
-57
-26
-13
-24
8
2
-20
5
41
-22
1
-9
59
6
-20
43
9
56
4
-21
1
21
-7
22
-11
33
-16
5
-9
-23
2
-28
4
1
-39
12
-2
22
35
29
19
12
-17
20
72
-12
-4
-44
-7
17
-2
-22
64
-9
-10
-6
-2
21
0
-28
10
-14
8
15
0
-23
-41
28
-15
-32
-14
22
-1
-30
-4
-40
-27
10
1
11
29
25
29
-9
-18
-2
-50
-29
-46
6
0
-95
-19
13
7
17
36
2
-17
49
7
19
17
-60
33
-28
56
-46
13
4
-35
-38
-9
-22
4
29
10
-25
37
-17
10
41
34
-11
-3
-39
-17
38
8
-24
12
5
-15
43
-16
31
0
-21
62
-19
6
45
-16
19
-58
21
20
-2
59
-5
-30
38
0
4
-13
30
49
29
-18
5
13
-80
44
19
11
-3
27
12
-24
28
-30
-42
-32
-32
-47
36
12
27
10
-1
-33
-35
-7
-58
32
-44
26
-16
33
12
22
19
-38
38
-59
-18
13
35
24
24
-18
-24
-42
48
-9
24
-4
3
-13
35
-9
20
66
-33
0
-36
-76
4
30
51
11
30
-35
15
-8
-20
2
-32
28
9
-7
-20
-18
-29
27
51
45
-56
1
-3
1
-35
7
54
37
9
-38
7
17
23
-38
50
6
-1
-27
-17
-41
12
83
-2
-5
44
-9
3
1
-12
-4
9
19
-4
27
19
27
-32
-11
-25
-15
-23
-22
-16
0
-68
10
2
-12
-8
9
-34
-46
-44
36
43
4
8
14
1
-4
42
95
6
11
15
31
4
35
-5
-3
-18
-23
26
-20
2
19
-62
20
36
31
2
-4
-21
-12
54
-35
65
16
69
-1
-5
24
57
62
-18
4
-17
-19
-22
38
-45
23
6
-1
-7
13
-22
85
21
-12
15
20
-16
-14
10
3
-12
-12
61
16
22
-19
-25
28
-18
22
-22
-17
3
15
34
71
-7
-40
-3
1
-21
41
-4
33
37
-4
28
-21
-34
43
-19
-12
-24
-18
-38
-81
37
-29
47
-38
-31
3
47
7
-69
-80
68
15
48
-4
12
53
-25
-4
11
19
-99
-64
34
-1
13
31
-6
39
87
-23
9
-18
40
66
-7
3
20
-14
14
30
-17
-14
1
-34
13
-30
80
-4
-38
-13
-16
1
54
12
-15
-36
18
31
-6
-16
-12
35
29
-49
23
-37
31
17
-42
-12
6
-30
-13
-45
27
41
2
18
15
-25
5
9
60
-44
-11
7
-7
-22
63
-17
-4
-22
-5
19
-1
-29
22
-26
6
7
12
36
-8
-26
-13
-18
-45
17
19
-50
-23
-80
49
45
-52
-24
33
8
-45
-9
6
-42
56
15
43
78
-3
-34
-27
30
14
12
-33
18
-1
16
28
-4
-27
-2
46
13
-19
-15
46
-25
2
12
19
-3
6
-16
1
20
-10
6
-40
-8
31
39
49
22
43
-8
-42
14
-14
55
-26
-15
-38
9
24
15
17
-9
15
-35
-72
-27
-9
-12
14
-3
20
6
13
20
-2
-26
38
13
4
5
-9
-70
7
5
-27
-9
10
-20
-28
18
-37
4
-13
-53
-60
2
-46
25
-30
-24
13
44
-39
-45
-29
28
74
-70
-29
-47
23
21
-31
-10
-6
-6
-2
24
-5
-9
1
10
4
29
-9
40
-22
22
21
14
-12
17
21
-16
37
37
50
-4
-18
56
62
-37
-6
4
28
-55
-40
-21
22
0
-18
61
10
-25
27
59
-4
-5
13
-9
-15
-38
44
18
-40
-23
30
38
-69
-24
-6
24
-14
-32
36
68
18
40
61
87
-11
-6
-9
-1
-27
1
14
13
45
-8
30
13
-1
18
-7
-3
29
4
23
19
18
-19
19
18
10
-7
20
-8
-47
-25
-21
31
9
-11
30
12
33
-48
-42
37
-62
44
36
-16
-12
-19
22
-67
-42
-42
53
15
32
-23
-37
-32
13
13
16
7
-10
-4
19
10
-42
25
-20
-69
11
-9
14
-43
11
34
46
9
-33
-48
-59
20
57
12
12
11
6
4
-26
0
9
-4
58
-10
-12
7
-52
11
9
59
-32
-29
30
22
44
-7
1
41
-68
-19
17
-50
9
-32
29
35
4
-14
-7
-28
-18
-33
-21
31
-18
12
1
66
6
59
0
29
-1
58
-27
4
-5
62
53
-14
48
-12
-24
-34
49
1
4
19
24
32
-2
12
-14
-5
15
8
17
-3
15
42
-6
8
-22
-51
-23
-23
19
4
15
20
-17
15
9
21
13
45
11
39
-38
-22
-24
60
37
26
-1
-1
33
-23
5
8
31
44
-25
19
-41
36
57
-10
-42
42
17
37
8
-32
53
32
-46
11
-11
8
-29
20
66
25
-28
47
21
35
47
-4
-18
-10
-2
21
-13
27
19
12
33
0
7
-15
19
-18
-25
14
9
18
-22
13
-32
29
-30
50
-43
-18
46
18
0
12
21
37
-20
19
30
4
50
-39
43
14
-12
-50
-20
8
-18
-14
19
20
68
-42
1
11
-69
23
-25
-21
-10
5
13
-65
-24
39
1
20
-32
-27
22
-32
-10
-23
15
35
-9
-57
46
-17
20
-10
6
63
-37
7
-51
-68
-37
0
53
20
-24
-23
0
10
64
-49
29
-8
11
-3
-41
0
19
13
-28
-39
-31
58
18
3
9
16
-17
-25
-30
-36
-50
26
-36
9
-22
4
7
5
-12
27
2
7
-6
18
-12
2
-9
-36
-7
-18
21
3
43
-4
27
-5
-51
-1
-25
64
-50
-9
37
17
-4
26
-15
22
77
40
25
12
18
15
21
0
48
-4
-7
35
-8
19
-13
48
34
9
8
41
-29
65
1
24
4
23
21
-12
12
-25
26
64
10
-23
23
5
-10
17
8
-3
35
-7
-33
-39
31
-17
-34
-23
23
28
-18
14
-3
22
-31
37
56
30
33
31
49
-14
12
31
-43
27
40
-13
21
73
-33
27
1
5
22
20
14
-52
19
-66
45
-63
-9
-4
-26
-30
-38
-17
16
-47
1
23
-1
16
30
19
14
9
27
-14
-30
7
-64
15
-10
-24
-16
9
-8
13
23
45
-42
25
6
16
-25
1
12
7
-79
-42
-60
18
-15
-13
9
45
-28
4
-4
16
46
-40
-21
0
30
62
-28
-9
-45
65
-5
37
-10
-20
-25
-1
-52
25
21
72
8
-7
48
-2
38
66
43
57
39
45
2
-15
-20
22
65
-39
-44
10
-26
-56
-1
-21
-16
15
-16
7
57
-5
9
40
-27
2
17
-8
-3
-38
27
-22
-5
-10
-20
11
-3
3
-71
-16
-23
-4
60
25
2
3
-20
1
19
-15
13
38
16
-14
63
-12
-3
-45
56
-27
-34
1
-15
64
45
-8
-32
8
-13
-30
92
-15
-18
-33
-4
-4
-32
1
28
30
-20
-9
-12
50
60
8
-19
47
-39
59
51
-10
60
27
17
38
-15
-7
14
-1
-5
21
-2
-15
-28
52
-15
29
-2
-41
-40
17
-41
-10
9
-50
5
-26
-42
-7
44
-33
-34
5
10
-28
9
70
3
89
7
26
48
24
40
-42
-9
42
49
26
-15
12
-57
-16
15
-9
-52
18
-15
29
53
25
58
30
20
-30
11
-58
0
-18
23
30
-9
-26
62
-25
20
18
-3
4
41
-40
-60
-8
14
-15
-41
-5
1
6
-7
20
32
40
-35
21
-10
4
-3
-2
-34
-20
-27
40
-33
-19
21
-5
-19
37
-21
1
62
28
49
7
15
9
26
-39
0
68
41
-21
-12
12
-1
15
-35
0
-25
24
-51
-5
-48
-22
38
13
0
63
-7
47
22
-3
23
0
1
8
-8
27
-25
-11
-19
9
-44
33
-22
35
13
-9
37
22
-1
29
-23
2
-26
27
50
11
14
21
-22
-1
-4
-7
12
-10
-13
20
11
-14
-1
-32
-32
41
20
10
-7
9
1
11
22
6
-10
43
-13
-35
-44
85
21
27
3
-23
-43
-5
42
40
-8
4
44
18
28
-57
-33
-1
58
-2
-10
-14
2
-12
-18
69
46
7
-19
5
-53
32
45
18
-28
-82
64
-5
-24
17
-14
-10
29
51
5
24
-17
-14
-11
-23
-4
-5
-16
-17
-20
-1
-36
-35
-12
15
-13
43
13
18
-27
-11
49
7
-16
-5
-19
5
18
-26
16
7
9
29
30
25
14
19
8
58
-31
-2
9
-6
-4
41
27
-21
34
15
-5
-22
6
-21
2
32
20
-17
-1
21
-20
19
-8
-29
-7
-17
-80
1
3
26
40
8
-22
-10
17
-11
-16
4
17
20
-19
-58
-4
-1
-16
44
39
48
25
25
-51
5
0
-6
29
-2
-8
46
15
0
2
-10
54
-53
5
42
-7
8
-2
-46
-10
6
-37
-37
-10
22
14
57
43
-21
9
-30
2
-21
-17
-7
21
87
9
-4
-40
51
-28
6
52
-26
-3
-25
-2
44
-45
48
-25
21
73
26
19
-15
73
-15
27
16
0
20
11
27
-2
-29
-23
7
5
39
13
1
-6
8
7
-23
10
16
11
15
-8
-4
-13
1
-48
-30
-23
-42
-1
-15
4
-24
31
11
5
19
-29
-34
53
45
29
-15
9
-65
1
59
39
50
42
-30
50
32
27
46
5
-63
33
24
-11
-5
18
5
1
-19
-17
8
-6
-25
68
-53
59
22
-5
-11
35
28
19
-10
12
-24
19
-33
7
-5
0
-32
-5
-1
-4
-16
32
13
4
-21
-18
1
-41
-5
-42
-13
-29
-4
-5
-5
-10
-21
-21
-29
-8
-15
26
-7
26
35
23
36
12
32
-1
-43
4
-13
7
34
20
3
15
13
-13
0
26
0
8
-70
-31
-16
26
51
23
34
-48
-15
-32
49
-50
-13
-49
8
-18
-51
1
8
-33
8
-1
25
50
31
-47
11
5
57
-2
49
-31
-68
13
19
13
7
10
5
12
-3
57
11
14
-36
19
-29
-10
-11
37
44
2
26
23
18
48
13
2
6
6
14
-33
52
-49
31
-17
11
58
54
-15
-41
11
8
-43
-28
71
24
-51
-16
32
32
47
16
-14
40
7
25
-4
-21
-17
-23
41
-10
-39
16
24
21
-13
-42
-38
-20
-3
-2
-21
-5
8
3
11
48
-46
-18
26
14
22
43
-50
6
18
-27
16
-34
-20
12
3
-10
43
4
53
-19
-28
-35
-22
4
-7
-7
-37
-32
12
15
-2
47
4
-19
25
4
43
1
16
21
13
-34
-31
-36
-28
-13
-10
-11
-40
9
-14
20
-17
-38
-14
18
-42
2
-2
-9
69
-9
23
-21
-4
98
-36
66
5
-11
7
11
-34
21
-15
-14
-20
-12
-5
3
38
-2
30
-3
-3
9
-40
23
14
13
-34
-7
26
-36
0
71
-16
-40
-9
6
15
68
-55
17
50
38
14
27
-26
10
12
5
-15
56
19
-16
-3
14
-30
3
-12
-16
-38
3
26
-14
-12
-18
41
33
-8
7
14
15
53
27
-1
10
30
-38
30
-20
-12
-19
3
-30
39
-2
4
-32
14
5
48
-40
-48
2
-23
-22
-26
23
-8
-25
-41
41
1
-37
-16
-12
32
9
41
-8
-28
-18
-6
-48
-48
74
-4
-2
16
-16
-27
29
-66
9
-3
13
-18
7
-18
12
16
37
27
53
-7
-47
4
-13
24
2
5
2
-27
-44
15
-7
-13
-37
30
35
-26
9
-23
-42
-25
26
48
-32
-53
44
-30
37
-63
70
-9
7
-24
3
1
3
51
54
-13
26
-17
1
46
-32
-1
44
-6
0
19
17
-16
3
14
17
43
-29
34
4
-12
-28
-45
1
-51
8
38
-44
0
1
7
-3
-21
21
20
6
-38
-30
-27
-8
16
4
-9
33
-9
3
-10
-9
0
28
19
2
11
38
-12
42
-7
-6
14
-35
33
65
-22
0
-27
28
-10
39
-42
-26
7
28
78
20
35
16
-47
7
66
25
-21
17
29
10
-49
22
-43
2
3
-29
14
8
-17
24
-6
-43
-43
43
18
-25
3
-16
29
-6
4
3
18
-34
-36
10
24
-23
0
-41
1
10
6
44
-7
-39
-10
-10
40
27
14
22
57
-11
16
6
-9
-5
30
-15
-7
-8
-3
-12
33
-33
-15
38
-36
-37
46
44
-58
-35
-12
-27
9
1
49
-12
-10
-11
-8
-78
-48
-36
8
17
-9
-18
20
10
-7
-15
-6
16
-20
-20
-77
46
-35
6
13
-33
-4
16
81
-1
-6
13
24
-20
19
43
-37
-7
-1
-48
-9
-53
-22
-13
40
-27
18
35
-28
-7
-15
-16
2
-8
3
-49
11
13
25
-4
-51
2
-24
45
-31
-19
27
-22
14
-14
21
-3
-33
23
30
9
9
20
5
36
-5
-1
-4
2
28
-8
-5
-19
-19
18
30
24
-40
59
-19
32
11
-1
2
60
-2
24
25
1
26
30
11
16
32
-5
-3
81
66
-34
35
-24
-3
6
-19
-24
-15
1
6
-13
1
14
14
28
-11
-5
24
1
18
22
26
5
7
-10
5
42
12
-14
15
26
37
37
32
-8
25
35
15
-5
30
34
39
-4
3
54
-43
-31
-18
24
44
-9
-13
-25
-41
15
-9
6
-12
-45
-46
19
-18
52
5
-25
36
-1
-10
28
-21
11
-54
10
4
31
-6
27
-15
-1
-14
-1
-66
-25
-6
19
-15
-10
41
54
-46
-13
-4
-30
-25
2
35
0
-13
14
-75
-19
-51
30
19
30
-28
40
-30
3
-22
17
-34
-16
-53
11
9
-44
28
-11
26
-25
-11
-16
-25
-8
-30
-10
8
-25
-8
28
29
-23
30
-23
40
24
5
-7
-41
8
-13
59
-17
49
20
-36
-5
36
32
-42
-33
-27
23
43
-27
-17
-8
-22
12
-17
23
39
22
35
6
-13
-29
11
19
49
19
26
7
13
-48
6
13
-33
-7
3
-16
-18
49
44
-32
18
44
-13
-12
4
66
-46
-18
-26
-40
14
65
59
6
23
11
59
10
-22
-57
42
28
-28
15
38
19
26
-4
-84
-20
10
46
-23
72
-11
8
59
60
25
42
-39
-17
9
-14
16
9
-48
37
13
-37
0
-33
-52
28
32
1
-46
-26
51
13
-8
26
12
-25
-21
-5
-33
-32
37
-42
-17
23
-8
8
18
0
-24
4
70
-53
39
-17
11
25
5
19
33
-65
-24
-26
7
12
13
26
6
19
-19
26
37
-18
-11
-22
-6
-43
27
-2
30
-27
44
16
34
-19
44
-51
-3
-69
-2
55
4
18
47
-20
1
1
3
54
1
16
53
13
-1
-20
37
16
-6
28
-28
-18
-17
24
-42
19
14
-17
-10
-12
-4
-29
-14
-36
19
38
15
49
-34
4
40
13
32
14
-14
-24
-36
-37
66
-14
17
8
-16
71
-1
41
0
13
61
28
48
-9
-16
12
39
-72
-37
8
3
-44
10
-8
37
-29
13
50
13
-30
-29
54
-22
1
-7
-23
73
-11
22
8
57
-25
-28
-16
14
-22
2
-47
1
-4
-41
-9
-19
13
32
-21
-5
27
13
57
-26
-9
-12
14
-14
37
70
45
-13
27
-16
-30
3
13
-13
-8
-15
37
42
-54
-32
42
5
-4
10
-8
44
3
33
7
11
15
0
-9
13
13
69
-42
8
1
-5
-25
21
-11
-12
4
-24
-18
-22
6
-21
-25
-10
79
49
-4
-23
-41
-54
-1
7
32
43
-4
36
18
4
19
-26
-35
11
-35
10
-39
-9
-73
-20
6
10
-77
9
-16
23
17
-18
-8
65
-47
-16
16
-27
39
9
30
26
52
34
19
-19
16
34
15
27
31
34
10
17
21
-97
8
17
2
-1
-43
10
-86
19
-35
-27
28
-73
36
-12
-29
-3
24
-33
-10
52
18
-15
-35
33
-7
-35
-5
21
48
30
-30
33
11
-20
87
75
3
31
-16
65
-20
-12
-26
-6
20
28
-43
21
17
-2
68
-13
20
-7
27
29
-8
-13
34
39
12
-38
10
-25
-12
-16
25
6
31
22
-56
-2
-7
11
-21
-34
17
30
57
-16
5
-3
9
-22
24
-1
-17
12
23
8
31
-7
29
4
-6
-1
53
-37
35
-34
15
22
2
-40
-31
-14
5
10
33
-23
22
-5
-1
2
2
2
12
-34
5
30
-51
-57
13
-17
58
-18
-14
24
61
28
-14
-40
-13
36
82
28
28
29
-19
-14
22
8
-46
-28
6
-9
-31
-17
11
-39
-3
-13
24
5
-7
0
-6
-27
25
5
3
16
16
30
-1
29
-7
10
43
24
9
2
-56
-28
3
-24
-20
-11
-14
23
57
11
4
-24
29
14
-4
-4
32
6
-9
14
13
-39
-9
-9
13
15
-46
3
10
-9
35
45
-8
19
-20
69
-20
5
76
-16
-25
66
-1
40
-6
-27
-36
-16
-17
10
-30
27
-9
24
-3
4
-68
47
-1
-3
5
-37
-3
95
20
-38
36
65
-41
-25
-14
0
15
9
-42
3
6
4
-18
-12
-29
2
-4
-38
28
-2
-12
56
24
-36
17
-19
-22
-31
24
19
-11
10
17
-15
-22
39
-31
20
3
-15
-23
85
41
57
-20
6
33
-14
23
-10
33
50
-28
-75
2
21
28
7
45
22
61
-24
-37
12
-51
20
-1
-25
7
-32
65
13
-2
68
18
-10
16
15
-14
70
-16
-11
3
-19
-1
-39
8
31
-3
24
-19
-25
-50
10
-52
-39
-43
6
31
44
-38
-53
10
27
64
5
9
-7
27
-35
-7
19
-38
-6
-32
41
-57
16
38
51
60
30
-12
47
-2
-5
-6
-19
-7
-29
-39
-25
-50
-21
-8
-37
21
49
5
-8
-1
-49
-22
4
13
7
-3
24
-4
72
4
-19
-14
15
-23
-2
57
-21
30
-14
12
28
-21
29
-1
16
-66
18
-6
25
34
-3
18
4
-15
-14
23
0
8
-16
24
44
-7
38
-77
-5
-29
4
35
16
-7
59
-33
6
21
49
39
-6
6
-22
36
-18
42
4
34
17
5
24
-1
8
-45
-4
-29
-10
-8
-37
19
48
-40
-4
-17
42
-25
26
-2
-37
-26
4
-23
1
45
13
6
-26
10
32
7
2
-16
-41
20
-17
-26
-13
25
-21
-29
5
12
-27
2
78
2
51
-2
9
-26
-3
-20
15
-29
-6
-9
37
-26
2
-7
-2
31
-4
2
25
-28
-30
18
16
-11
29
-29
3
-23
3
6
21
-24
11
-34
11
1
-9
-3
-3
19
-55
15
-3
55
-78
57
21
8
-9
-21
7
-73
30
78
-13
-38
-15
-8
17
11
33
-3
-16
54
47
36
62
34
36
66
0
56
-18
0
-86
-35
-14
43
11
0
22
8
-11
-8
-25
-4
15
-8
14
-39
-34
-8
9
-63
5
8
-47
52
-36
-12
-6
5
8
37
55
-41
4
-38
57
21
6
-15
27
-14
11
26
20
25
19
-22
41
17
4
-35
-42
6
14
14
2
13
-41
-22
8
-14
52
-9
4
16
-20
30
5
74
17
34
57
45
-11
5
-15
-87
-10
0
-25
31
16
14
29
-8
1
-13
44
-17
30
13
-36
55
-8
-22
21
-24
32
-6
26
-21
-41
10
-25
12
-14
-10
-47
-25
50
19
-7
-22
-7
-61
0
7
27
-8
25
15
26
18
4
17
28
-11
-1
9
41
-4
16
-27
7
11
4
-14
55
-5
-11
22
29
26
55
-2
-21
19
-43
45
11
-35
3
-17
-31
5
0
4
36
17
20
-7
7
-32
4
61
-52
10
-27
-33
56
-20
-28
39
-10
-20
10
35
2
2
-29
11
9
-8
-24
2
23
56
15
14
4
0
-10
30
-47
-8
38
-35
12
-44
33
-11
7
-13
3
31
8
50
-6
-21
35
40
80
12
13
-16
10
19
-26
34
-21
18
28
-2
17
14
-8
-19
-13
27
-36
25
35
-15
16
-3
-3
13
-6
-21
8
-15
-51
14
15
-20
-32
8
11
-64
-70
-15
10
-4
-2
0
-11
11
-23
23
51
-21
-33
47
74
-56
-7
21
9
-23
-18
59
16
33
-33
37
9
-30
27
35
-13
3
58
21
-47
-6
0
-14
35
25
16
-8
30
-39
20
27
13
32
40
-10
-18
2
-17
-24
-7
55
6
-7
4
37
-2
67
-7
0
8
24
20
30
7
8
-13
7
-2
31
46
31
37
59
41
-32
-5
11
-7
14
-25
-33
18
-31
-31
4
10
44
20
3
-26
-13
13
4
-27
-45
-26
-5
-7
-30
-9
20
-3
10
18
19
-26
-7
-2
1
-20
65
-2
-11
-8
32
-8
-62
30
50
26
26
-19
-9
3
26
35
19
44
-25
16
-14
-46
29
23
23
-87
-5
24
7
1
16
-9
-23
-11
-18
46
-1
-13
-27
29
8
-18
37
7
9
-14
-50
24
6
57
11
-10
-20
60
10
66
22
-47
-4
-44
42
-19
0
34
-12
-11
-5
-43
-26
8
-21
17
4
-21
14
9
12
5
-14
3
31
-31
45
3
-17
12
23
8
53
-27
-4
22
-46
-6
-1
-15
18
-40
12
18
-8
-2
-8
10
-51
23
18
19
38
31
-2
13
-16
-20
32
9
-7
13
-36
-11
7
9
38
10
26
39
-12
-28
-18
-14
12
21
15
36
-23
-12
-27
52
15
13
-11
-17
40
6
12
38
-10
-32
-29
24
-41
-44
-2
-31
32
57
33
15
-28
10
34
-24
-41
-10
1
-7
9
41
14
41
-3
-3
9
10
10
17
-1
15
-1
-8
-2
-26
7
17
9
0
16
8
-18
-19
-40
-6
60
60
-39
-14
-44
20
-10
-4
4
67
33
11
-17
4
20
-8
63
30
4
12
17
-55
23
-17
-3
10
2
18
57
-21
12
-2
-4
15
-28
-5
20
8
-50
13
-11
37
3
-15
-10
17
-19
46
-2
-3
-6
9
-43
21
-22
26
-21
14
6
-25
21
-22
67
-12
18
25
49
18
-29
9
-40
-24
16
-21
22
-27
-6
16
-48
38
1
-14
21
31
9
12
12
6
31
-20
9
24
-15
27
78
-2
-29
24
-5
-8
-25
3
-39
36
-30
-43
9
27
-20
-6
19
29
12
52
22
-21
2
-14
6
45
-16
1
4
-28
-20
-13
43
-36
-4
-9
0
-23
-12
-1
-2
3
-29
6
-27
3
-32
-20
18
-13
19
-1
-9
6
17
-22
29
33
-32
-2
16
12
39
45
-10
17
-11
34
-26
21
11
-19
6
10
61
-15
30
11
-26
-25
-38
4
21
6
-9
13
8
8
13
-28
-3
-18
14
-8
-33
18
-32
22
19
0
-50
51
-7
10
-12
33
27
-26
44
-11
-7
13
-11
29
-7
10
23
30
28
-28
-42
3
-1
-21
22
-35
1
30
2
-50
-6
-43
6
-10
-3
-2
-21
34
-20
39
33
9
3
-49
3
-16
-30
-3
-6
1
-13
32
-23
3
-23
-46
21
7
38
51
15
22
-31
-7
31
46
-41
-12
-55
27
-1
-46
1
18
3
-4
-30
29
27
6
22
28
57
17
51
-4
27
-43
51
24
-28
18
59
41
-27
23
17
23
-20
-42
31
51
-31
25
-24
24
15
28
-4
-5
13
26
5
-19
10
10
-41
17
12
10
-9
16
-8
18
5
-8
40
34
46
-24
40
4
-1
-65
10
20
35
9
-42
8
-10
8
8
13
-61
-20
8
-7
-13
-8
20
-39
47
51
34
-3
7
-22
31
35
-49
0
74
-11
39
-8
57
9
-29
-31
25
21
-2
-29
80
9
68
-35
-32
-19
22
-19
73
-27
2
53
-2
32
9
34
-6
19
-14
-31
43
13
2
12
58
4
-47
-41
-10
-7
1
-30
-56
-3
30
45
-6
-20
-43
27
44
29
-19
2
-1
7
-24
3
-8
-42
12
-3
7
16
5
15
-2
7
-54
20
33
-9
-22
45
-4
-36
34
17
4
22
-6
7
-13
-66
19
3
3
82
-21
5
-25
-1
-15
-27
-39
7
45
-33
25
-37
-16
-27
-49
-70
35
-24
-28
-2
-38
-21
8
-7
-30
71
-51
-28
-25
33
-63
-67
-14
19
0
9
50
-13
48
-28
19
-29
12
-1
59
20
57
6
11
-39
-37
-8
-37
-49
29
-8
-29
-8
41
49
-47
18
-4
72
-20
5
-18
-22
17
-36
8
10
-20
-9
41
4
61
10
-24
35
-28
-39
25
0
-5
-53
5
27
-23
-19
28
28
23
-15
-19
-46
-4
-36
-30
37
5
31
80
21
8
-12
28
-1
-16
-63
0
26
13
64
14
2
-71
21
-5
-24
27
16
-23
-41
55
39
0
22
1
28
-40
2
18
40
-23
18
-57
10
14
48
25
55
-60
-26
25
66
37
0
-31
9
11
14
-38
-21
-6
-14
-26
13
-14
11
-26
26
-11
-4
34
-9
67
-17
24
-15
25
45
57
-91
-13
19
-31
22
-53
8
-2
-22
-27
58
23
-39
33
-55
0
-18
2
30
1
27
-18
-6
-10
5
-41
4
-46
60
-7
-25
-13
2
2
16
1
-9
-27
2
44
25
12
24
-13
43
46
-58
8
-27
18
48
-1
-31
16
10
51
43
-21
-60
-12
-40
-26
-13
0
-17
-25
55
-8
-50
-23
49
6
57
73
41
-15
23
-36
12
-31
-6
65
24
1
-26
8
-46
-36
17
-38
-21
26
17
25
-11
15
-11
8
-26
-11
12
-32
8
3
-6
52
-23
28
4
-53
25
43
-4
7
7
-30
-47
55
-48
25
-4
-17
31
33
20
-5
-29
24
-9
1
-9
-6
-32
12
32
-41
-4
32
29
-1
8
63
-2
31
-2
-71
-24
32
43
30
19
-1
31
-22
-39
7
10
42
13
62
33
9
-46
-26
24
51
25
28
-13
-26
-43
-11
3
46
-68
45
-66
26
36
21
-32
34
-3
-31
35
24
-31
-11
27
4
-6
1
14
-20
6
25
46
-5
-8
-28
-1
-20
-2
6
0
-25
-36
13
52
10
31
47
11
1
22
7
21
-27
-15
1
-27
-21
-22
-19
-26
-60
-39
28
71
-24
-5
36
-5
61
-41
28
-41
-2
-37
28
15
-21
-18
-9
24
7
-18
5
-10
18
-19
-16
0
-20
13
15
60
39
21
-19
2
14
5
-7
-11
9
16
-47
3
52
33
5
45
-15
-22
-46
28
8
44
-5
-24
42
-37
-31
-55
51
-9
2
-18
-57
6
-43
-6
-19
10
32
-52
12
10
21
-5
16
7
-22
55
-4
51
29
-39
36
2
-35
4
-8
42
21
2
-2
3
4
-33
35
-42
41
7
5
36
16
-3
-36
2
16
10
58
-18
1
-22
6
48
-21
11
37
17
-16
22
-37
-1
3
-33
1
-23
-50
28
-8
-24
53
0
43
15
16
27
40
-12
-43
2
53
-23
52
11
-43
-42
0
-2
-22
14
-34
18
24
-15
17
55
-12
-26
7
-40
60
17
-46
-28
6
-12
-17
-4
-30
30
24
-43
-36
-71
4
10
-25
17
-4
41
21
-5
-9
-47
-11
-28
24
16
-7
11
9
6
-48
17
11
-36
1
37
-35
-7
-36
17
0
31
-5
-18
-13
3
0
-17
-16
52
-40
4
-21
-23
62
28
-6
-16
25
47
15
13
27
-8
-5
-31
-1
48
19
-21
19
30
-32
43
8
-36
-2
73
24
-25
13
-12
-46
-19
35
-13
24
14
-25
-6
-21
14
6
35
4
55
15
13
4
38
-4
8
-6
-5
-10
-5
-18
-28
-6
1
-12
9
21
3
-20
0
-51
13
38
31
-7
-14
-15
-11
-27
-12
-2
9
-65
-46
4
-9
43
-16
-17
24
12
-51
2
-7
34
54
2
-25
-61
51
8
43
-10
21
-37
21
-6
53
53
32
42
25
32
-9
-35
66
37
37
9
3
-11
7
-5
-2
25
-26
38
-66
-12
-33
9
9
-7
15
2
-12
22
20
-39
26
-43
49
-32
11
53
-50
-11
-1
-11
31
-12
-8
-43
9
-8
12
14
10
13
9
1
38
-6
-16
-8
46
73
38
24
98
-54
-1
-6
-32
-23
-2
11
17
-7
14
30
15
63
-30
54
-45
23
-22
32
42
32
7
-15
-3
111
72
-51
5
-2
-28
-15
24
8
72
-7
68
-42
-53
-13
17
75
1
16
-15
-16
-37
-39
82
-14
-7
7
-31
11
-35
7
-39
-9
12
15
49
3
18
-12
7
-30
-5
32
-14
-21
30
10
-35
10
30
-38
20
-4
24
9
17
10
46
11
-40
67
-42
33
-5
5
7
32
40
-13
6
21
63
-42
-36
0
-10
1
50
4
46
-44
34
-12
58
-9
3
20
-17
-20
-37
5
-24
33
53
32
5
-18
43
52
32
17
27
-29
-35
-28
45
42
51
26
-12
-4
37
85
50
12
10
15
7
1
-7
-11
-18
6
-14
-3
-21
-9
20
-1
-30
-6
1
2
24
1
-15
-32
-11
6
33
18
8
8
18
7
9
13
13
4
21
-4
-27
15
10
-9
-3
-25
-18
83
4
42
-35
-21
-23
56
37
-7
5
1
-10
35
-36
-25
-12
-20
-23
15
46
1
-4
34
-17
11
-61
81
-38
2
7
54
55
-48
-36
6
38
-18
-51
12
2
20
-10
-16
-10
-26
3
16
-31
15
-11
19
23
-22
7
-2
-1
-3
24
-17
18
37
-4
-14
1
18
2
-41
-22
-13
-3
-33
-13
54
-21
3
-31
51
-26
13
-8
-23
10
-71
9
-9
-2
-5
-17
6
19
-2
-3
-42
-1
1
7
2
25
39
-10
23
-27
-55
29
40
-14
28
7
19
-29
10
-15
-21
-23
-12
1
-22
59
-18
10
-22
5
46
-35
1
-45
-18
-13
-26
28
32
34
-48
25
-15
-8
-46
55
-46
8
-3
14
21
-19
0
42
0
1
21
-20
31
19
-11
-32
-65
71
25
-13
33
10
-44
-53
-15
27
-33
20
27
12
28
12
31
0
-17
20
-11
-19
60
36
21
-15
-22
-14
45
13
-2
18
17
-32
-7
-30
2
39
12
52
16
-30
-2
-3
0
-3
-5
-4
46
8
1
-47
-20
21
-64
-29
14
-17
22
50
-33
-21
28
16
36
-16
-18
-71
-38
44
-1
-9
-21
46
-24
-28
34
-9
14
3
31
-11
-27
57
11
24
53
26
-27
-29
6
3
-10
-9
32
50
-48
44
17
-15
-13
6
45
54
5
14
-33
-31
29
-69
36
30
-37
7
4
-20
2
27
3
-33
10
-36
40
-2
4
-7
8
-2
-10
-18
-47
-6
32
35
-21
37
12
-58
-7
18
-33
-2
1
39
15
-22
13
21
-4
-10
-10
-60
-18
19
43
-1
32
-6
27
10
-17
-21
-6
-19
-24
-25
-32
9
-30
-14
-25
46
-61
45
-11
-37
-13
-5
23
28
13
20
-19
10
-2
8
-10
31
-22
16
30
11
-8
-23
-27
-18
57
-1
-33
49
25
27
-21
-65
-18
24
31
-21
-54
-5
15
10
-45
-7
-15
21
0
0
-68
31
5
9
1
6
24
-22
31
7
-9
3
10
37
0
63
-64
-12
28
31
-20
51
-36
46
-21
-32
-9
39
-12
90
-52
-1
-26
5
14
5
35
1
-15
11
22
-19
22
13
-38
29
37
31
16
8
-4
32
-26
-36
50
24
-8
-9
-45
-15
0
18
3
40
-34
18
1
8
25
-4
22
21
18
46
-1
28
23
-47
-17
-37
34
15
-22
-1
-19
29
36
11
-22
18
-17
9
24
-19
18
49
44
-34
-26
2
-1
-7
-22
-18
-6
-47
24
8
5
24
-9
23
7
-23
-42
6
-23
7
49
-14
23
18
-9
28
-42
-3
-4
8
-11
-24
-9
13
44
13
20
-70
12
-5
-32
-9
20
23
-27
4
-12
22
-50
53
14
-18
-34
6
20
-17
46
34
15
28
36
-20
-20
-3
-20
28
18
-35
30
14
-23
3
12
-7
7
-7
3
-42
29
-47
-3
-18
26
-16
7
-4
-50
35
8
-46
34
18
20
29
-1
44
-14
19
5
34
7
30
27
-4
25
-11
3
7
-14
68
8
23
49
31
-27
41
-57
22
3
-10
0
-19
14
36
-19
0
6
19
85
46
-10
-12
-2
12
62
13
49
-6
-19
17
32
-1
19
-8
-24
-22
-21
-2
-44
53
-30
-12
-27
-12
29
34
12
-26
12
-9
15
17
-8
3
9
17
-24
-21
35
-28
3
2
5
-23
25
26
-1
-10
-4
2
-38
-70
-51
25
-24
-12
-13
31
7
-9
-19
20
-23
14
-1
-42
-35
-5
-44
12
-15
-11
60
0
-50
14
14
-7
2
47
-2
-8
-14
18
-10
-48
-76
-23
-26
5
-3
47
13
67
20
-11
-45
35
-30
0
55
-7
-46
-2
10
41
-55
29
-28
46
-16
13
-27
-10
-49
34
37
6
38
16
17
-28
47
59
50
52
19
43
24
-63
-36
17
58
-56
43
-24
-9
19
13
28
12
10
-47
31
26
-32
-22
13
-29
-40
-14
-3
38
5
-25
7
7
23
-13
-16
-17
-20
-30
41
5
-34
-12
46
-39
37
34
-38
14
3
1
38
-14
56
-6
-3
-36
-38
-15
-26
-52
-32
8
2
4
34
-1
36
-16
-41
94
24
36
-33
20
17
13
-49
39
39
-22
-9
18
24
-1
7
-56
13
25
36
-12
8
9
30
4
-1
65
5
37
-35
7
57
-18
-20
-3
-19
20
46
-4
35
0
27
-13
33
24
39
52
3
-36
19
25
-25
0
38
-20
19
-25
-19
9
7
30
-60
50
15
29
30
-29
-7
-16
-25
-63
-18
-17
-25
51
35
10
-30
-7
35
-13
-2
21
56
-14
-19
11
-14
36
-31
31
22
-5
14
-35
-4
-12
-10
5
10
56
22
-31
1
-27
36
34
8
-58
63
-4
-52
43
-2
-6
-7
1
-1
14
-61
-4
-27
-9
31
-40
37
9
-38
-6
3
-22
1
27
-37
0
2
-23
-15
4
-9
-9
16
35
5
-40
59
-29
44
25
-17
47
-42
-23
21
-38
9
11
-31
14
16
-31
-23
44
-19
-22
-13
-5
46
9
66
-11
1
5
-6
5
28
-27
49
-3
8
6
6
-4
34
-7
3
47
24
15
15
1
21
-21
69
46
7
101
-34
-12
-41
30
27
-22
4
2
-19
-3
8
-22
-8
-14
-32
33
-2
19
48
-3
-43
-16
25
11
-36
53
-6
-30
19
14
-11
25
7
-1
12
-11
-43
24
-9
-8
-6
-8
32
-25
-40
-17
-9
51
37
-4
52
49
12
-10
-17
5
-12
6
-8
-33
-12
-11
-50
20
-2
17
-10
2
-19
74
4
-99
6
-22
-7
44
-9
7
-19
-32
-3
-19
-23
-23
28
20
2
-39
28
37
-3
35
-13
-36
21
25
16
-48
-16
-15
22
-23
23
-46
34
-71
-16
-4
53
7
40
-13
47
-8
-29
27
42
-35
13
-23
38
64
-20
-7
47
57
9
39
-41
-4
20
37
-11
26
-20
16
75
30
5
-54
9
-80
-6
16
-17
-26
-14
-12
43
-74
-20
14
-25
-13
35
-47
10
83
26
36
30
-35
-26
9
84
-51
31
56
-17
-3
66
-48
56
-7
3
29
62
-5
26
-28
-32
-15
-2
14
36
15
-19
12
1
-13
8
-2
-26
-74
25
18
54
34
-10
16
-3
-24
-7
6
16
-18
2
-16
-9
3
9
-21
-16
-60
33
42
-31
20
-3
4
-27
51
65
-1
-11
-12
12
20
-5
16
-48
24
-32
30
32
18
19
22
20
-37
-25
-29
5
-13
18
28
2
-21
-7
15
-55
-18
-14
-27
-14
9
29
-5
8
-8
-29
10
16
-46
-25
19
28
35
60
35
27
-16
-9
-18
-35
0
45
37
-22
-23
13
29
-13
61
20
-23
8
31
-2
-73
10
2
-22
-24
-28
-41
-2
-41
-26
-6
36
-9
10
-26
-5
-40
-32
19
15
19
14
-8
32
50
-30
-12
11
6
-25
6
9
54
10
1
-16
37
-19
-33
27
17
24
13
-11
-25
15
-11
50
31
21
-26
35
-91
7
40
27
3
19
30
53
7
-1
37
-6
11
41
-15
16
-42
55
18
9
3
49
-27
43
11
17
-14
-3
18
17
-50
10
-23
15
21
47
15
16
8
48
-12
-15
2
-20
9
6
40
25
-13
18
8
76
-24
2
-10
8
-14
-9
-23
27
-26
54
-17
-8
-22
81
42
-19
31
59
-14
3
88
-21
-17
-41
-20
-31
40
-31
24
-3
34
17
-22
9
2
-22
-19
13
19
0
7
-20
-4
31
20
9
-11
30
-7
-5
-30
-24
-26
-27
-16
4
6
31
-11
19
-8
-9
-13
-34
54
52
22
24
-15
28
5
7
3
-10
-8
54
-3
8
26
-36
40
34
49
-32
-32
-24
-15
-18
15
-16
14
-14
-24
-3
8
39
-41
11
48
24
24
-2
-17
-7
32
15
-30
0
-43
-10
-4
1
34
-6
-37
46
3
11
-12
-12
74
20
-7
8
-10
-31
-14
20
4
45
-12
-9
12
15
23
-21
66
-7
22
3
-55
-13
49
-34
16
7
13
-48
42
-10
-2
-18
52
64
64
-25
-27
-16
14
11
-21
-17
-55
34
20
28
-20
23
16
61
40
-14
-22
-6
-21
-7
63
-29
11
51
38
-36
-1
11
1
-14
10
-24
7
-61
21
33
20
-51
-50
-21
15
8
-41
-20
4
23
-7
-55
-41
12
-5
66
55
-2
14
21
8
-19
18
14
-26
-1
-6
-12
-14
-22
31
-25
-22
11
9
30
-36
-16
-47
-22
-24
-4
-29
-14
15
-12
-8
-30
-5
-27
1
-54
-4
4
6
-2
0
31
1
2
41
-11
-17
18
-19
-10
10
25
43
59
-30
-9
4
1
-17
-12
-12
9
-17
-50
-34
-40
12
-32
20
6
-16
28
-20
18
-33
-2
24
-45
-6
43
-49
-1
-1
-15
15
35
-5
-13
20
55
48
6
52
-16
0
35
-12
-47
0
10
27
-32
-28
-4
19
9
-39
2
-4
-5
-25
-8
55
-28
-7
65
22
-9
-69
-56
-29
13
-35
22
-31
-14
48
39
-13
-32
-7
-3
14
-65
-15
49
49
-4
-3
-31
7
-17
13
-28
-4
-41
40
7
32
-31
-8
0
-33
5
0
50
-12
-19
36
39
-12
2
-20
14
-39
-16
52
20
-38
-5
41
19
-21
-29
-1
-22
-15
26
-7
0
-51
-20
26
5
17
-17
66
-29
-28
7
6
-19
18
8
26
21
15
-25
50
13
-16
19
41
28
-25
-4
48
-3
11
9
-65
-1
34
19
57
-24
-3
35
10
10
33
-8
-1
-19
22
-51
-16
39
3
16
29
16
64
-14
-11
29
63
-37
-41
-9
25
20
-27
-11
63
32
38
-48
27
-4
43
-8
11
15
-51
31
38
-28
27
-28
-3
26
6
39
-50
2
-59
49
9
5
6
10
-10
11
-1
38
48
11
-7
21
-27
-1
46
8
40
13
-14
-27
48
-54
-19
16
32
-27
43
-1
13
21
-4
-5
-23
-5
-14
2
32
-31
-34
6
28
3
36
-30
-6
6
19
8
21
-15
-39
26
19
33
31
3
2
-49
-16
9
24
17
47
32
-33
21
23
-2
-37
-5
-5
-4
-7
-32
37
32
26
41
-7
69
-9
-4
24
-19
14
-4
15
-6
13
-40
-1
37
-20
5
-24
3
14
3
-7
4
-29
-29
24
-12
-22
-29
6
49
15
-28
-36
-12
15
1
1
30
41
7
-49
-3
58
18
36
44
21
1
10
-70
-20
41
7
4
42
78
-17
-76
-49
5
55
-25
-5
19
-14
44
-22
-10
16
-21
16
-66
-27
40
-56
-44
-12
9
25
-21
-20
17
44
4
-19
-18
11
25
18
7
44
12
-61
-50
17
16
-9
-52
38
12
19
14
-48
-17
49
-27
31
11
74
1
23
-25
-15
54
17
-18
0
16
-3
-1
2
15
30
15
-30
-25
6
-2
5
-22
0
-5
62
40
-9
-12
-23
14
-5
-3
-19
-32
55
6
-20
45
-32
6
-40
5
52
-19
-6
46
10
-18
-27
-44
34
-9
-36
9
-30
-33
9
17
-8
16
-66
63
-8
-58
-1
-23
-5
52
7
-12
24
-18
-7
-9
-22
4
35
-3
16
-37
-13
26
32
-23
14
7
78
-10
22
-31
47
-15
-39
37
19
-1
49
-25
5
-26
29
10
14
14
15
-14
-25
20
-29
1
-24
6
47
60
31
39
36
-37
-35
22
-11
6
39
-2
-28
31
18
-45
8
-2
-4
-43
37
-50
-62
14
9
-2
-38
41
7
-53
15
-25
39
-22
-10
66
11
1
18
59
5
-20
42
43
-12
29
25
-53
18
-14
19
15
-70
31
20
-53
15
-15
40
-3
11
-18
60
44
-23
-36
-6
-29
-17
4
39
22
30
1
19
-12
30
-39
3
-33
21
-23
-41
-27
-19
8
7
-10
0
35
-2
-28
-13
-10
34
13
21
47
24
10
38
-8
30
-9
-13
47
10
-28
6
-1
14
-31
1
-12
59
-36
-37
-19
-23
-23
-11
41
47
-14
-29
-22
2
39
-29
-22
35
-18
18
-14
-43
20
7
0
-30
33
2
1
-14
7
-24
8
-13
14
16
10
-69
25
56
61
-52
19
-5
11
-1
22
-27
-30
0
46
-44
-1
7
-26
70
40
-21
7
-26
50
33
12
3
23
11
7
21
-22
-55
9
22
19
39
-24
-23
72
-4
9
-14
26
32
7
41
-16
22
27
22
5
23
15
-56
19
51
23
6
38
-6
-43
21
-21
-3
13
23
-49
26
-5
-34
-26
-8
13
6
-18
-35
-5
-21
61
27
25
-23
-21
4
-43
-23
-35
8
-25
25
-30
16
-29
-26
-11
15
8
-26
-23
-10
-17
8
14
51
14
-8
-37
-22
14
6
-9
-14
-41
25
-17
-26
-26
-9
4
29
-1
-1
13
-47
4
-37
23
31
40
-35
-3
-28
-10
-14
-46
19
0
26
38
-36
27
35
-7
-26
18
47
31
-27
-32
8
73
-23
0
-20
-24
19
-1
-13
38
-17
-10
-19
52
16
-6
20
16
25
10
10
16
31
-9
-51
0
-27
33
0
-21
-8
12
25
23
-48
-13
-37
-34
21
40
-31
34
1
57
15
-33
-14
0
19
42
-21
-3
-21
49
-4
-24
-11
34
49
-11
10
17
-5
38
-6
13
-4
-29
72
55
-40
-22
22
56
24
28
-4
-52
19
-4
-17
-17
17
44
12
25
27
46
33
30
-13
-33
26
-17
-13
-1
23
37
4
54
-16
21
52
-10
-5
-21
-9
27
-8
-1
54
20
-9
-41
23
60
15
23
0
28
-30
14
2
25
-17
-40
-9
-12
-71
61
14
2
14
-14
11
29
-14
20
10
21
-34
-30
12
17
3
36
47
17
19
8
9
-20
3
2
6
-11
21
-24
-17
0
27
-35
-5
-10
45
10
-16
-3
-41
-18
14
49
-20
36
8
46
17
8
46
26
42
21
-20
-23
52
4
17
15
30
19
-5
-29
5
40
-24
11
4
-47
47
-7
-29
-15
4
-20
20
33
20
-17
-39
65
-25
23
-9
-20
15
14
-12
15
-10
77
9
73
-13
43
-16
17
17
5
6
-30
43
32
33
-19
-21
53
29
-6
-51
3
-49
-7
-40
-38
47
38
-16
-23
-49
-10
28
0
34
40
6
-14
-21
-7
37
-40
22
5
3
-4
40
24
-10
-31
4
38
12
-16
-26
26
-31
25
-3
40
-11
-15
-7
-14
23
41
8
10
7
-10
-34
15
14
9
0
-14
-54
-16
-9
36
-3
44
-13
15
-3
17
-15
2
0
45
14
35
-40
-8
-33
11
-17
-14
-12
-16
0
-21
-23
9
-18
-20
28
12
12
28
4
-16
-11
24
-3
34
17
57
33
94
-6
64
-4
-29
37
38
7
-5
-18
18
14
-31
-26
32
14
-65
38
-49
54
-30
9
22
-55
-27
67
-49
5
23
31
22
-11
-24
50
-24
38
-17
5
-5
20
-8
3
-16
46
-27
44
-45
-69
11
10
-47
-46
10
77
4
-8
-3
8
0
49
23
3
15
-24
10
2
3
16
-51
59
15
-1
-26
10
26
11
-16
-33
-10
20
31
-5
-22
13
3
39
36
24
-13
3
-31
-7
-3
-21
-9
-31
-46
1
14
-11
-21
4
-19
7
12
-17
54
-2
32
-23
-13
-19
20
-38
-10
16
11
27
-35
-10
-29
-22
-31
-4
8
-4
-31
-12
-29
13
-22
2
22
51
18
-18
-1
-14
45
-49
17
52
63
-73
50
19
-22
28
94
-21
-17
-8
22
-33
34
42
27
7
25
2
-19
-29
7
27
17
-27
74
35
42
-26
-7
-12
5
11
12
-30
8
-28
-37
-18
22
-44
-8
1
18
24
-30
19
47
47
-25
51
70
-6
34
-60
-3
40
15
16
-30
-13
64
-35
4
-21
-23
47
4
34
-24
-16
-1
-36
57
-91
25
-16
-12
-25
3
-10
20
-39
11
-24
40
45
-26
-6
23
-26
20
19
-7
33
-22
42
-28
-55
59
53
-31
6
-6
13
5
2
-3
11
6
12
12
49
-9
11
48
2
-5
-47
-90
-21
20
-9
-19
-10
-49
-11
2
22
-22
39
-6
65
-63
-35
38
9
32
-12
-16
14
-9
8
10
-8
-34
47
-17
-11
-10
37
-10
-31
-3
41
0
8
15
-22
-22
-18
50
13
11
-11
14
4
6
-37
32
52
34
-16
-24
90
-13
37
55
-30
-18
-64
-12
-25
21
56
-12
-40
-10
-37
-35
9
11
10
-7
-54
19
67
45
52
-26
2
10
37
26
-15
-38
14
-28
-7
68
-13
-10
-5
-1
17
-23
25
2
50
30
18
70
-1
-15
20
-37
-58
-12
4
-17
-29
6
-12
9
-99
-11
5
30
-68
0
5
47
43
10
83
5
-1
-4
-28
-13
-45
8
41
23
29
6
34
-38
29
-100
13
-5
10
-5
-47
19
-22
24
-2
3
-52
46
20
8
5
44
57
3
32
35
-25
12
60
45
11
-23
46
65
20
-26
3
21
-7
-20
15
-15
8
-24
12
-36
18
-77
2
-15
10
30
-20
33
0
-15
-23
-47
56
-3
-18
43
5
7
7
-7
-7
-5
-37
27
33
-13
40
-18
1
17
60
-22
-45
31
66
16
-44
30
-60
-18
-71
-9
35
0
-2
43
-8
-27
-30
37
47
11
14
16
63
24
65
-69
-18
-17
-49
14
56
19
-63
-6
72
3
-24
-23
20
43
-44
-38
-4
56
15
40
11
-48
56
2
-16
-33
40
5
-35
37
16
47
28
-28
8
25
7
-39
27
3
-5
-32
-23
46
14
-31
-24
44
4
-11
-14
35
-19
22
9
17
-10
4
-7
-38
-15
18
0
-47
34
-1
2
-5
-38
6
3
-13
17
-21
19
-2
15
-12
-22
39
-2
-37
20
-47
-22
-28
-19
13
52
-43
-32
38
43
39
40
-22
25
-30
16
40
27
-19
41
-12
26
32
-3
40
-8
5
25
57
-29
-25
-6
32
-8
24
-7
-11
-5
38
-41
0
-18
28
-8
-9
-2
-32
5
16
-34
7
30
-2
-6
26
22
-12
-6
5
33
-2
-21
-5
-5
-14
8
30
15
52
11
-4
-17
5
-33
7
-7
-45
-7
-19
-7
43
16
-1
-29
-15
8
23
-54
12
30
-26
45
20
-6
50
-37
-37
-1
9
4
-54
9
16
16
-46
0
8
1
-13
31
15
-14
-20
-17
34
-13
-34
37
21
7
-14
6
-8
6
-14
-8
37
34
49
29
25
10
22
-5
19
-6
14
-18
-7
32
33
-4
43
29
0
-9
15
-5
36
-39
19
8
-1
8
11
39
22
42
-8
-25
-41
-41
-42
12
36
-18
-20
-19
2
-17
-37
-6
4
21
42
1
-36
8
-31
-32
8
8
-33
38
7
37
-3
-3
37
-28
-30
-29
-16
-35
24
-8
5
22
-10
-18
-4
7
-16
-2
-21
-2
34
18
-22
-10
5
36
-6
6
55
-10
-26
-47
-30
-27
-6
27
8
13
27
-16
-15
-8
37
2
20
-27
-10
27
15
37
-5
-17
10
25
-43
-32
-18
49
-20
-11
-3
-14
-13
-3
-21
-33
-18
43
13
67
5
-26
34
-30
-14
-21
12
-9
19
25
1
1
-28
24
-3
31
33
-17
-14
-35
-5
21
21
-14
32
-21
37
-18
-28
-29
32
35
-7
-73
21
9
0
43
-5
11
-21
18
10
5
-34
48
-7
-1
4
48
-3
5
-9
11
-12
20
-2
-42
-8
-27
32
-2
48
-2
-10
17
-28
0
5
23
8
6
21
-31
62
-6
48
1
4
30
11
50
-32
42
15
7
-12
37
-27
-41
-36
28
39
21
-3
7
-8
-71
-6
13
17
-42
-34
20
17
24
41
-51
6
12
-15
-19
-11
-29
-11
41
22
-13
24
-2
-3
-26
4
31
26
-43
-16
-19
4
-59
26
4
42
-30
-26
-8
2
0
-10
-5
27
66
-6
-3
18
-45
36
-16
40
-38
3
-7
20
-64
-11
15
13
12
6
-37
-52
4
12
47
21
4
-36
47
-62
-23
-26
-13
1
38
-8
26
23
-34
37
46
-34
-15
-17
11
2
-66
1
-41
17
-10
-44
1
14
29
33
-28
23
53
38
-34
17
-34
66
20
-42
3
8
56
28
6
9
10
38
52
-7
-10
38
-9
41
6
-27
4
-32
-18
-4
-52
10
-7
16
5
30
28
19
26
-12
13
-33
85
17
3
-18
2
18
-16
-17
-15
52
-20
-12
-20
-27
-26
-18
4
-37
-22
-3
8
-13
45
19
7
7
8
36
-2
-4
9
10
-1
19
5
4
7
7
33
27
16
8
25
29
-37
-12
28
-8
33
-22
22
0
6
20
-13
-7
-9
-49
25
-7
16
45
-35
-41
-24
-3
24
50
-17
-37
-18
11
13
10
16
6
19
37
32
-2
2
26
-60
-3
19
-13
6
23
-3
-38
3
21
23
-16
14
23
39
36
-31
19
-9
15
-24
34
-35
-22
28
-14
27
-14
-1
14
9
-2
10
-38
-10
29
-10
29
-15
14
72
-48
-31
1
9
-39
7
-1
37
-33
-38
-39
57
-30
10
25
28
-14
-39
26
-56
48
38
-8
15
-18
17
32
-39
74
26
-19
-44
13
-28
-6
-2
19
38
-8
37
21
33
-4
-47
16
-5
16
1
17
-32
3
-12
-32
3
-10
-15
-12
-34
62
3
41
12
-6
22
-30
64
-11
25
-21
16
12
-9
22
33
4
-11
6
-2
34
-14
-39
-27
37
-11
28
-11
-7
-19
41
49
-53
41
-26
-1
29
34
23
-27
14
31
39
5
18
-5
-31
-10
15
-19
15
12
14
12
13
-8
-38
22
21
-4
35
-33
29
-28
59
-12
33
-37
-4
-16
-32
-35
-17
-12
-49
-11
2
34
36
-43
7
17
-7
-51
-18
-22
15
-10
-11
67
23
-32
-40
10
-17
2
37
1
39
-40
-5
-7
-12
39
16
34
-41
-20
16
-27
22
2
18
19
24
12
54
10
15
-30
17
3
-2
-13
20
-64
-14
-27
-14
-15
48
-57
6
-11
5
-3
-55
6
-26
-16
35
27
-49
19
11
-11
-56
24
36
21
-32
-44
11
-6
36
3
-11
-40
12
-7
-26
14
25
8
6
-18
39
-11
55
6
-16
36
22
15
3
-26
32
-21
50
54
-27
-9
51
-28
9
33
-12
2
17
-14
36
25
-34
16
-33
10
7
-6
-8
41
66
19
-16
0
-29
-75
11
34
-18
13
-14
-27
31
-18
-10
-39
-24
-13
16
32
-13
22
-22
26
10
-6
-23
-8
-45
-22
-24
-19
36
14
23
59
15
35
19
47
-56
9
-55
63
6
10
54
21
-32
3
-19
26
17
7
-23
-17
2
27
10
-93
-45
14
-26
-28
21
-35
5
13
4
21
37
15
-8
-21
-11
-22
21
23
1
-11
-2
10
-2
-56
9
-32
-21
-38
30
14
46
-18
-37
-50
-16
-26
-7
-1
-18
28
26
-19
36
-49
42
19
-2
-1
-22
-21
28
-2
10
-5
-21
-9
-1
33
41
-1
78
9
49
31
-6
-13
-33
7
-19
8
7
0
-6
72
-59
-10
-47
27
15
59
-20
3
19
-12
8
-20
37
-16
-37
55
-50
-24
49
21
-23
36
48
3
-31
-56
-29
42
7
49
-14
50
24
4
-32
3
-28
0
9
16
39
-53
1
8
-30
-38
-29
-8
24
-3
-18
-12
-32
30
16
55
14
65
-21
19
31
-9
44
-19
-19
38
-10
-13
-32
33
-14
27
-11
-70
-30
-13
-12
39
-16
15
-35
68
-11
18
28
-15
33
29
-27
0
56
4
-25
-6
-15
-13
33
-34
-8
-11
-27
-17
-1
29
16
15
-4
-27
50
32
18
-1
49
-65
32
-24
42
-26
13
-7
-29
26
71
-16
-41
23
-6
0
13
5
33
-35
-27
12
1
20
-2
18
21
10
84
16
-25
-5
-5
17
-15
46
-12
31
-51
10
16
-6
-45
58
-32
-32
16
-49
2
-44
26
15
14
-22
58
-31
-25
31
48
36
27
5
9
-24
0
-18
-48
12
-72
17
38
-27
-2
-33
19
9
-38
42
-34
-19
2
-36
-57
10
-15
50
-33
-29
70
-15
64
-76
54
9
-15
-7
-44
-4
-22
-10
11
25
47
2
-17
-25
-35
5
-6
33
-27
26
57
10
-14
-43
44
-1
15
8
-8
-7
11
-33
-17
37
33
-15
-18
-33
43
-28
6
-6
8
34
-12
-16
28
21
-38
25
64
29
-86
7
9
-28
-29
54
7
18
-22
9
41
-22
3
-17
42
57
-23
55
-34
15
-36
18
30
-2
-43
-4
11
48
15
20
-47
20
18
-28
-9
5
4
11
-12
14
65
-50
-16
8
-22
-8
2
-13
-1
14
16
-26
10
-4
14
6
-16
-1
52
-32
9
-28
-22
7
39
11
-19
18
-1
-9
-1
-13
4
-34
19
54
8
-13
-2
46
-53
-42
1
14
15
-28
-37
19
6
-28
40
45
34
48
19
-17
-35
-40
10
17
40
23
-15
-47
-29
-15
-14
-13
40
3
6
0
36
-20
9
34
-2
-40
67
-9
-24
-40
-2
2
-50
19
-56
20
36
4
28
75
-43
-13
-22
9
-46
-11
16
7
37
-14
-32
57
17
23
51
-14
13
62
38
-65
-35
44
17
-15
-41
-30
11
41
18
22
-6
25
60
13
-22
1
-23
4
10
-6
-17
-24
23
-26
9
-2
8
17
-8
64
73
-12
17
19
-24
29
14
18
-35
-32
-20
65
4
2
13
28
-3
-1
6
-32
-37
-12
16
-15
7
8
10
24
-28
-13
36
38
-22
6
-11
6
58
32
0
14
33
-26
-20
19
-18
15
26
-21
28
20
-10
-26
-49
4
8
7
-44
0
-18
-6
-11
35
-10
-34
-70
66
-51
-17
48
-20
-45
-4
-8
-32
-31
-14
-34
2
21
-19
-5
-32
29
29
41
-2
87
-25
-16
24
-13
-35
-3
86
-11
39
3
3
-9
48
-56
-15
-29
-36
-14
-48
55
1
33
47
18
13
56
-70
44
22
-21
52
19
-33
-11
7
-27
46
19
37
-40
-21
21
-1
-55
-15
-33
12
-55
-1
-13
-1
32
-22
5
-12
-51
-7
-34
16
-14
-42
-40
-36
-6
-11
25
21
5
54
26
-55
-27
0
-11
-24
-4
-43
41
32
-33
36
3
-32
6
2
-14
-47
48
-38
-2
-53
-11
3
39
-14
-2
18
18
-29
27
-48
45
-4
-19
-19
18
8
-63
3
12
22
29
36
23
-10
-11
-32
27
-9
-6
35
11
-42
-23
40
3
-26
-22
-2
-18
35
-17
11
-39
16
19
-4
-11
49
22
9
-43
57
-13
19
40
-21
21
-2
-44
-26
6
-54
-7
-2
51
0
-31
27
-27
-5
0
-12
37
17
14
89
-32
15
-8
-40
-33
5
-16
39
36
-17
45
-28
18
27
-40
38
54
-80
4
-1
-3
58
30
-3
1
-54
-13
0
3
-28
10
-37
28
-32
-11
26
61
-6
-19
-23
-29
48
49
-53
2
23
22
-46
-7
-24
25
-56
18
42
53
-74
-19
-45
-16
11
12
-42
-8
-19
-18
14
-10
4
5
-20
76
-22
-20
-27
15
12
-5
-4
-12
83
6
12
-10
32
11
3
0
-40
-17
12
-21
1
-33
17
25
-30
26
76
16
29
0
-65
6
17
-55
-15
21
46
1
28
-17
-74
53
-21
58
-42
35
7
-18
16
-16
-6
33
-49
6
2
9
12
-1
64
21
48
4
-1
15
-23
12
51
-10
-14
-12
-1
0
3
-68
-7
-13
28
-73
-13
24
20
5
-30
0
-23
64
52
-11
-5
49
-22
51
43
50
28
63
48
-29
-7
-9
33
-28
0
9
-35
29
-11
7
2
-12
-85
34
-1
-14
-4
32
-42
23
-9
-12
-8
5
-17
18
39
-39
-38
-40
-34
-53
10
0
31
18
-5
-15
40
48
-19
56
7
-6
65
0
14
1
-14
-48
-29
-54
-26
-34
-2
42
-29
8
52
-4
11
-12
8
-25
-32
19
-32
3
22
-9
-1
-10
18
35
-4
20
20
35
54
39
-3
-37
-37
-15
2
-49
-42
35
-25
36
20
-3
-41
6
-9
8
23
36
5
-3
-33
-5
14
-61
25
-19
-16
-24
12
63
4
31
28
11
-27
4
-17
-21
-15
29
9
45
20
0
4
4
41
1
21
37
-28
35
-15
4
-16
24
-5
-17
-51
-11
3
-10
28
-12
11
3
-26
-13
19
-26
31
-17
34
26
37
24
-2
15
-3
-20
-6
-7
-39
29
15
-19
6
40
56
40
40
-23
32
-15
25
25
11
-10
11
44
-34
6
-26
29
-17
-27
47
-23
6
-3
30
-25
30
-4
1
30
3
-23
12
-50
-6
-3
12
54
27
-25
-25
43
39
6
-8
-10
-90
21
54
-24
-22
-49
66
-2
-28
-17
-19
-1
17
-9
-29
-21
-7
-63
-14
22
24
-30
9
-13
12
2
22
33
-13
5
-5
4
-11
36
29
-28
-11
-33
7
-17
-20
19
13
-12
25
51
-37
33
-25
53
-1
18
-13
-4
-2
-15
20
19
28
1
20
32
2
-17
-19
-12
19
7
34
32
19
-43
-23
-17
1
-12
47
-51
54
32
-37
19
28
-26
-20
9
-3
-12
-24
23
6
21
49
7
-5
-11
-11
13
-4
36
8
11
-68
13
-5
1
-4
-14
-39
-36
14
-16
38
-29
1
-1
49
6
-8
30
-58
0
22
-48
-9
-8
-11
14
-29
6
26
-10
17
39
29
0
22
3
37
-36
7
-1
4
30
30
-13
-11
29
27
4
2
-10
-7
15
21
-17
15
26
24
-7
16
0
37
-1
-13
26
-16
21
-2
-9
11
8
22
13
-8
-28
1
9
46
35
-36
-27
14
16
15
-3
-26
18
29
16
-74
-23
-58
52
-10
-43
-18
-3
18
-8
-20
60
-44
-9
3
2
1
27
-3
-44
31
6
17
-7
4
-9
-9
6
38
44
34
-8
-51
4
-9
38
9
-10
53
25
-5
1
-33
6
-25
15
10
28
-9
40
-44
54
56
13
-47
37
6
-39
3
-36
54
-31
73
35
24
60
64
21
84
32
28
60
-32
-11
2
-1
11
12
22
-56
-38
-40
-30
-10
40
29
15
2
-27
5
0
19
-54
2
-5
14
5
-82
6
6
-5
26
-16
-16
-4
-12
-16
-4
30
-13
-54
16
3
19
33
22
1
-35
-14
12
2
14
-19
-26
-43
-57
17
0
42
32
-8
20
-16
14
52
-26
-15
-9
9
16
25
17
56
53
-51
-2
52
32
-4
-35
-18
-15
-27
14
-45
1
-23
16
-15
-12
-24
52
41
-13
23
8
-5
-7
5
-18
11
-9
23
24
0
15
21
17
-31
6
-34
-14
-13
3
21
24
23
-30
39
-10
-5
26
-24
55
26
42
48
19
-35
14
-35
6
-17
11
-49
-60
59
28
-13
-52
-21
29
39
10
-18
30
-21
29
-16
-25
37
-4
6
-15
-37
-51
-14
14
-9
-22
19
14
-12
-22
7
-5
55
-28
-3
4
-22
-4
-12
29
32
14
-16
38
-19
21
11
24
24
-12
30
42
5
-14
47
24
18
73
25
5
61
-8
-9
0
24
-19
-18
-25
17
11
4
12
-6
-46
-21
9
31
-35
-31
35
5
-12
-13
24
-12
-3
-21
14
-8
15
21
-24
-55
12
-32
51
-23
19
-13
-8
7
21
-17
43
22
-9
43
49
-26
-14
15
35
-70
-62
-13
-6
-29
4
-58
41
-13
-11
23
36
-30
-34
53
4
20
-39
25
58
-20
19
69
1
12
-11
-9
17
-11
-13
24
6
-10
26
13
-35
3
8
19
-45
1
-14
16
-20
-14
33
-17
-19
4
7
38
18
8
-41
-6
-5
60
14
15
5
-18
-16
-5
20
38
-5
7
16
28
-35
14
57
20
-25
-52
-12
-13
-31
22
44
36
6
38
36
17
54
6
-55
1
-34
-11
35
-34
40
-25
-13
35
-26
-41
-6
16
-7
26
3
33
5
64
3
-44
-12
47
6
10
-69
-35
-27
11
71
-4
10
-12
23
-16
11
14
-11
-38
-29
13
-16
29
9
25
-30
51
1
28
17
20
-26
-13
-23
-24
-15
17
-16
31
-11
36
12
-20
20
27
-27
-2
-2
10
18
-4
32
8
19
24
-6
40
-2
24
9
-7
17
26
-19
-51
-25
-38
-4
-3
23
-1
18
10
2
-20
-7
-5
-16
44
30
30
16
-8
-13
-60
-99
-23
-9
-34
-34
24
11
-9
-29
30
-35
-25
-19
41
-1
-13
-3
9
85
-39
-31
-11
56
5
28
-16
-13
37
-13
-52
-18
-21
-35
49
-28
23
-6
-12
14
10
1
38
-9
23
-39
-23
-19
-20
40
-41
44
-35
76
-38
26
-6
-52
-17
-56
46
74
21
-35
47
-18
38
96
-25
57
-13
-22
52
-24
3
-49
-44
0
36
38
9
-4
8
-33
-30
-4
-23
-41
-39
-21
-34
-27
58
75
2
-15
-21
38
-42
-26
19
0
16
-2
41
9
-21
-61
-9
0
25
-38
18
-13
82
55
-8
-27
-16
-18
-12
-14
-32
-6
0
-4
56
44
-9
0
-4
3
12
-7
-34
-6
-23
-34
29
9
-30
22
30
30
-5
1
-7
-46
21
-36
6
-41
36
12
46
12
10
32
7
10
-23
4
32
-62
5
2
5
11
-8
-42
61
35
6
4
-31
-24
22
-54
21
-23
45
-10
39
-5
-66
-7
51
53
12
34
-3
27
21
-1
-52
55
18
-25
-16
54
41
-25
50
4
60
-14
5
10
-5
-8
37
-17
-3
-33
48
-18
8
-34
9
33
2
-11
-71
22
-17
-25
-38
6
27
28
33
7
-47
42
14
31
41
-7
17
46
11
-25
71
-35
-40
-32
28
-30
0
-29
31
1
-23
-1
13
-28
17
37
-10
-14
-15
3
-13
-18
52
-27
-17
37
6
-20
-19
1
-20
-98
16
-13
23
-27
-4
19
78
21
-20
6
32
6
15
18
27
40
2
-10
-33
-25
-17
42
-22
-28
-39
-21
15
-4
-7
-37
-35
15
18
32
-7
-14
-26
32
7
26
-55
35
-3
15
20
-23
13
2
15
16
-9
-24
58
-34
43
33
-2
29
30
0
16
24
1
-3
-5
-53
6
12
21
-40
-32
3
-5
22
5
4
-67
38
-67
40
-7
-8
7
-13
-3
18
-56
58
-20
-2
22
48
-14
21
-19
-4
3
-28
-4
32
44
-14
11
11
-9
35
-63
1
-82
26
-5
10
5
10
-8
18
-17
21
-2
-8
27
30
26
18
31
52
9
6
28
23
11
-8
64
27
-23
-26
-23
13
35
-39
0
43
-24
7
-59
-1
-14
9
-16
9
13
22
6
-2
8
-7
-45
-10
47
3
28
20
-29
11
46
-38
48
14
24
-18
26
25
-39
-5
7
12
-16
30
-36
-31
1
52
17
-18
-68
17
-1
-31
-24
16
11
-22
33
12
38
6
-41
-4
16
53
-17
10
-37
31
26
25
0
32
-18
-19
8
1
-35
1
35
-23
46
3
-27
40
6
14
33
0
-21
58
-15
33
-6
15
-24
-4
-12
15
15
-54
28
-21
-1
27
-9
-20
-1
-58
41
1
38
-6
8
4
-3
-22
-32
18
32
-16
17
-58
1
54
1
43
-11
9
30
2
41
44
32
3
-12
-26
8
-32
20
-47
12
-18
-43
-31
-21
17
23
-40
-17
8
-11
-41
-21
-18
-40
31
21
-3
-28
-10
2
16
-46
-22
25
14
-31
-16
-20
5
-59
3
41
47
-4
40
-43
5
51
-3
17
-22
34
-12
43
-4
5
-22
-12
23
-21
0
16
-9
7
-31
29
48
-1
19
23
26
37
15
17
-2
5
-16
-2
41
22
52
-64
-27
1
35
-34
72
27
-3
-22
-5
-32
-21
19
-1
38
51
-16
20
33
-6
13
53
-49
11
24
-1
-35
56
17
20
11
-16
-6
-3
-71
-21
-10
-1
16
-55
-11
5
52
-5
-39
14
20
52
20
1
12
68
4
1
41
-22
22
-13
17
37
8
3
-21
39
-8
1
25
-15
2
16
2
19
2
-9
4
-33
13
38
-2
-32
39
-35
6
-13
34
27
-7
17
18
18
17
56
-34
40
26
-14
-33
-56
-24
-12
11
-9
34
-12
3
12
-25
-14
55
42
13
17
-25
16
2
-38
-21
-7
34
-26
36
-6
48
-10
-26
-35
-8
14
-6
40
-3
-20
-14
-6
10
55
22
0
21
-27
-20
9
-75
-19
-3
17
-41
-13
-13
9
-8
-19
-23
53
5
-2
-4
-15
8
21
-35
58
-9
3
13
-7
20
-22
-24
9
-55
9
22
5
-64
13
19
-16
-23
-40
13
-12
40
60
26
27
25
10
-5
39
11
31
-45
20
7
3
25
73
5
5
-6
-34
-33
-30
27
-5
26
59
-24
11
-62
-12
16
-16
-61
30
34
52
33
-13
-17
-25
0
13
-18
-48
9
1
-21
72
1
-45
7
47
7
-11
-31
-19
1
3
15
-6
-1
-1
8
-54
9
-4
23
-6
-21
9
44
-17
-63
-50
-4
-57
8
13
15
16
-2
61
-57
-5
15
-40
-25
40
-30
11
-10
7
38
-13
-11
62
-28
57
-7
32
1
39
8
31
20
-25
-11
-24
-23
-9
24
5
61
8
-38
-9
8
-28
33
7
-10
-8
15
46
-23
45
-35
-23
-17
-30
14
-6
30
18
-52
59
30
29
16
1
-18
-20
-2
28
30
6
-31
-1
-11
38
34
-1
-32
-10
-17
47
9
-72
2
34
46
-26
-19
-42
1
-24
-2
-24
16
-35
-18
16
8
12
28
-10
-62
18
21
57
-44
-37
12
-37
40
-7
8
-25
4
-8
22
-29
22
24
51
27
12
-25
8
-9
8
8
-24
79
-22
31
-5
37
-40
34
-8
-16
-9
-36
8
-22
-10
34
6
-75
30
44
60
28
-10
16
-18
19
21
-30
-19
-38
-19
14
-26
49
-64
10
10
9
10
-14
-15
-6
12
13
12
44
-9
37
42
-15
35
31
-46
-23
-13
28
-24
-50
3
-32
30
-1
5
6
6
16
30
-56
-23
5
-3
17
-38
26
28
40
2
6
36
-22
38
-29
58
46
-16
-1
22
10
44
-25
-24
-6
-12
-17
17
-9
-5
5
-31
-15
-11
-1
-14
-9
-34
7
-17
10
51
-4
28
40
23
-12
17
-6
26
32
35
-35
-27
46
-5
24
-20
-33
8
-3
-4
-8
-31
3
19
-35
-7
-1
6
7
-27
5
20
2
-40
20
-2
0
-20
-19
-16
35
-11
-23
10
-2
22
3
-29
-15
35
-5
-2
19
0
-43
-11
-22
-10
3
-3
-6
20
15
-15
-24
0
-3
38
-18
8
23
36
51
25
42
35
1
15
-49
44
-15
31
8
-38
61
14
34
7
5
38
-12
-18
-30
10
-7
11
-25
9
13
43
4
-14
21
-17
23
-8
-20
0
-4
38
10
-25
-35
-10
-4
-37
14
45
14
28
1
12
6
10
22
-11
12
-5
-26
31
7
45
31
80
87
-24
-30
20
-4
-9
-35
58
16
-18
-19
35
-24
-15
8
-6
9
-13
36
19
-28
-19
4
59
-15
18
39
-61
15
-68
37
22
-12
-29
23
-7
-8
1
16
13
-5
-49
-1
34
-16
-31
-3
34
-31
25
-2
43
13
-45
14
-27
-32
-3
-18
63
-34
-43
16
14
-4
26
13
12
-4
-49
46
-20
46
33
-15
-55
-20
17
20
-2
-48
-20
-13
18
0
14
57
-66
-7
24
9
-7
-3
-2
15
-39
-21
37
5
22
45
-95
78
-46
41
10
52
-14
46
-5
-17
16
-8
41
-18
10
45
47
-2
33
21
24
35
-25
11
7
29
9
-17
-10
-26
27
5
-21
-10
-43
51
29
17
25
6
10
36
20
11
11
-12
26
-4
37
7
29
-16
-6
-26
-17
-21
10
0
-28
64
51
-11
-31
-7
42
59
8
1
-50
-26
45
-9
-6
36
-56
-9
0
-17
35
2
-32
2
9
-37
-20
-54
55
62
55
12
-13
42
-5
8
9
-31
17
-57
-3
13
44
23
-30
11
46
1
3
-60
6
3
39
20
8
38
-14
80
20
-10
26
15
16
-5
40
25
-3
-18
-13
-27
-36
10
22
36
-29
10
-6
0
-22
33
-7
2
56
-15
1
-59
-47
25
-17
-67
5
18
18
-38
26
-18
14
46
-36
18
-4
-19
-56
-15
-11
-16
-36
-20
32
-14
-12
-31
35
-31
-3
-61
22
63
-8
52
-23
-13
49
-22
-65
-10
20
-13
-28
-25
96
85
-46
19
22
-24
-5
8
-13
-1
22
28
-9
88
-28
-47
13
0
-28
1
-28
7
-27
-26
25
-22
19
3
10
-9
-12
9
-13
0
28
17
15
-11
-15
-18
-16
14
3
78
-30
-10
34
29
20
39
22
-17
67
-93
23
-13
1
-21
-28
12
-5
4
7
2
51
-6
-15
-36
-92
-8
-27
30
-25
-29
0
34
4
45
16
2
-28
-36
0
56
-6
-25
-20
-10
-5
46
-28
-1
12
85
-49
30
9
-43
-6
13
-47
-22
32
12
-22
-10
29
24
-1
-35
10
-1
46
-11
-43
14
-4
15
-26
-10
-12
42
0
5
11
0
41
10
-21
-61
52
-25
-10
32
18
-31
36
-32
19
-47
-16
19
-8
-45
17
-9
24
17
-3
-14
33
26
40
4
-40
19
-25
62
-36
25
22
-24
24
27
44
-33
3
40
2
19
-28
-46
8
-30
-19
-56
28
8
33
40
33
1
9
-15
-19
6
-28
29
5
18
19
-22
-37
9
-35
-26
-14
-26
53
11
-18
35
54
4
-21
26
-11
-38
-28
29
0
-40
36
25
23
18
22
-3
68
1
49
-23
17
51
2
-8
45
-9
-27
-11
28
7
2
17
0
40
-38
14
37
1
11
19
31
-5
2
-2
31
58
8
28
49
30
-26
-8
-11
11
-12
-27
-25
-9
-5
-13
-23
1
7
-4
29
-33
-41
31
22
-13
-30
-17
-10
-41
24
-21
0
34
-36
25
-16
20
15
8
18
-35
-22
-2
-6
41
-8
29
57
15
-30
41
-60
13
40
-7
-34
17
30
9
-2
48
42
33
85
21
9
3
-16
-19
42
2
22
-5
-46
41
-38
-33
-20
-18
-11
27
-37
72
0
-32
-15
52
34
3
-27
-66
-4
3
-34
27
67
19
70
-29
67
46
45
-54
-27
-16
-36
32
31
-2
2
32
-53
-24
-15
0
-11
9
23
2
-12
-3
17
16
-5
17
-21
-38
-38
-11
-25
46
-17
70
30
1
-18
-43
-68
73
-33
-43
7
6
46
26
74
-13
41
20
13
-4
-39
-12
-27
-23
-41
-10
-12
55
-14
-46
31
19
32
-42
-28
-8
-7
-10
57
-22
67
9
8
-22
-14
37
31
6
105
40
-61
-6
14
20
-24
33
-19
24
34
4
-31
-67
21
-11
-46
37
29
31
60
-5
27
-9
-26
21
-66
-3
38
9
22
-44
-19
-6
-30
-26
-25
-38
43
33
-20
-24
-46
0
-26
25
-43
31
12
57
15
18
61
20
6
3
-54
1
22
28
58
21
70
24
-36
23
-9
22
-8
-13
21
28
-51
-12
5
67
-10
10
-14
-15
-22
-15
-22
-22
30
-11
-12
31
-39
-38
43
0
9
43
-13
27
-28
-34
16
19
34
4
-34
-11
14
-4
-10
11
-3
-8
-7
53
55
8
2
25
35
-18
2
-46
12
-40
-26
25
-41
15
7
-16
-2
2
26
25
-46
0
14
-26
11
32
14
65
-9
18
-12
15
18
7
-27
35
6
-16
42
-18
11
50
4
13
43
30
46
-19
6
13
5
58
25
12
-15
-22
-32
-24
33
65
8
42
-24
4
-10
21
-32
16
2
-33
-15
-6
-17
2
45
-37
4
30
27
-1
11
-30
23
9
-5
37
26
0
-10
-18
-10
-17
-30
-76
7
-20
-21
27
-3
-80
-10
8
36
53
-22
22
34
-36
28
4
12
19
-5
-16
-62
-8
-25
-12
20
-30
-15
-31
-31
10
20
7
-61
-15
38
13
-34
15
70
45
-13
-18
13
9
7
-30
7
3
28
-21
-25
-37
16
17
5
-21
-32
25
-19
31
-37
-3
-9
14
12
24
1
42
-54
-13
8
42
21
2
-4
29
51
80
52
-22
48
3
-27
-37
-52
45
68
7
-7
18
19
-39
6
-28
-30
-3
19
15
-8
-24
-28
78
-55
9
-34
-75
7
0
0
11
-20
2
20
68
-5
48
7
43
5
2
57
9
64
2
-12
-25
32
19
36
-20
-20
-8
46
5
-22
-37
6
-30
-52
16
32
26
13
-4
-45
75
-22
-12
2
40
46
-9
43
14
-24
-48
-14
40
-30
-6
-5
13
43
-7
-18
15
-74
29
26
33
58
-16
27
-36
-52
-21
8
25
-21
-4
-27
11
15
43
49
18
-10
6
15
47
-29
10
-7
-19
50
44
-21
-26
8
35
32
-36
18
0
31
17
-11
9
-32
-46
-12
-14
8
38
-68
14
55
-30
7
26
23
-39
-42
-9
-43
0
53
6
33
-1
40
25
-30
6
-16
-20
44
30
-17
-12
-9
-8
-38
27
1
-6
-29
-28
-1
25
-6
-1
-20
10
-4
-3
-26
19
-22
7
-21
6
10
-21
1
20
-17
31
-19
-7
46
38
1
34
23
-20
14
20
36
-35
-19
-32
14
-48
2
-54
-21
6
-43
-11
-3
14
-33
23
-24
34
15
31
8
-26
-15
52
-41
38
45
35
26
50
9
10
21
-46
30
-7
-22
-3
14
-1
-40
-6
50
-9
-1
31
-1
18
15
-54
16
17
1
-59
4
-8
6
24
20
2
4
-23
35
-19
12
5
-19
-27
5
-48
39
21
-37
36
10
59
2
-11
-10
-10
-10
-4
42
9
31
5
-36
-35
9
33
8
-20
22
33
-28
-16
2
44
45
48
-25
28
24
16
4
-25
26
-31
-18
8
20
-27
2
21
29
-4
-4
-43
16
26
34
-2
-31
7
-1
0
-21
61
-47
-8
-5
-28
11
11
-29
-27
24
-25
-7
-47
25
-14
-16
23
-25
11
7
-14
-46
-68
-17
10
-9
-14
55
-6
1
27
-7
-65
-5
-52
29
-43
-4
21
4
16
50
31
-3
-17
-28
-30
-1
-37
7
27
10
3
15
69
19
9
-20
11
19
-9
-6
2
-24
10
-1
-35
-13
-6
16
-34
-37
17
-21
-32
85
-54
25
51
8
21
-51
6
-4
-14
27
-34
20
-30
-2
7
-9
17
1
-19
-23
-6
7
-36
35
20
-35
51
65
-28
-14
-10
23
23
-15
11
-4
-7
-7
-8
-6
32
-28
-44
-6
-3
29
74
-24
63
70
-3
-43
48
21
-3
-31
33
42
19
-46
73
-33
-54
44
-34
8
-43
7
63
23
61
9
3
73
-9
36
18
-6
11
1
9
14
34
-38
9
13
-11
44
-33
-14
4
-7
-19
-51
-15
76
18
-32
39
-52
3
26
-13
-15
5
-30
24
-44
-9
11
20
20
9
24
-33
5
-30
-13
-4
43
7
10
46
17
-6
69
13
16
-32
-29
-29
4
3
32
23
2
11
-9
15
-37
3
-30
20
-15
4
10
27
18
14
-11
-12
6
-8
-14
-6
-26
19
40
0
-67
-14
-11
3
-3
1
32
1
29
62
-9
43
9
-25
-18
6
46
40
22
-31
-7
10
-1
-21
-2
-15
16
-21
10
-45
76
-35
6
-14
24
-38
-41
19
0
5
-1
-34
19
7
-28
21
-6
5
-3
24
-27
-10
-8
12
-43
0
22
-15
48
20
-20
29
-29
14
27
23
-29
1
-42
-13
-11
-48
-5
7
0
35
-50
-15
17
-28
68
34
23
5
57
-4
7
-8
24
39
-39
1
33
16
-7
28
-6
10
17
26
3
5
5
-5
23
17
14
34
32
-1
34
16
-1
52
-13
35
0
54
37
44
42
4
23
-10
-34
-26
25
31
-8
23
-5
-11
-22
-18
-29
-32
-13
-10
-35
10
16
54
0
11
-41
-8
-10
2
-39
58
-57
-89
-23
37
52
20
22
-13
18
8
3
8
9
15
-12
51
18
44
-26
-21
21
-19
20
-28
-10
39
25
7
-42
35
3
-55
21
-31
-4
-9
2
41
-24
24
-23
43
18
-30
-22
11
14
-60
61
0
5
14
43
69
8
30
16
33
55
63
-11
-41
-51
24
27
1
30
-24
9
-41
-34
9
-45
26
-25
-28
17
-4
-29
-1
11
12
5
-19
25
-3
40
-26
-33
-14
-29
48
-3
11
-20
-45
-3
-25
11
-9
-13
4
-5
-30
-3
22
32
35
21
42
25
-30
-31
-46
-19
1
-21
-29
-1
13
58
16
1
-26
-24
-1
0
-23
-14
-20
46
36
-45
-11
-9
34
-28
17
30
-26
17
7
-7
2
-10
44
26
58
61
-18
61
20
35
-21
-21
-33
12
45
-1
-46
2
62
-12
19
37
-6
-22
3
1
18
-6
-21
15
35
-5
-28
23
-1
-5
7
-28
59
-42
4
-6
-20
-30
33
19
-33
15
38
-47
-22
9
-14
-31
31
-20
22
19
36
-23
-20
45
18
36
52
44
-28
-13
-34
2
-43
-61
18
3
64
-13
-53
36
42
-9
19
-3
24
20
-6
-56
4
-1
-16
-4
-6
-27
-4
-14
26
19
54
3
10
-33
17
14
-29
58
-41
32
-9
-22
11
-10
-8
-61
6
-16
-54
4
8
13
-28
-33
8
-18
-28
-11
-20
-8
3
-9
29
-18
-8
36
-15
52
26
-4
18
-26
4
7
36
-30
31
-2
34
-12
-22
14
-15
15
19
23
4
-11
22
28
6
-5
2
-47
-1
2
-7
45
29
13
27
-2
-11
9
0
4
-3
38
7
15
54
63
-30
35
-9
3
-15
23
-16
15
-6
40
13
-34
-2
34
17
13
-33
-15
-29
7
-12
17
1
-27
7
51
-23
-30
1
27
39
34
38
24
3
-26
5
34
-38
54
3
20
-2
-20
30
-2
-55
-23
24
-20
-5
-5
10
-32
12
37
10
-62
-44
-5
-5
-4
36
-16
27
-15
-11
-15
66
-26
-34
-20
34
-2
15
-11
2
-13
16
-7
-9
-25
23
41
48
-2
17
40
4
27
-81
15
-21
10
14
9
-12
31
58
2
-34
-9
29
25
36
-9
2
-29
-8
21
5
66
0
12
18
9
40
48
39
46
9
-38
13
29
-10
-18
13
21
-31
20
-35
-26
11
-41
14
45
8
-27
22
37
-11
-40
-5
1
-40
-43
-1
21
-65
0
11
54
44
-33
21
11
-21
-44
40
-26
-9
15
-14
57
54
12
80
3
12
21
0
-1
12
-16
-19
-14
-24
9
-8
-3
-4
-28
35
-10
-42
-17
-9
-13
-4
36
-7
13
-6
58
68
10
-33
52
21
-25
5
-29
-13
-35
13
7
35
-11
39
-10
-11
-12
6
14
7
11
1
-29
15
-23
76
-30
0
39
-23
57
43
-18
-11
20
-2
-54
30
44
0
-17
-7
-1
19
32
-1
-7
50
-22
21
-5
5
32
19
3
-15
-36
16
-2
-43
-16
-49
78
-18
30
-35
-31
-2
4
-35
-42
-4
6
43
-2
-24
94
10
3
19
-58
-20
42
-9
45
-38
-13
-27
41
-38
50
-41
23
-1
22
-36
-48
-1
-65
-36
7
44
-69
20
-29
-25
2
7
-4
-25
21
-2
-47
-17
24
-16
6
13
26
-22
12
-13
-20
26
15
1
15
11
59
-39
-7
-54
-17
-55
25
8
-20
25
-86
16
-30
12
-5
-40
69
-7
-4
-22
-15
21
7
8
-42
7
-22
2
-10
-3
22
4
49
-2
-26
78
-20
35
6
-14
8
30
-38
30
-15
-17
38
38
19
-4
-4
38
29
39
27
-25
37
-19
-14
35
51
5
47
-26
-55
-27
16
-4
-61
35
12
-12
-17
21
0
-6
-25
4
-27
19
36
40
33
27
16
-18
7
42
10
-14
-42
2
-5
28
71
-3
18
50
23
-1
-14
-44
52
-26
-1
31
-19
-35
-21
-17
-10
-27
3
28
16
29
37
15
-3
-52
-54
-32
-15
-8
12
-37
28
-20
15
-5
-53
34
-10
-9
-60
48
-8
-15
13
56
5
-20
-3
-16
-27
32
11
22
-10
4
46
-44
-4
66
-8
16
-6
-7
37
21
-26
-15
-77
47
27
7
-27
16
-70
83
-29
46
17
-9
13
39
25
86
-11
33
51
36
42
10
-7
-6
-6
19
-34
-11
27
-61
1
-58
34
-41
-1
33
53
5
-20
-7
-50
51
-83
-6
-28
-24
11
5
-17
22
-22
22
33
2
-41
-40
-11
38
4
-9
61
18
59
29
9
-36
8
-13
-33
5
-10
15
-12
43
-20
-23
0
-29
8
-32
23
41
-7
-18
37
33
-16
-32
74
-9
29
-6
46
21
16
-16
8
-8
-4
-42
-3
-22
30
28
-36
-4
-25
3
-20
4
36
32
-37
3
0
-18
8
-42
-16
84
1
0
-29
-22
6
-17
6
-25
-4
19
-17
24
18
23
36
21
-47
-35
-33
41
18
57
23
-27
18
23
-9
-3
-20
16
27
16
-12
9
-17
-62
7
7
-22
30
-28
-20
43
7
5
18
30
23
-8
-35
-35
2
-62
-14
-16
8
-10
6
37
-26
30
7
34
7
62
-9
-44
-28
-6
-47
4
-7
13
-15
3
14
10
11
5
-20
-35
-39
-14
57
14
26
24
27
-18
17
36
45
21
40
-9
-39
-30
11
53
-40
63
4
-15
-14
-65
22
8
-30
23
48
38
-23
5
-37
-12
-11
28
1
-63
-20
9
-12
-4
85
-27
7
53
17
19
-18
-8
-34
14
54
-4
8
-18
52
-29
-15
3
-26
-45
65
19
-15
-18
-35
23
16
-9
-2
-12
-1
-34
3
39
-53
40
-65
33
-35
26
-26
50
-51
-6
26
-7
54
18
-73
49
19
60
-20
28
40
-41
49
12
-22
37
13
22
11
56
-4
40
19
-3
0
-47
-55
25
41
3
21
20
-24
-12
-19
-76
-44
33
7
46
7
-4
-7
16
11
-19
-24
34
-5
20
23
-7
14
-18
-25
79
-15
-21
-9
-39
12
31
3
70
22
-31
-40
61
37
-63
-55
26
27
25
10
30
-10
-25
-63
-42
-6
27
5
-3
33
-8
-25
12
20
-4
-42
-13
-21
19
15
23
-23
-57
-15
1
16
2
45
-34
10
9
71
40
7
34
13
31
-22
5
21
-15
6
-28
15
16
-29
-33
-29
14
0
9
-24
43
-28
8
14
5
0
-30
5
32
-7
-27
42
3
-18
-14
6
12
35
-21
-4
-70
19
26
16
-14
-10
-43
0
-18
2
23
-30
1
4
9
22
12
5
42
14
-11
-21
-58
71
1
2
-3
1
39
40
-30
-39
-15
16
26
1
12
-30
17
22
12
-26
-8
-29
-3
0
22
32
-13
5
21
29
-4
-19
-1
19
16
36
-20
-21
-5
-9
36
3
43
39
-17
-12
13
14
-8
40
-6
3
41
-17
-16
5
49
-64
17
35
29
-2
-37
-10
-3
-19
-34
54
-31
19
-5
-32
23
41
-22
-36
-66
7
-4
-43
-35
37
-29
4
2
8
27
42
-9
-10
2
-3
1
0
46
33
29
34
55
-8
37
-10
-20
3
7
25
12
-23
3
-6
9
-13
-10
-27
-4
-26
18
-4
0
-1
-31
17
-1
32
-28
4
-28
21
9
42
-12
29
11
-20
-3
18
40
-24
-12
4
-15
-13
42
-32
11
-17
25
12
10
-19
7
-4
6
-15
41
13
8
44
49
-16
-21
39
11
28
-8
14
-8
-4
-35
11
-13
14
-12
-2
2
-11
-41
11
5
-29
31
-26
58
18
20
-15
-24
-1
40
26
5
3
-35
35
6
-30
32
0
24
-5
-23
21
16
-11
56
16
0
41
61
7
15
6
62
16
1
4
7
15
40
1
13
42
-57
20
18
4
-4
3
22
-13
-15
-14
-18
12
-35
28
22
12
2
-6
-24
2
-23
20
-1
18
20
-19
18
-37
10
7
36
-20
5
9
31
-5
-30
62
24
25
-38
18
-16
2
34
9
-49
-32
25
-36
0
10
-44
-70
38
-23
52
16
-12
-35
15
0
-43
-51
-14
14
21
26
-50
-22
-9
24
-38
-13
-28
-21
-10
-16
-23
1
-36
59
39
-5
17
-62
-7
10
-25
-7
4
38
12
-5
13
37
23
68
2
-33
24
21
7
-2
33
17
43
-34
14
-51
16
50
18
18
-16
19
58
7
12
-14
-28
-4
-57
13
26
-3
16
29
20
-16
37
0
-16
-8
31
4
-14
7
-12
-8
-45
-2
80
7
-34
24
30
1
10
-67
-39
39
-25
-3
19
-12
-34
15
-9
10
-5
52
23
46
28
23
30
30
-3
-17
-6
-18
34
94
19
-21
35
-38
-7
-6
-32
-66
-41
3
17
-2
-28
16
-18
-35
-15
-37
72
-44
11
50
-17
70
-6
7
67
27
-9
38
36
15
71
7
53
31
-15
36
16
-23
-32
56
-38
17
3
-86
2
-17
-1
4
-44
4
-29
-28
16
36
5
-42
27
-4
-22
17
8
21
-32
47
37
-24
-89
35
5
-9
-27
-7
3
12
-39
-38
-2
22
11
24
-12
3
22
21
30
42
-44
-63
-39
25
24
-17
37
-10
-12
7
19
-45
-1
-73
12
1
17
-21
13
10
-24
36
28
35
-64
52
-23
50
9
1
7
19
16
28
-10
-20
38
-24
10
-49
25
-16
-1
-13
-14
-18
24
-40
-8
-21
14
-1
-18
-12
11
-24
-17
-5
2
-25
-22
54
-8
23
76
0
17
-30
10
5
-24
12
37
11
-29
4
-29
28
28
-32
-8
-34
40
20
28
42
-34
9
87
30
-28
-17
-46
41
-45
-30
28
8
-12
-9
5
43
3
-16
10
23
-13
-15
36
15
82
-34
8
-15
4
14
35
2
26
26
-8
19
-22
-45
-10
24
-40
-17
15
20
-2
38
25
16
-3
-1
67
-25
18
-24
-18
-7
19
51
9
-22
22
-12
-15
16
24
7
25
-53
-16
42
58
-27
32
6
29
10
-19
37
-11
54
15
26
16
-4
-71
5
16
-10
25
7
1
-14
-11
-31
-45
-10
25
-4
-24
-19
51
66
-22
-34
18
45
-1
21
-30
-8
-9
-43
26
-5
21
-19
-31
7
-1
-57
40
-29
-16
37
34
-6
10
25
22
19
15
54
-3
-12
27
-26
50
44
28
-7
-15
24
17
-14
8
46
10
0
-56
-8
30
-25
-26
19
27
-66
-37
-31
-61
-4
-2
-23
13
-41
59
4
4
87
-14
0
-25
25
51
-61
8
19
48
30
-16
-14
45
-38
-17
-28
-6
0
-12
11
8
14
-21
-9
-12
36
73
18
-20
4
11
-24
-60
-29
-45
-31
-28
-19
13
19
-22
-11
33
-17
44
21
-33
72
-3
-25
-13
53
-45
-5
33
25
-32
-7
-1
-1
-7
35
19
10
9
-7
44
20
24
11
30
19
-23
-23
-8
-3
38
9
-48
-5
-17
-18
-12
10
52
58
-43
-10
-26
-36
-18
15
35
56
14
-18
45
24
65
31
4
87
13
37
-24
21
-19
-15
29
2
23
5
-28
-6
47
-6
-19
-18
1
-21
-2
42
-8
-16
57
27
16
-5
11
39
-60
-37
-13
10
6
8
-31
-5
-25
-20
10
-1
-19
-36
1
-30
9
32
-26
8
-28
31
-12
-10
-15
-5
-64
54
-52
41
23
0
-1
37
-5
8
-44
-8
-5
62
-27
30
44
-50
-45
-30
76
0
-15
20
73
-23
-29
49
-19
-12
7
-51
43
-5
-4
-9
19
36
-26
7
16
7
-10
5
-42
-30
0
30
27
16
1
-5
25
-26
39
-11
-24
57
-27
44
-66
1
73
-9
-6
0
6
16
27
-35
-36
-25
32
67
-12
-16
0
3
7
16
29
0
48
26
-31
-42
-11
-14
-9
-1
-9
10
3
-31
31
-16
27
51
29
-4
9
1
-19
20
23
0
-15
-30
-11
51
9
-21
39
5
11
66
30
11
47
13
-8
18
6
-23
30
4
19
-16
-45
15
10
13
-26
-17
12
-54
-42
25
-32
-9
8
6
15
-38
79
-11
10
14
-32
-5
-5
31
5
52
-37
-69
41
-28
29
-24
34
-16
18
50
42
26
-15
-28
15
-3
-14
-33
12
34
14
-41
-39
0
-24
-33
64
-48
-53
-8
-51
2
-36
16
-13
-25
-1
17
-62
-12
-69
27
38
-8
-7
-30
14
-18
75
-2
-22
73
10
8
8
-106
-14
-19
16
-68
4
9
56
67
6
5
-4
-9
-1
13
-4
-5
7
71
12
8
-4
-42
5
25
-30
21
-5
20
41
45
11
-2
27
-15
33
-54
14
87
-12
50
-17
42
-14
35
15
-36
10
-18
23
9
-23
-19
3
-21
-20
-7
0
0
-15
-16
-19
27
-15
17
54
2
-7
-34
8
69
4
-10
4
0
-47
12
89
-48
14
52
-6
2
9
-5
29
13
12
36
15
-46
-29
-20
-11
-46
-14
-27
-2
13
4
64
21
-1
15
52
0
16
-38
71
17
-23
-7
-6
-10
-45
36
6
49
5
-42
44
20
36
36
-36
-16
-16
43
-57
34
26
-13
10
49
-14
9
19
4
-16
23
-2
5
-67
27
-1
20
5
28
-1
-27
-40
-37
-20
-47
23
-22
1
29
-28
-36
18
20
-27
4
-20
-4
12
4
50
-4
1
21
12
-55
-11
28
48
46
38
43
12
6
27
9
24
11
11
-39
14
15
12
35
-43
-29
-17
-11
-33
41
-34
3
-4
-23
-64
46
5
16
21
-21
57
-68
-2
-26
38
21
-46
19
-40
3
-42
15
79
-7
27
-36
24
16
-5
-46
9
32
-35
-3
-41
30
-15
-6
4
0
37
-22
0
-54
32
-2
-42
9
3
26
33
-40
7
50
-19
5
38
41
24
43
-22
22
-46
30
4
14
21
13
-4
-43
22
-34
-30
-3
-23
10
48
6
-1
12
33
30
-23
22
-22
79
24
14
32
-10
29
4
27
-4
46
1
18
-41
-1
-45
-31
51
7
-3
-26
-24
54
-4
-44
-16
12
14
-8
3
13
21
35
-38
-17
-28
-28
-34
2
-15
-7
2
-26
-2
37
16
56
7
-18
-28
23
0
20
-5
-23
-5
7
36
24
-12
-41
0
-60
-26
24
-31
29
-54
-29
12
-13
-6
-2
-2
-4
29
20
-42
-35
-67
1
18
20
-37
43
0
31
-34
70
11
-1
-58
-28
-23
-6
-52
57
55
62
34
17
40
-6
-12
-1
43
21
23
-1
77
-29
13
-11
29
-6
40
-11
14
-3
-37
1
-11
71
13
-27
4
1
-38
25
7
5
38
17
-24
50
-5
39
0
-12
28
-8
24
-3
-18
23
20
-46
20
-17
14
29
-25
-2
18
-3
51
-3
14
46
-12
17
-6
7
60
34
-1
-26
3
3
-7
-2
12
-2
-51
32
27
-14
-18
-54
-27
16
46
38
-11
-12
-4
14
-26
5
-20
-8
-8
-90
-31
26
59
45
-13
20
-23
81
-5
-1
-15
-35
6
26
28
-29
-20
-8
38
-26
-5
-23
-8
-60
-4
50
18
-4
33
-10
-1
-1
35
-4
-59
-30
16
29
7
38
-54
-30
25
34
32
49
6
-21
-1
-11
9
-37
10
-2
25
16
24
89
-3
3
0
34
-54
-63
72
-20
18
19
-10
-16
-26
-13
35
-27
-5
42
36
23
18
69
-8
19
1
72
-6
9
-2
-9
9
-8
29
8
8
25
-10
1
13
-49
22
-20
17
-21
-23
-10
-5
13
-13
-8
-5
22
-38
-14
-42
-31
36
0
-5
56
2
-1
-31
-12
-4
32
1
4
14
6
23
5
14
-25
54
-36
33
-41
8
-13
14
1
21
52
-28
-6
-22
50
-19
-4
-5
-38
22
11
20
-15
42
12
-51
-36
-4
72
22
-37
-18
-6
-1
40
-35
54
-15
-6
11
10
-39
15
-5
18
-9
21
38
-3
68
-33
0
-58
-20
34
-7
36
12
58
72
-42
-28
2
-31
60
3
-8
-15
45
88
0
-20
-18
-1
59
2
18
2
2
-11
-13
2
-3
15
0
35
0
59
-49
-28
-5
-55
17
-39
25
-2
-1
28
19
5
24
14
39
-18
-28
-13
-7
10
-23
-13
-2
-18
-2
2
10
-9
99
-20
25
-14
-28
1
4
-10
41
-15
28
-17
-8
-20
18
38
15
-10
-33
62
-46
-38
-4
-31
-7
-9
-19
-20
5
-5
54
7
-6
-2
-6
-5
-14
37
-11
-23
8
14
-3
10
-29
32
-89
-21
29
-27
-43
-25
-5
-3
-18
15
-4
5
13
32
57
15
-16
-35
13
35
4
21
-40
25
-4
-29
-33
-53
20
43
6
9
14
-6
-14
7
-42
78
22
0
12
60
56
-26
17
-2
7
-11
-15
-57
-14
5
21
13
12
0
79
12
-11
87
60
-20
13
30
6
-17
19
55
-21
55
-3
18
-41
-8
1
-20
38
48
-8
13
-2
-24
-16
7
46
3
-27
26
21
-7
-51
-31
46
-24
26
21
-2
-26
23
40
-20
52
17
29
-1
40
-16
-23
36
-17
11
-25
7
-43
-42
-29
17
-34
42
-9
-14
4
8
-9
1
13
34
85
15
-34
-5
-40
-69
-15
29
44
35
19
42
31
0
-40
-11
-36
22
70
84
-36
16
-4
11
-23
2
-96
16
-14
-6
23
13
44
-11
16
-11
4
-19
34
-50
6
49
7
22
-28
-26
-14
-14
8
-36
-6
-27
-13
45
-13
14
-6
-8
-7
-21
50
37
2
-41
28
-9
4
6
39
-58
59
3
47
11
-8
-5
0
-16
-5
72
12
0
-4
22
0
-9
40
21
-30
-49
21
12
41
33
-17
-8
-27
21
-57
49
-33
-73
41
1
-8
-17
37
-19
12
-17
-21
-17
-40
11
8
-15
-46
7
-35
-1
6
-26
1
34
-19
-36
-26
18
-9
-21
46
5
21
-45
1
42
-13
-29
-29
37
-10
-30
7
-18
9
-13
5
22
23
-8
47
27
43
24
13
-12
42
19
20
34
2
11
-38
3
-7
33
-33
51
-36
28
-4
12
9
24
37
9
37
-15
40
1
4
25
-17
-13
-17
0
-38
16
16
-6
5
-38
5
17
-11
-21
-5
-38
12
93
-2
14
23
-25
-27
44
-51
17
4
2
-5
34
5
7
-24
39
24
21
-14
43
28
34
-10
-61
-6
33
27
4
59
-31
51
23
-14
17
5
48
6
10
-13
-5
32
-32
-63
-40
36
38
-13
35
-41
8
59
-2
-40
21
-15
24
28
-11
-15
38
32
-43
4
27
5
14
6
-52
8
25
17
65
-5
-8
-14
-19
-28
3
-2
-51
-9
-13
-5
58
1
-5
22
-10
35
-3
-60
3
27
-75
-10
8
-41
31
-7
59
-10
-51
6
31
-39
5
-2
-36
-6
-21
22
-3
16
-13
13
6
-37
22
10
23
-15
-12
-30
-5
15
5
38
36
-22
19
41
35
-26
-34
-8
-20
35
-16
-18
1
-54
1
39
-26
-37
17
-2
-35
14
45
-16
6
17
18
-7
18
-8
2
30
25
-27
36
-25
17
-46
-53
57
-22
18
20
0
2
36
-44
59
34
-13
9
5
-52
-8
55
-21
-25
47
20
-13
-18
-27
15
86
21
14
21
-23
-42
24
27
-52
-33
-7
54
-30
22
-34
31
-7
36
-23
11
15
-5
-30
25
15
-15
16
31
29
-24
17
-8
31
12
17
14
-45
27
9
-42
0
15
-5
-15
24
-23
10
-14
22
35
19
43
-8
-3
27
3
11
-24
51
-12
-60
-16
18
-52
57
-82
-14
28
-17
-54
-11
29
94
13
16
16
-50
2
-14
6
2
-9
27
-55
-30
-12
23
-3
-45
-6
-2
-31
5
-39
-30
2
31
-18
-8
-3
35
60
5
-41
-34
1
28
12
-53
-18
18
-17
-22
65
26
5
26
-4
33
17
35
19
-2
1
-24
0
50
1
-2
20
15
29
41
34
-23
-52
-19
-22
9
1
-39
31
-21
54
11
20
56
24
30
-18
56
-19
-24
81
-14
54
-13
23
14
-18
-1
5
17
39
-3
10
-20
46
4
11
-30
17
-6
-46
-29
39
45
15
-27
-22
23
34
-22
-1
-5
18
27
10
-5
-38
-61
-36
9
70
8
1
9
0
40
-2
-34
33
34
4
-4
-21
11
-37
-34
3
-36
-69
11
35
24
7
28
-43
-1
38
26
-17
-32
17
69
26
-37
-9
-51
25
-40
70
-55
3
21
22
14
27
32
53
47
-9
14
56
-12
-21
42
43
8
32
26
-3
11
28
56
6
-5
-6
-44
-51
23
-42
28
30
33
-1
-30
33
-73
-25
-93
-41
41
-48
20
-37
23
29
-20
38
38
10
-35
15
-41
32
19
38
12
5
43
-8
29
-4
7
25
-5
49
24
30
-70
74
-4
1
47
-18
22
31
-48
34
-16
-2
72
-3
-3
-25
38
-19
59
16
44
-4
-14
9
17
34
-44
-11
21
-33
45
-3
-17
74
-16
8
-20
-4
-13
27
-1
-45
2
-6
-13
-6
-9
44
12
-19
2
21
8
-17
-4
-4
-36
9
41
24
4
-66
21
11
-66
-40
54
-16
18
14
7
-22
14
23
-31
45
-19
7
33
-19
36
13
-19
-81
16
7
-16
2
-7
-31
-38
22
-14
7
2
-17
53
39
-9
-1
22
-11
-21
-32
-52
-89
-27
-1
12
10
-31
23
59
7
-21
-21
44
-12
5
57
-10
-5
-15
0
9
25
14
-12
-6
3
-21
54
25
11
18
18
40
-20
-47
-21
26
11
5
7
-10
-4
13
-13
15
-66
19
-1
-61
0
11
-17
50
0
38
-52
19
1
-9
-30
43
-25
-1
-59
-31
30
-74
-22
61
2
-13
45
6
49
-25
-11
0
27
-13
-14
18
-36
0
9
41
-23
-19
18
-7
-10
11
1
29
14
-37
-39
-1
6
-40
47
9
64
32
-8
10
17
70
9
-13
15
2
-4
-38
-13
10
46
-17
-5
-1
-60
33
44
-30
5
21
63
-32
54
-11
46
-16
-20
47
-29
54
36
2
21
-15
40
-44
50
8
46
32
-45
11
7
17
-25
32
6
21
-23
-21
4
12
-27
-10
-32
-53
45
33
54
-34
-26
-24
-36
2
-39
17
44
-17
6
5
-25
-61
-11
-44
-11
15
-30
43
24
21
13
-5
-4
-33
9
18
10
-15
21
63
27
-31
21
20
8
6
-47
-29
-33
-21
21
-4
2
-17
-14
19
3
1
8
-32
-34
32
25
6
5
-8
6
-14
-20
10
21
46
-4
27
60
23
-18
-17
19
9
19
-11
-17
26
29
0
7
51
-26
17
-26
50
-16
8
-18
-22
-9
13
-39
38
33
8
17
-53
-7
61
-8
24
-39
-4
-26
18
-18
-21
-33
-1
9
66
28
-19
-25
-13
20
6
34
-7
12
40
-6
-42
14
10
5
-5
13
-54
30
71
25
78
17
32
-14
14
-21
13
-7
10
7
15
16
22
-45
33
-13
-27
-52
-79
-19
-6
-24
-6
-12
3
-16
43
-42
2
47
0
55
20
2
5
-15
62
-43
-6
-18
40
-35
-9
20
18
-1
-5
-28
-7
28
10
-18
30
21
-24
-22
-29
13
-27
46
1
-5
15
40
16
-8
-3
-34
4
5
7
5
3
-12
-4
12
11
25
6
0
-1
6
17
31
-27
14
-6
-3
-20
-50
23
-14
-26
4
36
-46
-67
43
24
21
20
8
-10
-16
-29
29
-50
-20
13
0
-51
-6
-1
-12
-44
-20
27
-20
6
-13
1
45
62
58
37
27
9
-8
-15
-58
11
73
-17
-22
-21
-15
-26
38
-35
-37
30
8
0
34
-1
7
12
59
-11
-21
11
2
6
-17
-26
15
28
19
-27
-27
-22
-8
3
18
-17
12
27
-13
36
-1
-6
19
9
44
-11
-17
5
6
56
10
-25
-27
28
-4
-22
-33
-14
44
37
19
-8
13
-19
-26
4
-33
8
-33
75
54
-4
23
66
-6
-16
24
34
-15
-27
31
9
1
-18
7
20
41
0
26
5
8
37
13
24
-13
-40
25
-20
-6
25
18
-6
38
-18
-35
-8
8
-27
-30
15
8
20
29
-52
21
-12
-3
43
10
7
24
20
24
60
58
-30
-7
-5
-4
-30
-14
-7
11
-8
-5
55
-29
-37
-4
8
-17
-27
1
11
68
39
-9
36
32
-16
-22
9
-59
-44
8
32
61
-18
-32
17
27
-3
29
10
-21
21
49
-19
-10
8
63
9
19
6
3
-15
-31
15
-13
-1
0
10
35
-16
-3
47
-4
-8
38
-28
-6
-12
-8
-8
-44
6
-29
-17
-28
51
15
0
-9
21
5
-41
-4
54
-29
-3
53
8
4
25
6
61
-36
-40
22
-10
-31
13
35
-11
-18
-15
38
42
-39
-1
-6
3
25
1
20
-39
18
-11
35
-58
-9
-45
13
-15
-1
15
25
-3
17
-51
51
1
1
44
22
32
24
10
34
19
-14
37
30
-27
14
4
18
-11
13
13
0
-66
-52
-27
23
18
-1
-51
-21
-45
50
14
23
-11
21
11
67
-21
11
12
3
-23
23
7
-10
-21
-24
-13
-27
26
-2
-19
-3
-16
-22
-11
-47
-2
5
1
27
-59
15
9
-13
-20
-36
-51
3
-20
11
12
-38
-83
-8
45
-2
-16
-32
25
26
-7
-28
0
-5
45
40
16
1
38
63
-10
5
-20
-4
-1
11
64
37
-28
-5
-14
-2
-20
22
-51
36
23
41
15
-8
5
64
43
73
6
30
-5
-20
-28
-15
58
-11
-20
6
-35
-16
1
7
26
-20
20
25
31
-32
-24
26
8
-14
-30
-31
-13
9
4
27
8
-43
10
12
20
23
-24
-44
-55
-1
-14
21
57
-28
-7
-3
-27
21
48
-41
5
-7
-10
-16
-34
-37
-47
-10
42
0
15
1
-62
-4
1
23
-8
8
12
-22
-34
-21
47
-4
-34
22
-5
65
20
5
74
-7
30
32
12
1
-11
-8
19
-31
-17
-26
-17
-5
-38
15
-5
83
-28
-51
-15
-12
24
-2
46
12
62
70
-13
-24
13
10
-16
-6
41
-10
-21
76
28
18
68
78
-12
-32
-8
6
-2
21
4
-12
9
5
-14
9
13
13
7
24
-10
-8
19
19
-22
13
-17
-4
-10
13
-51
-45
-11
-41
53
1
38
-38
-33
40
11
-30
-18
-33
26
69
-16
41
12
18
-41
16
-47
16
3
32
37
46
42
-54
11
-13
-13
25
19
0
13
72
-92
-17
-48
-15
55
28
10
42
-29
-12
30
63
26
21
19
28
32
9
-4
11
28
-15
4
6
34
-16
13
-23
70
-5
3
-49
5
-49
43
27
56
16
-21
8
28
-35
-64
9
17
-5
-24
-62
7
-9
-41
8
-2
-32
17
-11
-39
-19
-69
29
0
-24
-42
15
23
15
65
-39
27
28
12
-31
9
33
-19
27
7
13
25
7
15
39
-20
44
15
20
8
-17
-26
-16
39
9
53
-12
-28
61
14
-68
69
-14
-6
1
-24
35
-4
0
-72
19
9
-9
-4
33
-20
-42
6
-14
8
-12
40
-40
7
6
5
13
26
-21
53
-32
-12
-20
-9
-19
-18
-37
-27
-5
39
-16
-69
-16
30
-19
32
46
0
4
30
-30
80
-23
-10
1
0
-85
-25
-9
-41
-63
28
-19
39
-6
6
20
6
-37
-12
-8
33
68
-13
-6
48
80
-81
31
21
-36
-6
49
25
-23
-27
-46
0
25
55
-16
20
35
56
14
-31
-12
-41
28
38
11
-42
12
-19
0
15
24
2
11
-35
-3
8
-18
-35
16
10
3
-5
61
34
-62
2
69
-30
-7
-8
-22
-3
-21
-36
-20
-13
-33
17
59
30
20
-47
2
-13
-23
-11
-31
55
16
-61
-6
-64
-21
14
-10
10
69
15
30
4
-13
28
17
35
-23
6
27
-39
-7
-44
-19
-30
3
-32
8
-51
31
-4
11
-21
39
21
22
-1
15
32
-16
51
30
-4
44
-35
-24
-9
-4
-1
20
4
28
-9
23
12
-9
-46
31
1
55
-20
-47
-27
13
-8
42
-17
-12
69
38
2
13
32
-24
1
-22
41
-10
51
-19
-11
-43
-46
-19
-27
-17
15
-33
-1
33
-36
0
-21
11
-11
-39
-12
0
17
6
45
-11
6
3
6
-19
-23
-12
37
-81
28
45
-14
27
-72
48
13
61
-34
-15
-25
5
0
58
28
11
-38
-13
1
-50
32
28
33
48
5
-42
18
-39
-31
-14
51
15
9
10
-26
51
-63
-21
11
0
-63
14
-49
-7
-21
25
52
11
6
-54
-26
71
-9
6
62
49
48
-4
56
-2
-37
-4
27
-3
-14
39
1
-41
20
41
-18
2
7
26
11
-20
-106
57
3
22
21
-83
-4
2
13
-19
-7
27
-22
8
-5
14
7
-7
31
-9
64
72
-1
27
32
60
3
-1
19
28
-5
-8
-21
53
-13
-25
31
-37
27
12
-49
-13
-3
46
22
-22
-39
10
83
-3
11
-11
15
7
8
0
-10
23
-9
-23
1
-33
29
2
-42
19
-7
-22
31
33
44
1
-14
-51
-47
64
-3
31
30
30
-15
-10
21
36
-21
-27
-2
69
10
-28
-43
-20
-6
4
12
16
-47
-10
-41
-35
35
-18
32
-10
6
35
-19
-8
-28
21
4
-47
21
16
-47
-53
22
39
35
-19
-1
-1
28
-7
27
-47
61
0
18
49
-13
-22
2
10
-20
13
5
17
15
59
-20
12
26
-25
41
-16
37
-46
5
17
4
0
-8
-2
-25
-33
22
56
-55
34
5
39
5
-5
7
-19
47
10
-25
-35
-24
3
41
28
45
-10
5
49
13
6
11
12
19
-26
14
3
-10
-3
-7
14
36
-35
2
-19
12
65
43
-10
-23
8
-8
-5
-43
-9
48
45
21
53
19
-30
36
-27
3
-10
66
12
51
-40
-10
2
12
-1
-34
2
4
-16
48
-9
16
6
2
28
14
8
-3
69
12
41
24
-36
43
14
19
-40
-15
-38
-14
19
24
-35
-3
-57
14
10
17
-40
-53
11
-30
37
-2
40
24
-18
25
-13
2
-25
7
9
81
10
-5
59
-16
-33
17
-20
82
13
26
8
17
-22
39
-47
-13
-13
13
6
2
-1
-18
-43
-32
-36
-9
34
35
7
-65
-34
-2
-68
-40
18
-5
27
-22
35
38
14
9
-15
52
40
14
44
-14
10
-29
-3
54
-7
26
8
-107
-3
-23
30
20
18
29
5
2
-14
-20
-40
-39
-17
-26
-21
-12
37
-40
40
-20
54
-46
60
-13
-11
-62
-33
-7
18
-3
60
0
52
-7
7
29
58
42
21
69
1
8
15
56
11
4
6
79
-24
4
-39
8
-49
25
20
3
-5
-3
-9
-1
39
26
38
-18
-31
-11
48
-32
75
59
-24
-15
28
-6
14
-3
17
52
-27
31
-17
17
11
3
30
40
-18
-24
24
-48
74
11
-50
-15
5
27
5
-25
-20
16
42
19
22
-28
-34
82
-29
10
17
-6
-16
-13
51
44
-3
5
11
14
48
-13
14
22
-2
-29
-17
-23
-4
8
68
37
15
-10
4
56
-1
2
-28
-3
-13
-22
31
39
40
-4
58
-6
-3
36
-10
-11
-17
26
-2
16
-15
-41
4
2
-30
17
-22
-34
54
49
20
-56
-66
-16
-41
-6
46
-29
20
7
-27
-20
2
-13
6
-29
-1
-65
21
50
17
-7
22
-12
52
-23
1
-44
-25
2
5
-27
8
-7
16
3
19
32
-6
31
20
27
-34
-38
6
-67
74
1
15
-29
-14
14
47
4
-14
-3
2
44
-26
14
-5
21
36
27
61
33
-21
9
-73
-59
-5
-7
-21
39
13
-10
-24
-37
-34
29
6
13
17
-3
8
-3
10
-22
-27
42
-1
-6
-51
-15
12
11
12
-36
-4
-26
12
-31
31
0
-1
60
6
7
24
0
-27
0
-23
12
28
-8
-20
4
-5
-19
-26
47
51
19
24
-57
1
26
62
-16
16
10
29
12
-31
-2
-7
27
8
27
-25
-7
-19
-52
12
21
-15
12
48
-24
8
-46
50
-29
36
-8
35
-17
-29
36
5
16
-1
17
52
-45
15
-31
-13
-14
20
36
5
-30
-2
-14
-7
36
19
-6
-9
-26
-66
-25
-1
13
56
28
-17
48
-13
2
4
-41
-39
42
-5
-43
-6
-31
0
-8
29
14
-31
-26
-8
67
20
15
9
-7
22
13
11
21
8
10
-57
-7
31
34
7
-8
35
-7
-21
24
-3
-34
-38
-23
-44
-8
41
-59
-15
-9
45
26
-11
34
24
-48
51
10
14
39
-28
-11
22
7
-1
30
-34
56
31
-32
29
59
-47
15
1
27
34
6
-2
8
11
40
-6
9
-5
-29
-23
10
-21
-7
-24
11
53
-11
38
21
-18
27
-2
-36
-11
18
34
-64
44
33
-38
-23
-5
19
-31
11
31
18
13
-35
28
65
32
-11
-8
-21
52
20
-22
-29
-9
12
12
-43
35
4
-8
33
16
-17
-30
7
38
28
-43
2
10
-5
41
24
34
16
-48
19
70
44
-18
-31
-30
33
6
2
-41
-19
0
20
-58
-25
59
-24
-17
52
-17
-7
19
24
44
10
33
36
-8
30
-28
21
-6
-27
7
-15
39
-34
-41
-30
-16
-5
-8
-28
-43
-1
48
-17
-36
-34
-55
61
-56
-3
18
-70
-17
-31
-27
-20
36
9
-10
0
-8
-12
-22
76
28
-28
13
-19
38
-51
-22
5
22
-54
-45
74
22
25
-5
20
-10
1
-27
8
0
-28
37
1
-2
-20
62
44
47
-5
3
-22
30
30
-2
26
3
-24
-18
12
33
16
9
-7
54
51
13
-25
-25
-16
-6
-7
14
-29
-37
-29
-16
-16
-62
24
7
48
-31
-12
44
-4
19
-45
-2
-19
9
82
-8
13
-15
-34
-36
-10
53
-4
-27
3
-6
18
-15
4
15
-22
21
7
2
28
6
0
24
-25
32
2
19
12
-36
18
31
-45
55
10
15
81
-6
-5
-10
14
-29
-34
56
-13
-18
-10
22
-36
-20
17
41
-41
-22
18
-16
-15
-12
-41
-6
-64
22
23
-16
10
22
44
-62
10
-13
-22
-10
47
34
-9
11
-5
-28
-30
45
50
12
-29
-13
-13
19
39
11
-27
11
-42
-29
40
-1
42
27
-5
42
13
-8
55
11
-3
-5
45
16
-25
40
2
-69
29
-19
34
-7
-20
22
-18
38
-2
1
51
13
24
-2
27
11
2
3
-15
-12
-9
7
-9
11
31
37
1
22
-30
11
-36
4
-5
76
0
-7
-49
10
35
1
-45
7
6
-20
-8
-7
75
6
46
36
-5
-8
41
16
-15
-20
26
15
-9
-19
-3
-7
33
-21
35
-9
15
-16
-9
9
50
28
33
-9
-35
13
-13
50
-18
10
0
0
52
-59
-9
-22
15
-16
19
-21
-17
-1
-51
1
-19
-32
-2
-37
25
-1
61
-10
-11
-26
-15
74
13
8
12
23
-43
8
-5
-18
-43
-29
-11
-22
43
37
-17
-7
13
-51
31
-14
-31
-22
46
60
-15
-8
-5
67
-28
26
-1
-28
-32
-12
-30
54
17
13
-7
5
7
5
-18
51
-27
-3
30
-20
-7
10
0
6
-6
15
44
-10
-3
59
-42
-7
-57
-28
14
-8
30
41
-1
-12
-6
-5
13
16
-50
61
-1
-35
1
1
-45
16
29
5
-23
-11
-12
-10
63
50
28
-53
-1
-61
40
46
-15
-32
67
3
9
32
22
37
-66
10
-6
-58
-10
35
0
1
-8
-39
57
-1
4
-10
-26
-9
24
2
-26
-15
-2
-43
47
-36
2
11
-38
10
-24
68
11
-12
8
-16
63
-16
-38
-21
-23
12
-19
4
13
-22
-4
33
42
-22
-20
31
32
16
-7
10
52
16
0
-38
22
6
-27
15
-53
-7
0
11
9
-23
-10
-11
-57
-40
60
53
-16
64
5
1
51
6
-11
5
-19
16
-19
61
-10
21
36
32
-21
17
-57
16
30
7
-22
-8
-2
49
-39
-19
2
31
27
39
41
20
-4
-16
-3
-47
-6
-4
12
34
15
-34
9
-10
52
21
19
12
-16
51
-40
57
-38
35
-8
-3
26
-30
-30
45
16
-4
-11
7
-25
73
54
-9
43
-40
50
1
52
-6
26
17
26
-7
-26
-16
-81
-26
1
64
-6
-24
-8
-13
-5
-2
37
16
-35
12
65
-34
-34
36
-67
0
12
-28
48
45
-29
8
34
2
32
-46
23
21
-7
6
-11
-27
-55
1
-20
-68
-12
-50
13
27
11
34
6
-17
49
3
-36
-34
-14
14
17
61
11
-19
-7
-12
-2
30
13
28
-2
-21
41
88
24
-2
-9
-20
3
10
-18
-24
35
-19
16
6
-7
-23
-4
-45
1
-15
12
-11
-26
-26
-33
-3
16
5
-35
-6
7
16
-42
-14
-32
-21
-4
22
36
13
-41
14
-9
18
-12
49
0
14
-7
-7
18
45
-40
-33
-2
43
-45
33
38
-36
8
-5
24
-16
45
-40
-45
44
-10
32
2
-47
36
28
-42
-25
76
-8
1
56
35
3
42
-1
-12
45
-18
-15
-6
-16
57
-18
26
-6
55
-3
-30
40
28
-5
-6
-12
1
-14
68
56
-1
48
40
24
-53
12
-7
38
64
-6
44
41
7
23
-6
65
57
-16
8
-22
-24
-40
40
29
-25
-43
-14
-40
-65
10
-21
47
-13
-37
24
-14
13
5
38
-5
16
-21
-22
-17
-23
-59
7
14
18
-1
39
-7
43
-14
-44
-18
3
31
16
4
25
-47
1
24
17
18
-33
14
4
-93
3
-36
25
-9
18
0
5
6
1
18
-22
2
-1
-9
-24
-24
-5
41
-14
-3
5
27
-8
-14
-17
38
14
33
3
-74
-24
-16
2
-21
-47
7
30
25
-51
-15
-19
-18
58
14
31
29
36
14
-11
-8
-7
-16
37
-20
-5
-35
24
57
-39
-40
-5
22
22
38
-5
-36
-8
-7
-63
9
-7
36
1
11
-26
-16
-62
-17
-42
-9
30
12
-5
1
-18
24
14
-27
-19
7
21
50
-16
39
-42
81
12
-82
-1
-28
57
-39
0
-4
-17
-66
54
-45
11
-60
25
-21
28
-17
-9
35
-6
31
-2
-30
-28
29
36
15
-10
1
-11
88
46
-23
32
-13
19
33
35
-38
-60
-5
58
-14
-28
45
-13
-4
-25
23
10
22
-17
-28
-21
37
-12
50
-3
-52
53
13
10
5
-36
14
-23
23
0
2
-48
-25
-1
-37
18
-51
-11
32
43
-15
33
20
7
-31
13
-10
-45
2
74
-11
13
28
-6
-19
30
-25
0
-6
21
-26
-27
7
14
-14
-34
23
-23
-23
-15
-11
-2
6
68
-14
-31
77
-49
13
5
-15
-2
22
-21
23
-31
29
-3
9
5
-9
21
-8
31
-19
-1
27
-6
-82
-3
25
25
41
0
-36
0
29
-27
30
-14
-23
35
21
12
-16
7
-23
13
-17
16
41
-28
-38
-29
3
-22
-8
22
54
-67
50
-22
-1
-81
28
-3
52
14
-2
12
3
-18
0
17
-3
26
25
57
-27
73
23
-23
88
58
-10
55
1
-58
63
4
-12
-2
30
20
42
2
-51
49
-14
14
13
8
-25
39
75
5
14
54
64
51
5
-14
-26
-27
3
10
25
5
-8
-17
-38
31
-48
19
-4
13
-50
-49
-2
-39
29
-34
-3
-3
-34
-22
41
-44
-38
-8
-12
31
-6
31
33
-4
-52
-6
16
-19
-6
-23
2
10
-28
18
8
-22
32
7
-9
-32
59
-9
-8
23
8
-51
12
8
9
-15
56
6
-25
-20
1
-7
5
-30
29
35
36
-45
-11
-82
40
17
34
-7
17
6
-8
-38
14
22
12
-26
17
45
14
38
32
10
18
5
-4
-5
-25
-33
-6
10
5
-29
29
16
-30
13
-24
3
18
-33
-24
16
34
-75
5
-37
29
-1
-44
17
2
18
-5
-15
-7
6
15
4
-10
-11
33
13
11
5
28
47
27
25
22
1
0
-4
40
16
6
-58
12
0
-12
3
-21
-14
22
26
28
24
-3
56
-15
-7
-60
77
22
11
8
58
26
-9
-14
36
9
33
-1
25
9
17
-12
-55
7
-1
-23
-32
-21
39
32
60
-26
-71
7
11
20
7
-27
12
-11
-4
-5
19
-53
-13
-23
6
-17
-6
-48
-31
-51
1
-7
-27
-63
-20
22
57
0
-2
42
-24
15
10
-47
-42
45
33
-2
-12
44
-31
-64
31
-12
27
9
-43
32
10
15
-42
-37
5
18
-4
-1
44
-1
-11
35
-10
-46
-24
-42
-8
-27
-13
20
-14
-3
15
-105
6
-54
21
-18
-32
39
5
28
36
-41
-10
-3
10
25
5
-11
-5
50
16
-9
-11
17
-11
-38
-1
-35
-53
34
32
29
10
2
13
-2
-28
-12
1
5
-32
-15
-6
-97
32
-40
2
-21
23
6
-27
28
50
-22
12
-41
8
-19
-60
-21
29
40
27
67
30
32
-4
19
-29
-26
57
22
-29
-31
11
49
50
35
-16
19
9
21
11
-20
-1
52
-2
-23
0
9
22
-7
36
-14
18
-42
-25
36
42
1
-12
-2
-23
53
-4
-25
10
-2
38
14
-2
-26
-26
-9
-33
-15
29
-7
44
19
-14
6
-26
-35
8
-4
82
-11
0
9
-1
24
63
-19
43
10
11
-10
-15
36
16
-33
51
-20
4
-24
13
31
-45
-29
13
10
-49
44
50
1
-56
-16
-46
-8
-16
39
19
-4
29
-26
-33
29
-10
-79
11
34
22
-41
47
-14
-32
-9
-6
-15
-30
-2
-19
-41
-35
-14
-4
12
-17
-48
14
-18
-18
-48
5
16
62
3
3
22
-62
-8
31
53
4
-1
-11
19
-1
61
-37
19
-13
-20
-44
41
17
55
24
-17
2
-38
8
3
6
-8
22
12
-23
-10
22
19
8
-25
20
-12
36
-10
-44
21
-69
-14
-1
22
23
-16
-34
-9
9
-71
23
13
61
94
17
-14
-16
-1
50
0
16
0
15
-8
-12
35
-17
9
16
17
-30
28
-27
51
20
2
12
14
19
14
17
11
4
2
72
42
15
-54
59
9
3
6
-18
22
-21
12
17
1
-33
-42
22
12
27
-12
-7
-6
1
12
-30
2
2
9
-3
-19
16
9
11
61
-16
10
15
41
19
-6
28
-26
-14
26
17
-35
13
4
10
-15
-35
10
-17
-44
-11
12
-11
-21
-10
-23
12
46
-10
4
-12
-2
-6
-34
3
9
-34
-11
27
-13
73
-11
21
-15
20
45
36
-39
32
-19
0
29
-12
1
-47
2
-19
-10
-18
3
-12
7
32
32
-45
39
-14
-77
43
-52
26
29
-31
59
-55
4
36
20
-2
13
-1
-18
36
-19
-20
-6
1
5
31
23
-23
10
-22
33
37
-23
32
-38
-30
-32
38
-39
12
-27
39
-39
-16
18
-30
19
27
-18
-37
35
-3
52
-9
11
-4
0
24
-45
51
13
-13
-11
-6
33
-37
30
-21
-20
-18
28
0
15
-29
54
21
26
-25
42
-4
28
16
14
-24
-19
-2
-19
4
-16
-4
5
-8
32
14
36
-10
-10
-35
-2
7
28
1
23
4
14
15
-36
-3
4
-2
-26
23
-19
26
-62
9
42
0
35
11
46
13
-14
0
-39
41
-21
-30
41
-11
48
-13
46
-14
6
0
-17
-18
17
16
14
11
33
-19
-18
-41
4
-79
-5
-14
22
50
22
8
13
-11
23
-50
-26
-34
-13
2
-45
6
-1
-57
-4
-2
-9
1
19
3
7
48
-7
2
-11
11
30
-21
23
56
26
36
17
-2
-42
-5
30
39
6
-24
-16
26
7
-13
-13
30
14
14
48
13
-40
-9
42
70
10
-19
64
-8
-5
7
19
-9
17
34
-5
4
-59
21
33
28
43
-18
3
9
-5
12
-20
30
-17
27
-58
-27
8
-9
-34
42
9
-9
-27
60
-15
-25
-19
-20
3
17
-7
21
9
-12
55
-8
-5
59
30
-16
39
-16
3
40
-27
-20
23
42
5
10
49
3
-19
25
4
-12
21
-23
-7
7
-29
-23
6
36
-4
-32
33
13
-25
-8
2
47
-7
24
37
-1
-9
-5
7
-30
43
42
16
31
7
-10
12
-63
-1
-20
20
-40
-36
10
-38
20
41
32
-11
-44
-17
7
-19
30
-47
-9
8
72
27
4
-13
-4
2
-29
-48
-1
2
-8
-76
-41
3
47
-47
-15
36
1
37
-9
70
-8
14
54
-13
-50
10
-51
25
-30
85
-31
-27
22
-5
-16
8
-39
10
3
-17
-75
14
-1
21
-46
34
-51
0
1
-28
14
36
8
-13
42
11
20
-33
-3
6
55
-24
25
-34
-15
18
20
9
-31
44
78
15
-29
-16
38
-11
25
1
15
67
46
-40
5
27
-7
8
-21
19
-8
28
23
-61
-44
-8
45
-29
-1
22
4
29
-59
-7
-15
12
22
61
22
-58
21
-27
-40
-8
-14
-28
41
-66
31
52
18
27
-28
-3
-47
-4
-8
60
-51
-38
-35
29
-37
35
0
23
21
-52
1
-3
-6
11
17
-17
-32
-15
41
17
-22
19
4
-13
8
47
-9
-20
22
4
-29
17
49
-7
-1
48
6
-37
7
31
0
-21
9
-41
24
-55
10
37
-29
54
-25
35
43
34
-18
12
30
-6
-12
35
-6
58
-26
-48
-18
29
-2
37
-39
-24
-32
-41
-63
40
45
-25
-18
27
-35
24
-5
-24
3
-10
2
17
-39
-33
15
6
5
-43
46
36
8
-32
-44
-25
-9
20
-29
6
-28
-35
8
0
-20
-53
55
-5
9
-12
31
30
-40
-32
-1
-2
-16
-31
77
-13
51
-32
12
-10
0
-36
43
4
-45
-20
-10
19
-58
15
56
-21
-50
67
19
22
2
27
9
-26
-12
4
0
35
21
-15
-42
-16
-44
8
10
-88
-1
16
4
36
28
11
25
2
-8
39
0
-29
-15
-17
14
19
-11
25
34
-26
15
-23
77
-12
-24
7
-43
19
-12
3
-11
17
-6
5
27
-12
29
-6
24
2
-35
43
-26
-6
-8
6
-13
10
5
48
24
18
-7
41
19
46
-19
-13
-15
43
47
23
-8
11
-24
70
-16
-27
48
-17
-36
-42
-24
0
-6
-2
-5
23
11
32
-10
2
-13
-16
16
-21
53
55
42
-6
40
24
-13
-11
12
6
-45
82
2
63
-3
-10
27
50
2
-52
29
-49
16
-36
-26
9
-6
-15
-32
67
30
33
44
33
13
38
-27
-6
-43
-35
24
-2
-40
17
-54
1
-17
-28
-18
13
2
31
25
-12
-28
-39
57
23
20
-25
31
63
39
-6
-15
-8
43
-19
25
-4
-15
-22
-3
9
13
-16
23
-21
-39
15
34
3
31
-30
36
-6
10
38
-20
26
28
70
-6
22
-21
-17
-11
-1
54
-28
-35
-30
-38
10
36
-3
-16
5
19
1
20
3
-16
16
-53
-8
-21
-16
49
-7
-12
10
-32
33
-27
38
3
-46
32
35
-28
-19
-65
0
33
13
29
24
20
22
30
-4
-19
-14
-10
21
-20
31
-85
30
3
-6
-56
8
-39
17
17
12
33
60
-12
66
-39
-3
16
11
-20
-10
47
-5
-29
25
34
-27
-10
-30
-11
7
-9
-6
19
-32
92
48
5
-28
58
72
-17
-3
10
-17
21
23
-6
-6
-30
21
3
-5
18
30
-11
27
14
37
47
33
-8
4
30
-24
32
-19
-16
9
-52
51
15
13
-48
13
81
4
-7
-17
19
-10
13
-35
-30
-26
8
-17
-35
32
-28
-32
39
-59
28
58
8
-22
29
-27
6
-7
8
-24
35
16
24
58
-25
4
-21
22
-9
-7
28
11
0
-37
3
40
11
-15
12
-21
38
-30
1
14
-7
33
44
24
-74
0
12
34
-13
-13
37
31
70
5
14
-2
30
-12
29
3
28
36
-11
-13
-8
-17
-9
-66
48
-40
-6
-35
-21
9
28
-35
2
-3
12
7
-27
24
-25
-20
16
-51
43
-48
-13
44
-85
17
-11
33
-12
-11
-26
-13
12
-23
-56
30
36
4
29
14
-19
1
49
22
-20
41
-3
25
-9
-22
41
24
-4
-16
-12
28
28
22
76
42
3
-9
24
46
63
-27
73
49
-15
-21
11
32
-12
-22
-14
4
-41
13
-17
7
-17
46
-17
-22
0
-2
-27
-9
6
-26
14
6
-17
30
-14
12
23
75
32
5
46
-54
-21
6
22
-1
-24
-21
3
35
-26
-18
-26
44
28
13
-20
29
39
37
-41
-16
-38
-37
16
-17
-52
41
-22
-8
-5
45
23
11
-43
-2
50
27
-13
-22
37
18
-14
-31
7
47
-22
-3
-62
-32
37
-38
25
-6
1
-23
-28
-22
41
-40
64
32
-20
-7
6
32
20
35
-13
-29
-3
82
29
-35
-21
-25
-15
54
-3
-11
-9
6
12
-50
-46
-50
-35
22
-39
-21
17
34
26
14
-16
-18
-10
-53
-9
-21
51
-21
-16
9
50
23
-1
41
-7
4
1
-62
15
-28
-13
34
-34
-38
14
21
26
19
-59
-23
41
-13
-27
-22
6
53
19
-6
-12
36
6
-4
-51
-9
3
-17
0
-24
9
51
6
-1
15
43
27
50
3
-52
40
-22
-1
49
39
-1
58
54
-10
-45
46
-9
-13
13
-10
-11
-31
1
9
10
-41
-47
17
46
42
17
19
29
52
11
37
18
53
-27
-9
18
9
72
22
-11
-17
3
11
-19
-14
2
-35
-71
19
49
-18
-24
26
37
72
29
-6
35
-9
20
-4
15
-54
25
-59
37
6
-21
4
22
89
58
-27
-18
-61
-8
20
31
-23
-25
-18
34
16
48
31
54
-20
-29
37
0
-29
-37
26
-12
30
-31
-3
27
8
4
15
-12
41
-3
-66
17
-19
42
-26
-18
-47
-12
-51
-9
26
40
18
2
9
30
-18
0
11
23
-18
17
0
7
-1
11
-30
-7
-12
-21
-18
-11
44
23
14
-22
30
-37
-9
24
-9
31
-27
19
-43
39
15
7
-16
-31
-8
10
-47
15
19
54
-1
-18
4
9
1
-30
-1
-6
54
46
14
33
-1
45
27
30
-42
-12
-49
9
-7
-4
54
2
6
41
-63
33
-19
37
44
-3
15
-10
-15
9
-5
-13
59
22
-25
2
28
44
3
23
-16
6
-1
-4
-1
2
-33
24
-1
43
4
2
3
12
-5
-20
23
7
-11
-21
-9
-17
-11
8
-6
29
0
-20
-12
-10
15
6
42
-24
-11
-31
-22
-20
5
17
32
9
1
-9
11
32
-10
-12
-40
26
-22
-21
-24
-1
-20
-23
-31
30
34
14
15
18
23
14
-18
-29
5
37
20
33
39
37
9
-16
-30
-12
2
-4
18
-22
11
-9
39
2
-1
14
-24
20
21
30
-35
16
-29
49
-8
-24
-18
29
-39
10
10
7
-18
-1
18
54
14
48
48
-10
32
-1
11
18
-3
-25
-27
20
-7
-47
47
-38
38
33
-12
6
16
-2
30
5
21
-32
-55
23
-32
7
-14
-25
20
-12
-31
-7
-38
36
-37
-7
-21
19
21
-11
-35
-28
8
19
-3
1
40
25
17
4
27
-4
13
2
-30
-18
-12
9
31
39
16
62
-14
17
4
-14
10
22
10
-4
34
13
27
-20
69
2
47
22
-9
31
19
-16
25
-8
6
40
24
16
-12
30
6
18
22
13
38
19
5
-13
-10
21
-16
14
-1
2
35
1
3
49
39
-28
10
-73
-19
47
6
-39
8
38
-59
-34
-16
-4
19
0
-42
-21
21
8
-9
31
-3
-6
23
0
-62
65
-41
-43
26
-26
20
-6
-25
-33
56
6
-41
6
-1
1
-26
122
-15
1
24
-70
16
-45
4
21
8
88
-5
1
6
53
53
4
-34
-6
53
38
-28
-29
-45
-2
32
-2
-18
-4
-17
11
27
46
-2
54
-39
9
-16
-37
41
42
29
42
23
53
67
8
-68
-14
22
-31
9
-24
14
66
-15
25
8
8
-10
14
14
-24
-73
-12
-34
-4
-26
20
-10
17
-11
-7
24
17
44
35
-40
-17
-45
8
-4
-35
2
15
-14
-1
17
13
14
-32
1
30
-17
45
-49
-17
30
-17
-7
27
-21
37
-2
-6
-3
12
14
44
17
-17
13
-10
-1
-11
43
-31
29
-13
26
-23
-7
-67
2
19
-42
-12
-3
17
-20
11
-52
-46
-12
31
18
-6
-49
29
-14
54
0
24
-40
19
-2
-30
20
19
-37
29
36
36
11
19
40
-5
15
-30
1
9
-32
-46
-32
23
-22
5
-14
-30
15
-11
8
-7
6
-24
25
-15
-41
-53
13
39
-20
19
-4
-7
33
10
-16
11
-35
-11
92
47
-28
-20
-38
-51
-9
36
-52
32
52
21
30
-19
-21
61
-5
50
-34
-49
-10
24
21
17
15
20
-13
91
3
5
6
6
-8
-1
7
3
52
29
-40
-67
43
21
63
32
2
3
66
13
-25
29
42
-4
53
-52
4
-3
17
12
5
17
-17
-10
35
-44
1
19
-31
-50
14
32
17
19
8
50
-2
40
-10
-8
9
31
-12
5
-3
-17
-6
71
-30
6
-5
-29
-56
-25
10
-22
-65
23
-4
-22
-20
6
51
33
-20
-42
-16
17
4
8
0
-17
47
0
24
-9
-27
-61
52
41
-39
-5
-11
4
7
17
-20
14
2
-21
-27
9
2
22
57
3
21
-19
5
-9
18
52
6
-47
28
-8
-37
-41
32
52
13
44
2
27
-19
31
-31
-3
-19
-4
51
14
28
4
26
-36
12
72
-46
-37
-51
57
1
78
27
-65
21
-15
-44
-17
-31
-5
-27
46
-9
-34
-57
-37
-30
33
-44
6
32
22
40
-17
35
42
-32
2
-39
-39
-12
31
-16
-10
-13
-10
56
51
22
-3
-10
28
1
20
-39
1
16
-2
0
-36
-30
12
-16
-34
7
24
-12
-12
-19
48
-26
37
-42
1
3
19
-21
15
17
15
32
44
-37
-8
29
-12
46
-47
43
-21
52
-22
-18
1
18
21
-62
-24
-28
-3
-17
-14
56
19
-25
44
-40
47
43
0
11
-1
11
-14
-5
21
17
-20
62
-18
-4
38
-75
14
-4
66
-30
46
-61
47
-8
-1
-1
44
-2
56
-41
22
-13
-5
83
-1
25
5
36
2
23
-10
8
9
-4
13
17
42
-12
14
-21
24
-52
13
-11
33
-11
23
-41
22
-25
5
48
-8
17
16
42
32
0
3
12
11
41
13
-9
-26
-11
-30
25
-3
26
-15
19
-20
0
12
7
-1
-11
15
-14
-16
34
9
-6
34
-7
0
-45
6
-32
-58
-29
22
-2
-28
25
-31
16
-6
-40
25
38
25
-2
17
16
-6
-28
12
19
-35
0
-27
-10
-35
-42
19
31
-1
61
-29
-29
6
-28
-16
-9
-62
38
25
-43
21
-26
47
22
23
-5
22
-16
15
7
42
47
8
1
-16
-19
-21
32
-6
60
17
-4
-46
50
13
-26
-13
13
15
-32
-18
2
22
-25
9
23
0
16
15
34
-2
-45
36
-25
52
4
15
23
-44
34
24
22
35
-16
-28
-24
-4
-46
54
9
9
26
35
42
-15
-12
15
8
-15
26
59
-3
35
-9
12
-60
-22
9
24
-12
-25
-44
30
6
-26
-20
2
-40
-44
8
1
-14
15
57
26
0
-6
10
-3
34
10
-9
24
-27
-4
8
35
-24
-49
11
-22
-9
-8
4
8
-6
-21
22
-37
53
-12
-17
-17
-24
51
9
5
-12
48
-24
34
-48
-43
9
-12
47
30
16
-54
-4
3
30
88
19
37
7
-3
47
33
-13
-24
-9
16
34
50
-13
-4
41
-8
-13
-21
-14
-36
-24
29
-30
48
5
9
51
55
16
5
4
-43
-2
29
-26
11
-4
46
38
27
-17
8
43
-24
74
-49
-30
-12
1
22
15
25
8
0
-11
-10
13
0
-1
-8
12
-9
48
45
8
2
23
9
-10
-11
45
15
9
-27
-15
9
20
-39
42
0
0
-40
22
-7
22
-22
-1
6
-7
-13
17
4
-5
-8
-8
16
14
11
41
0
-2
-9
-9
-42
-27
33
-21
46
-21
9
17
-2
11
28
22
14
-2
18
-20
34
-10
12
22
5
-33
-41
33
-18
-40
-37
-11
51
0
17
-3
-12
-43
-5
24
20
-6
-4
-6
79
-5
-6
-1
-1
14
7
-8
-14
22
-8
24
2
-6
-44
10
56
6
-16
0
-18
31
18
12
-42
17
-14
14
3
7
25
-47
41
23
-21
-31
15
16
36
45
-10
36
-22
16
13
-11
34
-5
40
-49
59
-39
-17
-5
-10
7
-28
7
12
-5
4
17
-9
16
-18
-37
-55
-31
-49
-12
53
-18
12
22
50
-28
3
-9
26
-23
-21
5
11
38
6
28
-9
39
-24
-15
24
2
-14
-25
-23
46
18
-24
15
-74
59
64
5
-33
20
-15
-20
34
-32
6
-35
6
34
-7
20
34
-11
13
-19
23
56
22
-75
-39
17
-1
-2
-5
-28
22
-51
2
-8
6
9
52
-32
6
45
-50
-3
-41
42
-8
-58
80
-30
17
21
-46
24
-48
43
-21
-1
33
-18
-16
10
37
0
64
16
50
16
8
-1
34
43
-24
-15
-41
63
-55
-12
25
35
-10
38
-75
18
24
38
50
-12
-27
-1
66
27
-9
12
34
-18
29
-39
-35
81
-47
8
32
-6
0
-12
-2
14
-11
-22
-39
-11
29
18
-10
-1
45
-18
0
-12
34
48
3
12
-14
-18
41
4
8
-20
-1
-61
46
-7
-44
-40
22
30
4
-38
-12
-25
-14
78
-8
9
26
15
-6
3
-37
36
-22
-65
-57
31
-45
-80
16
-28
40
-6
0
31
36
20
-23
-67
48
-20
18
-5
51
27
-11
27
-23
-24
-38
-39
42
-16
-36
22
33
-25
-22
5
37
-2
-3
-1
16
13
15
2
0
32
6
25
-9
6
-15
19
18
-5
10
25
22
42
14
-24
2
-22
-3
24
13
-5
-12
50
-17
10
10
-25
-21
-34
-36
2
-9
17
20
5
-15
-3
6
30
-23
30
-19
-14
1
-36
-18
11
-3
-8
31
-24
12
14
6
0
40
-13
-7
-29
16
9
-7
22
-68
7
-7
-12
-24
20
27
19
-17
-8
28
17
-41
15
17
30
-29
36
-11
5
54
2
-26
80
11
3
-35
17
-6
41
-4
-37
-9
19
-27
36
-13
17
1
29
-35
25
8
67
-34
52
-26
15
39
-13
-10
-38
46
19
-6
35
14
0
13
-48
56
-12
18
-18
-42
17
4
-55
-1
-42
-26
-68
-6
4
34
-34
-31
-15
-9
15
58
29
-33
-20
20
-8
-12
10
26
2
45
-9
21
-25
-12
-37
31
-18
21
17
-36
14
-29
25
20
-21
-67
-34
25
59
21
8
13
9
25
7
-39
-1
-19
-88
24
-48
-4
-3
-22
5
-3
7
19
25
7
10
36
-28
-36
-15
59
3
53
13
-13
-30
-23
5
43
46
23
46
33
-32
-42
-49
20
-36
-1
-26
22
20
6
-3
9
-9
-15
-22
5
-7
20
-4
-9
-7
-34
-10
16
-23
62
15
12
11
-38
-5
-29
-7
26
29
-12
-6
-4
21
-21
32
-44
-17
28
-1
-16
45
-41
-3
16
33
-55
-24
-29
13
-17
-30
9
-9
-11
28
-9
15
10
-65
50
-7
46
-24
35
26
8
4
-44
-23
-20
18
7
-42
26
4
6
20
-30
1
13
-27
33
16
38
-5
39
-29
-23
-22
-1
56
-52
-8
-28
35
1
26
8
-1
-18
-6
-34
45
-14
-1
78
50
-27
-42
34
19
14
8
-29
-9
-29
3
14
-3
26
-37
21
24
39
29
22
5
26
23
-53
3
-25
-44
26
37
-53
52
-5
37
42
-30
29
11
10
1
-11
-24
-4
-1
39
19
5
27
-27
31
-4
-18
-39
13
0
12
-54
13
8
29
15
31
16
30
-55
-3
-6
23
2
-36
-5
36
20
5
49
52
-14
30
-34
43
-16
-5
-27
39
36
-69
12
-23
11
-4
26
-31
42
-43
-3
18
0
-16
-3
-25
-20
4
-17
10
43
2
17
30
-34
-8
-10
5
-9
-16
10
-9
3
8
-6
5
14
28
30
68
-16
19
-7
36
15
40
6
20
-37
-2
6
-11
1
-5
-15
-13
36
16
13
15
38
-8
18
15
24
5
-3
12
20
-35
-23
40
5
24
-23
-39
-7
-17
47
42
27
-3
0
27
-29
4
-14
1
-12
6
-20
-29
-12
1
-15
17
5
38
11
16
3
-42
30
-46
22
-13
-19
-7
-3
-5
-20
-16
52
9
41
-35
-7
-14
-1
-3
-3
-35
-23
-12
-40
8
0
-39
26
24
42
-40
-21
-36
16
-4
43
-8
-62
21
18
47
-4
47
30
2
-28
8
-33
-1
-51
60
-30
-39
-42
10
-9
15
-12
-27
-12
-10
-7
38
8
-11
2
45
-7
6
8
2
11
67
-20
52
-5
41
-23
1
1
7
-19
16
12
-18
3
50
46
-21
-42
16
14
-19
2
25
18
-44
-51
1
8
-21
-5
26
41
11
-9
7
16
45
-5
19
26
-4
13
-15
-1
19
19
6
-15
32
-8
5
13
0
-50
32
95
-10
9
2
-34
-40
49
61
-13
45
2
-16
6
-6
2
30
-31
9
11
-23
-53
-14
49
29
0
-13
-4
-9
14
-16
-6
-6
-17
7
30
-19
28
-76
-31
19
-12
-7
-55
21
-45
37
-2
18
-10
3
-20
-20
-60
-9
17
13
22
35
1
64
-2
1
28
-23
-16
-15
-25
36
-53
-27
10
-11
-3
-15
18
15
24
-13
6
-15
-12
-13
-48
-20
25
26
-5
-55
38
-15
13
12
-38
10
8
-8
27
36
-12
-11
-2
-29
36
13
-22
23
-14
26
4
6
16
23
-11
-7
-3
-6
-38
-4
1
-18
-50
11
-13
-11
7
-18
-11
5
15
-19
-33
36
16
15
-32
32
-45
18
-7
35
-16
35
50
23
-2
11
39
-9
2
39
36
-7
33
7
-21
7
5
-1
-25
-40
38
-1
9
-23
10
27
-13
-12
-16
-24
-1
14
-39
4
47
12
-21
5
-27
-8
-39
22
-10
26
-29
-2
1
-25
-17
16
15
-20
26
-17
-46
4
6
19
35
16
-11
37
-43
13
-28
-24
42
-10
13
2
-23
7
-9
21
66
25
34
23
13
-10
42
26
14
-8
3
35
2
-13
-51
20
-34
15
19
-9
0
59
-26
30
-15
12
48
-21
59
-26
56
-37
11
-2
-7
17
-35
-1
-7
1
14
21
-6
-6
8
3
2
13
27
-20
19
-8
5
-18
16
18
9
-7
-16
-10
-17
25
-18
41
-42
4
5
-3
15
20
-31
-32
13
20
30
-2
1
-26
32
7
16
-9
13
-22
-9
46
-11
16
-16
13
-16
-58
-8
19
-12
75
-26
-44
33
3
14
-14
-17
5
52
-26
-24
-2
-66
-6
41
-33
4
21
25
10
-39
13
-4
51
27
-26
-14
41
35
19
-34
38
-40
-23
59
0
-28
19
23
-10
1
23
40
-28
-13
-9
57
-3
-12
22
-21
-49
-1
-19
-61
0
19
17
-3
-8
-48
1
-5
23
56
40
30
4
37
-16
33
-24
-1
32
-3
-29
21
18
3
19
-4
20
8
13
-47
-18
1
-12
-8
6
28
42
18
-34
54
52
48
51
-6
2
-14
-13
18
20
-6
14
13
57
39
-11
7
9
9
54
9
-9
14
12
-27
91
-56
21
-20
64
-11
-66
-10
35
-26
53
1
7
-19
50
12
-24
10
1
54
-20
60
19
-40
5
20
-21
-19
30
-3
-64
-33
61
-6
2
16
-31
3
17
-6
34
4
-19
58
-26
-43
-10
-67
-17
7
57
11
53
-15
16
30
-36
11
-57
4
45
44
-18
58
-2
11
8
-44
-15
-52
53
54
-3
-9
-39
61
-19
7
6
-28
44
3
10
-11
8
41
-13
1
21
-11
29
-15
48
12
42
13
-22
-42
68
-39
27
46
-1
2
36
-35
17
-3
19
-5
45
28
-23
8
-24
49
-20
27
-30
17
-66
20
10
31
15
-71
-17
1
8
0
45
32
3
28
34
-15
17
18
-28
33
70
-32
6
18
31
0
-47
57
-9
22
42
-44
-18
-20
32
-65
42
-7
49
-15
1
9
19
42
49
-5
-50
-30
-31
82
55
23
-31
-1
55
40
24
-10
-10
-40
35
74
-14
18
-1
-39
66
18
-8
-6
10
18
-5
8
5
-27
27
2
-36
-34
13
-55
-8
-34
-27
-20
0
12
86
25
-40
-37
-17
33
-38
22
-36
3
-22
-32
-32
-10
-1
36
18
-18
50
18
-8
-53
-24
-5
17
-32
-57
-10
54
15
-36
25
13
44
13
-14
22
2
-40
-8
-8
-26
-40
4
45
-52
-23
-9
-36
-3
6
-20
2
-14
22
-3
9
-8
-2
-37
53
64
-5
-6
-13
46
39
-72
-16
-20
11
11
56
-13
26
-6
31
30
9
15
32
-15
-37
44
25
7
-3
38
-16
49
-7
-27
-14
-7
-29
27
22
6
-55
0
-32
24
22
23
8
-10
39
23
31
4
32
-39
-16
45
-62
23
-37
-29
30
-61
-16
-14
-9
-38
-4
-9
34
-32
31
35
4
-16
17
67
-2
-13
39
17
17
5
104
0
43
9
3
56
-13
-21
-26
3
49
85
7
-6
-6
-23
-21
29
-10
-7
-15
41
10
-13
-51
-17
45
-6
-4
49
19
40
2
-14
21
-1
58
-60
16
11
42
24
38
4
5
29
20
37
4
-4
-36
20
-4
-50
-35
49
-12
-40
1
-2
-32
-9
-9
15
9
-9
-17
30
-10
-11
54
-24
29
18
-18
16
-48
-5
20
16
-70
-77
10
-28
-50
24
-6
-20
7
7
-33
53
29
-69
40
37
-14
46
69
-35
55
17
-18
-19
2
32
3
-45
5
5
-52
-25
47
-23
-42
28
-9
19
-32
14
23
2
25
-25
19
21
-13
39
6
10
-34
54
12
10
-23
-41
-21
48
-4
40
14
53
11
11
-31
-43
5
-16
-29
-7
-1
-9
-2
-7
2
50
-15
30
-16
-4
23
-4
47
-7
-1
11
-7
14
-7
10
-12
11
39
13
1
-48
19
24
-29
21
-29
-29
-32
35
33
53
-20
-3
32
-31
-38
-30
-39
13
-1
-55
-22
0
-11
-44
12
4
-1
4
2
-12
23
38
12
54
14
-36
-66
-43
26
27
-36
31
25
1
-2
-4
-12
-6
-62
-34
-2
13
5
18
21
36
22
15
11
-7
1
6
19
46
7
-59
2
23
18
-19
59
32
9
-14
-15
0
13
19
1
13
36
3
6
-16
71
9
18
-23
29
33
39
0
-10
8
9
27
-28
-61
-19
40
-2
-3
60
-40
29
-35
-13
17
25
-8
7
-4
55
-26
2
-13
16
-41
-40
-3
-5
35
-25
14
36
-40
20
-6
22
21
-39
17
16
9
23
-8
40
-16
59
35
-27
-25
0
14
-39
-82
17
-9
12
65
42
13
-10
1
75
30
51
-29
71
6
-27
5
-32
41
27
-6
-16
-33
-20
-18
-62
32
20
-30
9
57
-17
-12
-14
28
-3
73
7
3
10
-5
67
38
5
-15
50
-33
-24
-69
48
49
23
36
42
3
-12
27
-5
-10
-18
-7
-28
-22
2
-1
16
-22
-63
-15
-37
13
16
-17
50
56
3
5
-10
-6
-15
65
20
22
11
8
15
-37
23
-17
32
-31
-19
-9
24
-47
-3
-21
12
-51
-27
2
9
-13
11
25
-23
0
58
0
6
47
-4
-25
16
36
48
14
33
12
35
10
-63
-29
15
1
-61
-2
-9
10
-37
41
9
-18
35
7
30
0
23
-7
2
11
19
11
34
-5
36
-34
-50
64
9
-1
-17
-43
14
3
-32
-57
9
11
54
15
42
12
7
-43
-34
-8
10
7
-20
30
51
-29
-19
-52
2
-7
4
-15
4
-27
59
18
-12
-10
52
-35
17
-4
-28
-38
53
-8
55
-7
24
-10
-41
1
47
-3
37
17
44
4
6
35
0
-23
19
92
