-0.01111397
0.04404406
-0.00685587
0.03282931
-0.02876286
-0.01080866
-0.01679267
-0.00001501
0.00494857
0.00421596
0.03187946
-0.01569936
-0.00514802
-0.01041989
-0.00535065
0.03375458
-0.00114658
0.02846212
-0.00908161
-0.00388180
0.02643264
0.00054014
0.01220626
0.02269566
-0.05487284
-0.00301403
0.00469387
-0.00058922
-0.01177909
-0.01253355
0.00849117
-0.03252164
0.02746883
0.00988468
-0.01027686
-0.02467849
-0.00600331
0.02487660
0.00785285
0.01782667
0.03409268
0.01000957
-0.00769972
-0.03221092
0.01035919
-0.01174561
-0.03111832
-0.02939172
-0.04492755
0.01519038
-0.03516084
-0.01017355
0.00320684
-0.00213569
-0.01283924
0.01632436
-0.02734861
0.02399968
-0.01880185
-0.02393077
0.00625439
0.00365484
0.01915869
0.00049814
-0.01540766
-0.02166518
-0.03155465
0.01065376
0.03088150
0.04783074
-0.00156359
-0.00393033
-0.00114420
-0.01778662
-0.05067037
0.03101088
-0.04324573
-0.03310661
0.03152594
-0.01712601
0.04359985
0.00092230
-0.01728444
-0.03021245
0.01446215
0.03681004
-0.05952360
-0.04658936
0.01560463
-0.01276170
-0.01259595
-0.03160695
-0.02219286
0.00285653
0.03135777
-0.01128834
-0.00643770
-0.01372912
0.02379722
-0.03634218
-0.03387840
-0.00018079
0.01873714
0.03988498
-0.03688436
-0.02072152
-0.01263579
-0.04019854
-0.03778177
0.00960516
-0.03280168
-0.01787610
0.01476711
-0.01382593
0.01341218
0.00396057
0.00946609
-0.01437328
0.02138848
-0.03181791
-0.01660029
0.02303455
0.01736281
-0.00579767
-0.01218237
0.00781736
-0.03923391
-0.04091640
-0.01218105
-0.01888344
-0.01376896
0.01011729
-0.01931085
-0.01169498
-0.01203492
-0.02525444
0.03654635
0.00722117
0.01426844
0.01865894
-0.03811929
-0.04481163
0.02095058
0.03630229
0.01631287
-0.01117519
-0.03418673
-0.04674694
-0.02613720
0.00523224
0.03470101
-0.01842453
-0.01133620
0.01913780
-0.01844088
-0.00974796
0.02205699
0.02483982
-0.00996322
-0.01261216
-0.05956667
0.01888806
0.00906770
-0.00298696
0.01768533
0.04123653
0.00989267
-0.07205746
0.00127302
-0.01981799
-0.04236038
0.00629826
-0.01270614
-0.00120515
-0.08986009
-0.05951944
-0.00991328
-0.01823704
-0.03520894
0.00742497
0.01590104
-0.02053982
0.00110046
-0.03781554
0.01493439
0.01306853
-0.03388670
-0.00365165
-0.02078452
0.01289040
0.02988711
0.01298044
