0.04821350
-0.04620389
-0.15741636
-0.09833112
0.07329556
-0.07026845
-0.02275719
0.07354883
0.01520381
-0.15331022
0.00075975
0.02168861
-0.06911252
0.02263476
-0.10348979
0.00379268
0.11001758
0.05953404
-0.06743293
0.01265089
0.01808181
0.04027355
0.13616835
0.03790533
0.02501081
-0.01077081
-0.08468322
0.07810669
-0.09496306
-0.03743216
0.17206880
0.10833392
0.00966691
0.06004851
0.12160138
-0.02784260
0.03240110
-0.07349518
0.16975036
-0.03687961
0.00559807
-0.13515949
-0.07822386
0.01898419
0.03393181
-0.11102950
0.03187677
-0.12217090
0.03183595
0.02007549
0.11299664
-0.06014238
-0.08689392
-0.02321995
0.05045388
0.01071898
-0.03336632
0.16609384
-0.07259236
0.12093884
-0.00350759
0.11444289
-0.21686667
-0.02410118
-0.09269259
0.08842307
-0.05924870
-0.13467939
-0.00568986
0.07870162
0.00993004
0.05689216
-0.00074209
0.07371923
-0.10074487
0.03704182
-0.02895042
0.03784224
0.06075663
-0.00860792
0.02777018
-0.07647060
0.06679001
-0.07333999
-0.12568055
0.03158794
-0.07871307
-0.06178478
-0.05574992
0.12160354
0.01858975
-0.12599659
0.07479855
0.04502640
0.09879614
-0.05235121
-0.04280631
0.02319770
-0.08274534
0.00575818
0.09229663
-0.02373810
0.01113740
-0.01778223
0.09230790
0.02417726
-0.11046805
-0.06061059
0.10967831
0.00958900
-0.10082524
0.04525941
0.03559204
-0.07822425
-0.00783372
-0.09427991
0.01757165
-0.05444440
0.04280027
0.02289856
-0.09901895
-0.03403224
0.03264076
-0.07447841
-0.08774743
-0.04606088
-0.08766495
-0.13062857
0.09311661
0.07120520
-0.04037921
-0.05526931
-0.06180221
0.07548103
0.06089602
-0.00366941
-0.14417359
-0.16065370
-0.04202608
0.11846332
0.02944697
-0.06212959
-0.10000644
-0.03069155
0.06349329
-0.03109257
-0.02969312
-0.02772404
0.07448056
-0.01182394
0.05330734
0.08307162
-0.05836441
-0.03923003
0.07549569
-0.09759181
-0.04661226
0.02870142
0.04904456
-0.00753107
-0.10850490
-0.09120183
0.05678962
-0.03084241
-0.04597738
0.03976196
-0.03205396
-0.09063833
0.12372661
0.00509834
0.07644820
0.02202749
0.05010804
-0.03183385
-0.04953509
-0.02579462
0.05196165
-0.07039154
0.01270747
0.00282692
0.01715087
0.01378149
-0.03044399
0.02025710
-0.05569647
-0.04415736
0.07406284
-0.01922945
-0.07103589
0.02253542
0.05380775
-0.09265816
