0.02183085
0.00734130
-0.04185490
-0.01462863
0.02199987
-0.01266544
-0.07804669
-0.04593559
0.00735972
0.00492247
0.05371452
-0.08058506
-0.04267605
-0.03298580
-0.01830704
-0.01260962
-0.07271943
0.00067369
-0.00468586
0.02896268
-0.02331162
-0.04250582
0.00268817
0.04930417
-0.03294907
-0.11419255
0.02969306
0.00641621
-0.06291930
-0.02038110
0.04403895
-0.03705373
-0.10341197
-0.04170427
-0.02602914
-0.01362966
-0.00253069
-0.02170778
-0.03459182
0.06132196
0.01161197
0.04429678
0.02208036
0.01607765
0.04604433
-0.00953138
0.01957070
0.00350295
0.03979579
-0.01313394
-0.08305209
-0.00804533
0.03114810
-0.01768484
-0.04321179
0.05189535
-0.03246279
-0.01811102
-0.00089662
0.07404705
-0.11227308
-0.00395710
-0.04482366
-0.01670757
-0.00922357
0.04199716
0.06176988
-0.07675260
-0.03573557
-0.05508560
0.03851754
0.05290612
0.01547450
-0.08394810
-0.05106834
0.01795689
0.03805450
-0.00578583
0.03759149
-0.01743301
0.02463381
0.00538966
0.04201379
-0.05001888
-0.01865129
0.01979068
-0.08051850
0.01361466
0.03781836
0.00542454
-0.04571777
0.03104304
-0.02538004
0.00461105
0.08237882
0.00520002
-0.01340651
-0.06807942
-0.04620333
-0.03693516
-0.02238831
0.02717050
-0.08903359
-0.01291869
-0.06310558
-0.00954379
0.01997250
-0.02831654
0.00277616
0.00715753
0.00764529
-0.04426526
0.02415412
-0.04912534
-0.02139341
-0.00048369
-0.06599849
0.04413219
-0.00017913
-0.01071346
0.00915765
-0.10455215
0.04148669
0.04753097
0.01173901
-0.11285960
0.01180829
-0.02223651
0.05288630
-0.01076597
-0.03077568
-0.05287167
0.04329388
-0.03919622
-0.01442021
-0.06707066
0.07169250
-0.08671182
-0.05190507
0.00749929
-0.07638127
0.00771956
0.02330356
0.02528664
0.00282219
-0.06483930
0.03023918
-0.08081297
-0.07553293
-0.06057824
-0.02260315
0.03126492
-0.04874051
-0.02579153
0.04891631
0.02517951
0.01167789
0.05380645
0.01730422
-0.01928052
0.04172594
-0.05792703
-0.03091074
-0.12442327
-0.08950818
-0.01731941
-0.00407664
-0.04774494
-0.01329246
-0.01971772
0.00643561
-0.03541499
-0.03016826
0.03121271
0.04478476
-0.12565744
-0.01583786
0.03941434
0.00789170
-0.00816832
-0.01748747
0.00164835
-0.02813506
-0.03115732
0.04920115
0.00753619
0.01598779
-0.07742285
-0.06142063
-0.01413856
0.05438167
0.01228913
