14
5
20
28
-37
5
-7
-28
-24
-1
-40
-4
23
-19
10
-43
17
7
-61
-6
23
3
-15
-20
44
-5
-9
-6
-17
-16
23
51
18
-5
8
4
-34
-22
-18
21
20
87
-68
12
-5
-28
26
-12
-38
95
2
-27
15
-10
-24
34
-18
0
-6
-4
27
-10
0
27
16
7
-24
-20
25
-7
15
-8
18
-9
21
21
2
26
-6
20
-33
14
48
15
6
-6
18
-12
-5
-9
16
4
-4
22
-6
-48
-25
-7
-11
24
-4
26
-8
-24
-22
-57
21
-2
18
10
-12
26
42
-77
-24
21
-11
2
11
9
-15
7
-3
11
-40
5
3
-27
8
-4
-23
-17
23
18
-10
21
17
-8
36
15
2
19
1
15
-23
-20
31
12
-19
27
15
12
-31
-25
-2
11
14
22
-19
-27
-15
10
-28
-2
4
28
13
-16
-16
-43
29
2
-7
6
-16
40
22
-83
2
39
-29
19
-12
-7
-2
17
8
5
-11
25
22
-11
1
20
34
40
-10
-22
-14
3
-31
20
-50
-38
32
-46
14
-59
46
15
-71
4
11
-12
-9
-43
46
15
-15
-28
-2
-11
26
32
34
0
11
-20
-34
-11
-24
49
-7
75
-81
10
-35
-12
3
-8
-44
114
19
-62
36
2
-4
18
0
-15
19
-13
30
-10
-27
25
2
27
17
42
-7
1
-21
-2
-1
20
-46
-15
11
-22
11
-60
34
19
-69
5
5
-28
-13
-32
41
23
-11
-9
-24
-25
-4
35
6
26
20
-13
-29
-19
-8
18
18
81
-51
16
-8
1
21
-18
-17
106
23
-35
9
-21
5
41
4
-21
10
-7
55
-1
-22
34
-8
6
6
37
-22
-6
11
-16
-8
-10
-28
-7
4
-17
20
-19
31
2
-25
-21
-6
-27
10
-16
30
21
-19
-12
-24
-17
0
42
14
15
-1
-24
-6
-23
-4
24
-2
67
-47
7
-16
-12
1
-30
-22
68
7
-20
32
-9
-20
15
-6
0
17
5
33
6
-3
5
6
26
29
46
-26
-16
-18
-25
-16
-2
-42
-18
-3
-18
7
-47
37
8
-39
-2
26
-13
-16
-4
17
13
-1
2
-16
-28
10
24
2
-4
30
-23
-9
-29
-19
16
21
59
-65
11
-4
-10
23
-35
-21
110
9
-49
29
3
-21
40
9
-24
-7
-7
30
-24
-8
18
-17
-2
-25
-16
34
-2
-11
16
23
-14
32
2
-6
17
-7
22
-35
-14
32
-11
10
24
6
-4
-28
-22
6
-12
16
13
-1
-37
-23
8
-26
0
7
27
-8
-27
-21
-57
59
-12
14
11
-9
25
48
-96
-4
41
-14
3
6
-11
-10
16
-5
11
-11
18
20
-28
26
17
22
25
-22
-24
7
-2
-11
14
-25
-11
27
-32
9
-43
28
6
-63
-3
24
-14
7
-38
58
24
-3
-22
-28
-27
-6
35
30
4
12
3
-23
-20
-26
26
12
82
-60
-3
-30
-26
9
-11
-29
109
1
-45
39
-17
6
41
5
-19
22
-23
42
-7
-27
3
9
30
18
44
-5
-30
-15
-21
6
10
-24
-1
12
-40
-4
-35
32
28
-69
1
8
-25
-15
-28
45
28
-13
-5
-18
-26
15
46
30
25
33
-4
-22
-39
-24
48
-6
68
-41
12
-22
-12
3
-24
-49
108
7
-48
31
-6
-6
15
-22
-6
2
-4
48
-15
-22
31
2
6
16
25
-14
12
-14
-16
8
-1
-23
-13
15
-37
11
-19
34
-8
-26
-14
18
-26
-8
-3
27
6
-14
-14
-6
-13
-4
40
11
11
19
5
-33
-3
-9
18
21
66
-44
7
-25
4
-12
-20
-23
78
11
-47
4
-9
3
26
-10
6
7
12
10
10
-1
25
-11
25
18
4
-33
-2
-1
-5
-14
21
-20
-8
17
-14
-4
-29
33
20
-49
-6
14
-5
9
10
34
-2
4
5
0
-11
-7
35
18
8
33
1
-25
-12
7
27
-10
62
-38
22
-22
-14
16
-29
-21
65
-6
-12
17
6
-15
22
-9
11
-1
-21
11
2
-19
-3
0
16
39
20
-34
2
-15
4
-20
5
-13
-19
22
-17
10
-19
30
22
-38
-7
21
-23
-15
-20
32
22
-15
-26
-24
-10
12
25
1
8
24
-17
-37
-26
-5
43
-2
73
-63
19
3
1
6
-23
-54
90
23
-30
11
-3
-18
11
-15
-6
12
-15
26
-6
3
28
-25
-30
-24
-46
26
-2
9
15
-4
-17
44
29
-27
22
2
28
-44
-14
43
8
-9
30
4
23
-39
-20
20
1
6
10
-14
-28
-2
-15
-4
-1
31
35
1
-20
5
-82
57
-2
27
17
-8
32
51
-94
-5
57
-33
23
6
-22
7
-3
-16
-3
-31
20
32
-32
-23
-27
-35
-17
34
-11
22
-7
16
6
15
12
-22
29
-7
48
-13
-7
36
-5
-21
16
-7
20
-39
-26
-1
17
7
-5
3
-28
-30
-7
-18
9
27
1
9
-33
-21
-75
42
9
21
12
-20
35
28
-88
-28
32
-10
-5
17
-25
0
-2
-20
15
-32
26
4
-23
-12
24
30
29
-39
1
-7
-25
-4
15
-37
1
17
-14
-1
-39
16
15
-41
-7
13
-26
-3
5
31
7
14
-16
-19
-23
12
45
12
19
6
-22
-25
-4
-14
11
-13
44
-65
-2
-4
-15
-5
-28
-41
94
18
-46
-1
-20
-6
17
-8
-13
17
5
13
3
-17
8
7
-1
30
40
-9
1
-3
-2
-20
19
-31
-29
10
-48
23
-44
28
12
-64
5
-3
-13
-14
-9
36
22
-21
-7
-22
-13
22
24
3
26
-1
-23
-9
-6
-8
39
-2
86
-50
3
3
-30
21
-31
-31
92
26
-48
32
-2
-14
32
-3
-5
-3
-9
40
-6
-30
25
-34
-4
-45
-44
12
17
5
28
17
-1
46
27
-11
39
-20
72
-38
-7
72
1
-17
23
3
32
-46
-28
6
-3
15
30
-15
-45
-34
-13
2
12
52
43
31
-54
-11
-85
86
-1
17
36
-8
43
46
-123
-35
53
-29
-2
16
-54
21
13
9
27
-53
28
37
-39
-23
-23
-34
-33
28
14
20
18
26
-14
44
34
-10
36
-6
54
-34
-27
66
16
-1
17
26
63
-49
-28
27
-5
15
20
2
-55
-36
-28
-8
15
71
42
19
-38
-6
-89
100
-4
20
38
-17
18
44
-110
-17
49
-14
12
10
-49
20
31
-25
-5
-54
10
25
-20
-32
-18
-14
-47
11
33
20
-2
11
-8
26
41
-15
25
-9
72
-27
-13
90
6
-31
27
2
51
-61
-25
6
16
8
16
-1
-60
-30
-15
-26
4
56
16
6
-47
0
-93
70
-15
22
35
-5
15
29
-113
-14
59
-18
3
2
-52
20
10
-5
6
-49
22
33
-6
10
18
32
21
-17
-4
-1
9
-7
20
-29
14
23
-34
18
-21
27
9
-32
-2
-3
-7
-8
12
17
5
-2
-9
-23
-24
12
14
13
-5
31
-24
-11
-19
-1
38
16
40
-33
6
-21
2
4
-14
-23
86
14
-44
28
-20
-21
6
14
-10
10
-18
33
-17
5
-6
-11
-26
-34
-48
25
16
14
2
-1
-5
18
32
-15
28
2
54
-35
-26
67
-4
4
35
25
30
-29
-8
-7
25
10
29
-8
-56
-17
-17
-27
27
35
38
8
-44
-14
-86
57
-11
14
29
-21
36
51
-106
-16
38
-17
6
23
-34
24
-4
-4
1
-36
12
4
-21
27
20
22
21
-7
-22
-8
-29
-23
-1
-48
-33
14
-14
24
-41
57
39
-58
-8
0
-44
-33
-24
42
12
-31
-7
-11
-10
1
7
21
5
-4
-36
-43
-26
-15
60
11
111
-81
7
-14
-36
13
-3
-33
120
20
-52
41
-5
-16
50
-23
-7
0
-19
45
-41
-42
40
-13
-30
-22
-49
25
24
13
26
29
5
47
18
-18
35
-29
40
-25
0
48
12
-12
35
11
32
-38
-20
-2
15
1
-2
-22
-29
-24
-6
-13
1
48
10
10
-48
5
-80
61
-4
23
-1
-21
33
25
-87
-6
30
-35
6
-4
-17
3
16
-13
4
-44
27
24
-28
-44
-26
-18
-54
26
18
-3
18
28
-10
49
29
-27
37
0
57
-52
-15
81
11
-30
31
27
25
-63
-8
11
-2
26
35
-15
-57
-27
-24
-11
13
33
42
22
-33
-13
-104
67
-16
13
10
-7
17
26
-128
-18
70
-43
-1
14
-61
13
-3
-22
10
-70
9
14
-35
9
14
34
18
-15
3
-21
-15
-23
-3
-20
-4
30
-21
3
-40
11
7
-46
-22
0
-14
-23
-8
16
11
-6
10
-1
5
11
37
30
20
7
-5
-13
-34
0
30
-1
54
-45
21
0
-1
8
-33
-46
77
10
-22
32
6
10
19
-8
3
19
-12
31
-10
-13
26
38
21
39
32
-21
-21
-22
-16
-15
11
-43
-32
17
-57
19
-53
42
11
-78
-1
4
-43
-13
-51
59
12
-29
-27
-29
-31
-1
34
11
13
0
-8
-57
-39
-21
35
2
89
-94
13
-13
-27
31
-31
-41
110
40
-48
22
-24
1
57
-19
-19
19
-11
48
-16
-38
27
17
25
31
40
-19
-8
-12
-9
-21
3
-19
-27
30
-44
1
-33
32
4
-34
-7
2
3
7
-19
20
-4
-1
0
5
-24
2
25
13
-7
27
-26
-19
-22
-25
27
10
81
-58
13
-7
4
-3
-29
-24
93
7
-18
4
-9
-14
27
-21
-6
12
-23
28
-7
1
14
-2
29
24
34
-21
-4
-10
-25
-12
16
-48
-15
29
-30
11
-33
19
12
-41
-2
22
-8
-1
-24
22
27
-15
-21
-7
-12
23
52
16
26
27
2
-21
-13
-24
37
9
75
-48
-10
-29
-20
13
-34
-52
96
28
-29
28
-3
-17
42
-15
-21
13
-26
52
-30
-32
8
11
-4
-15
-45
12
16
1
-5
18
-22
40
-8
-22
15
-18
16
-35
9
32
17
-5
27
9
-3
-33
6
16
-5
14
14
-2
-41
1
-4
0
8
35
20
17
-43
2
-76
42
-1
27
-3
-23
8
45
-80
1
45
-14
24
15
-9
19
0
-2
21
-17
22
4
-21
19
-6
29
37
-17
-21
4
4
-16
18
-9
5
17
-41
-3
-8
40
-3
-52
8
0
0
0
-6
39
1
13
-17
9
-12
-9
14
21
21
5
-12
-10
-29
-1
33
14
46
-60
16
0
-10
11
-35
-29
91
2
-21
25
-10
-8
8
-1
-14
1
-18
34
-16
-21
29
-2
-6
-17
-43
18
8
3
14
14
-5
49
18
-3
34
-3
60
-47
-30
79
9
-10
12
25
34
-32
-10
3
0
17
22
9
-52
-2
-27
-20
6
49
8
21
-31
-6
-70
50
-8
7
15
-17
31
51
-102
-21
45
-29
22
22
-14
27
20
9
2
-34
21
19
-34
18
14
29
12
-39
-13
-13
-26
-18
-6
-36
-12
24
-19
13
-41
31
16
-53
-13
11
-13
-20
-24
21
27
-7
-1
-10
4
22
36
25
18
3
-9
-32
-30
-17
32
0
82
-65
3
-12
-16
0
-23
-44
97
1
-26
18
-24
-21
21
0
-21
5
10
41
-10
-13
28
19
21
9
24
-19
-2
-17
-22
-1
18
-15
8
15
-40
14
-38
13
4
-39
3
22
-24
-2
-20
33
-3
-10
-23
-5
0
-6
28
19
20
2
-19
-36
-21
-5
45
8
66
-59
7
-11
-8
13
-33
-48
96
-4
-32
19
-15
-2
36
-23
-20
11
5
21
-6
-15
5
5
1
23
42
-17
11
-18
2
-3
-4
-16
-19
17
-40
-4
-15
33
22
-27
-12
20
-15
11
7
25
5
-18
4
2
7
3
33
-4
-8
8
-4
-33
1
-18
21
7
65
-44
7
-18
-2
3
-7
-42
80
29
-26
21
-23
-21
15
6
8
-13
-10
27
8
-7
7
13
22
17
41
-27
-14
10
-11
-20
12
-45
-11
4
-30
10
-32
22
-1
-65
-25
20
-7
-8
-20
22
11
-8
-26
-27
-11
20
38
14
-8
14
-5
-34
-19
-29
26
25
80
-58
6
-31
-19
2
-9
-45
85
7
-37
35
6
-5
12
-7
11
-4
-19
40
3
-1
9
17
-7
35
40
-38
-20
-4
-2
-10
11
-34
7
-2
-19
23
-44
32
6
-54
-13
-2
-3
-15
5
24
19
6
2
-24
6
9
44
9
-3
19
2
-29
-11
-14
42
14
54
-60
0
-21
-17
21
-35
-50
84
22
-35
23
-17
-19
21
3
-12
-3
-11
10
-2
7
-3
-2
-13
-32
-18
37
8
22
15
2
-10
29
0
3
31
-8
18
-16
-9
66
7
-11
26
15
18
-30
-1
7
0
-1
16
-21
-44
-27
-1
-19
26
23
20
29
-16
-13
-81
64
2
3
16
-12
19
36
-75
-11
27
-10
4
9
-37
25
-3
-14
6
-25
0
6
-6
23
-4
22
30
-28
9
-18
-19
-5
-6
-20
-16
0
-39
-2
-20
39
-2
-34
11
13
-18
4
-22
13
6
-20
3
-18
4
-12
30
29
24
22
-14
-11
-21
-21
25
12
61
-42
11
-3
-22
6
-33
-49
85
5
-24
28
-23
-22
28
-17
-22
-11
10
40
-8
6
29
0
4
14
45
-38
-6
-7
-1
-15
4
-23
-14
7
-48
21
-38
35
13
-74
1
-5
-18
-1
-39
55
8
-7
-15
-18
2
16
41
5
0
29
-5
-44
-7
-31
36
6
93
-71
9
-31
-28
13
-25
-35
95
27
-44
16
-2
-7
24
-11
-13
22
-10
65
-24
-22
29
-1
-21
-29
-22
13
4
-2
15
8
-15
32
28
-4
24
-15
16
-40
-4
31
-8
-19
28
16
22
-36
-27
-2
15
1
22
0
-19
-9
8
-32
26
33
22
5
-20
5
-79
49
-11
11
10
-12
11
43
-101
-4
45
-6
-5
6
-15
2
8
-12
7
-39
9
1
1
10
3
-10
-42
35
4
9
3
5
-20
13
16
-20
25
1
37
-13
-13
28
19
8
4
13
-7
-38
-16
6
19
23
9
-16
-38
0
-4
-30
15
24
19
23
-13
-14
-68
54
-18
27
10
5
7
25
-65
-29
22
-7
22
-10
-8
11
-1
6
13
-42
23
25
3
-22
-5
-8
-28
31
4
-8
4
14
-16
37
12
-17
19
-16
58
-32
-13
53
6
2
28
-1
10
-56
-28
20
-8
25
26
-19
-43
2
-12
-11
18
33
16
1
-29
5
-87
79
-2
14
26
0
8
39
-92
-10
50
-25
-4
2
-38
19
17
-3
11
-38
17
27
-22
-2
19
12
44
-21
12
-8
-5
-7
2
-40
-15
-6
-30
-8
-21
5
7
-50
-9
-3
-26
6
-18
32
26
-2
-18
-14
-21
4
25
12
11
6
-16
-9
-1
-21
24
19
75
-58
0
-25
-23
18
-31
-37
75
-5
-32
16
-20
9
16
-1
4
-12
2
18
0
-20
17
9
-10
-13
-17
13
-3
-7
5
15
-13
18
10
-28
26
-15
30
-28
-13
39
3
-19
10
-6
6
-28
-22
-13
9
9
-4
-9
-22
3
-12
-12
29
20
13
8
-20
-12
-64
57
4
10
23
-17
11
23
-99
-3
24
-27
-6
4
-33
16
8
-7
-7
-45
7
18
-23
4
-26
-1
-38
37
9
-10
-7
17
-22
22
25
1
36
-6
10
-8
-12
51
13
-13
21
16
14
-29
-26
3
-8
-1
20
12
-24
4
-4
-30
16
19
10
19
-32
-21
-61
51
-10
4
-7
6
9
25
-68
6
34
-7
-6
-4
-31
19
-1
7
-2
-18
2
2
-4
-2
-28
-11
-45
41
6
-4
27
19
-18
25
22
-27
32
-20
26
-28
-3
67
23
4
30
19
11
-49
-24
15
18
18
23
5
-30
-8
-21
-11
20
44
39
31
-38
9
-93
79
-2
28
4
-15
40
27
-87
-15
30
-8
-4
6
-25
9
25
-4
23
-40
31
8
-25
22
18
8
28
-12
-26
9
-20
5
19
-21
-9
2
-38
-5
-38
32
-1
-75
-17
4
-32
9
-23
21
10
-13
-22
-5
-12
-6
56
32
12
18
0
-24
-12
-24
20
12
86
-51
-4
-27
-7
16
-20
-46
85
3
-44
34
-23
-16
33
7
-11
17
3
51
-12
-5
23
-6
-4
-42
-44
15
23
3
16
24
-18
23
40
-7
38
0
41
-25
-11
66
-4
1
10
1
31
-53
-29
-8
7
3
16
-8
-50
-11
-30
-30
1
54
33
3
-31
-16
-99
76
5
9
36
-19
13
45
-124
-23
45
-25
22
27
-50
34
-4
-7
24
-60
16
32
-16
24
3
34
29
-24
-22
0
-17
-20
19
-20
-17
7
-46
15
-20
32
21
-54
-4
21
-30
-9
5
32
26
-20
8
1
-21
3
17
27
8
12
-9
-13
-27
-26
39
7
70
-70
10
-3
-23
8
-8
-39
101
19
-18
13
8
-18
35
-18
-4
1
7
46
-8
-10
20
0
8
18
30
-33
-8
-10
-18
-14
-6
-26
-10
13
-35
9
-59
49
8
-57
6
-7
-19
-13
-12
54
24
-21
-13
-1
-8
15
22
26
16
10
5
-30
-18
-14
46
2
73
-64
20
-7
-24
19
-30
-51
83
14
-29
36
7
-3
24
-20
-17
-5
8
37
-3
-4
20
5
-18
-21
-38
25
19
-7
11
10
-17
29
7
-11
42
-4
51
-26
-8
35
21
-1
21
-11
7
-31
2
4
6
25
-1
8
-43
-9
-11
0
30
36
25
13
-40
2
-82
59
-16
14
0
6
14
48
-76
-23
51
-2
1
-11
-13
5
14
-4
0
-25
20
19
-27
-33
-3
-42
-45
9
28
6
6
20
5
47
4
-29
23
-15
46
-37
-28
73
-4
-10
22
-1
10
-55
-5
22
11
8
2
-20
-30
-20
0
-7
-1
19
14
12
-46
-21
-88
60
-13
7
-2
-10
6
49
-111
-26
45
-25
12
-4
-35
2
7
-22
6
-52
23
19
-26
-19
-23
-11
-46
26
21
3
0
1
-7
46
11
-23
46
-13
21
-19
-17
44
-6
-8
2
-3
13
-43
2
-12
0
6
19
-1
-51
-28
-7
-25
24
17
22
7
-46
0
-56
69
-12
6
25
-5
38
28
-104
-28
27
-5
-4
6
-37
9
3
-17
-2
-33
17
23
-32
-4
-13
-30
-16
23
21
-6
8
-2
-12
20
25
-13
50
-4
26
-38
-16
54
1
4
-1
15
7
-27
7
15
3
6
20
-11
-31
0
-10
-21
6
14
29
7
-45
8
-71
66
-10
-3
23
-8
28
33
-106
-18
43
-2
2
23
-10
19
20
-15
15
-39
22
16
-5
-35
-5
-35
-31
26
25
25
16
10
-22
43
20
-16
44
-30
66
-30
-35
65
17
-10
36
13
28
-53
0
9
-5
3
15
-3
-51
-35
-13
-23
31
59
29
5
-46
-24
-90
63
1
6
26
2
22
42
-119
-8
44
-15
4
18
-57
34
-3
-18
16
-75
23
34
-26
-23
-22
-35
-27
18
25
21
18
-4
-7
15
28
-4
48
-24
63
-23
-29
61
17
-8
26
23
32
-32
-10
-7
6
-5
28
7
-39
-17
4
1
-3
47
40
-2
-34
3
-88
79
-16
0
33
-29
23
50
-117
-17
40
-20
19
-8
-46
28
25
-7
-7
-57
2
19
-9
35
22
27
50
-39
-12
-26
-23
-30
24
-45
-29
34
-22
28
-49
26
16
-73
8
7
-15
1
-44
34
31
-25
-12
-21
-5
3
55
32
2
1
-22
-21
-11
-29
39
3
73
-54
9
-14
-6
27
-31
-49
116
1
-52
16
-25
-4
20
-19
2
-6
-19
47
-38
-9
9
-26
-7
-20
-22
36
16
5
12
9
-23
52
44
-28
28
1
49
-52
-10
71
1
-21
37
-3
38
-30
-21
26
8
22
22
1
-37
-17
-25
-27
-1
57
13
18
-59
-4
-92
73
-5
12
22
-29
34
57
-120
-37
45
-21
27
-1
-53
7
15
-12
4
-66
21
9
-12
-8
-13
-34
-23
17
23
-6
12
11
6
17
17
-7
33
-19
48
-25
-25
60
5
-26
-1
23
11
-17
-23
5
23
3
0
-9
-21
-30
-16
-5
0
44
21
11
-26
10
-84
41
-22
7
26
-18
23
23
-99
-9
54
-22
15
3
-32
24
2
-19
7
-53
28
-1
-17
7
1
31
28
-26
0
-19
-25
7
-1
-23
-6
24
-32
7
-48
36
18
-48
-12
1
-30
12
-24
45
7
-7
-7
-14
-22
9
35
-4
9
10
-27
-42
-1
-21
25
15
70
-72
15
-9
-20
1
-22
-50
109
23
-34
25
-23
3
42
-12
-11
-13
-18
49
5
-24
0
2
13
33
28
-9
-13
-6
-2
-18
6
-10
0
0
-38
15
-28
23
19
-25
-9
10
-17
-19
7
34
16
6
-1
-24
-21
2
25
6
22
9
6
-32
-32
-4
21
16
44
-37
3
-1
-10
-9
-16
-43
98
15
-46
1
-4
8
15
7
-17
2
0
28
-22
2
0
-35
-23
-12
-27
10
4
16
12
29
-23
49
28
-14
47
-16
57
-22
-20
73
4
-13
30
24
30
-58
-4
-9
27
13
22
-24
-27
-2
-1
-8
26
22
29
10
-23
7
-86
86
2
22
0
-22
31
33
-104
-34
66
-23
10
5
-32
28
25
-17
5
-46
35
5
-12
-15
-5
-3
-29
30
17
14
19
17
7
9
0
-27
37
5
11
-21
-13
49
10
-1
22
-2
10
-39
-23
19
12
21
3
-22
-39
2
5
-33
16
9
15
1
-14
7
-49
58
-16
1
9
10
37
49
-79
1
46
-23
6
-3
-11
0
-5
12
-10
-14
0
8
-11
