-0.04737196
-0.05913272
0.03538749
0.03557942
0.00467601
-0.02567882
-0.04534177
-0.01164532
0.03560883
0.01997252
0.03285275
-0.01470946
0.03991520
-0.04671016
0.02705139
-0.04487460
-0.05621238
0.05058127
0.03649357
-0.00074880
-0.00832737
-0.06644068
0.01887513
-0.02146703
0.01047839
0.05150455
-0.01463128
0.03003245
0.04507305
0.01796328
-0.02431452
0.05504474
0.08501124
-0.01666790
-0.04058621
-0.04149698
0.05172587
0.00904273
0.02464020
0.04733088
-0.06795503
-0.03639138
-0.02023325
0.05988662
0.03588226
0.03146918
0.02837531
-0.00433520
-0.05195137
0.05222180
-0.08292529
0.04164177
0.05772642
0.04266083
0.02618307
0.10263058
0.03396071
-0.04642624
-0.02283502
-0.04038962
-0.00232904
0.02222264
0.00284791
0.04799577
0.02127661
-0.00955059
0.03746092
0.04455778
0.08041468
-0.09405463
-0.02181008
-0.08782129
0.00115979
-0.03359025
0.00207033
0.04368018
0.00267012
0.06925521
-0.05313959
-0.02267394
-0.06365974
0.01960521
-0.05258301
0.08690050
0.04104664
0.02742403
0.08089914
-0.06113687
-0.04923374
-0.11597416
0.00943958
-0.03854293
0.07388271
0.05488920
0.05101025
0.03563272
0.13538136
-0.01063007
-0.04437589
-0.03985074
-0.04368418
0.05020117
-0.02096955
0.06810439
0.05572605
0.00024109
0.01058498
-0.05454265
-0.06450231
-0.00853653
-0.02729196
0.02784546
-0.07897802
-0.04404903
-0.00458923
0.08957366
0.00926436
-0.10860154
0.03404745
0.02167080
-0.12010700
0.08369685
-0.00371643
0.01023537
-0.05065058
0.04864507
-0.03948323
-0.01024212
0.00115706
-0.02015105
0.03603726
0.00572415
0.02829374
-0.05059380
0.03845403
-0.09787450
-0.03043011
-0.03807892
0.03045372
0.06147536
0.00776481
0.01036455
0.08191410
-0.07877710
-0.05330192
0.04451139
0.04332858
-0.03957777
-0.04873452
-0.08386108
-0.04829386
0.01892404
0.04559231
-0.01829808
0.04050937
-0.06147695
0.09459141
-0.06625193
-0.00712937
-0.04894269
-0.00271640
0.04883079
-0.00592041
-0.02396391
-0.07786658
-0.02308487
0.04434350
0.05532278
-0.07289539
-0.07944690
0.03823335
0.03301345
-0.00443484
0.01380884
-0.01149470
-0.04359294
-0.03897123
-0.06440730
0.02456348
0.01774271
-0.01864263
-0.02773335
-0.03049414
-0.07106864
-0.02466935
-0.05749344
0.02786358
-0.04147824
-0.04865986
0.03165751
-0.00347686
0.07841124
