3
1
4
38
6
3
-15
-1
-3
-15
-32
-9
10
16
-13
6
21
-23
15
2
-9
-7
10
3
-5
8
7
-4
-29
17
-33
7
-3
-21
-16
-14
-19
-9
8
-30
-9
11
6
32
-8
1
-13
-3
-5
-43
9
-26
31
20
-8
9
3
8
37
0
-15
10
24
-8
-12
19
-16
27
10
-2
4
-35
-2
-13
3
-3
4
3
-1
-10
6
4
15
-4
25
11
-21
-18
31
45
-22
2
-15
12
1
-47
-46
42
10
5
-21
-7
7
-29
-11
-7
2
0
-26
-26
38
21
-66
14
12
-2
-6
-5
0
-28
-10
-13
0
18
-40
-5
9
-10
-3
2
34
-6
7
14
2
17
17
2
4
-24
-36
11
-5
4
15
19
-7
32
10
11
-14
-8
0
4
-18
-8
-13
-14
2
8
11
13
6
-47
13
-62
24
-1
14
11
28
12
-2
-21
-1
22
-4
22
-26
15
29
31
-20
-17
0
6
23
3
-5
-7
7
-2
17
58
-30
-17
10
-7
-14
-16
-26
-20
-26
-2
2
-6
23
-21
52
-32
-3
-6
-6
-27
-39
2
6
-20
-19
-14
31
15
-14
-14
5
18
8
8
-13
-13
1
73
-4
-4
-3
-7
-12
10
-7
-25
-8
8
11
40
-48
49
-66
-28
7
16
-7
-8
-23
12
13
-19
-8
19
-4
-41
-25
-10
2
-4
4
20
63
-21
-16
-7
10
-14
-1
0
-23
6
-45
-10
-40
-15
-40
4
-23
13
-51
19
-15
60
-2
-31
34
-6
-25
-1
7
17
-11
-16
-7
-10
52
9
-8
17
-2
-5
-6
0
21
-16
-30
-38
-19
-1
-50
7
-3
-15
18
58
-14
-1
-51
9
-1
22
1
-49
-13
-17
-4
-36
33
-22
-9
4
20
-19
-21
30
-2
-9
17
5
-69
-31
-10
4
-15
-5
-12
-2
22
-6
-2
10
-28
14
-56
6
-6
-18
-14
-5
-10
-10
31
-10
-7
10
-7
-59
-36
49
3
-42
-28
-47
11
34
-16
-13
2
8
-51
-29
4
-42
14
10
4
-4
35
57
29
-11
-9
2
-2
55
-66
10
-6
5
-8
4
-40
-2
-12
-34
-4
25
8
-27
23
20
-48
-28
50
9
-55
-4
-11
-43
8
-10
0
-21
5
12
-7
7
6
18
-5
-44
-24
0
21
-10
-35
-8
-20
-30
-10
-9
-28
18
18
-33
22
-58
-13
9
-4
60
11
-31
-13
31
-5
-1
1
18
-3
-23
-66
-42
32
-78
44
49
-54
-58
31
7
63
0
0
21
-3
-24
-29
5
15
-7
13
11
1
1
-12
29
36
24
-72
-15
26
17
9
6
-4
6
-18
25
2
42
10
-3
-29
5
-21
27
-26
14
-33
0
5
-7
23
22
-9
1
-18
20
-19
34
-42
44
-11
16
6
-29
9
-1
9
0
1
18
17
7
31
1
-21
13
-55
25
-7
-57
14
36
-33
8
-28
-5
-47
4
21
-4
-14
-15
33
-16
16
7
-31
-23
-30
34
64
-3
-11
-56
29
11
12
-7
-16
-2
7
7
15
0
2
-3
52
22
31
-8
-40
-65
23
30
-5
-15
-48
-6
-6
-6
27
30
-10
8
-20
48
10
5
-30
54
-18
2
34
-7
24
-2
-2
7
-3
-2
4
-18
12
-3
5
-11
-1
1
-16
25
6
-26
-9
6
-4
-3
-5
-10
64
64
-9
63
-1
16
23
11
-4
-1
-3
41
-6
-33
20
16
3
-6
-8
46
-10
9
-37
-11
-15
-31
16
50
-2
13
48
-30
20
10
-8
29
54
27
-13
-1
76
8
1
-25
2
28
-19
40
36
3
24
-21
33
-58
-1
-20
-19
74
75
30
-8
27
2
-13
65
10
-30
27
-5
6
-13
0
3
15
12
-7
-4
-7
8
7
0
14
-11
48
-16
-16
-9
-6
-9
0
16
-9
2
6
-25
-51
19
0
10
3
-14
25
4
22
-25
-2
11
-3
-18
18
44
-5
-4
6
-16
0
43
-29
33
-36
1
-1
23
42
17
-9
-50
-31
64
-4
62
-3
7
-22
-4
-16
-113
5
-47
20
63
58
16
95
-65
8
53
-52
61
26
0
-35
6
3
38
36
-6
2
-6
36
28
-24
9
6
77
48
-23
-3
15
93
-4
-1
1
8
-21
14
40
-70
27
74
7
23
-11
27
-23
-16
4
-39
3
-74
-45
16
17
4
-24
-5
-15
9
5
-31
8
64
-17
-36
-1
26
-4
23
9
-10
-21
15
6
-3
4
45
9
1
12
0
10
-28
-21
21
-8
-90
8
-51
2
1
-42
-1
-8
57
-46
22
13
8
11
13
-25
22
9
-59
-13
7
7
-9
17
3
27
36
24
-54
49
41
44
6
-10
-24
-5
1
2
-15
-7
-87
-128
-37
-5
-27
-41
12
-27
-33
27
-20
15
46
23
-30
-6
-9
13
5
-2
-23
7
9
-18
3
-15
-16
-1
-85
-7
53
54
-26
-22
9
4
-39
11
-3
0
12
-81
-29
9
24
4
25
98
-19
67
50
-87
19
26
26
-17
56
9
-13
47
-2
9
25
-12
-12
62
1
-21
-11
6
-2
18
-3
-38
-24
-39
20
-1
8
19
18
17
-23
10
14
12
-21
4
-18
32
-21
-4
25
-11
8
75
2
-2
27
7
-11
1
-24
2
1
15
0
3
5
-6
1
37
-38
28
16
10
-2
17
19
20
-31
16
-2
10
-19
5
30
12
-11
-3
18
-8
21
-35
-3
0
7
5
-8
-2
-2
31
38
-20
39
23
-19
14
-13
24
-28
12
-17
4
-14
30
-28
33
-5
15
-6
-9
8
16
11
13
-21
-31
-24
8
-20
52
-10
-19
10
-20
-8
8
-16
3
-21
21
-53
26
13
-7
-53
26
-17
50
7
-10
-27
5
28
-4
20
19
18
56
6
22
-30
-47
-48
6
-8
-9
-9
-12
6
35
1
19
3
18
18
13
-11
37
-7
-4
50
-6
44
35
-14
8
-1
5
-14
-18
31
22
-9
-21
-34
21
55
-5
-31
24
-5
-18
23
-16
11
-11
0
-42
1
