-0.05888523
-0.00217212
0.06963114
-0.01118559
-0.03975834
-0.06688233
0.05442116
-0.06822690
0.02362397
-0.02713371
-0.08911549
0.03343879
0.11706407
0.04006891
0.01480461
0.05916620
0.09753932
-0.00825943
-0.04291077
-0.04409602
0.01093417
-0.06331493
0.05445376
0.03548329
0.01617641
-0.10346444
-0.34742305
-0.01698377
-0.06640187
-0.00996219
0.19174950
-0.05548274
0.06469810
0.22156340
0.05530984
-0.09232983
-0.07040983
-0.07326057
0.24793008
0.14228085
-0.03605223
-0.00664586
0.15678257
-0.01463610
0.21248361
-0.02417354
-0.09734654
-0.14245234
0.04641974
0.05205528
0.04141160
-0.01684628
-0.06102975
-0.03075990
0.03885526
-0.09624413
0.04964385
0.05173728
-0.03266903
-0.08145516
-0.01331691
0.04911290
-0.05345365
-0.02195374
0.06214652
-0.04223903
-0.04032645
-0.04500730
-0.00390717
0.03526136
-0.04578182
0.00923604
0.07502990
-0.07126917
0.02430605
-0.00864003
-0.03867682
-0.06657347
0.00140015
-0.11404514
0.04236819
0.00481552
0.05678996
0.05761983
0.00480648
0.05096355
0.05853990
0.12095030
-0.03694035
0.00705848
0.04798697
0.00159089
0.03846324
0.01792354
0.00528477
0.02648232
0.00193740
-0.06166544
0.05631527
0.03680432
-0.04679492
0.05745701
0.10364565
-0.03901771
-0.02900204
-0.09493646
-0.04578466
0.01060574
-0.08816905
-0.01321150
-0.03789941
-0.11989573
-0.04025986
0.02248677
-0.04793487
0.08487236
0.04881829
-0.00560161
-0.03532427
0.12453522
0.08661614
-0.20721525
0.03876955
-0.22762035
-0.25525761
-0.23864551
-0.29135409
0.20089376
0.08613277
-0.11000840
0.15660784
-0.13180003
-0.23993117
-0.08587661
-0.08884808
-0.12104136
-0.25154945
-0.10378434
-0.13199729
0.11879680
0.16731313
0.12510587
0.12785885
0.11709064
0.00999136
0.13922058
-0.05268432
0.00924905
-0.08036862
-0.06888035
-0.06810235
0.08087347
0.07992528
0.13262510
0.00091666
0.13388595
-0.02798372
-0.05016738
0.00642073
0.05658939
0.03605022
0.04399218
0.02699066
0.04108078
-0.03248427
-0.06789427
-0.02077526
0.07929616
0.11051090
-0.05363695
0.03748565
0.05495056
0.13540697
-0.00726281
-0.08268210
0.05720476
-0.02033980
0.01238405
0.10010165
-0.09897961
0.02495657
0.01759961
0.01202521
-0.06641223
0.00255654
-0.00004241
0.00639315
-0.03959653
0.01457432
-0.00292839
0.02460395
-0.01720762
