0.01676428
-0.05581288
0.02129779
0.04136136
-0.05826081
0.01387927
0.03140320
-0.04703723
0.05515818
-0.06219152
0.00934698
0.00617700
-0.00723355
0.01522556
-0.00010423
0.02335958
-0.06671927
-0.02654032
-0.05465927
-0.06985453
-0.03789721
-0.05783228
0.02602666
0.07338236
0.01887221
0.02411401
-0.03697707
0.07354694
0.04071559
0.00315477
-0.01327722
0.04312341
-0.01066531
0.00415356
0.01845391
-0.04118161
-0.01137249
-0.05942103
0.07176784
-0.03396015
0.01073002
0.01632911
-0.01020087
-0.00721239
0.04405560
0.06279889
0.04831219
-0.02068328
-0.02539414
-0.06030784
0.00247225
-0.00761072
-0.04610414
0.02794905
-0.05199939
-0.03385184
-0.03835283
-0.04145957
-0.01326685
0.06113751
-0.06230399
-0.00770311
0.01574057
0.03826544
-0.00677010
-0.00062888
0.00141740
-0.00535057
-0.01556620
-0.04690352
-0.01966227
0.03521112
-0.06924495
0.04225048
-0.05153808
-0.02965484
0.01690918
-0.05029031
-0.04859053
0.01921959
-0.02012327
0.00020810
-0.02571205
-0.03574414
0.03459658
0.01964113
-0.01954468
0.06911768
-0.02697927
0.05075089
0.02779944
-0.06979906
0.02664125
-0.00606179
0.01704299
0.01001980
0.00463838
0.03114213
-0.01660362
-0.04948875
-0.07628739
0.06458067
0.01712790
0.02279255
-0.05244914
-0.04850125
-0.02714501
-0.03746212
0.06905435
0.01306319
-0.00115529
0.00757420
0.01717526
-0.06074020
0.03967940
0.01525505
0.00883856
-0.03573461
-0.03056408
-0.04494625
0.06628194
0.01193388
0.06957108
0.03438126
-0.05906514
0.01561472
0.01984610
0.07232127
0.03796352
0.04368241
-0.02542115
-0.04778967
-0.05870602
-0.01124200
0.00507285
-0.04724184
0.05198137
0.01891296
-0.02460080
-0.04274229
0.01390031
0.03671556
0.04687290
0.06102423
0.03360516
-0.06861528
0.09611855
-0.03196540
0.01735265
0.04187460
0.06088062
-0.03543139
0.01561371
-0.06507678
0.01941872
0.00043150
-0.03536541
0.05550260
-0.04908039
0.02624977
0.01155713
0.00062007
-0.00230339
0.05724742
-0.07932376
-0.00785622
-0.03429401
-0.07319668
0.00697465
-0.04951960
-0.05108237
0.00665776
-0.04452522
-0.03667503
0.06482881
-0.05985164
0.06173908
0.02400667
0.03258058
-0.04103579
0.00591909
-0.05468323
-0.00794230
0.01528561
0.04172991
0.05924389
0.07227843
-0.00019644
-0.03407158
0.04352644
-0.02964594
-0.01064282
