-0.01937792
0.02541823
-0.02027544
-0.01987577
-0.02432785
-0.00689062
-0.01358897
-0.05818275
-0.02271505
-0.03274818
0.03285005
-0.04644936
-0.03921692
-0.02136113
-0.04457603
0.00461983
0.00546045
-0.00653942
-0.03374753
-0.02480857
-0.01262210
-0.03942634
0.00447857
0.04032036
-0.06390958
-0.00183370
-0.01833889
-0.00608020
-0.02148654
0.04511216
0.03994877
0.01285175
-0.01820808
-0.02388277
0.00753178
-0.02290085
-0.00345870
0.02383589
-0.05308592
0.05122696
-0.01736834
0.04133652
0.00222866
-0.02229037
0.04296678
0.01711624
-0.04214812
0.02368484
-0.02428783
0.00532567
0.00910179
-0.00412528
0.01667744
0.00757055
0.02117399
0.02566148
-0.06994607
-0.00579802
0.02720901
0.02220168
0.04282083
0.01866480
0.00160249
-0.01234752
-0.01002702
0.02617481
-0.01948886
-0.03950812
-0.00075983
-0.00433549
0.04631760
0.01219026
-0.00863146
-0.01158258
-0.01177847
0.02356603
-0.02234255
0.01225619
0.02785566
-0.01741387
0.00716754
0.02068873
-0.06147535
-0.02879076
0.01675883
-0.00336473
-0.06206844
-0.04053397
0.02059928
-0.04577621
-0.00265976
-0.03878701
-0.02732485
-0.00407190
-0.00916550
-0.00422396
-0.00380306
0.01327056
0.02765466
0.00436772
0.03256341
0.00702678
0.04081129
-0.01445345
-0.04916723
-0.02207001
0.00712407
-0.01294073
-0.03776041
-0.03353640
-0.01406653
0.01936373
-0.00208754
-0.00691095
0.01727382
0.04238417
-0.03950424
0.02037153
0.01649886
0.02172240
0.02768504
0.02945331
0.03026853
0.02016408
-0.04242481
-0.01239127
-0.03594271
-0.01742676
-0.04993327
-0.00266180
-0.06305544
0.02120610
-0.01025674
-0.01394328
0.00214263
-0.04705862
0.04411430
0.00529744
0.01196822
0.01236824
-0.01018685
0.01962567
0.03036612
0.03759932
0.05246978
-0.03248861
-0.01702574
-0.01500090
-0.04704072
-0.01263524
0.01250691
-0.00524254
-0.01427560
-0.02006017
-0.01065956
0.03067053
-0.03201463
0.02950026
0.00580451
0.00906498
-0.05078111
0.00390407
-0.00489942
0.05291139
0.05446124
0.03215083
0.02769271
-0.03912479
-0.00276155
-0.03073045
-0.02722257
-0.01536740
0.02710124
0.00859973
-0.03510514
-0.04299755
-0.04182415
0.02002875
-0.05938151
0.00137558
0.01105435
-0.07015593
0.01793069
0.00760061
0.01961479
0.00311449
-0.01220591
-0.00440777
-0.04131426
-0.02392394
-0.03001965
0.01780117
