4
26
-2
-8
-10
7
-46
-15
-16
-36
-42
19
9
51
-48
-21
24
-23
0
-23
56
-4
8
53
-51
11
-4
49
73
8
17
33
-33
27
50
-41
-29
-16
41
-30
4
-15
-22
-9
9
-63
-42
-30
20
-16
-2
-13
-45
-20
51
-17
15
-21
-17
53
3
-23
57
-44
-71
-17
-5
-8
-4
13
35
-2
17
34
7
-37
26
18
12
27
-5
-20
-14
-22
33
4
-15
-20
-22
3
29
-31
33
-29
1
8
0
11
-32
-30
-7
45
-15
-16
-23
-36
11
-13
33
17
-23
-41
27
59
13
-9
10
-35
-17
9
-24
30
-15
-29
-9
-44
-36
-19
-22
10
-81
-27
-4
6
10
-23
22
45
-11
-28
42
-1
1
13
-19
44
-20
-23
1
-33
-67
11
-13
17
35
31
-19
44
-18
-45
-56
5
-47
40
-53
29
-22
26
15
8
-44
-16
41
-2
21
26
31
-47
38
-4
-8
-10
-22
39
-31
-3
39
-35
-2
-2
3
-7
-24
39
-20
2
-48
20
-10
32
15
-5
10
47
-40
-50
-14
25
14
9
-45
-2
5
15
-15
-59
18
1
60
44
18
1
-20
9
-27
-17
21
32
-3
-21
-12
43
62
-19
-20
-45
-44
-4
21
10
-30
-10
30
31
-8
-48
-8
9
43
38
-3
43
-5
46
67
54
-9
0
-66
-46
17
5
14
11
-12
32
6
-27
-16
-13
-16
-53
-27
2
-26
-3
5
77
43
35
-38
-11
-37
12
-28
-22
13
-16
-46
27
44
-70
17
43
26
58
-22
22
47
42
-10
10
52
-7
2
41
3
-10
20
50
17
29
16
-20
58
-7
-16
-60
-56
18
34
-21
-51
-1
1
-22
-27
-4
-33
-9
13
-40
69
19
-42
20
-15
95
15
28
-15
7
48
7
12
14
46
-1
27
-13
-3
-24
3
-40
38
16
32
-4
-12
-26
5
13
5
-42
-39
14
44
-25
-17
20
-12
-46
8
-30
-5
35
14
6
-6
19
48
-25
20
35
52
-1
24
-31
-16
14
2
-19
-34
-27
1
-38
-5
-10
59
-20
21
-41
-30
-9
-52
6
-4
14
-49
13
10
-6
-24
-12
32
5
-47
-5
33
-18
-15
12
14
-4
6
-2
-29
-35
44
23
0
-1
-16
-24
-25
37
-33
-33
-4
-37
39
-12
6
-37
-11
-40
-1
-30
0
-19
-33
48
-25
-42
-15
-15
-59
53
-52
21
-12
-54
14
0
7
63
35
-3
-24
22
-42
-4
33
8
-21
55
-40
-15
-7
-22
-12
59
9
-9
65
14
33
-11
-24
-6
-36
10
-40
-39
-53
-41
25
-36
9
34
20
40
-13
-28
-10
25
16
1
-14
38
-16
0
-44
-4
25
1
40
42
-33
12
25
-15
2
30
-9
75
-13
26
-28
38
-37
-10
10
-33
20
-8
-28
28
-43
-17
10
4
-49
11
-26
-6
13
41
3
-5
-7
16
56
48
-8
-46
18
-3
-29
22
18
-28
-15
-24
-19
5
-18
22
46
-28
36
-12
3
-43
-7
-2
51
3
34
-25
1
-3
22
22
-30
-31
38
-2
33
44
14
3
7
31
78
-31
15
34
27
-23
31
29
-28
-28
16
12
-27
11
-21
8
-31
-28
26
-30
-2
2
49
-13
7
17
55
-28
27
1
-29
-56
0
-19
-7
-23
-3
31
36
-17
-53
4
54
-15
9
50
-49
20
47
-19
-24
-8
-39
-83
42
-20
-33
41
8
56
34
-8
24
23
42
-49
7
-41
5
-8
-11
-54
-26
-54
31
34
33
62
26
51
58
-1
20
-37
33
8
-27
-12
-7
4
-2
-8
17
-31
27
29
-34
50
-5
20
11
18
-37
-12
-5
20
1
3
8
-7
0
-3
23
-27
9
-19
-2
-14
18
-48
-52
28
-61
-41
-20
-8
-30
-37
-25
9
-26
9
-26
17
-43
50
23
-56
-53
25
-40
15
-22
-26
56
1
-11
-12
48
-10
8
10
-34
27
2
2
6
2
1
2
34
-22
-4
50
-41
29
39
-17
-40
-49
22
13
17
15
13
65
59
-31
55
2
32
0
22
53
5
18
-31
53
-28
-11
-37
-4
-3
19
32
13
-18
35
-6
7
-29
30
7
-9
23
7
-6
9
-1
21
-11
38
17
-21
-1
3
-27
-4
43
32
-12
-13
-23
19
-8
48
-9
10
-21
53
0
47
-50
-11
12
-38
23
43
13
15
38
39
7
-45
18
-10
-44
-3
4
-13
-11
-4
26
-10
-8
20
15
-29
-10
-22
-33
43
27
-11
39
-20
22
-26
21
19
2
37
9
25
12
-17
2
32
4
-9
7
15
-16
14
-13
50
-1
-20
28
17
23
-16
-4
-20
-27
25
36
-25
29
-44
16
22
-13
-9
-45
-15
2
-15
-6
-8
-25
31
-20
23
10
44
20
27
17
-16
25
5
1
-29
24
28
-16
27
33
-42
-1
-13
49
-14
-21
-11
27
-15
44
4
26
45
12
-18
7
39
40
14
7
-63
-15
21
0
-28
-42
-8
31
1
-53
29
13
11
-1
-53
-19
0
29
77
-10
-30
-6
-48
-5
5
-50
46
22
37
-50
1
-34
31
-29
5
39
23
-38
-31
-42
41
-40
3
10
11
-15
22
3
25
4
-28
16
-17
14
-25
-13
-4
27
-27
30
-31
18
-10
59
-26
47
-8
27
-23
34
-12
-19
-15
12
-4
28
-16
-16
10
-11
27
-26
25
-11
-3
-13
-26
33
-27
-18
60
28
-23
24
31
-35
-45
30
18
-11
30
22
20
30
26
30
-9
43
-3
-21
-68
90
35
4
12
16
-43
15
-22
-36
-7
27
3
-20
-35
-51
23
-4
-13
-28
-14
60
-6
-31
-3
-1
9
71
39
-41
-14
47
-39
-7
49
21
49
25
1
-42
53
-6
23
17
-14
7
15
54
-32
7
14
0
-25
43
16
9
17
13
0
9
68
-15
31
-31
-16
33
16
3
-6
6
-31
-40
-6
48
8
7
-35
58
-2
-4
53
14
63
30
1
20
7
-47
16
3
36
-7
-48
28
11
-21
-24
-31
22
20
57
-33
-25
28
-24
-8
7
-35
50
2
9
-6
35
-37
-28
7
9
10
11
-22
-32
22
47
-43
6
-22
5
6
-10
-17
-28
23
29
-9
23
-5
19
6
-22
2
51
-60
-35
-7
60
18
10
-27
5
17
-29
27
-31
34
-12
13
20
-5
-10
33
-32
-22
8
-30
13
27
59
25
-25
-32
7
-2
34
-39
0
-1
-3
34
-23
-55
39
44
0
14
14
21
-12
-17
-29
19
73
-29
-16
0
-14
-36
0
14
9
21
-35
25
-41
17
24
-13
-33
1
-10
-6
-6
12
18
-46
-34
30
7
11
5
57
-4
-37
38
28
-26
0
9
2
8
-4
14
-42
0
16
-19
-34
4
-57
13
16
32
-26
10
-4
-36
51
-1
-28
-33
22
22
-10
-35
-14
-4
-33
58
10
27
-1
-59
49
-29
54
-10
-21
-16
-21
-24
51
-34
9
-27
-14
-6
-12
-16
-17
7
-56
-14
21
5
-32
-19
8
25
-26
-23
-2
53
9
39
11
-30
18
-23
39
22
-32
-44
-5
-19
-1
-27
-3
-24
-5
-9
45
15
-17
15
-47
-8
-15
21
-37
24
43
-39
49
33
25
1
32
-33
47
46
22
-29
26
-65
-2
23
21
-20
26
-5
10
-8
4
-28
11
4
-1
25
61
-13
10
-5
13
41
-10
11
-24
-23
23
9
26
-4
16
10
4
22
-1
26
-10
-3
15
0
-5
65
16
3
47
-35
29
44
-26
22
-14
-53
24
-38
-17
16
43
-2
20
-9
14
5
46
31
46
-6
27
-37
29
-24
5
18
29
46
-11
-1
-72
14
-2
-23
0
-17
22
2
-30
-15
-26
-30
5
-1
63
-15
-49
-46
-9
-48
-44
18
24
-26
42
22
-8
-14
-45
-24
56
45
-18
-33
-17
14
-60
49
9
-6
-13
31
-23
1
-16
-8
-20
12
11
11
-18
9
36
28
-24
37
26
-13
-11
9
23
-8
15
23
-2
20
-23
-20
12
-11
3
45
-26
-4
20
-13
-27
-8
-77
15
26
-6
43
-10
-6
-24
18
-6
-29
-14
-25
26
54
29
-2
17
1
-40
-26
-37
-36
-20
15
-40
40
-13
39
18
-5
-33
-5
-8
19
-24
-4
29
-24
1
11
2
-3
36
50
29
30
43
10
-14
1
4
35
-41
-26
-20
-15
25
17
-9
-18
19
25
-11
6
9
76
1
6
37
-11
-27
-26
16
10
41
23
2
-5
26
-4
-15
0
-34
-44
18
-8
-9
-58
-11
-26
-1
3
-6
12
-63
-53
10
-22
-13
23
-11
31
-12
-8
1
-11
-19
-9
-7
-28
25
4
-5
-18
55
25
-9
-20
-12
-4
-27
-15
-28
-22
-21
-38
-36
33
-13
8
-31
-19
-20
18
-61
34
-33
32
2
20
-18
5
65
26
27
10
-21
4
-33
24
10
-18
60
57
18
13
37
-5
-27
-32
-18
28
4
59
9
42
-28
12
-9
-5
-39
-31
43
-7
26
-11
4
57
8
45
-16
10
-38
-55
47
-30
-2
-41
8
-3
-43
-16
13
36
28
10
13
-21
40
25
1
-29
21
57
-25
13
25
-26
58
-1
-2
-18
-5
19
15
10
8
-1
-9
-22
-19
32
49
-3
34
2
49
26
31
-11
19
-5
25
34
-15
-25
-30
3
-21
57
-30
3
28
-4
-18
0
-24
11
38
23
11
85
16
9
24
8
18
11
11
-31
-9
-67
-43
-43
20
-9
-47
50
-3
-12
40
-28
-10
34
13
-4
24
-5
19
29
19
33
47
30
-15
52
-19
-18
6
-42
16
2
72
-25
23
14
-14
1
20
10
-20
10
-42
-36
25
-23
-21
-22
-5
-65
11
15
3
-36
-26
7
41
1
16
-1
-8
16
24
-48
-13
-14
19
41
29
83
12
-6
-23
-24
8
17
-49
-20
6
3
-45
-3
6
9
1
36
21
14
-48
33
44
-37
20
13
-22
-2
11
19
18
-57
13
5
27
34
9
-54
23
1
21
26
-19
-2
-29
-20
38
-17
24
8
-25
-11
38
43
-15
57
3
20
20
49
84
32
36
5
-30
7
-3
52
19
4
59
-20
54
-37
-9
-15
-45
27
15
-23
-40
32
23
-25
23
-5
-67
18
-34
9
20
9
-15
8
-5
6
32
27
-39
29
-31
0
-41
41
39
-19
-3
-34
-23
-24
-25
11
-34
-7
29
-16
6
20
51
7
10
54
-27
55
-33
-18
31
47
-10
52
12
-30
19
-15
10
-22
-36
42
33
-32
-27
-33
2
13
43
-11
-38
-19
-29
4
20
33
19
42
-4
20
42
0
48
-26
-43
-5
35
-1
33
-23
35
2
31
26
-8
-34
38
44
2
-27
-72
17
36
20
12
-15
-6
-10
37
-9
-30
54
2
-11
37
-54
-40
-26
2
-4
29
-1
33
-50
40
26
24
11
3
56
10
9
57
32
13
50
-25
-19
8
-2
-17
-3
-20
-28
22
-28
-33
38
25
-8
-8
-21
-8
-3
-14
8
1
-4
-38
48
-53
14
29
16
22
21
12
24
17
36
34
-28
58
-54
-23
21
-9
33
-1
39
-22
26
59
-4
31
-7
30
33
-23
-31
15
44
29
11
20
-30
13
24
36
-10
13
25
42
16
-25
-1
-17
-25
45
15
-20
-48
-15
-31
-1
18
5
49
22
36
-28
12
22
29
-17
14
-33
-49
-2
-5
24
3
-14
-25
6
-8
38
-15
3
-14
-17
-12
-11
13
-40
-2
73
45
30
-59
-14
31
-35
-9
-5
35
-18
-37
-29
10
71
13
-10
3
-1
8
-19
35
32
46
-37
26
-18
21
-56
4
6
-1
-2
38
28
18
35
-4
-43
-38
-44
18
31
9
-7
-49
-11
-19
28
25
27
8
35
0
-20
11
-35
30
20
24
8
31
-17
-12
-18
-16
23
10
25
6
20
61
-13
23
-34
-18
-3
20
-7
-17
5
24
8
-12
-14
-15
-7
35
-4
-18
15
-40
19
-42
3
-5
-7
-60
-7
-32
23
16
26
49
5
-68
-1
19
25
9
-29
30
-18
-32
-20
4
-12
35
-19
-23
31
-5
3
-10
0
5
61
-14
-1
15
-1
1
-22
9
-4
-12
29
0
1
-14
63
-24
-14
3
-7
28
-33
28
-30
23
32
35
-21
41
0
4
7
-10
-14
-25
-29
22
1
-22
-14
28
-31
15
-24
26
23
-4
-20
-11
-57
10
-20
10
-12
39
42
11
-37
37
-5
30
25
-15
11
-2
-49
-2
2
-31
-40
45
-22
42
-30
-4
-13
-16
-17
13
28
24
-16
-12
40
-1
-14
-1
-4
-12
0
11
-2
10
-30
20
4
-20
-9
-25
-14
-27
-31
-2
-56
26
-47
-15
-17
6
-5
-4
-33
26
17
-3
-21
-16
30
7
-8
-28
10
-15
-9
-7
22
-44
-5
31
-15
-34
-35
8
-16
-11
12
-13
12
3
-30
-5
-34
-11
15
9
20
36
-37
-56
25
26
-13
-29
-8
27
-24
29
-35
-27
-2
-44
-43
22
-6
-3
10
10
30
-31
-39
26
-9
-28
-40
-9
20
-80
-36
-4
-6
43
-8
-29
11
25
-9
4
4
-14
-26
27
36
37
-6
-39
27
29
35
-2
27
-17
59
-46
10
19
-41
12
-12
45
-50
2
32
62
14
34
-21
-51
15
61
-49
45
4
-43
-13
-11
-9
53
36
-41
-3
35
0
4
58
43
32
14
-60
35
24
-13
-6
15
0
-17
-11
-3
-61
65
12
-2
5
19
-39
-14
28
-12
13
8
-21
-8
2
18
30
-45
-11
-5
20
-59
-18
7
2
45
15
25
-18
-9
43
-49
-29
-45
15
-44
2
-29
-14
-13
2
11
-30
3
-26
2
24
-13
21
6
39
-8
-23
-5
25
-2
15
38
-32
46
-25
14
15
66
0
3
-3
-18
49
35
1
-14
-9
26
-24
-5
11
7
-6
-46
-59
15
11
12
4
2
3
16
-6
9
5
30
-22
-40
-7
35
-24
0
7
-10
-9
-53
2
24
35
7
1
28
41
1
6
12
-24
13
29
10
11
11
-18
10
-11
-14
-43
10
-25
9
-6
24
-40
32
3
9
5
39
53
-47
-40
-34
20
-31
-19
24
4
-34
26
11
-2
22
-5
5
-29
9
-42
-19
14
31
-33
-29
24
-37
10
1
52
2
12
45
-17
8
11
-27
-13
-2
3
25
-3
13
15
-23
-22
-12
-44
-42
6
-22
-47
-29
15
7
7
37
-6
30
43
-51
-43
15
-15
37
-3
21
12
19
9
13
-3
11
1
-36
-28
-3
-12
13
-48
43
44
1
-11
-3
-24
-36
-39
-4
-55
-50
26
-16
40
3
-21
-25
16
3
-18
30
-54
12
-23
-4
-11
-35
-35
-67
55
-9
-27
-14
7
-14
-29
13
28
-44
22
-32
22
24
-27
33
-17
-33
-3
30
-11
19
17
-20
-14
-16
-41
8
-5
-48
-13
-44
-29
-16
10
-2
15
-2
13
20
28
-46
-3
8
11
9
17
-36
-31
-12
-44
-44
-34
-23
-20
-17
2
-7
-50
-31
-11
19
21
38
46
32
2
0
3
-14
10
-58
0
-8
1
-31
3
-27
41
-44
-28
40
15
-12
-36
-47
43
-11
-10
2
20
11
-12
7
18
-3
24
78
2
-2
36
-44
17
-42
44
2
-15
3
-2
38
16
-7
58
-21
10
-8
-30
10
-29
-10
-28
-2
10
-54
2
-14
29
-7
-7
-59
6
-9
-40
-17
14
-56
-12
-8
7
47
-40
0
-63
20
10
-39
28
12
-13
6
-23
2
3
23
2
-45
30
-14
-24
-10
-5
-15
7
26
8
-15
-18
17
-28
-4
-23
-16
-23
-33
-23
-33
-34
1
-4
15
-60
25
-11
44
-25
-28
-37
-31
28
-20
-10
8
-10
-7
31
-14
-22
11
9
5
22
19
-4
14
27
26
-21
-9
-4
-48
-40
2
18
31
-42
-19
-22
25
26
-32
45
18
-4
25
-29
-40
-28
-11
34
20
-51
29
-26
56
-46
-46
13
2
24
4
3
14
-15
0
-20
-17
-47
-41
20
-47
2
-2
-25
-7
-82
-26
-14
1
31
-4
-51
6
-21
-25
-13
53
-26
-49
-35
-2
-18
-7
26
43
-21
-26
27
18
2
19
-11
43
-5
12
55
41
-27
-10
15
-4
-13
57
-24
9
34
-42
21
40
15
-21
-13
-59
-29
83
21
7
-25
-24
-16
-39
-5
20
-47
-12
23
19
36
32
-38
-4
32
-48
30
-44
-42
-39
-32
8
-30
9
16
-17
-43
32
-12
2
-30
77
-21
60
72
29
28
-22
-27
-48
61
-29
-17
-41
-10
82
-1
-42
6
-71
-22
30
-10
-7
23
-31
-5
-12
-1
41
-15
-2
-28
6
29
-1
-42
40
-24
0
22
-43
-35
-16
14
-13
7
35
-26
11
-1
25
-28
22
-40
7
-20
10
-73
20
9
-16
41
27
31
-55
-6
28
32
-9
-17
-20
47
-61
50
-7
13
-8
38
48
29
-4
8
-17
14
53
-1
14
-25
41
-3
55
52
56
48
-43
-10
-48
42
-48
-24
-15
-5
-67
-29
29
58
8
45
48
-29
-45
-7
1
-59
50
5
39
16
24
-5
14
11
-47
-9
-46
25
5
3
-14
63
-45
1
-31
6
28
-43
41
7
23
-12
7
58
77
18
1
-5
51
74
11
-18
-29
3
-7
2
-25
35
-71
65
35
-37
-3
10
-20
-19
16
33
29
4
-17
1
13
5
2
-33
9
38
-26
-32
-42
0
-5
10
24
-31
14
-32
35
42
33
13
0
-1
-7
32
31
46
68
-24
16
25
2
-17
-4
15
44
54
-12
27
-19
-27
-33
30
17
-37
-54
-46
30
10
-22
12
12
-30
26
36
-31
7
-16
3
-6
-37
-21
19
28
17
39
-34
7
-33
-12
23
-65
-2
-17
-47
-33
-4
-1
30
-29
-46
24
-45
-20
8
-9
19
-19
-2
-19
16
-10
-21
97
44
-1
-5
30
-16
-13
-13
-20
20
20
68
35
-21
16
-64
2
-17
26
-5
-39
-5
-11
32
4
-24
67
54
-19
72
-31
16
-22
30
28
42
-32
-36
-40
-20
32
-31
-19
50
5
-46
-10
-14
-9
-41
2
32
30
-50
7
13
3
9
28
27
63
0
15
-9
24
21
21
41
-5
-23
8
27
-45
1
8
-8
-1
-26
-47
-13
-33
-17
39
-10
-26
56
40
50
-23
-15
-26
-26
-39
14
24
-10
-63
11
13
-28
-33
0
-16
13
-27
5
-8
24
36
11
-46
-13
30
10
26
-31
9
-14
20
-24
-5
29
-24
58
29
-45
-15
-17
32
-1
-14
-49
15
-6
-27
26
-1
-2
24
-13
5
-49
37
-20
-22
20
49
8
39
26
30
64
4
-13
13
37
40
-15
30
36
-30
7
44
-44
-19
30
1
51
-15
47
-7
46
14
45
34
-61
-27
-5
-5
27
-7
12
24
-31
-37
-7
11
15
58
39
-39
55
-49
22
6
-14
-12
-21
2
17
-29
-18
37
38
-2
-10
25
10
-25
-23
-10
-6
41
40
15
40
11
12
27
-23
49
-29
-6
2
51
30
14
-17
10
2
-20
15
19
12
-50
-2
37
8
42
28
-32
-51
-6
-4
-13
-25
-9
5
21
36
34
-20
-52
-23
3
-30
26
9
41
5
36
42
-15
2
18
-58
51
-35
-44
-5
-45
4
5
-48
10
-18
35
-21
-30
11
-37
-32
21
-5
-33
10
4
62
44
20
71
1
13
8
2
-6
-13
32
21
-31
3
49
38
-4
-37
-65
-24
25
56
2
31
52
-44
6
-42
-11
-1
10
-30
61
-22
-15
-2
15
30
8
-28
-5
41
-47
-63
-18
51
-46
-15
-18
-20
12
-22
2
21
16
-17
65
10
2
5
-32
-1
2
-50
35
-32
-19
46
9
3
16
12
71
-57
-50
1
-10
7
38
59
18
-35
-51
28
39
1
28
63
-31
8
35
-17
95
-16
-9
6
69
27
35
15
-4
-3
-15
22
-6
-33
-16
22
57
31
-2
12
-94
71
-19
52
5
-30
2
2
56
49
-5
-51
-24
42
1
-33
-20
-32
34
45
-44
4
11
-10
3
27
12
-5
-30
-8
35
0
-5
9
-53
-55
-27
-24
-1
-23
13
34
-50
57
20
57
21
2
35
41
17
-33
-69
11
26
0
4
29
-31
-56
43
-81
-16
9
11
49
17
-28
-16
-12
18
8
24
-13
-4
-4
30
7
10
0
52
-6
-28
-7
-46
-66
-16
25
-25
8
-32
-15
-39
25
-20
6
-8
-37
41
-10
16
-16
-9
53
14
0
26
8
13
-56
-23
27
-26
20
-8
-12
0
74
-18
-42
48
44
-14
-37
52
-59
25
55
1
50
52
23
45
30
49
-24
-37
18
26
47
83
29
-22
0
-28
-16
8
7
12
0
0
9
57
22
60
-37
57
7
14
-62
17
-7
-23
-66
55
10
-18
38
-17
11
-18
3
33
51
-8
8
-23
14
-47
60
-15
-34
0
24
-43
-7
-36
39
-13
35
11
-37
-21
-19
-42
-82
12
2
12
-104
35
16
-19
37
-5
-5
38
27
-12
76
18
23
32
-9
-32
61
-7
1
-4
-8
-22
-44
53
41
-20
-31
2
23
-41
17
34
-22
45
-11
-5
28
18
-26
20
7
46
-24
0
3
41
42
35
37
18
42
39
2
62
-9
-21
34
27
-2
45
-42
69
10
-30
-22
-9
8
60
43
-11
-39
-35
9
7
32
-11
30
18
-76
27
-20
-8
-11
-24
13
-30
33
-8
4
-26
4
7
-6
13
-38
-16
-4
-25
30
25
-18
22
-55
-10
-19
-23
-30
40
1
-21
-29
-17
-78
-20
-7
-16
-5
2
-1
4
80
40
16
-20
53
-34
-3
-5
32
6
34
16
20
38
60
14
-36
53
-45
24
-57
-27
-1
9
-38
-56
13
7
52
43
-15
-15
-4
-14
9
-74
-7
19
46
-55
12
3
-55
1
22
-22
26
51
49
-9
-62
-13
-43
-27
13
-67
16
16
-61
61
-20
33
36
-23
16
44
42
-51
-48
-9
31
32
-13
33
-57
-40
29
-19
15
6
-5
-21
-30
-41
6
-26
-77
11
17
16
4
-19
-45
25
-44
62
-16
1
-56
-40
24
31
-39
36
3
-32
18
-24
-35
-13
-10
16
-4
5
-5
9
15
27
-26
8
37
10
52
-63
-15
66
-13
27
-40
8
-75
-9
11
31
50
53
-9
-41
15
-33
7
17
69
-9
-18
18
37
28
23
78
-37
-32
-14
-27
-33
-26
-53
20
-45
-35
-19
-11
38
-20
44
69
15
6
-20
47
-7
-11
11
50
-56
26
2
27
-73
12
-30
37
-14
24
-43
63
4
-7
-51
-15
61
-2
42
17
-6
2
16
16
-37
-49
2
-41
-15
-85
30
-18
-2
45
-5
-12
24
1
-65
-13
25
-32
-23
21
6
-10
-71
-30
-35
39
9
2
4
16
-14
1
47
59
-35
-18
42
-13
0
1
-61
28
-30
8
15
-24
25
-45
-26
6
-12
-43
-12
-4
14
10
11
-14
20
-26
37
21
27
-34
-8
-8
61
-27
-11
-5
-3
13
-23
-30
18
-96
-43
21
-7
12
34
4
52
-2
0
34
-4
24
-10
-21
-61
19
46
-14
-8
-11
59
-15
-35
-18
-31
-27
37
11
-23
-46
-18
29
23
-39
21
-31
23
17
12
9
-28
-35
-67
42
35
37
33
40
14
-33
-26
79
-39
108
103
-16
-33
33
46
47
13
2
2
36
-39
13
11
-10
-41
49
15
-10
8
-8
-28
36
-62
11
32
87
-40
62
4
8
-11
-7
-29
13
26
6
-35
20
93
34
-17
-1
-15
37
-5
34
34
-24
-50
14
-66
22
-27
-38
58
12
23
29
40
-55
65
37
-47
-5
83
-33
-8
14
-18
-9
-18
57
38
-34
34
16
-13
0
-2
-36
11
-38
16
-30
-14
122
-56
-18
-66
13
-7
29
41
-46
-17
34
-51
-2
127
-24
-3
8
-12
-31
28
57
33
40
-32
-53
9
46
-27
9
14
35
19
-56
-55
-23
44
51
-17
-4
64
-1
36
34
-25
36
-23
-40
-40
-8
15
-12
-22
-3
6
-15
73
68
-4
25
45
-2
-17
4
-4
-3
-30
-68
19
-58
-13
111
39
-8
-34
-71
-16
-20
-9
15
-11
55
12
30
19
24
16
4
16
3
-8
-18
20
2
-14
53
36
20
14
-19
-21
-10
-33
12
9
19
26
8
-36
-11
-12
23
-21
10
31
25
-8
-28
-20
38
35
30
-60
46
14
-8
-25
-56
-24
32
15
62
20
46
-25
-2
-1
-47
-17
-18
4
-7
-41
9
-25
9
7
-27
21
6
-10
-4
-20
17
9
1
-41
18
37
-29
-25
-31
8
-14
-25
5
-21
-3
-25
-16
-32
-32
1
24
-39
-13
-27
-35
-5
18
-17
15
20
-17
16
-35
0
-28
-39
-31
-12
-17
-25
-1
0
15
-29
-37
-10
37
-18
8
61
6
-6
-8
-37
-36
18
0
-25
5
33
28
22
-23
23
-35
-37
-18
-4
-49
5
-4
27
-33
6
-6
-22
49
-17
-50
31
17
9
9
-30
-8
27
14
-17
-35
44
0
22
4
-20
-49
0
33
-4
47
-25
37
-16
9
7
-9
38
-10
2
19
-37
9
-32
2
-6
0
-9
15
4
-65
28
-40
-18
-22
41
-19
-5
7
16
45
5
35
20
-5
-8
13
13
0
9
34
-17
-9
21
-28
25
23
9
43
-48
12
-17
15
33
41
34
35
19
-28
20
-22
-10
13
-1
-25
-9
38
39
-5
-39
3
2
-16
16
-21
-21
8
-12
38
4
-12
15
-8
-38
-17
30
-25
-16
-10
-26
44
-13
-3
1
-21
23
16
-31
-13
-9
-42
20
11
29
-22
18
35
-11
33
20
-43
-19
4
-40
-21
34
10
-27
-26
6
13
-24
14
-3
-16
-45
2
28
-18
16
-11
23
-62
8
51
22
34
32
-8
-12
3
24
41
-26
51
-7
41
55
-9
-10
9
-11
-26
26
21
23
6
29
14
53
-3
23
-29
-24
-2
11
50
-17
49
16
2
-22
14
31
0
-12
17
7
21
-45
19
43
-19
-3
44
38
-7
-11
21
-8
-38
-24
66
43
20
-4
-32
-9
37
29
-6
-4
-31
19
-25
44
-15
10
22
-26
13
-14
-13
63
-45
50
44
15
-2
-28
-2
24
-24
24
44
19
33
-23
6
42
-25
-2
29
-26
-23
34
-25
3
29
-5
-5
-42
-12
-41
26
-51
48
33
13
-10
43
-24
10
-8
29
-7
44
27
-4
-41
11
-6
-11
-18
-38
-18
-27
10
-25
16
-4
-8
-31
-36
-16
-23
28
9
9
1
16
5
-10
-23
38
19
4
9
6
-35
-34
31
-5
1
2
-5
-28
-13
-18
41
36
9
-12
3
42
33
10
15
14
-8
29
0
-44
37
10
-8
14
23
30
-31
-20
-16
-3
-21
28
13
-23
-3
-22
-16
44
-40
-7
-56
-34
22
21
-4
-29
17
10
18
28
-37
-36
14
49
24
-35
36
-13
25
-23
32
16
-37
-53
28
-13
29
20
-5
23
-11
-52
16
8
-46
23
48
-15
0
15
1
10
-21
0
15
23
-24
20
-11
-27
43
19
-62
43
-43
39
30
20
-15
-47
-24
7
-1
42
8
-33
43
1
-21
-8
-9
7
12
4
-11
-33
14
18
27
9
-1
12
-8
-2
-12
0
23
43
0
-27
46
-62
-14
12
-4
17
-5
0
24
4
37
-25
24
20
-7
15
-6
-38
15
12
-5
-15
10
8
-24
22
17
5
16
13
-5
-24
17
-11
39
-8
-14
-12
44
-41
-32
-4
51
-16
38
9
-27
-22
66
12
13
35
2
6
-21
58
10
-9
-26
38
-27
32
36
33
-32
-47
-17
24
-1
0
16
-22
-2
19
47
63
18
33
6
50
16
-17
14
-16
-18
15
13
-8
53
3
-12
11
32
22
11
2
-6
30
4
-21
-33
-11
-13
24
31
9
-14
-2
-18
-30
38
-36
32
30
-48
38
-46
-19
5
-9
2
1
13
35
6
-34
-13
27
18
-43
9
32
34
27
7
18
9
19
19
-23
-31
6
18
-6
12
-15
17
-10
64
-1
48
-45
-13
-22
-24
21
37
-23
31
2
15
40
8
9
-32
22
-6
-43
-6
51
29
47
58
-2
41
37
-17
-7
-41
20
-36
34
9
26
-7
-26
24
-3
-48
1
-1
-38
-36
28
32
-18
1
-53
37
52
11
-34
7
50
56
22
30
59
21
-37
7
-12
2
-19
16
25
31
6
-29
14
0
33
-49
28
-54
4
-20
10
-4
2
-87
-7
28
2
-39
5
-53
33
6
-35
-12
54
41
-42
-19
-9
-22
22
-106
-11
37
27
-5
32
-60
-19
14
15
-37
-39
-11
-9
9
-41
-60
-63
-6
59
50
-1
-21
-3
2
41
39
-29
-9
-35
-42
33
-21
12
45
7
37
4
13
-10
-8
-11
7
-29
0
-21
49
-37
-32
12
-24
26
14
20
1
-6
2
-31
-30
10
-32
48
-5
42
-52
-4
-73
49
32
12
47
30
60
-4
35
-21
20
-56
-1
6
-32
51
10
39
33
26
5
-42
-16
7
-19
13
-24
-72
7
-30
17
11
-21
-92
-6
-17
-18
-56
-71
-14
-48
-7
10
1
-9
13
62
-26
-16
68
32
42
-20
-16
4
-9
-48
-10
-32
-71
37
56
-11
-35
19
34
20
7
-22
-31
-16
32
-21
29
-8
17
-49
-57
-29
43
-8
-29
9
-35
3
-4
-18
21
34
-12
8
26
38
-29
8
-1
-11
20
-43
12
-22
6
-15
36
-4
-50
35
16
-26
-29
26
32
10
4
43
-28
-12
-66
42
29
48
15
-38
-50
-6
-27
-34
-49
-3
-20
-11
23
6
12
2
-53
13
-23
-88
0
-21
25
-75
-23
-9
52
-12
14
44
-28
-61
-13
1
-3
-29
0
16
15
4
30
40
-4
-22
17
-17
8
-14
-25
10
64
7
47
-45
40
31
-77
3
48
50
55
-71
39
2
20
-18
-23
33
25
10
21
-6
20
-11
2
-36
91
0
5
15
-18
-84
-11
-12
48
35
42
6
10
-25
-38
42
12
4
85
19
20
4
26
29
33
-23
-7
-28
-72
-30
-23
7
-3
-2
56
11
41
-24
-26
-18
-15
-19
8
23
-34
-7
47
6
-9
23
-19
19
-39
11
-33
-17
19
-54
30
5
-64
25
-36
-4
-26
-27
-25
-34
-2
-33
-20
54
-9
63
19
-61
-16
-9
37
34
-27
-22
-6
-27
-41
47
16
14
-18
-12
9
-29
11
38
23
13
-21
17
6
80
6
-24
9
21
-23
-22
48
36
13
-20
-87
-57
21
-15
12
-15
4
6
56
-16
4
-48
-53
19
-6
-5
22
5
-10
-23
-19
51
-38
-2
-24
30
-5
49
91
-25
-35
-85
2
1
-29
-36
34
-34
35
-44
-14
-17
-25
42
-19
-14
-24
-36
49
19
-57
42
-10
-19
-36
-2
-56
-51
10
-16
-16
-4
-18
52
-18
-48
-18
7
31
18
13
-14
6
-15
-20
43
-15
33
6
13
-19
26
-50
51
76
35
-6
-24
22
-3
-57
0
-13
31
42
-13
55
11
-34
33
-13
-32
25
34
7
0
-35
56
32
-64
-18
-20
-7
-20
21
-15
-13
30
32
-67
-42
-63
2
10
15
-23
-2
4
-8
-13
8
-21
0
27
6
-15
14
30
8
5
-35
21
-19
3
-13
16
-20
53
-35
-74
2
-24
-20
26
17
-14
-67
32
-60
-12
1
12
6
15
24
-31
10
3
-75
-11
-20
-16
-23
22
-24
-53
-21
-27
-27
28
-39
6
-42
-9
-2
-36
32
20
22
22
-45
6
-27
-45
-15
31
19
-26
-10
-2
23
-44
-2
-13
12
-32
71
-13
-53
-20
31
-19
19
-26
-37
26
-3
-17
-48
-24
-1
-7
-24
-26
-10
8
47
-17
-42
-38
7
-83
-27
-34
30
13
22
74
5
6
-58
-28
2
-23
-15
45
-12
6
-30
-11
15
2
12
-4
4
-17
-56
1
20
9
22
7
-35
-17
98
-67
-45
-14
-1
24
-36
-19
-52
-30
-18
-92
-32
45
21
17
10
15
9
4
26
-18
11
-43
-6
-11
40
1
-66
-33
55
16
5
-30
40
101
32
18
9
-25
2
-50
47
6
-30
12
51
-27
25
-27
-38
-23
28
-1
12
-24
27
-3
-3
2
5
27
43
23
-11
21
-29
16
4
-6
-23
-31
40
-9
-13
-11
5
37
-33
-9
-24
19
35
19
-29
-10
28
-19
15
-11
35
-26
28
-16
-20
-21
-45
1
-4
55
45
-24
-18
18
27
-10
3
1
-8
63
-40
-11
-29
-16
-25
12
-62
-28
45
16
-46
-1
20
46
-77
-15
-18
11
-26
-10
39
-25
-2
5
-14
29
-31
0
3
-38
31
1
5
27
-3
14
-50
24
70
0
-33
-9
21
19
-30
-5
-60
-29
39
21
-29
38
-27
52
-9
-45
-44
-8
16
13
-32
-7
19
30
21
45
20
0
33
-6
-45
41
27
-7
17
35
12
-2
24
32
32
5
42
7
32
-7
0
17
19
7
-10
23
20
-34
-19
-18
25
-21
24
61
9
45
-22
-14
14
-24
-29
26
-29
-42
-4
-31
5
17
-42
-41
51
18
-4
18
32
43
23
-55
16
-48
-29
-23
4
-29
39
-33
-17
-45
10
-17
-55
-28
-12
-7
29
-12
33
-29
-19
19
-35
42
-34
-15
-13
-20
-1
10
-13
51
-17
22
-79
-3
-14
33
-17
-28
42
-15
-43
-2
0
47
43
15
20
-33
-42
-1
7
22
-3
22
-45
5
34
-40
-5
13
1
1
13
-16
-11
-16
29
27
-22
44
35
5
-10
8
-10
-46
63
-9
-4
41
20
12
3
15
-16
-32
4
25
-34
19
9
-39
14
6
-14
-14
4
-40
0
-16
24
-20
0
-22
15
-1
-34
28
-8
7
18
46
-15
-7
27
-25
-47
2
-11
12
-23
1
-5
53
25
-3
-4
11
26
-4
67
-46
12
13
17
-14
14
-3
-33
4
-1
-3
3
27
-33
-20
-69
43
-36
38
-20
20
-41
16
-20
1
-16
-3
-2
11
5
-10
38
8
55
30
-29
-13
0
15
-23
38
0
-11
-5
59
-16
32
34
13
-16
-1
8
22
-26
11
-6
-11
19
28
-22
-61
-55
-43
-20
6
-17
-19
39
-30
16
7
19
-33
-37
38
58
-10
-11
-7
35
-3
26
-21
-2
13
12
31
34
-20
6
16
19
-31
-11
-7
4
10
1
16
2
-23
55
-8
21
21
-9
-39
-18
18
23
-50
-12
51
-8
-6
-17
4
-38
-3
11
6
-30
36
16
-19
34
32
-23
-29
-6
16
-38
-21
3
-9
21
-5
37
-5
-13
-7
5
13
-46
-29
-21
-12
-2
21
19
-26
16
27
-1
-34
-32
-34
-16
-43
25
-29
43
-40
43
27
-67
19
-1
14
1
28
-49
27
-42
-6
-13
-17
14
39
41
7
-17
2
-17
42
23
10
13
10
-50
8
28
49
8
21
14
23
-18
30
-14
-20
25
44
-17
-42
-40
-25
-36
-29
47
-65
-32
31
12
-29
-23
-24
17
-32
-20
-34
0
-24
12
-31
-35
-2
72
14
-9
-28
0
-41
-14
0
-15
-21
-36
18
7
20
-45
1
40
-15
7
32
-11
-6
-12
11
25
-1
4
13
13
-8
-22
54
-8
-19
39
27
26
-8
-17
12
33
-9
-51
-20
46
9
-5
15
-8
-27
9
49
-22
-30
-22
35
-46
6
-21
-2
-22
7
-12
-39
-19
0
-30
22
1
15
33
-1
-41
14
-14
-12
41
3
26
6
-36
-18
-28
-25
-41
-11
-47
13
1
19
-24
-27
-22
22
31
-7
16
-38
-31
37
10
19
-27
22
-35
-17
-66
-23
23
2
15
-5
-3
-32
1
28
-7
-41
10
6
-30
-15
18
-22
28
33
-13
-10
-46
22
20
64
38
-49
52
25
13
-55
28
11
42
36
4
-37
-34
-34
39
-61
6
3
1
-18
-42
14
-15
10
-39
-25
-16
-50
-27
3
-42
-15
-24
-43
33
29
-31
17
-22
63
6
8
-51
-3
-12
-3
20
27
34
-45
-10
-6
-15
32
72
-16
-60
-63
31
31
-69
15
1
-39
3
33
18
1
27
-52
-7
1
-24
-31
20
18
6
17
-5
22
-14
33
-12
43
-7
-39
-50
-37
-43
17
20
39
-15
52
34
-21
23
15
-6
36
15
-57
-1
-10
4
-26
-6
37
49
-4
8
24
-6
-13
13
27
24
17
-21
17
24
-15
2
-8
36
-13
-19
6
28
11
17
23
-30
15
-33
-56
-20
-23
22
8
-8
1
-8
-14
2
-21
7
7
12
54
2
3
20
55
31
20
29
-34
25
-28
-27
10
40
-6
26
-11
10
-16
29
-44
24
15
-2
14
-20
17
-23
17
64
29
-2
39
-32
14
10
45
11
36
-15
46
14
0
-16
-1
-3
18
-22
-36
12
-38
-35
-15
-21
27
55
-18
41
46
26
-15
25
-21
49
-15
13
-17
17
11
-37
-67
51
-37
10
53
35
4
12
45
26
-39
-10
-37
12
-11
31
9
-9
21
-46
-4
13
-7
-6
-29
-30
46
37
9
19
1
41
-4
35
-7
-50
14
59
30
17
-15
-44
-14
10
-17
10
5
-26
52
6
10
62
-13
60
18
21
-13
-2
40
12
-45
-25
-49
-28
11
-64
34
-7
18
7
38
-1
3
-33
7
-37
37
20
24
-22
-5
31
30
17
-32
-52
24
5
5
41
22
9
-44
47
-7
28
-41
-1
-8
41
4
-5
12
28
-44
13
40
26
-8
30
18
-26
25
38
44
-42
36
-28
-31
7
-65
34
-12
5
41
51
-24
12
-7
41
-32
-32
-23
-13
0
-6
20
-3
-52
2
17
-21
-31
26
-17
12
32
-57
22
41
29
61
33
37
-17
-38
-56
-7
25
-41
-13
8
8
-20
14
-39
35
-58
-41
9
8
-4
-16
20
0
-35
-19
4
-14
32
3
-23
-20
36
7
10
11
45
10
8
25
-2
4
56
13
-65
5
-82
6
-54
8
18
-33
-12
-32
-22
-13
-21
48
28
35
-28
43
23
21
17
3
11
-25
23
-12
-6
12
-28
0
-46
-25
-14
-12
26
-53
46
-31
16
12
54
28
-9
6
10
-14
-48
12
26
51
-38
-45
-33
-3
24
36
9
25
16
34
28
9
-2
-4
9
23
-23
4
-34
-44
15
-40
-18
45
12
-21
26
-11
-26
-4
-10
6
18
-13
2
-1
20
-31
35
4
13
-5
11
-21
-8
59
1
36
3
6
-39
-24
13
14
-3
8
-38
-19
-28
25
-16
-20
16
2
-19
-4
-17
-33
-27
-18
0
-11
12
0
22
-26
6
-27
0
-35
12
-30
19
2
-48
-18
-13
9
59
-28
-24
-34
-25
11
39
-1
-20
-36
54
-16
-6
-27
-40
40
9
44
10
13
50
-15
-13
35
14
67
-6
61
-44
45
-33
43
-40
-27
-4
40
-12
-3
62
0
-12
12
32
28
47
-8
14
2
1
-18
-19
-24
41
-37
3
15
2
-10
-8
45
-22
9
-29
55
-19
10
-62
33
-10
53
-21
-16
27
56
26
32
-3
0
28
53
37
17
-22
43
6
39
28
17
38
-22
12
11
3
-3
8
-17
16
4
6
55
2
34
87
-10
16
-8
-10
52
-8
26
3
-30
27
-14
24
22
-9
4
10
17
8
0
-30
11
32
-17
4
-15
31
5
-15
-32
12
-9
12
10
29
24
3
-21
12
39
2
-1
-32
32
-31
-21
2
39
39
38
-2
12
63
-33
-23
-16
-48
25
41
26
17
-36
38
39
-20
-8
14
-32
20
39
-7
-41
-3
13
-9
-38
26
14
-19
-21
16
-9
25
19
-13
50
-26
3
37
16
-34
-5
-12
52
-2
22
47
8
-10
-14
18
4
-61
17
45
5
3
2
18
40
-36
5
22
49
27
-14
-29
27
23
-5
12
10
-25
28
7
-22
11
-1
1
17
3
19
-15
17
-3
-2
7
-16
-25
-16
25
43
35
13
-5
40
9
12
49
35
-8
20
-30
-3
-25
-21
22
54
-20
30
37
10
-8
37
-4
-13
-11
-3
14
26
-12
-14
0
53
-52
3
-17
33
5
-21
67
-34
33
-14
36
-22
38
23
-27
9
-7
-47
41
13
-22
90
-5
28
19
-1
-36
9
-10
77
-35
-19
50
-2
-40
36
-33
-3
-41
43
1
44
8
11
35
-14
4
17
6
-24
27
9
54
32
43
-28
16
2
42
-38
-4
8
11
48
33
-10
-30
-21
14
16
-35
-23
52
17
31
-38
-1
47
-50
29
-16
-19
9
20
-5
12
28
-4
-13
29
-29
-32
-33
29
31
10
27
7
-7
-30
11
55
33
-12
-30
24
-9
8
9
-37
-29
14
-22
-48
-17
-11
33
-14
-54
-24
44
1
5
54
16
24
50
-10
21
-38
-25
46
-21
11
12
-27
-23
-20
17
-27
-12
46
-25
-28
-4
-8
17
48
-26
-15
23
3
-40
35
21
10
35
67
13
12
20
-66
12
-8
-7
-35
-16
12
5
-33
7
-74
31
35
4
22
31
-4
54
-33
2
9
-33
10
-36
-50
-31
24
27
-10
28
9
-16
32
-10
31
37
10
39
30
8
47
18
-5
-29
57
28
4
49
-18
-16
7
26
1
-5
31
10
-33
-26
3
30
34
30
-25
-22
19
0
-44
16
8
24
6
-21
7
28
8
6
60
-4
37
-25
16
3
33
21
42
-10
-53
-37
75
47
22
30
15
38
-6
1
-20
78
-10
-9
35
0
-3
-2
32
-6
-15
-6
-16
27
18
-25
22
13
-12
9
-20
25
23
22
-26
8
8
34
10
-7
-31
8
6
-67
-22
2
26
-47
35
71
34
-40
35
20
8
12
-1
-18
-15
43
-1
12
7
-16
-1
-14
31
19
13
-12
9
-28
58
-2
34
10
-16
-24
22
4
-14
17
-23
2
13
-8
-9
-13
-8
-10
25
-17
25
-10
-43
33
10
40
31
-6
-25
23
13
19
26
24
-50
-24
-5
-36
5
-4
3
-5
-8
-18
-5
-51
36
14
-19
-24
18
-22
-4
19
65
-27
-7
27
15
-51
-33
-40
47
-23
-33
-27
19
13
-26
-24
-17
48
1
54
0
-11
-12
18
57
31
1
23
-10
-3
-41
-38
11
12
2
-47
-31
-7
27
-2
51
-3
-17
-11
24
28
-16
-52
-28
-56
31
-14
-16
-17
-25
9
6
39
-3
-2
31
1
22
-1
-21
-30
62
49
14
-36
-16
2
-9
-25
-10
-33
-11
-10
15
31
6
-57
-13
16
30
-46
58
-9
-19
10
55
48
1
31
-35
5
8
-41
8
-16
-1
1
-27
-50
-37
-43
-14
34
-28
-10
29
-22
-14
49
13
-16
-49
-24
-43
-11
-50
27
-36
-5
6
2
35
11
47
30
16
14
42
-31
-4
47
24
0
-11
40
-16
9
28
-10
-15
-20
20
-46
20
27
50
-39
-53
32
21
11
23
-31
-10
-17
1
18
37
10
-6
42
33
-15
27
1
35
2
-11
58
5
6
12
45
32
-26
-1
6
49
-16
-8
11
-1
9
-3
14
-59
23
-17
4
-5
-22
6
2
19
44
1
-18
13
8
-2
-9
49
-61
30
16
-4
54
8
-34
9
5
-1
-38
51
-22
23
-38
30
38
-8
50
56
50
17
-27
-12
-3
-47
63
-11
-36
-33
-23
45
2
-38
-15
-12
-57
27
54
31
29
-21
-29
-44
6
-3
-49
-34
-3
-36
50
30
38
24
-58
38
70
6
14
11
-22
38
21
-18
73
102
12
28
-25
-1
-22
-19
-6
-22
-4
21
-17
-31
-28
-4
21
25
-20
-8
-45
-21
-1
8
13
4
-11
1
24
17
4
-74
23
-37
-2
-24
26
-30
19
-2
7
-5
-18
33
-7
-30
-4
3
-51
23
10
2
-6
16
48
-20
53
20
-17
-30
49
-16
-27
15
-6
-5
-18
-20
-3
-1
46
13
-24
-11
-16
-33
43
19
31
-36
6
-27
-9
-17
12
-29
45
-9
15
-13
19
48
14
4
28
16
-12
-36
64
-35
17
-15
-47
46
-17
-33
-66
37
36
-24
-30
3
41
-20
39
62
-12
17
17
-26
-13
38
20
9
3
-54
18
-23
15
3
23
-8
-49
52
12
-54
28
6
-42
-44
32
-4
-30
-9
-38
-18
-22
-40
28
16
-5
-8
14
0
43
35
0
61
-13
-34
-39
12
-12
43
3
-10
22
22
24
-10
3
55
-15
21
10
-25
-7
-38
-3
17
-20
22
-14
-7
-7
10
19
17
26
-39
46
41
36
-11
15
37
-7
12
0
36
35
-4
53
86
3
35
1
2
14
-24
-16
1
26
-26
17
-5
-23
3
-22
19
15
-18
35
32
-31
-29
-24
-34
-15
31
9
-6
-31
58
-9
3
16
13
-30
15
-5
30
-5
9
40
-14
-19
4
-70
20
-19
40
-29
-1
-20
30
31
-4
44
-60
-5
21
75
21
24
-2
-12
14
-35
-5
8
-21
14
1
-36
36
33
-14
-50
-31
6
38
33
0
0
-53
-56
24
27
43
27
14
-28
4
8
-24
-28
-18
14
-37
40
-55
-27
-25
-15
37
-11
-43
44
-45
21
-4
-1
-14
-76
14
44
-19
-11
-10
-21
34
-22
27
12
-3
15
10
-2
11
-1
10
38
-7
19
1
-85
28
-58
-10
-10
12
-14
-35
-20
-1
18
22
-4
38
23
3
39
23
-47
41
42
-4
11
-9
8
-13
14
-59
-46
18
2
-39
25
-7
50
-20
-6
2
13
13
-16
4
20
6
6
-27
-54
0
-2
-1
11
-16
-9
-22
-8
12
26
16
20
-20
-12
-37
10
-9
-40
23
-28
-52
-15
30
7
-4
-25
11
-56
0
18
24
2
20
18
0
-24
-38
-4
22
-5
2
19
-7
-8
14
36
-11
29
-34
8
-46
-30
1
35
-36
17
52
21
34
56
-9
-10
35
32
35
-34
-6
-13
0
-22
6
-6
-28
-21
12
1
2
20
-35
6
10
-20
-29
-13
-26
-7
-30
-8
-8
-16
-15
-11
-43
-28
10
51
-9
25
19
22
16
32
-50
-23
-18
-30
-30
-17
-65
-67
-6
17
-44
-61
-66
0
-13
62
-8
-9
-16
25
9
-28
25
-7
37
-46
34
-6
-29
12
-9
-8
-42
-45
-20
19
-35
-30
58
-8
-42
-36
2
-10
13
2
-23
-8
36
5
4
41
12
18
57
18
37
9
5
7
-38
49
-16
37
-29
23
45
-24
27
35
-28
-6
-29
-39
-2
-36
23
35
-12
-9
-32
-5
30
43
-70
-5
9
-24
-16
-4
-26
-12
-16
-75
-13
24
-16
-27
13
33
47
2
-17
-6
-24
8
-27
-23
-35
0
-30
-17
21
5
35
-48
9
-32
-44
-24
16
49
16
-3
-24
37
-16
0
6
64
-29
53
60
-21
40
7
-8
2
-10
-9
-13
-18
6
23
12
-5
0
36
25
7
23
48
13
22
-34
-24
-64
-14
25
1
14
19
-17
40
18
-32
-31
-6
-3
28
-24
-13
-48
18
-12
-27
-60
-10
-20
33
-30
4
11
11
-4
23
-14
4
8
24
-18
7
-2
31
9
-2
-51
12
-8
43
-38
15
-19
19
8
-26
7
0
4
68
-28
36
-17
-47
-12
-24
24
14
24
18
-16
-4
-9
2
-51
23
27
30
32
-11
-34
7
-26
-10
-26
-3
48
29
30
18
-43
-40
47
-3
53
-5
44
-16
-51
-46
-39
-26
9
0
39
-29
-16
-28
-7
-18
-27
25
35
39
-38
-4
-28
-21
40
31
2
13
-16
20
7
-9
13
1
84
1
-34
-5
24
-16
15
-41
-4
28
4
35
-26
11
45
-44
36
28
-9
39
-6
27
12
50
-14
43
2
-37
26
-22
-45
0
-15
11
-37
23
76
35
-47
-7
13
38
36
20
31
-58
-7
-8
-33
-18
-37
13
27
-23
13
17
11
-5
-33
-48
39
32
4
10
30
-70
-25
11
-6
-6
-40
18
-18
-32
-23
-50
36
-22
-28
-24
-21
-18
-22
-3
26
-31
2
65
-47
-7
8
-58
7
-61
-12
-44
19
-72
-17
-36
-14
-36
0
-27
-15
7
29
63
-19
-15
4
-7
-15
25
25
9
-39
-11
-39
11
-31
-3
-49
-18
-6
-10
38
-16
8
-58
-7
-27
22
9
-16
-29
46
-51
29
-40
-33
-29
22
-9
12
-18
-39
-18
-3
-27
-27
25
-7
-7
28
55
25
-6
-30
29
-22
-31
-17
-2
-20
30
-22
-18
5
7
15
56
42
18
37
-6
5
-28
23
-37
6
-1
18
29
-23
46
9
-43
-38
-16
-39
-8
-50
-1
11
-7
2
13
-30
-20
8
-53
-9
-30
-31
-17
40
5
-35
29
34
16
9
-17
-3
-5
28
-3
27
-23
-5
3
-4
1
22
20
-13
-32
-11
-32
-35
4
17
30
-21
-15
-23
-16
-27
-12
27
5
-10
-6
-48
-10
-1
-15
11
-11
4
-29
-25
-29
12
29
31
0
22
23
-30
-65
-21
-13
53
-6
-37
-3
53
40
20
51
16
11
-34
-20
-29
-42
-37
3
-1
-17
-22
44
-40
-23
0
27
-42
-23
7
29
15
-17
-5
-4
-16
-42
-45
-49
5
-1
10
4
-22
26
-10
-3
33
8
17
3
46
5
23
-29
40
10
20
37
18
23
4
11
-36
-16
-15
-11
22
-4
44
0
13
-34
36
-22
34
0
40
-41
30
-32
5
-25
50
-35
-40
15
-1
27
-24
30
-28
-32
10
3
-14
20
3
2
-11
7
11
-6
-19
-39
-17
15
-21
-31
-8
4
7
12
41
-32
-20
19
24
-5
9
5
-12
-14
14
-8
0
-22
-41
23
-6
-19
-12
25
5
12
38
35
17
34
-15
10
15
22
-6
-40
6
-32
-8
-1
-13
22
41
-23
-38
-18
36
-48
-19
-7
16
31
40
7
12
-18
12
-36
-38
5
-1
-26
-16
-6
4
-10
16
-16
-36
-14
-25
1
-31
47
26
29
4
-1
6
-24
-5
39
-11
-15
8
20
-28
-5
6
39
-8
35
8
69
45
23
-34
-30
18
41
-17
-5
46
4
-25
-7
18
21
32
7
3
-26
-20
-28
16
3
-32
23
34
21
0
-10
28
25
-32
-16
62
-5
-14
-23
-47
-38
25
31
-61
17
-22
-41
-28
-28
-8
-12
-10
-41
-32
-29
47
-3
-37
-51
37
-16
36
-2
-2
-4
-20
-3
-13
7
-44
5
-29
20
-38
8
-31
8
-53
-3
-5
30
-31
25
-28
36
18
15
-4
0
20
61
-47
-6
19
-16
58
-6
30
-9
-25
-10
-23
-9
-21
-63
-34
-54
-26
-20
-16
-13
-6
13
4
31
11
20
-9
8
8
-7
-22
-47
13
33
-2
-14
-17
13
9
0
5
-40
12
-27
22
-24
13
-72
-39
18
8
8
28
12
8
7
49
45
-53
3
-26
-32
33
-49
-23
1
-17
-28
33
-17
-1
59
-35
-6
46
1
-19
19
9
7
-11
-10
5
0
-2
-36
-12
4
-25
9
10
3
-33
-4
-70
18
0
32
21
28
-20
18
37
-1
-9
24
28
1
-32
51
-14
-2
0
24
-36
20
-16
20
-18
28
14
15
-17
-5
-27
-4
-9
-25
-14
8
-40
-39
2
53
-19
-26
-26
33
-19
22
9
9
20
23
39
-74
26
-1
32
11
0
25
23
11
-35
-14
6
-10
10
-5
36
9
39
22
-38
20
-5
-26
-42
1
-59
36
5
-32
52
42
-2
-24
8
-22
52
38
9
34
-54
34
-4
16
-49
-4
5
34
35
28
2
-18
-10
5
-4
7
-25
-17
21
3
-12
-2
-41
39
29
33
-17
-35
41
53
-7
-17
-10
-25
32
37
19
-36
-63
32
-46
8
35
42
-2
3
-6
19
-2
-21
35
11
3
22
6
-25
-14
-22
-17
28
22
-5
-8
-30
49
11
-13
55
66
-5
-2
-2
-22
-24
-25
-30
23
2
-4
-17
20
-8
-25
56
45
2
15
-14
-14
32
-6
-15
43
0
16
-20
-7
6
18
42
-50
24
13
36
-6
-3
-30
-31
0
1
-35
-16
-33
-36
-10
-56
30
1
-50
-73
21
14
-25
-33
29
20
24
24
28
-19
-9
-20
5
-31
-22
-26
17
-4
-17
8
-28
23
-29
10
2
-29
-13
-8
-11
-31
39
-16
-69
14
-52
13
-1
-23
-13
-63
-53
-1
-25
-32
33
22
20
-12
18
-50
-10
4
-45
-22
-56
-12
-24
46
71
-24
0
-26
-4
18
-3
20
-17
10
26
-18
9
33
-25
35
0
-32
-9
-20
-40
-13
-21
-11
35
48
-15
-34
-18
-43
27
10
-52
-6
38
2
-12
39
-17
24
13
7
-15
-34
31
23
30
-33
6
-54
-17
-4
6
48
-6
19
-1
-21
-37
3
-2
-8
23
-22
-39
43
-42
11
-21
-64
7
-49
2
-18
12
12
12
-22
-22
-2
19
62
-28
43
14
39
-17
-22
-25
-11
-36
13
17
-21
-59
-20
15
-34
13
-47
47
2
17
23
15
11
11
-3
23
-12
4
-9
23
39
-8
-24
25
24
-28
6
-29
-49
-24
-49
-17
-56
-41
5
-23
-7
9
6
-29
-6
-18
32
-22
47
18
-11
-1
13
14
8
-26
37
25
1
-9
-37
39
3
-22
5
-29
-56
19
20
3
6
-54
3
25
29
-1
24
-16
-37
38
31
14
-3
-6
48
-5
-35
-20
-14
44
12
-8
9
-20
-24
53
50
29
9
-19
-31
0
-27
21
-25
-43
37
-34
-25
-25
-24
3
-38
61
14
-27
37
-20
-14
-16
-35
9
-4
31
-18
23
-2
-46
12
80
-18
-27
5
14
36
-45
-7
-21
-15
-23
-43
26
-18
-2
42
3
-11
-36
16
25
-40
31
-12
31
41
-6
-46
-51
-66
36
-2
9
9
-40
-22
8
3
13
-41
-7
-10
24
-17
19
-24
24
-47
24
57
-4
48
-31
43
-2
-4
-38
0
37
-17
20
10
31
-34
-20
29
-44
18
-13
-12
-31
-43
7
-3
27
4
-22
-8
-31
-19
-44
-26
-11
1
40
-38
-18
22
21
-3
-43
-43
-36
-26
-15
0
38
22
-5
-16
18
12
38
2
-2
-42
24
10
-10
53
13
24
-12
-16
-12
-27
27
-8
4
-20
42
33
26
8
54
10
-15
-18
35
-14
-17
14
44
-7
-1
-19
-13
-3
2
-25
13
36
-32
8
-12
5
19
-17
-4
-6
-23
-32
15
29
-11
46
-34
-10
-25
14
15
46
-52
18
6
-9
-39
-26
-11
34
-2
-52
38
-39
6
-31
-49
2
12
-14
29
-6
-30
-27
-16
17
0
40
-33
11
-10
-37
-1
-15
-39
-35
-29
29
29
8
22
8
23
51
-29
5
13
-17
7
-4
-26
11
-18
-21
-22
-9
9
-13
5
38
-27
-10
-16
29
-4
11
37
0
-29
-32
35
-27
-5
-28
16
-25
14
-42
9
-31
-4
-66
-43
-4
3
14
3
-32
-25
14
-80
-5
11
54
26
2
30
-6
-6
6
-54
-26
-12
4
-32
2
32
-20
-21
34
22
18
25
26
-30
19
-19
52
-31
6
14
-3
-14
-16
17
50
-19
-14
51
47
-38
-27
14
-32
-14
8
18
4
26
36
51
56
-25
-41
-26
-59
8
5
9
1
-50
27
21
-63
-4
0
47
8
5
-26
15
-5
-2
11
-3
24
31
-27
-34
-10
-3
-12
-9
4
42
-106
-21
-10
23
2
-4
-1
-13
-7
5
13
13
-26
5
51
-5
-10
-29
-51
4
-11
3
-20
-33
-14
15
17
-2
3
-61
7
25
-16
-34
47
-5
6
-21
-35
-14
-21
-4
25
8
-52
7
-28
17
27
32
31
-28
-2
0
-8
32
-51
28
-19
3
10
-31
26
-37
22
-20
23
4
32
21
-25
11
32
17
5
13
-6
-10
1
26
-1
-16
40
-22
11
-42
-9
14
-14
-17
34
21
25
-64
-24
-12
-43
-3
2
21
18
-13
13
4
-13
-13
-19
-36
47
-22
5
1
33
-13
-17
-22
-33
-8
-19
-42
-12
35
-41
39
18
-31
10
26
16
-7
-8
-23
43
-9
-17
7
6
6
-19
14
-16
-23
-51
-13
20
30
35
17
-28
13
7
-51
-42
-15
-13
25
-11
10
-19
3
54
-54
40
-2
18
-22
-16
-12
26
-6
-39
18
34
27
22
30
-50
-18
-96
-26
-22
-19
-29
-25
43
-13
-39
22
-13
-2
-4
-1
-37
-45
-24
18
13
-11
-37
-28
16
13
27
-3
0
-27
-4
36
10
32
-2
-44
3
-4
34
-27
-18
-25
-11
-2
-32
-51
10
2
0
31
-36
20
-14
45
10
-16
-2
-16
16
10
-62
-49
-14
-43
11
4
12
-19
23
-4
-36
-20
23
75
-15
-36
9
9
-32
-30
13
34
52
-8
-50
-54
14
-15
33
36
30
-17
39
-62
-11
38
-33
-43
4
8
-33
-52
-24
-30
33
-21
10
0
-10
34
3
-4
-14
11
-22
-8
-6
1
-22
-38
-29
23
10
-37
10
-26
8
-31
-68
-20
30
48
13
-49
-4
15
-29
-24
5
-24
-53
7
17
-31
-59
19
-2
-18
14
-41
-6
28
-7
-21
-3
8
21
-27
9
56
-35
21
34
-24
25
-54
13
44
58
17
50
-61
-24
15
22
40
-25
33
-1
-14
-44
34
5
-9
-16
-16
-46
-29
44
18
40
6
-10
-21
-19
16
-14
32
59
-12
-18
-18
-5
41
24
-5
15
-23
-5
-21
-30
16
57
15
42
-33
18
-21
-15
65
-44
-28
-52
-35
-15
-33
-10
-28
22
-27
33
-49
-27
17
18
34
-4
32
5
-6
-6
-10
-58
-42
13
-20
-11
28
10
-19
26
20
-47
8
-7
19
49
-5
-16
-19
-56
-26
12
17
-13
56
-22
41
-36
-65
22
9
-21
-34
17
8
23
-11
-30
44
-9
51
-19
-11
-13
44
-38
-51
-34
-1
-30
-2
-12
-37
1
39
-20
28
8
-24
-33
3
-27
-1
46
-48
-17
-43
11
-51
32
-27
34
-35
2
-57
37
-19
-60
-22
-10
42
26
42
17
1
47
40
-56
-29
-6
24
-38
44
-43
-37
-19
-23
-7
-25
-40
49
-52
-16
17
27
43
-14
5
-41
35
31
26
-1
-38
-5
21
-21
25
-31
33
-36
-15
7
-3
-3
7
36
0
-16
13
-4
-35
-1
-71
-23
45
-22
4
18
36
54
54
-3
-44
-5
-27
6
-2
-63
-58
-38
-9
19
38
-10
-8
41
-43
1
-88
54
-13
-24
-26
-28
34
17
-12
12
15
-23
5
26
9
-5
-56
21
23
28
0
-11
21
21
47
13
10
34
35
25
-33
-19
-14
44
-17
33
-49
-6
-29
-21
20
34
8
48
-17
-1
-27
-25
76
-42
28
-18
16
18
-25
-27
-30
25
-8
44
97
42
-19
-11
0
1
0
23
6
41
-6
14
-59
-2
23
-24
-46
4
15
33
-19
2
-22
-5
-3
38
-4
-10
-32
17
8
6
-56
28
-31
-6
33
-3
35
8
-34
59
-12
19
-30
39
38
-23
-59
2
-50
19
-25
-28
-14
-33
-52
-46
-1
2
-47
-23
-71
-57
-8
28
33
-25
-68
-18
-13
37
-28
30
-13
-22
16
-28
-13
-17
16
-1
-38
-26
-46
-4
-38
-14
36
-10
30
-12
26
-5
-34
-26
15
-4
85
53
-20
-3
-8
28
22
20
5
-23
21
-23
-36
-4
-11
20
22
-47
53
48
-30
-42
-16
-27
-12
-36
4
-17
-26
-30
-17
5
-24
18
3
-13
-14
-18
-55
26
-23
-7
-5
-16
56
73
-19
44
22
13
-42
13
42
-40
35
-8
22
-42
-42
-73
-5
-4
-27
-47
-55
14
-39
24
-22
-6
56
6
-17
-15
22
24
-23
4
-27
-67
-74
-14
-32
17
41
-14
42
48
53
53
8
-8
-15
-34
-42
3
-17
18
-6
-21
17
-28
-8
-11
29
-52
25
-24
-18
-26
14
-12
-46
-23
-61
-3
-38
22
-10
-43
-9
0
1
-29
35
25
52
-48
-18
-38
4
22
43
-68
16
-10
18
7
-59
-6
-14
-12
-26
11
-61
-40
-2
-27
-33
28
-58
38
19
-36
-25
-57
7
-58
-11
-18
37
-22
-28
-34
-60
20
-35
47
47
22
1
-13
28
-92
-73
11
0
-28
16
11
-29
-43
9
-54
-21
-16
31
46
-62
-12
59
-7
22
-20
-6
18
-21
34
-18
-25
-45
0
-5
-17
-62
-13
-53
-24
-23
25
9
-29
-38
1
18
8
3
-7
11
22
7
-10
-31
-3
-17
-22
-35
32
3
-9
-94
-22
23
5
-32
15
10
-34
44
-2
50
21
-22
-1
22
16
33
36
-31
-82
6
-21
-27
-22
-37
20
4
-43
-13
4
11
-1
17
16
11
-15
-4
-5
-46
-8
-45
-11
3
25
-17
59
-22
24
-21
-20
26
32
-47
7
1
-25
-34
-24
-35
-41
18
21
-49
42
34
-4
13
-20
77
-13
19
-30
2
2
25
-13
-9
-44
1
19
56
-9
5
6
50
4
-16
29
31
-14
53
0
21
17
3
20
-8
5
9
-42
-11
-12
-2
2
-14
-9
18
-9
17
-54
4
-14
-14
23
39
-47
-18
-35
6
-20
-32
23
-24
37
13
22
16
6
34
-22
-36
5
-9
16
38
33
-9
7
-16
10
-73
25
-23
24
9
11
-17
36
21
4
31
49
-10
15
42
-33
-42
-8
-27
14
-17
28
-21
-2
-24
-15
-51
-29
29
0
31
17
2
-2
73
38
-60
-48
-7
-14
8
13
-15
-34
-25
23
-28
-30
-30
0
-52
-52
-7
-34
21
47
-28
4
31
-8
31
39
-35
35
-13
30
-10
4
-11
-21
-59
0
-43
-12
39
-15
-38
12
28
-47
-26
15
27
0
-15
-9
20
-18
-22
18
8
-1
6
-4
24
-37
-65
-13
-19
-33
27
10
-16
7
-3
48
-46
3
-14
67
-15
-37
10
33
44
-8
-5
33
-9
32
49
7
-22
16
-52
-42
-43
-12
-61
19
-11
-11
2
21
-36
7
23
-18
15
27
-29
-67
-12
19
-7
-15
1
4
-9
-45
-13
25
51
-42
5
-3
-29
59
-11
28
19
4
-19
25
-2
46
15
12
-15
-24
-5
14
30
67
-10
-7
-9
17
-11
13
29
4
-26
8
27
14
21
-33
36
-35
-21
4
-11
-24
-22
41
8
15
-7
-20
-24
-5
-14
37
-1
23
-38
8
16
27
-27
14
3
0
19
-28
-45
-1
13
-13
55
19
-23
24
23
-2
-43
-24
-27
-8
63
20
-41
41
-3
-15
19
-27
-13
-21
-23
-25
17
-20
9
-6
-11
-10
7
0
-28
12
-10
51
-17
58
-42
-2
-19
57
-20
-3
-19
-40
36
13
11
-22
-15
20
28
-39
32
32
-34
8
11
-9
26
-1
16
32
-19
49
62
7
-28
-21
9
6
-9
-43
23
44
29
-19
26
-7
9
-7
41
34
-18
11
-37
-4
-1
13
-11
28
8
-40
22
-4
15
23
41
-15
44
-6
13
-36
-11
-31
-25
-40
-33
3
13
26
-37
-32
30
40
-12
62
21
10
47
20
21
24
-22
42
5
-3
40
7
-22
3
-30
56
-12
-22
15
-41
-21
28
-9
-16
5
-26
19
-4
44
33
32
-16
-20
25
-22
-24
19
-61
13
-36
-69
-35
-35
23
-26
15
-4
-16
24
23
36
32
44
20
-62
49
29
9
6
34
-18
20
-18
7
25
-40
23
-10
-55
70
-3
-27
-11
26
24
20
33
-15
-56
-36
27
31
15
-35
5
40
-20
5
50
-5
24
1
-4
-34
-15
-9
52
-14
19
-55
7
-35
-35
-24
-5
36
13
-46
-55
4
10
-1
4
-7
6
5
-3
-5
-31
28
-32
45
32
64
3
27
22
26
31
15
31
29
-23
-24
53
25
0
4
14
27
-9
1
3
15
-17
-7
46
-30
27
19
-37
-39
-28
-56
-19
-28
-1
4
10
9
44
-24
-11
1
-11
-33
6
-3
-9
-7
7
9
-12
-12
-16
-16
25
-19
-18
-8
47
2
27
37
-26
2
-2
54
27
-16
-15
-35
16
-54
6
-28
-11
6
-11
-36
58
36
-13
-22
-36
-57
12
45
0
23
50
23
36
-60
-14
-16
7
1
-32
-21
-14
-40
-10
37
-13
7
-55
35
-40
55
-18
-10
-75
-33
-18
-26
33
34
7
8
-9
35
5
-65
2
-9
-4
-3
-34
13
-1
9
15
38
-25
-30
5
0
13
16
22
42
-24
23
-1
23
-56
-26
-2
14
-36
29
-28
38
5
-12
-18
-51
56
32
35
-40
14
26
-8
5
36
0
10
-23
-28
12
15
-10
60
-26
19
-56
-28
34
-25
-49
26
15
-1
1
4
-2
-25
-21
32
57
-18
33
-11
-13
-29
-11
42
-14
54
-17
-25
-32
6
-3
-13
18
-4
16
-15
11
-26
-7
-19
35
-17
2
31
8
55
-51
-6
23
-5
-2
48
-5
54
-30
-1
-29
12
29
-11
-42
3
19
-49
-62
-5
15
-51
9
-18
28
-27
-11
-26
13
0
5
-51
-7
30
-7
-58
6
-20
-11
46
34
1
6
-2
37
15
33
-12
-4
28
4
26
-24
3
-54
21
16
33
-28
-11
-24
5
-8
30
-37
9
1
16
-9
7
-13
21
-22
-26
12
7
-28
29
18
-12
-12
44
9
-28
21
23
31
-29
25
8
6
43
17
-26
13
-20
-18
-33
2
-28
37
1
-18
41
-58
43
-8
78
-4
-27
7
3
0
-51
-39
40
-3
27
43
13
-10
22
-7
21
18
-34
-20
-36
-12
56
37
11
-13
-15
22
8
-53
8
32
7
30
8
-2
1
-11
11
-10
-54
-11
-20
-49
-38
4
49
-36
21
-2
-29
-13
-3
15
5
-36
59
23
-53
26
-39
-11
-46
-26
-12
22
23
4
3
14
-22
44
-85
-11
-6
0
-34
5
23
-17
-31
-13
6
-31
18
-54
28
-38
-9
-3
-7
22
-5
-39
25
-25
-16
-24
-25
17
27
4
2
-4
18
-4
-28
7
-31
20
-22
1
16
-35
-15
-1
-27
-3
-6
-21
12
2
0
26
-19
0
-7
-26
-20
8
4
-11
-18
3
12
-10
42
6
-8
-46
-22
-30
34
6
27
-59
-16
17
40
-5
-28
29
4
-16
-9
36
15
27
-4
-17
24
-6
25
11
-16
28
-10
-2
15
56
-27
19
-11
-9
-39
-22
25
-9
-8
12
4
-29
-41
6
9
-21
-9
-25
-30
20
15
-34
-48
10
-17
9
-19
-32
-46
-36
-33
39
-8
-9
17
2
17
-1
-1
-25
-11
28
-26
-32
20
2
-21
10
-59
-15
49
-21
13
-9
10
-31
4
-13
-6
13
-36
-7
-19
45
5
3
-22
-33
0
5
-17
18
-26
6
-24
-23
-17
7
49
-23
-54
-33
23
7
67
8
-6
0
-29
-37
4
-23
39
-13
-38
20
24
-44
-47
-8
-13
26
-26
-35
43
17
45
-19
27
-4
1
-2
21
7
-8
-35
-15
-24
8
-4
0
-13
0
7
-13
8
8
15
-32
24
16
-10
37
-4
-6
-18
32
19
-31
-1
-1
14
-7
-2
17
14
29
-37
16
12
-14
-28
13
-31
-2
2
-32
10
39
-18
-51
-37
39
0
-52
40
-24
-5
-14
27
5
19
-4
2
-2
-31
-5
-9
-9
40
4
26
-7
35
24
21
-6
-3
29
27
-41
-21
-8
13
9
-1
-8
11
29
7
19
-41
-71
51
33
-68
-28
4
-19
-27
-5
14
1
-26
-21
-40
-50
-18
-58
0
-52
38
28
13
7
-46
-40
-17
-20
-13
-14
-26
-39
9
-32
-18
-16
1
-4
28
-16
14
-17
26
-53
6
-15
-23
-26
1
17
-32
-37
25
-24
27
-32
2
-18
-38
-22
-78
14
-16
34
-2
-2
32
-25
-38
-61
44
-51
45
16
-1
-46
16
5
-17
25
-23
-5
38
-26
-20
11
-12
54
-8
-22
-35
21
-10
24
22
-11
12
-2
-2
-29
5
-1
-21
-41
15
-21
-22
3
6
43
-20
26
-24
16
-8
1
-14
45
9
-35
23
18
-22
-38
-26
-9
26
-1
6
-32
5
-8
-10
10
-3
23
-18
2
5
11
26
10
-42
3
26
24
40
23
31
-11
-19
-27
-57
-24
-12
-42
-23
17
-1
-9
25
-16
-4
-39
-42
-22
-25
-38
1
-33
58
39
-32
14
-33
26
-40
74
10
-9
-6
19
-52
29
-23
-17
-75
19
-13
-3
-10
1
4
-38
41
26
8
-42
-3
-20
-3
-43
-5
5
-54
-4
-13
41
-5
-8
32
-35
-20
-46
-27
25
-14
37
-10
-47
21
19
-37
-42
6
15
-21
1
40
4
14
-50
-5
39
-6
-17
-21
17
7
-12
30
10
2
-17
2
19
20
-35
-30
40
-22
-55
-1
8
-27
-11
11
-45
25
-36
-28
-36
-4
-25
-7
24
5
-42
-19
-36
-48
-11
0
10
-33
-3
-49
-6
18
-70
41
-21
-31
2
-3
-2
-41
-15
19
25
10
-27
-1
-22
-15
26
-8
-20
31
-35
42
-2
17
9
-9
16
22
28
-56
49
8
-20
0
-8
-36
26
11
7
10
-13
-41
17
13
10
-4
1
5
-4
7
-36
10
32
-9
32
2
-9
-52
31
1
18
-15
3
-22
1
-18
69
-8
-23
-58
29
0
-5
-28
-24
6
-52
-13
14
-8
9
34
-10
24
22
9
-5
-26
-18
-2
-1
-48
14
-16
7
-12
-16
-10
-24
2
-12
10
23
-14
-41
34
20
1
6
7
36
26
8
-56
5
-17
-17
8
-41
-2
19
29
7
-8
-20
1
61
2
-19
32
-44
-23
-45
-42
-35
-6
-46
3
45
-18
42
19
46
-30
-38
-16
38
-35
-33
-20
20
-7
53
42
11
41
-28
7
13
23
-27
19
-33
-9
-17
-19
31
-23
23
17
-50
6
4
-11
-12
-26
-15
46
7
-20
0
-6
16
26
29
16
-25
29
-13
18
10
-48
1
24
3
17
-39
-30
25
82
-16
-2
42
-32
-2
25
-35
-15
-16
-57
-27
5
-62
-42
-6
11
-35
-25
1
14
-29
33
-19
3
-27
-6
-10
10
14
-35
34
25
-9
-30
-16
54
-18
-20
0
-30
-34
33
23
9
40
-1
31
6
25
-21
-29
14
-25
-7
6
13
-10
25
33
-29
-9
21
52
26
35
-11
6
-26
4
-11
20
-13
-25
-2
-7
3
-55
-11
13
-8
-20
-4
7
-34
-16
-22
26
-26
-36
-61
-57
8
4
-40
13
3
-55
6
65
5
1
11
2
-27
-16
-86
0
9
84
17
38
22
21
-5
21
-23
-10
-28
-2
22
40
3
-24
-37
10
-50
-1
-12
4
0
-1
16
-30
-17
52
17
-19
-22
23
56
-21
11
-1
-51
-14
-38
-56
8
26
-19
0
-4
-2
39
16
-5
31
-64
-36
31
-3
-28
-13
-29
-16
36
-16
31
-39
9
-43
13
23
39
-9
4
-30
36
29
40
18
0
-36
-26
-35
-26
23
18
-3
27
-45
-13
-14
-13
-2
-5
-37
9
-4
-1
-23
-12
-20
-26
23
11
19
2
-11
0
-21
-22
3
10
-29
-8
-11
1
-11
-17
-2
1
-51
-5
-21
-6
2
28
35
-40
-13
-27
40
15
27
-30
6
15
-17
6
-9
8
27
-53
11
17
-12
-26
-28
-15
-17
38
-22
11
-19
4
37
4
-49
2
-11
21
13
16
22
31
-27
-45
1
24
-39
13
25
35
20
-4
-4
13
35
20
14
37
41
8
-9
-14
7
-22
16
10
25
11
29
22
21
24
-32
-20
-18
-44
42
-10
-16
38
-52
13
-3
-32
-3
35
-11
-6
14
-64
-36
2
-1
-15
-25
-21
17
-7
-25
-26
36
-16
21
30
21
-17
-19
4
32
-43
-46
4
26
-31
-38
4
15
-36
-70
-83
-16
40
22
-33
-38
31
18
6
-5
-44
27
10
-46
-18
-20
20
48
10
27
-38
11
-30
-30
-51
-3
61
37
-40
-24
3
25
-23
5
-3
-29
22
-7
-2
-20
9
33
57
-33
29
17
-4
33
33
-9
39
4
31
47
-15
-6
6
-15
10
-51
-28
54
27
21
25
17
-1
12
-11
-51
18
40
-15
26
-24
-21
13
36
12
15
69
10
-20
-9
-30
3
-17
-5
-10
-34
-52
-10
-3
23
-31
-48
-24
34
-22
-20
8
-6
-19
31
-35
22
-7
-13
-4
-12
1
17
-56
-2
21
-41
-15
-24
-10
-22
-38
83
-1
59
44
9
45
-60
-35
5
-14
38
37
-12
14
-32
-11
-32
24
20
10
-32
-5
35
-54
-6
-25
7
3
-7
-35
40
-27
-33
4
-3
-47
-36
-16
-39
39
23
-23
-13
24
19
7
-49
-23
-45
15
0
48
4
22
22
-14
-8
-4
-16
-6
-13
21
-35
36
-32
19
-46
-40
32
-16
-27
21
-33
-52
-9
35
2
-40
-2
24
-20
-25
11
22
-10
-27
23
-8
-33
38
53
-23
23
13
-28
-39
23
0
-46
-9
25
-17
-39
-8
8
-7
18
-29
-15
5
-22
25
-17
-49
8
-18
-3
15
64
9
11
-34
44
-1
5
5
9
28
38
6
3
22
-3
-26
-25
20
30
5
-25
-12
-4
-44
-13
8
35
1
24
-19
21
-12
31
-7
11
1
37
3
48
23
-7
7
30
-11
-10
20
42
-18
18
-9
2
-23
-11
7
-29
-1
-13
-28
-17
-5
-11
12
-12
-15
40
40
-18
6
16
-36
-16
-43
-34
-11
-30
-7
-24
8
2
-14
10
-49
-55
-12
-31
-28
42
-41
25
-27
20
-4
-9
-22
-13
17
1
10
22
49
-7
-28
43
-18
-22
0
4
36
10
-18
3
10
-61
-26
-23
-14
-14
-16
-5
48
26
-47
-29
-50
54
25
-49
29
13
18
-2
-47
8
21
13
24
6
-25
-33
12
-27
32
-13
39
-16
50
-28
39
-16
-8
-4
38
-32
45
27
29
-20
-4
16
19
-7
-18
3
2
11
30
1
19
23
-21
15
-15
44
-12
-52
24
-7
-12
-7
-5
-33
-25
-3
-27
-5
-19
-36
-23
-21
-11
-3
29
-30
1
34
-25
30
47
-55
-6
63
15
7
-15
-17
12
0
19
63
10
26
-1
23
-38
-11
44
-4
-4
-17
2
-6
14
-25
14
-2
-22
-43
-4
66
6
8
-26
-14
-5
19
-10
-2
-51
15
-5
-1
-42
-18
25
20
-18
-7
-7
-10
-26
3
-8
42
71
-42
0
24
1
10
10
-29
-13
-24
-12
-2
-23
-47
-17
-26
15
-37
1
-41
-27
17
43
-1
3
-23
-24
24
-12
-17
-1
-21
2
21
23
-16
28
23
22
2
-20
-4
-39
27
-13
19
34
-21
-5
4
-14
24
-13
-17
-28
-8
17
30
9
0
22
7
-28
32
16
5
45
29
-14
32
3
-16
64
12
-63
-13
-3
19
1
29
17
32
9
-12
10
-45
28
-1
-9
31
-18
29
-33
19
12
21
-3
27
-10
12
30
-30
30
-52
22
-46
16
14
4
-1
-10
10
25
34
14
-23
-10
6
60
38
-9
-21
-13
25
4
41
20
3
-14
14
-30
34
34
-18
-4
8
-13
-20
21
-7
-12
20
26
-25
-9
1
-34
-16
21
-2
33
-46
19
5
11
4
40
20
18
15
20
4
-29
14
52
17
-22
-19
38
56
-22
19
-3
-36
53
1
-17
28
11
-4
4
33
-8
60
42
9
-10
-5
33
29
14
0
24
-28
-16
-11
-1
46
12
-11
-37
-8
18
-16
35
11
57
26
-44
38
1
-18
-15
46
-53
5
24
16
17
29
11
11
12
3
-2
0
36
-9
-14
4
-20
-13
6
-45
-35
4
12
23
31
-1
39
39
-26
1
5
-48
21
74
-22
-13
-22
-41
18
-7
55
-9
29
-34
20
17
4
0
-19
20
-29
2
31
6
-35
-3
-7
9
44
-18
21
-29
-23
12
-27
16
14
-21
1
16
-40
-25
38
-5
42
-19
9
35
6
37
6
-28
16
-17
-32
8
-30
34
-54
-30
39
32
-2
32
3
-1
10
0
-53
25
14
4
23
2
11
5
-46
2
-8
-14
13
-28
7
16
-38
-4
41
3
-81
1
-8
-52
26
16
29
-38
20
-18
22
-20
2
5
-2
-19
3
-13
-36
-27
13
25
34
14
-16
-43
-14
-36
42
23
22
34
45
25
-42
51
6
33
13
-9
7
-9
-16
-5
-20
-17
28
36
-51
-19
-3
43
-12
-48
35
-2
-16
-19
17
4
29
8
-13
-32
-29
4
5
-32
-6
30
-4
-4
-11
17
78
-19
22
-24
-47
-11
-8
19
-2
46
-16
33
-37
8
34
46
6
45
-40
-28
21
49
-23
26
17
-13
23
34
60
42
32
25
43
-25
46
-8
18
-5
-20
33
13
14
-17
-20
20
5
33
-10
-2
22
13
-38
30
-1
-23
-14
32
39
2
-27
-3
23
5
-47
32
31
4
13
-24
25
-12
-15
13
24
-10
19
-13
-15
-39
0
13
-28
0
4
19
25
19
16
-29
-13
27
10
-9
-24
-5
34
7
7
-47
-36
9
9
19
-19
19
-10
-15
23
5
5
-13
-32
-16
-17
47
1
-10
13
8
34
-22
12
-26
-2
4
35
24
-29
28
-17
29
-20
25
-8
-8
-12
3
-2
-42
-8
17
5
-17
-27
18
29
20
50
9
-30
9
30
43
14
-52
11
-46
-10
-47
2
12
-3
2
-41
7
28
34
-25
-52
12
-79
-30
12
7
7
14
1
4
-10
21
17
16
4
-13
8
-7
23
28
-12
0
15
-27
-33
4
-9
-6
-20
6
-32
-24
18
16
-36
-53
-35
15
-18
-8
35
-17
-21
40
38
25
5
15
4
6
22
-11
-22
7
2
-30
0
-7
-19
12
-57
-34
34
-25
-1
-44
11
16
57
-10
30
3
25
14
-27
-9
32
-9
10
12
-5
7
8
12
-22
-23
-13
5
31
-40
-22
21
-20
26
5
52
-37
-44
-33
-12
8
-7
2
-16
8
0
17
21
-15
-7
-22
33
-4
-17
23
19
-24
11
19
12
-18
-10
30
39
38
-55
3
28
-10
13
54
32
2
33
-33
-42
-21
-2
20
23
5
21
-10
66
-19
-17
-14
7
4
-15
-34
-19
-5
-2
-13
-37
31
5
-1
-23
30
32
28
-14
-25
21
2
-26
-3
27
-27
-1
13
-2
32
1
-17
12
-58
24
-8
15
-35
-50
21
14
36
2
5
33
-38
-32
-6
19
-45
21
-43
39
-17
16
21
11
15
42
25
-17
40
-26
3
13
-6
11
25
7
34
3
-5
-44
-29
35
5
13
24
2
-6
-75
22
-33
-5
-3
-27
-12
42
42
-22
9
11
-19
15
17
-10
-20
-23
-9
-4
26
-17
6
-18
-20
2
-41
6
-36
-10
4
28
-3
-48
17
-34
-11
-14
-18
0
5
25
-16
20
-20
-3
16
-38
-26
28
38
17
38
-27
-24
28
11
-15
-32
-8
3
34
35
-45
-16
-8
-32
-20
-5
-20
2
22
-43
-16
16
38
29
-50
17
-27
29
22
5
-2
11
22
20
24
33
-5
-4
-27
-3
36
32
-5
14
20
-4
9
6
-7
-8
7
12
4
-5
-2
10
-30
15
14
-4
0
1
-18
5
27
-16
8
49
-13
-28
0
-37
-7
23
-21
-43
-8
-53
-20
29
-52
8
15
13
-29
0
0
24
8
-42
-40
3
4
11
-10
-12
-17
15
-8
17
1
55
-29
0
-34
3
26
-11
-20
8
-50
18
23
-31
42
25
4
22
5
-10
-19
4
37
4
-27
25
10
23
-38
32
29
-29
-9
-27
-52
-7
3
-38
19
0
-15
-47
-8
20
-13
-6
-38
-8
32
-21
4
23
-6
-7
-11
-9
33
-18
-25
-37
9
-31
16
-5
-42
-8
6
13
0
20
19
1
-26
8
34
7
-31
-8
6
36
74
26
43
-10
7
-18
-29
21
-10
-4
13
3
18
-23
0
31
-1
-5
25
2
38
4
33
-10
-3
29
26
24
-27
-12
-27
19
4
-12
-47
-10
-2
18
46
-12
33
0
38
25
26
9
-14
7
-6
-37
-14
11
18
44
-36
-63
-47
-17
13
-13
1
42
33
-13
-54
-36
14
18
-38
-61
34
-2
12
22
-29
42
2
-14
37
30
19
-42
41
7
55
41
24
-11
-11
41
-11
4
20
-10
6
25
-37
-14
14
20
26
-16
-35
6
11
3
-31
-15
-58
-9
-59
-33
65
-41
-14
-18
-63
-3
-24
-18
-22
31
43
-15
-27
2
-9
-30
27
1
16
-53
-11
-12
12
-12
-67
21
21
-4
-38
13
11
26
-9
24
-12
6
-10
-21
6
24
34
12
-1
5
-7
6
-23
13
-1
16
22
45
-31
-30
-22
1
-15
14
-37
51
-14
-65
-42
-27
24
-34
-13
5
-15
-60
0
52
47
30
48
18
4
0
8
-30
28
-16
1
13
19
12
9
0
10
-8
14
7
18
32
-9
8
12
34
-50
-15
-3
3
46
-44
14
7
-13
-17
-11
-9
23
3
12
14
16
21
-8
0
-13
1
41
6
-14
16
55
-45
19
8
-6
-24
-29
16
-18
13
-34
-74
-24
-10
-50
9
-10
14
-34
-86
0
18
34
17
-20
23
18
-20
-36
-19
38
81
9
-47
31
51
-10
-40
23
36
-6
25
-26
11
49
-32
11
23
-8
-43
-8
5
-25
-1
12
-22
19
0
25
1
28
17
-10
-7
39
28
25
-5
10
52
59
-2
21
60
6
-15
28
51
-39
-50
-1
0
-23
19
3
15
-3
3
-4
2
-18
-8
-1
6
-8
-69
30
-11
-40
34
0
-10
10
-19
40
12
-5
4
19
18
-13
-23
13
29
33
27
31
-36
93
63
-8
-41
51
7
15
-59
-7
38
-15
3
27
-54
-34
-55
-2
51
14
15
10
-22
-18
-1
13
73
27
31
-33
-7
-12
25
20
-12
-17
-10
26
18
2
-6
-4
-29
-18
-19
12
15
35
-85
-31
-7
-19
36
-20
21
26
-25
-19
-14
5
62
-18
-11
32
47
7
-6
-4
17
-35
-14
-29
-46
-4
-4
1
-35
32
6
13
34
7
9
31
37
52
-25
27
-4
28
-21
-15
-40
48
23
-2
30
30
18
20
-51
-37
7
-24
21
18
5
11
-10
1
-30
8
21
9
4
-33
24
-14
-27
7
-36
-12
12
2
29
19
9
-45
-24
-12
15
26
18
-1
0
14
34
18
-36
-17
-27
-4
-40
-13
56
-33
4
20
-18
9
33
19
-29
-10
8
-8
13
6
29
-15
-15
2
-26
-76
8
-15
21
44
19
37
-19
16
1
-52
-35
-4
-2
24
2
-37
44
-44
15
-9
1
1
51
17
-23
-26
31
10
53
-18
2
-29
23
9
33
-20
45
9
-39
-36
35
-51
16
60
17
38
-7
-19
33
14
8
21
-84
-25
-11
-34
18
20
-35
7
-38
18
51
-36
28
24
-8
3
8
-33
-14
-27
-21
-18
27
-33
34
23
30
-3
37
32
-10
12
-18
-2
-35
39
5
14
-18
3
-23
9
-59
16
-4
-28
-13
47
42
42
-11
-48
40
-18
9
40
-23
-20
27
-5
-65
-3
58
-30
23
-28
1
-26
19
19
2
-12
16
43
12
4
-20
-18
-24
-1
0
-48
14
27
-6
26
-84
-66
-11
-2
-20
-28
-9
12
-1
5
55
32
9
40
-18
-30
-18
-38
40
26
18
57
-20
44
30
-27
-36
-25
-23
5
8
8
11
15
-21
-6
-45
-46
2
-9
-33
9
-28
5
-13
-1
32
-31
40
10
-17
-12
-6
-1
1
-12
-37
20
26
-35
56
-8
6
6
28
-1
29
74
-29
23
-51
-3
35
22
0
-30
-6
8
2
-24
-40
-22
47
13
-13
14
19
1
29
-6
-6
27
4
-3
-31
35
-22
-39
0
57
3
23
36
36
1
-11
38
-28
-14
-40
8
-10
21
-44
7
-22
33
-13
23
-1
-13
-22
-26
34
-12
24
-45
37
-15
35
-6
47
9
4
34
30
29
20
-3
23
-7
7
17
-36
-7
-6
-7
-28
15
-41
-23
-7
-5
-35
22
27
8
41
-19
15
20
-30
40
1
9
5
-60
26
25
-67
3
-10
0
-8
7
7
12
-24
-21
9
-2
-15
-39
-62
-11
-1
-33
16
-59
-11
-8
-13
-22
-46
-21
-24
-13
17
-56
24
-11
35
54
-33
7
11
18
-44
62
-45
33
-16
-32
23
-50
45
-33
16
-47
12
-9
36
-20
-45
-40
-26
30
16
-9
-31
24
37
-25
-28
-31
7
18
-57
15
13
-9
23
-29
-17
55
18
20
-12
23
-35
9
-4
-13
-21
24
-55
-46
-31
12
11
-20
30
-10
0
-12
7
-13
8
34
-16
38
-25
-13
46
19
-21
-2
55
-36
-33
1
-14
64
29
-2
11
-9
3
-2
6
-2
-6
-15
-20
34
49
-13
43
26
-33
14
13
-16
-24
-10
20
-22
22
7
17
14
37
4
18
-31
-31
23
-12
-22
11
-50
33
7
16
67
-28
-2
4
33
25
-54
36
-20
21
38
31
41
12
13
17
53
4
-53
-29
20
31
-14
5
39
-2
5
-15
14
-43
-31
-18
-8
14
8
43
5
26
-7
-34
-1
-11
39
-2
5
17
-9
2
11
20
36
20
2
14
-26
17
-30
-63
-39
53
-21
-20
20
8
-6
-16
4
-8
41
49
16
32
-44
-1
6
11
5
2
36
-9
26
21
-19
-9
35
-44
23
-51
15
5
-28
-19
5
-20
-7
18
-46
22
20
15
-5
-10
-29
-15
13
33
10
46
2
22
-15
18
-4
-20
16
-5
10
28
-12
27
-21
-30
-49
-43
45
-1
5
12
-11
-31
-12
-35
15
3
26
-21
-13
-26
-2
21
7
14
-16
26
-22
-28
2
20
-9
16
4
-41
-14
-34
-42
-4
-24
-24
-22
23
5
-53
28
-27
4
-16
-1
-14
-6
-11
-16
2
26
44
6
-33
-8
39
7
6
-2
14
11
-35
-25
1
-13
36
18
-21
1
-21
-44
-18
38
20
7
-13
-1
22
3
-1
22
-43
30
-10
16
-7
23
-25
2
7
-5
-20
-3
35
-42
22
27
2
6
23
9
-19
-36
14
-17
-8
5
16
-27
13
-5
-31
-28
33
-6
-25
-28
15
26
-8
6
4
-31
8
28
-8
23
-1
19
-9
43
2
6
-13
7
0
12
11
-27
24
-11
-2
20
-17
22
-13
10
-32
16
-15
16
36
14
27
30
16
32
-7
-27
-58
-18
1
-16
26
33
-4
13
-21
0
-10
15
9
37
63
-42
38
13
2
-9
-20
51
16
-38
-12
19
16
-18
-3
7
6
-16
34
-21
69
-12
11
43
31
-32
-12
43
-22
-52
1
37
6
-2
-17
-16
-32
14
47
-17
-6
28
-11
-3
27
20
9
11
-42
-13
-44
-20
21
-2
-19
-6
-16
16
44
-28
13
-29
-19
24
-24
-11
13
57
53
-44
27
34
-2
-6
-6
2
55
29
36
8
31
22
41
7
-22
-10
31
-35
20
19
34
-1
60
14
-20
-16
16
5
-4
22
-13
55
-37
0
-34
-5
-40
32
9
51
-9
-5
-25
-1
5
34
-15
78
-2
39
-17
8
-3
4
-27
18
-24
13
8
-26
-28
-2
-36
10
-42
12
-26
39
-31
-18
10
-1
12
-23
3
20
32
-13
-36
19
12
-25
-19
-23
2
-34
-16
15
-27
26
6
31
-32
12
3
-55
-22
-10
9
-14
-12
-20
-35
0
9
-35
45
17
22
-28
2
-12
-22
-26
34
-41
-25
29
-37
19
24
53
-8
6
10
24
6
-7
-6
-48
-32
-18
46
27
9
33
-24
22
-34
15
-4
-47
44
-39
-30
17
-36
-13
30
19
-29
-45
-34
31
-13
-8
11
2
-5
1
33
41
18
-18
-28
-37
1
-5
-39
41
18
9
-35
-28
-4
-1
-11
27
-8
8
-50
35
-28
-38
27
3
-16
-26
-3
6
-1
17
48
-41
20
43
-4
55
-10
29
17
10
-9
16
16
56
-10
26
-5
-42
-19
40
6
-17
38
-10
56
9
-14
5
-32
6
35
-18
-12
-4
4
3
5
11
-8
-10
62
31
45
-41
55
11
41
-9
46
6
-4
29
23
-9
-23
-22
-29
20
-1
-63
9
23
-26
42
-10
47
-10
40
34
9
13
7
42
16
11
11
-6
41
43
7
0
-34
-1
-6
-26
-39
16
-15
2
-23
1
8
-22
-32
-16
-35
24
-48
-27
27
11
4
39
-19
-10
31
35
-7
-68
28
-2
-34
37
-6
-38
-12
-48
-7
13
38
12
0
1
4
1
-33
-30
24
7
21
-38
23
-4
27
-3
-43
-13
4
25
-17
19
6
-25
32
22
4
5
46
-32
7
-15
-6
22
-5
20
-27
6
19
-36
30
33
0
40
9
-11
-52
25
7
16
31
23
-12
23
-21
-52
9
-3
17
22
-16
18
-36
39
58
-10
-3
-26
5
-21
43
26
-7
58
1
5
7
10
-13
-6
19
32
6
-18
-13
1
-30
-5
6
-48
-24
0
35
2
45
-21
-7
40
24
-19
15
57
13
9
-15
16
16
2
9
10
-4
26
-36
-29
8
-15
12
-10
-33
12
26
-9
-53
10
43
-25
-61
13
20
9
53
-37
-30
34
-8
46
46
13
-67
-2
12
3
-15
58
-29
-14
64
9
-23
-34
47
4
-4
8
-4
-23
-11
38
-10
-11
33
33
17
40
-70
36
-34
-39
-19
-30
-15
-38
-1
-33
44
-32
58
-22
67
20
-8
31
-57
31
-30
-12
-52
-8
26
33
-31
15
-19
32
35
2
-13
56
-31
15
-33
-27
-2
-32
28
-14
-15
-24
-1
-31
13
10
-11
-36
-37
6
-20
-20
8
-29
2
44
-51
18
3
-14
-26
-48
-5
-17
-27
-12
3
-28
3
1
1
14
92
39
-13
0
-32
6
19
-1
30
-18
23
8
-2
4
-31
34
-52
-38
31
-1
-23
58
2
-40
-19
-22
17
-41
-68
55
34
2
3
4
88
-27
24
-1
-33
15
-7
-13
28
9
11
7
-19
-33
-24
-9
-25
-69
59
46
13
12
-11
23
32
32
21
11
2
-10
-54
6
42
-29
-11
-6
9
-4
22
10
-56
22
-6
1
30
-26
36
5
34
49
-16
-52
-32
43
4
16
21
1
5
-26
77
-7
-37
-15
1
26
-18
-12
22
-55
48
27
72
-13
-2
66
-35
17
10
-35
-22
-48
-18
25
38
-43
23
-39
-83
-22
29
-1
5
-19
-46
20
-15
1
-14
1
-22
-42
48
-1
-22
49
28
9
-62
22
-9
-17
38
-20
28
14
6
-1
40
6
-8
-42
17
18
43
-15
26
-11
25
-8
-48
-22
-14
34
-7
-42
4
-45
22
5
40
-8
-3
-19
57
36
-42
1
22
-3
16
-52
18
57
-16
1
-6
-62
38
-12
-8
55
-28
-34
35
12
-69
-24
-34
21
-3
-18
-2
-9
-25
44
49
-50
51
13
44
44
-31
-12
-2
-27
-3
-22
-41
52
28
-27
0
8
-9
8
25
-19
26
-28
-19
2
-15
36
21
24
13
46
21
-23
-32
-24
-43
38
-2
-56
5
7
9
-67
-10
7
-13
45
-18
-13
41
19
-32
33
7
-16
-3
-19
18
-24
-35
18
51
35
-8
-12
8
-5
63
5
3
-9
-4
-5
17
-28
-57
-9
0
-55
-48
-42
-20
-22
-35
0
2
-39
0
42
-31
-11
-39
3
-18
-36
51
-1
-1
2
12
30
-36
-7
57
-3
22
52
-3
-58
-46
-41
-16
-18
26
1
21
-19
-17
9
-29
26
13
-46
49
-14
-40
-21
19
-29
9
-29
-39
41
-28
8
-47
27
-55
-8
58
23
-19
15
13
0
8
44
11
32
1
-13
34
35
-29
-3
5
28
36
-25
-32
-34
-5
20
3
58
-26
-23
27
-47
17
-19
-14
16
-9
-19
6
5
0
-34
-47
3
-32
-12
30
23
-21
-25
-25
-34
31
-52
28
-22
-18
-4
15
-16
20
44
11
-21
-52
-36
-55
-26
7
-10
-3
-3
24
-42
-23
-78
-24
33
12
-25
-8
5
-8
32
-29
-19
38
-36
2
-21
-57
34
69
-2
34
-40
-24
-54
-3
7
2
55
16
-54
26
23
-11
-14
-22
36
56
-22
12
25
-15
11
16
42
3
20
7
-41
-51
38
-10
50
10
-25
-13
0
25
19
-29
91
1
11
-3
31
-18
3
-24
-10
-22
11
58
-16
-25
-31
6
-33
15
-30
29
25
11
7
-31
-10
-59
-48
-27
-4
41
-26
-21
-30
4
23
36
-50
25
25
-11
13
-15
18
21
-35
-2
-46
-14
26
-29
-12
31
-12
-24
36
-18
-14
13
22
6
5
-51
-21
36
-10
-3
23
-19
-6
15
5
-8
49
-5
38
-38
11
32
27
19
-60
-8
-9
-25
-2
-12
-11
1
36
10
-2
-15
-2
17
40
59
11
-8
-33
0
-31
-40
35
49
7
-83
19
12
-21
18
-24
22
11
50
-9
11
-66
-7
-39
8
-22
25
7
8
-37
14
-51
-1
-37
14
-2
-56
-29
48
-32
24
-14
-24
61
-12
-38
17
-8
42
6
-13
3
54
-16
27
19
-4
-45
-39
39
-2
-14
-34
4
13
-17
-21
-3
73
5
-35
21
41
0
-21
-42
-63
-25
41
-19
13
2
7
-22
-7
-7
18
-12
7
63
42
-8
39
10
-3
14
-27
5
50
31
9
29
-60
-12
11
-16
-24
13
19
-9
-11
-37
-27
-9
9
47
-2
30
59
12
-37
7
-8
4
28
-13
-10
-20
-16
9
-2
14
-5
-30
-6
-8
48
-34
9
4
-3
18
-12
-28
-1
2
47
-18
-11
-19
-33
-12
-28
30
17
0
29
-14
1
35
-21
37
-31
19
11
9
11
-1
13
-1
-17
15
-26
-29
25
45
10
29
9
28
9
11
-15
-1
-18
0
-9
1
40
-10
15
-48
-24
4
2
25
30
10
7
-47
-34
6
-28
-8
-4
29
-23
17
28
14
-50
-56
-63
11
32
5
17
29
5
22
9
29
35
-10
34
11
-52
-2
-11
-14
-23
-15
-5
3
5
-21
0
-6
-1
-29
-16
-43
-42
-2
-14
13
-17
8
6
30
10
14
-7
-11
7
21
8
-9
-22
31
-1
37
-48
-50
-40
-4
22
-35
31
-31
23
-31
-4
-28
-48
19
42
38
-12
-18
41
22
-33
-16
2
-31
-3
-31
-22
29
-35
-29
5
0
0
-33
-35
30
22
0
15
17
-19
3
-45
-25
6
10
-18
40
6
10
-25
22
53
7
31
-4
-37
-27
-27
20
4
24
-11
6
-27
-41
24
-21
-24
23
39
-56
18
14
17
-3
-16
33
7
-20
-6
-11
-20
23
-23
24
-73
-15
0
6
-10
59
-13
4
51
52
11
12
-7
-18
-10
40
12
-23
26
-13
17
-27
-13
18
-59
41
-28
-16
-17
-14
28
-68
32
-38
-32
13
49
-27
1
10
14
-64
-15
-43
-9
-50
33
4
4
35
-39
2
3
-16
-4
34
3
-47
17
33
-14
-21
8
-16
46
11
-42
-13
-44
-31
-61
-2
49
-13
-34
-34
29
29
-27
-37
16
-6
16
-40
23
-16
-29
-28
16
63
12
-31
-12
23
8
-18
50
5
-8
-33
17
17
12
-3
-11
3
-2
0
-19
-54
-28
45
-45
-30
-15
-9
-4
-21
1
3
18
-17
-10
-3
-48
16
31
8
13
11
-2
-37
4
21
36
-20
20
-11
30
10
-5
18
-56
-55
-5
22
-11
13
-19
5
-37
17
14
36
15
8
3
-47
-26
-37
-14
-17
13
26
18
-17
6
-1
19
-5
22
38
41
10
24
16
-14
28
-36
-30
31
30
22
-22
-11
22
35
-43
33
-16
7
-23
20
15
12
20
77
-38
-50
33
-20
17
-17
5
-6
44
-11
-14
15
35
1
-36
-18
-25
14
37
-43
0
-20
-21
-7
11
-16
30
1
7
-42
-31
40
4
-20
-19
-4
-38
8
12
20
16
8
23
-5
59
15
22
-27
16
28
28
43
-26
-9
-45
-27
23
4
-7
0
-10
-7
1
0
4
5
33
16
12
-25
-13
-8
-6
-13
-44
-9
27
-2
-33
-53
16
-17
-12
21
-36
-19
20
31
-36
56
6
25
36
49
-9
-27
-63
43
15
13
-72
32
-28
42
-43
-46
-42
-31
18
42
-10
-55
-3
16
41
-26
46
-72
-24
-27
-24
-10
18
-24
25
-39
-23
30
8
-16
-3
-30
5
7
11
69
55
-5
-27
13
25
-33
-21
-23
-40
20
-31
-23
-20
-46
-24
24
63
-36
17
33
-1
-20
-15
10
-49
62
2
36
-10
34
-44
17
-23
-31
28
10
-10
19
-20
54
25
24
11
-5
40
-31
-18
14
11
-33
36
-21
5
56
26
45
-31
0
7
-46
-40
18
-34
-21
67
-24
-35
24
8
-20
-21
16
2
-31
14
-17
-38
3
9
12
-23
30
-31
25
6
27
-19
29
11
15
50
-14
-18
-2
60
-23
23
42
-5
-37
-6
33
-26
-33
20
21
-21
40
1
36
-38
-18
-42
23
-5
-21
46
-28
-47
-24
-18
47
57
-24
47
38
-14
-48
-4
-10
-15
19
-13
-7
-16
-39
-9
-11
-26
-52
-32
-19
15
4
14
-1
35
-49
32
18
-31
-7
-15
20
17
-21
-31
60
24
-53
33
-29
50
-45
37
-44
10
37
33
37
-22
37
21
-47
-62
27
-51
-12
-12
5
38
20
24
25
-41
29
-11
52
6
20
-37
-11
-24
-27
30
32
17
-19
-5
-16
28
38
1
33
-40
-19
-26
-8
-21
6
15
-8
-15
31
-8
15
-71
4
38
21
5
-12
-35
-1
1
-9
-21
47
-24
18
-1
-37
39
23
65
5
1
44
-16
18
-26
49
-13
-26
19
11
22
-3
-21
-41
-20
-24
-1
-11
-30
6
-17
28
-28
1
7
40
-6
-3
19
59
17
94
19
41
-39
-29
-10
-14
40
-22
6
-36
-26
-6
34
-63
-14
-102
-25
-62
16
-43
30
-5
-17
-25
-8
-13
-55
35
-37
17
-39
-21
15
19
11
-43
5
-5
6
12
-54
60
-28
-9
-53
3
-26
-32
42
2
1
13
38
-2
22
0
19
45
-22
3
-4
37
-30
-25
-13
39
-19
-67
-19
-37
51
2
95
-48
-23
-38
-3
-47
56
-40
19
35
24
16
1
-36
-28
-18
-28
-7
14
-20
-32
-9
-22
13
-54
5
-28
-31
-7
28
3
-22
16
-47
48
-37
-32
-43
59
35
20
-35
-15
48
12
10
0
23
45
26
-2
-14
12
-23
55
12
39
31
22
-40
8
8
-21
-15
-19
-6
-16
-23
-83
-44
-43
-46
28
45
-37
-59
3
28
-88
5
6
14
-1
34
19
25
49
-15
11
-29
-11
-2
10
-17
8
9
-72
21
-48
43
-64
-17
-31
21
36
4
-10
14
-7
-6
25
-45
-16
-7
3
22
-24
-30
14
40
-38
28
37
48
-15
-8
16
-87
15
67
20
0
20
2
29
43
42
-5
19
13
-30
-103
-42
-31
-69
-10
32
-10
-48
14
0
-31
59
-8
6
-38
62
9
39
23
-35
66
-22
10
36
25
38
-4
-7
3
-4
-35
14
10
15
-22
81
27
-17
-52
-53
-44
27
-48
9
47
-59
11
-8
-15
44
8
-39
22
59
-15
-83
-40
2
16
42
49
-52
50
-34
36
59
61
35
-6
-24
34
0
32
35
-26
12
-57
4
-26
-12
-7
-21
-22
-37
30
36
21
-38
-42
-19
60
-8
12
-15
19
-39
-17
-40
11
-5
-28
-37
42
19
-16
-36
-33
5
-17
49
16
0
-4
-60
40
70
37
6
-34
12
34
-10
25
26
-2
-37
-8
8
-19
-31
36
15
24
-64
30
-31
-19
4
-2
25
-8
18
-64
-57
-10
-75
0
-54
-40
6
-88
19
26
-5
7
21
8
32
-47
-52
-7
0
-7
68
-23
12
-60
-28
-2
-19
3
-28
-16
-56
-8
43
-13
32
-5
-11
-27
42
23
-8
6
80
-16
-23
8
7
-12
45
32
19
19
7
15
-38
-82
-19
-33
-14
25
-7
-7
-22
-11
-69
-29
2
-41
20
84
-35
34
13
-9
-41
4
-6
-29
28
-21
-10
41
19
-18
10
13
14
34
36
19
9
-35
2
14
17
35
-27
-21
29
9
4
31
-16
6
-45
-59
28
17
40
-12
-2
-20
4
15
-10
27
-13
15
-16
46
22
-67
-13
27
10
39
53
5
-10
50
17
1
61
55
56
-42
-17
-47
31
1
-36
3
39
-80
-30
11
-9
-9
-53
-21
-13
-65
15
-5
-9
-13
39
35
-3
-68
-52
-45
62
-33
-20
-13
7
-11
3
-59
-44
-51
20
31
2
29
-8
-45
47
-23
-4
24
21
-29
25
99
0
-5
35
68
-15
-34
3
41
44
-99
21
-44
-15
10
16
-42
87
5
-4
30
-56
5
15
29
75
32
-42
23
13
49
-49
-26
30
5
-35
12
58
-1
43
22
-5
-13
55
-29
-3
-14
52
-9
-22
-10
17
14
-33
36
7
-7
-7
-15
-65
-5
37
3
62
8
30
53
13
-105
-58
-27
-29
38
-56
-23
-30
43
-48
0
-41
-7
-51
-2
39
70
12
-15
84
-43
10
-3
-2
12
-16
-28
16
21
-27
-31
48
-22
17
-18
88
5
4
11
-7
28
41
23
-6
-41
-30
-41
-47
0
-4
15
-54
6
32
-2
-81
-19
29
13
18
-21
16
11
31
16
-39
-11
36
35
44
7
-41
-1
6
9
-9
-9
29
17
-9
-25
-31
0
13
12
-14
9
-25
-10
28
10
7
40
-4
-3
38
52
-27
-52
3
9
3
22
10
-5
-27
-43
-38
-15
-34
51
0
-19
1
38
49
48
-15
-9
35
8
18
10
-18
-26
6
7
-21
-44
23
-29
-3
-4
-4
11
26
11
-29
27
-52
-35
-10
-47
46
40
18
52
-55
-4
-8
-24
38
-27
11
-14
5
2
-24
-12
-2
-35
16
28
16
-67
51
12
-25
-47
-17
18
-45
-3
38
31
-5
26
5
-29
6
13
41
-29
37
-1
33
-14
12
-25
-74
22
-29
-8
-22
-22
-27
-51
2
74
3
43
5
22
-49
18
56
-39
25
-30
-82
-44
-19
-13
41
-10
-23
-5
-16
56
-28
-51
18
-61
28
7
-35
-47
11
-11
33
5
-7
-6
-26
1
-15
-27
10
-3
-4
0
8
24
5
-78
-58
14
42
9
42
-8
-61
8
-23
-27
-3
-33
-15
14
15
-36
26
9
-48
-65
45
1
-17
-4
-48
28
-44
-40
31
-27
24
43
37
-2
3
28
-19
47
-11
-47
-40
-20
20
44
37
18
21
-5
5
8
-4
48
11
-32
-11
24
-34
19
-2
0
-3
-14
10
2
48
-12
-20
-36
9
-35
5
21
14
-5
-56
62
12
-11
36
-15
9
-23
15
-21
48
31
19
41
-20
-26
60
-2
17
10
-56
2
5
6
-21
31
-25
-50
13
-42
3
12
2
4
-14
-1
-39
-26
-13
-6
-10
-31
-3
29
-46
13
-31
-29
-1
23
33
-29
-3
46
-9
6
5
15
-55
-21
13
18
30
-34
-25
-9
37
-60
-8
-15
-33
-11
1
-12
19
-3
-27
-27
11
2
16
29
-8
4
-42
-31
-29
-7
-20
45
-14
5
21
36
34
46
-15
18
-18
-55
45
17
20
-9
-32
-1
-20
7
34
27
14
-13
-55
-13
-1
33
4
-86
7
59
-3
-20
-20
34
15
-28
-13
37
-38
-10
0
9
59
-41
-22
-1
-59
49
-2
-19
50
27
15
11
-8
5
-16
-59
-14
15
-23
7
-25
-5
49
-2
-12
-12
15
-9
-31
31
-10
42
-36
37
-34
-9
-19
4
-32
-24
-17
-19
7
-45
-20
-30
-12
-27
-6
21
-69
-56
7
-22
-10
36
-18
-1
24
-11
-33
25
-39
41
18
-36
-51
-4
52
14
52
60
-39
-21
2
13
21
23
6
-35
-3
0
15
37
-61
4
30
4
-30
-58
-41
-14
-27
-13
-12
15
-9
-34
7
58
16
5
-20
27
-6
-38
6
22
41
-24
-52
29
-19
-2
-34
-22
9
27
-10
10
52
-27
-30
18
-18
37
1
30
-22
0
-6
17
6
-35
-29
22
-43
-21
19
-1
5
-27
-24
21
-13
45
6
-11
-34
22
43
11
34
23
21
-44
17
37
28
3
-25
6
46
-51
-25
-39
-24
-64
14
18
22
4
7
27
31
-38
5
49
-4
-6
-39
-22
-29
-80
-4
77
5
16
19
19
-10
0
28
-37
-47
-26
-11
40
-60
2
-31
1
16
52
-52
-9
19
-44
34
-3
27
8
-1
5
27
71
33
-7
6
-13
-18
17
6
3
-20
-42
-66
-26
-52
29
-17
-65
-69
-10
-34
77
-49
15
12
-21
-33
-27
-16
-11
-47
36
15
-10
-27
8
5
25
-5
1
19
18
-48
-42
9
35
17
32
-2
26
-23
46
15
-65
16
19
-57
-82
-56
15
-7
-47
9
20
-20
-61
-15
-9
-35
-9
-44
20
-1
-58
4
33
-11
23
-18
44
-41
2
-16
15
32
-44
-43
2
22
-19
22
-22
0
48
-9
-34
-69
44
18
25
-35
10
47
5
2
32
-2
0
6
-61
-16
-1
12
-16
-14
-15
-30
-25
-25
-68
12
30
-18
-17
26
0
-35
-33
-23
-25
-17
-36
23
-37
-57
47
-5
1
29
20
-41
-13
-13
7
27
-34
-7
8
13
-7
-10
29
14
-23
23
24
-45
-24
-23
-33
48
-93
28
16
20
31
-18
9
-22
-46
6
-6
-19
32
51
11
62
-50
65
10
0
66
14
-8
-26
-30
-26
8
-48
85
-15
26
-12
-22
-19
-22
13
1
-16
-19
-15
-10
1
-35
-7
23
52
31
17
-12
0
34
17
-31
45
-51
8
17
-6
10
-14
-6
13
18
2
-3
-9
54
9
47
16
-4
24
-13
7
17
17
-13
-50
7
-21
-1
-17
12
-54
-10
16
24
2
-6
-34
62
4
-2
14
47
33
-33
-62
11
-7
6
13
6
-7
-4
-17
14
4
-19
19
-48
27
0
-35
5
23
7
-13
10
-16
-16
19
-24
24
-4
31
-5
38
-17
48
-20
-34
-12
23
12
-2
-39
-2
-80
3
52
-4
-14
-13
-23
79
7
25
-17
-30
-14
-11
-40
-26
15
13
3
4
29
6
63
14
17
-24
-33
50
-7
-4
15
43
-45
-26
33
-20
-8
-6
8
-5
-8
-12
23
-15
-14
50
-14
-7
-3
58
3
5
-20
-53
-5
-16
-14
36
-17
41
-36
26
21
23
14
-3
-1
25
-52
-35
-45
25
-71
-21
-22
-33
-25
-50
0
-10
-5
9
11
-2
14
11
8
23
-9
-1
-6
40
-42
31
-10
5
-32
38
22
50
2
-10
-26
6
-3
27
9
-21
-4
26
-8
33
-9
22
-28
19
-33
-16
31
52
1
29
-22
86
-62
14
24
26
-3
5
25
51
-16
-34
7
-20
-53
6
-60
-24
28
-5
-45
-15
-1
-37
13
-24
27
-28
1
-18
7
22
20
37
-30
-1
1
-9
-20
-9
-24
-11
29
1
-41
-91
-6
3
-46
42
-13
36
5
-18
16
-55
-25
16
-7
9
-4
-9
40
17
12
-17
3
10
7
29
7
-51
-6
-22
43
38
-9
-29
4
35
-39
0
-39
-25
-49
45
-18
-47
-15
-17
13
-29
-45
22
15
33
29
22
-48
14
2
-26
37
25
2
-28
-31
-21
-9
-8
11
62
-3
14
2
24
19
10
-31
24
-33
-10
-19
4
-63
24
-37
31
36
-51
-15
21
14
27
-15
12
-22
39
6
8
-5
-10
-21
2
35
30
31
-26
-32
-25
72
-2
-29
14
5
-40
29
20
-33
10
-14
-40
32
-2
-14
54
-7
9
-27
-10
33
-48
22
-8
-33
-12
9
18
10
8
-38
22
-21
46
-9
-12
5
41
17
17
-1
-29
2
15
14
-17
15
12
12
-28
-14
3
-34
-2
-19
-10
46
10
41
15
-19
-3
-74
-96
-22
-24
31
-25
-23
-54
-6
21
-13
-20
-23
-4
-16
-52
-50
-3
-28
26
-21
-6
-3
14
-15
-31
0
-17
32
-10
-35
-37
0
1
-28
6
6
-9
-52
-6
-14
-43
29
-29
-4
-9
-14
-23
-30
-11
19
-7
23
35
-10
-12
-32
15
-8
0
-22
-37
19
-23
7
-67
6
-12
1
48
11
-65
32
-1
7
34
20
16
-42
-42
-20
-29
-41
-5
-32
-4
-8
-42
-6
38
-18
-9
54
-33
23
-9
-12
-4
-11
-9
40
-24
40
-14
-30
1
22
14
7
17
-25
26
-37
-14
-21
-9
6
-45
-23
0
28
26
0
1
44
-20
-43
15
25
-16
20
-6
-11
25
-15
20
62
30
-10
14
-15
-17
-19
7
-2
5
-39
-52
23
-4
-26
22
0
-39
32
-26
36
38
-28
34
25
11
20
2
44
-69
1
-48
13
3
-14
-10
-45
7
20
-30
5
-9
17
24
-35
-23
-32
-22
55
29
-41
17
28
-6
-12
-9
-2
15
36
-35
5
-3
12
9
38
-7
23
25
-53
-54
47
1
-7
44
3
-9
-12
32
-34
25
24
1
15
-1
-8
24
-1
36
-12
-13
-49
9
-17
-19
26
-29
-36
16
4
-19
-16
3
-34
-43
46
-8
4
26
13
-15
-24
17
7
-20
-39
18
-26
44
75
51
23
64
-39
4
1
51
39
34
39
37
-32
-29
18
-12
4
45
9
-27
-11
2
-1
40
29
11
-9
32
-20
-51
-21
0
11
-24
33
-24
-4
52
-13
-12
-11
-32
-7
29
39
-14
-8
10
0
-14
-22
-50
24
-17
55
1
-59
66
43
-11
-4
51
-52
10
-2
11
-24
42
2
43
13
21
42
36
-32
-11
-15
-1
-21
-11
-57
-57
14
-6
-18
-69
43
20
-36
2
-7
-14
-29
-8
-2
-50
-39
4
-9
-24
-15
-5
11
0
5
-25
-18
14
-51
9
-46
26
12
-46
-27
4
12
4
-27
6
23
11
35
-29
-12
-9
-19
-29
-28
30
-2
-31
25
10
-28
54
46
-27
27
33
-27
39
-2
33
-19
-20
1
-38
7
0
14
27
11
-1
-59
-15
14
-36
-50
29
15
-2
13
4
64
18
25
-13
13
39
-30
37
-4
14
-38
-34
37
72
-21
-25
-50
-56
21
-1
18
1
-15
-20
18
31
-34
-22
30
25
-28
60
-19
41
5
31
43
7
34
-20
33
26
-26
-20
4
-11
28
15
-35
-11
37
-3
15
-22
46
-11
-33
-27
-5
3
-7
2
21
51
13
-61
68
-13
6
-22
-16
-16
-6
2
8
22
64
-10
3
-40
-34
5
-8
22
-70
-13
-25
-1
-33
-7
23
-1
-26
12
-48
-4
45
19
-1
-28
-3
-12
-30
60
31
-14
4
13
-8
-21
-44
1
-44
-28
26
-12
13
38
75
-32
-5
-33
-11
-26
-14
-5
2
-10
-2
68
23
17
19
4
-24
51
36
-38
27
31
-10
15
13
0
-29
20
50
-22
-59
-21
-17
33
-6
-56
-14
20
-10
38
-32
-29
9
27
64
18
-27
-63
-21
-15
-45
12
22
24
48
-4
27
9
5
40
-47
-3
7
-9
-3
24
-36
46
-13
17
43
24
-30
9
-58
-2
5
20
16
-29
18
-52
-4
38
61
-1
44
-5
-18
-2
-22
-6
-13
-1
27
-34
-11
-27
-26
-6
21
-6
31
26
-6
7
-19
0
7
22
-22
55
43
23
-13
2
-10
-13
1
7
-14
-38
15
-10
17
-51
-7
21
14
-15
8
49
42
53
-13
12
27
-7
35
-4
69
29
1
52
-33
17
12
-27
31
-31
48
-56
24
-7
-49
-42
-43
13
57
11
31
-10
30
26
6
21
-19
10
-40
-3
-22
60
-29
-15
1
-66
-9
-29
13
-10
8
7
-25
18
53
12
19
32
-9
30
34
-40
41
-1
2
26
-32
-28
11
-20
24
-36
-32
35
18
17
-14
1
10
-23
-47
44
14
-37
-38
-47
0
-43
22
5
-5
-39
-3
26
79
-60
4
33
47
-1
21
0
45
4
-3
-3
-7
28
43
18
35
-30
-3
-17
-17
-20
0
5
-34
9
71
39
-11
37
-62
5
44
10
-23
3
1
-32
5
10
38
23
31
-10
46
58
33
-22
-5
-3
-59
32
-13
-28
20
7
44
-50
-1
24
51
18
-14
-39
10
15
-18
-5
-5
-2
-9
-10
29
9
44
-8
33
-17
25
0
4
12
11
-9
2
11
-16
5
30
6
-26
-8
25
-11
-13
-20
34
24
42
28
-37
33
24
-5
-55
-30
-2
30
-9
-29
46
38
18
16
4
6
-32
-2
35
-41
18
12
9
-21
-3
-26
-4
21
1
39
-16
-23
18
-69
29
28
10
-2
23
-46
-23
41
24
-25
7
59
32
-22
11
32
25
-23
-5
2
-70
-10
-6
13
55
12
23
-11
11
-29
19
20
-11
31
47
-27
26
4
-28
19
-10
-11
6
10
-12
-5
-1
-28
39
-5
8
-11
-21
2
50
12
15
14
-57
22
-14
-33
-9
47
32
-36
6
-22
14
-12
5
-17
-20
41
-10
-8
-10
-37
-59
4
62
42
5
16
4
45
-17
-7
9
11
0
10
-8
-15
-67
16
24
5
8
-12
-30
-29
-20
26
-3
13
22
27
31
-29
6
-25
-37
-19
0
-6
19
-26
-11
21
50
-24
-29
-12
33
40
26
5
32
-17
24
43
-23
-7
0
12
-61
-7
11
-4
45
-33
17
-31
42
5
-12
55
33
27
18
-4
35
-9
-47
65
12
-24
-61
-3
62
19
-27
25
13
41
-19
-31
-23
-27
-46
14
-36
-13
16
22
-11
-3
31
12
-27
27
4
16
45
-45
-14
-40
-27
-15
1
-35
-10
-10
-34
-18
24
-35
40
-9
-9
5
7
34
-62
13
-24
-52
-29
16
-23
-10
36
-4
-53
-25
6
-31
10
26
32
-10
1
-24
-25
-13
-31
1
-45
41
13
-8
-27
30
-24
48
4
8
-35
-34
1
14
5
-3
37
26
-20
9
-39
13
11
15
-28
-37
-22
42
-71
-55
-11
17
-11
-29
39
49
18
-67
7
-14
-13
17
-31
16
-13
-9
-4
20
24
-14
13
1
32
16
-51
32
2
30
-30
-18
29
-12
-46
15
0
20
-10
-64
-23
-19
21
-14
-12
1
-28
34
55
-11
27
19
62
-6
-40
-8
42
14
-6
-18
-10
-3
-20
-21
13
7
-2
43
-48
-28
28
-17
26
7
22
-41
-14
37
-56
11
1
-43
-4
6
-39
-28
-56
7
-20
2
-24
-23
-23
-20
9
28
25
-36
38
2
-25
-2
-2
28
-11
2
-30
-2
-4
8
-28
-26
22
-25
-44
-11
-2
-26
2
-5
11
-35
-7
-84
29
36
27
0
-9
53
-4
-10
-54
-49
-37
27
24
-9
-16
6
30
14
-51
-9
9
-37
-1
-20
-6
35
23
-44
-14
-33
21
41
-19
-32
-10
4
20
31
-87
-54
10
58
45
-6
3
-16
-28
-27
45
-12
20
14
8
16
34
-17
30
-14
-39
-27
-60
-37
-11
-42
-1
22
37
-16
-28
49
-12
4
-6
11
1
31
-21
3
5
-28
-6
-1
-16
24
40
27
-28
-17
-31
14
44
-11
33
5
37
51
-31
-13
57
-15
-20
-36
56
-13
-64
31
13
-1
13
38
-51
-13
-19
0
-3
-23
4
-28
-23
-19
-14
-5
40
-25
11
29
37
-9
-38
-48
50
3
30
25
27
5
1
25
7
3
37
-19
-12
-25
-1
-14
-58
-2
35
-46
-9
-44
-25
7
56
-25
3
2
-25
-16
-31
16
-40
-45
32
5
-26
2
-13
24
-17
30
-9
5
9
-13
5
12
9
-28
-41
18
39
8
27
14
14
14
-23
7
-34
-5
-5
-23
-2
4
-23
-57
-1
-24
-15
-26
-36
-15
-10
30
10
0
-8
13
10
-71
8
-15
39
27
-4
-64
3
7
8
1
21
-17
10
-31
21
13
21
4
1
2
36
3
-43
33
-12
37
24
6
-22
-9
-21
-37
-49
17
-9
-34
63
-42
-5
-40
-65
-20
0
-4
1
-32
42
-1
42
-7
-12
-50
-9
-23
36
-9
-8
59
8
-4
18
30
-57
-54
-27
-3
-44
-22
4
-7
-26
39
-1
-41
-22
18
39
19
29
0
-9
36
-27
-16
1
19
-12
56
23
-49
-28
22
-55
25
7
15
-31
13
-15
10
-37
-19
-25
18
-7
-30
-63
11
-12
-25
67
30
3
51
23
56
-19
-14
-38
-59
-14
-20
-46
-25
-42
6
-24
33
50
-14
-17
-40
4
-17
-29
-3
6
-51
21
14
7
31
-24
14
-34
4
0
46
4
22
-20
23
56
29
-7
1
-66
-19
-11
-14
-79
18
28
12
-37
-14
19
-34
21
-8
-28
-6
6
-12
-34
-9
24
39
-6
25
-36
-22
-9
-2
35
-52
19
7
33
3
24
-45
19
0
-37
5
43
27
22
-12
24
32
-1
4
-24
-33
-71
-28
-16
-33
13
-2
-51
36
-22
-13
-27
-29
-15
-8
-17
-19
-23
-10
-20
-37
3
7
-11
-23
-31
-24
-6
-4
-5
2
36
-3
10
-47
4
41
-1
-6
22
8
39
4
-13
39
58
3
-24
23
15
42
10
60
-37
-8
4
-22
38
37
-8
17
-23
31
7
-18
51
32
-15
17
-26
3
0
-16
-6
31
22
47
-17
39
43
21
0
-32
-55
27
-10
-19
-5
5
-4
25
28
30
2
-35
-3
-65
30
48
-30
31
-9
-10
59
-47
49
15
-36
-14
34
1
-21
3
-21
-39
12
6
16
-27
-36
-34
28
6
-30
-42
2
27
0
-2
11
-22
1
13
-43
-24
-15
-14
33
-13
-56
-36
-11
-54
-43
-20
-15
14
6
18
-17
17
-24
-15
-8
-74
-68
-19
-13
42
-30
-18
-12
15
-33
-39
-9
37
2
-10
-28
-21
-54
6
23
-31
-42
22
45
-33
-24
-15
2
56
15
36
26
-11
-15
9
-22
-12
15
-18
-56
-28
7
-9
17
-33
24
-14
-25
-28
-55
0
-25
1
-50
-37
37
-14
-6
-14
2
-48
-5
22
-7
-41
41
-14
13
4
1
-18
58
15
4
-21
-32
-14
10
-6
-41
10
17
-44
-3
-18
-6
11
-11
5
8
-39
14
19
-38
-30
17
14
23
11
-31
-11
43
11
18
-34
23
-36
-19
-3
14
13
-28
-41
-8
40
16
-15
-58
57
25
-12
12
-19
20
-32
-21
-19
-27
-1
35
2
55
5
-26
19
-11
4
-52
42
-32
-31
-4
14
0
-3
-35
-13
-15
-5
-44
11
24
1
7
23
-14
54
5
15
-41
-46
9
-26
2
-15
20
-40
-63
-4
-33
-31
5
-2
-30
3
-24
-25
24
10
-35
-5
17
9
2
-1
9
36
-9
7
6
-11
-25
25
-50
-70
-15
-10
-8
-3
-1
-30
5
-8
-39
6
-42
6
11
3
18
9
19
-4
20
-7
33
-14
-30
-4
-8
-1
-18
-33
9
4
-47
10
2
8
-34
-25
32
-21
-16
-9
-50
-26
33
5
45
7
46
-18
-47
27
34
-18
54
-38
-40
-9
-40
-19
29
-19
26
39
-13
-9
1
8
-31
-19
-14
32
7
17
-30
47
-5
5
7
-13
-43
9
-59
-20
10
5
28
25
-19
24
-26
3
64
-17
-17
-17
-48
13
41
46
11
-52
53
16
10
-22
-27
39
23
89
22
6
-2
-34
36
35
-28
-63
-2
37
-7
-5
-2
-26
30
-14
22
22
-24
16
-23
-6
8
21
-7
-40
-2
-63
9
-26
28
-24
-10
-54
59
27
5
-15
-27
-53
13
-21
-22
28
-23
-37
1
5
-23
-19
-9
-56
-36
-9
4
23
-7
0
16
31
-53
-6
49
-36
-2
-26
4
-43
-44
-8
-38
36
-21
3
46
15
45
2
-25
60
25
-12
23
29
-1
34
21
-21
-35
3
-4
11
-32
-2
19
16
27
-6
-38
-10
-13
-6
-18
-49
43
-45
6
-10
-20
-10
18
8
-27
-62
32
3
-20
-5
-1
-1
16
-7
-20
-12
11
-17
-26
9
22
-18
8
-48
-12
30
-51
-43
22
-8
8
14
-9
-44
-17
-72
6
24
14
-21
20
8
27
8
41
-5
-42
-40
-18
36
-41
-25
-10
-13
-9
25
-8
5
-29
48
-30
-4
33
4
12
-6
69
-23
9
-32
-47
-20
17
30
3
-30
31
34
-33
62
-14
56
-23
2
10
-4
4
-26
33
39
3
22
36
-17
25
-31
7
-15
-4
46
3
21
39
20
-16
-1
-17
-26
2
44
-21
-47
30
68
-2
-22
-79
29
-44
30
-14
-24
45
18
25
-55
56
6
21
-27
-40
19
-29
-45
-29
-19
78
-28
73
0
-8
-34
1
-22
21
-10
-52
9
-20
8
44
-20
11
-10
-9
-4
-12
-63
-24
8
17
18
-28
-16
-15
-20
5
-47
-59
-9
-30
18
7
-47
49
8
25
-26
-15
11
40
44
-38
-25
-35
-21
-6
-13
-26
29
-20
-50
28
8
-6
11
61
44
1
48
23
-30
-26
-52
-6
-41
-4
41
26
36
-52
11
1
17
9
-19
-11
6
26
16
-7
-12
-63
20
-45
1
12
-9
-24
-14
31
31
13
-18
20
22
44
-36
69
-12
10
-24
-46
-35
-4
-39
-14
6
13
18
-46
-9
13
-39
39
-38
-4
-32
37
-21
-21
-16
13
-26
-24
-12
-7
16
-12
-19
9
-4
-54
-43
12
9
6
-7
5
49
-17
-22
21
23
-30
54
16
40
13
15
-25
14
-4
24
-37
27
28
-23
-48
-39
0
-11
-52
6
1
-32
36
-1
-68
-51
-57
-45
-30
42
20
2
-12
-22
-1
-16
-41
-6
19
-16
27
34
-50
-38
21
-30
-43
56
2
-30
43
37
15
0
0
1
10
-5
8
-54
22
17
54
60
-2
-41
-46
-31
-6
43
-38
15
-8
-54
14
-21
35
54
0
58
9
-1
-23
8
25
10
30
51
-29
-19
13
17
4
-10
31
-19
15
-32
-7
37
42
-2
19
-7
0
0
-14
23
-67
48
-8
8
56
34
11
31
-23
2
17
51
60
53
-26
61
12
42
17
19
26
-14
13
6
49
-27
-40
27
-28
3
18
-12
-5
-4
40
36
-5
10
-16
-28
-21
30
26
-38
-29
-51
-6
55
30
42
-62
14
-15
-42
-14
-4
-19
59
53
53
6
13
15
30
47
13
19
-15
7
-48
57
-60
30
25
-5
24
25
-7
59
-3
-18
22
-38
2
8
39
12
-39
-18
-15
-26
-3
13
-40
-53
10
28
16
1
33
-15
-16
3
-17
18
-44
62
-18
45
-12
-10
-38
30
5
-24
48
69
-8
-10
-6
9
7
13
-52
53
-13
37
-6
30
30
-33
51
-41
-40
12
0
-36
-7
12
-8
35
5
-28
14
-10
-3
11
24
9
2
12
69
27
16
16
20
20
-4
46
25
19
-22
0
-5
-40
-23
35
9
33
52
25
4
27
-28
17
-25
6
3
-1
2
-28
-18
-15
-42
-22
25
39
11
19
29
-18
25
12
19
7
21
-15
-6
-42
5
34
23
50
-20
53
18
52
1
-16
8
-71
32
-15
-16
23
9
29
-68
12
-22
53
-7
11
59
2
29
-23
-50
10
40
-13
-23
-28
49
4
34
-21
-46
-24
47
28
-42
49
-17
6
3
-31
-57
-58
11
-27
-53
-17
-27
37
13
43
33
-30
0
-4
36
-20
55
57
-6
-62
-55
1
45
35
10
11
49
36
-10
-36
63
-25
-12
9
15
53
51
-9
12
-59
-2
29
-22
6
63
7
-5
13
-17
2
-30
-15
7
3
14
-57
38
47
44
19
-20
28
-11
11
-10
-52
-47
-10
-53
36
-1
-30
-39
9
-7
-2
-65
12
65
-70
40
-16
20
75
52
-19
-41
-72
-27
7
-51
42
-7
-59
25
51
10
-8
-13
6
-47
-13
-10
-29
-26
41
-35
-4
13
-6
29
55
-18
8
37
-9
10
13
-35
-7
-43
7
-39
20
-26
10
-21
-15
12
18
3
-54
5
41
18
36
-44
13
-14
-26
-10
-18
-22
17
-14
24
-37
28
-5
-27
-16
15
16
22
-35
31
-14
-42
37
-33
-23
-21
-17
30
-34
-10
44
53
-1
52
50
21
-32
-9
43
-56
-36
18
23
32
-68
-11
12
31
-30
-21
-24
-36
35
27
-26
-51
26
-22
-4
8
45
-50
-22
33
-32
0
-8
-25
38
-12
84
-12
9
28
0
-9
-10
10
28
-35
18
43
-17
8
-52
-31
-29
1
25
-8
-15
44
-18
42
-39
-19
1
-4
29
-3
-1
19
-31
19
2
-20
-68
-21
-12
39
-25
11
-30
2
16
41
36
13
4
-9
3
57
24
34
29
-20
-44
58
34
-6
-19
-6
36
46
-66
37
-19
26
-9
-8
4
-14
-41
-14
-11
-30
-18
-41
22
-1
16
-17
64
-26
-27
2
54
10
-25
-43
34
17
36
20
1
-47
-27
0
66
-2
73
-65
45
-59
-3
13
45
13
-15
-8
6
22
-6
27
-72
48
55
-38
55
-41
-47
-51
58
-15
82
-25
-13
54
-39
9
-36
-39
34
61
-46
-11
13
17
42
-21
11
8
59
-26
-16
7
-38
12
1
-8
1
17
4
-29
2
16
-5
20
15
-4
0
54
-1
43
58
84
55
-58
25
3
-47
21
5
-18
25
-12
6
17
-31
72
10
21
1
-22
-11
-2
10
44
-13
-45
-16
17
20
20
-6
51
-50
21
22
-3
-10
3
-3
4
-20
3
34
-36
-16
-40
23
-41
-12
37
58
-6
-46
26
27
-60
-42
74
52
-40
-16
21
-2
35
62
21
54
11
60
66
-51
30
36
-26
-18
-44
-25
30
0
-40
13
-25
-8
-34
41
27
0
-1
-44
-54
57
-4
12
-33
-16
17
-8
52
14
-8
-12
37
17
18
6
34
38
15
15
9
-11
-14
38
13
-20
-2
6
6
8
38
13
5
19
31
-7
37
19
-34
59
-24
8
27
17
5
-15
34
25
39
-3
-18
38
3
-45
34
-20
11
4
-26
-15
20
47
-15
-50
-2
7
5
25
73
39
-26
-12
-37
14
35
61
-10
18
0
-10
-17
-14
17
4
32
-38
-11
32
43
15
-30
15
-15
14
-13
3
1
12
5
1
-17
25
14
22
-27
19
30
5
-21
7
-27
-12
18
-32
-52
42
3
-3
21
-12
37
-13
-8
-26
32
5
-17
3
41
0
16
21
17
-7
4
24
28
-18
34
-35
11
-24
-31
-19
-8
5
13
53
-9
16
12
-29
-9
16
20
50
-22
-31
8
1
3
19
-14
-27
-28
-1
36
-8
-9
20
19
38
-9
-64
51
-10
42
1
35
17
14
45
-37
12
-24
13
7
15
0
30
4
-3
9
21
-31
-20
-1
-15
40
-7
16
-7
-14
55
19
32
10
16
41
34
3
20
-7
-22
36
0
-36
-8
8
28
0
-3
-31
-2
-10
-41
47
-11
35
-7
32
-47
29
-9
65
-40
12
-22
36
27
-18
-33
-36
10
3
30
28
39
61
-36
21
22
-21
5
-18
2
7
20
-7
-6
26
-28
57
-20
-4
8
67
11
16
-37
-21
16
-6
-31
8
-36
28
26
2
0
-7
7
-2
-18
39
19
19
22
24
15
-23
50
-9
13
25
71
-13
29
6
33
29
-26
46
-40
-22
-9
32
22
25
7
-28
44
-48
28
-15
3
-35
-9
35
3
42
-43
-14
-1
28
45
29
-52
29
18
36
39
48
-4
31
31
-42
-14
-26
1
15
1
-37
24
-20
38
1
-6
-36
34
22
-15
13
4
20
-26
-11
34
-16
-17
9
-9
-10
27
-6
-40
22
18
57
29
47
-2
1
-3
-11
7
-4
-19
-2
-4
2
-11
-21
-14
16
7
2
10
-12
17
-13
12
-49
19
6
27
25
0
41
-21
-17
-7
41
1
35
-5
-10
-11
68
-15
-11
13
-5
-32
7
-22
-4
4
-12
14
30
7
-34
4
16
13
19
-41
29
-9
-38
20
2
-7
12
-19
7
18
22
-32
-7
6
-8
39
27
-6
14
54
-13
-16
2
-36
-18
12
-31
27
12
43
-40
-13
-33
21
-26
38
25
32
6
10
-12
-1
-14
50
-18
15
-22
53
49
19
4
3
0
36
-11
2
31
15
8
-43
6
-3
-2
-10
-32
2
46
-12
-4
-8
14
22
7
28
40
2
30
15
0
-15
28
-2
-15
-18
4
-27
13
-9
-11
-6
-1
9
-22
6
22
24
-33
6
25
33
-23
8
-30
2
28
-14
-24
15
-12
-13
1
-27
24
26
8
-18
-11
-6
18
-33
2
27
-18
37
-8
-28
-32
-4
10
-26
37
32
53
58
-13
-22
64
-24
-1
6
6
41
32
-19
-13
14
-28
7
45
48
41
-26
-4
3
-18
-18
-5
-47
21
-35
3
-39
16
46
-49
38
-7
-34
-13
16
-3
6
-14
-7
-21
-39
-42
-5
42
41
-14
-17
-19
-33
6
-37
-11
23
-21
1
-39
27
45
41
-19
-14
-23
39
-52
2
36
11
44
7
24
4
15
-15
4
4
-33
39
25
47
-24
5
-57
1
-31
-61
-2
37
11
14
32
-18
48
36
-46
36
-4
-26
36
-9
56
-30
-10
-20
14
1
49
-20
-3
8
25
-16
4
41
28
16
-19
-6
-15
35
-8
4
3
4
-26
14
-4
46
9
-11
19
-8
-22
-4
39
42
33
-12
9
26
4
-29
-2
-12
-30
22
8
-19
48
-26
37
75
4
-16
11
-33
-39
16
35
9
-16
-41
-27
3
-20
-33
43
-17
18
26
8
5
-19
-20
31
4
15
-50
35
18
3
30
-12
61
25
24
27
-31
-10
-23
2
18
3
26
15
-35
-17
-50
49
19
-23
-28
-1
1
-24
26
-6
-4
-2
11
54
-2
-4
27
1
9
-43
24
-33
16
68
17
-7
0
-6
-25
-16
-35
-9
-5
21
-11
-36
-7
25
18
-24
-23
-3
-20
-74
12
12
29
-2
1
-49
10
14
-40
-62
-27
-37
7
11
-28
13
-18
8
-44
14
14
-10
19
-24
-26
-23
-12
-43
25
35
-20
-45
-53
20
7
-39
32
-47
-29
-11
-23
-49
-19
0
-3
12
26
-36
-6
-41
-11
-9
21
27
24
47
35
-6
19
41
42
10
20
-54
-9
12
19
9
-21
-11
41
45
1
-31
-30
-24
4
22
-35
42
20
-18
1
40
58
30
-18
7
38
11
-18
48
10
18
36
11
24
14
0
0
-16
-26
10
-22
15
24
-9
47
-20
-44
20
-38
3
-26
23
-9
12
24
-1
-63
5
-54
8
-36
-74
-31
-2
-31
17
-2
-16
11
49
-2
29
24
53
37
-41
23
-49
2
11
0
-11
3
-21
15
3
94
-13
17
-8
-35
24
22
1
16
36
8
38
-32
-18
12
17
-1
11
-36
7
39
32
-38
-8
54
-15
-16
5
-7
-30
-38
23
-37
-21
-32
57
55
-56
-7
37
14
-7
11
34
60
3
3
-18
-1
13
5
-29
-32
15
-48
42
-23
22
-60
6
22
-52
-29
-2
-2
-3
33
18
-25
13
-18
-44
25
-23
13
48
1
-3
-63
-21
-10
58
14
-36
-13
-31
-2
0
2
-19
-23
-54
57
31
-35
-2
-53
8
-23
-4
-54
-31
-29
-43
-21
-16
2
-6
-43
9
-29
59
42
-3
36
-58
-20
10
-23
7
-64
-25
13
16
32
7
13
11
-35
26
69
-38
49
-23
-34
24
28
14
-3
-19
21
21
-54
22
18
13
-17
39
-75
3
-7
-45
-4
9
-13
16
25
-6
5
16
-34
-45
34
33
-10
13
-61
-4
-2
29
56
-7
-10
-54
19
-37
4
1
10
8
32
-43
63
-12
-34
-30
-1
-27
-3
-57
6
23
-6
-7
33
31
13
-23
5
-2
-15
5
2
-23
31
-43
10
6
-11
-47
-15
-1
-49
22
30
12
51
-10
43
10
0
-45
23
-52
24
14
23
-24
32
-5
23
-26
-5
7
18
32
-6
7
23
1
-15
27
-18
-41
33
7
17
-30
-29
21
-3
-13
-7
-19
-57
-11
-3
-41
-82
-4
22
14
25
33
-6
4
18
25
10
2
-37
11
26
-56
41
9
8
-39
29
19
-6
-37
43
-38
-9
-19
3
7
-9
1
-35
-26
-44
-3
12
-45
17
8
-14
-18
-2
21
-34
23
-14
31
10
-9
-30
62
30
-55
-13
-8
-26
39
11
-25
30
34
5
-21
22
13
-35
54
-10
-11
20
10
11
-63
-7
-23
-23
-18
-16
51
8
-25
31
10
-7
64
9
37
2
33
29
20
0
15
-18
31
8
22
-2
-2
10
23
52
3
18
48
28
4
-5
-14
3
-30
19
-13
1
24
-15
13
-19
38
18
20
26
31
17
47
-31
55
24
-7
-37
2
-22
5
-7
-28
11
14
12
23
21
-65
23
-25
18
32
5
-17
13
-10
-18
-67
-36
-7
-42
32
17
40
39
-26
19
0
-20
17
-8
23
69
-3
-32
23
-43
12
5
-3
-3
-4
4
-38
33
-8
-35
16
31
36
-18
-21
-8
13
-19
-31
3
52
7
-14
0
-45
20
-12
2
31
-5
-5
40
-7
52
40
-4
46
-10
35
-4
18
-19
22
28
-5
-36
-7
29
-32
12
-23
67
11
18
10
12
-1
21
-4
46
28
-46
2
-19
14
13
-1
31
19
-23
-29
-27
-23
-17
-3
-31
-4
37
37
-24
23
-25
-14
51
8
-16
36
-14
-36
8
19
-4
33
-2
13
23
-14
-40
-25
-17
7
29
9
16
-12
-31
-26
-17
-9
-3
43
-37
28
37
-27
22
-4
49
3
18
-46
-35
31
-17
0
52
24
11
-36
-28
-7
42
-6
54
-32
-22
-11
30
29
-69
-20
12
5
-23
-2
-18
9
-32
-5
-37
-15
7
-29
-9
10
32
-42
50
4
-37
20
-20
15
-8
-18
7
18
50
35
-43
-58
27
-22
-13
44
-7
40
1
60
-7
-74
10
12
-24
-4
34
18
24
-8
-17
38
1
36
-22
20
-54
-37
-22
-25
5
29
7
11
5
-22
11
20
-61
35
26
18
-30
15
-21
-37
-35
16
26
-49
12
11
13
26
-5
16
-48
30
-19
5
0
0
17
-22
-30
9
-2
-34
-26
13
21
-1
-12
-45
5
23
-60
-18
-12
-33
16
36
-39
21
45
-10
8
-22
17
12
12
26
-4
0
-21
31
2
-14
12
54
3
-28
-12
-22
13
-34
14
41
-45
-15
-26
14
-53
12
2
71
9
-30
-16
10
-12
-41
9
-8
20
26
9
-17
46
-15
42
37
39
-3
-12
-20
33
-31
52
9
-31
9
-12
-8
-22
-26
-23
33
38
-1
25
-23
4
-65
11
18
14
-1
32
-40
-7
1
-2
8
8
10
-28
36
14
30
37
27
-15
-3
-18
-30
58
19
11
22
69
37
6
-36
20
-33
-59
18
15
-24
49
2
-45
-37
7
25
-8
-28
5
-23
-25
7
-15
-51
41
-23
6
16
19
-1
-7
37
-38
61
44
39
12
-28
49
-12
26
14
4
-22
35
54
-35
8
31
-32
40
24
26
1
-24
54
-23
-8
-3
36
21
54
-13
35
16
36
13
26
-2
58
45
-41
-7
25
40
-20
-1
35
-4
-24
-21
37
-50
67
25
-13
-14
0
4
-1
66
62
-29
13
28
39
-14
-32
15
-1
18
37
3
11
43
27
39
-4
55
26
7
-23
7
49
13
5
-31
-37
-23
33
16
-23
35
7
4
-17
-2
-21
-59
24
36
-3
18
47
-4
55
8
28
23
22
0
17
-8
8
114
67
20
3
15
-16
-1
-22
-3
21
3
-5
16
-1
55
49
7
0
41
50
-2
39
55
-32
30
9
-28
-14
78
26
34
21
39
-15
3
5
94
52
42
36
-7
-44
1
18
2
3
40
0
-2
35
21
23
-37
-6
66
-41
-16
91
-3
33
19
-56
23
20
-1
-11
-74
9
1
63
23
-16
7
14
21
81
-20
-9
24
-33
11
10
4
-3
9
18
17
-55
21
-31
21
11
48
14
44
-23
48
-11
-3
10
39
3
30
-57
28
37
-47
20
22
-25
41
-26
24
41
-16
19
31
18
3
2
15
78
-17
65
1
20
24
26
42
-15
56
-28
-40
-3
-8
-9
-10
-8
65
0
14
22
24
-21
5
-6
9
24
9
1
8
18
15
-13
-8
16
-4
44
13
-48
3
-10
7
-3
-29
54
40
-30
-27
-39
-19
-8
10
4
27
-35
-20
9
21
29
-12
13
-9
1
49
-21
33
-28
52
-13
59
65
26
-29
20
31
-8
10
-26
-5
-9
-20
-56
8
-8
25
-13
5
12
-13
-31
4
-43
-11
-22
7
-22
-12
-32
7
40
37
20
1
20
-7
-23
-8
-24
-19
-3
-62
38
38
-12
-30
30
12
18
26
29
0
-6
21
1
25
1
-2
-41
8
-45
-16
45
58
-27
53
43
18
63
54
27
-25
38
21
40
-93
38
8
-35
47
-19
-44
21
50
13
-19
39
26
23
12
-27
11
-27
-7
-20
29
37
-7
16
30
28
35
-38
25
20
-34
3
9
15
-22
-28
60
7
-53
-64
61
-36
-1
-3
-38
12
24
-3
-6
-30
2
44
-33
-30
40
24
-22
-13
23
-4
12
27
13
70
-50
-42
6
20
-34
0
44
15
33
7
-21
-24
42
23
12
-19
-32
76
-27
12
-13
52
37
-18
7
13
81
-11
31
1
23
8
-26
-1
-36
27
59
33
-19
-17
-28
-56
9
-5
16
-13
25
48
-2
-1
-9
18
-48
38
42
-43
-9
-46
-6
-14
41
-25
23
37
12
17
-49
60
-1
-22
15
15
-32
27
9
-24
44
-7
-5
-2
16
13
45
48
-23
-29
9
23
-2
11
-25
45
-42
49
18
-32
18
39
-15
41
35
-37
-12
-5
54
40
-30
-20
-15
55
44
42
-9
-55
4
21
-47
-30
-35
39
-2
23
27
-30
15
-4
-4
-33
-14
-25
5
-29
-7
2
-10
-8
-17
-37
43
-16
2
-40
-54
14
-28
33
-10
44
-27
-15
18
20
2
-3
22
-3
-26
-8
4
25
51
-5
-19
-32
-32
28
-24
-27
-61
15
-24
19
7
1
23
-55
22
25
-16
23
51
-13
-3
-34
-1
14
-28
-1
5
-44
-46
26
2
-35
4
-16
14
-6
-12
-3
-24
2
0
-15
23
-3
25
26
-19
-9
16
-19
22
22
-7
56
-42
-17
32
43
3
23
-29
-29
67
0
31
-10
-25
1
-12
26
25
33
5
29
9
56
-30
-15
-17
25
-30
-15
12
29
18
14
28
30
5
41
-4
9
-45
-30
0
-33
-3
21
35
35
-7
-36
36
-41
15
-32
-37
-10
-6
-24
-28
23
38
-15
53
-31
-50
3
-36
-19
-37
1
-3
-54
5
-11
37
-8
7
-8
19
25
-15
-25
15
45
-8
28
34
-8
15
-40
-37
-30
38
-2
-18
-17
25
-33
-12
4
26
19
-52
28
38
6
3
30
20
-2
-51
10
46
48
27
26
26
29
17
1
21
-1
53
-60
45
12
-22
-7
35
-15
40
-17
3
36
-16
25
-52
-36
15
21
4
-11
3
-11
-8
30
-45
19
-30
-14
5
22
28
2
21
14
37
0
20
-16
29
-2
-43
56
-11
-42
22
4
2
-2
-24
-46
-34
2
57
-70
29
-6
-19
14
-28
3
-12
9
23
-13
-7
-27
19
-50
-2
-36
19
-12
58
43
13
-3
4
37
-35
0
-34
21
33
0
-4
-37
7
-7
25
6
25
-53
-10
27
-31
8
27
-33
-16
-23
24
12
-24
-21
-10
-10
2
24
17
-30
1
21
11
-3
7
43
-18
5
-21
-21
15
3
-33
26
55
-12
10
37
17
53
7
7
-55
35
47
-4
-26
-28
-13
8
54
22
2
-4
29
37
26
-33
-4
-26
25
-22
6
-11
-19
-33
35
-22
-28
33
6
-34
8
-28
5
9
13
17
-10
6
-2
20
24
-8
-37
-17
20
4
-4
-9
-18
-12
27
42
20
-1
-51
-8
-27
19
-13
-37
-11
7
-3
3
38
13
-7
-3
-22
20
-2
-17
10
-9
-34
-18
-8
27
9
1
20
59
-4
-46
28
-28
-54
17
-35
-23
-7
22
9
-7
-7
-1
-8
-8
6
30
5
-29
-2
-6
-24
20
36
32
30
-14
-49
40
19
-29
-15
33
-2
6
21
-38
-18
8
-17
-17
-18
10
47
-48
10
22
-8
-39
9
-30
-2
-33
63
-21
-47
-34
26
-7
-16
-57
-24
-18
-9
16
-1
-39
-18
0
-19
-3
-14
36
23
-37
-9
-24
2
24
10
-49
6
36
51
-12
25
-38
-5
22
34
-11
11
13
14
-29
32
-65
1
50
-22
-47
2
34
3
-20
44
11
40
-40
19
-12
-19
-34
33
-36
-19
15
-26
0
1
1
-38
32
-36
-2
-4
-13
-7
-15
32
-14
-49
-4
31
41
-36
4
2
-35
31
19
5
0
-55
15
-8
-67
11
9
-18
32
4
-44
67
-3
-33
-48
-68
11
23
37
39
-46
-1
-19
19
12
32
24
21
25
-4
-17
21
-18
18
-12
-34
-29
-9
-22
21
-62
24
11
-36
16
15
21
-61
-53
-38
21
34
-9
17
-30
6
-45
-17
33
3
10
-7
18
27
29
-57
32
16
-5
-40
-21
-4
36
-6
-41
-28
10
-36
-56
-27
16
26
11
-25
-35
3
-27
50
-10
-16
-1
-41
32
17
30
-17
13
-21
7
-13
18
41
-7
23
-8
-50
29
-45
-22
2
-55
39
29
24
10
-11
21
-16
34
-3
-57
-62
46
-9
22
-10
6
-12
-16
-21
8
17
-1
32
5
20
6
38
41
-27
31
-10
20
14
-7
29
-18
-1
30
-30
-4
6
-30
-28
-35
-45
31
-6
43
-34
-2
32
-3
-2
-12
9
32
50
-22
-67
26
24
44
-3
7
-41
6
32
-45
-41
0
17
-22
-14
50
-19
12
-39
-39
18
32
57
2
51
-29
3
-7
-30
11
-25
-16
-22
-10
-7
-6
-34
9
-41
10
10
23
-29
0
-26
17
22
-31
32
24
37
-18
18
18
-19
-14
-17
3
-28
50
31
4
18
18
-8
22
-4
15
-17
22
25
5
2
11
-11
34
-24
14
-30
-49
-5
-26
14
2
-5
3
26
12
23
-45
-28
-12
15
10
-62
-1
-3
-23
-26
-8
50
25
-25
11
-24
2
-4
28
12
39
-13
12
-46
-9
12
-8
-62
5
-13
26
-5
4
16
15
20
17
-32
36
14
-19
-30
-23
27
-26
-8
21
-68
-7
-13
-33
-12
22
-18
36
-1
-16
3
31
28
-28
-25
22
-10
31
46
-47
-9
16
14
-1
0
26
32
-10
-24
-16
-1
-1
9
0
10
-33
-5
27
54
5
25
4
10
7
-10
-30
43
21
-18
-19
-23
-15
-2
53
9
-41
1
7
13
25
-45
21
-10
28
68
17
-43
23
5
19
3
-40
-8
-13
25
-4
-11
17
25
9
-12
-6
-7
39
-40
3
25
7
16
35
-7
-32
4
1
-6
63
-9
99
14
17
5
-20
-8
-21
28
18
-38
-37
1
-5
51
7
-28
-32
0
-5
-37
-22
-9
-21
-35
49
-8
21
43
-33
-33
-2
-8
39
-25
3
-73
-19
-34
10
-17
-17
32
16
29
-5
43
-38
26
1
7
56
28
13
-9
43
-21
-35
16
-36
-56
25
-27
18
-20
29
11
16
-23
18
86
20
31
14
-8
1
-9
-12
33
-39
-19
16
17
-8
16
-6
27
19
-1
13
18
40
-17
-3
-13
17
-28
5
-5
7
43
-12
19
-15
5
-32
-2
29
26
14
0
-27
-38
-14
-26
-23
-19
18
53
-10
10
34
24
2
-12
-39
64
23
18
-1
37
48
-53
-14
-38
-33
-30
-32
-37
30
-32
-58
-1
35
-4
19
19
-43
-20
-26
6
41
33
40
36
10
33
28
25
6
61
19
-3
12
19
-15
-13
-43
-9
6
-21
50
-5
-24
-4
-36
37
-21
-12
30
-6
16
18
9
-18
-6
12
2
3
4
53
11
-31
-28
1
-5
-2
24
-11
40
17
8
16
4
-42
12
-19
20
31
-4
19
-6
4
8
56
24
8
-26
20
-12
-22
11
2
-9
5
-38
22
-55
57
-9
-50
-1
26
17
6
-7
-25
-25
35
-52
16
-4
-24
24
-17
-14
7
-21
-6
3
-8
-4
21
-15
10
22
32
16
-9
21
3
0
-56
-13
11
-19
-1
-12
-24
-41
39
-13
-43
11
52
53
20
51
-13
0
-12
-38
5
-23
9
50
-32
-25
33
6
-12
11
23
-15
67
46
-34
73
-4
-38
-16
21
-9
-7
47
-6
9
-23
6
61
17
-56
2
36
-12
49
23
41
5
24
32
12
-8
-41
47
41
0
-28
39
-33
14
6
-12
-39
20
6
9
33
33
21
-23
39
-43
10
-18
14
15
-19
-33
-9
28
8
3
-3
-6
41
-28
-15
-1
-31
-10
7
35
-20
-8
-20
19
33
20
30
-7
46
-19
14
31
0
8
11
4
-5
54
3
56
13
9
16
0
-24
-13
-17
-55
48
-34
-22
0
35
30
17
23
-14
33
-14
22
64
-37
-9
-6
-23
20
14
3
2
20
33
-77
12
13
4
33
-21
-7
-8
52
-22
23
-11
-6
-29
21
22
-13
58
5
33
10
21
21
48
-7
5
-30
-40
-31
-1
36
-65
-30
15
2
27
18
-10
-24
-35
28
0
-27
2
1
-23
16
-62
19
6
31
9
-19
41
-38
-31
-12
-20
8
17
23
-20
15
-20
-44
-32
-39
-50
-7
70
-10
-11
-14
19
-37
25
-14
57
56
-19
5
-2
2
-7
-36
-14
-11
24
-17
7
-6
37
16
19
-5
4
17
12
8
-32
-11
11
57
20
19
-54
-27
40
3
2
10
-1
59
24
7
-5
1
15
13
-20
-42
29
-20
12
24
38
2
41
55
-3
25
-34
17
18
32
-21
33
-27
16
5
-9
-39
14
38
51
-30
-35
15
0
-12
-20
-8
21
-20
-45
24
-24
25
-24
1
11
-39
-2
-3
-57
-23
-35
-20
12
38
37
55
-3
17
-6
-8
8
-50
-27
0
-21
22
-9
-39
12
-42
13
-2
45
16
-37
25
-1
12
32
6
18
-20
-47
3
6
-9
-27
-14
-21
-4
-18
-45
23
-18
-36
2
-10
-13
1
-19
-6
-42
38
-4
11
-26
3
-5
-37
42
-30
-7
5
-18
-7
29
2
7
0
-2
24
-54
-12
-17
37
25
-43
4
-14
18
-3
29
9
-29
-40
-19
-16
13
32
-65
-15
-64
-15
-30
8
20
-8
25
6
-58
12
-32
-28
-10
10
4
23
7
-31
10
18
-41
29
3
-24
-37
-43
22
-9
56
-9
6
-35
4
1
-8
3
10
-18
1
52
-34
38
19
3
-1
-6
-53
1
-9
12
-26
35
-38
-62
-8
25
-50
-38
11
-15
14
-1
-37
-3
12
-10
-23
-45
-17
-3
-13
18
-25
5
6
54
-1
59
-46
41
-5
1
2
-32
8
-31
32
-7
34
23
-1
-3
-29
-17
-21
22
11
-28
16
-9
26
-23
6
11
-11
2
-12
-32
38
-33
-12
20
-23
-2
-41
-11
10
34
-25
45
10
-50
-2
19
25
12
15
14
-7
-49
-21
9
-43
-36
-13
-12
-13
-41
33
10
35
-41
-16
33
42
17
45
-4
-29
-4
23
-25
34
-24
-41
46
-40
-82
10
-43
51
-38
-47
11
0
-52
-23
17
-9
-11
30
32
-46
-31
7
15
-28
-6
4
37
24
-29
15
36
-28
-12
24
14
-14
-20
39
-4
-43
17
46
4
27
30
8
37
-23
-6
1
-3
25
26
22
30
6
27
-58
-22
-38
42
-32
33
-25
-46
-9
38
-38
20
24
-25
25
-41
-83
25
-39
-24
11
-45
-2
27
16
-32
-3
-25
-1
-11
-22
12
7
1
-14
45
-48
-25
-3
-4
-45
23
21
-49
-20
-23
-34
21
21
-13
-5
8
-8
-55
-4
-12
32
-27
-31
18
-37
-14
0
-6
1
-26
15
3
53
-26
17
-10
15
8
-11
-30
-13
43
-49
-19
16
18
10
-19
-7
14
-8
-16
29
20
-15
-41
-24
37
-20
-30
-29
0
24
26
5
-14
12
7
16
-44
-5
-6
0
-42
-50
-30
-14
-7
-3
40
13
-42
-26
-6
-51
1
-20
12
-32
-13
-22
-21
-36
24
-6
20
6
13
38
10
48
8
-58
32
-3
53
44
-8
-12
-11
13
-5
-1
33
36
12
-29
-35
21
-26
2
-32
-34
22
-44
14
-31
-11
40
6
34
18
5
-1
1
-15
5
25
-18
-15
43
24
41
19
-31
-38
21
42
5
-24
-18
-3
30
48
43
6
-9
-26
4
-36
19
-17
-40
27
-15
-25
35
-14
-41
57
-36
-23
-16
-42
43
63
-4
4
-36
-13
-38
42
11
-56
-43
14
-27
-33
-2
-36
45
-19
-1
-13
45
3
-10
-28
10
-52
22
19
5
-17
51
-15
16
6
30
3
-41
-10
-19
-8
38
-28
6
-29
54
12
-23
13
-18
11
-45
-24
-10
-30
-30
44
-48
19
-10
-18
9
10
-27
-33
63
15
-62
-23
6
10
-35
-4
37
-6
-3
-40
-14
-17
-46
10
-13
-27
-14
-19
14
-11
1
24
-22
54
38
-11
2
49
-10
21
-10
44
-31
-27
34
-18
22
-1
19
14
25
21
28
-29
-40
-4
-39
-50
-54
33
13
-44
17
-25
-44
-31
17
36
37
-9
14
4
-4
22
38
9
11
28
-26
27
41
-39
23
33
9
-24
-31
-31
-22
-49
-51
10
28
-10
11
-14
23
21
-4
-8
-40
7
26
-15
7
-1
58
-29
26
33
31
17
-59
-34
-10
-20
-87
38
-6
-1
-1
14
-9
17
-30
-59
-7
15
12
37
19
5
-31
-10
-55
51
-22
33
-43
-40
8
4
-20
5
-28
-30
33
18
56
-20
-31
-30
-53
3
9
34
-74
-1
42
-13
-4
16
-51
-12
26
32
8
-46
-58
46
-2
30
-51
-2
-27
-10
-19
15
23
25
-20
-10
3
9
-7
42
5
-25
-66
-28
-52
14
24
-3
-1
20
28
13
-38
27
-51
13
24
-10
12
28
0
7
5
1
-7
-6
6
53
64
19
-15
-21
16
-31
-13
26
2
-30
-8
34
-4
14
-7
-30
-54
13
4
-39
-34
9
-27
-10
-19
-44
-55
-55
-4
55
48
-7
-57
67
-18
-5
-12
-36
23
79
27
-26
-41
-28
-26
16
36
45
-32
-49
4
-7
-2
-19
11
31
-43
-5
60
-7
-13
-14
28
-41
-8
25
-79
-31
-46
54
22
44
-43
-27
31
20
-54
20
-17
-55
-4
-70
30
-31
22
22
11
-27
11
-3
30
30
-6
25
-62
-8
6
-30
43
82
-14
16
1
5
-36
3
-10
0
15
15
9
-56
-47
-12
11
53
-6
-1
50
-36
-15
40
29
-26
11
25
-58
-15
-5
-4
-29
22
18
-38
46
8
12
-20
-21
3
63
28
17
58
22
-38
-58
-6
44
9
28
45
-6
25
20
-27
-10
23
22
24
-2
-13
7
-10
-19
-39
2
-44
-1
-10
45
-32
-48
7
-22
19
-13
2
1
-12
-22
-40
7
15
-56
-21
6
-34
8
26
35
-3
51
-29
12
-48
19
-47
-29
-37
13
32
-33
-41
-4
-2
6
40
30
-25
2
1
20
-10
-8
-48
-30
-39
-4
-22
16
-2
-3
16
-34
-30
-37
35
1
-13
-19
-39
-38
-3
-2
29
-11
-12
-52
-17
49
-3
25
13
10
-10
44
52
3
-52
10
-2
15
-35
19
-12
59
64
13
38
-17
19
9
-7
24
-2
42
-8
-37
-19
32
36
7
9
24
-34
-7
35
25
52
4
21
-21
35
-3
-45
35
-9
-16
-1
-21
-26
-29
23
5
3
-3
-15
6
14
7
53
-31
-51
23
-24
-35
-48
19
-33
-5
-11
-33
15
-9
-11
56
3
-49
-32
-44
-11
-9
-22
56
-5
18
-2
29
-5
1
17
49
3
-37
-1
-8
-12
-43
20
38
24
31
30
-16
-20
-5
39
60
29
16
-2
22
-35
-11
3
27
-4
32
-35
-12
24
-21
-41
25
-10
9
-13
-9
45
11
-10
-25
7
-54
3
-61
-26
27
9
-1
18
33
-10
-20
48
-17
29
-2
-13
-63
-26
-68
-24
-15
-4
-6
21
20
16
-19
8
15
34
12
-12
-45
41
66
-6
-64
-62
90
20
46
-32
-20
-48
-5
-31
3
-3
-6
41
10
-60
-61
-27
-40
-24
-10
-48
6
5
36
31
-32
19
-4
-51
28
46
-53
-33
-12
20
51
23
8
-28
-32
-9
-38
35
19
-24
17
-16
-43
-16
20
74
23
-37
22
-52
29
8
37
37
-47
24
-14
-42
57
-18
-12
24
-19
-5
19
4
-21
-13
-64
-9
26
16
-16
-14
9
28
-20
-29
54
1
41
24
15
-19
-36
30
40
-13
14
-17
-24
14
-17
-66
2
5
19
15
80
84
41
-12
-5
18
-33
54
14
-30
6
-40
13
-40
23
-3
-23
9
-27
-29
-21
-31
-5
-5
21
-12
-12
-19
-32
-31
-16
3
-43
18
-24
-24
47
46
8
19
-20
40
29
4
34
2
-47
10
22
-10
-16
-8
-11
1
6
-33
15
-9
-16
-41
-7
-56
-81
11
-3
-27
19
1
26
45
15
27
-36
26
57
74
-29
-29
-53
10
15
-19
50
3
7
-31
-1
6
34
-4
-35
-68
27
-14
12
-30
10
38
39
42
-21
-36
44
11
-9
-2
0
9
-37
40
32
46
10
-77
-29
-51
9
0
-19
-6
31
51
-21
-4
-29
-20
4
-16
-4
64
22
-5
-18
-1
-4
12
6
14
10
-48
10
-10
21
7
-1
28
-34
-19
35
-19
12
-43
25
-4
8
-15
-36
2
23
-19
-23
-29
-35
21
-15
-59
35
25
3
-35
-11
4
-23
-36
-11
36
-16
40
19
14
-26
10
-17
46
30
38
-13
-49
-38
-17
20
86
-51
-15
19
32
4
-28
-49
-8
44
16
3
27
-10
-54
-2
28
-10
0
-23
-5
-53
-10
4
21
14
14
-40
13
24
15
18
6
-33
-29
-18
13
12
7
-18
-8
47
-7
8
59
-30
-45
-8
-46
-35
12
4
27
13
15
-23
48
52
-8
-53
47
35
34
29
-6
-52
-5
-36
-28
13
-9
26
10
-68
2
10
-19
43
-20
-19
10
-8
7
-31
33
-38
-7
48
-24
10
-1
4
-42
23
60
22
-24
11
44
10
-28
-39
35
29
49
-7
-35
1
-33
-4
4
-18
-7
-9
46
3
3
17
12
-9
18
-29
76
5
-15
31
16
83
-6
-25
4
-26
31
-34
-22
-39
1
-4
11
28
-4
-12
-9
20
56
40
47
-5
12
-5
-58
-32
0
6
29
23
-13
-15
39
-2
-8
4
-3
-40
27
-60
-32
-61
24
-14
64
31
21
13
3
27
-20
12
18
38
-51
-10
50
22
-4
-23
-16
24
-31
-7
14
15
7
0
32
-18
-32
-33
-6
-25
-46
-22
11
-14
36
-17
21
33
28
-16
-9
-7
17
79
-23
-32
19
39
24
15
-45
-24
-10
32
-78
49
-5
37
-16
16
1
29
18
-10
35
-2
19
-10
-18
22
34
17
2
-54
-11
34
-26
-36
15
-22
49
73
-37
-19
-19
-22
-64
2
-41
7
-5
-35
9
7
-26
-27
-32
1
20
-28
-20
-9
37
-19
47
70
37
-29
55
-32
5
-8
-7
-28
-17
-62
9
19
45
31
-6
-10
4
9
2
-14
5
16
-15
-15
45
-39
-5
-38
-4
-32
19
62
-61
-6
-12
-33
-7
51
-14
16
11
54
16
-8
-9
35
23
43
-53
-32
-6
-32
4
1
22
-32
14
-27
40
-3
3
-2
-12
3
0
13
20
28
-15
-15
-10
24
39
-13
-17
20
-6
-2
17
24
3
38
66
71
20
60
52
-17
59
19
10
-58
11
-32
41
32
16
29
-2
-57
10
38
41
-31
-10
-18
22
43
1
31
4
-12
31
19
-11
-10
-2
22
54
17
7
-31
26
-3
-26
-43
-14
6
16
-8
10
15
-2
44
-16
13
-5
34
-36
-21
23
33
21
-23
16
-49
-13
-2
-13
-16
14
-31
-49
-3
5
-9
-7
-20
10
-46
20
-9
19
48
18
37
48
3
-28
-18
33
2
40
30
-29
27
-11
-40
-12
31
-19
4
-14
21
-42
32
27
-35
-32
26
7
35
-28
-61
37
-5
-76
28
-63
73
-16
23
26
-24
-32
32
23
55
13
2
42
17
-37
2
-13
-32
-49
-1
7
-23
-32
-62
9
15
-17
63
-16
7
26
27
2
4
17
-1
15
33
-34
44
-28
-44
5
48
27
-60
7
-24
2
-18
-16
-46
6
-18
7
31
30
40
22
-34
23
-16
-25
0
-35
-17
-62
10
4
-16
-24
11
6
31
42
-37
41
-6
-9
-67
31
-47
-9
39
-18
-9
7
-5
-39
46
-22
26
-26
-6
25
10
36
-41
-52
-6
-34
15
-68
-22
76
20
9
51
46
7
-34
-21
-48
-7
54
-16
-55
-37
43
-15
-5
-62
21
38
74
28
3
24
-18
-13
62
-9
60
-18
13
-21
-32
21
11
39
37
42
-22
-14
37
35
45
-42
32
44
-45
-32
1
-1
14
2
-18
50
43
-18
3
-20
6
12
-35
13
-5
23
-10
0
31
-11
47
1
4
-12
33
-32
-29
33
27
-17
49
48
15
1
19
25
-25
-5
-9
20
2
-12
66
23
-16
17
46
-15
39
-33
-23
1
7
38
-3
0
15
-24
4
42
36
-5
-3
-48
-31
-24
38
42
-24
-68
7
-34
-36
-17
15
10
16
-19
27
59
37
-14
1
5
-37
-29
33
-46
16
8
-20
-20
3
-22
13
-77
-28
24
-23
9
2
1
-19
-30
-22
6
5
-71
-50
5
60
-41
24
17
25
6
39
10
52
19
-33
14
15
33
35
39
59
0
10
46
45
-24
-21
-7
-22
-31
-16
-9
-29
-12
-25
5
-56
-4
1
-40
-2
-24
49
14
12
1
9
43
46
6
9
44
16
-20
-34
-38
-12
10
17
7
-6
7
22
-70
-21
10
29
29
-9
-29
30
-12
-32
-1
9
20
44
26
-54
-9
21
2
-34
-27
-31
13
-13
8
7
3
8
24
-22
-28
20
-35
30
18
-27
-19
14
-22
24
-36
-5
8
34
7
-48
-35
-36
-3
13
-61
15
-32
-14
-35
-15
-23
-6
-29
-32
-15
31
-16
12
63
-6
28
21
-14
-29
36
11
-24
11
2
12
-54
22
-33
32
17
25
23
18
23
49
25
26
-68
-4
-21
41
-26
21
-37
-15
2
7
18
1
-7
9
43
2
-10
-25
-52
5
14
-17
10
-21
2
8
-46
13
5
21
8
0
18
-11
1
-16
-20
-36
26
-58
51
17
-19
-19
5
-42
-21
-9
-4
-37
-46
-17
-23
8
17
20
-5
-32
33
52
-32
-9
25
42
-5
77
51
-41
-55
-2
-16
18
2
10
-38
-36
-48
5
-13
13
31
-8
4
-50
8
-20
1
-5
43
-2
13
-49
-19
40
-26
-42
-24
27
12
-12
-46
-24
4
58
-34
43
-12
40
-25
51
28
-3
2
31
-16
24
10
3
-1
-41
7
-20
-11
1
43
19
25
-4
9
35
52
-3
21
38
22
-1
-32
-32
32
-6
40
49
-17
63
-34
21
17
14
-10
-36
12
16
43
22
-27
14
-43
-21
9
14
-68
21
18
50
-16
3
-10
-9
29
12
47
-2
-15
-5
19
8
-32
-39
57
51
50
-33
-65
-7
6
-23
56
36
-15
-38
-49
29
19
53
3
-17
5
24
-51
-34
-14
-7
12
-7
36
7
7
48
-30
53
24
29
-32
-6
-20
58
-50
-25
11
-44
-4
-40
22
-53
46
12
21
-14
41
39
32
17
36
-22
12
81
27
-34
19
22
18
4
-7
-20
10
31
51
-26
2
-23
31
-27
-19
42
22
-36
-13
-11
27
64
10
-4
37
6
7
56
-11
-29
-29
18
8
20
-15
52
-19
5
-21
-14
-19
-7
-23
-36
-27
21
-26
0
12
21
-30
-18
-1
27
24
-3
26
30
-6
6
-22
16
4
-28
8
-45
-4
26
-25
-17
-24
-17
-56
30
-9
2
2
-38
-19
-12
-7
26
20
-23
35
15
-32
-11
-24
-25
-9
-1
35
-19
-3
-13
-35
-52
55
0
-58
-28
71
-70
-12
-30
52
2
-7
-17
20
-16
3
27
40
20
-86
1
-34
42
-55
20
22
-14
-8
-14
3
-20
34
31
-50
-46
-49
21
13
48
6
-21
44
-47
79
32
31
-45
-17
-12
6
3
-34
-60
-22
-11
-2
32
6
-26
27
-54
-28
-30
28
-6
13
35
24
-13
66
31
-28
23
11
-24
2
-7
42
-8
68
47
-26
14
-65
26
20
43
-13
33
-36
3
-34
5
-46
18
36
-5
-26
-4
-16
1
35
1
23
3
-3
40
53
-4
-7
1
7
12
20
46
0
-17
23
-16
-17
-40
-33
-47
-6
10
-6
-27
-12
26
48
11
-2
40
-34
-15
-34
-33
19
-47
37
-18
60
24
-19
-54
16
22
20
19
42
-19
-22
4
-2
18
-8
-50
32
23
-31
-35
-8
-28
16
-3
-14
-2
-34
15
-9
29
-14
-11
-21
11
39
-1
23
54
-7
38
-7
-12
17
-2
-30
24
5
16
-25
10
25
-13
-36
0
49
52
27
23
50
25
25
-20
-8
-20
-40
1
5
49
-11
30
52
-37
26
-22
-11
-30
-9
34
-18
-62
21
5
-14
-3
24
-7
39
1
-31
-16
2
-29
7
6
-6
16
24
-54
-6
34
8
37
-35
-54
12
-30
22
51
23
59
-30
-11
0
37
9
-15
-10
31
1
-22
20
2
-44
-32
54
17
-29
25
52
36
1
-18
20
51
-35
2
9
7
36
5
-24
-5
12
-7
-10
-6
20
2
8
16
-8
49
-13
-15
27
-1
-2
28
7
-19
61
-16
-28
-31
-21
24
40
-47
-10
48
67
-29
-18
33
-24
-6
-27
7
-15
0
13
14
8
27
-14
35
-6
49
3
-10
-6
29
-13
4
-18
-24
-17
-40
2
54
28
-21
-16
-10
46
-31
-23
-1
31
-28
28
15
28
-54
51
-29
8
-39
-1
-14
-5
25
-23
-21
27
6
-67
-36
-46
-35
38
-4
-40
12
-9
5
-62
63
-26
65
-25
-52
60
26
0
-6
-22
-34
-4
3
20
-7
-3
43
-19
14
-35
-25
4
-22
40
22
-40
-27
-36
26
-25
-35
-36
29
5
4
-46
14
-49
