-11
-20
14
48
4
-41
8
-16
42
-18
-20
9
-2
6
28
-58
-1
-21
-62
1
-30
-13
-9
-12
-20
28
66
-28
-53
-23
-10
38
-30
-2
32
58
-34
31
32
16
27
-15
-1
-33
16
-63
22
-15
27
-20
41
-72
26
23
19
-17
6
-10
-74
33
20
-20
-47
12
54
18
-38
-33
-65
26
6
-25
19
55
-14
55
7
-10
-74
17
6
35
17
1
-40
55
32
-30
-5
-8
-54
23
21
-14
10
-27
-54
9
4
-11
29
11
-22
19
12
1
4
-40
-1
6
-42
-10
-39
21
-19
11
7
26
32
28
-29
-29
-24
1
-17
-38
-45
-47
9
9
-30
16
-33
32
-19
29
-47
26
-50
-15
-26
-42
7
-12
-59
9
46
-27
35
46
-19
-38
-37
21
-1
62
9
23
55
37
-57
34
1
-53
7
39
-23
-6
61
36
-8
55
-3
13
0
-42
0
22
10
-8
-12
-34
30
35
7
20
4
24
38
29
0
-22
34
-36
-44
-16
-6
-9
-4
-16
19
-9
-8
-43
-22
-32
5
18
-36
25
38
8
4
-16
-7
24
19
-13
-4
-46
23
-35
5
-43
8
-17
-9
11
36
-29
0
-11
35
-7
-27
-35
19
33
29
-22
-27
-6
19
11
-49
-18
-12
67
3
-34
0
8
-40
-7
46
2
3
10
30
-1
29
17
-15
18
-27
-55
-41
-48
-32
-28
52
-39
8
39
24
-2
24
-20
-18
28
3
14
26
-22
-29
8
-34
25
40
1
-24
3
-12
24
-8
-24
27
-21
-22
-48
-20
13
15
25
32
-17
-7
-7
15
16
7
32
5
22
-17
-26
40
20
-38
-9
28
5
8
10
-1
-41
4
-9
11
-55
16
-37
-20
19
26
18
41
30
-21
51
23
-45
27
31
0
22
18
-49
25
14
-29
-5
67
-35
-9
21
2
16
25
-46
-26
-4
7
-29
-36
6
38
7
-34
10
7
26
52
32
-20
-2
-45
15
-59
12
11
-17
-24
36
-5
2
-5
25
1
-2
-25
21
13
-32
12
17
-27
33
14
-48
-5
18
11
11
10
-39
-13
-28
2
15
35
27
-29
-10
-9
29
-5
-18
17
23
-29
-15
19
41
-16
-23
-4
-19
2
-38
22
-21
20
-13
-17
14
40
-7
72
-14
-9
-18
22
10
8
7
-31
0
-11
27
-16
-11
-27
7
8
-15
-18
9
26
24
-34
30
-29
3
-23
12
-22
-15
-33
68
23
-22
16
-22
-8
-15
8
21
0
-38
-37
19
-36
43
23
15
41
-19
-29
-18
13
32
-7
-20
-33
-53
-24
-20
-30
-4
7
4
-7
24
13
-15
-13
-13
18
-8
-15
-9
1
-12
23
43
-5
53
18
-13
-24
24
-36
36
-15
-35
-5
-9
-37
4
21
-41
-17
-19
38
30
-56
-9
-45
53
31
4
60
17
-28
-11
14
-36
-18
-6
-30
-7
41
-6
-29
20
7
-18
-38
-6
-9
-8
-2
17
-35
0
24
54
28
-9
-8
20
46
-7
-5
-10
18
-15
-12
-35
26
-17
41
9
-13
45
12
-26
3
3
9
-37
-51
-9
-17
3
2
29
13
56
-12
28
-20
16
11
-28
-9
12
3
-23
-16
5
28
-34
38
46
-44
-3
0
23
10
26
-13
26
-19
-17
16
9
20
2
35
-11
-7
21
31
-10
-19
-16
-1
-13
-55
2
5
26
-23
-23
63
-7
6
-25
17
-11
-11
-10
35
-28
-12
-9
27
20
10
-4
-45
19
-19
-28
60
-17
-16
2
-2
-22
34
-8
-55
-10
-40
31
29
-5
29
-14
14
11
10
4
66
2
31
7
-3
-4
9
-1
-4
4
23
56
51
30
8
-37
24
5
-2
17
7
0
-2
-26
-4
-31
59
-14
-11
38
-22
25
-29
37
-4
-2
36
-56
-37
9
31
57
-25
-46
-28
-23
9
-38
17
-27
0
-2
-15
16
-37
5
57
-24
-23
-38
-44
-46
4
11
-33
43
1
16
-35
25
-38
37
-18
-18
26
11
-22
27
-5
38
9
-8
-10
21
12
21
-38
-51
-8
32
51
-31
-9
-11
-3
22
14
-25
24
-53
-56
36
-23
10
-28
-34
-49
25
53
33
-7
1
-2
56
17
-27
6
44
-17
12
26
5
33
-22
-15
-28
15
-32
26
29
7
-45
3
-62
17
20
30
-33
-47
1
-36
-28
33
31
-37
46
49
-1
-37
-28
-43
-4
18
-7
32
28
39
11
24
-23
-17
66
-31
-6
-8
23
0
56
14
1
-28
11
-84
-36
8
-6
52
-23
-52
-15
28
-2
54
-23
32
21
-5
-20
8
13
16
-52
-56
1
-64
38
-44
21
32
-27
31
26
-26
9
-32
-21
-56
-62
-9
-51
4
28
18
30
-29
78
-33
52
-34
38
1
12
15
-53
-7
-22
-63
3
-7
8
-25
17
11
24
-54
16
-37
27
-34
-28
57
10
-37
16
0
-40
9
-12
-26
-4
39
19
26
87
45
17
30
-29
15
46
29
37
31
10
51
33
-8
28
41
-9
-18
13
15
-31
2
2
-36
-43
43
6
50
-7
-42
39
4
15
-6
7
37
45
-11
54
54
-25
26
33
-15
77
22
11
-49
-21
0
-22
54
-4
15
-12
-13
-13
29
-3
-10
-31
-34
1
-1
51
-11
47
16
7
12
8
-26
15
-43
-33
6
8
6
-30
22
-31
-28
20
62
-11
-29
-18
-19
18
27
0
-14
-21
-4
-29
-4
-47
-31
14
52
-78
-28
-24
-27
-35
10
-49
-13
23
-4
6
74
13
7
28
-3
10
42
-16
20
-5
-57
31
30
-8
-7
-2
-24
31
0
-4
57
24
59
-25
20
-8
-24
27
-31
-14
33
10
55
33
13
42
14
36
32
-20
5
7
11
-49
2
12
45
-35
24
41
-13
14
28
11
60
-12
23
4
-27
-32
26
16
17
0
-11
-34
-15
0
-10
-12
42
-42
19
40
-31
-6
-9
-20
-66
-28
-46
-55
-28
32
-19
48
31
-21
-54
-6
-38
14
-12
-10
-9
29
-34
3
-25
-33
-7
22
11
8
-16
43
-8
-9
36
8
48
20
13
-9
11
-3
-1
-67
3
-18
-11
48
24
-30
20
-40
-59
8
31
27
-52
-18
5
-3
16
25
-12
22
-49
14
28
39
-24
-41
30
-11
-27
-10
-26
-13
33
-16
-29
-18
68
-20
53
-37
-43
26
-4
-31
10
34
-53
35
-20
29
17
-11
-81
27
12
5
37
10
-6
27
-27
-20
-29
63
-39
-11
-1
-20
-34
72
2
-25
0
-3
-59
31
-19
-7
23
-2
1
6
-36
42
27
17
11
-8
19
4
24
16
-5
-17
-25
-20
-41
-26
-26
17
41
25
35
-24
-44
25
0
-7
-47
-35
20
-69
-16
3
-26
28
-62
64
18
23
-50
3
-46
58
-12
-28
6
34
-27
-28
5
-28
21
35
31
44
-12
1
-21
70
-22
-10
49
32
-17
-26
7
13
-30
16
-16
36
33
-17
4
57
-11
4
2
-2
10
41
46
-20
-6
14
14
33
27
2
1
37
6
-6
-16
27
9
-6
-12
-41
-9
-15
26
24
-26
-36
15
34
-2
-11
-4
50
41
39
16
-42
8
25
-12
10
32
-5
-17
-12
-17
-16
-7
-16
-6
39
-17
-59
55
-34
-15
-19
34
28
29
54
39
-5
17
-15
26
30
-19
15
-17
25
-52
-12
3
-36
17
17
-32
7
-18
-43
33
8
-20
49
54
5
-49
1
10
9
8
-15
22
9
-14
-20
-9
8
-1
-19
12
-47
-18
-5
26
0
-20
29
17
-9
21
13
23
-15
5
-45
-26
-11
-29
18
8
5
6
-26
-22
-7
-8
2
26
-4
11
-23
-48
3
20
-31
35
5
-24
-21
-3
4
24
18
-33
-9
7
-46
25
-14
14
-25
-15
-40
26
-50
40
21
-23
-28
0
1
-55
74
33
-44
-36
-45
13
48
-10
-22
2
65
-84
-17
20
16
51
14
44
-25
-8
-18
2
-6
40
-21
24
40
-16
-23
-8
-39
-48
-5
36
-32
-15
-51
-26
-36
27
-52
-43
-14
8
17
39
16
-4
-49
-8
49
12
11
-9
31
8
7
-17
-22
18
3
-19
0
33
12
16
21
-16
62
20
-18
-25
-17
42
14
17
-18
33
-28
37
-48
58
-16
-28
-21
-13
33
4
40
-17
-1
-5
-4
-4
11
-31
61
-62
18
-27
9
-9
-32
28
-28
-13
-31
62
-40
-49
-11
-8
11
34
-26
-35
17
-38
-19
-13
-24
17
-37
75
-59
-23
-16
29
-6
21
-12
-6
20
-1
-1
21
10
-27
-14
-30
-1
55
-20
4
0
-18
28
-32
-28
20
15
-7
11
-35
30
15
29
54
-38
17
-8
-7
8
12
15
26
18
0
7
42
11
12
61
47
-11
40
-47
29
-64
0
-18
13
-29
46
-32
29
37
-8
30
55
46
18
8
-30
-48
-7
-11
-8
-3
26
-24
-3
5
-23
4
34
-1
29
39
-35
-18
-1
-42
-24
-17
-28
-24
11
40
18
19
16
-45
-46
14
4
18
-44
4
7
-29
-56
0
21
-13
5
-5
7
-40
-16
-26
35
44
-7
-5
-19
36
-24
31
-31
-20
14
39
-23
22
14
-12
27
22
35
34
6
-5
-47
25
63
10
44
-40
-14
27
24
-19
51
-23
-21
-23
5
-16
-2
48
-13
46
-2
11
13
50
-31
26
-38
-11
-23
19
33
21
44
-24
-38
-23
44
-21
-6
-1
0
16
55
-47
-44
-10
-30
3
-5
-35
-11
0
65
-49
17
-29
22
-34
22
-75
3
-5
25
-41
25
1
-12
4
-43
9
10
-32
24
10
-53
23
6
-24
30
32
10
38
1
35
0
10
38
-24
-22
-30
-43
28
14
-9
-6
25
-4
30
20
21
50
43
-30
2
-22
-16
49
-56
-29
-46
47
-27
51
-12
19
12
-14
-34
36
3
-48
-12
-28
-10
-15
-25
42
20
31
-63
13
19
-77
-12
72
-33
15
20
20
17
8
-18
-67
3
-13
-9
-14
53
-15
6
10
-38
-49
-15
-11
35
2
-43
0
-12
-39
8
-7
-35
13
-9
-1
-4
2
-34
36
38
-7
-7
-32
13
-27
60
20
-22
-5
-7
46
-2
23
-9
21
5
-17
-47
45
-26
-27
35
37
16
5
-18
-19
-14
2
-31
-14
-27
-8
-48
-38
25
27
24
-12
11
-6
7
6
41
-17
51
-48
11
-56
-51
-8
-6
7
4
-26
0
23
-37
27
-33
7
19
0
-46
-1
18
-27
39
2
-35
48
5
-23
-16
-40
11
6
-16
6
-14
-18
-2
12
-37
7
-19
10
-30
-24
21
17
-60
-15
-4
-44
-34
-33
-2
5
24
-7
52
8
-20
14
14
6
-5
-7
42
-10
-3
-22
-22
-10
-24
-8
41
-31
14
45
42
1
-6
5
-19
-18
-6
1
24
-11
-26
21
6
-23
27
-6
11
14
-35
-8
45
16
9
-26
-27
14
-3
20
-49
-54
60
-38
-44
30
19
4
46
47
-4
10
1
-27
-13
-9
4
-21
26
16
-19
12
-13
-47
-7
1
31
-15
-58
-27
-37
23
19
-29
-15
25
-31
56
-10
-2
-46
14
23
8
-8
-55
-27
-32
32
-24
28
21
11
32
16
45
-18
65
12
-7
37
19
-4
-21
13
48
22
29
8
-1
50
17
-41
20
-20
-1
-15
26
-14
-36
37
-10
9
-3
-36
-19
6
-14
11
-40
5
-81
40
-18
-20
69
36
4
-17
29
-49
-3
1
-7
-1
30
-18
-8
8
-20
-42
-39
-22
1
36
60
-65
-3
7
27
5
-6
-74
-33
29
7
-24
26
16
-11
49
-39
42
-5
-37
-11
-38
-45
35
-31
-39
-18
-14
-33
17
34
21
11
-25
36
-48
22
-38
11
12
15
-2
53
21
46
40
19
27
-16
49
14
28
35
-15
63
-32
-22
-24
71
-28
38
-13
33
23
11
31
16
-5
-47
23
21
8
-1
38
44
33
6
-56
-3
-17
5
2
69
3
-6
27
45
-33
-3
-23
-79
-40
7
-37
24
38
6
5
8
-4
-1
-43
11
16
-24
-2
12
14
-30
15
-28
-33
10
6
53
-20
-47
-24
8
29
15
22
-17
5
-9
57
30
7
-13
-14
7
-15
64
-15
5
35
5
-16
37
-33
-65
26
-8
38
12
-20
4
-3
27
-18
7
-46
2
-11
-9
43
10
66
-14
16
6
-5
16
-17
-44
16
-43
16
-36
14
-25
9
56
-22
5
14
23
-65
-25
18
-18
45
9
-22
36
21
-19
30
-37
-13
9
-5
-3
-50
-33
-26
-3
12
1
-22
-18
36
13
1
30
-1
31
-27
-18
19
-28
-16
25
-48
-76
-24
-54
20
33
1
-11
16
-18
-4
50
15
35
-35
-7
-35
-22
-29
17
31
30
19
9
13
-13
-15
9
87
21
-27
15
-31
58
-40
5
-28
19
-10
37
-10
22
8
5
-12
59
-27
-55
-20
-22
-7
6
-27
36
-9
22
-45
2
55
-66
-41
0
-27
2
26
27
-15
43
-35
-72
-2
-3
-17
-26
31
7
-8
15
-36
-29
28
-47
-18
-39
-39
-39
-10
-33
18
-51
15
20
-15
14
-5
5
51
-12
-43
-6
5
-10
-10
4
-27
-8
-5
12
11
7
-39
-23
20
-1
20
15
-15
-25
-12
33
-25
-31
-5
14
14
24
-34
-35
52
2
50
29
4
-6
-40
-7
-55
-11
-18
2
-9
18
12
23
-8
43
8
72
-21
26
18
-32
28
-9
36
-35
16
21
38
2
-15
-51
45
39
-17
37
-33
27
64
-22
-20
7
27
61
5
-13
-9
-27
27
6
-5
-30
26
-44
17
-8
0
13
-33
10
62
-29
29
24
-13
23
29
47
-45
25
-58
-4
0
-40
17
-40
37
26
-7
37
34
3
-22
-18
-23
6
-57
-15
-49
-51
-31
-7
-6
-36
-1
-54
36
-23
-1
-1
33
-33
36
5
-9
-3
20
-42
-25
70
-44
5
-3
18
-1
-37
-24
-15
67
-12
-52
14
-11
-6
4
3
-59
-59
31
22
27
33
-20
-4
50
19
-28
9
-9
-25
54
34
19
-4
-40
37
58
38
36
-21
-44
37
3
34
32
-6
43
31
75
-9
-8
-2
10
7
-33
-38
3
-18
37
-29
-41
36
-23
-1
33
-20
-30
-29
-54
-31
4
8
14
-14
28
-62
63
6
-20
-1
41
-5
-7
-25
11
16
25
25
-29
-24
-51
34
19
18
-20
14
-28
67
18
54
-21
-33
22
3
5
0
-7
-32
44
-14
49
-1
-32
-31
-18
55
8
1
62
17
27
-19
2
-13
19
10
-29
20
-20
-51
37
14
0
-9
-12
-24
23
16
3
53
-39
-50
-16
18
-10
24
26
-2
46
-48
19
32
33
-17
-35
-18
-29
-50
12
-23
19
-14
-13
8
6
-4
-3
-17
1
-72
2
13
-28
-34
3
-2
-6
-44
63
-28
27
5
30
-39
17
27
2
-28
22
-7
-47
1
-51
0
19
-18
-33
-20
0
-43
70
-19
-28
30
5
-29
20
-8
28
24
12
19
2
24
43
-10
38
27
-39
16
-12
7
-1
2
-16
-5
-23
45
7
29
13
35
-23
21
49
-30
3
11
46
12
56
-2
-42
-22
7
40
11
-22
-38
30
25
-28
-27
-10
-31
-38
44
-37
-25
-16
-77
-55
9
51
21
-29
0
-43
16
-35
31
22
40
-64
-13
23
7
35
-23
3
-54
1
-44
19
0
27
3
30
-61
60
29
52
-44
-21
21
-13
-17
47
20
-36
46
8
6
-34
-24
-46
13
48
-19
33
6
30
54
-12
-5
-54
32
-3
-14
29
19
-52
42
-9
-37
-44
10
-47
22
18
-11
22
-34
4
1
16
42
29
-43
-26
45
-30
-10
39
-34
-7
-18
-43
7
-13
21
14
25
1
25
-11
-12
-16
-15
-17
-24
-43
-35
-46
-51
0
12
-31
20
-30
59
-32
42
-1
23
-9
37
27
-16
-18
20
-3
-34
-2
-1
-16
31
-15
-14
-56
-6
-24
24
8
20
23
-19
-74
2
13
0
12
37
-20
4
60
17
35
29
0
6
-19
-37
-26
38
37
5
31
6
15
1
0
20
55
19
26
8
-27
-24
-1
-36
-22
13
-11
-27
31
8
-6
50
24
-38
-27
-8
20
-12
-58
-53
-26
13
-34
28
11
-7
-14
3
24
-19
8
11
39
8
42
-20
-35
27
-9
-3
2
60
-55
8
-9
-4
12
11
-39
2
-35
-16
20
-4
-9
-11
38
-2
-17
20
-24
-6
-35
-3
-4
19
19
35
24
-11
-8
-20
13
-16
-30
-37
28
28
-48
-54
-16
41
2
-10
20
-33
-11
-1
-46
-9
-11
-11
21
-13
-8
-35
14
-38
21
65
-14
-13
21
14
71
-31
26
-34
-1
-29
-6
-36
-3
8
10
6
-30
7
-5
-12
-47
2
-10
4
-10
22
-13
-47
-26
-47
29
-46
18
5
-15
17
-10
-16
-12
34
-48
88
-64
-13
-40
-9
-39
-6
72
-50
12
19
32
48
-11
-33
-31
46
-10
-23
67
1
-48
-16
-57
-46
-40
-5
46
-17
23
-9
-22
-5
-24
-34
-10
18
-6
47
-16
-12
18
16
41
36
14
15
-12
22
34
42
31
28
1
18
-24
-25
-3
24
-11
25
-23
-11
28
-10
20
-9
23
22
32
-10
65
-58
19
-3
16
10
46
-28
-44
6
5
-5
10
-19
-2
30
-10
-57
59
6
-37
-50
42
25
-2
40
-16
14
-1
-12
-22
27
-37
-3
-62
12
-64
41
-20
6
-7
3
-38
-5
41
-26
-30
-42
26
38
82
19
-20
5
-42
-9
17
-62
31
-2
20
1
22
22
-21
6
43
-61
-10
41
16
6
25
13
14
19
-31
7
27
-67
-17
-3
-55
1
-4
10
9
22
-27
25
2
48
43
-7
33
-31
37
11
12
-28
-21
13
2
11
10
19
19
50
8
60
-4
1
-21
-11
14
-24
22
-20
-17
-25
3
-33
-5
-15
0
-32
23
-8
-45
14
28
-52
11
-3
22
27
43
-29
-11
1
-73
-22
25
18
17
43
-1
20
-25
-7
-53
-28
33
-4
23
-1
-5
-32
-25
-41
4
-21
-13
7
-57
-55
-19
3
37
-39
-27
-9
-26
-16
-14
36
39
66
-34
-26
-37
25
36
-3
-12
-49
-4
-8
22
-46
27
-41
-53
4
-47
3
11
-57
-15
-12
63
-36
-49
16
-6
30
3
15
26
47
-16
-16
30
16
-1
13
18
-27
-3
-49
9
31
-13
-19
10
-64
40
17
73
16
20
24
-42
40
47
34
-64
25
7
10
-25
-12
-45
21
24
-19
-2
19
-24
46
15
29
-8
29
-6
7
23
36
-4
44
7
-47
-3
-11
-38
-43
0
15
39
16
-8
53
27
-9
31
20
40
4
-22
4
17
-16
21
-23
-60
4
-57
26
-20
-7
7
-26
31
-18
-17
-41
-18
-6
-43
-60
-26
-46
0
44
-36
36
-6
78
10
-13
-27
59
4
13
3
7
15
-22
-60
-21
28
8
17
4
30
-11
-9
-26
-36
31
15
6
45
6
-70
-20
-5
2
1
30
-36
30
33
-19
30
49
-21
-10
-17
15
-20
56
3
-3
7
-38
7
61
23
24
-6
4
-9
7
7
-8
36
-38
-18
-63
-10
13
41
-28
8
-10
-24
19
22
-39
26
47
-26
39
55
-59
-1
38
4
9
24
-47
-26
-13
1
19
8
-56
32
-15
-10
-1
64
4
-2
-28
-23
7
17
19
33
57
-20
0
0
3
-16
36
-52
12
-42
11
-15
-2
10
23
-39
-21
63
-46
-1
-33
-7
1
62
-6
15
-9
0
-32
8
2
-17
-23
24
-22
27
1
-31
2
39
-14
6
1
-25
-20
9
10
-16
-2
-32
20
45
-21
-12
-42
-22
-6
-33
-4
12
7
-36
16
-36
41
6
22
23
-37
-8
-15
-15
1
-18
-13
38
-5
13
24
10
2
6
25
39
-16
-28
2
1
-41
-9
-18
53
-21
-11
-32
-30
26
27
15
29
35
-29
-2
-31
-5
9
30
35
28
31
-22
-22
17
-32
-32
69
16
29
4
-18
12
-19
6
-57
1
-14
-40
-39
35
9
13
25
-54
-11
10
6
5
-29
-13
-40
-18
-40
10
-33
-7
-13
23
45
-17
-28
-29
47
-4
4
-10
-61
11
6
-5
6
-48
18
69
1
20
60
-53
-17
12
28
55
27
-15
-47
-4
10
-21
50
-56
12
1
-23
-13
41
-29
11
-10
-25
43
-35
9
13
27
-27
-17
-11
27
24
54
-58
-2
-47
31
9
-2
38
-15
-21
-31
14
-35
-36
-21
29
33
26
-31
-40
-33
-12
-20
2
-54
17
1
28
-43
15
-14
14
13
54
-66
-10
32
29
-37
63
-1
13
-18
-58
-9
20
-34
29
10
-47
36
-35
8
21
-2
-10
23
6
45
22
-8
29
7
29
-26
16
23
-10
30
2
4
-10
-4
43
10
-8
46
37
10
25
-36
57
-42
-3
-7
30
-55
22
17
9
39
-10
-1
40
-11
-42
47
-27
-8
-14
-33
43
-2
17
-66
14
35
-14
-3
65
1
5
-4
-38
1
22
-10
-16
-47
-37
-76
1
11
27
23
32
-47
-7
26
8
13
-49
-34
19
-8
-14
21
-38
-23
33
-15
-17
-7
46
68
-41
10
-11
16
38
-24
20
17
31
38
-10
2
3
-28
-50
1
2
7
-2
-66
-54
32
51
3
-21
30
-3
64
-29
1
25
45
-37
14
-25
32
-11
25
1
-71
21
-33
29
-12
-9
6
2
-12
55
-6
7
-42
9
21
-16
43
-6
-8
-25
-8
53
-16
19
13
-14
21
13
36
31
12
27
18
-20
4
-70
30
7
31
-3
-30
-48
25
-18
25
-7
27
-52
36
-14
-30
30
-31
-11
46
15
21
-1
9
-12
57
1
3
-12
-28
-1
21
-59
-8
-23
22
-2
-5
32
2
35
-13
-3
-40
-4
-18
-2
14
-10
-57
-34
11
11
-1
-25
47
-26
24
1
37
-44
-3
19
-41
-32
-19
-60
-28
24
-25
9
-1
-1
-24
3
1
9
57
18
-15
36
3
-15
28
42
-10
6
3
-25
-7
30
26
36
64
-20
12
29
-10
-20
26
35
41
-32
-22
29
42
-3
-3
1
8
10
17
6
-18
-54
14
0
13
-28
-29
-41
37
19
-41
20
-8
27
16
-19
-53
-3
-16
-12
1
-34
-30
-8
-30
-29
20
52
-11
-5
10
-46
55
14
-13
-19
31
-11
2
8
4
-14
-19
13
-11
-30
-50
-9
40
-19
7
22
-38
52
-42
21
-36
-24
-14
-65
18
59
31
-18
48
40
-3
-14
-17
-42
2
30
-8
-21
49
30
46
3
1
-51
20
-17
4
19
3
-25
69
31
-12
10
20
-48
-26
-17
6
23
-12
-13
24
-29
3
30
30
23
5
-27
20
49
9
3
-23
-48
6
-35
8
13
7
3
-8
-1
-30
-13
1
-24
-35
-46
-38
2
-62
-33
-16
-21
28
-37
75
-28
15
-71
31
-48
37
-18
-5
-11
22
-58
6
25
-25
14
33
22
23
-19
-10
0
72
-13
-9
60
29
-40
29
-26
-15
17
-1
-37
-1
29
33
3
47
44
5
12
-36
6
38
4
9
-23
15
46
-11
8
-15
5
12
-5
-4
-22
-12
-41
25
43
11
-31
4
-44
41
16
-22
8
-40
-13
-37
8
-43
26
-9
-79
38
7
-41
-45
-4
-4
30
27
-52
-18
-14
-28
46
26
-19
22
57
-6
31
28
0
25
2
26
-39
-6
-38
33
14
-5
-35
20
-31
-2
-27
43
26
30
-1
-46
13
10
-2
-44
45
56
-35
-12
-30
-57
34
13
-20
-6
12
28
39
21
-16
-35
61
48
38
8
18
-28
56
34
-19
-34
-10
-49
18
-34
27
24
7
-13
33
-5
-6
32
0
28
35
4
30
-8
-9
-3
32
-23
-10
-23
-13
8
-24
3
-18
-26
-9
-36
-1
-42
-12
-22
-23
-37
-26
-17
-8
-30
34
-7
42
-17
11
-35
38
-50
10
17
-39
10
14
-15
-20
-11
23
-2
-14
11
9
14
1
-10
32
-13
-19
7
35
-2
-19
13
-26
14
24
8
-4
62
35
9
13
-27
-18
-9
12
-17
63
35
-14
27
10
8
60
-21
16
-15
-3
33
-18
33
10
-48
-22
-24
-27
-18
25
14
4
52
-7
-19
-7
-58
-18
-12
1
4
-32
14
41
26
16
-11
44
-23
-17
-11
29
-28
53
29
13
47
12
84
15
27
-41
33
-12
35
52
-11
16
-1
-8
-48
-28
-59
41
-36
11
25
6
41
3
-29
-54
-13
-2
57
55
-20
-5
-48
29
-12
-29
35
17
15
54
-35
20
12
16
-4
-36
5
30
-11
29
-67
-13
-29
53
-60
-63
4
-39
2
11
-11
-3
52
-60
21
30
15
-36
0
36
5
31
33
-23
3
-17
-13
-32
-23
12
36
31
24
30
-21
7
-33
-1
2
49
-40
-10
-8
-48
-50
-28
-48
-21
-13
-1
21
31
7
17
40
24
3
-7
1
-19
28
-5
23
-69
-53
-14
26
52
-28
-20
39
13
-22
43
-27
-44
28
19
-53
50
-17
3
25
-5
13
-24
14
-57
23
-36
0
-46
-88
-4
3
77
-46
13
-44
-38
15
-32
22
34
9
-19
-2
25
43
-20
-11
-15
-45
5
35
-36
52
9
65
33
-1
-22
-71
-15
-31
28
0
-1
27
78
62
14
21
52
-10
-10
3
11
9
19
-24
-9
10
1
18
47
3
-20
-18
-6
0
-12
20
32
25
1
-51
-53
-58
27
-17
-27
20
15
39
31
18
-9
17
26
41
35
-11
-29
-27
-34
-19
-9
-18
-2
-2
27
-28
48
23
31
-15
-39
3
14
-30
15
-43
-14
0
27
-41
-17
44
-51
22
35
-23
25
20
-46
-9
19
15
-60
9
29
21
43
26
26
19
-14
43
12
24
47
58
-20
1
12
0
-14
13
27
-52
9
-42
-26
17
-16
-40
-44
-67
-48
-12
-45
33
11
51
-13
76
-16
-23
25
9
-19
8
18
-4
-66
-13
-44
-33
47
17
-15
28
0
-68
33
10
-28
1
-1
-69
51
-35
36
7
-38
15
-48
-24
-79
1
-38
-6
-57
-71
1
16
70
-34
-25
-30
-18
10
-43
20
30
-21
-3
5
1
25
19
21
-13
3
26
11
24
-25
-6
-63
14
26
43
15
-9
24
-14
20
43
8
-19
-72
-17
9
-44
7
-6
-26
-55
6
-25
-21
-4
-20
15
-65
-9
-27
21
-32
-31
-11
-18
9
6
-1
-22
66
11
6
-8
30
1
-5
-34
-49
-9
9
48
-27
29
-58
-27
1
12
21
12
43
29
23
-40
1
-9
-13
-12
5
1
40
-6
-26
-18
36
-39
37
6
-21
-41
26
36
-26
14
-36
2
30
-28
-34
76
-11
-53
-21
78
-18
-25
-7
-6
29
-14
-16
-23
-32
-9
34
3
-21
-15
-2
-32
-34
40
12
-13
22
-43
24
20
-17
-7
53
19
32
10
5
1
41
-24
-39
4
-35
-11
-22
-42
32
31
-13
-9
-29
76
14
30
-9
-45
21
32
7
6
39
-22
15
11
-38
-12
19
-27
24
-3
-25
-16
-14
48
-32
66
-28
-34
-22
31
56
-11
9
-57
28
47
37
6
-43
31
-39
20
-9
7
-42
-18
-39
38
33
-4
39
12
3
17
-57
30
-54
-14
26
17
39
-27
36
-50
11
-2
-42
-22
-74
5
5
-37
15
-4
-40
-45
15
21
-10
-24
-51
-39
-46
-40
12
-2
-12
-13
14
-11
-22
-9
10
6
22
38
55
-13
-3
25
-55
-36
-14
-34
25
32
-25
25
-31
-32
29
12
51
11
3
9
19
18
10
-30
-19
-46
-4
-5
38
-12
-32
-32
36
7
34
38
-1
-4
9
62
8
4
1
-11
25
9
-21
45
-19
-49
11
41
-42
7
-45
-27
22
23
-64
27
-28
-25
-8
30
-5
4
2
-6
17
42
15
-31
32
13
23
20
30
12
56
-10
25
23
0
36
39
-8
-1
15
-42
10
25
-41
-11
24
-8
-21
3
48
36
19
16
-36
-21
-2
-41
8
53
20
43
2
-13
-40
71
-20
14
-20
5
16
0
20
20
70
1
31
31
16
60
-12
11
-66
12
-15
-8
21
-5
61
-23
14
15
-36
14
-5
-20
-19
-7
-24
10
-20
-26
-2
-46
-4
-44
-6
-8
43
44
13
14
-22
-5
9
8
-54
-80
4
19
-42
-3
-36
16
-4
18
-28
6
4
-17
0
-14
-6
-10
7
26
1
-27
-25
7
-5
20
41
30
-6
48
-32
7
19
-47
6
-24
-30
8
-2
20
13
-32
-8
6
-16
17
22
55
-8
15
-15
13
-16
-20
-32
-25
11
-6
3
6
-34
4
18
12
45
-13
-50
-5
32
-18
26
-27
-21
-18
-17
-22
14
33
-10
-21
43
-13
-8
-36
12
-7
-5
-14
8
1
-11
-6
7
-21
5
-13
-11
-12
14
21
20
48
2
15
16
-2
43
53
18
35
30
-5
-18
32
21
-35
12
-41
39
-26
-26
-20
-26
-32
12
-15
54
17
16
17
-32
6
-15
-31
0
4
-18
34
27
-44
-50
42
-50
34
-38
-49
-35
-46
1
-43
16
-15
26
20
-11
47
-11
27
-19
14
26
44
35
19
19
-38
-15
-7
24
-36
-18
-22
33
-45
-8
-30
33
15
9
48
13
26
45
-14
-19
-32
-14
-23
10
-28
-23
20
55
74
-1
11
8
10
-15
19
-3
-17
7
-1
29
38
-12
86
9
36
-34
-9
7
35
15
-9
45
1
-3
-61
-5
-36
48
-31
20
45
22
18
25
12
-65
21
-9
16
7
4
20
-55
19
-12
-18
-6
35
-18
13
-43
56
10
-7
-6
-24
-15
-32
-15
18
-62
-30
21
49
-58
-6
-3
-32
-24
-31
-38
46
33
-53
-30
34
-14
-69
-10
-21
33
42
-6
-4
23
14
29
-36
16
-15
6
21
7
7
14
7
8
2
-5
0
-35
12
21
-15
-72
-16
-5
-32
-52
-34
1
-13
-6
16
9
22
27
11
-7
11
6
35
3
-25
-59
-1
-5
14
21
-23
51
47
-53
39
2
-25
38
-8
-50
61
-25
46
-2
-33
32
-47
-45
-28
38
21
-24
-10
-38
5
-11
44
-3
8
-21
-4
31
-45
30
-19
-4
-4
40
29
50
-8
-38
-33
-38
-29
34
-15
45
11
41
1
20
8
-55
-14
-48
41
-9
-30
13
19
38
7
-19
24
27
16
-17
53
14
8
8
-2
10
-24
13
9
-13
-10
8
0
17
47
11
-6
7
9
-39
-15
-38
29
-10
-13
51
38
36
-7
-24
-38
-22
3
36
29
-36
-20
-5
-29
19
40
25
26
-12
22
-3
42
-13
9
-50
10
-24
35
0
20
-32
-9
-13
14
-39
-41
55
-49
14
-2
4
9
10
-72
-28
58
-14
-19
31
-20
36
39
17
19
63
-1
37
19
-18
27
55
32
-31
43
39
10
9
8
-22
41
-52
1
-6
-27
-40
-38
-14
-59
-22
-37
18
25
17
-15
8
24
0
18
0
-13
-9
27
-5
-35
-55
-45
1
31
-15
15
47
42
-29
-11
-8
-39
9
9
-62
51
29
6
26
-15
0
-59
-52
-57
43
27
11
-24
-37
-37
23
63
2
-23
-20
-35
57
-33
17
3
28
-15
3
25
5
-7
-32
-42
16
-14
14
-16
7
7
60
-16
23
-2
-64
-10
-43
22
12
-1
43
52
51
31
25
32
1
-24
29
45
1
6
3
-5
-8
-23
42
22
27
7
-26
7
11
46
-15
31
-18
10
-14
9
-17
-3
8
-29
-8
35
27
13
-24
-55
-17
-24
53
-1
-12
-11
-36
-26
-36
8
-19
35
-7
20
-1
53
26
38
13
13
-26
23
-3
23
-24
-53
17
2
-9
-25
6
-36
-19
-9
-27
4
37
-71
-8
30
-15
-50
32
-13
-15
44
-8
8
10
-10
40
3
-11
20
14
27
-39
54
19
6
-23
-17
-22
25
-22
17
-26
-19
-79
15
-49
-40
-33
-17
-12
32
5
23
12
-8
31
-2
-22
3
25
-2
38
-10
-32
4
-34
45
-7
-18
-2
41
-55
19
-37
-31
27
-19
-23
42
-4
47
37
10
7
-45
-44
-39
36
29
4
-31
-54
-35
-36
47
-44
-31
22
-52
26
-74
25
-14
36
19
40
51
14
-1
-37
-11
19
22
12
13
35
-4
39
-12
-13
8
-41
0
-11
4
-24
-24
24
65
60
-3
9
13
3
15
-22
56
-4
46
-9
15
29
-31
51
41
31
-40
17
47
-16
2
23
0
6
-30
-45
-3
-25
26
-42
21
49
-8
18
22
16
-58
2
-2
32
10
-23
13
-20
-16
15
-24
-21
19
24
8
-31
10
17
-2
-11
-42
17
-14
20
14
-44
-31
-36
43
-20
-52
0
-1
-28
-30
-7
45
22
-36
-16
33
-30
-61
5
19
0
13
9
-22
44
17
48
-29
8
-32
55
35
16
17
15
-7
1
27
-37
6
-28
10
-8
-10
-41
9
-11
-20
-21
-1
-43
-7
34
19
30
-22
41
49
7
0
22
45
31
-20
-29
-47
-30
30
-6
-23
-1
37
-13
36
-51
-10
23
42
-14
39
-30
31
27
-20
-6
-49
-37
-40
2
-32
-31
-13
-87
-8
16
45
-22
16
-47
-51
52
-41
52
7
10
7
23
29
6
-5
-63
27
-33
4
39
28
4
-4
64
38
31
-24
-58
-16
-22
6
-7
-24
41
51
55
46
38
28
6
32
25
45
-1
16
-11
26
17
11
92
-5
24
-33
33
18
-22
54
45
36
30
-30
-20
-19
-42
16
-50
31
37
11
9
31
5
-36
10
6
5
41
-70
15
-67
49
2
18
-1
17
31
35
-15
51
-23
18
-3
-26
25
-23
-9
-30
-28
1
-5
38
-45
-22
-18
13
11
-36
-26
33
45
-41
-41
31
-21
-24
-2
-13
-10
15
-21
23
4
4
27
-22
-13
-41
30
4
-11
26
19
-33
8
-1
-47
47
-52
8
0
-17
-25
-25
-32
-75
-33
-23
13
46
-4
-4
36
-5
21
35
-10
-30
-2
32
20
-47
-81
18
-25
-7
-4
0
20
31
-66
38
-11
-50
52
25
-11
54
-2
-2
14
-21
-15
-3
-15
-10
46
7
-20
-26
-71
-17
-40
68
-38
12
-37
-41
35
-34
9
-19
26
33
27
4
1
-13
-12
26
-42
-26
8
28
29
1
48
31
4
-25
-14
18
-11
61
13
-24
30
41
16
-13
-22
-7
-17
-26
-25
14
16
43
13
14
7
1
19
-9
-15
-29
11
16
16
21
-9
45
28
-28
-24
-25
-41
37
-14
8
42
33
6
-3
4
-62
19
5
-5
54
-26
-43
20
-3
9
24
6
-7
-4
28
-14
27
-8
46
-31
-38
8
0
-16
41
-40
-58
25
20
-44
8
35
-54
2
9
-15
40
50
-64
-10
20
37
-3
-12
25
45
33
1
-25
41
-12
24
-21
-15
4
51
4
-25
36
7
15
-1
18
-49
32
-39
-34
-34
-17
5
-46
-22
-16
-19
-28
5
0
-11
-3
50
-1
45
31
3
9
30
30
-17
-18
12
-24
14
46
-16
-12
-8
-22
-35
-22
-39
-16
4
-42
-26
16
28
-8
7
1
50
-68
-17
-31
42
-3
17
-5
-12
6
-12
44
10
-36
13
-5
39
-4
52
25
20
-9
48
-3
25
15
-6
13
40
10
1
21
-57
-9
-11
-50
-9
-5
56
-24
56
-43
-8
-4
-48
-66
-36
2
-1
-24
-30
-3
25
-12
-8
-18
-22
-15
-15
4
-27
16
-34
20
8
-46
22
-3
10
-2
-12
-32
23
8
4
-29
18
24
-11
-4
-23
-19
-33
61
-7
-20
-4
2
21
-7
34
31
13
15
20
11
-1
-63
41
-7
34
-3
22
-12
-6
-2
-9
-32
53
14
8
-45
85
57
8
57
5
-6
-1
-54
-10
63
31
-15
-41
45
-16
-29
-24
-20
-23
2
-36
-2
-16
-9
28
18
-10
4
-21
-58
22
35
6
-28
46
-12
13
21
21
-7
78
19
59
34
22
38
2
-11
-4
-1
-43
-5
24
-26
38
-15
-32
-56
-18
46
56
5
-9
-2
-13
19
-29
-27
57
-12
33
54
-5
9
31
-29
-4
-20
-7
14
-23
57
37
61
8
4
-10
63
45
37
-11
-67
17
32
6
30
-45
43
-41
22
9
-22
-19
-29
-61
37
-38
-1
-18
-12
32
-2
8
-4
48
16
39
-17
-73
-23
-57
31
10
-24
28
54
73
47
-26
45
-23
4
20
26
-2
14
-7
-23
57
35
56
23
12
-31
-14
18
27
30
19
-7
14
40
-41
-67
-43
17
-39
2
14
-4
-2
-5
33
-67
-28
-25
56
-8
5
-30
-7
-26
-12
21
-3
38
-7
40
-43
31
-3
14
7
-44
3
24
-18
-7
-50
-21
10
2
-54
-3
33
-3
-9
11
-41
7
25
-36
12
26
37
-33
14
29
-5
47
23
0
18
-9
-11
-14
22
11
68
30
10
48
19
-30
6
17
-19
51
-38
-25
17
-43
-57
-25
-18
-51
-59
-20
6
-18
27
-12
56
32
-15
-17
-20
8
26
50
-17
-59
-47
6
-1
37
44
-24
14
59
-9
35
19
-38
-22
22
-50
26
15
-9
-7
-33
45
-57
0
-83
39
8
-12
-41
-63
-18
-36
77
-36
-31
1
-20
42
-23
3
2
17
2
44
45
6
15
36
-10
-3
28
-8
18
-7
26
-44
24
-9
11
3
26
20
-36
-8
24
-10
-33
-77
-4
-42
-10
-40
-28
22
-55
-2
16
13
-25
-9
15
-70
10
-41
-8
-19
-45
13
14
-24
-7
7
20
16
-9
42
-25
18
24
-50
-14
-19
22
24
25
10
40
-14
-54
37
-22
10
-34
11
18
5
19
8
-51
13
-47
-32
-30
19
33
28
15
17
-9
49
58
10
-59
3
51
-52
37
1
8
-7
-42
-27
60
6
-52
28
45
6
-28
-12
13
-20
6
-65
-30
-10
-3
1
2
-30
-29
-27
-17
15
-15
5
6
19
-20
48
41
35
18
48
-15
19
36
-18
45
38
-3
-24
-28
5
-7
20
3
-11
-17
-26
8
-29
18
15
42
18
-39
-10
-4
-42
14
4
-6
18
38
-33
0
45
-2
17
-27
-19
6
11
26
2
70
-24
-27
-1
36
83
38
9
-24
33
-7
3
25
-48
23
-39
34
19
-8
-17
-49
-15
-7
13
6
5
17
23
9
-2
27
-52
-21
-25
-18
15
25
58
-48
18
42
13
-62
-50
-51
-44
4
-2
-9
-31
10
20
-58
-3
-1
-11
25
-76
-1
-14
-11
8
-20
29
-15
-29
-21
-35
-16
10
17
28
-4
-4
28
-36
4
-45
-46
-7
71
-3
-12
-36
-6
9
46
55
-24
9
15
-15
-1
-46
-50
38
12
44
-35
46
-11
-9
5
-15
-20
47
23
34
-27
30
-16
8
10
-26
13
53
-51
-22
38
-12
-30
24
81
-32
5
16
-25
9
-40
-35
23
-33
-18
-22
10
-18
-3
39
-55
-31
-32
-3
-11
28
-20
49
11
-29
4
46
33
50
59
36
22
1
-18
-11
-13
2
33
-33
-35
24
23
-26
-50
10
54
72
-5
-25
-36
-17
6
-16
-23
64
-28
-6
66
14
-7
13
-7
5
-39
-24
9
6
57
33
57
-34
1
29
58
49
55
35
-51
0
32
-8
30
-27
77
-56
-40
0
-48
-59
-41
-39
-28
11
15
14
14
12
-1
-33
-10
-58
-57
-27
12
16
6
46
-19
-11
39
-11
-33
-65
-42
-27
-37
-32
-13
15
-5
6
-23
-24
3
-59
-6
-19
-8
-27
16
20
-37
2
-19
13
11
-38
18
17
15
64
-12
5
25
-38
-33
-48
-6
13
25
-18
-8
-62
-38
29
44
21
-7
12
-15
12
-47
-38
-50
-6
6
-29
-27
34
0
17
-17
15
-47
26
15
-10
-33
29
-24
-4
61
-25
-4
0
-30
-3
66
21
-47
0
31
-25
10
-9
-41
-50
21
-4
-23
-39
-20
31
-6
-8
15
40
-17
-21
-2
37
11
59
-29
33
-5
-3
3
24
21
59
38
56
51
34
20
-43
-14
-29
14
16
-35
1
-12
-32
5
-14
68
50
39
-18
-18
-16
-14
-32
-26
9
1
-7
36
-9
-26
21
-12
26
-25
-20
28
-36
49
18
67
-15
-4
22
53
34
37
17
-29
8
35
-1
14
-23
50
-12
13
-17
28
-47
-44
-58
-11
36
27
28
-13
-35
3
-56
-24
-38
-23
-15
24
26
-34
46
-5
23
5
-32
-53
-56
-32
6
-28
-18
-18
-22
-9
20
21
7
-18
-24
-39
-29
-13
22
-2
-39
9
-9
-44
-3
-50
15
37
11
-5
32
-3
43
-27
-5
18
-26
-34
21
52
-28
-2
-26
-1
17
-2
67
-4
31
29
-19
-31
-17
-57
8
-56
-17
-39
18
30
-26
14
47
0
66
27
29
-48
63
73
-26
61
-32
-2
26
-5
-43
55
-25
-27
-19
28
12
7
17
-29
-24
4
-54
23
6
-17
32
-12
-33
7
23
-41
16
34
44
-36
2
7
40
17
4
6
25
40
50
47
24
26
26
-33
-24
-40
10
-9
-9
-19
3
8
-2
-24
12
25
16
11
-6
-23
39
-5
-50
-24
57
-35
17
42
5
0
62
-27
-6
-59
-33
-3
-8
-1
-37
38
-14
-6
11
-3
65
28
41
-23
-2
9
33
-13
6
64
-11
11
-12
-4
1
-9
14
34
-26
-26
-22
-8
3
-11
14
10
35
39
34
-19
-24
-12
-32
3
-16
-29
-16
43
68
-6
44
27
12
-21
-3
22
21
48
4
9
8
0
52
16
32
-30
4
29
23
45
33
45
9
-24
-47
-24
-55
25
-40
-5
-9
38
-4
43
7
-29
-19
13
-11
28
-27
-32
-59
8
-27
-1
-22
-7
36
18
-36
6
-33
-7
8
-9
12
-25
-30
31
-65
-15
24
9
-45
-36
-7
-22
0
10
-27
19
0
-35
-24
-5
3
-71
-5
-5
36
14
3
-2
41
22
5
0
16
19
56
15
-37
17
-2
18
5
39
-46
30
-66
-45
11
11
-19
-16
-46
-44
-21
14
-10
29
46
-23
21
-28
2
17
4
-38
-9
28
-20
-56
-24
-3
4
1
-9
3
-9
35
-43
10
-39
-50
-4
28
-60
1
10
-7
32
-29
36
-22
2
-19
-5
2
-20
-55
-40
-22
14
56
-29
-4
2
-41
49
-71
54
15
19
-2
45
0
18
-26
24
-61
38
-6
-21
24
-28
-13
-16
19
-8
14
7
22
-23
1
-23
-35
-13
47
-7
43
4
1
-52
-35
-3
-48
33
48
-26
-50
34
-1
41
-4
-12
-22
-28
-29
-20
-5
-10
8
37
-4
8
-24
-4
13
-1
-20
-8
51
1
8
18
-37
-1
15
19
16
-51
-60
20
-24
37
47
38
21
4
-25
-9
-26
-30
-7
19
-33
38
17
39
7
6
11
-32
-12
-9
29
-35
21
0
-33
-15
12
9
-25
-20
-12
41
-18
-11
19
17
35
54
25
18
-32
35
18
1
58
1
-15
0
39
-3
25
65
12
-23
-33
-15
-22
7
18
-18
14
-10
-4
-10
-16
36
11
-10
-19
13
13
35
-13
4
10
5
-11
-26
-34
-34
-2
29
35
63
-52
1
16
-30
1
-18
-7
-21
-74
-3
33
39
-4
5
-18
9
-44
-58
-30
75
-14
16
-21
-7
-41
37
34
-30
-19
50
-24
5
6
-11
20
-27
10
24
-45
8
-9
42
-1
12
-10
26
30
-37
-11
-81
-28
24
16
60
2
54
-6
31
20
-25
-71
-82
-23
19
-57
8
29
9
-52
12
-45
1
-8
-52
-4
-78
-31
10
41
20
-22
3
-51
12
1
-18
28
15
21
33
-27
12
-17
-42
-25
-49
3
20
46
-17
9
-22
-23
24
-1
63
-3
48
31
-22
-5
4
-35
36
-43
9
-40
46
26
-7
1
-21
12
38
34
-30
-16
22
63
-51
30
-18
-6
27
-16
-11
25
22
-10
-6
19
-31
-44
-1
-34
-22
-3
-11
-3
-13
18
9
-20
-37
-27
29
-63
-6
4
9
-39
-2
11
28
16
5
53
64
7
36
37
6
35
-16
-32
-15
28
-54
9
-24
-33
5
7
12
-19
4
56
34
28
-17
-45
-10
19
-53
-29
49
-30
49
46
-4
-12
71
-44
13
-45
1
-9
-10
5
25
38
13
-16
-5
33
86
5
27
-76
6
18
19
0
-2
51
-19
1
-6
-16
-39
-39
-28
-7
7
-9
-1
-18
-18
1
-12
21
-41
16
16
2
30
-10
25
-29
-15
17
-43
-19
-63
-10
-37
-26
17
-24
-39
-29
11
-20
-20
-24
-9
-23
-50
13
-16
2
11
-34
18
4
-31
-39
18
-23
72
41
36
-31
34
-6
-33
-3
-36
6
14
32
15
4
-31
-20
40
18
35
-25
6
-19
8
-22
11
-35
44
-44
-1
-7
4
2
-9
-19
4
-36
56
30
18
-50
68
14
-7
4
-6
-9
3
-30
0
18
-19
-13
-35
36
-37
-23
-10
1
-45
14
-58
10
-31
22
-20
-31
-40
-34
39
-40
-3
-13
27
5
28
-17
68
8
22
12
74
34
1
59
11
22
-36
-22
5
-33
-23
-7
1
-7
3
-17
-27
9
-23
57
1
31
-12
-41
-32
-6
-12
-40
19
-46
-12
37
-28
13
56
-1
-8
-8
-22
16
-36
34
47
58
13
0
34
58
45
46
21
-28
43
3
-2
15
-35
67
-37
-31
-19
-39
-26
-31
2
37
29
28
-44
-8
22
-38
32
-25
32
-19
-9
10
-47
2
-15
53
7
10
43
11
75
-4
-11
46
30
-26
-12
11
2
-5
-10
-7
-1
-6
17
37
-23
20
33
21
29
18
32
42
-12
-50
17
12
-34
34
8
7
19
-15
-23
28
-6
3
25
-30
-8
-11
-27
32
-37
3
-26
11
-9
3
-11
28
-23
27
-24
42
-44
-17
-23
11
5
29
-10
-39
-21
1
-32
-42
17
-10
32
47
8
45
31
-67
-31
20
-26
-51
1
22
33
35
7
17
32
-11
-24
27
-35
-12
52
19
23
-1
-8
-7
-9
55
-4
16
-4
-35
8
-58
8
4
-34
10
23
-35
-9
25
48
16
37
-5
-16
24
36
7
22
16
-11
-36
-1
-14
-32
-2
-38
-22
-27
-33
-37
-37
-22
10
-5
44
-63
33
-16
26
-28
16
31
5
21
-51
-3
34
30
-1
-43
-4
-27
17
-17
-18
-2
-24
-2
-33
12
0
2
-13
29
56
5
16
-32
6
-9
-25
-29
-30
32
15
4
33
19
-39
-70
44
-54
46
-14
16
9
33
64
51
24
29
-27
-7
16
17
37
36
-12
-3
14
33
90
33
-3
2
30
34
12
37
32
5
8
8
-47
-28
-6
46
-12
26
-10
5
17
27
-15
-39
-21
39
41
36
-31
24
-44
16
6
16
28
-4
10
46
-11
7
-34
7
-47
22
39
9
-17
27
-12
-42
-39
2
-36
-35
-16
-36
34
5
-38
36
13
-48
-23
47
-3
-81
38
18
-21
-19
-10
18
48
-22
7
-27
-5
-4
53
37
11
57
6
-36
-20
-19
-46
43
-15
3
16
-14
-40
20
-56
-38
-31
17
-32
12
25
-23
25
6
-21
-12
24
-13
-23
-1
-12
-37
-59
-44
-23
24
-12
14
46
43
-61
-13
-16
-53
5
-8
-39
18
10
38
-8
-11
30
-45
-28
-23
52
-38
7
-19
-58
-52
-24
41
7
-30
-27
-11
29
-42
20
0
38
36
47
23
4
6
-22
-1
-1
9
14
-16
23
19
51
0
15
-17
-70
-36
-47
32
0
-33
28
50
77
2
-16
60
-20
6
-14
36
-6
15
-16
31
27
-23
38
37
10
2
-28
44
-17
28
24
25
-15
17
-61
-27
-53
35
-46
-11
8
39
21
18
16
-39
1
6
59
45
-38
-12
-30
-22
9
-10
-26
12
26
55
-21
45
-19
46
-5
-21
-9
44
-15
4
-63
-49
-34
46
-16
-16
28
-54
19
16
-47
18
52
-78
-21
61
11
-30
34
36
-12
26
35
25
59
-11
25
-17
-3
19
28
22
-13
62
11
18
-42
17
-16
24
-45
-3
13
-41
-38
-42
-53
-73
-31
-28
17
36
43
-17
43
29
2
27
19
-27
20
51
-20
-54
-46
-13
2
56
3
26
20
-2
-17
-5
-27
-53
14
18
-26
29
0
-3
33
-1
37
-22
-7
-23
-5
17
-16
-15
-79
-50
-21
63
-28
-12
-39
-37
1
-78
45
29
-1
5
24
40
34
-36
-47
-7
-24
-4
-6
-47
63
-30
28
41
-16
-39
-3
15
1
-6
-32
7
-18
-24
52
63
-44
-7
-14
43
41
-25
11
8
-20
-59
-1
-7
-35
-5
2
-13
-14
-58
17
-33
22
21
-6
-62
16
-21
-54
-25
74
0
25
23
26
-30
60
11
76
47
-34
-52
1
48
-65
26
-11
38
11
-26
26
-6
-13
92
-28
-25
-20
50
-64
-68
13
21
-28
-8
-5
-27
46
44
9
-8
16
-12
-18
18
42
-13
-9
33
-24
0
-47
4
-35
14
-36
-67
59
19
35
20
-43
42
-84
26
8
-43
-31
-56
15
-4
-2
-3
6
-8
29
5
-11
42
15
21
-18
-3
26
4
19
52
16
-8
-14
-19
22
21
-15
-43
-44
8
36
-32
-7
35
-28
1
12
-4
-20
9
-26
-27
11
18
-56
-13
-17
-32
36
2
-33
-3
26
2
-42
-37
32
1
3
-22
56
-11
18
35
11
16
60
-25
-7
-19
-6
36
0
19
19
-23
-40
58
-21
7
-21
-38
62
39
26
-20
-45
-24
46
14
-18
-49
-14
-31
-44
41
25
57
-12
-34
-4
4
49
3
2
-29
-26
-10
-38
27
-44
-3
-15
-35
21
-26
-5
-75
-46
16
54
-6
12
-33
-31
-11
-43
-10
11
20
51
-10
-18
-12
15
-15
53
-7
42
-28
-26
26
-12
42
-29
-1
-29
11
-38
46
-1
4
-21
-30
10
-7
-62
40
-40
-36
-16
33
45
9
-6
-51
0
29
19
57
61
9
51
12
-38
20
24
41
35
34
43
-21
22
46
62
33
-56
-48
-21
28
-22
-46
-35
-7
-44
-29
-30
48
44
27
10
-36
23
-31
-10
28
1
-16
12
-54
64
30
42
26
-2
1
61
0
32
4
22
69
51
-104
-14
25
-21
-1
22
34
-46
34
20
-52
42
-33
-38
-2
8
13
-19
-70
15
-29
-6
-59
-8
-50
30
38
-25
-7
57
-20
35
-18
-32
-23
35
26
36
4
4
-12
-27
-8
18
-9
-86
59
-31
-26
-45
-39
57
-7
-15
-16
-28
17
-7
22
-46
-31
13
-13
-37
32
55
56
0
-57
-14
-37
-6
8
40
-43
-5
-35
-31
10
-55
-1
6
-21
-9
-32
9
-70
-9
17
73
-1
27
-47
-31
-54
3
-12
12
1
61
10
14
15
28
9
45
-24
49
15
-5
-32
13
2
-31
-32
-22
7
-29
29
-33
-45
-47
29
-33
-28
-69
38
-69
-12
13
-15
21
-19
-27
-43
39
60
-36
33
39
-23
34
34
-13
31
-29
25
3
16
-12
-73
-4
46
14
22
-52
2
-36
27
30
-51
-30
-39
-25
-41
-21
73
40
34
-3
3
-23
-19
-31
-8
50
27
-12
11
13
-6
18
4
-7
-34
28
10
23
23
-3
77
50
-75
-12
39
-22
15
-2
46
-4
17
2
-69
32
15
-34
2
-43
16
25
-55
-7
-28
38
-37
-11
-62
13
10
-24
3
38
7
40
-50
-9
0
13
16
13
-27
-7
25
-37
25
-9
-2
51
-29
53
-2
46
22
-32
32
-2
-26
-8
19
-20
-21
-5
-3
-35
7
29
20
8
-21
-6
-5
-27
-13
-66
24
-1
-5
19
0
11
-56
23
-17
30
32
-24
20
12
19
-10
-6
-32
40
-27
-35
17
30
-72
-43
39
-10
4
5
-5
-45
-25
-27
3
57
17
-13
71
-17
28
-59
-28
-8
-5
15
34
-31
-35
12
-8
-31
27
38
10
10
71
-13
43
-6
-75
-11
-11
9
-22
2
-20
9
-68
8
-15
-70
62
-6
55
-29
29
62
-1
46
-8
-6
-26
-22
38
4
45
-24
-10
21
42
25
50
-56
-8
15
-11
-8
-35
-25
3
-54
-56
-18
-27
-32
-36
21
-1
-41
-27
21
18
33
-39
-23
-11
12
23
-37
-48
29
47
2
2
-1
27
25
15
-40
12
-4
-32
-18
38
-28
39
3
38
-11
28
-15
0
-32
12
14
-8
29
24
31
-29
4
1
-43
-3
-14
-47
-37
2
-12
-22
20
21
4
22
19
-12
-18
6
-59
39
40
-6
2
9
-20
-35
41
47
13
-33
-8
29
-10
25
-15
7
32
52
-33
2
-28
-8
13
2
-22
28
33
-92
-2
-24
54
-33
10
5
28
-45
6
-28
14
12
-6
-32
60
44
-16
-32
8
-39
-8
-22
-1
15
30
-57
-5
-11
-20
89
-6
25
-3
-38
25
37
-4
-21
-21
-21
-43
68
4
-53
26
19
41
-49
22
-35
-26
10
34
37
-62
16
-24
-29
28
-30
3
-40
-6
9
29
-2
19
7
-1
8
-39
39
18
2
65
-29
17
24
-66
47
26
13
18
-19
20
2
8
-26
0
-10
11
-38
14
24
-37
31
12
22
-6
-21
-50
59
-8
23
-2
-26
23
-13
3
17
-13
25
15
56
1
26
-32
7
12
-52
-4
22
24
-14
-22
-16
-27
10
-17
-55
33
-46
-30
27
-31
-45
-7
47
-20
-29
38
-15
8
-7
-23
17
-7
24
-10
-38
30
45
0
25
11
-30
3
-24
-16
-52
24
3
-16
-3
-30
30
23
43
-3
33
-41
2
11
-48
-29
4
-33
-21
30
72
32
-16
-7
-63
31
47
-17
-5
-17
-23
-12
36
18
-30
7
-4
-11
31
-18
-35
-43
6
10
19
-6
22
-16
-37
-8
-28
-46
25
25
61
-3
6
11
5
15
61
-27
46
24
7
35
-47
9
-42
8
-2
5
0
-3
-56
4
-57
22
43
5
-49
42
-51
-20
-47
11
-1
7
-36
-6
2
-2
19
42
79
4
39
-18
-39
11
28
23
6
63
-14
-6
16
5
7
-29
-4
-46
-11
-9
-3
-9
-45
-1
-10
-44
-7
53
13
34
34
-41
2
10
-13
35
32
9
-18
13
4
-14
19
55
-25
-7
21
29
36
21
4
13
31
-84
8
47
-11
-2
32
51
-32
33
44
-1
57
-1
1
0
-38
0
-10
-73
-17
10
24
-33
5
-31
68
-23
-25
-21
45
20
41
-31
-16
3
26
-21
-26
-3
19
-22
-12
21
-38
-4
-63
44
18
-15
26
-53
15
-14
-4
-29
-38
19
-6
0
-58
-29
-4
-29
3
55
64
28
-9
-27
-41
-44
27
57
4
7
29
-6
-46
31
-44
44
-19
5
33
21
-2
-59
-57
-1
48
-10
26
-38
-19
-54
-12
25
-25
8
69
-28
-1
15
21
-14
39
-55
77
-20
15
-31
-32
52
-8
0
15
32
3
0
6
-52
-59
-3
39
-35
-75
33
-81
-57
-27
6
27
-17
-30
-51
32
12
-17
59
36
20
63
16
-34
7
-5
62
-6
-2
46
-64
-12
49
12
18
-53
-23
-16
-2
-16
-23
-51
1
-47
12
-15
42
9
39
2
-3
-33
5
-26
2
-10
-15
34
-50
10
21
32
18
2
-27
50
-9
52
59
17
8
68
-79
5
36
-10
22
-41
23
-42
34
40
-58
28
21
-18
28
-42
25
6
-55
42
27
27
-32
29
-19
54
-8
-16
40
22
29
39
-25
27
36
-2
25
20
19
26
-6
-13
21
2
18
7
27
-13
16
-1
-70
-3
-39
23
20
32
4
-65
15
73
-33
-39
32
-26
3
-11
-42
-62
21
-19
70
5
-8
15
19
-14
-26
51
-35
38
6
19
-10
-59
-12
14
24
12
2
-21
-26
-36
1
-37
-8
44
-8
45
-41
-27
15
42
-6
14
24
2
-27
-83
-23
-27
19
-8
6
-23
41
42
-28
63
5
-7
60
14
-17
9
-13
-3
30
8
-6
11
8
-26
23
-3
57
-39
-81
8
-64
38
2
-1
-34
37
-34
-40
13
-33
-35
3
29
23
-72
-14
-8
8
13
-64
-18
-10
9
31
4
7
-22
52
-39
-8
-16
39
10
9
52
-19
-37
-26
-8
-8
63
-77
5
8
18
-37
-24
-12
35
-37
-2
3
-103
-51
17
-14
-27
17
-8
10
-3
-22
25
-2
18
-26
39
17
8
-4
-13
18
40
40
45
22
-7
-4
-21
26
-20
-7
-39
1
45
28
-14
-8
5
21
25
22
37
0
-16
68
46
-10
20
-21
47
-17
29
-59
-2
10
4
19
11
16
2
2
38
-11
11
-24
27
-35
-6
16
-8
-9
-6
-24
35
24
-3
-6
-13
25
-13
-17
5
-23
-62
49
-18
-14
-52
33
0
47
-29
40
-4
37
-18
20
-49
58
-37
2
40
-14
-9
-21
34
21
67
35
-5
-1
24
-50
12
-29
4
25
-28
6
57
14
67
-40
-27
-4
12
-52
-11
13
19
-46
-6
-35
8
14
-2
12
-21
-2
29
-16
32
50
10
11
16
-27
-24
-8
-3
-13
-22
-47
-29
-16
10
18
15
-56
31
-74
-9
35
-40
-31
-34
-12
-18
23
-6
61
5
22
4
-5
5
5
20
21
1
-15
12
21
2
-22
16
16
11
27
25
-19
-7
13
43
-9
-23
-38
0
26
-19
39
-8
-23
-2
29
33
32
-11
0
-21
-12
-5
30
-12
-48
15
5
3
-45
21
42
-33
0
-3
34
-2
-11
17
4
26
44
-24
-20
3
-21
14
-41
11
-15
1
-59
10
6
-5
-7
-11
7
2
-37
-29
-73
34
79
30
-40
-26
-9
-5
-21
49
42
74
58
-46
-10
-29
38
4
-36
0
36
4
-82
52
-10
7
-6
27
59
24
-8
-14
-62
-18
59
-18
1
-4
-21
-6
-26
34
-46
11
52
-21
-10
31
-24
-18
16
-29
65
-2
-15
-5
-43
24
-24
-14
-62
-36
-71
-17
29
-60
-73
36
47
31
-63
-18
-80
2
1
33
21
-58
-51
-31
14
38
-8
40
66
25
11
0
-39
18
4
27
-18
28
25
-35
39
88
42
8
-14
-16
39
43
-5
11
-48
-8
-37
-8
-3
67
-15
20
-27
17
34
-4
-5
-6
16
-20
26
-47
36
-47
41
40
19
-23
-18
8
4
44
32
73
62
-54
-3
7
-62
-26
-16
9
-14
4
-8
-63
-5
-17
8
-31
-15
22
10
-31
-5
-24
-26
-49
14
6
26
37
7
36
34
-11
6
-5
-15
-15
-54
21
19
-18
9
23
-70
-31
8
6
42
-37
-43
13
-32
38
-13
-13
-35
-4
13
0
-45
-40
19
-11
-2
29
-24
-10
-34
-36
-42
8
21
15
0
-34
10
32
-20
40
52
-16
0
-12
47
-4
-12
3
58
42
14
-9
9
18
2
11
23
35
49
-71
49
4
-17
-8
35
1
-1
-14
-31
45
-50
-1
-37
4
10
15
19
31
38
4
65
-2
7
17
66
-27
-6
-34
55
6
28
6
16
-50
-2
78
-4
36
-16
-38
-6
-59
-15
-9
-42
-23
10
-9
-16
-69
-9
-41
-17
10
-14
-27
-33
5
24
59
-26
14
-5
2
13
16
-15
24
47
-15
19
15
39
42
20
-2
17
-39
-18
7
3
56
-49
35
-6
-26
30
35
2
23
-36
-22
24
-36
-29
28
-17
-60
24
-18
40
-11
21
-23
14
65
-15
14
-6
0
39
-45
27
-1
-9
-24
-6
41
17
29
-26
-52
8
6
-18
37
-44
14
-21
-4
-12
21
-34
26
-41
-39
21
7
7
30
63
-20
-33
3
4
7
-50
-7
-43
-8
69
25
-32
-27
74
10
-50
24
-16
-50
-44
-66
-33
17
46
58
-53
-40
35
11
-42
9
73
-72
43
-25
18
25
-28
-14
40
63
18
22
-66
12
-45
2
7
28
-3
-20
8
-9
-58
23
14
12
-23
-15
-10
7
-77
-25
5
30
29
-35
-1
42
22
11
35
-17
-3
11
62
17
-30
-8
41
-45
98
9
30
15
12
1
30
66
-20
-63
10
-35
-72
19
-57
-27
48
3
4
-34
-9
-20
11
54
-3
-58
-16
5
30
38
-32
4
-35
-2
43
32
32
17
59
-46
-8
15
2
32
-24
51
14
10
-62
18
-45
59
-44
18
-12
-27
-18
-4
-34
15
-28
-46
-20
-77
-56
31
-43
-51
-3
12
-9
-36
58
-45
-3
24
-23
15
-18
-21
43
-50
-35
29
20
-7
27
68
-28
30
-17
-48
-12
-37
-15
18
-7
1
12
-22
-22
-17
15
25
-63
6
59
-6
-1
4
72
-19
30
-26
-19
47
-5
33
-2
-14
-76
22
25
-36
-37
21
11
15
-10
2
-18
16
41
-17
8
-64
-25
28
23
12
60
30
-68
-43
-27
19
27
9
-19
-49
-25
33
26
-15
-10
34
0
4
48
-18
6
35
-74
34
-53
8
-43
14
7
-34
6
58
41
-2
-7
-1
-15
12
2
5
-52
21
-47
-45
54
-14
3
25
-28
47
-10
2
-2
-16
-9
-16
26
33
-10
-42
6
38
5
46
-18
-20
19
25
-30
27
-5
-8
-2
31
-38
16
-23
12
17
33
6
11
37
52
-23
38
-15
22
-18
-13
-1
-42
23
-23
-22
-5
10
11
29
-21
12
43
42
-11
25
-39
-36
6
56
21
-35
22
22
-25
33
73
6
39
-24
-56
-22
4
-26
30
29
-52
-14
-12
-21
-49
27
-41
-4
10
3
11
-25
-35
-12
42
23
31
-15
55
16
1
-49
-4
-28
-9
4
-1
-62
3
-5
-27
-15
-17
-6
4
-28
3
-67
0
-4
-30
5
-31
38
-25
0
-42
-55
-28
7
43
-61
-28
-19
-40
-14
40
67
71
6
-44
11
-33
61
29
24
-19
-25
-47
4
52
-5
1
-4
14
-4
22
-10
-49
-32
-29
34
-3
0
16
-27
-9
25
11
-5
0
63
-18
-21
-2
7
43
38
-79
52
11
-26
32
1
27
-32
-28
-31
11
-36
59
-50
-16
-52
7
-32
-32
-21
37
-72
9
-62
24
59
-35
-24
-11
24
20
13
6
77
-6
31
21
-45
-12
12
64
-2
17
32
-82
39
34
54
19
-21
-36
-43
22
11
-30
-26
-26
-78
38
-10
73
18
-10
15
-39
-3
7
-39
-1
1
-11
-11
-49
44
58
44
16
-41
-6
48
6
35
-23
-33
19
67
-99
-43
43
-8
20
-29
-21
-41
57
25
-12
16
-3
-3
-8
-33
-4
19
-19
-29
13
2
-22
-22
-73
40
-8
-14
6
43
24
34
-27
24
49
47
20
-16
-16
21
27
-24
-2
7
-31
37
-5
34
-33
16
35
9
-12
-11
24
-1
-12
5
-43
-22
37
6
-8
30
5
-51
-20
15
-4
20
-47
-56
5
-44
58
34
25
-51
-53
35
23
-34
37
-20
-25
35
50
-3
31
-50
32
-34
57
27
11
-13
24
-51
-21
-69
67
-18
-32
-30
-53
-5
-13
43
-29
55
-20
-5
-40
24
-8
-44
-31
-31
-23
36
26
-17
13
-32
44
-13
-14
31
29
29
-22
13
35
16
-23
16
17
-31
-9
-87
-26
-12
-9
23
23
-6
-6
17
-6
30
52
-29
-30
-44
-25
19
-4
55
-7
-16
16
29
-3
50
-22
-44
-56
-42
-40
-17
30
27
-17
46
-31
-28
-22
7
7
16
-28
-34
0
-13
-2
10
11
-10
5
5
-3
-18
57
42
-59
-10
-5
-21
-24
39
-48
-32
-5
-8
-41
35
21
32
-14
-13
5
-13
-24
-43
39
45
4
-8
-7
48
-13
10
26
-2
15
14
-32
-48
-20
8
0
11
-4
28
1
-4
-1
35
-11
-8
9
-6
10
-69
-2
9
-8
25
-31
-47
-41
40
10
-15
34
-6
-47
-61
-77
-35
4
-3
26
-34
-57
37
32
-24
7
19
-28
26
-43
25
-15
-14
-5
7
73
7
-11
-21
16
-19
-18
60
14
15
-35
10
39
-87
-3
-20
2
12
-19
-33
43
-25
-1
-16
-39
17
-30
15
45
-8
-10
23
-56
-2
1
22
2
-2
19
47
-44
88
17
22
-33
-7
25
33
-2
-29
-49
-21
-17
-76
-20
-61
-5
55
-4
21
-61
-30
-16
-30
64
-47
-53
8
9
69
17
-21
34
-25
36
26
62
32
-22
68
-40
-23
35
31
-1
-13
-10
25
-25
-12
36
5
1
-50
-28
-51
-28
15
-6
-49
-33
-29
-36
-9
-29
-39
43
-39
-70
54
6
0
-24
67
-40
11
68
-1
-28
41
11
20
-3
-17
45
29
11
15
70
-14
15
-18
-39
26
-1
-59
-15
-54
1
-32
-36
-21
-20
0
0
-55
11
57
18
14
-3
28
30
-3
-32
11
1
34
38
23
0
-75
13
62
0
-43
18
39
-16
4
-5
-1
54
21
-27
34
-51
1
31
4
-5
19
31
-73
37
-43
11
0
3
37
11
-12
-3
-9
-4
-4
-43
-10
30
-17
23
-12
22
-89
-2
-9
33
-1
14
-7
-43
-4
-23
99
37
12
-3
-33
15
20
-23
-54
-38
-53
16
-9
-41
-61
19
-39
-6
-28
12
-52
-14
0
11
43
7
-36
-78
37
23
-26
40
29
-29
9
37
-27
20
-21
35
16
7
-24
3
24
32
-30
-16
-50
-28
38
11
37
-10
-40
-14
3
47
-44
-5
23
13
-36
24
51
-1
-20
4
45
12
14
-46
11
-2
-6
-12
31
-3
8
12
17
7
-2
97
62
15
8
26
-26
-30
-11
-11
11
-13
-15
-35
-5
-31
2
17
-29
32
-17
0
-21
-34
-20
9
-9
-39
-15
51
12
7
4
-21
7
-3
18
24
-15
6
-18
2
50
-6
-39
-29
32
-10
-27
42
46
-61
14
-22
31
17
-10
-24
-35
33
37
6
-42
-26
29
-21
7
54
22
7
51
-7
9
-59
21
26
3
-15
43
18
-41
62
-16
-6
-27
11
59
3
-57
-52
-53
-17
4
-11
30
-6
0
-39
-71
26
-68
8
-5
-19
2
-11
-5
-17
51
-15
52
29
24
-10
6
51
10
-3
-43
2
-65
-18
-5
-34
-28
-10
34
-24
-64
8
-25
-39
-40
29
-6
-70
-49
-15
16
17
-39
31
11
15
59
-2
-8
-10
-15
66
13
25
38
-17
-9
94
53
5
-41
-40
18
-19
-26
-11
-42
-8
-8
-30
-47
12
26
2
0
8
22
-40
-10
18
40
3
-8
-58
33
-32
-10
10
-17
-30
3
19
-7
15
19
43
40
-47
-9
11
-11
-27
-62
57
15
-16
28
-62
17
-9
20
-26
-46
37
-19
-74
-4
18
-22
-54
13
-17
4
36
2
61
4
-10
16
11
12
6
-47
7
28
-13
17
-10
-57
-39
1
-27
19
-31
-29
25
17
36
-27
-31
-28
38
9
-14
-31
3
26
30
-28
9
-23
-34
-80
-42
-34
27
24
37
-21
-16
-14
34
5
17
62
-24
50
-11
33
5
-39
31
15
69
36
-29
-65
-5
-51
43
46
-1
-11
-12
33
15
-15
18
18
-10
-35
-30
-66
49
-34
14
-5
-23
33
-3
7
31
21
-46
65
-36
-3
43
29
3
12
32
34
-15
84
8
-18
-7
-1
-13
-3
53
-20
-69
-7
-44
-31
38
-27
-2
-11
22
-24
-2
-24
-28
-24
32
-1
-25
-13
-27
44
12
29
-30
-21
44
34
46
42
1
2
-59
-41
-11
1
9
-2
39
32
-7
-16
-7
-39
41
-21
-24
-19
-12
-42
-22
-54
-44
-32
-35
-27
-70
-63
41
19
-27
15
-20
-7
-54
-6
-39
-22
35
8
45
-3
10
21
-33
11
42
18
37
-16
20
11
58
-49
-54
32
-9
13
37
-39
47
15
12
-33
-15
36
27
-23
-31
21
1
-31
29
-75
1
-27
-14
-28
-52
63
14
-22
-7
-73
-1
63
17
-68
-5
42
-27
-46
33
67
63
-7
-8
19
-45
10
35
16
-12
11
-51
-28
29
-45
36
12
-3
2
-46
11
-50
-18
-15
38
-37
10
20
-14
-42
-12
37
-19
-12
35
-29
-22
-13
3
48
36
-52
71
36
-50
3
-49
49
-11
-24
-58
35
-13
90
7
-38
-15
33
-6
-39
-15
2
-62
22
4
24
13
-4
-39
-72
39
66
3
63
83
7
75
12
-47
23
-17
44
6
-1
-33
-56
13
49
7
20
-23
-28
1
9
35
-33
-68
-54
-24
36
-43
41
57
-30
-25
-39
-13
-31
-12
19
54
-8
27
-58
30
-24
6
41
-15
-38
34
44
46
11
36
69
62
-73
10
33
-53
-6
7
4
-38
15
-13
-77
20
10
-5
1
2
-10
13
-47
-64
-18
23
-17
3
-69
25
44
22
6
56
-9
9
25
-22
36
-4
16
13
-21
25
25
-63
-5
-22
-27
-83
43
-7
-35
-26
-15
63
17
-21
-6
-43
-9
6
27
-50
1
-7
-24
-38
40
50
47
-18
-12
-42
-36
41
16
34
-66
-7
16
-60
40
-41
-3
-22
-5
54
-19
-17
-26
-55
-24
39
10
7
-6
-35
-40
0
28
-2
9
53
-51
-51
5
0
10
76
-14
62
10
10
-23
-43
11
-51
-14
-18
29
-55
-17
-41
-52
-31
-17
48
-24
-60
45
-86
-39
-14
33
17
-7
-8
10
0
69
-34
60
31
-18
50
1
-28
-9
20
28
-18
31
4
-6
-10
25
29
38
-28
-27
0
-23
-15
-11
-48
-41
-49
9
-48
79
-10
31
-21
-12
-37
-35
-3
51
36
5
-17
-26
18
5
17
57
4
13
36
28
23
35
2
25
56
-95
8
44
-21
32
-15
64
-16
58
44
-16
17
6
22
-2
-49
36
29
-62
21
9
42
-67
34
-3
36
14
-31
9
-17
-7
9
-58
-26
-10
-24
26
41
-33
8
35
-46
-31
-3
-33
91
5
1
-35
-20
27
-11
-15
-8
9
-29
34
0
-46
4
38
7
-16
-2
-21
-28
-7
36
17
23
6
3
5
11
12
15
49
-43
-63
-16
-13
28
24
15
15
25
48
-4
-19
-44
4
-34
28
17
-15
38
60
-62
-31
-37
13
35
29
-3
-62
-29
21
16
10
-5
-47
18
-8
12
-28
-13
-26
14
-27
62
-17
22
-1
1
10
31
4
26
34
19
-23
17
-31
2
15
-41
-49
13
-38
-64
27
-13
22
-10
-3
-14
-54
27
-16
-12
40
-58
-39
-59
-9
22
31
-4
33
5
-8
26
20
58
39
-35
-75
-21
-38
-15
29
54
-17
69
-17
-28
-7
5
-14
15
-23
-7
-45
18
-1
-12
-3
-42
-12
30
4
47
55
19
-34
13
-36
-29
-16
41
-20
13
19
-28
-42
28
5
-36
25
-57
61
5
-4
-10
37
38
29
-35
-2
37
-4
10
11
-15
60
23
32
-19
29
11
3
-31
19
-37
-25
-32
3
91
-19
34
7
4
79
-59
22
-23
-14
-74
-17
38
8
8
19
21
7
-5
16
-37
-12
64
-29
-17
-21
-54
-16
9
4
52
57
-66
-37
22
30
11
9
25
-34
-7
-9
-21
-16
-33
-9
-15
25
38
21
-22
29
-68
-17
-68
52
-16
15
-55
-63
-15
43
46
-11
-22
-31
19
-21
6
-3
-23
-15
15
-42
29
-26
35
-1
-3
21
25
-39
5
35
32
-9
13
-8
29
-27
8
20
-2
-4
-25
2
-42
-4
-24
-21
30
-55
20
-31
-11
39
-43
-14
21
9
2
2
45
13
-8
12
32
2
42
-9
3
-60
4
-31
-48
13
40
-36
-14
-8
9
-13
34
-48
20
-30
-36
-46
43
-20
-41
9
-9
-16
16
0
8
58
12
-41
29
-28
1
-25
60
-34
20
32
-4
-7
7
12
20
9
13
24
-12
-12
-3
29
46
9
-32
24
69
-13
-9
-21
-22
19
24
-15
-77
-7
-35
4
-37
-2
-4
-3
15
16
46
-17
21
24
-22
59
-77
-8
-12
40
18
31
-31
-53
55
18
8
3
36
-8
-46
-24
9
46
-4
-13
4
10
-10
-3
-20
58
36
-55
10
-19
60
-9
-45
3
31
53
36
-15
-51
25
-35
19
10
35
43
19
4
34
-38
36
36
-26
-44
24
-62
16
-35
2
-29
-16
14
-34
49
-9
-1
16
35
-6
-3
33
45
5
7
20
72
-52
69
7
13
14
-33
46
4
-6
-38
-55
-15
-8
-74
22
-35
-18
37
23
31
-39
-1
-46
-1
60
-8
-25
-36
17
39
51
25
-15
-10
-7
44
34
7
1
41
-76
0
18
-18
6
-5
32
46
-33
2
19
31
22
-38
-15
-28
-52
28
-22
-19
-32
-22
-11
-5
-1
-36
45
-4
-75
42
-13
7
-8
68
-62
-14
27
12
-14
15
-19
5
-37
-20
76
-23
-8
12
54
22
42
-63
-8
58
-7
-5
-32
-53
32
7
13
-12
21
-31
3
-59
-18
40
-6
-1
15
-14
-1
17
-2
27
-30
-13
34
-28
-5
20
-6
-51
23
47
-30
-4
10
23
12
-2
15
12
-7
-23
15
20
19
-28
7
-15
1
12
9
-15
-17
31
-32
-57
32
36
-8
54
24
33
27
28
-31
8
-32
24
12
7
-2
5
-5
-21
-51
-6
16
35
-73
-31
5
-26
67
23
-15
3
32
35
5
18
2
-44
-10
5
-7
-30
-15
6
-8
-4
-13
-22
18
-18
-8
-2
-36
-26
-43
-3
17
17
16
15
63
-41
-27
-2
17
36
48
-28
-50
-13
-12
12
-28
-60
2
-39
44
13
21
-12
-36
-45
-64
12
1
-11
60
13
-15
-24
-16
-60
-9
11
-15
12
16
-1
-30
-26
22
14
31
-11
-45
13
-10
-12
-45
28
23
-1
29
-10
-3
11
42
-2
35
-20
-35
43
41
-40
-3
11
-4
3
-25
-9
-11
17
-6
-20
45
30
-11
-33
20
14
5
-9
-28
19
-33
5
-46
-8
14
-2
26
21
20
-34
-38
-22
32
-11
-24
32
24
0
2
-6
16
-16
9
-2
2
-36
44
-38
13
21
-31
28
-11
61
-7
3
-37
4
1
35
17
-9
-32
-32
23
11
4
-8
-20
79
15
9
37
-23
0
0
-12
-7
11
8
26
-61
11
-12
-19
-32
33
55
40
40
-6
-17
3
-3
-5
-11
-41
-57
39
28
9
7
7
-5
-30
20
4
-56
0
11
22
-3
7
-28
-46
33
-11
-7
8
29
32
34
19
11
24
11
-7
-34
-29
-24
-52
-26
-15
25
-14
0
18
-39
3
21
28
55
38
-6
18
26
6
17
-33
28
49
-17
17
24
-27
18
3
-6
35
-33
44
-7
-32
18
11
4
28
47
-60
-12
-35
28
27
-2
24
46
19
-25
-36
15
-6
-24
19
10
-10
9
39
18
16
-43
-23
-8
28
-14
53
34
-51
45
0
4
-47
-28
-44
-43
9
-42
-20
5
-7
27
-38
1
13
9
2
52
-22
-44
39
-23
-28
46
-9
44
-29
-16
26
-5
18
-23
-28
37
30
5
-20
46
-33
-44
27
9
7
-24
-8
24
-28
8
-1
32
9
-34
-22
3
1
-5
-2
-25
21
40
20
-28
-18
73
-25
-36
21
-17
-25
-37
13
-21
27
-21
-18
-55
33
-39
0
-38
30
33
12
44
-6
-32
42
19
-24
31
-51
-45
28
29
-50
5
-29
-32
14
10
49
-69
30
20
12
5
-52
-11
-15
8
-2
-38
-38
38
9
1
-7
-23
5
18
29
-3
-39
-18
5
-19
20
-38
-45
-13
57
15
-8
-24
43
86
-8
34
-25
9
30
21
18
-6
31
2
8
-8
-12
14
66
39
41
-8
15
1
9
21
-4
24
-7
27
-53
-17
3
7
17
25
-8
36
-1
-50
-7
-2
-29
-24
-23
-33
-19
-2
6
-25
12
10
-31
34
-7
-26
34
-11
11
38
11
-57
18
30
-15
-32
41
-21
1
-6
-38
-7
16
12
41
-36
-15
57
0
-34
-9
-5
-8
48
3
3
26
37
4
13
-5
28
-39
-11
33
48
25
-2
-43
-51
53
-8
-22
8
-35
40
-10
8
49
56
20
-2
-30
13
-26
23
-11
17
31
1
5
0
9
32
18
22
0
-42
-19
-3
4
-1
68
-34
20
-49
0
-60
39
-57
12
18
1
77
48
33
33
40
-18
-1
-75
-53
53
10
-38
-6
-3
-3
-34
24
5
-72
-17
9
60
-40
-10
25
-34
-4
-10
-37
15
-9
27
49
-14
-22
11
-20
28
-28
-19
18
-64
-24
9
12
-6
-28
0
-2
2
7
55
45
-13
42
14
35
-5
-35
27
16
42
4
1
-36
-30
29
27
-11
33
24
19
2
9
36
-40
-13
-3
26
-74
27
-39
-3
13
54
34
48
-24
-9
-19
21
10
21
5
12
-14
-15
-11
-28
0
10
-32
46
16
-42
28
-37
-28
31
-5
-17
-25
5
-38
-22
26
-28
28
11
-51
-23
-44
-14
11
-13
-27
30
1
-27
13
-24
6
3
12
31
-3
-38
55
-52
24
-27
-2
21
-32
-29
8
-5
-19
-22
-40
11
24
-3
12
-39
0
-53
-22
-24
-32
5
-24
-47
23
-39
15
-27
14
-12
-2
3
34
-28
-60
18
-46
12
33
-12
3
11
8
16
-6
4
-47
58
8
68
-41
-47
-21
-109
-48
-32
35
22
66
8
38
-2
-89
-42
-21
8
-18
9
11
-25
-25
51
9
-39
19
53
15
-7
63
-9
42
-15
-16
-25
-4
-45
-9
2
-34
8
-4
28
-12
5
78
52
-45
-36
-20
44
16
7
-52
0
-45
-30
-14
14
4
-42
15
16
18
3
16
-35
-18
3
-1
26
-38
6
-35
47
-11
-8
6
-58
72
-4
15
-59
33
-31
16
0
-31
-18
-13
-20
45
-14
28
33
26
-8
-12
-39
-6
16
-12
-10
-41
31
-1
-7
43
17
-93
-10
72
-9
22
-7
91
-17
34
7
-7
66
11
56
-7
9
14
-13
-33
-19
-9
-27
6
23
-25
-33
-18
-9
-3
25
-12
-26
-22
-12
43
10
-40
-19
-20
6
28
4
-35
-22
35
-1
39
-1
-42
30
-32
41
-14
38
-40
-20
-37
-8
7
-16
-44
25
35
30
-18
-60
30
46
-29
8
25
-64
19
-16
-13
-3
27
-20
-20
-29
4
9
3
-37
16
13
33
66
-18
-9
56
22
-47
-2
-60
-52
13
17
-35
-43
11
-41
-22
27
46
-31
19
32
49
30
-55
6
-29
-6
-31
-26
19
-5
27
37
14
31
-27
-40
20
-22
-20
30
-24
6
-21
0
-51
5
-2
-11
3
23
68
61
-21
40
-38
21
-17
9
6
53
33
20
-29
3
-29
4
52
7
31
29
46
13
-10
51
-35
3
-10
27
-40
-18
22
10
41
18
17
19
-3
13
10
-10
-32
16
-16
-49
-34
9
-24
-34
6
-34
-12
15
-1
-21
48
-9
1
25
-10
-21
-1
-30
-38
-29
-12
30
21
-6
-60
28
21
-68
2
-12
2
35
-41
-56
-5
19
-63
5
51
-44
-5
47
-28
18
-36
24
5
-9
10
4
-25
-62
27
54
-42
-23
-4
0
-3
-16
-3
-32
0
-62
44
2
36
10
-27
11
37
33
-30
24
-29
45
-27
-64
9
9
3
10
-12
34
4
45
-53
-3
13
59
-30
18
-20
-3
-29
3
-18
14
18
7
-70
-53
-6
-12
33
79
-15
-69
42
29
31
22
36
-31
-3
6
-5
23
-54
-40
29
-18
17
-24
28
16
22
-4
12
-28
-32
-2
48
34
21
35
26
-34
-9
19
-31
39
49
24
-7
1
5
10
-25
-32
-7
-29
4
-1
-32
17
-28
-26
-36
-25
42
10
48
32
-47
-30
-24
-30
-52
37
-20
-58
32
12
-33
-36
45
-16
-1
-23
-33
9
-22
-53
-30
-12
-38
10
11
32
6
67
35
23
26
-4
-37
29
64
-29
-12
11
-32
16
-9
-35
-28
18
-27
-26
60
23
-35
-18
-30
-4
55
-22
-36
32
-9
20
-34
-8
19
13
-14
13
68
-45
13
10
-13
-28
7
33
56
-18
-29
33
25
-30
22
24
-59
-48
29
-19
-3
4
6
35
-29
2
28
59
-16
-14
-17
6
25
22
8
24
34
6
-14
-24
-18
45
17
-9
16
-65
-20
-15
-14
-46
74
31
-20
-65
-23
-2
-2
-5
49
8
26
13
-35
-21
14
73
-21
-26
-55
-44
-5
31
-12
-27
-2
-7
4
24
-9
-9
23
3
50
36
-42
44
21
32
-36
-20
-5
24
1
-22
46
-17
-12
-16
28
1
-5
12
-20
-34
3
-34
-39
-33
9
-38
-22
-23
51
30
-4
33
-19
5
3
-1
5
15
34
-21
-12
1
-44
-40
55
34
28
-5
6
6
-4
20
-36
13
-24
55
-24
-26
-5
4
25
35
-10
22
14
-12
6
6
-37
-30
-40
-52
-27
10
15
20
35
-6
-39
41
-7
0
5
-44
0
21
4
-10
-28
13
-41
-28
2
24
30
29
-23
-17
10
-42
47
-12
1
37
-5
-31
-16
-25
-40
47
2
47
-28
-30
-26
23
18
8
-58
-26
7
28
23
14
-46
-57
19
-20
9
-35
-27
-3
-23
-12
-14
34
14
17
11
32
-37
-1
-22
12
34
9
12
-8
30
106
21
-22
14
-47
-37
2
-22
-31
65
27
18
-42
20
-40
25
-40
37
41
16
26
-7
13
48
17
-37
15
-30
-33
10
49
-15
-4
8
-39
-30
32
-4
-15
49
13
14
36
-16
14
18
19
4
-27
-12
35
17
46
15
3
-33
-22
-21
-54
-50
9
-30
-4
-14
15
-19
-12
54
-6
1
-26
74
48
0
18
15
5
11
-21
19
47
17
15
-10
-40
-6
-18
51
28
7
-5
59
-36
6
5
-44
26
-21
32
-67
31
-16
-7
-1
7
22
7
23
-38
22
-45
19
-26
2
-9
-58
-10
-15
-22
20
-41
-36
8
39
-32
6
-22
2
40
-32
-30
-1
-29
-29
-11
6
-16
28
28
-68
16
-14
-13
35
-37
32
8
13
-23
30
25
-16
18
17
-22
-7
59
-8
-23
-66
28
13
3
-9
0
-22
-49
-1
68
20
-21
-39
-10
20
-19
31
-26
-32
-50
48
2
22
-36
15
13
38
8
18
-7
26
55
-3
-90
23
43
23
31
8
17
-25
28
-41
-7
-27
24
-19
42
-26
-7
1
-47
-31
-37
1
15
-29
-73
9
2
33
47
-16
-25
40
18
57
51
26
-8
-4
9
2
5
-35
-26
-4
-19
17
-31
-17
4
23
-35
-7
-39
15
29
22
-5
-20
2
17
11
37
24
9
9
33
14
-62
33
-6
25
-73
-53
12
-31
14
-29
-14
38
-19
-30
-18
-23
-6
12
51
-5
-29
-44
6
-46
0
24
-19
-39
33
40
12
-9
14
2
-20
-28
0
-17
-15
-35
-36
6
-31
-3
25
9
34
10
15
20
-26
40
-22
32
16
-23
6
13
-47
-13
-24
-43
-33
44
-28
-15
26
9
-41
-16
-22
-6
49
-16
1
52
-25
28
-12
-14
-3
19
-22
-25
29
-40
18
-13
13
42
-35
34
-19
-12
32
-44
-23
34
5
-17
59
27
-22
-12
-40
-26
43
50
1
11
-10
-10
48
17
30
28
21
31
1
9
-24
-6
-33
35
-33
-89
17
48
5
43
-1
-21
34
38
-12
-22
4
8
22
-13
-13
12
22
2
-12
-13
-12
-26
-23
-54
-18
-20
39
38
17
-24
48
9
-2
3
37
-7
-6
26
8
7
-9
-7
5
-14
-11
-28
-9
11
-7
-28
4
9
-7
-48
49
-25
-17
15
24
-16
-10
-30
-8
8
29
18
-7
9
-15
35
-77
-58
-23
-25
18
-21
32
28
-43
-14
-80
9
14
-18
22
24
-46
-27
6
-10
-44
-11
17
-9
27
27
-26
-27
13
-9
27
-2
16
-27
-12
-16
-36
18
21
31
-23
39
2
36
38
30
20
46
-46
0
50
-3
-6
2
-23
39
6
-13
6
-7
8
-24
32
20
-47
-1
-14
-26
23
20
-51
46
-1
10
-54
-1
-5
10
-23
34
19
-8
2
-52
-12
42
-8
45
-69
23
-9
-25
-22
-23
-11
41
35
22
14
4
-34
-35
-13
1
-10
30
-9
32
-13
-15
5
40
-27
-3
15
-21
-38
-51
33
26
26
-58
45
3
-7
-7
-5
9
-37
64
19
-74
-6
40
27
-38
-33
-16
-18
23
-24
-8
1
-11
4
-33
-28
20
-5
-14
37
1
7
-33
4
-44
28
1
-54
-5
-39
-1
1
-23
49
21
11
-10
-52
32
-66
-28
-36
-52
25
17
7
-32
-13
53
14
-34
17
-79
-6
26
6
-2
-11
15
57
-1
-41
34
18
2
-7
7
-38
-24
31
-19
-26
21
-5
-14
51
11
-7
7
25
-27
-22
32
-1
-13
-24
4
26
-21
3
12
42
-10
24
-4
12
44
29
-31
-5
-2
8
40
19
31
18
38
-26
26
-54
34
17
-8
-52
0
50
-27
-7
-37
-20
-10
-46
3
12
-10
17
-9
17
-32
27
33
2
26
50
-5
43
38
33
-31
42
-5
-16
6
17
30
-10
-4
32
-30
-17
-27
30
42
22
-33
34
1
20
39
-6
-6
-5
-14
9
-67
-10
-57
-7
-26
-10
-2
29
-42
35
-18
-2
1
-35
-35
-1
22
-22
-23
-23
-13
13
46
27
15
25
55
7
31
-20
50
-41
39
-30
43
6
9
19
-45
-13
-7
0
-36
24
8
60
53
-57
-19
38
-6
16
57
2
8
-15
68
22
-71
-42
17
38
29
35
19
60
-6
33
11
31
-7
-4
-12
-8
23
-32
58
-25
14
61
13
-5
3
-6
-2
14
15
-6
-11
-25
-46
8
-31
-12
-53
-3
41
21
-17
11
-29
-42
38
35
25
-25
-28
10
19
-26
30
5
-9
31
-23
-38
-72
30
-20
32
-25
-23
-43
-18
-25
39
11
32
32
29
16
-42
-11
-21
27
-28
26
0
21
0
-37
19
33
-23
9
52
0
37
14
43
2
45
49
15
17
-13
33
46
36
-2
-20
-20
-23
-1
-50
20
38
-35
2
21
-40
-34
26
-16
-11
37
-27
47
-9
-30
-16
18
-12
-34
28
-47
-6
9
41
-8
13
-42
-33
-4
29
15
20
-41
-32
-19
6
-13
-4
-27
-5
-18
-18
35
-34
-20
89
1
-19
23
-49
-15
2
-20
-31
57
39
-17
-18
-33
-9
1
20
-10
45
61
30
-30
7
17
76
-3
-18
-40
-15
-41
10
-8
4
-35
-3
-17
35
42
-4
51
-20
16
6
-49
26
28
14
-31
-32
-10
22
13
5
0
46
-13
28
21
-37
-62
18
12
1
-13
3
-27
-30
3
18
-31
-24
60
59
-37
22
24
24
35
16
15
52
16
9
-27
19
-24
28
68
39
-10
-1
-2
12
-8
33
-13
-8
-21
5
-57
-43
22
-13
-7
19
12
23
14
4
27
9
-9
-48
-12
-40
-41
-30
-40
-34
21
-34
-10
2
-4
27
30
-5
-2
4
-28
-41
16
-4
-39
-14
43
34
18
25
-39
-24
43
-69
37
-56
35
40
-39
-1
-17
-21
-58
31
27
-51
6
7
-10
-32
-53
-25
26
19
-20
28
-6
-49
33
71
22
-38
-4
12
-13
5
-17
-31
-28
-12
44
25
46
-21
11
-34
32
44
-7
6
-26
4
2
-60
44
-14
36
61
-5
-7
12
32
-21
-11
-22
25
32
28
5
41
-36
-11
-34
-42
24
9
-52
-34
21
-17
46
59
19
-9
28
24
44
-4
32
-28
-25
10
-31
-22
-61
0
0
-49
18
-11
10
-5
7
4
3
-14
-13
-7
-6
-19
-6
59
58
-30
14
31
-4
13
38
23
-47
20
1
25
-83
-76
-2
2
23
-10
-24
-18
-39
-30
-74
20
-4
-8
53
-14
-37
-38
12
-49
-59
34
7
7
20
23
25
-53
49
5
20
-22
-31
-22
-31
-27
-3
26
7
18
20
38
37
44
13
18
-7
-12
-39
-1
11
-34
-5
-20
-40
14
2
-33
-40
50
32
-25
6
9
-3
-21
11
-10
67
-37
-4
45
-22
7
4
-43
37
-4
-14
17
66
-18
-17
-5
16
30
27
19
-65
-38
39
-8
-28
23
-27
-61
47
23
17
-19
-12
30
18
19
23
-41
16
-68
-8
24
-1
-10
-26
4
8
16
-41
-25
-17
49
2
-78
-9
22
-17
26
33
-11
-24
20
-41
14
-18
14
42
44
4
14
-31
-5
-60
-56
-12
22
-59
-39
39
-2
83
24
-13
-51
3
33
28
51
45
-14
3
10
-45
11
-24
-8
46
-8
-9
-5
1
24
-1
6
6
-43
-35
9
15
26
-33
41
-3
-15
18
17
-24
-2
10
22
-7
-5
-5
33
-60
-75
-30
-10
14
-34
-31
-16
-39
-30
-48
8
-9
28
24
-33
-70
-14
-47
-49
-28
35
6
-57
46
-22
24
-42
19
3
14
-4
-49
-52
-3
-31
-25
-8
22
33
10
5
22
51
63
-6
-8
-19
-8
28
32
-51
-25
23
-48
7
-4
-27
18
13
-2
24
55
23
-43
-48
13
13
38
-32
-8
34
-27
20
-2
-16
11
36
11
12
67
-10
-13
-54
-30
17
-36
0
-56
-15
19
17
28
12
-3
-39
5
4
14
-46
-20
12
9
-16
6
3
27
-28
33
7
21
11
-10
1
-20
5
24
-42
14
6
-14
-46
52
44
-8
42
0
-6
-20
60
-47
-18
-24
29
32
-26
-25
-16
-16
12
-36
3
-13
34
-75
-42
17
11
63
60
46
-42
17
12
49
18
-8
-19
-30
-10
-33
-4
-37
-36
20
-37
-20
26
-8
-10
-6
16
-41
-42
4
30
26
2
0
17
44
-42
-24
-22
-7
17
18
34
-9
7
-15
-8
-63
-26
3
5
29
-32
3
8
-30
-4
-67
-16
14
14
30
0
-49
-29
-30
-47
-35
22
-29
-33
1
29
13
0
-16
-4
-22
8
14
14
-35
28
-29
-28
2
12
-26
38
8
-3
27
35
22
16
-13
2
15
-11
-16
-38
9
15
27
-53
10
34
-19
-35
32
11
-51
-30
-4
-15
42
6
-29
43
25
43
10
-13
33
24
-18
21
39
-39
14
-27
13
46
25
32
-29
-19
-3
-19
16
-26
34
-26
12
76
-15
-1
13
-17
43
-24
-23
-15
-1
-7
29
12
28
1
-8
-11
19
18
-13
-2
-3
39
3
-86
15
1
-29
2
14
14
-12
29
-75
-45
12
38
-4
0
19
-6
7
15
-68
-57
-7
19
-43
-35
-8
-19
63
32
5
-13
5
-8
-7
-12
0
-39
-27
8
-12
8
-54
-39
34
-51
4
4
-4
-16
-45
-6
-36
-28
-41
-37
-1
-15
-19
20
15
-1
16
-7
-10
12
33
-4
-12
8
1
-22
-79
-44
-12
3
-12
-41
2
31
-17
-18
-30
0
26
5
40
-6
-71
-23
-37
-69
-44
33
14
-52
21
-26
6
-32
54
17
-15
-27
-37
-42
-29
8
-45
2
-30
2
6
47
11
37
52
-19
39
21
-24
52
8
-20
-22
-30
-25
16
17
-34
-36
-3
-19
10
31
43
-4
2
-11
6
35
-2
-36
17
-20
22
4
-9
10
8
-9
37
63
-57
7
-12
32
37
-13
-11
-48
-34
15
-6
16
11
4
-55
20
28
-31
1
-14
-10
6
11
-22
-19
4
-44
34
36
41
-12
10
12
36
34
-30
-42
-22
42
-3
-53
6
15
-5
38
25
27
-5
3
-52
-37
4
20
-33
-14
21
3
-37
-54
-11
10
-26
-9
-38
-12
6
4
22
68
-29
-12
26
29
19
49
19
3
-22
45
20
11
-31
-6
16
16
-4
-39
48
-4
12
-14
17
-4
-38
-27
-13
27
-16
43
10
-16
-5
31
-10
13
7
3
-43
18
-26
-10
-50
-68
-8
-50
-6
-9
20
-2
-2
-22
-53
22
-12
43
26
11
-55
-18
-13
-46
-10
39
18
-47
12
-28
6
-41
31
-18
9
21
-13
-51
-20
-37
9
56
-24
-3
31
47
-23
24
42
-2
11
-21
-20
34
22
-43
-2
-10
-56
-9
20
-36
43
48
-8
24
20
34
2
17
-15
-15
12
-22
-25
8
-31
5
1
-2
0
16
1
-22
53
-13
-17
14
-9
55
-18
69
-26
-22
-24
-38
9
-9
-27
32
32
17
35
-40
12
2
-28
15
10
28
-1
36
12
-9
-14
37
0
19
-11
-34
-6
-7
6
24
20
8
40
8
43
4
-17
27
10
15
46
-28
2
-48
39
-53
-14
-49
31
22
-22
45
39
-12
-18
1
2
-33
-5
6
74
14
17
14
-12
-41
-10
1
11
-75
10
24
4
-40
-22
-18
8
-5
-32
8
-38
35
-17
20
-15
-15
-5
-35
19
-42
23
-42
-18
-34
12
45
-29
-21
21
-20
59
30
58
10
30
6
29
29
-39
-40
-18
12
-28
-6
29
-29
44
-19
-22
15
-13
-19
27
26
7
4
-14
-15
27
52
-32
22
-30
15
58
32
-34
62
-4
-45
-11
26
-32
-12
20
4
-11
14
-8
-24
35
-30
-18
35
-41
-21
80
0
16
-3
22
-34
-53
-37
-21
-25
-20
13
28
-30
10
9
-9
14
34
19
-27
37
-14
-37
76
-8
1
28
-10
-1
-25
25
28
30
-15
13
56
10
9
1
1
-12
26
41
-23
25
-3
-18
-4
-1
8
6
27
-21
8
20
-11
-40
-6
-44
25
-19
-18
-44
-26
2
-17
-68
8
-8
38
32
-27
12
-24
25
-70
-36
-21
4
-5
24
-28
5
-13
-9
-8
-43
19
8
-31
-30
28
-37
60
18
33
-30
34
1
42
49
-1
-37
-12
26
-3
-12
-63
-4
18
-7
-14
4
4
-2
13
18
-39
-4
18
12
22
11
-14
70
-13
-21
36
-11
17
12
19
-16
-64
22
0
-18
-14
-72
13
-19
28
-5
10
-17
17
-47
-58
-28
8
-3
30
17
-32
-23
-18
-34
-56
-14
-8
-37
1
-1
23
-22
49
-12
13
-3
9
-11
13
-27
-36
-14
18
-20
-34
18
-10
-11
0
50
1
-16
-8
7
34
14
15
-6
-27
22
20
6
-13
13
11
-1
56
4
-57
11
42
-23
19
28
-8
0
-10
56
-34
-42
43
10
-36
13
14
-55
-1
37
-41
-25
-18
31
3
14
-12
21
13
-25
-6
27
-16
-53
20
-34
41
-9
-42
4
1
34
30
60
3
-41
-45
27
3
45
-48
-31
45
4
20
-35
-28
42
27
14
37
-19
6
-3
-23
-55
51
31
-36
-55
42
-16
11
-34
-9
8
60
-1
8
-1
34
61
-51
-22
-70
-57
39
33
-48
2
-33
-21
-12
-1
16
-55
18
-12
20
20
5
30
-24
31
-1
-17
18
16
-5
-12
39
28
-30
-14
8
-62
-53
24
-41
-7
30
20
-41
-11
41
-6
20
13
52
71
8
30
-17
53
7
-23
20
0
43
-15
25
2
1
-9
13
49
48
37
55
-38
-4
52
-47
-12
-16
26
-32
18
-18
9
9
39
31
14
-7
5
-29
-15
-46
-7
6
-41
-60
-41
-39
28
41
-12
-46
48
19
-27
5
1
-40
13
-9
-26
-40
-19
-38
-10
-1
-5
0
-9
-68
42
17
-44
36
-12
0
57
-38
-2
50
15
-6
45
25
-7
-33
-19
26
-9
30
33
3
18
-17
-19
-15
30
-55
-24
9
8
-23
1
-31
27
7
-1
19
57
-3
-29
-4
4
-15
33
-31
-41
35
26
1
-33
2
53
-19
-26
26
-47
-31
-7
13
-5
61
44
8
-56
-15
-27
25
-38
9
18
56
63
24
1
63
45
-36
-14
-64
-35
29
28
-45
-49
-47
-9
-5
38
34
-21
-5
18
50
28
0
-14
-19
-12
-4
-20
16
6
-12
17
-9
6
-13
-44
28
-5
-31
-1
-40
0
17
-25
-15
-13
2
-22
-22
24
52
55
2
45
0
36
8
18
10
7
23
-5
-32
-12
-8
-20
61
8
39
42
36
-11
-17
14
-17
31
3
30
-79
-8
20
13
1
52
-7
14
30
-3
-29
-4
5
14
-43
-18
-72
-26
-30
-42
1
-38
-62
29
41
-4
64
7
-40
-3
-2
-34
1
18
-22
-30
5
-12
17
-15
-46
15
6
-32
39
-23
2
16
-23
-23
34
20
-28
54
-11
-27
-8
30
-27
-21
-8
-26
46
5
3
-23
14
-46
20
16
-8
1
0
-17
27
-22
10
-1
-40
-32
-2
8
37
17
-29
14
40
-24
12
9
-25
24
-2
-75
43
4
-4
17
1
13
-13
44
-68
-34
0
24
36
17
-9
11
11
-35
-67
-32
-14
6
-32
-76
3
6
64
28
26
4
46
8
-5
25
29
0
-3
36
-38
-26
-2
0
13
-24
-6
10
16
47
13
-1
-14
-22
-11
-28
19
18
-23
52
-1
-7
-16
-16
-16
-4
62
-4
-19
-14
35
-11
-66
-70
32
3
29
-8
16
-13
-31
-42
-9
6
11
-9
52
2
-30
-48
4
-28
-57
5
25
-39
35
35
-23
-44
14
2
10
20
-3
-38
-20
-4
-22
23
-8
1
-11
26
-3
16
71
9
31
37
-5
37
-2
-12
-37
13
-52
21
36
-15
1
10
2
-7
54
26
4
-24
6
15
46
-14
-19
73
3
38
-46
-9
-10
45
-1
-12
9
3
-42
-25
26
-52
29
-21
24
-33
-2
34
-17
-33
5
-20
-24
14
-39
21
14
9
19
27
-2
-9
23
47
-26
-71
36
-12
35
-1
8
38
45
-5
33
-3
12
47
-38
26
-27
37
-2
-35
-41
-13
-15
-14
44
32
-29
-21
17
-35
43
31
-16
-17
53
-18
52
47
-33
9
-31
17
-53
14
1
-28
-41
3
12
-2
-20
17
36
11
17
-12
14
-15
-3
6
28
8
33
23
-15
8
41
-2
7
10
-57
45
-11
13
-12
46
-54
-12
-11
-18
3
0
39
6
17
-4
47
24
22
14
7
-17
-18
22
10
43
3
44
-49
-14
23
8
-40
-1
-38
-31
-4
-36
-23
-47
3
-11
8
-2
-29
-10
51
-12
32
-6
-8
-19
-42
13
5
-16
45
1
-41
24
-49
40
-23
49
-41
42
14
31
-41
-24
-2
-6
-3
7
-3
30
-7
-5
12
29
8
-22
3
46
39
-10
-14
3
-39
-10
-54
18
-49
14
15
-29
18
-29
-6
-65
12
-16
54
-32
-35
48
20
1
6
-16
-28
6
-21
61
-16
17
-17
-15
-22
-10
15
9
16
-69
49
-4
5
14
-17
26
35
41
25
20
-12
31
13
40
38
-5
-2
-36
-38
-26
-27
-10
-8
24
-17
-17
14
-23
21
28
-3
22
23
17
37
72
-51
17
-24
28
-10
51
-46
19
-38
1
24
-11
-14
-18
23
-18
11
10
-30
6
14
4
26
-14
2
-6
-39
3
20
8
51
14
-63
0
-29
12
-15
30
1
6
24
-23
-30
-34
10
-2
-3
-39
29
37
45
45
48
11
12
-14
-14
-10
34
44
-45
26
3
-13
21
-27
-45
-1
-13
21
-45
-37
-28
28
-1
-12
0
-12
42
22
16
43
29
-53
-13
21
13
0
32
-4
-46
-42
13
21
-21
20
3
32
28
5
4
34
7
37
-5
-25
11
6
-55
-26
12
16
-15
-29
8
0
65
-51
-9
-11
26
18
-3
-6
-52
13
22
29
22
80
-3
39
-9
8
-35
14
-5
-68
-34
-7
0
-5
-15
1
18
-14
-7
31
9
-55
48
24
-13
-38
-5
-48
-30
37
9
-14
-38
-4
-18
22
-13
-48
35
12
-24
-1
-3
-14
12
-30
-45
-11
25
26
-30
-52
11
29
9
12
15
-23
17
-8
-15
-48
-42
20
-38
-14
-9
-6
-9
-39
-58
-3
-37
15
-41
-8
-20
-38
20
43
2
7
-24
52
52
-8
-19
-19
-23
-24
27
18
-34
24
-26
-19
52
11
6
58
28
-9
42
27
24
26
37
-6
-42
-17
52
77
-22
-16
-6
2
-2
28
14
38
-21
-13
44
13
-8
19
19
18
17
3
-38
-6
31
-17
-48
-32
0
5
3
10
38
23
10
-27
-16
-21
34
47
-27
0
-36
49
-56
-18
13
48
-59
-31
5
-50
-16
10
-23
7
-25
-47
2
36
11
-52
7
55
41
8
-12
5
-30
19
14
-38
20
-9
2
-17
11
17
25
-68
60
-18
-48
-20
-2
-21
11
16
51
7
25
-16
-24
81
-14
1
9
-26
-51
-16
-12
37
-53
20
-54
-10
-48
5
9
1
2
-46
29
-21
-6
25
11
9
19
-9
40
9
6
-6
-35
-12
12
7
33
-19
-15
-2
-23
-30
45
-13
24
20
-21
-13
-46
23
18
-9
18
7
43
-17
17
11
-29
-32
-61
12
3
5
16
-11
-13
-5
-61
-32
22
-9
-21
5
-79
-8
-1
-20
9
15
28
-5
-41
21
67
-27
-3
-15
-45
-22
3
36
-2
53
-29
-6
21
-2
11
-15
41
35
-22
-69
11
-19
14
-9
3
16
-39
-45
1
52
-6
10
-28
21
-23
-22
13
5
-38
60
-34
-48
-1
-40
-12
-7
-23
34
52
-5
20
5
31
-5
15
-26
2
23
32
30
-7
-11
-39
-31
-50
-10
8
47
-24
9
19
58
22
5
31
-1
-23
-21
-26
-57
-13
32
-2
57
-6
-42
45
3
38
-17
-21
-23
13
-41
-48
20
-40
30
9
10
-3
-4
-8
28
33
-47
-9
-5
-20
-13
-17
14
58
-17
34
45
-64
1
-39
2
23
-3
5
6
-30
-27
25
4
-34
7
-14
-31
-57
-8
-42
-7
-42
5
-44
10
6
30
-63
32
41
34
-10
43
-21
-26
-8
56
21
41
14
1
-35
-19
-6
37
20
30
-18
-59
-10
-21
30
29
-23
-13
-4
10
5
33
18
5
-9
-20
5
28
2
-1
-17
30
4
-10
28
46
20
6
28
-12
18
11
-15
39
25
-12
-17
11
58
83
21
-1
13
-14
-43
3
-39
-1
-28
-9
-12
-27
-23
-37
-46
6
-2
-7
23
70
-11
34
11
-6
13
-25
-42
2
-12
101
64
-10
40
-66
-44
-43
17
12
5
-19
-10
10
-2
-40
7
89
11
-42
8
29
34
-17
14
-31
25
22
-8
53
-45
10
-5
60
-51
-15
-33
-60
2
5
6
-17
3
47
17
-33
33
-16
-13
39
18
22
-35
-36
26
-9
-30
46
-32
23
-1
-55
-24
47
-10
21
-22
3
9
16
34
-58
-27
-23
-38
-22
10
11
9
-34
13
-2
49
-9
52
1
-27
-42
16
43
-3
-10
17
-5
-12
31
-45
0
7
22
46
-46
43
17
5
-6
8
32
14
-5
-7
-3
-30
13
22
-9
-3
7
26
-18
10
-36
-36
2
-43
-75
24
-39
49
18
41
-20
-12
-13
21
-21
-21
-8
-4
-25
-11
-26
31
-33
51
0
30
19
6
-2
-33
-6
69
-19
-46
31
14
0
61
-4
3
17
43
16
27
16
-17
2
7
14
-22
-43
16
3
-41
-48
9
-65
-65
1
-2
-4
-28
2
-15
-20
46
-13
21
-24
13
40
34
-23
42
24
13
35
-18
-3
-1
-21
-20
3
5
-7
-26
-34
4
41
19
-30
-34
-9
-9
15
19
43
-11
8
-36
22
-19
-18
-61
7
-12
-7
-29
-42
22
-10
-21
39
-12
-20
26
-6
13
42
-21
-28
-32
12
-26
-8
25
-36
-8
5
48
-19
-22
1
-34
-41
38
0
56
20
50
2
2
94
-1
19
16
-38
1
19
-14
25
-32
4
13
23
-28
-31
-16
-8
18
-76
0
13
22
-27
2
38
-10
-3
4
12
-21
0
-45
60
-8
33
33
-24
-1
17
-20
-17
41
-9
-6
32
-24
7
28
-8
18
-1
52
-22
33
-16
-4
36
20
1
-13
-8
-34
-11
-5
-30
0
-22
-8
22
25
-9
-17
-7
-44
-6
-6
-33
1
36
8
-30
-44
-40
56
-8
-3
4
-29
-12
24
11
-27
42
7
37
27
14
-21
-4
38
29
24
-26
49
3
12
-7
41
18
0
-39
-30
4
13
12
-53
32
-32
25
-32
-58
-50
-13
-26
-5
6
-43
10
-1
-16
48
23
0
20
4
-10
24
3
-33
-30
49
44
8
-1
-4
-10
4
-40
16
-2
50
-29
25
5
28
-32
-18
4
32
-49
31
12
-43
-6
-3
-12
44
-32
-34
12
-27
19
-37
-25
-27
-13
13
-15
14
-20
-7
25
19
0
16
16
4
19
25
-7
-5
-12
-1
-53
2
51
19
5
51
-11
-5
-38
-10
-1
9
9
22
-12
20
-21
22
-6
-18
-33
19
-20
-1
10
8
6
-30
2
-22
13
-20
-5
4
-19
-33
-12
64
1
-3
-37
-10
-1
-13
13
3
-12
40
17
-2
-23
-16
-28
-47
-16
37
-19
-34
-45
-12
-30
20
12
-30
6
-20
-52
-68
21
28
-7
7
-2
63
44
-31
5
25
-6
12
28
-28
0
-10
-38
24
-15
-5
-6
19
-11
14
0
15
27
62
-12
-30
-21
28
21
17
-44
-62
-30
39
-20
-14
-26
-24
-3
-24
3
-40
-15
10
-20
-4
-24
0
25
-11
-15
-38
-8
-33
13
19
37
-27
42
6
32
-36
28
-15
3
35
-13
31
15
-23
-36
-11
-54
2
-71
23
-11
-34
-41
14
16
21
-14
-24
-26
0
26
-14
-2
-2
-3
49
20
30
13
43
9
54
23
-30
24
-13
9
-11
-64
-12
31
-10
-18
-19
16
54
35
-25
57
14
11
-32
-14
55
-17
2
36
0
5
37
-21
35
8
58
1
-14
10
7
-17
16
-13
-45
38
62
27
-3
14
6
-7
6
-42
9
-15
-32
-39
5
11
37
1
-9
-36
24
-7
-17
5
32
-20
-9
-42
18
3
35
31
-18
5
-56
14
-9
-56
39
11
-54
-58
23
-67
19
-2
-42
-1
-33
-60
-59
16
11
25
15
-47
54
20
-2
-32
37
4
-2
-32
24
12
6
-23
25
-8
-4
-13
72
-12
53
25
5
5
24
38
-42
27
47
18
-3
47
-40
7
44
42
34
2
-7
-16
49
52
-23
-24
57
-29
-1
-4
16
-47
-25
-33
-54
-55
-32
-51
-5
31
-16
58
-38
40
-20
-20
-2
63
-5
25
30
-18
0
-47
-4
-32
-31
-31
-4
-37
-23
-9
1
-14
25
22
-30
-15
18
-38
-55
-5
24
2
39
15
53
-52
20
19
16
78
-31
-11
-13
26
-4
-41
-15
6
17
7
14
9
4
12
-58
-19
-21
32
4
25
2
50
-29
-14
-36
-32
-26
10
47
23
34
10
-31
-25
2
30
42
3
-39
1
43
45
-15
1
-34
43
7
24
-13
-7
8
20
6
38
-41
3
-7
29
-26
0
-41
8
-40
-60
23
-9
-34
17
-12
21
-21
32
30
21
41
-44
-19
-10
-21
4
32
1
-57
-44
6
-4
-1
38
-9
-18
-2
-27
29
-6
-13
15
29
-36
-65
11
-1
-55
-34
14
-25
52
-6
-28
-12
-6
-8
-37
-60
-22
-22
0
12
-4
-23
45
8
9
8
62
14
34
45
86
30
19
-2
-31
-24
-11
-20
-10
-27
-12
46
26
-28
0
-73
-63
54
-8
1
49
3
-54
22
-21
15
-7
1
-17
25
-17
-84
-9
35
9
18
30
-13
-7
-35
-15
9
43
-23
33
23
34
9
47
-34
51
52
-57
-4
41
9
-2
-3
-25
-21
-18
-27
6
-15
53
-30
-30
-8
22
6
18
11
-32
-25
14
54
10
2
33
-45
65
-20
-22
-7
-13
42
-25
-23
9
-16
-38
24
-5
31
-9
27
-21
-16
-6
25
6
20
-12
-45
32
13
35
-8
-22
27
25
-6
-5
-29
-4
12
-1
18
13
7
-13
-50
14
-9
32
-51
22
-6
-25
36
-1
-20
-21
3
-34
32
38
-36
60
40
-62
46
-4
-20
-11
1
-7
27
-41
13
-6
-24
-30
-15
21
26
25
38
-42
-15
1
17
21
-25
-11
0
-71
1
59
-20
-17
10
-31
12
1
38
-44
-1
-3
51
-6
-8
31
-38
35
29
33
-11
79
10
28
38
67
15
-15
-16
36
-2
33
-16
-53
38
-18
24
-22
10
-22
-11
7
-2
-39
-8
-48
-18
2
13
32
-25
11
16
8
42
48
-77
-18
58
4
15
13
-50
-42
-4
-45
-7
-15
21
-3
-5
42
59
6
20
-17
26
-22
6
23
-14
-10
-10
-34
60
-9
-29
-6
19
59
-7
-24
7
8
26
-60
-11
2
31
-5
-9
0
-33
-14
-23
5
-1
51
-23
18
-1
36
14
6
6
17
-39
-8
46
34
21
33
15
-29
-1
41
16
10
-44
-19
-14
55
18
-8
-28
46
9
15
-31
16
10
-24
39
42
-10
8
-11
40
-58
-27
-28
35
-43
0
-2
8
-57
0
-18
-15
-14
-13
18
49
29
-50
45
4
18
-15
14
16
-39
-7
-5
19
-13
52
52
1
22
-35
1
10
-18
-14
-5
-55
-20
-16
5
-30
-37
-11
-12
2
-18
-21
-21
17
-28
12
-4
-8
-31
6
-47
39
-33
-27
-33
52
16
48
78
27
38
56
42
36
2
-11
9
7
31
-17
1
-16
-19
18
-36
-12
-31
-36
34
-24
-9
-1
7
-17
35
-4
1
-29
-1
-2
41
-38
-68
-11
38
-3
-31
-2
29
44
14
11
15
-1
-10
-1
39
5
-4
36
-2
58
45
-32
36
40
-18
4
-62
2
11
-38
-5
20
3
-10
-24
-32
-31
-33
6
30
28
-10
-9
23
47
19
20
20
-31
58
26
-8
0
-18
62
7
-2
63
10
23
24
-39
41
4
5
-35
1
-14
-2
4
17
19
-63
40
19
-15
6
18
-10
22
20
-24
33
-3
-14
-46
-14
-15
30
2
-41
-4
19
-38
-9
42
-5
-2
4
-39
-18
-35
-8
37
30
23
-24
40
18
-18
-1
-26
-2
-51
-24
-64
11
-28
-35
-35
-6
-46
-15
11
16
36
12
-79
33
11
-15
-26
32
17
-22
-25
-23
10
8
16
-8
-52
-37
-21
58
37
80
-18
-17
21
7
9
-29
-4
20
3
-25
13
1
3
5
-21
16
13
11
-7
53
-2
-30
-42
24
17
36
5
-8
4
44
2
-74
-14
-60
-32
1
-19
52
26
-8
53
20
4
-5
66
-35
9
32
32
25
-43
-48
-63
-23
-81
-9
-15
-12
-16
30
25
7
3
18
9
40
12
-2
30
-36
4
45
-6
47
-45
-29
-4
12
48
-2
-26
-44
3
5
-81
-10
-26
54
-11
31
-25
-10
7
-10
20
-27
23
5
-21
62
17
-16
-6
-8
-36
-3
22
25
11
-30
-15
12
-5
-11
-2
-6
5
-48
-3
21
3
-5
-19
16
26
14
36
4
-41
-16
-31
49
45
-27
-24
-21
21
-7
-20
-43
-6
-17
-39
32
-15
-40
52
3
-25
17
43
11
41
59
-31
13
-24
7
-15
40
-5
10
-36
-6
-8
21
22
41
25
-27
-1
1
-19
-46
1
-27
-21
8
-15
-13
-20
-37
51
-18
29
-34
-39
-9
25
-25
-2
38
-15
14
-18
-3
13
-6
23
22
32
-20
73
41
-6
43
69
23
-10
6
24
3
-19
38
-60
15
22
19
22
-50
-21
-2
-24
-13
-23
15
-15
1
-46
45
-13
-27
47
34
28
40
4
-73
-13
-16
-8
-39
41
-45
-18
-28
15
-1
-39
13
-21
-12
70
47
-22
27
7
-9
-21
8
13
3
12
21
-29
22
-7
-28
45
-27
65
-13
10
-15
-31
28
-7
-17
-54
-24
40
-18
9
33
-28
-70
22
20
28
-33
2
36
-3
14
6
-4
-36
-29
-10
40
26
-25
17
-36
6
-10
22
0
-34
-57
41
43
48
-47
-13
15
14
13
32
-25
32
3
-22
-13
6
-26
-33
-17
-17
-29
21
-33
25
3
-26
-10
-27
-34
30
-41
28
-11
23
10
48
30
-44
47
-39
-26
8
2
-1
-17
-29
-60
-49
-6
21
-6
31
-5
20
37
-26
13
-4
-35
13
-39
-28
33
-30
-24
7
-8
10
-53
-28
-2
-23
9
-57
3
10
-19
-4
45
8
-34
42
52
27
26
26
66
1
35
96
41
1
25
-14
-40
17
-16
-46
17
3
16
-8
-5
-27
-68
-34
-25
-33
-22
14
43
-12
28
-2
12
1
-18
-1
29
-9
-87
-20
37
-22
13
9
-13
7
32
-53
-29
0
14
-6
0
6
9
35
-49
25
53
-22
5
41
1
14
-42
-8
20
-14
-31
-1
-32
8
-1
-5
13
-2
30
-2
-14
-6
-11
-13
14
33
38
-18
56
-12
15
40
30
5
-76
-13
38
-42
0
35
-44
42
-17
17
-14
18
-2
41
18
41
-32
-39
45
-9
-14
-11
-26
2
-36
-28
-35
-8
8
21
-39
-9
26
-3
-22
-5
6
20
-41
53
-7
-41
-43
31
17
-4
-10
-16
5
1
-14
-30
4
-4
-44
21
-7
-5
-20
64
-34
20
-22
12
50
-9
-33
60
32
-24
-5
4
26
-11
0
-9
-23
-4
-1
-43
-14
32
42
-33
5
18
-36
55
-41
7
-23
18
-31
32
-41
-27
-3
37
40
-48
-53
30
-13
-28
8
-7
-60
17
7
41
-7
-19
-8
-25
1
10
17
9
-56
-19
5
41
16
24
51
41
49
-4
-32
-14
-11
15
30
-84
-13
-3
-30
-6
49
-9
-14
-11
26
-33
55
50
-4
25
-6
0
-2
27
7
-41
-22
-10
-9
-38
38
-4
4
-27
-28
7
-48
-4
-28
-19
26
11
-47
-32
5
-13
36
-20
3
14
30
17
-4
26
45
-21
-24
11
-13
48
38
-34
-22
5
98
3
-16
25
15
5
35
-35
20
-45
-10
-47
-4
-10
37
-25
9
-13
-36
20
-20
21
28
-18
2
7
1
24
-1
4
56
-17
41
-1
-22
-9
12
-5
28
-11
-37
32
16
-8
-17
-45
41
-31
28
-10
17
12
17
7
33
25
27
29
-4
-30
6
7
4
-12
-24
-27
-18
-50
-41
38
20
10
17
-66
-6
21
-30
53
-12
18
-20
-32
-43
36
-34
-38
35
-52
-27
-1
-5
-2
20
-19
30
-18
3
-8
11
35
5
1
-20
-4
-47
0
19
16
-6
-60
-39
-17
22
16
-31
-39
-16
-33
38
5
-4
-14
62
3
-33
-34
-22
12
-9
-11
32
17
7
36
-2
35
31
9
-10
33
20
33
19
37
-26
-15
-25
-66
23
12
-16
23
21
28
20
-20
18
12
-27
-29
-1
-15
-41
-19
10
-24
24
20
-11
37
51
14
-59
23
-25
18
6
-27
-5
-19
7
-19
-20
6
-54
-58
-73
15
8
6
4
26
76
43
-26
4
-35
-48
-44
4
-11
43
-19
2
23
-35
-41
-19
18
-31
-3
31
-33
37
-22
22
-11
53
51
61
26
-3
43
30
14
8
-55
-12
24
34
-36
-38
-36
22
34
-40
-18
16
-74
60
20
23
-7
4
-18
45
82
-51
59
-66
37
-27
57
30
-39
14
-33
-20
33
12
60
14
-30
-22
-37
12
-66
-29
19
-38
-11
-23
62
-28
-43
29
-29
4
-2
-25
39
16
12
-60
3
-15
3
30
15
-24
-8
33
-2
19
8
53
21
33
2
90
9
37
15
-10
16
-8
-2
-12
15
-22
51
7
-19
-18
-26
-41
40
-4
5
45
-3
-59
20
-45
10
2
18
-3
55
8
-50
1
-14
10
-38
28
-24
-16
10
14
22
34
-14
34
19
69
15
-25
-11
27
-3
17
43
8
28
-29
-13
-30
17
-18
-21
-9
-31
12
-1
27
16
-26
-13
-11
19
-72
-30
-3
36
34
-42
37
-46
21
-22
26
-2
-33
86
25
-33
44
-40
-18
8
16
72
-10
-15
-45
-37
-15
-9
-20
28
-33
-71
-9
34
-4
12
-31
10
16
14
-16
-12
5
14
-24
17
7
16
37
-14
-42
20
-20
-5
0
-4
-35
20
-4
-7
23
0
-25
-30
48
-33
49
58
5
46
-41
-11
-26
21
-35
-10
-9
2
-1
-18
1
-4
28
-17
-51
14
-67
-5
-15
-11
-12
-13
46
-28
-36
-10
23
24
2
-35
-47
-7
18
12
4
34
4
11
28
-41
14
4
46
54
28
-5
49
-18
16
-6
46
5
-17
24
12
41
-12
24
-58
35
-25
8
-24
-42
-10
-22
-39
-47
-25
-45
-39
-23
-29
4
0
25
53
-18
6
40
-8
-28
-46
-16
-7
21
-18
-33
-7
-26
-46
-18
0
30
-31
15
26
-10
-28
0
2
26
-23
26
13
16
-12
14
-24
18
-37
-15
4
-18
23
1
-14
-37
-9
-7
5
13
-24
-1
-13
-16
-2
48
20
38
-53
-17
-23
29
-7
-18
-25
28
4
-25
67
3
-31
-36
10
-1
40
32
66
10
-34
5
1
8
-20
-11
5
-9
-57
4
-20
-20
-38
-2
-28
-60
0
33
-60
23
11
14
0
53
-2
31
-34
0
29
28
1
53
-22
-10
61
5
41
7
-31
-41
2
1
1
45
0
-52
9
53
-14
4
-21
-50
15
-4
-21
-8
28
-3
-10
30
17
14
-29
74
34
-51
56
-2
4
-25
-34
33
9
-2
1
12
20
44
43
-28
-2
-11
-10
29
-50
-28
-25
17
-37
-46
-48
-60
-84
4
-14
-17
-23
36
52
21
0
39
50
7
-20
23
-20
83
25
-48
46
-50
-53
-58
5
8
46
-9
13
-10
-14
-49
-13
40
24
-41
34
39
-31
0
8
19
17
22
-44
17
11
-38
-16
38
-21
14
-29
-50
37
-16
8
-21
14
26
18
-34
25
30
12
-21
-35
3
-33
-31
33
-53
-8
13
23
19
-34
-37
-40
15
9
57
33
1
-35
-1
11
17
2
-25
25
-28
-11
25
-63
20
-4
29
-36
-3
17
6
-24
-23
40
8
8
-19
2
-30
-4
-1
-55
-25
-4
23
-28
-54
-35
0
-13
74
44
-16
-11
75
-47
22
-9
19
13
-10
-44
40
-2
-3
3
20
52
-4
-36
-60
28
-24
26
32
-27
-51
-51
73
-20
57
33
-69
-23
-30
27
26
41
20
-67
37
2
-21
34
85
14
-75
48
22
-7
8
-38
22
21
-39
6
59
47
100
37
42
-1
-11
14
32
-8
38
-68
-38
-6
-68
-7
-54
-59
-4
-25
-33
33
50
69
-23
-8
37
29
-10
-7
-17
15
74
45
-35
52
-88
-71
-63
-4
-5
28
-22
5
1
37
-37
18
13
-2
30
10
-12
-6
-5
-16
-11
-35
6
-42
36
-2
25
-7
53
-13
-2
-18
-25
48
-54
-52
-31
26
50
-25
39
-20
-7
30
11
15
-26
-17
-29
-20
-13
-45
15
-18
85
-13
-32
-15
-54
-24
-34
63
-21
9
-17
-17
31
32
-14
4
-32
10
-15
10
51
-2
-10
4
-22
-31
-19
-4
56
-21
-27
18
18
27
-18
-21
-15
0
-5
42
-30
-7
37
6
-7
-12
15
4
-3
-6
25
-38
-7
26
6
11
8
14
-8
19
23
33
-26
-4
-30
9
43
-25
52
-18
35
-63
29
-20
0
-42
-25
21
24
-35
3
66
1
14
31
-38
-6
28
16
-28
1
39
42
-26
-59
21
-33
-27
2
-52
9
2
29
-54
-1
-4
28
2
5
-23
-42
47
28
14
12
18
46
-25
7
32
-5
10
29
-11
0
57
-9
-28
-10
-24
20
0
18
-6
4
9
-15
-12
-22
27
17
-45
29
20
-12
67
-13
-6
32
-4
-52
-41
31
-20
25
15
6
-32
-37
-53
-3
26
40
-8
44
58
44
5
9
-17
-20
-21
-8
31
-7
-50
10
3
66
7
11
27
33
61
-16
-3
-8
-38
-15
-27
6
-53
-11
-10
-36
-15
-24
41
-5
72
-14
-20
-19
-59
67
-53
-39
70
-9
-2
5
-8
10
-32
39
-55
-18
-10
40
-36
15
8
-15
34
29
-31
32
17
-17
5
-4
-3
-2
-32
4
-45
-32
-18
44
49
-26
-7
50
-29
-12
25
-4
19
-8
3
37
-56
18
-35
-20
34
-21
9
16
-26
27
17
-8
-34
-33
-3
17
-1
-4
-20
-12
-31
-73
6
35
5
-22
-6
24
-31
-15
62
29
57
3
-32
8
27
-34
-11
31
-22
-17
0
28
33
61
-19
-5
-1
-4
-26
-36
36
-4
0
-42
-17
-46
17
-15
-5
-13
-47
3
9
19
40
0
-24
-7
-40
14
-40
-23
5
30
17
-69
-10
-33
-12
-10
27
31
72
-1
28
-14
-21
-1
54
12
8
43
17
22
-6
-54
-69
-17
-22
13
24
15
-32
23
21
51
-10
51
-14
-3
-19
-7
1
-25
-12
42
-8
28
9
-21
5
-17
11
-52
0
5
-15
-10
-49
-14
-20
57
-3
19
11
82
19
15
-20
12
-3
41
21
-66
-13
14
-29
33
16
21
-9
-41
-18
22
-20
-20
4
51
-6
3
11
12
-24
-1
6
-34
13
-27
5
-22
-66
15
4
-42
29
-13
4
-16
9
-32
-35
-13
12
-11
-26
-33
45
24
-19
26
5
22
-22
-31
-30
-30
-3
-8
-13
6
-16
2
-5
24
21
10
-20
-1
-17
-1
22
-8
-37
-22
-5
1
19
56
39
24
-40
0
-21
-2
60
60
-7
5
-17
3
69
-31
-7
36
57
-44
-5
-8
7
35
38
-26
2
-22
-20
37
-42
-61
5
-39
-73
7
28
30
12
-21
-15
-23
50
30
12
5
38
25
-13
15
-3
-23
-34
-9
-12
12
29
-18
-1
11
-9
-7
7
-31
48
64
19
7
-27
25
-15
15
31
36
3
9
16
-23
26
-17
-53
-17
-11
-42
19
45
-13
-36
-9
19
-4
-30
45
11
-22
49
-25
-24
-26
14
12
3
36
14
29
-34
39
-13
-44
26
20
-14
62
-37
7
-48
6
62
27
-1
3
-19
48
-41
-8
-48
35
10
-35
28
-12
27
20
-39
-21
33
-30
-10
65
45
-25
-42
-20
-25
43
36
-12
-17
42
-16
45
-21
44
-30
-29
13
-40
-5
-1
11
14
-80
-14
34
-24
-10
9
29
-37
-9
-16
28
37
26
-1
-24
-2
-8
-44
33
-9
-9
-3
42
-16
-2
56
-23
-28
17
-17
1
-36
-26
9
10
41
-12
-2
-10
-10
-43
-5
-37
11
46
19
-20
40
8
-42
18
32
-4
28
-21
25
31
-15
10
12
-26
-22
47
4
-5
-22
-26
-11
-10
-15
-13
26
-37
-34
-9
-23
23
-52
5
-35
-77
-8
-3
-6
-30
-15
10
9
10
17
56
5
-32
9
-67
-49
-21
-18
9
28
-10
-24
7
-34
-41
-32
-11
-24
23
39
-19
-20
8
33
6
1
35
-40
27
-28
13
-20
19
8
-18
-44
-40
52
23
0
-4
0
-19
-44
-10
42
-14
41
-17
36
22
3
-6
9
-1
2
-34
-4
-76
-14
42
44
50
30
-36
40
19
34
-10
-20
-1
56
22
23
-42
30
-20
28
37
19
74
46
-24
6
-1
62
-21
-24
-3
-55
3
33
-16
9
51
-47
-15
30
42
19
-30
12
34
18
-53
-2
-26
52
63
55
15
50
20
-73
-19
-48
-12
-26
-13
-11
-13
-37
39
-37
-3
27
-34
-54
-13
21
-56
46
23
-39
-51
13
-37
-44
-3
26
43
-10
15
37
32
-20
11
-10
8
-19
-29
0
-45
-28
-40
6
-82
-49
63
-1
-23
-29
-1
71
28
35
31
-8
-10
8
-11
-16
65
24
41
0
17
-8
19
26
-5
-40
-18
20
-60
-16
-14
1
-19
-8
-17
-5
-8
30
-16
10
20
-13
-78
-7
-29
6
19
8
-54
15
-11
-5
47
13
18
-55
-10
18
15
-28
-6
5
12
-16
-21
36
-51
-22
39
-19
2
-43
-44
-10
24
-3
-17
12
5
2
8
-27
-19
-9
3
-16
-3
24
-3
22
-52
3
-3
44
127
53
5
-46
-3
-1
21
-31
-4
40
-23
-42
-41
-19
-5
29
-8
-53
70
-60
18
27
10
14
23
-17
9
-1
-4
-17
18
47
33
11
38
16
-44
-16
31
-36
-35
-21
-10
6
-37
-34
32
-39
19
-16
-13
-47
12
-1
9
67
40
25
5
-25
4
-2
49
28
35
49
-5
1
6
58
-10
-38
-34
-28
36
-13
25
31
9
46
-17
-23
-64
10
-32
26
-11
-7
23
-17
-13
66
13
-8
28
3
4
34
17
50
-22
-54
3
37
-45
-4
22
-9
-1
-18
27
-35
39
15
-38
-4
-41
-39
-31
-29
-35
-44
-28
8
-68
-43
15
-17
-6
37
47
-5
-11
7
69
-30
40
-21
-37
-12
18
31
16
31
9
-36
26
-7
-37
-23
-11
-32
-4
13
-6
3
9
10
-19
42
50
-19
4
-16
0
23
-7
-6
-7
1
-7
46
14
26
13
3
10
-66
-21
26
-49
-5
-3
-5
52
-42
50
-55
31
-23
-20
35
-75
19
32
-47
-19
-24
6
8
36
-22
20
13
-12
-19
-33
-29
35
-1
-34
-7
28
-40
-13
39
18
64
-31
-51
-30
10
1
17
-1
-52
-11
-3
11
68
26
-10
-42
9
9
-6
72
37
-15
-27
28
-13
39
23
12
-38
-13
-41
-19
-14
-25
-7
11
20
-71
-7
-33
-12
3
-14
-23
-29
21
31
15
15
-24
12
-10
35
8
-13
-21
0
22
2
32
-20
-23
-2
17
-11
11
-35
-8
-19
-12
-35
-11
-38
37
5
-3
56
-45
-12
-5
-12
-56
-57
-22
-2
-12
28
10
35
-10
-16
14
42
24
-11
12
-16
18
55
42
-3
-10
-31
34
-34
-28
37
27
-64
2
11
-19
-6
15
19
46
18
17
-8
-12
-16
44
8
25
29
-1
-23
-48
20
-33
16
20
-10
46
-18
-24
19
15
18
43
34
-49
5
10
0
-14
-40
2
19
1
19
-13
32
-22
-31
42
-18
-18
-60
11
-15
23
19
-7
-49
-36
8
3
-18
6
-26
-15
-55
-14
-30
7
-9
29
-31
24
20
53
6
2
-1
6
-41
36
6
6
-3
-38
16
-6
-23
47
1
-27
43
36
-4
-29
-16
-25
81
-18
-15
3
-23
4
-3
5
-14
71
-23
48
-40
-10
-7
4
-14
35
41
-27
41
-25
-28
28
10
-50
31
-13
40
34
-3
-61
19
-52
-25
16
-26
-12
18
10
14
21
0
-21
-12
5
-7
-15
-25
-19
-14
36
49
6
38
43
-27
69
0
9
-20
43
45
38
6
-43
15
25
-58
-58
-55
-23
-61
8
-52
-40
55
-44
-2
3
-14
41
-32
-45
34
19
0
-17
-40
-19
26
31
10
39
22
29
1
67
-24
-15
-20
-5
-13
55
9
36
-10
12
-16
45
13
4
-34
-18
-42
-40
76
-17
29
61
7
23
-53
8
21
22
33
8
1
-75
57
-4
-3
-3
-12
12
17
1
-19
19
5
23
41
1
-8
22
38
46
61
-38
9
20
-5
56
-31
-77
12
-33
-19
34
18
-27
43
27
-34
-15
54
31
-8
-32
-6
-1
45
16
54
24
2
-27
-38
-46
-43
-1
-11
30
-11
22
-5
32
-12
17
27
12
-7
-41
41
7
-41
15
-13
16
-15
-12
-11
12
-17
9
15
60
14
13
-35
-9
-31
20
13
74
23
-38
58
31
-7
-2
29
42
-40
27
6
0
-17
-38
29
32
-26
-2
-42
40
20
35
4
-11
-18
-16
-60
-47
7
-24
-57
-46
13
38
-4
22
37
-8
-50
-10
34
54
-47
44
-32
-12
3
0
37
-4
-10
31
17
18
-18
60
-15
9
17
-2
22
-10
-1
35
55
-30
-9
-18
-36
-11
-37
-9
21
-36
-2
-9
5
61
-5
-22
3
-18
-58
16
18
-33
-49
36
-13
49
1
-36
-20
55
24
8
-54
-12
-10
-24
-28
-38
-17
-10
10
-4
9
17
31
-17
-65
-19
-12
-2
-9
3
18
10
45
-35
-4
-24
15
-18
37
1
-14
-5
8
-5
-39
-100
12
9
76
28
30
-24
14
27
3
-16
33
7
1
-41
-13
5
59
-31
71
-10
-34
51
55
15
14
23
18
-52
-46
27
-32
-40
23
22
-10
64
14
13
57
2
-1
2
3
58
12
-55
0
-39
22
-6
8
33
1
23
-69
-35
-42
32
27
-28
4
-21
9
48
-36
3
-21
32
-61
3
33
-5
31
9
1
11
-33
-26
5
28
51
51
-34
40
28
12
7
-57
-13
-41
-64
-52
-37
-35
27
-11
1
-47
-16
9
56
-3
10
37
69
-2
31
8
40
25
33
1
-43
10
-33
20
34
0
1
24
9
-18
11
62
69
-14
32
-21
23
0
-29
-3
0
-63
-1
-36
7
31
26
-40
11
-26
-1
2
50
-32
-13
38
-4
46
11
-21
-14
-19
-30
-9
-30
-4
23
-18
-6
-40
14
-34
-1
25
-31
17
-6
-31
-72
-47
-20
-42
29
-24
7
-21
-2
37
34
-5
-30
-27
4
-88
-27
-18
-13
2
-47
-111
-12
-8
62
2
-38
-51
20
15
-20
1
-29
-11
32
45
24
-40
69
-62
47
58
24
28
-1
9
-44
-26
9
38
17
20
-17
14
73
-13
22
-26
-11
-14
36
72
-59
-7
41
34
17
-5
20
-52
34
25
0
44
15
-34
-79
-26
14
-54
6
35
-9
-68
33
-10
-19
31
-5
-45
-56
-52
-6
-11
-6
-35
39
-13
-22
-69
-35
4
-15
43
57
17
18
28
-44
-22
5
18
-17
-50
-19
-21
9
-5
-40
-69
-19
54
-3
3
-30
9
17
13
14
22
-24
-6
0
-22
8
52
71
-1
0
50
9
-13
45
18
19
22
25
-21
29
21
-10
-21
7
25
-33
8
-40
-68
19
37
-35
-29
-54
-71
26
-24
54
24
40
12
24
49
-8
-13
21
7
-5
50
-9
-23
-44
-34
-30
13
25
-80
7
-17
-29
-42
0
-24
-23
-28
1
14
6
11
31
26
20
-42
17
-8
9
-10
37
-20
19
-33
29
-42
-9
50
41
20
-16
-26
-11
-19
12
-44
-9
-4
-45
-12
35
-3
58
-8
-47
33
-26
-8
39
39
22
4
8
10
61
56
32
22
21
-38
49
10
5
-38
39
21
-44
24
-21
-27
29
-47
-28
71
-18
21
-11
41
-18
-18
22
-4
49
6
-1
-34
-9
-1
-25
-19
2
-3
37
22
20
-36
19
-20
-4
-5
-51
-30
-13
14
-29
-44
-5
7
-43
8
27
16
-6
18
-17
8
-1
-1
43
30
-11
8
28
18
0
-6
50
-10
-32
-30
-3
-9
-26
-11
10
15
-28
-19
-4
-5
-4
16
30
-47
-32
35
-7
-25
-24
-1
6
-29
-35
17
-6
-11
32
-18
4
36
44
1
-54
-18
-31
10
-41
23
5
23
-4
-28
-17
-10
34
-14
-28
-11
-8
13
72
-21
5
-9
33
41
-29
-5
24
41
9
-15
15
9
-35
-9
-36
-5
68
54
41
18
27
25
-35
18
8
-40
26
-19
68
19
20
-5
-39
48
27
36
-6
-116
-31
-7
9
-7
-53
-5
47
40
-11
15
47
-14
-5
-7
-43
8
53
-2
22
-4
-24
2
16
-15
-42
-13
-38
22
-44
9
-44
-20
7
-23
-6
-5
-3
-57
25
-1
15
0
-16
9
40
-48
-8
21
19
1
21
16
3
21
-45
-51
39
1
23
16
61
-22
-20
3
-25
-10
16
56
-59
-25
-8
49
-5
-35
-11
-18
-3
31
-49
4
6
21
42
15
-35
-1
-46
-29
-13
13
-49
-57
13
26
-1
16
-17
10
-24
-11
50
33
-1
10
-31
-39
1
23
46
23
15
-34
-45
44
-12
65
-5
-8
40
-14
26
-1
36
80
18
-22
-12
5
-62
-13
10
18
-16
-6
45
-4
13
39
47
-21
-39
-17
-19
37
29
18
1
46
-22
62
-26
-37
5
1
-20
-15
-51
20
-35
-28
12
-26
8
-44
12
-21
19
25
0
26
-51
-29
25
-8
-8
4
54
1
35
26
-13
28
-11
-50
14
34
29
-34
-7
-20
6
76
3
53
14
-14
7
17
-38
-40
-1
-9
-47
22
-5
22
18
-9
-19
-17
-43
-2
7
14
2
36
23
22
1
-21
33
-14
2
28
7
23
10
-25
-43
35
-9
8
32
-41
2
-54
-47
47
12
6
12
24
-2
3
-27
18
54
8
-24
32
-7
-18
-45
3
-46
-6
31
27
11
1
-5
-11
-24
-42
10
19
-31
-22
14
-27
36
11
-41
-24
-3
-22
39
-50
57
39
-17
-27
27
39
2
-25
-15
-44
16
-14
6
40
-34
-38
57
-28
26
49
17
-9
-35
-4
24
-6
-18
-5
-6
-64
-12
1
15
-17
-66
13
-45
-43
-38
8
19
34
24
-4
-13
11
24
13
4
-10
5
-26
-37
32
47
14
52
15
-44
-1
17
-13
20
-4
-8
9
12
0
-18
4
-3
-37
55
46
-20
15
-7
45
13
-9
-2
-37
9
12
73
21
-34
-42
22
-12
-49
-5
16
-22
26
-8
3
42
3
-30
-25
34
8
51
-58
-41
-27
-45
17
-20
-8
-29
31
-22
-35
-36
30
20
-42
28
-11
-21
-16
-1
51
10
-18
-20
8
-47
-51
9
40
-1
8
-14
-30
1
2
4
-26
-42
-4
-35
39
15
-31
15
11
12
14
-37
48
-6
61
-49
-42
14
-6
-11
1
-34
2
10
-9
74
34
9
43
2
-7
-50
22
52
-19
-28
5
-6
31
-24
41
24
-1
45
-76
40
17
19
12
38
6
-4
-14
-38
38
7
-52
-23
-6
43
-32
44
42
23
-35
-22
-3
58
-50
40
-20
6
-22
17
23
2
-9
-13
-6
29
-17
43
-40
-50
11
12
51
-13
-5
41
35
-19
1
3
-27
-34
-34
-33
51
-28
-9
46
22
64
-15
-44
-29
-34
-31
67
39
13
-60
33
7
49
-8
7
37
70
1
23
-38
-33
-31
-10
4
2
-16
-2
-32
34
7
0
-3
44
-53
-34
-23
50
16
-22
7
-12
39
-11
-10
-15
30
-23
37
1
-39
18
-9
49
3
-48
-42
-20
-13
25
-57
9
20
42
-16
-3
33
23
-19
-15
-1
2
42
-29
18
7
10
25
0
14
15
5
-25
9
10
-2
-30
39
-1
-12
-42
25
47
-49
-4
-21
-26
14
-9
74
42
9
14
-12
3
18
29
47
5
-27
-17
-47
-11
5
22
42
46
-22
-7
-47
8
-11
-33
-8
-20
20
30
13
-3
-14
10
-4
-9
3
-37
1
-19
13
-23
-11
-42
3
-32
-54
35
6
-34
-13
28
25
8
21
5
2
-5
-7
24
22
-32
5
8
-55
-41
8
-12
-20
7
-2
-25
52
-41
39
35
-8
8
30
58
46
39
57
32
-28
-18
-17
-60
-5
21
7
-37
-34
27
-35
2
14
47
-2
16
-28
6
38
-11
-16
14
44
6
22
-17
1
-33
15
-16
-11
-34
35
-41
-36
23
-10
3
-3
-7
-12
27
15
18
3
-58
-23
31
-3
-42
-6
4
22
-19
33
6
5
-9
4
18
21
-13
-21
-10
-37
35
1
-18
25
-39
-5
-76
52
-11
-2
-43
23
52
3
-32
-1
-14
39
-17
25
-21
-28
10
-25
-38
3
59
-10
-18
-22
31
-52
44
4
-2
-7
1
15
24
-2
-5
13
-11
1
5
-21
-11
48
-36
43
-38
1
-11
-27
2
-24
8
-30
36
-3
20
9
19
-34
-16
-36
2
21
-32
1
4
-33
1
-4
-33
-18
23
35
4
44
4
-25
-23
-22
-8
-1
30
-42
-16
31
47
-23
-29
21
-13
60
16
14
-10
43
43
-5
-4
-21
1
36
-36
-51
-71
-33
6
10
4
24
19
-58
-30
-27
35
0
9
-27
-31
36
53
42
18
40
-8
26
-28
-15
29
24
-29
18
20
-3
-44
7
30
27
47
5
-10
-22
-14
60
9
-31
-37
-44
3
-4
15
15
47
14
-35
39
-6
-27
24
19
1
45
55
-51
56
15
27
-5
-22
40
-10
-24
-24
52
0
-28
3
4
-48
-29
-16
-10
16
1
17
-72
-31
-22
57
78
31
42
-18
-26
24
19
-72
-30
16
-10
-30
20
38
5
52
0
-17
3
-77
-18
37
-15
15
18
51
-30
-24
-9
39
4
52
-9
-4
-23
-6
-8
1
6
-23
10
9
-31
-15
-22
-53
36
-26
-18
-4
-2
-31
-14
-24
2
66
16
15
31
-33
-61
-32
-10
-25
33
25
13
5
-50
19
1
-1
-40
-10
37
0
-31
32
-27
26
14
-23
-23
11
-28
3
-33
53
15
-41
22
30
34
22
-3
18
-6
-5
-21
46
16
-32
-18
25
-3
-13
27
-14
17
-57
-37
-21
31
-18
-20
-20
-59
19
15
-21
-26
-61
2
0
-35
-46
-21
-4
15
34
23
17
46
-8
34
-17
10
13
-73
-52
46
27
10
43
-56
-10
15
3
-63
-10
-57
-31
22
24
-13
18
-29
26
-37
6
-7
11
-6
-12
9
39
-2
22
-13
-31
0
35
32
8
-12
16
24
-34
-28
-20
14
-19
6
-24
-1
-48
16
24
4
15
9
-33
25
-2
3
45
23
57
26
-22
-32
-3
-42
-3
18
-1
-3
-14
-38
1
-17
33
9
-17
-8
6
-21
-20
38
55
-48
-8
16
-28
-15
0
25
45
36
-61
12
19
21
32
-8
-14
-35
0
8
35
-33
32
16
-2
-23
-11
4
42
63
12
-10
-22
-9
-17
75
-44
45
35
-53
46
-12
-3
6
24
24
25
43
-56
-12
-23
21
3
-1
-6
-16
7
-24
15
0
4
46
-47
-28
28
22
-23
-16
-26
-22
42
-27
-21
21
-17
23
23
-16
65
18
38
13
48
30
47
31
-56
-9
26
-34
24
-35
-46
17
-33
-18
-38
-59
-40
40
-24
2
3
16
-17
-36
63
-10
-13
17
-16
-2
-15
-30
-23
23
1
-1
-33
-52
-33
-29
11
-18
1
72
-45
26
-33
-19
0
-72
51
40
-61
-15
1
33
-32
27
-40
-34
-1
-17
12
-25
-27
13
-27
-5
-45
17
-14
20
14
-3
23
-21
-53
3
-27
30
1
17
-15
-41
-49
-24
-2
13
-19
37
37
49
4
-1
8
24
-27
-45
-55
27
8
8
57
-32
-28
-4
-38
18
-3
-4
5
11
-17
-20
-25
-19
6
-18
-33
36
-20
5
43
-23
54
-12
-29
12
-16
-15
6
-37
-9
11
39
-6
-15
-24
-45
11
5
28
9
52
33
-39
7
-42
-8
-69
-24
45
-28
21
34
23
36
-4
21
-22
36
17
-35
22
29
-4
-26
0
-22
27
-26
-51
-22
-24
5
-26
-11
-11
-18
-11
9
4
-21
7
10
58
0
16
5
31
-24
25
-2
27
48
12
2
15
-14
11
-6
6
24
-13
46
7
9
39
50
-9
4
-4
-5
-14
11
8
-21
0
21
9
19
14
68
7
23
-18
-35
15
31
16
1
13
-21
57
5
-37
-28
41
27
-42
-31
5
-31
-29
-22
10
-9
-12
32
16
8
55
26
7
-18
-12
-37
-48
11
-22
30
43
8
6
10
5
-8
4
-9
-34
0
45
-10
24
-78
-68
-17
-29
26
6
56
-30
29
-40
-24
6
-5
-9
-19
-25
-30
-35
56
7
50
-10
30
14
-9
-25
-62
5
41
19
-48
35
-60
-26
-9
-5
-10
-27
-31
-27
-2
-11
-22
-11
-17
-13
17
-27
23
-31
68
-21
-28
25
-7
-14
16
-8
-5
3
44
56
-3
36
12
4
-10
-62
-13
67
-1
33
1
41
47
25
-13
1
-27
23
-31
25
11
20
-17
-13
-31
35
-66
-71
13
3
-35
-47
-9
17
0
3
18
-18
-45
-4
-23
23
-9
49
17
47
-11
20
69
26
23
1
-58
20
-13
49
-25
-14
7
8
2
12
-1
38
17
-3
1
-39
3
-15
5
-16
28
8
4
28
15
48
46
-88
-36
-50
-44
50
28
-25
-55
12
38
72
-21
-7
-13
65
23
-43
-48
-51
6
-41
-27
-13
-3
-37
-24
33
-53
25
19
0
-30
-59
-27
37
-14
-21
25
34
-4
-29
-19
-16
19
16
31
23
23
-53
-25
7
16
-17
11
28
-24
4
-52
8
-33
21
-23
31
21
-16
-21
-19
-1
27
-32
-34
-57
48
22
-41
34
51
48
14
-60
25
52
-29
39
16
-18
-26
-16
24
39
13
-42
1
29
1
30
25
23
56
-65
56
-16
38
-21
-38
-16
1
18
-56
11
-39
-4
-36
27
-46
19
-32
-17
25
-39
-63
-20
-36
-32
6
-45
-20
44
16
3
-21
40
-37
-31
14
2
24
42
20
1
8
-18
3
2
12
35
3
-21
3
-33
18
43
53
23
-88
6
3
-61
-40
-16
-3
-46
-11
6
-37
75
-36
-18
3
8
39
7
-9
-5
-15
16
7
-48
14
-6
61
17
8
52
-18
-68
26
1
-50
5
-48
-9
100
2
-30
16
-10
-28
35
49
-26
13
-17
-1
-36
22
-46
-18
-3
43
12
10
31
48
-6
41
33
23
-23
28
-34
-33
-41
17
42
9
-7
-20
27
0
-22
10
13
-40
18
-30
32
15
3
-17
49
-4
62
-61
-47
-29
-4
5
-17
-32
-17
58
-10
5
29
9
-17
11
9
-14
2
6
15
65
-26
-26
-2
-10
-16
0
9
-21
-21
-32
31
-56
9
13
-36
-48
32
-12
-42
42
8
-2
26
-43
19
17
-64
9
12
-11
-47
-12
27
37
-27
-3
15
15
27
45
67
59
-6
13
-30
-31
-39
-4
65
-12
23
-4
46
15
30
25
3
11
20
-80
-5
28
-20
8
1
10
20
-24
-45
-11
5
6
-13
15
18
-43
21
4
19
-44
-51
38
46
-14
30
-15
-37
22
31
35
40
32
-31
0
62
-30
38
-3
6
-5
30
52
22
55
60
73
-30
-28
-16
-21
5
1
-47
-18
-15
44
9
-24
76
44
-42
9
-58
-51
23
29
13
0
49
9
33
9
-6
-38
11
24
-12
-13
-33
-19
-6
5
-22
-20
-17
26
-1
0
29
30
37
-42
-19
-14
10
-10
15
16
45
-9
-3
29
20
-23
14
-17
55
31
-51
-22
-19
46
107
5
14
3
-14
3
-7
-48
9
29
-26
-44
0
-4
-28
9
25
-56
8
-52
29
5
-54
8
-9
17
-17
-42
1
5
-13
11
40
-35
0
3
-16
28
49
-50
-17
31
-3
-22
-30
8
72
-34
53
-21
30
-34
-15
-33
9
62
52
-8
36
9
-58
-16
24
24
32
14
31
-16
-2
49
5
14
-41
-3
9
27
-8
30
18
68
-1
-9
-13
-31
9
-14
-4
24
19
-14
26
24
48
21
13
15
16
-6
26
38
-29
22
-9
14
-38
-23
-13
-25
-16
-45
-29
-24
31
41
-38
-15
-58
2
-9
17
-22
-43
-25
-8
-14
-58
-2
25
3
20
4
-5
23
15
53
-42
20
-29
-26
10
34
19
62
-9
-13
-53
34
30
-54
22
-57
14
36
9
-5
-3
-10
37
15
-5
23
36
43
-31
57
18
-49
33
-4
-46
-11
72
29
8
-10
-23
35
-40
-24
8
24
-25
-35
4
-7
-26
32
-20
38
22
28
-29
-59
-23
-12
25
-12
-27
-6
42
5
-13
-9
37
7
-24
-7
-10
21
58
-32
44
24
-38
-15
-1
23
-3
13
-2
32
-18
-7
-19
-12
-25
-35
-11
-12
-11
-16
22
32
17
-6
-13
67
30
-34
2
-17
-22
-25
-4
18
-11
13
-43
-11
-25
16
8
8
33
-49
-2
-19
-50
-16
-3
47
-9
-12
-5
9
5
-36
18
-26
15
8
-19
3
40
4
-8
7
-29
-8
-13
-29
-25
-5
-29
-64
-3
24
0
17
11
2
-44
17
24
-11
-31
45
0
-11
-17
19
-1
27
11
-42
12
54
1
67
38
-4
26
17
44
49
49
56
52
-2
21
16
-44
-17
6
11
-27
-56
41
-17
-21
76
49
-9
-3
-67
-23
-13
0
26
-31
21
26
27
15
-37
-38
26
-4
11
-55
14
-60
-4
38
-25
-1
7
-24
-10
-27
40
-11
-25
-86
-37
-2
25
-29
-5
6
45
26
-11
4
24
9
-19
-9
-14
35
-17
-29
-21
28
98
53
-4
-49
-33
28
-11
-78
-22
-12
-12
-44
-6
-10
31
19
14
-76
51
-56
-10
44
-49
20
-27
19
-2
15
-3
38
3
58
19
-33
19
8
-1
17
55
-50
-27
-15
-27
33
-35
-5
64
-21
57
-4
-17
-38
-10
-23
22
80
59
18
24
-25
-14
-22
18
12
40
36
1
-17
-48
71
20
-31
1
-31
-18
-6
22
32
6
50
-16
-26
-54
-36
7
24
-57
52
71
-5
31
28
34
41
36
7
-2
35
23
31
14
-53
-43
-6
-22
10
2
-40
-8
-3
19
-35
-10
46
-14
-38
-18
19
-19
8
-28
-58
-39
-12
-21
-76
41
27
2
37
-13
-18
7
-17
8
-1
13
-47
-78
6
56
49
73
12
9
-68
-26
6
-50
2
-55
13
20
14
-14
-13
5
-3
-8
28
12
-17
20
14
20
47
-42
28
13
10
-38
92
7
10
-29
-6
43
-54
-43
28
22
0
12
-12
23
-37
-29
-4
-30
32
2
-3
98
3
15
16
24
14
-36
-33
-52
-24
-17
-44
-32
30
-3
33
-10
-9
8
-63
23
10
-2
4
-17
22
29
25
20
7
23
9
33
24
25
-14
-43
-19
24
2
-34
16
-27
18
-37
2
44
-36
12
-37
16
-49
-33
-22
6
34
8
-25
-17
17
-61
3
41
31
8
44
3
-19
-42
51
-23
-30
0
-20
32
-29
-1
4
25
46
-29
-43
11
14
23
20
-52
24
45
25
-4
42
62
28
-9
41
-24
2
-16
60
22
-11
-35
-2
-10
-30
17
12
-4
-44
-40
-39
22
35
-56
-4
-39
-16
6
-10
1
-53
-4
-21
-18
-26
1
9
13
11
10
11
34
2
31
-19
33
-15
-41
-8
40
-10
40
33
20
-19
37
-2
-56
2
-9
-24
-4
64
-7
30
21
43
21
-7
-6
21
40
-27
8
32
-14
27
6
-2
-35
39
6
10
21
25
9
1
-24
33
-29
-4
-16
-15
42
-11
-21
36
-6
-22
-19
-45
25
25
29
-30
-7
-11
58
-20
-27
-19
-16
-16
14
-42
5
-14
21
-38
-10
14
-23
-20
-33
13
34
23
-35
6
36
29
-3
-8
63
-19
-44
-60
-40
-4
45
-20
-24
-32
-8
13
-43
71
8
-18
6
38
8
39
-21
-25
41
12
-40
-12
-24
17
12
-24
-44
-20
24
-6
1
-10
3
-7
38
5
-36
-15
19
-2
-29
-22
34
42
-23
21
22
12
-26
13
-2
-18
-25
30
18
-7
-29
41
-15
16
-32
18
27
28
1
-35
14
-6
11
-8
35
-12
1
-33
-1
18
33
-10
-2
35
-35
23
-50
-8
-7
0
28
-14
-9
-50
39
8
-8
13
14
11
23
-43
39
-7
12
6
-49
31
30
15
25
19
-2
49
-17
32
30
32
14
10
-8
10
-30
10
-8
12
36
-1
-7
-11
41
14
38
-6
24
40
-11
18
-10
4
39
27
-17
5
-26
-6
-43
20
11
-6
-10
-25
-18
-37
-41
12
-2
-36
5
-5
35
9
-2
21
-35
7
50
-24
-38
-10
-28
-19
-27
-3
-31
-9
-8
-42
35
-16
55
-28
11
-51
14
-3
-73
1
24
44
-17
-74
43
-32
-52
-77
-2
-4
53
-4
-10
-17
-31
55
8
27
20
-18
14
-15
26
13
-19
-30
32
34
1
-4
-38
30
-49
-27
-37
14
-25
-10
-7
43
-13
-7
2
20
-9
-1
34
-32
-20
33
12
42
25
-11
-13
-22
-3
37
13
0
19
28
-7
12
-4
37
17
-12
-20
47
-16
19
-3
30
32
30
6
-6
-10
-26
-6
21
18
-21
24
17
27
4
-37
42
12
-59
-4
-7
-45
-1
-1
-33
32
-25
-7
19
15
49
20
-46
-13
27
47
33
5
4
59
3
19
-32
-17
-10
-15
6
-23
56
-18
-1
47
-15
-6
-19
10
25
37
27
-17
-15
-9
14
-3
16
6
40
29
38
17
-32
32
49
-35
15
-18
32
6
-21
11
38
-24
-81
-23
-5
-45
11
-24
7
22
-23
3
33
11
2
37
-23
56
3
-43
15
4
-15
29
11
2
28
-8
-17
-7
30
-26
-32
-8
10
18
15
-47
16
30
31
-5
-59
-8
9
-18
-77
-24
4
38
-6
-14
12
-41
45
-6
11
-9
-6
-4
18
47
-8
5
-64
15
-42
-15
-7
10
53
-47
-1
-15
-18
-20
-1
-9
17
34
13
27
-1
17
17
-1
-12
-33
19
17
46
21
5
17
32
-33
-17
34
-15
-12
28
48
49
-17
30
-27
-21
13
4
33
24
49
-31
7
30
8
-3
-1
-26
-38
-28
8
13
11
-42
27
40
22
48
-1
-38
-1
-16
-61
43
5
-9
38
-34
-30
-5
33
49
-30
-36
24
22
35
52
6
-1
-9
6
19
-31
-24
-5
12
-17
5
-2
-3
-41
56
-32
-41
0
25
-17
57
-17
-5
9
52
-24
44
-15
8
29
24
36
-4
-28
37
14
-26
25
-27
-17
-38
-42
22
9
16
11
21
-21
-50
22
0
27
9
-11
10
32
9
-29
-28
-7
21
-18
-49
-4
-10
-22
-36
-71
-17
25
-13
-47
40
4
3
-43
-14
3
10
29
-18
30
44
51
-33
-63
30
1
-40
-70
-28
-8
19
-26
3
9
-4
39
-16
65
-27
-3
15
-32
3
-25
-32
-51
0
-35
10
-8
-32
44
2
-26
-7
25
23
26
13
3
-8
-39
-9
-5
-7
-5
7
-1
-13
-24
6
19
-4
-35
-16
-24
-36
-18
-1
7
20
-35
15
0
-3
32
8
-26
-12
3
15
-2
16
35
22
34
-24
10
-6
-23
-25
5
-27
7
26
28
-33
-11
-30
34
-15
-45
13
-30
30
18
28
-58
31
-35
13
12
6
14
23
-20
-6
-10
17
22
-40
23
29
-15
-7
-1
42
34
-35
-25
-42
51
14
-36
34
17
6
18
23
21
21
-2
-27
18
36
10
9
1
-11
27
25
50
11
-25
22
9
-22
17
-1
-20
-5
-10
6
28
10
-10
-18
-23
-4
-18
-10
-27
-12
50
0
-35
-37
-17
-8
-1
-37
-12
62
-7
4
18
36
28
-6
-31
29
56
-24
-1
4
42
-8
16
-25
-22
63
31
10
-24
6
50
-43
-3
61
39
-19
-8
-20
45
-14
-16
30
-39
45
-68
15
-1
-1
-6
-41
-32
13
68
-3
-6
-22
-33
12
-32
2
1
10
-6
15
-2
15
-32
13
-24
5
-17
49
8
-32
43
-19
-16
-3
-16
32
21
-30
33
-23
16
-17
-30
7
-15
-3
-6
27
-34
8
-1
-23
16
5
-17
-17
2
21
-52
32
-14
-41
-15
48
5
-16
8
13
7
-13
-35
19
-49
13
17
3
-15
-25
-36
17
26
-4
33
1
-21
-14
-31
27
-12
-2
-10
-19
4
19
-23
-20
1
-54
7
-4
-14
36
-38
23
-42
-4
14
-15
25
8
18
3
-8
-41
-4
7
-20
-40
-14
-12
-12
-7
-37
-26
-28
-40
36
-16
-25
9
-5
53
30
18
-4
-20
-36
45
38
-6
41
64
-45
1
-30
-21
18
-18
-17
13
-15
7
9
-29
46
33
44
13
-10
-18
47
26
-10
-3
7
-51
-5
16
10
-33
12
8
-36
54
-16
-44
-19
2
40
-7
11
50
17
1
-14
16
56
31
-21
4
-51
-12
-52
-4
22
8
22
-31
12
44
54
-35
-40
-2
-17
4
-80
56
39
-17
24
-17
17
41
-31
32
36
-36
-44
50
12
3
83
27
-35
1
-36
17
-2
-5
20
26
-30
-16
-31
-9
35
-23
-23
32
-35
17
-10
-26
-25
-3
-2
-17
-36
-15
-46
20
25
-5
30
26
-26
11
-14
-1
-25
17
-8
42
-23
15
40
-13
-10
3
-13
-33
67
-15
-14
-9
39
29
-8
18
-1
-33
32
-17
-28
2
-26
-2
23
-37
-17
-4
-14
16
-11
17
-52
0
-4
5
14
-19
19
9
-23
-2
-36
64
34
-17
-14
-9
32
-6
-60
-37
-11
-23
42
-23
-27
50
2
42
-18
-8
10
-3
-54
-16
23
32
14
45
-45
-20
-26
29
20
-7
-3
-43
9
14
-30
-26
16
29
19
-12
-21
-13
49
0
-3
25
5
-51
7
-21
6
-44
-2
-40
-15
12
-10
-29
-56
-19
78
-11
-17
4
71
4
-18
-10
46
29
26
38
-49
4
-39
-14
12
22
23
-30
9
-2
19
10
-43
-2
38
38
-36
45
28
29
13
-4
-9
13
-14
11
30
-11
-43
17
3
-4
44
0
-34
-14
-12
-19
-3
-19
-13
38
-11
-15
-23
3
-15
-21
6
33
-30
24
-6
-8
-28
-9
27
-36
-43
-1
0
18
-34
18
23
11
-27
18
-1
-13
-29
6
12
-2
-10
15
38
-11
-8
37
-33
6
18
-21
4
-25
-6
10
-10
-32
5
-52
-6
-49
-14
6
-39
-7
7
-16
4
6
-48
8
-5
29
-15
40
3
-38
-31
10
33
-23
-24
-31
7
53
6
-12
-12
-30
7
-23
-58
10
-71
-36
-13
-57
-45
43
23
23
-2
28
36
13
-36
-34
23
25
26
5
2
-10
5
-26
-15
-24
7
-16
24
41
-35
-24
12
51
-14
-17
-34
-10
37
32
11
-12
28
-23
-18
-12
22
-3
22
-32
-22
58
-2
-5
-1
22
38
-28
14
61
36
24
9
-33
40
-21
-24
54
-20
25
-65
-17
13
-12
33
-48
38
3
41
-38
-26
31
9
11
-51
15
24
12
-13
36
-2
2
-12
9
-10
4
11
8
-4
-13
56
-3
-44
6
-23
-34
-17
27
23
-2
-11
-14
5
-33
-20
8
-47
11
-4
-4
6
-6
-29
33
26
-22
-34
-14
-23
22
27
-39
29
-27
-23
14
-19
-41
-8
26
25
46
-38
49
26
-35
38
8
2
-26
19
-43
41
-16
-26
50
-30
17
21
7
3
-42
-7
-16
-47
-42
-19
10
12
-28
-49
-7
-42
21
-10
42
-14
-21
36
11
-24
-4
-10
-25
9
2
28
-31
-26
-54
25
18
-66
-22
-50
-17
19
-31
-6
-12
-15
10
-11
8
-7
-23
-46
31
30
-18
34
-1
-19
27
-13
12
-37
9
26
2
10
-10
9
4
11
11
6
24
1
-10
20
-67
50
-4
2
6
-1
47
16
-16
-29
9
-11
-37
14
-13
18
47
-5
-45
18
-18
10
11
45
70
-39
50
0
0
30
-23
-7
34
-35
-53
-40
48
-40
-56
15
-25
38
-27
15
17
-24
-50
-73
45
14
-62
-7
-8
43
-13
-2
-1
14
-18
43
55
-85
10
47
-11
23
14
-9
5
-34
-11
-7
10
40
52
-42
-14
34
9
6
29
14
30
34
-17
12
30
31
-14
14
-26
15
-26
-20
22
40
29
1
-3
-57
16
-26
-38
27
15
-34
-17
1
17
-18
-26
2
-33
-25
-36
8
-83
-21
7
-19
-15
34
21
25
-23
35
-45
7
45
28
-3
-78
-5
24
17
-11
-16
-21
-10
20
-8
16
-43
5
-41
69
-49
-22
15
61
15
-14
9
59
9
-55
-11
-29
-5
-14
12
12
43
32
51
-41
23
-11
4
-75
26
-24
-5
-21
37
22
-2
28
-1
-57
-18
1
6
10
-15
-18
-43
39
-37
-8
19
-22
50
-34
61
-16
-11
23
-30
-7
-6
38
-38
9
-17
12
-15
-30
-5
9
51
12
-8
-23
-28
-51
-16
-25
-47
12
27
8
14
18
19
37
47
9
-48
10
50
-13
-11
-17
-1
40
-16
1
20
23
-21
-3
35
-1
-24
-83
0
-2
17
7
13
-21
-15
21
-8
-10
12
39
-10
19
17
-5
-1
-32
-55
28
15
15
61
-28
-8
-21
-39
-19
-1
-59
-20
-27
-61
-2
25
-47
-5
-9
23
-24
-71
-26
4
-11
18
57
5
34
49
-43
-53
48
-29
-21
30
-31
-25
14
52
-12
21
23
46
-33
34
38
60
-21
18
-23
-18
14
27
8
-26
-19
0
59
24
-36
37
-20
-18
9
7
3
-14
-13
47
-36
-5
-61
27
-5
-5
-25
18
-9
17
25
-16
11
39
63
30
-23
-18
16
-49
-2
-62
52
-19
-10
-46
3
17
11
-3
44
21
0
13
8
5
9
-19
2
-14
-5
12
-17
-38
20
-15
27
9
-60
-15
-20
11
-24
56
6
-3
-10
37
-20
-6
9
-74
-12
-13
19
-30
-23
73
1
-46
-37
10
-23
14
-18
16
0
11
42
27
51
-1
-27
-28
-37
49
32
-16
-30
53
3
-34
22
-39
49
-19
2
-30
14
-11
-11
-2
25
-21
-27
43
9
-16
4
12
-40
-18
35
-23
36
12
-28
-36
-30
-27
32
-12
17
10
31
-30
22
-44
37
-21
-19
5
32
18
21
24
7
15
60
12
6
34
-35
-29
12
-30
-38
36
20
-19
9
-4
32
-4
-65
53
-8
19
29
-4
-13
9
18
14
-8
24
24
-23
-44
28
-10
-9
11
-2
-5
12
-20
4
28
10
12
-54
-30
-45
35
15
17
29
10
-22
-11
-18
-28
32
27
-2
-27
20
-11
13
-13
7
73
36
30
3
-15
50
32
-39
-14
-25
-23
2
-21
27
40
16
-47
-12
17
24
2
-23
19
29
-17
-43
-4
-52
-7
11
-11
-41
31
38
29
32
-8
27
22
16
-15
-7
-4
-20
-23
23
11
13
10
-2
-12
35
-12
-43
-35
31
69
-2
-10
15
32
-13
-17
-14
23
-14
11
67
-41
-5
-61
9
24
-8
-2
-63
28
22
32
-44
-6
-2
-8
2
-54
57
20
-24
25
10
-38
-11
-35
-17
21
-26
-31
-7
42
-25
29
33
-19
-7
-53
-21
4
3
6
15
4
18
-14
7
27
37
-20
18
-44
-14
30
27
-59
33
-3
-50
-62
-37
9
12
-22
-23
-13
25
9
-21
-23
-11
8
19
22
33
-38
0
64
-43
14
23
-17
23
8
6
-26
-17
-5
64
-5
-26
23
-45
23
11
7
4
-50
-39
12
-22
-32
-33
-24
-5
15
37
-48
40
26
-40
10
-34
-35
19
32
2
-39
60
24
11
-7
7
32
-24
-66
-43
-32
-14
-5
-26
-57
9
-3
35
-3
11
34
-10
-25
-29
51
44
-13
-4
-3
27
-20
-26
4
-6
-29
-11
33
2
-33
-51
-7
30
9
4
-25
-2
42
0
-24
-7
-6
-53
6
-44
-1
-19
34
-16
12
26
0
-22
-26
11
57
-3
34
12
80
-10
16
-57
15
30
26
11
-52
15
6
-21
58
16
3
-66
-18
6
27
-20
-10
44
-27
7
-64
39
57
22
10
-11
-35
-4
-18
14
30
-7
-34
37
17
25
23
-5
5
22
-39
-13
30
-1
-5
-7
-11
-37
-16
-10
-21
-10
-45
-7
-39
26
-7
38
-5
-15
6
-17
-24
-22
-37
-34
22
-17
-6
-26
14
-11
20
11
29
-30
10
26
-56
3
39
-22
34
38
-3
2
28
3
23
14
-17
17
-6
28
17
-34
-22
-31
-14
-10
-47
-36
-10
-10
27
-28
-10
25
-20
-6
-46
9
36
-17
-3
15
33
7
2
-11
-32
8
17
14
10
-50
-23
-10
-61
-23
-61
-42
24
-1
-13
2
-8
-1
-19
19
0
15
-9
1
25
42
-8
5
7
-30
17
-44
7
-2
-7
25
-10
7
17
-23
-3
56
-1
13
29
-13
31
-2
1
-44
33
18
11
-4
68
27
-37
-23
-25
-10
-2
-7
34
21
-9
-52
-14
-6
44
52
26
-1
27
48
32
-44
-24
53
-34
32
-33
-58
-44
51
-57
-11
-26
3
63
3
-44
-2
-72
-16
-18
-10
10
-29
1
25
19
5
-41
-4
-23
27
34
54
-13
-64
43
-31
-35
3
38
-8
19
20
-13
7
23
-14
-15
-39
13
18
-30
5
-4
7
-12
-45
-49
0
45
34
-11
13
29
17
3
63
15
9
-28
7
-2
-22
-19
-4
18
57
-12
6
29
-20
-15
7
1
-29
26
-14
-26
-15
8
24
12
3
33
-12
2
-3
1
-23
-10
16
2
4
-62
-18
21
-24
-11
-1
13
4
-6
26
2
-19
15
-2
9
-41
8
-71
-23
-30
-18
11
-7
37
-16
-24
-4
-16
-3
-24
6
27
-14
37
-38
6
24
-1
-8
-8
-26
9
-12
-8
-30
13
-48
-5
39
17
-6
14
-14
28
8
-39
26
13
24
-22
-28
7
6
-32
-54
-8
3
39
-28
14
-35
37
-4
-70
-27
43
45
1
-16
3
-31
-60
-86
-43
-23
70
-9
-12
-37
22
27
2
53
13
-53
21
38
11
-9
-21
-39
52
-38
-10
8
24
33
-3
-10
-10
-27
26
7
-46
14
33
-12
15
20
-10
-5
-31
-15
-22
17
2
43
9
15
4
-26
10
15
27
30
-25
-2
-8
44
-7
34
-24
28
-27
29
24
-23
1
1
17
27
14
-28
16
-21
-43
29
1
15
11
-31
7
40
-37
60
-49
-68
27
21
-17
-12
-2
-20
14
-10
12
35
14
29
-2
-35
-2
-20
38
25
-57
49
47
17
29
-24
24
-6
10
26
17
-1
2
4
48
-17
-9
9
-2
-10
14
-10
-63
-13
33
14
49
23
-6
32
-8
32
50
-14
-4
-15
5
8
-49
32
-32
11
-11
-11
-51
-45
8
-48
-49
35
-6
6
-10
-36
53
31
24
-27
-37
-18
10
-8
-37
12
7
-27
-39
-22
-5
-18
-24
-37
57
-32
11
-9
-14
-45
18
43
-59
7
26
58
-1
-56
35
-30
-36
-69
-14
32
47
-15
2
-2
-24
28
-13
43
-3
-43
-2
-35
51
4
-1
-36
-1
23
18
-22
-7
44
-61
-21
-27
-8
-7
-17
8
23
-11
3
22
-4
-7
-29
6
-47
-4
14
-3
-10
30
-8
-28
6
-28
-4
-3
-19
5
32
-10
48
2
59
2
-32
-11
-6
18
-10
46
45
9
35
-19
23
17
-21
0
10
-24
-2
41
-23
0
-11
-34
19
-22
-43
12
-6
-26
34
