0.00592834
-0.07626255
0.00762300
-0.02554552
-0.00141795
-0.03810036
0.00597936
0.01974925
-0.03085107
0.00332569
-0.00538289
-0.06152972
0.01054091
-0.08061725
0.02218173
-0.04640637
-0.03135774
0.01518669
-0.06708100
0.00734237
-0.05908555
0.01696167
-0.04220263
-0.05739389
-0.08553563
0.00823242
0.01747005
-0.00010911
-0.01016211
-0.04386372
0.00200364
-0.06560615
-0.03635513
0.00882796
0.02688980
-0.02232812
-0.10043778
-0.03159409
-0.09831837
-0.02696890
-0.03043573
-0.08151729
-0.02395788
-0.05248489
0.00589601
-0.09746369
0.01034369
-0.04702347
-0.01220861
-0.01760661
-0.04037846
0.00592549
0.02020506
-0.00673328
-0.00286376
-0.07683755
-0.06899104
0.00292851
-0.03525137
-0.05292484
-0.08474366
-0.06101725
0.01946948
-0.03853885
0.00919109
0.00593298
-0.01141094
-0.04173020
-0.07777397
0.00139096
-0.10503552
-0.08808828
-0.04844517
-0.11491272
-0.06675296
-0.09808028
-0.10975634
-0.08039837
-0.08063053
-0.06147737
-0.06990647
-0.00062359
-0.07215969
-0.01693618
-0.04136837
0.03337512
0.00555075
-0.01455049
-0.02793343
-0.00150967
-0.05841029
-0.09276847
-0.04027810
0.02352403
0.00704245
-0.01545785
-0.08784831
0.00634452
-0.07489241
-0.06013010
0.04375989
-0.00161179
-0.06797537
-0.02417044
-0.00946477
-0.06633066
-0.07270742
-0.03738763
0.01401323
0.02649026
0.00411210
-0.04271076
-0.05251124
0.00879389
-0.04662392
-0.08531824
-0.00297400
0.01878216
-0.07735044
-0.01809132
-0.03626961
-0.05753509
-0.02720237
-0.05758626
0.01739120
0.01377401
0.03420844
-0.01414546
-0.01728807
-0.03091151
0.02173892
-0.08322846
0.00267599
-0.01840449
-0.00103631
-0.01966461
-0.02056861
-0.05667211
0.03197460
0.02140265
-0.09719854
-0.05724824
0.02614305
-0.06544589
-0.04961751
0.04407028
-0.05067074
-0.06203138
-0.05889666
0.02995833
0.03138020
-0.09441602
-0.00608269
0.03159045
-0.05685559
-0.09743531
-0.01869549
-0.00468173
0.01728825
0.01875312
-0.00538075
-0.03185083
-0.07081828
-0.06131444
-0.04808198
0.00440498
-0.03327993
0.01237008
-0.04469210
0.00413139
-0.02463098
-0.02476862
-0.10932971
0.03602248
-0.01353850
0.01982755
-0.08482055
-0.05327386
-0.04617383
-0.04974958
-0.04933733
-0.04718790
-0.05142596
0.00782215
-0.02053181
-0.00351279
0.01205725
-0.02769098
0.01786476
-0.00151459
0.02243282
-0.09109977
0.01224637
0.03022963
0.00224574
-0.03858249
0.03213379
-0.10368709
-0.07070832
-0.00557000
-0.09883595
-0.08379728
-0.02666643
-0.06605877
-0.08151134
-0.03003144
-0.01733012
-0.11282610
-0.06888675
-0.06814543
-0.01786643
-0.09558934
-0.09681126
-0.09404059
-0.04125086
-0.09698033
-0.02495025
-0.09977186
-0.02664501
-0.07439236
0.00748783
-0.06828182
0.01267344
-0.02102546
-0.06616840
-0.09103607
-0.07088651
-0.01515653
0.00517050
-0.03614996
-0.02494979
-0.08885566
0.00846703
-0.04326524
-0.08648767
0.02371896
-0.09175368
0.00578836
-0.01680018
0.01543479
-0.07944407
-0.07232077
-0.01267109
0.02920484
0.01893185
-0.03755924
-0.01758369
0.00088594
-0.00270163
-0.01909372
-0.04728664
0.02935755
-0.01783327
-0.00106494
-0.02216530
-0.06296720
-0.01617850
-0.06892652
-0.01195357
-0.05951257
-0.07187144
-0.06509721
-0.01802910
-0.00373274
-0.07374960
-0.01014294
-0.09226967
-0.08031195
-0.04115482
-0.04036979
0.01018860
0.01798240
0.01102388
-0.05253090
0.00641830
-0.01040380
0.01259212
-0.07392246
-0.03529204
-0.07148745
-0.03885081
-0.00269936
-0.09305957
0.02250291
0.01067474
-0.03816059
-0.00379285
0.01925949
-0.09337120
-0.03761003
0.02372986
-0.05284378
-0.04720404
-0.05903119
0.02302812
0.01725325
0.01208835
-0.04267583
-0.05698692
-0.04378201
-0.09458060
-0.06356961
-0.08231714
-0.03875721
-0.07451124
-0.08482740
-0.09951104
-0.05449364
-0.09114373
-0.04605583
-0.05865141
-0.00865908
-0.01597830
0.01282512
-0.04589729
-0.02654257
-0.03853283
-0.10317149
0.00385866
0.01392650
-0.09619528
0.00275246
0.01861090
-0.05991506
-0.07672482
-0.03287194
-0.08435803
-0.03176669
-0.01587818
-0.09416788
0.00034407
-0.03581600
-0.07070840
-0.06500650
-0.09270979
0.02138927
-0.01406807
-0.03520662
-0.08432993
-0.08993390
0.00217278
-0.08993921
-0.01393283
0.00042125
-0.01209680
-0.07246117
-0.06487247
0.03068756
0.00574130
-0.08449736
-0.07451499
-0.00946347
-0.06494730
0.00739930
-0.02387280
-0.09000348
0.02830544
-0.10518384
-0.09384666
-0.02803347
-0.02724497
-0.07226168
0.01479018
-0.09021495
-0.03085639
0.01403277
0.04111210
-0.03296631
0.01812580
-0.06834058
-0.00800563
-0.04989352
-0.00167119
0.02411552
-0.03659978
-0.06090470
-0.11800239
-0.04523822
-0.03691276
-0.05133800
0.02936816
-0.06036573
0.01254080
-0.02949832
-0.00618245
0.00063483
-0.06482489
-0.08527163
0.01215153
0.02177149
-0.01993039
-0.01910193
-0.00824259
0.01219910
-0.03470802
0.02404195
-0.06998693
-0.01006907
-0.05901343
-0.03848845
-0.07350488
0.01405612
-0.01711442
-0.01626473
-0.03286823
0.02197067
0.02792933
-0.06852371
-0.09688242
-0.09264133
0.00737465
-0.08499078
0.00065533
-0.02581047
-0.03526368
0.00929285
0.00290905
-0.02938751
-0.06413972
0.02533936
-0.06847542
-0.07515030
-0.06281096
-0.01023048
-0.03612779
-0.05256026
-0.08682791
-0.06287501
-0.05273423
-0.05311144
0.02370151
-0.00130225
-0.03552155
0.02980324
0.00272908
-0.04045791
-0.09075877
-0.01011604
-0.03320590
-0.04025908
-0.01011553
-0.03177447
0.01012116
0.02270826
-0.06560191
-0.03762456
-0.10404138
0.00810301
0.03600426
-0.08603219
-0.07103193
-0.06237300
-0.05640566
0.01189894
-0.03455979
0.00804582
-0.08776791
-0.06749598
-0.04850874
0.01649457
-0.02891917
-0.00846528
0.02484255
-0.10668842
0.02070154
-0.03834296
-0.04968897
0.00232892
-0.08455542
-0.07341435
-0.03620010
-0.02974278
-0.03972574
0.00671778
-0.05933163
-0.06219615
-0.09018270
-0.08425340
-0.00660687
0.03081070
0.02641460
0.02734549
0.00618456
0.01995020
-0.07369625
-0.04980550
-0.06962020
-0.03302891
-0.02989646
0.02292275
-0.06234019
-0.06838652
0.02830289
-0.06248657
-0.00238184
-0.06373696
0.01516283
-0.06680966
0.03082764
0.00712617
-0.03865415
0.02521077
-0.07222087
-0.07475849
-0.03678694
-0.04548138
-0.01500073
-0.07847057
0.00357441
0.02506651
-0.09838951
-0.06293041
-0.00831065
0.00717749
-0.02193243
0.01927230
-0.08670811
-0.01384754
-0.01782109
-0.02062696
-0.02796257
-0.02554212
0.00141251
-0.03393709
-0.06507612
-0.02107937
-0.04308335
-0.04861054
-0.05404580
-0.00779591
-0.08523890
-0.04352230
-0.08076390
-0.09683836
-0.04977281
-0.01756207
-0.04822174
-0.01158486
-0.00573969
-0.09042741
0.00828073
-0.01372184
0.02399142
-0.05926786
-0.04096374
-0.09429798
-0.09354219
-0.03290025
0.00226407
-0.08086848
0.01315922
0.01959759
-0.00920140
-0.02028414
-0.03370530
-0.04035833
0.01264469
-0.07062575
-0.09700482
-0.07635143
-0.05715541
-0.02677679
-0.00146372
-0.07286511
-0.03608407
-0.08976441
0.00347485
0.02288666
-0.06043400
-0.00325270
-0.01326052
-0.07207704
-0.10376502
-0.07864588
-0.07074448
0.00284113
0.01746014
-0.01339095
-0.02795368
-0.06152240
-0.03517941
0.00661206
-0.01262062
-0.03875127
-0.06111474
-0.07868636
0.00513792
-0.01012608
-0.05280124
-0.06920158
0.02148683
0.00810259
-0.01011803
-0.00899521
-0.04628757
0.01906613
0.02288562
-0.07052962
-0.06849454
-0.09469268
0.01752338
-0.00546833
-0.02061622
-0.03656399
-0.05349926
-0.07788873
0.01680827
-0.03782308
-0.05927046
0.02033020
-0.07374626
-0.03963761
-0.06894364
-0.01287523
-0.00427308
-0.02953076
-0.00293050
-0.05394210
-0.00089243
-0.08504090
-0.01446736
-0.03063129
-0.06783187
-0.01673551
0.02010526
-0.00078215
-0.04279431
-0.05272407
-0.04063715
-0.08517481
0.01665328
-0.00749637
-0.00943893
-0.06421307
0.01197462
-0.06352673
0.01259165
-0.07861148
0.01690672
-0.03388121
-0.06381293
0.01099689
0.00789930
-0.10324816
-0.10605019
-0.05690098
0.00955111
-0.00885059
0.01553652
-0.05686086
-0.07005252
-0.02557131
-0.00165630
-0.03748834
-0.01755479
-0.07701860
-0.02082461
-0.10082330
-0.04711490
-0.03347846
-0.03623836
-0.09653775
-0.03371322
0.00909003
-0.10476344
-0.00650034
0.03520496
0.00687236
-0.00450636
-0.02096700
-0.08426265
-0.05019278
-0.10755580
-0.02645928
-0.06801479
-0.04497612
-0.04525064
-0.02592787
-0.00486162
-0.05199958
-0.04759298
-0.02810588
0.02678237
-0.06139331
-0.05958884
-0.07305945
-0.10096139
-0.03038080
-0.07514833
-0.06483627
-0.04774430
-0.05306277
-0.07886866
-0.03834942
-0.05837546
-0.04610289
-0.02981983
-0.01796712
0.00817304
-0.08741558
-0.04563770
0.02432747
0.00792049
0.02717770
0.01467624
-0.06359266
-0.00056491
-0.08171172
-0.00693001
0.01257677
-0.06151627
-0.01463752
-0.10197982
-0.00755241
-0.03710249
0.01700368
-0.02536195
-0.03885870
-0.05685291
-0.05082963
-0.03941947
-0.07837693
-0.00980764
-0.04242305
-0.06924757
-0.06530167
-0.07193276
0.02542579
-0.01664931
-0.10215586
-0.06156959
-0.04914817
-0.04483724
-0.03562915
0.02272487
-0.04605985
-0.07710470
0.02240887
-0.06967202
-0.06332468
-0.03453981
-0.05338771
-0.08852533
-0.08492409
-0.03890305
-0.01294643
0.03233002
0.03245246
-0.08883012
0.00107588
-0.00382359
-0.09745669
-0.03699900
-0.10790277
-0.07376584
-0.04178924
0.01826549
-0.07333811
-0.04983490
0.00487865
-0.00796451
-0.05426129
0.00045548
-0.09000799
-0.02785511
0.03248530
-0.05031816
-0.01028720
