0.05306101
-0.01182048
0.07048636
0.02432360
0.08396823
-0.04029983
0.01646889
-0.10352428
0.01105987
-0.03379012
-0.07167788
0.08972482
-0.04492516
0.05201768
0.00414970
0.06814104
0.07416791
0.00437725
-0.04101431
-0.02185979
0.01563671
0.04440902
-0.03813292
-0.02768834
-0.00201390
-0.07722252
0.02521974
-0.09721525
-0.00805091
0.06543869
0.00168661
-0.03382010
-0.02100371
-0.02045101
0.06445992
-0.04507862
-0.02278374
0.03299549
-0.08286737
0.07372839
0.04626955
-0.09643044
0.00825915
0.06947323
0.01256892
-0.04026571
0.00012697
-0.07359665
-0.02724119
0.07135228
0.06851543
-0.05268938
0.02731786
0.16789861
0.03868061
-0.02134045
-0.05185690
0.00840053
-0.14227572
-0.02163077
0.06483603
0.05867564
0.08144827
0.01360778
-0.03126920
0.06806470
-0.06583165
0.08770530
-0.00951786
-0.06773939
0.02066168
0.01267474
-0.04581530
-0.06846979
0.00637264
-0.01469451
-0.01148868
0.06269941
0.16700435
0.04810479
0.05845195
0.05960010
0.09282157
0.05806069
-0.16501488
0.02224868
0.05847458
0.04650730
0.08219619
0.08317599
-0.00770865
0.00478893
-0.00774697
-0.16807967
0.00110414
-0.01470809
-0.02445862
-0.07913151
-0.04099841
-0.06558652
0.04385900
0.13442947
0.01901901
-0.05560974
0.01063370
-0.16590439
0.02879796
0.03663889
-0.07684084
0.05173586
0.02164867
-0.00385970
-0.00727047
0.02035965
-0.09898110
-0.01521549
-0.01811057
-0.04259383
-0.01239413
0.01406662
0.06317113
-0.06014179
0.01727222
-0.05016015
-0.08425268
0.03471338
0.05031658
-0.04559011
0.00026699
-0.00051556
-0.04461493
-0.01731155
0.07220235
0.10026184
0.00629306
-0.08096576
0.03325612
0.05043747
-0.00848936
0.01175365
0.09463779
-0.24337250
-0.02381524
-0.01940588
0.04789880
-0.05183655
0.15718792
0.07636656
0.00638880
0.02388379
-0.01701922
-0.05328926
-0.04455746
0.03312338
-0.07483565
-0.09435730
-0.08180560
0.04412711
-0.01214469
0.00962055
0.03710378
0.05379916
0.04260308
-0.06616584
-0.04593241
-0.04084498
-0.07509344
-0.00654030
-0.03165225
0.07150795
0.07007432
0.00584642
0.07667563
-0.04243568
0.07716945
-0.05681057
-0.03821933
0.08163352
-0.03733355
-0.02252484
0.01236035
-0.05527401
0.04054879
0.06864122
0.02933455
-0.00755636
-0.01122317
0.02401150
-0.02738884
0.03042109
0.02815618
0.02558313
