0.51568943
-0.41568813
0.10591412
-0.19930649
-0.27331442
-0.05065081
-0.40220261
0.78300589
-0.74803865
0.53008503
-0.22302555
0.77238417
-0.75557262
-0.10242853
0.90872109
-0.42790291
-0.16223305
-0.75347626
0.46091440
0.42031085
-0.51636362
0.24954998
-0.55753326
-0.66870826
0.80493599
-0.63548666
-0.35789350
-0.05171217
-0.03796788
-0.30418289
-0.67208666
0.18787499
0.46196079
-0.13794155
-0.65773052
0.77535057
-0.79308599
0.05244158
0.19528192
-0.60524964
0.42031059
-0.36946791
-0.49852201
0.54350924
-0.16700646
0.20634475
0.57986188
0.61299014
0.57425117
0.13521248
0.50846797
-0.69849193
0.53445083
-0.36606082
-0.70022285
0.51559293
0.78237796
0.53845608
0.13458513
-0.70952725
-0.34723219
-0.19899921
0.38982439
0.69256461
-0.26224238
-0.41596669
-0.82605582
0.66528159
-0.71427017
-0.70892757
-0.79253328
-0.43687105
-0.68685073
-0.47733808
0.63705796
-0.57483584
0.57880718
0.77065748
-0.56609058
-0.30239549
-0.76270550
-0.29498842
0.87735641
0.77761060
-0.34802052
-0.48327598
0.83344972
0.31301486
-0.33928916
0.79827076
-0.71280253
-0.13585140
0.62912732
-0.17176297
-0.29561278
0.26868045
0.79459268
-0.49426007
-0.70288485
0.26073658
-0.58410817
-0.44233146
-0.25766659
-0.48653963
0.47589818
0.22660114
0.36624858
0.55495179
0.40660745
-0.03578693
0.44587430
0.05061012
-0.17770495
-0.32253680
-0.74390668
0.07975490
0.63066876
-0.13805991
-0.21323907
0.13518067
0.43900362
-0.46443522
-0.59635508
0.32862380
0.59831607
-0.64877588
0.72141415
0.47648624
0.83703279
-0.88275778
0.92806131
0.21690071
-0.69527227
-0.55503982
-0.61407417
0.42694685
-0.26722607
-0.72774613
-0.23105493
0.18236160
0.19484781
-0.03441819
0.01085623
0.13601084
0.19288675
1.01449180
0.28621531
0.43878171
-0.31999385
0.55808496
0.07549724
-0.49303195
0.21654455
-0.74653870
0.46037146
-0.01309500
0.54854053
-0.33867553
-0.70402628
-0.64198357
0.76647067
-0.46582714
-0.58494765
-0.56330049
-0.44997483
-0.60691333
-0.36571848
0.75784850
-0.79271805
0.88054556
0.07663366
0.37253442
-0.69268507
-0.45228291
0.91252959
0.61059171
0.63275087
-0.06842697
-0.68452036
0.35730949
-0.00240510
0.83680224
-0.55315006
0.44792378
-0.66992253
-0.48597026
-0.51648486
-0.22637801
0.75586307
0.55581486
0.32565820
0.87268317
