-0.04506133
0.05125066
-0.01184469
0.07597435
0.01666613
-0.01971406
-0.00580048
0.03765169
0.01464007
-0.06274937
0.00647126
0.01287578
-0.02007729
0.06273196
0.01630086
-0.00257946
-0.02651936
0.02230992
-0.04350550
-0.05113756
-0.03570209
-0.06471349
0.03299015
-0.01996293
-0.02853049
-0.00095469
0.06765549
0.04661515
0.06417475
-0.02326998
-0.02037988
0.03793836
0.04563049
-0.08015698
0.03361180
-0.01952194
0.02580425
-0.05078815
0.01834354
0.02350519
-0.04156000
-0.04680303
0.02404243
0.00534106
0.05895692
-0.04108093
0.00037734
0.06114452
-0.08209510
0.02265690
0.04934072
0.04973532
0.04516901
0.05625873
0.05270820
-0.00001406
-0.02469311
-0.00943513
0.03744359
0.07004367
0.05206867
-0.03627043
0.04712611
-0.07449754
0.05634604
0.02613094
-0.07512818
-0.04914827
-0.05542516
0.00160004
-0.00148773
-0.03250165
-0.00629551
0.04369463
0.00928214
0.03393443
-0.04164251
-0.00366326
0.00115658
0.03589264
-0.02327593
0.04172925
0.01780039
-0.08820276
-0.06797201
-0.03776589
-0.06494237
0.00900760
-0.01206882
-0.02615933
-0.04089864
0.04762413
-0.06865744
0.06315559
-0.01835369
-0.07417236
-0.05742932
-0.06498989
0.09004575
0.00560678
0.03952032
0.08504899
0.03912146
-0.02182374
-0.01276125
0.02729752
-0.06887196
0.00915343
-0.04224140
-0.06287050
-0.03196674
-0.00667408
0.06048412
0.00040468
-0.06005952
-0.00833989
-0.07072075
-0.06614450
0.04315732
-0.02624337
0.01424896
-0.02814169
-0.06360409
-0.03953765
0.04066759
0.05445923
-0.04733057
0.03055183
-0.04817147
-0.05320184
-0.02658637
0.04957748
-0.04097130
-0.01492043
0.02177048
0.03946906
0.08239803
-0.01887167
0.07846963
-0.03362723
0.00988677
0.00839493
-0.04228216
-0.02382419
0.04707610
-0.00755725
0.05807091
-0.01697125
-0.04305130
0.04580678
0.08040336
0.06023581
-0.03351924
0.06479898
-0.06427339
-0.04140407
-0.04837817
0.06607357
0.04874055
0.06713173
0.00457567
0.00882073
-0.05136283
-0.02454985
0.00562780
-0.04244870
-0.03572491
-0.02850382
-0.03944521
-0.00181123
0.04103526
0.01434636
-0.00415347
0.00319902
-0.03529911
0.02856504
-0.07480266
0.05140264
-0.04553090
-0.07548002
-0.06602560
-0.06653588
-0.01208390
0.00868770
0.02973294
-0.03051142
0.00261704
0.03864344
-0.08223564
-0.07407777
0.02538113
-0.05153986
