Layer: embedding.1.bias
Parameters:
[-0.02647905  0.06279274  0.05729005  0.03983118 -0.03233312  0.04115188
  0.10571175 -0.06949046  0.00366098 -0.03641088 -0.01332356  0.00168105
 -0.03502752 -0.00035723 -0.00650895  0.09294463  0.0096666   0.04259129
 -0.06181382 -0.055172   -0.07360743 -0.03512837  0.07247555  0.00477351
 -0.0417205  -0.01565799  0.01921367  0.02477789  0.01330261 -0.04023292
 -0.04525451 -0.0203602  -0.06701687 -0.03023156  0.06086945 -0.09120326
 -0.04162624  0.02079689  0.01588235 -0.03747826 -0.02900064  0.14055966
 -0.00383774 -0.03662341  0.01699914 -0.01981914  0.04650255  0.02513717
  0.05603243  0.00456587  0.01737722 -0.00205278 -0.03897631  0.02635127
 -0.00486716 -0.0156812  -0.05100638  0.06612341  0.03244388  0.00548738
  0.08131507  0.01974435  0.06018979  0.0468908  -0.03162094 -0.00227818
 -0.07344001 -0.05768194 -0.04085703 -0.01189486 -0.01720499  0.08709599
 -0.02633693 -0.0280147  -0.02365469  0.10141352  0.09800514 -0.05212068
  0.11653435  0.07282567  0.07456434  0.03833344 -0.01022514 -0.08887091
  0.02399001 -0.03538382  0.07219394  0.03948015 -0.03827406  0.0894518
 -0.01378269 -0.00482125 -0.00213646  0.06958358  0.00724986  0.06867807
 -0.07972997  0.00322785 -0.02274945  0.05692948  0.00479601  0.11531359
  0.06153443  0.0319179   0.01807111 -0.0178795  -0.03469633 -0.07767749
 -0.03791076  0.00575524 -0.02034718  0.01227721  0.0080902   0.02264201
  0.06108366  0.00535401 -0.02049597  0.01078302 -0.03882644  0.00579284
  0.0710922   0.04336995  0.01141531 -0.00587904  0.06623602  0.00876784
  0.07713408  0.03676591  0.05152313  0.03215693 -0.01700373  0.02271886
 -0.02947067 -0.02355924  0.16250114  0.06093052  0.08737128 -0.01990794
 -0.02705966 -0.02430374  0.00104699  0.02865403  0.10825089  0.01319447
 -0.00089045  0.04860158  0.07443869  0.07935857 -0.02555911 -0.09492519
  0.01848502  0.0177143  -0.02366878 -0.00339343  0.04991863  0.00102578
 -0.04315229  0.01468353 -0.00610143  0.11215021  0.02231517  0.10981438
  0.05670322  0.15951626  0.14218558  0.00098977  0.03632947  0.05307766
 -0.01683536  0.02902829  0.01697824  0.04182253 -0.01400516 -0.04366314
  0.07411556  0.03712444 -0.02492331  0.00485605  0.00371773 -0.01398145
 -0.01012085  0.02354048  0.01893374  0.04980446 -0.02486377 -0.07826399
  0.00254929  0.04351334 -0.06705773 -0.05619957 -0.01145536 -0.00598395]

