0.06134006
0.05202604
-0.03778487
-0.00852696
-0.04655216
0.09476199
-0.01202581
0.02501333
0.00824877
0.00398409
-0.05725901
-0.02867818
0.04962902
-0.05637510
-0.03398313
0.02636591
-0.04214004
0.02425917
-0.03342133
-0.04976596
0.07020013
0.06184619
0.00831161
0.01872784
0.04020224
-0.05760437
-0.00331612
-0.01521585
-0.02899045
0.07367223
-0.00373852
-0.05436532
-0.07119824
-0.00342908
0.04767367
0.00720460
-0.02687230
0.08635192
-0.05950800
-0.04140051
-0.01219196
0.04398649
-0.00661933
0.09846511
-0.06277379
0.05841304
-0.00993187
0.00212757
-0.00176864
-0.01117148
0.01954278
-0.03350052
-0.06176341
0.00469970
-0.06491230
0.00070314
-0.04784982
-0.00160643
-0.02818445
-0.05547581
0.02812169
-0.03888802
-0.07212877
0.02438743
0.00807508
-0.03862466
0.02303939
0.02343759
0.05854193
-0.01020232
-0.07036472
0.02743189
0.04304015
0.06840157
-0.01941688
-0.03040340
-0.00137582
-0.00900388
-0.01233665
0.00291946
-0.05158512
-0.02442968
-0.05387415
-0.03928642
0.04577171
0.02957063
0.08381347
0.03623725
-0.02277210
0.07215102
0.01925179
-0.01156080
0.02733940
0.06647399
-0.04293759
0.01916825
0.04337128
-0.04333074
-0.06528896
-0.01609893
-0.02871842
0.07259724
-0.02966251
0.03296401
0.07282845
-0.03629882
-0.04961355
-0.04133865
0.03049797
-0.00543388
-0.01880797
-0.00051831
0.07393742
-0.04405031
-0.03261995
0.00458383
0.03699398
-0.07630210
0.02480612
0.06995831
0.00876886
-0.00659454
-0.04503281
-0.06733263
-0.05475987
-0.07913084
-0.04287952
0.04827432
-0.07141711
0.04529127
0.03156482
-0.04063607
0.05060440
-0.03009742
-0.01292468
0.02221986
-0.01890882
-0.06406441
0.04170186
0.02139968
-0.01395813
0.09046028
0.06999844
-0.06286401
0.02948192
0.05491566
-0.01102406
0.05513440
0.01187254
0.03332254
0.06817374
0.04613569
0.03609907
-0.05669223
-0.09149918
0.10000239
-0.05498323
0.02187265
0.05888537
0.02671108
0.06151502
-0.03718671
0.02367043
-0.06470986
-0.01685396
0.08590618
-0.05091292
-0.04596566
0.05085964
0.00573283
0.01736598
-0.04413607
-0.02628079
-0.00931518
-0.03043624
-0.02786605
0.00992709
-0.01497354
-0.01484699
0.06916173
0.01569596
-0.00409520
-0.01142544
0.05837364
0.01851606
0.03273023
0.06663238
0.01794928
0.03488636
0.04557784
-0.03868137
-0.00595846
