-0.02568337
0.00264261
-0.04348764
0.02227321
-0.04875374
-0.03337941
0.03453654
0.04211262
0.00403615
-0.06744408
-0.00145836
0.05787522
-0.03438478
0.00388993
0.06158232
-0.06590082
-0.04441376
-0.00409047
0.06491195
0.00307782
-0.03087685
-0.07280871
-0.03926548
-0.04716941
-0.03269191
0.03898179
0.02759190
-0.06394117
0.05098131
0.02431424
-0.01194897
-0.03428807
0.07154471
-0.04278976
-0.01258196
-0.00893128
-0.08265347
0.04673550
-0.01031189
-0.04006974
0.04496661
0.02551023
-0.04852056
-0.02951078
0.00035009
-0.00455075
0.04836930
0.05402753
-0.02156190
0.04500296
-0.05112546
0.02798916
0.06875559
0.04488583
0.04969756
-0.04606340
0.02049901
0.02741925
-0.02792940
-0.01409438
0.04144254
0.02264389
0.00835906
-0.06777736
0.03013473
0.01761306
0.03563916
0.01400685
0.00354664
0.07284393
0.05724536
-0.06566767
0.02069283
-0.03531671
0.09162123
0.00033701
-0.02388999
0.01054193
0.00631157
0.04605427
-0.02686998
0.06870334
0.01873989
-0.02877565
-0.05458651
-0.03072817
0.07732408
-0.01775517
0.05096732
-0.01753824
-0.01225334
-0.04160357
0.00413165
0.00015744
0.04344176
-0.01415750
-0.00322254
0.00289082
0.01931706
-0.06120008
-0.03910813
0.04126752
-0.02117102
0.02852998
-0.01979245
-0.05909763
-0.00365766
0.00742397
-0.05289740
-0.00552982
-0.06933450
0.00152581
0.02993589
0.04067579
0.00386800
0.03687504
-0.03970258
0.04724116
-0.02412711
0.04691154
-0.03644970
-0.07737485
0.05865195
-0.04076467
0.05356885
0.02902918
0.00852491
-0.03691206
0.00297654
0.07759249
0.07234738
0.02860761
-0.04949899
-0.04026817
-0.02758520
-0.01050495
-0.02238516
-0.00039363
0.04051246
0.01918481
0.01488090
-0.07443159
-0.02620882
0.02190334
0.04884063
-0.06393615
-0.01819246
0.00737288
-0.04865367
-0.01097870
-0.03235446
-0.04972991
-0.04196148
0.02410451
-0.03720895
-0.04903358
0.03425077
0.02636048
-0.04951109
0.00943215
-0.02172448
-0.03002216
-0.00064265
0.05450921
-0.05224752
0.00873730
-0.01689969
0.03136191
0.05273620
-0.01781805
-0.03331069
0.01456261
-0.01104872
-0.04995884
0.04782194
-0.00786738
0.01101306
0.03324653
0.05678184
0.01777820
0.04984567
0.05601576
0.01325120
-0.06119220
-0.01614129
-0.04217882
-0.00199632
-0.03878106
-0.01904646
0.02407300
-0.06859500
0.00499088
