-0.06282530
-0.05992474
0.01968895
-0.10500229
-0.01262370
-0.00046200
-0.06040283
0.04306031
-0.06031575
-0.01178680
-0.01216439
-0.00888901
0.00166185
-0.03566151
-0.07225598
-0.06772041
-0.05983150
0.00010516
-0.00016534
0.00069006
-0.04884909
-0.02113186
-0.09701479
-0.00314895
0.00801668
-0.07504979
-0.05207488
-0.06404477
-0.01651856
-0.10034048
-0.01974406
0.01457986
-0.09605369
-0.07981329
-0.01551124
-0.05141344
0.03588532
-0.03916254
-0.01804399
-0.04757487
-0.06040344
-0.05168751
-0.01283999
-0.05048476
-0.05042550
-0.05375407
0.01558215
-0.08296107
-0.03950366
-0.05385531
-0.03247944
-0.05042177
-0.05464070
-0.00656019
-0.00948622
-0.05412287
-0.03798494
0.01930673
0.00197613
-0.07874598
-0.00040072
-0.09410250
-0.05121357
-0.00521066
0.04312872
-0.06132152
-0.07687923
-0.00437153
-0.01858711
-0.01161926
-0.02274135
-0.00027308
-0.07483266
-0.03773145
-0.07102919
-0.03407007
-0.05720760
-0.05821320
0.02468965
-0.04676960
-0.07308963
-0.05426149
-0.01567602
0.01149453
-0.06847295
-0.06409423
-0.08730696
-0.05991086
-0.03548982
-0.00367385
-0.02718927
-0.11224992
-0.01183833
-0.02491759
0.00645072
-0.03831438
-0.03958924
-0.00955058
-0.01843561
0.01501473
0.03485079
-0.00590900
-0.02147279
-0.09348382
-0.07787655
-0.04122765
-0.01390199
0.01943414
-0.09216899
-0.00219165
-0.08875389
-0.07613141
-0.01258298
-0.03582823
-0.05310889
-0.10296296
-0.09619669
0.00763886
0.00005629
-0.00113609
0.02936453
-0.06870472
-0.09823608
-0.07965215
-0.07104289
0.02013666
0.01085690
-0.09037147
-0.09281281
-0.02222270
-0.04411638
-0.01056401
-0.01371330
-0.02058633
-0.02030430
-0.05508282
-0.03518089
-0.05689626
-0.00047451
-0.02846369
-0.06298640
0.02924338
-0.05062464
-0.02536071
-0.02595020
-0.03545356
0.00583052
0.01614020
-0.01801018
-0.02550511
-0.04503715
-0.07002750
-0.00888734
0.00447760
-0.08405570
-0.09892122
-0.09527165
0.01417417
0.00608141
-0.05905182
-0.04641518
-0.05080353
0.00197267
-0.00715334
-0.06519651
-0.08860321
-0.09032567
-0.02023083
-0.07192086
-0.07949024
-0.03104862
0.01522390
-0.04025293
-0.02694159
0.01557233
-0.06926163
0.01163884
0.00414197
0.00902977
-0.00223437
-0.10722426
0.00308649
-0.01099153
-0.06863966
-0.08168928
-0.11235847
0.03449374
-0.01231234
-0.06604297
-0.00769735
0.03751455
-0.00252015
-0.07266070
-0.07869527
0.01632634
-0.00277051
0.02076405
-0.10687144
-0.00189054
-0.09556328
0.00368412
-0.03706872
-0.00551529
-0.06076872
-0.02095034
-0.06033042
-0.02193550
-0.01773456
-0.11540353
0.04454130
0.02774349
-0.00076732
-0.05539237
-0.00743670
-0.04623907
-0.05012427
0.03134591
-0.00244986
-0.01738705
-0.03270781
-0.01648426
-0.06417621
-0.01362921
-0.04821226
0.00010296
-0.03117125
-0.02215814
-0.00432686
0.01317953
-0.01655971
0.02018839
-0.03877715
-0.01619937
-0.03231221
0.02580524
-0.05713723
-0.02013738
-0.03055666
-0.06646346
0.03198265
-0.02299814
0.01714645
-0.09489579
-0.11200732
0.02385775
-0.02119011
-0.01647064
-0.08085098
0.00542129
-0.00134403
0.00935850
-0.08703484
-0.01021688
-0.02612728
-0.05766375
-0.03427383
0.01657094
0.00404398
-0.04113901
0.00188184
-0.02179855
0.04041843
0.00264359
-0.09230457
-0.09522354
-0.04759036
-0.00550369
-0.00719841
-0.10678218
-0.04685060
-0.02613742
-0.00225946
-0.00804201
-0.04485547
-0.08924130
-0.06217448
-0.08993640
-0.06165969
-0.05071375
0.00331782
-0.07254428
0.01963855
-0.07909187
-0.09273425
0.01035071
-0.06964336
-0.03415100
-0.04459715
-0.00061513
0.04166142
-0.02629784
-0.10016690
-0.03217416
-0.02865846
-0.11476935
0.00155428
0.01230143
0.02101087
-0.06249088
-0.05584307
-0.08649626
0.00328535
0.01108306
-0.00439092
-0.05655397
0.02130512
0.02074628
0.00336953
-0.06145166
-0.05077641
-0.04731837
-0.03679989
0.01474181
-0.10250810
0.00724389
0.00139073
-0.02988551
-0.08252883
-0.01192841
-0.10091809
-0.01053251
-0.09506878
-0.03355994
-0.08785550
-0.07806335
-0.00523777
-0.08157859
-0.07980060
0.00970082
-0.05333899
-0.08951662
-0.07738589
-0.02445084
0.03424085
-0.00126896
0.04095558
0.00342030
-0.09811102
-0.05291993
0.00995233
0.03543154
0.04352579
-0.09819629
-0.05193024
-0.04671014
-0.01147964
-0.07606454
-0.04678398
-0.09645326
-0.02336637
-0.03963583
-0.02894993
-0.07479050
-0.04849846
-0.02877306
-0.02026421
-0.10133638
-0.09473481
0.00186928
-0.09198020
-0.01486140
-0.02273027
0.00468256
-0.08318017
-0.06754900
-0.03324442
-0.05766951
-0.00541411
-0.02088097
-0.00261635
0.02568645
0.00448695
-0.01935129
-0.01696352
-0.09401018
-0.00520251
-0.05624329
-0.09400501
0.01932479
-0.08458152
-0.02101181
-0.02108770
-0.06649987
0.03825094
0.02794896
0.01361604
-0.02210543
-0.07097808
0.03118505
0.01665040
0.01336911
-0.09490071
-0.04191253
-0.08157498
-0.00834719
-0.03152584
0.01436803
-0.03309400
0.02876161
0.01696843
-0.09038313
-0.00852822
0.00911663
-0.04534463
0.01864743
0.02875793
-0.08040731
-0.05928797
-0.07906850
-0.02054475
0.00017127
-0.04678681
0.02087895
-0.01899163
-0.09420425
-0.06870342
-0.04904086
-0.05248194
-0.05833933
-0.04174932
0.01188999
0.01035341
-0.05081950
-0.07352962
-0.08890791
-0.08933372
0.01642455
-0.03767746
-0.02336880
-0.08121722
-0.09544848
-0.07236340
0.01475676
-0.01447138
0.02451468
-0.03131318
0.03749568
-0.00261440
0.00083677
-0.07520477
-0.03900656
0.01271297
-0.06155077
0.00699038
-0.00292465
0.00937145
-0.08319610
-0.06495548
-0.04913919
-0.03183965
-0.02186151
0.01653085
-0.00622759
-0.08527867
-0.02245667
-0.09035989
-0.08676119
-0.10424596
-0.10278059
0.01821208
-0.09573175
-0.08652718
0.01375448
-0.04732827
0.00881407
-0.07552528
-0.05055685
0.00668612
-0.05632215
0.01877147
0.00916026
-0.08135183
-0.03259841
0.03619520
0.01576480
-0.00701075
-0.07240394
-0.01149708
-0.07281678
-0.01194635
-0.00519233
-0.01091898
-0.06866091
-0.01025927
0.01004310
-0.02001845
0.02107829
-0.06107390
0.03474961
-0.05105492
-0.10279344
-0.02040533
0.00559359
-0.07219138
-0.08243158
-0.10333001
-0.05982956
-0.01174089
-0.00062885
0.01278092
-0.00314203
-0.00272092
-0.03293290
0.02314701
-0.03072782
-0.08973286
-0.05394912
-0.03673689
-0.02036024
-0.02214339
-0.06232823
-0.02381007
-0.09112064
-0.04942515
-0.08907181
-0.00755245
-0.04467189
-0.10352837
-0.08105926
0.03714123
0.00608359
-0.05072699
-0.08537006
-0.02911055
-0.06426034
-0.01276806
-0.04702830
0.01109759
0.01063977
-0.00035751
-0.00137445
-0.02377990
-0.09425484
-0.10797142
-0.06000711
-0.00167476
-0.09290045
-0.07352698
-0.09329319
-0.05383541
0.04005329
-0.04963624
-0.00135888
-0.09825095
-0.08506939
-0.12861542
-0.04028688
-0.06491297
-0.07611161
-0.00450214
-0.01814095
-0.09078487
-0.00677193
-0.08491453
-0.04002045
-0.00967455
-0.01188943
-0.00713087
-0.03410972
-0.06579924
-0.00743752
-0.08758161
-0.03693012
0.00807907
0.02856226
0.00389281
-0.08179387
-0.01018128
-0.00627074
-0.01480831
-0.05631584
0.01666899
0.04217703
0.01263726
-0.08492512
-0.06235857
0.00696727
-0.08717269
0.03568548
-0.07436053
-0.02792827
-0.08082589
-0.09585760
0.00639339
-0.04808680
-0.04529174
-0.05070847
-0.01929292
-0.11107002
-0.00983967
0.01402838
-0.02443049
0.01962218
-0.06333691
-0.10807381
-0.01983905
-0.10578186
-0.04297795
-0.01955851
-0.00178472
-0.09288124
0.01704320
-0.06335779
-0.06991196
-0.11855912
-0.01705749
-0.05402005
-0.00325525
-0.01795470
-0.07789346
-0.00436212
-0.01843203
0.02419471
-0.07318700
-0.04047273
-0.00634964
-0.00394921
-0.07670237
0.01202148
-0.06202564
0.01565167
0.00907974
0.03313727
-0.08167246
-0.05711686
0.02473208
-0.05966773
-0.08001586
-0.08488970
0.02240772
-0.04457481
0.03121482
-0.03123981
-0.01651606
-0.02238957
-0.06018049
0.02471925
-0.10407091
0.02352208
-0.03426575
-0.02722635
0.00872342
0.03502354
-0.04831549
-0.05810848
0.01233505
-0.01806771
-0.07403990
-0.07479282
0.01355409
0.02960284
-0.02570362
0.01355141
0.00751163
0.04053295
-0.09473169
-0.00517597
-0.00795221
-0.06963736
-0.02013633
-0.10274132
-0.05987095
-0.00017819
-0.09907725
-0.09398698
-0.01187799
-0.02090866
-0.07226443
-0.06833308
-0.01959676
-0.07389373
-0.06359988
-0.01460331
0.02149057
0.01909140
-0.07817655
-0.09576486
-0.06831425
-0.06807579
-0.09359246
-0.03109001
-0.06144245
-0.08391881
-0.03959648
0.00827475
0.02478477
-0.01293114
-0.02777958
-0.00694102
0.01621277
-0.04467412
-0.05316762
0.01201533
-0.01581339
-0.10346460
-0.01845705
-0.05187082
-0.03359243
-0.03724143
0.02467688
-0.03454280
-0.01771929
-0.05753351
-0.03076924
-0.03274365
-0.03055985
-0.05852203
-0.06103980
0.01460323
-0.01945923
-0.05972772
-0.07235125
-0.05723144
-0.02352982
0.01845318
0.00196235
-0.04691355
-0.03317519
-0.08830401
0.03009553
0.00313311
-0.08243037
0.02170513
-0.07244896
-0.09861834
0.03560976
-0.06922971
-0.11074029
0.02096963
-0.09177098
-0.07877948
0.00422742
-0.03429786
-0.07731146
-0.09482224
-0.03403082
-0.06618091
-0.00571379
0.04650818
-0.04029172
-0.09051182
-0.07682726
-0.03880541
0.02337330
-0.00185738
-0.08747754
-0.02234107
0.01112026
-0.01942112
-0.02536965
0.00955746
-0.04259337
-0.05377515
0.02189928
-0.04405602
0.02889410
0.00939176
-0.04520353
-0.07190318
-0.00243004
-0.10341302
-0.08681013
-0.02562789
-0.02538081
0.03101260
0.02698525
-0.01654377
-0.00846869
