-42
-3
-34
-84
-11
36
21
-57
27
54
1
6
17
-2
78
-6
29
0
57
17
-29
-5
19
-52
29
0
18
11
-1
42
30
-9
-19
-18
-27
8
27
-19
-10
-32
10
-5
-29
-58
33
31
-33
-4
5
-75
-33
-24
-59
64
13
14
43
55
-30
-33
39
-7
-64
-6
28
13
0
0
29
10
-36
11
45
4
-24
-57
15
-21
-38
-40
10
23
28
20
-41
-2
25
43
45
37
7
2
-36
23
-25
17
-36
17
0
-38
7
24
34
-43
-1
71
-19
9
27
14
-48
19
-42
-63
-54
21
-44
13
4
-15
15
-4
-58
11
47
-41
24
-33
-43
-31
53
-12
-61
6
10
-47
-12
-11
9
-40
22
-25
61
59
-28
-16
17
-10
-46
-21
64
-16
-11
36
-9
18
-23
-13
40
-27
-21
-26
-61
23
28
46
-20
-17
7
24
-4
-46
34
39
28
-36
3
-48
-25
-17
-52
52
5
-30
-7
-45
-17
1
-10
47
-26
45
-3
35
49
38
-25
4
-12
21
-2
4
-3
15
-18
-56
-27
-59
-69
81
-13
-61
-10
10
-61
74
51
5
10
-6
30
-45
-20
42
45
56
-73
17
9
-32
8
26
29
26
99
-27
16
-29
-13
-36
10
2
-20
-36
-27
-67
-33
-3
36
-15
33
2
11
39
64
-9
24
-21
23
44
33
-52
43
-78
1
12
-49
14
21
-27
-4
-42
-13
-57
49
27
64
23
9
21
-4
10
-39
39
59
-29
-18
81
48
-68
-16
30
22
33
9
36
-56
15
-34
2
-34
31
76
-53
-53
13
3
5
20
-48
-28
65
-44
106
-13
-34
53
40
60
9
-1
38
-40
70
-25
46
13
35
24
-20
37
-11
26
4
-50
6
30
-56
-20
-21
9
4
-60
-4
-27
-44
-6
-15
17
-44
52
31
0
33
-1
-25
-1
49
23
-18
36
3
-22
-10
21
38
46
6
-17
-10
7
-1
42
-15
5
-7
-16
0
1
0
-3
-25
-14
-5
-46
0
65
13
7
-42
-8
30
-10
34
22
-68
-30
34
10
-58
-12
-8
-23
42
-12
-3
-27
28
-15
22
-40
-1
10
-3
-25
4
29
14
-3
33
4
-26
18
26
11
27
-25
36
-42
-21
26
-19
-2
41
19
-58
23
-39
-35
-27
14
6
-2
-4
-96
25
43
-8
-14
-26
-40
67
28
-4
-12
1
-38
14
-6
-4
65
-34
-57
-15
-43
8
-12
-3
-39
16
47
15
0
-46
-10
12
37
3
60
38
-9
-13
-3
14
-17
12
40
-3
50
-14
-11
-14
-8
28
9
-49
-33
16
-46
-33
-16
-24
-61
6
-28
21
-5
14
14
28
-35
-35
3
12
23
9
-3
11
29
-14
2
25
10
-17
4
1
-21
-40
-12
-4
22
-31
-4
17
-22
9
-21
-19
49
39
2
-8
12
16
-55
22
-15
36
50
-48
-23
-10
6
-61
-28
-63
8
3
-54
8
-21
-13
41
-3
17
-8
12
2
7
16
52
24
0
-3
-46
-7
34
9
-24
-39
-36
-21
12
49
-20
78
49
-69
-32
-36
-16
24
13
45
-26
-12
22
23
31
-57
-14
-63
18
-21
2
-2
-25
-38
-73
5
-60
33
49
-60
-9
-35
16
-23
30
-13
7
38
41
-48
27
-46
-11
-6
4
39
-56
17
21
43
43
-48
22
4
-51
-10
-46
-62
-4
-33
-3
35
0
-44
47
-38
22
-14
-49
33
50
0
5
6
7
-72
-1
-42
51
20
32
6
48
8
-4
1
-12
-49
-65
3
-13
-37
-54
-29
0
-58
51
29
-48
74
4
-23
-20
-6
-59
-19
26
-8
-24
-48
2
-42
-14
-35
28
-11
-27
64
8
-43
-24
16
7
72
-13
1
-57
-7
-16
-52
-33
-24
-45
-8
23
-41
-55
-24
12
28
31
-21
-24
6
-19
0
-31
-47
50
-3
-8
-26
-21
-21
29
-17
-90
-26
-2
-64
-15
-7
19
-33
15
-8
-17
30
-50
44
3
21
-36
27
8
-4
0
-23
14
-27
26
-9
-61
22
8
-22
-57
3
7
-28
37
14
-45
20
9
24
65
57
-64
34
18
48
29
32
12
-42
68
6
38
24
13
2
-17
9
-30
25
11
-19
25
16
-35
11
-34
32
-39
-17
65
38
51
60
-49
90
18
33
-4
64
-49
-13
24
-27
-31
1
52
14
43
-18
55
42
65
-23
-60
3
-14
-22
5
-52
-2
54
-45
71
8
17
10
-28
-1
9
-38
22
27
28
7
-13
22
-13
-26
-20
7
42
-17
-24
23
46
-16
14
9
-43
-59
26
-57
-33
4
-55
31
40
24
60
7
46
28
24
-12
0
13
22
-21
28
-9
5
10
7
26
-8
28
-6
-79
-25
5
5
52
-30
-22
15
22
6
12
-10
-11
27
-34
55
26
1
-11
13
-2
-40
8
6
6
-1
-3
18
-41
-9
8
-31
-19
-44
21
-15
-7
28
2
23
-78
-15
-25
44
34
-17
24
11
4
-8
-40
-33
-63
-20
-4
28
-75
-13
-5
32
3
-25
-51
-51
-3
-2
4
-30
9
-9
15
-24
-13
30
20
11
24
-28
22
-13
-23
33
7
25
43
25
-32
-57
58
14
41
-71
-5
28
-54
28
10
15
-2
32
-67
-4
-8
10
0
-26
-50
14
-21
50
-14
-19
31
52
34
-24
14
-14
-45
10
-57
-57
20
-11
12
7
-1
12
-33
-33
-58
24
-56
15
-12
-2
12
-51
15
-17
31
44
85
20
-18
-9
-3
-42
-44
5
49
-27
42
-34
30
14
26
-42
-9
22
31
-18
-27
-55
30
-35
-60
33
45
37
-16
16
-43
6
-30
-65
82
17
5
-45
60
-10
-28
25
58
-11
24
34
14
3
-59
-24
37
-38
24
-34
-50
-24
-3
18
-33
-11
13
-26
6
-22
22
18
14
40
47
6
23
13
6
-95
-33
-60
-20
6
-4
54
-28
-35
36
5
7
7
-31
-4
23
3
42
22
25
3
-45
-40
-56
43
80
-27
0
-2
40
19
6
-15
6
-13
6
-14
6
56
21
-31
19
41
-34
11
-10
34
16
-10
3
4
-58
46
3
7
-20
4
8
45
35
21
-10
95
0
31
-8
-38
-19
8
-10
-52
33
-65
25
46
-36
32
25
8
53
3
-7
13
-10
-17
9
-12
14
-25
33
-57
-3
-46
45
-24
-22
-57
5
77
4
4
0
-1
-14
22
40
69
44
-3
51
-22
-39
-3
28
16
25
45
16
4
-13
-8
-7
37
-36
-16
-11
-68
-35
-3
-6
29
-18
-66
46
35
20
-14
63
4
-51
-57
-43
-44
42
3
4
9
24
34
2
-70
-10
65
-8
-18
15
-39
-41
7
56
5
3
50
-11
-27
-50
-21
35
-30
45
-33
22
-30
-4
54
7
-11
43
6
-23
9
-42
-20
24
21
28
-55
15
35
-34
22
43
7
-4
17
33
1
-19
-18
-70
18
-22
58
-27
-5
-12
2
19
-27
-24
-4
24
-61
-59
-5
-23
24
-19
39
-1
16
25
-2
-16
5
37
34
-22
-12
13
-48
-1
-8
32
5
-25
37
42
45
44
-121
-31
48
16
-33
-6
-38
108
-65
-50
-4
41
22
37
44
67
29
4
-42
-41
3
-14
30
15
-38
-20
-21
-9
7
61
-22
-20
13
-50
-19
-23
0
2
-15
-53
-2
-24
-37
24
43
-13
14
-30
24
-28
51
-36
5
-25
-1
-6
32
9
-55
29
-41
10
19
-60
-23
8
-9
-14
27
12
36
43
55
-44
22
53
0
-2
29
54
36
24
-45
31
-60
43
43
-40
27
18
-5
24
-22
23
-23
-27
2
48
45
45
-48
-45
-19
-17
-15
14
25
34
54
25
-44
22
-19
27
-28
34
-11
-71
84
13
-27
26
38
-11
35
-16
-18
20
8
-15
-16
-32
-36
58
4
13
-10
49
-13
-15
-25
65
16
-32
43
-4
-46
-40
56
50
0
-37
52
40
-11
11
-70
10
-28
-21
40
9
15
-58
-22
17
60
11
1
-51
-46
-22
-5
-9
-32
1
31
6
1
-8
-27
11
29
28
104
56
-3
-28
-68
8
41
14
-81
-64
12
-3
-61
19
-26
49
-20
2
0
50
-20
18
-9
-9
86
31
-20
64
-12
21
8
11
30
-4
-5
13
5
19
34
3
36
33
-3
5
62
-59
-22
9
5
-52
-47
-53
-6
3
13
11
19
-28
3
-40
10
-23
47
25
-14
47
-6
-22
-81
-76
-11
-34
39
37
-9
47
9
51
20
44
86
-13
7
49
11
-14
17
51
7
13
-26
-4
39
0
18
-9
-5
16
4
70
-29
59
54
-19
-11
-30
45
28
5
-45
18
30
-24
37
-8
23
25
-12
-19
-6
78
-6
-57
-8
-36
-85
52
22
16
-30
30
-2
7
-21
-52
-14
-11
29
-27
89
-25
-8
14
41
37
19
13
68
57
21
-29
-34
49
33
-23
4
51
32
-40
94
63
22
-67
33
-59
29
0
10
47
-58
16
-76
-30
19
65
-48
-43
-30
-30
22
21
-52
21
-71
-2
-33
41
-21
11
7
-14
-44
48
47
27
59
-12
-4
-1
-43
-12
58
-22
6
8
30
-78
-25
-3
-11
15
17
-45
36
54
-11
-16
-33
25
13
-54
-83
51
78
-9
-8
27
26
-16
2
61
3
-47
-63
-17
-9
-49
18
100
30
-5
-14
-23
34
-16
-25
-45
-11
-80
-7
14
-60
33
-5
-37
-31
25
-78
38
3
10
-35
-49
17
-6
-26
22
16
-10
-4
-6
-17
17
-9
-43
-3
30
-11
-52
0
-3
-9
1
-7
-50
20
-20
-8
-40
18
-3
1
-13
-83
-2
66
43
-22
-53
39
-17
-34
-48
-13
4
19
-11
-62
-78
-30
-26
41
18
44
79
10
-55
-18
17
-1
-43
3
-17
66
-13
8
-22
-36
-2
-4
7
-12
-59
-30
-23
45
26
27
2
32
35
13
21
-28
9
18
-3
-21
-26
68
-25
-25
31
-5
-38
-35
-52
6
46
-39
-45
-57
-20
32
18
-18
16
-34
22
21
-19
44
-27
34
9
6
26
50
-2
-31
24
-14
-30
14
85
40
-11
51
-71
47
36
-43
-57
4
-17
67
-7
41
-10
76
0
-17
-11
35
-12
12
-19
21
-6
13
-27
50
-82
-48
-11
-31
59
-4
-23
-1
-19
2
49
-20
18
-21
34
-38
42
-38
3
3
-35
-71
-20
-16
30
6
8
41
-28
-11
-45
33
7
21
26
-67
12
-5
-38
-45
1
-66
-23
-5
30
52
34
29
-35
50
20
18
99
-45
16
21
-9
25
36
34
10
43
5
20
19
19
-1
-1
4
-6
19
54
-23
-32
-4
-15
61
-15
-22
17
-11
-28
1
-8
30
-15
47
-12
31
18
30
4
34
10
14
-1
-10
-11
33
38
-11
8
27
-16
-21
-17
-99
-54
21
-16
41
7
1
-59
-82
11
23
38
58
18
-16
-15
-26
-43
-8
39
10
2
12
27
0
27
22
39
-52
-32
-77
8
52
12
29
-15
-18
-15
11
-6
18
-77
-40
14
-17
-3
-53
-6
17
-14
0
32
-33
-4
29
6
19
28
-6
-29
63
9
31
-79
54
14
-11
46
-57
-29
9
-39
0
-39
-24
11
-19
-8
25
-72
7
-16
24
-68
4
-3
56
-22
20
43
39
7
4
1
-16
53
12
20
5
10
-24
-14
-13
-12
-58
13
31
30
-50
-18
-2
6
8
48
36
67
0
-22
5
1
-37
-5
-6
63
19
10
17
33
-36
-17
7
-51
11
13
47
-13
37
-38
-32
-38
-51
-22
29
84
35
-19
16
-33
3
-14
-33
27
37
28
41
34
62
6
-20
19
7
-27
-5
-19
-16
10
-25
72
37
-9
-1
-32
8
-37
-41
-7
-47
4
-13
21
-36
-22
-22
-18
19
48
22
-7
34
13
27
-38
45
-51
14
55
22
5
-6
34
25
-13
17
3
-19
18
38
33
49
-41
-32
-14
-50
-21
-37
27
-10
46
19
34
22
31
-50
15
-4
25
-48
67
-18
-35
-46
-43
77
0
-2
-36
97
-13
-3
-27
11
-3
-31
-13
-22
-23
14
-33
-5
51
-28
10
-51
-3
-11
-26
15
17
37
33
-65
19
24
24
49
-32
63
39
41
-40
-28
-53
-5
4
-47
21
29
13
-22
-36
11
42
-33
4
76
-10
-5
56
12
31
-18
20
-9
16
7
17
67
77
11
63
48
9
-91
-5
-27
10
-47
34
-38
-45
17
-3
62
-13
25
-16
25
-57
-55
-29
-2
63
41
-60
0
59
-30
16
-46
1
23
-46
11
-8
-7
80
19
5
-14
-22
2
30
19
24
17
7
29
22
31
1
-24
18
1
-20
-17
-45
-30
54
69
10
27
-30
25
29
-35
-19
-82
29
33
7
-10
0
48
-18
-6
-7
11
-17
6
-13
-57
25
45
31
19
42
-43
28
27
26
-39
-17
7
4
114
-23
-21
-17
74
65
8
34
-59
-7
-18
-7
-4
-51
12
-20
-49
-17
34
53
-1
9
15
41
-52
-11
27
49
-67
-37
-26
-6
32
7
57
-13
-17
-48
64
13
3
-23
25
-23
45
-63
-28
-38
15
-15
65
13
-3
-22
57
-11
-16
49
-53
27
-9
-10
-38
-40
17
33
26
14
12
-16
76
62
-84
-3
21
31
12
-13
-7
31
-6
8
8
-2
31
-33
30
-11
-16
-59
42
40
7
-15
-2
-31
45
-5
10
22
23
66
-75
15
3
-65
71
-7
78
64
-44
-55
30
29
29
31
23
17
-64
-67
-43
-33
30
-1
27
-21
22
-27
23
23
22
40
76
-9
-6
6
-12
-24
70
-22
-6
20
24
-26
-15
-84
22
-15
-39
-5
10
-25
16
9
-55
13
-46
5
30
-2
-1
34
34
9
22
18
30
8
5
60
29
21
13
36
38
46
-34
-13
-13
15
-3
14
56
-43
-33
-27
32
-37
33
-31
31
-24
27
9
-16
-60
14
-55
-9
-15
34
26
63
-1
11
66
-14
-69
32
3
-28
-35
25
15
20
-34
-24
-4
-26
-4
41
12
16
36
-18
4
-1
24
-56
19
-23
20
43
13
-50
-18
-6
-31
50
31
77
30
4
51
-68
-53
-33
-42
45
21
11
76
-34
49
55
36
27
11
2
22
-71
10
-60
-52
9
0
-78
49
20
44
-20
19
-22
0
16
18
83
-46
46
3
10
-4
37
30
72
-23
29
-14
66
-28
82
-15
20
71
43
11
-45
-31
14
-23
50
37
41
21
12
74
-53
-114
98
-98
-54
20
98
93
30
27
-64
44
-35
27
61
31
-4
17
-25
-72
55
11
15
-27
-76
-49
67
14
-18
-13
18
-33
-39
-80
-52
-3
64
-24
0
-29
-17
-27
36
25
12
66
-43
-15
-27
19
15
-29
-33
-12
84
8
21
-95
-48
-21
-19
-12
71
-42
56
19
-55
-98
-18
-22
14
-82
48
73
0
-22
-111
75
68
-5
4
43
-48
30
-48
23
-5
15
57
25
64
-34
-45
12
-17
-19
-28
38
8
93
0
14
-46
-13
1
-16
5
-2
-75
-29
61
10
-104
-35
23
-13
17
-1
-5
42
42
-54
76
4
-44
-47
-49
9
57
20
-32
-8
33
12
-42
24
-24
0
41
-23
-49
-11
-22
-37
19
21
24
50
30
-20
57
16
-27
6
-5
-10
-7
-40
-10
25
-42
28
20
-52
19
24
2
-2
74
-46
-8
0
24
-34
-28
-38
-22
11
27
22
-44
16
-14
-41
46
23
10
12
-5
3
17
14
34
74
35
25
-27
-66
39
23
21
31
9
46
63
10
-26
52
1
38
4
-117
-23
-59
-20
0
41
-17
-66
23
-14
-13
-56
-59
3
44
8
-45
-54
-19
-5
11
52
-26
-19
3
-29
27
-26
33
1
-10
4
35
-8
13
-13
10
37
12
4
-37
-24
23
-38
36
-27
32
-39
-38
34
1
29
5
-14
-33
36
18
-88
21
-39
-3
-10
10
-18
-69
-45
-14
37
1
34
27
-8
13
15
-16
-11
16
-22
-24
-16
7
-15
-19
46
6
-8
-33
9
5
-25
12
24
60
-24
63
-34
35
-28
-32
0
-1
-32
34
-39
72
-17
-36
-29
-7
44
47
0
26
9
73
-51
-23
15
9
-15
0
14
-34
-45
41
-28
2
53
-26
3
-9
-2
-11
11
-9
56
105
23
23
-2
8
10
-43
33
-14
3
-24
-7
23
0
30
39
-34
-55
-12
79
-28
15
52
-24
-27
26
35
-11
12
70
-41
37
53
36
28
-21
-4
-37
-15
10
70
-30
16
39
15
-29
27
-15
-23
-40
-11
28
46
76
41
36
32
19
-29
-18
-42
32
-32
-6
-10
-2
26
-24
64
23
-44
56
50
58
-22
-24
31
1
-19
2
30
70
14
14
5
-32
86
76
-6
23
-3
73
-7
-63
-7
-2
33
10
-1
25
-41
10
-46
45
-9
8
10
-13
36
10
-7
25
-14
-10
-13
8
-33
0
-26
18
8
-28
19
35
21
-34
-17
67
41
-10
0
-6
29
27
43
33
-36
-14
15
51
12
-28
-15
10
57
-44
42
4
-34
49
-59
-42
-19
5
-10
-11
-27
-11
15
0
24
-12
22
25
-7
-29
12
-32
-31
-20
13
-44
45
-39
52
-40
28
29
50
28
-70
-14
60
-65
25
-65
-81
-24
39
-29
-17
30
-46
-1
-59
23
-36
-45
16
18
-27
-39
-21
11
17
32
1
6
0
-35
-16
-20
-46
5
6
44
-30
0
1
-10
-23
-27
28
-14
-32
18
-6
-21
53
-40
-70
27
-96
-22
31
-36
18
25
-20
-23
-10
-17
46
20
1
0
-12
-44
8
64
74
25
55
-51
28
34
-11
-67
-73
-6
-43
-44
44
6
25
-41
47
44
30
-7
-3
2
-17
-2
1
-85
4
0
-33
-6
22
-11
-9
27
11
-25
-38
-22
35
11
24
18
14
10
31
-17
-98
-17
-64
-16
-18
0
-4
25
61
9
0
-24
-43
32
59
-42
-9
-32
6
32
-41
-20
-19
37
33
-25
28
27
71
-13
-31
-61
33
17
-14
-18
43
-41
-41
25
-22
4
-28
1
8
-46
21
26
32
12
-37
23
26
0
-28
-4
-33
82
-5
3
-28
25
-24
-11
0
-6
-41
-82
-23
13
83
7
19
-16
0
-43
-4
-8
55
17
16
39
-18
13
0
-49
-21
-15
-28
41
-10
-8
2
-4
-54
26
-44
-11
-32
-19
3
30
-10
-24
-46
64
-47
51
29
-20
15
-19
58
-15
-27
-30
-9
91
-69
26
61
-12
38
54
19
24
55
13
-6
-29
-17
-9
-11
-25
51
-38
1
-8
47
30
18
32
34
71
-26
-18
-30
-57
37
8
25
-49
26
-11
-22
43
-5
8
16
-31
-13
13
-56
18
68
-12
36
-27
-57
-26
19
6
64
-52
35
14
-15
13
-26
29
49
-12
27
-17
8
93
8
-25
-24
10
-5
-61
15
9
16
20
-13
-16
-5
-32
41
-33
6
2
49
23
44
62
-18
-33
8
5
51
-71
-5
0
3
21
-36
3
45
12
69
11
61
28
22
41
-41
-5
8
-10
28
15
-19
-33
-2
14
-24
-39
-21
-23
45
-10
2
-37
-18
-48
76
26
36
47
37
-34
-21
-31
-29
14
-9
-31
-14
-29
-9
-29
0
37
81
-24
10
-35
16
-26
-14
-28
51
6
29
-12
-2
-20
-30
-34
21
58
-58
-13
-5
-21
58
-42
30
62
12
-42
-25
-20
26
32
5
-9
-23
-75
-1
45
-83
38
36
33
16
-41
-59
-1
-26
-41
-32
-64
-58
-8
29
-6
-7
23
29
-22
-14
-33
18
16
-54
-12
-39
37
-72
-41
-24
-42
79
67
38
32
11
18
3
-6
-41
1
-21
-37
26
-9
-21
4
36
8
19
40
-2
41
0
2
-24
55
-22
14
-25
34
-27
0
-35
-5
28
-17
-38
-6
-12
-9
-46
13
-10
-11
-7
13
14
35
10
-64
-3
14
13
12
1
-34
-11
16
34
28
-18
39
24
-2
56
9
-39
-12
27
-40
-14
5
39
-3
-5
46
43
20
23
-36
2
63
1
-1
-33
-23
-17
50
-18
20
-71
-41
-55
42
22
-24
-11
-13
-24
-31
34
-10
-34
35
-33
29
-7
-82
41
14
25
-12
9
-22
11
-102
49
22
3
9
14
-72
3
-62
-38
-29
57
55
-42
-22
0
9
2
19
-1
9
-16
21
2
46
9
22
-46
55
-41
-44
-18
1
-7
-4
-34
-2
-31
-54
-43
38
13
-28
73
-22
1
-24
55
-8
-30
78
17
23
28
-34
19
-7
10
2
-23
26
29
19
-40
42
12
-3
-25
-43
-9
5
40
36
4
70
37
27
8
31
-2
-51
15
18
-39
-74
14
26
-19
-31
11
-11
9
20
2
-20
-52
-39
54
-17
-31
-17
-16
-11
18
-11
16
-15
17
47
-2
40
4
23
-7
-27
22
10
34
10
-28
-4
5
-53
-31
29
-53
10
16
9
69
-25
11
23
-9
-57
22
-51
10
11
66
14
26
-19
-37
-34
25
-77
-11
62
44
56
-9
-10
68
38
4
3
-51
-21
23
28
-5
-38
-35
-28
-30
-52
28
-2
46
58
-9
-32
22
15
-1
-10
41
-23
21
-14
51
77
-9
47
17
36
-47
8
-32
44
15
-10
50
-3
-30
10
25
-48
50
-23
-45
27
60
13
36
-12
-35
-23
-28
-17
25
26
-19
8
-11
18
46
21
-18
29
6
13
-20
-5
-22
57
-17
30
-12
-24
-17
18
-33
40
42
12
27
22
-1
11
-74
27
18
-14
-41
8
-24
-36
37
34
20
5
-60
28
-62
-24
72
31
16
34
5
85
1
55
-21
-22
20
7
-27
41
16
2
31
-19
-2
31
8
-9
-65
13
6
3
53
-29
-20
-33
-32
6
36
32
44
-36
-82
10
14
-22
3
20
-20
64
54
11
-33
-40
32
-6
35
-22
-48
20
28
-14
-25
19
-24
-28
-41
-27
2
0
-14
-18
-12
39
-30
0
12
-38
36
53
23
-12
12
-25
4
9
-3
-29
-35
75
3
4
41
-2
49
24
-6
-17
-3
6
-34
42
22
-17
-46
22
8
-9
-15
-18
20
-11
-23
45
-4
-4
12
39
19
27
16
-3
12
48
8
28
-28
-18
65
-7
-45
37
-16
-68
-12
-18
18
-9
-36
47
115
-71
-56
-30
0
-47
47
-89
-35
0
32
-2
19
46
-20
-2
-11
12
56
-44
-60
23
-17
-35
-22
-13
-10
52
-8
-9
10
-1
-16
-27
62
-17
35
51
-5
-13
-35
9
-3
18
-9
-54
-39
31
-46
-35
21
-36
15
14
-32
20
-13
14
18
16
38
20
-3
20
26
34
-2
-58
-20
-11
-61
19
7
18
19
-31
-8
1
-9
-93
-78
43
11
-60
5
28
0
8
51
14
19
-24
-13
-83
-4
82
62
-22
1
-55
-27
35
32
-24
6
-35
11
-21
-24
-32
-39
-46
37
-25
11
-19
47
17
-67
-8
-41
47
3
43
-30
40
46
28
10
21
47
19
-13
-69
39
-9
15
70
3
-39
4
12
13
-7
23
-22
65
3
39
-14
-9
1
-37
17
6
-16
-26
-38
-17
32
-25
-17
-7
0
-25
1
15
-32
42
40
-30
-25
-16
-34
26
35
-9
-30
-19
35
-40
-1
-9
-17
-7
-36
16
27
-2
39
-76
45
-7
79
10
24
-63
-46
-35
-39
-6
-20
15
20
-6
27
30
24
23
-1
30
-2
4
-10
-10
-7
3
-19
3
-16
13
65
25
-36
60
27
31
-12
-33
-33
-20
21
-31
-8
41
-42
24
-5
42
23
3
28
-11
23
-71
-23
5
-16
62
-26
-13
-40
-15
6
58
-40
38
-19
-20
-27
48
-67
20
45
-7
46
17
-57
19
-18
-17
50
58
77
23
47
9
78
87
0
-34
-2
-22
-36
-24
-20
41
7
-36
-3
-5
26
-30
-87
-20
2
-16
3
15
44
15
3
-35
-10
-8
-25
-26
36
25
34
24
-32
-4
71
28
48
-13
0
3
33
-34
31
-18
-16
-83
-17
11
-14
5
3
18
33
-30
-34
-54
-53
57
-8
-19
-7
11
-17
-15
-3
25
-50
-1
10
-6
-35
-69
13
-3
-20
-14
21
-26
9
-18
18
34
59
-56
41
-49
-3
-76
-56
30
51
-34
-34
25
-22
-42
7
2
-6
-36
46
43
-62
11
71
25
5
32
-2
-14
-19
0
-54
-54
59
27
-29
-38
25
-7
10
5
67
-1
-7
14
76
16
-24
-9
35
27
-31
38
41
-37
19
0
51
0
87
-63
-16
34
59
-71
-30
24
-33
-30
-13
-37
-38
18
-17
-57
-8
-14
19
-27
-6
3
-36
-9
-47
-19
14
-9
8
-2
-3
-59
-2
28
-1
-1
-17
34
51
34
-29
35
25
-52
-6
-20
-11
-16
14
7
2
-41
40
-3
29
-39
5
-27
-42
-35
58
18
2
31
-21
9
30
1
14
17
-8
35
-67
-2
56
-42
55
-25
20
2
-22
34
-16
-18
-82
-30
4
22
32
24
28
30
-2
-4
29
-3
110
-3
-33
10
57
-35
-38
16
-31
22
-30
-31
-27
60
45
-29
-28
-24
-16
10
43
-26
-18
-24
22
-70
37
44
30
1
6
-33
-69
-15
3
-20
60
-61
-12
25
-29
-17
22
-6
-8
13
2
-39
-51
-23
7
41
-39
38
46
7
36
63
-21
42
51
26
45
-4
-5
24
-42
4
-73
18
-78
66
-10
-11
-43
-5
-51
-48
28
-27
36
9
-5
24
7
4
15
28
-5
47
43
17
-39
16
-56
-28
68
-41
-2
-20
25
-21
-13
-89
-95
43
5
21
13
-2
32
8
-30
-48
-10
-70
8
18
6
-4
-3
-47
12
66
-30
36
38
-46
3
21
-19
7
36
102
22
82
-32
8
22
10
-13
-38
14
-61
-46
16
-8
41
-32
-39
32
-39
39
5
18
-72
-11
1
-45
-2
33
13
-8
38
-12
5
-23
29
2
-35
7
-37
25
-21
-5
26
-33
-29
5
6
-55
58
-13
-42
8
12
-31
26
10
-32
30
-24
4
8
-2
-15
-11
27
-33
-53
5
9
43
-45
-12
8
-3
-18
-25
-44
7
-41
24
-33
-32
-7
-1
10
66
5
32
-23
-31
53
-80
28
-6
29
29
14
26
18
3
11
14
-50
68
70
48
-50
4
-8
58
-73
-39
-4
30
-24
-12
-31
3
7
33
-45
42
-8
-15
-7
-74
1
-25
-57
-7
-56
-36
-56
25
-9
-11
-37
-19
-20
20
22
9
45
40
13
-19
46
28
22
-16
-10
4
14
-58
-37
34
-86
39
2
29
-34
6
13
-10
6
-17
-35
4
31
43
17
34
-1
-24
10
11
43
-23
3
7
-27
21
43
-31
-7
-3
-5
-74
-37
-36
8
33
35
44
42
-7
-37
36
-3
4
-26
14
12
-8
19
-43
6
5
19
-12
-52
0
9
-31
3
-39
27
-8
-37
-35
-49
4
-33
-47
18
-91
-11
15
-27
14
-12
-3
-31
10
-20
70
-4
-49
11
27
-35
-5
-5
-18
61
-33
45
15
-34
63
-31
-10
31
-32
5
48
-11
2
-92
-6
20
-15
-47
-51
53
6
-39
1
24
-23
85
-20
-22
-19
20
25
-23
7
-5
55
-54
23
-48
-41
46
48
-6
45
-4
-43
34
-3
13
-13
-65
-48
-42
-29
1
46
36
-5
71
-23
17
48
94
14
-8
49
-2
-2
-8
53
-71
65
32
-17
-16
76
-22
-26
1
29
53
-14
-15
-38
-16
-23
-17
-11
52
-31
-39
7
-11
-17
-71
66
2
-16
69
23
3
-33
36
5
-4
12
29
-49
-34
-16
-50
-25
30
56
39
35
20
23
14
13
24
-28
-25
9
-63
-47
-29
10
41
50
-20
12
-18
-14
33
6
-48
3
-72
14
-14
-54
-3
13
10
18
34
-31
-9
13
-22
-26
-8
-2
-4
14
9
51
20
-35
-7
58
-39
-38
22
-2
48
-26
23
27
38
13
-20
-58
17
79
29
27
20
-45
-36
47
14
-17
-6
7
4
101
2
-9
-55
-61
6
23
-20
41
26
58
29
-49
-25
-5
-40
-18
4
28
-31
64
-40
27
-8
32
-39
21
-16
-1
-9
37
-66
17
-40
-4
10
16
12
18
-11
-77
15
61
69
-42
18
19
7
29
-23
32
55
-18
37
43
19
2
-17
-15
10
75
-28
-41
-48
39
-31
-45
31
26
4
-14
-33
6
-5
-3
-27
-1
-3
-8
28
1
-29
-35
-15
-53
17
-8
15
19
14
-15
21
-13
-5
-32
-28
27
-4
-50
-13
31
6
-7
-6
-13
-21
21
1
-23
-4
25
95
-35
20
-26
-63
88
13
33
4
-16
1
71
50
29
4
-2
-38
-66
-11
-20
-37
15
28
2
16
5
21
5
37
37
39
22
-52
-12
-15
-27
2
-25
-19
-29
15
3
33
41
-78
22
-29
-40
-27
13
-52
15
48
20
-26
-14
-17
-14
-1
14
25
-31
22
80
-7
-53
-34
40
49
4
32
-42
0
62
44
18
-20
29
-2
-68
-31
38
16
-11
-63
18
17
22
46
4
9
31
57
14
21
-34
-19
-11
7
47
50
-18
7
0
13
-4
-30
7
1
-7
-19
-19
64
17
15
20
-7
-45
5
-64
-20
-20
41
8
4
29
-28
0
-17
-25
30
-1
19
19
-41
-8
20
23
-98
5
-17
-16
-32
12
33
-61
25
62
-13
36
-5
-37
3
15
-9
57
16
-19
-1
-47
-31
-24
-1
1
18
45
49
6
12
-14
-6
-13
24
-57
-11
-63
-14
10
-27
-21
2
-66
58
64
42
-15
28
-5
-5
8
-69
-3
-47
20
3
41
-39
-86
-18
21
2
54
28
30
62
-39
-72
-49
-18
-14
24
22
-43
21
20
-16
41
-107
-1
15
3
8
-17
1
65
-3
-40
-25
-4
-32
14
67
-16
13
-7
27
21
-29
-40
34
65
-24
17
34
-44
1
-34
28
35
0
19
-31
-26
-10
25
-61
-20
7
-27
36
47
10
33
-10
46
-35
-67
2
-46
13
11
39
-4
21
15
-3
-4
-10
53
38
8
-32
41
51
-22
-44
-59
37
5
-30
13
22
10
46
12
-16
24
0
2
9
-32
-30
-2
66
-16
-18
-30
-30
4
30
81
22
-20
1
47
-50
-6
2
-49
46
-22
-18
-18
17
-29
50
41
60
-21
-52
56
-28
-33
-27
-18
31
-20
13
28
16
2
17
-18
-19
1
69
-16
20
-3
-21
-52
-13
-38
-37
-24
-54
18
-11
-48
32
33
25
-32
-33
-11
5
15
34
6
-53
-29
8
18
-33
30
10
24
-31
6
7
3
33
42
-13
-26
14
29
36
-3
-22
-13
-61
-34
18
24
29
76
3
-53
-18
-31
37
40
-53
-28
-38
-51
12
-21
-26
15
-21
26
9
-8
-9
-4
62
-15
43
34
-5
44
36
-42
-2
30
75
-23
16
-37
52
25
25
-17
-32
-25
-16
-38
-11
9
2
-60
-31
-46
-36
-5
-8
-18
34
21
-11
-26
-11
-7
63
52
29
31
42
-25
54
-12
56
-25
16
16
-34
19
-13
34
-2
-1
89
-64
-24
-42
23
-11
-39
12
18
-5
-22
-37
35
-27
17
-38
-35
10
-15
-29
29
-4
19
62
-4
-2
-21
63
55
-29
-37
-7
-32
85
-13
-14
-2
-32
8
2
-25
50
22
-20
49
-60
-7
-27
-20
35
-37
-15
43
-18
-66
0
-54
5
-36
42
2
1
25
-15
-1
-15
23
-18
-6
-22
-9
8
-39
-40
53
23
-13
-29
1
19
-34
-36
-11
18
38
18
53
-1
29
23
23
23
23
-2
36
37
12
1
-35
-10
-14
-41
-1
61
-24
-8
14
-40
7
41
-52
-7
-8
-20
49
22
28
-29
1
-75
45
19
6
14
-20
12
27
32
50
101
-10
0
-47
-32
-26
-68
42
-12
29
17
-62
3
-7
23
14
-35
-33
-12
44
50
-29
66
-86
-83
23
12
50
-16
5
-65
13
48
-58
15
5
-37
-24
16
-52
-34
27
-20
32
15
-19
-25
31
-28
37
31
33
-2
-79
-53
-13
4
-19
29
-16
70
8
3
-11
27
42
-31
-6
35
32
31
15
-12
-63
-40
4
-40
28
-62
-17
68
-37
-41
-23
8
-32
24
-19
-20
31
36
27
19
2
25
48
-49
27
2
-33
64
45
-13
26
-19
-15
-1
22
2
-28
-30
28
27
-18
15
-22
-19
14
16
-13
48
77
-37
-7
-41
23
-68
48
43
-1
-10
-70
-68
-2
-38
-34
0
-21
-12
-4
30
30
39
-5
10
37
-72
-52
13
-94
26
-13
-5
8
66
-11
-17
30
62
-17
18
-16
-16
-10
-14
3
-88
37
26
47
4
-110
17
0
27
20
-18
8
1
-18
-14
-69
1
-6
74
-42
-22
-16
8
26
5
-40
-47
-2
25
-32
-74
-30
26
55
-4
28
12
-17
62
62
-35
24
-1
-15
35
7
27
107
45
28
12
24
-48
10
23
-17
42
-4
25
-16
-31
-42
0
-13
-17
21
-14
-18
-64
-7
-52
1
14
-59
-53
4
-28
41
-3
54
17
-26
-8
23
-25
25
5
7
28
80
-34
-11
-20
10
-55
-19
10
-7
-17
-7
-36
48
22
-38
-4
8
41
23
-38
32
-14
-8
-12
25
-38
0
-34
49
-24
38
3
10
-15
-60
3
48
4
30
-39
18
-3
-31
-8
47
-24
28
-56
-11
26
65
11
-31
30
-13
-7
13
-2
72
23
-35
5
-50
-6
42
9
11
-4
-58
7
-54
6
17
-1
26
19
-42
62
23
-43
6
27
-1
-38
-17
2
-50
56
7
64
38
-30
-18
-8
-6
38
30
68
-2
19
-26
12
30
-68
69
5
-9
63
-66
-78
3
-22
9
-18
-13
-27
-15
-15
-2
-23
-41
39
-61
18
-28
34
-6
-27
-33
-70
-18
32
-91
-86
-45
-2
60
44
15
30
4
34
18
-20
-45
-8
-18
-4
-31
-19
40
-72
63
83
9
-56
14
-17
4
22
-4
34
-25
25
-59
6
20
-25
2
27
13
-61
-12
-49
-5
-18
-23
-37
24
-3
-5
16
3
3
1
10
-48
15
-20
8
3
0
2
43
9
-26
18
-18
-28
-42
30
-41
-8
10
51
33
-57
0
-43
29
41
19
50
-44
5
16
23
6
-39
-34
12
-7
7
-3
3
-98
7
-22
-25
-14
-5
-28
-14
-19
-31
45
-24
-50
64
-11
-58
18
-23
-26
7
2
23
10
16
36
61
35
15
-17
20
-20
40
1
-6
10
56
26
-7
21
-24
3
-43
24
16
-24
42
-2
16
3
1
44
46
-6
34
58
-24
7
-43
11
-4
23
29
33
-45
-1
19
-28
43
-73
-53
-36
15
35
24
18
-47
9
-71
-61
-1
9
0
52
10
-62
6
-78
19
52
-30
5
18
-33
-12
4
-3
36
-17
-11
-36
30
-14
-11
19
81
27
20
-49
-7
45
-2
-49
-60
25
7
-14
-24
-41
62
-51
32
5
-32
14
-4
-55
-27
21
-25
5
12
43
-81
-9
18
-55
12
6
19
-39
19
64
-11
27
23
-6
31
-4
-40
17
-55
-12
18
-37
27
0
-18
18
-6
81
-40
-4
-34
6
6
0
20
60
6
-25
-14
-39
-28
40
-25
-12
-17
15
36
-34
19
-29
4
-5
-47
-5
14
21
-16
12
5
37
-14
-7
-15
-29
3
53
34
-5
15
63
6
-3
-11
8
-98
24
-89
7
-14
-7
-1
-12
48
-8
15
-50
-12
60
-7
-15
0
-28
107
-64
-2
19
10
-3
39
-86
-1
95
45
-22
5
-51
-16
-42
-20
-22
53
-70
52
-53
4
9
24
48
-34
-51
-12
70
-11
48
-13
-54
-11
-32
-88
20
-6
-35
9
53
-17
-38
29
-14
-73
41
-21
41
-4
-64
6
-52
-17
43
-20
11
51
-15
27
-17
35
45
101
45
-58
36
7
16
15
17
2
44
-19
-5
18
-16
-17
12
16
24
46
3
41
30
41
-40
-42
73
-8
78
-25
17
-1
40
1
-16
-21
49
20
-11
74
-21
-31
32
43
-7
26
10
-16
30
-26
-33
17
2
42
-33
31
-39
-48
47
39
-14
16
24
54
-38
74
64
46
25
-9
61
35
3
-41
-7
42
-37
-41
-38
48
32
41
22
14
-7
-41
-24
-11
10
11
28
22
-10
30
-30
-34
82
-36
-5
12
-14
-13
58
8
-16
-57
-3
-17
-16
37
55
103
-1
37
-18
-34
-13
-43
12
17
40
48
-31
6
-29
2
31
-51
-8
42
-18
27
-76
-23
60
8
-15
9
83
-25
12
-16
43
-3
12
10
-13
0
27
-93
2
22
14
6
25
19
39
7
-19
-46
19
-1
12
37
-40
45
8
49
-20
-12
2
71
46
-26
18
33
-4
16
33
-36
71
75
-11
52
19
-36
0
26
11
13
16
-14
53
-27
-61
2
-16
-14
-12
-24
-2
-72
26
-4
57
-1
-26
4
-31
25
24
11
41
-15
3
-57
28
-37
-31
-3
-18
35
-2
-23
9
49
40
0
-57
-7
15
16
28
43
27
-45
22
-31
-10
13
6
48
-14
-21
-31
-23
-33
38
44
32
-20
30
13
28
-28
24
12
-11
2
-13
-30
19
30
-78
16
63
-25
55
-9
12
-12
-34
8
-9
40
-21
63
-5
10
1
32
47
47
-12
4
-4
-13
-3
7
-36
-17
-26
15
-46
-14
-13
7
36
-16
19
15
-38
29
43
-9
-10
9
-44
4
-10
11
35
45
43
-45
52
68
15
38
-15
-49
-38
0
-53
34
6
-11
29
-31
-24
25
-39
1
17
-4
-28
-16
-13
15
46
27
18
1
17
3
-15
27
24
12
20
-68
-9
26
-2
26
14
34
25
2
42
-62
-29
-13
-79
55
7
-8
-16
-16
5
-32
-4
76
84
-44
35
48
-70
17
7
23
-11
7
7
80
35
-41
-40
28
57
63
1
-97
-12
-10
-44
82
20
-57
43
-22
13
9
-82
27
31
17
-50
-17
16
-25
22
10
7
-60
-45
18
-11
14
2
-52
-48
22
38
57
-18
12
20
-44
57
9
-15
-13
22
-56
27
-48
20
-46
7
-3
-8
38
-35
-8
-19
-1
19
23
39
-63
-6
64
13
38
-71
-10
-32
-54
29
-7
27
-58
-11
17
-15
25
10
59
1
-27
-31
-22
27
18
36
1
5
32
14
24
43
30
26
-28
71
-4
43
-6
-15
-50
39
-50
-2
-6
99
-18
-35
28
0
-4
-46
29
-14
-14
64
-4
18
9
27
47
-7
60
-79
56
7
63
20
-69
1
82
12
28
-30
-17
-31
-51
-75
-32
12
-8
1
-41
65
-10
59
30
-20
24
-23
8
22
-9
-5
-35
-6
42
13
48
-69
-39
1
-38
-1
-35
-27
-28
23
21
41
-6
26
32
-15
76
7
-83
35
-27
13
-34
-53
23
26
39
-24
-13
-71
-29
6
77
67
-5
-33
19
18
-50
-68
-6
59
41
26
9
12
-63
-55
20
6
22
-24
-30
24
58
-12
-18
41
32
16
-9
5
46
-15
24
-10
-37
12
25
5
-16
5
29
27
7
-6
-25
-39
-17
14
-47
20
32
91
22
-57
-13
-17
-17
-29
-7
-32
25
19
-4
-25
-9
-19
34
-59
49
-16
-24
-3
41
-13
-44
-8
6
17
79
-28
-57
-18
-8
6
40
-32
-10
-17
23
40
57
51
-16
-21
-14
40
-48
45
-48
10
41
-62
-16
7
6
44
45
9
-20
37
18
0
-27
-50
46
-3
-20
-18
84
-14
-21
5
-34
25
7
37
-6
6
-45
-61
-9
-49
-62
19
-64
-10
45
-5
65
1
-14
5
33
-47
5
62
12
-17
-34
-26
-14
4
-35
14
-31
20
-53
-12
-47
-40
43
-5
52
-42
46
35
26
22
-98
60
-12
-7
49
33
-35
76
-53
-23
-7
-24
3
22
-33
28
52
-95
32
-31
-5
-54
-41
46
-50
-54
-35
42
34
5
7
33
-20
3
83
-48
28
-36
-34
-52
-84
7
40
-12
-37
-23
-47
-72
38
-10
-9
25
4
-18
0
-39
33
-44
49
12
36
15
-21
-55
-12
-28
-17
53
-12
-2
0
-81
11
-23
16
-31
-31
28
18
-62
-25
64
21
8
72
-20
-34
-66
14
-58
-49
28
-11
-18
10
-66
45
16
-28
10
-36
6
-52
-43
21
-54
58
23
-46
-19
-13
57
15
5
30
16
-8
69
-43
36
53
16
71
-24
-6
-9
-4
-4
63
17
19
-41
10
13
-22
-52
-19
-39
9
-22
-8
21
60
-28
38
-31
-18
1
73
16
18
-9
8
-28
-8
-77
-47
-13
-65
-34
60
-11
24
28
-27
-14
13
22
20
-27
-31
19
5
-27
4
37
-4
64
-5
28
-55
23
-11
71
32
-3
-28
-12
14
-14
11
-20
-53
-19
-23
-16
62
4
-18
30
-13
-75
-16
6
-12
48
-10
14
-31
2
32
-43
-46
-26
29
-7
-21
-9
-20
82
14
-31
0
0
-21
-6
48
2
24
36
9
11
-24
-25
44
5
3
5
-29
-3
-5
-5
31
42
17
-46
36
31
-34
3
-31
3
47
-34
-5
-47
-41
-14
-5
7
-33
-14
27
-22
-31
2
-4
19
37
31
30
-3
23
39
33
-37
-7
-30
13
-27
29
-49
36
10
9
-1
-32
0
-9
26
-35
-33
-8
19
-18
6
61
26
76
17
10
5
-45
23
26
-11
0
10
-35
14
4
45
49
-33
61
-18
42
-22
25
-20
34
-6
32
-1
-50
-15
8
-19
7
45
-52
15
-23
-2
-85
25
25
9
-59
-7
-48
52
-4
-33
-17
7
21
63
-7
-47
-5
20
-39
-32
-9
22
-28
-34
-17
28
-28
38
37
-58
-24
-39
1
17
14
-23
9
-41
4
-49
-16
-61
-76
-15
-14
49
1
17
-45
-45
38
18
18
-9
-18
-8
68
5
-32
28
4
-28
-17
-3
-14
24
8
16
-10
39
23
98
33
24
42
-10
45
-114
4
6
3
14
14
-6
-56
-20
12
-20
13
15
22
39
-5
-18
-82
-18
28
36
6
-56
-26
-76
-49
45
-68
-11
12
35
30
46
-28
-2
45
2
8
-12
-25
-13
56
20
21
-24
21
-31
-40
-54
-17
-1
-2
30
12
-34
21
56
5
-1
14
6
10
74
0
48
-25
-26
21
-25
-64
-59
-12
45
37
-17
-3
43
-3
-63
-89
6
-16
35
55
33
9
20
-18
19
50
23
-42
-17
-2
31
-23
42
-31
-33
34
47
0
11
-50
28
47
-34
59
-16
-37
65
-28
2
-65
-15
-7
2
-4
1
-32
30
5
78
-12
-16
-38
-13
-47
48
-92
-27
-20
40
-27
9
47
-1
-58
-21
7
10
-65
10
3
32
-13
-3
18
32
-15
26
39
-7
16
13
-32
-39
25
-54
60
-44
24
-45
-23
-5
-64
3
-22
-50
-4
-28
24
-15
-58
-70
-41
-69
28
35
-17
45
-10
-1
6
10
-14
12
15
-3
-40
-24
13
-19
65
17
51
22
-5
-16
45
-25
-53
-66
51
-29
-39
8
49
1
-1
44
22
-35
-3
-19
10
-42
42
64
-67
16
1
-38
14
-30
1
5
21
-25
-39
-38
-4
-11
40
-64
6
1
48
9
48
-21
-47
-40
-40
36
-20
70
18
63
18
36
55
-9
64
-1
11
35
19
-41
3
-1
-12
6
-8
24
-12
47
21
21
4
-23
-81
-14
49
-17
0
38
28
-26
24
-32
40
13
18
-61
-44
21
36
-8
-5
-8
-4
35
-23
3
54
-9
10
46
25
0
-69
25
27
7
9
22
39
-39
-17
-13
-44
42
47
-26
34
53
-6
-3
17
-8
43
23
11
-38
-8
29
-25
-6
-1
28
22
-15
-25
3
2
21
-43
13
39
-7
-59
28
-13
-26
-44
61
7
37
-13
14
-82
-19
-13
4
-1
56
-15
-56
-17
7
-4
-5
8
19
-13
-40
22
41
14
20
4
11
-58
-11
-41
26
-27
-10
21
-29
8
-18
-33
67
5
-5
-32
-13
-17
4
7
5
24
73
-26
16
15
-58
-3
40
26
64
-51
-11
-32
-13
70
64
-44
-22
-10
22
-2
62
-48
-30
81
8
42
20
1
-9
14
9
-11
-71
15
-13
-14
-25
16
36
-7
36
-48
24
17
-21
-35
-33
-18
11
-10
11
22
6
23
61
11
23
-43
23
-1
37
-33
-41
-32
-46
-23
-28
44
-28
-23
-16
-17
14
-57
18
47
53
-31
3
-27
3
31
4
9
-43
-27
-29
26
30
-22
-30
9
-3
37
-26
-7
-19
-28
-54
-21
-7
57
-6
41
14
50
-56
-11
-44
-2
-88
10
25
-38
-27
28
0
-6
75
12
7
18
-24
27
-14
28
-34
12
-9
-58
19
-42
1
-88
7
6
28
-31
40
32
2
9
-32
-4
5
-43
-21
24
-97
12
12
-5
-30
57
-43
-54
-16
-25
13
23
28
-39
-17
-10
25
-48
14
28
-8
-55
-67
-12
32
46
-14
0
-29
-36
-32
0
-18
8
-46
-54
65
-77
41
-42
27
53
16
-20
23
53
-42
24
-69
4
9
26
5
7
27
34
-24
-38
20
24
33
35
89
-24
-27
-3
-69
-95
-15
-27
17
-58
-46
33
-30
19
-33
-2
-1
2
-20
-3
43
32
41
-56
-18
-38
-42
19
57
16
-69
48
36
-38
-3
-46
1
-29
-17
7
31
-30
70
35
-33
-24
11
-20
32
-17
12
-18
-13
-26
-57
-17
-48
22
-11
-1
16
24
-42
-21
19
-28
-19
46
0
-14
32
-8
-51
-51
2
-18
-27
-34
4
3
20
-28
-36
22
-36
39
-62
12
33
-41
-43
-67
44
-9
17
-8
-44
-46
10
52
4
0
-38
-66
18
-9
-6
53
-15
-16
39
10
-24
7
-6
13
7
-28
-1
-35
-58
16
3
-44
49
-30
-25
28
-37
-40
82
28
-11
72
13
27
-20
0
-34
14
-57
-27
-14
32
44
-5
38
66
-1
-38
-39
-62
17
-14
-50
-21
3
7
-58
32
55
-11
-39
12
-27
-2
31
-27
55
-12
12
-16
14
-42
-59
4
22
-50
-63
-26
-2
-17
30
-24
33
18
-9
-1
-39
-63
-16
-36
-17
-3
1
13
-90
8
-31
7
-27
-26
3
6
-18
-7
8
43
57
19
-73
6
-67
32
22
42
-55
-22
-18
43
-2
9
-20
-92
1
-6
54
-73
-25
-3
-1
74
-15
24
-25
1
17
-20
-51
3
24
9
-29
26
-27
-38
16
18
14
-56
18
-33
-13
-71
-4
-16
-15
1
-38
37
49
-53
27
6
67
23
-57
-69
-47
18
-22
5
-19
63
1
-21
24
32
15
-38
6
14
36
-14
-50
29
1
49
10
66
19
-20
7
67
30
94
-33
-19
30
21
-65
0
43
-50
42
25
48
23
25
38
-2
38
-7
9
14
-13
-5
52
10
-3
16
-6
-45
-56
51
-28
12
3
15
60
1
24
-22
-3
-18
29
-7
69
53
-39
-7
-23
-10
-19
-52
36
-7
40
0
40
-1
-1
15
16
2
22
-31
-54
-46
9
-51
54
26
-30
44
20
-22
1
2
18
41
-34
-13
-51
3
32
-25
-15
3
31
-14
-45
0
26
12
47
-39
7
39
-26
7
-43
39
50
76
25
5
57
19
-18
-45
-33
21
-79
70
12
-23
32
1
0
13
-9
36
42
40
29
24
-19
5
31
-50
40
3
7
17
33
-43
-72
59
-4
42
49
-50
-20
13
14
47
27
-52
22
-18
-27
23
-5
30
-5
2
-4
-12
14
3
-20
-33
35
-51
-44
31
7
15
26
49
-33
34
-1
12
-35
0
19
-7
-32
-21
2
12
9
-6
-3
-26
10
-28
-22
26
-1
-8
-10
-32
19
0
0
9
13
-27
55
16
-28
27
-17
-14
-44
32
-31
11
-14
30
40
-14
-69
6
-27
-26
-7
15
-20
-35
-17
-29
34
-54
16
-54
-22
18
-71
-8
-7
-27
-46
25
13
-51
-35
-36
8
-3
-33
24
-40
8
-24
-42
50
13
-41
-23
-30
2
23
4
-17
-1
0
5
3
-19
4
25
-11
-6
-2
69
-60
33
16
-5
83
-59
-22
18
1
-10
31
-33
1
7
-22
-20
43
27
4
18
-4
-38
4
30
-19
-36
-23
-32
10
8
-15
-58
-5
13
2
38
-14
13
43
13
-14
1
-31
-6
-41
9
-20
-41
-23
-77
-14
-45
17
6
46
11
8
-2
-18
59
-50
-12
-5
30
-22
-38
-22
-51
40
-46
-12
-13
-19
-17
13
-5
-3
15
-75
23
-3
-8
-11
-30
16
9
3
-9
-69
-11
6
-22
31
-25
-33
-13
2
17
7
34
-12
-25
22
17
6
68
-41
-42
70
-16
-19
-63
-78
41
96
25
6
13
43
2
21
7
63
15
-2
3
-41
-13
-48
30
6
22
2
38
38
-3
-9
-54
-4
9
3
6
51
14
9
-4
-37
-3
28
59
-26
-14
-42
-22
9
-8
-16
21
-13
-55
-25
-47
61
71
-8
-5
-18
-32
-24
0
33
9
10
-2
51
9
-8
15
-11
12
4
14
19
-31
33
-21
78
-34
-35
-20
-12
8
-37
33
-22
12
0
-35
-43
42
67
-33
22
46
-13
0
6
-28
46
7
35
-80
-46
22
-6
25
-51
51
66
-4
-23
11
-7
-8
-30
8
-36
17
-12
13
32
-61
0
-27
36
13
-14
28
38
10
66
9
-5
-50
27
-32
73
27
26
27
-4
-11
-57
26
13
4
-14
-34
10
36
26
-23
22
-35
-2
-14
-11
-5
-14
-23
3
6
48
1
-9
33
-15
3
-13
-11
-15
-12
-56
-1
39
30
-53
-4
-61
-20
-2
-5
31
-4
-31
17
-10
-4
35
15
43
-22
30
-61
27
45
-25
-24
42
-33
-37
-32
34
-34
17
-54
40
20
16
-19
-42
13
23
-108
22
9
24
-25
-20
1
-9
60
45
-44
-53
-2
65
27
-12
-4
-39
29
-56
28
13
16
61
30
-24
29
9
18
9
4
63
-5
-4
57
18
19
64
-22
15
50
-33
36
-20
45
33
-20
39
72
-9
54
-33
1
-22
-27
21
-86
-16
-8
23
27
26
32
36
1
9
53
52
-49
-56
3
-19
15
-9
14
26
-23
52
-25
-29
6
-17
-13
17
8
64
-3
2
-5
-27
52
-7
21
16
11
12
-24
5
-5
61
10
-37
49
58
3
-12
-35
-4
2
51
19
-34
20
53
0
-38
44
14
25
11
2
42
-18
-14
-39
19
25
55
25
42
2
-34
40
-1
9
2
31
-20
37
7
16
16
-30
46
-58
-35
-10
36
69
10
-65
42
21
30
26
-6
-48
68
29
-5
47
-17
16
24
-4
-77
37
-10
16
13
52
-39
24
-18
-36
34
69
4
14
5
-33
-11
-8
-16
30
-29
-41
26
50
12
24
9
-5
9
31
22
-1
-36
-57
21
14
-11
-4
10
-5
8
-11
22
22
11
-5
8
-16
-52
-32
20
-13
7
-36
-47
-2
13
-49
49
37
-16
0
-8
-4
-35
4
15
57
8
-31
56
-2
52
-20
-13
46
44
-35
-8
5
-36
40
35
37
12
38
-41
-43
-26
28
-21
55
-10
-6
2
23
3
46
-12
36
0
-97
-42
20
27
-9
15
-33
16
54
13
5
-67
25
-10
4
-46
-27
30
15
-7
-6
-9
-13
-16
-10
-47
-46
32
14
13
-50
-31
-7
44
12
-14
59
51
29
5
-24
-6
-51
56
-7
-31
-78
29
-5
11
23
34
26
-16
50
-67
-59
41
14
10
-29
-39
-25
-10
-34
31
-69
-7
39
-19
63
-48
15
4
13
47
48
-42
-3
-5
29
-18
16
-26
-45
19
-17
-10
-47
-6
21
-91
15
-2
35
81
6
-46
-2
-14
-39
55
19
-19
78
-70
-33
7
13
-41
-73
59
-7
25
-62
-35
52
9
-8
7
26
1
18
-46
-46
-6
7
26
-59
10
-21
-37
-50
12
18
48
66
-29
-9
35
-44
21
37
-58
-36
-34
17
50
-1
59
6
-5
-13
60
-15
17
46
57
-39
40
65
89
58
20
-47
7
79
55
-42
-13
-32
-2
40
-6
-41
-46
-5
-56
-61
14
-18
42
59
-50
3
-43
-42
-9
8
15
23
-39
-69
-25
18
15
0
3
-70
14
54
-19
9
-38
-2
33
22
-66
17
33
11
-53
-5
29
24
-45
2
7
-34
8
17
-5
-19
2
58
20
-12
11
-22
25
20
1
43
-8
12
41
10
-34
-66
29
0
-16
13
-5
43
28
-8
-72
37
-17
-8
11
25
-23
2
3
6
37
38
37
-25
-23
18
12
-14
-66
38
-13
19
-9
-17
6
9
30
-27
38
-5
9
-21
17
36
-8
-10
-76
-46
11
33
-66
31
8
46
-29
-22
12
43
0
43
-70
-14
25
5
-1
32
-25
-18
52
19
32
25
9
-25
-21
8
-50
-47
-16
19
-9
-2
-6
-50
-21
-51
-1
3
27
-32
-10
27
42
-12
0
-64
2
-26
-32
-25
-4
28
30
-1
-28
-9
-16
-8
11
2
-16
-10
-38
19
-18
32
5
41
25
-1
-5
40
33
-19
-51
42
-26
54
-10
23
18
-10
-24
-15
37
11
-1
51
-10
9
-6
-9
-1
40
-9
13
-47
-72
24
49
-25
25
-15
-30
49
17
-23
-2
-1
50
-61
26
-28
-37
89
12
7
-33
13
0
5
-8
-52
-31
38
-33
37
-19
-2
70
45
-12
-7
49
48
43
-29
30
-37
17
24
-18
-102
-16
32
29
-21
62
40
33
9
53
-61
30
7
3
49
-16
-2
-6
-19
78
33
11
-39
-16
-4
36
-23
-4
19
20
-4
0
15
28
-53
34
35
35
10
22
44
-67
9
-71
-2
-15
-14
23
-3
12
0
-16
23
-1
-37
-37
-5
-20
-65
-11
-29
8
-14
-32
32
-11
29
-39
9
1
7
-19
-31
11
15
31
28
34
42
-2
40
-48
2
-1
-55
-10
39
43
49
-14
16
20
-11
-16
16
-43
-30
29
-28
-16
31
8
-1
53
-43
-53
9
-11
77
-6
-2
22
-40
-23
19
12
-15
5
-32
8
-73
3
-59
-32
25
5
19
29
-51
11
39
10
25
0
-19
-40
-15
7
11
95
-19
-1
23
-21
66
-11
-17
50
32
-14
2
22
7
-42
-2
-41
25
-18
-49
50
28
-36
34
-46
-22
-30
15
-43
48
48
-1
4
-22
-29
-7
-36
-4
28
6
-41
-23
-36
-18
-39
37
3
-19
-12
-5
14
-57
-19
-31
-12
9
-16
-24
79
-15
22
-2
0
-4
39
-1
-39
-65
45
43
9
-18
0
33
1
29
8
-18
23
20
8
14
34
7
9
32
-56
-27
-69
20
6
-9
83
-13
-31
-13
-44
18
-22
14
-14
-27
-34
40
-7
-17
-42
-22
23
13
11
-4
-35
41
23
-9
-33
2
-38
-32
-14
-7
40
-14
15
-33
-1
-17
26
-6
4
-9
-53
-27
4
-42
23
-19
19
15
-13
-35
-4
-3
-9
-22
51
-31
54
22
6
3
46
-65
-5
7
4
7
2
36
36
-36
-17
-17
-26
31
12
-30
14
9
-63
-14
-3
28
11
-15
10
4
-4
-12
-25
28
21
0
-2
5
38
-46
-8
13
9
5
44
10
60
-13
-32
-30
-3
27
33
-25
9
49
-64
21
-8
-38
-49
15
35
-2
-13
27
-5
29
-19
-4
58
5
21
41
-5
51
1
7
-4
15
20
3
-37
-24
-15
-7
0
-13
-44
-41
-26
-13
-9
17
15
49
29
24
-12
-42
-12
-5
-3
27
-33
-44
-13
-24
9
21
2
-23
-25
2
3
-11
-22
4
7
19
-56
19
4
-30
-17
-4
19
22
-18
10
-50
-29
-8
-32
-7
18
3
17
27
-1
39
-55
58
-10
10
-1
43
-44
37
-50
7
-1
2
-58
5
-25
-12
-23
-10
-41
71
-10
21
-20
37
28
41
-43
-51
-27
76
7
11
38
-29
-11
24
-23
26
72
-14
28
19
22
-27
-17
-1
-15
-21
6
46
-52
-52
-36
-39
44
55
-3
1
-12
18
8
-46
-43
-64
21
11
9
-43
-11
-10
-38
27
-32
44
62
-13
9
35
-24
-18
55
40
43
15
4
24
9
-1
59
-44
60
-28
-20
-24
-17
1
27
-51
48
21
-19
-23
13
14
-6
36
-63
-39
-8
18
6
3
34
-28
96
16
0
20
-22
3
23
-54
30
-39
5
-34
11
-11
-37
46
1
31
-63
58
12
40
80
42
48
-42
11
24
53
58
26
0
-28
0
21
-38
46
41
-20
-38
4
34
-33
32
-14
15
8
-18
2
40
35
47
27
-10
19
39
-68
12
-82
81
-18
42
13
12
-15
19
17
-13
55
-28
35
-9
-22
36
38
-20
20
-15
69
0
-8
35
-1
-20
6
-33
42
-55
7
-3
41
73
39
-16
45
47
39
-39
-31
28
13
8
-3
32
32
49
31
-74
17
23
37
2
-14
2
45
25
-53
23
-71
2
62
51
-36
49
-49
2
-8
6
-46
-5
76
-31
3
16
-21
-25
-33
53
64
80
7
22
-37
-47
-4
-62
-9
50
36
12
53
-43
6
38
32
51
18
44
-25
-67
-31
-3
17
0
2
57
-24
17
42
39
43
-1
0
40
13
55
-36
-9
-37
28
-18
26
-18
-14
-4
-56
-22
1
35
-29
3
-1
23
30
28
1
-35
-4
-6
109
-3
19
34
-29
-14
7
56
8
33
-18
34
-45
49
9
-10
-20
6
69
-71
-4
-8
-68
22
23
52
41
-17
-20
-5
55
14
-1
70
13
82
-13
-15
5
9
28
13
28
-34
-7
-49
-42
41
1
-8
1
72
-10
-17
-11
1
42
54
-23
28
6
-58
14
1
-17
-43
43
-30
83
33
22
-108
30
2
-42
67
52
64
5
-58
8
-43
-9
50
-21
-24
22
-14
26
12
-36
-7
-45
-33
40
-18
-4
-53
8
-63
26
13
-12
-56
-49
7
-40
-63
3
9
-15
10
-13
-3
-1
13
-39
-3
-18
28
-22
-2
-35
-54
46
-33
-56
-16
3
-17
-43
-33
6
-20
-44
53
8
-11
-32
-4
7
-15
-34
-42
-9
41
-58
31
5
-1
71
-18
5
37
-24
77
65
-9
-5
-10
51
-4
43
-14
54
65
-6
13
16
23
-12
-11
46
35
24
40
-43
40
-12
48
5
19
32
19
6
-81
70
31
38
7
-25
22
-58
-45
7
-47
45
-44
79
-21
-15
41
-3
-23
10
-14
-35
17
-26
-19
-2
32
-81
4
64
10
19
-31
54
-27
-92
33
-2
25
67
-70
-32
26
-13
4
-18
0
0
-36
35
25
-5
-18
25
-49
-24
-18
-45
-37
1
40
-3
-3
-37
-35
-13
32
-5
-24
11
-12
59
-59
-42
-46
1
28
52
-60
9
22
-47
29
-29
-10
3
-40
36
-47
34
-10
-15
15
59
-40
10
0
18
-6
-26
-14
-6
46
-32
-59
-10
42
8
20
45
-64
2
-10
50
-1
-4
1
-49
20
2
-85
-17
-24
-63
3
65
-5
-7
46
-12
17
-25
-45
-58
-34
-13
9
-39
9
15
20
2
69
8
16
39
-21
5
-9
4
85
57
11
-42
-24
9
43
-35
-20
47
38
25
10
-17
-34
-33
-14
-24
-6
17
39
26
-59
30
-62
-52
-4
50
22
-7
-53
-82
59
-13
-8
-22
69
-49
3
77
-61
-16
-49
-11
-16
11
-14
-64
75
-33
-35
26
-16
-37
2
-16
-53
47
-37
61
-35
-25
-74
40
57
-6
11
8
-4
13
5
88
-5
-9
-20
-21
-79
-8
-9
-1
-25
-15
-34
35
-33
18
-70
-29
-62
4
35
5
22
-20
-4
25
75
-32
-47
-28
7
5
-1
32
-44
1
-42
-42
-31
83
-16
9
41
18
-70
37
43
60
-29
-33
29
14
-21
9
37
-7
63
16
-38
-20
-16
32
-10
-7
-26
0
-28
38
21
-36
-79
23
28
54
0
-35
30
-47
20
-12
19
-21
5
-3
16
16
-4
-8
8
9
-16
12
21
58
0
85
29
-11
19
39
10
-5
40
-23
-23
9
-6
-37
-23
12
13
67
20
27
-8
-31
3
46
-34
-10
-13
9
77
14
-30
28
3
-10
16
7
12
14
45
-9
8
-20
-50
1
-22
36
-47
9
29
9
22
-16
-4
-3
10
21
15
-11
-20
33
-13
1
-22
-27
5
-32
18
-23
12
9
8
-43
-40
-26
-13
-14
-11
67
-32
42
-5
37
-6
-40
-26
19
8
9
22
0
27
-6
-31
25
-56
-7
19
14
-5
-6
-23
-8
32
10
1
-1
-22
39
20
-33
-23
5
89
-52
-3
-10
10
41
5
57
19
-37
-28
-56
-2
16
20
-8
-37
4
2
3
-17
-14
-50
-28
7
-32
-15
34
27
-11
-33
-22
8
-63
80
2
-18
50
41
-1
49
-28
48
2
25
-75
40
28
31
-60
-25
-16
-55
-24
-16
4
-28
-70
69
25
-28
4
-6
22
26
22
-16
-3
11
8
-30
14
-9
39
24
22
-57
40
32
8
-12
0
28
-57
-16
46
19
18
-48
46
-48
10
11
24
24
41
18
-16
-10
17
35
20
-18
-32
4
-43
11
-17
-24
-17
-62
30
4
20
-59
28
31
7
10
-26
-8
9
21
24
48
29
30
12
-15
-8
64
69
2
-34
-40
-53
26
-32
-4
77
-28
-16
2
-29
12
6
-22
-60
-29
3
-16
-19
25
7
5
-3
-51
10
0
15
22
26
38
52
20
-8
-27
-14
-20
38
44
27
39
0
6
-22
-29
-58
18
17
28
12
-2
-4
30
-21
-4
-26
-1
31
-2
-49
14
0
57
4
-30
-14
-39
62
23
0
-21
-33
26
72
37
-26
12
-30
14
-18
-42
34
16
-46
47
-9
30
-31
-25
11
-22
-31
53
48
16
-9
4
-7
4
-20
-11
39
-15
-3
22
48
-10
-24
13
-6
-10
-13
-70
-20
57
-30
-23
29
3
-46
-12
-13
35
-11
5
86
11
-18
-20
22
19
58
61
-46
-16
-61
-39
-58
-46
-42
19
-64
11
52
-30
22
-36
-55
16
15
-11
-19
55
52
0
47
-4
-25
-3
-56
-14
1
19
-9
5
35
71
33
28
38
-11
7
12
-58
-22
-48
-28
18
-45
16
-43
-37
6
21
10
-26
-20
-7
4
33
-31
-51
-48
-29
36
4
19
-36
10
-30
-66
80
-4
58
-1
24
67
28
-74
-1
-11
21
-22
-27
-7
12
38
-33
26
-32
0
4
-43
-60
11
-7
36
8
-16
46
-32
77
-45
28
22
-13
-13
78
-41
16
-50
6
-7
-94
-30
64
40
-11
-9
13
-51
-20
-42
12
-67
46
-10
-23
-3
-40
-20
-26
-25
43
-38
28
4
43
-5
2
16
21
81
-39
-31
89
-40
74
35
43
10
-36
28
14
47
-30
16
-55
12
38
-12
-13
-1
-6
42
-56
0
32
59
-11
-28
-16
-30
-6
-30
-3
67
-8
-72
-26
18
16
-14
47
-5
-4
27
-38
12
-14
24
3
13
61
-2
35
21
24
-4
31
41
19
-12
-42
13
-7
-21
-12
10
-17
46
46
0
18
42
46
-17
32
20
51
-23
10
38
-19
22
-15
-12
34
29
9
57
-10
-19
-5
28
64
-18
58
13
24
-9
9
11
15
10
14
24
14
37
-47
20
49
61
85
1
-2
-16
33
-21
-15
27
49
-19
68
-27
-39
-33
-17
28
-61
3
5
9
-14
19
-12
-38
-38
0
26
-26
-39
-26
8
-34
5
-42
21
39
12
-1
20
67
36
24
7
-27
42
-50
-3
-30
-20
-28
-22
21
-7
10
-34
24
-48
8
56
18
-59
48
46
-27
-16
21
-29
3
-22
-26
8
36
-10
-28
-40
-19
-10
-12
17
41
1
-16
-7
-1
-37
46
-57
-1
10
15
1
4
87
30
-21
27
17
48
8
31
75
-13
-49
13
6
10
-82
-3
-14
33
17
46
18
101
-12
-38
-43
0
-41
25
11
-1
52
3
1
-6
1
9
-11
-15
16
-8
-102
36
14
-66
11
-38
0
22
-25
42
25
-7
-29
-4
35
14
-13
5
35
52
18
-26
-34
-34
12
19
-31
17
19
19
-65
-14
34
-8
-36
-7
9
53
-59
23
22
48
19
-29
38
24
-40
-43
-39
36
-38
-29
58
-12
52
-41
49
0
-21
45
-9
9
75
-34
-26
15
17
74
-1
-57
1
84
4
60
12
23
-2
51
-21
-15
10
64
40
36
11
1
-42
51
24
-3
-45
59
36
41
-29
-11
13
-9
-20
-41
-2
18
-3
-77
-25
-38
-3
18
-5
34
-19
27
43
19
-39
58
50
-19
-69
9
13
-2
-74
-2
-101
-8
-22
-29
11
-22
-5
-37
-51
-29
14
66
1
-14
-17
14
19
-37
18
-2
4
-6
-13
2
-16
-14
-26
-48
-36
4
-6
-38
18
-103
-9
11
-32
5
24
13
-4
-41
8
10
36
-26
-71
12
-37
-80
10
-66
43
15
-14
-63
22
-21
-23
-19
10
19
10
6
-71
18
-16
-10
3
-5
-19
31
-22
56
-12
-8
-2
32
-35
-1
-10
-24
-10
-20
-11
-25
24
-8
43
29
10
0
-9
-72
-99
-17
3
-12
19
83
43
-22
-30
-67
32
-82
37
16
21
25
1
2
27
21
-45
24
-46
-43
-20
-7
17
41
34
39
-11
16
-9
17
44
-20
-72
8
-27
43
-36
15
42
-5
2
-25
7
30
50
-42
25
38
-40
89
16
1
-4
-13
24
-29
-27
10
-61
13
12
20
27
-25
7
35
26
14
38
-10
-18
-59
3
25
-20
-2
-65
53
61
2
38
-43
3
13
0
-8
-27
30
-7
-75
33
-12
-23
30
20
-29
12
-11
33
11
46
-44
-11
-42
18
-7
46
28
-22
2
13
-28
20
-40
-54
48
20
20
22
33
6
27
4
-23
-9
42
-22
0
4
46
40
-59
-68
-4
-28
55
-14
1
40
60
2
-23
-7
-42
-16
13
-47
-8
-39
66
3
-17
60
-23
-12
8
-32
26
19
-30
23
-24
-35
9
32
7
0
-17
27
22
10
-29
-41
-53
-64
-19
-2
-1
10
-46
8
-28
-50
-28
-22
-18
34
50
-48
-8
-13
3
-9
-24
-31
11
-18
26
-36
35
-49
-5
7
5
-21
-33
60
35
-3
-9
0
48
-13
21
2
5
-2
-19
25
13
-40
98
42
-21
49
-52
-1
-3
7
48
28
-10
2
14
-39
11
-3
-4
-18
1
0
-58
45
-1
-19
10
22
-23
-27
28
6
-15
37
68
15
43
-68
-60
25
26
-25
12
1
22
-4
-14
-25
-4
-5
-34
47
56
5
-74
18
-9
26
18
-48
-42
5
1
-15
17
-37
-62
-6
27
-26
-59
69
36
17
-34
-9
-20
2
54
-1
-31
-26
50
35
0
-3
34
-3
33
-57
-6
-77
-66
31
-30
-62
-18
-22
32
-49
-3
42
78
8
51
24
38
-19
89
-2
48
33
15
-76
-17
-52
-21
-24
-62
-1
47
-16
33
8
-3
22
31
10
-9
6
-44
14
-38
-8
10
17
-57
22
23
22
-32
28
22
21
56
-23
-1
-49
3
-22
46
25
-86
-29
-11
-24
47
-11
15
19
23
-24
1
42
0
44
23
-20
-14
-29
36
-10
-36
-40
-7
16
-10
-15
-63
90
20
-20
9
-8
-33
2
11
-16
29
52
28
-4
21
-50
47
46
36
8
-18
-30
17
-9
3
27
43
-27
29
6
-21
-20
-36
-10
-4
-9
-21
-13
-39
-45
34
48
-33
-40
1
-41
-3
12
59
39
45
31
-2
-30
-7
11
-1
11
23
-33
9
-23
-2
-89
23
-5
2
-9
-51
1
33
41
-20
-20
6
-12
-29
-15
43
-7
42
17
-33
25
-59
43
45
9
-23
-42
-18
27
30
-14
20
-74
-14
-36
37
9
10
-25
10
-1
26
-44
-38
11
65
-7
-14
18
-5
0
22
19
9
0
-63
-6
-41
39
-34
3
-54
29
-37
-17
12
39
10
-33
63
0
-35
10
-5
-9
-32
-47
21
-37
-22
17
-62
41
-28
25
53
-35
-33
-24
-11
-12
11
-12
-40
-25
-77
40
26
0
64
13
28
-18
-9
-31
11
-45
-30
-15
4
-44
-33
87
20
39
39
-22
-35
55
-40
12
22
29
3
-20
20
-37
-84
-45
-10
-29
38
-20
7
26
29
-7
-45
-31
-52
-65
-10
-27
26
-25
-41
-32
39
22
-2
-4
51
-16
-17
-18
-25
39
-11
25
6
-16
41
-42
-18
27
-6
-7
-3
-31
12
4
37
-42
-18
-3
62
-42
-4
-38
-8
-29
-2
25
-34
7
10
34
-11
36
-38
-14
6
35
26
7
38
-79
39
-9
-23
16
-14
51
-5
35
56
39
27
-17
-45
56
28
-6
6
33
-45
-12
25
25
51
-16
-29
-20
33
34
-44
22
1
29
-54
65
-16
12
13
-29
27
-51
-110
-45
19
-20
38
-13
-11
27
52
6
-2
11
55
-24
-1
-106
9
-19
14
-9
32
-25
-20
-26
-45
38
34
-7
4
28
34
-47
-28
52
45
4
15
-76
-33
7
14
-39
28
21
-9
16
-35
15
9
80
84
43
-63
-18
-50
-26
41
-32
5
29
-33
26
-9
13
-14
15
-6
0
37
33
11
-35
19
12
-5
-10
-43
2
3
-14
-63
29
51
15
-31
-14
-27
-18
-48
-25
25
-18
20
-5
30
6
35
15
17
-56
32
46
2
-12
-49
6
15
-22
-26
6
33
-29
6
21
-56
41
-62
-17
3
-11
4
1
17
-5
80
10
-50
-51
-49
50
-30
-14
19
35
40
21
12
1
-7
-58
41
-12
-10
-59
-1
-23
-13
-57
5
-14
-2
15
-55
-29
2
9
10
-59
-12
-64
-18
11
18
-12
72
-38
-32
-4
-8
39
11
23
-46
-53
-32
52
63
43
-2
-51
3
28
0
13
22
-30
-36
21
-53
-20
-12
22
8
1
39
-58
37
-6
38
33
-41
-72
-21
-22
-52
-16
18
-50
-5
-14
-49
4
49
-82
98
39
39
-29
27
20
-12
14
26
26
-6
7
-25
-85
34
22
43
36
33
22
-36
-10
-53
-4
-85
-12
14
35
-66
10
-44
-11
34
16
-15
17
58
-57
49
83
-7
23
1
4
57
40
-19
94
-24
-17
-18
-23
2
-19
6
3
-40
-32
3
-2
7
22
36
-53
-16
-47
14
-58
-3
-36
20
10
83
42
5
26
75
-54
9
15
44
-10
-13
11
2
-32
13
59
-31
24
4
11
-29
54
17
-86
62
-1
75
-7
-35
27
-10
-26
18
-8
10
-21
-6
-14
56
69
41
-4
-30
46
-39
-6
22
9
14
-27
24
24
-54
14
34
-57
13
6
45
12
8
43
-55
-1
-40
-50
95
-4
18
-7
53
26
15
17
-20
31
21
7
-14
22
49
15
-44
-10
29
-7
-24
-5
28
10
-18
3
2
-2
-26
-14
2
64
6
15
20
48
16
11
-15
-25
23
-56
-14
18
-27
-13
-38
88
-31
-36
-50
-15
-10
18
-8
5
-6
-5
-22
-1
-6
-35
-26
-24
-10
-51
7
19
-2
41
22
3
28
31
26
-32
14
-16
-17
23
-21
-25
-24
-53
48
17
-1
46
46
-53
-38
23
-34
-72
15
-20
-45
-14
-18
12
-31
-34
90
39
13
59
8
-12
12
17
69
14
52
-33
-56
-32
-19
5
32
22
61
26
6
-11
24
5
-3
-68
-27
-12
-11
65
-64
19
-23
-10
35
-36
36
4
-36
-62
17
41
-27
-7
52
-23
49
14
-7
-10
-47
-38
-22
0
-9
-31
2
-7
-7
-6
-21
7
14
-25
-24
18
-4
-12
-7
76
-5
24
46
31
18
-27
44
37
31
22
-20
-29
10
-61
30
11
46
44
1
67
-2
-8
-34
23
-32
2
-4
-49
44
-3
0
4
21
32
66
-50
-65
-29
11
31
0
10
9
-40
-12
19
-10
54
13
-16
54
40
-32
72
40
-7
58
10
14
-1
-53
-39
-1
39
6
35
-16
-10
-18
-31
27
24
8
-20
10
4
-39
-59
27
-35
1
69
4
-26
-36
44
23
-23
33
-44
5
0
-33
-29
35
-3
-41
-21
-37
-34
-9
-7
26
80
49
56
-30
17
-3
-13
100
72
33
64
34
-11
2
42
-39
37
72
52
-12
-58
45
26
20
-47
-28
-1
36
-6
52
41
32
25
5
-4
-13
-33
-36
26
-5
-50
-4
6
4
3
10
16
-24
7
-49
-32
37
-14
-21
27
-17
2
-6
-12
-48
21
52
-16
22
11
70
-2
-5
2
-58
-17
37
2
-97
-27
-32
50
29
-9
-17
-3
-48
-21
-14
35
74
-22
38
-13
11
-18
-37
4
-53
43
-51
-30
-10
20
-53
26
58
-9
50
-14
66
43
19
0
-77
39
42
-32
59
32
-32
25
-23
56
-37
-1
-14
33
-63
76
-23
17
10
-1
-27
-27
-3
67
34
-32
10
-20
-46
7
66
-39
26
-39
-35
-10
18
48
-59
23
-35
7
-24
16
-64
-51
22
53
-18
20
31
-22
-17
13
-47
2
-19
18
-26
-56
-8
-63
-3
17
6
-3
-25
18
-2
47
-30
7
0
-17
-52
20
38
17
13
4
-23
-11
3
-44
-15
-17
12
24
22
-7
-66
13
-61
-90
-25
-5
23
25
-50
-70
-18
-19
37
57
-10
11
12
-13
12
-8
4
42
48
-12
-39
-6
-9
9
22
34
-15
-22
18
17
24
-29
-71
-1
-1
-5
2
39
12
-4
-30
-6
17
-8
29
40
-29
-14
31
-13
-17
-4
37
-21
10
61
-52
-25
-51
28
-14
76
-3
24
54
-12
-40
-31
-4
-4
63
43
-69
-42
0
31
-12
-21
1
35
32
18
28
-9
66
-36
42
50
35
-81
-19
-11
-8
-26
-6
5
-47
54
29
23
-17
-16
-74
6
-25
-23
-26
8
-11
-16
2
-4
50
-50
-29
-30
28
-19
-3
-11
-39
-68
-18
7
17
27
-13
-28
-18
-79
25
-81
46
-41
39
-23
-4
-20
2
-41
49
-2
-34
-24
-8
12
11
36
2
6
-32
12
-24
-48
2
2
23
-31
-46
-28
-6
8
33
-3
-7
13
-29
-33
44
-16
3
30
13
33
57
-36
-53
29
5
-27
-12
-75
-58
1
-27
-17
-15
-1
-20
-12
-1
13
-6
30
-3
23
36
-8
-4
1
-2
9
6
-37
37
4
50
50
-62
45
0
1
-6
57
11
-10
-58
43
14
-15
-1
-6
32
6
80
8
41
-38
0
-54
-34
41
-31
-29
11
-33
47
-10
-9
50
-17
-16
-11
20
22
8
-96
-27
0
-34
83
57
-24
-28
20
35
6
-35
-25
-14
55
-11
39
39
3
21
-27
-34
-35
33
27
-11
-52
-1
39
-11
-41
29
9
-52
-13
6
-48
-10
14
72
-43
-33
-7
12
-15
-22
-114
-40
17
37
-10
-50
4
-8
20
32
-1
3
31
4
14
39
-2
-14
15
19
44
16
36
-17
0
27
17
-36
-48
-49
83
7
-47
36
-23
37
15
2
46
13
-36
-37
-54
25
-15
-7
24
45
16
1
7
12
76
29
2
10
7
33
-62
26
22
16
0
-28
-13
7
-60
59
-5
8
-25
-84
-40
-24
1
3
50
66
-37
29
-45
15
-38
-42
12
-24
-40
-1
-35
-100
33
-25
-33
-19
18
-37
-6
-14
14
-9
10
-25
-24
19
-23
54
29
4
3
-44
-30
10
-34
-20
37
23
-36
-21
-36
-38
3
5
6
20
-16
-4
4
11
7
-35
22
9
15
61
15
-13
-5
1
46
-32
-75
10
10
11
17
52
-40
-48
35
36
2
23
40
0
15
11
14
3
11
36
-2
-22
57
45
11
-21
-44
10
-14
-78
-29
-15
25
17
60
-1
-61
-18
17
-19
17
12
42
54
77
4
-40
13
-46
-85
36
7
-10
-57
-61
-63
5
-20
-20
26
15
47
-16
-30
7
11
18
0
-6
17
-26
6
-18
16
19
9
-32
-25
34
6
-64
-34
20
-33
-28
-12
-19
24
11
-36
-55
-27
41
11
-46
21
27
97
-25
-10
9
13
-8
33
-4
-22
14
3
52
9
24
-10
20
15
-36
45
12
-7
19
6
-53
-18
-13
39
-35
36
6
-3
59
-19
25
16
67
-41
7
50
-5
-53
-18
-49
13
-6
0
-6
-4
25
3
-2
-35
-23
-5
-25
8
25
-3
-13
-3
-10
-1
34
44
14
43
5
-10
2
59
-3
-59
24
6
27
-27
17
16
-24
-38
-23
32
-39
20
35
18
-18
43
-20
23
0
-11
26
-62
-26
11
68
29
18
22
-31
69
77
37
2
-32
33
13
45
-5
-28
84
-10
-54
-27
-80
11
17
8
-50
-15
73
1
22
-43
10
11
61
33
31
67
76
14
-21
-10
-8
-12
11
31
-23
0
25
-10
2
72
-1
12
10
38
-16
-13
26
-62
12
-5
16
5
17
59
2
29
-58
18
30
10
-1
-24
54
7
11
-1
-40
19
-30
25
-14
7
-42
35
-1
-60
27
0
7
31
-6
-21
-28
-33
64
-44
-26
-108
3
-4
15
-37
-23
20
48
19
8
-20
-11
11
-41
-9
22
9
11
-51
57
11
35
18
31
68
-14
5
27
-17
-5
6
30
32
-1
45
65
-24
-60
-6
-31
0
19
61
-18
1
-12
55
-22
23
23
-51
55
-37
-17
47
-13
-9
19
9
-12
45
-19
17
13
-10
-47
7
-42
30
-57
-22
-3
-21
-7
-49
-34
17
60
-13
19
73
-24
-10
55
-54
-28
41
-5
-23
-30
26
-41
25
46
11
-49
-25
2
31
-10
-76
-69
-11
2
5
-3
-29
27
25
11
23
-51
-19
26
28
-20
21
-17
4
-20
-17
-1
17
11
-19
-39
-42
-28
-44
-16
-20
-37
-46
16
-2
-23
-33
-58
-25
-1
27
11
-43
-7
-13
35
-32
0
68
66
-7
35
22
-48
-56
18
-2
-4
-10
9
-31
14
60
-12
1
-7
-6
-17
42
21
-46
28
29
-8
-54
-42
11
-18
-54
-52
-5
26
-39
-44
5
-45
-60
-13
11
-13
-3
21
-16
-15
40
24
5
-16
-36
-51
-19
-33
-43
-1
-73
-4
2
31
21
-6
37
17
-22
21
13
-44
-19
-5
22
-50
30
-2
-46
-20
-2
8
42
-9
-50
-30
7
-21
-44
33
55
-15
15
-59
-41
-28
-20
6
34
5
-71
7
30
78
-4
53
3
5
0
-13
-7
-61
6
21
-39
22
47
-21
121
-24
18
-28
-35
6
-8
-10
4
8
40
45
35
22
-24
7
18
25
19
-18
22
-27
38
35
48
1
16
91
-20
16
-24
-33
-10
46
17
-28
71
-17
20
-5
2
19
-50
8
-13
1
6
65
102
-21
-6
33
20
32
14
-2
-31
17
-43
-18
40
38
-72
27
41
6
-4
-45
17
-32
4
22
-29
-20
51
-65
-17
-12
33
-12
2
-22
8
-23
-4
37
-2
-51
-12
-10
65
27
-50
16
-16
-1
-52
-41
40
10
-56
30
-16
-14
-40
-10
-26
-1
7
38
37
29
71
-18
31
9
24
2
25
-11
-32
-33
11
53
0
29
-47
7
-15
20
26
34
-4
-32
-15
-3
32
-43
5
7
-14
34
58
0
0
36
-22
-37
-22
7
-31
-4
-36
68
-23
-24
-1
-1
-12
-44
14
-15
4
-45
-45
5
11
12
2
52
38
12
-60
29
45
-31
1
17
4
-41
34
30
50
45
-16
7
11
-64
-6
33
-43
3
-71
-36
-12
-24
-24
21
20
-15
25
21
-5
-23
-23
-18
46
38
-30
-34
-27
15
7
-1
35
13
-14
-61
2
-17
32
-5
66
15
51
-21
44
7
-6
-11
-51
-11
-1
-40
-27
-23
-33
-17
39
-31
4
41
14
1
17
-12
20
-8
-12
1
23
-3
27
-12
-2
-36
-32
-24
-11
-18
-15
41
-3
9
0
40
-18
-6
-5
27
-26
11
-11
-14
-17
-18
-45
27
2
25
23
-39
-43
-2
8
-43
31
-18
49
12
-73
-35
40
-22
-3
9
75
-27
31
1
-17
31
12
2
-48
38
45
-21
8
-11
-10
-6
42
18
5
-5
20
-55
40
54
-30
15
-16
1
16
25
36
52
49
-43
-42
17
-16
21
-59
15
-10
22
62
10
-30
9
-2
0
55
-55
-12
1
-5
-13
51
64
15
24
9
83
25
79
20
12
-37
25
27
-9
55
-8
45
3
39
41
-11
-3
37
34
-7
0
-22
-5
2
-11
26
-14
-27
28
4
42
-9
0
-37
10
5
62
-53
-25
5
26
-4
-2
-28
-40
19
68
1
-39
12
23
5
18
-20
78
19
24
18
-38
9
42
-23
-14
17
-31
-18
-22
-27
15
34
20
36
53
-17
-12
-55
-6
-6
69
15
-94
24
-51
109
48
48
30
33
2
1
-38
43
-10
6
6
32
62
-17
0
-1
63
16
0
33
50
6
43
71
36
1
20
-7
50
60
-17
-58
-5
51
19
6
21
-19
7
-69
32
-41
4
2
8
2
-30
-6
11
-14
17
24
47
-50
37
-121
4
-65
106
7
-21
-15
-29
-29
-62
1
63
41
0
-18
-8
24
42
5
4
43
-6
-31
-40
29
-18
-29
-44
31
-9
19
31
-85
51
28
28
41
24
0
57
-2
-39
-19
-63
-23
25
74
7
-30
6
75
1
12
31
-14
43
4
17
-26
15
-5
17
59
35
40
0
9
44
-35
-32
15
-55
6
-21
-5
19
14
16
4
-80
3
1
26
33
-7
-7
-6
-18
2
31
44
58
16
-15
-60
45
-53
-95
82
5
-7
26
-11
38
-7
3
-10
41
55
10
-3
-24
4
19
2
52
-20
-70
51
-37
23
17
-44
32
57
16
39
22
-26
-41
46
30
-19
-1
-52
-29
4
29
3
-10
-19
-33
61
-26
35
-18
-74
40
14
-46
-26
-19
11
14
-93
-27
-4
20
-33
13
55
-23
30
-7
22
26
-3
-5
1
-43
-12
44
-46
36
4
18
-4
-22
-47
-7
33
3
1
16
-29
-29
-35
-25
19
33
35
-59
3
-23
22
12
-26
28
7
-35
-33
-32
5
-8
101
-85
9
-36
13
32
15
-39
-1
56
-14
-20
55
-12
-4
14
13
29
-20
-21
-12
-77
49
-21
11
35
-11
-33
-35
4
-15
-19
-5
-43
-9
-81
7
40
-29
58
58
71
37
-18
-37
1
-43
-27
-57
-47
-4
-32
51
43
10
6
-35
-57
28
-12
1
36
-26
2
-37
34
-9
-65
-14
38
5
10
24
32
50
0
19
-13
-22
-22
-21
9
22
28
-15
-36
-25
5
64
38
-4
24
-5
5
-47
0
8
-12
-18
-20
-3
61
3
13
7
-8
-4
-75
-23
11
-32
12
51
30
3
30
-14
-2
-28
-11
32
20
21
8
-25
-18
19
3
-8
0
7
-23
28
-35
36
-12
-35
55
55
-7
4
17
74
-10
-5
51
51
64
6
-38
33
22
24
21
-16
-19
-12
6
-5
37
-56
-42
-22
42
-18
28
37
-21
-7
-38
42
-35
-17
42
-9
8
-60
50
-5
-34
-5
-43
56
41
-56
-31
6
-46
-58
-23
2
-57
-11
-9
-59
11
12
71
33
50
-16
1
71
22
-10
-27
4
18
53
-33
32
-19
21
15
24
13
31
-39
-5
0
-7
-24
-17
55
-15
-6
-49
-60
27
-11
42
27
9
-61
12
47
-10
-3
-19
-34
50
-16
-61
20
34
-35
19
-11
-32
48
-25
27
7
11
-26
39
-45
-52
14
55
19
27
-66
-101
-14
-78
16
-21
45
-42
3
-31
7
4
-8
18
7
36
-67
-36
-13
-29
13
12
34
14
-63
-60
39
15
-56
3
42
-9
8
-7
23
51
-20
-17
14
-47
-44
-5
37
-17
10
-66
4
39
41
25
-9
-37
14
-11
-65
0
-18
51
39
11
35
-54
69
-31
-15
-5
46
61
42
35
-17
-15
-9
-10
-44
13
9
-23
-1
4
-89
-1
-22
64
-45
4
9
-22
61
-20
19
-40
8
-26
39
-25
59
-51
-10
42
-18
-27
56
-61
55
-10
-24
41
4
-12
-20
-14
3
18
-8
-8
33
-14
-27
30
-6
15
-19
80
54
-6
8
38
-43
9
9
27
14
-12
22
-6
-7
-40
34
62
-31
27
-23
-10
9
1
25
42
17
-24
-38
-19
50
21
41
41
10
-23
15
-31
-63
13
-22
-65
104
55
-32
-9
33
-3
-6
4
-38
52
-13
-37
36
-25
-27
34
-26
22
-8
14
-40
-21
-25
-23
21
-12
-9
-38
70
6
-24
4
-31
17
48
-36
-38
-15
71
26
33
-3
-28
74
-15
9
14
-31
-16
-31
48
78
53
-2
-42
47
-42
-37
88
-50
-31
63
26
82
-15
-9
-23
23
-3
-22
39
3
-13
19
13
26
23
-2
-5
-29
20
31
30
8
-28
-18
11
10
16
-51
-18
5
-27
-23
59
19
53
22
-2
13
-36
52
-45
22
-15
27
-5
-29
-24
41
17
22
-8
11
-30
-13
-31
-27
-25
9
-15
17
-62
-61
-20
-34
-13
-7
-11
18
-52
-10
6
-40
16
-63
-4
-27
12
60
-15
-23
-31
23
15
27
11
35
-18
20
-122
46
38
66
15
1
-8
-50
-4
-35
-31
-13
-48
28
-43
62
21
-33
30
22
20
22
-58
-23
10
-37
17
-9
49
10
-33
42
44
41
32
54
3
-13
15
-78
-31
-47
32
14
66
-42
0
-16
-1
13
-8
30
-5
22
19
-19
-21
34
-20
32
-24
15
-27
-17
-26
-27
26
49
33
-45
26
-19
-4
-73
-54
33
9
22
-6
31
22
3
-3
-36
-28
-4
-62
20
-4
15
-1
-26
48
19
26
-18
-9
76
-14
17
-43
-26
-16
8
-9
-62
22
43
7
-4
-2
-27
-37
-45
30
-12
1
-6
110
-15
-6
-23
-40
14
-21
-31
-37
-29
-56
-3
45
-20
-25
20
-12
14
9
10
-14
40
-11
-13
-17
-22
-7
-25
-81
-17
12
47
-44
-23
22
-18
-60
10
-30
-6
-12
-71
48
85
-11
-58
-17
-29
-71
-64
31
9
-44
13
-23
-2
11
-75
-25
-75
18
-50
-15
5
13
-58
30
38
-5
47
3
4
4
56
-108
8
4
23
-36
6
-103
25
-19
-88
10
62
-42
-26
49
22
0
-8
23
29
35
39
8
-9
0
-30
-4
-47
8
-79
57
-14
10
44
23
111
3
-60
-13
-19
-18
9
-37
-46
-25
12
0
0
55
32
-23
9
-25
8
45
6
51
22
-35
-38
-54
-62
-24
-63
-18
-39
44
18
-26
-36
19
-13
-19
-22
-21
-1
15
51
-7
2
49
-12
1
-28
-39
43
10
5
35
-42
-28
-27
-3
29
22
-7
-12
32
17
-42
19
-7
31
71
-26
-34
-10
-2
1
54
37
-26
-40
-5
-8
-53
8
-17
46
10
39
57
-15
1
-35
0
-28
-4
-20
-32
-27
19
-84
-3
-37
23
23
-67
1
39
-7
-66
-37
-7
10
-20
-14
29
-11
56
-13
8
25
-47
-7
31
33
-9
-28
-38
45
12
39
35
-25
-25
7
43
15
16
3
9
24
-24
4
-33
-5
-37
-14
-14
36
-5
54
-58
-46
20
0
7
-34
-30
-27
-34
-61
76
-5
20
-41
11
29
-38
-17
-81
-7
10
-3
-38
-29
17
6
25
-59
3
84
11
-81
6
35
-53
20
-42
29
36
-22
49
15
-18
-12
47
12
-35
-31
16
-54
-17
-13
-32
12
13
27
10
68
-19
-64
-8
-91
-3
7
-28
57
26
-7
9
-13
-39
-17
-49
35
-50
-40
23
8
19
-8
-40
46
-31
9
-32
-9
-38
17
2
46
-40
18
-20
-12
19
-34
-22
-32
2
-5
-19
-36
23
-29
-35
-56
-2
28
22
31
-94
22
-43
-18
38
-11
-3
10
20
31
-63
-97
-33
-10
-8
19
18
2
-4
-11
-4
20
21
-50
-41
-65
-57
23
12
-9
24
2
10
-8
-64
-38
-66
-3
-28
25
-7
-51
-17
-49
-70
27
-39
-76
40
-11
-51
12
1
-14
-28
6
24
-12
-18
10
44
73
-74
29
21
13
-29
-47
-12
1
-14
71
-32
-8
31
-18
22
25
-9
49
-50
0
37
2
-38
30
18
10
-8
-1
-32
46
-70
-13
20
-3
-15
38
-62
-25
78
-26
-5
-5
50
-16
-38
-5
21
35
38
-19
-18
44
-24
-7
6
-40
26
-18
-10
-34
21
-22
-35
-16
-7
13
58
34
27
37
21
-34
-21
-16
-15
-53
6
-37
14
-31
-2
29
32
-45
65
-13
3
65
1
41
26
7
87
46
37
-36
-84
1
64
-15
45
-7
32
28
5
-4
-23
8
-62
-111
33
-10
-25
58
-70
6
-33
-14
18
16
40
7
2
-101
-10
63
-27
28
42
-62
60
56
-24
24
-77
-11
-15
6
-15
-7
52
38
-21
19
8
0
-32
-69
-36
-28
13
-24
4
21
-7
13
27
6
23
0
31
39
30
6
29
-69
3
3
-49
-62
5
25
-24
39
11
51
-7
39
-79
0
-8
3
19
31
0
4
12
-16
-2
-61
17
5
17
-2
48
3
-2
-24
8
69
-43
-16
19
27
-14
56
-8
4
-34
-31
-3
4
61
10
43
53
-62
-43
-28
38
15
-60
-22
19
11
46
44
24
24
17
-44
-18
1
22
-8
-50
-26
-6
-28
-11
19
17
24
53
-23
90
31
-49
-8
3
0
42
-40
52
-1
-3
1
-8
15
-6
-29
30
53
49
-27
-32
-16
-47
-69
-61
-1
-41
34
-35
45
0
2
-14
-25
-13
-48
-3
1
-26
-11
-44
-40
-38
-33
-3
-36
1
53
33
-5
5
21
-29
37
-19
-25
33
-33
5
-29
-100
-17
40
16
67
-16
-17
17
28
37
-29
27
-74
2
29
12
1
-54
-37
7
-20
-41
-14
10
-24
71
-5
-18
-5
42
66
14
-17
56
38
22
0
-85
-23
-8
-28
-33
-6
-32
-13
-10
-41
-39
-1
22
18
28
20
-28
-5
7
37
-29
-20
13
-66
20
-46
-11
-23
-18
-3
35
-2
-21
-12
-23
-20
19
-20
-14
-48
35
8
-27
-62
27
20
8
13
10
28
-30
-43
14
-75
-37
26
-37
38
-36
-10
-20
9
-13
-24
72
16
-39
-29
34
49
66
-71
39
43
-23
-33
-24
-43
-42
-39
-72
-21
16
57
8
11
-37
12
3
-21
56
50
29
-8
-8
33
-11
-46
-29
-36
-61
49
-17
43
14
45
41
65
1
-17
-1
-8
-18
17
-74
-3
37
0
-14
-20
19
-20
-8
-43
17
-2
1
49
-27
32
-81
-10
-51
-4
-58
-23
-56
43
-56
-76
-65
10
47
-55
12
18
6
19
17
-52
-34
12
-11
32
-22
-36
-36
-5
-23
78
-19
-42
2
-20
61
4
-18
14
-36
-11
-18
-9
-24
-41
39
47
-31
-12
38
-43
9
59
-43
-60
58
-13
-7
34
10
-36
22
-17
-8
-8
31
35
-18
-16
-24
-5
7
-78
22
-59
-14
16
4
7
-21
-22
41
3
-67
-46
-4
14
-1
-26
20
3
47
-5
27
24
-30
37
31
37
-5
-31
-66
-27
27
-6
46
24
15
-18
12
17
1
71
37
-48
13
-61
4
-22
-84
-15
0
4
6
40
-25
14
35
-4
28
11
25
21
-3
4
2
-11
-27
-24
25
18
-65
29
0
52
22
-15
17
-2
-30
-4
-15
18
11
28
17
-38
-29
39
-1
34
11
-50
11
27
-40
-4
-29
15
-11
-20
2
13
-16
35
37
-3
-11
62
2
-10
45
23
14
7
4
9
-35
-14
56
-17
15
-20
-20
-23
-21
8
22
46
1
40
14
-27
-59
-36
38
16
-22
-38
-14
5
-18
-26
51
-40
15
-24
6
2
-2
22
-40
-19
27
-22
-2
-14
43
10
36
16
-12
4
13
21
18
1
-34
-1
4
2
7
34
22
10
12
-14
45
11
-2
10
-6
29
21
14
-49
12
-51
18
-6
55
38
16
33
23
-49
10
-12
33
-37
-4
-23
-25
53
9
15
7
11
-35
-53
11
-14
-12
-13
-1
-27
-28
50
14
-12
-5
6
19
-16
21
-4
2
-22
-2
43
1
23
17
22
10
6
26
-17
28
41
-37
35
-5
-17
35
22
47
-31
-13
-34
-25
-20
31
19
15
-68
-20
74
-26
-39
-19
-68
56
3
12
-26
-12
-37
29
-4
-51
73
40
-20
-8
61
-2
1
-17
45
8
-41
-19
22
18
-14
-4
71
24
28
7
-15
-15
-4
-18
7
-11
-77
16
1
4
-9
7
-46
28
15
-43
41
-2
25
-23
-30
-32
3
-44
3
45
7
-3
7
-7
-5
36
-6
3
14
-25
-55
-11
-63
27
-33
5
16
-12
-26
-17
31
7
9
40
-30
-69
20
10
-4
45
-86
34
-3
-44
-86
17
-52
-36
-33
-26
-18
-7
-17
8
34
-29
35
8
-84
-5
-20
11
-59
-42
-9
-22
-26
-39
-46
12
44
-4
5
-31
-52
7
7
15
17
15
-10
26
-34
-4
-14
18
25
-12
66
-16
-52
-14
-46
1
26
-7
-13
41
-11
1
12
4
-18
-49
13
66
41
14
26
-8
-16
5
-31
15
-7
-4
4
3
-33
-2
25
3
-12
2
-41
21
-47
-8
26
-31
-15
-21
14
38
-51
26
-5
15
36
8
23
-97
48
-29
9
-12
8
13
31
23
-38
0
-42
-26
-26
-43
26
-44
-2
-30
41
-4
29
-7
57
36
12
10
37
-14
-23
16
-11
-29
19
37
30
94
26
-4
-2
-16
-11
45
-16
11
-52
89
-26
-26
35
5
62
-29
10
-11
9
29
-15
-10
-20
-11
-26
33
16
34
26
-15
6
61
-55
-52
12
-23
9
-25
-17
-6
-8
29
-15
46
15
-31
35
5
-67
-6
-6
-24
9
6
-29
-40
-6
40
-1
-61
-5
42
-20
-26
-42
17
1
-19
4
20
48
58
18
4
-10
-5
-1
24
29
-3
-11
-19
-19
37
14
-15
-19
-30
-43
-7
-71
-29
-55
-2
46
-24
-27
-8
-20
30
-60
1
-17
-30
-8
-38
5
-27
36
-21
-21
0
48
23
-1
43
-45
-10
-18
40
-46
-41
12
-24
49
47
8
-16
-19
40
13
78
6
5
-9
-31
-32
-3
-20
-34
-38
29
-29
-23
2
18
-16
43
-65
-27
39
-23
-29
-25
28
-3
3
-11
-8
6
50
3
-28
52
-38
76
14
-4
-16
52
-38
-8
9
-6
-43
0
-18
-37
-44
-29
-22
7
2
-15
15
59
-48
4
-39
-30
25
54
37
-39
28
-2
13
-4
-72
23
-15
6
-8
13
-41
22
-90
-61
-15
-3
7
19
41
17
-2
-57
10
66
9
41
53
8
54
26
3
19
42
32
24
-8
-9
3
0
3
-10
-1
-19
47
-12
12
0
75
-20
-36
38
10
49
-11
-30
-8
78
1
-11
7
35
29
21
-6
21
-20
34
-2
-26
31
39
17
7
-44
8
29
9
-31
50
-11
-44
-19
-43
45
-31
-5
29
28
36
34
-22
-49
59
-54
34
30
-17
-27
-10
-16
-61
0
52
34
44
17
-27
34
22
-46
11
-49
-25
18
36
25
-20
26
-7
3
-32
-2
0
29
28
42
-10
19
-66
-28
16
-13
16
17
-33
-22
84
-11
-36
15
-60
36
-2
34
3
5
36
63
-12
14
53
54
-9
-19
-36
107
-6
-58
32
-35
28
24
0
-29
15
11
4
89
-18
-16
-19
5
-19
31
-16
14
-39
1
10
-102
-61
20
-29
-2
16
31
-21
-13
-29
34
7
-52
14
35
41
78
-24
-31
27
-33
-31
-35
44
1
-21
-9
32
22
18
-57
-18
-6
-57
-40
-28
-24
-55
-15
32
34
-6
-74
0
56
34
-47
23
-7
17
-2
-33
10
-10
12
24
42
13
-51
74
11
11
32
-11
-35
-19
25
16
13
13
-42
-29
-83
43
50
0
-51
21
29
1
-23
-7
-32
26
29
-20
39
-16
5
22
-4
26
-12
6
-15
9
-9
32
-24
-13
33
0
-27
16
-50
-38
-44
-18
34
46
25
36
20
83
-37
-26
59
5
-54
1
-32
18
15
37
-1
18
3
-36
32
7
-23
1
1
-16
35
-10
-44
24
-24
17
30
-35
43
-47
34
25
-20
50
-17
-13
81
46
85
-25
23
-22
65
50
14
14
-31
-30
-20
-33
31
22
59
-16
-48
-59
45
29
-37
38
45
9
-29
-20
72
-51
8
-23
56
51
-43
-3
-52
-28
49
5
-21
38
-15
-15
-3
-10
57
-43
-18
-19
-25
-36
24
-33
-56
32
26
-31
2
29
-17
53
8
-22
0
-51
-13
-43
5
-13
-24
-26
31
-32
-5
-8
43
-37
-25
-10
-54
47
-35
-29
-21
-37
70
34
42
4
28
10
5
39
12
-3
17
-38
54
4
11
-12
-8
42
87
-20
2
-32
-10
36
6
-36
-3
29
-20
-27
34
58
-38
66
-23
-1
-26
-34
-6
-29
-21
34
-29
75
-31
21
-42
-4
-31
-13
32
-6
44
26
24
-14
-53
20
10
0
52
33
21
-32
25
1
9
37
2
-23
-29
46
45
3
6
45
26
9
12
-1
11
10
1
12
-21
-13
8
1
25
24
-46
-68
-30
63
-32
-30
-42
46
-28
14
1
7
-1
19
4
23
1
-33
-9
-42
-29
11
-15
-77
26
67
35
-9
-7
49
6
41
-17
20
21
-8
-1
77
-26
-23
-9
-14
-10
37
-9
35
23
-62
-57
-7
-12
54
5
11
11
-17
4
-18
-31
22
-21
-42
47
-46
8
-21
-8
40
24
11
17
-14
33
8
-6
2
95
32
22
17
55
-22
21
-56
20
10
15
42
38
-61
44
-36
-48
-4
30
-36
-23
-62
51
16
-65
-58
-5
35
-17
7
8
14
0
22
-4
25
-38
-30
-9
-72
-21
-15
28
-66
-21
-20
5
56
36
42
-32
-9
20
-13
-52
32
40
20
28
35
30
-108
-43
58
-8
25
-5
-24
-68
37
-15
-45
-35
-15
24
31
-14
10
22
-5
27
1
-2
32
-26
0
-34
-33
-40
-16
17
46
40
-16
-62
9
-30
42
-67
12
37
-56
-58
32
17
54
-25
17
-59
2
19
-6
19
21
50
-75
15
-1
13
19
26
22
37
-18
-1
-9
29
4
-12
-37
-41
37
14
-26
-11
-23
22
-6
3
33
-58
-23
-26
14
-21
-31
-64
-35
73
-34
-28
-21
19
4
97
-21
5
17
7
-44
25
17
4
39
5
-31
39
-31
-29
-18
-23
-23
-14
-39
43
-13
33
29
-21
41
-15
-40
-10
23
20
16
53
-22
-29
42
-54
21
0
8
-3
-33
-21
-28
-16
5
21
22
-34
-71
-27
13
21
8
-3
26
-9
81
16
-7
-7
-3
41
41
-29
-70
54
-25
2
-40
-38
-4
16
-42
-10
-18
1
13
42
-40
-19
-2
-45
25
86
-35
-29
-82
-55
10
-20
-37
45
-25
-64
32
30
-39
-4
34
-6
-48
3
13
-3
20
48
-16
40
-31
9
-35
-79
-5
-4
-8
-19
23
-79
4
45
8
16
-43
24
32
47
-51
34
-33
17
52
54
-75
47
20
19
-16
-52
-39
33
-11
-15
-4
-50
-46
-9
34
-5
-23
-12
-5
-10
-10
-34
-8
13
-46
-36
-18
28
5
16
-6
-47
-34
43
-50
39
62
-35
21
-37
11
-22
-23
-72
24
29
28
71
-3
-50
29
9
15
-18
65
27
-19
15
21
31
-27
-69
14
29
3
-12
28
-12
-14
35
13
30
21
-38
38
-34
29
5
51
63
41
10
39
67
-31
14
13
31
-54
-16
-3
-26
-51
1
-35
17
42
-6
-37
-6
-39
5
7
4
73
-7
15
-11
-17
-28
-4
-5
-25
-10
16
-28
36
-33
-60
-3
50
27
30
30
32
6
17
-3
-25
6
31
23
19
30
23
-45
-14
-38
82
65
-38
-16
-30
-19
-16
-7
-39
-20
-15
-19
-30
-91
-37
14
-71
-99
-5
32
59
-31
8
-47
42
5
8
42
-9
17
32
-34
50
-33
10
15
15
52
18
-4
32
1
29
-19
-30
15
-74
51
-10
-24
-21
-20
10
38
-21
25
10
-8
14
-60
48
-6
50
6
-31
-34
25
15
-4
17
0
-33
15
-46
0
4
-20
-35
11
9
67
69
-27
10
64
31
26
-65
-18
9
-20
21
-3
23
-72
-34
-41
-6
-25
-22
-79
-75
23
93
20
94
-8
7
-25
11
-19
-33
-42
30
19
1
-76
18
-35
26
-41
2
4
-4
-38
-18
-35
29
-19
13
-43
-15
-37
35
-14
-36
-46
-19
37
-16
-52
1
50
22
26
10
62
-27
-9
-3
-37
-38
-24
-23
-11
-22
65
21
-91
-2
12
-19
5
62
-20
-1
-50
1
-57
27
-10
43
78
-2
-40
12
8
-4
23
13
44
63
-57
64
22
-67
-47
21
-2
-5
52
35
-87
-26
22
27
47
43
-26
24
9
-29
27
6
-52
34
67
-19
-27
-10
18
2
-48
-37
32
9
-23
13
45
-8
-22
-27
35
-7
-65
-35
-61
46
70
-1
-16
-16
-33
0
50
13
12
-9
52
-43
-7
40
26
0
22
23
8
-22
-36
-23
-23
38
-9
23
-16
49
25
58
12
17
-39
-29
-1
1
-23
6
9
15
-74
-33
17
22
-72
-42
-3
11
5
-24
34
-10
11
-44
40
-63
11
-32
8
56
-60
0
-29
-29
8
-18
-28
29
9
-6
-37
-26
-37
27
15
4
42
28
-26
-34
52
15
-10
14
-6
-2
-21
-3
-22
36
-19
-64
69
-46
22
-54
-28
7
28
15
76
-41
18
-32
45
-8
-17
-28
24
44
6
19
-55
-20
31
19
-16
51
22
44
-40
-20
14
7
-51
38
6
16
62
-21
-2
9
-13
-7
15
31
-17
43
31
9
38
-62
-54
-42
-55
-52
16
-1
-6
-20
-26
-12
19
-22
-31
43
7
-86
1
-9
-12
12
-55
12
13
-30
42
46
42
-39
-23
37
-2
-7
-33
-7
5
-10
12
25
-2
23
45
5
-4
-36
-16
23
-21
-1
-9
-18
8
51
-32
37
-24
-7
8
51
62
14
22
56
40
-38
-4
-9
36
32
-17
-43
17
-8
10
21
31
35
-33
41
20
-21
42
8
72
-59
-32
2
33
41
-16
-24
-13
-12
29
26
-6
-1
-24
-19
17
-2
-27
27
13
90
-37
-21
-42
-3
-23
68
-53
19
-44
5
61
66
-7
23
20
14
-4
-70
1
80
-12
-74
32
-16
-27
-50
-37
58
14
-7
18
65
-41
11
7
-20
-7
39
44
-70
5
23
3
-39
-22
15
-1
-17
17
13
33
-3
11
40
21
-56
31
70
-16
40
-54
9
30
42
-10
10
4
-55
-31
-38
-1
-4
-43
16
48
-5
-8
-11
-36
-6
5
-27
4
43
8
-16
-12
-2
82
-50
19
-62
52
-10
27
-43
-33
27
-30
29
-45
-2
62
-37
-21
-22
19
-30
-37
-1
64
9
9
16
-37
24
13
54
-22
-41
-11
18
61
-57
16
-40
38
85
-85
-15
69
-29
35
17
36
-31
24
-10
-20
39
3
51
7
-9
-5
45
7
-66
16
17
-9
3
-10
-24
-8
-16
67
-2
-1
21
0
-42
-29
-29
15
-39
72
-88
12
66
2
-7
-39
-12
-10
-52
-90
17
77
-50
42
-45
1
14
-27
-14
14
25
11
-43
54
2
-68
-39
6
101
-7
34
-25
7
-14
-5
-41
-11
-18
31
75
4
-17
-41
-7
44
1
53
-39
25
58
34
43
-19
-16
-24
-44
-38
-5
0
37
-2
2
11
36
-19
13
-9
15
-47
15
-20
19
5
23
18
15
-17
17
-6
-35
-66
-40
26
-70
52
59
-18
-11
70
-23
4
-7
-18
34
4
-17
33
-73
-2
41
-59
43
41
-30
13
-42
-43
44
1
46
22
-13
22
-16
-38
-35
-28
56
6
-34
33
-26
53
-43
22
0
19
50
-5
-11
42
11
22
-42
31
39
51
-15
-32
33
27
-5
36
-69
-42
61
26
49
15
42
-48
8
28
-32
-36
18
27
2
42
9
34
16
-30
-10
15
23
-12
-7
-58
-80
7
-22
1
-3
-26
37
-50
28
25
16
57
41
6
-21
5
28
2
40
-42
-24
21
-35
-39
73
3
-19
-59
-11
-7
38
7
-27
-12
39
-25
1
-3
-56
22
9
-23
-6
-34
8
4
1
8
-29
6
-75
4
31
-8
27
14
-45
-34
23
18
30
-42
30
-30
-98
-19
1
-1
0
-40
-35
17
-36
6
28
-6
-50
-32
42
-12
-11
-3
49
-28
28
87
-11
-49
48
39
10
79
32
0
2
-24
42
20
-53
-14
2
-66
7
20
-72
5
42
-31
15
31
-59
-36
5
-3
38
16
78
42
-23
-9
13
-9
10
45
28
-46
62
6
43
35
-42
11
-37
22
22
-64
-55
5
47
49
-7
-38
-27
24
68
-23
-40
-19
28
72
15
-16
-64
-71
0
12
59
6
-41
-1
-42
-34
-15
30
15
-45
-20
48
-25
5
23
-51
-49
-15
-7
38
-34
10
2
3
31
35
-67
-56
-17
23
10
-26
10
11
7
30
39
-12
-70
-60
36
56
3
8
-7
-23
-12
-71
-6
2
-53
-21
28
-11
-34
-10
7
-46
-37
28
-50
7
36
-32
3
15
28
-13
18
8
-3
29
-29
61
51
36
-21
-52
-34
23
38
28
-15
19
-11
-4
-55
-60
4
-18
13
-6
-34
1
-23
-13
34
-18
13
-33
53
14
-10
35
20
-29
29
-13
-61
-19
-30
-14
50
-9
80
8
49
23
-4
49
-5
-4
10
1
-38
-40
5
19
-43
27
-3
19
-6
1
26
-4
31
-49
-28
-28
-8
-36
39
20
5
43
-52
12
42
53
-25
39
-46
-20
1
9
21
6
30
-28
20
-38
1
-28
-29
26
16
-27
39
45
10
67
-17
28
16
-37
-11
-14
42
-25
-16
17
47
10
3
-15
77
56
-7
-12
-2
-6
3
-14
-43
51
72
-22
-16
8
-2
-76
4
1
-26
-7
-28
26
-43
35
-18
-7
7
-38
-22
-18
-14
-12
25
20
9
30
62
-4
9
-1
35
11
57
-29
18
7
-10
-73
-29
66
-20
-10
-39
6
-56
-9
6
19
-20
60
-25
-13
19
37
59
2
6
1
-52
66
-2
-12
-19
-11
-16
94
-36
-30
18
-35
81
-28
16
25
46
-73
14
20
26
-21
-20
-82
5
9
41
25
-5
16
-20
37
-29
32
7
5
3
-20
-7
-19
28
38
-8
-17
-55
18
-52
-29
-8
7
3
-1
8
26
-70
15
-25
22
27
0
64
-20
20
-18
-8
-28
41
27
57
-50
13
42
3
26
25
-53
-13
38
-70
-11
-24
-12
4
10
-13
47
-3
-20
60
-22
16
-32
21
7
-29
15
25
55
2
15
-8
27
-23
8
-42
23
26
52
1
-48
8
-12
36
-85
39
-5
23
23
11
-5
-21
-42
21
8
9
9
-26
-15
59
1
14
26
-10
16
-31
23
-20
17
-10
-21
-13
-3
-2
0
47
6
20
-20
-27
9
-29
-51
-39
10
-23
24
-20
-6
12
-70
-14
-27
20
-14
15
-3
-38
-17
36
-39
-12
-36
9
-64
23
32
-45
-10
56
15
2
7
-7
27
-36
-48
15
27
-19
13
40
-2
13
-23
19
36
58
-11
-2
-23
41
11
-36
69
-9
44
16
-40
7
-7
36
-25
4
18
-34
-22
29
-39
-42
-11
19
-2
-38
34
62
-44
-43
-10
-1
10
53
-76
48
-4
-41
-47
-21
16
15
-38
-41
13
6
31
-17
-40
-55
-21
-26
-52
5
-13
-30
-8
-9
21
-18
37
-37
-25
4
29
-33
51
18
32
5
-5
-21
-27
24
4
-33
-3
-21
-8
-1
30
42
25
69
-23
0
36
-30
36
-12
78
-21
-56
-15
29
16
-32
-37
-23
-20
44
-27
-50
-21
9
15
-26
-37
-24
49
88
59
-62
10
66
36
-48
-9
-53
6
-16
28
43
-3
-16
-26
32
67
22
17
15
32
-28
-16
-2
-25
-72
36
-22
-5
5
50
-50
-23
41
-22
-44
0
-8
-37
-26
25
51
9
40
-57
12
11
13
32
-4
21
-32
18
32
6
-35
7
-68
3
20
-1
10
58
9
-68
-19
-13
31
48
-19
17
33
12
0
42
-54
-7
1
-1
34
15
17
0
-4
-28
-47
31
-23
-22
0
33
-2
36
16
35
-10
6
-12
-18
-85
29
61
-40
16
-34
33
64
-8
51
16
-24
-27
-50
17
23
-24
10
-30
-31
-1
39
-56
79
-29
1
16
24
28
-54
1
28
61
60
-9
-3
14
6
2
-20
17
8
-70
1
18
-52
36
-21
6
47
30
2
37
-41
-14
-31
43
-6
-31
0
-57
57
11
-32
-2
14
-52
11
1
10
38
-10
-83
-40
26
-26
42
3
-54
-16
-59
-43
55
-13
-42
-28
-15
-1
-26
-80
-19
60
40
-8
7
1
14
-30
6
-1
-4
31
-6
29
58
-24
-6
6
22
43
-44
-65
23
11
-31
-30
95
14
-83
28
30
4
37
27
-5
45
-28
-10
-47
2
17
-12
-23
31
13
-10
-4
46
-33
-26
-35
10
1
10
39
13
60
3
31
-5
-23
-22
-15
12
56
64
16
-39
15
33
-15
83
-36
-17
-28
-2
-27
-22
-27
15
-35
-45
-34
6
9
-13
-8
52
5
-31
-46
1
53
-4
-33
7
67
-28
-37
-36
2
-85
18
-42
6
5
-27
-71
-46
-13
-44
14
-2
-55
4
-23
-24
11
48
3
-30
-23
5
-32
22
-25
27
-5
56
-17
12
-48
-51
20
-31
39
-12
-13
19
-50
-20
13
-39
29
43
-2
-56
27
-12
28
25
-57
16
-27
-13
-23
-28
65
47
41
31
-45
31
-19
-36
37
-24
-17
17
-33
1
-1
-67
-40
29
2
-40
11
19
-13
67
22
68
28
-32
-67
-29
31
-3
19
10
53
65
-58
38
12
-26
5
-31
21
-1
38
51
-60
35
-48
-88
76
18
48
-28
-44
-8
47
-19
-37
-10
15
-36
-65
58
-37
-51
17
-6
11
55
-14
11
-6
8
-7
14
12
10
-11
-38
-11
-7
4
17
-13
-28
51
16
6
-47
22
6
56
4
18
23
-44
-46
-61
-50
-39
-32
-55
-6
14
44
-38
23
-11
-17
-4
43
22
41
-6
20
13
48
-33
-39
51
-11
-61
48
31
58
35
-11
5
6
0
-66
-57
8
-53
-47
41
-17
5
-49
-2
19
12
55
-18
-51
-45
-17
-19
16
-91
-8
11
17
51
-31
6
11
50
-15
4
-26
-13
-22
-44
-7
-21
-24
41
50
16
24
-6
-40
-7
-32
-16
-11
-13
15
10
19
-43
-26
15
-15
7
-21
-6
-17
-79
20
-18
-6
-92
-13
63
33
-1
24
4
33
45
-3
22
-10
-33
12
-63
-2
-26
-51
11
2
29
33
-11
24
-8
7
37
-14
39
-53
-26
-20
-108
23
-1
-3
-12
2
-13
70
-4
-1
-5
28
7
-76
-39
-77
0
56
-33
-20
26
-42
-43
34
-9
43
-63
74
63
76
-17
-58
-14
44
-30
35
-18
8
87
-29
-14
-19
-28
32
-27
18
-31
-18
1
-14
-16
-38
-42
52
-29
-31
-2
60
-4
25
-9
29
-30
-1
23
-26
-60
-19
9
-28
-33
-4
-25
27
-50
-41
-42
3
-19
10
-18
-4
-47
16
-9
42
-43
-12
-18
52
21
16
-47
-20
-20
3
2
11
-48
22
-66
9
-15
-78
26
-46
17
-9
38
-62
57
-37
36
23
10
-59
19
2
23
-52
-36
22
37
7
-10
-26
-10
4
-13
-84
26
-6
-15
24
32
15
0
2
19
1
-4
3
-16
1
-7
-59
-24
50
-7
-28
-32
-12
52
22
-23
-25
26
-36
-6
4
9
17
27
-36
24
-36
-48
11
-1
21
27
74
31
66
-25
-20
26
-12
-10
52
25
-34
6
-69
-37
0
-26
12
7
86
-67
-50
-20
-21
37
-70
-3
9
30
36
24
30
11
-50
20
-4
50
73
-29
-21
10
5
0
66
-38
13
28
-12
-46
-39
-6
-27
-4
1
-24
1
-51
-41
-14
-4
-29
17
-25
-19
53
35
39
6
69
-50
26
-19
-21
-26
20
36
-56
36
-24
54
-43
-25
-12
-43
22
-58
36
31
9
42
-49
12
-28
13
48
19
45
31
12
-27
-8
14
-13
-16
-45
2
2
-9
19
24
65
-61
69
-45
8
-49
-37
19
3
14
-72
31
53
51
-107
42
8
-6
17
-25
-32
-82
29
-29
-87
41
26
27
39
-9
-27
-50
12
-2
40
44
-46
34
3
41
29
-32
-7
-42
-44
-41
-26
-13
5
-17
-30
39
4
9
49
-45
24
41
29
-6
-2
-17
11
-1
-18
4
5
-16
37
36
11
-21
9
52
14
48
-38
8
-34
-69
50
42
27
59
8
3
-9
1
22
-48
18
-26
-34
50
6
41
8
-43
-25
76
89
50
11
-17
1
-6
47
41
-53
5
-18
29
-42
-72
66
66
-38
-41
9
-35
59
-4
-33
4
11
19
-7
-12
65
-11
51
-109
15
30
59
-19
-47
13
56
47
-15
13
31
53
-5
6
17
22
2
78
4
-3
37
21
22
-17
6
-26
-4
-34
-53
24
49
14
35
-53
-18
-5
-46
42
-5
-64
-68
29
13
41
17
34
15
11
9
28
6
42
4
29
-14
-7
25
25
29
56
-6
-20
17
53
-47
-21
1
32
-27
-10
-53
23
-21
23
12
-19
6
-10
-14
22
46
71
-13
47
51
-20
40
-41
16
-45
54
53
50
-51
-20
-26
-12
7
-12
-9
45
-27
24
-13
-20
16
-37
4
-19
31
3
-19
6
3
16
-6
19
-20
6
37
23
13
-7
62
-19
10
29
-40
-37
2
-5
-52
-56
-40
-56
25
-13
24
57
-32
14
-43
32
-9
-25
-6
24
10
4
38
-1
0
24
6
36
-29
-86
20
27
-18
-41
-48
-36
-24
10
-22
29
17
57
-4
0
19
25
35
-9
73
83
-43
14
51
-5
-16
4
39
23
-13
-24
32
50
-47
-13
29
5
33
38
37
-10
-2
30
-54
-12
-36
-54
-56
5
-17
-69
38
-27
-7
15
10
-17
40
32
-21
19
-22
58
-7
1
-12
20
-16
-36
-28
13
37
-30
-8
94
30
-60
-45
11
70
-10
-49
8
-59
-13
-75
32
-14
-9
-18
67
-3
51
-21
4
-6
22
16
-37
43
74
8
40
-71
43
4
25
39
-12
36
-48
-62
31
-31
39
53
-14
9
-39
-17
-28
7
42
12
-19
-37
-35
22
0
-38
-4
0
-81
-2
18
-2
37
-28
14
-7
-14
32
-32
25
-37
16
-38
-6
5
-14
52
-15
-5
-63
24
69
59
-8
-18
-9
29
24
-28
-57
-18
40
-74
-60
-57
-43
5
21
22
54
-5
-16
38
-5
11
3
2
16
-66
0
20
12
57
46
-1
14
19
-15
-39
6
40
30
25
-12
-16
-37
-32
-79
11
-19
-3
49
-12
48
-29
-28
21
16
84
-23
26
19
-12
52
-35
8
26
36
-24
27
26
27
-46
63
13
-16
5
-6
72
-5
58
-49
-20
-7
-50
-35
-4
-49
17
30
-50
-3
61
-13
20
-22
18
-18
-5
-60
-53
58
43
2
-39
-46
0
-49
-7
-5
-3
17
36
51
-15
0
-25
-9
21
-16
-43
-41
2
40
-1
-21
12
5
22
21
40
12
-13
-17
-15
58
-2
19
-36
17
45
-35
19
32
15
11
4
38
-50
-9
-31
-6
32
17
-36
-6
0
11
-11
109
-105
-22
25
-47
-33
-52
-22
-9
48
29
22
-7
62
13
11
-18
36
-7
35
-37
-21
-33
-29
-31
-6
-11
-22
23
16
3
-36
15
51
9
-5
-23
30
-20
-35
0
-42
-1
-4
17
-75
95
-44
-23
72
8
32
41
19
19
-12
-3
57
5
-39
0
-61
-9
5
-60
32
-18
51
-5
-7
0
33
26
64
-18
37
-39
33
-21
-28
-15
56
-2
-34
27
-2
-2
-48
-3
-15
22
-40
-33
-19
-37
30
55
-43
5
-37
-33
-1
-1
1
-1
21
-16
55
18
-47
11
1
20
12
-3
14
-6
31
15
-25
21
-39
-19
-50
21
97
-6
-16
-15
-43
-38
-13
27
52
-1
13
-25
-65
-36
37
35
-5
0
33
-23
-27
1
39
13
37
-71
-26
-35
-49
-14
-51
-21
-13
-11
41
12
-29
19
-8
70
-60
-36
5
30
61
20
5
24
2
-33
-3
-22
-21
19
-12
-46
55
6
69
24
42
-41
-30
3
82
2
-50
4
-32
-13
-55
-32
-15
80
19
-9
-42
-2
33
5
2
34
36
44
-9
24
22
0
20
44
43
-11
-57
-29
-72
38
29
-3
29
7
-46
-8
2
-8
16
-4
-16
2
-103
4
-8
-1
41
62
-19
-35
12
-31
22
14
-3
-31
-2
24
2
21
-19
3
-70
-6
-24
-39
23
18
-11
-7
24
-17
54
-5
7
-6
41
29
11
-8
29
-8
-40
33
-32
22
32
-21
5
3
22
42
27
-10
53
-22
20
-6
0
-34
26
-22
-50
15
-39
-41
5
2
51
-59
32
12
42
-58
-5
17
-47
-39
23
79
15
-11
-6
-35
8
-11
-13
-8
43
-1
-19
-15
28
8
31
27
4
16
-45
49
-31
4
1
47
94
25
-1
-2
-26
46
-22
-55
71
-1
64
11
-12
11
34
-24
17
17
-44
-14
13
45
44
2
-57
23
9
-42
-10
15
10
-22
22
28
29
-56
59
36
1
51
-73
23
-5
-55
-40
-10
40
1
-61
46
-12
16
25
-34
15
-10
10
-36
-1
18
12
7
2
47
-36
-3
23
35
-5
-4
-35
-29
20
5
6
-50
0
16
9
14
22
29
-1
-16
-20
19
15
38
-16
74
-20
52
-13
3
-33
-7
12
44
21
12
-26
60
18
-67
-37
10
15
-30
28
-10
4
14
-12
-14
-5
-19
-33
36
48
39
0
-31
-5
-6
-12
19
28
-7
37
25
-37
-13
-23
2
-24
19
2
-14
7
11
-25
21
-25
41
22
34
-26
-62
4
0
23
-50
-8
20
-46
-2
-1
36
26
-48
7
-29
26
73
16
-16
-6
26
11
54
-63
-43
-20
2
-31
55
8
50
8
-23
-26
-62
-31
6
-31
0
20
-26
30
-6
-36
57
-20
45
-36
8
-26
-31
10
-79
-4
27
49
8
37
-9
-30
56
-55
26
-9
31
3
-73
-1
-37
-1
62
30
-38
-40
5
-18
29
17
-35
-17
-4
7
7
77
-9
-19
-5
-66
34
5
6
-44
14
0
17
-40
38
25
-15
42
-75
13
10
31
-4
-5
9
45
2
12
-6
27
49
-2
26
44
45
-71
23
-8
-38
-25
23
5
-31
-64
-39
-40
45
-19
16
94
11
59
27
8
-6
-31
14
6
15
-2
55
10
-42
34
65
10
47
-43
-79
-7
-46
-47
27
-6
-1
-7
-41
-49
56
-4
-11
-70
-19
9
-4
21
34
-4
-2
25
-43
-70
-33
15
37
22
-1
-33
31
36
66
-14
0
17
-2
23
-12
0
23
-78
-1
44
10
34
34
-15
38
-66
4
-25
30
-1
-32
-27
-3
24
79
-29
27
-31
-43
40
-41
-79
-4
1
65
75
18
-19
32
10
1
-44
20
32
-9
64
13
2
-34
32
52
-38
-14
-31
41
0
-26
-10
-29
17
20
12
2
-14
105
35
-38
-11
-11
-17
-8
14
56
-2
53
-29
-48
14
-32
57
-12
-40
-33
8
-16
-22
-38
-9
-14
13
13
-38
-13
41
7
-40
-15
24
-50
-10
-1
24
-1
22
-2
-19
34
71
4
17
46
62
-44
-45
-12
-52
-32
34
-80
28
-35
55
-9
-10
25
28
36
31
-5
-8
29
-70
-13
-26
-35
-17
30
-8
-12
12
8
58
-10
51
-75
-31
-41
1
-4
30
32
-46
-45
-41
-17
-24
28
22
23
13
-17
-2
-29
-17
35
4
-4
0
-18
2
14
-76
-28
-11
26
-44
-14
-18
27
43
-11
19
-14
-38
19
27
-19
16
9
59
60
-39
-8
36
63
10
62
-7
-69
8
22
31
53
26
15
4
-14
-18
-44
-18
3
8
23
-58
44
-6
-4
23
13
-5
-40
38
-33
63
35
21
34
-39
-71
72
-27
17
16
-18
52
24
15
0
-35
7
-50
-18
23
74
-5
-17
-5
32
-21
-18
-41
-21
72
-5
-42
13
-10
-52
13
5
-15
-40
35
13
11
-15
-34
9
16
27
-50
25
-11
0
-79
34
0
-13
-27
45
-21
43
-24
-83
-14
-3
-1
5
-16
-15
13
10
-1
-54
2
-24
2
14
14
-53
-15
12
24
17
-7
20
86
13
-2
62
24
-27
-20
-2
-42
9
30
-25
23
11
24
-10
16
-4
5
-40
49
9
-6
-24
-34
44
29
35
4
-15
-46
18
39
-1
42
-14
-45
50
-11
13
4
-40
-27
15
-19
46
47
7
1
-36
-20
2
-42
7
-36
-58
-5
77
14
44
-23
25
29
75
23
-59
45
-28
-17
34
70
-35
31
-8
-16
-20
-67
14
19
-49
-28
46
4
-30
13
-51
26
-20
-13
-23
38
37
16
46
-59
48
-5
15
-17
-7
0
-30
57
1
-17
41
69
-22
13
-34
-40
-12
-4
-36
28
1
-6
-8
-37
-20
17
79
34
-13
37
46
-5
9
9
-8
-46
0
46
-49
-17
-10
49
13
-39
59
10
10
55
-73
-29
12
1
24
4
-31
20
59
56
4
10
-48
10
42
12
-60
25
45
7
4
-27
-9
13
15
51
-26
0
47
8
21
23
-22
75
14
-8
-41
-23
20
23
-76
2
-51
92
19
-39
-59
-16
5
37
5
23
0
48
-33
49
-38
5
-17
-16
-35
-31
-40
-45
-27
8
20
-26
5
-19
-11
4
-17
-46
44
-37
-34
-13
-73
20
15
10
-6
8
21
-48
69
-8
79
12
-17
-6
0
-27
-45
26
-11
16
-52
2
-11
16
3
34
-8
18
69
34
42
11
10
0
60
-55
-8
6
-5
15
-34
-3
-30
-18
5
-35
13
15
16
36
-31
-35
35
8
26
26
0
-11
2
-23
-34
19
-39
16
-4
47
45
18
9
-19
71
-19
8
-9
-71
24
22
52
8
-42
-3
-31
-60
-35
13
50
-11
13
-35
25
-28
5
14
31
11
43
-19
74
30
5
-54
29
111
31
-4
-7
43
73
43
-23
9
28
6
-28
-3
-17
-22
2
30
29
-11
3
-17
48
-7
-36
-43
17
7
-4
-33
22
16
-4
-16
22
11
-19
4
78
25
-47
46
19
-16
-26
-23
6
10
-47
93
-17
-18
-4
-61
-20
7
12
67
-27
19
-14
-22
-12
36
-19
-45
-3
4
37
-23
-22
57
30
42
-31
16
83
-7
13
0
-29
-37
-11
8
23
-47
26
14
44
-1
43
27
37
-36
-22
54
3
-82
-33
-68
-62
44
4
-35
-45
16
-39
19
39
-12
-48
-54
-12
-48
-45
-9
-25
-31
15
20
-34
-2
4
-40
12
-35
-13
-71
6
15
38
15
66
-22
16
1
-27
16
-22
15
29
43
-80
3
30
-29
-48
-6
24
-39
8
-73
-49
11
7
-27
-45
9
10
9
-8
-27
16
16
7
27
35
-24
1
-20
1
2
10
16
-29
-15
23
67
-62
50
-70
-8
-39
7
-39
-72
-6
92
-23
-31
-18
-17
-41
-14
-19
10
-21
-70
31
-35
-1
14
37
0
-62
4
-19
16
-6
-17
-14
-7
13
-15
8
14
37
-17
56
22
75
20
57
26
-30
25
20
18
-9
-64
-63
-28
-23
61
7
22
-17
-2
-26
88
40
-28
35
-25
1
7
-11
-3
-11
5
-2
16
19
8
-8
67
-16
8
15
-4
3
36
59
7
76
-54
31
-21
-70
-49
40
13
13
-19
-17
11
45
-25
9
24
21
34
1
-50
0
-14
13
22
43
-91
14
29
-89
2
16
-10
16
0
-7
3
56
0
18
-87
9
9
3
-12
69
-28
19
40
-23
33
14
3
6
34
-2
-7
-22
-9
17
16
-22
-64
3
-17
-12
16
30
17
36
-35
-39
61
53
7
23
-61
0
13
-26
-37
53
19
17
-41
37
46
-60
16
28
0
-16
-11
-18
-35
4
35
58
48
20
25
-17
3
-48
30
24
20
18
-24
-30
11
32
12
55
28
24
-34
37
33
-32
50
-7
83
29
-24
-19
32
64
-23
-44
58
17
7
-1
-10
-7
12
11
52
-26
14
30
-29
-6
14
-11
-39
-49
42
-7
-77
13
16
8
29
17
11
-16
21
16
-33
-29
-86
43
40
34
-23
60
-23
17
55
24
24
-29
60
9
-49
-65
48
27
-19
-21
5
34
-42
-10
-40
34
-17
-3
50
33
-22
-48
5
4
17
50
61
-107
33
78
-7
-26
3
-14
49
34
11
0
-47
-34
44
61
22
-37
3
32
50
-27
8
84
4
39
-14
21
-3
-27
21
-45
76
-29
-6
-12
61
53
34
-36
-12
-11
58
10
-32
15
34
13
-12
-49
-4
-37
-20
-35
10
-5
-9
-37
-43
-10
-26
-7
-27
45
64
-37
-38
-40
-13
23
-21
-41
51
-3
-27
-30
-21
-25
66
12
-34
37
-18
22
25
-35
41
-1
26
94
-66
-9
-9
3
11
-17
-1
-89
-15
0
-25
40
3
2
5
-38
-22
-1
-9
-57
2
51
-41
6
-55
10
-2
-23
69
-20
26
16
48
-4
-31
-6
23
-77
12
-46
-22
34
17
45
1
-31
35
-45
-54
19
12
60
-28
20
25
31
-37
-17
-23
25
-14
-4
-1
-21
38
-55
53
-24
-37
-51
63
-7
1
8
33
25
-11
16
-33
-31
43
9
51
-15
41
0
-30
19
-3
26
-44
13
53
-10
-2
-30
7
-4
-4
-17
-16
21
-51
26
-36
23
4
21
-32
-13
25
37
-32
21
12
43
15
-30
-46
-60
21
15
-4
1
-71
17
14
-30
21
-9
-15
-14
-24
-34
-2
2
-23
-18
-11
-53
-25
-29
7
-37
-12
-66
-25
-8
25
-2
-35
51
-15
10
-74
65
-23
38
9
-19
-7
-9
17
-30
-1
-67
29
29
33
87
-25
13
9
21
-6
12
-35
-43
-11
-24
5
-2
-13
-64
33
38
-2
15
0
-9
8
-8
-36
36
-5
70
-9
-2
89
67
8
37
-37
-36
-25
-73
55
-5
26
-35
-27
15
-26
-70
-72
-41
-15
26
21
18
52
24
7
-18
-10
-87
11
-3
7
-46
-29
-28
43
-40
-9
22
13
12
12
42
-1
46
-7
-1
-23
-24
-15
55
15
2
69
-42
-16
-8
18
-59
-33
-52
-56
-7
30
-20
-11
-1
-55
-26
-80
-55
37
34
28
-44
-34
-5
-16
-41
33
25
-36
3
-20
11
5
-2
-34
-23
-9
-41
15
-28
2
12
-2
4
23
-81
54
-64
-26
48
32
16
37
-17
22
-58
33
25
12
-18
3
67
-41
10
2
-45
66
81
-38
9
50
24
-8
20
29
10
-44
13
-12
-30
18
-49
48
27
35
17
11
72
1
24
34
13
25
-62
-48
22
8
-11
36
9
5
7
35
-12
28
-24
-8
29
-3
-25
-41
-93
62
10
32
18
-48
24
45
36
-9
30
-42
4
-20
34
-11
-57
40
35
18
49
1
17
39
41
-70
0
-6
52
-34
26
14
-2
50
-16
-9
1
44
51
-11
22
-26
55
27
19
24
-40
-44
-11
9
-58
-40
-29
13
27
54
17
6
20
-68
46
40
36
-21
2
43
-4
-12
-5
17
53
-11
29
-30
-11
-2
34
16
-36
-38
-28
-16
-80
-15
25
-11
81
17
58
32
-14
-14
22
-8
-7
-9
-37
-6
-27
-50
-31
-33
-12
-26
77
27
-63
-45
3
9
51
35
20
2
-7
13
-15
16
-24
-2
23
-6
-69
-1
-31
10
17
-35
37
-6
14
16
-55
-16
18
-6
-14
-70
13
-38
21
53
-42
35
-16
21
2
-10
30
19
-4
-40
8
-29
-10
16
-27
-37
-40
50
-12
-45
3
27
-35
23
23
24
-21
27
-44
-37
-34
-16
-18
-8
-6
3
45
-23
11
-11
12
-52
-42
9
12
6
62
-5
-27
10
7
-15
30
-49
13
-4
-44
-50
40
4
-10
62
-72
64
8
-6
16
-63
-10
29
39
-18
-31
18
-24
18
-18
-41
-10
37
1
-56
6
45
43
-17
-20
-32
7
82
-26
-4
-21
2
-5
-21
38
-3
-33
50
12
-11
-60
8
-26
-29
64
14
31
-41
-6
-57
-12
-11
-21
-21
15
-24
13
24
12
19
-2
-91
38
-2
77
0
20
26
45
36
51
14
-13
-42
-64
25
23
-51
0
5
-2
-11
-10
26
3
59
28
-39
-48
50
-12
55
-28
59
-26
32
8
-41
-46
-5
16
-31
-34
64
-1
-13
6
-16
-29
14
12
-9
54
-38
16
56
-16
2
0
17
48
16
31
24
63
-17
26
26
24
-29
-36
-6
-32
-51
41
-41
14
-47
47
31
-41
34
27
16
-29
-1
-47
-53
45
19
-25
17
41
14
14
-48
-8
-12
35
-27
-23
-41
-1
14
-55
0
12
-14
-1
-8
-13
-4
63
-2
-16
5
26
-7
-29
-3
62
46
-13
-8
-13
-25
75
-6
-62
-3
-34
-12
-41
-30
-2
16
-14
31
24
23
5
24
19
-60
-16
5
6
3
43
40
41
26
-28
22
14
29
-21
39
-68
-37
-9
8
-2
-2
-45
-9
-7
28
4
-50
-19
60
1
-91
-7
-15
3
-16
-6
-5
-17
30
18
19
-11
-66
8
27
53
-12
-58
1
31
12
27
16
18
9
-21
45
15
15
-45
-17
30
50
-65
-59
4
4
-43
-13
2
18
-63
-7
16
-38
11
-49
-21
25
52
32
-17
24
40
33
28
2
7
-39
-33
-4
-20
-24
-88
66
-21
12
11
-26
1
40
-54
32
27
13
56
-20
-12
-2
11
9
-2
-43
6
52
-13
-29
-50
4
35
-22
-10
18
29
45
-11
-70
16
-49
7
39
20
28
-24
-9
-34
17
-1
-21
38
-28
-3
3
-37
-52
-9
21
-25
-29
11
1
4
44
51
23
1
-15
-31
-2
17
22
32
70
6
-24
-29
2
20
19
26
-5
9
-23
21
7
29
3
39
14
-10
3
14
-20
-79
-56
1
-9
47
-1
-37
11
-50
36
-6
-2
23
19
20
27
27
-18
-60
-59
31
-3
44
-38
20
14
-29
50
2
-44
-10
2
39
51
35
-31
24
-14
-47
44
-79
-26
17
18
-35
-1
44
-90
0
31
-2
-47
-2
23
4
6
-20
-2
-1
24
-86
-74
-57
40
-44
14
51
1
-29
41
-43
-16
-50
-31
-16
-38
-21
91
-42
2
9
42
79
-19
39
39
6
31
-74
-28
-70
14
-23
35
7
35
-10
82
-28
23
-28
2
-23
37
3
-13
10
-31
32
12
6
47
28
12
5
23
-49
11
48
-43
-12
-11
-40
64
-21
-10
3
-33
7
-91
-7
-7
-35
79
3
18
51
3
-3
1
13
29
46
16
7
28
-43
-15
-3
5
5
28
11
103
23
-20
-37
67
80
71
-65
-13
-26
6
-58
10
-24
-47
52
33
4
0
-19
28
49
-7
40
-33
6
15
12
-18
-35
-40
-6
-4
-18
-37
32
3
41
33
9
-31
17
-32
50
9
49
-1
-18
25
10
-53
13
-7
26
-1
-6
66
-16
-18
5
5
-64
-17
6
-17
22
22
-9
-30
-18
45
-49
2
-12
-1
-11
4
28
-17
39
26
-24
14
12
9
-41
-39
-32
3
-68
-15
47
11
15
10
-43
47
34
9
52
-26
28
-27
60
16
12
35
54
-53
35
-8
38
-19
-68
84
24
-12
15
3
30
-6
-29
-67
-1
46
21
13
2
-63
45
-22
-15
14
-13
-32
27
18
-27
58
10
-8
38
-10
8
41
57
13
27
43
-28
-46
9
36
-35
2
-65
8
-6
-15
-36
57
-2
44
-31
19
-68
9
24
-7
-39
-23
-45
33
-33
21
-21
-9
56
38
-7
35
19
12
-2
-3
-52
22
48
11
29
2
3
34
-26
33
45
5
-6
15
-13
-45
10
-49
12
-36
33
21
29
1
7
32
-20
38
4
-2
-50
66
-12
8
22
-19
57
46
-25
-72
39
31
-9
-7
0
16
18
48
10
-33
-16
39
-16
-56
-69
58
23
-14
-3
-48
24
8
3
-39
5
73
-34
5
13
-38
3
32
76
-2
38
-28
-16
27
-36
29
-22
62
43
17
0
33
-9
-41
50
-18
-39
-6
46
-38
26
31
-26
33
-45
17
-3
-2
52
-7
16
-44
-14
-27
-18
-23
-48
9
7
-22
-16
44
-18
30
68
-36
42
-36
-33
-61
-20
16
-41
9
-4
21
-29
-8
-24
-15
1
57
24
-48
54
8
0
-12
6
-83
19
-27
-4
7
18
33
18
-27
-11
-22
15
12
-11
-14
-8
-51
15
-11
-4
-10
28
-2
15
-34
-11
-18
55
-15
1
26
-31
2
1
43
18
-32
0
6
-22
5
-25
-37
20
-41
-35
16
11
-5
41
-17
-30
-53
-5
16
-38
-2
-28
35
-21
-64
-31
-39
52
15
-12
26
6
9
-79
6
-30
-9
-37
35
41
-18
-61
10
49
-15
2
0
-35
31
22
0
16
43
-13
-28
30
-9
-9
-64
-17
-61
18
8
-4
-52
-79
19
19
-28
-18
22
-21
38
-11
40
-54
12
2
-40
30
20
-5
0
19
-21
-1
5
-50
-21
-4
27
34
18
11
-10
-14
-55
37
6
-13
-11
4
-4
24
17
29
-12
-2
-7
31
-42
49
-5
-18
-42
-74
8
11
27
-47
-5
-51
12
-40
-27
42
1
-25
13
-5
19
-73
-6
46
-53
2
-59
-9
-9
-44
-52
-14
-34
-26
-23
23
5
-25
48
22
7
-37
-42
-5
-6
-7
-37
30
-75
-10
-13
-65
-32
-52
19
27
25
-51
9
-46
-5
6
-42
-4
-14
13
30
-38
12
38
-45
31
-10
32
29
22
26
-78
26
-19
4
49
-33
5
-24
1
14
40
-13
-9
-54
-77
-56
11
40
61
-25
25
-74
-27
2
-30
-34
-50
12
-46
-32
-19
-51
3
48
25
3
29
-2
24
16
-23
17
42
10
-6
-3
0
21
55
9
23
-3
27
39
19
-12
21
47
24
9
10
-14
10
3
-2
18
-5
-28
-31
3
-20
-29
-22
18
-41
-29
1
-65
-16
31
76
-56
-19
-30
-23
20
28
-35
-27
15
-29
-23
-10
53
-26
-16
-22
-15
5
-65
3
-33
-6
20
-80
4
48
23
39
3
31
-4
22
-11
7
10
-47
21
-24
-4
-24
8
-34
-5
-11
16
49
-29
-14
-26
7
46
-18
2
-7
-53
-49
36
15
48
-12
24
75
12
54
-40
42
24
3
22
31
-33
-32
-15
64
5
40
29
-19
-30
3
14
-16
16
48
-46
22
-23
44
-15
-31
-43
-29
-49
70
-9
43
27
-44
6
9
-18
17
-2
2
12
21
-76
7
5
-51
22
36
44
18
11
-71
-29
-37
-3
-8
-9
-32
-12
-20
-16
-12
0
-59
23
-24
-30
-22
-18
3
-8
55
22
78
38
-32
-24
-17
47
9
-8
40
25
-5
32
48
-46
45
-24
-46
20
-10
-8
58
-16
4
-14
-41
62
6
15
-29
-8
-28
-29
28
-11
30
27
-1
20
42
-6
-16
-26
-13
-6
-4
22
19
70
23
-32
-43
11
14
-38
-12
1
5
-32
-18
-1
-11
-6
76
61
-7
40
-9
25
0
2
40
-12
-51
8
9
8
1
5
63
14
16
8
31
-13
-54
-72
1
4
-2
-13
33
-21
-15
-8
19
46
-29
-21
18
-28
38
29
57
45
-64
-58
54
-22
30
32
33
71
47
32
-76
62
-39
49
-26
63
49
28
8
-54
-37
-24
-46
32
6
27
36
-5
-36
25
-16
1
5
74
-63
29
-24
12
-12
-22
14
-2
14
28
-39
-12
55
13
22
0
30
-11
7
-9
-28
-24
-27
-2
21
-18
-29
-52
62
-9
40
36
13
29
10
47
-3
37
12
31
38
73
60
-48
49
-3
-19
-35
-29
23
6
50
-14
9
-12
10
14
-33
-5
11
16
-12
-29
-19
-48
32
-4
23
-10
43
2
16
-19
36
-20
-55
15
75
-59
-15
-34
-30
24
41
35
22
-10
36
5
-41
2
36
9
7
26
-43
23
-21
31
16
8
12
31
-17
-47
45
-15
18
14
83
18
-49
24
-9
3
-9
51
58
-38
50
9
-36
4
-5
26
34
-16
-12
-1
10
9
7
-16
-60
-8
39
-21
10
60
-23
51
11
14
-13
24
27
13
-10
46
29
21
23
-56
80
-56
-4
-40
94
28
-7
-7
-31
18
39
3
-48
-10
3
21
24
-43
-23
-35
14
-11
-42
75
-15
0
44
-46
18
21
9
-35
-37
25
-80
46
-32
-17
31
-34
-19
28
-26
-26
-75
-12
-17
4
-77
-17
-36
5
76
7
68
38
25
27
14
35
-36
8
-60
1
-101
3
25
-32
-27
35
27
70
41
43
-1
62
-12
-28
9
61
6
0
9
-3
-30
-50
-11
-22
-9
22
80
-6
-32
-31
23
4
-3
-39
-10
-2
60
-72
-28
-4
-23
50
-20
29
9
14
37
-29
-21
3
35
35
-37
32
48
-14
-14
-8
50
70
-13
12
-36
-84
-52
-19
-40
-53
-3
7
20
-67
106
-28
-14
-8
-29
43
-22
30
56
20
-30
32
20
-45
-27
-6
1
42
58
15
-74
-14
-10
14
-88
-14
-34
-53
-34
62
8
22
48
-38
-10
9
17
-22
52
-17
58
-6
4
42
37
-3
20
11
-20
44
25
-62
-18
-73
-17
16
-7
40
31
-16
-14
32
-11
36
21
-63
1
43
31
-5
43
-25
87
18
13
-55
55
26
-56
41
-28
11
-51
4
-6
31
-12
14
-12
11
-16
65
46
22
45
-15
2
49
59
-16
-4
50
-36
-35
-38
-35
23
24
47
58
14
-16
48
-29
-3
-45
26
9
41
-7
-91
0
31
36
-31
52
-7
-1
111
-43
46
41
-48
-58
-40
70
34
58
41
26
26
-43
-12
-26
45
24
5
7
22
9
4
14
-21
-22
43
-21
20
-42
47
-77
22
-56
-4
40
52
-47
-5
-17
-29
-54
-40
-25
5
35
68
32
6
-14
23
54
-30
40
-30
-2
-18
-41
37
-38
6
-15
34
33
30
8
-46
3
-4
16
-8
-24
38
22
7
-1
23
-20
14
22
-22
46
37
66
-43
16
17
26
-50
34
-31
-19
-10
8
78
34
-7
31
23
114
8
-26
13
-22
-5
13
33
42
25
-31
-25
11
-41
14
3
-6
3
21
-29
-13
10
-6
-13
19
21
53
-13
22
16
-25
85
12
26
-40
24
-5
-6
-31
0
26
-48
-50
-21
-21
18
35
-22
-12
-26
36
11
7
-65
-19
45
26
-8
7
-40
11
13
-52
-20
-8
25
-8
17
28
-60
39
-24
-49
-53
-32
-37
-27
-18
8
14
-36
35
-41
-17
-69
31
-15
40
33
18
10
29
-27
22
60
23
-16
-1
18
2
15
-31
8
37
35
-2
0
7
-17
35
-103
-49
33
-57
48
-10
45
14
50
13
-31
-11
-11
-12
-10
2
5
-19
-30
58
4
25
-68
-20
1
-2
-37
-20
-33
-15
-22
36
-3
-18
34
4
-39
22
-30
38
13
54
-7
18
-38
42
5
4
11
18
6
44
-28
-45
-43
48
-11
-36
22
-30
44
69
-38
-31
-40
25
47
8
-8
-58
-10
37
-36
-33
13
-49
23
24
28
-11
-28
15
39
8
33
-7
34
-85
-66
31
57
-39
2
19
-27
-35
-5
2
52
19
59
-36
28
3
-5
6
0
-55
12
35
-40
3
19
-51
-6
41
24
90
40
57
21
-1
6
22
-14
24
48
28
9
-30
40
41
53
3
-3
10
32
-61
-2
-43
-35
78
-59
-35
1
26
0
-57
32
23
14
-6
64
12
32
22
40
4
-28
38
52
24
-55
-18
-48
-4
-66
0
-10
1
11
-5
33
-6
32
19
12
23
-19
-3
7
14
86
-7
1
17
-57
2
-23
30
20
-15
-56
-14
-4
-55
-25
21
17
4
-17
6
16
70
-18
19
-16
-17
-42
25
23
56
-41
-9
24
-23
10
-62
-1
16
31
-2
-81
21
-7
101
56
4
8
19
-14
41
-11
79
0
11
6
-23
6
26
3
-14
32
6
-2
53
-55
48
-13
17
17
18
-56
4
-15
-4
97
-6
25
-61
47
-10
-13
-11
21
-12
62
37
12
28
7
1
-43
57
72
-19
73
27
-35
-25
12
20
49
30
-32
30
-3
-27
-4
-12
33
-18
21
37
-39
-2
-19
35
-58
-2
-17
30
54
6
-31
66
23
-2
9
-33
-23
46
-17
-13
-4
23
36
-47
-36
7
12
38
-23
4
37
8
-22
-25
-12
14
44
-41
36
97
-5
-68
3
40
-4
-64
-19
-4
-19
9
-45
43
3
1
23
54
62
56
-62
40
2
0
-12
-29
25
-43
-2
59
52
33
1
32
34
68
50
-27
14
42
24
-31
-10
56
66
-61
6
-2
-23
2
-13
-24
28
74
25
51
-10
-34
22
-27
-8
9
-81
2
-19
2
-24
12
41
-25
-15
-10
-14
4
-24
-2
58
-27
5
-6
-70
30
31
-14
-48
-8
-37
43
70
-8
2
-40
22
60
-35
-30
5
-15
-59
-52
12
21
-14
15
24
-30
10
-33
-5
-19
-7
31
23
-48
42
-59
41
30
59
-13
-25
18
7
-30
53
-26
-45
-13
39
43
-22
39
-2
13
18
35
45
22
-34
33
45
-25
-13
31
5
87
-16
-6
-9
47
54
-22
1
-14
-38
-35
-16
8
-16
-11
-49
-44
12
-54
54
-11
57
14
40
-50
47
65
16
39
23
13
-26
-20
50
0
-40
45
-55
-3
17
29
-63
14
32
-13
11
-22
63
14
-59
-15
-43
54
37
2
-2
-35
17
-1
31
21
-56
2
38
-47
-26
43
15
2
-4
-35
-55
-51
-55
43
0
37
33
6
19
22
-25
17
120
0
24
9
16
0
29
27
-25
16
-38
-1
-50
12
69
77
-22
13
11
86
43
9
-1
33
15
-17
-17
22
-21
-9
-31
-36
-13
-27
-3
1
-11
-1
3
10
60
26
1
-32
-77
0
16
-6
-18
38
-20
-24
-28
14
12
50
-37
50
43
-38
14
-37
-16
60
38
-36
20
-52
45
25
7
7
-11
-14
-23
11
-30
18
17
28
-13
-4
-25
-23
-17
-59
-14
-25
-7
-76
4
-59
3
-14
-16
27
-20
45
2
23
31
-79
-15
36
-22
53
-37
-15
-33
11
62
-7
-30
0
-21
-37
10
6
45
-13
52
76
-5
-44
-3
35
8
32
21
-15
-17
36
-15
-36
-25
41
1
29
-20
-8
-19
-48
-23
63
-47
-10
-36
5
60
-19
10
-12
-24
13
53
-30
8
24
-20
2
-3
95
56
0
-14
-23
34
-47
-26
-27
-14
-38
-39
8
19
-17
9
5
-25
7
-50
-48
-50
-35
-45
38
36
25
20
25
-13
69
106
-3
-24
20
19
-21
34
9
82
0
14
-63
-33
8
2
57
-20
61
2
55
62
-15
11
10
19
30
5
-14
-4
32
-9
-16
-14
-31
-11
-14
-24
0
-4
-2
58
54
-23
-73
-72
-15
34
41
-4
-63
-41
28
25
-28
-39
34
-37
41
48
-7
27
-13
-36
-35
23
-20
18
-16
68
-32
-13
17
12
5
-58
11
-14
3
28
38
-10
35
77
49
16
-26
-5
-17
29
-30
33
-42
-16
88
-49
-1
25
16
58
1
27
-43
-1
-3
-63
-17
-15
-15
-30
77
55
20
-52
21
23
0
59
-52
-19
19
-2
40
-10
-35
-34
19
-47
19
43
2
28
45
-49
8
-26
48
10
-47
-26
4
-43
-89
-55
48
-3
-10
-6
-53
75
-23
-70
-30
44
28
29
0
-1
-10
33
-1
20
2
-11
5
-16
-17
21
-43
0
10
-55
22
-40
-30
34
54
-22
23
-12
3
-64
-29
-62
-21
2
40
47
19
0
10
-9
28
43
24
20
15
12
-35
56
3
19
-17
20
24
-50
-2
-9
11
-12
-6
14
24
60
24
27
5
48
34
-39
-16
-10
29
18
-47
-6
0
18
34
-29
29
-27
-27
26
-38
22
-19
-102
3
45
15
-46
-67
-9
-18
28
-62
6
8
2
14
66
-35
-45
-12
-4
-24
45
-37
-38
31
37
-41
-20
3
-19
0
-14
-22
39
57
-15
-49
-17
38
7
-5
19
-42
43
-27
36
11
0
-50
6
60
-31
-73
-38
8
37
-19
17
-34
64
-61
9
28
12
-18
-29
38
-21
-26
-34
-2
-5
24
-20
-64
33
18
46
29
1
-48
-25
34
-37
-27
43
-67
36
35
-58
-26
-32
8
14
35
4
-23
-12
-102
-30
64
73
-4
47
-31
-34
0
25
47
52
27
-33
0
-34
-40
-9
-30
-22
-33
-21
53
-19
-55
12
7
-23
47
-56
8
-37
-9
-44
-15
31
27
-33
-7
-20
-1
10
28
34
14
38
-50
-45
-10
-14
7
20
-26
-13
-8
5
40
-4
-47
-39
-22
21
24
-29
38
40
11
25
-31
8
-9
71
44
0
34
67
26
23
-64
-40
-32
-51
11
-19
-14
50
5
43
8
19
-39
-26
-56
14
18
-73
13
-5
25
17
19
24
-35
-9
34
56
-55
-10
-36
39
21
-32
-18
78
21
65
-26
2
10
-62
-7
-39
36
-1
-17
62
-12
-12
4
-39
-26
30
3
-46
-76
-20
-2
58
47
-26
31
-16
14
-19
-8
-33
-33
-21
-28
-16
20
9
-39
5
11
56
75
12
-43
-7
-21
-6
-8
35
-36
-19
-1
41
64
20
-13
-35
-28
-61
-20
28
-36
-48
-3
6
6
69
8
-16
39
34
-6
-25
-6
4
41
-2
21
-7
27
-35
-57
46
26
7
-27
20
-29
-17
43
-11
-11
-26
-16
29
6
44
22
52
-33
3
6
-19
-16
0
-66
-16
-24
35
-20
-44
-1
-17
15
14
-61
42
13
-24
-119
21
42
10
-8
49
-3
3
51
-44
31
12
-33
-28
39
8
-21
32
53
33
-56
22
-1
-10
5
27
-11
15
5
-36
25
32
-17
-61
14
-2
36
13
47
9
5
-40
-32
-13
17
27
34
4
14
-45
-13
-21
21
70
0
-7
-8
-5
7
-9
-10
7
-54
-26
-18
32
5
-61
-13
26
78
-46
12
-51
-9
-3
8
17
20
46
56
-53
-6
-78
41
34
24
1
-12
34
11
-3
12
39
10
1
-58
17
-8
-28
-25
28
57
-1
27
41
-35
50
13
-89
42
-23
52
-5
-3
-12
5
30
3
-19
-74
-25
12
-58
6
4
-38
-21
82
-61
-8
38
2
26
21
-1
14
-42
14
-17
-38
-25
41
45
-57
36
-15
-12
4
-1
61
49
-49
-2
-37
56
37
12
-35
76
22
-47
42
-29
-25
-36
-4
6
42
20
-30
18
-46
45
45
-17
-33
-25
-3
40
-12
7
23
-34
-42
-24
21
2
-19
65
-25
-11
-51
36
18
-89
33
44
15
33
-70
-32
37
-33
-27
-22
-49
-16
-34
-39
17
32
-19
6
8
23
-15
22
-30
-58
-64
-39
-14
-2
-23
-77
-13
68
54
-18
-1
-32
-7
-31
36
20
11
22
-23
22
-43
-65
14
-5
16
82
-15
-24
-8
-24
63
60
19
-50
-16
-41
0
31
-42
-60
0
32
36
3
7
-34
9
-1
-59
-4
46
-7
21
22
63
3
26
-38
0
0
25
-7
23
-25
-46
-11
10
-17
-13
-43
-1
0
49
1
20
60
64
13
-46
22
-15
-16
-28
-7
35
-41
-9
-47
26
31
-42
11
-28
11
-20
-63
-23
3
37
-16
29
-58
18
-26
-4
-6
-32
6
-19
-7
42
-4
-64
-21
-30
22
-19
6
-47
-11
-39
-19
81
4
-43
5
36
11
5
-9
-10
-41
20
35
-41
68
-23
-39
-15
37
-20
35
17
-53
35
-23
-27
-25
-23
60
-39
-20
-31
-18
-26
15
-2
-12
36
34
6
-8
-14
-32
-8
-64
-17
-2
23
40
35
-43
-19
29
-4
-17
-17
0
-2
4
37
10
-13
-36
-45
50
-31
-45
-37
28
-3
21
36
21
-5
-18
-1
-24
36
-46
32
56
-15
56
10
76
-7
6
-40
-77
40
-18
-36
48
-16
-10
-42
44
84
32
-6
-27
-12
-19
11
-17
-52
1
42
-57
-9
-19
-63
-13
-21
-22
-40
16
-19
53
33
44
9
52
-2
-38
-23
-59
-10
30
-12
37
2
-29
5
45
56
-12
17
4
17
36
-21
25
-26
-5
61
-35
-17
-1
-8
62
9
-3
29
52
-41
-6
-2
-26
6
-44
23
15
10
22
13
-8
-17
-57
-84
-7
1
12
23
46
42
8
-19
-12
-54
65
30
5
37
24
4
29
-19
-2
74
43
-29
93
51
-8
-11
-29
14
42
34
-23
-9
-4
0
-54
-11
-28
3
19
47
-48
-41
6
14
-37
-14
39
24
-3
58
32
-10
72
-34
54
23
-67
-10
-31
-30
64
-16
45
-14
46
-23
3
9
-69
-1
-30
33
-9
-42
-20
-37
-36
-9
-23
-7
-17
33
40
-1
21
76
-10
1
25
-83
-5
13
-60
6
-38
-55
-45
-34
-22
-79
12
33
48
25
13
52
39
36
-24
46
-6
-16
36
-8
27
60
37
-32
39
-25
-36
72
42
26
14
-13
0
-5
-15
5
-25
7
29
21
60
-76
3
42
-54
2
-49
-33
-87
-50
-3
-64
-1
-4
74
-82
-7
22
-28
-15
-50
-19
7
22
-6
-35
-10
23
-50
16
-13
87
-8
-74
29
61
6
-45
-39
21
17
35
-73
17
-8
-39
-39
36
-33
-45
-30
13
-4
59
-32
53
-47
21
12
-61
28
35
-2
39
-66
-33
29
11
18
3
0
-12
26
25
67
5
2
24
50
23
7
-78
8
0
-8
-19
36
-88
10
-40
36
6
-43
33
34
41
31
-42
16
20
28
-25
-11
-29
21
11
-19
-16
-20
-11
9
-17
21
-3
-33
-43
-64
-54
-4
4
26
-46
46
-69
52
35
-50
28
16
15
27
4
-46
9
-23
-36
-74
16
-35
11
0
-2
43
2
-16
5
-4
-4
-23
34
20
36
-16
47
-31
-4
-14
-11
42
-23
18
35
3
10
21
-93
-14
-48
15
-21
20
49
-13
50
-23
19
24
-41
35
-36
5
56
-53
-56
-52
29
8
45
42
14
-17
57
34
43
-29
-32
-14
5
11
11
58
-37
29
-29
-33
28
-5
-11
29
4
-2
29
-49
-23
26
57
-12
-42
-38
-7
-14
39
38
6
5
44
22
4
-42
7
40
9
-59
49
24
5
-31
-69
-84
3
38
7
16
-4
13
-50
-13
32
-18
1
9
13
10
-50
28
-28
-3
20
39
4
-34
9
-39
55
-49
3
-45
-28
25
14
20
-75
-9
46
-16
-48
10
-27
34
-2
36
6
7
-31
-67
6
-45
-86
-9
-16
20
20
-35
-2
-31
-10
-9
17
1
-6
-27
-26
5
-5
-18
-23
-11
-42
-2
-8
3
64
27
-34
-2
-32
-19
-21
-26
3
-2
14
-20
-77
9
13
-14
16
-17
31
-29
-45
-21
-46
-12
41
44
16
-31
-11
15
-15
-29
-79
-11
3
3
-48
-65
14
44
64
-20
-6
32
14
28
45
-47
35
-40
45
-1
-39
29
12
-22
15
-36
22
-18
-26
24
61
12
-4
26
24
-47
27
17
-33
20
-7
-15
-31
-14
20
50
2
43
12
-41
-12
-5
22
-18
-15
49
-68
32
51
21
7
32
28
18
65
9
47
54
24
-10
27
43
-16
-10
24
-24
23
-86
-26
-6
-6
103
-35
-10
-66
24
-32
-35
16
-8
-7
-40
-31
27
35
15
-17
0
-49
-8
52
-15
15
-39
21
15
14
-22
3
-10
20
-21
-12
11
19
82
-47
52
38
50
32
-4
82
59
-30
-39
-1
-17
13
17
-46
3
-4
2
18
24
-15
58
0
-39
13
-41
15
6
-40
33
-8
17
17
-1
0
20
-58
2
-48
-58
18
11
3
14
3
10
-32
26
-58
-2
34
-2
6
53
27
8
13
9
5
-71
-36
-2
-6
-55
3
38
-4
6
36
-15
-22
74
-2
-23
10
-83
53
-12
-44
29
-9
-42
-29
9
-10
-2
-32
-29
45
13
-22
-10
-15
-5
-57
27
-37
-6
36
-96
-29
22
-20
10
-37
44
38
-50
-22
-11
44
-48
30
14
59
12
39
47
-45
-41
-23
-14
-17
-3
-51
-17
4
45
-30
-12
-9
43
7
-23
14
-12
37
-59
-26
13
23
-21
-40
-22
1
-9
-2
30
-8
-17
43
49
50
-14
-16
47
4
-43
-14
-20
77
-82
-55
-89
-28
34
41
-35
-22
-37
21
2
-74
-26
46
-9
4
1
18
12
-14
-59
-2
68
3
-1
0
21
-20
17
30
32
-22
10
-17
-48
-3
-13
41
-35
-34
5
-39
78
13
-45
-14
30
30
32
-31
-15
52
2
8
-9
-30
55
-22
-54
39
40
23
-20
6
-21
25
26
3
-18
18
25
-64
33
-28
-27
-5
26
33
44
-42
-36
-62
20
-9
3
-15
13
43
-83
47
-4
-37
22
5
50
26
28
5
15
-11
35
-17
-29
-38
30
-30
-31
-17
-38
15
-27
-18
-42
14
25
-5
18
-10
-2
34
36
18
-7
18
-11
-6
10
16
16
-59
-39
68
73
23
8
-22
10
28
-17
-21
-8
-1
-20
-14
-31
13
-35
34
-24
15
-28
-27
47
-11
-23
19
-19
-14
8
-8
-22
23
28
23
-21
52
21
-6
23
5
-12
26
48
14
52
-6
11
-18
23
-3
12
12
30
-3
-3
-43
16
-25
-39
38
-3
44
77
35
40
14
27
-32
-27
-3
47
-11
-10
19
-35
-59
-14
50
-2
-53
-27
52
-20
-48
37
3
-14
16
-8
-13
37
-27
-1
16
-24
27
19
-45
-15
37
17
29
4
6
13
32
-40
54
33
-19
-32
-43
32
-38
-24
-36
-35
46
-24
-17
3
-37
1
36
-48
-18
55
6
14
-42
9
-8
22
-17
-13
27
-2
-9
10
-31
-36
39
-9
6
-21
-48
-4
56
-2
-41
44
12
17
-22
-37
52
10
-2
-42
28
-14
-19
40
-63
9
12
-54
-12
-15
-39
-19
10
-27
-3
2
-24
27
-5
43
13
1
2
8
15
2
-22
8
8
-86
46
-5
8
32
-17
27
-2
1
22
6
35
17
5
-91
12
0
82
-31
18
10
-11
16
-18
38
20
-27
41
52
-28
-31
-6
33
40
-2
-31
-10
4
-25
-23
-34
-21
-15
2
-34
-6
-55
-36
-31
45
-32
-34
-43
-11
13
-24
-32
39
31
-24
28
19
-42
-13
-14
-74
-83
-48
17
-26
16
-2
7
-18
-8
52
-1
8
45
11
18
40
13
4
49
39
0
5
53
-7
14
25
-40
12
-8
-102
-7
62
0
41
-12
-30
-14
-37
29
23
-14
48
-53
-35
-73
33
7
65
21
-26
28
-24
10
-21
-35
8
-42
65
1
30
-17
-16
28
21
47
70
-13
-6
-17
-45
7
40
7
-14
-12
-32
-8
-20
20
79
-5
-3
44
-80
11
43
-40
34
66
-12
34
-16
-17
15
58
38
-15
47
-26
36
9
13
-32
48
-41
0
65
-7
81
6
-33
41
96
23
-28
-22
-1
5
-42
17
-8
-29
47
-14
-19
5
-52
12
14
-7
24
-84
-90
-13
-27
31
14
-39
31
-11
-3
-11
8
44
-60
-41
71
-15
-1
-26
61
-4
16
36
28
-32
28
-44
11
28
0
-29
-8
41
-13
4
-12
-9
0
-20
9
32
-44
-26
-23
17
-14
-7
15
29
-20
-54
-62
-6
1
35
-32
18
15
-73
-3
-44
5
9
32
-29
-13
-31
15
-4
24
0
-16
-21
50
65
17
-36
32
0
34
-23
47
29
6
-8
11
-50
-50
65
50
47
10
8
18
-7
-37
54
-21
3
41
-29
-48
-55
4
3
74
12
32
4
13
-9
61
-49
-14
30
0
-15
-6
73
-42
3
48
30
-23
-30
-20
13
29
-6
27
47
29
-6
27
40
-1
-15
15
-12
-30
-23
-24
59
-21
19
30
34
26
-18
16
0
-65
-49
-41
-70
22
5
-35
15
-56
-41
-11
-28
24
11
-12
35
-57
54
-7
-1
-49
-19
-23
8
36
89
81
45
28
23
-24
-12
21
-42
-7
-71
8
-53
21
32
-30
11
12
34
-17
10
-13
-28
9
50
9
9
-4
66
-59
25
34
-22
12
11
-14
-40
-19
-14
-17
-34
20
32
19
7
-33
44
-67
4
-23
-20
32
11
-6
8
7
58
35
-66
-28
-10
42
-21
34
5
-49
16
-9
-37
0
49
50
10
-21
4
24
37
-70
-49
-4
42
-12
25
45
-30
-53
-4
0
-7
-64
-31
-30
-10
-22
26
49
45
-23
-11
56
-22
-15
72
-34
9
54
32
-38
13
-8
-38
-10
22
-17
5
26
-58
-23
-85
-30
3
88
-18
-6
-33
52
-31
41
-39
-20
35
-12
-10
23
47
-19
8
15
-28
31
-36
8
2
38
11
-26
11
15
-4
1
23
-43
-16
-23
-52
-26
-52
-36
-17
37
6
-7
54
-7
3
-20
-28
-58
11
-30
-6
53
4
-30
1
-28
-9
3
-22
-34
40
-36
27
4
59
42
37
-25
-47
40
75
-24
-18
24
26
14
-17
-22
13
34
-34
-6
-7
4
22
4
11
-3
-2
-10
36
5
9
-3
-32
-44
36
-31
-1
21
14
-44
54
35
-38
-16
37
40
-61
20
29
4
44
35
39
-7
54
2
-44
-69
20
-11
-31
23
-18
-18
-22
46
21
-7
-6
-21
38
77
-2
65
-24
-58
-17
19
-88
31
15
54
0
-33
16
61
-7
-49
-96
10
7
20
45
79
24
-11
-37
4
84
15
-11
-2
31
9
24
10
37
-36
-28
-5
-20
8
44
-23
49
-18
17
-29
22
-32
-32
9
19
-27
15
-14
19
-22
3
-15
-1
7
44
21
18
-3
35
54
-23
5
11
-15
-34
-25
-9
-29
22
27
-36
11
21
19
52
-30
12
24
-23
70
-20
26
28
-52
23
-31
0
-58
42
-81
-26
79
-23
34
-4
12
61
37
15
18
-4
28
-11
4
31
23
6
23
-29
29
8
-30
66
8
1
34
36
49
13
19
27
45
78
-14
-12
4
-44
-24
19
18
3
-4
13
13
-3
-27
2
27
-41
-13
7
-49
12
-19
59
51
-1
15
-6
-13
7
-5
62
-27
14
54
-44
-36
-14
-12
17
44
-30
57
64
59
-26
-66
-16
10
-27
23
-22
21
7
33
27
2
22
31
18
23
23
59
9
10
37
3
-49
-41
-19
-10
-33
-4
-2
52
44
63
-10
13
-7
-8
17
7
15
-8
41
-29
-35
-11
11
55
35
17
-20
2
67
36
0
-32
-6
-43
-6
-38
-27
85
18
65
-36
-46
59
-62
57
-38
16
-10
8
26
-15
7
47
8
-67
-24
-20
29
25
10
-70
-23
4
11
-33
-34
20
54
-61
-26
-15
35
-48
3
-22
49
-56
-24
29
-17
53
33
-7
16
38
35
31
-40
-26
-27
37
-33
-34
6
1
80
-11
-3
-18
-59
61
-8
32
23
4
25
53
41
20
55
-17
56
0
-52
-10
10
-13
15
6
6
-2
31
-35
50
4
41
19
-67
34
-11
0
-62
4
21
-15
5
30
-11
37
-31
-15
2
10
-8
-13
-34
-25
28
29
-38
-25
3
-21
77
-19
11
-24
42
37
-47
29
2
57
6
-24
-24
-21
-1
38
42
-31
-67
49
-21
29
-16
46
-13
8
-18
3
17
47
32
-20
-3
36
38
-36
54
-35
-83
-35
-5
28
-17
69
3
11
25
-9
1
29
-15
-1
-33
-1
73
-25
-31
45
4
6
4
28
23
32
22
6
-4
-44
6
-15
-9
-14
16
24
51
17
-25
-7
30
-26
21
36
18
19
-39
12
5
99
41
-19
-38
-24
-14
-1
-29
-20
1
53
-67
13
53
11
46
68
44
-15
0
-22
15
11
-27
32
48
-42
13
34
-39
24
11
12
12
-49
-13
32
-7
-53
29
4
-16
-2
32
7
41
9
10
-1
-2
20
-30
57
-13
5
-23
-17
48
-13
-30
27
68
-27
17
-42
-45
-38
-18
38
19
26
-49
105
-75
-37
-9
26
22
25
-25
-47
43
-41
-7
5
57
18
27
22
-11
-14
16
19
40
-1
-18
22
31
-53
33
-5
25
24
-76
-63
10
0
6
-26
-27
44
-32
17
3
-19
-16
7
50
-33
-39
40
43
-21
29
-44
-26
-1
36
7
30
-17
15
-38
-51
-5
-23
51
0
-44
43
-38
36
-51
-42
-37
-23
80
25
36
-22
-10
-21
-35
-52
66
-1
51
2
2
-86
3
-5
27
-39
-38
-29
7
16
12
-24
-9
12
-34
22
10
4
-36
-23
56
31
-13
35
-53
-12
-12
28
-35
-41
-19
51
25
55
-23
20
67
-15
-25
-48
-9
