-0.01815368
0.01712000
0.03440892
-0.09061606
-0.09961139
-0.08308167
0.02666028
-0.07958527
-0.09226739
0.00991433
-0.01945185
-0.07429831
-0.02548229
0.00581179
-0.00512555
-0.04156739
-0.09029938
0.02270705
-0.10883520
-0.03877232
-0.10396939
0.00151473
-0.11233352
-0.03988315
-0.10110494
0.03552530
-0.07624964
0.01569609
0.01298000
-0.05258881
-0.01246868
-0.02750151
-0.08999481
-0.06287161
-0.06458282
-0.05277836
-0.03852635
-0.06411219
0.00229307
-0.02382887
-0.05290801
0.04207221
-0.06499986
-0.01858454
-0.03446585
-0.11079768
-0.05811180
-0.00572279
0.01216554
-0.00560091
0.02977565
-0.01103306
-0.08832539
0.02163699
-0.03702461
-0.05421116
-0.10112990
-0.00772663
-0.05087112
-0.01283452
-0.10590437
-0.00822413
-0.01196302
-0.04376155
-0.04065683
-0.05612884
-0.04151468
-0.07792000
-0.03800714
-0.00114556
-0.00527229
0.01526338
-0.02594302
-0.09881014
-0.08219229
-0.03214791
-0.00667864
-0.08044676
0.01847613
-0.02852922
-0.10009170
-0.04437623
-0.10257186
0.02250654
0.03153533
-0.04050568
-0.01267300
-0.10222418
-0.01525065
-0.10190652
0.01596476
-0.00233634
-0.09963880
-0.05397758
-0.12780838
-0.02431453
0.01936049
-0.00732164
0.02294075
-0.03755298
0.00479688
-0.05974401
0.01153169
-0.03419279
0.04442692
0.00176941
0.00456851
-0.03238964
-0.06422056
-0.09800698
-0.03064111
0.04541892
-0.00300434
0.02680550
-0.10156015
-0.03019859
0.02860223
-0.08009572
-0.01387593
0.03862145
-0.10266604
-0.11742769
-0.02888158
0.01716008
-0.03182681
-0.03984698
0.02540131
-0.08918631
0.02337748
0.04514457
0.00179897
-0.02543852
0.00608728
-0.09018292
-0.03688408
0.03988147
-0.09336191
0.02809145
-0.04453325
-0.07276500
-0.05282416
-0.06721273
-0.05150334
-0.00042750
0.00208206
0.03334015
-0.05524970
0.01604505
0.00097238
0.02246732
-0.07870951
-0.06532258
-0.07980945
-0.01272493
-0.02371016
-0.03025070
0.03261759
-0.01770304
0.01047946
-0.04572278
-0.00042181
-0.02336766
0.04276469
-0.11048504
-0.03532725
-0.06156462
-0.02496798
-0.00037505
0.00782577
0.00713213
-0.09659968
-0.05084975
-0.09421516
-0.11236212
-0.02399175
-0.02662910
-0.02561546
0.04172643
-0.07832340
0.01765786
-0.06117895
0.02919806
0.00929398
-0.03504522
-0.04994169
-0.04775556
-0.06256887
-0.03471162
-0.09264517
-0.05184976
-0.03324748
-0.01911537
0.01718060
0.02957437
-0.05041327
0.04487703
-0.04069558
-0.03670328
-0.04960069
-0.04997644
-0.07713231
0.03957289
-0.01255449
-0.05063665
-0.02603833
0.02264392
-0.11181679
-0.00796226
-0.08264556
-0.03328128
-0.07399693
0.02022519
-0.03477078
-0.04342028
-0.00350442
-0.03652428
0.03688098
-0.02601315
-0.04015875
-0.03374346
0.03448690
-0.00625230
-0.05139278
0.00691118
-0.03186644
0.04029275
-0.01467887
0.00910029
0.03822925
-0.05856721
-0.02702403
-0.01805053
-0.05178727
-0.01760680
-0.03276317
-0.05912312
0.02550902
-0.03720326
0.00219063
-0.05920272
-0.10691153
-0.09748686
-0.06009996
0.04985675
-0.01024226
0.00519015
-0.02436781
-0.03658561
-0.07417434
0.01510315
0.00022108
-0.03574825
-0.00271558
0.03159492
-0.05544502
-0.08557829
-0.06557542
-0.09125514
-0.09486622
-0.06243300
-0.05381288
-0.03388058
-0.02138715
-0.05494941
0.03769858
0.04469554
0.01652799
0.03259932
-0.03129677
-0.04376682
-0.03532643
-0.05532994
0.02982269
-0.02103366
0.01900610
-0.07470766
-0.04350539
-0.04279774
-0.07992227
0.03366645
-0.02941048
-0.08592153
-0.01822793
-0.11122586
-0.00157413
-0.06135029
-0.02801387
0.03216486
0.00381485
-0.03270201
-0.01347399
0.02521879
-0.03516738
-0.08616330
-0.02677284
0.02090169
-0.04843872
-0.07284484
-0.07949849
-0.07675896
-0.07469469
-0.04269182
-0.04177035
-0.01955452
-0.06551538
0.02886632
-0.09350396
-0.11089502
0.00751485
-0.10055289
0.00683338
-0.05934487
-0.04041607
-0.11460389
-0.07089455
-0.05067918
-0.09656133
-0.01872342
-0.00871267
-0.06407791
-0.07811605
-0.13115540
-0.04601933
-0.01323794
-0.02815138
-0.07992197
-0.06726612
-0.00932025
-0.01611040
-0.08026860
-0.04622038
-0.01706642
-0.01715942
0.00868333
-0.07756931
-0.01438758
0.03113349
-0.00086188
-0.06349558
0.00595818
0.02422782
-0.02550354
-0.07285079
-0.04328815
0.04207433
-0.00022780
-0.05570079
0.00061466
-0.02805026
-0.00529164
-0.03687979
0.01596658
-0.01770789
-0.05243542
-0.07114236
-0.05865236
-0.01091103
0.04544736
-0.02471532
-0.01237432
0.00488458
0.01500696
-0.06069966
-0.10928894
0.02707531
-0.04256267
0.01106785
-0.03434438
-0.04798957
-0.03816539
-0.05335321
-0.02600627
-0.04359864
-0.00863007
-0.06756534
0.05618544
-0.04877904
0.01950331
-0.02420131
0.03614733
-0.10557994
-0.04072989
-0.09886296
-0.01234136
-0.03412497
-0.03709416
-0.11429589
0.02845350
0.01630729
-0.05171056
-0.01998777
-0.04223702
-0.00310180
0.02504768
-0.04956793
-0.07692898
-0.03931709
-0.00046590
-0.03686198
-0.05234857
-0.07549911
-0.00301052
-0.10363410
0.02223367
-0.00762399
-0.02310440
-0.10018536
-0.00978135
-0.04501686
-0.05677294
-0.01218511
-0.01164831
0.03973163
-0.09418979
-0.10276164
-0.10565073
-0.06235380
0.01116603
-0.09694323
-0.01330368
-0.08927976
0.00656067
-0.09445486
-0.05997390
-0.03870562
-0.00109719
0.03426577
0.02714298
-0.08434943
-0.05320781
-0.03624782
-0.03250824
-0.03314248
0.00632235
-0.04978508
-0.03356150
-0.06937355
0.02398254
-0.07461504
0.01277677
-0.06101871
0.02605472
-0.07421211
-0.01730776
0.04386300
-0.02686616
-0.03399564
-0.03899930
-0.11636705
0.03408444
-0.11638708
-0.07124146
-0.00641639
-0.00528163
0.03750135
-0.00346410
-0.02237374
-0.08211721
0.02645761
-0.02911629
0.02271808
0.00225009
0.01798049
-0.05075394
0.03219200
-0.07089075
0.03165165
-0.05404154
-0.00253304
-0.06222178
0.00675768
0.02447239
-0.03885287
-0.04935005
0.03056970
-0.03149487
0.02176353
0.00346635
-0.10138418
-0.03889812
0.02999036
-0.06027220
0.00205700
0.00070290
-0.05306659
0.00098154
0.03320387
-0.00279811
-0.07758309
-0.08425429
0.01433345
0.01746770
-0.10925582
-0.08386833
0.00425212
0.01766762
-0.07962237
-0.09578621
0.01436156
-0.06086171
-0.04393021
-0.03610123
-0.08078442
-0.03551369
-0.00409462
-0.08605143
-0.05939437
0.03715598
-0.11204845
-0.03926239
-0.10413695
-0.04353889
0.02075146
-0.08401196
-0.01157585
-0.08749597
-0.01731778
-0.05307778
-0.03519226
-0.03821589
-0.08198799
0.02052224
0.01680895
0.02526490
-0.06327974
0.01750218
0.00263794
0.02362642
0.03318254
-0.02606594
-0.02084675
-0.08773789
-0.04595026
-0.08752500
-0.08477153
0.00400583
0.05125982
-0.04784140
-0.03965568
-0.03317355
0.00373776
-0.03203775
-0.01016152
-0.01469684
-0.08397561
-0.06044056
-0.03250299
-0.00081693
0.00843255
-0.01711821
-0.02285066
0.00488343
-0.06037690
-0.11924779
-0.07271991
0.01162887
0.02100331
0.02710843
-0.08988307
0.01941878
-0.06178863
0.03223168
0.00372932
-0.06475202
-0.07594430
-0.04926806
-0.06957890
-0.08983869
-0.08955292
-0.10149799
0.02519163
-0.08559230
0.00655053
0.02427568
-0.03954554
-0.02866852
0.00516664
-0.00835873
-0.09562028
-0.01951575
-0.04096077
0.03641123
-0.02484804
-0.00332356
-0.07717901
-0.00705324
-0.10031238
-0.04681365
-0.05370368
-0.08528064
-0.03827696
-0.02768744
0.01048721
-0.03652151
-0.07012006
-0.00859358
-0.07619038
-0.04240197
-0.02490003
-0.05151532
-0.01785653
0.01369658
-0.09510098
-0.11392031
0.01353815
-0.00670988
0.02664140
0.00046321
-0.00633891
-0.09950929
0.03638892
-0.07515223
0.00107217
0.00786000
0.00145467
-0.00554402
-0.03263286
-0.02951599
-0.10130327
-0.01893946
-0.00434300
0.03030259
-0.07235831
-0.02642140
-0.05951094
-0.05445361
-0.05866151
-0.00702937
-0.07005206
-0.00420447
-0.07095890
-0.02266980
-0.00467037
-0.00554681
-0.01792586
-0.04010223
-0.10775542
-0.05901479
-0.06657849
-0.06699978
-0.06063516
-0.04188553
-0.09207890
-0.03788031
-0.06111898
-0.03861795
0.02735720
0.02243512
-0.06129076
-0.09328531
-0.02570785
-0.00530853
-0.00356403
-0.08317313
-0.01953886
-0.07143915
-0.00420919
0.03009945
-0.05670602
-0.04436402
0.04196689
-0.08299284
-0.00300092
0.01312809
0.03082921
-0.03037936
0.03440847
-0.05135839
-0.05995058
0.00042172
-0.04443967
-0.07970701
-0.00741667
-0.02296489
-0.03008407
-0.02615816
-0.04540673
-0.09680647
0.02885727
-0.07718067
0.02713590
0.03533770
-0.04709749
-0.07977711
0.02100841
0.03129689
-0.03947970
-0.06136588
-0.01475245
-0.02131813
-0.09717312
-0.02919081
-0.09814835
-0.05342257
0.02400628
-0.08075193
-0.10101654
0.00354406
-0.05140487
-0.02567820
-0.03134342
-0.09587856
-0.01830237
0.01429064
0.03943336
-0.02881180
-0.10122985
-0.06670670
0.04000013
0.00676099
-0.07388906
0.00691131
-0.09982490
-0.02327332
-0.00549602
-0.06228802
-0.00380349
-0.07055427
0.00101486
-0.09210020
-0.01949921
-0.02790643
-0.05575619
-0.01035661
-0.01758112
-0.07127152
-0.00727397
-0.08892331
-0.09557329
-0.08455130
-0.01171636
-0.04300553
-0.05808733
-0.08081474
0.03060697
-0.05084137
-0.03307920
0.01607332
-0.06946600
-0.06635924
0.02210370
-0.10791951
-0.08943686
-0.01230698
0.02031655
0.04040008
0.02903596
-0.10448801
-0.02261587
-0.02882911
-0.01925265
-0.02352413
-0.08077833
-0.10361317
-0.03823287
-0.08020171
-0.10339890
0.00080766
0.01444476
0.00251243
-0.04774261
0.03936932
-0.07262418
-0.09196761
-0.00722651
-0.03387038
-0.01465041
-0.01312871
